#ifndef RecoTracker_LSTCore_src_alpaka_NeuralNetworkWeights_h
#define RecoTracker_LSTCore_src_alpaka_NeuralNetworkWeights_h

#include <alpaka/alpaka.hpp>

namespace ALPAKA_ACCELERATOR_NAMESPACE::lst::t5dnn {
  ALPAKA_STATIC_ACC_MEM_GLOBAL const float bias_layer1[32] = {
      0.8381023f,  1.2556465f,  0.0067099f,  -0.0357693f, 0.1169101f,  -0.0153113f, -0.0846093f, 0.7797670f,
      0.9055398f,  0.1665114f,  -0.0550796f, -0.0567238f, 0.0941665f,  -0.1216114f, -0.1699734f, 0.2718568f,
      -0.0005298f, -0.1234800f, 0.4162073f,  -0.0819755f, -0.0992466f, -0.1968698f, -0.9469606f, 0.5872037f,
      -0.1228067f, -0.4750639f, -0.4919112f, 1.5527098f,  -0.5490310f, -0.1912438f, -0.0286376f, -0.2222957f};

  ALPAKA_STATIC_ACC_MEM_GLOBAL const float wgtT_layer1[18][32] = {
      {-1.3590021f, 0.6276954f, -0.1449918f, 0.0577370f,  -0.1576955f, 0.3870811f,  -0.0306186f, -0.7776857f,
       -2.4529552f, 0.1741910f, -0.1386530f, 0.1470326f,  -0.0229899f, -0.1953953f, -0.0866006f, 0.2343440f,
       -0.0381602f, 0.0025981f, -1.5493799f, -0.1535862f, -0.2149696f, 0.1132401f,  1.0470828f,  0.2647061f,
       -0.0883747f, 2.9208860f, 0.6330654f,  -0.3167520f, -0.0053264f, 0.1200040f,  -1.4732890f, -0.0641288f},
      {1.5409008f,  -0.2445420f, 0.5728381f,  -0.0224280f, -0.2209680f, 0.3975667f, 0.1514053f,  -0.3518175f,
       1.8653508f,  0.1703563f,  0.0541671f,  0.0707710f,  -0.1296598f, 0.0166212f, -0.2231757f, -0.2298288f,
       0.1515491f,  -0.0877527f, 0.0267650f,  -0.0166315f, -0.1833107f, 0.2135980f, 0.4585742f,  0.0545256f,
       -0.1238023f, -3.6342409f, -1.5667412f, 0.7584751f,  1.5726668f,  0.1195947f, 2.2186098f,  -0.1959659f},
      {-1.6374129f, -1.4102328f, 0.8131387f, 0.0225332f,  -0.0153069f, 0.0299461f,  -0.1091296f, -0.0160365f,
       -1.6576413f, -0.1978515f, 0.0032953f, -0.1085755f, -0.0581009f, 0.1631211f,  -0.0659636f, -0.3528317f,
       -0.0149552f, -0.0938201f, 1.6130958f, 0.1513250f,  -0.1115365f, 0.0593220f,  3.0901117f,  -1.3332770f,
       -0.1110921f, 2.0363133f,  2.6538639f, -3.6059115f, 0.7219769f,  -0.1640888f, 0.7755069f,  -0.1108092f},
      {-0.2936167f, 6.1980624f,  -0.4599009f, 0.0311129f, 0.1828872f,  -0.2142502f, 0.2085699f,   1.6321551f,
       -1.1880305f, 0.1927557f,  -0.1985132f, 0.0887561f, 0.1714940f,  -0.1827505f, 0.0312042f,   0.3490315f,
       -0.0019204f, -0.0948882f, -3.3440456f, 0.1356649f, 0.0992870f,  -0.1688469f, -11.9658194f, -0.0076418f,
       0.1754400f,  1.0275215f,  -1.7420135f, 0.2945143f, -1.4503033f, -0.1764025f, -0.8626893f,  -0.1650196f},
      {0.6450894f,  -0.2659193f, -0.0554443f, -0.1571963f, -0.0717938f, -1.6951908f, 0.0990743f,  2.6783466f,
       1.5408627f,  0.0354736f,  -0.0042377f, 0.1060356f,  -0.0842549f, -0.0162483f, -0.1908853f, -1.7604783f,
       -0.0874540f, 0.0929945f,  0.3855971f,  0.2271341f,  -0.0265867f, -0.0940968f, 1.6492866f,  -1.1620234f,
       -0.0054144f, -7.9476857f, 0.6742283f,  3.6346674f,  0.1277585f,  -0.1252134f, 2.7238610f,  -0.2227236f},
      {-0.7608751f, -1.3364639f, 0.2793101f,  0.0671013f,  -0.1188807f, 0.3691385f,  -0.1549930f, -1.0517840f,
       -1.2893225f, 0.2082838f,  -0.0334609f, 0.1394186f,  0.0161169f,  0.0812546f,  0.1173968f,  1.2311919f,
       0.0236558f,  -0.2817375f, 1.3230846f,  0.0783550f,  -0.2084638f, 0.1807853f,  -2.1035442f, -0.4654399f,
       0.0235591f,  3.9155247f,  1.3587128f,  -4.2010083f, 0.6350310f,  -0.0052448f, 0.6574754f,  0.0686782f},
      {-2.7833683f, 10.2854757f, 4.6338739f,  0.0240941f,  -0.0696120f, -0.3897463f, -0.1248256f,  -0.4816284f,
       -4.7507734f, 0.1557197f,  0.2135302f,  0.0618758f,  -0.2073696f, -0.1496306f, 0.0877262f,   2.5853217f,
       -0.0422003f, 0.0184724f,  -3.8206606f, 0.1141581f,  0.1459169f,  0.2033599f,  -11.1376858f, -1.9455458f,
       -0.1760101f, 8.7950487f,  0.6831748f,  -9.6213007f, -1.1076751f, 0.1012195f,  2.7658327f,   -0.1416854f},
      {0.2418604f,  -1.9301127f, 0.3877483f,  -0.0933844f, 0.0126722f,  -1.0790098f, 0.1009928f,  3.7290661f,
       2.1045575f,  0.1211392f,  -0.2160725f, -0.0462994f, -0.0852768f, 0.1915723f,  0.1689342f,  -1.3557134f,
       -0.0077365f, 0.1614280f,  5.2128477f,  0.0722612f,  -0.0341569f, -0.1447665f, -3.7722759f, -1.0395907f,
       -0.0527294f, -3.9730494f, 2.6421480f,  0.9249437f,  0.1579958f,  -0.1002075f, 1.7829212f,  -0.2132620f},
      {-0.2429990f, 0.2634341f, 0.2590226f,  0.0672474f,  0.0036324f,  0.0303038f,  0.0897552f,  -0.6256298f,
       -1.6122288f, 0.0027225f, -0.1595401f, -0.0935275f, -0.1982563f, 0.0155485f,  0.1946360f,  1.4213501f,
       0.0137804f,  0.1520022f, 0.9409513f,  -0.1742253f, -0.1503127f, 0.0523944f,  -0.0227176f, 0.3040073f,
       -0.0240107f, 1.0642775f, -1.0194819f, -2.0675447f, -0.0253559f, -0.0036589f, 1.4283713f,  0.1586476f},
      {-5.0235038f, -18.3295002f, -5.7430124f, 0.0443320f,  0.1303882f,  0.4247405f,  0.0121365f,  -4.8916097f,
       0.9041749f,  0.1742271f,   -0.2020964f, 0.1310671f,  -0.0256758f, 0.1279234f,  -0.2113014f, 1.5976193f,
       0.0230461f,  0.3957245f,   15.0924625f, -0.0339573f, 0.2194625f,  0.1601087f,  4.2093749f,  -1.7748410f,
       0.0570550f,  -3.7076390f,  24.7426872f, 10.6664305f, 4.9739928f,  -0.1869711f, -3.9020858f, -0.0625287f},
      {-1.2785814f, 0.4951370f,  -0.1854935f, -0.0854860f, -0.0326400f, -1.4217318f, -0.0526660f, 2.3796616f,
       1.1375890f,  -0.1294750f, 0.1514099f,  -0.0875889f, 0.0334763f,  -0.1046284f, -0.1509691f, 1.8961424f,
       0.0482185f,  0.1560478f,  1.1729040f,  0.2059654f,  -0.0396296f, 0.0583655f,  0.2114737f,  1.1078014f,
       0.0713762f,  -5.2123141f, 3.3188431f,  -1.5417687f, -2.2969320f, -0.1852825f, 1.5388242f,  -0.1949441f},
      {0.3436254f,  1.5141397f,  0.3445305f,  0.0537090f,  0.0983261f,  0.2764109f, 0.0450150f,  0.3694516f,
       -0.1495358f, 0.0250220f,  0.0863517f,  0.1613176f,  0.1065962f,  0.1730740f, -0.0821967f, -0.8726079f,
       -0.0041691f, -0.0050251f, 1.0713325f,  0.0622442f,  -0.0212901f, 0.0256977f, 0.0212109f,  0.4948872f,
       -0.0750605f, 1.9991436f,  -6.2873325f, -1.7726667f, 0.0714888f,  0.0387835f, 0.3844735f,  -0.1025873f},
      {13.7695932f, -17.3070316f, -0.0396740f,  0.0129914f,  -0.1876401f, 3.8251970f,  0.2313863f,  -5.4996729f,
       14.7995348f, -0.0461617f,  -0.1183308f,  0.0492157f,  0.0139761f,  -0.1253950f, -0.0316143f, -11.3720646f,
       0.0372201f,  0.0982849f,   -1.5191002f,  -0.1424744f, -0.1819868f, -0.2320994f, 4.2790890f,  -0.6142485f,
       -0.1854810f, 0.5198026f,   -18.9082165f, 8.7000732f,  4.5243855f,  -0.0778345f, 2.4486756f,  0.0691332f},
      {0.0951613f,  0.9556295f,  -0.2075231f, -0.0207790f, 0.1411675f,  -0.7328303f, -0.2109708f, -0.0570228f,
       -0.5559142f, -0.0610400f, -0.1140115f, -0.2104663f, -0.1170108f, -0.0814055f, 0.2027502f,  0.6474348f,
       -0.0218391f, 0.0668279f,  0.3389186f,  0.0271586f,  -0.0642117f, 0.0128125f,  -0.6837727f, -0.2763188f,
       0.0651659f,  -1.6473349f, -0.4024041f, 0.6453164f,  -1.8239625f, 0.1908238f,  0.3040223f,  0.0225411f},
      {0.4597256f,  1.3507527f,  0.4121956f,  -0.0016478f, 0.1683506f,  -0.1844230f, 0.1416871f,  -0.3610686f,
       -0.3396192f, -0.0093597f, 0.1620043f,  0.0136876f,  -0.1921590f, 0.2109465f,  -0.1422910f, 1.5516689f,
       0.0199380f,  0.0875053f,  -0.8301335f, 0.0079493f,  -0.0684538f, 0.0361081f,  0.4911018f,  0.4027354f,
       -0.1420899f, 0.9741972f,  -0.2662143f, -1.0193604f, -0.3064712f, -0.1355691f, -0.1211660f, -0.0860424f},
      {0.0226056f,  0.0887831f,  1.8112129f,  1.6017252f,  -0.2053973f, 1.1942143f,  -0.0789642f, 1.8492327f,
       -1.7628566f, -0.1820963f, 0.1481515f,  0.0491807f,  -0.1601979f, -0.0944827f, -0.0244225f, 1.4816471f,
       0.0817022f,  0.1168359f,  -0.3918689f, -0.0036699f, -0.1226492f, -0.1818991f, -0.1200486f, -1.8239323f,
       -0.0273595f, 0.3133134f,  0.3980505f,  -0.3074540f, -1.6801124f, 0.0689322f,  -1.5872164f, -0.0232152f},
      {-1.4185179f, -0.0736576f, -1.8146720f, -1.6101750f, -0.2238937f, 0.8144313f,  -0.0773187f, -2.1662028f,
       0.5510010f,  -0.2138556f, -0.2583132f, -0.1989928f, 0.0310343f,  -0.2301474f, -0.1509903f, -0.0908552f,
       1.6234847f,  -0.2726549f, -0.0519968f, 0.0002568f,  -0.0989678f, -0.1076209f, -0.1692470f, 0.7444451f,
       -0.1140423f, -0.4251049f, 0.7397567f,  0.0376131f,  0.1935069f,  -0.0884010f, 1.0571744f,  -0.1094984f},
      {1.4048315f,  -0.7603406f, -0.0600279f, 0.0053667f,  -0.0833659f, -1.8888202f, 0.0453878f, -0.0496936f,
       1.5723938f,  -0.0734776f, -0.2582742f, -0.0617443f, -0.1607129f, -0.0791748f, 0.0578387f, -1.5397879f,
       -1.7127135f, -0.1419368f, 0.4146990f,  -0.1711587f, -0.1359243f, -0.0187611f, 0.1016016f, 0.9840503f,
       -0.1550723f, 0.0806085f,  -1.1700696f, 0.3543602f,  1.7325212f,  -0.1722032f, 0.4361708f, -0.1782625f},
  };

  ALPAKA_STATIC_ACC_MEM_GLOBAL const float bias_layer2[32] = {
      0.5240659f,  -0.3156822f, 1.1848069f,  0.0944839f,  0.7664731f,  0.0659122f,  -0.1521311f, -0.2121075f,
      -0.0233282f, 1.3092561f,  -1.5706853f, -0.1676442f, -0.6326731f, 0.6803766f,  -0.0098859f, -0.0427784f,
      0.4217910f,  0.5993415f,  0.1781375f,  0.9795442f,  -0.9739875f, -0.0787116f, 0.2965019f,  0.6723404f,
      -0.2183474f, -0.4365332f, -0.1825527f, -0.9912634f, 1.0041238f,  -0.0377338f, -0.0275527f, 0.6230045f};

  ALPAKA_STATIC_ACC_MEM_GLOBAL const float wgtT_layer2[32][32] = {
      {1.6865302f,  -0.0070441f, 0.8035002f,  0.2735598f,   0.2723117f,  0.8619063f,  -0.0804875f, 0.1225932f,
       1.4203900f,  1.1994495f,  1.3166131f,  -0.1413901f,  -1.7412066f, -0.4393452f, -0.0659093f, -0.1708370f,
       -0.9448425f, 0.5583439f,  -0.2568475f, -12.7132454f, 2.4591708f,  0.1297256f,  -0.0836688f, -0.5895968f,
       0.0749868f,  -1.0832437f, -0.0648381f, -0.5253773f,  0.0090072f,  -0.0765873f, 0.1528091f,  0.4434315f},
      {-0.5916990f, 0.0199793f,  2.6379824f,  -0.8051495f, 0.4584879f,  -0.0740655f, -0.0945753f, -0.0077198f,
       -0.9868032f, -0.5211059f, 1.0236850f,  0.0043219f,  -0.7691199f, -0.9887687f, 0.0182249f,  -0.0233012f,
       0.6525627f,  3.3088458f,  -0.0542368f, 0.8937343f,  1.9721413f,  -0.1451552f, -0.6037965f, -0.3363538f,
       -0.1826214f, -0.7827175f, 0.0263213f,  1.2864074f,  2.2937937f,  0.0188819f,  -0.1770117f, 0.1439094f},
      {2.2476032f,  -0.0563116f, 2.2437718f,  0.1898347f,  -2.0759408f, 1.8427511f,  -0.1640616f, -0.1479506f,
       3.2908669f,  -0.6904550f, 3.6500773f,  -0.0827876f, 1.4326503f,  -0.7677880f, -0.0796807f, -0.0939390f,
       -0.3899352f, -0.5100920f, -0.0482071f, 2.4649706f,  2.4606583f,  -0.1814978f, -2.4230726f, -1.4843392f,
       -0.0986952f, -2.8446929f, -0.1327703f, -0.4634184f, -0.9766884f, -0.1103326f, -0.0926516f, -1.7657683f},
      {-1.0957067f, -0.1004687f,  -1.5787225f,  -0.4126261f, 2.8912346f,   -21.3616123f, 0.2207962f,  0.0518269f,
       0.8230206f,  -13.1024904f, -1.8619218f,  -0.0424225f, -1.8340806f,  2.3357768f,   0.1242197f,  0.0754490f,
       4.2121305f,  1.6034925f,   -12.6262836f, 0.5050023f,  -25.2706032f, -0.0431384f,  5.8223386f,  1.0384507f,
       -0.0637078f, 5.0680337f,   -0.0471517f,  -3.0921204f, 5.1592808f,   -0.0875837f,  -0.2792810f, 2.2812967f},
      {0.0304742f,  -0.1621580f, -0.0106217f, 0.0899758f,  0.1324803f,  -0.0700794f, -0.0436681f, -0.0540102f,
       -0.1609280f, -0.0408476f, 0.0065347f,  -0.1726691f, 0.1159499f,  0.1275673f,  -0.1606314f, 0.0174050f,
       -0.1249909f, -0.1623034f, -0.1212896f, 0.0254142f,  -0.0601893f, 0.1673056f,  0.0928323f,  -0.0363208f,
       -0.1524574f, 0.1155388f,  -0.0944822f, -0.0977464f, -0.0798940f, 0.1726533f,  -0.0649631f, 0.0377241f},
      {-0.6356571f, -0.2607541f, -0.4543975f, -0.9816490f, 0.5416448f,  1.1389946f,  -0.1113931f, -0.1674357f,
       -4.8352165f, -1.6452470f, -1.5373472f, 0.0241024f,  0.5536532f,  1.7614238f,  -0.0999563f, -0.0025965f,
       -0.2934853f, 0.9991399f,  4.0100627f,  -0.4765424f, -1.2356933f, -0.1874161f, 2.1570861f,  2.1920633f,
       -0.0976036f, 0.0125106f,  -0.1139313f, -2.1311975f, 0.2431549f,  0.0021341f,  -0.1491757f, 0.2584881f},
      {-0.1554675f, -0.1167430f, 0.0423138f,  0.0711883f,  -0.0020845f, 0.1020336f,  0.0658370f,  -0.1375653f,
       0.0447370f,  0.1206502f,  0.0297869f,  0.1711519f,  0.0798078f,  0.1185202f,  -0.0763909f, -0.1206729f,
       -0.0553183f, 0.1228582f,  -0.0083935f, -0.1761404f, -0.0106561f, -0.0442752f, -0.1696223f, -0.1221765f,
       0.0369741f,  -0.1118567f, -0.0521597f, 0.0321973f,  0.0386908f,  -0.0866795f, -0.0968414f, -0.0050339f},
      {2.1435175f,  -0.1551078f, 3.2713811f,  -2.0504487f, -0.6445094f, -4.6579847f, -0.0102526f, -0.0756903f,
       -0.9215934f, 0.8505831f,  0.3627001f,  -0.1521874f, -1.4340100f, -0.0646441f, -0.2252390f, -0.2244328f,
       -2.9290957f, -0.4925358f, -1.0748628f, -0.1486538f, 2.1188385f,  -0.1755194f, 0.7961836f,  -1.0473205f,
       -0.1901667f, -1.1111301f, 0.0604983f,  -5.0314980f, 1.7197293f,  -0.2024349f, -0.1636181f, 0.1019914f},
      {-1.2713689f, -0.0253136f, -0.3380428f, -1.0638390f, 2.7449236f,  -0.2737443f, -0.1085422f, -0.1602184f,
       -0.0008735f, -1.1007431f, -1.1849335f, -0.2663876f, 2.5792780f,  1.1527174f,  -0.0802239f, -0.1025965f,
       2.5402682f,  -0.3441741f, -0.3981778f, 0.3678156f,  -1.4458398f, -0.0995817f, -1.6316043f, 0.3206491f,
       -0.0369127f, 0.5809332f,  -0.2152892f, 1.3396134f,  0.0399115f,  -0.2546846f, -0.2007722f, 2.8450758f},
      {0.1745115f,  -0.1357176f, -0.1485374f, 0.0909152f,  0.1483210f,  0.0737302f,  -0.1637680f, 0.0000265f,
       0.0481300f,  -0.0105988f, 0.0859076f,  0.0059233f,  -0.1172860f, -0.0107890f, -0.1159891f, 0.1145655f,
       -0.1576843f, 0.1084846f,  -0.1093958f, -0.0556372f, -0.0749590f, 0.0902455f,  -0.1584478f, 0.0336265f,
       0.0504195f,  0.1265924f,  0.0258345f,  0.1492549f,  -0.1250558f, -0.1155385f, -0.0182889f, -0.0004347f},
      {0.1171188f, 0.1014180f,  0.2324671f,  -0.0874626f, -0.1111097f, -0.1645274f, -0.1758595f, 0.1121060f,
       0.1073948f, -0.1074462f, -0.0067733f, -0.0173025f, 0.1683295f,  0.0455249f,  0.0836903f,  -0.0432218f,
       0.0314334f, -0.0055723f, -0.1382432f, -0.0860161f, 0.0697354f,  0.0154966f,  -0.0722437f, 0.1577733f,
       0.0029643f, 0.1032105f,  0.1173788f,  0.1317339f,  0.1496744f,  0.0770678f,  0.1173283f,  0.0357577f},
      {0.1185239f,  -0.1275339f, -0.0635410f, 0.1699650f, -0.0326480f, 0.1617643f,  -0.1413943f, 0.0729402f,
       0.1702773f,  -0.0632184f, -0.1366211f, 0.0920673f, -0.1140343f, -0.1277347f, 0.1160380f,  0.0278655f,
       -0.1432857f, -0.1298375f, 0.0704451f,  0.0651420f, 0.1197187f,  0.1140933f,  0.0547417f,  -0.1408818f,
       -0.0565077f, 0.0153770f,  -0.1723765f, 0.0302536f, -0.1720522f, 0.1721924f,  -0.0277676f, 0.1217176f},
      {0.1335476f, -0.0798768f, -0.1256001f, -0.0555518f, 0.0162756f,  0.1323670f,  0.0731772f,  0.0212993f,
       0.0072618f, 0.0397605f,  0.0464602f,  0.0887792f,  0.0060224f,  0.1080991f,  0.0830178f,  0.1653384f,
       0.0798418f, -0.1128676f, 0.1236111f,  -0.1090344f, -0.1305821f, 0.1371153f,  0.0929448f,  0.1447880f,
       0.1439133f, -0.0474658f, -0.0023591f, 0.0863819f,  0.0067025f,  -0.0828647f, -0.1459741f, 0.0661382f},
      {0.0775701f,  -0.0107607f, 0.0052288f,  0.1162598f,  -0.1544264f, 0.0348644f,  -0.0039653f, -0.0166445f,
       -0.1122926f, -0.0970989f, -0.0087400f, -0.1733506f, -0.0640349f, 0.1163430f,  0.0488566f,  0.0603584f,
       0.0802175f,  -0.1016426f, 0.0904419f,  0.0138907f,  0.1043417f,  -0.0640525f, -0.1136816f, -0.1598310f,
       0.0628116f,  -0.0017224f, 0.1626921f,  0.0660481f,  -0.0982667f, -0.0700596f, -0.0294323f, 0.0861625f},
      {-0.1675477f, 0.0272436f,  -0.0035242f, 0.1187083f,  -0.1380870f, -0.0157775f, -0.0697915f, -0.0699622f,
       -0.1342763f, 0.0789961f,  -0.1271438f, 0.0872695f,  0.0581549f,  -0.0607590f, -0.0108511f, -0.0995454f,
       -0.1476832f, -0.0206303f, -0.1320541f, -0.1646389f, 0.1347268f,  -0.0175878f, -0.1171055f, 0.0748758f,
       0.1002617f,  -0.0571866f, -0.1023152f, 0.0317932f,  0.0121790f,  -0.0910829f, -0.1037444f, -0.1608724f},
      {-0.3124542f, 0.0764635f,  -4.0404196f, 2.4405448f,  -0.5277085f, -0.0794460f, 0.0084510f,  0.0413676f,
       -0.2665683f, -1.1282016f, -1.7190089f, -0.1607474f, 0.2719716f,  0.6015427f,  -0.1233412f, -0.1913827f,
       -0.6120520f, -1.3843068f, -0.2412984f, -3.1972845f, -0.1185272f, -0.0387298f, -0.2240285f, 0.0533012f,
       0.0504851f,  0.0610988f,  -0.1001489f, -1.1528584f, -0.3533484f, -0.0123490f, -0.0334515f, -1.2301358f},
      {0.4601654f,  -0.1414209f, -0.9621689f,  1.8137573f,  -2.2838986f, -4.4931846f, -0.1572768f, 0.1072069f,
       5.4528723f,  2.2122884f,  -0.3047283f,  -0.0339041f, -1.0866505f, -2.9726090f, -0.1335476f, -0.2342451f,
       -0.0534304f, -0.9333688f, -29.1695328f, 2.0819838f,  2.5638790f,  0.0637428f,  -3.7582626f, -27.0329189f,
       0.0063954f,  -0.2693702f, -0.0146772f,  1.8390841f,  0.8366699f,  -0.2030648f, 0.1137383f,  -0.6989926f},
      {-0.1743059f, -0.0957818f, -0.0871742f, -0.1385888f, -0.1365321f, -0.0919264f, -0.1399330f, 0.0151470f,
       0.1561736f,  0.0304706f,  0.1576773f,  -0.1426032f, -0.0184744f, -0.0060727f, 0.0556644f,  0.0737400f,
       -0.0456601f, -0.2015950f, 0.0249077f,  -0.0187826f, 0.0792705f,  0.1462519f,  -0.0432748f, 0.0854118f,
       -0.0254023f, -0.0932964f, 0.0814000f,  -0.0787024f, -0.1832910f, -0.0786179f, 0.1766943f,  -0.0088678f},
      {-0.5439317f, -0.1930895f, -1.0358741f, 0.4872003f, 0.6833679f, 1.0468842f,  -0.0627756f, 0.0198605f,
       0.7245910f,  0.6532924f,  0.7456506f,  0.0358964f, 0.2300356f, 0.1437002f,  -0.1478491f, -0.0421908f,
       -0.0789506f, 0.2844093f,  0.2296336f,  0.4280334f, 1.4064584f, -0.1321349f, -0.8637751f, -0.1172594f,
       -0.0362588f, 0.7996452f,  -0.0449324f, 1.2125486f, 0.0968685f, -0.1714050f, -0.2332757f, 0.8290989f},
      {-0.0017863f, 0.0457680f,  -0.1074851f, 0.1084963f,  -0.1220080f, 0.0877163f,  0.1203982f,  -0.0686339f,
       0.1015984f,  -0.1207048f, -0.1723345f, 0.1024277f,  -0.1272804f, -0.1729792f, -0.1319194f, -0.0493638f,
       0.1197342f,  0.1245080f,  -0.1654372f, 0.0882649f,  0.0901894f,  0.1552375f,  0.1640406f,  0.1594699f,
       -0.0598430f, 0.1478111f,  -0.0616796f, -0.1181406f, -0.1052980f, -0.0984066f, 0.0466656f,  -0.0873392f},
      {0.1106081f,  -0.1091835f, -0.0491951f, 0.1428439f,  -0.0186455f, -0.1435021f, -0.0600320f, -0.0949400f,
       -0.1443260f, -0.1643064f, 0.1652100f,  0.0036460f,  0.0288626f,  0.0818249f,  0.1190063f,  0.1581414f,
       0.0098145f,  0.1525386f,  -0.0470744f, -0.0174385f, -0.0032746f, -0.1561369f, -0.0895720f, 0.1446918f,
       0.1006111f,  0.0952710f,  -0.1043464f, 0.1760491f,  0.1751994f,  -0.0237520f, -0.1052991f, -0.1153077f},
      {-0.1684862f, 0.0088422f,  -0.1341807f, 0.1154328f,  -0.1703036f, -0.1689639f, -0.0292963f, -0.1486230f,
       -0.0202071f, 0.0108027f,  0.1484894f,  -0.1215195f, 0.0628160f,  0.0719851f,  0.0958405f,  0.0008012f,
       -0.0687633f, 0.0022042f,  -0.0232379f, 0.0917159f,  0.1057866f,  -0.0831145f, -0.0961659f, -0.1693817f,
       -0.1395387f, -0.1479967f, -0.0266380f, 0.1574190f,  0.0133269f,  -0.0700487f, -0.0594231f, 0.1698502f},
      {0.3639083f,  -0.1561024f, -0.7568483f, 0.1935690f,  0.2883060f,  0.2512229f,  -0.1334913f, 0.0112297f,
       0.0304261f,  0.4176840f,  -1.7556530f, -0.0909049f, 0.2336213f,  -2.4152300f, -0.0734550f, -0.0934253f,
       -0.0444598f, -1.5052693f, -0.0080532f, -0.1239790f, 0.0072221f,  -0.1124994f, -0.4956763f, 0.6296224f,
       -0.1594838f, 1.8049315f,  -0.0764750f, 0.6222402f,  -0.2394568f, -0.1180138f, 0.0719956f,  0.1186023f},
      {-1.7439748f, -0.1896478f, -0.3346063f, 1.9717994f,  -0.3763428f, -1.3512611f, -0.1285691f, -0.1149345f,
       -0.6938587f, -1.0748692f, 1.6610687f,  -0.2358596f, 2.6839828f,  2.5736220f,  -0.2106378f, -0.0970192f,
       -0.4411264f, 2.9166622f,  -0.9682972f, 1.4566983f,  -0.8942411f, 0.0767526f,  -0.2383756f, -0.0954847f,
       -0.0252277f, 0.5873390f,  0.0485610f,  1.2839676f,  -1.0016359f, -0.0991812f, -0.0468751f, 1.3210641f},
      {0.0135437f,  -0.0879198f, -0.1094052f, -0.1025681f, 0.1451267f,  0.0630836f,  -0.0467955f, 0.0920872f,
       0.0147826f,  0.1714088f,  -0.0018927f, -0.0162302f, 0.1139753f,  -0.0322800f, -0.0280083f, -0.1685120f,
       0.0881822f,  0.1222224f,  -0.0225731f, 0.0995662f,  -0.0746114f, 0.1649396f,  -0.1346789f, -0.0861693f,
       -0.0556903f, -0.0376145f, 0.0879924f,  0.0641201f,  -0.1291527f, 0.0164047f,  0.0979619f,  -0.0305348f},
      {1.4435934f,  -0.1033136f, -2.0697176f, 1.8404082f,  1.5736065f,  -0.7922245f, -0.1000865f, 0.0273494f,
       -0.9065717f, 1.3046484f,  -0.3803423f, -0.2029626f, 1.8804103f,  -0.5049760f, -0.1332424f, -0.2173712f,
       1.1021659f,  -0.6780686f, -0.2187140f, -1.5054095f, 0.0034971f,  -0.1576441f, 1.3025562f,  0.9059022f,
       0.0236399f,  2.2910061f,  -0.0750332f, 0.4445155f,  -1.0730588f, -0.1428868f, -0.1658327f, 2.1124966f},
      {-0.1784460f, 0.0730673f,  -5.1235385f, -0.1882881f, -3.5288441f, -0.2259994f, -0.1726394f, -0.1370097f,
       -0.1533520f, -0.1270866f, -4.3133826f, -0.0608662f, 1.3760250f,  1.1956390f,  -0.1297525f, -0.1895235f,
       -0.1225608f, 1.0044372f,  0.0853172f,  -2.3318944f, -1.2085035f, -0.2005011f, -0.6513534f, 0.2713874f,
       0.0829856f,  1.1987237f,  0.0364122f,  0.0853476f,  -2.3690777f, -0.2024412f, -0.0755946f, -3.0887508f},
      {-0.6453744f, -0.1637572f, -0.2874516f, 0.7690926f, 0.7505430f, 0.4669090f,  -0.0990388f, 0.0103152f,
       0.4612448f,  -0.5246852f, 0.1446148f,  0.0650856f, 0.7211487f, -1.6647208f, -0.0023956f, -0.0785235f,
       2.2165341f,  2.5892341f,  -1.0054595f, 1.5223085f, 1.6814858f, -0.0194431f, 0.2862324f,  -1.5743806f,
       -0.1135486f, 0.5293437f,  0.0606122f,  1.4628854f, 0.2489253f, -0.0523651f, -0.2316726f, -0.0536937f},
      {1.0856206f,  -0.0647455f, -0.3253726f, -1.5043118f, 1.2835978f,  -2.8234291f, 0.0278139f,  -0.1607269f,
       0.4859119f,  0.5244958f,  -1.3842341f, -0.0955697f, -1.4327506f, -1.8437506f, -0.0047875f, -0.1666650f,
       -1.3057747f, -1.6061074f, -1.7119917f, -1.1418145f, 0.6116119f,  -0.2265402f, 0.5035372f,  -0.7038661f,
       -0.0783529f, -0.6158929f, -0.1048231f, 0.0385072f,  -0.6218809f, -0.1713473f, -0.1296085f, 0.2307265f},
      {-0.0857327f, -0.0240921f, -0.1274204f, 0.1491305f,  0.1185468f,  -0.0108924f, -0.1143038f, 0.1323865f,
       0.0393746f,  -0.0015919f, 0.0604275f,  -0.0906805f, -0.1383745f, 0.0986694f,  -0.1355748f, 0.0697662f,
       -0.1569561f, -0.1447346f, -0.1763534f, 0.0037572f,  0.0897957f,  0.1148712f,  0.0425909f,  0.0025856f,
       -0.1289866f, 0.1617438f,  -0.0405906f, 0.0672005f,  -0.0178236f, 0.1483060f,  -0.0193279f, -0.1623956f},
      {0.3731324f,  -0.0058753f, 0.7765094f,  -1.7653806f, 0.2843435f,  -0.6492531f, -0.0483371f, -0.0832393f,
       -1.4071836f, -2.0038152f, -0.5736679f, 0.0249140f,  -1.2218778f, 0.0355671f,  -0.0373252f, -0.0358956f,
       -0.4577911f, -2.3789170f, -0.3592008f, -0.7920797f, -2.7878003f, 0.0165473f,  0.8145875f,  -0.4322619f,
       0.0089995f,  0.1495652f,  -0.1798356f, 0.3815477f,  0.1048888f,  -0.0899370f, -0.2200294f, -1.1391734f},
      {0.1598358f,  0.1171069f,  0.0856818f,  -0.0340354f, 0.0366347f,  -0.0047404f, -0.0117805f, 0.0531076f,
       -0.0954451f, -0.0227147f, -0.0362694f, 0.1743660f,  -0.1138828f, 0.0401388f,  0.1356554f,  0.0545887f,
       0.0459410f,  -0.0985279f, 0.0788853f,  -0.1213196f, 0.0940189f,  0.0302987f,  0.1172330f,  -0.1364847f,
       -0.1695189f, 0.0857164f,  -0.0119831f, -0.0472912f, 0.0749008f,  -0.1740327f, 0.0446429f,  -0.1236778f},
  };

  ALPAKA_STATIC_ACC_MEM_GLOBAL const float bias_output_layer[1] = {2.1143713f};

  ALPAKA_STATIC_ACC_MEM_GLOBAL const float wgtT_output_layer[32][1] = {
      {-1.3546265f}, {0.0473848f}, {-1.1066765f}, {-0.7856320f}, {1.8970097f},  {1.7004912f}, {0.0171833f},
      {0.1014843f},  {1.0655588f}, {1.3870277f},  {1.4482819f},  {0.0146788f},  {1.7867852f}, {-0.4464278f},
      {0.1595784f},  {0.0216729f}, {-0.8184820f}, {-0.5278643f}, {3.9873812f},  {0.8342983f}, {1.2236406f},
      {0.0329035f},  {2.1368678f}, {1.2096084f},  {0.0103834f},  {-1.4747533f}, {0.1212516f}, {-1.5780485f},
      {-0.7259769f}, {0.0657829f}, {-0.0011842f}, {-1.9428015f},
  };

}  // namespace ALPAKA_ACCELERATOR_NAMESPACE::lst::t5dnn

#endif
