#ifndef RecoTracker_LSTCore_src_alpaka_NeuralNetworkWeights_h
#define RecoTracker_LSTCore_src_alpaka_NeuralNetworkWeights_h

#include <alpaka/alpaka.hpp>

namespace ALPAKA_ACCELERATOR_NAMESPACE::lst::t5dnn {

  ALPAKA_STATIC_ACC_MEM_GLOBAL const float bias_0[32] = {
      -0.1940323f, 0.1562515f,  -0.4598289f, -0.0067528f, -0.1187210f, -1.2986372f, -0.7766901f, 0.0709069f,
      -0.0413468f, -0.1649964f, -0.0411712f, -0.0118713f, -0.3321564f, 1.0123911f,  -0.0118469f, -0.0948771f,
      -0.3071513f, -0.0202074f, -0.0227748f, 2.0413475f,  -0.9568492f, -0.7617306f, -0.8173049f, 0.0168511f,
      2.0595605f,  -2.6405857f, -0.0102134f, 0.3227372f,  0.0028400f,  0.6402014f,  -0.2776071f, 0.1328146f};

  ALPAKA_STATIC_ACC_MEM_GLOBAL const float wgtT_0[18][32] = {
      {0.0452029f,  -0.2047395f, -0.2531095f, 0.8308914f,  0.1026031f,  -0.5966103f, 1.4759157f,  -0.0898649f,
       -0.1962480f, -0.1148645f, 0.1196134f,  0.0548274f,  -0.1407367f, -1.4861078f, -0.0349070f, -1.1813899f,
       -0.2423109f, 0.0454410f,  -0.0287287f, -0.0014218f, 0.2253178f,  -1.6985301f, 3.8701379f,  -0.9332715f,
       -1.6066414f, 0.7657530f,  -0.1616500f, 3.7211533f,  -0.4365099f, -0.5467676f, 0.0612534f,  -0.1052311f},
      {-0.2059304f, 0.0514157f,  1.5633677f,  0.1810661f,  -0.0710148f, -1.3003422f, -0.0254397f, -0.2410158f,
       -0.2113242f, -0.2738193f, 0.0433658f,  -0.0664363f, -0.7619049f, -0.6734435f, -0.2305467f, 0.7696750f,
       -0.3101756f, -0.0359285f, 0.1335582f,  -1.5694221f, 0.9542036f,  -0.6244334f, 2.4346864f,  -0.7677089f,
       -1.1617776f, -3.1731126f, -0.0121344f, 0.9073577f,  -0.2181434f, -0.3400409f, -0.1639360f, -0.1658078f},
      {0.1472459f,  -0.0126969f, 3.1386833f,  0.4109284f,  0.1190476f,  0.3891498f,  -0.1224196f, -0.0641578f,
       0.0702143f,  -0.1379193f, -0.1345438f, 0.0194056f,  0.1905062f,  2.0310915f,  -0.1589341f, 0.7496570f,
       -0.1105359f, -0.0770280f, 0.0943906f,  -0.5389218f, 0.0715920f,  0.6358653f,  1.0064040f,  0.4764405f,
       0.9542342f,  0.2242897f,  0.1616169f,  -1.3778440f, -0.2705311f, -1.2358010f, -0.1538814f, -0.0438948f},
      {-0.1763135f, -0.0535656f, 0.5643759f, -1.5390383f, -0.2005513f, 0.6275172f,  -0.0381056f, 0.1703591f,
       0.0655765f,  0.1213387f,  0.0543906f, -0.0061972f, 0.5066937f,  -0.1915186f, 0.4624113f,  0.7285631f,
       1.9588530f,  -0.1498045f, 0.2705339f, 0.4348728f,  -0.8126648f, -0.5962468f, 0.2308548f,  0.5948858f,
       1.7573367f,  0.3198567f,  0.0890794f, -1.0203332f, 0.9259652f,  1.9378320f,  -0.0893076f, -0.1205216f},
      {0.0800774f, -0.3748720f, -1.4099081f, -0.7579946f, 0.1303505f,  1.2617210f,  -0.4090959f, -0.2189664f,
       0.1956004f, -0.2206552f, -0.0664704f, -0.1259056f, 0.5783974f,  0.2635866f,  -0.4015432f, -0.5615420f,
       1.1665078f, 0.3563137f,  -0.4841422f, 0.0495584f,  -1.0221890f, -2.2138078f, 0.1603903f,  -0.2881177f,
       0.3440269f, -1.4136810f, -0.1204567f, -0.2976407f, -0.3660032f, 0.6511291f,  -0.0036185f, -0.1103064f},
      {-0.1190768f, 0.1079465f,  -1.6465895f, 0.8783018f,  0.0417785f, -0.4893148f, 0.5675116f,  -0.0493726f,
       0.0923501f,  -0.3304987f, -0.2314915f, -0.0379382f, 0.3644635f, 1.6061251f,  0.0743982f,  -1.7036310f,
       0.0469393f,  -0.0169076f, -0.0846457f, 0.3039347f,  1.5323132f, 1.1516945f,  -0.4392051f, 0.0519393f,
       -0.8842877f, 0.0210567f,  0.0042385f,  0.3631802f,  0.0299365f, -0.1161491f, -0.2673467f, 0.0801027f},
      {-0.1606232f, -0.1174612f, 1.1393912f,  -3.1626005f, 0.2020190f,  0.3364365f,  -1.4127800f, -0.2035749f,
       0.0290988f,  0.0998231f,  -0.0858107f, -0.0822701f, 0.4266679f,  1.1170434f,  -0.2634015f, 2.6879389f,
       3.5829473f,  -0.0074217f, -0.2283435f, -0.4018083f, -0.5503482f, -1.4264138f, -1.8605294f, 1.9073273f,
       2.7757249f,  1.0840679f,  -0.1608723f, -4.1708899f, 0.5306313f,  3.3872285f,  0.0317254f,  0.0453062f},
      {0.1028529f, -0.1862935f, -0.3514106f, -1.2896683f, -0.2075851f, 1.7440273f,  -0.0317084f, -0.0256567f,
       0.0827107f, 0.0535544f,  -0.0810672f, 0.1013722f,  0.2883120f,  -1.0009999f, 0.2229198f,  1.1056199f,
       0.9040332f, -0.2615984f, 0.2158209f,  -0.9291855f, 0.3614044f,  -2.4015853f, -2.1240189f, 0.7009790f,
       0.9322513f, 0.6083323f,  0.1290441f,  -1.7820632f, 0.5162377f,  1.6934893f,  0.1093729f,  0.1678278f},
      {-0.0738688f, -0.2484219f, -2.2049072f, 0.6735009f,  0.0845890f,  -0.4458043f, 1.6374553f,  -0.1284482f,
       -0.0363122f, -0.2654149f, -0.0454312f, -0.0264876f, -0.1786719f, -2.2485936f, -0.0132505f, -2.4829731f,
       -1.0582074f, 0.0639074f,  -0.0570137f, 0.2790116f,  1.2043806f,  0.6573969f,  0.2257148f,  -0.7038473f,
       -1.1433469f, -0.2824484f, -0.1686299f, 0.6064975f,  -0.1482748f, 0.9308873f,  0.0353047f,  -0.2331351f},
      {-0.0381717f, 0.0235109f,  1.2123448f,  1.5028327f, -0.0427347f, -0.6673427f, -1.3916098f, -0.2319166f,
       -0.0112034f, -0.0724124f, -0.0266188f, 0.0489188f, -2.5781660f, 0.9075448f,  -0.2781274f, -0.5351671f,
       -1.4783920f, 0.2318245f,  0.1258357f,  1.6879724f, 2.2178104f,  2.5865467f,  -2.9686368f, 2.0748942f,
       -1.0530401f, -1.1760957f, -0.1100548f, 0.7415332f, -1.2369473f, -2.2372057f, -0.1560877f, -0.2036909f},
      {-0.0767220f, -0.3813806f, -0.6692066f, 1.1171360f,  0.1955123f,  0.0927913f,  -0.6164231f, -0.1936815f,
       -0.2253457f, 0.2098780f,  -0.2356415f, -0.0879891f, -2.2692015f, -0.7018560f, 0.2930437f,  1.4553533f,
       -1.0976124f, -0.2235222f, -0.5320002f, 0.6203124f,  2.2931771f,  -0.4128396f, -2.1847551f, 1.8210577f,
       -1.0626109f, 0.4428261f,  -0.1638004f, 0.5285351f,  -0.1491041f, -0.0726089f, -0.1858867f, 0.1690394f},
      {0.1563593f,  -0.1862237f, -1.8475114f, -0.7378953f, 0.0983567f,  0.1551867f,  2.2162786f,  -0.0932272f,
       -0.1106849f, -0.1326451f, 0.0376333f,  0.0157612f,  2.8148468f,  -1.8456433f, 0.0834190f,  2.4704628f,
       0.1500785f,  -0.0245777f, 0.0363232f,  -2.9865775f, -1.7058473f, 0.6917011f,  1.1903836f,  -1.1306528f,
       1.4213639f,  1.8961535f,  -0.0105329f, -0.2176351f, 0.4710608f,  1.1942669f,  -0.0887468f, 0.2132694f},
      {0.2071738f,  -0.2212865f, 0.7850192f,  2.1796567f,  -0.0984315f, 0.0805375f,  2.7735672f,  -0.1555860f,
       0.0239974f,  0.0246591f,  0.1187868f,  -0.0409408f, 2.2348316f,  1.5618666f,  0.0371693f,  -1.9186479f,
       -2.7904696f, -0.0837378f, -0.1520312f, 1.2995666f,  -1.4488002f, 2.6741729f,  1.2172064f,  -3.4318860f,
       -0.3286010f, 1.1488677f,  -0.1920759f, 1.0220169f,  0.0960360f,  -2.2466736f, -0.1439289f, -0.2038657f},
      {0.0203539f,  -0.0770830f, -0.0548076f, 0.3161826f, -0.1546766f, 1.5058581f,  0.3716706f,  -0.0279853f,
       -0.0396944f, 0.1678968f,  -0.0523217f, 0.1077326f, 1.3584960f,  0.5697956f,  -0.0556758f, -1.0488331f,
       -0.9394681f, 0.1332565f,  0.4668984f,  0.1539229f, -1.3861572f, 0.1012657f,  1.3388863f,  -1.5068510f,
       -0.1488119f, 2.1504519f,  0.0248965f,  0.1813536f, 0.1426364f,  -2.6684127f, 0.1982870f,  0.1384249f},
      {-0.1769641f, -0.0247985f, -0.1647689f, -1.3870394f, -0.1162030f, 0.3048662f,  -2.8828626f, 0.1057448f,
       0.1339286f,  0.0585208f,  0.1083090f,  0.0354991f,  -2.4567196f, -2.1254835f, 0.0228132f,  -0.1640477f,
       0.6994863f,  0.0368678f,  0.0509801f,  -2.8892326f, 0.9703321f,  0.0786054f,  0.0938517f,  1.1638378f,
       1.1636230f,  -0.1186888f, 0.0215163f,  0.1806985f,  -0.1176552f, -1.1696986f, 0.1148661f,  0.2213662f},
      {0.1038774f,  -0.1047234f, 1.4868294f,  0.2761928f,  0.0134923f,  -1.4871290f, -0.2099304f, -0.1526921f,
       -0.1791854f, 0.0421853f,  -0.2292036f, -0.0114745f, -1.5435252f, -1.5150722f, -1.7114086f, 0.0551655f,
       0.1734200f,  1.7328296f,  -0.0102979f, -0.0923821f, 1.5666803f,  -0.1455855f, -0.1308604f, -0.0883516f,
       0.0417202f,  0.0224278f,  -0.1899172f, -0.0607252f, 1.7729037f,  -0.7333850f, 0.1708566f,  -0.1185266f},
      {-0.1968291f, 0.1226442f, -1.4931865f, 0.2072496f,  0.0330375f,  1.5259913f, 0.2502024f,  0.1059954f,
       -0.2105065f, 0.0289575f, -0.1410347f, -1.6446069f, 0.4217086f,  0.9671080f, 1.6962469f,  -0.2187338f,
       -0.1057917f, 0.1871334f, 2.0668314f,  0.1059684f,  -0.7089236f, 0.1020357f, -0.0763040f, 0.3453935f,
       -1.0794582f, 0.6731552f, -0.2174709f, -0.1014975f, -1.8536516f, 0.4382406f, -0.1931745f, -0.1499902f},
      {-0.0451520f, -0.0075974f, -0.0751040f, -0.0006091f, -0.0962802f, -0.0943780f, 0.0421998f,  -0.0221936f,
       0.0959424f,  -0.0376601f, -0.2136606f, 1.6487268f,  1.1979698f,  0.6900949f,  -0.0029702f, 0.1591523f,
       0.1682678f,  -1.9215510f, -2.0697236f, 0.0993362f,  -0.7588745f, 0.1796909f,  0.2314903f,  -0.2894705f,
       -0.7456803f, -0.5973564f, -0.2129087f, 0.1293475f,  0.0351008f,  0.2747299f,  -0.2403971f, -0.2218651f},
  };

  ALPAKA_STATIC_ACC_MEM_GLOBAL const float bias_2[32] = {
      0.7934635f,  -0.9544018f, 0.8020973f,  -0.0911000f, -0.2036114f, -0.6670265f, -2.4799440f, -0.3794742f,
      -0.9009696f, 0.3158563f,  0.6310644f,  0.0615856f,  -0.0852578f, 0.2415757f,  0.9112729f,  0.4271888f,
      0.4842319f,  -0.2101376f, 0.0233746f,  0.4788695f,  -0.1818675f, 0.2429213f,  -0.1633921f, -0.1643308f,
      -0.1243287f, 0.8031887f,  -0.2019781f, -0.0105518f, -0.2115961f, -0.0436087f, -1.2556835f, 0.4181046f};

  ALPAKA_STATIC_ACC_MEM_GLOBAL const float wgtT_2[32][32] = {
      {0.1017427f,  -0.0378215f, -0.0981557f, 0.1758249f, 0.0511248f,  0.1159703f,  0.1178075f, 0.0165606f,
       0.0915229f,  0.0319679f,  0.1722026f,  0.0982233f, -0.1743478f, -0.0402959f, 0.1463481f, -0.0854488f,
       -0.1637636f, 0.1331833f,  -0.1332424f, 0.1403457f, -0.0224719f, 0.1282054f,  0.1694030f, 0.0883159f,
       -0.0633574f, 0.1510520f,  -0.0709615f, 0.1107533f, -0.0074573f, -0.1335767f, 0.0759884f, -0.1375134f},
      {-0.1917851f, 0.1952576f,  -0.0456717f, 0.1494928f, -0.1748932f, 0.0696355f,  0.0742996f,  0.1120644f,
       -0.1320941f, 0.1804791f,  -0.0799334f, 0.0375876f, -0.0996273f, 0.1348516f,  0.0032995f,  0.1615918f,
       0.0842828f,  -0.2051687f, 0.0605584f,  0.0753096f, 0.0110700f,  -0.3008112f, -0.0059634f, -0.2326860f,
       0.1408257f,  0.1251833f,  0.0380072f,  0.1696183f, -0.0544269f, 0.1179849f,  0.0737991f,  0.0381409f},
      {0.3624740f,  0.9435022f,  -0.0542164f, -2.6031628f, -0.0244273f,  0.3001744f,  -0.5786304f, -0.1489125f,
       -0.0722212f, -1.0824878f, 1.3195459f,  -0.0047920f, -21.3199749f, -1.7458274f, 0.7554119f,  -1.4154150f,
       2.9353144f,  -0.0923199f, -0.7081835f, -0.3805601f, -0.0729101f,  1.5265720f,  0.1640345f,  -0.0252942f,
       -0.0200171f, -1.5777414f, -0.0548184f, -0.2041412f, -0.0105721f,  -0.4867428f, -0.0199151f, -2.9112804f},
      {-2.0605922f, 0.6899329f,  0.1684402f,  -0.7944787f, -0.2244991f, 0.2443672f, -1.6562831f, 1.5586063f,
       2.1224256f,  1.4850086f,  0.9251155f,  0.4777904f,  -0.7743089f, 0.7726681f, -1.0087875f, -0.1249152f,
       -0.3185808f, -0.0909099f, -1.4094651f, -1.5467869f, -0.2845659f, 1.2677509f, -0.0377729f, -0.1679104f,
       -0.1758525f, -1.0360988f, -0.2544932f, -2.1162977f, -0.1738580f, 1.8082050f, 0.0745309f,  -0.4106545f},
      {-0.1680008f, 0.0419458f,  -0.0050017f, 0.0795192f, 0.0971928f,  -0.1951239f, 0.1372617f,  0.1690172f,
       0.0090904f,  -0.0539907f, 0.1232476f,  0.1013943f, 0.1476004f,  -0.0851086f, 0.1377705f,  0.1084037f,
       0.1496671f,  0.0033070f,  -0.1525477f, 0.1070535f, 0.1488418f,  0.1556235f,  -0.1728067f, 0.0997340f,
       -0.1631818f, 0.0224576f,  -0.1186560f, 0.1696115f, -0.1249545f, 0.0162632f,  -0.1609726f, -0.0157278f},
      {-0.1216666f, 0.5579002f,  -1.6211119f, -4.5098038f, -0.0851419f,  0.5505043f,   0.0425059f,  0.1909268f,
       0.6443484f,  -0.5064206f, 0.8685643f,  -0.0533868f, -18.0354061f, -15.5147581f, 0.3698941f,  0.1922556f,
       0.3600190f,  -0.0753725f, 0.0539156f,  -0.5913482f, -0.2375099f,  -0.0063402f,  -0.1693363f, -0.2380848f,
       -0.0441254f, -0.3092206f, -0.2988466f, -0.3351060f, -0.1641658f,  0.1428247f,   0.1474909f,  -9.4034061f},
      {-2.0680740f, -4.4859815f, -0.9030977f, -5.2467995f, -0.0122157f, -0.7885436f, 3.9373782f,  -1.0880907f,
       -0.1575576f, -0.0902320f, 0.8193284f,  3.8531952f,  -4.1803999f, 2.6191061f,  0.8544212f,  0.9074995f,
       0.9768823f,  0.0321467f,  -2.2570026f, -1.7639655f, -0.0643738f, 3.7977722f,  -0.0909347f, -0.0911570f,
       0.1046700f,  -0.8008083f, 1.8359380f,  -3.0925605f, -0.1887305f, -2.1239076f, -0.3552386f, 0.9101427f},
      {0.1009450f,  -0.1392023f, 0.0662307f,  0.1594840f, 0.1134257f,  -0.0666746f, -0.0143138f, -0.1327252f,
       0.0263509f,  -0.1338217f, 0.1471678f,  0.0829338f, -0.0087560f, 0.0779407f,  -0.1408163f, 0.1210986f,
       -0.0044397f, -0.0099108f, -0.1378601f, 0.1416636f, -0.1408516f, -0.1386154f, 0.0622655f,  -0.0452291f,
       0.0868871f,  0.0267842f,  0.1457872f,  0.1278169f, 0.0480528f,  0.0764672f,  -0.1758490f, -0.1426601f},
      {-0.1646440f, 0.0416300f,  0.1339760f,  -0.1385021f, -0.1180246f, 0.1697032f,  0.1158151f,  0.1469981f,
       -0.1507743f, -0.0734360f, 0.1271123f,  0.1132923f,  0.1201067f,  -0.0468285f, 0.0778916f,  -0.0556840f,
       -0.1126485f, -0.0619389f, -0.1289880f, -0.0899008f, -0.1075208f, -0.1043751f, -0.0280922f, -0.1283006f,
       0.1665049f,  -0.0214300f, 0.0810655f,  -0.1200600f, 0.0807631f,  -0.0023303f, 0.0763784f,  -0.1160330f},
      {0.0990793f,  0.0783817f,  -0.0452308f, -0.0306206f, -0.0292221f, -0.0333463f, -0.1029818f, 0.1841626f,
       -0.0472912f, 0.0828081f,  0.0678597f,  -0.0693252f, 0.0142240f,  0.1188712f,  0.0522425f,  0.0979807f,
       0.0335652f,  -0.1459530f, -0.0251800f, -0.1951601f, 0.1062357f,  -0.0731566f, -0.0191875f, -0.1268138f,
       -0.1678051f, 0.1413690f,  0.0569016f,  0.0941716f,  0.0876228f,  -0.1358228f, 0.0045696f,  0.1554500f},
      {0.1288635f,  0.0056659f, -0.0383695f, -0.1541008f, 0.0896957f,  -0.0382522f, -0.0521021f, 0.1749352f,
       -0.1519653f, 0.0532910f, 0.1266085f,  0.0137726f,  0.1660562f,  -0.1373509f, 0.1178352f,  -0.0907599f,
       -0.0471371f, 0.0918388f, -0.0305447f, -0.1437480f, -0.0659589f, 0.0879892f,  0.0907117f,  0.0582911f,
       0.1019693f,  0.0892082f, 0.1601690f,  0.0642164f,  -0.0409646f, -0.0692117f, -0.0556362f, 0.0478635f},
      {-0.7649978f, 1.1406001f,  -15.6414537f, -14.1585474f, -0.2200911f,  -1.2490544f,  0.5220137f,  0.5694045f,
       0.9906879f,  -0.0987950f, 3.2387006f,   -1.5059496f,  -21.5841064f, -17.7150249f, 0.8573520f,  0.6886998f,
       1.1389738f,  -0.2338064f, 1.2975018f,   -0.7590529f,  0.0319652f,   0.6709330f,   -0.0670363f, -0.0377064f,
       -0.1496151f, -2.4898164f, -1.9499490f,  1.2801274f,   0.1096054f,   -9.8082581f,  0.2975966f,  1.6045648f},
      {-0.2889538f, 0.0919093f,  -12.4210625f, -10.5040922f, -0.1027222f, 1.2870253f,  -1.7086725f, -0.9544206f,
       -0.4480246f, -0.3691287f, -0.1829097f,  1.3185755f,   -2.5505950f, 6.7353702f,  0.6608043f,  -0.0485439f,
       0.2857636f,  -0.0493701f, -1.3128618f,  0.2013269f,   0.0178155f,  -0.7563044f, -0.0833060f, -0.1259931f,
       -0.2328802f, 1.8014139f,  2.9488595f,   0.0330229f,   -0.1664031f, -6.1302199f, -0.0602355f, -1.3894711f},
      {0.6046161f,  -0.9357104f, -0.4701480f, -0.6782684f, -0.2057077f, 0.5863408f,  -0.2305395f, 0.1554780f,
       0.2567554f,  1.0351107f,  -0.0229861f, -0.2642916f, -0.1553461f, -1.4344411f, -0.1261687f, -1.5904797f,
       -2.0844724f, 0.0312004f,  -1.0449210f, -0.0717951f, -0.0610676f, -0.4268037f, 0.0249548f,  -0.0308645f,
       -0.0142152f, -0.2223288f, -1.1553617f, -0.5696543f, 0.0049593f,  0.9439197f,  0.4444602f,  0.1473199f},
      {1.3999442f,  -0.3996678f, -11.5431871f, -11.2367592f, -0.0203163f, 7.6226144f, 0.5868267f, 6.5304227f,
       1.2434802f,  -6.2623801f, -1.6817236f,  0.7713894f,   3.7514713f,  0.4314651f, 0.7250746f, 2.0768702f,
       3.1965206f,  0.0604902f,  -4.7856359f,  -6.2634459f,  -0.3907121f, 2.3523946f, 0.0622395f, -0.2414040f,
       -0.0537957f, -0.4504819f, 1.8819695f,   1.2749088f,   0.0325170f,  3.0545938f, 0.2189121f, -17.7862167f},
      {1.4354967f,  0.0297100f,  -1.5369014f, -0.4832041f, -0.0530375f, -0.4247117f, 0.8008890f,  -0.8287969f,
       -1.3998320f, 1.5130270f,  -1.1911258f, -0.1029951f, 3.5109215f,  -3.3809826f, -0.3635963f, 1.4428869f,
       0.9125543f,  -0.1514878f, 0.3935545f,  1.2831222f,  -0.1173068f, -0.3759545f, -0.1521591f, -0.2760274f,
       -0.0492570f, 2.4643629f,  0.6781288f,  1.9603661f,  -0.0563192f, -0.6885782f, -0.3877828f, -1.0976958f},
      {3.6853867f,  -1.2659220f, -0.0296654f, 0.8782147f,  -0.0157807f, 0.6528029f,  1.5907634f,  -2.2330143f,
       -2.6698058f, -1.9239073f, -0.4043968f, -0.5872431f, -0.4593609f, 0.1351805f,  1.8339593f,  -0.3918909f,
       0.6666641f,  -0.0500857f, 0.8421974f,  2.3690369f,  -0.2189318f, -1.3423655f, -0.0273273f, -0.1778648f,
       -0.0542351f, 2.8750560f,  -1.2031302f, 1.0984720f,  -0.0878812f, 0.0426834f,  -0.9766450f, -0.2169472f},
      {-0.4966842f, 0.9160299f,  -12.1092653f, -11.0244722f, -0.1503434f, 0.2263571f,   0.8425809f,  -0.0382954f,
       1.3900244f,  -4.7749748f, 1.4147005f,   -0.8908016f,  2.3725257f,  -13.4527397f, 2.9708073f,  1.1722358f,
       0.0456298f,  -0.0458551f, 2.5111890f,   -0.0014756f,  0.1058770f,  -0.1039621f,  -0.1356819f, -0.0955935f,
       0.0918685f,  0.7984847f,  3.6092646f,   3.5839510f,   -0.1001026f, -5.0534086f,  -2.7008836f, -2.0249517f},
      {-1.0074625f, 1.8471205f,  -5.0610466f, -5.5132418f, -0.0547571f,  -0.3979467f, -0.4712915f, -0.5367062f,
       -0.5246026f, 3.1154051f,  -0.9881522f, 0.5715485f,  -29.8711529f, -5.8768916f, -0.9092430f, -1.8859124f,
       -0.4289755f, -0.1581030f, -0.5845217f, 1.8643290f,  -0.2677809f,  0.0810118f,  -0.1157387f, 0.1411551f,
       0.0768836f,  -0.4009618f, 0.0282144f,  1.2258470f,  0.0067859f,   -3.3931346f, -2.4384110f, 1.5033449f},
      {-0.3669238f, 1.7432609f,  0.3886510f,  -0.1255074f, 0.0658545f,  -0.2232973f, 0.0978626f,  1.4627640f,
       1.3272986f,  0.5156658f,  -1.8011757f, -0.4887103f, -6.0715408f, -9.2207127f, -1.0641781f, 0.9102264f,
       -1.8182443f, -0.0641158f, 1.2957850f,  0.1158200f,  0.0201726f,  0.3133855f,  -0.0909933f, 0.0286766f,
       -0.0105141f, 0.5994159f,  0.4200035f,  1.8491809f,  -0.0846886f, 1.4933884f,  0.7164953f,  -1.6774675f},
      {-0.8079155f, 0.3042560f,  -0.3772373f, 1.2257376f,  0.0458694f,  0.9980869f,  0.5855812f,  1.1597202f,
       1.0134934f,  1.4520537f,  0.2989449f,  -1.9389783f, -0.0603162f, 0.4532191f,  -1.2892554f, 0.6409937f,
       0.2874748f,  -0.1664991f, 0.8620583f,  0.4548919f,  -0.1099896f, -0.6457837f, -0.0331152f, -0.3548099f,
       -0.1999796f, -0.8440968f, -0.9994648f, -1.4008234f, -0.2282692f, 0.7556357f,  1.6185784f,  -0.3155516f},
      {-0.6114326f, 0.6241459f,  -0.1294827f, 0.7645832f,  0.0769744f,  -0.0152130f, -0.3445112f, 0.2391609f,
       0.6720194f,  -0.0221121f, -0.6067243f, 0.1666614f,  0.2123979f,  0.1255938f,  -0.3345444f, 2.0463579f,
       -1.0124280f, -0.0962251f, -0.8581216f, -0.7843506f, -0.0683384f, -1.4236431f, -0.0455818f, -0.0086093f,
       -0.1512000f, -0.4655181f, 0.9514965f,  1.3690557f,  0.0408875f,  0.1874518f,  0.0787549f,  0.3078735f},
      {-1.1322931f, 0.2055396f,  0.2440919f,  0.1584100f,  0.0394220f,  -0.4304818f, 1.9068531f,  -0.3199218f,
       0.1083218f,  0.3324785f,  -1.0065278f, 0.5865496f,  -0.3660905f, -0.2893182f, 0.9594055f,  -2.2053986f,
       -1.8336630f, 0.1346838f,  -1.2970884f, -1.0563467f, 0.0139557f,  0.3008765f,  -0.0802731f, 0.0236470f,
       -0.1399251f, -1.2832147f, 0.8925338f,  0.3402558f,  -0.3059315f, 0.1579103f,  0.0145165f,  0.2028373f},
      {0.9092978f,  5.3319697f, 0.2311574f,  -3.5974376f,  -0.1275796f, -1.4258120f, -2.3457932f, 1.4555787f,
       4.1725507f,  1.6273310f, 1.1012670f,  -10.8166332f, -1.0383276f, -2.8341811f, -8.7946100f, -0.5989234f,
       6.0220866f,  0.0696776f, 6.2771916f,  4.7770872f,   -0.1951438f, -9.8738918f, -0.0931274f, -0.2637655f,
       -0.1809545f, 5.6408782f, -5.2057590f, -3.3519218f,  -0.0901985f, -4.2171011f, -1.3777201f, -1.0980587f},
      {1.1602964f,  -0.2687808f, 0.2866415f,  -0.0052205f, -0.2066985f, -0.0813395f, 0.2317347f,  -0.5450784f,
       -0.3015029f, -0.0025978f, 0.2577495f,  -0.8998445f, 0.0237917f,  -0.7391278f, 1.0870081f,  0.5068464f,
       0.7862117f,  -0.1163245f, 1.1998304f,  1.2305090f,  -0.0814890f, -0.4244935f, -0.0811057f, -0.3696067f,
       -0.0861830f, 0.8701236f,  -0.2289178f, -0.5556117f, -0.2133671f, -0.4388837f, 0.2475479f,  -0.3172738f},
      {-0.0219820f, -2.1448636f, -3.3920438f, 0.6697657f,  -0.1315291f,  -0.2115767f, 0.2022458f,  -0.7636336f,
       -0.5977439f, 0.4382638f,  -0.0576872f, 0.8378263f,  -11.2913847f, -2.9919012f, -0.1020024f, 0.4660376f,
       -0.4539831f, -0.0388663f, -0.8509534f, -0.0664919f, -0.0877846f,  0.5318345f,  0.1295045f,  -0.0434388f,
       -0.1501493f, -0.6051254f, 0.1701003f,  -0.2226598f, -0.1804415f,  -1.1222337f, 1.0541458f,  1.5254205f},
      {0.1420137f,  -0.0074933f, 0.0067201f,  0.0537190f, 0.1508925f,  -0.0164899f, -0.1151883f, 0.0132960f,
       -0.0462974f, -0.1229345f, -0.0079655f, 0.1646094f, -0.0517144f, 0.0189287f,  0.0986247f,  0.1024838f,
       0.0433510f,  -0.0154221f, 0.0869387f,  0.1480348f, 0.1454650f,  -0.1666742f, 0.0122260f,  0.0189736f,
       -0.0929280f, -0.0581923f, 0.1017774f,  0.0487137f, 0.0692026f,  -0.1308839f, 0.0729854f,  -0.1369110f},
      {-4.8658338f, 1.5531696f,  -0.2368621f, -1.4992270f, -0.1853091f, -0.0324190f, 2.7762654f,  3.2764831f,
       4.1259456f,  2.0090275f,  1.8382020f,  0.7285845f,  0.8604074f,  0.9081600f,  -2.6200793f, -6.3929181f,
       1.3202529f,  0.0161599f,  -2.6859567f, -3.4331827f, -0.2077297f, 0.3192596f,  -0.1211096f, 0.0369134f,
       -0.0057372f, -2.5233526f, 1.4855275f,  -0.8395525f, -0.0542362f, 0.3147244f,  0.5668546f,  0.1128324f},
      {0.2185126f,  -4.1735148f, -0.0584993f, -6.9970717f, -0.1872474f, 3.6046195f,  -0.3391172f, -0.2528733f,
       -1.8540699f, -3.6080678f, -6.8880978f, 2.8173163f,  1.1419358f,  -0.5156693f, 0.6379013f,  -0.8689519f,
       -0.5731303f, -0.0135396f, -3.8898597f, 3.9107504f,  -0.0314495f, 3.7597058f,  -0.1313266f, -0.0638606f,
       -0.1112971f, 0.5994733f,  -2.0880733f, -3.4605267f, -0.0657795f, 2.9317980f,  -4.0776825f, -4.6187515f},
      {1.4306588f,  -0.0924573f, -0.0255171f, -0.4936610f, -0.1691499f, 0.0794270f,  -0.4408483f, 0.1652155f,
       -0.3639386f, 0.6207126f,  0.2110025f,  -1.1174132f, 0.3868589f,  -0.3762612f, -0.2353463f, -0.7807826f,
       1.1994385f,  0.0715448f,  2.5127218f,  1.3676612f,  -0.1004328f, -0.9425803f, -0.0994552f, -0.3417697f,
       -0.1076159f, 0.9109147f,  -0.8347710f, 0.3245273f,  0.0240645f,  0.0364262f,  0.7244037f,  0.1504523f},
      {-0.0121835f, -0.0466975f, 0.1144113f,  0.0201244f,  -0.0245609f, 0.2358061f,  -0.0764014f, -0.2775822f,
       -0.2624222f, -0.0493765f, -0.1292863f, -0.1509897f, 0.0240071f,  0.0579032f,  -0.0009308f, 0.0350776f,
       -0.1369558f, 0.0210988f,  0.1830976f,  -0.0220976f, -0.1343361f, 0.1934764f,  -0.0788890f, 0.1397982f,
       -0.0866419f, -0.0710399f, -0.1467413f, -0.1701790f, 0.0331260f,  -0.0187575f, 0.0254800f,  0.1567311f},
      {0.0645845f,  -0.0035480f, 0.1547592f,  -0.1243696f, -0.0513117f, -0.0051543f, 0.0720794f,  0.0330604f,
       -0.0983970f, -0.0621364f, 0.1500005f,  -0.0834217f, 0.0614519f,  -0.1354975f, -0.1619547f, 0.1409725f,
       0.0976805f,  0.0951235f,  -0.1414357f, 0.0502984f,  -0.0352365f, -0.0664824f, -0.1300988f, -0.0588439f,
       -0.0466940f, -0.1232816f, 0.0044184f,  0.1664057f,  0.0861590f,  -0.0289132f, -0.1097487f, -0.0449765f},
  };

  ALPAKA_STATIC_ACC_MEM_GLOBAL const float bias_4[1] = {0.2672311f};

  ALPAKA_STATIC_ACC_MEM_GLOBAL const float wgtT_4[32][1] = {
      {-2.1982157f}, {1.2918848f},  {2.5765901f},  {1.3302900f}, {0.0534258f},  {1.6870886f},  {-1.5375290f},
      {-1.7200431f}, {-1.6248944f}, {1.0983198f},  {0.9794226f}, {-3.2129023f}, {1.6483670f},  {0.7734902f},
      {-0.9205871f}, {-0.9046884f}, {-0.9422176f}, {0.0940378f}, {2.0178165f},  {-2.5040693f}, {0.0147824f},
      {1.8138467f},  {0.0226220f},  {0.0023397f},  {0.0879065f}, {1.4868226f},  {1.2005153f},  {-1.0860479f},
      {0.0119623f},  {1.2583143f},  {1.1449329f},  {1.2751638f},
  };

}  // namespace ALPAKA_ACCELERATOR_NAMESPACE::lst::t5dnn

#endif
