#ifndef RecoTracker_LSTCore_src_alpaka_NeuralNetworkWeights_h
#define RecoTracker_LSTCore_src_alpaka_NeuralNetworkWeights_h

#include <alpaka/alpaka.hpp>

namespace lst::t5dnn {
  ALPAKA_STATIC_ACC_MEM_GLOBAL const float bias_layer1[32] = {
      -1.3837075f, -0.0653152f, -0.7900129f, 0.0714758f,  -1.1574365f, -1.4634879f, -0.9317133f, -0.1455518f,
      -0.0459635f, -0.2055620f, 0.0586231f,  -0.8943899f, -0.1009487f, 0.0166031f,  -0.5451909f, -0.1384538f,
      1.2664700f,  -1.8996916f, -0.0025585f, -0.1647783f, -1.9019107f, 0.0707104f,  -0.2373025f, 0.0357050f,
      -0.0048417f, 2.3127339f,  -0.0508943f, -0.1116435f, -0.1610904f, -1.6463890f, -1.0739423f, -0.0962902f};

  ALPAKA_STATIC_ACC_MEM_GLOBAL const float wgtT_layer1[23][32] = {
      {-0.1881404f, -0.0534256f, 1.6563641f,  0.0401664f,  2.8318353f,  1.5049738f,  1.4111555f, -0.2339872f,
       0.0431970f,  0.1220361f,  -0.0450153f, -1.6025578f, 0.0394025f,  -0.3051167f, 1.9442217f, 0.1599094f,
       0.1376955f,  2.4181051f,  -0.0226484f, -0.1801709f, -0.4861264f, -0.0268545f, 0.5463807f, 0.2420150f,
       -0.1238829f, 0.2916382f,  0.1507791f,  0.7952659f,  0.2736979f,  3.2790639f,  1.2062043f, -0.0884467f},
      {-0.0469924f, 0.2013927f,  0.0307775f,  -0.1241788f, -0.0100412f, 0.0422375f,  0.0211071f,  -0.0359304f,
       0.0451861f,  0.0291862f,  -0.2094866f, -0.0013007f, 0.1191471f,  0.0750159f,  0.0184378f,  0.0419437f,
       -0.0207304f, -0.0444109f, 0.0013400f,  -0.0699210f, -0.0668742f, -0.0880825f, -0.0107244f, 0.0363424f,
       0.1391699f,  -0.0112885f, -0.0060098f, -0.0073863f, -0.0566143f, -0.0224207f, 0.0103718f,  -0.0015193f},
      {0.4520382f,  0.1227609f,  -1.3887709f, -0.0542129f, -3.2003114f, -0.8354173f, -1.3173198f, 0.3292131f,
       -0.1657729f, -0.1982902f, 0.1599589f,  -0.0417666f, -0.1461042f, -1.3237997f, -5.3609071f, -0.0981676f,
       0.2922535f,  -1.8692241f, -0.0345302f, 0.1810613f,  0.4473544f,  -0.0159401f, -0.7293931f, -1.4816793f,
       -0.1431545f, -0.0955672f, -0.2370718f, -0.7204540f, 0.8451244f,  -3.4310548f, -1.3518151f, 0.1551731f},
      {0.2670300f,  0.1343590f,  3.0347505f,  -0.1783503f, 2.1586559f,  2.4137778f,  2.0080864f, -0.2545274f,
       -0.1985905f, 0.1653812f,  -0.1714860f, 4.1022782f,  -0.1045471f, 4.4776497f,  3.3737848f, -0.0849546f,
       -6.1899095f, 3.6970129f,  0.0007382f,  0.1675882f,  0.6014717f,  -0.0287709f, 0.0495882f, 2.2192705f,
       -0.1043157f, -4.7508621f, -0.0022774f, 0.3766513f,  -0.7505829f, 1.9759512f,  1.6747239f, -0.1004091f},
      {0.6639504f,  -0.0384022f, -10.0415087f, -0.0032648f, 0.3049855f,  -2.0427964f, -1.1522077f, 0.0935732f,
       0.1232134f,  0.0868663f,  -0.0230848f,  -1.8257296f, -0.0799238f, 6.8892417f,  -1.3941933f, 0.0445172f,
       0.9485117f,  -2.5238073f, -0.0148513f,  0.2256772f,  0.5914315f,  -0.1278037f, 0.1609928f,  11.3438406f,
       -0.0831544f, 0.1928522f,  0.0361467f,   0.0137040f,  4.9549832f,  2.3954937f,  0.3917757f,  0.1206975f},
      {29.6590214f, -0.0836848f, -1.3028307f, -0.1391431f, -0.3703596f,  5.3762760f,  1.8429571f,  21.0697041f,
       -0.1232606f, 0.0066067f,  -0.0308768f, -0.9960231f, 0.1865301f,   -1.2142091f, 0.9273136f,  0.0974103f,
       1.4067870f,  0.7268439f,  0.0035755f,  0.0619486f,  -32.8901024f, -0.1950644f, -0.3978897f, -3.1790049f,
       -0.1371673f, 0.1569460f,  0.0268667f,  -0.4512640f, 0.3055371f,   -0.2241473f, -0.6455348f, 0.1178979f},
      {-2.9178317f, -0.2023720f, -0.2946439f, -0.1851392f, -0.3493766f, -1.5397958f, -1.5902523f, 1.0981250f,
       -0.1796725f, -0.0540953f, 0.0926500f,  2.0021629f,  -0.1277778f, 3.3643394f,  -7.5327554f, -0.0084912f,
       2.7298651f,  0.2535582f,  0.0474618f,  -0.1377846f, -2.2746830f, -0.2016302f, -0.7150622f, 4.4011140f,
       -0.1688751f, -1.2160714f, -0.0055839f, -1.1319760f, -2.2543004f, 0.6365916f,  -1.4942099f, -0.0992425f},
      {-5.9751196f, -0.1597221f, -3.8946304f, 0.0537821f, 0.4741110f,  3.6895070f,  2.5116272f, 1.7058172f,
       -0.0860321f, -0.1519644f, 0.1465356f,  1.4165760f, -0.0984433f, 1.6990343f,  4.0953226f, 0.1742475f,
       -3.2570388f, 3.1653547f,  0.0135764f,  0.0092055f, -5.0966530f, -0.0542810f, 0.4907863f, 0.5900084f,
       -0.1736992f, -4.9153452f, 0.2017547f,  0.2854181f, 3.1490057f,  0.2885774f,  0.9775900f, -0.2207156f},
      {0.3805595f,   0.0308984f,  -9.5846119f, -0.0547350f, 1.9641919f,  2.0823991f,  9.9298115f,  0.0344243f,
       -0.1557834f,  -0.1847700f, -0.1195207f, 4.4698248f,  0.1492174f,  0.4272707f,  4.7265644f,  0.0200772f,
       -14.3444443f, 4.9532328f,  0.0319610f,  -0.0645846f, -0.6238102f, 0.1038110f,  0.2483765f,  -5.1799927f,
       0.0782294f,   16.8777409f, 0.0196593f,  0.8423936f,  -8.5921221f, -0.0184179f, -5.7857180f, -0.0551181f},
      {17.1570740f, 0.0265437f, -1.4766232f, -0.0528512f, 1.0128449f,   3.1529653f,  -0.6560294f, 8.7189465f,
       -0.1728377f, 0.1245629f, 0.1072764f,  0.2649773f,  0.0254132f,   -0.8094708f, 1.8371828f,  0.1586192f,
       1.9410020f,  0.9662392f, -0.0839922f, -0.2894930f, -16.5091496f, -0.1079556f, -0.1204132f, -0.9694697f,
       0.0537786f,  0.2476868f, 0.0076408f,  0.1025890f,  0.1267423f,   0.4956081f,  0.1457323f,  0.1342634f},
      {-0.5389574f, 0.1333421f,  -4.6338782f, -0.0645123f, -0.6526322f, -3.2958410f, -1.2309581f, -1.0803053f,
       -0.1170542f, -0.0169311f, 0.1147491f,  2.9890807f,  -0.1234096f, 0.6792320f,  -3.9311285f, -0.0678321f,
       -2.7922039f, 4.9413238f,  0.1060735f,  -0.1114068f, -2.2443752f, -0.1649915f, -0.3656403f, 2.5320942f,
       -0.0249616f, -4.5098810f, -0.1773834f, -1.9516623f, -1.6839710f, -0.1365123f, 1.0296160f,  -0.0419825f},
      {-2.4413636f, 0.1075683f,  -1.4518708f, 0.0537449f,  0.1154493f,  -0.5463845f, 1.3964951f, 2.6729572f,
       -0.0206257f, 0.1435281f,  -0.1819518f, 0.4540120f,  -0.1910136f, 1.7696143f,  2.3670278f, 0.1324464f,
       -0.5837788f, -2.2784615f, 0.0345478f,  -0.0980538f, -0.4999657f, 0.1178097f,  0.5756868f, -0.1058674f,
       0.1920418f,  -3.5473657f, 0.2146371f,  0.2557987f,  1.3935618f,  0.3242345f,  0.2029733f, -0.1844350f},
      {-0.9069599f, -0.2032758f,  -0.5786582f, 0.1395915f,  3.9338124f,  -1.6806563f,  0.4269728f,  -0.3697720f,
       -0.0306356f, -0.0341866f,  -0.0635755f, 1.8898975f,  0.1968578f,  -17.2182655f, 1.4839698f,  -0.0541308f,
       15.9838457f, 18.5951862f,  0.0078872f,  -0.1186571f, -2.4982276f, 0.0033835f,   0.3749593f,  -15.0238085f,
       0.0595601f,  -16.8588371f, 0.1146287f,  0.1274172f,  19.3332062f, -7.0513921f,  -5.4852023f, 0.1681230f},
      {-5.1457887f, 0.0335570f,  1.8620163f, 0.0560381f,  -0.6397949f, -4.0867515f, 1.3578068f,  -23.9992580f,
       -0.1034287f, 0.1437906f,  0.1076568f, -0.6930848f, -0.1176134f, 2.2855785f,  -0.8021089f, 0.0424611f,
       -0.6139123f, -3.1381547f, 0.0188163f, -0.1728741f, 0.6676420f,  -0.1124282f, 0.1077818f,  2.3839712f,
       0.1340676f,  1.3538554f,  0.0421035f, 0.4513423f,  -0.1543196f, 0.5120541f,  -0.8940096f, -0.1175765f},
      {2.1656792f,  0.1638565f,  4.5302448f,  0.0741160f,  3.3850696f,  -4.8867540f, 2.8059542f,  -0.0023008f,
       -0.1248942f, -0.0075225f, -0.0082212f, -1.0955724f, -0.1462416f, -1.7098176f, -4.1775723f, 0.1950609f,
       3.6847639f,  1.6520064f,  0.0310502f,  -0.0430167f, 3.4527576f,  0.1453262f,  -1.0126116f, 1.8785841f,
       -0.0615105f, 1.0451943f,  -0.2653875f, -1.2223006f, -1.0100641f, 1.2076828f,  0.4882897f,  -0.0618375f},
      {2.4578559f,  -0.1464199f, -1.3086185f, 0.1208716f, -0.2079897f, -2.7138259f, -1.4107026f, -0.4483974f,
       -0.1599056f, 0.0242936f,  0.1326804f,  0.8664415f, 0.0588684f,  0.7366717f,  2.3159802f,  -0.1917707f,
       -2.0800066f, -7.5100355f, 0.0585225f,  0.1582773f, 1.8128076f,  -0.0756957f, 0.8521049f,  0.5539182f,
       -0.1738797f, -0.2020151f, 0.2219591f,  0.1088298f, -1.9535940f, 2.4130275f,  -0.0741222f, 0.1156681f},
      {-0.4152933f, -0.0679605f, -0.5760314f, -0.0201883f, -14.1784763f, 0.7755737f,   -19.5469246f, 0.0381304f,
       0.0160074f,  0.1124380f,  -0.0478151f, -2.3719466f, 0.0819727f,   -12.5069208f, 2.0468810f,   0.0964909f,
       7.8784809f,  -6.3555703f, -0.0429914f, -0.0162720f, -0.9493829f,  0.0296786f,   -0.0244959f,  -12.6325788f,
       -0.1871653f, -9.8338795f, 0.0391840f,  -0.1199073f, -11.7859421f, 8.7398720f,   19.4971046f,  -0.1954873f},
      {-4.8962007f, -0.1695992f, 0.7760146f,  -0.0199836f, -0.0576061f, -6.0196476f, -2.3023551f, -20.0125084f,
       -0.1957836f, -0.0993785f, 0.1109372f,  -0.0710161f, -0.0553650f, 0.2546394f,  -1.7578228f, 0.1498791f,
       -2.6269529f, 1.3973731f,  0.0464059f,  -0.2307575f, 1.6730053f,  -0.0038867f, 0.1040150f,  2.6721606f,
       0.2027777f,  -1.2358316f, -0.0587254f, 0.0610504f,  -0.1700777f, -0.4323797f, 1.0359807f,  -0.0127435f},
      {1.1245984f,  -0.1806923f, -1.5868790f, 0.1536594f,  1.6837788f, -1.6474472f, -3.9225550f, 0.4506312f,
       0.1854908f,  -0.1023232f, -0.0306957f, -0.8615071f, 0.0945480f, 2.0585704f,  0.6044773f,  0.1269336f,
       2.4720187f,  -4.5123949f, -0.0657749f, 0.1738364f,  2.4188614f, 0.0038840f,  -0.2019601f, -0.3842189f,
       -0.0493631f, 3.6777370f,  -0.1003436f, 0.6174496f,  1.0476112f, 2.7601521f,  0.9059890f,  -0.1691816f},
      {1.9658293f,  0.2083382f,  1.7833723f, 0.0662620f,  -0.3932888f, -1.0642430f, 0.1807114f,  -1.1486723f,
       -0.0177136f, -0.1706942f, 0.1730027f, 0.6712329f,  0.0485299f,  0.6379296f,  -0.2880911f, -0.1993632f,
       -0.9471832f, 1.9425983f,  0.0328524f, 0.0777725f,  0.6454380f,  0.0143852f,  0.0192997f,  1.6793132f,
       -0.1872064f, -1.5757623f, 0.0242778f, -0.5992475f, 2.2148299f,  -3.5215647f, -2.9748621f, 0.0112703f},
      {0.3737165f,  0.0361593f,  -0.1075856f, -0.0312021f, -0.0786010f, 1.3149793f,  0.0237401f,  -0.0819654f,
       -0.1388431f, -0.0306386f, -0.0704427f, -2.3997226f, -0.1392045f, 0.7729424f,  0.1253861f,  -0.0819755f,
       -0.7590774f, -0.3295609f, -0.0172208f, -0.0551179f, 0.4599459f,  -0.1143881f, 2.7430685f,  0.3621114f,
       -0.1475701f, 0.2296079f,  -2.2224922f, -0.9080986f, 0.2101683f,  0.1190262f,  -2.2205217f, -0.0811555f},
      {0.3946800f, -0.1204188f, 0.0543225f,  -0.0392627f, 1.9454094f,  0.1865290f,  1.5276426f,  -0.0342965f,
       0.0117116f, -0.1873923f, -0.1045035f, 1.8535231f,  -0.0207077f, 0.0981549f,  -0.0327459f, -0.1486938f,
       0.6359531f, -0.1314566f, -2.1469448f, -0.1665767f, 0.5134121f,  -0.0341647f, -2.1786075f, -0.5976576f,
       0.0111857f, 0.3272055f,  2.1917374f,  -1.6247722f, 1.6025572f,  -1.9965295f, 0.3347488f,  0.1113990f},
      {0.0340557f,  -0.1659652f, -0.0042457f, 0.0010229f,  -2.1550148f, -0.4728722f, -1.3667214f, 0.2625635f,
       -0.0302200f, -0.0322885f, 0.0227866f,  0.6977839f,  0.0050141f,  -1.6183628f, 0.0869662f,  -0.0775411f,
       0.4754244f,  0.4596581f,  2.1509945f,  -0.0313832f, 0.0336208f,  -0.1547154f, -0.6017126f, 0.0369996f,
       -0.1102583f, -0.5788267f, 0.0017006f,  2.6352038f,  -1.7847317f, 1.7510574f,  2.1478791f,  -0.2251654f},
  };

  ALPAKA_STATIC_ACC_MEM_GLOBAL const float bias_layer2[32] = {
      -0.2689391f, 1.5461178f,  -0.2424639f, 0.4424149f,  -0.0411816f, -4.1070848f, 1.4709516f,  -0.2439820f,
      -0.1750926f, 2.8802166f,  -0.1573734f, -1.3724055f, 0.3671952f,  1.8267332f,  1.5655776f,  -0.7323843f,
      1.6318209f,  2.2198663f,  -1.5951139f, -0.0870247f, 0.2806863f,  -0.2407108f, 0.1310665f,  -0.5246177f,
      0.1914421f,  -0.3386542f, -0.6310596f, 3.2995102f,  0.7519229f,  -0.1565450f, -0.1496341f, 1.0073272f};

  ALPAKA_STATIC_ACC_MEM_GLOBAL const float wgtT_layer2[32][32] = {
      {-0.1731049f, 1.7775618f,  -0.2532010f, -0.2902778f, -0.1392802f, 4.2428946f,  -0.1866968f, -0.1800365f,
       -0.0634398f, 0.0763313f,  0.0472901f,  -0.8030146f, 0.3161853f,  -1.0713238f, -4.6514492f, -0.3908085f,
       1.1607268f,  0.8834935f,  -0.1194544f, -0.0785166f, 0.4967587f,  -0.0558136f, -0.9601135f, -0.1001592f,
       3.4427991f,  -0.2144053f, -0.3632556f, 0.0117088f,  0.1742481f,  -0.2540179f, -0.1705156f, -0.2627344f},
      {-0.1478276f, -0.1659575f, 0.1602777f,  -0.0758106f, 0.1067696f,  -0.0247068f, -0.1123443f, -0.1724832f,
       -0.0013103f, -0.0685904f, 0.1537329f,  0.1042632f,  -0.0360880f, -0.0679077f, 0.0672719f,  0.1597116f,
       -0.0150259f, 0.0367102f,  -0.0545881f, -0.0693004f, -0.1008447f, -0.0672846f, -0.1395939f, -0.0324785f,
       -0.1051702f, -0.0530534f, -0.1019061f, -0.0921245f, 0.1195077f,  0.0453448f,  0.0257045f,  -0.0622537f},
      {-0.0363173f, -0.1990481f, -0.0452148f, 0.4074381f,  -0.0731660f, -0.0823270f, 0.3154473f,  -0.1909118f,
       -0.0165690f, 0.1325824f,  -0.0760181f, 0.7768906f,  -0.2702211f, -0.6023573f, 1.5904741f,  0.2384946f,
       0.7610655f,  -2.8705251f, 0.5754877f,  -0.1587478f, -0.5708794f, -0.3421216f, 0.5023443f,  1.2806857f,
       0.2158970f,  -0.1364033f, -0.3398291f, 0.9066412f,  -1.2935438f, 0.0273695f,  -0.1850613f, -0.9301611f},
      {-0.1281746f, 0.1695392f,  0.0805936f,  -0.0598281f, 0.1266985f,  -0.1697189f, -0.1091505f, -0.1569477f,
       0.0363969f,  -0.0628394f, 0.0107523f,  0.0659535f,  -0.0568244f, -0.1299786f, 0.0005438f,  -0.0806242f,
       -0.0806848f, -0.0919798f, -0.0748445f, 0.0792912f,  0.0022868f,  0.0211520f,  -0.0183716f, 0.1279848f,
       -0.1518286f, -0.0113527f, 0.0824359f,  -0.0178597f, 0.0272009f,  0.0288935f,  0.0123459f,  0.1685353f},
      {0.1099675f, -0.3914332f, -0.0647218f, -0.8259028f, -0.0283726f, -0.0860217f, -2.0489185f, 0.1042144f,
       0.1024824f, 0.0735443f,  -0.1235109f, -3.3674469f, -0.1799957f, -7.1867313f, 1.6053666f,  -0.5203959f,
       0.8686391f, -0.0675404f, -2.8893898f, -0.0796400f, 1.2672142f,  -0.0371844f, -1.8065344f, -2.2551982f,
       0.0355568f, 0.0672171f,  0.7150316f,  1.3620002f,  -0.4106106f, 0.0126076f,  0.0408083f,  1.5958146f},
      {0.0525989f,  1.8947815f,  -0.2513640f, -0.3715420f, -0.1752283f, 1.3911799f,  -0.7633898f, -0.1716654f,
       -0.0145629f, -1.7601604f, -0.1943324f, -0.5716376f, -0.8281464f, -0.0308049f, -1.4709659f, -0.4294116f,
       -0.1030817f, -0.1823493f, 0.7561242f,  -0.1608112f, 0.3980689f,  -0.2464017f, -1.3065518f, 0.0875702f,
       -0.1504322f, -0.0352198f, -0.4051513f, 0.7010455f,  -0.2363433f, -0.1118084f, -0.1329087f, -0.3257700f},
      {-0.1209070f, 0.1677164f,  -0.1353413f, -0.0410048f, -0.1432644f, 0.2649301f,  0.2247741f,  -0.0425357f,
       -0.2644008f, 1.4204332f,  -0.2540753f, 0.2481354f,  1.9494507f,  -0.2003033f, -0.5938342f, -0.3314930f,
       1.5038266f,  -2.4000788f, -1.6202501f, -0.0256936f, -0.2890913f, -0.2113032f, 0.9030544f,  1.1483711f,
       0.0545346f,  -0.1961582f, -0.2267976f, 0.2372836f,  2.5995049f,  -0.1469661f, -0.1017130f, 1.6176132f},
      {0.0542207f,  2.7658713f, -0.1700335f, -0.3357265f, -0.1097085f, 1.6508883f,  0.0132292f,  0.1211861f,
       -0.0852982f, 0.9232512f, 0.0202751f,  0.3138782f,  0.2674713f,  0.1247260f,  0.3859081f,  0.3961721f,
       1.0556988f,  0.8574673f, -0.1462571f, -0.1600272f, 0.4117427f,  -0.1561815f, 0.0553897f,  -0.2753994f,
       5.8420453f,  0.0883128f, 0.3594444f,  -0.7174141f, 0.5683901f,  0.0096710f,  -0.0957449f, -0.0195320f},
      {0.1561092f,  -0.0417566f, -0.1044470f, 0.1186895f,  -0.1195878f, 0.0446987f,  -0.1386125f, -0.0103878f,
       0.1173026f,  0.1349312f,  -0.0676422f, -0.1452308f, 0.0093872f,  0.0069650f,  0.1739093f,  -0.1592752f,
       -0.1329019f, -0.0459163f, -0.1511888f, -0.0040456f, 0.0065862f,  0.0106182f,  0.0318060f,  0.1003269f,
       0.0249398f,  0.1661194f,  -0.0286407f, -0.1062361f, 0.0026465f,  -0.0091479f, -0.1493473f, 0.0519762f},
      {-0.0702637f, 0.1154817f,  -0.0680643f, 0.1447217f,  0.1394082f,  -0.0691432f, 0.0939426f,  0.0483852f,
       0.1437123f,  -0.1085759f, 0.0333924f,  -0.0683726f, 0.0707103f,  -0.0723069f, 0.0124601f,  -0.0309495f,
       -0.0308395f, -0.0695953f, -0.1078720f, 0.0858701f,  -0.0773453f, 0.0477413f,  0.0615588f,  0.1656474f,
       0.1718751f,  -0.1125762f, 0.1753366f,  -0.0557704f, 0.0921221f,  0.0372290f,  -0.1084552f, -0.0438967f},
      {-0.0557757f, 0.0694144f,  0.1150911f, -0.0202319f, 0.0661389f,  -0.0928373f, 0.0441888f,  -0.0028318f,
       -0.0039446f, 0.0294675f,  0.1353384f, 0.0427515f,  0.0695194f,  0.1329748f,  0.1339706f,  0.0713900f,
       -0.1384726f, 0.0925476f,  0.1581103f, 0.0100842f,  -0.1248652f, -0.0173615f, 0.1637451f,  -0.0025173f,
       -0.0331219f, -0.0335269f, 0.0949441f, 0.0538645f,  0.0834281f,  0.0137191f,  -0.1360130f, 0.0074489f},
      {-0.0949665f, -0.2181539f, 0.0871969f,  3.0772011f,  -0.1152011f, -0.0022047f, 1.2700632f,  -0.1173392f,
       -0.1678371f, -1.3448639f, -0.2893313f, 1.5105180f,  -0.6029126f, -1.1568675f, 1.4823192f,  0.1635401f,
       -2.2136483f, -1.4164798f, -0.4795305f, -0.0807557f, -1.6675406f, -0.0992591f, 2.1212378f,  -0.9400231f,
       -0.5339298f, -0.0342672f, -2.3564072f, 1.3407421f,  -3.8635128f, -0.1171367f, -0.0364181f, -3.2491686f},
      {-0.1047117f, -0.0540412f, -0.1137928f, 0.1582367f,  -0.0982449f, 0.0511854f,  -0.0805884f, -0.1141258f,
       0.0931992f,  -0.0227052f, 0.0780590f,  -0.1288135f, -0.1186576f, -0.0754066f, -0.1234059f, -0.0091936f,
       0.0205475f,  0.1640417f,  -0.1527465f, 0.0068472f,  -0.1239804f, -0.0448335f, -0.0061169f, -0.0078998f,
       0.0253047f,  0.0712901f,  0.0024753f,  -0.0259875f, -0.1238613f, 0.1096537f,  -0.0953007f, 0.1385384f},
      {0.0521762f,  1.4885306f,  -0.1298001f, 2.3033395f,  -0.1589162f, -0.8458843f, 0.0631668f,  -0.1424429f,
       -0.0384785f, 0.5599840f,  0.0008631f,  -1.5839294f, 1.9202064f,  0.6930331f,  0.4948464f,  -0.6195241f,
       -3.0526664f, 3.1423819f,  -1.3433597f, -0.1167206f, -1.3491610f, -0.0901343f, -1.2291449f, 3.5039587f,
       0.4674770f,  -0.3027362f, 0.8279622f,  0.3417586f,  0.1367343f,  -0.1085793f, -0.1048759f, 1.2729272f},
      {-0.0029521f, 0.2439991f,  -0.0858953f, -2.7804739f, -0.0220416f, 0.0256599f,  -0.3304259f, -0.0586597f,
       -0.0459698f, 0.1670698f,  -0.1359344f, -0.3957845f, -1.6954739f, 0.3318155f,  0.9375985f,  0.5211958f,
       0.6071047f,  -3.4249072f, 1.3199407f,  0.0136374f,  1.2692807f,  0.0233104f,  -0.0731508f, 2.2171400f,
       -0.6052189f, -0.0698463f, 1.6376522f,  -1.1908000f, -0.1706121f, -0.0380146f, 0.0144418f,  1.5177792f},
      {-0.0314772f, 0.0523589f,  -0.0517322f, -0.0100344f, 0.0714635f,  -0.1646974f, 0.0800682f,  0.1132821f,
       -0.0028872f, -0.1239987f, -0.1322138f, -0.1059789f, 0.1752418f,  0.0475279f,  -0.0046871f, 0.1574167f,
       -0.0231106f, -0.0261228f, 0.0236005f,  0.1663371f,  0.1059707f,  0.1229704f,  0.1427562f,  -0.1648343f,
       0.0992667f,  -0.0631751f, -0.1411413f, -0.0999486f, -0.0972435f, -0.1422556f, 0.0973614f,  -0.0156000f},
      {-0.1309903f, -0.5060971f, -0.1911870f, 2.2349114f,  0.1010354f,  0.5538697f,  1.8757060f,  -0.1538645f,
       -0.2073075f, -1.8350753f, 0.0532570f,  1.8151909f,  -0.6800886f, 0.2615838f,  -0.6204563f, -0.1238837f,
       -0.4772464f, -2.4070835f, -0.2783994f, -0.0211087f, -4.4925098f, -0.0790045f, 1.3566529f,  -0.3650998f,
       -0.4658130f, -0.0479139f, -1.9361999f, 2.1485121f,  -3.1108823f, -0.0020647f, -0.0489678f, -0.4781263f},
      {-0.0099352f, -1.9572417f, 0.0918592f,  0.7327217f,  -0.0609625f, -0.1969659f, 0.1922992f,  -0.1091586f,
       -0.2125459f, -1.9542989f, -0.1648019f, -0.9355955f, 0.9144324f,  -5.0530005f, -0.2265045f, -0.5638458f,
       4.4370432f,  -2.0318019f, -1.5679311f, 0.0221776f,  -0.4063498f, -0.1160609f, 0.9651156f,  -0.2401051f,
       0.1903293f,  -0.2355373f, 0.2334733f,  0.1025979f,  0.7150746f,  0.0315593f,  -0.0001765f, 0.0137871f},
      {0.0320691f,  -1.8876421f, -0.1241799f,  -3.1652985f, -0.1528286f, 2.1882250f,  -2.5907574f, 0.0210803f,
       -0.1545521f, 0.7706368f,  -0.1652040f,  -4.1518817f, 4.2974262f,  0.3074523f,  3.3711803f,  -37.9055862f,
       1.0623894f,  0.4360786f,  -2.6417589f,  0.1113010f,  3.8902094f,  -0.1616735f, 0.5595753f,  1.5364015f,
       -2.4740698f, -0.0240434f, -28.0232792f, 0.6092473f,  1.6978041f,  -0.0458809f, 0.0664777f,  0.2603019f},
      {0.1044999f,  0.0054908f,  0.1407564f,  -0.1701076f, -0.1274551f, 0.0443607f,  0.1182709f,  -0.1103420f,
       -0.1343671f, -0.0042888f, -0.1611361f, 0.0154269f,  0.2285106f,  0.0870507f,  0.0914433f,  0.0657276f,
       -0.1664300f, -0.0342912f, 0.1037545f,  -0.1175308f, 0.1135652f,  0.1325845f,  -0.1459545f, -0.2156865f,
       -0.1673723f, -0.1156510f, 0.0179541f,  0.0541515f,  0.0957617f,  -0.1297485f, 0.1045326f,  0.2950188f},
      {-0.1401742f, -2.8181052f, -0.0588381f, -0.1517100f, -0.0608850f, -3.5837226f, -0.1528927f, -0.0211265f,
       0.0881796f,  -0.4448619f, -0.1457623f, -0.8828475f, 0.1261238f,  -1.0495204f, -3.7918513f, -0.4645159f,
       -0.0800092f, 0.0624971f,  0.1528609f,  -0.1069645f, 0.4319421f,  0.0651448f,  -0.6571375f, -0.0323338f,
       -4.6534319f, -0.0538999f, -0.2221518f, 0.0972160f,  0.1496329f,  0.0570569f,  -0.1125795f, -0.0153687f},
      {-0.1065502f, 0.0606179f,  -0.1400291f, -0.0220975f, -0.0613350f, -0.0038843f, -0.0132201f, 0.1678067f,
       0.1008587f,  -0.1255144f, -0.0675021f, -0.0475353f, 0.0278098f,  0.0527470f,  -0.0089845f, -0.0622052f,
       0.1088723f,  0.0053812f,  0.0627310f,  -0.0226460f, -0.1096366f, -0.0505830f, -0.0301058f, -0.0775778f,
       -0.0008928f, -0.1157909f, 0.0544982f,  0.0430219f,  -0.0134386f, -0.1095094f, 0.1215172f,  0.0081556f},
      {-0.1747307f, -0.7465636f,  -0.0497346f, -2.0686443f, 0.0190713f,  -2.9156351f, -5.4731860f, -0.0728399f,
       -0.0845178f, -14.8429976f, -0.1068359f, 1.8549156f,  -3.1135283f, -0.0907917f, -0.0262453f, -8.8010912f,
       -4.3007965f, -1.6772208f,  -0.2576891f, -0.0163111f, -7.8583646f, 0.0697906f,  -0.0943863f, -0.7450574f,
       1.1493169f,  0.0921000f,   -0.2395420f, 0.5794312f,  -4.2405462f, -0.0910322f, -0.1381017f, -1.0270567f},
      {-0.0446755f, -0.8131990f, -0.1741483f, -1.7555307f, 0.0153283f,  0.0734032f,  -0.5930048f, -0.0398877f,
       -0.0215982f, 0.0497884f,  -0.0504920f, 0.0942539f,  -1.1370168f, -0.8821361f, -0.0879569f, 0.3811991f,
       1.2224945f,  0.3782545f,  1.4800016f,  0.0494110f,  1.7101970f,  -0.2885793f, -0.1778114f, -1.3913733f,
       -0.0944610f, -0.3578439f, 0.3491475f,  -3.0349872f, 0.8044587f,  0.0928676f,  -0.0395946f, 0.2008810f},
      {0.0721043f,  -0.1181163f, 0.0108281f,  -0.1215726f, 0.1285277f, 0.0851443f,  0.0791321f,  0.1765833f,
       -0.0324889f, -0.0150838f, -0.0051942f, 0.1685798f,  0.1521861f, 0.0283858f,  0.0326072f,  0.0346215f,
       -0.1081120f, -0.0745824f, -0.1762613f, 0.0901582f,  0.1335704f, 0.1599123f,  -0.0097813f, 0.0364541f,
       -0.0391450f, -0.0079635f, 0.1014886f,  0.0130333f,  0.0438304f, -0.0074333f, 0.0845035f,  -0.0471010f},
      {0.0360538f,  -0.9701002f, -0.2217611f, -1.1626705f, 0.0548465f,  0.6605385f,  -0.6693703f, -0.1432099f,
       -0.0754442f, -0.2380328f, -0.0754142f, -2.3242903f, 3.5773275f,  0.0707042f,  0.2052065f,  -1.3753067f,
       -0.8530636f, 3.1850073f,  -0.2901604f, -0.1291050f, -4.4672642f, -0.2425279f, 0.1252670f,  0.4261391f,
       -0.8620862f, 0.1153403f,  -0.1999598f, -4.7756801f, 2.8851914f,  -0.1340472f, 0.0482952f,  1.7996837f},
      {-0.1654812f, 0.9604513f,  0.1770310f,   -16.5736618f, -0.0350192f, -0.5557595f, -35.3047371f, -0.1299658f,
       0.0065243f,  -3.0823336f, 0.0351931f,   4.9456911f,   -1.4382623f, -1.6900688f, -1.9084880f,  -3.1811504f,
       -8.0212736f, -7.3994560f, 4.9219728f,   0.0433824f,   0.6197430f,  0.0308996f,  5.2004323f,   0.5327767f,
       1.0885966f,  0.1487215f,  -21.4211712f, -1.8733859f,  1.9195696f,  -0.0539309f, -0.0795544f,  -3.1121061f},
      {-0.0058153f, 1.7521383f,  -0.2205407f, 2.6318321f,  -0.0038140f, -1.4131194f, 3.0181022f,  0.0373498f,
       -0.1246315f, -1.8323456f, -0.1470954f, 2.9131169f,  1.1522563f,  0.6036215f,  -3.3962972f, 7.0906253f,
       -1.5353408f, -0.2648884f, 0.5501783f,  -0.2262681f, -2.4874980f, -0.0533402f, 3.0222948f,  0.3296265f,
       1.4057258f,  0.0185255f,  6.1208682f,  0.7210779f,  -0.3055671f, -0.2595702f, -0.1286864f, 0.6510819f},
      {-0.2145578f, 0.4758183f,  -0.1186396f, -0.6096930f, -0.1574199f, -0.1929667f, -0.6877209f, -0.2098342f,
       0.0726678f,  0.1379885f,  0.0710437f,  -1.1860796f, 0.6582619f,  0.2388466f,  0.0458675f,  -0.0634391f,
       -0.1678368f, -8.2454395f, -0.6461441f, -0.2063597f, 0.0304686f,  0.0319904f,  -1.0730971f, 1.1281222f,
       0.1292592f,  -0.3054110f, 0.7732272f,  -1.0069786f, -0.0847367f, -0.2342585f, -0.1553642f, 1.5100089f},
      {-0.1022291f, 2.7367072f, -0.1738961f, -1.0328600f, -0.0864617f, -0.3224345f, -2.6092832f, -0.2382921f,
       0.0578183f,  0.4115438f, 0.0121692f,  -1.0689495f, 0.5158959f,  2.9600139f,  0.8839240f,  -0.7147520f,
       -2.7168157f, 1.2148006f, 1.5884653f,  -0.1227511f, 1.3176637f,  -0.1335970f, -1.4691980f, 1.1131358f,
       -0.1302031f, 0.0779746f, 0.2622980f,  0.0837635f,  2.7756395f,  -0.0315265f, 0.0868374f,  -4.2980185f},
      {0.0228074f,  2.1787968f,  -0.1889012f, -0.8560471f, -0.1063542f, -0.2869910f, 0.2767612f,  -0.1183861f,
       -0.0992468f, 2.1517978f,  -0.0428540f, 1.0697522f,  1.9683092f,  2.1042306f,  -0.0426359f, -0.3499008f,
       -0.9989156f, 0.0880459f,  2.9753070f,  -0.1941337f, -3.1616704f, -0.0093505f, 1.4922180f,  2.8480091f,
       0.2656264f,  -0.1299839f, -1.0458518f, -1.6748481f, -3.1420829f, -0.1360553f, -0.1117443f, -1.3989290f},
      {-0.0246332f, 0.1165779f,  0.0255498f,  -0.0601489f, 0.1545041f, -0.0977981f, 0.1242626f,  -0.1533627f,
       -0.1294386f, -0.0231293f, -0.1460808f, 0.1763088f,  0.0953614f, -0.0716483f, -0.1003436f, 0.0804519f,
       0.1373295f,  -0.0686773f, 0.1198382f,  0.1519430f,  0.1640775f, -0.1675753f, 0.0790529f,  -0.1521838f,
       0.0378523f,  0.1039687f,  -0.0701027f, 0.0509319f,  0.1355647f, 0.0978021f,  0.0391430f,  0.0241266f},
  };

  ALPAKA_STATIC_ACC_MEM_GLOBAL const float bias_output_layer[1] = {-0.7420582f};

  ALPAKA_STATIC_ACC_MEM_GLOBAL const float wgtT_output_layer[32][1] = {
      {0.0381968f},  {1.0667214f},  {0.0505496f},  {-1.5677565f}, {0.0066824f},  {-0.9951485f}, {0.9438043f},
      {0.0068631f},  {-0.0216870f}, {0.6560486f},  {-0.0235629f}, {0.9653404f},  {0.6641668f},  {-0.5351945f},
      {-0.5303048f}, {1.9339687f},  {0.4359012f},  {-0.7492802f}, {-0.5728400f}, {0.0473893f},  {-0.5091293f},
      {-0.1926489f}, {-0.6562935f}, {-0.5583456f}, {-0.7618014f}, {-0.0316967f}, {1.1637378f},  {-0.5158406f},
      {-0.5268564f}, {0.0735416f},  {0.0270067f},  {-0.5614370f},
  };

}  //namespace lst::t5dnn

namespace lst::t4dnn {
  ALPAKA_STATIC_ACC_MEM_GLOBAL const float bias_layer1[32] = { 
       0.1343534f, -0.1368604f, 0.1807914f, 0.4863829f, 0.3072624f, 0.1860286f, 0.2858847f, -0.1705493f, 0.1752091f, -0.7067891f, -0.2220116f, -0.2557189f, -0.1781383f, 0.1775145f, -0.0272901f, 0.5261974f, 0.3051383f, 0.0161067f, 0.1998939f, 0.2223084f, -0.0926925f, 0.0576453f, 0.0584198f, -0.2362459f, -0.6738928f, -0.4007185f, -0.1670045f, -0.6815327f, -0.1010500f, -0.0480343f, -0.1521900f, -0.2086264f  };


  ALPAKA_STATIC_ACC_MEM_GLOBAL const float wgtT_layer1[19][32] = {
    { -0.1963452f, -0.1897062f, 0.3155907f, 0.2161751f, 0.1200760f, -0.0585624f, -0.2446551f, 0.0781461f, 0.1904358f, 0.0611422f, 0.1204240f, 0.8858362f, -0.1452178f, 0.0156820f, 0.0516908f, 0.2707226f, 0.1202840f, -0.3739638f, 0.1071789f, -0.0191668f, -0.0242811f, 0.1512383f, -0.1941903f, 0.0479919f, 0.1817387f, -0.5309671f, 0.4488416f, -0.3860892f, -0.3303046f, -0.1032199f, 0.1632514f, 0.0368194f },
    { 0.0620202f, 0.1001159f, -0.0816311f, 0.0110535f, -0.0199197f, 0.0160355f, 0.1165054f, -0.1924737f, -0.2066047f, -0.0178963f, 0.1732963f, 0.0279823f, 0.1502472f, 0.0265741f, 0.0041344f, 0.0434696f, 0.1123959f, -0.0486091f, -0.0536375f, 0.0233117f, 0.1850519f, -0.1086785f, -0.0895062f, 0.0086913f, 0.0500011f, -0.0481242f, 0.0521344f, -0.0160295f, -0.0179894f, -0.0044007f, -0.0170807f, 0.0235780f },
    { -0.2047191f, -0.1336271f, 0.0685053f, -0.1230550f, -0.2181542f, 0.1857685f, 0.2490112f, 0.1350161f, -0.2361748f, 0.6877176f, 0.0187158f, -0.4319172f, 0.1152798f, -0.1370398f, -0.1385318f, 1.0592842f, 0.0181423f, -0.3012538f, -0.5012478f, -0.0821910f, 0.1116278f, -0.1941337f, 0.0022966f, -0.2676136f, 0.0330153f, 0.3684897f, 0.1541813f, 0.5577937f, 0.6454316f, 0.0565453f, -0.1758667f, -0.0332897f },
    { 0.1043520f, 0.0458541f, 0.1488384f, -0.3474375f, -0.1625470f, -0.7735633f, -0.3892995f, 0.0497189f, 0.0850283f, -0.1876848f, 0.2164786f, 1.1481932f, -0.0136010f, 0.2492647f, -0.0002732f, -0.5233291f, 0.0387931f, -0.0451515f, -0.4100684f, -0.2764589f, -0.0686475f, -0.1523031f, -0.1952890f, 0.0747470f, 0.2809130f, 0.5447710f, -0.1166361f, -0.0225297f, 0.2158884f, -0.0279553f, -0.2101770f, -0.0544651f },
    { -0.2197489f, -0.1870119f, -0.6207134f, -0.0508897f, 0.1297299f, -0.5457793f, 1.8515823f, -0.0995280f, -0.1487033f, -0.6420621f, 0.1243792f, -3.1706877f, 0.8355281f, -0.3564638f, -0.0508386f, -1.4286778f, 0.6418529f, -0.5749124f, 1.0870366f, -1.3547217f, 0.1692196f, 0.0038480f, 0.4900065f, 0.1763700f, -2.4270182f, 1.8725526f, -0.3442535f, 0.8355251f, 0.0505472f, 0.0621016f, -0.0119220f, 0.0930412f },
    { 0.2114104f, 0.0025511f, -0.5307869f, 0.4133006f, 0.4060004f, 0.2815367f, 0.7278367f, -0.1311096f, 0.1608759f, 0.1315789f, -0.1599163f, -1.3189858f, 0.7870954f, -0.0472584f, 0.1404113f, 0.2852432f, -0.3220553f, 1.4904132f, 0.4506483f, -0.7457430f, -0.0968689f, 0.0192968f, -0.2406183f, -3.5728753f, -1.9537650f, -2.3127568f, -0.0448075f, 1.2646719f, -0.6842874f, -0.0891226f, 0.0567195f, 2.1891153f },
    { -0.1661354f, -0.0373547f, 0.6526110f, -0.5975117f, -0.4608084f, 0.2710493f, -0.1810309f, 0.1369148f, -0.1769332f, 0.4526634f, -0.0552756f, -1.1017697f, 0.4448314f, -0.6016745f, 0.2724431f, 0.7266939f, -0.1991976f, 0.1647761f, -0.5310153f, -0.7060090f, -0.1109934f, 0.1359839f, -0.6618953f, 0.2158770f, -0.4421737f, 0.9182176f, 0.7331966f, 0.3996755f, 0.4059028f, -0.0721314f, 0.1054618f, 0.0497795f },
    { 0.0467344f, -0.0725293f, 0.5335991f, -0.3129944f, -0.0927617f, 0.2550210f, -0.0270045f, 0.2240254f, 0.0485313f, -0.3903082f, 0.0739706f, 0.3905312f, 0.0314730f, -0.1228120f, -0.0312543f, 0.1547545f, -0.0657497f, 0.2070283f, -0.4780306f, 0.1215895f, 0.1230678f, 0.1067695f, -0.6220852f, -0.3623066f, -0.0996625f, -0.0446008f, -0.2789803f, -0.6685403f, 0.3034660f, 0.0262982f, 0.1342810f, -0.1922751f },
    { 0.1739333f, 0.1465763f, -0.4222852f, 0.1209540f, -0.0511849f, -0.0704092f, 0.9248980f, 0.0019347f, 0.2351058f, -0.0838496f, -0.0792469f, -1.4359294f, 0.0464311f, -0.1416053f, -0.0532391f, -0.4832550f, 0.6796177f, -0.8633671f, 0.7562706f, -0.5533612f, 0.1962216f, 0.1263439f, 0.5026608f, -0.1000892f, -0.6688065f, 2.7370255f, 2.3997412f, 0.2715410f, -0.5388510f, 0.0300191f, 0.0855824f, 0.0108335f },
    { -0.1964274f, -0.2231741f, 0.6910776f, -0.3667164f, 0.2466633f, -0.7791009f, -0.8750980f, 0.0948685f, -0.0829558f, 0.0522350f, 0.0999431f, 0.3613117f, 0.2642635f, 0.0981251f, 0.0078706f, 0.2847126f, -0.7552197f, 0.6607893f, 1.1402172f, 0.0043068f, -0.0676257f, 0.1689726f, -0.6854019f, -3.5672681f, -0.2819403f, 0.0287417f, 0.0773701f, -1.0083240f, 0.8767858f, -0.0149776f, 0.0985754f, 4.1588702f },
    { 0.2217445f, -0.0749207f, 0.5147483f, 0.1038056f, 0.0659220f, 0.7794765f, -0.2327811f, -0.2111595f, -0.2442441f, 0.2935767f, 0.0391268f, -0.2241808f, 0.4126888f, -0.5200922f, 0.1519286f, 0.2092492f, -0.0228635f, -0.0641765f, -0.1217502f, -0.6401815f, -0.0073931f, 0.1305103f, -0.5340289f, -0.0621846f, 0.3074283f, 0.4665450f, 0.6781864f, -0.5094241f, 0.0103030f, 0.0430095f, 0.1184032f, -0.1942018f },
    { 0.1955255f, -0.1159280f, 0.1589712f, 0.1481370f, -0.1941711f, 0.2613947f, 0.0917849f, 0.0612737f, -0.0844419f, -0.2439861f, 0.1565869f, -0.0053696f, 0.0286656f, -0.0343144f, -0.0203482f, -0.2128334f, -0.1408825f, 0.3890148f, -0.6356385f, 0.3145888f, -0.1653300f, 0.1783924f, -0.2827201f, -0.2688403f, 0.0081674f, -0.0356785f, -0.6331880f, -0.9514363f, 0.0441994f, 0.0732389f, 0.1498160f, -0.1793437f },
    { 0.1265140f, 0.0384336f, -2.8391471f, -0.4276276f, -0.2338111f, 0.8390769f, 0.0681910f, -0.1226522f, 0.1071458f, 0.3428707f, 0.1777058f, -1.3329811f, -3.1060767f, 1.0557625f, 0.0048971f, 0.7639167f, 0.6975441f, -2.1387131f, 1.0077418f, 4.4446278f, 0.1415584f, 0.1302028f, 2.9501693f, 0.0237347f, 5.0284410f, 1.8980840f, -2.1570590f, -2.1816826f, -0.4549414f, -0.0077398f, -0.0098644f, 0.0444060f },
    { -0.1182870f, -0.0270550f, 1.1507994f, -0.6989342f, -0.2803804f, -2.1135683f, -1.0376427f, -0.1776414f, 0.1299931f, -0.0933400f, 0.2234025f, 1.5097101f, 0.6774505f, -0.3927566f, -0.1617411f, 0.9797447f, -1.0457269f, 0.9471802f, 0.0938823f, 0.1544326f, -0.0773656f, -0.0104977f, -1.7196037f, -4.0170026f, -0.1190557f, 0.7434546f, 0.4614602f, -1.2301404f, 0.4896316f, 0.0476309f, 0.2126693f, 4.5116920f },
    { -0.0027639f, 0.0179858f, 0.2049464f, 0.2791552f, 0.2163207f, -0.2191889f, 0.2864121f, 0.0058308f, -0.2463945f, -0.1134452f, 0.1590838f, 0.3733202f, -0.1439847f, 0.0460098f, -0.0726439f, 0.1915199f, 0.0924346f, -0.5439979f, 0.5580426f, 0.1324417f, -0.0232699f, -0.1709347f, -0.3380904f, -0.3286816f, 0.2967429f, -0.0979574f, -0.7603243f, -0.0431679f, -0.0107699f, 0.0822281f, -0.1016191f, -0.1216770f },
    { 0.1530741f, 0.1153604f, 0.3853105f, 0.1062520f, 0.3027449f, -0.1694341f, -0.2643325f, 0.0777191f, 0.0449484f, -0.0471270f, -0.2129532f, 1.1155831f, 0.4346932f, -0.0213834f, -0.0108729f, -0.4894646f, -0.1930458f, 0.3407364f, -0.2503093f, 0.1970312f, 0.1324426f, -0.0270137f, -0.5791930f, -0.3310086f, -0.4698426f, -0.0851584f, -1.2412705f, -0.0968709f, -0.4728828f, 0.1199212f, -0.0220039f, -0.3065432f },
    { -0.0360394f, -0.0418710f, -0.1231445f, -0.0216402f, 0.0092169f, 0.0398274f, 0.1360654f, -0.2280596f, -0.1570198f, 0.1456694f, -0.1594359f, 0.0720431f, -0.0114337f, 0.0729957f, 0.2565010f, -0.1173509f, 0.0390496f, 0.0802022f, 0.0169318f, 0.1525905f, -0.1980179f, -0.1718678f, 0.2345589f, -0.0264005f, 0.2484942f, -0.0116633f, 0.0268538f, 0.4162771f, 0.1001438f, 0.2235131f, -0.0809139f, 0.2307777f },
    { -0.2251443f, -0.1812284f, 0.1774227f, 0.0221788f, -0.0905216f, -0.0789518f, -0.0121052f, -0.0346179f, -0.0352400f, 0.2923968f, -0.1293166f, -0.1448323f, 0.2391112f, -0.1279724f, -0.2424806f, -0.1094591f, 0.0784602f, 0.2012977f, 0.1209130f, -0.1626816f, -0.1227960f, -0.1184403f, 0.1182714f, 0.1753468f, 0.2582796f, 0.0899662f, 0.0290746f, 0.1648609f, -0.1231582f, -0.2137838f, 0.0076664f, -0.1096656f },
    { -0.1987450f, -0.1701069f, -0.1227582f, 0.7666621f, 1.5642114f, 0.7414819f, 0.5118755f, 0.1651261f, -0.0387790f, 0.0690523f, 0.1200543f, -0.0872181f, -0.2228943f, 2.0180922f, 1.8853544f, -0.1986218f, 0.5620250f, -0.0464649f, 0.9619613f, -0.4262072f, -0.1786272f, 0.0072263f, 0.0933387f, 0.1035185f, 0.2061563f, 0.0342850f, -0.7587605f, -0.3644360f, 1.0864259f, 1.7548583f, 0.1283273f, -0.1649644f },
};

  ALPAKA_STATIC_ACC_MEM_GLOBAL const float bias_layer2[32] = { 
      -0.1695035f, 0.2922097f, 0.4695381f, -0.1286290f, -0.1544934f, 0.0576619f, -0.1995219f, -0.0774236f, 0.8540793f, -0.2566903f, 0.1841262f, 0.0422864f, 0.3509908f, 0.3897401f, -0.9858395f, -0.0364352f, -0.2253149f, -0.2130482f, -0.1353441f, -0.1571028f, 0.0116377f, -0.1189732f, -0.3139415f, -0.0422709f, 0.0737291f, 0.1792056f, -0.1770645f, -0.0674591f, -0.1183520f, -0.0981791f, -0.1265918f, -0.2162919f };


  ALPAKA_STATIC_ACC_MEM_GLOBAL const float wgtT_layer2[32][32] =  {
    { -0.1512298f, -0.0884347f, 0.0449608f, -0.0343053f, -0.0417911f, 0.1000310f, -0.0485974f, 0.1080344f, -0.0214546f, -0.0244118f, -0.0260331f, -0.0547825f, -0.0242428f, -0.1749314f, 0.0161191f, 0.1437478f, -0.0923667f, -0.0995169f, 0.1090314f, 0.0124908f, -0.1494958f, 0.1738634f, -0.0018150f, -0.1272303f, -0.1339276f, -0.0117370f, 0.0288069f, -0.0950575f, 0.1476425f, -0.0516411f, 0.0110233f, -0.1691667f },
    { 0.1108670f, -0.1319241f, 0.1380588f, 0.0299961f, -0.1557449f, -0.0825798f, 0.0167564f, 0.0529355f, -0.1328790f, -0.1366413f, -0.0848526f, 0.1147785f, 0.1058154f, 0.0647873f, 0.0844991f, -0.0371283f, 0.0650547f, 0.0286196f, -0.1389171f, 0.0416273f, 0.1670313f, 0.0709529f, 0.0148096f, 0.1168675f, -0.0941724f, 0.1369110f, 0.0732489f, 0.0528412f, -0.0698767f, -0.0858164f, 0.0481078f, -0.0617453f },
    { -0.0841661f, 0.2205167f, -0.1105434f, 0.1260796f, 0.2141682f, -0.2289418f, -0.0885472f, 0.0004073f, 0.3397980f, 0.2146912f, -0.0844862f, -0.0795792f, -0.0276895f, 0.2404687f, -0.5435475f, 0.1348819f, -0.0100644f, 0.0971661f, 0.1800686f, 0.2612933f, -0.1894411f, -0.2059743f, -0.0694192f, 0.1962248f, -0.1277953f, 0.3085035f, -0.0306779f, 0.1804116f, -0.1870965f, -0.0365256f, 0.0698286f, -0.0839964f },
    { -0.1180025f, 0.0132038f, 0.3161107f, -0.0048193f, 0.0951789f, -0.0677543f, 0.0829735f, -0.0761413f, 0.2528946f, 0.0226938f, 0.3056851f, -0.9962978f, 0.3223003f, 0.2112198f, -0.5219836f, -0.0596000f, 0.2523871f, 0.0964980f, -0.1698294f, -0.0813046f, -0.0583424f, 0.0457809f, -0.2060608f, -0.0088231f, 0.1713531f, 0.0580938f, -0.1625986f, 0.0355252f, 0.1409817f, -0.0698487f, -0.4586120f, -0.1752551f },
    { -0.0528548f, 0.5359938f, 0.4189294f, -0.4003890f, -0.3647923f, -0.0592020f, 0.0090114f, -0.4322640f, 0.0139484f, -0.2639773f, 0.5801836f, -1.1996467f, 0.5738586f, 0.3820994f, 0.0601381f, 0.2757042f, -0.0883916f, -0.1044900f, -0.2072752f, -0.4631359f, -0.1636845f, -0.1897467f, -0.1266302f, -0.4035257f, 1.3104290f, 0.5425879f, 0.0820114f, -0.3422523f, -0.0386511f, 0.0957967f, -0.6711297f, -0.2134194f },
    { 0.1523338f, 0.1226210f, 1.5868237f, 0.0517132f, 0.0104944f, -0.2179618f, 0.0563863f, 0.5908272f, -0.6957221f, 0.1061211f, -0.0087314f, -1.7845235f, -0.1230155f, -0.1072503f, -1.0151221f, 0.0167446f, 0.1442372f, 0.1890395f, 0.1703373f, 0.1627859f, 0.0200934f, -0.0671723f, 0.1236694f, -0.1731428f, 0.8957870f, 0.0031799f, -0.1491934f, -0.0759638f, 0.4402028f, -0.1119713f, -0.6563521f, -0.0304475f },
    { -0.0250551f, 0.0522012f, 0.1305745f, -0.0062250f, -0.0100539f, 0.0764476f, 0.0092616f, -0.3000144f, 0.1551358f, -0.0077721f, 0.1712278f, -0.4013256f, 0.3226271f, 0.2209172f, -0.0293705f, -0.1032229f, 0.0395042f, 0.3078912f, 0.0089209f, 0.2092836f, -0.0209358f, -0.1119431f, 0.0549617f, 0.2621174f, -0.2165639f, 0.2255429f, 0.1156294f, 0.2173723f, 0.1298685f, 0.1241587f, -0.6532549f, 0.0729476f },
    { -0.0719916f, 0.1056800f, -0.1352933f, 0.0889269f, 0.1524294f, -0.0060690f, -0.0986998f, 0.0855547f, -0.1653189f, -0.1484989f, -0.0676435f, -0.0690776f, -0.0753535f, -0.1344397f, 0.0015689f, -0.0909612f, -0.0579259f, -0.1656436f, -0.1458589f, 0.0186582f, 0.0332513f, -0.0866891f, -0.1016259f, -0.1492256f, -0.0888681f, 0.1265626f, -0.0439008f, 0.1668310f, -0.1605524f, 0.1199203f, -0.1021874f, 0.1433535f },
    { -0.0564969f, 0.1157019f, 0.0790227f, 0.0363322f, 0.0744957f, 0.0959177f, -0.0635159f, -0.0377282f, 0.1859491f, 0.0170181f, -0.2007389f, -0.0229718f, -0.0820573f, -0.1189916f, -0.0368577f, 0.0473083f, 0.1714166f, 0.0093910f, -0.0389499f, 0.0049280f, -0.0103210f, 0.1648535f, 0.1014110f, -0.1227080f, 0.0331885f, 0.1115330f, -0.1163506f, 0.0201954f, 0.0268243f, 0.0239459f, 0.0133527f, 0.0463209f },
    { 0.0423857f, 0.0313280f, -0.9011873f, -0.0133945f, 0.0038611f, -0.2954780f, -0.1961554f, 0.1000427f, -0.6066244f, 0.4316411f, -0.1437796f, 0.2690109f, -0.8165972f, -0.7654420f, 1.9093357f, 0.0465891f, 0.0221354f, 0.0066224f, 0.2599552f, 0.0982093f, 0.0793702f, -0.1796153f, 0.2690848f, 0.1572801f, -0.0862533f, 0.0163075f, 0.0427072f, 0.0708655f, 0.0366874f, -0.1464743f, 0.0670022f, 0.0663043f },
    { 0.1402186f, 0.1576201f, 0.0571907f, -0.0072167f, -0.0366628f, 0.1624769f, -0.1424325f, 0.1703880f, -0.1440171f, -0.0655039f, -0.0935466f, 0.1563985f, 0.0233720f, -0.1442786f, 0.0901350f, 0.0326641f, -0.0827107f, -0.0476963f, 0.1594089f, -0.0207275f, 0.0203365f, -0.0873331f, -0.0603423f, 0.0888358f, 0.0332747f, 0.1500026f, -0.1336271f, -0.1283830f, 0.0288771f, 0.0511126f, -0.0536176f, -0.0377732f },
    { -0.0566495f, 0.3582174f, 0.2820883f, -0.0637199f, -0.0168560f, -0.0675106f, -0.0458406f, 0.7526495f, -0.0290778f, 0.7117918f, 0.6135960f, -0.1042867f, 0.3469075f, 0.5149991f, -0.1158765f, 0.3796138f, 0.2364606f, 0.1189565f, -0.1953613f, -0.1174519f, -0.1323173f, 0.0898395f, -0.1816330f, -0.2375933f, 0.6304997f, 0.5203792f, 0.0147885f, -0.1679424f, 0.1812733f, -0.0940697f, 0.9682505f, -0.0249815f },
    { -0.0208926f, 0.0131351f, -0.2667643f, 0.2727742f, 0.1088336f, -0.2373472f, 0.0294486f, -0.2339603f, 0.1177795f, 0.2691575f, -0.2384779f, -0.2409614f, 0.1145401f, 0.0204725f, 0.5311701f, 0.2257549f, 0.2037646f, 0.1121553f, 0.2252966f, 0.2502860f, 0.0783527f, 0.0019825f, 0.2986438f, -0.0360239f, -0.3505072f, -0.1185092f, 0.0317224f, -0.0176802f, 0.3130744f, 0.0276202f, -0.2044020f, -0.0184587f },
    { -0.0643188f, 0.6097096f, 0.7051311f, -0.2269451f, -0.2245775f, 0.0608591f, -0.0659684f, -0.3236180f, -0.1390819f, -0.7064353f, 0.9418848f, 0.5045637f, 0.6283364f, 0.2970888f, 0.0491128f, 0.1790215f, -0.0997659f, -0.4518470f, -0.5528621f, -0.1986864f, 0.0060027f, 0.0087297f, -0.4009930f, -0.5915034f, 3.1132698f, 0.4976280f, 0.0081512f, -0.5435217f, -0.0072250f, -0.0532804f, 0.3340865f, -0.1419674f },
    { -0.1353987f, -0.7849376f, -1.9733378f, 0.9052956f, 0.9782721f, -0.0804696f, -0.0099537f, 0.9572610f, 0.0659797f, 0.8402038f, -0.6111622f, 0.5502985f, -0.9761897f, -0.8175628f, 0.2933429f, -0.3850816f, 0.9074996f, 0.7568822f, 0.8749452f, 0.8723171f, -0.1868730f, 0.0296445f, 0.9463211f, 0.9381843f, -6.9154429f, -0.7749677f, -0.1441332f, 0.6643895f, 1.1721847f, 0.0619046f, 0.7128155f, -0.0837513f },
    { -0.0936242f, -0.1037173f, 0.4426387f, -0.0852474f, 0.1292172f, -0.1712745f, 0.0871102f, -1.8505988f, 0.0988693f, -0.2454600f, -0.0534737f, 0.6122471f, 0.0560423f, -0.0654735f, -2.3603148f, -0.1487080f, -0.7730852f, 0.2251033f, 0.0001613f, 0.2094388f, -0.0675892f, 0.0165017f, -0.0124194f, -0.0140326f, -0.2216542f, 0.1210552f, -0.0023468f, 0.1878741f, -1.3963906f, -0.1855847f, -1.7044362f, -0.1351077f },
    { -0.0599373f, 0.2920015f, 0.2344492f, -0.0764593f, -0.0001701f, -0.0821894f, 0.0054098f, -0.2067879f, 0.2450240f, -0.1518134f, 0.3260605f, -0.1426316f, 0.2489715f, 0.3827001f, -0.0717003f, 0.0356667f, 0.1127612f, 0.1987002f, 0.0518073f, 0.0371187f, -0.1042787f, -0.1447323f, -0.0293610f, 0.0350106f, 0.3609481f, 0.2689063f, 0.1364805f, 0.1027015f, -0.0483358f, -0.1340945f, -0.2101323f, 0.0427004f },
    { 0.1653028f, 0.1396421f, 0.1174899f, 0.1428103f, 0.0173478f, -0.2229909f, -0.1902366f, 0.2787234f, 0.0070015f, 0.0186066f, -0.3186164f, -0.0632141f, -0.0734532f, -0.0824045f, -0.9874761f, 0.0884061f, 0.2251539f, 0.0624444f, 0.2307521f, 0.1369542f, -0.1964328f, -0.1269457f, 0.2150655f, 0.1706728f, -0.3243357f, 0.0975609f, -0.0805113f, 0.1984488f, 0.3051482f, 0.0215298f, -0.1597631f, 0.0741659f },
    { -0.0269802f, 0.5048047f, 0.5683080f, -0.2999536f, -0.4115312f, 0.0527699f, -0.0079232f, 0.0061653f, -0.0997747f, -0.7503133f, 0.7923338f, -0.3529152f, 0.4351232f, 0.1489668f, 0.2984403f, 0.1325541f, -0.1670687f, -0.4222518f, -0.2065028f, -0.2822203f, 0.0839205f, -0.0354024f, -0.0562240f, -0.3786990f, 1.1777031f, 0.3414146f, -0.1784489f, -0.4321547f, -0.0578322f, -0.0937259f, -0.6296101f, -0.1681098f },
    { -0.1390156f, -0.1856238f, -0.4899258f, 0.0195786f, 0.3645969f, -0.0389776f, -0.1959935f, -0.2148540f, 1.3939872f, -1.0895624f, -2.4206212f, 0.7456912f, -1.5128666f, -0.9188718f, -5.3424988f, -0.0454379f, -0.2996856f, -0.0069401f, 0.3704287f, 0.4208302f, -0.1192905f, 0.0786044f, 0.1588979f, 0.2551205f, -1.3342392f, -0.2282782f, -0.1148709f, 0.3041512f, -0.3304548f, 0.0459706f, -0.2899872f, -0.1506764f },
    { -0.0596686f, -0.1233171f, -0.0175781f, 0.0159548f, 0.0140771f, -0.1737489f, 0.0269031f, 0.1071762f, -0.1093895f, -0.1730946f, 0.0735629f, 0.0796658f, 0.1074656f, -0.1214506f, 0.1568244f, -0.0542799f, -0.0074375f, -0.0931667f, 0.0892357f, -0.1426476f, -0.1118290f, 0.1140903f, 0.1204848f, 0.1311642f, 0.1073611f, -0.1657085f, 0.1505993f, 0.0889630f, 0.0066004f, 0.1693156f, 0.0808119f, 0.0489357f },
    { -0.0883246f, -0.0106107f, 0.1520554f, -0.1288827f, -0.1222293f, -0.0809108f, -0.1624103f, -0.0899643f, 0.0275813f, 0.1056181f, -0.1183184f, 0.1394328f, 0.0567627f, -0.1744335f, 0.1565313f, -0.1192716f, -0.0027043f, -0.1133044f, 0.1624090f, 0.0476826f, 0.1671946f, -0.0547903f, -0.0483728f, -0.0267999f, -0.0334198f, -0.1695107f, 0.1314901f, 0.1190350f, 0.0731957f, -0.0323165f, -0.0729583f, 0.0690131f },
    { 0.0217060f, 0.4518883f, 0.3626316f, 0.0564270f, -0.1672197f, -0.2063417f, 0.1097201f, -0.1622432f, -0.2494080f, -0.6892592f, 0.3591910f, -0.0597018f, -0.0297959f, 0.1835388f, -0.1514627f, 0.2145204f, -0.2753506f, 0.0569815f, -0.2064089f, -0.2451252f, -0.1474228f, 0.1089483f, -0.0968808f, -0.0466166f, -0.1819919f, 0.2384253f, -0.0936434f, -0.1277068f, 0.0971487f, -0.1247112f, -0.4493541f, 0.0160282f },
    { 0.1663570f, -0.9963112f, -0.2516398f, 0.9742799f, 1.0881891f, -0.3290859f, -0.2440047f, 0.1727156f, -3.9617202f, 0.2037940f, -0.8934081f, -0.8174817f, -0.4977605f, -0.5371165f, 0.4742563f, -1.2670289f, 0.7221261f, 0.7834840f, 1.3444614f, 1.1776285f, 0.0305127f, -0.0877852f, 0.6371983f, 0.9430434f, -0.0375798f, -1.2995344f, 0.0781833f, 1.2366351f, 1.1289214f, 0.1391736f, 1.3893657f, 0.0148967f },
    { -0.0004296f, 0.3561269f, 0.0615257f, 0.0618995f, -0.0141697f, -0.2749920f, -0.0915592f, 0.4077169f, -1.0732948f, -0.6890314f, 0.1942211f, 1.3547902f, -0.0407594f, -0.1596265f, -0.0847367f, 0.1299210f, -0.3044821f, -0.0840864f, -0.0220600f, -0.1684148f, 0.0079853f, -0.1294212f, 0.1012631f, 0.0402961f, 0.1081825f, 0.3128012f, 0.0918002f, -0.1746533f, -0.1583763f, -0.1442577f, 0.7305894f, 0.0374084f },
    { -0.0370922f, -1.0562527f, 0.1171519f, 0.7670376f, 1.0244144f, 0.0384492f, 0.0463455f, 1.8935984f, 0.1408337f, 2.5485559f, -0.5358697f, 1.7440797f, -0.4503964f, -0.8548670f, -1.4698662f, -0.3268526f, 0.8523567f, 1.4589505f, 0.9825604f, 1.0605205f, -0.0122345f, -0.1828210f, 1.0846014f, 0.8848224f, 0.2073770f, -1.1032445f, 0.0985079f, 0.8321621f, 0.8180844f, -0.1167848f, -1.8142767f, -0.1312599f },
    { -0.1422421f, -0.2864935f, 0.7502307f, 0.3549210f, -0.3720337f, 0.1304740f, 0.0681484f, -0.0876262f, 0.5542603f, -0.6790601f, 1.3022380f, 0.3643727f, 0.3105164f, 0.6470032f, -0.0688714f, -0.0414153f, -0.2163450f, -1.7379851f, 0.1048579f, 0.1093841f, -0.0730337f, 0.0333175f, 0.1999401f, -0.1412251f, 1.4539932f, -0.1860545f, -0.2160422f, 0.3269937f, -0.1187862f, -0.1095113f, 0.5662229f, -0.0212098f },
    { -0.1746345f, -0.2475307f, -1.0474703f, 0.0853919f, -0.0986445f, -0.0782364f, -0.1349905f, -0.7696069f, -0.9521176f, 0.6428981f, -0.1452788f, -1.5033469f, -0.7901719f, -0.7138692f, 1.4295207f, 0.1546703f, 0.3240170f, 0.2272077f, 0.4163945f, 0.1789968f, 0.0427937f, 0.0965097f, 0.2002280f, 0.0221315f, -0.3350942f, -0.3340599f, -0.1195919f, 0.0185085f, 0.3765812f, -0.1449778f, -0.4736147f, -0.0286362f },
    { 0.0401973f, 0.8347664f, 1.5064223f, -0.9205527f, -1.1543856f, -0.1071507f, -0.1771575f, -0.9342261f, 0.4919949f, -0.3042769f, 1.0635396f, -0.7891945f, 0.7417160f, 0.9878661f, 0.3543989f, 0.7590358f, -0.9479676f, -1.1434366f, -0.9710516f, -0.8772341f, 0.0834103f, -0.1498467f, -0.9448988f, -0.8386158f, -4.7769275f, 0.8623704f, 0.1276926f, -0.9894560f, -0.7750064f, -0.0888751f, -0.2039155f, 0.0494879f },
    { 0.1136144f, -0.7915916f, -1.7747331f, 0.6096739f, 0.6707283f, -0.2858517f, -0.0912745f, 0.6273501f, 0.3620395f, 0.8067048f, -0.7737866f, 0.6255855f, -0.9241726f, -0.6892609f, 0.3728165f, -0.2268112f, 0.8743121f, 0.8311077f, 0.6878490f, 0.7805089f, -0.0960440f, 0.0095923f, 0.9702387f, 0.6671587f, -6.9717364f, -0.7963083f, 0.0121193f, 0.7209159f, 1.0046644f, 0.0930097f, 0.4091970f, -0.1725718f },
    { 0.1068988f, 0.0531550f, -0.0825478f, -0.1191483f, -0.1098208f, -0.0169512f, 0.1762048f, -0.1577864f, 0.1028110f, 0.0309578f, -0.1001785f, 0.1114619f, -0.0350030f, -0.1554543f, 0.0617685f, 0.0474626f, -0.1533462f, 0.0590796f, -0.0471493f, -0.0490076f, -0.0987559f, -0.1694475f, -0.1335299f, 0.1129329f, 0.1261806f, 0.0846951f, -0.0983416f, -0.1511731f, 0.0088375f, 0.0497478f, -0.1177936f, -0.0328250f },
    { 0.1202333f, -0.6964752f, 0.0883606f, 0.6573927f, 0.7660101f, -0.0392028f, -0.0807452f, 1.2772483f, -4.8160748f, 0.7095692f, -1.4623361f, 0.2595773f, -0.2580197f, -0.8113952f, 1.3387045f, -0.4282632f, 0.9985327f, 1.0302511f, 0.7010877f, 0.9315091f, -0.1073350f, 0.0760619f, 0.4945278f, 0.3712483f, 0.1822551f, -0.9254839f, -0.1331214f, 0.5866757f, 1.4244815f, 0.0677263f, 0.0453172f, 0.0413236f },
  };

  ALPAKA_STATIC_ACC_MEM_GLOBAL const float bias_output_layer[1] = {0.3033873f};

  ALPAKA_STATIC_ACC_MEM_GLOBAL const float wgtT_output_layer[32][1] = {
    { 0.1092672f },
    { 0.3364091f },
    { 2.0863409f },
    { -0.2763748f },
    { -0.2886849f },
    { -0.0353906f },
    { -0.0422880f },
    { -1.6734926f },
    { -7.8163710f },
    { -2.4228759f },
    { 1.3601782f },
    { -3.0842071f },
    { 1.0242560f },
    { 0.8020926f },
    { 1.7722498f },
    { 0.3175038f },
    { -0.3738365f },
    { -0.5816594f },
    { -0.4560893f },
    { -0.4964221f },
    { 0.0265406f },
    { 0.1095901f },
    { -0.2464049f },
    { -0.1214088f },
    { 5.4386597f },
    { 0.5369657f },
    { 0.0995514f },
    { -0.4137459f },
    { -0.9458389f },
    { 0.1121170f },
    { -4.1287003f },
    { 0.0683721f },
  };

}  //namespace lst::t4dnn

#endif
