#ifndef RecoTracker_LSTCore_src_alpaka_NeuralNetworkWeights_h
#define RecoTracker_LSTCore_src_alpaka_NeuralNetworkWeights_h

#include <alpaka/alpaka.hpp>

namespace lst::t5dnn {
  ALPAKA_STATIC_ACC_MEM_GLOBAL const float bias_layer1[32] = {
      0.8381023f,  1.2556465f,  0.0067099f,  -0.0357693f, 0.1169101f,  -0.0153113f, -0.0846093f, 0.7797670f,
      0.9055398f,  0.1665114f,  -0.0550796f, -0.0567238f, 0.0941665f,  -0.1216114f, -0.1699734f, 0.2718568f,
      -0.0005298f, -0.1234800f, 0.4162073f,  -0.0819755f, -0.0992466f, -0.1968698f, -0.9469606f, 0.5872037f,
      -0.1228067f, -0.4750639f, -0.4919112f, 1.5527098f,  -0.5490310f, -0.1912438f, -0.0286376f, -0.2222957f};

  ALPAKA_STATIC_ACC_MEM_GLOBAL const float wgtT_layer1[18][32] = {
      {-1.3590021f, 0.6276954f, -0.1449918f, 0.0577370f,  -0.1576955f, 0.3870811f,  -0.0306186f, -0.7776857f,
       -2.4529552f, 0.1741910f, -0.1386530f, 0.1470326f,  -0.0229899f, -0.1953953f, -0.0866006f, 0.2343440f,
       -0.0381602f, 0.0025981f, -1.5493799f, -0.1535862f, -0.2149696f, 0.1132401f,  1.0470828f,  0.2647061f,
       -0.0883747f, 2.9208860f, 0.6330654f,  -0.3167520f, -0.0053264f, 0.1200040f,  -1.4732890f, -0.0641288f},
      {1.5409008f,  -0.2445420f, 0.5728381f,  -0.0224280f, -0.2209680f, 0.3975667f, 0.1514053f,  -0.3518175f,
       1.8653508f,  0.1703563f,  0.0541671f,  0.0707710f,  -0.1296598f, 0.0166212f, -0.2231757f, -0.2298288f,
       0.1515491f,  -0.0877527f, 0.0267650f,  -0.0166315f, -0.1833107f, 0.2135980f, 0.4585742f,  0.0545256f,
       -0.1238023f, -3.6342409f, -1.5667412f, 0.7584751f,  1.5726668f,  0.1195947f, 2.2186098f,  -0.1959659f},
      {-1.6374129f, -1.4102328f, 0.8131387f, 0.0225332f,  -0.0153069f, 0.0299461f,  -0.1091296f, -0.0160365f,
       -1.6576413f, -0.1978515f, 0.0032953f, -0.1085755f, -0.0581009f, 0.1631211f,  -0.0659636f, -0.3528317f,
       -0.0149552f, -0.0938201f, 1.6130958f, 0.1513250f,  -0.1115365f, 0.0593220f,  3.0901117f,  -1.3332770f,
       -0.1110921f, 2.0363133f,  2.6538639f, -3.6059115f, 0.7219769f,  -0.1640888f, 0.7755069f,  -0.1108092f},
      {-0.2936167f, 6.1980624f,  -0.4599009f, 0.0311129f, 0.1828872f,  -0.2142502f, 0.2085699f,   1.6321551f,
       -1.1880305f, 0.1927557f,  -0.1985132f, 0.0887561f, 0.1714940f,  -0.1827505f, 0.0312042f,   0.3490315f,
       -0.0019204f, -0.0948882f, -3.3440456f, 0.1356649f, 0.0992870f,  -0.1688469f, -11.9658194f, -0.0076418f,
       0.1754400f,  1.0275215f,  -1.7420135f, 0.2945143f, -1.4503033f, -0.1764025f, -0.8626893f,  -0.1650196f},
      {0.6450894f,  -0.2659193f, -0.0554443f, -0.1571963f, -0.0717938f, -1.6951908f, 0.0990743f,  2.6783466f,
       1.5408627f,  0.0354736f,  -0.0042377f, 0.1060356f,  -0.0842549f, -0.0162483f, -0.1908853f, -1.7604783f,
       -0.0874540f, 0.0929945f,  0.3855971f,  0.2271341f,  -0.0265867f, -0.0940968f, 1.6492866f,  -1.1620234f,
       -0.0054144f, -7.9476857f, 0.6742283f,  3.6346674f,  0.1277585f,  -0.1252134f, 2.7238610f,  -0.2227236f},
      {-0.7608751f, -1.3364639f, 0.2793101f,  0.0671013f,  -0.1188807f, 0.3691385f,  -0.1549930f, -1.0517840f,
       -1.2893225f, 0.2082838f,  -0.0334609f, 0.1394186f,  0.0161169f,  0.0812546f,  0.1173968f,  1.2311919f,
       0.0236558f,  -0.2817375f, 1.3230846f,  0.0783550f,  -0.2084638f, 0.1807853f,  -2.1035442f, -0.4654399f,
       0.0235591f,  3.9155247f,  1.3587128f,  -4.2010083f, 0.6350310f,  -0.0052448f, 0.6574754f,  0.0686782f},
      {-2.7833683f, 10.2854757f, 4.6338739f,  0.0240941f,  -0.0696120f, -0.3897463f, -0.1248256f,  -0.4816284f,
       -4.7507734f, 0.1557197f,  0.2135302f,  0.0618758f,  -0.2073696f, -0.1496306f, 0.0877262f,   2.5853217f,
       -0.0422003f, 0.0184724f,  -3.8206606f, 0.1141581f,  0.1459169f,  0.2033599f,  -11.1376858f, -1.9455458f,
       -0.1760101f, 8.7950487f,  0.6831748f,  -9.6213007f, -1.1076751f, 0.1012195f,  2.7658327f,   -0.1416854f},
      {0.2418604f,  -1.9301127f, 0.3877483f,  -0.0933844f, 0.0126722f,  -1.0790098f, 0.1009928f,  3.7290661f,
       2.1045575f,  0.1211392f,  -0.2160725f, -0.0462994f, -0.0852768f, 0.1915723f,  0.1689342f,  -1.3557134f,
       -0.0077365f, 0.1614280f,  5.2128477f,  0.0722612f,  -0.0341569f, -0.1447665f, -3.7722759f, -1.0395907f,
       -0.0527294f, -3.9730494f, 2.6421480f,  0.9249437f,  0.1579958f,  -0.1002075f, 1.7829212f,  -0.2132620f},
      {-0.2429990f, 0.2634341f, 0.2590226f,  0.0672474f,  0.0036324f,  0.0303038f,  0.0897552f,  -0.6256298f,
       -1.6122288f, 0.0027225f, -0.1595401f, -0.0935275f, -0.1982563f, 0.0155485f,  0.1946360f,  1.4213501f,
       0.0137804f,  0.1520022f, 0.9409513f,  -0.1742253f, -0.1503127f, 0.0523944f,  -0.0227176f, 0.3040073f,
       -0.0240107f, 1.0642775f, -1.0194819f, -2.0675447f, -0.0253559f, -0.0036589f, 1.4283713f,  0.1586476f},
      {-5.0235038f, -18.3295002f, -5.7430124f, 0.0443320f,  0.1303882f,  0.4247405f,  0.0121365f,  -4.8916097f,
       0.9041749f,  0.1742271f,   -0.2020964f, 0.1310671f,  -0.0256758f, 0.1279234f,  -0.2113014f, 1.5976193f,
       0.0230461f,  0.3957245f,   15.0924625f, -0.0339573f, 0.2194625f,  0.1601087f,  4.2093749f,  -1.7748410f,
       0.0570550f,  -3.7076390f,  24.7426872f, 10.6664305f, 4.9739928f,  -0.1869711f, -3.9020858f, -0.0625287f},
      {-1.2785814f, 0.4951370f,  -0.1854935f, -0.0854860f, -0.0326400f, -1.4217318f, -0.0526660f, 2.3796616f,
       1.1375890f,  -0.1294750f, 0.1514099f,  -0.0875889f, 0.0334763f,  -0.1046284f, -0.1509691f, 1.8961424f,
       0.0482185f,  0.1560478f,  1.1729040f,  0.2059654f,  -0.0396296f, 0.0583655f,  0.2114737f,  1.1078014f,
       0.0713762f,  -5.2123141f, 3.3188431f,  -1.5417687f, -2.2969320f, -0.1852825f, 1.5388242f,  -0.1949441f},
      {0.3436254f,  1.5141397f,  0.3445305f,  0.0537090f,  0.0983261f,  0.2764109f, 0.0450150f,  0.3694516f,
       -0.1495358f, 0.0250220f,  0.0863517f,  0.1613176f,  0.1065962f,  0.1730740f, -0.0821967f, -0.8726079f,
       -0.0041691f, -0.0050251f, 1.0713325f,  0.0622442f,  -0.0212901f, 0.0256977f, 0.0212109f,  0.4948872f,
       -0.0750605f, 1.9991436f,  -6.2873325f, -1.7726667f, 0.0714888f,  0.0387835f, 0.3844735f,  -0.1025873f},
      {13.7695932f, -17.3070316f, -0.0396740f,  0.0129914f,  -0.1876401f, 3.8251970f,  0.2313863f,  -5.4996729f,
       14.7995348f, -0.0461617f,  -0.1183308f,  0.0492157f,  0.0139761f,  -0.1253950f, -0.0316143f, -11.3720646f,
       0.0372201f,  0.0982849f,   -1.5191002f,  -0.1424744f, -0.1819868f, -0.2320994f, 4.2790890f,  -0.6142485f,
       -0.1854810f, 0.5198026f,   -18.9082165f, 8.7000732f,  4.5243855f,  -0.0778345f, 2.4486756f,  0.0691332f},
      {0.0951613f,  0.9556295f,  -0.2075231f, -0.0207790f, 0.1411675f,  -0.7328303f, -0.2109708f, -0.0570228f,
       -0.5559142f, -0.0610400f, -0.1140115f, -0.2104663f, -0.1170108f, -0.0814055f, 0.2027502f,  0.6474348f,
       -0.0218391f, 0.0668279f,  0.3389186f,  0.0271586f,  -0.0642117f, 0.0128125f,  -0.6837727f, -0.2763188f,
       0.0651659f,  -1.6473349f, -0.4024041f, 0.6453164f,  -1.8239625f, 0.1908238f,  0.3040223f,  0.0225411f},
      {0.4597256f,  1.3507527f,  0.4121956f,  -0.0016478f, 0.1683506f,  -0.1844230f, 0.1416871f,  -0.3610686f,
       -0.3396192f, -0.0093597f, 0.1620043f,  0.0136876f,  -0.1921590f, 0.2109465f,  -0.1422910f, 1.5516689f,
       0.0199380f,  0.0875053f,  -0.8301335f, 0.0079493f,  -0.0684538f, 0.0361081f,  0.4911018f,  0.4027354f,
       -0.1420899f, 0.9741972f,  -0.2662143f, -1.0193604f, -0.3064712f, -0.1355691f, -0.1211660f, -0.0860424f},
      {0.0226056f,  0.0887831f,  1.8112129f,  1.6017252f,  -0.2053973f, 1.1942143f,  -0.0789642f, 1.8492327f,
       -1.7628566f, -0.1820963f, 0.1481515f,  0.0491807f,  -0.1601979f, -0.0944827f, -0.0244225f, 1.4816471f,
       0.0817022f,  0.1168359f,  -0.3918689f, -0.0036699f, -0.1226492f, -0.1818991f, -0.1200486f, -1.8239323f,
       -0.0273595f, 0.3133134f,  0.3980505f,  -0.3074540f, -1.6801124f, 0.0689322f,  -1.5872164f, -0.0232152f},
      {-1.4185179f, -0.0736576f, -1.8146720f, -1.6101750f, -0.2238937f, 0.8144313f,  -0.0773187f, -2.1662028f,
       0.5510010f,  -0.2138556f, -0.2583132f, -0.1989928f, 0.0310343f,  -0.2301474f, -0.1509903f, -0.0908552f,
       1.6234847f,  -0.2726549f, -0.0519968f, 0.0002568f,  -0.0989678f, -0.1076209f, -0.1692470f, 0.7444451f,
       -0.1140423f, -0.4251049f, 0.7397567f,  0.0376131f,  0.1935069f,  -0.0884010f, 1.0571744f,  -0.1094984f},
      {1.4048315f,  -0.7603406f, -0.0600279f, 0.0053667f,  -0.0833659f, -1.8888202f, 0.0453878f, -0.0496936f,
       1.5723938f,  -0.0734776f, -0.2582742f, -0.0617443f, -0.1607129f, -0.0791748f, 0.0578387f, -1.5397879f,
       -1.7127135f, -0.1419368f, 0.4146990f,  -0.1711587f, -0.1359243f, -0.0187611f, 0.1016016f, 0.9840503f,
       -0.1550723f, 0.0806085f,  -1.1700696f, 0.3543602f,  1.7325212f,  -0.1722032f, 0.4361708f, -0.1782625f},
  };

  ALPAKA_STATIC_ACC_MEM_GLOBAL const float bias_layer2[32] = {
      0.5240659f,  -0.3156822f, 1.1848069f,  0.0944839f,  0.7664731f,  0.0659122f,  -0.1521311f, -0.2121075f,
      -0.0233282f, 1.3092561f,  -1.5706853f, -0.1676442f, -0.6326731f, 0.6803766f,  -0.0098859f, -0.0427784f,
      0.4217910f,  0.5993415f,  0.1781375f,  0.9795442f,  -0.9739875f, -0.0787116f, 0.2965019f,  0.6723404f,
      -0.2183474f, -0.4365332f, -0.1825527f, -0.9912634f, 1.0041238f,  -0.0377338f, -0.0275527f, 0.6230045f};

  ALPAKA_STATIC_ACC_MEM_GLOBAL const float wgtT_layer2[32][32] = {
      {1.6865302f,  -0.0070441f, 0.8035002f,  0.2735598f,   0.2723117f,  0.8619063f,  -0.0804875f, 0.1225932f,
       1.4203900f,  1.1994495f,  1.3166131f,  -0.1413901f,  -1.7412066f, -0.4393452f, -0.0659093f, -0.1708370f,
       -0.9448425f, 0.5583439f,  -0.2568475f, -12.7132454f, 2.4591708f,  0.1297256f,  -0.0836688f, -0.5895968f,
       0.0749868f,  -1.0832437f, -0.0648381f, -0.5253773f,  0.0090072f,  -0.0765873f, 0.1528091f,  0.4434315f},
      {-0.5916990f, 0.0199793f,  2.6379824f,  -0.8051495f, 0.4584879f,  -0.0740655f, -0.0945753f, -0.0077198f,
       -0.9868032f, -0.5211059f, 1.0236850f,  0.0043219f,  -0.7691199f, -0.9887687f, 0.0182249f,  -0.0233012f,
       0.6525627f,  3.3088458f,  -0.0542368f, 0.8937343f,  1.9721413f,  -0.1451552f, -0.6037965f, -0.3363538f,
       -0.1826214f, -0.7827175f, 0.0263213f,  1.2864074f,  2.2937937f,  0.0188819f,  -0.1770117f, 0.1439094f},
      {2.2476032f,  -0.0563116f, 2.2437718f,  0.1898347f,  -2.0759408f, 1.8427511f,  -0.1640616f, -0.1479506f,
       3.2908669f,  -0.6904550f, 3.6500773f,  -0.0827876f, 1.4326503f,  -0.7677880f, -0.0796807f, -0.0939390f,
       -0.3899352f, -0.5100920f, -0.0482071f, 2.4649706f,  2.4606583f,  -0.1814978f, -2.4230726f, -1.4843392f,
       -0.0986952f, -2.8446929f, -0.1327703f, -0.4634184f, -0.9766884f, -0.1103326f, -0.0926516f, -1.7657683f},
      {-1.0957067f, -0.1004687f,  -1.5787225f,  -0.4126261f, 2.8912346f,   -21.3616123f, 0.2207962f,  0.0518269f,
       0.8230206f,  -13.1024904f, -1.8619218f,  -0.0424225f, -1.8340806f,  2.3357768f,   0.1242197f,  0.0754490f,
       4.2121305f,  1.6034925f,   -12.6262836f, 0.5050023f,  -25.2706032f, -0.0431384f,  5.8223386f,  1.0384507f,
       -0.0637078f, 5.0680337f,   -0.0471517f,  -3.0921204f, 5.1592808f,   -0.0875837f,  -0.2792810f, 2.2812967f},
      {0.0304742f,  -0.1621580f, -0.0106217f, 0.0899758f,  0.1324803f,  -0.0700794f, -0.0436681f, -0.0540102f,
       -0.1609280f, -0.0408476f, 0.0065347f,  -0.1726691f, 0.1159499f,  0.1275673f,  -0.1606314f, 0.0174050f,
       -0.1249909f, -0.1623034f, -0.1212896f, 0.0254142f,  -0.0601893f, 0.1673056f,  0.0928323f,  -0.0363208f,
       -0.1524574f, 0.1155388f,  -0.0944822f, -0.0977464f, -0.0798940f, 0.1726533f,  -0.0649631f, 0.0377241f},
      {-0.6356571f, -0.2607541f, -0.4543975f, -0.9816490f, 0.5416448f,  1.1389946f,  -0.1113931f, -0.1674357f,
       -4.8352165f, -1.6452470f, -1.5373472f, 0.0241024f,  0.5536532f,  1.7614238f,  -0.0999563f, -0.0025965f,
       -0.2934853f, 0.9991399f,  4.0100627f,  -0.4765424f, -1.2356933f, -0.1874161f, 2.1570861f,  2.1920633f,
       -0.0976036f, 0.0125106f,  -0.1139313f, -2.1311975f, 0.2431549f,  0.0021341f,  -0.1491757f, 0.2584881f},
      {-0.1554675f, -0.1167430f, 0.0423138f,  0.0711883f,  -0.0020845f, 0.1020336f,  0.0658370f,  -0.1375653f,
       0.0447370f,  0.1206502f,  0.0297869f,  0.1711519f,  0.0798078f,  0.1185202f,  -0.0763909f, -0.1206729f,
       -0.0553183f, 0.1228582f,  -0.0083935f, -0.1761404f, -0.0106561f, -0.0442752f, -0.1696223f, -0.1221765f,
       0.0369741f,  -0.1118567f, -0.0521597f, 0.0321973f,  0.0386908f,  -0.0866795f, -0.0968414f, -0.0050339f},
      {2.1435175f,  -0.1551078f, 3.2713811f,  -2.0504487f, -0.6445094f, -4.6579847f, -0.0102526f, -0.0756903f,
       -0.9215934f, 0.8505831f,  0.3627001f,  -0.1521874f, -1.4340100f, -0.0646441f, -0.2252390f, -0.2244328f,
       -2.9290957f, -0.4925358f, -1.0748628f, -0.1486538f, 2.1188385f,  -0.1755194f, 0.7961836f,  -1.0473205f,
       -0.1901667f, -1.1111301f, 0.0604983f,  -5.0314980f, 1.7197293f,  -0.2024349f, -0.1636181f, 0.1019914f},
      {-1.2713689f, -0.0253136f, -0.3380428f, -1.0638390f, 2.7449236f,  -0.2737443f, -0.1085422f, -0.1602184f,
       -0.0008735f, -1.1007431f, -1.1849335f, -0.2663876f, 2.5792780f,  1.1527174f,  -0.0802239f, -0.1025965f,
       2.5402682f,  -0.3441741f, -0.3981778f, 0.3678156f,  -1.4458398f, -0.0995817f, -1.6316043f, 0.3206491f,
       -0.0369127f, 0.5809332f,  -0.2152892f, 1.3396134f,  0.0399115f,  -0.2546846f, -0.2007722f, 2.8450758f},
      {0.1745115f,  -0.1357176f, -0.1485374f, 0.0909152f,  0.1483210f,  0.0737302f,  -0.1637680f, 0.0000265f,
       0.0481300f,  -0.0105988f, 0.0859076f,  0.0059233f,  -0.1172860f, -0.0107890f, -0.1159891f, 0.1145655f,
       -0.1576843f, 0.1084846f,  -0.1093958f, -0.0556372f, -0.0749590f, 0.0902455f,  -0.1584478f, 0.0336265f,
       0.0504195f,  0.1265924f,  0.0258345f,  0.1492549f,  -0.1250558f, -0.1155385f, -0.0182889f, -0.0004347f},
      {0.1171188f, 0.1014180f,  0.2324671f,  -0.0874626f, -0.1111097f, -0.1645274f, -0.1758595f, 0.1121060f,
       0.1073948f, -0.1074462f, -0.0067733f, -0.0173025f, 0.1683295f,  0.0455249f,  0.0836903f,  -0.0432218f,
       0.0314334f, -0.0055723f, -0.1382432f, -0.0860161f, 0.0697354f,  0.0154966f,  -0.0722437f, 0.1577733f,
       0.0029643f, 0.1032105f,  0.1173788f,  0.1317339f,  0.1496744f,  0.0770678f,  0.1173283f,  0.0357577f},
      {0.1185239f,  -0.1275339f, -0.0635410f, 0.1699650f, -0.0326480f, 0.1617643f,  -0.1413943f, 0.0729402f,
       0.1702773f,  -0.0632184f, -0.1366211f, 0.0920673f, -0.1140343f, -0.1277347f, 0.1160380f,  0.0278655f,
       -0.1432857f, -0.1298375f, 0.0704451f,  0.0651420f, 0.1197187f,  0.1140933f,  0.0547417f,  -0.1408818f,
       -0.0565077f, 0.0153770f,  -0.1723765f, 0.0302536f, -0.1720522f, 0.1721924f,  -0.0277676f, 0.1217176f},
      {0.1335476f, -0.0798768f, -0.1256001f, -0.0555518f, 0.0162756f,  0.1323670f,  0.0731772f,  0.0212993f,
       0.0072618f, 0.0397605f,  0.0464602f,  0.0887792f,  0.0060224f,  0.1080991f,  0.0830178f,  0.1653384f,
       0.0798418f, -0.1128676f, 0.1236111f,  -0.1090344f, -0.1305821f, 0.1371153f,  0.0929448f,  0.1447880f,
       0.1439133f, -0.0474658f, -0.0023591f, 0.0863819f,  0.0067025f,  -0.0828647f, -0.1459741f, 0.0661382f},
      {0.0775701f,  -0.0107607f, 0.0052288f,  0.1162598f,  -0.1544264f, 0.0348644f,  -0.0039653f, -0.0166445f,
       -0.1122926f, -0.0970989f, -0.0087400f, -0.1733506f, -0.0640349f, 0.1163430f,  0.0488566f,  0.0603584f,
       0.0802175f,  -0.1016426f, 0.0904419f,  0.0138907f,  0.1043417f,  -0.0640525f, -0.1136816f, -0.1598310f,
       0.0628116f,  -0.0017224f, 0.1626921f,  0.0660481f,  -0.0982667f, -0.0700596f, -0.0294323f, 0.0861625f},
      {-0.1675477f, 0.0272436f,  -0.0035242f, 0.1187083f,  -0.1380870f, -0.0157775f, -0.0697915f, -0.0699622f,
       -0.1342763f, 0.0789961f,  -0.1271438f, 0.0872695f,  0.0581549f,  -0.0607590f, -0.0108511f, -0.0995454f,
       -0.1476832f, -0.0206303f, -0.1320541f, -0.1646389f, 0.1347268f,  -0.0175878f, -0.1171055f, 0.0748758f,
       0.1002617f,  -0.0571866f, -0.1023152f, 0.0317932f,  0.0121790f,  -0.0910829f, -0.1037444f, -0.1608724f},
      {-0.3124542f, 0.0764635f,  -4.0404196f, 2.4405448f,  -0.5277085f, -0.0794460f, 0.0084510f,  0.0413676f,
       -0.2665683f, -1.1282016f, -1.7190089f, -0.1607474f, 0.2719716f,  0.6015427f,  -0.1233412f, -0.1913827f,
       -0.6120520f, -1.3843068f, -0.2412984f, -3.1972845f, -0.1185272f, -0.0387298f, -0.2240285f, 0.0533012f,
       0.0504851f,  0.0610988f,  -0.1001489f, -1.1528584f, -0.3533484f, -0.0123490f, -0.0334515f, -1.2301358f},
      {0.4601654f,  -0.1414209f, -0.9621689f,  1.8137573f,  -2.2838986f, -4.4931846f, -0.1572768f, 0.1072069f,
       5.4528723f,  2.2122884f,  -0.3047283f,  -0.0339041f, -1.0866505f, -2.9726090f, -0.1335476f, -0.2342451f,
       -0.0534304f, -0.9333688f, -29.1695328f, 2.0819838f,  2.5638790f,  0.0637428f,  -3.7582626f, -27.0329189f,
       0.0063954f,  -0.2693702f, -0.0146772f,  1.8390841f,  0.8366699f,  -0.2030648f, 0.1137383f,  -0.6989926f},
      {-0.1743059f, -0.0957818f, -0.0871742f, -0.1385888f, -0.1365321f, -0.0919264f, -0.1399330f, 0.0151470f,
       0.1561736f,  0.0304706f,  0.1576773f,  -0.1426032f, -0.0184744f, -0.0060727f, 0.0556644f,  0.0737400f,
       -0.0456601f, -0.2015950f, 0.0249077f,  -0.0187826f, 0.0792705f,  0.1462519f,  -0.0432748f, 0.0854118f,
       -0.0254023f, -0.0932964f, 0.0814000f,  -0.0787024f, -0.1832910f, -0.0786179f, 0.1766943f,  -0.0088678f},
      {-0.5439317f, -0.1930895f, -1.0358741f, 0.4872003f, 0.6833679f, 1.0468842f,  -0.0627756f, 0.0198605f,
       0.7245910f,  0.6532924f,  0.7456506f,  0.0358964f, 0.2300356f, 0.1437002f,  -0.1478491f, -0.0421908f,
       -0.0789506f, 0.2844093f,  0.2296336f,  0.4280334f, 1.4064584f, -0.1321349f, -0.8637751f, -0.1172594f,
       -0.0362588f, 0.7996452f,  -0.0449324f, 1.2125486f, 0.0968685f, -0.1714050f, -0.2332757f, 0.8290989f},
      {-0.0017863f, 0.0457680f,  -0.1074851f, 0.1084963f,  -0.1220080f, 0.0877163f,  0.1203982f,  -0.0686339f,
       0.1015984f,  -0.1207048f, -0.1723345f, 0.1024277f,  -0.1272804f, -0.1729792f, -0.1319194f, -0.0493638f,
       0.1197342f,  0.1245080f,  -0.1654372f, 0.0882649f,  0.0901894f,  0.1552375f,  0.1640406f,  0.1594699f,
       -0.0598430f, 0.1478111f,  -0.0616796f, -0.1181406f, -0.1052980f, -0.0984066f, 0.0466656f,  -0.0873392f},
      {0.1106081f,  -0.1091835f, -0.0491951f, 0.1428439f,  -0.0186455f, -0.1435021f, -0.0600320f, -0.0949400f,
       -0.1443260f, -0.1643064f, 0.1652100f,  0.0036460f,  0.0288626f,  0.0818249f,  0.1190063f,  0.1581414f,
       0.0098145f,  0.1525386f,  -0.0470744f, -0.0174385f, -0.0032746f, -0.1561369f, -0.0895720f, 0.1446918f,
       0.1006111f,  0.0952710f,  -0.1043464f, 0.1760491f,  0.1751994f,  -0.0237520f, -0.1052991f, -0.1153077f},
      {-0.1684862f, 0.0088422f,  -0.1341807f, 0.1154328f,  -0.1703036f, -0.1689639f, -0.0292963f, -0.1486230f,
       -0.0202071f, 0.0108027f,  0.1484894f,  -0.1215195f, 0.0628160f,  0.0719851f,  0.0958405f,  0.0008012f,
       -0.0687633f, 0.0022042f,  -0.0232379f, 0.0917159f,  0.1057866f,  -0.0831145f, -0.0961659f, -0.1693817f,
       -0.1395387f, -0.1479967f, -0.0266380f, 0.1574190f,  0.0133269f,  -0.0700487f, -0.0594231f, 0.1698502f},
      {0.3639083f,  -0.1561024f, -0.7568483f, 0.1935690f,  0.2883060f,  0.2512229f,  -0.1334913f, 0.0112297f,
       0.0304261f,  0.4176840f,  -1.7556530f, -0.0909049f, 0.2336213f,  -2.4152300f, -0.0734550f, -0.0934253f,
       -0.0444598f, -1.5052693f, -0.0080532f, -0.1239790f, 0.0072221f,  -0.1124994f, -0.4956763f, 0.6296224f,
       -0.1594838f, 1.8049315f,  -0.0764750f, 0.6222402f,  -0.2394568f, -0.1180138f, 0.0719956f,  0.1186023f},
      {-1.7439748f, -0.1896478f, -0.3346063f, 1.9717994f,  -0.3763428f, -1.3512611f, -0.1285691f, -0.1149345f,
       -0.6938587f, -1.0748692f, 1.6610687f,  -0.2358596f, 2.6839828f,  2.5736220f,  -0.2106378f, -0.0970192f,
       -0.4411264f, 2.9166622f,  -0.9682972f, 1.4566983f,  -0.8942411f, 0.0767526f,  -0.2383756f, -0.0954847f,
       -0.0252277f, 0.5873390f,  0.0485610f,  1.2839676f,  -1.0016359f, -0.0991812f, -0.0468751f, 1.3210641f},
      {0.0135437f,  -0.0879198f, -0.1094052f, -0.1025681f, 0.1451267f,  0.0630836f,  -0.0467955f, 0.0920872f,
       0.0147826f,  0.1714088f,  -0.0018927f, -0.0162302f, 0.1139753f,  -0.0322800f, -0.0280083f, -0.1685120f,
       0.0881822f,  0.1222224f,  -0.0225731f, 0.0995662f,  -0.0746114f, 0.1649396f,  -0.1346789f, -0.0861693f,
       -0.0556903f, -0.0376145f, 0.0879924f,  0.0641201f,  -0.1291527f, 0.0164047f,  0.0979619f,  -0.0305348f},
      {1.4435934f,  -0.1033136f, -2.0697176f, 1.8404082f,  1.5736065f,  -0.7922245f, -0.1000865f, 0.0273494f,
       -0.9065717f, 1.3046484f,  -0.3803423f, -0.2029626f, 1.8804103f,  -0.5049760f, -0.1332424f, -0.2173712f,
       1.1021659f,  -0.6780686f, -0.2187140f, -1.5054095f, 0.0034971f,  -0.1576441f, 1.3025562f,  0.9059022f,
       0.0236399f,  2.2910061f,  -0.0750332f, 0.4445155f,  -1.0730588f, -0.1428868f, -0.1658327f, 2.1124966f},
      {-0.1784460f, 0.0730673f,  -5.1235385f, -0.1882881f, -3.5288441f, -0.2259994f, -0.1726394f, -0.1370097f,
       -0.1533520f, -0.1270866f, -4.3133826f, -0.0608662f, 1.3760250f,  1.1956390f,  -0.1297525f, -0.1895235f,
       -0.1225608f, 1.0044372f,  0.0853172f,  -2.3318944f, -1.2085035f, -0.2005011f, -0.6513534f, 0.2713874f,
       0.0829856f,  1.1987237f,  0.0364122f,  0.0853476f,  -2.3690777f, -0.2024412f, -0.0755946f, -3.0887508f},
      {-0.6453744f, -0.1637572f, -0.2874516f, 0.7690926f, 0.7505430f, 0.4669090f,  -0.0990388f, 0.0103152f,
       0.4612448f,  -0.5246852f, 0.1446148f,  0.0650856f, 0.7211487f, -1.6647208f, -0.0023956f, -0.0785235f,
       2.2165341f,  2.5892341f,  -1.0054595f, 1.5223085f, 1.6814858f, -0.0194431f, 0.2862324f,  -1.5743806f,
       -0.1135486f, 0.5293437f,  0.0606122f,  1.4628854f, 0.2489253f, -0.0523651f, -0.2316726f, -0.0536937f},
      {1.0856206f,  -0.0647455f, -0.3253726f, -1.5043118f, 1.2835978f,  -2.8234291f, 0.0278139f,  -0.1607269f,
       0.4859119f,  0.5244958f,  -1.3842341f, -0.0955697f, -1.4327506f, -1.8437506f, -0.0047875f, -0.1666650f,
       -1.3057747f, -1.6061074f, -1.7119917f, -1.1418145f, 0.6116119f,  -0.2265402f, 0.5035372f,  -0.7038661f,
       -0.0783529f, -0.6158929f, -0.1048231f, 0.0385072f,  -0.6218809f, -0.1713473f, -0.1296085f, 0.2307265f},
      {-0.0857327f, -0.0240921f, -0.1274204f, 0.1491305f,  0.1185468f,  -0.0108924f, -0.1143038f, 0.1323865f,
       0.0393746f,  -0.0015919f, 0.0604275f,  -0.0906805f, -0.1383745f, 0.0986694f,  -0.1355748f, 0.0697662f,
       -0.1569561f, -0.1447346f, -0.1763534f, 0.0037572f,  0.0897957f,  0.1148712f,  0.0425909f,  0.0025856f,
       -0.1289866f, 0.1617438f,  -0.0405906f, 0.0672005f,  -0.0178236f, 0.1483060f,  -0.0193279f, -0.1623956f},
      {0.3731324f,  -0.0058753f, 0.7765094f,  -1.7653806f, 0.2843435f,  -0.6492531f, -0.0483371f, -0.0832393f,
       -1.4071836f, -2.0038152f, -0.5736679f, 0.0249140f,  -1.2218778f, 0.0355671f,  -0.0373252f, -0.0358956f,
       -0.4577911f, -2.3789170f, -0.3592008f, -0.7920797f, -2.7878003f, 0.0165473f,  0.8145875f,  -0.4322619f,
       0.0089995f,  0.1495652f,  -0.1798356f, 0.3815477f,  0.1048888f,  -0.0899370f, -0.2200294f, -1.1391734f},
      {0.1598358f,  0.1171069f,  0.0856818f,  -0.0340354f, 0.0366347f,  -0.0047404f, -0.0117805f, 0.0531076f,
       -0.0954451f, -0.0227147f, -0.0362694f, 0.1743660f,  -0.1138828f, 0.0401388f,  0.1356554f,  0.0545887f,
       0.0459410f,  -0.0985279f, 0.0788853f,  -0.1213196f, 0.0940189f,  0.0302987f,  0.1172330f,  -0.1364847f,
       -0.1695189f, 0.0857164f,  -0.0119831f, -0.0472912f, 0.0749008f,  -0.1740327f, 0.0446429f,  -0.1236778f},
  };

  ALPAKA_STATIC_ACC_MEM_GLOBAL const float bias_output_layer[1] = {2.1143713f};

  ALPAKA_STATIC_ACC_MEM_GLOBAL const float wgtT_output_layer[32][1] = {
      {-1.3546265f}, {0.0473848f}, {-1.1066765f}, {-0.7856320f}, {1.8970097f},  {1.7004912f}, {0.0171833f},
      {0.1014843f},  {1.0655588f}, {1.3870277f},  {1.4482819f},  {0.0146788f},  {1.7867852f}, {-0.4464278f},
      {0.1595784f},  {0.0216729f}, {-0.8184820f}, {-0.5278643f}, {3.9873812f},  {0.8342983f}, {1.2236406f},
      {0.0329035f},  {2.1368678f}, {1.2096084f},  {0.0103834f},  {-1.4747533f}, {0.1212516f}, {-1.5780485f},
      {-0.7259769f}, {0.0657829f}, {-0.0011842f}, {-1.9428015f},
  };

}  //namespace lst::t5dnn

namespace lst::t4dnn {
  ALPAKA_STATIC_ACC_MEM_GLOBAL const float bias_layer1[32] = { 
    //  -0.1912854f, -0.0849498f, 0.1219664f, 0.2314670f, -0.1179523f, 0.1122985f, 0.0402976f, -0.2731683f, 
    //  -0.1644799f, -0.0239437f, -0.1547132f, 0.1122182f, 0.1298354f, -0.1562359f, -0.3653640f, 0.0299976f, 
    //  0.2988719f, -0.2012234f, -0.1327171f, -0.3577144f, 0.2966574f, 0.1065415f, 0.0400912f, -0.0600470f, 
    //  -0.1937708f, 0.1129468f, 0.1019229f, -0.0901171f, 0.0699656f, -0.0842020f, -0.2763416f, -0.4025504f}; //trained on muonGun 10,000
    // -0.0258236f, -0.1926127f, -0.6809401f, 0.3704538f, 0.0461096f, -0.6166604f, -1.4296620f, 0.5809874f, 
    // 0.5473663f, -1.9222312f, -0.0991836f, 0.1380772f, 0.0904825f, 0.8471369f, -0.1402797f, 1.5250278f, 
    // 2.3478577f, 0.8342136f, -0.0054415f, -0.0914460f, 2.4138186f, 0.0334673f, -1.1860660f, -0.0213975f, 
    // -1.3725067f, 0.5515246f, 0.1646616f, 0.0046533f, -1.6719860f, -0.1543396f, -0.4142652f, -0.8841044f }; //trained on PU200
    // -0.1382169f, 0.1463292f, -0.1080524f, -0.1220830f, -0.0779124f, 0.6100990f, -0.3307777f, 0.6208164f, 
    // -0.0587361f, 0.5220307f, 0.0129478f, -0.1538628f, -0.2223007f, -0.1880768f, -0.2282182f, 0.0143661f, 
    // -0.1384942f, -0.1638340f, -0.0784405f, 0.4522062f, 0.1287331f, 0.1908439f, -0.1794929f, 0.4218231f, 
    // -0.1842543f, -0.2823009f, -0.1900751f, -0.2794634f, 0.2155930f, -0.2117500f, 0.1442965f, 0.1733626f }; //trained on cube5
    -0.0699396f, 0.2122756f, -1.6306140f, 0.4501480f, 0.4408030f, -0.2615731f, -0.2545080f, -0.3029731f, -0.2510533f, -0.1422588f, -0.0209098f, -2.0476000f, 0.1466854f, -0.8572800f, -0.9714492f, -0.6611784f, -0.2018991f, -1.1966499f, -1.0768290f, -0.0592516f, -0.0339096f, -0.8460481f, -0.1474041f, 0.0886387f, -0.5561372f, 1.1997229f, -0.2481186f, -0.2172014f, -1.3206376f, 1.0795889f, -1.7073847f, -0.0307451f }; //trained on PU abs(eta)<1

  ALPAKA_STATIC_ACC_MEM_GLOBAL const float wgtT_layer1[14][32] = { 
    //   {-0.1633447f, 0.0396096f, 0.2234600f, 0.2672516f, -0.3432165f, 0.1342653f, -0.1330370f, -0.1332302f,
    //    -0.0110171f, 0.0247428f, 0.0411180f, 0.0539638f, 0.2436803f, 0.0438577f, 0.1108414f, 0.0238891f, 
    //    -0.2078513f, 0.2474465f, 0.5670732f, -0.0431665f, -0.1452739f, -0.1928649f, -0.0280381f, 0.2439418f, 
    //    -0.0046099f, 0.0617086f, 0.1623563f, -0.1433502f, 0.2969031f, 0.0121156f, 0.3614769f, -0.2407550f }, 
    //    { 0.1763880f, 0.1349614f, -0.1269452f, 0.1455164f, 0.0264549f, -0.1918962f, -0.0362254f, -0.2107851f, 
    //    -0.0882848f, -0.4507211f, 0.0082160f, -0.2917791f, -0.3263226f, -0.1840058f, 0.5781114f, 0.0809615f, 
    //    0.2357137f, -0.3378764f, -0.2697277f, -0.0257314f, -0.5690325f, 0.0809177f, 0.0776805f, -0.0369118f, 
    //    0.2272950f, -0.2509965f, 0.3471441f, 0.0716232f, -0.0664731f, 0.0145312f, -0.1776856f, 0.2612253f }, 
    //    { 0.2598617f, 0.1073837f, 0.1548872f, -0.1755444f, 0.3123616f, 0.0839731f, 0.1549262f, -0.2748361f, 
    //    0.5652580f, 0.2039763f, -0.0823512f, 0.0636231f, -0.2622013f, -0.2049556f, -0.0718823f, -0.0179047f, 
    //    0.0576967f, 0.3539809f, -0.5783132f, 0.0924872f, -0.7953140f, 0.2595658f, 0.1753744f, -0.1732210f, 
    //    0.0462333f, -0.1111853f, 0.0281410f, 0.0563919f, -0.0534050f, -0.1908013f, 0.1678255f, 0.3683847f }, 
    //    { 0.2330478f, -0.2632414f, 0.0309672f, -0.0684396f, -0.5456461f, -0.0176920f, 0.0120900f, 0.0286150f, 
    //    -1.2835971f, -0.2162887f, -0.0875476f, -0.1677586f, 0.0804497f, -0.1115082f, -1.2176771f, 0.2596338f, 
    //    0.5372996f, -1.2231747f, 1.2626491f, -0.2790609f, 1.1433297f, -0.1833443f, 0.1224998f, -0.0881175f, 
    //    0.0087660f, -0.0324312f, 0.0975964f, 0.0592501f, 0.1356061f, -0.5867522f, 0.4319555f, -0.4384020f }, 
    //    { 0.0850871f, -0.2556919f, 0.2542850f, -0.1512913f, -0.1549312f, -0.2006804f, 0.1967878f, 0.0861801f, 
    //    0.0651787f, -0.1778827f, 0.1043633f, -0.1472388f, -0.0811600f, -0.2441216f, 0.4078271f, -0.2624681f, 
    //    0.0229325f, -0.3526221f, 0.3750212f, 0.3858821f, 0.3146455f, -0.0637063f, -0.2421483f, 0.3216312f, 
    //    0.1697904f, -0.1433869f, 0.1018251f, -0.1503656f, 0.2136220f, 0.1052176f, -0.1311448f, 0.1678197f }, 
    //    { -0.2079960f, -0.1455662f, -0.2380075f, -0.1668769f, 0.3413610f, 0.0274095f, -0.0737111f, 0.0248095f, 
    //    0.1671635f, -0.1066350f, 0.4086764f, 0.2107890f, -0.2076001f, 0.0550412f, -0.3681208f, -0.0592825f, 
    //    -0.2224572f, 0.0484030f, -0.5369741f, 0.3161716f, 0.2572295f, 0.0864272f, -0.1034866f, 0.0318998f, 
    //    0.0509224f, 0.0104163f, 0.1337915f, 0.2420978f, 0.1469847f, -0.1453432f, -0.0772194f, 0.3938776f }, 
    //    { -0.2067930f, -0.2544372f, 0.2624402f, -0.1505043f, -1.2939619f, 0.0689595f, 0.0878866f, -0.1058348f, 
    //    -0.9202974f, -0.4353553f, -0.1576520f, -0.2184300f, -0.8839161f, -0.1609760f, 1.1972026f, -0.0517827f, 
    //    0.8314717f, -1.0827479f, -0.3612976f, -0.8185582f, 0.0993080f, -1.1426017f, -0.1846197f, -1.8275906f, 
    //    -0.1071646f, 0.2560395f, -0.1922340f, 1.0059562f, -0.1046958f, -0.6680387f, 1.2187588f, -0.8824728f }, 
    //    { 0.0594094f, -0.2294047f, 0.1317733f, 0.1539556f, -0.4915462f, 0.1684182f, -0.0478411f, 0.0304601f, 
    //    -0.2043486f, -0.2146703f, -0.1536659f, 0.1191005f, 0.9271538f, -0.2213546f, 0.1984303f, 0.1238229f, 
    //    0.1529149f, -0.2471856f, 0.7727757f, 0.4047465f, 1.1938390f, -0.5236154f, 0.0950220f, 0.2344353f, 
    //    0.2046776f, -0.1796411f, 0.1403074f, -0.1792104f, 0.7591064f, -0.1085678f, 0.1927540f, -0.2145639f }, 
    //    { 0.0337420f, 0.0895175f, -0.0176285f, 0.0168944f, 0.1963808f, -0.2462244f, -0.0503016f, 0.0786877f, 
    //    0.1738365f, 0.0285850f, 0.2149580f, 0.2846807f, 0.2587281f, 0.2476943f, -0.2979549f, 0.1289298f, 
    //    -0.0585079f, -0.1122224f, 0.1654451f, -0.2821043f, 0.2717115f, 0.1455549f, -0.0937958f, -0.0445557f, 
    //    0.1032138f, -0.2625058f, 0.1297061f, -0.1767672f, -0.0260140f, -0.2800669f, 0.0841049f, 0.1890039f }, 
    //    { 0.0118688f, -0.2004772f, -0.2527719f, -0.1485458f, 1.0095898f, -0.1373887f, -0.2412137f, 0.1150503f, 
    //    0.2073878f, 0.1958925f, 0.4579445f, 0.5937483f, 1.2381161f, -0.0926057f, -2.7093763f, 0.2058605f, 
    //    0.8931144f, -0.6242576f, 2.2843168f, -0.4288824f, 1.9848769f, 2.0287235f, 0.0158121f, 1.9233149f, 
    //    0.3057423f, 0.2401383f, 1.0334384f, -2.4723094f, 0.9008432f, -0.6843441f, -2.8003895f, -0.1296177f }, 
    //    { -0.0771801f, 0.2592884f, -0.0386258f, -0.0969091f, 0.2344230f, 0.1061140f, -0.1001431f, 0.0221424f, 
    //    0.1432648f, 0.3464790f, 0.1720640f, -0.4892195f, 0.8692586f, 0.0128454f, -0.4506617f, -0.0338444f, 
    //    -0.4501652f, 0.4064663f, 0.2210268f, 0.5092359f, 0.1632861f, 0.4023632f, 0.0409272f, 0.1260043f, 
    //    -0.0800250f, -0.0186601f, 0.0906239f, -0.1216762f, -0.1461730f, 0.5358944f, -0.0770310f, 0.2063366f }, 
    //    { -0.0520565f, 0.2353039f, 0.0820907f, -0.0502669f, 0.3006420f, 0.1298134f, 0.0355772f, -0.0662855f, 
    //    0.2714149f, 0.1274748f, -0.0833251f, 0.1088000f, 0.2342539f, 0.1132130f, -0.8922706f, -0.2532085f, 
    //    -0.0059237f, 0.3688585f, -0.1880610f, 0.0528838f, 0.1181800f, -0.5035955f, 0.1157095f, -0.8956755f, 
    //    -0.1422605f, 0.1962805f, 0.0069374f, 0.2921108f, -0.3573456f, 0.2676197f, 0.1927276f, 0.1810755f }, 
    //    { -0.0759161f, -0.1734124f, -0.0830841f, -0.0787164f, 0.1796897f, -0.0129651f, 0.0064984f, 0.0647227f, 
    //    0.1954685f, 0.1086819f, -0.4384353f, 0.2882578f, -0.1454610f, -0.2480493f, 0.0686750f, -0.2614136f, 
    //    0.2349360f, 0.0386294f, 0.2509992f, 0.0343293f, 0.0179742f, -0.3663110f, -0.0427598f, 0.2564015f, 
    //    0.4285457f, -0.0708971f, 0.0671090f, 0.4238588f, 0.1531314f, -0.1263779f, 0.3306105f, 0.2302867f }, 
    //    { -0.2428329f, -0.1247953f, -0.1333387f, -0.2292066f, -0.1081919f, -0.1880708f, -0.0941270f, -0.0182377f, 
    //    -0.1314467f, 0.2777534f, 0.4830713f, -0.1332826f, 0.1305019f, 0.0499010f, 0.1237252f, -0.1665598f, 
    //    -0.0236997f, 0.0793309f, -0.1056631f, 0.2156625f, 0.2508169f, 0.3566689f, -0.1191179f, -0.2755193f, 
    //    -0.3515334f, -0.1581383f, 0.0695238f, -0.3351882f, -0.0484343f, 0.2385446f, -0.3288657f, -0.0092570f }, //trained on muonGun
      //  { 0.0574559f, 0.2640747f, -0.5385011f, -0.9484204f, -0.2018643f, -1.5945995f, -0.7894997f, 0.4762976f, 
      //  0.2452009f, -1.0629616f, -4.4835963f, -0.2400454f, 0.1647131f, -0.0803057f, -0.0360407f, 0.7223592f, 
      //  1.6612655f, 0.5070801f, -0.1954954f, -0.2374033f, -1.4857392f, 0.0767113f, -1.5020690f, -0.1242289f, 
      //  -2.3586962f, 0.1285759f, 0.5544474f, -0.0675485f, -0.5814595f, 0.0226586f, 0.4342753f, -7.5205188f },
      //  { -0.1532384f, 0.0182472f, 2.2932200f, -2.0253668f, 0.3513236f, -0.9239041f, 1.1119118f, 0.1277466f, 
      //  -0.4158633f, 0.7765799f, -5.2684340f, -0.0222873f, -0.0305613f, 0.2122903f, 0.1395346f, -2.7767143f, 
      //  -0.7153582f, -0.7882552f, -0.0080287f, 0.1486056f, -3.7846344f, -0.2208320f, 1.4415570f, -0.0929512f, 
      //  1.5698956f, -0.5901665f, -1.0589086f, -0.0432682f, 0.4457282f, -0.0208179f, 0.7353544f, -6.2374554f },
      //  { -0.1432360f, -0.0718692f, 0.5664204f, 1.5616238f, 1.1146938f, 3.8382776f, 2.1420951f, -3.1862900f, 
      //  0.7969275f, 1.0265617f, -0.0481286f, 0.1396234f, 0.1368348f, -0.1051320f, 0.2113703f, -3.9199708f, 
      //  1.7601260f, 0.3800547f, -0.0150346f, -0.0188259f, 0.7488473f, -0.2252709f, -1.9624653f, 0.0097220f, 
      //  -2.0350735f, -0.4171932f, 0.0171351f, -0.0237557f, 5.7330589f, 0.1534468f, 1.7041308f, 0.8694991f },
      //  { -0.0438101f, 0.1923274f, 0.0150359f, -10.2304277f, -2.8905916f, 2.6734989f, -13.5451584f, 0.7397913f, 
      //  5.8366876f, 11.0063667f, -1.4000127f, -0.2127460f, 0.1593600f, 2.7652044f, -0.0087428f, 1.0560592f, 
      //  0.2908427f, -0.1100928f, 0.0162456f, 0.0514960f, 0.8262066f, 0.1117498f, -1.6111544f, -0.0161268f, 
      //  -3.7639041f, 16.1700230f, -3.9507155f, 0.0824359f, 1.6926798f, -0.1995000f, -0.2850926f, -7.9980526f },
      //  { 0.0475492f, 0.2515486f, 4.9120054f, -3.6235414f, 1.0972869f, 2.2348769f, -0.8753812f, -1.7593901f, 
      //  1.9949952f, 2.1673522f, -3.3620408f, 0.1519844f, -0.2023582f, 2.7044907f, -0.1943743f, 0.4181893f, 
      //  -1.3435113f, -0.4975004f, -0.2384530f, 0.1609448f, -4.8267617f, 0.0132245f, 2.3519208f, -0.1768602f, 
      //  4.1154814f, 1.4576659f, -1.5174315f, 0.1378064f, 1.8144836f, -0.0600110f, 2.7330589f, -5.8888521f },
      //  { -0.1320723f, 0.2184408f, -0.1418513f, 2.0789194f, -0.7115535f, 1.6967900f, 0.7480806f, -2.6941109f, 
      //  -2.2087173f, -0.1140639f, 0.6646197f, 0.1336563f, 0.0020126f, 0.0168193f, -0.1300363f, 2.9891632f, 
      //  2.6281042f, 0.1390846f, 0.1349153f, 0.0643507f, 0.5049766f, 0.1818222f, -5.4549904f, 0.1334919f, 
      //  4.5962911f, -2.3776443f, 0.6806841f, -0.0565161f, 1.2403919f, -0.1585380f, 2.9147546f, 1.6487575f },
      //  { -0.0173824f, -0.0104432f, -5.0745792f, 16.1627083f, -18.2754345f, -9.7481079f, 11.6086102f, -4.2760515f, 
      //  -18.2559452f, 12.0886965f, -0.9703903f, -0.1702643f, 0.0346609f, -9.9425955f, 0.1343283f, 3.8305264f, 
      //  3.9539270f, 0.1160854f, -0.1818067f, -0.0259583f, -5.0345449f, -0.1615089f, 4.4959645f, -0.0909575f, 
      //  -6.2740803f, -12.7118950f, -8.3894215f, -0.2539299f, -3.2370253f, 0.0421442f, 14.0873976f, -1.9436538f },
      //  { -0.0530803f, -0.2015411f, 0.4300595f, -0.3626886f, -6.5519247f, -1.1492305f, -0.5928985f, 3.7638335f, 
      //  2.7300246f, 1.1857713f, -2.3416622f, -0.0884968f, 0.1256367f, 0.0302241f, -0.1115530f, 1.1037079f, 
      //  1.1495094f, -0.3056423f, 0.4654944f, -0.0342323f, -6.1206589f, 0.0946685f, 1.0152318f, 0.1067266f, 
      //  1.3645409f, 0.3150267f, 6.4791188f, 0.0755869f, -1.8004632f, 0.1964270f, 1.9572036f, -15.4256697f },
      //  { -0.1097681f, -0.0054648f, 0.3712677f, -0.1530027f, -3.4474914f, 2.0957079f, 1.7301618f, 2.2485325f, 
      //  5.7568359f, -0.8362342f, 1.6682768f, 0.0267764f, -0.2573394f, 1.4854302f, -0.1808499f, -0.4640267f, 
      //  0.5978615f, 0.0151893f, 0.0165217f, -0.2197040f, 1.4110576f, 0.2589405f, -4.2219291f, 0.1626360f, 
      //  2.5203547f, 0.9324098f, 4.1933217f, 0.2002093f, -0.1361564f, 0.1876335f, -1.9786241f, 2.1152127f },
      //  { -0.0715447f, -0.2642950f, 15.5143700f, -1.4051164f, -1.9981407f, 4.8724689f, 12.1456413f, 6.9127412f, 
      //  8.2420530f, 7.9435482f, 1.2661487f, 0.2014724f, 0.2260833f, 11.8680172f, -0.1165733f, 10.4165974f, 
      //  -1.9019812f, 0.5851011f, -0.2272519f, 0.1246832f, 1.1128775f, -0.1292080f, 9.9137735f, -0.2982015f, 
      //  1.9385829f, -12.6175880f, -12.4849319f, 0.1575182f, -0.0657811f, -0.0625202f, -24.0977306f, 2.0584662f },
      //  { -0.0815305f, 0.1313688f, 0.3610165f, -1.2093972f, 2.0692272f, 1.5853730f, -0.9752625f, -0.7101632f, 
      //  0.4339786f, -0.2321075f, -2.6607518f, 0.1596535f, 0.0781687f, -0.4671566f, -0.1068867f, 2.7407002f, 
      //  1.3054935f, -0.0839584f, 0.6414489f, -0.0717070f, -5.2011256f, -0.1663603f, 0.6913642f, 0.7547441f, 
      //  0.4993970f, -0.2923355f, -1.1724491f, 0.0934326f, -0.4964169f, 0.2584707f, -1.3387643f, -8.7723217f },
      //  { 0.1884774f, 0.2035980f, -4.5922518f, 0.8554450f, 3.7267938f, 5.3612099f, 1.8332086f, -2.0187657f, 
      //  0.4234722f, 0.8851782f, 2.1890228f, 0.2146549f, 0.0507472f, 0.4298105f, -0.0620169f, 0.7049072f, 
      //  2.7171323f, 0.2600697f, 0.0420733f, -0.0412137f, 0.6602982f, 0.2507220f, -0.6426433f, 0.0264940f, 
      //  0.9230338f, 3.7171352f, 1.3398567f, 0.2401671f, -1.0948501f, -0.0947183f, -0.3175662f, 0.3503030f },
      //  { -0.2023620f, -0.0770674f, 0.1694169f, 0.3826737f, -0.1751017f, -0.2796957f, -0.0027358f, -1.7024215f, 
      //  -1.3886890f, 0.0778824f, 0.1651286f, -0.0113581f, -0.1313929f, -2.1609581f, -0.1683880f, -0.0828258f, 
      //  -0.0245915f, -0.2041033f, 2.1582608f, 0.0283139f, 0.0426734f, -0.1572740f, -0.0865188f, -2.2660227f, 
      //  -0.3002645f, -0.3347838f, 0.8806826f, -0.2306564f, 0.5550051f, -0.2038207f, 0.7180619f, 0.0828281f },
      //  { -0.0599746f, -0.1353770f, 0.0343237f, -0.1737583f, 0.2058937f, -0.4075991f, 0.0385011f, 1.8230131f, 
      //  0.6492125f, 0.4248655f, 0.7135903f, -0.2047222f, -0.1437201f, 1.5827826f, -0.0429316f, -0.1616160f, 
      //  -2.2196028f, -0.4437796f, -2.1678550f, -0.0887480f, 0.0861425f, -0.2438596f, 1.4807957f, 2.2539189f, 
      //  1.2055421f, -0.0161445f, -1.4710635f, -0.2331400f, -0.3693197f, -0.1334601f, -1.1038579f, 0.2036127f }, //trained on PU200
      // { -0.1957689f, 0.2978563f, 0.0386207f, -0.0324195f, -0.0677459f, -0.1411969f, 0.0897476f, -0.1322457f, 
      // -0.3023859f, -0.0541438f, -0.2376749f, 0.0891699f, 0.0538441f, 0.0896025f, 0.0082382f, 0.1686688f, 
      // -0.1681718f, 0.1740159f, 0.0733954f, 0.0925164f, 0.3682047f, -0.1621653f, 0.0397322f, 0.2949465f, 
      // -0.0745449f, 0.4500826f, 0.1611591f, 0.3687943f, 0.2623369f, 0.1624729f, 0.1443230f, -0.2235990f },
      // { -0.0938923f, 0.3219623f, -0.0714630f, -0.0026052f, -0.3195949f, 0.0809478f, 0.1087662f, 0.1943429f, 
      // -0.2702372f, 0.1572651f, -0.2141938f, -0.1196334f, -0.0903741f, -0.2647400f, -0.2630664f, 0.2560538f, 
      // -0.0604382f, 0.0732415f, -0.2049271f, 0.2977746f, 0.2727870f, 0.1749104f, -0.1657993f, 0.3033306f, 
      // 0.2599483f, 0.3680955f, 0.0254172f, 0.2744631f, -0.0101434f, -0.2010230f, 0.3758741f, -0.0861686f },
      // { 0.5009829f, -0.4865134f, 0.1556207f, -0.1268013f, -0.0206539f, -0.4168389f, 0.1279072f, -0.4701816f, 
      // -0.0023850f, 0.2360691f, 0.0845970f, -0.1035500f, -0.1341695f, -0.2342810f, 0.0689683f, 0.2256163f, 
      // -0.0172600f, 0.2374211f, 0.2580845f, -0.0784152f, 0.3294740f, -0.1392152f, 0.0059274f, -0.2943602f, 
      // -0.1613722f, -0.0663490f, 0.0611043f, -0.1489500f, -0.2664049f, 0.0394064f, -0.1605680f, 0.0342168f },
      // { 0.3512621f, -0.0927089f, 0.0091708f, 0.0804236f, 0.3808944f, -0.3828601f, 0.0512287f, -0.6972102f, 
      // 0.3456715f, -0.4421246f, -0.0033974f, 0.0912808f, 0.0193894f, 0.0480380f, 0.6054556f, 0.1834427f, 
      // -0.0567793f, -0.0142916f, -0.1467525f, -0.2001407f, -0.3383723f, 0.1347987f, 0.2137062f, -0.5596907f, 
      // 0.1010378f, -0.0869447f, -0.1642693f, -0.1960485f, 0.1995019f, 0.4811276f, -0.1768484f, 0.0272753f },
      // { 0.1659433f, -0.2577051f, -0.1531821f, -0.0920620f, 0.1730725f, -0.4599997f, 0.0847359f, -0.0024967f, 
      // 0.1341802f, -0.4658563f, 0.1628009f, -0.1705988f, 0.0916138f, -0.1763188f, 0.0273706f, -0.1617829f, 
      // -0.1691701f, 0.1762274f, 0.1324650f, -0.2698877f, -0.2360578f, 0.2044702f, -0.1753785f, -0.1246321f, 
      // -0.1457835f, 0.4567690f, 0.1535369f, 0.5504606f, -0.2175237f, 0.1392011f, -0.0547622f, 0.0013714f },
      // { 0.1822092f, -0.3006581f, -0.2073977f, -0.0711777f, 0.1918363f, -0.4944169f, 0.2891144f, -0.5887414f, 
      // 0.2618215f, -0.3802338f, 0.0281370f, -0.1175375f, -0.2116282f, -0.0880240f, 0.3098357f, 0.1960728f, 
      // 0.0843414f, -0.0450768f, -0.1898710f, -0.4068888f, -0.0599839f, -0.0757469f, 0.1877092f, -0.3474695f, 
      // 0.0230955f, -0.3125735f, 0.0571045f, -0.2757680f, -0.1326229f, 0.4706056f, -0.2925153f, -0.1720814f },
      // { -0.1577857f, -0.2844899f, 0.2162307f, 0.1001340f, -0.4527557f, 0.4124686f, -0.2140244f, 0.7270984f, 
      // -0.5669678f, 0.4791769f, -0.2159238f, -0.1048750f, 0.1283588f, -0.2237322f, -0.2175404f, 0.1103542f, 
      // 0.2089119f, -0.1460360f, -0.1906301f, 0.2684633f, 0.2343384f, 0.1294084f, 0.1469686f, 0.4177827f, 
      // 0.2232131f, -0.0856118f, -0.4454851f, -0.2598544f, -0.0575538f, -0.2446346f, 0.1043384f, -0.0182681f },
      // { 0.0817905f, -0.0303090f, 0.1182894f, -0.2249999f, 0.4611870f, -0.3957054f, -0.0861518f, 0.0211501f, 
      // 0.2257854f, -0.4550056f, 0.0145856f, 0.0362382f, -0.1252961f, -0.1794161f, -0.0776141f, 0.1961423f, 
      // -0.0731439f, -0.2174040f, 0.0429627f, -0.1390634f, 0.1876692f, 0.0200748f, 0.0165880f, -0.0996074f, 
      // -0.0922676f, 0.2846382f, -0.0192260f, -0.2312255f, 0.1646650f, -0.1065200f, 0.0061226f, -0.1493490f },
      // { 0.2603572f, -0.5602494f, -0.2032247f, -0.1237043f, 0.3252733f, -0.3703153f, -0.0949275f, -0.1346270f, 
      // 0.1433098f, 0.1055005f, 0.1998952f, -0.0247074f, 0.0035856f, -0.1568351f, 0.4494464f, 0.1987118f, 
      // 0.0747323f, -0.0306716f, 0.0034189f, -0.3218369f, -0.3062369f, -0.2391764f, 0.1313001f, -0.0743690f, 
      // -0.1402778f, -0.3084224f, -0.1088878f, -0.3569525f, -0.0421992f, 0.4524758f, -0.2397988f, 0.2100419f },
      // { -0.5348470f, -0.1483285f, -0.1142756f, -0.0416940f, -0.3623533f, 0.4698458f, -0.2856295f, 0.5646467f, 
      // -0.2100668f, 0.4148006f, 0.2106191f, -0.0786550f, 0.0463000f, 0.0591138f, -0.2244007f, -0.1816277f, 
      // -0.1774486f, -0.1173800f, 0.1494629f, 0.6869973f, 0.0915596f, 0.0937115f, -0.1956221f, 0.3193186f, 
      // 0.1471548f, -0.2442727f, -0.1264803f, -0.1246892f, 0.0799279f, -0.3428481f, 0.2367126f, -0.0060785f },
      // { -0.0123046f, -0.1845080f, -0.0929213f, 0.1576916f, 0.0035488f, -0.1023611f, 0.5501454f, -0.3278674f, 
      // 0.1925973f, -0.3875121f, -0.1520826f, -0.0113598f, -0.1260864f, -0.1534077f, 0.0562307f, -0.1816367f, 
      // 0.0332872f, -0.1361374f, -0.2291204f, -0.1126108f, 0.0731756f, 0.0089707f, -0.0893522f, -0.3187316f, 
      // -0.1183332f, 0.1525321f, 0.4125299f, 0.2471369f, -0.1569096f, -0.0714323f, 0.1200523f, 0.1877250f },
      // { 0.5615623f, -0.1877479f, 0.1706692f, 0.0857947f, 0.0683743f, -0.3864536f, 0.2479693f, -0.2529578f, 
      // 0.4828456f, -0.1907474f, -0.1618011f, 0.0276820f, -0.0134021f, 0.0174912f, 0.0364041f, 0.0685482f, 
      // -0.2423909f, 0.0440284f, 0.0682446f, -0.0985689f, -0.2102817f, 0.1749533f, -0.1926215f, -0.1396137f, 
      // -0.1403113f, -0.3097043f, 0.5074187f, -0.1056470f, -0.0681667f, 0.1577523f, -0.1287276f, -0.1498888f },
      // { 0.1990843f, 0.0243474f, -0.2430414f, -0.1952923f, -0.3811428f, 0.3163423f, 0.4479260f, 0.0353761f, 
      // 0.2913836f, 0.3479757f, -0.2471338f, -0.1583683f, 0.0021651f, -0.0136446f, 0.3034337f, -0.1346926f, 
      // -0.2164558f, -0.2020876f, -0.0157705f, -0.0092464f, -0.0048044f, -0.0247344f, -0.2257105f, -0.0719967f, 
      // -0.0213566f, 0.0639424f, 0.4370611f, -0.2728030f, -0.1607008f, 0.3753619f, 0.0028133f, -0.0980815f },
      // { 0.2357306f, 0.0674642f, -0.0745230f, 0.1592637f, 0.3906997f, -0.1742106f, -0.3595607f, -0.0934695f, 
      // 0.0949481f, 0.1933365f, 0.0226720f, 0.1422894f, -0.0327291f, -0.0631474f, 0.1503568f, -0.1528990f, 
      // 0.1782924f, -0.1896679f, -0.2635141f, -0.0976238f, -0.0742123f, -0.0824206f, 0.0762166f, 0.0124407f, 
      // 0.0437763f, -0.0353336f, -0.4135635f, 0.2823777f, -0.1437331f, 0.3232966f, 0.0357517f, -0.0032641f }, //trained on cube5
      { -1.6060334f, -0.0019538f, -3.0962176f, -1.0607036f, -1.6183814f, -0.2531385f, -0.2183396f, 0.2018794f, 0.3443916f, -0.1987463f, 0.2284449f, -1.0371954f, 0.2071363f, -0.9264938f, -0.6575518f, -0.7046648f, 0.3633580f, -0.7358102f, 0.1767342f, 0.1905003f, -0.1446785f, 3.0936582f, 0.1787973f, 0.0120963f, -0.1256579f, -0.7642574f, -0.0027592f, -0.3611464f, -2.5791445f, -4.4858446f, -0.6705156f, -0.0679330f },
      { 0.3872744f, 0.1811017f, 0.4287007f, -2.4496336f, 1.1926724f, -0.0490445f, -0.0862417f, 0.1381011f, -0.9401212f, 0.1108095f, -0.1038588f, -2.0581274f, 0.0915846f, 1.9681557f, -4.2447796f, 0.5843982f, 4.0216055f, 1.7803665f, -0.4157401f, 0.0714953f, 0.0980875f, -0.1924087f, 0.0648797f, 0.2602853f, 0.1802453f, 2.4050333f, -0.2317036f, -0.2808312f, 1.2351568f, -13.4419956f, 3.7159483f, 0.0993618f },
      { -1.4600574f, -0.0459048f, -0.3919595f, -1.5093524f, 4.3662076f, 0.1284309f, 0.0874810f, -0.1481554f, -1.7695740f, -0.1732495f, -0.2363545f, 3.8120375f, 0.1259584f, 2.9278584f, -0.3642441f, 0.7361409f, 1.9851314f, 1.4719583f, -0.0219998f, 0.2359392f, -0.0480756f, -3.4057362f, 0.2236908f, 0.0307171f, -0.3172544f, -2.3644190f, -0.0993517f, -0.3810468f, 2.3777597f, -2.3912733f, -1.1632600f, -0.0508621f },
      { -4.4286618f, -0.2484178f, -2.2034457f, -2.7650714f, -2.6224198f, 0.2395891f, -0.0885442f, -0.1145067f, 2.5757859f, 0.2635954f, 0.1715641f, 6.5970840f, 0.1262533f, -12.3174734f, -9.0141153f, -3.0416377f, -8.8754349f, -4.0610924f, -8.0073519f, -0.1997751f, -0.0822834f, -5.0529575f, 0.1216464f, 0.1842496f, -2.1056149f, 4.6541233f, 0.1242504f, -0.0667271f, -0.0494279f, -4.4484997f, 2.0594008f, -0.0402925f },
      { -2.1015096f, 0.1775069f, 2.8659549f, -2.1975386f, -2.8023233f, 0.0574258f, -0.0537383f, 0.0752659f, -0.4999135f, 0.0999570f, -0.1463651f, 5.4836144f, 0.1693948f, 0.5457587f, -8.4863806f, 0.8172124f, -8.2277994f, 0.2475950f, 1.7587816f, 0.1639972f, 0.3193251f, 4.3781071f, -0.1050590f, -0.1209879f, 0.0172559f, 1.5850421f, -0.0381198f, 0.5198420f, 3.3548324f, 1.4547347f, 6.3622642f, 0.2502773f },
      { 1.6691544f, 0.2590973f, 4.4366469f, 1.6290154f, 1.7013444f, -0.0451299f, 0.2471591f, 0.0296605f, -0.0913324f, -0.0692507f, 0.2669247f, -2.8661005f, -0.1370865f, -2.3398917f, -0.2703570f, -0.3062657f, 0.0563322f, -0.1720380f, 4.8408437f, -0.1684152f, -0.0015660f, 0.1748649f, 0.1129105f, 0.0141477f, 0.0549301f, -0.3070547f, -0.2794034f, 0.1024904f, 1.6292576f, 1.3900474f, 2.9711850f, 0.0766664f },
      { -4.5291834f, 0.0050561f, 2.6486309f, 7.0532269f, -0.4502254f, -0.1584198f, 0.0347306f, -0.1529468f, -2.6122537f, -0.2153148f, 0.0523709f, 5.1890445f, 0.0345688f, 2.4274290f, 11.3418798f, -1.9053016f, -5.7443590f, -3.3569102f, 8.7804813f, -0.0872602f, -0.1189370f, -2.7509527f, -0.0203689f, -0.1293512f, -1.3327117f, -15.1885891f, -0.1193882f, 0.0537274f, -3.2574432f, -4.7660298f, -4.6846142f, -0.1082189f },
      { -2.3062654f, 0.0703494f, 1.0964209f, 3.4878836f, -1.4224406f, -0.0293274f, -0.0928511f, 0.1661576f, -1.3313159f, -0.1067240f, 0.2136507f, 5.3147178f, 0.1830025f, -1.5026959f, 4.1917992f, 1.4540541f, -2.7714374f, 0.9712812f, 2.9928830f, -0.2029410f, 0.1876874f, 4.0627885f, -0.0218243f, -0.2155444f, -0.6225181f, -1.0256628f, -0.0070554f, 0.4246312f, 1.6030409f, -10.0148182f, 0.1934197f, 0.2406675f },
      { -0.0652966f, -0.0031543f, 1.3365551f, 0.0781203f, 0.5749322f, 0.0668634f, -0.2171274f, -0.0206429f, -0.4929257f, 0.0574031f, 0.2221679f, -0.4427345f, 0.0204942f, -1.5860815f, 0.3960496f, -0.4434972f, 1.7050202f, -1.0518265f, 1.7660680f, 0.1174633f, 0.0313386f, -0.2675682f, 0.0770377f, -0.2142913f, 0.0897785f, 1.0865251f, 0.1646242f, -0.0597894f, 1.4652834f, 0.5719566f, -0.3616278f, 0.1467961f },
      { 11.8486691f, -0.2451996f, 7.6069484f, -12.2688351f, 0.3759001f, -0.0906847f, 0.1893297f, -0.1693346f, -0.1029520f, 0.1143168f, -0.2189620f, 1.2351805f, 0.0411410f, 2.7837460f, 3.8052251f, -3.1126912f, -3.5325313f, -0.2737333f, 13.3042145f, 0.2614892f, -0.1109662f, -4.4066973f, -0.0607672f, 0.2143555f, -0.5752356f, -2.3059165f, -0.2304637f, -1.6219357f, -2.5093732f, 8.1229563f, -16.8747673f, 0.0798677f },
      { 0.8706825f, 0.0786675f, -0.3659926f, 0.4688318f, 0.6015944f, -0.1692223f, 0.2252874f, -0.2076946f, -1.5382656f, 0.0561736f, -0.0116857f, 1.7058207f, -0.2434720f, 3.2572856f, -1.2192202f, -1.5335654f, 0.2746828f, -0.3242117f, 1.7985047f, 0.1980137f, 0.0983448f, 3.4236140f, -0.1111430f, -0.2482143f, -0.0968987f, 2.1565983f, -0.1525850f, -0.2504775f, 0.3946820f, 0.1321013f, -1.9491583f, -0.3009391f },
      { 0.0707081f, -0.2565912f, -0.0088363f, 4.6646900f, 2.4713097f, 0.0440620f, 0.0979635f, -0.0807405f, -0.8759558f, -0.0357410f, -0.1381372f, 1.2966081f, 0.1292636f, -0.5718036f, -2.1422050f, -0.3116946f, 3.4051867f, -0.4730404f, 1.3303679f, -0.1292121f, -0.0232075f, -1.0126799f, -0.0720909f, -0.1455165f, -0.0714135f, 2.4957254f, 0.1017639f, 0.5604446f, 1.8710003f, -0.3470010f, 0.1060960f, 0.1315911f },
      { -0.8624419f, -0.1931185f, 1.0963746f, -0.6807620f, 0.1805745f, -0.2130331f, 0.0450386f, -0.1733946f, 0.4986172f, -0.2492253f, -0.0923276f, -0.0937282f, -0.0470542f, 0.5194517f, 0.3313099f, -0.8177292f, -0.4464492f, -0.6899368f, -0.1176718f, -0.0992941f, 1.9708935f, -1.1635853f, -0.1084949f, -0.0698814f, 0.0686416f, -0.8926845f, 0.0772391f, -0.7212802f, -1.2650081f, -0.0935892f, -0.0218109f, -2.0712841f },
      { 1.4323748f, -0.2232283f, -0.2131131f, 0.5095040f, -1.1992414f, -0.0200392f, -0.2496678f, 0.0619498f, -0.4369417f, -0.2352991f, -0.1724000f, 0.2773211f, -0.1788235f, 0.0663220f, 0.0972806f, 0.3969799f, -0.3157719f, 0.4687481f, -0.0638245f, -0.2622963f, -1.9553003f, 0.4916473f, -0.0084856f, -0.1624165f, -0.3382343f, 0.3939117f, -0.2349753f, 0.1183344f, 1.6643057f, 0.2212625f, 0.5949022f, 2.0720961f }, //trained on PU, abs(eta)<1
  }; 

  ALPAKA_STATIC_ACC_MEM_GLOBAL const float bias_layer2[32] = { 
    //   -0.0244978f, 0.1952459f, 0.2308177f, -0.1404208f, 0.2750631f, -0.0891601f, 0.0248414f, -0.1352514f, 
    //   0.0782754f, -0.1713497f, -0.1570165f, -0.0258951f, 0.1558575f, -0.0616257f, 0.1655710f, -0.2063574f, 
    //   0.0231984f, -0.0526114f, -0.2271049f, 0.2171939f, 0.2107549f, -0.0082616f, 0.0926978f, -0.0760574f, 
    //   -0.0937148f, -0.0004912f, -0.1087859f, -0.1751952f, 0.1260631f, 0.3917975f, 0.1101598f, 0.0581033f}; //trained on muonGun
      // 0.6096585f, -0.6089383f, -1.1110489f, -1.8520346f, -0.2597973f, 0.2830321f, 1.0828053f, -1.8254601f, 
      // -1.3281108f, -1.9713484f, 1.4387251f, 1.0095520f, -0.1275760f, -0.1386808f, -2.6866567f, -0.2336385f, 
      // 1.8287712f, -0.4592434f, -0.3076395f, 1.2898055f, -1.2676336f, -1.1807146f, 2.4358165f, 0.3750983f, 
      // -0.1776825f, -2.4625762f, -4.3154855f, 1.4089967f, -3.4878919f, -0.1322105f, -2.4125659f, 2.5720687f }; //trained on PU200
      // -0.1810811f, -0.1945062f, -0.0201100f, 0.1544355f, 0.0471234f, -0.1675392f, -0.2166736f, 0.4757323f, 
      // 0.1159182f, 0.2449811f, -0.2927634f, 0.2644874f, -0.0351768f, 0.0069252f, 0.0250999f, -0.1446590f, 
      // 0.1543404f, 0.3141254f, 0.1256722f, -0.0614353f, -0.0069744f, 0.0743461f, -0.2564248f, -0.0029401f, 
      // 0.3053921f, 0.2506508f, 0.0261994f, -0.0447074f, -0.1525770f, 0.4151219f, -0.1431857f, 0.4054183f }; //trained on cube5
      0.0555985f, -0.4773721f, -2.6973491f, -0.0970678f, -0.5457357f, -0.1086726f, -1.8507113f, -0.1559001f, -0.2018494f, 1.9474971f, -0.0780202f, -2.5977602f, -0.3760727f, -0.5284814f, -1.0887673f, 0.6786269f, 0.1368697f, -2.4090981f, -0.1619908f, -0.1130308f, -0.0175824f, -0.0499707f, -0.6715226f, 2.0477879f, -0.0771318f, -1.9368988f, -0.1185541f, -0.3136646f, -0.0318945f, 0.6461466f, -0.3342249f, -1.1855248f }; //trainedon PU abs(eta)<1

  ALPAKA_STATIC_ACC_MEM_GLOBAL const float wgtT_layer2[32][32] =  {
    //   { 0.0326331f, 0.1501771f, -0.0803236f, 0.0805721f, 0.0994556f, -0.1647190f, 0.0821709f, -0.0185847f, 
    //   -0.0017964f, -0.0919494f, 0.1189039f, -0.0742898f, -0.1066902f, 0.0506659f, -0.0423134f, 0.1576528f, 
    //   0.1170382f, -0.1437192f, -0.1750261f, -0.1093418f, -0.1138446f, -0.1350765f, -0.0399256f, 0.1090762f, 
    //   -0.1628336f, 0.0747203f, -0.1333025f, -0.0965213f, -0.0687143f, 0.0343749f, -0.0609399f, 0.0059500f },
    //   { 0.0374756f, 0.0991446f, -0.1037808f, -0.1563869f, -0.0760720f, -0.1323005f, 0.0497442f, -0.1754219f, 
    //   -0.1310101f, 0.1708689f, -0.1295449f, -0.0031287f, -0.0365279f, -0.0453155f, -0.0097707f, 0.1205321f, 
    //   0.1539959f, 0.1020424f, -0.0643347f, 0.1336644f, -0.1140230f, -0.0321486f, -0.1504461f, -0.0825181f, 
    //   -0.1254418f, 0.1618865f, -0.1260497f, 0.1005983f, 0.1492172f, -0.1336089f, -0.0921677f, 0.0971472f },
    //   { 0.0401368f, 0.0351161f, 0.1395836f, -0.0597662f, -0.1706961f, -0.1370751f, 0.0856957f, 0.0305489f, 
    //   0.0996431f, 0.1444609f, 0.0276560f, -0.0034239f, 0.0459326f, 0.0461564f, 0.1159683f, 0.0580257f, 
    //   0.0051377f, -0.0686313f, -0.0875707f, -0.0596558f, -0.0877535f, 0.0007271f, 0.0586466f, 0.0581070f, 
    //   0.0212327f, -0.1299590f, -0.0151060f, 0.1650916f, -0.1687707f, 0.1247841f, 0.0001863f, -0.0580532f },
    //   { 0.0646394f, 0.0015844f, 0.0004808f, -0.0622995f, 0.0355775f, -0.0317755f, 0.0873722f, 0.0384073f, 
    //   0.0643264f, -0.1332635f, -0.0491768f, 0.1515045f, 0.0209654f, -0.0165601f, -0.0588562f, 0.1087717f, 
    //   -0.0176184f, 0.1046017f, -0.0127581f, -0.0873394f, 0.0384114f, 0.0944928f, -0.1430376f, 0.0552971f, 
    //   0.1722168f, 0.1619380f, -0.1237637f, 0.1145014f, -0.0333675f, 0.0343362f, 0.1707743f, 0.0170315f },
    //   { -0.0253195f, -0.0790844f, 0.2959287f, -0.1416411f, 0.4594753f, -0.1176781f, 0.0778110f, -0.1259882f, 
    //   -0.2175342f, 0.1445423f, -0.0980207f, 0.0135455f, 0.1101494f, -0.1589818f, -0.0213994f, -0.0408560f, 
    //   0.0399009f, 0.1874799f, 0.0251815f, 0.1764619f, 0.4063084f, 0.2347722f, 0.0796240f, -0.2006813f, 
    //   -0.0197859f, -0.0839252f, -0.2948454f, 0.0383792f, -0.5371355f, 0.4424359f, 0.0195019f, 0.3162354f },
    //   { 0.0110597f, 0.0930856f, -0.1473554f, -0.0264648f, -0.0401907f, -0.1373945f, -0.0722980f, 0.1578502f, 
    //   0.1535285f, -0.1020431f, -0.0880455f, 0.0027473f, 0.0645459f, -0.1335174f, -0.1703711f, -0.1340344f, 
    //   -0.0783884f, -0.1603057f, -0.1113774f, 0.1653189f, 0.0439790f, 0.1119609f, 0.1133166f, -0.1513427f, 
    //   -0.0184901f, -0.0085006f, 0.1085753f, -0.0127713f, -0.0980054f, -0.1295355f, 0.0962894f, -0.1052049f },
    //   { 0.1314913f, 0.0408038f, -0.1399244f, -0.0929378f, -0.1079160f, -0.1035921f, 0.1420188f, 0.0520801f, 
    //   0.0149368f, -0.0096403f, -0.0898912f, -0.1612334f, -0.1617974f, 0.1723423f, -0.1514877f, 0.1138440f, 
    //   0.0816478f, 0.1686921f, 0.0354223f, 0.0871230f, -0.1429132f, -0.1090390f, -0.1208571f, -0.0709054f, 
    //   -0.0308668f, 0.1569674f, 0.1273522f, 0.1160717f, 0.0347872f, -0.1353562f, 0.1572122f, -0.1172949f },
    //   { 0.0267193f, 0.0901804f, -0.0346541f, -0.0805681f, 0.1248012f, -0.0749460f, -0.0236822f, -0.1513125f, 
    //   0.1126885f, -0.1280272f, 0.0939877f, 0.1240561f, -0.0405567f, 0.0928700f, 0.1488075f, -0.1369816f, 
    //   0.0913276f, -0.0295713f, 0.1140237f, 0.0958043f, -0.0438718f, -0.1507872f, 0.1259871f, 0.1208914f, 
    //   -0.0886124f, -0.0917070f, -0.1201040f, 0.0048473f, -0.1527401f, 0.0795352f, -0.1595534f, -0.0301227f },
    //   { 0.1234511f, 0.2700396f, 0.0012040f, -0.1452882f, 0.0844358f, -0.1704643f, 0.0078482f, -0.1107459f, 
    //   -0.0081102f, -0.1544678f, -0.0389915f, 0.1434249f, 0.0349204f, -0.1344657f, 0.1800165f, -0.0201146f, 
    //   -0.0184209f, 0.2071984f, 0.0373332f, 0.0734013f, 0.0829138f, -0.0013805f, -0.0102135f, -0.4226199f, 
    //   0.1826161f, 0.0143894f, 0.1115985f, -0.0121045f, -0.4227391f, 0.2780189f, -0.0477734f, 0.1166580f },
    //   { 0.1080215f, 0.0078016f, -0.0415053f, -0.1188680f, 0.0230917f, 0.0166283f, -0.1555007f, -0.0515656f, 
    //   -0.0509045f, -0.1544214f, -0.1397038f, -0.0964127f, -0.1403927f, -0.1368011f, -0.1011259f, 0.2285046f, 
    //   -0.1086512f, -0.2075822f, 0.1814337f, -0.1848242f, 0.1180016f, 0.0382817f, -0.0217138f, -0.1306953f, 
    //   0.1900016f, 0.1752337f, 0.0889864f, 0.0236301f, 0.0483245f, 0.0370072f, 0.0819016f, 0.1082543f },
    //   { -0.3502356f, -2.0819302f, -2.5377159f, -0.0100636f, -1.4516196f, -2.5288064f, 0.0894329f, -0.1427865f, 
    //   -0.6319929f, -0.0498343f, -0.1606206f, -0.1444779f, -1.1384413f, -0.1067332f, -0.3825777f, -0.4008173f, 
    //   -1.6580834f, -1.2889322f, 0.0505877f, -1.6645597f, -1.0991013f, -2.0352814f, 0.0240071f, -2.0365226f, 
    //   -0.4076920f, -0.2841876f, -0.4665748f, -0.1548423f, -2.0116830f, -2.3294356f, -0.0884790f, -2.3584991f },
    //   { -0.0581648f, 0.1930942f, 0.1713927f, 0.1621001f, -0.0792813f, 0.0725308f, 0.0972121f, -0.1766438f, 
    //   0.1142872f, -0.0016636f, 0.0029158f, -0.1835014f, 0.1149408f, -0.0671440f, -0.0040608f, 0.0488224f, 
    //   0.1186796f, -0.0877008f, 0.0763222f, 0.2741013f, 0.0927427f, 0.2459729f, -0.0884561f, 0.0541552f, 
    //   0.2596609f, 0.1237674f, 0.1547910f, -0.1226017f, 0.0436849f, 0.1499957f, -0.0754229f, 0.1505385f },
    //   { 0.2915810f, 0.0358686f, -0.0737977f, -0.0476657f, 0.0908201f, 0.0319654f, -0.1534589f, 0.1091391f, 
    //   0.3268135f, 0.0455068f, 0.0591660f, 0.0830272f, -0.0737052f, -0.2003752f, 0.2783285f, 0.2142134f, 
    //   -0.0646510f, -0.1998202f, 0.3335365f, 0.1331398f, 0.0562227f, -0.0027815f, -0.0793791f, -0.0275102f, 
    //   0.1853766f, 0.2042182f, 0.3410213f, 0.1396542f, -0.0139574f, -0.1478049f, -0.1295464f, 0.0529334f },
    //   { -0.0971054f, -0.0936630f, 0.0159239f, 0.1688053f, -0.0693583f, 0.0366257f, -0.0970889f, -0.1398011f, 
    //   -0.0948445f, 0.1414475f, -0.1472151f, -0.1666150f, 0.0537017f, 0.0857041f, -0.0170154f, -0.1716917f, 
    //   -0.1697817f, -0.0208672f, -0.0941338f, -0.1150547f, 0.0891683f, 0.1088310f, 0.0136510f, -0.1128892f, 
    //   0.0658957f, 0.0131026f, -0.0967513f, -0.0361457f, -0.1074255f, 0.0921952f, -0.1440785f, -0.0858790f },
    //   { -1.0090362f, 0.1787047f, 0.7698267f, 0.0501298f, 0.7236439f, 0.6638348f, -0.0089692f, 0.0700845f, 
    //   -1.2547189f, -0.1221918f, 0.1585484f, -0.0135518f, 0.3293029f, 0.0084403f, -1.0902723f, -0.9711964f, 
    //   0.1136082f, 0.2948746f, -1.7865554f, 0.2585991f, 0.8193139f, 0.1421018f, -0.0714997f, 0.3433003f, 
    //   -0.9118887f, -1.0473454f, -0.9806297f, -0.1778702f, 0.6071725f, 0.1064639f, -0.0995818f, 0.6658491f },
    //   { -0.0546242f, 0.0762778f, 0.1557446f, -0.1160255f, -0.0014670f, 0.1296177f, 0.0824785f, -0.1733933f, 
    //   0.0545461f, -0.0546038f, 0.0037493f, 0.1649172f, 0.0913789f, -0.0076271f, 0.0614028f, 0.0527376f, 
    //   -0.1628168f, 0.0869183f, -0.0179851f, 0.1266767f, -0.0769277f, -0.1699950f, -0.1759142f, -0.0064539f, 
    //   -0.1368199f, 0.1386317f, -0.1097868f, 0.1647419f, 0.0091934f, 0.0914363f, -0.0551489f, -0.1595635f },
    //   { 0.0233236f, 0.2600509f, 0.1007827f, 0.0801106f, 0.0608063f, 0.2565866f, 0.0978001f, 0.0558151f, 
    //   -0.1730928f, 0.0007504f, 0.1434498f, -0.1716865f, -0.0002447f, -0.2168494f, 0.0444068f, 0.0562809f, 
    //   0.1753354f, 0.0158871f, -0.0038255f, 0.2293954f, -0.0049453f, 0.0767678f, -0.1661334f, 0.2809937f, 
    //   -0.1581572f, -0.1498049f, -0.0588708f, 0.0110046f, 0.2121151f, 0.1808717f, -0.0607502f, 0.0260280f },
    //   { 0.2465612f, 0.0939379f, 0.0868664f, -0.0258362f, 0.2101591f, -0.2932689f, -0.1401733f, 0.0920370f, 
    //   0.0570563f, 0.1471563f, -0.0498742f, 0.1298041f, 0.0244727f, 0.0706831f, 0.0478476f, 0.0858571f, 
    //   0.0116657f, -0.1171628f, 0.1741999f, 0.1295723f, -0.1616831f, 0.1250228f, -0.1550587f, -0.6032110f, 
    //   0.2400807f, 0.2647409f, 0.0309061f, 0.0786825f, -0.7294190f, -0.2125632f, 0.1324628f, 0.0116117f },
    //   { 0.3941641f, -0.1465910f, -0.0350814f, 0.1019605f, -0.1401868f, 0.0820528f, -0.1375810f, -0.1596855f, 
    //   0.7506228f, -0.0989109f, -0.1555161f, 0.0149068f, 0.0911591f, -0.1298850f, 0.8029688f, 0.4956421f, 
    //   0.1887675f, 0.3032643f, 0.2955915f, -0.0213009f, -0.2366789f, 0.0709572f, -0.1274482f, 0.2283061f, 
    //   0.5705915f, 0.4904329f, 0.6906645f, 0.0183029f, 0.4679092f, 0.0261756f, -0.1699454f, 0.0299841f },
    //   { -0.0992911f, -0.2987185f, 0.2750841f, -0.0298798f, 0.2582006f, 0.1215898f, 0.1488260f, 0.1078869f, 
    //   0.2482845f, 0.0421289f, -0.0659156f, -0.0114620f, 0.3783860f, 0.0716557f, 0.1025592f, 0.1202687f, 
    //   0.1938361f, -0.0325073f, 0.1983977f, -0.1293807f, 0.0171366f, 0.2211488f, 0.1042002f, 0.0653291f, 
    //   0.0192608f, 0.0013953f, 0.1474876f, 0.0578693f, -0.2384759f, -0.4621645f, 0.0013912f, 0.1765305f },
    //   { 0.0163041f, -0.1287428f, 0.0190825f, -0.1019870f, 0.2354553f, 0.2843052f, -0.0867922f, 0.1505202f, 
    //   0.2901186f, -0.1601025f, -0.0019309f, -0.2037042f, -0.0126408f, -0.0441027f, 0.0279537f, 0.1424919f, 
    //   0.1051948f, -0.1208439f, 0.2805684f, -0.1263742f, 0.1429867f, -0.0226615f, -0.0404454f, 0.2884871f, 
    //   0.1609567f, 0.0983200f, 0.1349542f, -0.0883629f, 0.2195231f, 0.0806316f, -0.0586663f, -0.0296694f },
    //   { 0.4444316f, -1.7804298f, -1.7524412f, 0.0643363f, -1.1041683f, -2.3024840f, 0.0791672f, -0.1093870f, 
    //   0.7019073f, -0.1172749f, -0.1446601f, 0.0301687f, -2.5010843f, -0.1659570f, 0.6947720f, 0.5363570f, 
    //   -2.1329181f, -2.6326821f, 0.3788079f, -1.0780251f, -0.5143382f, -2.1621752f, 0.0769259f, -1.9153862f, 
    //   0.6413261f, 0.6463944f, 0.6664969f, -0.1761777f, -2.0222282f, -1.6784990f, 0.0338462f, -1.9065052f },
    //   { -0.0565860f, 0.0438014f, -0.0701439f, 0.1077153f, -0.0780356f, -0.1496533f, -0.0885204f, 0.1104905f, 
    //   0.1188205f, -0.0186009f, -0.1124849f, 0.0533251f, -0.0727451f, 0.0351679f, -0.0926276f, -0.0238347f, 
    //   0.1325533f, 0.1529668f, 0.1235458f, -0.1656845f, 0.0759882f, -0.1372406f, -0.1586077f, 0.0754440f, 
    //   0.1567427f, 0.0081075f, 0.0004368f, 0.0066923f, 0.0249129f, 0.0767576f, -0.0878306f, 0.1422666f },
    //   { -0.8058401f, 1.1501311f, 0.2056476f, -0.0777673f, 0.2083796f, 0.4835434f, -0.0850353f, -0.0285880f, 
    //   -1.1692754f, -0.2174760f, -0.1446715f, -0.1387386f, 1.0795748f, -0.1329041f, -0.8830140f, -0.6653094f, 
    //   1.0857946f, 1.5831819f, -0.9381887f, 0.2850364f, -0.0232988f, 0.3154001f, -0.0063314f, 0.3983561f, 
    //   -0.5030670f, -0.4725812f, -0.8935717f, -0.0281647f, 0.5198985f, 1.1967285f, 0.0686280f, 0.1951379f },
    //   { 0.3848757f, -1.1588149f, -2.9666567f, -0.1167113f, -3.1612005f, -2.4788516f, 0.0539518f, 0.1324881f, 
    //   0.2326950f, 0.1340051f, -0.0872518f, 0.0554822f, -0.3552921f, 0.0292813f, 0.2214667f, 0.3419491f, 
    //   -0.1368015f, 0.2319596f, 0.3940013f, -1.6327126f, -3.0179307f, -1.0215056f, -0.1139259f, -1.5241294f, 
    //   0.2535805f, 0.3793986f, 0.4403116f, -0.0799989f, -2.0325737f, -0.6533288f, -0.1431074f, -2.5149918f },
    //   { 0.1561826f, -0.1678083f, -0.0610984f, -0.0528353f, 0.0205198f, 0.0167378f, -0.0889995f, -0.0642975f, 
    //   0.1080037f, 0.1766890f, -0.0372285f, 0.1729950f, -0.1031851f, -0.1114747f, 0.0546024f, 0.0151125f, 
    //   -0.0741014f, 0.0423158f, 0.0853544f, 0.0292030f, 0.0731120f, 0.0537596f, 0.0431495f, -0.0875871f, 
    //   -0.0753765f, 0.1159698f, -0.0720724f, -0.0821592f, 0.1335256f, -0.0780525f, 0.0956937f, -0.0994210f },
    //   { 0.0915521f, 0.1303327f, 0.0882710f, -0.1563273f, 0.0562034f, 0.0166332f, 0.0079130f, -0.1511658f, 
    //   0.1573449f, -0.0597369f, -0.1578964f, -0.0832807f, 0.2118752f, 0.0623665f, 0.1312345f, 0.0762704f, 
    //   0.1441364f, 0.2975762f, 0.0087258f, 0.0891905f, 0.0687044f, 0.1203691f, 0.0222119f, 0.1703142f, 
    //   0.0160772f, 0.1346331f, 0.0169129f, 0.0962548f, -0.0601625f, -0.0462221f, -0.1710560f, 0.1782064f },
    //   { 0.2060189f, -0.8774845f, -2.2958305f, -0.0542906f, -2.5303702f, -1.9557827f, -0.1287912f, -0.1184164f,
    //   -0.0511541f, 0.1398045f, -0.0231789f, -0.0447655f, -1.3388476f, 0.1275473f, 0.0607937f, -0.0116037f, 
    //   -1.6290760f, -1.0369081f, -0.0038775f, -1.5113735f, -2.5109303f, -1.8031936f, 0.0262262f, -1.3852942f, 
    //   0.0908918f, 0.1773320f, 0.1419766f, -0.1396812f, -1.3158609f, -0.5264807f, -0.1399564f, -1.8119864f },
    //   { 0.1796129f, 0.0190806f, 0.1459787f, -0.0744879f, -0.0921982f, 0.3135509f, -0.0836640f, 0.0644011f, 
    //   0.2406875f, -0.0061848f, 0.1461289f, -0.1283615f, 0.1808922f, -0.1221742f, 0.2717229f, 0.3089404f, 
    //   0.1089826f, 0.2588579f, -0.0063126f, -0.2368542f, 0.0261787f, 0.2588841f, -0.1323044f, 0.2449563f, 
    //   0.1018352f, 0.0708967f, 0.2428865f, -0.0175376f, 0.0256655f, 0.0513052f, 0.0278478f, 0.1547725f },
    //   { 0.1837254f, -0.4645494f, -0.0247507f, 0.1378080f, -0.0832660f, -0.2474338f, 0.0751348f, 0.0523678f, 
    //   0.1216643f, -0.0651263f, 0.1651919f, -0.1111207f, -0.1936508f, -0.0642190f, -0.1178277f, -0.0887316f, 
    //   -0.2428810f, -0.4337414f, 0.2573072f, -0.0622715f, -0.0120618f, -0.1158122f, 0.0286034f, -0.3749312f, 
    //   0.0073419f, 0.0246200f, 0.1173191f, -0.0456113f, -0.2295169f, -0.5832556f, -0.0658394f, -0.1492417f },
    //   { 0.1103779f, -0.9210520f, -2.3465836f, 0.0671031f, -1.8342435f, -1.7701030f, 0.1418807f, -0.1320065f, 
    //   0.2436117f, -0.0162085f, 0.0728524f, 0.0899738f, -1.7878836f, -0.1044576f, 0.0415846f, 0.1102525f, 
    //   -1.7467206f, -1.3646859f, -0.2237438f, -1.0249456f, -1.3452411f, -2.2184961f, 0.1399695f, -1.4502635f, 
    //   0.2985386f, 0.1005325f, 0.2307903f, -0.0841374f, -1.6960034f, -0.5338882f, -0.0804172f, -2.1200287f },
    //   { 0.0093216f, 0.0967605f, 0.2466123f, 0.1232344f, 0.1415161f, -0.0276048f, -0.0392696f, -0.0725597f, 
    //   -0.0420021f, -0.1083939f, -0.0544644f, 0.1041768f, 0.2840652f, -0.2173486f, 0.0854071f, -0.1143740f, 
    //   0.4027847f, 0.2509843f, -0.0354155f, 0.1433050f, 0.1277685f, 0.2873814f, -0.2070748f, -0.2702387f, 
    //   -0.0511789f, -0.0347357f, 0.0316128f, 0.0110230f, -0.2265543f, 0.1330055f, -0.1630509f, 0.2071107f }, //trained on muonGun
      // { -0.1041859f, 0.1272376f, -0.1352178f, -0.1486094f, 0.1116643f, 0.0743829f, 0.1071543f, 0.1323900f, 
      // 0.0227256f, 0.0967522f, 0.1658420f, 0.1745998f, 0.1752077f, -0.1421906f, -0.0346357f, -0.1140446f, 
      // -0.0873881f, -0.0300833f, -0.0971885f, 0.0873844f, 0.0343584f, 0.1333036f, -0.0280793f, -0.1238127f, 
      // 0.1205497f, -0.1520400f, 0.0317888f, -0.0898745f, -0.0067249f, 0.0201627f, 0.1132062f, -0.0610039f },
      // { 0.0082151f, -0.0168870f, -0.1238265f, 0.1644453f, 0.1248057f, 0.0890884f, -0.0494301f, -0.1649217f, 
      // 0.0831789f, 0.0724284f, -0.0497357f, -0.1235476f, 0.1167639f, -0.0008961f, -0.1676826f, 0.1518349f, 
      // 0.1305330f, -0.0065182f, -0.0691260f, -0.0167618f, 0.0251586f, -0.0155035f, -0.1529236f, 0.0132422f, 
      // -0.0984092f, -0.0644819f, -0.0395818f, -0.0881107f, -0.0372285f, 0.0952989f, -0.0078514f, -0.1703769f },
      // { -1.5751013f, 0.6799559f, 1.3388118f, 0.0657883f, -0.0026168f, 1.7277435f, 1.2088408f, 0.1881612f, 
      // 1.6774396f, -0.1737375f, 0.7099622f, 0.8804604f, -0.2007755f, -0.0829094f, -0.7500242f, -1.2211219f, 
      // -0.3893311f, 1.7868495f, 0.0339686f, -1.6238211f, 1.1934099f, -2.1295161f, 0.7748361f, 0.6162086f, 
      // -0.0926645f, 0.9715521f, -0.6812837f, -0.4666356f, 0.7300609f, 1.0277063f, -2.0806031f, -1.4617052f },
      // { -0.6857565f, -1.2795215f, 0.8946211f, -7.5711646f, -0.0384196f, -2.0045769f, -1.5979311f, -0.9702197f, 
      // -0.9302553f, 0.8524887f, 1.7250805f, -0.4385069f, 0.0360946f, -0.0520576f, -0.7182300f, 0.2305312f, 
      // -1.0448028f, 2.5104270f, -0.2908322f, -1.4426297f, 0.3486489f, -1.0219393f, -8.2069740f, -0.5952089f, 
      // 0.0079048f, -2.9859605f, 0.3007149f, -0.8323085f, -1.5343208f, 0.2208347f, -1.7075717f, -4.7063603f },
      // { -3.1847081f, 0.4878752f, -0.4757158f, -7.8484445f, -0.2449232f, -1.0476403f, -0.9916425f, -1.6443062f, 
      // 0.4621153f, -0.5843379f, 0.7226244f, -0.2955415f, -0.1866997f, -0.1808544f, 1.5671644f, 0.3176285f, 
      // -1.6943220f, -0.7135735f, -0.1791347f, -2.3501310f, 1.4113913f, -2.0796864f, -2.0109293f, -1.4291732f, 
      // -0.0414738f, 1.2207748f, 0.1568296f, -0.2295021f, 1.2921093f, 0.8388076f, 0.6537495f, -0.3500827f },
      // { 3.3411002f, -2.3154845f, 1.0458080f, -9.3785410f, -0.3030090f, -4.0581632f, -1.0396758f, 0.2364817f, 
      // -0.9134274f, -2.4068761f, 0.2168088f, 0.4077190f, 0.0052690f, -0.1680217f, 0.5909653f, 1.0108200f, 
      // 1.1131992f, 2.7014551f, -0.0633984f, 1.4510399f, -2.7505169f, 0.0430586f, -6.9244227f, -0.4356144f, 
      // -0.1589546f, -4.4954405f, -2.6538222f, 0.8616629f, 2.0173206f, 0.4340769f, -1.0201877f, -2.0784557f },
      // { -7.5801549f, -0.4888435f, -2.9337666f, -1.6450903f, 0.1099084f, 3.3944111f, 2.1809208f, -1.3814706f, 
      // 3.9866886f, 0.8834226f, -1.5328956f, -1.1003932f, -0.0917630f, -0.0382444f, 2.2465107f, 0.8581493f, 
      // -1.9489243f, -0.7713554f, 0.2893848f, -1.6969602f, -0.4093195f, 3.4871838f, -25.5621471f, 1.6067529f, 
      // -0.0379755f, -15.7213793f, 2.2120981f, 1.3955379f, 4.3645673f, 0.1417640f, -0.3300053f, -3.0902374f },
      // { -5.1767688f, 1.5207257f, 0.6909689f, -0.2697082f, 0.0637141f, -4.2031631f, 0.6969313f, -0.2781599f, 
      // 1.4146932f, 1.8828577f, -3.4467986f, -0.1142831f, -0.2019976f, -0.0921614f, -2.8512063f, 1.1890646f, 
      // -1.8239652f, -1.0268303f, -0.2160669f, -2.2903728f, 1.6508001f, -1.9763836f, -3.9048772f, -0.7891336f, 
      // -0.0220629f, 1.5017432f, 1.1457682f, 0.6061881f, -0.9954745f, -0.7404750f, -2.3544466f, -1.4790499f },
      // { -2.3917770f, 0.6787080f, 0.6076426f, -1.0993232f, -0.2235372f, -2.2855189f, -2.0890992f, -4.9276047f, 
      // 0.1954537f, 2.5786843f, 0.5196474f, -1.1155589f, -0.1064223f, -0.1139533f, 0.8544247f, 0.0848909f, 
      // -1.9416738f, 0.3980145f, 0.0079339f, -0.3773928f, 1.7475553f, 2.4547276f, -1.5117621f, -1.5556650f, 
      // -0.0180669f, -0.3183837f, 0.3022374f, 1.0323324f, 1.4273310f, 0.1416880f, 0.1414288f, 1.0891367f },
      // { 0.8114015f, 0.0728845f, -7.1673517f, -0.3766946f, -0.1183989f, 3.1364317f, -0.2834131f, -0.6727377f, 
      // -2.4040251f, -0.2343296f, -0.1768774f, 1.7546605f, -0.1001366f, -0.1085790f, -0.3943554f, 0.5344961f, 
      // 0.6075003f, 3.5027063f, -0.2617278f, -0.0819368f, 0.0298216f, -0.9068136f, 0.6120502f, -0.1978684f, 
      // -0.1190644f, -18.6364594f, 0.8759546f, -1.3975672f, 3.0067866f, 1.8997430f, -1.2621846f, 0.5713089f },
      // { -48.5881424f, 0.9075048f, 1.6838861f, -0.3057923f, -0.1517088f, -1.4798230f, -1.5785975f, 0.6377932f, 
      // -0.3494206f, -0.9811043f, -3.6272497f, -1.6045552f, 0.0492189f, -0.1567138f, -1.2000585f, -0.6467527f, 
      // -1.0923445f, -0.9330608f, -0.0183040f, 2.2822919f, 1.1160136f, 0.8841828f, -1.9038551f, -0.1366316f, 
      // -0.1752358f, -0.3498800f, -1.0450454f, -0.6975794f, 0.6261476f, 0.2953869f, 1.7697628f, 2.3234525f },
      // { 0.1760634f, -0.0963997f, 0.0223224f, -0.0581322f, 0.1624281f, 0.1430703f, -0.0846628f, 0.0866570f, 
      // 0.1103180f, -0.1583796f, 0.1020556f, 0.0436192f, 0.1406780f, 0.1000475f, 0.0765143f, 0.0348046f, 
      // 0.1255176f, 0.0358291f, -0.0646176f, -0.0443588f, -0.1501760f, 0.1606966f, -0.1025129f, 0.1607000f, 
      // 0.0502167f, 0.1277899f, -0.0393184f, -0.1658798f, -0.0954231f, -0.1153876f, -0.1447605f, -0.1224902f },
      // { -0.1092691f, 0.0020918f, -0.1236424f, -0.0704721f, -0.0247888f, 0.1049884f, 0.1041992f, -0.0390327f, 
      // -0.0667080f, -0.1327631f, -0.0535733f, -0.1433918f, 0.0053025f, 0.0047781f, 0.1618000f, 0.1630888f, 
      // -0.0815359f, -0.1596282f, -0.0716998f, -0.1540387f, -0.1679916f, 0.0661425f, -0.0908242f, -0.0097625f, 
      // 0.0320052f, 0.1735117f, -0.1455760f, 0.0304068f, 0.1533094f, -0.1201112f, 0.0249686f, 0.0402647f },
      // { -15.2514029f, 2.0878205f, -2.1533685f, 1.2244720f, -0.0489253f, -4.1498642f, -3.4861581f, -1.4340087f, 
      // 1.2873114f, 0.9099934f, 1.5301985f, -0.2708673f, -0.0224034f, 0.0828494f, -1.6053463f, -0.4175420f, 
      // -3.9062665f, -0.1473167f, -0.1410953f, -5.4219995f, 1.7448829f, -0.4905619f, -1.5297754f, 0.7341987f, 
      // -0.1237312f, 2.8642788f, -0.8167166f, -1.2404631f, -1.8136197f, 0.2179946f, 1.2672873f, -5.0606880f },
      // { 0.1212347f, 0.1211981f, -0.0341080f, 0.2025576f, -0.0451175f, 0.1151276f, -0.1069811f, 0.1024103f, 
      // 0.1968646f, -0.2634539f, -0.1771061f, 0.0406356f, 0.0965460f, -0.0207756f, 0.1742787f, 0.0570287f, 
      // 0.2805156f, 0.1597684f, -0.0333250f, -0.0563327f, -0.1629014f, 0.1511116f, 0.1355786f, 0.2134959f, 
      // -0.0807952f, 0.2523057f, 0.2724180f, 0.0163130f, 0.2796157f, 0.1803651f, -0.0504788f, -0.0931915f },
      // { 0.4911951f, -1.4789439f, -0.5564197f, 1.2209746f, -0.0558576f, 0.9673789f, 1.3787285f, 1.2154579f, 
      // 0.1335856f, -0.8286434f, 2.4406805f, -0.0474265f, -0.0089072f, -0.0969690f, 1.5376137f, 0.5076799f, 
      // 1.5814797f, -1.5078181f, -0.1977600f, 0.8158012f, 0.1634807f, -2.3684413f, -0.6653594f, 1.8128980f, 
      // 0.0170348f, -3.5117002f, 0.0667501f, 1.5149870f, -1.1011372f, 1.4111593f, -7.4645133f, 1.2869372f },
      // { 1.8389938f, -1.7456654f, 0.7054800f, -0.7602808f, -0.1196928f, 0.1608354f, 2.8301780f, 3.4840188f, 
      // -0.2280364f, 0.2803926f, -1.5123488f, 1.3215327f, 0.0028282f, -0.0789689f, 3.0327802f, 0.6203908f, 
      // -0.3849599f, -0.9826233f, -0.0385528f, 2.3797066f, -0.9676617f, 1.5033849f, 0.5246725f, 0.3065420f, 
      // -0.0478985f, -2.1069844f, -1.2309288f, 2.8503726f, -5.5801287f, -0.7820174f, -1.1389824f, -0.7446019f },
      // { 0.5428866f, -3.6371856f, -1.6261002f, -0.3417189f, 0.1015662f, -0.6893074f, -0.7169656f, -0.0655798f, 
      // -0.6939239f, 1.2533747f, 2.4577854f, 0.8348862f, -0.1523490f, 0.0177634f, -0.4669509f, 1.3726273f, 
      // -0.4983369f, 0.0887617f, 0.1335897f, 1.3103458f, -0.5074068f, -0.3978545f, -2.3749721f, -0.4833891f, 
      // 0.0207958f, -0.5624802f, -0.5009982f, 0.9849597f, -0.4718566f, -0.7443376f, -0.0311625f, -0.1291429f },
      // { 0.6183472f, -3.4062858f, 3.6814044f, -19.3508892f, -0.2406724f, -0.8404701f, 1.2928829f, -2.6155846f, 
      // 2.5227423f, 0.0891676f, -1.5757827f, -10.0522480f, -0.1130404f, 0.1048141f, -0.9100590f, -35.8641090f, 
      // 1.2887442f, -0.8844148f, -0.1377834f, 0.6048752f, -6.6642942f, 1.9927925f, -1.1031901f, 0.2361007f, 
      // -0.0883943f, 0.5427608f, 2.2460101f, -5.8104649f, 1.0968822f, 4.3315539f, -2.0118539f, 1.1997504f },
      // { -0.1620774f, -0.0732908f, -0.1319119f, -0.1673984f, -0.1050970f, 0.1685614f, -0.0338649f, 0.0748253f, 
      // 0.0626102f, -0.0208766f, 0.0328324f, -0.1331428f, -0.1732055f, -0.1135322f, -0.1666935f, -0.0382625f, 
      // 0.1472114f, 0.0616357f, -0.0404264f, -0.1190926f, -0.0884374f, -0.1480572f, 0.0606889f, -0.0212251f, 
      // 0.1676376f, 0.1598058f, 0.0715900f, -0.0156705f, 0.1609979f, 0.0689999f, 0.1154114f, 0.0914391f },
      // { -4.4124751f, -1.9532063f, -1.8652465f, -3.3431084f, 0.0327987f, -1.0785639f, -4.2468152f, -0.5915885f, 
      // 0.6266710f, -0.0851659f, -1.4265375f, 1.6469547f, -0.0429731f, -0.1668949f, -0.0556656f, 0.7414054f, 
      // -1.4891107f, -0.7935959f, -0.0482872f, -4.7593298f, -2.5701478f, -0.2698875f, -2.5396638f, -0.6119159f, 
      // -0.1340017f, -25.5706444f, 0.3907955f, -0.4735284f, -0.6814340f, 0.9772128f, -1.6445729f, -7.6888723f },
      // { -0.1324554f, 0.1623012f, 0.0401486f, 0.0729956f, 0.1725543f, 0.1735175f, 0.1717139f, 0.0282918f, 
      // 0.0697716f, 0.1649660f, 0.0145028f, -0.1464901f, -0.1721271f, 0.0348204f, 0.1657545f, 0.1183226f, 
      // -0.1550631f, -0.1294483f, -0.0573516f, 0.0743734f, 0.1637400f, 0.0183817f, -0.1598509f, 0.1743395f, 
      // 0.1175824f, 0.0921448f, 0.0752935f, -0.0003106f, 0.0282513f, -0.1311188f, -0.0638079f, -0.0514729f },
      // { -0.2641574f, -0.2229442f, -2.9192934f, -3.9485970f, -0.0597011f, 0.3696436f, -0.8507795f, 1.8516705f, 
      // -7.8570266f, 1.9442859f, 1.1893144f, -1.8246042f, -0.0486622f, -0.1340667f, -0.1063829f, -1.5583004f, 
      // 0.5748810f, -0.2156942f, -0.0589060f, -0.8751688f, -0.4396028f, 1.6194861f, -0.1189490f, -1.3402287f, 
      // -0.1302142f, 0.5129976f, 1.4666637f, 1.5050350f, -1.0752531f, -0.7725049f, 0.8070264f, -3.3935058f },
      // { -7.1718078f, 3.3055685f, -6.0859823f, -0.1753468f, 0.0068192f, -5.0939841f, 3.5121109f, 1.7329311f, 
      // -0.5809534f, -2.5342519f, -0.9045092f, -14.9694166f, -0.2001056f, -0.1648306f, 2.6134748f, -39.8091164f, 
      // 2.7846217f, 1.6084031f, 0.0430753f, -8.3406143f, 2.1220891f, 1.0147871f, -4.7427483f, 2.6243975f, 
      // -0.0355331f, -8.5756865f, -1.3115939f, -3.1728168f, 0.5791225f, 2.6245294f, 3.0370502f, 0.1168685f },
      // { -0.2339612f, 0.8970685f, 0.6637090f, 0.4275731f, -0.2280733f, -0.2496701f, -0.8716053f, -0.6993698f, 
      // -0.0347936f, -3.2241247f, -0.5135167f, 0.3740684f, -0.1860084f, -0.2340207f, 0.7633035f, -1.0032811f, 
      // -0.9156592f, -1.6786447f, -0.0013804f, -0.5065734f, 0.4802991f, -0.5404084f, 0.8477005f, 1.8793775f, 
      // -0.1525644f, -1.7022380f, -0.2771155f, -1.4987046f, 0.2968610f, 1.2655718f, -0.5745035f, -0.3831219f },
      // { -0.0928368f, -1.4292308f, 0.3109446f, 1.3681406f, -0.1533139f, -1.9333097f, 0.1130942f, 0.8609745f, 
      // 2.1781003f, 4.2449822f, 0.0803476f, -0.6740209f, -0.0507229f, 0.0142888f, 0.7546816f, -0.4182818f, 
      // -2.5043340f, 0.0236194f, 0.0050152f, 0.5080900f, -0.7226789f, 4.4410605f, -3.3876779f, 2.5767477f, 
      // -0.1682602f, -5.3203177f, 3.0553973f, -0.8152195f, -0.4387837f, -1.0933082f, -1.7172198f, -0.1485808f },
      // { 2.5711353f, -1.3532500f, -0.0461613f, -1.2519302f, -0.0548118f, 2.5000529f, 2.5882602f, 1.1340256f, 
      // -0.7404835f, -0.9961663f, -0.0665246f, -0.3469933f, -0.1846197f, -0.2310983f, 1.6483243f, 0.4324406f, 
      // 1.4778451f, 0.8953103f, -0.0165993f, 2.8118651f, -1.5435933f, -0.7634621f, 0.5283901f, 1.0474135f, 
      // 0.0819054f, 0.7224065f, -0.4206892f, 2.9438884f, -0.4264280f, 0.9930256f, 1.7461694f, 0.6553609f },
      // { -0.0558814f, 0.1377079f, -0.1096465f, 0.1233075f, 0.1570923f, -0.0587479f, 0.0879902f, -0.0658695f, 
      // 0.0001070f, -0.0438890f, -0.0874998f, -0.1681561f, -0.0301588f, -0.0388595f, 0.1757348f, -0.0729182f, 
      // -0.0753052f, 0.0576283f, 0.1170399f, -0.0964355f, 0.1276788f, 0.1590881f, 0.0736062f, -0.0224195f, 
      // -0.1743748f, -0.1011344f, -0.0620563f, 0.1500654f, 0.0811137f, 0.1705350f, 0.0767205f, 0.0664870f },
      // { -1.1552811f, 0.5560239f, 0.2922865f, -29.2323513f, -0.0444287f, -0.8137438f, -0.8658141f, 1.3038199f, 
      // -1.0573217f, 0.5932158f, -0.4717879f, -19.1440468f, -0.2278321f, -0.2290027f, 0.4916639f, 0.2333822f, 
      // -0.2612079f, -0.2141352f, 0.0152847f, -1.1318219f, 0.7509127f, -2.5231404f, -3.1254497f, 0.5838929f, 
      // 0.0389896f, -3.4543433f, 0.0334775f, -0.4037825f, -0.2479486f, -0.9852892f, 2.9427516f, -0.5553254f },
      // { 0.1457670f, 0.0132326f, 0.1708721f, 0.1348669f, -0.1433275f, 0.1716593f, -0.1036431f, -0.0001705f, 
      // -0.0667816f, -0.0633494f, -0.0859938f, 0.1435562f, 0.0740087f, -0.0046590f, -0.1149260f, 0.1448622f, 
      // 0.1648159f, 0.1166625f, -0.1448134f, -0.0240511f, -0.0971059f, 0.1201969f, 0.0325285f, -0.1213518f, 
      // -0.0252379f, 0.1121417f, 0.0628669f, -0.0222714f, -0.0521591f, 0.1256071f, 0.1363580f, -0.1657798f },
      // { 3.4042296f, -0.2945425f, 0.1271485f, 2.5051882f, 0.1078151f, 0.6178070f, 1.3573912f, 3.1792691f, 
      // 0.6246640f, 0.5772074f, 1.1381701f, -0.9525364f, -0.0868634f, 0.0590757f, 1.7719555f, 0.1357354f, 
      // 0.5169544f, -1.2991660f, -0.0887109f, 2.7321513f, -2.7170060f, 0.8983585f, -1.5049645f, 1.5276140f, 
      // -0.1953987f, 2.6366024f, -0.0209811f, 1.0071946f, 0.9732159f, 1.0322229f, -1.1027714f, 0.3675941f },
      // { -8.2065182f, 1.8298725f, -4.2535272f, 0.3252200f, 0.0959938f, 2.0553384f, -6.8627987f, 2.2786336f, 
      // -10.0378418f, 3.0003312f, -2.1422346f, 2.1651502f, -0.1972872f, -0.0524323f, 1.6252799f, -0.2101164f, 
      // 9.0474911f, 3.7218661f, 0.2299177f, 11.2659807f, 1.6475153f, -1.6166652f, 0.0522986f, -8.5087061f, 
      // -0.0881298f, -1.2216194f, 0.2611634f, 4.2057333f, -0.9750527f, 0.6599682f, -3.5399349f, -0.0463522f }, //trained on PU200
      // { 0.1671897f, 0.1230296f, 0.3169665f, -0.2258170f, 0.2790295f, -0.1340521f, 0.1086944f, -0.3082775f, 0.1690733f, -0.1856926f, 0.1822643f, -0.2487595f, 0.3348148f, -0.1376022f, -0.1255775f, -0.1613827f, 0.1970107f, 0.0157919f, -0.0178864f, -0.0071265f, 0.0981958f, 0.3206543f, 0.1056530f, 0.3401017f, -0.3178852f, -0.0385488f, -0.0625648f, -0.1105508f, 0.0670376f, -0.1965647f, -0.0264424f, -0.3061824f },
      // { -0.2117496f, 0.0434380f, -0.2543762f, 0.2630760f, -0.0975487f, 0.0019923f, -0.1325249f, 0.2059177f, -0.1946968f, 0.1115820f, -0.0507732f, 0.2822165f, -0.2098835f, -0.1604453f, -0.1140308f, 0.0195971f, -0.3315547f, 0.1352044f, 0.2454605f, -0.0972439f, -0.0742239f, -0.0593349f, 0.2912959f, -0.1673744f, 0.0184116f, 0.2262719f, -0.0603603f, 0.0262046f, -0.1137554f, 0.2665350f, 0.0661751f, 0.1445228f },
      // { -0.1489043f, -0.0322411f, -0.0152191f, -0.0987540f, 0.0936498f, 0.0476303f, -0.1267367f, -0.1492398f, 0.0219569f, 0.1010518f, -0.0058567f, 0.0014348f, 0.1199507f, -0.1747063f, 0.1372446f, 0.0292238f, -0.1678274f, 0.0386450f, -0.0977258f, 0.0901825f, -0.1611635f, -0.0078609f, 0.1559508f, 0.1193083f, 0.1577156f, -0.1329171f, -0.1068954f, 0.0796925f, 0.1114196f, 0.1564157f, 0.1430178f, 0.1455650f },
      // { 0.1502026f, 0.1110551f, -0.1196656f, 0.1793882f, 0.1532011f, 0.0567227f, -0.1298998f, 0.1477751f, 0.1528902f, 0.1295372f, -0.1409760f, 0.1344833f, 0.1604228f, 0.0659732f, 0.0055941f, -0.1027992f, -0.1054530f, -0.1468665f, 0.0337665f, -0.1114893f, 0.1101730f, -0.0301766f, -0.1108893f, -0.0514583f, 0.1246732f, -0.0931040f, 0.0826197f, 0.1370928f, -0.1029286f, -0.0990258f, 0.0807446f, 0.1804017f },
      // { 0.4875876f, 0.0385492f, 0.5694131f, -0.4134300f, 0.5348893f, -0.0765993f, 0.5938281f, -0.6312095f, 0.5733029f, -0.3733869f, 0.4923052f, -0.4036453f, 0.4169163f, -0.1089104f, 0.0415248f, -0.0006843f, -0.4479567f, -0.4926626f, -0.6003050f, -0.0038064f, 0.0420783f, 0.5118045f, 0.2800332f, 0.6742234f, -0.5957863f, -0.6103121f, 0.0246962f, 0.0507696f, -0.1216039f, -0.6487415f, 0.1515073f, -0.6067626f },
      // { -0.2429276f, 0.1133224f, -0.1847874f, 0.3423949f, -0.1979612f, -0.1460893f, -0.2142595f, 0.2842115f, -0.2463090f, 0.3859911f, -0.3671612f, 0.2652299f, -0.2559444f, -0.1765466f, -0.0224320f, 0.0155930f, 0.1870135f, 0.4443718f, 0.4522703f, -0.0862754f, -0.1712203f, -0.2360898f, -0.0375911f, -0.2141195f, 0.4069128f, 0.2094567f, -0.0014630f, -0.0003214f, 0.0131105f, 0.5216262f, 0.1401210f, 0.4127439f },
      // { 0.2457210f, 0.0690126f, 0.5704800f, -0.3544881f, 0.5271757f, -0.1126478f, 0.4238946f, -0.5018178f, 0.5032051f, -0.3000742f, 0.4314402f, -0.5623683f, 0.5697512f, -0.0355517f, -0.0810701f, -0.0916394f, -0.2723827f, -0.2709801f, -0.2250312f, -0.1349498f, 0.0383336f, 0.2206810f, -0.5205359f, 0.4416039f, -0.5885543f, -0.5242054f, 0.1534079f, -0.1518523f, -0.1375813f, -0.2929536f, -0.0569365f, -0.6406683f },
      // { -0.3366637f, 0.0843732f, -0.2456222f, 0.4177837f, -0.4695627f, 0.0453469f, -0.1845538f, 0.4682738f, -0.3945367f, 0.4655519f, -0.2100994f, 0.4075383f, -0.2225768f, -0.0463284f, 0.1400578f, 0.1384865f, 0.5128226f, 0.2840952f, 0.2297423f, -0.1782461f, 0.0972491f, -0.3596179f, -0.1319449f, -0.2092723f, 0.3711938f, 0.1372364f, 0.0875328f, -0.0072296f, -0.1154122f, 0.4483398f, -0.1649639f, 0.4399578f },
      // { 0.3103418f, 0.0281788f, 0.2015835f, 0.0294422f, 0.1035729f, -0.1677582f, 0.1271167f, -0.1863202f, -0.0088088f, -0.1445956f, 0.0276510f, -0.1107206f, 0.3308321f, -0.1676174f, 0.0037585f, -0.0552939f, 0.1556560f, -0.2450369f, -0.2142775f, -0.1811501f, 0.0482696f, 0.2399603f, -0.1722875f, 0.1570725f, -0.0519020f, -0.0832017f, -0.0690643f, -0.0674284f, 0.0663589f, -0.2682196f, -0.0910920f, 0.0392833f },
      // { 0.1520690f, -0.1408318f, 0.0806084f, 0.2815271f, 0.1407085f, 0.0331844f, -0.0317934f, 0.2493697f, 0.0877946f, 0.0696993f, 0.0054056f, 0.2968933f, 0.0766443f, -0.0526033f, -0.1594741f, -0.0696496f, 0.0681039f, 0.2757805f, 0.0816994f, 0.0072598f, -0.0454482f, 0.0490218f, 0.1957968f, -0.0270740f, 0.3382873f, 0.3800032f, -0.1378010f, -0.1043375f, -0.1617994f, 0.2377373f, -0.1219791f, 0.4119949f },
      // { -0.0976115f, 0.0999128f, 0.0071215f, -0.1154739f, -0.0375785f, 0.0163289f, 0.0911102f, -0.0723249f, -0.1344712f, 0.0336323f, 0.1342448f, 0.1697641f, -0.1586294f, 0.1140084f, 0.0313244f, 0.1640613f, 0.0728759f, -0.1063846f, 0.1114167f, 0.0551775f, -0.0305437f, 0.1400543f, -0.1134928f, -0.0277368f, 0.0877348f, -0.0749896f, 0.0232185f, 0.1110408f, -0.1387502f, -0.0168045f, 0.0207216f, -0.1378967f },
      // { -0.0562372f, 0.1264153f, 0.0573253f, -0.0074761f, 0.0493980f, -0.1233401f, -0.0698262f, -0.1066649f, -0.1167012f, 0.1440154f, 0.0928115f, -0.1728240f, -0.1174757f, -0.0267160f, -0.0874693f, 0.0105243f, -0.1492196f, 0.0502662f, 0.0083836f, -0.1344716f, -0.0879873f, 0.0763388f, 0.1612783f, -0.0587625f, -0.0348453f, 0.0684668f, -0.1665913f, -0.0685771f, -0.0079093f, -0.0790077f, -0.0010023f, 0.1103877f },
      // { 0.0862786f, -0.1536118f, -0.0081989f, -0.1653440f, 0.0763658f, -0.1743083f, -0.0294053f, -0.0119890f, 0.1228824f, -0.0706318f, 0.0999653f, -0.0304803f, -0.0256654f, -0.1062638f, 0.0743412f, -0.0278379f, 0.0841315f, 0.0112853f, 0.1488283f, 0.0975203f, -0.0176775f, 0.1471964f, 0.1336242f, -0.0589474f, 0.1069584f, 0.0413894f, -0.1121395f, 0.0015173f, -0.1352397f, 0.0785536f, 0.0980101f, 0.0204544f },
      // { 0.1573994f, 0.0935598f, 0.1750458f, 0.0936020f, 0.0193744f, -0.0241083f, -0.1067283f, -0.0180507f, -0.0671637f, 0.1730263f, 0.0156281f, -0.0253238f, 0.0967680f, -0.0956233f, -0.0203386f, -0.0053397f, -0.1559742f, 0.0744844f, -0.1300277f, -0.1455538f, -0.0458799f, 0.0899603f, -0.0498725f, -0.1192483f, 0.1430690f, -0.0402935f, -0.1227133f, -0.1452657f, -0.1594831f, 0.0794330f, 0.0380007f, 0.0823533f },
      // { 0.1395270f, 0.0014100f, 0.0971744f, -0.2772705f, 0.1039207f, 0.1635115f, 0.1789021f, -0.2214369f, 0.3454899f, -0.1649289f, 0.1418983f, -0.0428411f, 0.3196839f, -0.1712101f, 0.1533453f, -0.0297520f, -0.1156581f, -0.2311791f, -0.1603595f, -0.0309673f, -0.1860504f, 0.0128261f, -0.0700055f, 0.2563779f, -0.1427679f, -0.0188956f, -0.1362581f, 0.0655324f, 0.1525837f, -0.2060084f, -0.1017776f, -0.2887410f },
      // { -0.0575759f, -0.0329301f, -0.1283616f, 0.0822660f, 0.0540465f, -0.0569914f, -0.0656554f, -0.1138100f, -0.1592157f, 0.0591132f, -0.0465713f, -0.1160312f, -0.0365565f, -0.0439352f, -0.0863754f, 0.0946587f, -0.0278206f, 0.0090966f, 0.1182245f, -0.0258103f, -0.0846613f, 0.1733541f, 0.1305077f, 0.0011463f, -0.1024651f, 0.0562468f, 0.0757957f, 0.1142679f, 0.1320544f, -0.1303920f, 0.0962993f, 0.0178974f },
      // { -0.0332107f, 0.1492258f, 0.1794985f, -0.0139491f, -0.0677257f, 0.0945847f, -0.0533424f, 0.0445475f, 0.0567517f, -0.0715975f, 0.0606295f, -0.0361474f, 0.1928974f, -0.0526021f, 0.0562885f, -0.1541932f, 0.0466547f, -0.1406792f, 0.1214369f, -0.0686071f, -0.1517022f, -0.0896452f, 0.1601392f, -0.0627906f, 0.0922771f, 0.0281423f, -0.1361574f, 0.1745265f, -0.1467042f, 0.1149196f, -0.0077973f, 0.1009740f },
      // { 0.1124857f, 0.0308144f, -0.1733624f, 0.0054064f, -0.0460219f, 0.0454343f, 0.1134403f, -0.1170772f, -0.0893026f, 0.1057758f, 0.1615780f, -0.0449586f, 0.1532961f, -0.0678725f, 0.1185376f, -0.0320693f, 0.0448656f, -0.0022685f, 0.1528841f, 0.1372473f, -0.1270926f, -0.0053997f, -0.1579358f, -0.0970062f, 0.0287639f, -0.1766309f, -0.0973071f, -0.0526743f, 0.1197496f, 0.1274545f, -0.0277700f, 0.0035766f },
      // { -0.1076816f, -0.0645062f, 0.1525756f, -0.0523379f, -0.1119227f, 0.1108868f, -0.0651100f, -0.1339143f, 0.0968215f, -0.1302464f, -0.1580077f, 0.1500403f, 0.0394823f, 0.0949083f, -0.1565113f, -0.1428996f, -0.0307889f, -0.0547664f, 0.1431526f, 0.0228929f, 0.1579749f, -0.1262542f, 0.1438389f, 0.0843628f, 0.0323409f, 0.1283049f, -0.1507808f, 0.0459356f, -0.0089506f, -0.1335560f, -0.0794424f, -0.0505538f },
      // { -0.1922428f, 0.1435240f, -0.1788299f, 0.2601432f, -0.2841110f, -0.0956384f, -0.1828296f, 0.2079143f, -0.3116055f, 0.1748299f, -0.2481163f, 0.1325843f, -0.3650895f, 0.0236005f, 0.1118358f, -0.1329314f, 0.1147424f, 0.1144520f, 0.3681944f, -0.1891345f, 0.0674137f, -0.1413936f, 0.1694017f, -0.3211443f, 0.2326265f, 0.1990129f, -0.1162936f, -0.0805347f, -0.0565009f, 0.2653270f, -0.0861988f, 0.1889374f },
      // { 0.0049515f, 0.0453858f, -0.1896874f, 0.2909079f, -0.1991515f, 0.0354937f, -0.1925034f, 0.0270398f, -0.1765873f, 0.2431161f, 0.2068644f, 0.1711198f, -0.1042715f, -0.0747552f, 0.1653832f, -0.0502132f, -0.4088756f, 0.1252842f, 0.2690029f, 0.1454967f, -0.0192756f, -0.2123398f, 0.1675489f, -0.2141622f, 0.2967094f, 0.2373238f, -0.0467104f, -0.1260398f, -0.0462708f, 0.1759033f, -0.1671464f, -0.0217594f },
      // { -0.0914824f, 0.1634730f, -0.0942686f, 0.0133660f, 0.1664658f, -0.1650316f, 0.1409944f, 0.0033015f, -0.1452886f, 0.0334660f, 0.0020318f, 0.0770599f, 0.0684873f, 0.1139006f, 0.0138974f, 0.0397569f, 0.1155901f, 0.0278254f, -0.1509451f, -0.1569761f, 0.0985406f, 0.0841142f, 0.1236447f, -0.1619307f, -0.1607540f, 0.0098269f, -0.0687614f, -0.1442903f, 0.0729661f, -0.1001643f, 0.1463381f, -0.0305722f },
      // { -0.0755097f, -0.1393435f, -0.1630737f, 0.0013755f, -0.0115666f, -0.0886347f, -0.0874694f, 0.0169981f, -0.0511439f, -0.1269751f, 0.0668598f, -0.1354579f, 0.1436245f, -0.1574392f, 0.0860465f, 0.0334526f, -0.1751953f, -0.1230924f, 0.0865375f, 0.1485667f, -0.1110928f, 0.0703212f, 0.1279924f, 0.1328620f, -0.0882381f, 0.0670560f, 0.1413381f, 0.0177554f, -0.1642720f, 0.1672307f, 0.1387705f, 0.1526430f },
      // { -0.3100794f, 0.0479049f, -0.3520424f, 0.3431677f, -0.2645599f, -0.0619205f, -0.0087076f, 0.3357304f, -0.1019292f, 0.2250836f, -0.3311447f, 0.3439874f, -0.3546076f, 0.0415602f, 0.0767935f, -0.0390584f, -0.0522004f, 0.2798238f, 0.2460718f, -0.1814464f, -0.1742962f, -0.1390684f, 0.2506102f, -0.1083794f, 0.3652352f, 0.2480023f, 0.1005695f, -0.0247821f, 0.0013838f, 0.3074917f, -0.1283184f, 0.2355669f },
      // { -0.0274209f, -0.0851827f, -0.0557284f, -0.0519479f, 0.0920506f, 0.0520393f, 0.0189663f, -0.1323351f, 0.0694705f, -0.1421992f, 0.0757983f, -0.0251604f, 0.0683326f, -0.1078664f, -0.1197200f, -0.0298704f, 0.0643797f, -0.0916266f, 0.1641538f, 0.1196526f, -0.1621247f, 0.0133772f, 0.0346319f, 0.1677756f, -0.0365908f, -0.0151893f, 0.0996516f, -0.1001237f, 0.1721254f, -0.0293787f, -0.1482550f, -0.0655849f },
      // { -0.3392559f, 0.0571949f, -0.2635375f, 0.1064349f, -0.2245684f, -0.1541098f, -0.3898603f, 0.2742350f, -0.3267244f, 0.1530393f, -0.2786354f, 0.0437233f, -0.1320226f, -0.0182178f, 0.0608910f, -0.0046742f, -0.0280121f, 0.1346933f, 0.3125454f, -0.0741741f, -0.0572788f, -0.3278425f, 0.1439338f, -0.2198179f, 0.2853826f, 0.3769211f, 0.1555262f, 0.1019651f, 0.0478144f, 0.3489410f, -0.0112088f, 0.3705885f },
      // { 0.2757152f, 0.0509857f, 0.5101441f, -0.4875955f, 0.4238704f, 0.1239537f, 0.5043444f, -0.4484832f, 0.3940465f, -0.4234509f, 0.3241179f, -0.2719466f, 0.3463331f, 0.0415219f, 0.0031137f, -0.1231968f, -0.5430586f, -0.3512319f, -0.3541832f, -0.0500878f, 0.0682788f, 0.3010268f, -0.3934419f, 0.3515324f, -0.5725566f, -0.4059518f, -0.1201745f, 0.0369144f, -0.1488158f, -0.4206434f, 0.1540762f, -0.3947932f },
      // { -0.4939243f, 0.0156908f, -0.4266389f, 0.6070230f, -0.4022465f, -0.0259312f, -0.5514997f, 0.3912626f, -0.4722450f, 0.5147365f, -0.2128901f, 0.4549028f, -0.5012962f, 0.0847447f, -0.0758174f, -0.1017703f, -0.2698363f, 0.5490229f, 0.5991058f, -0.1462277f, 0.1236779f, -0.2666030f, 0.4750282f, -0.3044574f, 0.5428309f, 0.3985879f, -0.1076929f, 0.0839949f, 0.1396667f, 0.4098242f, 0.1694981f, 0.6365904f },
      // { 0.0924734f, 0.0379485f, -0.0366952f, 0.1601522f, -0.1634043f, -0.0965281f, -0.0157715f, -0.0985878f, -0.0971667f, -0.0763390f, -0.0201662f, 0.1052512f, -0.1137009f, 0.0979899f, -0.1439015f, -0.0235598f, -0.0488477f, 0.0216649f, 0.0416288f, -0.1513632f, -0.1735710f, -0.1374238f, 0.1751810f, 0.1101428f, -0.1170367f, 0.1691802f, 0.0219836f, -0.0610413f, -0.0621873f, 0.0444608f, 0.1136119f, -0.1274359f },
      // { 0.3574200f, -0.0011505f, 0.1457780f, -0.0503222f, 0.0621450f, -0.1045746f, 0.4273561f, -0.0066485f, 0.3330356f, 0.0796310f, 0.3771984f, -0.1346244f, 0.1794389f, 0.1020764f, -0.1498944f, -0.0331350f, -0.1645941f, -0.2477800f, 0.0580272f, 0.1093371f, -0.1180814f, 0.2833883f, -0.1155443f, 0.1973884f, -0.1022353f, -0.1989752f, -0.0211434f, 0.0980974f, -0.0115371f, -0.0618110f, -0.0323623f, -0.2616464f },
      // { -0.0244336f, -0.1050120f, 0.0979878f, 0.1892357f, 0.0993745f, 0.1058324f, 0.0364737f, 0.0999018f, -0.1084099f, 0.2360506f, 0.0146134f, 0.2346288f, 0.0264979f, -0.0050989f, -0.1017549f, -0.0199185f, -0.4029126f, 0.0598466f, 0.1144590f, 0.0094524f, 0.1481510f, -0.2681270f, 0.0880889f, 0.0755986f, 0.1454725f, 0.2904682f, 0.1253082f, 0.1435140f, -0.0736716f, 0.1338887f, -0.0742219f, 0.1264535f },
      // { 0.0357558f, -0.1040900f, -0.0905188f, -0.1210350f, 0.0442103f, -0.0502417f, -0.0346871f, -0.1665581f, -0.1548676f, 0.1731890f, 0.0123337f, -0.1693215f, 0.0266708f, 0.0495533f, 0.1142784f, 0.1531614f, -0.1112934f, -0.1686787f, -0.0049669f, 0.0768492f, 0.1728207f, -0.0048720f, -0.0650102f, 0.0668285f, -0.1184207f, 0.0291288f, -0.0410314f, -0.1178610f, -0.1611081f, -0.0533412f, 0.1664073f, -0.0937097f },
  //trained on cube5
      { 0.8375568f, -3.4230413f, 0.7474601f, -0.0252017f, 1.0980763f, -0.0023210f, 1.4949859f, -0.2189939f, 0.0189336f, -0.0412452f, 1.2847449f, -47.4899101f, 0.1015451f, 0.5194914f, -3.9183033f, 0.6145307f, 0.7517467f, 0.4860618f, -0.0116854f, -0.0977634f, -0.0847222f, -0.1627508f, -1.8856746f, 0.6292588f, -0.0367058f, 1.5534874f, 0.0591800f, 0.0366195f, -0.1909890f, 0.4012142f, 0.0062477f, -1.2820152f },
      { -0.0403986f, 0.0906862f, -0.0169369f, -0.0908839f, -0.0898928f, 0.1225969f, -0.0616780f, -0.1653302f, -0.0524027f, -0.1533018f, -0.1766612f, -0.1293714f, 0.0087346f, -0.1439435f, 0.1626743f, -0.1609043f, -0.1571742f, 0.0787721f, -0.0963561f, 0.1337021f, 0.0515542f, 0.0887926f, 0.0413336f, -0.1323078f, 0.0461118f, -0.0817261f, 0.0908675f, -0.0438296f, -0.1302636f, -0.1481029f, 0.0679249f, 0.0878277f },
      { 0.5707946f, -0.1812284f, 1.5286901f, -0.1111612f, 0.9503213f, -0.2112338f, -0.2753285f, -0.0450390f, 0.0770131f, 0.1568445f, 0.8261935f, 1.6603304f, -0.7059889f, 0.0053310f, -0.9270265f, -1.5313001f, 1.4355117f, -0.7679706f, -0.0541877f, -0.2095008f, -0.3405270f, -0.1860581f, -3.3553333f, -0.4536913f, -0.2472126f, -0.8013452f, -0.2515971f, -0.2622524f, -0.0537408f, -1.5311891f, -0.0580430f, 0.6388571f },
      { 0.9307013f, -5.0434585f, 0.9905449f, -0.0162431f, -1.3703320f, -0.0254986f, 0.2582276f, -0.0484423f, 0.1016149f, 0.1313632f, -0.6695482f, -23.9062996f, 0.0933438f, 1.6992381f, -2.7228320f, -1.2305740f, 1.9938337f, -0.7687266f, -0.1645937f, -0.0586941f, 0.0232511f, 0.0110950f, 2.6884651f, 0.2978441f, -0.0505831f, -3.1543128f, -0.2442629f, 0.0009662f, -0.0891266f, 0.3728886f, -0.0883555f, -0.6985784f },
      { 0.4708847f, 1.2229073f, 0.8381200f, -0.1524778f, 0.7035112f, -0.2674363f, 0.7568923f, 0.1343587f, -0.0707329f, 1.6060816f, -1.6491672f, -17.2157230f, -0.4031981f, -0.9571286f, 0.7740760f, 0.0647312f, 1.5048782f, -1.2397838f, -0.1006296f, -0.0589737f, -0.0477591f, -0.0754339f, 2.2932854f, 0.7432012f, -0.0911514f, 1.5603577f, -0.1370883f, -0.3091693f, 0.1126564f, -0.6954786f, -0.2410772f, 0.8466227f },
      { -0.0734927f, -0.1587845f, -0.0853602f, 0.0849634f, -0.0883174f, 0.0950608f, 0.1108971f, -0.1509248f, 0.0656569f, -0.0110658f, -0.0290271f, -0.0419959f, -0.1500547f, -0.1316716f, 0.0829166f, -0.0113240f, 0.0998400f, 0.0123238f, -0.1286316f, -0.0643928f, 0.0001331f, -0.1719121f, -0.0474210f, -0.0085309f, 0.1741079f, 0.1058052f, -0.0073226f, -0.0881618f, -0.0970416f, 0.0601723f, 0.1098286f, -0.1590885f },
      { 0.1722721f, -0.0866844f, -0.1555525f, -0.1750387f, 0.1401950f, 0.0817324f, 0.0700971f, 0.0901445f, -0.0487870f, 0.1441000f, -0.0022891f, 0.1032783f, -0.0477245f, -0.0104861f, -0.1621212f, -0.0796224f, -0.0369935f, -0.0976473f, -0.0496380f, -0.1414042f, -0.0622935f, -0.0618025f, 0.0358241f, 0.1503624f, 0.1040028f, -0.1580298f, -0.1599859f, 0.0528463f, -0.0729205f, -0.1277074f, 0.1644984f, -0.1302852f },
      { -0.1401664f, -0.2847898f, 0.0472836f, 0.0149363f, 0.1475794f, 0.0520873f, 0.0218950f, 0.1388792f, 0.0740241f, -0.0901945f, -0.1758471f, -0.2368087f, -0.1172131f, 0.1197306f, -0.0555244f, 0.0242350f, 0.0514246f, 0.0333357f, -0.1151443f, 0.0219162f, 0.0801297f, 0.1598788f, 0.1185942f, -0.0784566f, 0.0418296f, -0.0206784f, -0.0250206f, 0.0947371f, 0.0836310f, -0.0631885f, -0.1271080f, 0.2072515f },
      { -1.6810908f, -2.3256152f, -0.1353548f, 0.0656890f, -1.4497910f, 0.0564689f, -6.2786527f, -0.0822834f, -0.0335365f, -0.7003535f, -1.0406460f, -23.6524754f, -0.8409091f, 7.8569150f, -1.4885675f, 0.4000660f, -1.3013608f, -3.4132416f, 0.0097847f, -0.1188627f, -0.1719421f, -0.1368374f, 5.3329511f, -1.1567374f, 0.0958239f, 5.5233417f, 0.0473058f, -0.0750062f, -0.0790047f, -0.9514405f, 0.1865515f, -2.9620390f },
      { -0.0350917f, 0.0540582f, 0.0011379f, -0.1093851f, 0.0444180f, -0.0370321f, -0.0647981f, -0.1005268f, -0.0618558f, 0.0003039f, -0.0853056f, 0.0470660f, 0.1761345f, -0.0949479f, 0.0295577f, 0.1142811f, 0.0619788f, -0.1497673f, -0.0347857f, 0.1537798f, -0.1337912f, -0.0002693f, 0.1091853f, 0.0836832f, 0.1175564f, 0.0435558f, -0.0461015f, 0.0557211f, -0.1483379f, 0.0793066f, -0.0493768f, 0.0066369f },
      { -0.0520114f, -0.0824484f, 0.1493493f, -0.0474354f, 0.0233241f, -0.0380950f, -0.1255683f, -0.1400738f, -0.0465677f, -0.0944828f, -0.1450446f, -0.0148442f, -0.0112677f, -0.0693358f, 0.0652927f, 0.0227515f, -0.1277708f, -0.1448582f, 0.1606316f, 0.0586381f, -0.1639390f, -0.1584752f, -0.0476019f, 0.1573742f, -0.1202254f, 0.1257670f, 0.1717039f, 0.0307686f, 0.0697286f, 0.0711842f, -0.1254957f, -0.0215259f },
      { 1.1678883f, 0.9900656f, -1.6240185f, 0.0842678f, 2.3734925f, -0.0377827f, 0.2386506f, -0.1074142f, -0.0532097f, 0.8512160f, -0.0536154f, 3.0490811f, 0.9743743f, 0.5559651f, -2.1511314f, 1.8445030f, 1.9771792f, 1.7804536f, 0.0602348f, -0.0487614f, -0.0934981f, -0.0029415f, 4.2918839f, 0.9224283f, -0.0536842f, -2.1172204f, -0.1886821f, 0.2091272f, -0.0714501f, 1.3183445f, 0.0653221f, -0.5298404f },
      { 0.1063471f, 0.0454631f, 0.1636887f, -0.0686802f, -0.1363816f, -0.1524535f, -0.0297431f, 0.0702409f, 0.0715095f, -0.1632129f, -0.1355608f, 0.0432395f, -0.1657717f, -0.0982170f, -0.0739330f, -0.1754360f, 0.0570669f, -0.0980650f, -0.0224016f, 0.0569762f, -0.0786822f, 0.0779956f, -0.1105371f, -0.1244540f, -0.0358446f, 0.0868489f, 0.1560789f, -0.1614863f, -0.1340794f, 0.1527826f, 0.0850384f, 0.0050243f },
