#ifndef RecoTracker_LSTCore_src_alpaka_NeuralNetworkWeights_h
#define RecoTracker_LSTCore_src_alpaka_NeuralNetworkWeights_h

#include <alpaka/alpaka.hpp>

namespace lst::t5dnn {
ALPAKA_STATIC_ACC_MEM_GLOBAL const float bias_layer1[32] = {
5.1693015f, -0.2129911f, -0.0839694f, -0.4268375f, 1.6946946f, -0.1518640f, 0.1290508f, -0.0386529f, 0.4540412f, -2.5413778f, -0.0926562f, 1.4365337f, -0.6425970f, -0.0231098f, -0.0071703f, 1.8204463f, -0.7557916f, -0.8452762f, 0.0896666f, -0.0195287f, -2.2397270f, -1.6180952f, -1.3058301f, -1.8432078f, 3.0066333f, -0.0804121f, -0.7688547f, -2.1990929f, -2.3919873f, -0.7787144f, -0.9168433f, 0.1116131f };

ALPAKA_STATIC_ACC_MEM_GLOBAL const float wgtT_layer1[23][32] = {
{ 0.1704160f, 0.0135957f, -0.1683736f, 2.3143096f, -1.6486168f, -0.1917696f, -0.1512824f, 0.1926254f, -0.8065747f, -0.2076450f, -0.0344363f, -2.2433472f, -1.3879409f, -0.1861052f, -0.0786414f, -1.9170213f, 0.2130579f, 0.3492825f, -0.3457337f, 0.0063472f, 2.1464975f, -0.4312182f, 2.0836666f, 0.0772336f, 0.1672167f, -0.3418971f, 3.5759468f, -0.0324996f, 5.5851579f, -2.4025362f, 0.2741055f, 0.1662952f },
{ -0.0021775f, 0.0941249f, 0.0858851f, -0.0073635f, 0.0101852f, 0.0474809f, 0.0908142f, 0.0902236f, 0.0084451f, -0.0219605f, 0.1318825f, -0.0091818f, 0.0211193f, -0.0042324f, -0.0134733f, -0.0294219f, 0.0127709f, 0.0173780f, 0.0056046f, 0.1843686f, 0.0121451f, 0.0045218f, -0.0124913f, -0.0415290f, -0.0076961f, 0.0066295f, 0.0233867f, -0.0511824f, 0.0415814f, 0.0068334f, 0.0025876f, -0.1821572f },
{ -1.9809786f, -0.0972896f, 0.1886835f, -0.7133385f, 3.6999345f, 0.0528610f, 0.0702343f, -0.1505660f, 2.4786770f, -1.7716914f, 0.0069510f, 1.7859099f, 0.7270107f, 0.0205475f, -0.0910348f, 0.4305956f, -0.4187553f, -0.5572161f, 0.8281696f, 0.1243820f, -2.8485408f, 0.4881116f, -0.6693552f, 0.8416520f, 0.8775902f, -0.1355765f, -5.8874116f, 0.1165907f, -2.3749437f, 2.1905310f, -0.2632196f, 0.1414489f },
{ 0.4418707f, -0.1307031f, 0.0356757f, -0.3724318f, -5.5450916f, -0.0793482f, -0.1164248f, -0.1810036f, 1.6836984f, 4.4565716f, -0.0348515f, -3.3331265f, 4.2005324f, -0.0392036f, 0.0136424f, -4.9040961f, 0.0872433f, 0.0899917f, 0.2247943f, 0.0711660f, 3.6813357f, 0.5335733f, 0.1193167f, 0.0728256f, -5.8882127f, 0.0206630f, 3.3288953f, 0.4067842f, -0.6016922f, 1.7023919f, -0.0272175f, -0.0958603f },
{ -0.3817629f, -0.0330725f, 0.0032759f, -1.1054784f, -2.0483115f, -0.1164234f, 0.0679415f, 0.0465848f, -1.9646400f, -17.7893925f, -0.1381166f, -1.1990746f, 17.8680477f, -0.1273386f, -0.0490226f, -7.1292825f, 0.1887081f, 0.6908679f, -0.3182040f, -0.1151817f, -1.2937444f, 0.0255767f, -0.4259468f, 0.4768902f, 1.5597841f, -0.2717001f, 0.8938593f, -0.0612527f, -0.1434458f, -2.4479749f, 0.8337930f, -0.0624357f },
{ -2.0250416f, -0.1352222f, 0.0903201f, -0.2854237f, -0.6627553f, -0.0808286f, 0.1669258f, 0.0090215f, -2.2859664f, 3.8394256f, -0.0462173f, 0.6200677f, -0.9131107f, 0.1194014f, -0.0242576f, 0.5368721f, -1.1013026f, -8.3171749f, -0.6264166f, -0.1481083f, -2.2086766f, -21.5921803f, 0.0854798f, -56.8305321f, 0.8015476f, 0.4427707f, 0.1723668f, 51.0072327f, 4.3666530f, -3.1802759f, 7.4275947f, -0.0892076f },
{ 0.3437655f, 0.1691949f, -0.1047871f, -10.1162119f, 12.3177490f, 0.2053878f, -0.1766565f, 0.1414981f, 9.7845726f, 8.9592323f, 0.1241372f, 5.4213271f, 5.8619037f, 0.2586659f, -0.3132444f, 0.3436823f, 0.1424887f, -0.5554193f, 0.9455767f, -0.1669401f, -0.1960043f, -0.6119343f, -2.4316034f, -0.7783788f, 3.5720193f, 0.3267004f, -11.4952755f, -2.3996348f, 0.8136392f, 1.2750541f, -0.5138243f, -0.1135397f },
{ 1.4750061f, -0.0668532f, 0.1590206f, 3.2069321f, -6.9624891f, 0.1673957f, 0.2035936f, -0.2200966f, 4.3127332f, -2.8927231f, -0.0683566f, -4.1190119f, -0.2247881f, 0.2022551f, 0.0381497f, -2.1543779f, -0.2951058f, 2.2464492f, -0.3753999f, 0.0325928f, 2.8923817f, -2.5050461f, -5.1364546f, -5.3629689f, -5.7700248f, 0.2587383f, 5.3629832f, -5.6495647f, 1.7069261f, -0.4774745f, 2.3916228f, 0.0386139f },
{ -0.4233976f, -0.1559681f, -0.1615389f, -19.1620560f, -10.5680513f, 0.0921640f, 0.1244984f, -0.1823536f, -1.2414308f, -0.7133585f, 0.1831392f, 5.7231898f, -21.0539112f, -0.1285687f, -0.0947134f, -13.2974100f, -0.2404688f, -0.5111029f, 0.2508985f, 0.0969865f, -1.7760185f, -0.6850655f, 0.3601100f, 0.6975109f, 17.5668774f, -0.2262294f, 3.4911618f, 0.0591033f, -0.8536935f, 0.7493743f, -0.9063326f, -0.1096916f },
{ 8.1646185f, 0.1631383f, 0.1890261f, 4.4352932f, 2.0133228f, -0.1062515f, -0.0209494f, -0.2011331f, 3.7341011f, -1.8871683f, -0.1713041f, 0.2532852f, -1.3562604f, 0.1350065f, -0.0906523f, -0.1387310f, 0.5505148f, -9.3611851f, 2.8168883f, -0.1390329f, 3.1504114f, -35.5289955f, 7.0639057f, 7.0817957f, -0.8122002f, -0.2351069f, -1.9624226f, 17.6865253f, -4.9887667f, -4.1914115f, 14.9499359f, 0.0415310f },
{ 0.1838610f, 0.1873303f, -0.0593082f, -5.2703691f, 1.0559024f, -0.1861247f, -0.1921190f, -0.2160761f, 2.3072131f, 3.3000429f, -0.1668338f, 6.5167546f, 4.0625949f, 0.6323156f, 0.2944784f, -1.3355740f, 3.0088825f, -0.2083964f, 0.3311904f, -0.1564508f, 1.1399239f, -0.4193272f, -4.8739672f, 0.3038674f, -2.2395542f, 1.1494558f, -8.7087650f, -0.6443800f, -4.5100570f, 9.4652491f, -0.2530367f, 0.0773994f },
{ -0.9423031f, -0.1372124f, -0.1910007f, -4.4314022f, -2.4643779f, -0.2027730f, 0.1205877f, 0.1637518f, 0.2944093f, 2.0136917f, -0.1865167f, -2.8614905f, 0.0287227f, 0.2449201f, 0.0611960f, 0.5026851f, 0.7727768f, 1.2612616f, -0.1149322f, 0.1844838f, 1.7790914f, -1.7535475f, -3.7177539f, -0.2205317f, -2.6484153f, 0.2333742f, 3.6245589f, -1.9690440f, 2.1371768f, -0.1810912f, 1.5194503f, 0.1111368f },
{ -0.4281449f, -0.1677912f, -0.1615251f, -4.5688157f, 24.3838959f, 0.1162181f, -0.1994029f, -0.1798698f, 7.2559371f, 7.1180816f, -0.1185546f, -14.0510798f, -26.4931564f, -0.1373315f, -0.0892059f, 22.1491356f, 0.1176129f, -0.0141189f, 0.3165284f, -0.1985007f, -12.4267740f, -0.3068179f, -0.9374976f, 0.4468499f, -20.3553143f, -0.1924036f, 3.7006161f, 0.3097626f, 6.2696452f, 0.3309435f, 0.2476818f, 0.1542885f },
{ -0.4922943f, 0.0737535f, -0.1618630f, -1.4935372f, -0.4807918f, -0.1941798f, -0.0394710f, 0.1410088f, 2.2757215f, 0.3914313f, 0.1361684f, -1.0372057f, 1.4763976f, -0.1441108f, 0.0442855f, 0.5803654f, 0.0992590f, 16.3482800f, -0.0960893f, 0.1973065f, -0.2273798f, -24.2952862f, 5.7911258f, 14.8975248f, 0.2475302f, -0.1964402f, -1.1773906f, -7.5439916f, -1.9325154f, -3.4166796f, -18.7774620f, -0.1154179f },
{ -0.2574225f, -0.1641297f, -0.1753804f, 7.9897580f, -1.7172264f, 0.0832671f, -0.1676595f, -0.0905008f, -8.9989796f, -2.2185481f, -0.1900903f, 3.9380348f, -2.4711325f, 0.4571586f, 0.4050087f, 3.6034110f, -2.6718566f, 0.1958804f, -0.6041715f, -0.0121337f, 1.9934528f, 1.6915362f, -2.1865244f, -0.5215964f, 2.4421742f, 0.9077568f, -4.2781310f, 0.5822951f, -1.5494460f, 3.9385533f, -0.0937645f, -0.1924845f },
{ 1.3274544f, 0.1431618f, 0.0512876f, -0.8693109f, -2.4714499f, -0.1497432f, -0.1345403f, 0.0349608f, -3.9575434f, 1.2995768f, -0.0466332f, -0.2275508f, 1.2301660f, 0.1922417f, 0.0497766f, -2.7001824f, 4.6185088f, -1.0306782f, 0.3183023f, 0.0739267f, 0.7243834f, -1.6530031f, -0.9037979f, 1.6799523f, -1.1578344f, 0.2279549f, 0.2326648f, 0.8816236f, 1.4775772f, -1.1137756f, -0.7045581f, 0.1356755f },
{ -0.5160105f, -0.1094298f, -0.0310781f, -0.4868962f, -2.5887728f, -0.0883970f, 0.0308698f, -0.1172439f, 5.8720798f, 5.0181890f, -0.0530869f, 0.5968221f, 0.6549498f, 0.1348234f, 0.0523250f, 21.9005260f, -1.1654032f, -0.3204388f, 0.0203333f, 0.1200518f, 20.9773617f, 0.2332597f, -1.2865229f, 0.8916967f, -19.8322678f, 0.1588425f, 0.8034972f, -0.0552923f, 12.2536535f, 2.1316030f, -0.1329475f, 0.2000817f },
{ -3.2916725f, -0.1736758f, -0.0049630f, -2.7419744f, -0.5966801f, -0.1688458f, -0.0541925f, -0.0607849f, -3.2491677f, 0.5323992f, -0.0071948f, 0.4829664f, 1.0313464f, -0.0489055f, 0.0880681f, -1.2653817f, -0.1504583f, 52.9465599f, -2.4439437f, 0.1430089f, -1.2410122f, 0.6062729f, -7.9700265f, 1.0735590f, -0.4347958f, 0.0920641f, 2.4545541f, 5.5799060f, 2.3686345f, 4.9910455f, -48.4724770f, -0.1339924f },
{ 2.3965344f, -0.0437092f, -0.1561483f, 0.1359323f, 1.0101246f, 0.0652157f, -0.0543669f, 0.0510228f, -9.4355764f, -5.8845992f, 0.1014384f, -0.3118500f, 5.0726256f, -0.3638253f, -0.0301776f, 7.2376747f, 1.1595521f, -0.3250120f, -0.1823912f, 0.1343501f, 5.4185238f, 0.1546521f, 3.4735434f, -1.2293017f, 2.8666575f, -0.3879333f, 2.2051413f, 1.0969958f, 1.1638863f, -1.8385112f, -0.3608880f, 0.0993214f },
{ 4.5534186f, 0.0566929f, 0.0638543f, 0.4548884f, -1.2231085f, 0.1345581f, 0.0825059f, 0.1420656f, -4.0319972f, -0.1201174f, 0.2012979f, -0.5103601f, -1.9133651f, 0.1344032f, 0.0618158f, -3.9520378f, -5.8196239f, -3.6253927f, 1.8957770f, 0.1144238f, -10.2232838f, 0.2998157f, 0.9106337f, 1.6233621f, -1.1202754f, 0.0862229f, 1.5031425f, 0.9020265f, -4.5631518f, 1.3998498f, -3.8067918f, -0.0293569f },
{ -3.4539487f, -0.1249378f, 0.0406198f, 0.1518436f, -0.6797721f, 0.0238192f, -0.0976470f, -0.0348810f, -0.4212955f, 1.4051805f, -0.2018393f, 2.8091202f, 0.0734460f, -3.0945590f, 0.0148146f, -0.1010498f, 3.5084848f, 0.1605491f, 1.8911908f, -0.1692954f, 0.2740513f, 0.2993656f, 0.7898474f, 0.5195946f, -0.2910464f, 3.2599738f, -0.1941684f, 0.3851524f, 0.8629790f, -1.7229210f, 0.2176673f, -0.1904813f },
{ 0.6600696f, 0.0182078f, -0.1981729f, -0.1592979f, 0.7592720f, -0.1799527f, 0.0067919f, -0.1276102f, 0.2946304f, -1.2478739f, -0.1581561f, -2.9118547f, -0.5861728f, 3.0529866f, -3.0710549f, 0.0772391f, -4.1660390f, -0.0698501f, 2.1884727f, -0.0213672f, -1.7701679f, 0.3107365f, -0.6188253f, 0.0980647f, -0.1052874f, -3.2969327f, 0.1248321f, 0.4662070f, -0.8733044f, 0.2833187f, -0.0927610f, -0.0645214f },
{ -0.0081318f, 0.0296472f, -0.0624287f, -0.0217443f, 0.0051913f, -0.0141285f, -0.1630526f, 0.0076082f, 0.2915671f, 0.1410519f, -0.0360242f, 0.0317955f, 0.0213001f, -0.0024311f, 3.0272248f, 0.0167385f, 0.5675918f, 0.3386552f, -4.0979648f, -0.1986097f, 1.7009559f, 0.2118783f, 1.2831572f, 0.1522926f, -0.0473384f, 0.0043568f, 0.0427412f, 0.2856756f, 0.3655671f, 1.7639645f, 0.3238254f, -0.1347596f },
};

ALPAKA_STATIC_ACC_MEM_GLOBAL const float bias_layer2[32] = {
2.2634079f, 2.9621642f, 2.4639337f, 1.3900254f, -0.2880758f, -2.8131051f, 2.1051190f, -1.3573056f, 1.7085078f, 1.4110384f, 4.6328731f, 1.7656293f, -0.4141653f, 1.0078661f, -0.8268167f, 1.8269588f, 1.2780261f, -2.5820336f, -0.2620821f, 0.6395037f, -0.1444936f, 4.7509742f, -1.1921978f, 3.4761729f, -0.5337613f, 0.1115958f, -2.4160364f, 2.8335776f, -1.0006001f, -0.1515727f, 2.9264400f, 1.7391906f };

ALPAKA_STATIC_ACC_MEM_GLOBAL const float wgtT_layer2[32][32] = {
{ 1.6813934f, -0.3676687f, 0.5184433f, 1.4573370f, -0.2378499f, -2.6521990f, -0.3141410f, -3.7806182f, -0.1393952f, 2.3682840f, 1.4866112f, -2.9468007f, -1.2270442f, -0.6029848f, 0.0770372f, 0.2885979f, -1.6178077f, -4.6328006f, -0.2091806f, -1.0067270f, -0.0767792f, 1.8759105f, -1.3568304f, -3.0132205f, 3.1203709f, -2.5408673f, -0.1552074f, 1.0438595f, -0.4864754f, -0.1632878f, 0.9882722f, 3.1552360f },
{ -0.1411904f, 0.0116508f, 0.1312364f, -0.0452195f, 0.0610714f, 0.0191200f, -0.0100458f, 0.0501301f, -0.0176528f, 0.0368537f, -0.1232001f, 0.1225526f, -0.1659546f, -0.0925358f, -0.1427617f, -0.0240908f, -0.0315178f, 0.0285686f, -0.1578608f, -0.1235370f, 0.0927697f, 0.1710070f, 0.0174705f, -0.0457517f, -0.0749950f, -0.1164638f, -0.1012613f, 0.1393702f, 0.0574096f, 0.0745291f, 0.0178419f, 0.0903513f },
{ -0.1128285f, 0.0617832f, -0.1592601f, 0.1529993f, 0.1165838f, 0.1493618f, 0.1024825f, 0.1594851f, -0.1452003f, -0.1536503f, 0.1288472f, 0.1367696f, -0.1216317f, 0.0065769f, -0.1092724f, 0.0669271f, 0.1099773f, -0.0646545f, 0.0382248f, -0.0189123f, -0.0370570f, -0.0561015f, 0.0201509f, -0.1576649f, -0.1359371f, 0.1114661f, 0.1362292f, -0.0363821f, -0.1439040f, 0.0731338f, 0.0007915f, -0.0667655f },
{ 0.6700768f, 2.6999145f, -0.0090159f, 0.6808697f, -0.0298018f, 0.2594590f, -0.2694835f, 0.0700788f, 2.4436924f, 0.6988019f, 1.3533722f, 0.2150221f, -1.1664178f, 2.2311049f, 1.7318037f, -0.0016117f, 2.2193015f, 0.1653453f, -0.0073503f, 0.2453753f, -0.2460882f, 0.1816213f, 0.6010157f, -0.6083830f, 0.5692868f, -1.5064875f, 0.8708314f, -1.1612267f, 1.3185341f, -0.0494483f, 1.7917541f, 0.5134180f },
{ -5.1508617f, 0.8936319f, -0.0630614f, 1.0671556f, -0.0042437f, 0.1845490f, -2.3820875f, -0.3961975f, 4.0486474f, 0.8405442f, -0.4315272f, -0.4370509f, -1.6770787f, 5.7122655f, 3.5936003f, -0.0348325f, -2.8761048f, -0.0088296f, -0.1847169f, 2.5292649f, -0.0644513f, 0.4777937f, 0.8203836f, -0.7116734f, -0.3410830f, -1.6843563f, 0.9138887f, -1.7709889f, 1.1378300f, -0.1089597f, 2.9130523f, -0.6108380f },
{ -0.0503136f, -0.0113918f, -0.0246897f, 0.0794848f, 0.1697386f, -0.0058696f, -0.0299155f, -0.0381259f, 0.1207388f, -0.1274132f, -0.1312408f, 0.0298278f, 0.1631349f, 0.1749211f, -0.1699689f, -0.0441015f, 0.0542237f, -0.0881411f, -0.1400464f, -0.1143309f, -0.1259320f, -0.0499736f, -0.1430034f, 0.1389153f, -0.0411195f, 0.0059338f, -0.0246990f, 0.0707214f, -0.0732218f, -0.0619035f, 0.0407548f, 0.1270805f },
{ 0.1680158f, -0.0640934f, -0.0624441f, 0.0512339f, 0.1491797f, -0.0468420f, -0.1567580f, -0.1665667f, 0.1022127f, -0.0789138f, 0.0148440f, -0.1450024f, 0.0084739f, 0.1373683f, -0.0734438f, -0.0503340f, -0.0217958f, 0.0192839f, 0.0626388f, 0.1498683f, 0.0185264f, 0.1060556f, 0.1427706f, -0.0740941f, -0.1741209f, -0.1331523f, -0.0415958f, 0.1199846f, -0.0195681f, -0.0270086f, 0.1435803f, 0.1610611f },
{ 0.0432081f, -0.1422863f, 0.1582930f, -0.1982068f, 0.1012902f, -0.0241357f, -0.0029680f, 0.0494099f, -0.0452792f, 0.0379445f, -0.0188734f, -0.0857456f, -0.0588973f, -0.0049865f, -0.0541098f, 0.1290929f, 0.1462416f, -0.1375091f, 0.1170662f, -0.0912862f, -0.0022785f, -0.1463558f, -0.1501992f, 0.1755563f, -0.1237252f, -0.0379453f, 0.1239979f, 0.0808460f, 0.0106178f, 0.1402363f, -0.1024254f, -0.1769325f },
{ -1.2259170f, -0.7942617f, 0.1067823f, -0.3596911f, -0.1494060f, 0.0592194f, -0.3567629f, -0.1137668f, 0.3762016f, -0.2405491f, 0.0694452f, 0.5561882f, 0.0650429f, -0.3501308f, -0.3946015f, -1.3500196f, -2.7844849f, -0.5040683f, -0.0885154f, -1.0650525f, -0.1301099f, -0.3159117f, -2.5662339f, 0.0148918f, -1.0473667f, -1.0793351f, -0.3133155f, -0.5123213f, -1.5989093f, -0.1366057f, 0.6826949f, -0.5613244f },
{ -0.3554817f, -2.7326024f, -2.4179378f, -0.3767284f, 0.0843083f, -0.8534456f, 0.6724532f, 0.3775479f, -4.1659484f, -0.5919365f, 0.8059232f, 0.5786371f, 0.1968380f, -3.6303122f, -5.2737002f, -1.1699033f, 2.2470112f, 0.9551519f, -0.0110897f, -0.0960933f, 0.0238825f, 0.0954001f, -0.1138304f, 1.9437418f, -0.6222810f, -10.5069304f, -0.3311942f, 0.6826846f, -2.8081877f, 0.0932883f, -5.0286217f, -1.0574820f },
{ 0.1398511f, -0.0033770f, 0.0416505f, 0.0885244f, -0.1008294f, 0.0713447f, 0.0618765f, 0.0707252f, -0.1726381f, 0.0170442f, 0.1206913f, 0.0428232f, 0.0085674f, -0.0523233f, -0.0146589f, 0.1170368f, 0.0932996f, -0.1481044f, 0.1704890f, 0.1557570f, 0.0495422f, -0.0876331f, 0.0846014f, -0.1601026f, -0.0688706f, 0.0410507f, 0.1295560f, -0.0951248f, -0.0121235f, 0.0525551f, -0.0578413f, -0.0999350f },
{ -7.2165604f, 0.6067294f, -0.9409281f, -0.9861507f, -0.1001760f, 1.3859839f, -0.5292011f, 1.6055448f, -8.2228384f, -2.0952733f, -0.6415439f, -2.9795403f, 1.2254798f, 2.3497353f, 2.1339338f, 0.1602227f, -6.2442946f, 1.4067442f, -0.1523182f, 3.4882495f, -0.0219650f, -0.8815061f, -1.5794897f, 0.5577373f, -0.8786884f, 1.1298047f, 3.1284821f, 0.5600109f, 2.0387051f, -0.0371149f, -3.2822011f, -4.1942515f },
{ -0.4928734f, -1.2138649f, 2.7998083f, 0.3484490f, -0.0938495f, 1.4091851f, 0.0486234f, 0.4244246f, -4.5366383f, 0.1891070f, 0.2835515f, -0.7170737f, 0.2660502f, -1.9227694f, -1.0606784f, 0.9213157f, -0.4907842f, 0.4820231f, 0.1040853f, -0.6975424f, -0.0813849f, 0.1225983f, 0.0832420f, 0.3766494f, 0.6454594f, 2.5569122f, -1.7387201f, 0.8825499f, -1.8842078f, -0.0848541f, -2.8457983f, -0.2245138f },
{ -32.8524742f, -1.0565592f, -2.9982378f, 0.3169704f, -0.1469582f, 7.4304605f, -4.0675035f, 0.0528897f, 2.7182794f, 6.1496978f, -7.2364173f, -10.6796694f, -0.2846564f, -2.2930233f, -2.1941228f, -35.5936737f, 4.9922972f, 1.0259448f, -0.0552253f, 5.9106355f, 0.0100120f, -1.2459381f, -0.9948317f, 3.2911167f, -3.2388816f, 2.9823339f, 4.4693599f, 3.6401234f, 1.7249265f, -0.2892151f, 4.9056458f, -7.3328972f },
{ 1.7936989f, 0.4172815f, 0.1250225f, 2.0599868f, -0.1913797f, -0.2429626f, -40.6086617f, -0.0581906f, -1.0522445f, 1.3989080f, 1.1546888f, -0.4364320f, 0.6874613f, -1.3328754f, -0.2501858f, -1.1172625f, 0.9280300f, -0.3007928f, 0.0273687f, 0.8925412f, -0.0408827f, 1.2021333f, 0.5620505f, 1.4992669f, 2.6919003f, 2.0181952f, -1.1537423f, 0.4816146f, -19.3825645f, -0.0453944f, -0.7600078f, 1.0859060f },
{ 0.3508532f, 6.3280296f, 1.3848306f, 0.6043634f, -0.0799127f, -3.6637878f, -0.4366994f, -0.3975619f, 1.1402059f, -0.0273597f, -0.3277555f, 0.6321807f, -4.1378407f, 0.7816980f, 2.2464001f, -1.3505641f, -0.1261044f, -0.3950643f, -0.1322467f, -1.3068552f, -0.0938702f, -1.0369301f, 0.3693145f, -1.7357000f, 0.5228614f, -2.7062685f, -0.8574847f, -0.5365763f, -3.0224445f, 0.0572992f, 1.9944657f, 1.4165541f },
{ -3.5398078f, 1.1715231f, 0.0927656f, -8.1372290f, -0.0051011f, -1.8555254f, -4.6414027f, -1.3505493f, 0.7110465f, -5.7062092f, -0.6479470f, -26.7147026f, 2.0857959f, 0.6050931f, -36.7865753f, 3.1505115f, -0.5025363f, -1.6859483f, 0.0567505f, -0.0166958f, 0.0571108f, -14.5653791f, -1.8350153f, 1.7293025f, -10.1002045f, 0.2849585f, -1.0201148f, -13.8436966f, -39.4387894f, -0.0423098f, 0.9915751f, -5.0849805f },
{ -1.6222401f, -2.2290480f, -0.7004854f, -0.1694179f, -0.0794301f, 3.5053468f, 0.3088241f, -1.4250716f, -0.3181808f, -1.5308478f, -0.6405358f, 4.6244750f, 1.5886856f, 0.9598718f, -2.2527630f, 0.4043148f, 0.5176494f, 6.8868289f, -0.0551890f, 1.6221277f, -0.0537842f, -4.1949964f, -3.2854636f, -4.9234490f, -2.3700502f, 4.8501277f, 2.0347447f, 0.8206608f, 2.7260602f, -0.0263680f, -0.9914892f, -3.4372520f },
{ 0.1250600f, -0.1254775f, -3.5035996f, -3.6696754f, -0.2888458f, -0.7439156f, -7.3898048f, 0.2575840f, 0.8081259f, -3.4224405f, -0.9781751f, -0.3474196f, 0.9686294f, 1.9410510f, 2.6851532f, -5.9256887f, -0.7322801f, 0.3240057f, -0.0849147f, -9.3591118f, -0.0984257f, 0.6687353f, 0.3078891f, -0.8309868f, 2.6419725f, -1.6446790f, -4.7506723f, -0.2642341f, 1.3508894f, -0.0189594f, 0.2823098f, 3.7160995f },
{ -0.1279032f, 0.1484621f, -0.0199673f, -0.1070077f, -0.1349422f, -0.0390265f, 0.1071907f, 0.0795521f, 0.0686116f, -0.0335127f, 0.0206505f, -0.1324891f, 0.0716174f, 0.1574391f, -0.1715135f, -0.1227072f, 0.1084069f, 0.1706052f, -0.1132404f, -0.1022295f, -0.1645735f, -0.1000367f, -0.1520853f, -0.1645525f, 0.1334939f, -0.1340760f, -0.0295749f, 0.0925832f, 0.0714279f, 0.0523360f, -0.0249688f, 0.1513627f },
{ 0.1162512f, -0.4383299f, 3.6161990f, 0.8846352f, -0.2221689f, -1.1696801f, -0.3820409f, -0.5385575f, -0.1270987f, 0.9862211f, 0.2837388f, -2.8996119f, -0.3166399f, -16.0717735f, -10.2341557f, 1.0904477f, 0.2649982f, -0.6173129f, -0.1676150f, -2.1428585f, -0.1166548f, 0.7964998f, 0.2254724f, -0.2945653f, -0.8588650f, -0.9557726f, -8.1315718f, 0.4184211f, 0.6382246f, -0.1420699f, 0.9495836f, 0.0581076f },
{ 0.2912960f, -1.0260625f, -0.3322561f, -0.3600470f, 0.0057464f, -0.5184587f, -1.1617254f, -3.6691689f, -0.8382735f, -0.2125169f, -3.9399009f, -2.0472858f, -0.1944540f, -1.8969172f, -1.0462599f, -0.4095723f, -0.4006818f, 1.6368099f, -0.0301779f, -0.3732941f, -0.1403318f, -0.1641199f, 1.6171442f, -13.7480106f, 0.7218431f, 0.2673131f, -3.6149297f, 1.1898816f, -2.1460385f, -0.1712924f, -0.0236364f, 0.7670318f },
{ -1.1586261f, -1.2169852f, 0.1418861f, 0.5031057f, -0.1637293f, 0.7104232f, 0.1850571f, -0.3531968f, -0.9981915f, 0.0712677f, -4.3470278f, -1.2009993f, -0.5060084f, -1.0959824f, -1.4060764f, 1.5368233f, -1.4230614f, 0.2525386f, -0.0749917f, 0.5340084f, -0.1189218f, -1.4294803f, -1.0682073f, -0.7645457f, -0.0302212f, -1.2294533f, 0.0866483f, 0.7864195f, 0.8194774f, -0.3305311f, -0.3815716f, -0.3639639f },
{ -0.4422426f, 0.2889212f, -1.4569454f, -0.7528180f, -0.1395006f, 1.8523184f, 1.2447292f, -5.2108932f, -1.1743280f, -1.0611372f, -2.0958714f, -1.2500979f, 0.0761501f, 1.1079029f, -0.2577924f, -4.5767994f, 1.9841757f, 6.5445132f, 0.0497144f, 0.5844874f, -0.1190074f, -0.7448013f, -10.0656643f, 4.2559347f, 0.9011897f, -4.6416483f, 3.1036925f, -0.5385768f, -4.1261258f, -0.2957530f, -1.8523363f, 0.6577467f },
{ 1.3075888f, -0.9847384f, -1.3302469f, -3.5999460f, 0.0107945f, -1.7019356f, -1.7485124f, -0.2744139f, -0.9853116f, -3.0739086f, -0.1222370f, 1.0034579f, 7.0806894f, -2.4615219f, 0.9458356f, -2.0044458f, 0.4219954f, -0.2174857f, -0.1029776f, -2.7580051f, -0.2569685f, 1.2519128f, -0.1986858f, 0.1467064f, -0.6610771f, 0.0785244f, -0.5793223f, 0.1804007f, -2.0874188f, -0.1745312f, -0.1567580f, 1.1129578f },
{ -30.7369823f, 0.5225801f, 3.5361176f, -12.1348743f, 0.0894652f, 2.0448790f, 5.5035729f, 0.6033401f, -6.6343780f, -10.1717749f, -0.6399847f, -4.8374333f, -2.7710094f, -1.1407589f, 2.8940084f, -2.0316348f, 4.6724453f, 0.4689357f, -0.2046537f, -4.3574543f, -0.0503463f, 2.9474847f, -0.3234566f, -2.2052310f, -11.4150810f, 1.5386992f, -2.2902882f, -2.5266621f, -9.5668354f, -0.0407608f, 1.3865035f, -12.8657990f },
{ 1.5783508f, -0.1579971f, 0.1254859f, 0.9187325f, -0.0939459f, 0.1943245f, 1.0079585f, -0.1148097f, -4.7108402f, 0.9413375f, 0.3240831f, -2.2460029f, 0.4079624f, -0.3168204f, -4.6934724f, 2.3203766f, 1.4310954f, 0.1894168f, -0.1292156f, 1.2292469f, 0.0145850f, -0.1730931f, 0.8187844f, 1.7694311f, 1.6027720f, -5.4202380f, -0.5131060f, 0.4873861f, 2.2821379f, -0.0325917f, -6.6443310f, -0.0457316f },
{ 0.6483515f, 0.0210859f, -0.9363698f, -0.6409540f, -0.0763726f, 0.2583424f, -0.0704863f, 5.2842298f, -0.3863760f, -0.7412546f, -3.1919980f, -3.0926518f, 0.0855727f, -1.0475130f, -0.2674793f, -2.8906429f, 1.0223854f, -5.2795615f, 0.0218468f, -0.4918290f, -0.2570962f, -0.6192512f, 7.1312108f, -7.9154181f, 0.9355063f, -1.7179359f, -2.1744938f, -1.1288604f, -4.6046906f, -0.2126352f, -0.9466170f, 1.5414768f },
{ 0.5440587f, -1.2402725f, 0.2754185f, 2.2312455f, -0.2674206f, 1.4123019f, -1.4330634f, 0.2139997f, -0.9594666f, 2.3553839f, -0.4770392f, 0.2226314f, -3.9262047f, -0.7774684f, -2.5120549f, -0.4859367f, 0.8673244f, 0.0809935f, 0.0234458f, 0.6512978f, -0.1337642f, -0.8120124f, -1.4874054f, 1.0229622f, 1.6861955f, -2.6221719f, 2.9837778f, -1.1705390f, 1.1036094f, -0.3263119f, -2.3724959f, 0.5274236f },
{ -1.4280119f, 0.6513554f, -0.3669941f, 0.5432490f, -0.2196985f, 0.1360150f, 0.5486904f, -0.0115694f, 2.9988611f, 0.6458295f, 1.5470257f, 1.4009854f, -1.0452106f, 1.7249203f, 0.8068646f, 0.0382782f, -1.1112055f, -0.1204346f, -0.0558511f, -0.2083119f, -0.2320936f, -0.7990786f, 0.3954515f, -1.4907517f, 0.0832852f, -1.6041318f, 1.6618562f, -2.0894215f, -0.1108471f, -0.2032315f, 1.8995116f, 1.1703234f },
{ -1.4628402f, -2.0224257f, -0.5917318f, -0.0066703f, -0.1877061f, 4.5976562f, 1.5108783f, 7.4845858f, -0.3121436f, -1.7749677f, 0.5771047f, 4.7918868f, 2.4108243f, 1.8068475f, -1.8901081f, -0.1861797f, 1.1695321f, 0.3308221f, -0.0609102f, 2.0571601f, -0.1403060f, -4.8914943f, -1.8084159f, -1.9751995f, -2.8260098f, 4.5465918f, 3.6905968f, -0.1331340f, 2.6032255f, 0.0526459f, -1.6621561f, -3.8499410f },
{ -0.1587374f, 0.0411225f, 0.0726030f, -0.1705090f, 0.1096871f, -0.0936637f, -0.1641406f, -0.0122792f, -0.1332695f, 0.0760846f, -0.1694205f, -0.0645051f, 0.1197234f, 0.0172280f, -0.0571669f, -0.0174973f, 0.0302042f, 0.0084350f, 0.1484122f, -0.1300810f, 0.0519105f, 0.0940938f, 0.1166414f, 0.1164297f, 0.1115667f, -0.1011540f, 0.0431397f, 0.0454865f, -0.1446201f, -0.1572337f, -0.0722611f, -0.0962854f },
};

ALPAKA_STATIC_ACC_MEM_GLOBAL const float bias_output_layer[1] = {
1.4728622f };

ALPAKA_STATIC_ACC_MEM_GLOBAL const float wgtT_output_layer[32][1] = {
{ 0.7385955f },
{ -0.2363995f },
{ -0.2956249f },
{ 0.5844393f },
{ 0.0025656f },
{ 0.5181905f },
{ 1.4192134f },
{ -0.4594116f },
{ -0.8128040f },
{ -0.5429227f },
{ -0.4880291f },
{ 0.4523688f },
{ -0.2581722f },
{ -0.3141045f },
{ 0.3576184f },
{ 0.2927631f },
{ -0.2364065f },
{ -0.4705912f },
{ 0.0778873f },
{ -0.3777574f },
{ -0.0565229f },
{ -0.4856435f },
{ -0.2996247f },
{ -0.4342948f },
{ -0.6296058f },
{ -0.3657559f },
{ 0.5890934f },
{ -0.3165183f },
{ 0.3368069f },
{ 0.0313976f },
{ 0.5732822f },
{ 0.6573547f },
};

}  //namespace lst::t5dnn

#endif
