#ifndef RecoTracker_LSTCore_src_alpaka_NeuralNetworkWeights_h
#define RecoTracker_LSTCore_src_alpaka_NeuralNetworkWeights_h

#include <alpaka/alpaka.hpp>

namespace lst::t5dnn {

  ALPAKA_STATIC_ACC_MEM_GLOBAL const float bias_0[32] = {
      -5.3775663f, -0.0629070f, -0.1107947f, 0.0547313f,  0.8083491f,  0.1614532f,  0.0011228f,  0.2760398f,
      -2.2796352f, -0.0870581f, -0.7871540f, -0.2550607f, -0.2695814f, 0.1847538f,  1.7765446f,  -0.2647117f,
      -0.2673643f, 0.0752851f,  -3.7754159f, 0.8185130f,  2.6870177f,  5.0170417f,  -0.1383601f, -1.1201516f,
      -4.5405807f, 0.1246142f,  0.0223448f,  0.4101483f,  -1.7402967f, -0.8376405f, -0.0931148f, 0.1320779f};

  ALPAKA_STATIC_ACC_MEM_GLOBAL const float wgtT_0[24][32] = {
      {0.3037412f, 0.0133543f,  -0.0844910f, -0.0245358f, 0.0005115f,  0.0164969f,  -0.1552105f, 0.0255788f,
       0.1520063f, 0.0218900f,  0.0638683f,  0.0974756f,  -0.0242341f, 0.1272557f,  -0.1174381f, 0.0573553f,
       0.2197373f, 0.0390040f,  0.0512601f,  0.0179152f,  -0.0107118f, -0.4261344f, 0.1402164f,  0.6939149f,
       0.0262515f, -0.0187614f, -0.0206603f, 0.0090553f,  -0.2223053f, -0.1501996f, 0.1199791f,  -0.0223365f},
      {-0.6120934f, -0.0565208f, 0.4023429f,  0.2622005f,  0.1356343f,  -0.1782811f, -0.0811067f, -0.2437160f,
       -1.2325364f, -0.1862905f, -0.7015744f, -0.4931028f, -0.1682078f, -0.0334274f, 1.2144945f,  -0.6717651f,
       0.1836439f,  0.1988423f,  -0.2768635f, -0.1161332f, 0.2887087f,  -0.6835581f, -0.0073124f, 0.5705326f,
       1.9084052f,  -0.0721656f, 0.0227485f,  0.0471989f,  1.9661734f,  -2.6804192f, 0.1893874f,  0.0553024f},
      {-0.5505549f, 0.0497080f,  -0.1440859f, 0.1994894f, -0.0429935f, 1.3715817f, -0.2119290f, 0.0232342f,
       1.4507526f,  -0.0979790f, 0.1091258f,  3.8136375f, -0.0709954f, 0.0798202f, 6.7026863f,  0.3105265f,
       -0.0942299f, -0.0556705f, 0.4404241f,  0.3312278f, -0.5223842f, 3.6529586f, -0.0644987f, 1.6817946f,
       0.2842065f,  -0.1357855f, -0.0051384f, 0.0465445f, 5.5881810f,  4.8224230f, 0.1360077f,  0.0142874f},
      {1.5018116f,  -0.0064819f, -0.0251456f, -0.0130251f, 0.0120536f,  -0.3426154f, -0.2830134f, 0.0162859f,
       0.4490247f,  0.0009268f,  0.0235084f,  -1.9427289f, -0.2039027f, -0.0031002f, -3.6625166f, 0.0396475f,
       -0.0689284f, -0.1594723f, -0.1765685f, 0.0481807f,  -0.0188439f, -2.1213937f, 0.0800632f,  -0.1731094f,
       -0.1138257f, -0.0464731f, -0.0037605f, -0.0123226f, -2.4697950f, 0.7667351f,  -0.1019029f, -0.0062619f},
      {0.0812505f,  0.0157748f,  0.0024985f, 0.0272057f,  0.0739152f,  0.0095189f,  0.0694144f,  -0.0902687f,
       0.5533702f,  -0.0221147f, 0.1140893f, 0.0369650f,  0.0925960f,  0.0634517f,  -0.0969622f, 0.0206789f,
       -0.1362455f, -0.1063179f, 0.0347552f, 0.0189166f,  -0.0757373f, -0.1530647f, -0.0896971f, 0.3188340f,
       0.0502259f,  0.0248497f,  0.0446446f, -0.0412392f, 0.1938131f,  -0.2436740f, -0.0873138f, 0.0303643f},
      {-1.2028995f, -0.1629877f, -0.4161628f, -0.2817883f, -0.1253999f, 0.4266552f,  0.1568963f,  0.3192733f,
       -0.2857870f, 0.2149690f,  -0.1312470f, 0.0781481f,  -0.0786707f, 0.1655960f,  -0.7117100f, 0.1176105f,
       -0.0874595f, 0.0199262f,  0.4228926f,  0.1790398f,  -0.0261833f, -0.8432462f, 0.1545268f,  0.0422818f,
       0.0134445f,  0.0124402f,  -0.0474792f, -0.1297189f, -0.6129401f, -1.7072901f, 0.1336104f,  -0.0431487f},
      {-1.4660261f, 0.1196583f,  -0.4318759f, -0.1458833f, -0.1103343f, 0.9077958f,  -0.1281617f, 0.1370928f,
       -0.3542854f, 0.0209850f,  0.2553052f,  0.5074485f,  0.0328743f,  -0.1596523f, 1.6510553f,  -0.0741150f,
       -0.4041188f, -0.0287520f, 0.1219456f,  -0.4445535f, 0.3514519f,  2.0366967f,  -0.0690999f, 0.3568812f,
       -1.0255733f, 0.1614471f,  -0.0112984f, -0.1847976f, 0.5676652f,  2.6174898f,  -0.1226655f, -0.0144173f},
      {-1.9887893f, -0.1690330f, 0.0224401f,  0.0005938f, 0.0142289f,  0.0045711f,  -0.0920687f, 0.0001361f,
       -0.0804675f, 0.0032107f,  -0.0203766f, 0.0568779f, -0.0345673f, -0.0561286f, 0.0182681f,  0.0022078f,
       -0.0247705f, -0.1945027f, -0.0098486f, 0.0059458f, 0.0335011f,  -0.0281513f, -0.1588566f, -0.2571967f,
       -0.0611855f, -0.0105089f, -0.0020762f, 0.0080756f, -2.1619525f, -0.3716670f, 0.0910661f,  -0.0011554f},
      {-0.2429491f, 0.0151458f,  -0.1453050f, 0.0021873f,  -0.0248837f, 0.0257213f,  0.0125351f,  0.0980292f,
       0.2377786f,  0.0324340f,  0.0119250f,  -0.0271741f, -0.0512024f, -0.0908111f, -0.0196475f, -0.1452265f,
       0.1953507f,  0.1598562f,  0.2557725f,  -0.1847946f, 0.0983304f,  0.0673583f,  -0.1964135f, 0.9069752f,
       -0.0698556f, -0.0711572f, -0.0172469f, -0.0870008f, 0.1321460f,  -0.7094342f, -0.1756671f, 0.0016565f},
      {0.7513391f,  -0.1349549f, 0.8293210f,  0.0153367f,  -0.1163657f, -0.4258824f, 0.0287559f,  -0.2299053f,
       -0.6980696f, -0.1300875f, -0.1615441f, -0.6103194f, -0.1931543f, 0.0117495f,  0.7615528f,  0.5060583f,
       0.0156141f,  0.0186338f,  -1.2132976f, 0.4694716f,  -0.0893443f, 1.4252012f,  0.0680503f,  0.4527732f,
       -0.8261510f, 0.0675198f,  -0.0093292f, 0.4967488f,  -1.2003108f, -0.6672902f, -0.0120348f, -0.0181793f},
      {-1.6647503f, -0.0575723f, -0.2558897f, -0.1066458f, 0.1768147f,  0.3291312f,  -0.3342307f, 0.0263229f,
       -0.8044949f, 0.1319989f,  0.1586111f,  -0.5106647f, 0.1569138f,  -0.0360303f, 0.2010543f,  -0.1874673f,
       -0.4271987f, -0.1735613f, 0.2779891f,  -0.3378260f, 0.4852177f,  1.8557752f,  -0.0741803f, -0.0155254f,
       -2.0976954f, 0.0993090f,  0.0059456f,  -0.0554508f, -0.0907167f, -0.3192517f, -0.0686660f, 0.0005534f},
      {0.0384727f,  -0.1118467f, 0.0245345f,  0.0031910f,  -0.0051854f, -0.0113174f, 0.0060370f,  -0.0058211f,
       -0.1323994f, -0.0007776f, -0.0029290f, -0.0184716f, -0.0835302f, -0.1967708f, 0.0385596f,  -0.0012141f,
       0.1049374f,  0.1092301f,  -0.0037216f, -0.0021156f, -0.0034983f, 0.0992644f,  -0.1363866f, -0.3351761f,
       0.0815195f,  -0.2144096f, -0.0015022f, -0.0016237f, -0.0041165f, 0.0250158f,  -0.1415261f, -0.0010882f},
      {0.2226377f,  0.0855519f,  -0.0203772f, -0.0576849f, 0.0544433f,  0.0882107f,  -0.0667691f, 0.0512792f,
       0.1599206f,  -0.0321079f, 0.1180167f,  0.1222203f,  -0.4172013f, -0.1675557f, 0.0345294f,  0.1979748f,
       -0.1741453f, 0.1313942f,  0.0376695f,  0.0900018f,  0.0022276f,  -0.3377851f, 0.1545219f,  0.8972965f,
       0.5199388f,  0.0666098f,  -0.0192255f, 0.0173368f,  -0.6504508f, 0.1808050f,  -0.0545132f, -0.0126805f},
      {0.7210766f,  -0.0029456f, 0.1889969f,  0.0652574f,  -0.0228514f, -0.7064023f, -0.2603374f, -0.0667447f,
       1.0385399f,  0.0258648f,  -0.0331525f, 0.9482008f,  -0.1465666f, -0.1745316f, 0.2520644f,  -0.2850152f,
       -0.0523310f, 0.1691357f,  -0.2411740f, -0.0701109f, -0.2252033f, -0.8482074f, -0.1332878f, -0.0784437f,
       -0.0810791f, -0.0785211f, 0.0086764f,  0.1669470f,  1.1475295f,  2.1474402f,  0.1854407f,  0.0310224f},
      {0.5239562f,  -0.1227914f, 0.1324813f,  0.0720947f,  -0.0013893f, 0.4658820f,  0.0099061f, -0.0802526f,
       1.5100682f,  0.0037422f,  -0.0520186f, 3.5761223f,  -0.4662174f, -0.0413351f, 0.3436297f, 0.2034602f,
       -0.0982803f, 0.1907919f,  0.5398274f,  0.0245099f,  -0.1254572f, -0.1529400f, 0.1083416f, 0.9490099f,
       1.0705755f,  0.0121156f,  0.0325594f,  -0.0433236f, 1.9346908f,  -1.1638553f, 0.0575118f, 0.0235123f},
      {-0.0939385f, 0.0500964f,  -0.0046555f, 0.0047928f,  -0.0029465f, -0.0504898f, -0.1473588f, -0.0075811f,
       -0.4964224f, -0.0059030f, 0.0387242f,  -0.9649774f, -0.4971345f, -0.1953153f, 0.0014043f,  -0.0233465f,
       -0.1226240f, -0.1774942f, -0.0173152f, -0.0425144f, 0.0003359f,  -2.2199342f, -0.0872946f, -1.1129065f,
       0.6703948f,  -0.0819542f, 0.0007353f,  0.0012511f,  -0.3887401f, -1.5584602f, -0.2119715f, -0.0007308f},
      {0.0928786f,  0.0195197f,  -0.0874574f, -0.0114521f, -0.0219608f, 0.3012330f,  -0.0211753f, -0.0804425f,
       -0.1101828f, 0.0309255f,  0.0508279f,  -0.1620474f, -0.2761247f, 0.1267327f,  -0.2232115f, -0.0770770f,
       -0.1693653f, -0.0436738f, 0.0984175f,  -0.0866791f, -0.1183595f, 0.3856739f,  -0.0020359f, 0.1902043f,
       0.2204005f,  -0.1223901f, 0.0107614f,  0.0297636f,  -0.4854259f, -0.2125696f, -0.1449458f, 0.0090667f},
      {-1.2325065f, 0.0654252f,  0.1437667f,  0.0741526f,  -0.0202128f, -0.3988001f, -0.0641496f, 0.1608841f,
       -0.7238657f, -0.0306053f, -0.3903317f, -0.3192610f, -0.2073756f, -0.0250134f, 0.3372978f,  -0.0851413f,
       -0.1016347f, 0.0673836f,  -0.2312992f, 0.1583863f,  0.3871220f,  0.6663657f,  0.0970082f,  -0.7549803f,
       -0.2519158f, 0.0949864f,  -0.0148426f, -0.2303511f, 2.0021007f,  1.6323609f,  0.1783015f,  -0.0342268f},
      {-0.0406143f, 0.0217907f, -0.0889577f, -0.1135006f, 0.1147184f,  0.1393771f,  -0.0505685f, 0.0795124f,
       1.0679297f,  0.0294522f, 0.0625693f,  2.1916695f,  -0.5535978f, -0.0566496f, -0.2613419f, -0.1436793f,
       0.0286481f,  0.1767438f, -0.1242014f, 0.1113103f,  0.1366370f,  0.3349933f,  -0.1547599f, -0.0173491f,
       0.2741181f,  0.0895188f, -0.0261955f, -0.0642121f, 0.3109840f,  -0.8714928f, -0.1262133f, -0.0232626f},
      {0.0085560f,  -0.1241936f, -0.0045703f, 0.0017496f,  0.0016596f,  -0.0272519f, -0.1489220f, 0.0058665f,
       0.0267246f,  0.0024226f,  0.0005453f,  -0.0934796f, -0.4621298f, -0.0413488f, 0.0338363f,  0.0098640f,
       -0.2068412f, -0.0419126f, 0.0176403f,  0.0018976f,  0.0132166f,  -0.0312427f, -0.1054009f, -0.7472668f,
       0.1553982f,  -0.1998835f, 0.0003522f,  0.0075874f,  -0.0312516f, -0.5241095f, 0.0071274f,  -0.0000345f},
      {-0.6034203f, 0.1165374f, -1.4574831f, -0.0185815f, -0.1075914f, 0.6323348f,  -0.1217187f, 0.0664414f,
       -0.0977420f, 0.0070433f, -0.0482047f, -2.7900672f, 0.4080732f,  0.0313390f,  0.4583563f,  1.3196168f,
       -0.2914844f, 0.1068155f, 4.0836711f,  0.1203245f,  -0.4714793f, 0.1509860f,  -0.1373268f, 4.3356009f,
       -0.8620341f, 0.0003097f, 0.0048588f,  1.3809817f,  -5.5551686f, -0.7459730f, -0.0540959f, -0.0000813f},
      {0.9272165f,  -0.1019875f, -0.9908327f, -0.2523437f, -3.4386890f, -3.2740061f, 0.3487239f,  -3.2458827f,
       -0.2801890f, 3.9240587f,  3.4446571f,  -1.2161932f, -0.3349663f, -0.1786043f, 0.0416258f,  -1.9097574f,
       -0.1414699f, -0.2029195f, -0.5253398f, 3.2647932f,  2.6446500f,  -0.1357088f, -0.0193831f, -1.4263582f,
       0.0290605f,  0.1166134f,  -0.0846302f, 1.9890484f,  0.2190374f,  -0.6939927f, -0.0915877f, 3.0889053f},
      {2.0395372f, 0.0074874f,  2.2678211f,  3.9478419f,  3.4362133f,  1.8769364f,  -0.5173824f, -0.8255713f,
       2.9208522f, 0.0861659f,  -2.7080631f, 0.9760596f,  0.2143436f,  -0.0488466f, 0.1890581f,  2.3827715f,
       0.0184578f, -0.1086617f, 0.8342847f,  -2.9552317f, -2.3769660f, 0.4176281f,  -0.1727313f, 0.3674379f,
       0.0501492f, -0.1245216f, -3.6386364f, -2.6513457f, -0.0199333f, -0.5528923f, -0.0543781f, -3.1581163f},
      {0.2633853f,  -0.0131658f, -0.2718382f, -3.5893228f, -0.3632349f, 1.1301394f,  0.0823806f, 3.9741752f,
       -1.8218331f, -3.9320695f, -0.3617272f, -0.0653011f, 0.2162831f,  0.0066883f,  0.0074457f, 0.5060506f,
       -0.3388257f, 0.0404896f,  -0.3838900f, -0.2956318f, -1.5119625f, -0.4546728f, 0.0344527f, 0.4655999f,
       -1.0914401f, 0.1615866f,  3.7662599f,  1.0304291f,  0.0804224f,  -0.2272528f, 0.0909351f, 0.0655293f},
  };

  ALPAKA_STATIC_ACC_MEM_GLOBAL const float bias_2[32] = {
      0.0594743f,  -0.2368705f, -3.2961054f, -0.1801413f, 0.0517906f,  -1.4768726f, -0.2132041f, -1.4366158f,
      -0.2591434f, -0.1936280f, -0.1224402f, -0.2282520f, -1.9565483f, -5.2664442f, -2.2795031f, 1.0498850f,
      3.1866226f,  -2.2630475f, -1.0876229f, -5.7607899f, -1.5666124f, -2.9677374f, -0.5613002f, -1.3325580f,
      0.3240926f,  -0.5588186f, -2.6135919f, 3.2655804f,  0.6679447f,  -6.0058784f, 0.3107685f,  2.1716521f};

  ALPAKA_STATIC_ACC_MEM_GLOBAL const float wgtT_2[32][32] = {
      {0.0075192f,  -0.2050475f, 0.1738273f,  -0.1071464f, 0.0128756f,  -0.2309018f, -0.3964463f, 1.3180286f,
       0.0056124f,  -0.1103005f, 0.0000955f,  -0.2662320f, -0.3759473f, -0.1103918f, 1.6276746f,  -0.6541317f,
       -0.7001515f, 0.5643721f,  0.6142607f,  -0.1592004f, 0.2207306f,  -2.0712972f, 0.3327036f,  -0.0487007f,
       0.3123966f,  -0.5089901f, -0.2654451f, 0.4132728f,  -0.3652465f, -0.5568660f, -1.9102008f, -0.3695724f},
      {0.1208610f,  -0.0842630f, -0.0434768f, -0.1110086f, -0.0456900f, -0.0698176f, 0.0175983f,  0.0918318f,
       -0.1314602f, 0.1407978f,  0.0410672f,  0.1607656f,  0.0632043f,  -0.1294051f, 0.1695492f,  0.0850124f,
       -0.0525301f, 0.1286359f,  -0.1261121f, -0.0583787f, -0.1346540f, -0.1441619f, -0.0384284f, -0.1542092f,
       -0.1455329f, 0.0616051f,  -0.0342157f, 0.0682988f,  0.0556691f,  0.0759283f,  -0.0555302f, 0.1160516f},
      {-0.1762071f, -0.1264555f, 0.2281594f,  0.0000773f,  -0.3055444f, 0.1425260f,  -0.1190643f, -0.7608522f,
       -0.1583399f, -0.1729768f, -0.1902823f, -0.0586474f, 0.0235861f,  0.9471486f,  -0.9083585f, 0.3188709f,
       -0.6718320f, 0.8748357f,  -0.1180062f, 1.3154544f,  0.4024016f,  -0.0631970f, 0.5620348f,  -0.0748961f,
       -0.8684030f, -0.5670409f, 0.2801833f,  -0.5497875f, 1.2969834f,  1.1690841f,  -0.2564253f, -0.2917475f},
      {-0.1749600f, -0.2096154f, -1.5694268f, -0.0208352f, -1.7535062f, -0.6224547f, -1.2642542f, 0.3118436f,
       -0.0855802f, -0.2128452f, -0.1412119f, -0.1472286f, -0.5414336f, 0.4938270f,  -1.1527426f, 2.2519617f,
       0.0221588f,  -5.5757971f, 1.0898908f,  -1.0240554f, -1.2496586f, -6.5212488f, -0.8085828f, 0.8023909f,
       0.8917134f,  1.2643499f,  -2.7588820f, -0.2603519f, -0.3000334f, -7.3144846f, 0.4820918f,  0.6406716f},
      {0.0608018f,  -0.1899671f, -0.7500204f, -0.2206886f, -2.6263547f, -0.7415243f, -0.3114130f, 0.2637561f,
       0.0622724f,  0.0500642f,  -0.0290591f, -0.2557194f, 1.0221246f,  0.1856718f,  0.3381030f,  -0.6831523f,
       -0.3295032f, 1.8941579f,  -0.2564879f, 0.5805848f,  -0.3261195f, -7.9494886f, 0.4576028f,  -0.9805909f,
       0.2236770f,  -0.3789514f, -1.9560808f, -0.0172663f, -0.3748099f, 0.0329382f,  -3.9040289f, 0.5345084f},
      {0.1361279f,  -0.2749849f, -1.1416765f, -0.0145429f, -0.2013843f, 0.0621583f,  -0.1792724f, -0.1950114f,
       -0.1558607f, 0.0430018f,  -0.0788332f, -0.0780825f, 0.7442710f,  -0.1630174f, 0.1471070f,  -1.7395266f,
       0.3237025f,  -0.2233752f, -0.4938281f, 0.2231719f,  0.6039994f,  -0.7520062f, 0.2989784f,  0.1704124f,
       0.2008211f,  0.3181339f,  0.1846826f,  -0.1499847f, 0.8421414f,  0.0745741f,  0.0490156f,  -0.1623610f},
      {-0.0296199f, 0.0315633f,  -0.3579772f, -0.0670315f, 0.2843394f,  -0.2503604f, 0.1950795f,  -0.1161863f,
       -0.1211437f, -0.1451678f, -0.1192882f, 0.0214998f,  -0.0072791f, 0.1292877f,  -0.0856767f, 0.0902901f,
       -0.0175364f, -0.2481693f, -0.3648029f, -0.0137745f, -0.0656730f, -0.1548498f, -0.0630469f, 0.2057327f,
       0.2435694f,  0.3567133f,  0.1019041f,  -0.1866139f, -0.1977819f, 0.3697534f,  0.0847194f,  0.3259102f},
      {0.0227404f,  -0.0242982f, -0.0217309f, -0.2162768f, -0.5979064f, 1.7602146f,  1.2009075f,  -0.2867742f,
       0.0647515f,  -0.0732059f, -0.1547821f, -0.2418145f, 4.1975136f,  -0.1169627f, 0.3214521f,  0.3426240f,
       -0.1556071f, 0.2711836f,  -0.1500565f, -2.1636286f, 0.6926690f,  -2.5299172f, 2.2739067f,  -1.3301079f,
       -1.4639853f, -3.9243355f, -1.5364101f, -0.4771052f, 0.2108212f,  0.1440805f,  -0.8545890f, -1.8073939f},
      {-0.1337442f, -0.1313318f, -0.8439159f, -0.0886923f, -0.1370329f, -0.0139381f, -0.1602524f, -1.2759234f,
       0.0584806f,  -0.0298334f, -0.0455399f, -0.2509430f, -0.2531018f, -0.2566309f, 0.2282657f,  -0.3256976f,
       0.0347733f,  0.0259362f,  -0.3616394f, -0.0718172f, -0.0715973f, -1.1718315f, 0.2594128f,  0.0312916f,
       0.5456069f,  -0.3538559f, 0.1577222f,  -0.3524953f, -0.4595989f, -0.0136405f, 1.3120825f,  -0.2010880f},
      {-0.1433313f, 0.0481806f,  1.3725520f,  -0.1323193f, 1.1418751f,  -1.4076195f, -1.8253040f, 0.5553917f,
       0.0738966f,  0.0573831f,  0.0215208f,  -0.3075214f, -0.0095949f, 0.0329652f,  -4.8686299f, -0.2867682f,
       0.0225436f,  -2.1286743f, -0.5880110f, -3.6499352f, 0.6402963f,  -3.5198359f, -3.6200757f, 1.8337369f,
       0.1931936f,  4.9861121f,  1.3290974f,  2.0213504f,  -0.0764303f, -2.2911701f, -0.3939801f, 2.3061106f},
      {-0.0546390f, 0.0738348f,  0.8583390f,  0.0076397f,  1.0389969f,  0.2946709f,  0.2339516f,  0.3513724f,
       -0.0808310f, -0.1313581f, -0.1322958f, -0.2774411f, -0.9821311f, 0.0907752f,  -0.9737077f, 0.0486169f,
       -0.1849201f, -0.2810304f, 1.1155716f,  -0.0056284f, 1.3352979f,  0.4890079f,  -0.1964396f, 1.0632885f,
       -0.2284712f, -0.0820811f, 1.2574427f,  0.3757347f,  0.4823309f,  -0.3562333f, 0.7035617f,  -0.9047857f},
      {-0.1016800f, 0.0686452f,  -1.3691723f, -0.1706785f, -0.0922295f, -0.1735358f, -0.4893076f, 0.0953534f,
       -0.1147559f, -0.1092630f, -0.1293669f, -0.2656334f, 0.2222514f,  -2.4215102f, -1.8843968f, -1.2357785f,
       0.1581287f,  0.5649946f,  -0.6713316f, -0.0119419f, 0.0773299f,  -0.1143683f, -0.4428960f, 0.0138405f,
       -0.7937331f, 0.6182177f,  0.1273308f,  0.2167808f,  -3.4180551f, -0.1102902f, 0.9796935f,  -0.5387425f},
      {-0.0015309f, -0.1695811f, -0.1817278f, -0.0414642f, 0.1010058f,  0.0116624f, 0.0940203f,  0.2729554f,
       -0.1642504f, -0.0657169f, 0.0128693f,  0.0429121f,  0.2446291f,  0.6984004f, 0.0474019f,  -0.1469501f,
       -0.0862472f, 0.2935243f,  -0.0955786f, 0.1212764f,  0.3826106f,  0.4472484f, 0.1273851f,  -0.0945980f,
       -0.0096254f, 0.0727666f,  -0.1518228f, -0.1000920f, -0.7194720f, 0.2852766f, -0.1193211f, 0.0194656f},
      {-0.0746139f, 0.1430950f,  -0.0307277f, -0.1284628f, 0.0262193f,  0.1678240f,  -0.0517204f, -0.0345843f,
       -0.0696985f, 0.0053593f,  0.1411654f,  -0.1330351f, -0.1157903f, -0.0281973f, 0.1319976f,  0.0925713f,
       -0.0853661f, -0.1438889f, 0.0850481f,  0.0056113f,  0.0507328f,  0.0399075f,  -0.0155179f, 0.1317558f,
       -0.0340698f, 0.1253210f,  0.0054969f,  -0.0229097f, 0.0830598f,  0.1266778f,  -0.1638917f, -0.0243452f},
      {-0.1375137f, -0.2399945f, 0.2581751f,  -0.0587616f, -0.0084867f, -0.0019128f, 0.1541350f,  -0.4934150f,
       -0.1892431f, 0.0030902f,  -0.1420753f, -0.4187879f, 0.8065447f,  -0.6395621f, -0.7642620f, -2.8606515f,
       0.0578898f,  -0.9562764f, -0.8327489f, 0.2853860f,  0.7770241f,  0.9477386f,  -0.0730262f, 0.0195896f,
       -0.3547714f, 0.1288492f,  -0.2019027f, -0.0435434f, -0.3085683f, 0.2029975f,  0.9682159f,  0.2045668f},
      {-0.2115220f, -0.0278971f, 0.0247156f,  -0.1083837f, -0.6873959f, -0.6842754f, -0.1626988f, 1.1714568f,
       -0.1525303f, -0.0452973f, -0.1554545f, 0.0649813f,  1.7056661f,  -1.9095989f, 0.6800766f,  -1.6183823f,
       0.1818998f,  -0.9113540f, -1.2190404f, 0.8480836f,  -0.3775211f, -0.9487649f, -0.1849056f, -0.5182375f,
       -0.0461710f, -0.3398862f, -0.4253964f, 0.6250318f,  -0.1842191f, -0.3011499f, 0.1644317f,  1.0801189f},
      {0.0265571f,  0.0426095f,  0.1113112f,  -0.1462380f, -0.0469116f, 0.0214255f,  -0.0053571f, 0.0795730f,
       -0.0702548f, -0.0848517f, -0.0896196f, 0.0117181f,  0.2133767f,  0.0074419f,  -0.0534844f, -0.0076398f,
       0.0793970f,  -0.0911381f, -0.0928403f, -0.1675168f, 0.0828240f,  0.1476995f,  0.0007404f,  0.1234807f,
       -0.2732669f, 0.0513932f,  0.0387940f,  0.0098393f,  -0.2029644f, -0.1101238f, 0.0912783f,  0.0819327f},
      {-0.1194036f, -0.1270799f, -0.0602861f, -0.1747547f, 0.0346641f,  -0.1410729f, 0.1058939f,  0.1711763f,
       -0.1638787f, -0.0387694f, -0.1276095f, -0.1516109f, -0.0869815f, -0.0508183f, 0.0097537f,  0.0705702f,
       0.1476065f,  0.1528009f,  -0.1329226f, -0.1462588f, -0.0272940f, 0.0713235f,  -0.1339779f, -0.1353228f,
       -0.0518014f, 0.0478866f,  0.0258074f,  -0.1250781f, 0.1139482f,  0.0251951f,  -0.0969730f, 0.1450572f},
      {-0.0460395f, 0.0357290f,  -0.9249620f, -0.0721232f, 0.0434522f,   0.7034922f, -0.4886128f, -0.8343570f,
       -0.1933747f, 0.1268900f,  -0.1302778f, 0.0189239f,  -1.0898944f,  0.6304702f, 0.7033011f,  2.2724235f,
       -0.9118645f, 0.1135375f,  0.1010671f,  0.3646198f,  1.2663817f,   1.5135078f, 1.5066923f,  0.2331804f,
       1.8578246f,  -1.6695937f, 0.3486821f,  -1.4284465f, -17.4642220f, 1.2684478f, -0.2284031f, -0.9771208f},
      {-0.1230717f, 0.0564806f,  0.6928036f,  -0.2335249f, 1.4552326f,  0.1061634f,  0.4660831f,  1.7203580f,
       -0.0830359f, -0.1693742f, -0.1220187f, -0.1116920f, -0.4766009f, -0.0239465f, -0.6855940f, -0.2826254f,
       -0.4438981f, -0.5768124f, 0.6757580f,  0.5961161f,  2.5850866f,  1.5616469f,  -0.6611669f, 1.2883918f,
       -1.0313921f, 0.6151155f,  1.1646001f,  -0.7347410f, -0.0147790f, 0.5157121f,  2.3303127f,  -0.4302327f},
      {-0.0269125f, -0.1238961f, 1.0652925f,  -0.1081297f, 0.5139158f,  0.1420285f,  0.0713918f,  -0.0701585f,
       -0.1692126f, -0.1803068f, -0.1280378f, -0.3450504f, -0.5485764f, 0.2586813f,  0.4458225f,  -0.2457573f,
       0.1278220f,  0.2716718f,  -0.2336894f, 0.6002492f,  -0.4129175f, -0.6912080f, -0.1097584f, 0.4695829f,
       -0.8500842f, 0.4931556f,  0.5435785f,  -0.6321210f, 0.6984078f,  0.6263035f,  0.8682013f,  -0.2130205f},
      {-0.1685274f, -0.1680840f, 0.4022815f,  0.0644026f,  -0.0762862f, -0.1096467f, 0.0982992f,  -2.9029539f,
       0.0019200f,  -0.2131509f, 0.0508110f,  0.1481636f,  0.0723859f,  1.7986072f,  0.0023622f,  -1.6336673f,
       0.3822947f,  -0.2227774f, 0.5184262f,  -0.7607666f, -1.6270062f, 0.2113661f,  -0.2848667f, -0.1249908f,
       0.1497118f,  -0.0747938f, -0.1093044f, 0.1428893f,  -1.3013004f, -0.3118645f, 1.1560733f,  -0.0706962f},
      {-0.1290556f, -0.0795893f, 0.1576825f,  -0.0283795f, 0.0164863f,  -0.1588925f, -0.0472847f, 0.0607424f,
       0.0580754f,  0.1129144f,  0.0823898f,  -0.1565674f, 0.1332074f,  0.1272596f,  0.0432266f,  -0.1508518f,
       0.0119113f,  0.1475465f,  -0.1571315f, 0.1523362f,  0.1254847f,  -0.0838699f, 0.1703601f,  -0.1240853f,
       -0.0020646f, 0.1681353f,  -0.1710441f, 0.1320712f,  -0.1012197f, -0.0359672f, -0.0161304f, 0.0722073f},
      {-0.1812620f, -0.2173905f, -0.1102333f, 0.0340898f,  0.0442126f,  0.2571997f,  0.2058395f,  -1.2380331f,
       -0.1907195f, -0.1282553f, -0.0720673f, -0.1667050f, 1.0686271f,  -1.4812638f, -0.9039204f, -1.3794254f,
       -1.1777264f, -0.2659811f, -0.1673499f, 0.0937923f,  0.0992224f,  0.3979315f,  0.1918835f,  -0.1918588f,
       -0.1335583f, -0.3415950f, -0.2426504f, -0.6447007f, -0.2177755f, -0.2126545f, 0.5306636f,  -0.2012838f},
      {0.0314298f,  -0.1529245f, -0.0060119f, -0.1415446f, -0.0452344f, -0.0768020f, -0.0342718f, -0.7798408f,
       -0.2093760f, -0.0038646f, -0.1729524f, -0.0751605f, -0.7241877f, 0.0770125f,  -0.4242431f, -0.4071559f,
       -0.0454094f, 0.1232636f,  0.0423735f,  -0.1026023f, 0.0658019f,  -0.1514827f, -0.1014115f, -0.0031175f,
       0.0045950f,  -0.0318053f, -0.0035203f, 0.0172237f,  -0.3786280f, 0.0368765f,  0.0599078f,  -0.0393170f},
      {0.0197161f,  -0.0472234f, 0.0822382f, -0.0002214f, -0.0433406f, -0.0395289f, 0.0272938f,  0.1045199f,
       -0.0519177f, -0.1510796f, 0.1250199f, -0.0188670f, -0.1723944f, 0.0062475f,  0.1253062f,  0.1430077f,
       0.1512631f,  0.0824567f,  0.0331394f, -0.1140911f, 0.1310993f,  0.0922805f,  -0.0073548f, 0.0601671f,
       0.1170021f,  0.1814582f,  0.1412803f, 0.1949017f,  0.1513042f,  0.1203350f,  -0.1511366f, -0.0436721f},
      {-0.0856017f,  -0.1638148f, -0.9746856f, -0.0104349f, 0.8269646f,  4.8843021f,  3.9992204f, -1.6902013f,
       -0.1320624f,  -0.0845473f, -0.0717911f, -0.1470008f, -5.2716918f, 1.0464849f,  1.4851041f, 1.3732721f,
       0.1170742f,   1.0098090f,  0.2299460f,  -2.0115252f, -0.4094110f, 1.4871956f,  2.8514056f, -0.8622103f,
       -15.6495962f, -2.7689877f, -0.5528061f, -0.1118954f, -0.1766810f, -0.0183028f, 1.2679080f, -20.6711578f},
      {-0.2327034f, -0.1572434f, 0.3640391f,  -0.0400072f, 0.3048730f,  0.6755631f,  0.0113090f,  0.2146007f,
       -0.2085798f, -0.1430535f, -0.2548038f, -0.2810051f, -2.0743921f, -2.6993208f, 0.4016856f,  -5.4879117f,
       -0.7375390f, 0.7273002f,  1.2032994f,  0.4166038f,  -0.7213258f, -0.2468951f, 0.6026365f,  0.4507581f,
       0.1870606f,  -0.1109627f, 0.6192371f,  0.8772167f,  -1.6087275f, 0.6027053f,  -0.7263418f, -1.1115108f},
      {-0.1212432f, 0.0547878f,  0.1228076f,  0.0864256f,  0.0162868f, 0.2339126f, 0.2109959f, 1.4717735f,
       0.0264729f,  -0.0290532f, -0.0131465f, 0.0543036f,  1.6438578f, 0.4682955f, 0.9643115f, 2.5784059f,
       -2.1885264f, 0.7358817f,  -2.0005598f, 0.3675096f,  2.7328691f, 1.6094207f, 2.4541862f, 0.1411137f,
       1.4552462f,  -2.6146474f, 0.1667197f,  -1.2869374f, 0.9743016f, 0.2593193f, 1.9243865f, -0.2381223f},
      {-0.1712608f, -0.0681524f, -2.7826836f, -0.0072333f, -0.0485648f, 0.0917107f,   0.0648846f,  1.5874970f,
       0.0692287f,  0.0819471f,  -0.1486236f, 0.1443423f,  0.4895015f,  -0.0013475f,  0.4474688f,  0.7202179f,
       -0.0623888f, -2.9342232f, 0.1508531f,  -3.1687634f, -0.2981238f, -25.1296310f, 0.1696189f,  -0.1326186f,
       -0.6720553f, -0.0092938f, -0.0751449f, -0.3545595f, -1.7548881f, -1.1472583f,  -0.4453851f, 0.1498866f},
      {-0.0539179f, 0.0568804f,  -0.0002079f, -0.1339137f, 0.0314701f,  0.1040646f,  0.0517855f,  0.0173173f,
       0.1139761f,  0.0118165f,  -0.0935859f, -0.1414145f, -0.1144958f, -0.1405113f, -0.1585190f, -0.0974738f,
       0.1068145f,  -0.1148660f, -0.1505580f, -0.1110313f, -0.0036386f, -0.1575670f, 0.1240750f,  -0.0834849f,
       0.1046440f,  0.0374530f,  -0.0182657f, -0.0061912f, 0.1512394f,  0.0912793f,  0.0329059f,  -0.0768673f},
      {-0.0860248f,  -0.2691112f, 2.8678374f, -0.1319126f, 3.8026338f, 1.0548615f,  1.3697171f,  3.4634786f,
       0.0472263f,   0.0446257f,  0.0395032f, -0.2944932f, 4.1493773f, -0.2343633f, 2.1633332f,  -1.3799744f,
       -16.5328236f, 2.6699035f,  4.5808964f, 2.2961555f,  2.9044266f, 1.3185889f,  -1.1587342f, 4.2423668f,
       1.5026463f,   0.8607690f,  3.5736296f, -2.4187503f, 0.8287413f, 1.4758486f,  2.9668071f,  -1.0341095f},
  };

  ALPAKA_STATIC_ACC_MEM_GLOBAL const float bias_4[1] = {0.2231636f};

  ALPAKA_STATIC_ACC_MEM_GLOBAL const float wgtT_4[32][1] = {
      {0.0894383f}, {0.0380915f},  {0.5019516f},  {0.0776021f},  {-1.7452073f}, {2.2383888f}, {-1.7940952f},
      {0.2936479f}, {-0.0261254f}, {-0.0143225f}, {0.0270401f},  {0.0142951f},  {0.3671781f}, {-0.8654616f},
      {0.3583164f}, {0.3118098f},  {-0.9892569f}, {0.2912990f},  {0.5867628f},  {0.9379280f}, {0.4340733f},
      {0.5799181f}, {-1.2596596f}, {-1.5629258f}, {0.6195057f},  {0.8585538f},  {0.9068985f}, {0.4603601f},
      {0.4110281f}, {-1.0126375f}, {0.3636026f},  {-1.1947322f},
  };

}  //namespace lst::t5dnn

#endif
