#ifndef RecoTracker_LSTCore_src_alpaka_NeuralNetworkWeights_h
#define RecoTracker_LSTCore_src_alpaka_NeuralNetworkWeights_h

#include <alpaka/alpaka.hpp>

namespace ALPAKA_ACCELERATOR_NAMESPACE::lst::t5dnn {

  ALPAKA_STATIC_ACC_MEM_GLOBAL const float bias_0[32] = {
      -0.8883630f, 0.2722728f,  0.1016291f,  -1.1676310f, 1.1620101f,  0.1504889f,  -1.5435610f, -0.0692244f,
      -4.2153363f, -4.2260766f, -0.1551204f, 0.1450144f,  -0.1899760f, -0.0228148f, -0.3506508f, -0.2040648f,
      0.1757486f,  -0.1738663f, -0.2319748f, 0.0379042f,  0.0239017f,  0.0139185f,  -0.1204398f, -0.1538555f,
      -0.1220760f, 0.0291483f,  0.1148766f,  0.3259082f,  1.3246336f,  0.6350448f,  -0.2796395f, 1.6437438f};

  ALPAKA_STATIC_ACC_MEM_GLOBAL const float wgtT_0[24][32] = {
      {0.0108952f,  -0.0558019f, 0.0074057f,  0.0770754f,  0.0638310f,  -0.1886167f, 0.0244425f,  0.0255687f,
       -0.0839688f, -0.1685015f, -0.2186795f, -0.0174607f, -0.1015779f, -0.0892610f, -0.2556714f, 0.0740566f,
       0.1856497f,  -0.0237876f, 0.1624987f,  -0.0158742f, -0.0523282f, 0.1812486f,  0.0906745f,  -0.1455424f,
       0.1383075f,  -0.1130149f, 0.0858218f,  -0.0791841f, 0.0118138f,  -1.0824271f, 0.0614133f,  0.0247215f},
      {-0.0615002f, 0.2489090f,  -0.0765989f, -0.6762177f, -0.3041955f, 0.1424502f, 0.0689160f,  -0.0613275f,
       -0.7172357f, 1.3835012f,  -0.1517068f, -0.0571197f, 0.0906804f,  0.0345163f, 0.1861660f,  -0.2219956f,
       -1.1799500f, -0.1914543f, -0.1125221f, 0.2518745f,  -0.0189657f, 0.0231417f, 0.1691398f,  0.1866181f,
       0.1034780f,  0.7616542f,  0.0739528f,  0.1423306f,  0.0655985f,  2.1955757f, -0.6869692f, -0.1286531f},
      {0.0188954f, 0.0589353f, 0.0441611f,  0.0124622f, -0.0217846f, -0.0808924f, 1.5422715f, -0.0281864f,
       0.7299182f, 0.5917343f, -0.1385602f, 0.8845096f, 0.1514033f,  0.0940068f,  0.0920146f, -0.2601782f,
       2.6173670f, 0.1569604f, -0.0973214f, 0.7541708f, -0.0897320f, 0.0660505f,  0.1606622f, -0.2816422f,
       0.0126745f, 1.0140301f, -0.1677477f, 0.2257937f, -0.2216167f, 0.2004709f,  0.2658010f, 0.0230178f},
      {0.0037102f,  -0.0040856f, -0.0033745f, 0.0247645f,  -0.0453197f, 0.0380025f,  0.0650211f,  0.0057784f,
       -0.2155162f, -0.1491260f, -0.0617472f, -0.0399091f, 0.1454746f,  -0.2295472f, 0.2150548f,  -0.0577407f,
       0.0278272f,  0.1403611f,  0.1048822f,  0.0695582f,  0.0677317f,  0.0190138f,  0.1438236f,  -0.0218275f,
       -0.0575167f, 0.0713076f,  -0.2096365f, -0.0655335f, -0.0217136f, -1.4598478f, -0.0326691f, -0.0170971f},
      {0.1484707f,  0.1109349f,  -0.0158722f, -0.0016825f, -0.0876299f, 0.0082290f,  0.0888775f,  -0.0429260f,
       0.1259853f,  0.0993768f,  -0.2736045f, 0.0806121f,  -0.2051383f, 0.1111838f,  0.0865957f,  -0.0863023f,
       -0.1114034f, -0.1990993f, -0.0517070f, -0.0286788f, 0.1611179f,  -0.1906383f, 0.0625047f,  0.1423383f,
       -0.0163717f, 0.0210820f,  0.0967393f,  0.1236721f,  -0.0379066f, -1.0055737f, -0.0120382f, -0.1614379f},
      {-0.1824946f, -0.0596116f, -0.0058219f, 0.0385287f,  0.0783886f,  0.1863528f,  -0.1460936f, 0.0363999f,
       0.3298342f,  -0.3955438f, -0.2872388f, -0.1528842f, -0.1089015f, -0.0284061f, 0.1655824f,  -0.0019395f,
       -0.0265265f, -0.0447154f, -0.0471948f, -0.0565421f, 0.1435290f,  -0.1054043f, 0.1134707f,  0.0460618f,
       -0.0419306f, -0.2606788f, -0.0930803f, 0.3043489f,  -0.2224051f, 0.8101336f,  0.2280529f,  0.0905042f},
      {-0.4062535f, 0.0011132f, 0.0715293f,  -0.1631242f, 0.5045123f, 0.1158295f, 1.2672585f, 0.0128002f,
       0.9749886f,  0.6644008f, 0.0588511f,  0.2597645f,  0.0826617f, 0.0304201f, 0.0491877f, -0.0417421f,
       0.6058450f,  0.1410300f, -0.0579113f, -0.1810425f, 0.0258041f, 0.1037378f, 0.1504700f, -0.5815220f,
       0.1082699f,  0.4114107f, -0.1669260f, -0.4001442f, 0.1995721f, 0.6033067f, 0.8375392f, -0.1642019f},
      {0.0135287f,  -0.0026332f, 0.0017897f,  -0.0059313f, 0.0168435f,  -0.0612094f, 0.0148235f,  0.0056259f,
       0.0206365f,  0.0519135f,  -0.2091481f, -0.0090781f, 0.0521728f,  -0.1646452f, -0.0266643f, 0.0488272f,
       0.0317255f,  -0.1375127f, -0.0111143f, -0.0024644f, -0.1410064f, -0.2038226f, -0.0889475f, -0.0603759f,
       -0.2140266f, 0.0108557f,  -0.1110831f, 0.0018316f,  0.0024465f,  -0.1297473f, 0.0206129f,  0.0001504f},
      {-0.0446734f, -0.0481827f, -0.0000644f, -0.0907802f, 0.0408866f, 0.1254969f,  -0.0884442f, 0.0287216f,
       -0.0958106f, -0.1114444f, 0.0276019f,  0.0449458f,  0.1203778f, 0.0582529f,  0.0249243f,  0.1277847f,
       0.2518346f,  0.0713529f,  0.2172089f,  -0.0349968f, 0.0299025f, -0.1614932f, 0.0635330f,  0.0560481f,
       0.0858282f,  0.1200854f,  -0.1613888f, -0.0018909f, 0.0315459f, -0.8451451f, -0.0247189f, 0.1165422f},
      {-0.1108246f, -0.0979881f, 0.0290352f,  0.2774546f,  0.0573995f,  0.0363884f,  -0.0892184f, -0.0465878f,
       0.1318289f,  0.3215536f,  -0.1393095f, -0.3692756f, 0.0177766f,  -0.1872795f, 0.2121594f,  -0.2196127f,
       -0.3401198f, -0.1351956f, 0.1633667f,  0.0753848f,  0.1283861f,  -0.0134915f, -0.1865077f, -0.1091357f,
       -0.2115083f, -0.4082200f, 0.0900386f,  -0.4249704f, -0.0070692f, 0.3359871f,  0.0714354f,  0.0159194f},
      {0.2919563f, -0.0745509f, 0.0424533f,  -0.0963534f, 0.3891644f,  -0.0150635f, 0.9402236f,  -0.0098148f,
       0.3807541f, 0.8199884f,  0.0752552f,  -0.5736273f, 0.0302238f,  -0.1761383f, 0.2639126f,  0.1240020f,
       0.6304978f, 0.1753901f,  -0.0709855f, -0.1886917f, -0.0873328f, 0.1717738f,  -0.0133103f, -0.3342271f,
       0.1545929f, 0.3053446f,  -0.1997259f, -0.1582794f, 0.3504843f,  0.7467179f,  0.7306523f,  0.1273271f},
      {-0.0171152f, 0.0037321f,  0.0007980f,  0.0105450f,  -0.0094624f, -0.1140742f, -0.0027083f, 0.0002720f,
       -0.0100214f, -0.0124391f, -0.0861224f, 0.0035716f,  -0.1691382f, 0.0821961f,  0.0151221f,  -0.1814647f,
       -0.0077462f, -0.0031899f, -0.0401796f, 0.0146227f,  -0.1222276f, -0.0134909f, -0.0949516f, -0.2664480f,
       0.0361210f,  0.0106418f,  -0.0439440f, -0.0002205f, -0.0013272f, -0.1245471f, -0.0185805f, -0.0079442f},
      {-0.0941981f, -0.0266157f, -0.0123596f, 0.0407734f,  -0.0843467f, -0.1228521f, 0.1704207f, -0.0488337f,
       0.2791730f,  -0.3645222f, -0.0745453f, 0.2423015f,  0.0148485f,  0.0235182f,  0.0624801f, 0.1068047f,
       0.2901192f,  0.0886823f,  -0.1723743f, -0.0275929f, 0.0391243f,  0.0411268f,  0.1290681f, -0.1759204f,
       -0.0721900f, 0.0455728f,  0.0093415f,  -0.0929914f, 0.0484384f,  0.9907030f,  0.0455684f, 0.2849787f},
      {0.3737446f,  0.1316393f,  0.0330682f,  -0.0257838f, 0.0703354f,  0.0162504f,  -0.2599144f, 0.0736318f,
       -0.5492234f, 0.4737330f,  -0.2430853f, 0.4650336f,  -0.0366798f, 0.1821429f,  -0.1932727f, -0.2288319f,
       0.1105397f,  0.1029650f,  0.1065301f,  -0.2186829f, -0.1311773f, 0.1034066f,  0.0922285f,  0.0942560f,
       0.0544397f,  -0.4668275f, -0.0540184f, -0.3832760f, -0.2080186f, -1.4240936f, -0.0563135f, -0.3117954f},
      {0.1209704f,  -0.0354431f, 0.0288724f,  0.2723322f, -0.0833552f, -0.0524306f, 0.0089383f,  -0.0555679f,
       0.1248595f,  0.7426314f,  0.1564322f,  0.3485141f, 0.0658262f,  -0.0407445f, -0.0981009f, 0.0143021f,
       0.2530443f,  0.1838160f,  0.0743984f,  0.1152445f, -0.0031844f, -0.1463480f, 0.1664018f,  -0.2607590f,
       -0.0438564f, 0.1520345f,  -0.1405820f, 0.2680057f, -0.2130355f, -0.4303148f, 0.0778274f,  0.1622616f},
      {0.0102702f,  0.0005508f,  -0.0009177f, -0.0178576f, 0.0051054f,  -0.1311221f, 0.0187474f,  0.0006246f,
       0.0010550f,  -0.0436288f, 0.1104593f,  -0.0139150f, -0.1418129f, -0.1410428f, -0.4624029f, 0.1383150f,
       0.0043218f,  -0.1101324f, -0.2180584f, -0.0608347f, -0.0528114f, -0.1915043f, -0.1299185f, -0.1127178f,
       -0.1164140f, -0.0288585f, -0.2728926f, -0.0200188f, 0.0231223f,  -0.2411360f, 0.0238826f,  -0.0116007f},
      {0.1252177f,  0.0160918f,  0.0276896f,  0.0092796f,  0.1117284f,  0.0461815f,  -0.0554672f, 0.0586559f,
       -0.0575632f, -0.2811837f, 0.0614442f,  -0.1068717f, 0.0848562f,  -0.0010311f, 0.2069277f,  -0.0625501f,
       0.2068450f,  0.0528085f,  -0.1365632f, 0.0180558f,  -0.0058707f, 0.1548912f,  -0.0274235f, -0.3043585f,
       -0.0762955f, 0.0406882f,  0.0827914f,  0.1381989f,  0.0067541f,  -0.0184989f, 0.0291110f,  -0.2224790f},
      {-0.2511629f, -0.0577511f, -0.0222883f, -0.1516615f, -0.0952450f, 0.1831719f,  -0.0612934f, -0.0818583f,
       -0.1823683f, 1.1805087f,  -0.1216580f, -0.6484518f, 0.1801348f,  -0.0065358f, -0.0541730f, -0.1760385f,
       -1.0961853f, -0.0336082f, -0.1164270f, 0.2635235f,  -0.0410220f, 0.1796006f,  0.1884784f,  -0.1140166f,
       -0.0868309f, 0.1071715f,  0.0846578f,  0.1802344f,  0.0107550f,  -1.2832935f, -0.1682176f, 0.1164440f},
      {0.0241218f,  -0.0160074f, 0.0077948f,  -0.0055053f, -0.0227365f, -0.2026503f, -0.3016312f, 0.0311761f,
       0.0324427f,  -0.4580960f, 0.0068335f,  0.1166081f,  0.0086222f,  -0.0117984f, -0.1932269f, 0.0281393f,
       0.1829579f,  -0.0784786f, -0.2037079f, 0.1112324f,  -0.0123131f, 0.0356899f,  -0.2060954f, -0.3733692f,
       -0.2182784f, 0.2019520f,  -0.0718310f, -0.0507200f, -0.0208256f, 0.2542212f,  -0.0301813f, 0.0976803f},
      {-0.0168891f, 0.0053319f,  -0.0002709f, 0.0033042f,  0.0107181f,  0.0784936f,  0.0236050f,  0.0005397f,
       -0.0097595f, -0.0189279f, -0.1585627f, -0.0036594f, -0.0759674f, -0.2327807f, 0.0058472f,  -0.2092704f,
       -0.0004650f, -0.1816168f, -0.0522020f, 0.0012085f,  -0.0055791f, -0.1190655f, -0.0682932f, -0.1688104f,
       -0.0059374f, -0.0308726f, 0.1095462f,  -0.0170852f, 0.0191665f,  -0.2184187f, 0.0008373f,  -0.0051565f},
      {1.6327580f,  -0.0094266f, -0.0089329f, -0.4228083f, -0.0011535f, 0.0204122f, 0.1037322f,  0.0271053f,
       3.7967594f,  -4.0711894f, 0.2936499f,  1.1713691f,  0.0700194f,  0.0209545f, -0.4363373f, 0.5554706f,
       -0.5227916f, -0.0976525f, -0.2268672f, -0.0027372f, 0.1269471f,  0.0435933f, -0.1629809f, 0.1474882f,
       0.0194251f,  0.2221913f,  -0.0553151f, -0.5447453f, 0.0217051f,  0.8906290f, -0.0360627f, -0.0672795f},
      {1.7066834f,  -3.8333359f, -0.0933308f, 2.3427331f,  2.0429947f,  -0.1213537f, 2.9638360f,  3.2452257f,
       -0.8862939f, -0.3055574f, -0.1940480f, -1.3249305f, 0.0650838f,  0.1342920f,  -0.6594582f, 0.1254523f,
       -1.1303719f, 0.1124259f,  -0.3136787f, -2.8443773f, -0.2119850f, -0.1128373f, -0.0644380f, -0.0582628f,
       -0.0378422f, 1.3442760f,  0.0251862f,  -0.8775268f, -2.1283085f, -2.0021296f, -3.0828383f, 3.0811334f},
      {-1.3902975f, 1.9841975f,  3.1912220f,  -2.7655022f, -3.5196962f, 0.0271728f,  -1.4541447f, 0.5155549f,
       0.9575055f,  0.8931092f,  -0.0134220f, 1.5635871f,  -0.1737274f, -0.0654143f, -0.1803205f, -0.3723404f,
       0.0832400f,  0.0450963f,  0.0165798f,  2.8168371f,  0.1440067f,  0.1102833f,  -0.0606193f, 0.4459202f,
       -0.1559901f, -2.9070737f, -0.2404985f, 3.2376831f,  3.0134432f,  2.2161815f,  2.5410390f,  -1.8319596f},
      {0.0761088f,  1.8049548f,  -3.1359518f, 1.2784467f,  0.9275237f,  -0.0013598f, -1.2583277f, -3.6751618f,
       -0.0887910f, -0.6849454f, -0.0667926f, 0.3843031f,  -0.0160612f, 0.0486224f,  -0.1632665f, -0.1474205f,
       0.1861823f,  -0.1488994f, -0.3063696f, 0.2119907f,  -0.0619995f, 0.0003783f,  -0.0552438f, -0.7914191f,
       -0.0211309f, 1.4954969f,  0.0894019f,  -2.0494809f, -1.5124065f, -0.9326919f, 0.5190022f,  -1.9568784f},
  };

  ALPAKA_STATIC_ACC_MEM_GLOBAL const float bias_2[32] = {
      0.5574176f, -0.0158378f, 0.6081951f,  -0.2482200f, 1.4885056f,  -0.9065233f, -0.8430861f, -0.2685009f,
      1.5197985f, 0.2150985f,  3.3223093f,  -0.2417838f, 1.1797755f,  -1.0702871f, 0.2581681f,  0.2042585f,
      1.6163963f, -0.2037005f, 1.4874136f,  -1.5563414f, 0.6079807f,  -0.2871149f, -1.0653205f, -0.2456795f,
      0.6591544f, -0.2727272f, -1.3100427f, 0.2261839f,  -0.2026590f, -0.1331568f, 1.0972227f,  -1.3647238f};

  ALPAKA_STATIC_ACC_MEM_GLOBAL const float wgtT_2[32][32] = {
      {0.0451835f,  -0.2068697f, -0.1455017f, -0.2000958f, 0.1953720f,  -0.0868650f, 0.0185502f,  -0.1359519f,
       -0.0893761f, -0.2565004f, -0.5655026f, 0.0635366f,  -0.3550099f, 0.1558128f,  0.0306805f,  0.3792097f,
       1.8771213f,  -0.2383017f, -0.2512103f, -0.8434259f, 0.1358105f,  -0.1323305f, -0.0145602f, -0.1016658f,
       1.3442085f,  0.1507007f,  0.9711186f,  -0.0945338f, 0.2191976f,  -0.1611731f, -1.2007302f, 1.1104904f},
      {-1.3594574f, -0.0378055f, 1.5503316f,  -0.1488620f, -1.4691522f, -2.3224826f, 1.1786927f,  -0.1508618f,
       -4.2288308f, 1.2377062f,  0.2050966f,  -0.0741773f, -1.5114043f, -2.2442327f, 2.2897842f,  -1.3733587f,
       0.5636392f,  -0.1783939f, 2.4285316f,  0.1796620f,  -0.6498010f, -0.2876171f, -1.3547685f, -0.0461334f,
       -0.9012266f, -1.3740121f, -0.0379446f, -1.0507129f, -1.4431050f, 0.0294942f,  -0.3823238f, -2.1220925f},
      {-1.1411303f, -0.2431736f, -9.9841690f,  -0.2129669f, 0.6981345f,  -2.1666744f, -10.6869678f, 0.0611885f,
       3.2361872f,  -0.6304339f, -0.5848778f,  0.1157968f,  0.2787877f,  0.9803044f,  -10.3797789f, -0.9443294f,
       2.5538800f,  -0.0633187f, -10.9630623f, -1.1149275f, -3.8756664f, -0.1332296f, 1.7392989f,   0.0613354f,
       0.6508241f,  -1.1899891f, 1.0534809f,   -0.2019602f, -0.1229644f, 0.1375276f,  -4.7887559f,  0.5126888f},
      {0.7176909f, -0.0214850f, 0.5826513f,  -0.1142717f, 0.9390327f, 1.1849338f,  0.7845815f, -0.1581640f,
       0.2477809f, -1.3536477f, -0.6782305f, -0.1947700f, 1.1930919f, 0.5593164f,  0.7056133f, 1.2611432f,
       1.3779073f, -0.1165161f, 0.4806055f,  0.1155640f,  0.0619001f, -0.2589326f, 0.7354722f, 0.0066148f,
       2.0458858f, 0.8164052f,  -0.3876709f, 0.5323008f,  1.1789955f, -0.0268815f, 0.3633842f, 0.4662197f},
      {1.9750929f,  -0.1468043f, 1.7405676f, -0.1992684f, 2.3235869f, 1.7946367f,  2.0761003f,  0.0511989f,
       1.1833738f,  2.0538511f,  0.6360483f, -0.0645854f, 2.5635352f, 1.0803665f,  1.4006170f,  1.9379770f,
       0.2737490f,  0.0391885f,  1.1377318f, 1.6247250f,  0.5832859f, -0.0003641f, 2.5831740f,  -0.0072090f,
       -0.7454425f, 1.8515724f,  0.1098597f, 1.7219243f,  1.6892309f, -0.0324973f, -0.4168116f, 0.6863616f},
      {0.0752462f,  -0.1662275f, 0.1713349f,  0.0999224f,  0.0412468f,  0.0073274f,  0.0941098f,  -0.1631816f,
       -0.0020100f, 0.1488188f,  -0.0753984f, -0.0390763f, -0.0592567f, -0.0363634f, 0.0577131f,  0.0113215f,
       0.1331281f,  0.0892927f,  0.0323133f,  0.1725931f,  -0.0647239f, 0.0597323f,  -0.0323511f, 0.0390394f,
       -0.0969601f, 0.0892076f,  0.1507631f,  0.0258195f,  0.1564926f,  0.0089697f,  0.1074804f,  0.0107034f},
      {0.4456752f,  -0.0011744f, -0.2483061f, -0.0932769f, 0.6201064f, 0.7728632f,  -0.5952806f, -0.3104276f,
       0.3310406f,  -1.1115030f, 0.6661707f,  -0.0648445f, 0.7863559f, 0.9962517f,  -0.3727600f, 0.7995458f,
       -2.2710021f, -0.1607994f, -0.1370830f, -0.7545819f, 1.3058670f, -0.2174886f, 1.0568154f,  -0.0152477f,
       0.6835587f,  -0.2345589f, 1.3725461f,  0.6000165f,  0.4146734f, 0.0093098f,  -0.5216421f, 0.5323782f},
      {1.1226186f,  -0.2139718f, -1.6810553f, 0.0577140f,  -0.6599731f, -0.0516810f, -1.8051751f,  0.0743359f,
       0.6035778f,  -0.0772341f, -1.3107933f, -0.1289809f, -0.2254264f, 1.0665301f,  -1.7961371f,  0.6447040f,
       -1.7851267f, 0.0311611f,  -1.2731884f, 2.4128528f,  2.7963874f,  -0.0794195f, 0.4108718f,   -0.0243468f,
       1.0090519f,  2.2392919f,  1.3879771f,  0.5621879f,  1.1172789f,  -0.1387018f, -17.4072647f, -1.8168215f},
      {-0.2358715f, 0.0266361f,  1.0553420f,  -0.1551773f, -0.2215100f, 0.0349971f,  1.5580076f,  -0.2738504f,
       0.6694541f,  1.6789085f,  -1.1405956f, -0.2484834f, 0.3041122f,  -1.2395017f, -0.2135831f, -0.0818596f,
       -0.7755322f, -0.1064595f, -0.8498001f, 0.4382845f,  0.7620107f,  -0.1416551f, -0.8304774f, -0.0960256f,
       -0.6896841f, 1.4835662f,  -0.4668809f, 0.4376302f,  0.4361478f,  -0.0508427f, -0.8557618f, -0.2787146f},
      {-0.1752244f, 0.0344409f,  0.9591160f,  -0.0430410f, 0.8798326f,  0.1316557f,  1.5167421f,  -0.0329250f,
       -1.0232353f, 0.9973637f,  -1.3765392f, -0.0724326f, -0.4358305f, 0.5937796f,  -0.3354949f, -0.1040113f,
       0.1141699f,  -0.0444658f, -0.9240037f, 1.5555140f,  0.0304396f,  -0.1770578f, -0.2080073f, 0.0466823f,
       -0.2886449f, -0.9460831f, -0.8555308f, -0.3045022f, 1.1774287f,  -0.1700008f, -0.0553386f, -1.2852336f},
      {-0.0790898f, -0.1598882f, 0.0326521f,  -0.1253484f, -0.0047360f, 0.0447811f,  0.0268714f,  0.0004109f,
       -0.0080649f, -0.0259730f, -0.0404877f, -0.0908946f, -0.0501967f, 0.0480490f,  -0.1847470f, -0.1234237f,
       0.0289896f,  0.1667374f,  -0.0792361f, -0.1580346f, -0.1543660f, 0.0649026f,  0.1114447f,  -0.0286203f,
       -0.2190961f, -0.0279833f, 0.2067135f,  0.1703904f,  0.0839379f,  -0.0782984f, 0.1504731f,  0.2650901f},
      {-0.1022112f, -0.1583978f, -0.1569724f, 0.0443657f,  -0.0407184f, 0.2730022f,  -0.2490653f, 0.1519162f,
       -0.3305249f, -0.2914465f, 0.3938576f,  -0.2624281f, 0.4522434f,  0.2708573f,  -0.0813838f, -0.0865780f,
       0.0955285f,  0.0542366f,  0.1400105f,  -0.2534869f, -1.0018730f, -0.0617124f, -0.0646572f, -0.0932494f,
       -1.5292253f, -0.4963901f, 0.6442720f,  -0.1657045f, 0.1778805f,  -0.2607354f, 0.7873000f,  0.9417700f},
      {-0.0454490f, 0.1027239f,  -0.1431503f, 0.1526977f, 0.1726041f,  0.0994884f,  -0.1142145f, -0.0938273f,
       0.1132145f,  0.1006262f,  -0.1241813f, 0.0608377f, 0.0825679f,  -0.0577918f, 0.1231958f,  0.0046255f,
       -0.0308543f, 0.1097951f,  -0.1023807f, 0.1021969f, -0.0113969f, 0.1492857f,  -0.0903977f, -0.0387435f,
       0.0006103f,  -0.0726079f, -0.0771527f, 0.0286305f, -0.1010148f, 0.0110340f,  0.0899370f,  0.1413733f},
      {0.0709853f,  -0.1947442f, 0.0601056f,  0.0789893f,  -0.0056179f, 0.0905663f,  -0.1644098f, 0.0984766f,
       -0.0773362f, -0.0968683f, -0.1514594f, 0.0603267f,  0.1234915f,  0.0052009f,  0.0034624f,  0.0539703f,
       0.1124334f,  -0.1365515f, 0.0879912f,  -0.0336592f, 0.1013220f,  -0.1413363f, 0.0456143f,  0.0221163f,
       -0.0859804f, 0.1385853f,  0.0171008f,  0.0690550f,  -0.0762036f, -0.0711688f, -0.1310947f, 0.1505480f},
      {-0.1408519f, -0.0985669f, -0.4713727f, -0.0836342f, 0.3837579f,  -0.0890013f, -0.5001497f, -0.0737510f,
       -0.0267395f, 0.4284769f,  0.0583974f,  -0.1051440f, 0.0650211f,  0.0168218f,  0.1549876f,  -0.1499830f,
       0.3692394f,  -0.0137580f, 0.0588887f,  -0.2984504f, -0.2102986f, -0.0082258f, -0.0110932f, 0.0881037f,
       -0.1576584f, -0.4554820f, 0.1673794f,  0.0751528f,  0.0076324f,  -0.0081963f, -0.0437056f, -0.0525045f},
      {0.1140012f, -0.0686564f, 0.1224050f, -0.1471748f, 0.2762693f,  0.3053007f,  0.3006799f, -0.2275705f,
       0.0599227f, 0.0048827f,  0.0994446f, 0.0026369f,  0.1686888f,  0.0432014f,  0.1081433f, 0.0237865f,
       0.0692518f, -0.0516704f, 0.1152125f, 0.3506622f,  -0.0661865f, 0.1081390f,  0.1834167f, 0.0531238f,
       0.2800074f, 0.1734550f,  0.1220211f, 0.0661175f,  0.0758285f,  -0.0893979f, 0.0395964f, 0.0939213f},
      {0.1420665f, -0.3169957f, 0.0839309f,  -0.0168372f, 0.0778442f,  -0.1946857f, 0.0558012f,  -0.0876020f,
       0.0863991f, 1.0993744f,  -0.2597762f, -0.0869371f, -0.0839031f, -0.1715296f, 0.0025011f,  -0.1712964f,
       0.3512362f, 0.0189788f,  -0.0573796f, -0.0347028f, -0.1767404f, -0.0070027f, -0.6443253f, -0.2219438f,
       0.3929335f, 0.5295364f,  -0.8351922f, -0.3400496f, 0.1396646f,  -0.2626049f, -0.1126374f, 0.0275972f},
      {-0.0864766f, 0.0741733f, -0.0912781f, 0.1333112f,  -0.1264973f, 0.0065670f,  -0.0481090f, 0.1516521f,
       -0.0807727f, 0.0814792f, -0.0216370f, 0.0258632f,  0.0509399f,  -0.0091230f, -0.0751342f, 0.1567677f,
       -0.0265132f, 0.1476690f, 0.1261382f,  -0.1349490f, -0.0232035f, 0.0112255f,  0.1082215f,  -0.1584813f,
       0.1069531f,  0.1387598f, -0.0159275f, 0.1145359f,  0.1729458f,  0.0530649f,  -0.1047219f, 0.0008151f},
      {0.0713862f, 0.0920260f,  -0.1202323f, 0.0459048f,  -0.0392854f, -0.3180378f, -0.0698610f, -0.0604497f,
       0.0532774f, -0.1501577f, -0.1968597f, -0.1322312f, 0.1708560f,  0.1024350f,  -0.0169092f, -0.1166248f,
       0.0559283f, 0.1314427f,  -0.0450807f, 0.1691803f,  -0.0998406f, -0.0646984f, 0.0894593f,  -0.0912665f,
       0.0098662f, -0.1937838f, 0.0295222f,  0.0188647f,  -0.1653765f, -0.0547333f, -0.0908089f, -0.0021439f},
      {-1.8159485f, -0.3067101f, -0.3765004f, -0.1251000f, -1.3317541f, -2.3440614f, -0.1617921f, -0.0444327f,
       -0.4739833f, 2.2853401f,  0.1629837f,  -0.2932331f, -1.3232881f, -1.2355529f, -0.1309181f, -1.3150527f,
       -2.1903090f, 0.0195323f,  -0.1407724f, 0.0458571f,  0.2070698f,  -0.1987318f, -2.2738180f, -0.0896101f,
       -0.9469178f, -0.7119282f, -1.6207448f, -1.0214741f, -1.1536974f, -0.2514080f, -0.1167398f, 0.9429289f},
      {-0.1542182f, 0.0659505f,  0.1109212f,  0.1563802f,  -0.1307439f, -0.0357025f, 0.0073372f,  0.1561993f,
       0.0392061f,  0.0190965f,  -0.1377096f, 0.1082494f,  0.0649651f,  0.1462047f,  -0.1334721f, 0.0880377f,
       0.0459550f,  -0.0122504f, 0.1307036f,  -0.0226880f, -0.0663698f, -0.1284503f, -0.0198257f, -0.0188580f,
       -0.0746744f, -0.0565124f, -0.1445807f, -0.1606328f, -0.0947341f, 0.0305629f,  -0.1206766f, -0.0899025f},
      {-0.0935756f, 0.1458915f,  0.0972818f,  -0.0044439f, -0.1255520f, -0.0616250f, -0.1680417f, 0.1506450f,
       -0.0892932f, -0.0312009f, 0.0805274f,  0.1754372f,  -0.0100930f, -0.0462486f, -0.0982281f, 0.0987456f,
       -0.1486668f, 0.1727460f,  0.1047921f,  0.0270238f,  -0.1810919f, -0.1225601f, -0.1430596f, 0.0426471f,
       0.0944300f,  0.0663908f,  -0.0355847f, -0.0608823f, -0.1049382f, 0.1155818f,  -0.0703957f, -0.0667467f},
      {0.0014743f,  0.0625537f,  -0.0153991f, 0.0894012f,  -0.0495224f, -0.1219010f, 0.0508541f,  -0.0006137f,
       -0.1596925f, -0.0519368f, 0.1667078f,  0.1695615f,  -0.1505568f, -0.0576535f, -0.0569532f, -0.1574844f,
       0.0967731f,  0.1184849f,  0.0714454f,  -0.1401346f, -0.0571446f, -0.0803483f, 0.0991009f,  -0.1015021f,
       -0.1301081f, -0.1472718f, 0.0836138f,  0.0394287f,  0.0867134f,  -0.0392487f, 0.0052088f,  0.0203310f},
      {-0.0070683f, -0.0920968f, 0.0115485f,  -0.1001143f, 0.0974420f, -0.1220813f, -0.1084694f, -0.0494320f,
       0.0978433f,  0.2186576f,  -0.0817377f, -0.2244482f, 0.3404714f, 0.2718672f,  0.1289811f,  0.0542469f,
       0.4501916f,  -0.1821622f, 0.0854033f,  0.0899855f,  0.0104517f, -0.0723236f, -0.1611435f, 0.0209299f,
       -0.2831168f, 0.0325928f,  0.3347049f,  0.0242399f,  0.1174182f, 0.0740212f,  -0.0167192f, -0.4196944f},
      {-0.1464287f, 0.1311725f, 0.0786641f,  0.0676314f,  -0.0618948f, -0.0469531f, -0.1069913f, -0.0100426f,
       0.1921959f,  0.0084023f, -0.1202803f, -0.0467913f, 0.0910331f,  0.0736183f,  -0.0494701f, -0.1338117f,
       -0.1109077f, 0.1619087f, -0.1852058f, 0.1145653f,  -0.1820068f, 0.1701601f,  -0.0044400f, -0.0957667f,
       -0.0446280f, 0.0796393f, 0.1332078f,  0.1505477f,  0.0210109f,  0.1668117f,  0.0451417f,  0.0552435f},
      {0.8828899f,  -0.1591612f, 0.7553288f,  0.0638267f, 0.5764531f,  1.0427947f,  0.9936816f, 0.0407240f,
       -0.0183244f, -0.0583328f, -0.7137405f, 0.0469051f, 0.2914166f,  0.4258071f,  0.6765603f, 0.6176807f,
       -2.0113719f, -0.2027455f, 0.4470194f,  0.9834553f, -0.1033722f, 0.0387962f,  0.8811535f, -0.0423020f,
       -0.5021724f, 0.3953238f,  0.9436139f,  0.6744052f, 0.3103963f,  -0.2614625f, 0.4637235f, -1.6517280f},
      {0.0381197f,  -0.0806405f, -0.2010872f, -0.1602569f, -0.1227298f, 0.0300358f,  0.0866008f,  0.0334646f,
       0.0680021f,  0.1808027f,  0.1236557f,  0.0358794f,  -0.2723392f, 0.0534672f,  -0.0698079f, 0.1173288f,
       -0.2162973f, 0.1264290f,  -0.1927978f, -0.0796131f, -0.0560446f, -0.1072611f, 0.0912969f,  -0.0601308f,
       0.0335784f,  -0.0974011f, -0.1619661f, 0.0993460f,  0.0384699f,  0.0502999f,  0.2010097f,  0.0413690f},
      {-0.2239136f, -0.1623090f, -0.6790616f, -0.1101703f, -0.1378247f, 0.2225663f,  -0.7999757f, -0.0725831f,
       -0.7505873f, -0.2262034f, 0.8537235f,  -0.1751061f, 0.0966795f,  0.9094377f,  -0.4477218f, -0.0327475f,
       0.4710524f,  -0.2906668f, -0.2566880f, -0.8121063f, -1.0359112f, -0.1516426f, -0.1849514f, -0.2399350f,
       0.8482332f,  -0.5522474f, -0.5615690f, -0.2979029f, -0.5497924f, 0.0137550f,  -0.5666100f, 0.2979927f},
      {-1.3133717f, -0.0019641f, -0.5863844f, -0.1808452f, -1.0383611f, -1.8393656f, -0.2986740f, -0.2025385f,
       -1.8344309f, -0.9085972f, -0.3568304f, -0.1192509f, -1.4090381f, -0.4023707f, -1.3927035f, -1.0680708f,
       0.8727847f,  -0.2512132f, -1.2586575f, -1.0474545f, -1.1620092f, 0.0211932f,  -3.6616466f, 0.0285996f,
       -0.2462622f, -2.2807655f, 0.7690389f,  -1.0104012f, -0.6410521f, 0.0423418f,  0.9503580f,  -2.6765423f},
      {0.0488396f,  -0.2408398f, -0.2715748f, 0.0700420f,  0.1906611f, -0.1268865f, -0.7633609f, -0.0635247f,
       -0.4527154f, -0.3777284f, 0.5009989f,  -0.0161675f, 0.3949999f, 1.5708684f,  0.0336998f,  0.1663676f,
       -1.0333393f, -0.1779787f, 0.4565425f,  0.3302729f,  0.2162982f, 0.0514909f,  0.9662929f,  -0.1319595f,
       0.0500461f,  -0.8763174f, 0.5931845f,  -0.1821570f, 0.4512834f, -0.0567776f, -0.4228436f, 0.5825025f},
      {-2.1572614f, -0.0909876f, -0.0146616f, -0.0751069f, -2.7154126f, -1.9772359f, 0.1312977f,  -0.0407246f,
       -1.5049700f, -1.1194360f, 0.2654395f,  -0.1097960f, -2.5569887f, -2.0592029f, 0.4732332f,  -2.4571717f,
       -2.1684871f, -0.1965417f, 0.8659135f,  -1.2437797f, -1.6575749f, 0.0594430f,  -1.1108623f, 0.0895173f,
       -1.1622127f, -0.8869525f, -2.6384981f, -1.5607030f, -1.7357346f, 0.0713501f,  0.9576696f,  0.0209718f},
      {0.6757815f,  -0.3594563f, -0.4178713f, -0.0724935f, 0.2401644f, 0.3692422f,  -0.4539310f, -0.0184355f,
       0.3286337f,  0.7065492f,  1.4147980f,  -0.0635511f, 0.4679838f, 1.3828787f,  0.4197103f,  0.6361013f,
       -0.8845732f, 0.0063621f,  0.1578164f,  -0.0888817f, 0.8878649f, -0.2638558f, 0.1735900f,  -0.1856037f,
       2.6155946f,  -0.1645932f, 2.5583200f,  0.3269519f,  0.2292618f, 0.0725905f,  -1.6011980f, -0.0610805f},
  };

  ALPAKA_STATIC_ACC_MEM_GLOBAL const float bias_4[1] = {0.7004032f};

  ALPAKA_STATIC_ACC_MEM_GLOBAL const float wgtT_4[32][1] = {
      {-1.1784149f}, {0.0064484f},  {-1.7084764f}, {-0.0371976f}, {1.1174239f},  {0.5888167f}, {1.7407018f},
      {0.0329500f},  {-0.5985520f}, {-0.2985888f}, {-0.7626860f}, {-0.0314763f}, {1.0361871f}, {-0.6576214f},
      {-1.8324782f}, {-1.2968894f}, {-0.3412971f}, {-0.0388680f}, {1.8274761f},  {0.3623946f}, {0.4834338f},
      {-0.0507033f}, {0.5347728f},  {0.0183969f},  {0.5529681f},  {0.5601515f},  {0.5157045f}, {-1.1073836f},
      {-0.9019504f}, {-0.0337475f}, {-0.6909413f}, {0.2963411f},
  };

}  // namespace ALPAKA_ACCELERATOR_NAMESPACE::lst::t5dnn

#endif
