#ifndef RecoTracker_LSTCore_src_alpaka_NeuralNetworkWeights_h
#define RecoTracker_LSTCore_src_alpaka_NeuralNetworkWeights_h

#include <alpaka/alpaka.hpp>

namespace lst::t5dnn {
ALPAKA_STATIC_ACC_MEM_GLOBAL const float bias_layer1[32] = {
1.9492974f, 0.0396722f, -0.0478556f, -2.8262513f, 0.1252225f, -0.0113276f, -0.8949825f, 0.8136070f, 2.5438459f, -0.9275875f, -0.0938528f, -2.3238945f, 2.1461618f, 1.1698613f, 0.0408646f, -0.4878817f, -0.1801908f, -0.1614981f, -3.1146274f, 0.0678447f, -0.3607247f, 0.0346919f, -0.0245114f, -0.1123977f, -0.0943472f, 0.1704714f, 0.5080858f, -0.0382601f, -1.6657745f, -0.0754868f, 0.0311479f, -2.3198860f };

ALPAKA_STATIC_ACC_MEM_GLOBAL const float wgtT_layer1[23][32] = {
{ -3.0399308f, -0.0915596f, -0.2095378f, -0.4057799f, 0.0920423f, 0.0273098f, 0.1332396f, -0.7273244f, -2.6520557f, 0.3655261f, -0.1080886f, -1.3568549f, -1.1831012f, -1.9368840f, -0.0804713f, 0.3882719f, -0.1703173f, 0.0251815f, -1.7169623f, 0.0874820f, -0.9232026f, 0.0469656f, 0.0611625f, -0.2046249f, -0.0228281f, -1.9765152f, 1.6918147f, -0.4028045f, 2.1379662f, 0.2229476f, 0.0063945f, -1.8580508f },
{ -0.0099532f, 0.0032592f, -0.0076483f, -0.0240674f, -0.0265473f, -0.2259901f, -0.0176657f, 0.0134437f, 0.0166989f, 0.0266775f, 0.0552163f, -0.0066658f, 0.0021681f, 0.0276728f, -0.0642847f, -0.0128934f, -0.2346207f, -0.1000095f, 0.0401760f, -0.1975468f, -0.0045122f, 0.0710036f, -0.0020031f, 0.0721271f, 0.1016727f, -0.0158930f, 0.0042534f, 0.0070911f, -0.0337280f, -0.0000124f, 0.0840685f, -0.0521385f },
{ 0.6422229f, 0.1466168f, 0.0564970f, 2.9711986f, 0.0939724f, 0.0005228f, 0.8782192f, 0.8374494f, 4.1518707f, 0.2757825f, 0.0259358f, -4.3871951f, 0.2211976f, 5.4974771f, 0.0385578f, -0.3241710f, 0.0520923f, -0.0516617f, 5.7446523f, -0.0103646f, 1.1503253f, -0.1396386f, -0.0548288f, -0.2043745f, -0.1311920f, 0.5715789f, -2.3523121f, 0.2941499f, -1.3492987f, 0.0289927f, 0.1603166f, 2.7177474f },
{ 1.3231702f, -0.1378651f, -0.0760524f, 4.5766544f, 0.0774119f, 0.0156295f, -0.7164830f, 1.1072140f, -5.1567411f, -0.4867899f, 0.0959345f, 4.9628086f, 1.0851076f, -5.9093375f, -0.0269698f, -0.1987395f, 0.1067752f, 0.1319470f, 0.9570466f, -0.1270968f, -0.2224089f, 0.0609954f, -0.0223960f, 0.1982941f, 0.0867113f, 0.2161385f, 0.0678643f, -0.0649310f, 2.7068200f, -0.0445953f, 0.0051323f, 4.5642428f },
{ -2.2778940f, 0.2303444f, -0.1425815f, 5.2117634f, 0.1871840f, -0.1462773f, 0.1773255f, 7.2741485f, 0.8851991f, 0.4572276f, -0.1079021f, -7.4577737f, -1.3112729f, -1.8903095f, -0.0844256f, -0.0283458f, 0.2194259f, 0.1624811f, -1.1879169f, -0.0608675f, -8.7326069f, -0.0236931f, -0.0223823f, 0.1072133f, -0.1002065f, -4.0968370f, -0.7678173f, -0.2797545f, 2.2377424f, 0.1961921f, 0.1692037f, 17.5116634f },
{ 1.3283749f, 8.8279018f, -0.0619891f, -2.8259232f, 0.1890825f, 0.0115969f, -56.5414886f, -2.4307187f, -0.5427254f, 56.5349007f, 0.1860562f, 11.0204592f, 6.3651042f, -1.8379807f, 0.0323511f, 0.0926634f, 0.0362109f, -0.2066153f, -0.2405049f, -0.1396592f, 0.6834069f, 0.0769862f, 0.0020370f, -0.0424465f, -0.1472289f, -7.2157722f, 1.2847832f, 0.1686000f, -0.3630565f, -0.0152079f, 0.0653209f, -0.9462419f },
{ 4.3855038f, 0.0607468f, 0.3861727f, 3.8891120f, 0.0863887f, -0.0643860f, -2.1604054f, 0.4100271f, 12.4881821f, -2.8733277f, 0.1660234f, -0.5254808f, 2.5729742f, 11.5474148f, -0.2463709f, 0.5500252f, 0.1117457f, -0.1338933f, 1.6916903f, -0.0531396f, -2.4428535f, -0.1128127f, 0.2677749f, 0.0127125f, 0.1183191f, 4.1501832f, -10.0336342f, 0.4337720f, 3.3338935f, -0.3765256f, 0.1038068f, 0.9589423f },
{ -3.0619445f, 0.0258176f, 0.1770909f, 5.9420266f, -0.0882036f, -0.1026028f, 1.2620105f, 1.2766837f, -8.2345514f, 1.2615595f, -0.1224066f, 2.4993398f, -2.0204048f, -6.5790033f, -0.1595488f, -0.0064992f, 0.0513894f, -0.0966166f, 4.7872801f, 0.0667753f, 3.4454429f, 0.0450123f, -0.0949272f, 0.0601856f, -0.1195940f, -6.9106765f, 2.8076150f, 0.2378358f, 1.6844683f, 0.0675448f, -0.0954858f, -2.6643643f },
{ -2.1583366f, -0.2752343f, -0.0748057f, -13.6541395f, 0.1893565f, 0.1333749f, 0.4755254f, 11.7250309f, 9.3424158f, 0.7062418f, -0.0173953f, -3.2595000f, 0.0333038f, -11.7259703f, 0.0305820f, 0.2038769f, 0.0158242f, -0.0023163f, 2.3585219f, -0.1762595f, -10.4968605f, 0.0462482f, 0.1708641f, -0.1058019f, -0.0135086f, 0.1808997f, 7.9821548f, -0.2155025f, 5.6740627f, -0.0317294f, 0.0300519f, 1.9880905f },
{ -0.4469716f, 16.2801037f, 0.1613327f, 0.2232636f, -0.1708133f, 0.0276959f, 11.4222879f, -1.9287426f, 0.3786541f, -10.9029350f, -0.1165764f, 1.2273133f, 11.9979219f, 2.0891476f, -0.2325360f, 0.2033705f, -0.0881696f, -0.1817490f, -1.5639397f, 0.1581561f, 1.9762052f, 0.0418930f, -0.1525435f, -0.0045850f, -0.0169786f, -4.2267513f, -1.0919852f, 0.0013264f, -0.0687068f, 0.1468452f, -0.0459435f, -1.7648464f },
{ 3.7269280f, -0.1408086f, 0.5173184f, 10.4690437f, -0.1995997f, 0.0817249f, 0.4328985f, 1.9141400f, 3.3910363f, 0.2067753f, 0.1708479f, 8.3522749f, 0.7722516f, 1.1642824f, -0.2589574f, 0.2135285f, 0.2089541f, 0.0704074f, 2.7433395f, -0.1613882f, 1.3767371f, 0.1172600f, -0.0844733f, -0.0461840f, 0.0203167f, 3.9392021f, -7.9131169f, 1.0072321f, 3.5461402f, -0.0877543f, -0.1420803f, 0.0238906f },
{ 0.1506238f, 0.4116156f, 0.3156750f, -1.9354858f, 0.0697071f, -0.1452839f, 0.9975208f, -0.8212683f, -3.8774545f, 0.6409165f, 0.0781509f, -2.6527088f, -1.0796616f, -0.8726380f, -0.0274828f, 1.0796754f, -0.1727080f, -0.1123941f, -2.1813715f, 0.1386825f, 0.1475025f, -0.1476867f, 0.0762730f, -0.0299539f, -0.0097188f, 0.6500685f, 0.6027545f, 0.2348356f, -0.5600340f, 0.0607345f, 0.0308233f, 1.1604198f },
{ -0.6175261f, 0.1055943f, -0.2037264f, -12.0028057f, -0.0217999f, 0.1810497f, 0.2567170f, -22.9235840f, -23.5424309f, 0.2471809f, -0.1905190f, 2.6860070f, 0.5896350f, 23.8211842f, -0.2620761f, -0.2157610f, 0.1359047f, 0.1433329f, 6.3969831f, -0.0767280f, 22.7778530f, 0.1034973f, 0.0294544f, 0.1421132f, -0.1846454f, 4.6173749f, 1.7395452f, -0.2568676f, 0.3970887f, 0.1599963f, -0.0377688f, -3.8601732f },
{ 0.3990591f, -9.0674210f, -0.0285809f, 1.0102417f, -0.0778894f, 0.1481761f, 25.8181820f, 1.5780128f, 0.0919854f, -25.5026398f, -0.0568590f, -5.3701301f, -5.8000741f, -0.0537543f, -0.1310256f, 0.1296079f, -0.0799724f, -0.1470976f, 1.1472957f, -0.0119730f, -0.1883059f, -0.1435018f, -0.0266196f, 0.1138378f, -0.3436766f, 6.0278625f, -0.2551228f, -0.0372305f, -0.1612012f, 0.0697668f, 0.1494105f, -0.7298219f },
{ -0.0559622f, 0.0576377f, 0.7380749f, 0.3913458f, 0.1024330f, -0.2037854f, -0.3527302f, 0.5862299f, 2.3759999f, -0.4103386f, 0.1404584f, -1.2637261f, 0.3611675f, 0.1276394f, 0.0199774f, -0.2003776f, -0.1931814f, 0.0801116f, -5.2183051f, -0.0243696f, 2.3289735f, 0.0642457f, 0.0285073f, -0.1741697f, 0.1293844f, -0.3458649f, -7.7250872f, 0.8857299f, 5.7311983f, -0.4539446f, 0.1189705f, 4.2622728f },
{ 2.9743624f, -0.1398411f, 0.2146996f, -3.2373633f, 0.0198420f, -0.0631706f, 0.3126779f, -1.2075678f, -0.3368086f, 0.4843141f, 0.0648810f, -1.7846320f, 0.3224158f, -1.3482856f, 0.0641815f, 1.3799155f, 0.0154955f, -0.1240549f, -4.0552888f, -0.0966750f, -2.0437717f, -0.1966328f, 0.1326815f, -0.0675189f, 0.0725278f, 4.2598181f, 0.6596930f, 0.2077726f, -2.5391459f, 0.1958996f, 0.0199739f, 1.3023870f },
{ -2.0053034f, 0.1122141f, 0.1533546f, 18.3231659f, 0.1834137f, -0.0449806f, 0.3663154f, -23.9800301f, -1.5126848f, -0.0237073f, -0.0992232f, 2.0081048f, -0.1300566f, -0.4336613f, 0.1583316f, 0.6110175f, -0.2037306f, -0.1198562f, 5.2263145f, 0.1326047f, 25.8000908f, 0.1217130f, 0.2679977f, 0.2014576f, -0.0153867f, 3.6314096f, 1.7974739f, 0.1507182f, -28.4463463f, 0.2225660f, 0.0129202f, -0.1194119f },
{ -0.1909008f, -56.9830589f, -0.1163338f, 1.8340229f, 0.0419358f, 0.0628419f, 6.7649822f, 1.0821393f, -0.3707112f, -7.9790058f, -0.0409831f, -7.7009468f, -48.1739540f, -0.0730220f, -0.1878593f, -0.5242310f, 0.2341757f, -0.2006318f, 2.2528894f, -0.1672154f, -2.2829502f, 0.0409514f, 0.0622446f, -0.1230711f, -0.1890016f, 22.4740715f, 0.0289102f, -0.0802061f, 0.5822431f, -0.1321277f, 0.1018402f, 0.7044669f },
{ 4.1239219f, 0.1733946f, -0.6124372f, -8.8275690f, 0.1902286f, -0.2122677f, -1.0516585f, -3.7793093f, 0.5578797f, -0.3211117f, -0.1077452f, -1.0526626f, 3.1778336f, -1.0220362f, 0.0981590f, -1.4820910f, 0.1066966f, -0.0887981f, -3.3473597f, -0.0153851f, -0.2301354f, 0.0900277f, -0.6960007f, 0.1733039f, -0.0018951f, 2.8440311f, -1.5128981f, -0.4969097f, -1.5088947f, -0.6632178f, -0.1509152f, 2.2514827f },
{ 3.1916959f, -0.3308293f, 0.1801247f, -2.1636648f, -0.0380914f, -0.2139807f, 0.0028755f, 3.2121918f, -1.0861585f, -0.2699325f, 0.1266590f, 1.0231326f, 2.0648973f, -0.3117826f, 0.0073932f, -1.7391211f, -0.1402799f, -0.1851791f, -0.6941224f, 0.0531320f, 2.3699911f, -0.0417972f, 0.3217712f, 0.1103552f, -0.1462890f, -5.0270224f, 4.3857465f, 0.0868908f, -1.5850623f, 0.3134503f, -0.0736819f, 1.5844902f },
{ 1.7399169f, 0.0053414f, -3.2127516f, 0.1845531f, -0.0168547f, -0.0869716f, 0.0798903f, -0.0617126f, 0.1922368f, -0.0006063f, -0.1371127f, -0.3757961f, 0.0025256f, -0.8247103f, 0.0919899f, 4.1210127f, -0.1419597f, -0.1949684f, 0.2317047f, -0.0792174f, -0.1092123f, -0.1683267f, -0.0047622f, -0.0935543f, -0.2925326f, -0.0789919f, 0.5797273f, 3.3264830f, -0.0068151f, -0.0055120f, -0.1051741f, -0.1449714f },
{ -0.1468729f, 0.0051018f, 3.1800294f, 0.1334223f, -0.1406781f, 0.0701465f, 0.1018676f, -0.0812261f, -0.4638799f, 0.1632877f, -0.1954233f, 1.5626488f, -0.3538364f, 0.9653540f, -0.2203397f, -3.5173020f, -0.0779669f, -0.0646852f, 1.4443802f, -0.2063265f, 0.0680736f, -0.1667136f, -3.1678958f, -0.0263992f, 0.1346753f, 0.3681061f, -0.3377847f, -3.3648016f, 1.8539637f, 3.4139001f, -0.1258919f, 0.1223378f },
{ -2.5166705f, -0.0044389f, -0.0049857f, -0.0323059f, -0.1809241f, -0.1342397f, 0.0687750f, -0.1643619f, -0.0211790f, 0.1113150f, -0.0232877f, -0.1447174f, -0.2928347f, 0.0002417f, -0.1943406f, -0.4957443f, -0.0589036f, 0.0726913f, 0.3501815f, 0.0390034f, 0.2137980f, -0.1150503f, 3.1541061f, -0.1173226f, -0.1653423f, 0.4114480f, 0.0259212f, 0.0061581f, -2.0483789f, -3.4212406f, -0.1789273f, 0.0215857f },
};

ALPAKA_STATIC_ACC_MEM_GLOBAL const float bias_layer2[32] = {
3.3825107f, -0.2442597f, -5.6701202f, 1.3376396f, 1.2011858f, 1.8876536f, -0.6861863f, 2.8784165f, -1.0118879f, 1.9377594f, -2.5521150f, 2.3841405f, -0.4840344f, -2.5851674f, -0.6471146f, -0.1900540f, -0.2942578f, 3.6800661f, -0.1598619f, -1.2319041f, -2.2554452f, 4.0165806f, 0.2627040f, -0.2143200f, 0.4694963f, -0.2809921f, 3.5721169f, 3.2580028f, -0.0649020f, 0.4674319f, -3.7865534f, -0.2208631f };

ALPAKA_STATIC_ACC_MEM_GLOBAL const float wgtT_layer2[32][32] = {
{ -0.0675126f, -0.1301877f, -0.4416850f, 2.6536689f, -0.6606597f, 2.1123674f, 0.3307042f, -3.7457771f, -0.7694353f, 0.3929207f, -1.7238879f, -1.9453981f, 2.5528269f, -3.4480796f, -0.5418890f, -0.0444614f, -0.0251371f, -2.1814125f, 0.0114257f, 0.0036232f, 0.1510327f, -0.7517612f, -1.3175563f, 0.1054243f, -0.1514988f, -0.0199843f, -1.3214449f, 0.2803585f, -0.2180654f, -2.7788181f, 0.8939682f, -0.1410934f },
{ -0.0678860f, -0.1261382f, 0.0314615f, 3.6106355f, 0.9112099f, 1.4183936f, -0.3696217f, -1.6985347f, 2.8488111f, 4.0151968f, -9.0621920f, -6.9488931f, -3.1949427f, -6.3869200f, 2.8145704f, 0.0371968f, -0.1421560f, 7.7962751f, 0.0034628f, 2.9383109f, -1.5912390f, 2.8121874f, 1.3366988f, -0.2616284f, -9.5251656f, -0.0425691f, 3.4961615f, -0.7152511f, 0.0692697f, -2.0678685f, -4.0245500f, -0.0659429f },
{ -35.2213211f, -0.0095216f, 1.2393755f, -0.8380938f, -0.0711470f, 3.9409208f, 0.1803085f, -12.6333771f, -3.5842974f, 1.9186717f, 0.1664278f, -8.4909735f, 2.6194811f, 0.0625842f, 3.4797986f, 0.0657349f, 0.0419272f, -19.2725697f, -0.0178193f, -1.1323507f, -33.5452805f, 0.6046898f, 2.7938597f, -7.5087681f, -1.3160391f, -0.0578344f, 2.6372211f, -0.6281950f, -0.2958080f, 10.5919790f, -11.7222357f, -0.2343485f },
{ -0.5376559f, 0.0088792f, 1.5310326f, -0.8687850f, 2.5195053f, -2.1388462f, 0.4819977f, 2.6544778f, -4.6270995f, 1.6272941f, -0.9861680f, -0.4898177f, 1.4998776f, 3.0050693f, 1.1927292f, 0.0393146f, -0.0756307f, -1.5127326f, -0.1600285f, -3.1709104f, -0.9509740f, -3.0163817f, -31.2710743f, 1.0605955f, -0.6527329f, -0.1036626f, 0.8703713f, 1.6163988f, -0.2781090f, 2.9832885f, -3.7647057f, -0.2555315f },
{ -0.1383002f, 0.1674386f, -0.1420832f, -0.1711856f, -0.1577036f, -0.1019491f, -0.0523142f, -0.1371990f, 0.1682452f, 0.0936686f, -0.1316344f, 0.0704351f, 0.0086517f, 0.0689549f, -0.1497261f, 0.0117502f, -0.0465672f, -0.0843966f, 0.0159179f, -0.1343698f, -0.0644529f, 0.1347320f, 0.1754113f, 0.1234499f, -0.1518250f, -0.0369985f, 0.0671481f, 0.0068700f, -0.1310698f, 0.1049172f, 0.0994359f, -0.0899184f },
{ -0.0349866f, 0.0486912f, -0.1691830f, -0.0995345f, 0.1865999f, -0.0482158f, 0.1222628f, -0.0340122f, -0.0396087f, 0.0772004f, -0.1452980f, 0.0847645f, -0.0955919f, 0.0252499f, -0.0126511f, 0.0035721f, -0.1503984f, -0.0028722f, -0.1274465f, 0.0791213f, 0.1320526f, 0.1588693f, 0.0282185f, -0.0994985f, -0.1413763f, -0.1246192f, 0.0221596f, 0.0570331f, 0.1611240f, -0.0737030f, 0.1463900f, -0.0671697f },
{ -0.3281109f, -0.1107290f, 0.0103749f, 0.5121723f, -0.0625135f, -0.5528628f, 7.7859240f, -1.4969251f, 7.8155236f, -0.5873526f, -0.5287658f, -0.8213374f, 6.1630454f, -3.5490627f, 1.3709334f, -0.0093611f, -0.1838829f, 1.5575374f, -0.0179552f, 0.2710865f, -0.8931869f, 2.3541338f, 7.2834373f, 0.1740997f, 0.7956334f, -0.1619902f, -0.1633203f, 2.1166143f, -0.0702545f, 0.8917947f, -3.5550282f, -0.0248884f },
{ 0.6005229f, -0.0239848f, 2.0343511f, 2.2064199f, 0.4492145f, 2.4746630f, -0.3247744f, -0.3254240f, -0.4706548f, 0.7953927f, 2.3649843f, 0.5856897f, 0.4444603f, 0.4456079f, -1.0217706f, -0.0702802f, 0.0315824f, -0.5500328f, 0.0574896f, -0.7415659f, 0.0392756f, -1.1425380f, -0.3739125f, 0.2887969f, 0.6380137f, -0.0868707f, -2.5823441f, 0.2800154f, -0.1208052f, 0.6494210f, -0.2436412f, -0.0672943f },
{ -5.6071792f, 0.0749932f, -0.9254946f, -2.7400815f, 4.1365685f, -3.5818558f, 0.0916844f, 2.5228505f, 0.4516302f, 0.8308351f, -0.1407443f, -6.2291245f, 0.4366878f, 4.7847509f, 0.8289637f, -0.0767426f, 0.0134581f, 0.4879464f, -0.1742599f, 1.1415905f, -3.3922279f, -6.7733555f, -3.5755515f, 3.8462863f, 0.5169901f, -0.0013168f, -1.3897411f, 2.7129564f, 0.0617522f, -1.9074019f, 0.1226259f, -0.1848081f },
{ -0.1833402f, 0.0529251f, 0.5697573f, 0.8578768f, -0.2046584f, -0.7658636f, 4.7790117f, -1.0519818f, 6.3248439f, 0.0634712f, 1.5478336f, 0.3030669f, 6.0177131f, -2.4238875f, 1.0850859f, 0.1108418f, -0.0707861f, 0.9189616f, -0.0213610f, -0.0485471f, -0.7664459f, 1.5467534f, 5.3748322f, 0.1197717f, 0.9511192f, -0.0164564f, 0.0764515f, 1.6464446f, -0.2448620f, 1.5697802f, -4.4227090f, -0.0960327f },
{ 0.1431238f, -0.1556867f, -0.0104607f, -0.1719159f, 0.0067181f, 0.1019489f, 0.1395420f, 0.0957159f, 0.0894814f, 0.0404496f, 0.1510891f, -0.0549865f, 0.0948514f, 0.0060220f, -0.0932429f, -0.0102290f, -0.0790008f, 0.1085227f, 0.0781386f, -0.0845955f, 0.0695935f, 0.0884011f, 0.0608005f, 0.0883515f, 0.1493781f, 0.0133599f, -0.0831941f, 0.1753376f, 0.1564002f, -0.0124590f, 0.1681610f, -0.1181052f },
{ -0.1787923f, 0.1098979f, 1.0966657f, -0.7083379f, 0.3972144f, 0.0948157f, 4.0512047f, 0.1748033f, 0.7936418f, -2.0452981f, -4.0347285f, -0.6418348f, -0.7345043f, 0.4760933f, 0.4012632f, -0.0492641f, -0.1098878f, 0.1032487f, 0.1061922f, 1.7317739f, -0.2593899f, 0.5455790f, 1.7968886f, 0.9229831f, -0.6054644f, -0.1489622f, -0.2479411f, 0.0300929f, -0.1396620f, -0.0278316f, -0.4900775f, -0.0308629f },
{ -0.0105134f, -0.1732551f, 0.5456876f, -2.6079445f, -0.6214104f, -1.1668676f, -0.5091771f, 2.0813413f, -1.9956151f, -2.7816656f, 4.3069344f, 2.4769175f, 1.8758385f, 3.8691998f, -1.6611363f, -0.1827853f, -0.0884059f, -5.5002074f, -0.0727087f, -1.0631385f, 1.7127254f, -2.3893256f, -0.5315526f, 0.1011095f, 4.8776751f, 0.0200903f, -2.5132523f, -0.0005521f, -0.1585857f, 1.6168287f, 1.9717900f, 0.0257297f },
{ -5.0708151f, -0.1227011f, -0.0248348f, 2.8029828f, -0.4648500f, 3.2800829f, -4.2136526f, -1.8399438f, 1.2382008f, -0.6348449f, -0.5231568f, -1.2300988f, 0.3259390f, -2.9156315f, -1.0787055f, -0.1649752f, -0.0829625f, -0.3844907f, 0.1057825f, 0.2991562f, 1.5432951f, -4.4131951f, -4.7525458f, -3.7703199f, -0.0362476f, -0.0054605f, 1.2984300f, -1.2109160f, -0.0982707f, 1.9808953f, -1.8657207f, -0.0789277f },
{ 0.0846507f, -0.1287549f, -0.3247963f, -0.0448024f, 0.0135457f, 0.0673309f, 0.0440391f, -0.0567076f, 0.0501407f, -0.1309313f, 0.1024192f, 0.0535106f, 0.0968422f, -0.0815052f, 0.0221914f, 0.0735666f, 0.0992100f, -0.2519426f, 0.0272641f, 0.0664463f, 0.2259489f, -0.0518081f, -0.0015914f, 0.0935058f, -0.0575529f, -0.0306376f, 0.0224287f, -0.0802689f, 0.0497070f, -0.1638118f, -0.0599359f, 0.1015785f },
{ -6.5442090f, -0.0066115f, 0.9438553f, 0.2184730f, 5.9301405f, -0.3647911f, -3.4321778f, -5.2663565f, 0.8238155f, -5.0723352f, -7.2815671f, 4.3855753f, 2.6966999f, 0.9246880f, 1.4354987f, 0.1286387f, -0.0429732f, 2.9207690f, 0.0784766f, 5.4317608f, -3.9112127f, -0.1976713f, 0.4011003f, -0.0887551f, -2.9308159f, -0.1565228f, -29.1865463f, 0.2113629f, -0.1998174f, 1.7044531f, -4.4042459f, -0.1489999f },
{ -0.1003453f, 0.0852290f, -0.0779241f, -0.0273408f, 0.1035117f, -0.0693024f, 0.0640017f, -0.1486582f, -0.1498699f, 0.0026673f, -0.1488029f, 0.1617252f, -0.0888569f, -0.0927270f, 0.0434940f, 0.1505255f, -0.1227744f, -0.0899284f, 0.0932821f, 0.0586724f, 0.0627196f, -0.1368983f, 0.0405813f, -0.0918451f, -0.1396629f, -0.0363794f, -0.0110290f, -0.0511242f, 0.1529408f, -0.0266170f, 0.1714173f, 0.0473088f },
{ 0.1027881f, 0.1140246f, 0.0562726f, 0.0597575f, -0.0172039f, 0.0518793f, 0.0283160f, 0.0596054f, -0.1325254f, -0.0884162f, 0.1481812f, -0.0017922f, -0.0387839f, 0.0534990f, -0.0319948f, -0.0084516f, 0.1412147f, -0.0329931f, -0.0789495f, 0.0573273f, -0.1677931f, -0.0617255f, -0.0269884f, -0.0627477f, 0.1124156f, -0.0512559f, -0.0074199f, -0.0706618f, 0.1737003f, -0.0887324f, -0.0790845f, -0.0914548f },
{ -0.9759591f, -0.2441276f, 0.0076232f, -0.6282969f, -0.7595081f, 2.4568968f, -1.3769475f, -3.0259926f, 2.4225378f, -1.5068986f, -0.9209880f, -1.8022000f, -2.1475134f, -1.3230489f, 0.3806668f, -0.1806685f, -0.3013344f, 1.6165826f, -0.1257215f, 1.2913331f, -0.1873612f, 0.1648829f, -4.5060463f, -0.3786547f, -0.8542202f, -0.1343955f, -0.6310285f, -0.2280078f, -0.1127962f, -1.5890994f, 0.4805804f, -0.2590196f },
{ 0.0825794f, -0.1009183f, -0.1050586f, -0.1400174f, 0.0814312f, 0.1382978f, 0.0997165f, 0.0140852f, 0.0605046f, 0.0048887f, 0.0698273f, -0.1575441f, -0.1725076f, 0.0547998f, 0.0562371f, -0.0865209f, 0.0013156f, -0.0380462f, 0.0286690f, 0.1392272f, 0.1077476f, 0.1073389f, 0.1429866f, 0.1704787f, 0.1143121f, -0.1576357f, -0.0025327f, -0.0307165f, -0.0006803f, -0.0335252f, -0.0712827f, 0.1612911f },
{ 0.4314139f, 0.0484390f, 2.0560133f, 2.6382260f, 0.3510554f, 2.0158153f, -0.3274462f, -0.2613547f, -0.8217670f, -1.6022907f, 3.8271947f, 1.5692427f, 0.8009685f, 0.6009026f, -1.0980918f, -0.1928459f, -0.0470571f, -2.0427852f, -0.1609719f, -0.5459741f, 0.7401509f, -1.0438997f, -0.0275332f, 0.1013061f, 0.9416060f, -0.2450287f, -2.1020229f, -0.3727087f, -0.3065467f, 1.1218953f, -0.0020943f, -0.1056405f },
{ -0.0747425f, -0.0889840f, -0.0269267f, 0.1431029f, -0.0061063f, -0.1517300f, -0.1676992f, 0.0349500f, -0.1040442f, -0.0743394f, -0.0109767f, -0.1207596f, 0.1344663f, -0.1142394f, 0.1486529f, 0.0420744f, -0.1487623f, 0.0663132f, -0.1749849f, 0.0371485f, 0.1487228f, -0.1577113f, 0.1184939f, -0.1122185f, -0.0674622f, -0.1313129f, 0.0342768f, 0.1217764f, 0.0426901f, 0.0104553f, -0.0950265f, -0.1595664f },
{ 0.1628136f, -0.1572703f, 0.4847868f, -0.2386634f, 1.6478598f, -0.2603976f, 0.0496093f, 0.2893831f, -0.8128966f, -0.3395379f, -1.1661373f, 0.6327491f, 1.4662027f, 0.6075553f, -0.0306754f, -0.0308264f, -0.0500810f, -0.2797004f, -0.1707614f, -42.4053955f, -0.2443378f, -33.3786926f, -0.1138828f, 0.0911598f, 0.4608606f, -0.0692452f, -1.1967852f, 0.1122463f, -0.0345838f, -0.1090617f, -0.2529123f, -0.1518499f },
{ -0.1567357f, 0.0727326f, 0.0391166f, -0.1049817f, 0.0215175f, 0.0244881f, -0.0173228f, -0.0060066f, 0.1328787f, 0.0703511f, 0.1696409f, -0.0709769f, -0.1542040f, -0.0296243f, 0.1645509f, 0.0173503f, 0.1598810f, -0.1140742f, 0.1196017f, -0.1377974f, 0.0065064f, 0.0989802f, 0.0781716f, -0.0350233f, 0.0261418f, -0.0316835f, -0.0054513f, -0.1291791f, -0.1144959f, -0.1142210f, -0.0240258f, 0.1314625f },
{ 0.0157077f, -0.1658945f, 0.0966081f, -0.1534973f, -0.0310003f, 0.2037184f, -0.1105002f, -0.0941507f, -0.1218001f, 0.0737118f, -0.0112466f, 0.0753146f, 0.2289777f, -0.1220836f, -0.0621717f, 0.1360183f, -0.1912858f, 0.0581578f, -0.0121013f, 0.0244144f, 0.0200554f, 0.0164558f, 0.1226179f, -0.0606577f, 0.2055421f, 0.1040006f, -0.1711634f, -0.1979535f, -0.0107486f, -0.1332302f, -0.0227154f, -0.0915444f },
{ -0.3230058f, -0.1764132f, 1.3194056f, -0.8741885f, 0.0192564f, -0.6706167f, 0.2830838f, 2.4909947f, -0.1299756f, -0.6309977f, -2.1935353f, -2.9184320f, 0.0930376f, 0.4558614f, 0.1299618f, -0.0100382f, -0.2136997f, -1.2084111f, -0.1407564f, 1.7646353f, 1.5737273f, -1.2024628f, 1.2526046f, 0.0404116f, -1.4973921f, -0.1926099f, -0.7161579f, -0.9647396f, -0.0382001f, 1.0715501f, -0.6676345f, -0.2426200f },
{ 0.1780377f, -0.1905306f, 0.4575266f, 1.4275423f, -0.2688192f, -1.0211887f, -1.6121770f, 0.0657364f, 0.0732909f, -1.2289733f, -5.3355436f, 1.1056802f, -0.2664755f, -2.2399623f, 0.1460505f, -0.1742479f, -0.2567740f, -2.4989855f, -0.1550087f, 0.2404955f, 1.5897686f, 0.7394351f, -1.2669679f, -4.9319973f, 0.2599189f, -0.0295920f, 1.1472396f, -6.4595547f, -0.0640200f, 0.6569275f, 0.8175579f, -0.1683235f },
{ -32.3604851f, 0.0590669f, -2.5123019f, -1.1305728f, -7.5310183f, -6.3703303f, 2.7777011f, -1.9872183f, 3.2130051f, 5.9734540f, 5.1821709f, -14.3865156f, -6.6058121f, -0.9268086f, 5.9123058f, -0.1084908f, -0.0623079f, -1.5903057f, -0.1115152f, -32.9491386f, 3.7380400f, 1.0642399f, -2.1021798f, 5.5089560f, -1.8626615f, -0.1652382f, 8.4493189f, 5.1491599f, -0.1015358f, 0.3864993f, 2.0468173f, -0.2741266f },
{ -0.5869461f, -0.2067974f, -22.4782238f, 1.4746089f, -6.4008837f, -1.6317214f, -0.0013047f, 1.0085777f, -0.6959397f, -1.0995235f, 1.0695418f, -0.8345191f, 0.1200820f, -7.1216793f, -0.1641172f, -0.2458338f, -0.2115629f, -0.1518158f, -0.1569688f, -1.6188530f, 0.2075984f, -2.5798156f, -0.4664210f, -0.0527777f, 0.0557512f, -0.0435082f, 0.2421150f, -1.3313923f, 0.0746271f, -1.2457129f, 3.1450543f, -0.2306754f },
{ 0.6624182f, 0.0727528f, -37.0310822f, 0.4604554f, -3.5642316f, -1.3154969f, -0.6215234f, 1.2272215f, 1.9551666f, 0.0784400f, 2.5894885f, 2.7868166f, -2.8215377f, -2.4443433f, -1.6775244f, -0.0147591f, -0.0544077f, -8.0300264f, -0.1733367f, -2.2360218f, -13.7665968f, -28.1955795f, -3.7325628f, -0.4227707f, 1.9583142f, -0.1532476f, 0.1805117f, 0.1956513f, -0.1071104f, -3.4047315f, 3.8508096f, 0.0277205f },
{ -0.0917994f, 0.1074538f, -0.0226375f, -0.1571070f, -0.0761407f, 0.0599351f, 0.0020944f, -0.0760136f, -0.0290694f, 0.0269924f, -0.1719260f, 0.1586037f, -0.1351386f, -0.0649432f, -0.1544219f, -0.0338996f, 0.0629393f, 0.0745698f, 0.1107913f, 0.1051592f, -0.1032091f, -0.0304534f, 0.0303071f, -0.0632166f, -0.1584209f, 0.1203391f, 0.0494593f, -0.1289022f, -0.1054978f, 0.0193894f, 0.1152836f, 0.1547999f },
{ 0.3844289f, 0.1110404f, -0.3326495f, 0.4494092f, 0.4923861f, -0.2995187f, 4.1328216f, 0.6065249f, 0.0903386f, -0.0432011f, -0.3675359f, 0.0861803f, 0.0538181f, 0.1488373f, 0.1085001f, 0.0358588f, -0.1231666f, -0.7249025f, 0.0899086f, 0.2389686f, -0.9036761f, 0.3300412f, 4.7543645f, 0.7034810f, -0.1909365f, -0.0313745f, -0.1614589f, 0.0214077f, 0.0365531f, -0.1354771f, -0.5443503f, -0.0566752f },
};

ALPAKA_STATIC_ACC_MEM_GLOBAL const float bias_output_layer[1] = {
0.8186444f };

ALPAKA_STATIC_ACC_MEM_GLOBAL const float wgtT_output_layer[32][1] = {
{ 0.5703763f },
{ 0.0240100f },
{ 0.2780102f },
{ -0.4880805f },
{ -0.5789562f },
{ 0.4357148f },
{ -0.4451768f },
{ 0.3374638f },
{ -0.3427963f },
{ -0.8554320f },
{ 0.3101254f },
{ 0.6482882f },
{ 0.3333943f },
{ 0.5574273f },
{ 0.5431687f },
{ -0.0255858f },
{ -0.0264949f },
{ 0.4973385f },
{ -0.0081702f },
{ 0.2516361f },
{ 0.2492668f },
{ 0.8571597f },
{ 0.2224369f },
{ -1.0975966f },
{ -0.8157872f },
{ -0.0229324f },
{ 0.5052227f },
{ 0.7032035f },
{ 0.0484828f },
{ -0.6337302f },
{ 0.5737700f },
{ -0.0071003f },
};

}  //namespace lst::t5dnn

#endif
