#ifndef RecoTracker_LSTCore_src_alpaka_NeuralNetworkWeights_h
#define RecoTracker_LSTCore_src_alpaka_NeuralNetworkWeights_h

#include <alpaka/alpaka.hpp>

namespace lst::t5dnn {
  ALPAKA_STATIC_ACC_MEM_GLOBAL const float bias_0[32] = {
      -0.1499876f, -0.0476954f, 0.0072908f, -0.1131159f, 1.0607450f,  0.9512361f,  -0.2171159f, -0.0891951f,
      1.9543512f,  -0.0410189f, 0.2051593f, -0.1441609f, 0.0220265f,  0.0061414f,  -1.2668802f, 1.2290764f,
      0.1718124f,  1.6923177f,  1.3287535f, -0.2312031f, -0.6576020f, -0.2982113f, 0.0119458f,  -0.3674974f,
      1.2777895f,  -0.1650601f, 0.0937916f, -0.0485528f, -0.0759638f, -0.0541043f, -0.5819769f, -0.1176922f};

  ALPAKA_STATIC_ACC_MEM_GLOBAL const float wgtT_0[18][32] = {
      {-0.0887985f, -0.1118124f, 0.1868948f,  0.0678084f,  0.2205922f,  -1.4321359f, -0.2070529f, 0.0343634f,
       0.4204769f,  -0.1326087f, -0.1286474f, 0.1540338f,  -0.2705165f, -0.1516614f, -0.2397254f, -1.2568928f,
       0.0080059f,  -0.0119017f, 1.3024874f,  -0.2287283f, 2.8337271f,  -0.3037449f, -0.5350525f, 0.1041258f,
       0.7305318f,  -0.1011182f, -0.1653814f, -0.2167438f, -0.0909145f, -0.0807109f, 0.5774108f,  -0.1784460f},
      {-0.0280668f, -0.0727316f, 0.0250515f,  -0.0043019f, -0.8932780f, -0.5024169f, -0.0487418f, -0.2696053f,
       -1.0562238f, 0.1122043f,  0.9360105f,  0.1934123f,  0.3222130f,  0.2542452f,  0.6788036f,  0.9907650f,
       0.0639585f,  -0.3028756f, -2.9182904f, -0.1982688f, -1.4093009f, -0.2774760f, 0.2129011f,  -1.3999815f,
       -1.0353017f, -0.0031686f, -0.0934887f, -0.1739976f, 0.1865390f,  0.0071905f,  2.3127277f,  -0.1220435f},
      {-0.0781339f, 0.1820012f,  0.0008006f,  -0.0631953f, 0.6355643f,  -0.3756202f, 0.0911676f,  -0.0199910f,
       -5.0510387f, 0.1987332f,  0.7028572f,  -0.1607448f, -0.0906840f, -0.0367363f, -0.2059585f, -1.2194777f,
       0.3155529f,  -2.8606579f, -0.4974749f, 0.2169413f,  3.4776306f,  -0.2431678f, 0.4166138f,  1.6087360f,
       -5.3819680f, -0.1361552f, -0.0858319f, 0.2020262f,  0.1488733f,  -0.0232278f, -0.1257668f, -0.1252210f},
      {0.0082567f,  -0.0758834f, -0.1749989f, 0.2305633f,  6.8417315f,  -1.0438054f, -0.0608054f,  -0.0409939f,
       1.3419311f,  -0.0488091f, 1.8488718f,  -0.1748365f, -0.1354539f, -0.0460965f, -2.1700721f,  3.2308962f,
       -2.3086109f, 0.1699941f,  2.4515948f,  -0.0957133f, 0.5046191f,  0.1024916f,  -0.4962807f,  1.2262650f,
       -0.1310752f, 0.0479653f,  -0.0999219f, -0.1416949f, -0.0643837f, -0.0043031f, -14.0724649f, -0.0813891f},
      {-0.0951307f, -0.1958330f, -0.2132453f, 0.0389466f,  -2.5899031f, 0.2309155f, -0.3296993f, 0.1523342f,
       -3.7331948f, -0.1569559f, 1.2465422f,  -0.0481817f, 0.6675646f,  0.4184842f, -5.9616103f, 1.7000818f,
       0.6329957f,  1.4159659f,  -7.2198973f, 0.0978320f,  -0.6396725f, 0.0621800f, -0.6377596f, 2.6333551f,
       -1.0276231f, -0.0286199f, 0.0529375f,  0.2077487f,  0.2067973f,  0.0320198f, 1.1934319f,  -0.0393124f},
      {0.1173837f,  0.2101792f,  0.1713824f,  -0.0621591f, 1.7861084f,  -0.6421074f, -0.1092678f, 0.1228227f,
       -1.9183301f, -0.1470624f, -0.3519074f, 0.1454236f,  -0.0562054f, -0.0444612f, 2.6138883f,  -1.7488680f,
       0.0817418f,  -2.4079404f, 1.9905137f,  0.1748816f,  2.0529118f,  -0.2878591f, 0.9023693f,  -1.2172494f,
       -3.4854689f, 0.1359392f,  0.0974083f,  0.2201731f,  0.1738489f,  0.1461989f,  -0.6300770f, 0.0978404f},
      {0.0311770f,   -0.2019107f, 0.0120556f,  0.1726128f,  6.9295897f,  0.6211832f,  0.1333056f,  0.0894330f,
       -7.7858753f,  -0.1521264f, 1.1140623f,  -0.1180053f, -0.1707717f, -0.0886038f, 6.1582885f,  0.4210764f,
       4.8882546f,   9.9009113f,  0.0384929f,  -0.1494463f, 8.7077618f,  -0.2303816f, 0.1880460f,  -7.1518245f,
       -11.2740955f, 0.0617192f,  -0.1596932f, -0.1979029f, 0.1728011f,  -0.1178558f, -9.3675480f, 0.1713868f},
      {0.2060778f,  0.1330823f,  -0.1339726f, -0.0967141f, 1.0933021f, 0.5339333f, -0.1977645f, -0.3569889f,
       -2.1443574f, -0.0900512f, -1.2163471f, 0.2354757f,  0.6796547f, 0.5667081f, 0.0953305f,  -0.1488843f,
       0.8268057f,  -0.4363897f, -5.4997025f, -0.0839348f, 0.8142316f, 0.1015113f, 0.0362723f,  -0.1326369f,
       -1.5605502f, -0.1231862f, -0.2243552f, 0.2171090f,  0.1798448f, 0.2305425f, -3.5690725f, 0.0104253f},
      {-0.2127489f, -0.0657757f, -0.1176703f, 0.0406223f,  1.0773180f,  -0.3329238f, 0.1425722f,  0.3537387f,
       -0.9891754f, -0.0901100f, 1.6717137f,  0.2032855f,  -0.1348523f, -0.0422286f, -1.3938724f, 0.1094956f,
       -0.5131857f, -1.7319001f, 1.5393561f,  -0.2166548f, -4.6071615f, -0.1019498f, 0.3471734f,  0.9528931f,
       -0.4286478f, -0.0567857f, 0.1042008f,  -0.0342516f, 0.1594164f,  0.0994196f,  -0.5466353f, 0.1021425f},
      {0.2012833f,  0.2050199f,   -0.0379457f, 0.0032997f,  -15.7226782f, -7.2644839f, -0.0982001f, 0.0010809f,
       4.0790377f,  -0.1574239f,  2.0485282f,  0.1573611f,  0.0015062f,   -0.0180970f, -6.1058221f, -15.6667480f,
       13.6056948f, -10.9734058f, 1.5916380f,  -0.0052941f, -12.1621275f, 0.2986793f,  0.3093250f,  4.1823187f,
       13.1097422f, -0.1579284f,  -0.1146442f, -0.1842993f, -0.1206105f,  -0.0552910f, 3.0600660f,  0.2311276f},
      {-0.0322230f, -0.0188172f, -0.1894816f, -0.1371321f, 1.0846879f,  -0.1011936f, -0.1273593f, -0.0716110f,
       1.6073451f,  0.0776641f,  0.1208268f,  -0.1649257f, 0.0603265f,  0.0890934f,  -0.8492785f, -0.2716409f,
       0.6443379f,  1.9522316f,  -6.3880882f, -0.2070713f, 1.3279763f,  -0.0371075f, -0.2587559f, 1.5447143f,
       2.8819366f,  0.0436613f,  -0.1757131f, 0.0395157f,  -0.2069026f, 0.1183677f,  -0.4957230f, -0.0016182f},
      {0.0602280f,  -0.2248633f, -0.2357326f, -0.0343844f, 1.1133188f,  0.7517121f,  -0.2447161f, 0.2502393f,
       -0.7642535f, -0.0959147f, -0.0004613f, 0.2048184f,  0.0057332f,  0.0316565f,  -1.1521443f, 1.5847795f,
       -1.4636985f, -0.7446407f, 2.1452985f,  0.1536853f,  -3.7585409f, -0.2728844f, 0.2927916f,  -0.6430389f,
       -2.2149127f, 0.0476037f,  0.0497275f,  0.1226118f,  -0.0612870f, 0.0862499f,  1.0027908f,  -0.0678565f},
      {0.2350576f,   0.1863946f,   0.0388372f,   0.0575942f,  -18.0070763f, 3.3364913f,  0.0173609f,  -0.0965444f,
       -2.2632396f,  -0.0603713f,  -14.4632978f, 0.1483523f,  0.1651719f,   0.2056206f,  -3.7041264f, 0.5991868f,
       -18.7805157f, -11.4750977f, 2.2261515f,   0.0157661f,  -2.7000945f,  -0.0011396f, 0.1376435f,  2.3243001f,
       13.7671328f,  0.1489633f,   0.1979201f,   -0.0890795f, -0.2299203f,  -0.0165805f, 1.6389085f,  -0.2159154f},
      {-0.0493930f, -0.2203713f, 0.1380385f,  0.2046394f,  -0.3774354f, -0.9207487f, 0.0456531f,  0.0985246f,
       1.4804306f,  0.0379862f,  -2.7078326f, 0.0067819f,  -0.3450814f, -0.5352862f, -2.2670431f, -0.3019366f,
       -0.7483253f, 2.3919129f,  -2.6277599f, 0.1167140f,  1.3732768f,  -0.0927391f, -0.5445485f, 1.4363966f,
       2.3160441f,  0.2039173f,  -0.2682903f, -0.2338885f, 0.0092693f,  -0.0603233f, -0.2679307f, -0.1033839f},
      {0.1866865f,  -0.0513518f, 0.0525812f, 0.1544375f,  1.2659379f,  0.7267815f,  -0.1646172f, 0.0249199f,
       -0.2533856f, 0.1395121f,  2.3721066f, -0.1401539f, 0.1546637f,  0.1133869f,  -0.5865974f, 0.8197275f,
       1.2254934f,  -0.4143802f, 0.3293314f, -0.1202624f, -1.4605806f, -0.2408983f, 0.1925219f,  -3.2947273f,
       -1.1620380f, 0.1157589f,  0.1454542f, 0.1961491f,  -0.1884302f, 0.0267581f,  2.6447618f,  -0.1414540f},
      {-0.1814050f, -0.0121850f, -0.2399026f, -0.0720111f, -0.0152580f, -2.4689393f, 0.1135271f,  2.2330050f,
       -1.1093976f, 0.0224629f,  2.0258164f,  -0.0020546f, 1.5226760f,  -0.0017445f, 0.8186328f,  1.6244174f,
       1.2532004f,  -0.0608510f, 0.3819118f,  -0.1478786f, -0.0461891f, -0.0565409f, -0.0949711f, -2.4398241f,
       0.0701321f,  -0.2147540f, -0.0369368f, 0.0669641f,  -0.2271262f, -1.7792152f, -0.2072165f, -0.0127656f},
      {-0.1572398f, -0.0631643f, 0.0369353f,  -0.1764694f, -0.1885810f, 2.1763136f,  -0.2502171f, -1.5403041f,
       1.3603224f,  -0.0000814f, -0.5661154f, -0.1533601f, 0.7404276f,  -1.7429298f, 0.2248897f,  -1.8198457f,
       0.6098266f,  1.3737452f,  -0.4896317f, -0.1103367f, -0.3942274f, 0.0677604f,  -2.2999780f, 1.8270029f,
       -0.3563096f, 0.0880218f,  0.0531316f,  -0.1659739f, 0.0964223f,  1.7900354f,  -0.0023230f, -0.1862485f},
      {0.1031236f,  -0.0815239f, 0.0113061f,  -0.1093478f, -0.3352936f, 0.3013159f,  -0.2950100f, -0.6954026f,
       -0.0427356f, -0.1448013f, -1.6218777f, -0.0394770f, -2.2602129f, 1.7372240f,  0.1885851f,  -0.0395685f,
       -2.0322840f, -1.6439927f, 0.0808469f,  -0.1059980f, 0.1439013f,  -0.2192617f, 2.3831251f,  0.6591775f,
       0.4456477f,  -0.1716298f, -0.1641308f, -0.0783599f, -0.1432077f, -0.0126884f, 0.0225982f,  -0.0609567f},
  };

  ALPAKA_STATIC_ACC_MEM_GLOBAL const float bias_2[32] = {
      -0.2005879f, 1.0138564f,  -0.0774069f, 2.2441077f,  0.4513531f,  -1.5704482f, -0.9212440f, 2.5360286f,
      -0.0794001f, -0.6226825f, -0.2985787f, 1.3193400f,  1.5607044f,  0.3059648f,  1.2919898f,  0.6706725f,
      -2.2261055f, -0.1224025f, -0.1090444f, -1.2870072f, -2.8168426f, -0.9863890f, 0.9986359f,  1.0734974f,
      -0.0996639f, -0.1301499f, 0.9397441f,  -0.0490246f, 0.9685933f,  -0.1617451f, -0.4904513f, -0.2209664f};

  ALPAKA_STATIC_ACC_MEM_GLOBAL const float wgtT_2[32][32] = {
      {0.1631593f, 0.1130321f,  0.1586547f,  0.1721103f,  0.0689417f,  0.0033083f,  -0.0221127f, -0.1721804f,
       0.1030295f, -0.1690473f, 0.1121067f,  -0.1263321f, -0.0506433f, -0.0948596f, -0.1293541f, -0.0516042f,
       0.1363002f, -0.0629909f, -0.0995164f, 0.0077727f,  0.1744107f,  -0.0687963f, 0.0140938f,  0.0362581f,
       0.1719808f, -0.1267247f, -0.0405701f, 0.0439160f,  -0.1197652f, 0.0331745f,  -0.1037575f, -0.1605809f},
      {-0.1370222f, -0.1438602f, 0.0797473f,  -0.0014058f, 0.1187525f, 0.0846730f, 0.0567668f,  0.0012952f,
       -0.0751528f, 0.1047149f,  -0.1100590f, -0.0483864f, 0.0354785f, 0.1164662f, -0.1261639f, 0.1348261f,
       -0.1565430f, -0.1342163f, 0.1241429f,  -0.1701130f, 0.0505369f, 0.0506768f, 0.1469336f,  -0.0504580f,
       -0.0261352f, 0.1425342f,  -0.1488548f, -0.1018268f, 0.0217699f, 0.0321141f, 0.0187269f,  0.1006197f},
      {0.0581828f,  0.0083054f, -0.0623249f, -0.1568017f, -0.0044982f, 0.1604076f,  0.1405918f,  0.0332492f,
       -0.0040327f, 0.0260037f, -0.0858641f, 0.0450244f,  -0.1112231f, -0.1850785f, -0.0310570f, 0.1344618f,
       -0.0833118f, 0.0872994f, 0.0862849f,  0.0698878f,  -0.1663766f, -0.0883490f, 0.0587031f,  -0.0068560f,
       0.0183853f,  0.0409586f, -0.1563427f, -0.1300023f, -0.0833878f, 0.0393882f,  -0.1517425f, 0.1905579f},
      {-0.0105888f, -0.0359400f, -0.0662419f, -0.0525329f, -0.1245738f, -0.0252024f, 0.1044776f, -0.1439083f,
       -0.1397033f, 0.0268216f,  0.0996966f,  -0.1689727f, -0.0572345f, -0.0137411f, 0.1146474f, -0.0486724f,
       -0.1129723f, 0.0142435f,  -0.0711733f, 0.0055353f,  0.1178116f,  -0.0751323f, 0.0925592f, 0.1395984f,
       0.0687545f,  -0.1148474f, -0.1527469f, 0.1085327f,  -0.1408108f, 0.0626017f,  0.0322567f, -0.1185656f},
      {-0.0616449f, -0.2768916f, -0.1903206f, -1.4684639f, 0.7393789f,  0.5757924f,  -0.0320345f, 0.1142233f,
       1.9607438f,  -2.0961666f, -0.0645055f, -0.2467673f, 0.7991060f,  0.5071773f,  0.3310998f,  -0.5906823f,
       0.9394053f,  -0.4992013f, -0.0967024f, 0.5670931f,  -3.1813753f, 1.5154719f,  0.2798766f,  -0.7679281f,
       0.6440665f,  0.4251575f,  -0.4498720f, 1.2320246f,  0.4840810f,  -0.0158344f, 1.2576532f,  0.0791348f},
      {-0.2371830f, -2.3154552f, 0.0659348f,  -0.7068725f, 2.8287525f,  -1.4870337f, 1.1435295f,  -2.0182414f,
       1.3930320f,  -0.8739476f, 0.0025771f,  -4.4488616f, -0.3113866f, -1.6461250f, 0.1198378f,  0.5481110f,
       -0.5857925f, 1.8021194f,  -0.1077283f, -0.3655838f, -0.3583823f, 0.9650161f,  0.3163467f,  -2.7661369f,
       3.5733418f,  -4.1255713f, -0.5782636f, 1.4027822f,  -0.5942672f, -0.0400398f, -0.4817412f, -0.1554746f},
      {0.0267188f,  0.1472149f,  0.1171093f, 0.0131762f,  -0.0963837f, -0.0960739f, 0.0605131f,  0.0672492f,
       0.0621788f,  0.0172113f,  0.0159263f, -0.0863194f, 0.1753555f,  -0.0553561f, 0.0528857f,  -0.0688529f,
       0.0738111f,  -0.0327665f, 0.0703167f, 0.0144761f,  -0.1334120f, -0.1023911f, 0.0954639f,  0.1466926f,
       -0.0742149f, -0.2096923f, 0.1457162f, -0.0071919f, -0.1979382f, 0.0651093f,  -0.1156683f, -0.0289396f},
      {-0.0930825f,  2.7497573f,  -0.1190834f, 3.1498337f,  -5.4636035f, -3.6965983f, -7.2817636f, 0.1879606f,
       -41.8960075f, 1.6407560f,  -0.1897764f, -0.6252139f, -6.5178833f, 0.4058069f,  -1.1401601f, -3.7781706f,
       -0.5142835f,  -1.7980399f, -0.2250358f, -1.6701270f, -0.8560384f, 1.3409386f,  0.2060357f,  0.8312316f,
       -0.8999463f,  -1.1264447f, -3.8283455f, 4.5693321f,  -0.8815347f, -0.0461538f, -1.8868635f, 0.0233895f},
      {-0.0254643f, -0.2456694f, 0.0112244f,  -1.6344863f, 0.7171918f,  0.4758870f,  0.0128122f,  0.4956898f,
       0.9284444f,  3.5852571f,  -0.0105351f, 0.2044872f,  -0.4449809f, 0.6485067f,  -0.2353945f, 0.4333732f,
       0.5076639f,  0.7069812f,  -0.1199239f, 3.4355392f,  1.8714507f,  -1.6531618f, 0.2028038f,  -0.2050015f,
       -2.0348251f, -0.5165340f, -0.4842049f, 0.7665454f,  -1.8927847f, 0.1280489f,  -1.1658711f, -0.2714173f},
      {-0.0399839f, 0.0341354f,  0.1373511f,  0.1208495f,  0.1764181f,  0.1027106f,  0.0139309f,  0.0000934f,
       0.0793573f,  0.1050176f,  0.0847557f,  -0.1738600f, -0.1632235f, -0.0345827f, -0.0336188f, -0.0894502f,
       0.1473832f,  -0.0178745f, -0.0957629f, 0.1626264f,  -0.1466897f, -0.0415916f, 0.0369748f,  0.1178490f,
       -0.0766848f, -0.1115788f, 0.1322618f,  -0.1043858f, -0.0035457f, 0.1093288f,  -0.1411241f, -0.1404708f},
      {-0.1854749f, 0.2332051f,  0.0142491f,  -2.3700833f, -0.7297879f, 1.4810269f,  0.6631292f,  -0.2618052f,
       -0.0519697f, -2.1287434f, -0.0534096f, -1.5250167f, -2.2194130f, -1.1210628f, -0.0704572f, 1.5723846f,
       -2.6147709f, -0.2659407f, 0.0986801f,  1.5345973f,  1.1285396f,  0.7964435f,  -1.9282769f, -0.9505357f,
       1.3113728f,  -0.4760752f, 0.4731548f,  -0.9326105f, -2.8676114f, -0.0510669f, 1.5840734f,  -0.0980042f},
      {-0.1050988f, -0.0634210f, 0.0113460f,  0.1079570f,  -0.0355369f, -0.1244372f, 0.1454782f,  0.1275258f,
       -0.1002710f, -0.1040428f, -0.0577000f, -0.0498498f, 0.1234216f,  0.1346405f,  -0.0042595f, -0.1526849f,
       0.0561764f,  -0.1399596f, 0.0647500f,  0.1495917f,  -0.0340780f, -0.1400875f, -0.0004939f, 0.1081544f,
       0.0147151f,  -0.1107513f, 0.1286133f,  -0.0846034f, -0.1351109f, -0.1126453f, 0.1602578f,  0.1068908f},
      {-0.0645537f,  1.4620327f, -0.2131626f,  -1.5153772f, 1.7306415f,  -1.2996380f, 1.7479695f,  0.0389780f,
       -13.0761757f, 0.7444400f, -0.1028714f,  0.1109365f,  3.0571723f,  0.1697755f,  -3.2291136f, -0.5571976f,
       0.6057181f,   0.4943434f, -0.1700166f,  -0.3263772f, -2.5809207f, 2.0604050f,  2.0818813f,  -0.7842596f,
       -0.4359727f,  0.7269007f, -19.0080338f, -4.8484077f, 0.0840766f,  -0.1236566f, 1.1536002f,  -0.1891784f},
      {-0.1053379f, 2.5855937f,  -0.0034031f,  1.3075215f, 1.8139237f,  2.7619236f,   1.3741816f,  -0.3057866f,
       1.1555936f,  2.3181305f,  -0.0203917f,  0.7871627f, 0.0095678f,  -35.7220955f, -2.1185648f, -3.5009408f,
       3.0714982f,  -0.3690506f, -0.2021930f,  0.8404007f, -1.1325912f, 3.0645115f,   2.6156514f,  2.4920449f,
       0.6810590f,  1.0810430f,  -11.0387297f, 1.1066370f, -1.8005834f, -0.0909851f,  -0.8765275f, -0.1480411f},
      {-0.3061853f, -0.0450839f, -0.2420921f, 0.3242803f,  -0.2963234f, 0.1430659f,  -0.8696976f, -0.4827219f,
       -0.1779836f, -1.1751102f, -0.2402992f, -0.1137976f, 0.0319271f,  0.0409637f,  0.5324396f,  -0.2019541f,
       0.1668041f,  -0.0452816f, -0.0743179f, 0.0978369f,  0.6109632f,  -0.2032900f, -0.1573076f, 0.0316668f,
       0.1367901f,  -0.0769027f, 0.4057402f,  -0.4500901f, 0.4276650f,  -0.2511745f, -4.1857929f, -0.0680341f},
      {-0.2209100f, -8.1675043f, -0.0798916f, 1.3042305f,  -2.1060896f, 1.6663760f,  -0.0226037f, -0.1013011f,
       -2.2517917f, -0.3768663f, 0.0835857f,  3.4087205f,  -1.7983662f, 0.4553415f,  -1.1525661f, -1.7228028f,
       3.5401103f,  -2.8683202f, -0.0358301f, 0.8076385f,  1.7075087f,  -2.4874330f, -0.5596103f, 3.1714146f,
       0.6188798f,  1.8561002f,  0.4245262f,  -1.1617934f, -1.9475504f, -0.1431652f, 2.0053246f,  -0.1871798f},
      {0.0799005f,  -6.2747231f, -0.2216801f, -2.1702421f, 0.5955074f,  -5.4047022f, -0.1615695f, 0.6704233f,
       -1.2148817f, 1.5260140f,  -0.0031261f, 0.7110471f,  0.6897979f,  0.0936803f,  -0.5047514f, -12.3537769f,
       -0.3537881f, -1.8653982f, -0.1296811f, -0.4514565f, -0.8021814f, -1.2523384f, 0.2515626f,  -1.3081485f,
       0.4257879f,  -0.6806214f, -0.1759535f, 0.6407157f,  2.5305240f,  0.0337671f,  -0.9686838f, -0.1655850f},
      {0.0276195f,  -0.7079800f, -0.1488365f, -0.7085150f, 2.4568872f,  0.2865292f,  2.4572611f,  -0.4519401f,
       -0.2404386f, -3.3636580f, -0.0338808f, -0.2765455f, -2.7908537f, -1.1151673f, -3.2548349f, 1.1693882f,
       2.0604150f,  1.6162547f,  0.0570775f,  0.0519216f,  0.5119608f,  -5.6480942f, 3.6031494f,  0.7082488f,
       2.2529795f,  -0.5755036f, -2.6745279f, -1.2927903f, -3.2897384f, -0.0452644f, -2.0950541f, -0.0894699f},
      {0.0474008f,  -5.4357152f, -0.0838030f, -3.3223593f, -0.2659298f, -0.6938555f, 0.7269500f, 0.3763280f,
       -1.0810798f, 0.9735277f,  -0.0424511f, -3.5321276f, -0.0742468f, -0.2234111f, 0.5193695f, -11.8383675f,
       -0.5924429f, 1.7263104f,  0.0130047f,  -0.8834259f, -0.3258343f, 0.5056457f,  0.9033841f, -3.1668262f,
       -0.2274388f, 1.6848999f,  0.6397656f,  -0.3692800f, 0.7125325f,  -0.1286803f, 0.0181540f, 0.0611432f},
      {0.0274283f,  0.0820434f, 0.0674342f,  0.0834278f,  -0.0752795f, -0.1031354f, -0.0043153f, 0.1462454f,
       -0.1203901f, 0.1714665f, 0.1017469f,  -0.1357527f, 0.1481736f,  -0.0884008f, 0.0075998f,  0.1671228f,
       -0.1217995f, 0.0822211f, -0.0496733f, -0.0063024f, 0.0928707f,  0.0010889f,  0.0448736f,  -0.0760285f,
       -0.0118336f, 0.1471008f, 0.1140487f,  0.1434141f,  -0.0384953f, -0.0624742f, 0.1294666f,  0.0203458f},
      {0.0437833f,  0.4517324f,  -0.0265911f, -0.7448370f, -1.1023746f, 0.2850976f,  -4.2083740f, -3.0015774f,
       -0.1687244f, 0.8863455f,  -0.1924400f, 1.5948489f,  -2.0788078f, -0.4396971f, 0.6004499f,  0.1898337f,
       1.1785119f,  -0.1249773f, -0.2331415f, -0.4275740f, 1.4677000f,  -0.0354193f, -1.9281821f, -0.2143551f,
       -0.3501137f, -0.1352046f, -1.0639815f, 0.5743641f,  0.1502722f,  -0.0602420f, 0.2928304f,  -0.0668735f},
      {-0.0088300f, 0.1792113f,  -0.0356600f, -0.1064666f, 0.1121886f,  0.0139632f,  0.0374419f,  0.1535159f,
       -0.0984574f, 0.1822229f,  -0.1450384f, -0.1435422f, -0.0301355f, 0.1441671f,  -0.0896132f, 0.1365527f,
       -0.1765524f, 0.1981424f,  0.0824539f,  -0.1047094f, -0.1064510f, -0.0395324f, -0.0451631f, -0.0782033f,
       -0.0377491f, -0.0426547f, 0.0207125f,  0.0031219f,  -0.1681832f, -0.1125621f, 0.1605640f,  0.1671698f},
      {-0.1661347f, -1.7947726f, -0.0990930f, -1.3271704f, -2.1271963f, -1.5002186f, -0.1699677f, 0.1987297f,
       -1.4205151f, -2.1314836f, -0.1877259f, -1.4305218f, 0.2109518f,  5.9876876f,  -0.6863741f, 2.9938309f,
       -4.7762475f, 1.1893284f,  0.1049467f,  -0.0961901f, 0.9517819f,  -1.9049220f, -1.3711810f, -1.8233693f,
       -0.2198893f, -0.2452380f, -3.0375383f, -0.8509157f, 0.4633728f,  -0.1296753f, 1.1010255f,  -0.0070541f},
      {-0.0283711f, 1.4108317f,  -0.0573462f, 0.2534177f,  -1.6337063f, -1.5981447f, -1.9888580f,  1.6141984f,
       1.4977109f,  -0.5720976f, -0.1748777f, 4.1611781f,  0.7636487f,  -3.0719423f, 5.9277487f,   -4.6287670f,
       1.0441372f,  -3.2401621f, -0.2346567f, -2.1590714f, -1.5622159f, 0.1500105f,  -0.7548084f,  -0.1455613f,
       -2.1324000f, -0.2775747f, -0.4590801f, 1.5323097f,  2.1960540f,  -0.1212789f, -13.1480026f, -0.1583319f},
      {-0.1789380f, -0.4212156f, -0.1858713f, 1.0415989f,  0.1659023f, 0.5009070f,  2.0279224f,  1.2093998f,
       -3.2459877f, -0.1759695f, -0.2338364f, -1.4905133f, 2.1421287f, -0.2551387f, 1.1469367f,  -0.5544649f,
       -0.6594246f, 0.5723908f,  -0.0604462f, 1.6475748f,  1.2923623f, -2.4047160f, 0.8576980f,  0.2844906f,
       0.8265983f,  0.8500380f,  -1.4693599f, -1.0480725f, 3.0033269f, 0.0036409f,  -2.5624790f, -0.0200768f},
      {-0.0864302f, -0.0008323f, -0.0350410f, -0.0876761f, -0.1753652f, 0.1405940f,  0.0237300f,  0.0951281f,
       0.0519204f,  -0.0017293f, 0.1738768f,  -0.0640255f, -0.0744197f, -0.1663935f, 0.0383930f,  -0.0583307f,
       -0.0785169f, -0.0653288f, 0.1568661f,  0.0956781f,  0.0787538f,  -0.0153313f, -0.1150811f, -0.1144474f,
       0.0251760f,  -0.1234236f, -0.0137430f, 0.0269349f,  -0.1699129f, -0.1520780f, 0.0988866f,  -0.0536697f},
      {0.1198648f,  -0.1560179f, 0.0379162f,  0.1853835f,  -0.1265551f, 0.1318736f,  0.1109396f,  -0.0676457f,
       -0.0327967f, -0.1215629f, -0.0758884f, -0.0670384f, 0.0903759f,  0.0768038f,  0.0176580f,  0.0929044f,
       -0.0722263f, 0.1304969f,  -0.0616834f, -0.1263936f, 0.1472147f,  -0.0473582f, -0.1224287f, -0.0583707f,
       0.0090993f,  0.0236824f,  -0.0104829f, -0.0390762f, 0.0958128f,  -0.1346430f, 0.1171923f,  -0.0456840f},
      {-0.0419278f, -0.0903210f, 0.0639864f,  -0.0686858f, -0.0559537f, 0.0896565f,  -0.0166440f, 0.1602874f,
       0.0841872f,  0.1107419f,  0.1322872f,  -0.0440133f, 0.0991334f,  0.0272975f,  0.0214392f,  -0.1136467f,
       0.1722114f,  0.1028012f,  -0.0395375f, -0.0029723f, -0.0101598f, -0.1330077f, -0.1345429f, 0.1531370f,
       -0.1680323f, -0.1038799f, 0.0029361f,  -0.1306372f, -0.0412408f, 0.1022878f,  -0.1498451f, -0.1136578f},
      {-0.1106704f, 0.0399375f, 0.1750025f,  -0.0252902f, -0.0909145f, 0.1286373f, 0.0091851f,  -0.1247952f,
       -0.0732902f, 0.0282865f, 0.1519767f,  0.1263193f,  0.1696616f,  0.1584165f, -0.1258906f, -0.0563762f,
       -0.1471500f, 0.0402530f, 0.0732862f,  -0.1368916f, 0.1105385f,  0.1386409f, -0.1130564f, -0.1313033f,
       -0.1304929f, 0.1742861f, -0.0604023f, -0.1482348f, 0.1376653f,  0.1472598f, -0.1155464f, 0.0836751f},
      {-0.1371228f,  0.3769346f,  -0.1750921f,  2.3951128f, -8.7015581f,  5.0393481f,  -34.0902977f, 1.8362627f,
       -15.4926825f, -2.6679811f, -0.0339207f,  0.3922124f, -20.7306290f, 3.7469218f,  -3.9784238f,  0.7446716f,
       -2.7796810f,  2.7214005f,  -0.0188870f,  0.5542189f, 3.5494926f,   -5.5821309f, -5.0983715f,  6.4157391f,
       -3.4202991f,  6.1280012f,  -12.6467037f, 4.6190977f, -1.8047777f,  0.1071751f,  4.3537269f,   -0.0493323f},
      {-0.1062730f, 0.2879210f,  -0.1419014f, 0.2063361f,  -0.2241915f, -0.9414798f, 0.2053088f,  1.5818723f,
       -0.0334353f, -0.0587096f, -0.0499828f, -0.6121799f, 0.7009021f,  0.1889845f,  0.8205200f,  -0.2931977f,
       -1.0797920f, -0.1611653f, -0.1537579f, -1.5886080f, -1.2785207f, 2.1125023f,  0.3811794f,  -0.4120409f,
       -0.6016496f, 0.7426080f,  -0.0229637f, -0.0287326f, 0.9699002f,  -0.1187885f, -0.3109519f, -0.2676630f},
      {-0.0356704f, -0.0498333f, -0.1009347f, 0.0104981f,  0.1449882f, 0.1654971f, -0.1305966f, -0.0914526f,
       -0.0092533f, 0.0497677f,  0.1750280f,  -0.1535115f, 0.1703636f, 0.0273113f, 0.0161431f,  -0.0601778f,
       0.0308729f,  0.1560453f,  0.0159621f,  0.1598819f,  0.1744258f, 0.0826627f, 0.0815629f,  0.0603616f,
       -0.1301979f, -0.1180325f, 0.0689045f,  0.0625230f,  0.1760096f, 0.1147469f, 0.0626491f,  0.1625752f},
  };

  ALPAKA_STATIC_ACC_MEM_GLOBAL const float bias_4[1] = {2.5752664f};

  ALPAKA_STATIC_ACC_MEM_GLOBAL const float wgtT_4[32][1] = {
      {0.0445610f},  {0.9400874f},  {0.0284616f},  {-1.1234547f}, {0.9873159f},  {-1.0511011f}, {1.0992576f},
      {-0.9526957f}, {0.8542662f},  {-0.6307967f}, {0.0380928f},  {-1.1321036f}, {0.9610763f},  {2.1356270f},
      {0.7584798f},  {1.0503004f},  {-1.2645963f}, {-0.5196714f}, {-0.0000100f}, {-0.3384131f}, {1.0115585f},
      {-0.4027108f}, {-0.5821896f}, {1.3721924f},  {-0.6215022f}, {-0.5712340f}, {3.0607727f},  {-0.5541792f},
      {-0.7028642f}, {0.0226967f},  {-0.8412103f}, {0.0692040f},
  };
}  //namespace lst::t5dnn

#endif
