#ifndef RecoTracker_LSTCore_src_alpaka_NeuralNetworkWeights_h
#define RecoTracker_LSTCore_src_alpaka_NeuralNetworkWeights_h

#include <alpaka/alpaka.hpp>

namespace lst::t5dnn {
  ALPAKA_STATIC_ACC_MEM_GLOBAL const float bias_layer1[32] = {
      -1.3837075f, -0.0653152f, -0.7900129f, 0.0714758f,  -1.1574365f, -1.4634879f, -0.9317133f, -0.1455518f,
      -0.0459635f, -0.2055620f, 0.0586231f,  -0.8943899f, -0.1009487f, 0.0166031f,  -0.5451909f, -0.1384538f,
      1.2664700f,  -1.8996916f, -0.0025585f, -0.1647783f, -1.9019107f, 0.0707104f,  -0.2373025f, 0.0357050f,
      -0.0048417f, 2.3127339f,  -0.0508943f, -0.1116435f, -0.1610904f, -1.6463890f, -1.0739423f, -0.0962902f};

  ALPAKA_STATIC_ACC_MEM_GLOBAL const float wgtT_layer1[23][32] = {
      {-0.1881404f, -0.0534256f, 1.6563641f,  0.0401664f,  2.8318353f,  1.5049738f,  1.4111555f, -0.2339872f,
       0.0431970f,  0.1220361f,  -0.0450153f, -1.6025578f, 0.0394025f,  -0.3051167f, 1.9442217f, 0.1599094f,
       0.1376955f,  2.4181051f,  -0.0226484f, -0.1801709f, -0.4861264f, -0.0268545f, 0.5463807f, 0.2420150f,
       -0.1238829f, 0.2916382f,  0.1507791f,  0.7952659f,  0.2736979f,  3.2790639f,  1.2062043f, -0.0884467f},
      {-0.0469924f, 0.2013927f,  0.0307775f,  -0.1241788f, -0.0100412f, 0.0422375f,  0.0211071f,  -0.0359304f,
       0.0451861f,  0.0291862f,  -0.2094866f, -0.0013007f, 0.1191471f,  0.0750159f,  0.0184378f,  0.0419437f,
       -0.0207304f, -0.0444109f, 0.0013400f,  -0.0699210f, -0.0668742f, -0.0880825f, -0.0107244f, 0.0363424f,
       0.1391699f,  -0.0112885f, -0.0060098f, -0.0073863f, -0.0566143f, -0.0224207f, 0.0103718f,  -0.0015193f},
      {0.4520382f,  0.1227609f,  -1.3887709f, -0.0542129f, -3.2003114f, -0.8354173f, -1.3173198f, 0.3292131f,
       -0.1657729f, -0.1982902f, 0.1599589f,  -0.0417666f, -0.1461042f, -1.3237997f, -5.3609071f, -0.0981676f,
       0.2922535f,  -1.8692241f, -0.0345302f, 0.1810613f,  0.4473544f,  -0.0159401f, -0.7293931f, -1.4816793f,
       -0.1431545f, -0.0955672f, -0.2370718f, -0.7204540f, 0.8451244f,  -3.4310548f, -1.3518151f, 0.1551731f},
      {0.2670300f,  0.1343590f,  3.0347505f,  -0.1783503f, 2.1586559f,  2.4137778f,  2.0080864f, -0.2545274f,
       -0.1985905f, 0.1653812f,  -0.1714860f, 4.1022782f,  -0.1045471f, 4.4776497f,  3.3737848f, -0.0849546f,
       -6.1899095f, 3.6970129f,  0.0007382f,  0.1675882f,  0.6014717f,  -0.0287709f, 0.0495882f, 2.2192705f,
       -0.1043157f, -4.7508621f, -0.0022774f, 0.3766513f,  -0.7505829f, 1.9759512f,  1.6747239f, -0.1004091f},
      {0.6639504f,  -0.0384022f, -10.0415087f, -0.0032648f, 0.3049855f,  -2.0427964f, -1.1522077f, 0.0935732f,
       0.1232134f,  0.0868663f,  -0.0230848f,  -1.8257296f, -0.0799238f, 6.8892417f,  -1.3941933f, 0.0445172f,
       0.9485117f,  -2.5238073f, -0.0148513f,  0.2256772f,  0.5914315f,  -0.1278037f, 0.1609928f,  11.3438406f,
       -0.0831544f, 0.1928522f,  0.0361467f,   0.0137040f,  4.9549832f,  2.3954937f,  0.3917757f,  0.1206975f},
      {29.6590214f, -0.0836848f, -1.3028307f, -0.1391431f, -0.3703596f,  5.3762760f,  1.8429571f,  21.0697041f,
       -0.1232606f, 0.0066067f,  -0.0308768f, -0.9960231f, 0.1865301f,   -1.2142091f, 0.9273136f,  0.0974103f,
       1.4067870f,  0.7268439f,  0.0035755f,  0.0619486f,  -32.8901024f, -0.1950644f, -0.3978897f, -3.1790049f,
       -0.1371673f, 0.1569460f,  0.0268667f,  -0.4512640f, 0.3055371f,   -0.2241473f, -0.6455348f, 0.1178979f},
      {-2.9178317f, -0.2023720f, -0.2946439f, -0.1851392f, -0.3493766f, -1.5397958f, -1.5902523f, 1.0981250f,
       -0.1796725f, -0.0540953f, 0.0926500f,  2.0021629f,  -0.1277778f, 3.3643394f,  -7.5327554f, -0.0084912f,
       2.7298651f,  0.2535582f,  0.0474618f,  -0.1377846f, -2.2746830f, -0.2016302f, -0.7150622f, 4.4011140f,
       -0.1688751f, -1.2160714f, -0.0055839f, -1.1319760f, -2.2543004f, 0.6365916f,  -1.4942099f, -0.0992425f},
      {-5.9751196f, -0.1597221f, -3.8946304f, 0.0537821f, 0.4741110f,  3.6895070f,  2.5116272f, 1.7058172f,
       -0.0860321f, -0.1519644f, 0.1465356f,  1.4165760f, -0.0984433f, 1.6990343f,  4.0953226f, 0.1742475f,
       -3.2570388f, 3.1653547f,  0.0135764f,  0.0092055f, -5.0966530f, -0.0542810f, 0.4907863f, 0.5900084f,
       -0.1736992f, -4.9153452f, 0.2017547f,  0.2854181f, 3.1490057f,  0.2885774f,  0.9775900f, -0.2207156f},
      {0.3805595f,   0.0308984f,  -9.5846119f, -0.0547350f, 1.9641919f,  2.0823991f,  9.9298115f,  0.0344243f,
       -0.1557834f,  -0.1847700f, -0.1195207f, 4.4698248f,  0.1492174f,  0.4272707f,  4.7265644f,  0.0200772f,
       -14.3444443f, 4.9532328f,  0.0319610f,  -0.0645846f, -0.6238102f, 0.1038110f,  0.2483765f,  -5.1799927f,
       0.0782294f,   16.8777409f, 0.0196593f,  0.8423936f,  -8.5921221f, -0.0184179f, -5.7857180f, -0.0551181f},
      {17.1570740f, 0.0265437f, -1.4766232f, -0.0528512f, 1.0128449f,   3.1529653f,  -0.6560294f, 8.7189465f,
       -0.1728377f, 0.1245629f, 0.1072764f,  0.2649773f,  0.0254132f,   -0.8094708f, 1.8371828f,  0.1586192f,
       1.9410020f,  0.9662392f, -0.0839922f, -0.2894930f, -16.5091496f, -0.1079556f, -0.1204132f, -0.9694697f,
       0.0537786f,  0.2476868f, 0.0076408f,  0.1025890f,  0.1267423f,   0.4956081f,  0.1457323f,  0.1342634f},
      {-0.5389574f, 0.1333421f,  -4.6338782f, -0.0645123f, -0.6526322f, -3.2958410f, -1.2309581f, -1.0803053f,
       -0.1170542f, -0.0169311f, 0.1147491f,  2.9890807f,  -0.1234096f, 0.6792320f,  -3.9311285f, -0.0678321f,
       -2.7922039f, 4.9413238f,  0.1060735f,  -0.1114068f, -2.2443752f, -0.1649915f, -0.3656403f, 2.5320942f,
       -0.0249616f, -4.5098810f, -0.1773834f, -1.9516623f, -1.6839710f, -0.1365123f, 1.0296160f,  -0.0419825f},
      {-2.4413636f, 0.1075683f,  -1.4518708f, 0.0537449f,  0.1154493f,  -0.5463845f, 1.3964951f, 2.6729572f,
       -0.0206257f, 0.1435281f,  -0.1819518f, 0.4540120f,  -0.1910136f, 1.7696143f,  2.3670278f, 0.1324464f,
       -0.5837788f, -2.2784615f, 0.0345478f,  -0.0980538f, -0.4999657f, 0.1178097f,  0.5756868f, -0.1058674f,
       0.1920418f,  -3.5473657f, 0.2146371f,  0.2557987f,  1.3935618f,  0.3242345f,  0.2029733f, -0.1844350f},
      {-0.9069599f, -0.2032758f,  -0.5786582f, 0.1395915f,  3.9338124f,  -1.6806563f,  0.4269728f,  -0.3697720f,
       -0.0306356f, -0.0341866f,  -0.0635755f, 1.8898975f,  0.1968578f,  -17.2182655f, 1.4839698f,  -0.0541308f,
       15.9838457f, 18.5951862f,  0.0078872f,  -0.1186571f, -2.4982276f, 0.0033835f,   0.3749593f,  -15.0238085f,
       0.0595601f,  -16.8588371f, 0.1146287f,  0.1274172f,  19.3332062f, -7.0513921f,  -5.4852023f, 0.1681230f},
      {-5.1457887f, 0.0335570f,  1.8620163f, 0.0560381f,  -0.6397949f, -4.0867515f, 1.3578068f,  -23.9992580f,
       -0.1034287f, 0.1437906f,  0.1076568f, -0.6930848f, -0.1176134f, 2.2855785f,  -0.8021089f, 0.0424611f,
       -0.6139123f, -3.1381547f, 0.0188163f, -0.1728741f, 0.6676420f,  -0.1124282f, 0.1077818f,  2.3839712f,
       0.1340676f,  1.3538554f,  0.0421035f, 0.4513423f,  -0.1543196f, 0.5120541f,  -0.8940096f, -0.1175765f},
      {2.1656792f,  0.1638565f,  4.5302448f,  0.0741160f,  3.3850696f,  -4.8867540f, 2.8059542f,  -0.0023008f,
       -0.1248942f, -0.0075225f, -0.0082212f, -1.0955724f, -0.1462416f, -1.7098176f, -4.1775723f, 0.1950609f,
       3.6847639f,  1.6520064f,  0.0310502f,  -0.0430167f, 3.4527576f,  0.1453262f,  -1.0126116f, 1.8785841f,
       -0.0615105f, 1.0451943f,  -0.2653875f, -1.2223006f, -1.0100641f, 1.2076828f,  0.4882897f,  -0.0618375f},
      {2.4578559f,  -0.1464199f, -1.3086185f, 0.1208716f, -0.2079897f, -2.7138259f, -1.4107026f, -0.4483974f,
       -0.1599056f, 0.0242936f,  0.1326804f,  0.8664415f, 0.0588684f,  0.7366717f,  2.3159802f,  -0.1917707f,
       -2.0800066f, -7.5100355f, 0.0585225f,  0.1582773f, 1.8128076f,  -0.0756957f, 0.8521049f,  0.5539182f,
       -0.1738797f, -0.2020151f, 0.2219591f,  0.1088298f, -1.9535940f, 2.4130275f,  -0.0741222f, 0.1156681f},
      {-0.4152933f, -0.0679605f, -0.5760314f, -0.0201883f, -14.1784763f, 0.7755737f,   -19.5469246f, 0.0381304f,
       0.0160074f,  0.1124380f,  -0.0478151f, -2.3719466f, 0.0819727f,   -12.5069208f, 2.0468810f,   0.0964909f,
       7.8784809f,  -6.3555703f, -0.0429914f, -0.0162720f, -0.9493829f,  0.0296786f,   -0.0244959f,  -12.6325788f,
       -0.1871653f, -9.8338795f, 0.0391840f,  -0.1199073f, -11.7859421f, 8.7398720f,   19.4971046f,  -0.1954873f},
      {-4.8962007f, -0.1695992f, 0.7760146f,  -0.0199836f, -0.0576061f, -6.0196476f, -2.3023551f, -20.0125084f,
       -0.1957836f, -0.0993785f, 0.1109372f,  -0.0710161f, -0.0553650f, 0.2546394f,  -1.7578228f, 0.1498791f,
       -2.6269529f, 1.3973731f,  0.0464059f,  -0.2307575f, 1.6730053f,  -0.0038867f, 0.1040150f,  2.6721606f,
       0.2027777f,  -1.2358316f, -0.0587254f, 0.0610504f,  -0.1700777f, -0.4323797f, 1.0359807f,  -0.0127435f},
      {1.1245984f,  -0.1806923f, -1.5868790f, 0.1536594f,  1.6837788f, -1.6474472f, -3.9225550f, 0.4506312f,
       0.1854908f,  -0.1023232f, -0.0306957f, -0.8615071f, 0.0945480f, 2.0585704f,  0.6044773f,  0.1269336f,
       2.4720187f,  -4.5123949f, -0.0657749f, 0.1738364f,  2.4188614f, 0.0038840f,  -0.2019601f, -0.3842189f,
       -0.0493631f, 3.6777370f,  -0.1003436f, 0.6174496f,  1.0476112f, 2.7601521f,  0.9059890f,  -0.1691816f},
      {1.9658293f,  0.2083382f,  1.7833723f, 0.0662620f,  -0.3932888f, -1.0642430f, 0.1807114f,  -1.1486723f,
       -0.0177136f, -0.1706942f, 0.1730027f, 0.6712329f,  0.0485299f,  0.6379296f,  -0.2880911f, -0.1993632f,
       -0.9471832f, 1.9425983f,  0.0328524f, 0.0777725f,  0.6454380f,  0.0143852f,  0.0192997f,  1.6793132f,
       -0.1872064f, -1.5757623f, 0.0242778f, -0.5992475f, 2.2148299f,  -3.5215647f, -2.9748621f, 0.0112703f},
      {0.3737165f,  0.0361593f,  -0.1075856f, -0.0312021f, -0.0786010f, 1.3149793f,  0.0237401f,  -0.0819654f,
       -0.1388431f, -0.0306386f, -0.0704427f, -2.3997226f, -0.1392045f, 0.7729424f,  0.1253861f,  -0.0819755f,
       -0.7590774f, -0.3295609f, -0.0172208f, -0.0551179f, 0.4599459f,  -0.1143881f, 2.7430685f,  0.3621114f,
       -0.1475701f, 0.2296079f,  -2.2224922f, -0.9080986f, 0.2101683f,  0.1190262f,  -2.2205217f, -0.0811555f},
      {0.3946800f, -0.1204188f, 0.0543225f,  -0.0392627f, 1.9454094f,  0.1865290f,  1.5276426f,  -0.0342965f,
       0.0117116f, -0.1873923f, -0.1045035f, 1.8535231f,  -0.0207077f, 0.0981549f,  -0.0327459f, -0.1486938f,
       0.6359531f, -0.1314566f, -2.1469448f, -0.1665767f, 0.5134121f,  -0.0341647f, -2.1786075f, -0.5976576f,
       0.0111857f, 0.3272055f,  2.1917374f,  -1.6247722f, 1.6025572f,  -1.9965295f, 0.3347488f,  0.1113990f},
      {0.0340557f,  -0.1659652f, -0.0042457f, 0.0010229f,  -2.1550148f, -0.4728722f, -1.3667214f, 0.2625635f,
       -0.0302200f, -0.0322885f, 0.0227866f,  0.6977839f,  0.0050141f,  -1.6183628f, 0.0869662f,  -0.0775411f,
       0.4754244f,  0.4596581f,  2.1509945f,  -0.0313832f, 0.0336208f,  -0.1547154f, -0.6017126f, 0.0369996f,
       -0.1102583f, -0.5788267f, 0.0017006f,  2.6352038f,  -1.7847317f, 1.7510574f,  2.1478791f,  -0.2251654f},
  };

  ALPAKA_STATIC_ACC_MEM_GLOBAL const float bias_layer2[32] = {
      -0.2689391f, 1.5461178f,  -0.2424639f, 0.4424149f,  -0.0411816f, -4.1070848f, 1.4709516f,  -0.2439820f,
      -0.1750926f, 2.8802166f,  -0.1573734f, -1.3724055f, 0.3671952f,  1.8267332f,  1.5655776f,  -0.7323843f,
      1.6318209f,  2.2198663f,  -1.5951139f, -0.0870247f, 0.2806863f,  -0.2407108f, 0.1310665f,  -0.5246177f,
      0.1914421f,  -0.3386542f, -0.6310596f, 3.2995102f,  0.7519229f,  -0.1565450f, -0.1496341f, 1.0073272f};

  ALPAKA_STATIC_ACC_MEM_GLOBAL const float wgtT_layer2[32][32] = {
      {-0.1731049f, 1.7775618f,  -0.2532010f, -0.2902778f, -0.1392802f, 4.2428946f,  -0.1866968f, -0.1800365f,
       -0.0634398f, 0.0763313f,  0.0472901f,  -0.8030146f, 0.3161853f,  -1.0713238f, -4.6514492f, -0.3908085f,
       1.1607268f,  0.8834935f,  -0.1194544f, -0.0785166f, 0.4967587f,  -0.0558136f, -0.9601135f, -0.1001592f,
       3.4427991f,  -0.2144053f, -0.3632556f, 0.0117088f,  0.1742481f,  -0.2540179f, -0.1705156f, -0.2627344f},
      {-0.1478276f, -0.1659575f, 0.1602777f,  -0.0758106f, 0.1067696f,  -0.0247068f, -0.1123443f, -0.1724832f,
       -0.0013103f, -0.0685904f, 0.1537329f,  0.1042632f,  -0.0360880f, -0.0679077f, 0.0672719f,  0.1597116f,
       -0.0150259f, 0.0367102f,  -0.0545881f, -0.0693004f, -0.1008447f, -0.0672846f, -0.1395939f, -0.0324785f,
       -0.1051702f, -0.0530534f, -0.1019061f, -0.0921245f, 0.1195077f,  0.0453448f,  0.0257045f,  -0.0622537f},
      {-0.0363173f, -0.1990481f, -0.0452148f, 0.4074381f,  -0.0731660f, -0.0823270f, 0.3154473f,  -0.1909118f,
       -0.0165690f, 0.1325824f,  -0.0760181f, 0.7768906f,  -0.2702211f, -0.6023573f, 1.5904741f,  0.2384946f,
       0.7610655f,  -2.8705251f, 0.5754877f,  -0.1587478f, -0.5708794f, -0.3421216f, 0.5023443f,  1.2806857f,
       0.2158970f,  -0.1364033f, -0.3398291f, 0.9066412f,  -1.2935438f, 0.0273695f,  -0.1850613f, -0.9301611f},
      {-0.1281746f, 0.1695392f,  0.0805936f,  -0.0598281f, 0.1266985f,  -0.1697189f, -0.1091505f, -0.1569477f,
       0.0363969f,  -0.0628394f, 0.0107523f,  0.0659535f,  -0.0568244f, -0.1299786f, 0.0005438f,  -0.0806242f,
       -0.0806848f, -0.0919798f, -0.0748445f, 0.0792912f,  0.0022868f,  0.0211520f,  -0.0183716f, 0.1279848f,
       -0.1518286f, -0.0113527f, 0.0824359f,  -0.0178597f, 0.0272009f,  0.0288935f,  0.0123459f,  0.1685353f},
      {0.1099675f, -0.3914332f, -0.0647218f, -0.8259028f, -0.0283726f, -0.0860217f, -2.0489185f, 0.1042144f,
       0.1024824f, 0.0735443f,  -0.1235109f, -3.3674469f, -0.1799957f, -7.1867313f, 1.6053666f,  -0.5203959f,
       0.8686391f, -0.0675404f, -2.8893898f, -0.0796400f, 1.2672142f,  -0.0371844f, -1.8065344f, -2.2551982f,
       0.0355568f, 0.0672171f,  0.7150316f,  1.3620002f,  -0.4106106f, 0.0126076f,  0.0408083f,  1.5958146f},
      {0.0525989f,  1.8947815f,  -0.2513640f, -0.3715420f, -0.1752283f, 1.3911799f,  -0.7633898f, -0.1716654f,
       -0.0145629f, -1.7601604f, -0.1943324f, -0.5716376f, -0.8281464f, -0.0308049f, -1.4709659f, -0.4294116f,
       -0.1030817f, -0.1823493f, 0.7561242f,  -0.1608112f, 0.3980689f,  -0.2464017f, -1.3065518f, 0.0875702f,
       -0.1504322f, -0.0352198f, -0.4051513f, 0.7010455f,  -0.2363433f, -0.1118084f, -0.1329087f, -0.3257700f},
      {-0.1209070f, 0.1677164f,  -0.1353413f, -0.0410048f, -0.1432644f, 0.2649301f,  0.2247741f,  -0.0425357f,
       -0.2644008f, 1.4204332f,  -0.2540753f, 0.2481354f,  1.9494507f,  -0.2003033f, -0.5938342f, -0.3314930f,
       1.5038266f,  -2.4000788f, -1.6202501f, -0.0256936f, -0.2890913f, -0.2113032f, 0.9030544f,  1.1483711f,
       0.0545346f,  -0.1961582f, -0.2267976f, 0.2372836f,  2.5995049f,  -0.1469661f, -0.1017130f, 1.6176132f},
      {0.0542207f,  2.7658713f, -0.1700335f, -0.3357265f, -0.1097085f, 1.6508883f,  0.0132292f,  0.1211861f,
       -0.0852982f, 0.9232512f, 0.0202751f,  0.3138782f,  0.2674713f,  0.1247260f,  0.3859081f,  0.3961721f,
       1.0556988f,  0.8574673f, -0.1462571f, -0.1600272f, 0.4117427f,  -0.1561815f, 0.0553897f,  -0.2753994f,
       5.8420453f,  0.0883128f, 0.3594444f,  -0.7174141f, 0.5683901f,  0.0096710f,  -0.0957449f, -0.0195320f},
      {0.1561092f,  -0.0417566f, -0.1044470f, 0.1186895f,  -0.1195878f, 0.0446987f,  -0.1386125f, -0.0103878f,
       0.1173026f,  0.1349312f,  -0.0676422f, -0.1452308f, 0.0093872f,  0.0069650f,  0.1739093f,  -0.1592752f,
       -0.1329019f, -0.0459163f, -0.1511888f, -0.0040456f, 0.0065862f,  0.0106182f,  0.0318060f,  0.1003269f,
       0.0249398f,  0.1661194f,  -0.0286407f, -0.1062361f, 0.0026465f,  -0.0091479f, -0.1493473f, 0.0519762f},
      {-0.0702637f, 0.1154817f,  -0.0680643f, 0.1447217f,  0.1394082f,  -0.0691432f, 0.0939426f,  0.0483852f,
       0.1437123f,  -0.1085759f, 0.0333924f,  -0.0683726f, 0.0707103f,  -0.0723069f, 0.0124601f,  -0.0309495f,
       -0.0308395f, -0.0695953f, -0.1078720f, 0.0858701f,  -0.0773453f, 0.0477413f,  0.0615588f,  0.1656474f,
       0.1718751f,  -0.1125762f, 0.1753366f,  -0.0557704f, 0.0921221f,  0.0372290f,  -0.1084552f, -0.0438967f},
      {-0.0557757f, 0.0694144f,  0.1150911f, -0.0202319f, 0.0661389f,  -0.0928373f, 0.0441888f,  -0.0028318f,
       -0.0039446f, 0.0294675f,  0.1353384f, 0.0427515f,  0.0695194f,  0.1329748f,  0.1339706f,  0.0713900f,
       -0.1384726f, 0.0925476f,  0.1581103f, 0.0100842f,  -0.1248652f, -0.0173615f, 0.1637451f,  -0.0025173f,
       -0.0331219f, -0.0335269f, 0.0949441f, 0.0538645f,  0.0834281f,  0.0137191f,  -0.1360130f, 0.0074489f},
      {-0.0949665f, -0.2181539f, 0.0871969f,  3.0772011f,  -0.1152011f, -0.0022047f, 1.2700632f,  -0.1173392f,
       -0.1678371f, -1.3448639f, -0.2893313f, 1.5105180f,  -0.6029126f, -1.1568675f, 1.4823192f,  0.1635401f,
       -2.2136483f, -1.4164798f, -0.4795305f, -0.0807557f, -1.6675406f, -0.0992591f, 2.1212378f,  -0.9400231f,
       -0.5339298f, -0.0342672f, -2.3564072f, 1.3407421f,  -3.8635128f, -0.1171367f, -0.0364181f, -3.2491686f},
      {-0.1047117f, -0.0540412f, -0.1137928f, 0.1582367f,  -0.0982449f, 0.0511854f,  -0.0805884f, -0.1141258f,
       0.0931992f,  -0.0227052f, 0.0780590f,  -0.1288135f, -0.1186576f, -0.0754066f, -0.1234059f, -0.0091936f,
       0.0205475f,  0.1640417f,  -0.1527465f, 0.0068472f,  -0.1239804f, -0.0448335f, -0.0061169f, -0.0078998f,
       0.0253047f,  0.0712901f,  0.0024753f,  -0.0259875f, -0.1238613f, 0.1096537f,  -0.0953007f, 0.1385384f},
      {0.0521762f,  1.4885306f,  -0.1298001f, 2.3033395f,  -0.1589162f, -0.8458843f, 0.0631668f,  -0.1424429f,
       -0.0384785f, 0.5599840f,  0.0008631f,  -1.5839294f, 1.9202064f,  0.6930331f,  0.4948464f,  -0.6195241f,
       -3.0526664f, 3.1423819f,  -1.3433597f, -0.1167206f, -1.3491610f, -0.0901343f, -1.2291449f, 3.5039587f,
       0.4674770f,  -0.3027362f, 0.8279622f,  0.3417586f,  0.1367343f,  -0.1085793f, -0.1048759f, 1.2729272f},
      {-0.0029521f, 0.2439991f,  -0.0858953f, -2.7804739f, -0.0220416f, 0.0256599f,  -0.3304259f, -0.0586597f,
       -0.0459698f, 0.1670698f,  -0.1359344f, -0.3957845f, -1.6954739f, 0.3318155f,  0.9375985f,  0.5211958f,
       0.6071047f,  -3.4249072f, 1.3199407f,  0.0136374f,  1.2692807f,  0.0233104f,  -0.0731508f, 2.2171400f,
       -0.6052189f, -0.0698463f, 1.6376522f,  -1.1908000f, -0.1706121f, -0.0380146f, 0.0144418f,  1.5177792f},
      {-0.0314772f, 0.0523589f,  -0.0517322f, -0.0100344f, 0.0714635f,  -0.1646974f, 0.0800682f,  0.1132821f,
       -0.0028872f, -0.1239987f, -0.1322138f, -0.1059789f, 0.1752418f,  0.0475279f,  -0.0046871f, 0.1574167f,
       -0.0231106f, -0.0261228f, 0.0236005f,  0.1663371f,  0.1059707f,  0.1229704f,  0.1427562f,  -0.1648343f,
       0.0992667f,  -0.0631751f, -0.1411413f, -0.0999486f, -0.0972435f, -0.1422556f, 0.0973614f,  -0.0156000f},
      {-0.1309903f, -0.5060971f, -0.1911870f, 2.2349114f,  0.1010354f,  0.5538697f,  1.8757060f,  -0.1538645f,
       -0.2073075f, -1.8350753f, 0.0532570f,  1.8151909f,  -0.6800886f, 0.2615838f,  -0.6204563f, -0.1238837f,
       -0.4772464f, -2.4070835f, -0.2783994f, -0.0211087f, -4.4925098f, -0.0790045f, 1.3566529f,  -0.3650998f,
       -0.4658130f, -0.0479139f, -1.9361999f, 2.1485121f,  -3.1108823f, -0.0020647f, -0.0489678f, -0.4781263f},
      {-0.0099352f, -1.9572417f, 0.0918592f,  0.7327217f,  -0.0609625f, -0.1969659f, 0.1922992f,  -0.1091586f,
       -0.2125459f, -1.9542989f, -0.1648019f, -0.9355955f, 0.9144324f,  -5.0530005f, -0.2265045f, -0.5638458f,
       4.4370432f,  -2.0318019f, -1.5679311f, 0.0221776f,  -0.4063498f, -0.1160609f, 0.9651156f,  -0.2401051f,
       0.1903293f,  -0.2355373f, 0.2334733f,  0.1025979f,  0.7150746f,  0.0315593f,  -0.0001765f, 0.0137871f},
      {0.0320691f,  -1.8876421f, -0.1241799f,  -3.1652985f, -0.1528286f, 2.1882250f,  -2.5907574f, 0.0210803f,
       -0.1545521f, 0.7706368f,  -0.1652040f,  -4.1518817f, 4.2974262f,  0.3074523f,  3.3711803f,  -37.9055862f,
       1.0623894f,  0.4360786f,  -2.6417589f,  0.1113010f,  3.8902094f,  -0.1616735f, 0.5595753f,  1.5364015f,
       -2.4740698f, -0.0240434f, -28.0232792f, 0.6092473f,  1.6978041f,  -0.0458809f, 0.0664777f,  0.2603019f},
      {0.1044999f,  0.0054908f,  0.1407564f,  -0.1701076f, -0.1274551f, 0.0443607f,  0.1182709f,  -0.1103420f,
       -0.1343671f, -0.0042888f, -0.1611361f, 0.0154269f,  0.2285106f,  0.0870507f,  0.0914433f,  0.0657276f,
       -0.1664300f, -0.0342912f, 0.1037545f,  -0.1175308f, 0.1135652f,  0.1325845f,  -0.1459545f, -0.2156865f,
       -0.1673723f, -0.1156510f, 0.0179541f,  0.0541515f,  0.0957617f,  -0.1297485f, 0.1045326f,  0.2950188f},
      {-0.1401742f, -2.8181052f, -0.0588381f, -0.1517100f, -0.0608850f, -3.5837226f, -0.1528927f, -0.0211265f,
       0.0881796f,  -0.4448619f, -0.1457623f, -0.8828475f, 0.1261238f,  -1.0495204f, -3.7918513f, -0.4645159f,
       -0.0800092f, 0.0624971f,  0.1528609f,  -0.1069645f, 0.4319421f,  0.0651448f,  -0.6571375f, -0.0323338f,
       -4.6534319f, -0.0538999f, -0.2221518f, 0.0972160f,  0.1496329f,  0.0570569f,  -0.1125795f, -0.0153687f},
      {-0.1065502f, 0.0606179f,  -0.1400291f, -0.0220975f, -0.0613350f, -0.0038843f, -0.0132201f, 0.1678067f,
       0.1008587f,  -0.1255144f, -0.0675021f, -0.0475353f, 0.0278098f,  0.0527470f,  -0.0089845f, -0.0622052f,
       0.1088723f,  0.0053812f,  0.0627310f,  -0.0226460f, -0.1096366f, -0.0505830f, -0.0301058f, -0.0775778f,
       -0.0008928f, -0.1157909f, 0.0544982f,  0.0430219f,  -0.0134386f, -0.1095094f, 0.1215172f,  0.0081556f},
      {-0.1747307f, -0.7465636f,  -0.0497346f, -2.0686443f, 0.0190713f,  -2.9156351f, -5.4731860f, -0.0728399f,
       -0.0845178f, -14.8429976f, -0.1068359f, 1.8549156f,  -3.1135283f, -0.0907917f, -0.0262453f, -8.8010912f,
       -4.3007965f, -1.6772208f,  -0.2576891f, -0.0163111f, -7.8583646f, 0.0697906f,  -0.0943863f, -0.7450574f,
       1.1493169f,  0.0921000f,   -0.2395420f, 0.5794312f,  -4.2405462f, -0.0910322f, -0.1381017f, -1.0270567f},
      {-0.0446755f, -0.8131990f, -0.1741483f, -1.7555307f, 0.0153283f,  0.0734032f,  -0.5930048f, -0.0398877f,
       -0.0215982f, 0.0497884f,  -0.0504920f, 0.0942539f,  -1.1370168f, -0.8821361f, -0.0879569f, 0.3811991f,
       1.2224945f,  0.3782545f,  1.4800016f,  0.0494110f,  1.7101970f,  -0.2885793f, -0.1778114f, -1.3913733f,
       -0.0944610f, -0.3578439f, 0.3491475f,  -3.0349872f, 0.8044587f,  0.0928676f,  -0.0395946f, 0.2008810f},
      {0.0721043f,  -0.1181163f, 0.0108281f,  -0.1215726f, 0.1285277f, 0.0851443f,  0.0791321f,  0.1765833f,
       -0.0324889f, -0.0150838f, -0.0051942f, 0.1685798f,  0.1521861f, 0.0283858f,  0.0326072f,  0.0346215f,
       -0.1081120f, -0.0745824f, -0.1762613f, 0.0901582f,  0.1335704f, 0.1599123f,  -0.0097813f, 0.0364541f,
       -0.0391450f, -0.0079635f, 0.1014886f,  0.0130333f,  0.0438304f, -0.0074333f, 0.0845035f,  -0.0471010f},
      {0.0360538f,  -0.9701002f, -0.2217611f, -1.1626705f, 0.0548465f,  0.6605385f,  -0.6693703f, -0.1432099f,
       -0.0754442f, -0.2380328f, -0.0754142f, -2.3242903f, 3.5773275f,  0.0707042f,  0.2052065f,  -1.3753067f,
       -0.8530636f, 3.1850073f,  -0.2901604f, -0.1291050f, -4.4672642f, -0.2425279f, 0.1252670f,  0.4261391f,
       -0.8620862f, 0.1153403f,  -0.1999598f, -4.7756801f, 2.8851914f,  -0.1340472f, 0.0482952f,  1.7996837f},
      {-0.1654812f, 0.9604513f,  0.1770310f,   -16.5736618f, -0.0350192f, -0.5557595f, -35.3047371f, -0.1299658f,
       0.0065243f,  -3.0823336f, 0.0351931f,   4.9456911f,   -1.4382623f, -1.6900688f, -1.9084880f,  -3.1811504f,
       -8.0212736f, -7.3994560f, 4.9219728f,   0.0433824f,   0.6197430f,  0.0308996f,  5.2004323f,   0.5327767f,
       1.0885966f,  0.1487215f,  -21.4211712f, -1.8733859f,  1.9195696f,  -0.0539309f, -0.0795544f,  -3.1121061f},
      {-0.0058153f, 1.7521383f,  -0.2205407f, 2.6318321f,  -0.0038140f, -1.4131194f, 3.0181022f,  0.0373498f,
       -0.1246315f, -1.8323456f, -0.1470954f, 2.9131169f,  1.1522563f,  0.6036215f,  -3.3962972f, 7.0906253f,
       -1.5353408f, -0.2648884f, 0.5501783f,  -0.2262681f, -2.4874980f, -0.0533402f, 3.0222948f,  0.3296265f,
       1.4057258f,  0.0185255f,  6.1208682f,  0.7210779f,  -0.3055671f, -0.2595702f, -0.1286864f, 0.6510819f},
      {-0.2145578f, 0.4758183f,  -0.1186396f, -0.6096930f, -0.1574199f, -0.1929667f, -0.6877209f, -0.2098342f,
       0.0726678f,  0.1379885f,  0.0710437f,  -1.1860796f, 0.6582619f,  0.2388466f,  0.0458675f,  -0.0634391f,
       -0.1678368f, -8.2454395f, -0.6461441f, -0.2063597f, 0.0304686f,  0.0319904f,  -1.0730971f, 1.1281222f,
       0.1292592f,  -0.3054110f, 0.7732272f,  -1.0069786f, -0.0847367f, -0.2342585f, -0.1553642f, 1.5100089f},
      {-0.1022291f, 2.7367072f, -0.1738961f, -1.0328600f, -0.0864617f, -0.3224345f, -2.6092832f, -0.2382921f,
       0.0578183f,  0.4115438f, 0.0121692f,  -1.0689495f, 0.5158959f,  2.9600139f,  0.8839240f,  -0.7147520f,
       -2.7168157f, 1.2148006f, 1.5884653f,  -0.1227511f, 1.3176637f,  -0.1335970f, -1.4691980f, 1.1131358f,
       -0.1302031f, 0.0779746f, 0.2622980f,  0.0837635f,  2.7756395f,  -0.0315265f, 0.0868374f,  -4.2980185f},
      {0.0228074f,  2.1787968f,  -0.1889012f, -0.8560471f, -0.1063542f, -0.2869910f, 0.2767612f,  -0.1183861f,
       -0.0992468f, 2.1517978f,  -0.0428540f, 1.0697522f,  1.9683092f,  2.1042306f,  -0.0426359f, -0.3499008f,
       -0.9989156f, 0.0880459f,  2.9753070f,  -0.1941337f, -3.1616704f, -0.0093505f, 1.4922180f,  2.8480091f,
       0.2656264f,  -0.1299839f, -1.0458518f, -1.6748481f, -3.1420829f, -0.1360553f, -0.1117443f, -1.3989290f},
      {-0.0246332f, 0.1165779f,  0.0255498f,  -0.0601489f, 0.1545041f, -0.0977981f, 0.1242626f,  -0.1533627f,
       -0.1294386f, -0.0231293f, -0.1460808f, 0.1763088f,  0.0953614f, -0.0716483f, -0.1003436f, 0.0804519f,
       0.1373295f,  -0.0686773f, 0.1198382f,  0.1519430f,  0.1640775f, -0.1675753f, 0.0790529f,  -0.1521838f,
       0.0378523f,  0.1039687f,  -0.0701027f, 0.0509319f,  0.1355647f, 0.0978021f,  0.0391430f,  0.0241266f},
  };

  ALPAKA_STATIC_ACC_MEM_GLOBAL const float bias_output_layer[1] = {-0.7420582f};

  ALPAKA_STATIC_ACC_MEM_GLOBAL const float wgtT_output_layer[32][1] = {
      {0.0381968f},  {1.0667214f},  {0.0505496f},  {-1.5677565f}, {0.0066824f},  {-0.9951485f}, {0.9438043f},
      {0.0068631f},  {-0.0216870f}, {0.6560486f},  {-0.0235629f}, {0.9653404f},  {0.6641668f},  {-0.5351945f},
      {-0.5303048f}, {1.9339687f},  {0.4359012f},  {-0.7492802f}, {-0.5728400f}, {0.0473893f},  {-0.5091293f},
      {-0.1926489f}, {-0.6562935f}, {-0.5583456f}, {-0.7618014f}, {-0.0316967f}, {1.1637378f},  {-0.5158406f},
      {-0.5268564f}, {0.0735416f},  {0.0270067f},  {-0.5614370f},
  };

}  //namespace lst::t5dnn
namespace lst::t4dnn {
  //add reg radii and t3 dnn scores
    ALPAKA_STATIC_ACC_MEM_GLOBAL const float bias_layer1[32] = {
    2.0634429f, 0.2524098f, -0.0312356f, 0.6790630f, 0.3537523f, -0.4684837f, 2.5317073f, -0.1168283f, -0.2302523f, -0.0767009f, 0.6054267f, -1.3515688f, -1.1435251f, -0.2586541f, -0.6828974f, -1.1868789f, 1.5147817f, 0.1127981f, 0.1234875f, 0.0236125f, 0.2483854f, -0.2430531f, 0.1181029f, -1.6174419f, -0.2246573f, 0.5943361f, -0.0370733f, -5.1740780f, -0.5639854f, 0.0965410f, 0.7594638f, -0.9306029f };

    ALPAKA_STATIC_ACC_MEM_GLOBAL const float wgtT_layer1[27][32] = {
    { -2.8259075f, -0.8716139f, 0.0727722f, 1.1347991f, -0.4076585f, -0.6329545f, -3.1880035f, -0.1588767f, -0.1558377f, -0.0965083f, -0.2858485f, 0.7899134f, 2.9476769f, 1.4416050f, 1.0275487f, -1.1084992f, -1.0548780f, -0.1726648f, -1.8385017f, -0.1342066f, -1.4768661f, 0.0173520f, 0.0195799f, 4.9012694f, -0.0230186f, -0.1293060f, -0.0636874f, -1.9068431f, 1.9665065f, -0.0548041f, 4.3431787f, 1.5918314f },
    { 0.0285585f, 0.0115364f, -0.1183015f, 0.0160674f, 0.0163617f, 0.0225914f, -0.0215336f, 0.1462123f, -0.2042613f, -0.0882742f, 0.0062282f, 0.0747787f, 0.0323233f, 0.0250306f, 0.1463798f, -0.0733540f, 0.0030154f, 0.0960008f, -0.0019111f, -0.0691531f, 0.0817749f, -0.2115868f, -0.0971655f, 0.0341104f, -0.1939527f, 0.0011992f, -0.1544193f, 0.0528540f, -0.0175434f, 0.1820710f, -0.0123617f, 0.0211411f },
    { 0.1444553f, 0.6141375f, 0.0606438f, -4.7255764f, 0.9598218f, 1.1886696f, -9.4536409f, -0.0368229f, -0.0841697f, -0.0081214f, 4.0444927f, 1.8589956f, -4.3614082f, -0.7000309f, 1.0620546f, 1.6396576f, -3.7379930f, 0.5525217f, 2.0243425f, -0.1876284f, 2.7830913f, -0.1150329f, -0.0126873f, -3.0713372f, -0.1731976f, -1.5724533f, -0.1550126f, 3.3203208f, 2.5232277f, 0.1511064f, -8.0700245f, -1.6471001f },
    { -3.2722912f, -0.1256566f, -0.0292087f, -0.5989327f, -0.8949552f, 0.3320864f, -0.6052502f, -0.1473426f, 0.0888824f, -0.1198699f, -7.4524574f, 2.5326948f, 2.3709190f, 2.1575556f, 1.9288434f, 2.3337288f, -2.2639754f, -0.6686544f, -3.1499701f, 0.0231446f, 0.4101579f, -0.1840733f, -0.2107568f, 0.5557097f, -0.0860139f, 0.5003954f, -0.2136033f, -2.1474602f, 0.0970977f, -0.0184801f, 3.2952044f, 7.9077926f },
    { -14.0441532f, -0.3259566f, -0.2459780f, 1.2228103f, -3.1342785f, -0.7791114f, -2.9317229f, 0.1578157f, -0.2672509f, 0.0917828f, 10.7467337f, 5.8315864f, -5.5358357f, 4.6485119f, 3.9897988f, -1.0830522f, 19.3851891f, 0.7896081f, -23.3956394f, 0.0497255f, -6.1681223f, 0.1229164f, 0.1624944f, 1.6552128f, -0.0588164f, 4.3114653f, -0.2159563f, 4.0630140f, 25.3984718f, 0.0160768f, 12.2496176f, 26.5046463f },
    { 2.7402880f, 0.1130506f, -0.0902587f, 3.8912964f, 3.0867627f, -1.8614204f, -0.3638529f, 0.1562396f, -0.3087684f, 0.1250708f, 1.5678830f, 1.1335469f, 1.0435201f, -0.8921360f, 0.2271631f, -0.8637871f, 0.2306008f, -2.3558075f, -2.8047898f, 0.1686910f, 9.1178713f, -0.1151158f, 0.1470979f, 1.5373909f, -0.1166144f, 1.7427274f, -0.1891302f, -9.9114981f, 1.1272811f, 0.0091014f, 0.7907792f, -0.7657149f },
    { 2.4659142f, 0.6878744f, -0.0148272f, -5.4125657f, 3.1125176f, 4.4969320f, -8.1215611f, -0.1914706f, -0.0673539f, -0.2124790f, -0.7563235f, 9.5192642f, 6.7082729f, -4.7410049f, -4.0404205f, 11.8890438f, 3.3402245f, 2.5853181f, 1.1389672f, 0.1748279f, -5.0972681f, -0.2692779f, 0.0084296f, 5.0054412f, -0.0048785f, 0.6170948f, -0.1654740f, -4.2696233f, 0.0296139f, -0.1135652f, -8.6710835f, 5.2922487f },
    { 0.6516828f, 0.0595523f, -0.1209826f, 0.7053657f, 1.1351465f, 0.0054852f, -0.8154771f, 0.1112542f, -0.2007150f, -0.1477935f, 0.6080135f, 3.2812963f, -3.7677693f, 3.7813315f, 3.4342380f, 3.5240178f, 0.0831207f, 2.5121827f, 4.1215081f, 0.0130998f, 3.6273327f, 0.0457747f, -0.2082467f, -4.2097349f, -0.1832067f, 1.9168411f, -0.0488338f, 4.9649544f, 2.4113503f, -0.1433642f, 0.9196224f, -2.0868471f },
    { 4.3055282f, -0.3412562f, 0.1592983f, -0.7749513f, -0.4745006f, -0.2275320f, -0.9471012f, -0.0397209f, 0.1223947f, 0.0799426f, -42.9728699f, 5.4735069f, -15.0404634f, -1.2838725f, -9.9725666f, 2.1887920f, -7.3377457f, -1.0414332f, 5.3650532f, 0.0732891f, -2.4901361f, -0.1067989f, -0.0960270f, 13.0143862f, 0.1859810f, -2.3677399f, -0.1575033f, 0.2400165f, -14.7465706f, 0.0499412f, -8.5189552f, -27.1568375f },
    { -1.0520631f, -0.8545895f, -0.0934161f, -0.5920278f, -1.6741493f, 0.7897094f, -0.3853442f, 0.0391342f, -0.1428833f, 0.1524153f, -0.2013778f, -2.8838177f, 0.6028091f, 0.6958072f, -2.0563424f, 1.5860751f, 2.3107722f, -0.8953286f, 3.9696326f, -0.0943827f, -3.6357901f, -0.0744850f, -0.1096401f, 0.4297695f, 0.0059308f, 0.1058507f, -0.1586650f, 6.1100764f, -1.6793425f, 0.1273125f, -1.3768812f, 0.6056969f },
    { 3.3722982f, -0.3474809f, -0.1077784f, 1.5680108f, 3.7110291f, 0.5328640f, -8.0025368f, -0.0808900f, -0.1800018f, -0.1197105f, -0.1992839f, 5.6771460f, 11.6481800f, -2.8639898f, -2.4011390f, -1.9659810f, 7.7141066f, 1.0377307f, 4.6147404f, -0.1788737f, -1.1860807f, -0.1637516f, 0.0102796f, 11.8790827f, 0.0105794f, -0.0186719f, -0.0370192f, 0.4847836f, -0.6957549f, -0.0860675f, -15.7179432f, -0.1517346f },
    { -1.6284361f, -0.1834944f, -0.1646182f, -0.4108050f, 1.7696396f, 0.4338039f, 1.1862308f, -0.1430431f, -0.0435644f, -0.0423281f, 2.0475924f, -0.9265807f, -3.2836871f, 2.4949112f, 2.8884983f, 1.8004769f, -2.3871369f, 2.1127698f, -2.9430521f, -0.1893138f, 2.9108300f, -0.0866958f, -0.1058301f, -0.1134990f, -0.1257690f, 2.2384400f, 0.0337510f, 0.9261222f, 4.5997815f, -0.1829747f, 5.2330275f, 1.8856456f },
    { 8.9573221f, 0.1278808f, -0.0769157f, -3.7897182f, 2.1412132f, 2.1221135f, -1.7973788f, -0.0592514f, -0.3035965f, -0.1491467f, 5.2545338f, -43.0185356f, 35.3082047f, -3.9158626f, 3.2360547f, 7.5302062f, -30.0238724f, 3.2902329f, 28.0161953f, -0.0359614f, 9.7396307f, -0.0368389f, -0.1517528f, -33.8447533f, -0.0218122f, -5.7511334f, 0.1963406f, -3.1183913f, -23.6498756f, -0.0854543f, -7.4807134f, -25.7942276f },
    { -2.8041387f, 0.1715758f, 0.1668029f, -2.6367102f, -0.9649217f, 0.9408876f, 0.0786723f, 0.1999734f, -0.0702856f, -0.2004909f, -2.4902465f, 0.3110251f, -2.1300960f, -0.5954602f, 0.2314329f, 3.0623164f, -1.4050525f, 0.6235807f, -0.8642918f, 0.0402846f, -0.5942507f, 0.1690642f, 0.1373568f, -2.9280012f, 0.1104240f, -0.5773395f, -0.1208857f, 8.5436983f, 0.6570433f, -0.1058364f, -0.0933067f, -0.0068858f },
    { 5.6950541f, -1.3603314f, -0.2150372f, 7.0893703f, 6.1405826f, -4.2386370f, -3.7300317f, 0.0956078f, -0.0441416f, -0.2212785f, 2.2895768f, -2.2959507f, 8.1797657f, 2.7872853f, 1.2761697f, -12.2130375f, 8.7576199f, -1.9353833f, -0.4896398f, -0.1686367f, 2.8505392f, 0.0541001f, -0.0811711f, 4.0153403f, -0.0545361f, 4.2190080f, -0.0137666f, 5.4166780f, 5.1949248f, 0.0632315f, -9.6556015f, -1.9801388f },
    { -1.0238410f, -0.2320530f, 0.0303897f, -0.0823551f, 4.4292841f, 0.5582364f, -0.2686201f, -0.0687139f, -0.1904298f, -0.1141002f, -0.6441576f, -6.6701813f, -5.8920851f, -1.0868235f, -3.4136922f, -4.3961387f, 0.4406410f, 2.4059093f, -3.4935987f, -0.1204788f, 1.3247579f, -0.2821088f, -0.0231030f, 1.8846674f, -0.1506870f, 2.6593924f, -0.0197380f, -1.9162222f, 0.8378095f, -0.1734521f, 2.2300320f, 2.9230683f },
    { -0.0246140f, 0.9081947f, -0.0192835f, 0.3357856f, 2.0924160f, 0.2617300f, -0.5430343f, -0.1520754f, -0.0503007f, -0.0530191f, 0.0983069f, -1.2966491f, -0.6634064f, 2.5242624f, -0.2390647f, 1.5583708f, 0.7842386f, 1.7525398f, 0.2460141f, 0.0696052f, -1.4277872f, -0.0826751f, -0.1336434f, -0.5631080f, -0.0489272f, -2.5813084f, -0.0280735f, 2.1050460f, -1.6628208f, -0.1508179f, -0.1095411f, -0.3291312f },
    { 0.1322260f, 0.6652958f, -0.1704758f, -0.5188949f, 2.0967419f, -0.3750347f, -0.2370066f, 0.0504685f, 0.0812373f, 0.0026676f, 0.1874604f, -0.7966321f, -0.2832018f, 2.3329060f, -0.2685940f, 1.1547203f, 0.5059337f, 1.4557420f, 0.3968542f, -0.0873636f, -1.0592231f, -0.0052215f, -0.0398695f, -1.1377355f, -0.1910710f, -2.5914347f, -0.2106751f, 1.9401218f, -1.6701342f, -0.0978159f, 0.1769850f, -0.2716673f },
    { -0.6049455f, 0.4026980f, 0.1158033f, 30.3559036f, 0.5501068f, 31.2207546f, -2.7630117f, 0.1464291f, -0.0476619f, -0.1201569f, -0.9258111f, -3.0192151f, -3.6684959f, 1.6136067f, -1.5181628f, 4.5771523f, 1.7903318f, 2.1505957f, 0.3619440f, 0.0071175f, -4.8365402f, 0.1445061f, 0.1610205f, 5.6379442f, 0.0008370f, -0.5111860f, -0.1487660f, 1.4211555f, 0.7272758f, 0.1220327f, 0.5776758f, 1.3575673f },
    { 0.1038150f, 4.1488271f, -0.0392740f, 0.2605659f, -4.1781321f, -0.1817810f, -0.1685851f, -0.1479596f, -0.1136792f, -0.0029065f, -0.3409894f, 2.4532714f, -0.3519122f, -3.6710052f, 1.0680208f, -1.3629369f, -1.8617115f, -1.1339186f, 0.0775695f, -0.1607945f, 0.3817013f, -0.2951876f, -0.0356367f, 0.2536634f, -0.1745138f, 4.7556734f, -0.1376783f, 0.1360811f, 2.3868206f, -0.1865596f, -0.2492761f, -0.3573954f },
    { -0.6302360f, -5.0904317f, -0.0766232f, 0.0089235f, -0.5284148f, 0.2364226f, 0.6545987f, 0.1344397f, -0.1435541f, -0.2371550f, 0.2782277f, -0.5304096f, 1.1982646f, -1.5761831f, -0.1410789f, -0.1808723f, -0.0955610f, -1.8525728f, -0.2748608f, 0.0090872f, 1.2742946f, 0.0176735f, 0.0111975f, 1.3019189f, -0.0195117f, -0.0403998f, 0.0211837f, -0.3603224f, 0.0668389f, -0.1860155f, -0.1023118f, -0.2119443f },
    { 4.7956228f, -0.7546414f, 0.1700591f, 0.5600684f, 0.6982646f, 0.2143237f, 3.0720279f, 0.1026311f, -0.0705430f, -0.1816426f, 0.0199051f, -2.2782340f, 0.1812074f, -5.6748328f, -25.8824196f, -1.7293851f, 2.5195656f, 0.0583569f, 1.2636474f, -0.0449880f, 1.4672177f, -0.2519162f, 0.0088738f, -1.3394531f, -0.0511824f, -0.4205795f, -0.1839794f, -3.0569632f, -25.3907413f, 0.1232615f, 1.1430024f, -0.3759208f },
    { -2.4001870f, -0.1787395f, 0.0511745f, -0.4463109f, 0.5756677f, 0.1593401f, 3.1211441f, 0.0473260f, 0.0307057f, -0.1001414f, 0.1743138f, -0.9040923f, -1.0892515f, 1.4958458f, 1.5142418f, 0.9510720f, 0.8300895f, -2.3769870f, 1.1059177f, 0.0464886f, -8.8193436f, -0.0733306f, 0.0333415f, -1.5900060f, 0.0553229f, 0.4783110f, -0.1344294f, -3.0546367f, 0.5001129f, 0.1163618f, 0.4676291f, -0.3298182f },
    { 1.7855982f, -0.3585985f, -0.2535137f, 0.7961541f, 0.0401447f, 0.0712747f, 3.1015003f, -0.0822515f, -0.0773135f, -0.1031750f, 0.8813263f, -0.4606352f, -1.1829458f, -1.2562902f, -1.7351309f, -4.9242992f, 1.2811505f, 2.4526763f, -0.8704137f, 0.0414238f, 0.3828539f, -0.1483803f, 0.0584544f, -1.8427588f, -0.1308738f, 0.0357497f, -0.1101318f, -3.7825661f, 0.1020412f, 0.0331978f, 0.6451961f, -0.1556266f },
    { 1.9607791f, -0.0985693f, -0.0299825f, 0.3403114f, 0.7691333f, 0.0003856f, 0.0206012f, 0.1440819f, -0.0349743f, -0.1356546f, -0.1939340f, -0.3854384f, 0.5572059f, -2.2674367f, -0.0183737f, -0.5232540f, 0.1392955f, -0.1719776f, -0.5720746f, -0.1539634f, -1.8045571f, 0.0628663f, 0.1236814f, 0.0725701f, 0.0277903f, 0.0486650f, 0.0052336f, -0.0845500f, -13.1636515f, 0.0406988f, 0.3992520f, -0.0938021f },
    { -3.2966564f, 0.4364322f, 0.1916217f, -0.3766538f, -0.2897399f, 0.0156370f, 0.1459611f, 0.0374480f, 0.0109642f, -0.0010985f, 0.0219366f, -0.1517622f, -0.2562505f, 1.5174621f, 1.5439153f, 1.3937262f, -0.2422489f, -0.2261279f, 1.9145696f, -0.1238539f, 2.5762999f, 0.0305614f, 0.1349880f, -0.0209049f, -0.0591756f, 0.2057636f, 0.1351138f, -0.0166344f, 1.7033294f, 0.0631327f, -0.1961391f, -0.2154713f },
    { 0.8013868f, -0.0450521f, -0.0164109f, 0.5185890f, 0.1115728f, -0.1353249f, 0.0083457f, -0.0746943f, -0.0774991f, -0.0859823f, 0.3137954f, 0.7134432f, -0.4213617f, -0.7195563f, -1.6792145f, -1.2189548f, -0.1291959f, 0.4826272f, -1.6373945f, -0.0333691f, -1.2216135f, 0.0032632f, -0.1024431f, 0.1521491f, -0.1731318f, -0.0776667f, 0.0296993f, -0.1886216f, 1.1402305f, -0.1859126f, -0.1932351f, 0.0027260f },
    };

    ALPAKA_STATIC_ACC_MEM_GLOBAL const float bias_layer2[32] = {
    0.4549345f, 2.1274190f, -0.1837664f, 3.6402659f, 0.6809441f, 2.2335088f, 2.3128655f, -1.5799582f, -3.0802028f, 2.4012496f, -2.5162320f, -0.1022087f, -4.0559497f, -2.8753102f, -0.0910844f, -0.7738112f, 2.8062570f, -3.3907113f, 2.6068988f, -0.1401542f, 2.1259468f, -1.6851511f, 1.4683874f, -1.1668814f, -1.9170244f, 0.3242736f, -0.2194009f, 0.8333521f, 1.1984333f, -0.0733665f, -0.0319550f, 1.3909695f };

    ALPAKA_STATIC_ACC_MEM_GLOBAL const float wgtT_layer2[32][32] = {
    { 0.5899639f, 0.9932277f, -0.1429183f, -1.7096488f, 0.5736427f, -0.7722772f, 0.8835922f, -0.2359341f, -1.1074272f, 0.6721171f, -0.3350735f, -0.0946129f, -2.4485502f, 0.6439198f, -0.0171638f, -2.2782931f, -1.1772480f, 0.9368237f, 0.5869668f, -0.3616947f, -0.5229661f, 0.3336191f, 0.5037091f, 2.2059121f, -1.3825226f, 0.8700630f, 0.2295038f, -0.0280911f, -0.1810264f, -0.1284503f, -0.1390132f, -0.0560966f },
    { -0.2318342f, -2.4332454f, -0.0394716f, -16.9452209f, -2.1513691f, 0.1686443f, -0.6725606f, 0.2018290f, -0.0057665f, 0.2775910f, 0.5220615f, -0.1953398f, 0.1628451f, 1.6110851f, -0.1932920f, -0.0663614f, 0.0912544f, 0.6732245f, 1.1110499f, -0.1330042f, -0.0818643f, -1.8455583f, -1.0737473f, -3.1322732f, 2.0403259f, 1.2447683f, -0.1388344f, 0.4684080f, -0.2794675f, -0.1224606f, -0.0510102f, 0.0426320f },
    { 0.2012022f, 0.0156781f, 0.1287736f, -0.2086827f, 0.1697342f, -0.0082522f, 0.1082703f, 0.0948680f, 0.1965974f, 0.1079980f, 0.1380081f, 0.1438488f, -0.0656753f, 0.3198813f, -0.1211414f, 0.0129819f, -0.0108497f, -0.1012832f, 0.1686239f, -0.1667563f, 0.0460230f, 0.0379619f, 0.1473893f, 0.0067871f, 0.1466393f, 0.0424997f, -0.1181404f, 0.1206704f, 0.0864489f, -0.0812975f, 0.0352268f, -0.1596616f },
    { -1.8256420f, -0.8841560f, 0.0904742f, 0.2481881f, -0.6505829f, 0.0879599f, 0.6599604f, 0.3302293f, -0.2917286f, 1.7984642f, -0.5746166f, 0.0207477f, -0.9689286f, 0.9095708f, -0.1054407f, -0.7553417f, 0.4528112f, 0.8882726f, 1.7183926f, -0.1634232f, 0.9582294f, -6.3371506f, -7.2252851f, 0.7195547f, -0.9474445f, 0.0048499f, 0.0513471f, -0.1820443f, 0.2144692f, -0.0887920f, -0.2867213f, -0.7031986f },
    { 0.1811372f, -0.3322096f, -0.2248691f, 1.1599373f, -1.2904713f, 2.0357382f, 0.9699113f, -0.0967896f, 2.4281712f, -1.0446723f, -0.6167734f, -0.1460582f, 2.1372969f, -2.5347226f, -0.1040977f, 4.7448573f, -0.9877393f, -2.9803512f, -0.3038362f, -0.3793824f, -1.0364214f, 0.3759045f, -0.4305660f, -0.6329618f, 2.7828755f, -2.0648394f, -1.3015349f, 0.2018792f, -0.7534755f, -0.1292705f, -0.2004524f, -0.0039214f },
    { 1.8119909f, 0.9047645f, -0.0685793f, -0.5123124f, 0.6321251f, -0.0481119f, -0.7184497f, -1.2663718f, -1.1810108f, -2.3417652f, 0.2970280f, -0.1363076f, 1.4082830f, -0.6464089f, 0.0960337f, 0.4505137f, -0.1872013f, -1.1668277f, -9.0540447f, 0.1196295f, -0.9619027f, 6.0391798f, 6.6033130f, 0.0196978f, 0.3006436f, -0.5344177f, 0.0917059f, -1.5371182f, -0.3129636f, -0.1487317f, 0.0731383f, 0.3428416f },
    { -0.5251358f, 0.4872813f, -0.0844925f, 0.9520805f, -0.8277598f, 0.6696937f, -1.2639393f, -0.9631265f, -0.1728767f, -1.6191717f, 0.3051652f, -0.0612098f, 1.1761085f, 0.4011458f, -0.0366095f, 0.8018758f, 2.8408010f, 0.1865981f, -0.9871632f, -0.2603544f, -0.5537524f, -25.3491764f, 0.0678356f, 0.2957141f, -0.7767285f, -0.5783781f, 0.3767003f, -1.4262533f, -0.0122944f, -0.0531757f, -0.0568049f, 0.7942865f },
    { -0.0590234f, 0.0736807f, 0.0570881f, 0.0455228f, -0.0022599f, 0.1135345f, -0.0289448f, 0.0574809f, -0.1411495f, -0.0743081f, 0.0380034f, -0.1233686f, -0.1189961f, 0.0227522f, -0.0207903f, 0.1426840f, -0.1532062f, -0.1272457f, 0.0282823f, -0.0922042f, -0.0555602f, -0.1759133f, 0.1021976f, 0.0236830f, -0.1263201f, -0.0811828f, 0.0813727f, 0.0225632f, -0.1837463f, 0.0267206f, 0.1245526f, -0.0527633f },
    { -0.0278329f, -0.0679351f, 0.0937236f, 0.0324724f, -0.2300466f, -0.0007671f, 0.1515549f, -0.1820084f, -0.1137287f, -0.0332874f, 0.0740293f, -0.1643348f, 0.2053208f, 0.0701278f, -0.1740101f, -0.1927124f, -0.1351187f, 0.0262907f, 0.0626112f, -0.1233211f, 0.1083667f, -0.2055217f, 0.1390180f, 0.1589428f, 0.1770516f, 0.0108121f, -0.0265847f, -0.0309303f, -0.1756702f, -0.0844829f, 0.1282987f, -0.0574197f },
    { -0.0424579f, -0.0239122f, 0.1494102f, 0.0457387f, 0.0856355f, -0.1889792f, 0.1210377f, 0.1720985f, 0.0101861f, -0.0368613f, -0.0733865f, -0.0149364f, 0.0786838f, -0.0026035f, -0.0106768f, 0.1289754f, 0.1763035f, -0.0243427f, -0.1901966f, -0.0289531f, 0.0397678f, 0.1016394f, 0.1311525f, -0.0954512f, 0.0443624f, -0.0960927f, 0.2174678f, 0.1760562f, -0.2173294f, -0.1250925f, -0.0634912f, 0.1427116f },
    { 1.6233864f, 0.4388337f, -0.0690882f, -1.3368672f, 0.2638825f, 0.3554623f, -2.5333519f, -0.8955941f, 0.1469723f, -1.8114401f, 2.3845167f, -0.0539737f, -0.0133115f, 0.5742527f, -0.1857327f, -0.5961331f, 1.6216794f, 1.0253180f, -0.7952818f, 0.0885012f, -2.1742687f, 0.0372347f, 0.0843163f, -0.6448889f, -0.2797729f, 0.2395286f, 1.1828401f, 0.9213138f, 0.2033095f, -0.1740697f, -0.1181831f, 1.2600311f },
    { -1.2274284f, -0.8219579f, -0.0425677f, -0.8342037f, 1.1190735f, -1.0717026f, 0.7430203f, -0.1093241f, -1.2637224f, -2.2982781f, -0.2699189f, -0.0793526f, -1.8403014f, 1.5339966f, -0.2502258f, -3.0198290f, -0.1590496f, 0.5334597f, -0.8375002f, 0.0091183f, 0.7234477f, 0.9558343f, -0.1428118f, 2.2039423f, -1.4123791f, 0.2574269f, -0.6570563f, -0.5999190f, 0.5111958f, -0.1411615f, -0.3541653f, -0.3026164f },
    { 3.5284586f, -0.6531792f, -0.0480276f, 0.1331355f, 0.6228480f, 0.9833339f, -2.9648161f, 2.5728233f, -0.5047419f, -0.5363315f, -1.1746614f, -0.0149925f, -0.3718520f, -1.0419830f, -0.0256127f, 1.5241436f, -1.2585675f, -0.0280560f, -1.6422914f, 0.0459643f, 0.1968458f, -2.1747398f, 0.4945664f, -2.4804394f, -1.6154547f, -0.5899914f, 0.7165443f, -0.1472780f, -1.3396511f, -0.0623450f, -0.1886562f, 1.3892096f },
    { -2.1332178f, -0.1982051f, -0.2212659f, 3.2477276f, -0.4179139f, -0.3552284f, -0.9081832f, -1.0802456f, 2.3525829f, -5.4662118f, 1.4693608f, -0.0870226f, -1.0788424f, -0.7066119f, -0.1076498f, 0.7275093f, 0.1799661f, -0.9474198f, -0.2477787f, 0.0645668f, 0.6182643f, -0.9935129f, -0.7604632f, -1.3966759f, 0.7489280f, -2.9056363f, 0.0882863f, 0.1236149f, 0.4340780f, -0.0350298f, -0.1856924f, -0.6133774f },
    { 0.5288641f, 0.4885860f, 0.0847383f, -0.8908465f, 0.2877608f, 0.0542899f, -1.2402779f, 0.1271410f, -0.4308441f, 0.1016752f, -0.1587404f, -0.1111765f, 3.6530082f, -0.5990665f, 0.0397761f, -0.8316008f, -0.3948973f, 0.3049187f, -1.5836186f, -0.2525044f, 0.4197678f, 0.1796660f, 0.0754739f, 0.8684176f, -2.1998515f, 0.5505133f, 2.2350507f, -0.5135552f, 0.3567097f, -0.0061499f, -0.0824216f, 0.2136726f },
    { 0.0857294f, -0.0777089f, -0.0172340f, 1.6224606f, -3.2281890f, 0.9982766f, -0.7274520f, -0.7728063f, 0.2745548f, -0.0377317f, -0.1309916f, -0.0730642f, -0.6401780f, -1.2517376f, -0.1500551f, 1.3324418f, 0.0602041f, -6.8759747f, -1.5552959f, 0.1319409f, -0.5912681f, -1.0141732f, -0.7613437f, -1.7289361f, 1.0751669f, -0.3797017f, -0.9552522f, 0.0379075f, 0.1220914f, -0.2046013f, -0.0750711f, 0.4898105f },
    { -0.0818758f, -0.1322907f, 0.1020601f, -0.2261519f, -0.5946255f, 1.1742647f, -0.3547730f, -1.5425212f, 1.0998658f, -1.4722291f, 2.9497824f, -0.1636249f, 0.2699446f, -0.2774846f, -0.1743857f, 1.2949505f, -1.3733031f, 0.3403975f, -0.5151005f, 0.0535202f, 0.5270203f, -0.1295356f, 0.3853132f, 0.2357593f, 0.3199787f, -0.1307262f, -0.7833753f, 0.4547919f, -1.4061766f, 0.0068958f, -0.1053473f, 0.8622939f },
    { -0.3544825f, 0.0713366f, 0.0006691f, 1.9434770f, 1.6762826f, -0.9692442f, -0.4598892f, 0.1643997f, 1.3125440f, -0.5995958f, -0.1029990f, -0.1654663f, 0.1869121f, 0.3572258f, -0.0828522f, 1.0227191f, 0.5450761f, 0.6256126f, -0.9740762f, -0.2444480f, -0.3106250f, 1.5763139f, 1.2575365f, -1.8787278f, -1.8336406f, 0.2179030f, -0.4893377f, 0.0844566f, 0.0168275f, -0.0380090f, -0.1392024f, 0.0273793f },
    { -0.0727103f, -0.4415136f, -0.0464692f, 0.3642085f, -0.9919307f, -0.0504261f, 1.7352896f, -1.5720958f, 0.3136817f, -0.8492547f, -0.7196807f, -0.0707793f, 0.3497837f, -0.0225506f, -0.1053948f, 0.4877878f, -0.8007966f, -0.6729766f, 1.2240828f, -0.1118837f, -0.5176509f, -0.2006710f, 0.1359795f, -1.2914093f, 1.8820713f, -0.2591550f, 0.0099277f, -0.4412510f, -0.5430614f, -0.0560023f, -0.1307580f, -0.0914287f },
    { 0.0970166f, 0.1674408f, 0.1406054f, 0.1590968f, -0.1162478f, 0.1280774f, 0.0771682f, 0.1204059f, -0.0469520f, 0.0261964f, 0.0337338f, 0.1037098f, -0.0606265f, -0.0612076f, -0.0800119f, -0.0047709f, 0.0583782f, -0.1183388f, 0.0676871f, -0.1357425f, 0.0005187f, -0.1057422f, 0.0621454f, 0.0502274f, 0.1752872f, 0.1230254f, -0.0849584f, -0.1726060f, -0.0648407f, -0.1598882f, -0.0006706f, -0.1598314f },
    { 0.3266531f, 1.1308966f, -0.0489250f, -0.5912521f, 0.1081138f, -0.5661159f, -0.7717159f, -0.0132250f, 0.9083634f, 0.1385646f, 1.0654491f, -0.0542244f, -0.9536952f, 0.1891730f, -0.1154800f, -0.5251078f, -1.2432489f, 0.0757755f, -0.2317127f, -0.2142750f, -0.3995366f, 0.1577111f, -0.1418502f, -6.3264637f, 1.2153317f, -0.7995309f, 0.2589243f, -0.0931389f, 0.1878975f, -0.0197687f, -0.1877998f, -0.5225748f },
    { 0.0767568f, 0.1658649f, -0.0330542f, -0.0438841f, 0.0598988f, -0.1923297f, -0.0300039f, -0.1521337f, 0.1448279f, 0.0269054f, -0.0799576f, 0.1203778f, 0.1311980f, -0.1299374f, 0.0333271f, -0.0604483f, 0.1690404f, 0.0578786f, -0.0044905f, 0.0402430f, -0.0471127f, 0.1107568f, 0.0615023f, -0.1314288f, 0.0140063f, 0.0151987f, 0.1273935f, 0.0261554f, 0.0127445f, 0.0673519f, -0.0804866f, -0.1950140f },
    { -0.0492194f, -0.0364402f, -0.0538675f, -0.0205780f, 0.1542642f, 0.1041685f, 0.0191808f, -0.1530253f, -0.0658713f, 0.1440138f, 0.0052229f, -0.1967626f, 0.1421277f, -0.1472707f, -0.0472444f, -0.1754446f, -0.0296038f, 0.1037628f, 0.0192618f, 0.0785379f, -0.1028472f, -0.0838549f, -0.1116951f, -0.1709048f, -0.0544207f, 0.1237711f, -0.0073577f, -0.0145261f, 0.1198107f, -0.0089993f, -0.1347705f, 0.0997960f },
    { -4.2231069f, 0.2094987f, -0.1614026f, -0.1066302f, -0.3266288f, -1.0803388f, 2.1889760f, -4.3780169f, 0.4907920f, 0.8645393f, -0.3494642f, -0.0538556f, -4.4621649f, 0.5010720f, -0.2225960f, -2.2632585f, -1.6480920f, -0.1184688f, -1.6775155f, 0.0364574f, 0.7812715f, -2.7185977f, -3.4206715f, -0.9139786f, -0.0644026f, 0.6977415f, -1.5436019f, 0.0811766f, 1.2017486f, -0.1935842f, -0.1642012f, -1.1945971f },
    { -0.0817936f, 0.2165919f, 0.0010377f, 0.0117755f, -0.1069050f, -0.0257235f, -0.1384340f, 0.1241229f, 0.0398734f, -0.1099532f, 0.0184320f, -0.0056706f, 0.1952771f, -0.0048211f, 0.1766845f, -0.1433545f, -0.0133696f, -0.1152506f, -0.0762304f, 0.0002030f, 0.0593404f, -0.1141448f, 0.0492275f, 0.0367651f, 0.0505834f, 0.1477109f, -0.0649613f, 0.1767253f, -0.0315379f, -0.1575151f, -0.0303103f, -0.1401955f },
    { 1.0791479f, -0.5547861f, -0.0331479f, -2.7905841f, -0.0700423f, -2.4154649f, -0.1924338f, 0.2054364f, -3.3960850f, -1.0921302f, 0.4253059f, -0.2237413f, -0.7356786f, 4.3999977f, -0.1203497f, -7.2944927f, -0.0836185f, 1.8766174f, -1.0917813f, -0.3220767f, 0.1590939f, 2.1621573f, 1.6935656f, 2.9114418f, -2.8171396f, 3.5259461f, -0.0741603f, -0.1311106f, 2.4865239f, -0.0486234f, -0.0284799f, 0.5224213f },
    { -0.2552926f, -0.0809953f, 0.0896638f, 0.2608532f, 0.0154312f, -0.0262949f, 0.0423428f, -0.0501462f, 0.1410431f, 0.0044154f, 0.0499926f, -0.0081398f, -0.0861516f, -0.0190430f, 0.1631645f, -0.1070313f, 0.0390157f, 0.0002965f, -0.1269969f, -0.1524657f, 0.0694391f, -0.0276596f, 0.0826361f, 0.0154108f, -0.0139236f, 0.0679556f, 0.0403382f, -0.0478421f, 0.0656551f, 0.1239472f, -0.0606580f, 0.0872510f },
    { 0.5563588f, 1.1883061f, -0.1957951f, -6.4183812f, -0.2452525f, -0.7589457f, -0.8733374f, 0.4618991f, -0.5323182f, 0.0528116f, 0.0543176f, -0.0014409f, -2.8587236f, -0.2330792f, -0.1356961f, -1.4520428f, -0.2995984f, -1.3442343f, -2.3714175f, -0.1842209f, 0.0651011f, -1.8910854f, -1.7517637f, 1.2016003f, 0.8737392f, -1.9836702f, 0.7061445f, -0.3819730f, 0.8279135f, 0.0449135f, -0.0042485f, 0.0624972f },
    { 0.3185568f, -1.1752311f, -0.0655984f, -1.9830782f, -0.0018531f, -0.4480008f, 0.2018446f, 1.1948999f, -0.8319135f, 4.1463242f, 0.4322149f, -0.1644508f, -3.9636331f, 2.1119113f, 0.1263230f, -0.3612216f, 1.0855899f, 2.2955921f, 0.8056011f, 0.0517835f, 0.4588513f, 1.2955742f, -0.4757954f, 0.0285984f, -0.3952935f, 0.6065717f, -2.0226448f, -1.0235326f, 0.6122844f, -0.0722887f, 0.0352740f, 0.3700542f },
    { -0.0207129f, 0.0676650f, -0.0761842f, 0.1336655f, -0.0277119f, -0.0398943f, 0.1531359f, -0.1470286f, -0.0864255f, 0.0567984f, -0.1605423f, 0.0202472f, -0.0153665f, -0.0064814f, -0.0600556f, -0.1401143f, -0.0319310f, 0.1105383f, 0.0809292f, 0.1732002f, 0.0943993f, -0.1157693f, 0.1746257f, 0.0405964f, 0.1710359f, -0.0402550f, 0.1491013f, -0.1513675f, 0.1143070f, 0.0850725f, 0.1178962f, -0.0261586f },
    { 1.1808469f, -0.0225464f, -0.1410311f, 1.6694261f, -0.4943907f, 0.0378484f, 2.6172667f, 1.5955106f, 1.4360769f, 1.3815966f, -0.0815225f, 0.0591169f, -15.6251984f, -2.0049846f, 0.0522532f, 0.4815960f, -6.6726542f, -1.7912245f, 2.3337717f, -0.1808984f, 0.0258204f, 4.0469174f, 0.6498846f, -1.4924022f, 1.9220998f, -0.0253603f, -0.4832549f, 2.7017169f, -0.3966264f, -0.0431710f, -0.3427843f, -1.0881739f },
    { -0.4632603f, 0.9419345f, 0.0287553f, -0.7675101f, 0.1594214f, -0.7219030f, -0.8295710f, 1.3168701f, -0.8835835f, 0.8493806f, 0.4605682f, -0.1443348f, 1.9302068f, 0.6887081f, -0.0172215f, -3.8233457f, 0.1856754f, -0.0351904f, -0.4766073f, -0.1563631f, -1.8880744f, -2.2599590f, -0.6486236f, 3.1037054f, -0.4793471f, -0.7193481f, 2.6304364f, -2.1975043f, -0.2065701f, 0.0266828f, -0.2542875f, -2.5923159f },
    };

    ALPAKA_STATIC_ACC_MEM_GLOBAL const float bias_output_layer[3] = {
    -0.8107917f, 0.2158697f, 0.1792289f };

    ALPAKA_STATIC_ACC_MEM_GLOBAL const float wgtT_output_layer[32][3] = {
    { 0.3541010f, -0.0766125f, -0.1190955f },
    { 0.1566345f, -0.1564178f, 0.0580950f },
    { 0.0079184f, 0.0768189f, 0.0308071f },
    { -0.7819192f, -0.8599133f, 0.0283872f },
    { 0.1365558f, -0.1352836f, 0.2189262f },
    { 0.0269749f, 0.0281017f, -0.2607915f },
    { 0.2486566f, -0.1058227f, -0.2247657f },
    { -0.2840704f, 0.0169656f, 0.0608974f },
    { -0.1386731f, -0.2867535f, -0.0336584f },
    { 0.0204337f, -0.1528447f, 0.1172192f },
    { 0.2801042f, 0.0031059f, -0.1293548f },
    { 0.0218650f, -0.0916797f, -0.1072121f },
    { 0.0740285f, -0.4519514f, -0.3989069f },
    { 0.3290536f, -0.2303819f, 0.1233837f },
    { -0.0517843f, 0.1015953f, -0.0944473f },
    { -0.2002642f, -0.5147095f, -0.1885856f },
    { -0.0865597f, 0.2379623f, 0.2834645f },
    { -0.0857516f, 0.4049624f, -0.2225519f },
    { 0.0309953f, 0.2060439f, 0.4653981f },
    { -0.0800967f, 0.0013328f, -0.0504434f },
    { -0.1052053f, 0.2920813f, 0.2300075f },
    { -0.1933330f, -0.0182077f, 0.2703886f },
    { 0.2061724f, 0.0574940f, -0.2394057f },
    { 0.0843355f, -0.1778155f, -0.1816270f },
    { 0.1207931f, 0.2480173f, -0.0992553f },
    { 0.1328569f, -0.1223637f, 0.2924166f },
    { -0.2761341f, 0.1372354f, 0.0422018f },
    { -0.3634741f, 0.0176459f, 0.1083990f },
    { -0.4054379f, 0.0997694f, -0.0389143f },
    { 0.0138043f, 0.1643508f, 0.1170741f },
    { 0.1034109f, -0.0218407f, 0.0364578f },
    { -0.2925382f, 0.1800703f, 0.1863872f },
    };
}  //namespace lst::t4dnn
//#endif
#endif
