#ifndef RecoTracker_LSTCore_src_alpaka_NeuralNetworkWeights_h
#define RecoTracker_LSTCore_src_alpaka_NeuralNetworkWeights_h

#include <alpaka/alpaka.hpp>

namespace lst::t5dnn {
  ALPAKA_STATIC_ACC_MEM_GLOBAL const float bias_0[32] = {
      0.7689496f,  0.2276667f,  2.1560831f,  0.1061250f,  -0.1203571f, 0.5452869f,  0.8117045f,  -0.4295041f,
      -0.0154261f, -0.0473319f, -0.0643453f, -0.8540058f, -0.1188346f, 0.1465988f,  -0.1924755f, -0.3302844f,
      -0.3724190f, -0.2000701f, 0.6151765f,  -0.0713555f, 0.5220282f,  -0.0508561f, 0.4532738f,  0.0988705f,
      -0.3162350f, -0.3157921f, -0.2228716f, 0.5511329f,  2.1425488f,  0.0151458f,  0.6955889f,  -0.3736360f};

  ALPAKA_STATIC_ACC_MEM_GLOBAL const float wgtT_0[18][32] = {
      {-0.3874412f, 1.1009266f,  -0.0727854f, -0.6322989f, -0.8057268f, 3.4188683f,  0.5670670f,  0.4241091f,
       -0.0688684f, -0.0395003f, -0.1072173f, 0.5992663f,  -0.0785827f, 1.4982752f,  0.0712432f,  0.5666634f,
       -1.0877062f, -0.2042978f, -2.0314462f, 0.0913613f,  2.1081128f,  -1.5794734f, -1.9375017f, -0.0531993f,
       -1.3195813f, -0.2136675f, 0.1375219f,  -7.0649085f, -2.2463150f, -0.0639907f, -0.6000392f, 2.4808855f},
      {-0.4678318f, 0.2936808f,  -1.2962773f, -0.4227881f, -0.1217513f, 0.1112529f,  0.2118902f,  -2.4735544f,
       0.2520409f,  -0.1002712f, 0.1598936f,  -0.7072114f, 0.5428487f,  0.1388406f,  0.0391374f,  -0.1880172f,
       -1.4589379f, 0.1629978f,  3.1341715f,  -0.1833777f, -0.3651295f, -0.6406456f, -0.6009171f, -0.4432393f,
       1.9973793f,  -0.2204504f, -0.0198080f, -6.5136566f, -0.8904165f, 0.2359439f,  -0.5544308f, 0.5981637f},
      {-0.2084910f, 0.5767096f,  0.3831722f,  0.2667128f, 0.1332879f,  1.2474967f,  0.5686979f,  0.4065065f,
       -0.0819645f, -0.1043426f, 0.2161415f,  0.3549064f, 0.4071716f,  -0.2438618f, -0.0891794f, 0.5150641f,
       1.2909591f,  0.2191622f,  2.9893749f,  0.1109888f, -0.2714018f, 0.8834288f,  0.2584145f,  0.1308970f,
       0.2542039f,  -0.2379896f, -0.0731085f, 2.0492291f, 0.7712296f,  -0.0573230f, -0.9105399f, 0.7462828f},
      {-0.1030845f, -0.9351037f, 0.5466461f,  0.2365956f,  0.3770505f,  -0.1456405f, 0.8273581f,  0.6945333f,
       -0.4633257f, -0.1295902f, 0.0377544f,  -1.4326949f, 0.1243551f,  -0.6967410f, -0.2325097f, -0.2349607f,
       1.1021781f,  -0.1581670f, 0.0349231f,  0.1548514f,  -1.5839465f, -0.7158155f, 1.5085907f,  0.1428910f,
       -0.0119034f, -0.2354573f, -0.2267339f, -0.0422968f, 1.7557815f,  -0.3188288f, 0.6185647f,  0.3088706f},
      {-1.7292845f, -0.2112297f, 0.5735893f,  -0.3198789f, -0.3433383f, -2.7822716f, -1.4598199f, -1.7304697f,
       0.8366006f,  0.1765496f,  0.0825585f,  -1.0620733f, 0.0837980f,  -0.3416844f, -0.1342918f, -1.6298417f,
       1.1599642f,  0.1442742f,  -0.5971447f, 0.1493862f,  -0.4876784f, -0.4482341f, 0.3647889f,  0.3762226f,
       1.5178876f,  0.1883884f,  -0.1716253f, 1.3486958f,  -0.1366808f, 0.7290339f,  -0.2771103f, -3.0478535f},
      {-0.6667119f, -0.0028796f, 0.1090787f,  0.0998245f,  0.3288096f,  0.2422833f, 1.0501778f,  0.4825951f,
       0.0703101f,  0.1576458f,  -0.0862106f, 2.0089445f,  0.1384741f,  0.7587801f, -0.0985222f, -0.5340340f,
       0.2304600f,  -0.0430865f, 1.0248120f,  -0.0043374f, 0.0374210f,  1.1269655f, -0.5542513f, -0.1304460f,
       -0.1539961f, -0.0222391f, -0.0245616f, 0.2709910f,  -0.5597373f, 0.0235738f, 0.1020210f,  1.5777187f},
      {0.1944239f, -2.4420052f, 0.4876364f,  2.0023842f,  1.2539140f,  -2.8637080f, 0.6249666f, -1.4034761f,
       0.0965345f, 0.0381784f,  -0.1572064f, -1.6868210f, 0.1301433f,  -1.8733289f, 0.2161075f, -0.1189572f,
       1.6498084f, 0.1716082f,  2.9947088f,  -0.0698885f, -3.6955497f, 1.1601990f,  4.1680579f, -0.0966571f,
       0.8409815f, -0.1946943f, 0.0350793f,  2.3267791f,  3.2966037f,  -0.0288222f, 2.9643304f, -1.2001028f},
      {1.5511677f,  -0.3221497f, -0.2098463f, 1.0732987f,  -0.3215434f, -4.5087729f, -1.9129387f, -4.2066565f,
       0.1102976f,  -0.0595172f, -0.1491791f, -0.2335061f, 0.1628109f,  -0.7362767f, -0.2312285f, -0.6931431f,
       1.0246242f,  -0.1763327f, -0.2123066f, -0.0552167f, -1.3012527f, 0.3927177f,  1.6382916f,  0.4798727f,
       -0.8019578f, -0.2707686f, 0.1393841f,  4.4957032f,  1.0036153f,  0.0554417f,  0.1168789f,  -4.1511612f},
      {0.9875335f,  0.4470055f,  -0.2465622f, -0.5803606f, 0.0995332f,  0.8305010f, 0.5012015f,  -0.0601418f,
       0.0180136f,  0.0937166f,  -0.0410795f, 2.7108922f,  -0.1780554f, 1.4879758f, 0.0083096f,  -0.6230553f,
       -0.4801404f, -0.0839028f, -0.2314368f, -0.1054328f, 0.6388434f,  0.3352736f, -1.5317652f, -0.2016713f,
       0.0796126f,  -0.0473661f, 0.0186401f,  -1.0533634f, -0.7868524f, 0.0365005f, 0.6363274f,  -0.1197108f},
      {-0.6582743f, 0.7162321f,  2.6980882f,  0.6601739f,  3.0152056f,  -0.1540774f, 0.6802362f,  2.9251530f,
       0.4508018f,  -0.0980321f, 0.1077589f,  3.4275706f,  0.1723763f,  -1.7248973f, 0.0149771f,  1.3081459f,
       -3.4876044f, 0.2322860f,  1.1310592f,  -0.0286848f, 0.9879379f,  2.0494206f,  -2.2453470f, 0.3904568f,
       1.9023002f,  -0.2631310f, -0.1070143f, 1.2432953f,  -0.9041466f, 0.1552405f,  -1.4026634f, 2.7748196f},
      {1.4460912f,  0.6680040f,  0.7083396f,  0.6605640f, 2.3485265f,  -3.1152496f, -3.2787597f, -0.5029382f,
       -0.4856826f, -0.1769109f, 0.0550329f,  0.8119519f, -0.3676573f, -0.4226525f, -0.0738517f, 0.8316876f,
       -2.2008476f, -0.1914935f, -1.2227937f, 0.1248759f, 0.1848754f,  1.5742199f,  -0.8655455f, -0.6048900f,
       -2.5598724f, 0.0667338f,  -0.0921054f, 1.6243445f, -0.5341996f, -0.3055942f, -0.9480784f, -0.8386787f},
      {0.5641917f,  0.0850742f,  -5.0855384f, -0.5260592f, -1.6240008f, 0.0361575f,  0.6048969f,  -0.0042014f,
       0.0296774f,  0.0398741f,  -0.1490082f, -4.3951240f, -0.3176957f, 2.6226566f,  -0.1406003f, -0.4012537f,
       1.2968843f,  0.0633811f,  -1.7156345f, -0.0846817f, -0.3119897f, -1.2541549f, 0.7338834f,  0.0380166f,
       -1.3132606f, -0.2023540f, 0.1233572f,  -0.3050899f, 1.0681419f,  0.1565876f,  0.4168750f,  0.5128207f},
      {-0.5525324f, 1.1590765f, -1.1106614f, -2.6684389f, -3.5446091f, 2.9173295f,  1.5605357f,  0.2043054f,
       0.2961940f,  0.0332708f, -0.1782407f, -0.1343921f, 0.1663005f,  2.8883708f,  0.0462459f,  -1.4541030f,
       1.5802478f,  0.1780027f, -0.6166016f, -0.2036374f, 2.6062968f,  -1.0935721f, -1.2620391f, -0.0828476f,
       -0.2344224f, 0.0277501f, -0.1090661f, 0.0515873f,  -0.8125991f, 0.4585658f,  -1.2757285f, 0.5922735f},
      {-0.7489504f, 0.0969220f,  -1.2704023f, -0.3237784f, -1.6643255f, 0.3579333f,  -2.7700202f, -0.3809730f,
       -0.4711514f, 0.0355490f,  0.1639231f,  0.3669493f,  -0.3362027f, 1.0901935f,  -0.0194720f, 0.3609858f,
       1.1559751f,  -0.1610274f, -2.1489546f, 0.0564977f,  0.9363352f,  -0.9833136f, -0.2685869f, -0.0787111f,
       0.1036762f,  0.0833800f,  -0.0820758f, -0.9200175f, -0.2322800f, -0.4189794f, -1.1965765f, -3.8827691f},
      {-0.9398022f, -0.7793959f, 0.1337414f,  0.5830429f,  1.2683501f,  -0.1675429f, -0.1088392f, 1.4964837f,
       -0.0406878f, -0.1688537f, 0.1079939f,  1.0266371f,  -0.1455933f, -4.1097798f, 0.1967915f,  1.4768987f,
       -0.6691276f, -0.0887138f, -0.6672795f, 0.1754892f,  -0.9496338f, -0.4572721f, -0.0013613f, 0.1080823f,
       1.2212901f,  0.1237200f,  0.1759779f,  -0.2546352f, 1.0865952f,  -0.1666498f, -0.1018688f, 1.2167028f},
      {1.5598911f,  -1.7757975f, 0.0397111f,  2.1102862f,  0.0790940f, 0.4053241f,  -0.1613181f, -0.5055809f,
       -0.0216440f, 0.0024883f,  -0.2074063f, 0.3020311f,  0.1736185f, 0.1179526f,  -0.2276638f, -2.3779428f,
       0.6546506f,  -0.1860571f, -0.0865936f, -0.0138920f, 0.2718211f, -1.2108021f, -0.0095253f, -2.0773420f,
       1.8456882f,  0.1039232f,  0.0499846f,  -0.0310250f, 0.1519136f, 0.0062235f,  -2.1224306f, 0.2085621f},
      {-2.0016024f, 1.5617775f,  -0.0056820f, -1.1398256f, 0.0995699f,  -1.2857428f, 0.3353478f,  1.1992943f,
       -2.0195122f, -0.1543844f, 0.1306602f,  -0.2460336f, -0.3225583f, -0.3095535f, 0.0585371f,  1.3081281f,
       -0.6063534f, -0.0898975f, 0.3026347f,  -0.0413160f, -0.1082479f, 1.6371979f,  -0.0633297f, 2.1675830f,
       0.3494948f,  -0.2929036f, -0.0043278f, 0.0674407f,  -1.4268662f, 2.0796790f,  1.6135339f,  -0.8814558f},
      {0.4709310f,  0.2914642f,  -0.0829034f, -0.9698373f, -0.1905231f, 0.8213255f,  -0.1014393f, -0.8486660f,
       2.0753288f,  -0.1513239f, -0.2171249f, -0.0424195f, -0.2583384f, 0.2511811f,  -0.0105660f, 1.0116299f,
       0.0645249f,  -0.0339480f, 0.0258946f,  -0.0008372f, -0.0703202f, 0.0311463f,  0.0559129f,  -0.1108166f,
       -2.0921662f, 0.0428853f,  -0.2012214f, 0.0515024f,  -0.4915459f, -2.0599406f, 0.4510163f,  0.7438104f},
  };

  ALPAKA_STATIC_ACC_MEM_GLOBAL const float bias_2[32] = {
      -0.1644868f, 0.7937496f,  1.6382141f,  0.8339906f,  -0.1456153f, 0.6695759f,  -0.1654219f, 0.4434520f,
      -0.0418041f, 0.8221627f,  -0.2546514f, 1.3079317f,  -0.0308016f, 0.9007570f,  1.0848119f,  -0.0738211f,
      -0.2048478f, 1.6716461f,  -0.3155822f, -0.1378259f, -0.0805619f, -0.3704405f, 0.0025931f,  -0.9161987f,
      0.7538223f,  -0.4953590f, 0.3584320f,  -0.0208502f, -0.0865558f, -0.2100287f, 0.0474419f,  -0.2327498f};

  ALPAKA_STATIC_ACC_MEM_GLOBAL const float wgtT_2[32][32] = {
      {-0.3799492f, 0.5688096f,  1.9131341f,  -1.0395869f, -0.1807714f, 0.3699133f,  0.4944212f, 1.1151682f,
       -0.8810561f, -1.5556333f, 2.4414866f,  0.5740506f,  -0.9242398f, 1.6104224f,  1.8024530f, 0.1052162f,
       0.4615139f,  1.0064371f,  0.8872121f,  0.0512532f,  -0.1624939f, 0.9796981f,  0.3410452f, 2.9736331f,
       0.8323977f,  0.0033285f,  -0.5608464f, -0.2195580f, -0.0401527f, -0.0954615f, 1.5293343f, 0.0219921f},
      {-0.0554283f, 0.7530415f,  -4.2949204f, 1.5493068f,  0.0020343f,  0.2830123f,  -1.7103543f, -0.1564880f,
       2.5152161f,  2.1221437f,  -2.0826106f, -3.0246587f, 1.2789409f,  -3.8870182f, -0.0321933f, -0.1294396f,
       -0.4912712f, -1.6831421f, -7.8155212f, -0.1515533f, -0.1130260f, -1.0463235f, 0.9099258f,  -3.4417164f,
       0.3454131f,  -1.4255950f, 0.6524350f,  0.0474658f,  -0.1240776f, -0.0039755f, -1.8330623f, 0.0392125f},
      {-0.1821740f, -0.4191648f, 1.9249626f,  -0.0861222f, -0.1568090f, -1.7354882f, 2.5890429f,  0.7385380f,
       -0.5276154f, -0.3264470f, 0.7893526f,  0.5188534f,  0.5582118f,  1.0752600f,  1.3998358f,  -0.0384111f,
       2.0226490f,  -1.3704691f, -0.0204109f, -0.0549160f, -0.1134581f, -0.9199182f, 0.5702502f,  1.6853211f,
       -1.8794812f, -0.4452761f, -0.6505251f, -0.0952800f, 0.1017933f,  -0.0789883f, -0.0292532f, 0.0103518f},
      {-0.0513789f, 0.2184568f,  0.8443790f,  -0.9955618f, -0.0571908f, 2.8237045f,  0.2098127f,  3.6644769f,
       2.1930943f,  -2.1732693f, -1.1012727f, 0.0515116f,  0.3611146f,  1.5837611f,  -2.5181229f, -0.1750216f,
       -0.3420918f, 1.6291586f,  -0.2102707f, -0.1337677f, -0.1571220f, -0.9775384f, 0.1561626f,  1.9005671f,
       3.3008695f,  0.4938361f,  -1.1424636f, -0.0287019f, -0.2101622f, -0.1559898f, 0.7084264f,  0.0470040f},
      {-0.1537729f, -9.9007053f, 1.8702555f,   2.9666951f,  -0.1626762f, -4.5142694f, 1.8793688f,  0.5504758f,
       -5.6033893f, -7.6360660f, -0.1533262f,  1.2825421f,  -1.4031135f, -2.1449623f, 1.9872365f,  0.0697424f,
       2.3937654f,  2.1133838f,  5.5930386f,   -0.1244018f, -0.1606469f, -3.3192329f, -4.0071077f, 5.9000993f,
       -5.1331363f, 2.1730204f,  -12.2035503f, 0.0167027f,  -0.0242833f, -0.0410143f, -2.4219570f, -0.1735479f},
      {0.1626424f,  0.0533566f, 0.9725768f,  -1.1470850f, -0.0502281f, -0.4399993f, -0.9721960f, 1.6224283f,
       0.5024034f,  1.0770365f, -1.1453025f, 0.7721381f,  -1.8034434f, 0.7045116f,  -1.7109287f, 0.0830362f,
       -0.3355455f, 0.0442333f, -0.3010883f, 0.0612216f,  0.0266844f,  0.2263828f,  -2.0422480f, -0.7679738f,
       -0.3771132f, 0.3740924f, 0.2151026f,  -0.2199519f, -0.0296140f, 0.1331775f,  -0.5609654f, 0.0946664f},
      {-0.0919857f, -0.5552486f, 0.8068848f,  -1.2103159f, 0.0395015f,  -0.5860872f, 1.6790512f,  -0.1164493f,
       -0.4203828f, -0.0317690f, 1.7219189f,  1.1333950f,  0.8466461f,  -0.4073359f, 0.7195680f,  -0.1644720f,
       0.2170141f,  -0.8688580f, 0.4120915f,  -0.1353900f, -0.1052537f, -0.2182953f, 0.3467038f,  0.3322064f,
       -0.7732471f, 0.4843704f,  -1.2336607f, -0.0191990f, -0.1248822f, -0.0843557f, -0.2592165f, -0.0028729f},
      {-0.1396067f, -0.0231450f, -1.0352199f, -0.1867291f, -0.0791604f, -0.1701515f, -0.8079109f, 0.5749697f,
       0.9652033f,  0.4533402f,  0.5292984f,  -0.0383864f, -0.7022433f, -0.8263258f, -0.0234106f, -0.1702798f,
       -0.2770365f, 1.7892742f,  -1.8218277f, 0.0482458f,  -0.0449866f, -0.9489965f, -0.8178355f, 0.9888378f,
       -0.1965127f, -0.3159636f, 0.6142404f,  -0.2273317f, 0.0245827f,  0.1509685f,  0.4043260f,  0.0151934f},
      {-0.1584424f, -0.4293863f, 0.3603646f,  0.0806964f,  -0.1465145f,  0.4636188f,  0.2371372f,  -0.9954215f,
       -0.9956207f, -0.1521317f, 0.4654965f,  0.8756562f,  -26.0211525f, 0.6619551f,  0.6178755f,  -0.2060705f,
       -5.4139199f, 0.4081958f,  0.5052531f,  -0.1434515f, 0.0118675f,   -0.7570598f, 0.1470002f,  -1.1689945f,
       0.6753110f,  -0.1306027f, -0.4670730f, -0.1978367f, -0.0249477f,  -0.1528287f, -3.5133600f, -0.1840327f},
      {-0.1239197f, -0.0743121f, 0.1018589f,  0.1753664f,  0.1377508f,  -0.1015707f, -0.0867968f, -0.1579753f,
       -0.1154172f, 0.0129699f,  -0.1616541f, -0.0155113f, 0.0934191f,  0.0638911f,  0.1693934f,  -0.1489635f,
       -0.1038374f, 0.0133416f,  0.1250973f,  0.0584226f,  -0.1766174f, 0.1205552f,  -0.1210857f, 0.1652769f,
       0.0243489f,  -0.1060458f, 0.0241835f,  -0.1340377f, -0.0457090f, -0.0950753f, 0.1708927f,  0.1552651f},
      {-0.1199724f, -0.0058416f, 0.0542622f,  0.0222310f,  -0.1036683f, -0.0851065f, -0.1189391f, 0.1720102f,
       0.0661323f,  0.0312990f,  0.1367180f,  0.0502183f,  -0.1520149f, -0.0858432f, -0.0346137f, -0.0323115f,
       0.0328264f,  0.1653055f,  -0.1142885f, -0.1182363f, -0.0562076f, -0.0596631f, -0.1719120f, -0.0355513f,
       -0.1697994f, -0.1011196f, 0.1177145f,  -0.0090458f, 0.1316170f,  0.1320999f,  -0.0915131f, -0.0467606f},
      {-0.2590061f, -3.3710177f, 0.6442242f,  3.9767678f,  -0.0742588f, 0.0859132f,  1.3099788f,  -1.2452005f,
       -2.9292119f, 0.6942470f,  -1.8984971f, -1.2029575f, 0.2063048f,  0.2787364f,  1.2856948f,  -0.0217667f,
       0.2866552f,  0.5847929f,  1.3109248f,  -0.0786775f, 0.0735895f,  -1.4282985f, -0.0608591f, 1.6028868f,
       0.5392678f,  -0.4041471f, -4.4337196f, 0.1137881f,  0.1031272f,  -0.1202808f, 1.7374767f,  0.1157536f},
      {-0.1952813f, 0.1103555f,  0.2233851f,  -0.1499917f, -0.2292818f, 0.1689762f,  -0.1018378f, 0.3169050f,
       0.0884635f,  0.0761431f,  0.5664509f,  -0.0506645f, -0.1084301f, 0.1471282f,  0.2220050f,  -0.1214314f,
       -0.1319746f, 0.0591673f,  0.0874454f,  -0.1408519f, -0.0142711f, 0.0315587f,  -0.1224151f, 0.0914628f,
       0.1979371f,  -0.0463437f, -0.1152336f, -0.2587825f, -0.2632909f, -0.0559564f, 0.0656753f,  -0.1414432f},
      {-0.0504804f,  4.5346990f, 0.4987427f,  -0.2989712f, -0.1332167f, 2.7721298f,  1.2426027f,  1.4499321f,
       4.3676343f,   3.0417061f, -1.5677139f, 1.7026322f,  -0.1374672f, 0.0363470f,  0.4400525f,  0.0957057f,
       -12.3504925f, 0.7273703f, -5.1335268f, -0.1124442f, -0.1913630f, 0.5411643f,  -0.3226621f, -2.2353842f,
       3.3773770f,   0.3528583f, 3.0819893f,  -0.2331321f, -0.2654265f, -0.0439822f, 5.8733711f,  -0.1053251f},
      {-0.1155138f, 0.0887673f,  0.1627921f,  -0.0028785f, 0.0294555f,  0.0460320f,  0.0077190f,  -0.0997482f,
       0.0139993f,  -0.1596846f, 0.1008326f,  0.0841990f,  -0.0661424f, -0.0780374f, -0.1246249f, 0.0695508f,
       -0.0287499f, 0.0531197f,  -0.1084744f, -0.1379953f, 0.1465600f,  -0.1263457f, -0.0568986f, 0.0043564f,
       0.0020240f,  0.1289325f,  -0.0626180f, 0.0430545f,  0.0851046f,  -0.0043846f, -0.0451368f, 0.1471743f},
      {-0.3950417f, -0.7259933f, -0.0393477f, 0.5928225f,  -0.2202879f, -0.9788300f, -0.1838831f, -3.2710776f,
       0.6185434f,  0.6014572f,  -0.1762808f, -1.0373316f, -1.2065290f, -1.4773148f, -2.8530974f, 0.1056973f,
       -4.0211949f, -0.5704819f, -2.4016895f, -0.1379639f, -0.0315308f, 0.3294209f,  -0.0913506f, -5.7100935f,
       -1.1711146f, -0.2040427f, -0.4639144f, -0.0018757f, -0.1026365f, 0.1600360f,  -0.4699523f, -0.1153051f},
      {-0.0179232f, 1.8732587f,  0.9821721f,  -3.1935539f, -0.0434349f, 0.2928612f, -0.7673518f, 0.9635798f,
       0.1376058f,  -0.3421636f, 1.8314683f,  -0.2487589f, -0.7975381f, 1.3403983f, -0.8871480f, -0.0567581f,
       -0.7985972f, -2.0119452f, -2.2237182f, -0.0397909f, -0.1868900f, 1.5856882f, -0.2083889f, -0.7490882f,
       0.8039780f,  -0.0459467f, 2.6310203f,  -0.1563338f, 0.0705242f,  0.1013268f, 0.3420301f,  -0.1105618f},
      {-0.0030536f, 0.0550726f,  0.0247365f,  0.0539135f, 0.0041462f,  0.1283484f, -0.1345160f, -0.1196446f,
       0.0192959f,  0.1391010f,  -0.0550171f, 0.1347579f, -0.0866183f, 0.0260971f, -0.0872066f, -0.0069040f,
       -0.1611720f, -0.0387590f, 0.0544724f,  0.0093052f, -0.0435530f, 0.0518557f, -0.0150344f, 0.1445287f,
       0.0931544f,  -0.0839492f, -0.0416465f, 0.0130173f, 0.0840638f,  0.0755106f, -0.1147932f, 0.1755492f},
      {-0.1616495f, -0.0771971f, -0.2210982f, -0.3961177f, -0.0113571f, 0.5902296f,  -0.5393813f, 0.1823008f,
       -1.2818081f, -0.5049250f, -0.8267462f, -0.9484388f, -0.3918443f, 0.7642094f,  1.2740766f,  0.1178414f,
       -0.4610144f, 0.4484425f,  0.8912551f,  0.0186309f,  0.0665763f,  0.3372465f,  -0.0428050f, 0.2273596f,
       0.9175110f,  0.2699534f,  -0.0253794f, 0.0299729f,  -0.2058173f, -0.0592242f, -0.0572686f, -0.0423982f},
      {0.0748813f, -0.0956330f, 0.1182399f,  0.0235180f, 0.0755077f,  -0.0080323f, 0.1430327f,  0.1433941f,
       0.0088102f, -0.1576018f, -0.0581755f, 0.0669283f, -0.0030799f, -0.0456722f, -0.0548336f, 0.1587808f,
       0.0485289f, 0.1388402f,  -0.0288800f, 0.1190647f, -0.1217714f, -0.0630771f, -0.1188935f, -0.0351463f,
       0.1184886f, 0.1742180f,  -0.1063494f, 0.0598065f, -0.0916949f, -0.0629127f, -0.0471978f, -0.0771947f},
      {-0.0985426f, 1.0792063f,  1.8694192f,  2.9023867f,  -0.0557466f, 1.1567202f,  1.5574342f,  0.5629173f,
       0.6419038f,  3.7269309f,  -0.3678163f, -1.4712503f, 0.6367968f,  0.2423529f,  -0.0003227f, -0.0793262f,
       -2.0345049f, 1.6687890f,  -2.6424804f, -0.0972821f, -0.1067868f, -2.4589403f, 1.1864219f,  -3.8523736f,
       1.2576233f,  -3.5603056f, -0.3363104f, -0.2625760f, -0.0486831f, -0.2020815f, 1.7379062f,  -0.2817719f},
      {-0.2382698f, -0.0369526f, -0.9102118f, 0.1606273f,  0.0671917f,  0.7371277f,  0.3514641f,  -1.2878137f,
       1.2923641f,  0.0090729f,  0.7507587f,  -1.4562078f, -0.5774487f, -0.4664567f, -0.2581032f, -0.1959353f,
       0.6066368f,  0.2712417f,  -0.9657973f, 0.0766930f,  -0.0377065f, 0.0010082f,  -0.6783328f, -0.4455661f,
       0.8587459f,  0.5470241f,  -0.4954456f, 0.0005699f,  -0.1423599f, -0.1135840f, -0.2195335f, -0.1496571f},
      {-0.3012272f, 1.1872311f,  0.8422393f, -6.2601972f, -0.2981605f, 1.5993812f,  -2.6854863f, 0.0056105f,
       -0.1335959f, -5.9808297f, 2.8026855f, 0.8525908f,  -1.8136487f, 3.6331921f,  0.1868006f,  -0.1342317f,
       2.3435016f,  -2.2307577f, 4.8198018f, -0.1190907f, -0.0655435f, 8.3235712f,  -1.2067715f, 4.2671795f,
       2.0979078f,  6.3206992f,  3.3627262f, -0.1377247f, -0.0129657f, -0.0135725f, -2.3120611f, 0.0887837f},
      {-0.0129489f, 0.2192080f,  -8.8009539f,  -1.5730038f,  -0.0511515f, 0.0177519f,  -7.9062777f, -0.3085724f,
       -1.4285777f, -0.6482111f, 0.0689229f,   -22.1278172f, -0.4550959f, -6.8944449f, -7.6304417f, 0.1537255f,
       -3.6688247f, -8.7579079f, -21.5093250f, 0.0462299f,   -0.1569992f, -1.2735083f, 0.0083657f,  2.0049398f,
       -0.2546180f, 1.2734691f,  -0.2089088f,  -0.0412429f,  -0.1514467f, -0.1422564f, -0.7521744f, 0.0187343f},
      {-0.0114166f, -0.1734623f, 0.3775463f,  -0.1711388f, 0.0267975f,  0.6141270f,  -0.1769048f, 2.9651175f,
       1.3871143f,  -0.7265730f, 0.0823323f,  -0.3552943f, 0.3613645f,  0.2767544f,  2.5629773f,  -0.1292619f,
       0.5300084f,  -0.8089513f, 0.5591400f,  -0.1563206f, -0.1333907f, 0.3116430f,  -0.3793093f, 1.1936089f,
       0.7635344f,  -0.1088706f, -0.2467019f, -0.0476468f, -0.0350894f, -0.1223973f, 2.1637316f,  -0.0105249f},
      {-0.0670835f, -0.2535372f, 0.0488084f,  -0.2114348f, 0.1752738f,  0.0406031f, 0.1307459f,  0.1269094f,
       0.0399645f,  0.0549782f,  -0.0011317f, 0.0845441f,  0.2009135f,  0.0488416f, -0.2501647f, -0.0089817f,
       0.0190570f,  0.0677581f,  -0.0596290f, 0.0460789f,  -0.0067541f, 0.0543951f, 0.2782752f,  -0.1134752f,
       -0.1301159f, 0.2074202f,  -0.0252096f, 0.1316880f,  -0.0666289f, 0.0399668f, 0.2021785f,  -0.1232601f},
      {0.0879123f,  0.0748062f,  -0.0199840f, 0.0336487f,  0.1505498f,  0.0674400f,  -0.0790775f, -0.1098269f,
       -0.0383008f, -0.0255218f, -0.0717672f, -0.0759603f, 0.1128651f,  0.0737714f,  -0.1758558f, 0.1357986f,
       -0.0928478f, -0.0592141f, 0.0128050f,  0.0223482f,  -0.0356030f, -0.1286100f, -0.0304943f, -0.1284770f,
       -0.0159977f, -0.1166134f, 0.0342969f,  -0.1574426f, -0.0681842f, 0.0336786f,  -0.1546657f, -0.0244547f},
      {0.0081901f,  -0.4793198f, 0.2201564f, 1.8487962f,  -0.2118636f, 1.6568431f,  0.1461507f,  0.2546957f,
       0.0209678f,  0.5052865f,  4.2458119f, 0.4726660f,  0.6147526f,  -0.0811244f, -0.3683205f, 0.0288275f,
       -0.1728377f, -0.2327026f, 0.3795225f, 0.0633707f,  0.0172759f,  -2.5634010f, 0.6410037f,  -0.5937485f,
       1.9001206f,  -0.3145349f, 0.5588477f, -0.1174979f, -0.0721020f, -0.1061689f, -0.2892669f, 0.0750118f},
      {-0.2335712f, -0.8612313f, 0.1918780f,  -0.9135100f, 0.0389456f,  -0.7553085f, -0.5341566f, -0.4841789f,
       -0.3147081f, -1.2586119f, 0.1655522f,  0.9101130f,  -0.4086663f, 0.2617121f,  -0.4022547f, -0.2165678f,
       0.3313348f,  -0.0964639f, 1.9238237f,  -0.1438740f, -0.0876792f, 0.1767441f,  -0.2611581f, 0.8025786f,
       -0.7012891f, 0.8936687f,  -0.3843912f, -0.0658420f, 0.0885977f,  -0.0123303f, -0.3043289f, -0.0532568f},
      {0.1164514f, -1.0640248f, -0.5413145f, 0.3141522f,  -0.2685775f, 0.1510114f,  -0.4413387f,  -0.7852824f,
       0.0290419f, 0.1172353f,  0.3338930f,  0.9944149f,  0.3384417f,  -0.6955703f, 1.9768248f,   -0.0813571f,
       1.7344730f, -0.3723056f, -1.5452009f, -0.0285341f, -0.0055468f, 0.4357964f,  -25.5594540f, -0.2531244f,
       0.4670755f, 0.0950475f,  -0.1848688f, -0.2310058f, -0.0810618f, 0.0198390f,  0.5904832f,   -0.0251791f},
      {-0.1941805f, -0.1184131f, -2.3098714f, -0.2929095f, 0.0307230f,  0.2909535f,  -1.4196682f, -2.3635228f,
       -1.1592886f, -1.5837110f, 1.6150708f,  -1.9123217f, 0.1961837f,  -2.2461255f, -0.1167587f, -0.0978368f,
       -1.4495877f, -1.7920384f, 1.1117905f,  0.0302894f,  -0.2238982f, 2.3862729f,  -0.0052594f, -2.4935262f,
       0.2757066f,  -0.1557947f, 0.7014596f,  -0.1549281f, -0.1422600f, -0.1042186f, -0.5192909f, -0.1436679f},
      {-0.2948752f, 0.9104268f,  -0.2624179f, 0.5793804f,  0.0351001f,  0.4761117f,  0.1385636f, -0.4384172f,
       0.7482975f,  0.3115528f,  -3.0736301f, -0.4957280f, 1.6422212f,  0.7151330f,  0.1067595f, -0.1619667f,
       1.2693729f,  0.3484730f,  -0.0637857f, 0.0673190f,  0.1240567f,  0.0895748f,  1.9493099f, 0.4534306f,
       0.4271961f,  -0.9305086f, -0.1620333f, 0.0745185f,  -0.1586338f, -0.0639312f, 0.4186334f, -0.0697918f},
  };

  ALPAKA_STATIC_ACC_MEM_GLOBAL const float bias_4[1] = {-0.4828022f};

  ALPAKA_STATIC_ACC_MEM_GLOBAL const float wgtT_4[32][1] = {
      {0.1167266f},  {1.1549684f},  {1.9247324f},  {-2.2644944f}, {0.0906377f},  {0.2692479f},  {-1.1148560f},
      {-1.3483123f}, {0.8520299f},  {-1.9622867f}, {-0.8427473f}, {-0.9617985f}, {-1.6160712f}, {-1.6358091f},
      {0.9988959f},  {0.0237570f},  {-1.0980911f}, {-0.9789495f}, {-1.8490231f}, {-0.0100558f}, {0.1948720f},
      {-1.1178674f}, {-2.0875437f}, {1.7506974f},  {0.7427360f},  {-2.0449388f}, {-2.5838737f}, {0.0625565f},
      {0.0211280f},  {-0.0177225f}, {-1.0989223f}, {-0.0588442f},
  };

}  //namespace lst::t5dnn

#endif
