#ifndef RecoTracker_LSTCore_src_alpaka_NeuralNetworkWeights_h
#define RecoTracker_LSTCore_src_alpaka_NeuralNetworkWeights_h

#include <alpaka/alpaka.hpp>

namespace lst::t5dnn {
  ALPAKA_STATIC_ACC_MEM_GLOBAL const float bias_layer1[32] = {
      -1.7128716f, 0.1342516f,  -1.4310330f, 0.2064559f, 3.1270707f,  1.2044203f,  -0.4247369f, 0.9003102f,
      0.0465960f,  0.0128122f,  1.6568773f,  0.1776162f, 2.0805979f,  -0.0997964f, -0.9894860f, -0.0648111f,
      -0.0193663f, -0.0596841f, -2.0598757f, 1.4699619f, -3.9257181f, -0.0218257f, 0.1042878f,  0.0027751f,
      -0.3767176f, 0.0642788f,  0.3004227f,  1.1816521f, -0.1448327f, -2.7598374f, 0.8325039f,  -1.5783384f};

  ALPAKA_STATIC_ACC_MEM_GLOBAL const float wgtT_layer1[23][32] = {
      {1.0470641f,  -0.1197168f, 1.8577816f,  -0.0060186f, -0.7541588f, 1.1680204f,  0.6370878f,  -1.4548999f,
       -0.0383963f, -0.1543131f, -0.3489025f, -0.0702869f, 2.8539977f,  -0.0969742f, 2.2843301f,  -0.2135435f,
       -0.0066958f, -0.0008692f, 1.3951476f,  -0.1181870f, -0.3345473f, -0.1450863f, -0.1452127f, -0.0842553f,
       0.1165620f,  -0.1126658f, 1.1788466f,  0.7880565f,  0.1118686f,  0.4665366f,  -0.5639495f, 1.3219374f},
      {-0.0046852f, 0.1385111f,  -0.0405697f, -0.0068917f, 0.0057400f, 0.0527111f,  0.0111618f,  2.1395004f,
       0.0056245f,  -0.0069246f, -0.0429811f, 0.0876050f,  0.0202594f, -0.2383825f, -0.0101895f, -0.0034794f,
       -0.0012955f, 0.1658831f,  0.0428447f,  0.0138946f,  4.7924547f, -0.0107725f, 1.3680389f,  -0.0044136f,
       0.0268410f,  -0.1537780f, -0.0115401f, 0.0082922f,  0.0016513f, 0.9220053f,  0.0058653f,  0.0033870f},
      {-1.9687886f, -0.0831244f, -2.4944661f, -0.0482801f, 0.0008517f,  -6.1511178f, -1.0820609f, 0.5692035f,
       0.0897314f,  0.1464195f,  0.2326272f,  -0.1593386f, -0.1889395f, 0.0421605f,  -0.2008636f, -0.2181111f,
       0.0073928f,  -0.0949503f, 1.0521379f,  -1.3910261f, 0.1159771f,  -0.1124048f, -0.0810883f, 0.0321019f,
       0.8873674f,  -0.0864967f, -6.3969827f, -0.2682347f, -0.0467168f, 0.5620601f,  -0.6860674f, -2.1258771f},
      {4.5173612f,  -0.1378793f, 4.4133825f,  1.0534751f,  2.2702441f,  2.3671272f,  2.4124029f,  -1.3285073f,
       0.1722518f,  0.0058970f,  -6.2187376f, 0.0060543f,  -4.5594893f, -0.1469792f, 3.9235148f,  -0.0009074f,
       -0.0259966f, -0.0882352f, 2.7445776f,  -1.8376620f, 0.1418443f,  -0.0382480f, -0.0015394f, -0.0281418f,
       0.1630468f,  0.0918773f,  2.2215457f,  -3.8271687f, -0.1116951f, 2.6242471f,  -1.8347073f, 2.4427292f},
      {-2.7238798f, 0.0869857f,  -1.9525601f, 1.7830800f,  8.0156574f,  -1.3470169f, 2.2453408f,   1.7790486f,
       0.1525104f,  0.0179587f,  -2.6958621f, 0.0764556f,  5.2998805f,  -0.1900181f, -13.8044901f, -0.0627438f,
       0.0212663f,  -0.1649797f, 0.8723976f,  5.9379125f,  -0.2263220f, -0.0364064f, 0.7608309f,   0.0180133f,
       -0.0312710f, -0.0487789f, -2.6432595f, -0.5695135f, 0.1154893f,  1.3447289f,  -5.8359904f,  1.6087891f},
      {0.5410700f, -0.0383295f, 0.0741662f,  -0.3169081f, -1.1878636f, 0.6385877f,  0.0259167f,  -4.2845435f,
       0.0559052f, 36.0442772f, -0.0166035f, -0.0051008f, 0.3240232f,  -0.1556449f, 0.2521442f,  -0.0340655f,
       0.0951208f, -0.0573689f, 0.0594265f,  -0.4266554f, 16.1765480f, -0.0419985f, 29.1996822f, -0.0165114f,
       3.6861746f, -0.0559679f, -0.2934571f, -0.1931313f, -0.0574880f, 2.4848661f,  0.6691625f,  0.5640931f},
      {-1.1836919f, 0.0966997f,  0.8145562f,  0.1576394f, -0.1727823f, -8.2148561f, 1.2533059f,  5.8870034f,
       0.1782307f,  0.2530475f,  0.7506963f,  0.1689408f, 0.5216104f,  -0.1457601f, -0.6848996f, 0.1375670f,
       -0.1549595f, 0.2046185f,  -0.2554586f, 1.1389959f, -0.1513846f, 0.2742757f,  1.1896684f,  -0.2724132f,
       5.6645799f,  -0.2501455f, -9.6502342f, 3.9093683f, 0.2025759f,  0.2624546f,  -0.7641840f, 0.2588432f},
      {2.0870430f,  0.0544846f,  1.9361126f,  0.5269354f,  1.4575322f,  2.8685210f,  -0.1200337f, 0.4238762f,
       -0.2036153f, -0.1428722f, -4.7584662f, -0.1427424f, -2.5188901f, -0.0374641f, -2.4836328f, 0.2743371f,
       0.0563565f,  -0.0607157f, 4.5294619f,  -3.9958348f, -0.4110690f, 0.2295766f,  -0.9859837f, 0.0421985f,
       8.2222862f,  0.0376711f,  0.7529512f,  -3.5928838f, -0.1700689f, 4.2138467f,  -0.2533066f, 1.2717037f},
      {10.4474707f, -0.0618454f, 4.8203468f,   2.1019332f,   -4.4056530f, 3.1118693f,  6.3478060f,   -2.4567204f,
       0.1628775f,  -0.1237038f, -13.1547422f, -0.1934834f,  8.8030081f,  0.0784850f,  -11.5959692f, -0.3230917f,
       0.0567609f,  0.0611834f,  9.3341036f,   9.7057333f,   -0.1305177f, -0.1530811f, -1.1356006f,  0.0138443f,
       0.3043517f,  -0.0240524f, 1.0081784f,   -12.5414534f, -0.0504846f, 1.9027662f,  15.4686537f,  -6.4143553f},
      {0.2969515f,  0.1535509f, -0.2673222f, 0.4867019f,  0.3627007f,  0.3998415f,  0.0513149f,  2.7988746f,
       0.1567195f,  7.4609776f, -1.6885461f, -0.0300279f, -0.5214365f, -0.1055362f, -0.9710206f, -0.0004887f,
       -0.1128611f, 0.1824101f, -0.2922310f, -1.2175988f, 6.0669641f,  -0.0094596f, 8.7585573f,  0.0460530f,
       -2.2615271f, 0.0640831f, -0.1206771f, 1.0828390f,  -0.0978285f, 1.5566332f,  0.3480590f,  0.2229834f},
      {4.1933513f,  0.0623058f,  6.1439009f,  -0.1133142f, 2.6082575f,  -5.4193907f, 2.4222109f,  4.1368589f,
       -0.2027878f, 0.1294324f,  -1.9180849f, 0.1910183f,  -3.4491854f, -0.1859282f, -5.3294230f, 1.0128989f,
       -0.4267387f, -0.1312657f, 2.5287900f,  -1.4212453f, 0.0564379f,  0.5335433f,  0.1363910f,  -0.1303772f,
       1.7365619f,  0.0997566f,  -5.3896608f, -0.9797778f, 0.1466258f,  -1.0954709f, -0.8311025f, 4.1250572f},
      {-1.5824091f, 0.0472895f,  -2.4862309f, 0.4790152f,  2.3420455f,  1.3771492f,  -1.5943390f, -0.0675349f,
       -0.0526449f, -0.1893982f, 0.2165818f,  0.1007685f,  -3.1177826f, -0.2383197f, -3.5381398f, 0.1172207f,
       0.1796251f,  -0.0686349f, 0.1972436f,  -1.4743091f, -0.0096648f, 0.1832613f,  -0.1007160f, 0.1230583f,
       0.5558861f,  -0.1278929f, -0.4095548f, -3.0613515f, 0.0188147f,  0.9328110f,  1.7883456f,  -1.0352626f},
      {-16.7943916f, -0.0201264f, 10.2480621f, -4.7509418f,  -9.3062382f,  0.9865241f,  -27.3819675f, -0.2577856f,
       0.1008580f,   -0.1193894f, 18.4910583f, 0.0028264f,   -14.5541000f, 0.0721774f,  2.3822858f,   -0.2128361f,
       -0.0294508f,  0.1154756f,  7.4090605f,  -21.5498924f, 0.0460456f,   -0.1148223f, 0.0759813f,   -0.1038723f,
       1.2539551f,   0.1260916f,  5.6579070f,  26.2153740f,  0.1898724f,   -0.0317560f, -19.1816750f, -9.3741875f},
      {-0.1720421f, -0.0873592f,  0.0387434f, -0.0713800f, -0.8787260f, -0.6702911f, -0.0526959f,  5.1351185f,
       -0.1036948f, -16.7451611f, 0.9556987f, -0.0715627f, 0.1321606f,  0.0437446f,  -0.4725936f,  0.0101415f,
       -0.0607092f, 0.0627773f,   1.1371830f, 0.7474156f,  -3.8935590f, 0.0164857f,  -11.9429035f, -0.0422761f,
       -0.9909756f, 0.0368956f,   0.2428966f, -0.9362642f, 0.1793355f,  -1.3033565f, 0.1624352f,   0.1362412f},
      {-0.9365921f, 0.0059134f,  3.8338106f,  0.0940598f,  2.0487580f,  -5.5864372f, -1.0182533f, 1.3359102f,
       -0.1531815f, 0.1962933f,  -0.1611047f, -0.1720003f, -2.4608021f, 0.1618820f,  -0.1100207f, 0.5998134f,
       -0.0035819f, -0.0130667f, -4.8933206f, 2.9080451f,  0.4802164f,  0.1570310f,  -0.4109092f, 0.1297357f,
       -3.2708001f, -0.0686954f, -7.0746970f, -0.2384638f, 0.0864183f,  -3.3943758f, 4.4589744f,  1.6772488f},
      {1.1598698f,  -0.1925899f, -2.6064541f, 0.1021242f,  2.6864738f,  1.3009974f,  0.6200736f,  -1.0281892f,
       -0.0665451f, -0.1318156f, -0.2490181f, -0.0032996f, -0.0906493f, -0.0805852f, -0.2067665f, 0.1380015f,
       0.0787327f,  -0.0736049f, -2.9875150f, -0.4701438f, 0.2967086f,  0.1779426f,  0.2493271f,  0.0905028f,
       -4.9054365f, 0.1590727f,  0.0944764f,  -2.3400264f, 0.0710686f,  -1.1912180f, 1.4078020f,  0.6508521f},
      {5.7522502f,  0.0777660f,  -21.6651478f, -6.5339417f,  -9.1983948f, -1.5598969f, 10.4132004f, 0.4741257f,
       -0.1120418f, 0.1914623f,  15.9177122f,  -0.0759191f,  -9.6880960f, -0.3011496f, 6.3498497f,  0.1178639f,
       -0.0774687f, -0.0632004f, 2.5209892f,   -22.5681877f, 0.2070200f,  0.0413435f,  0.0780297f,  -0.1453965f,
       1.8214792f,  -0.1879270f, 2.2352257f,   -5.5748014f,  -0.1631390f, -0.6915501f, -0.1644478f, 21.6391087f},
      {-0.4486383f, 0.1768278f,   0.2464764f,  -0.1729501f, 1.1153711f,  -0.0466370f, -0.0034729f,  -1.4627773f,
       -0.0108311f, -14.7904663f, 0.2117144f,  -0.0887739f, -0.0232453f, 0.0458550f,  0.7366714f,   -0.0038009f,
       0.0835363f,  0.1145753f,   -0.7097918f, 0.4118216f,  -5.1519175f, -0.0015955f, -14.2230244f, 0.0334310f,
       -0.1634391f, -0.0857512f,  0.2617812f,  0.4427051f,  -0.1913407f, -1.3170563f, -0.1848543f,  -0.6479355f},
      {1.4290189f,  -0.1925747f, -2.2321701f, 1.0347893f,  1.4090422f,  -1.2606754f, 1.3803934f,  -1.3050125f,
       0.0494813f,  -0.1998794f, 0.7589731f,  -0.1246163f, -1.0521157f, -0.1115221f, -1.9786434f, -0.2126753f,
       0.4002798f,  -0.0069717f, -6.6013136f, 3.1789875f,  0.7657469f,  -0.1267194f, 0.0419063f,  0.3642669f,
       -6.7586894f, -0.0535223f, -2.8554728f, 2.9503417f,  0.0177836f,  -2.0429053f, 2.6372652f,  1.1600434f},
      {-1.3924896f, 0.0819597f,  0.0191986f,  0.7031433f,  2.1669061f,  0.4802097f,  -2.9560573f, -0.8494331f,
       -0.0108508f, 0.0889492f,  -0.3086242f, 0.1133444f,  -0.1484205f, 0.1007004f,  0.6362981f,  0.1236610f,
       0.0622093f,  0.0730203f,  -0.8297594f, 0.1341422f,  0.3793522f,  0.1218217f,  0.2715869f,  0.0769635f,
       -4.0451679f, -0.1977343f, 0.6425554f,  -1.6417221f, -0.1142565f, -1.8031747f, -2.2360616f, -3.9320829f},
      {-1.7073715f, -0.0277569f, 1.1676580f,  2.9326086f,  0.1098004f,  -0.0885895f, 0.3141355f,  -0.1388088f,
       -0.1872799f, 0.0013908f,  0.0469519f,  -0.1802992f, 0.2216607f,  -0.1504553f, -0.0912468f, 2.3088257f,
       -0.0058846f, -0.1750360f, -0.3409522f, -0.3275905f, -0.1318251f, -2.3834774f, 0.1308427f,  -0.0226938f,
       0.0353426f,  -0.0019682f, 0.1664016f,  -0.2889815f, -0.0311523f, 1.0424013f,  -0.4634534f, -1.7293104f},
      {1.2959306f, -0.1592459f, 0.1243973f,  -1.3340693f, -2.0555475f, 0.1322699f, -1.9705166f, 0.0556805f,
       0.0263113f, 0.0120091f,  0.0999033f,  -0.1911397f, -0.4352730f, 0.1183998f, -0.1301206f, -2.3388858f,
       2.2541418f, -0.1102677f, -1.6731033f, 0.1362230f,  -0.2067377f, 2.3402069f, -0.0073645f, -2.1791477f,
       0.1896117f, 0.0372125f,  0.1981026f,  0.6031363f,  -0.2080303f, 0.1371893f, 0.8226796f,  -0.0605060f},
      {0.2881531f,  -0.1088847f, -1.5652405f, -1.8670746f, -0.4187936f, 0.1189982f,  1.4126163f,  0.0020280f,
       -0.1215346f, 0.0004255f,  -0.0867846f, -0.0414075f, -0.1062209f, -0.2005522f, 0.0666461f,  0.0120700f,
       -2.2715797f, -0.0299158f, 2.1953349f,  -0.1784950f, -0.0424833f, -0.0033026f, -0.0436549f, 2.1705461f,
       0.1024847f,  -0.2440068f, 0.0585874f,  -0.3532684f, -0.0598879f, -0.0027133f, -0.4931934f, 2.0106902f},
  };

  ALPAKA_STATIC_ACC_MEM_GLOBAL const float bias_layer2[32] = {
      1.8358845f,  2.5277822f,  -0.3459062f, 0.4841941f,  -0.8207908f, -0.0785141f, -0.2817621f, 0.9839473f,
      -1.1670978f, -0.2937303f, -0.3895537f, 0.5407489f,  0.4496025f,  3.4931588f,  -0.0722532f, -0.9283375f,
      3.1486082f,  0.8791558f,  -2.5561793f, -0.6732445f, -0.1288764f, -0.0750465f, -1.2502522f, 1.4080133f,
      -0.6459516f, -0.8267404f, -2.3864725f, -1.5392923f, 0.1280820f,  -1.6601337f, -1.0260502f, 0.7408190f};

  ALPAKA_STATIC_ACC_MEM_GLOBAL const float wgtT_layer2[32][32] = {
      {1.8002703f, 2.1629734f,  3.7255452f,  -2.8847077f, 0.8886185f,  -0.2196779f, 0.2751209f,  -3.8803883f,
       0.9994974f, 0.0449850f,  -0.1888827f, -0.2951989f, 0.4379393f,  -0.1047421f, -0.1141152f, -0.4180995f,
       0.8384326f, -2.0969434f, 0.1094280f,  -1.9964529f, -1.1075271f, -0.1299720f, 0.0443957f,  3.3152847f,
       0.4197721f, 1.7880158f,  -2.7660804f, 2.6880586f,  -1.3113543f, -4.5966086f, -1.3641925f, -0.4307662f},
      {0.1563770f,  0.0292847f,  -0.1469079f, 0.1103351f,  -0.0361564f, -0.0922010f, -0.1594518f, -0.0722350f,
       -0.1718376f, -0.0826380f, -0.1528727f, 0.1483700f,  -0.0473974f, 0.1642510f,  0.0217840f,  0.1150681f,
       0.0447345f,  -0.1100124f, -0.0386369f, 0.1371120f,  -0.1728607f, -0.1632479f, 0.1291889f,  -0.1766516f,
       0.0160212f,  -0.0548051f, 0.1352266f,  -0.0576028f, 0.1192898f,  -0.0798260f, 0.0527170f,  -0.0175427f},
      {-2.6955273f, -2.7267911f, -2.3538194f, 1.8076668f,  0.7086561f,  -0.1068764f, -0.0914520f, 3.5720589f,
       -1.5670944f, 0.0827483f,  -0.2165100f, -1.3436251f, -1.8675426f, -1.0434316f, -0.0843031f, -0.6541334f,
       0.6555426f,  -3.0931149f, -1.7231021f, -2.3436484f, 3.6560345f,  -0.1667232f, -0.2787535f, -2.5230579f,
       -2.0819583f, -1.3824934f, 2.4499056f,  -3.5816793f, 0.2220768f,  1.6061841f,  -0.2945296f, -0.1054276f},
      {-1.0420870f, -1.9987361f, -0.9382520f, 2.3438618f,  -1.6852469f, -0.2253194f, 0.7360734f,  1.0590367f,
       0.2762641f,  -0.0492459f, 0.1275941f,  -2.7358665f, -2.2093089f, -5.7597747f, -0.1769611f, -0.6124660f,
       -0.9399852f, 1.7961005f,  -1.9520148f, -1.1885079f, 0.3807641f,  -0.1861551f, -0.5359672f, 1.2034781f,
       1.7502577f,  0.7330520f,  0.6696041f,  -0.8727628f, 1.7426103f,  -2.9986427f, 0.8719378f,  -1.4771907f},
      {-2.0291154f, -1.1882607f, 0.0110589f,  1.0386499f, 0.1606538f,  -0.2551437f, 0.0493924f,  -1.2209238f,
       -3.3556263f, 0.0495005f,  -0.1934122f, 2.5202310f, 0.6040409f,  -2.0607300f, 0.0005188f,  -0.3531363f,
       1.1065143f,  0.2532372f,  5.2623205f,  0.1154153f, -0.3945378f, -0.1719029f, -0.3233698f, 0.4482978f,
       -0.1683033f, 0.7136416f,  1.7644633f,  0.7071000f, -1.0704315f, 2.1049538f,  1.0987674f,  0.6811081f},
      {-1.6725007f, 0.1306752f,  1.5003573f,  -1.6493596f, 0.8697030f,  -0.1189863f, 1.5758854f,  -0.3494960f,
       1.4241759f,  -0.0345394f, -0.1404638f, -0.0433899f, 0.4870300f,  -1.9032130f, -0.1156590f, 0.1360634f,
       -2.3299878f, -0.4416005f, -1.7062401f, 0.7819906f,  1.1971890f,  -0.0634672f, 1.8064553f,  -0.9247137f,
       -0.5476609f, 1.1581101f,  -0.0889295f, -0.3840511f, -0.4531445f, 0.0441128f,  -1.3120719f, 0.4808699f},
      {-0.5612075f, -2.7789669f, -2.3907847f, 3.9186249f,  -0.8908413f, -0.0863005f, -1.6564652f, 0.3353436f,
       -1.5358615f, 0.0662580f,  0.3417383f,  -0.3749335f, -0.0036572f, -3.8831565f, -0.0983820f, 0.5354366f,
       -6.6652350f, 1.6000100f,  -1.8079662f, 2.0477569f,  -4.1290030f, -0.0412501f, -0.6023735f, -4.6758919f,
       0.3286252f,  -2.2043946f, 1.2085207f,  1.4211750f,  -0.1854231f, 2.4180083f,  -1.2680570f, 1.4101037f},
      {0.2311528f,  -0.0136889f, 0.0733823f,  -0.1833959f, 0.1051372f,  -0.0100246f, 0.4413985f,  0.8778051f,
       0.3052035f,  -0.2664410f, -0.3282145f, -2.6285062f, -0.4753624f, 0.2178679f,  -0.1870482f, 1.9757826f,
       -0.2592147f, -0.7607883f, 0.0473185f,  0.1764081f,  -0.4064965f, -0.2994103f, 0.8463997f,  -0.3933429f,
       0.4342519f,  -0.1675831f, -1.2064089f, -0.4055981f, -2.2508459f, 0.6030401f,  -0.1097841f, -0.9539003f},
      {-0.1406082f, 0.1690279f,  -0.0733263f, 0.0852242f,  -0.1274466f, 0.1075061f,  0.0910720f,  -0.1350205f,
       -0.1546926f, 0.1057806f,  0.0330341f,  -0.0934195f, 0.1601656f,  -0.0511055f, -0.1460595f, -0.0776061f,
       -0.0824565f, -0.1036485f, -0.1011721f, -0.0200776f, -0.1350540f, -0.0962521f, 0.1734728f,  0.0060216f,
       -0.0319305f, 0.0945216f,  -0.1065206f, -0.0016958f, -0.1093906f, -0.0510333f, -0.0908307f, -0.0938248f},
      {0.4999215f,  0.1541484f,  -0.0226549f, -1.0557722f, -0.1042604f, -0.0170325f, 0.2866811f,  0.8511086f,
       1.1923438f,  -0.1549978f, 0.0798001f,  -6.9314709f, -1.1928171f, -0.9692793f, -0.1337284f, 7.9604135f,
       -0.1109660f, -0.5056310f, -0.5804644f, 0.4069516f,  0.3158571f,  0.0911313f,  2.5092757f,  -0.2975159f,
       2.0324965f,  -2.2823246f, -2.1192095f, -1.8995225f, -5.5272169f, 2.0492468f,  1.2288713f,  -1.4963852f},
      {5.1530070f, -0.6260874f, 0.5787302f,  -0.9649872f, 0.6278721f,  -0.2210928f, 1.1726587f,   -0.4253454f,
       2.8424573f, -0.1319205f, -0.1563393f, 0.8994604f,  -1.6874270f, -1.5619994f, -0.1228600f,  -0.2142058f,
       1.1332827f, 2.2137780f,  -0.6578928f, -0.7491044f, 0.5915473f,  0.0948860f,  0.0467935f,   0.0988529f,
       0.3769159f, 0.0313588f,  3.1678100f,  4.0946031f,  -2.0298052f, -2.9251237f, -15.7768049f, -0.9278026f},
      {-0.1123418f, 0.0604080f,  0.1287210f,  0.0591865f,  0.0758979f, 0.0592484f,  -0.0093081f, 0.0517007f,
       0.1039893f,  0.0840081f,  -0.0475195f, 0.0773203f,  0.0538968f, -0.1051923f, 0.1009402f,  -0.1316185f,
       0.0724448f,  0.0306135f,  -0.0486748f, -0.0722745f, 0.1468723f, -0.1060006f, 0.0421388f,  -0.0782657f,
       0.1244156f,  -0.1166198f, -0.0568141f, -0.1199665f, 0.1458007f, 0.1165370f,  0.1192286f,  -0.0358638f},
      {-1.2864125f, -1.8486965f, 1.6435676f,  0.7028154f,  0.2751994f,  -0.2141241f, 0.7254654f,  -0.0900721f,
       -2.3046649f, -0.2045527f, -0.2506290f, 0.1061822f,  -1.1108617f, -2.7333403f, -0.0496300f, -0.0272756f,
       0.1009897f,  2.6843724f,  2.3774028f,  -0.0436373f, -1.0514801f, 0.0879064f,  -0.0470975f, 2.6986542f,
       0.3466457f,  0.5638432f,  -1.2073313f, 0.2213434f,  0.2924775f,  3.3962898f,  2.8108854f,  -2.2864776f},
      {-0.1395721f, -0.0334321f, 0.1194578f,  0.0442517f,  0.0994851f,  0.0774809f,  0.0715346f,  0.0439927f,
       0.0091065f,  0.0465857f,  -0.0987205f, -0.1570366f, 0.1505955f,  0.1342364f,  -0.1371438f, 0.2777389f,
       -0.0368055f, 0.0249695f,  0.0913812f,  0.1206752f,  -0.0658824f, -0.0486579f, 0.0199598f,  -0.2393603f,
       -0.2041152f, -0.0404058f, -0.0306136f, 0.1607573f,  -0.1114547f, -0.0937892f, -0.1522405f, 0.0854327f},
      {0.5203551f,  1.4355158f,  -1.8113948f, -1.3118421f, -0.0296819f, -0.1117224f, 0.2096988f,  1.2164460f,
       3.4666853f,  -0.1002867f, -0.0117938f, -0.3596376f, -0.0033491f, 0.4891150f,  -0.0404476f, 0.6142709f,
       -1.1093390f, -2.5883400f, 0.5362279f,  0.9443758f,  0.0072079f,  -0.1581724f, 0.3359093f,  -1.3252915f,
       0.3217546f,  0.8784474f,  -1.2553847f, 0.0107371f,  -2.1671984f, 0.5757877f,  -3.2584434f, -0.3321892f},
      {2.8762059f,  -5.2435293f, 2.5614872f,  2.4859431f,  0.7643469f,   -0.0598322f,  -25.9156303f, 0.2400618f,
       1.5664779f,  -0.1598444f, -0.0418044f, 0.4595470f,  -16.5901833f, -12.7328262f, -0.0198965f,  0.3144509f,
       -2.9704120f, -1.8902416f, 2.2855198f,  -0.6706962f, -2.7176077f,  -0.1566494f,  0.8711050f,   -0.9200099f,
       3.2790158f,  5.5184603f,  -2.5617602f, 2.6347120f,  1.9495373f,   0.0225524f,   -1.9332862f,  -18.0976868f},
      {-3.3595104f, -2.5133717f, 2.3029313f,   1.3162504f,  -3.8077657f,  -0.0536259f, -0.0205361f,  -0.1598015f,
       -0.3549510f, -0.0775897f, 0.2714376f,   -2.1834948f, -45.8919563f, -0.0704976f, -0.0691150f,  0.4276204f,
       0.4552518f,  1.1444594f,  -20.3073807f, -1.9081476f, 1.8047886f,   0.0474281f,  -21.7278004f, 2.5416548f,
       -3.4314942f, -1.0200479f, 2.8807311f,   -0.6615521f, 0.0811919f,   -3.7565227f, -1.7345427f,  -24.2449551f},
      {-0.0935455f, 0.0952275f,  0.1344206f,  0.1282755f,  -0.1155597f, 0.1134325f,  0.0513178f,  0.0591759f,
       -0.1213605f, -0.1084157f, -0.0154566f, -0.1695951f, -0.0798927f, -0.1130470f, 0.1451569f,  -0.1298427f,
       -0.0994024f, -0.0928250f, 0.0818445f,  0.0949432f,  -0.1527680f, 0.0060793f,  0.1251735f,  -0.0567481f,
       0.0220611f,  -0.0609620f, -0.0456990f, 0.1084149f,  0.1479864f,  -0.0752052f, -0.1698742f, -0.1691604f},
      {-1.7254238f, -1.8574123f, -0.1169296f, 0.2159916f,  -0.1034857f, 0.0337063f,  0.1068389f,  1.5291957f,
       -1.3284357f, -0.1134130f, -0.1529180f, -0.9727306f, -2.7479255f, 2.7073102f,  -0.0970725f, -0.4726381f,
       3.9219956f,  2.0549905f,  -0.8411760f, -3.6078718f, 5.2073345f,  0.1189588f,  -2.4351897f, 0.1611454f,
       0.7767210f,  -0.0157326f, -1.8177840f, -4.3654280f, 1.1334959f,  -0.5285261f, -1.2759060f, 2.0077686f},
      {-0.0359190f, 0.4459861f,  3.6499677f,  0.2584717f,  -0.5361292f, 0.0338481f,  0.5443572f,  -1.4912640f,
       -4.5942221f, -0.1241030f, 0.0724168f,  -3.1098292f, -1.5443263f, 0.5451845f,  -0.0281366f, 0.2688627f,
       2.9412134f,  -0.9552972f, -1.7249458f, 1.1737568f,  2.2807903f,  -0.1765990f, -1.1354630f, 1.1404647f,
       0.0096252f,  -1.2783341f, 2.6458790f,  0.6601999f,  -1.2885331f, -5.5358477f, -1.2523680f, 0.2089293f},
      {-0.6114786f, 0.3409587f,  -0.8325183f, 0.9638206f,  0.4871984f,  -0.1174837f, -0.6636972f, -2.8351951f,
       -2.0607822f, 0.1424204f,  0.3591818f,  -7.1617031f, -0.3405920f, 1.2651479f,  0.0356552f,  -10.5949812f,
       0.3373767f,  -0.8073402f, 1.3012824f,  -0.2592540f, 0.3116270f,  -0.1014755f, -2.9638700f, -0.9934757f,
       -2.6397552f, 3.2229736f,  2.2612696f,  1.8873901f,  7.7480974f,  -2.4576621f, -1.7275236f, 1.3997678f},
      {2.2855043f,  1.1782696f,  -5.0694404f, 0.2619863f,  8.2340889f,  0.0614227f,  -30.9861450f, 4.2917066f,
       -1.5254416f, -0.1749879f, 0.0449504f,  -2.1272984f, -1.5515159f, 0.0774726f,  -0.1746700f,  0.2343998f,
       -7.5377650f, -0.5401353f, -2.4429085f, 5.7299242f,  2.2034674f,  -0.0597478f, -0.4181009f,  -4.6659808f,
       8.4547806f,  -2.9618626f, 1.7197717f,  -4.1163206f, 2.7192683f,  -4.2342210f, -22.5410042f, -23.2647533f},
      {-0.3190243f, -0.1305038f, 0.2510290f,  0.7157735f,  -0.0681031f, -0.0322135f, -0.0170826f, -0.4130908f,
       -0.8684323f, 0.1037174f,  -0.0608371f, 2.3205709f,  0.7975723f,  0.6162010f,  -0.0300515f, -4.1651325f,
       0.2041150f,  0.6790738f,  -0.0675881f, -0.1815051f, -0.3856289f, -0.1605500f, -1.3523397f, 0.3974739f,
       -0.9124081f, 0.8935187f,  1.1731799f,  0.9063293f,  2.2157321f,  -0.7763675f, -0.6740469f, 1.0688121f},
      {-0.6885740f, 1.5108100f,  -1.1622406f, -0.1639299f, 0.6735952f,  -0.0044332f, 0.5992161f,   0.9715957f,
       1.7078900f,  -0.1004811f, -0.1365366f, 0.7474524f,  3.7518063f,  -0.3041814f, 0.0202066f,   0.1403483f,
       -1.0174044f, 0.3426134f,  0.1166403f,  1.4165452f,  -1.6989847f, -0.1467740f, -28.8507080f, -2.3409395f,
       -0.6624593f, 0.2916515f,  -1.7420601f, 1.7988360f,  0.1359784f,  -1.7363031f, -0.8268069f,  -22.0582409f},
      {0.7496569f,  0.0900378f,  -0.7020568f, 0.2770771f,  -0.1547709f, -0.0730383f, 0.8583739f,  0.6869839f,
       -0.0216883f, -0.0818979f, -0.0747244f, -0.5500154f, 0.1730917f,  0.0838601f,  -0.2234204f, -2.6133080f,
       -0.2851874f, 0.3344017f,  0.5120184f,  0.2159488f,  -0.5631486f, -0.1217646f, -0.6408365f, -0.5280628f,
       -0.1888132f, 0.1128062f,  -0.6385137f, 0.2187743f,  0.5400566f,  -1.2497501f, -0.4230330f, -0.8554564f},
      {-0.0072966f, 0.0433901f,  -0.0112649f, 0.0149956f,  0.0971377f,  -0.1465541f, 0.0369070f,  0.0204283f,
       -0.0473077f, -0.0621783f, -0.0400894f, 0.0038891f,  0.0637546f,  -0.0987721f, 0.1333703f,  0.1845284f,
       -0.1121825f, -0.0821355f, -0.0551437f, -0.1387535f, -0.1029042f, -0.0316810f, 0.0991747f,  0.0109257f,
       -0.1363302f, 0.0409235f,  -0.1163751f, -0.0932527f, 0.1371292f,  -0.1085224f, -0.0340848f, 0.1881565f},
      {0.5430453f,  -0.1923976f, 0.1253924f,  1.2476916f,  -0.8238822f, -0.2412500f, -1.4365295f, 0.2974539f,
       -0.7094328f, -0.0404386f, -0.0903881f, -0.2455501f, -0.4977949f, 1.2835010f,  0.0466368f,  0.1423702f,
       1.0040865f,  -0.3461191f, 1.9963233f,  -0.6319630f, -1.3672705f, -0.2050553f, -1.3742859f, 1.5102885f,
       0.6251135f,  -0.8827236f, 0.2426203f,  0.5282332f,  -0.3325891f, 0.2623506f,  0.7361377f,  -0.3977060f},
      {0.4587541f,  1.6404282f,  -1.7638642f, -1.1673739f, -0.2879601f, -0.2062289f, -1.0403761f, 1.2045006f,
       4.4366894f,  -0.0817624f, -0.4345644f, 1.7014344f,  1.9048512f,  1.6206875f,  0.0563202f,  0.2796801f,
       -0.9005149f, 2.1777804f,  -1.5904136f, -0.0745443f, 2.2899942f,  -0.0268907f, -0.4478562f, -2.2209928f,
       0.1265067f,  -1.1030860f, 1.7555577f,  -0.9716681f, 1.2509999f,  -2.5520556f, -3.1499224f, 0.3475627f},
      {-0.1320426f, -0.0306031f, -0.1009385f, -0.0685649f, -0.1446771f, 0.0827769f,  0.0794188f,  -0.1251680f,
       0.1191922f,  0.0911476f,  -0.1370004f, -0.0235988f, 0.0052700f,  0.0152695f,  -0.0809092f, 0.1569981f,
       -0.1613230f, -0.1490500f, -0.0331593f, -0.0197172f, -0.0778751f, -0.0461698f, 0.0161918f,  0.0620126f,
       0.0861412f,  -0.0230307f, 0.1601610f,  -0.1439372f, 0.0690653f,  0.0716233f,  -0.0987330f, -0.1019572f},
      {0.1041973f, 0.2910181f,  -0.7453988f, -0.5696512f, -0.1792013f, -0.1130453f, -1.0394653f, -1.3048810f,
       0.5756534f, -0.1366547f, -0.2661021f, 2.6461298f,  -0.0891610f, -1.2648580f, -0.0528168f, 1.6856592f,
       0.2346805f, 0.7521043f,  0.0064556f,  -0.1186875f, 1.4676991f,  -0.1588704f, 0.1280003f,  0.2319211f,
       0.2628639f, -0.8938370f, 1.0235468f,  -0.5999746f, 2.0081246f,  -0.1840364f, 1.0375161f,  0.4298158f},
      {-1.4513168f, -0.8617165f, -0.9443954f, 0.7598280f,  0.3032665f,  -0.0684354f, -0.3254175f, 0.5823373f,
       0.5182881f,  -0.1793837f, -0.3063860f, 1.6872829f,  -0.3490886f, -0.5710989f, 0.0189365f,  -0.2796028f,
       0.5723888f,  -1.0739535f, 0.7621021f,  -0.7629254f, 1.6762860f,  -0.0923400f, 0.0766616f,  -0.1413529f,
       -0.5900826f, -1.0813267f, 1.5146010f,  -1.6975975f, 0.3989093f,  -0.4327765f, 3.4381719f,  0.1458967f},
      {2.9838398f,  3.3407974f,  1.8887355f,  -3.5333841f, -0.2932842f, -0.2313848f, 0.7855760f,  1.3844018f,
       0.2171175f,  -0.1665853f, 0.0207670f,  -1.3979042f, 0.0614804f,  -0.3174588f, -0.0944412f, -0.1484631f,
       -1.8403454f, -1.5764182f, 1.9626619f,  3.6289907f,  -2.4154184f, -0.2770913f, -0.1908647f, -3.0799079f,
       -0.6495328f, 3.1452229f,  -4.4860587f, 2.6450124f,  -0.4382863f, 0.7729328f,  -1.0968568f, -0.8053985f},
  };

  ALPAKA_STATIC_ACC_MEM_GLOBAL const float bias_output_layer[1] = {0.6385395f};

  ALPAKA_STATIC_ACC_MEM_GLOBAL const float wgtT_output_layer[32][1] = {
      {-0.5979972f}, {0.8899857f},  {-0.3968574f}, {-0.7792776f}, {-0.8940274f}, {0.0177246f},  {0.8100053f},
      {0.4661956f},  {-0.4016746f}, {-0.0079347f}, {-0.0587371f}, {0.3230158f},  {-0.6101525f}, {-0.9632566f},
      {0.0078512f},  {-1.2392809f}, {0.4964840f},  {-0.3350355f}, {-0.5121796f}, {-0.6750677f}, {-0.6548420f},
      {0.0301682f},  {1.5296108f},  {0.4358520f},  {0.9725299f},  {-0.5808212f}, {0.4986433f},  {0.7857845f},
      {0.4824178f},  {0.4889891f},  {-0.6256682f}, {0.9908153f},
  };

}  //namespace lst::t5dnn

#endif
