#ifndef RecoTracker_LSTCore_src_alpaka_NeuralNetworkWeights_h
#define RecoTracker_LSTCore_src_alpaka_NeuralNetworkWeights_h

#include <alpaka/alpaka.hpp>

namespace lst::t5dnn {
ALPAKA_STATIC_ACC_MEM_GLOBAL const float bias_layer1[64] = {
-5.4170151f, 0.1092379f, -5.2996731f, 0.5834671f, 2.4856968f, -4.2975216f, 0.0351412f, -0.1452591f, -3.1608760f, -0.0315495f, 0.0894870f, -0.3143417f, 0.2922482f, -1.6919132f, 0.1477857f, -0.0069893f, -2.5666492f, 1.7791501f, 1.5713713f, -0.0771308f, -0.0001099f, -0.0086544f, -0.0782869f, -3.0152504f, -0.1556742f, 0.1908785f, -1.4423866f, 0.1248260f, -2.0085430f, -2.8480151f, 0.9297599f, 0.1859694f, -0.4703125f, -3.0024974f, 1.9622041f, 0.2078022f, -0.1155721f, -2.9626462f, -2.6915390f, 2.3512907f, 0.1537336f, -0.1304576f, -0.1774653f, -0.0633640f, 7.3814087f, -2.9510283f, 3.2833464f, -6.9787235f, 2.6133084f, -0.1129651f, 0.6914649f, -2.1249063f, -2.0993221f, -0.1028769f, 3.8807843f, 0.0536464f, 0.0036215f, -0.2713800f, -0.1719712f, 2.3402042f, 0.5796645f, -0.2617638f, 1.1942008f, 0.5406737f };

ALPAKA_STATIC_ACC_MEM_GLOBAL const float wgtT_layer1[23][64] = {
{ 1.9963748f, -0.1731590f, 4.4691114f, -0.1794237f, 5.5881600f, -0.0469107f, -0.1116787f, -0.0064043f, 0.1572901f, 0.0801702f, -0.2022863f, -0.0306812f, -0.7492533f, 5.6720910f, -0.0338786f, -0.1640330f, 0.4680271f, 1.1290669f, 0.7335514f, 0.1797673f, 0.0214936f, 0.1780219f, -1.2658175f, -0.1349112f, 0.1103879f, -0.1482868f, 3.3041217f, -0.0556322f, -0.2151231f, -0.3883918f, -0.4245144f, -0.2441168f, -1.0074841f, -0.1516344f, -1.1880660f, -1.9712971f, 0.0104097f, 0.0837740f, 2.8912005f, -2.6549184f, -0.0802832f, -0.1893666f, 0.1381611f, -1.6430075f, -0.3516246f, -0.3492745f, -0.1441078f, -2.4903197f, 2.2089083f, 0.0600382f, 4.9983387f, 0.1727736f, -0.6466289f, 0.1185860f, -1.2117882f, -0.0034732f, -0.1546298f, 0.0738271f, -0.0611794f, -0.4613741f, -0.5484015f, 1.4868681f, -1.0519831f, 1.0544895f },
{ -0.0570326f, 0.0037738f, -0.0664102f, 0.0561618f, -0.0819625f, -0.1836305f, 0.0223685f, 0.0501370f, -0.0047833f, 0.1293420f, 0.1579933f, -0.1443305f, 0.0047475f, 0.0746102f, -0.1270883f, -0.0190013f, 0.0050388f, -0.0166696f, 0.0321415f, 0.1312737f, -0.1213989f, 0.1258840f, -0.0210099f, 0.0305244f, -0.1230770f, 0.1304611f, -0.0442066f, -0.0990347f, 0.0323938f, -0.0047226f, -0.0487837f, 0.0492558f, 0.0694469f, 0.0713125f, 0.0511380f, 0.0321582f, -0.0846096f, 0.0085446f, 0.0161958f, 0.0242810f, -0.0649617f, 0.0608438f, 0.0209679f, -0.0381925f, -0.0113273f, -0.0257456f, -0.0762873f, 0.0480539f, 0.0004953f, 0.1032653f, 0.0450702f, -0.0023358f, -0.0157505f, -0.0308042f, -0.0251270f, 0.0615390f, 0.1664569f, -0.0829611f, -0.1697952f, 0.0340901f, -0.0094182f, -0.0315393f, -0.0496072f, -0.0162139f },
{ 3.6465876f, -0.0663561f, 1.9103898f, 0.5643705f, -9.8645697f, -1.6057233f, 0.1654705f, -0.0931856f, 0.3221777f, 0.0307477f, 0.1645872f, -0.3280524f, -0.4772638f, -7.5116482f, -0.0464615f, -0.2467497f, 4.5334115f, 0.1738590f, -1.7299762f, 0.0940001f, 0.2030495f, 0.1689350f, -0.4072013f, 2.1300805f, -0.1535101f, -0.0586309f, 2.9517117f, 0.0064165f, 0.2813060f, 0.6334303f, -0.0872843f, -4.0396390f, -2.1526918f, 3.1110907f, 1.2102587f, 1.3346883f, -0.0266715f, 0.1432406f, 0.4614112f, 2.6469133f, 0.0486274f, 0.1899083f, -0.1562425f, -0.1964860f, 0.0742996f, 0.4121983f, 0.3530470f, 1.7188033f, -7.7669082f, -0.1737528f, -4.0953817f, -0.2783098f, 3.8945515f, 0.0637080f, 2.1420536f, 0.1108593f, -0.0166499f, 0.0130548f, 0.1619612f, 6.0862432f, -0.0582137f, -2.3413389f, -2.1998954f, -0.5471240f },
{ 0.6075103f, 0.1551971f, 4.4675570f, -0.4349816f, -4.2662058f, -1.7053887f, 0.1248173f, -0.0135103f, -0.7855076f, 0.1922624f, 0.0780070f, -0.1602939f, -0.7056798f, -1.7552632f, 0.1395309f, -0.0747215f, 5.0664167f, -8.5945854f, -0.0590303f, 0.0376422f, 0.1704544f, -0.0285785f, 0.8738807f, 1.0013188f, 0.0870706f, 0.0866932f, -6.0365343f, 0.1484842f, -0.1528033f, 0.1996935f, -0.3172738f, 6.6682119f, 0.3146157f, 0.3907996f, -2.7155359f, -0.5871127f, -0.0917850f, -0.5074700f, 4.5666537f, -0.2770379f, -0.0553840f, -0.0862931f, 0.1176913f, -0.9214991f, -0.1314616f, 0.5497423f, -5.5763392f, 0.1232572f, -5.4768538f, 0.0975976f, 2.7113037f, 0.0271468f, 4.3370914f, 0.1838839f, -8.2026701f, 0.0536659f, -0.1502479f, 0.0051209f, -0.1481872f, -11.4419155f, -0.9528688f, 2.2519355f, 0.3794526f, -0.1738628f },
{ -9.3125553f, -0.1912472f, 5.9278603f, 3.0884626f, -8.5977278f, -4.8028479f, 0.0107843f, 0.0319631f, 0.8132656f, -0.1433869f, -0.0384454f, 0.0408860f, -0.1448899f, -3.4239774f, 0.2286360f, -0.2059986f, -5.6165781f, -0.9311985f, -2.4410470f, -0.0751135f, -0.0934410f, -0.1695324f, -11.6096888f, 1.6906720f, -0.0908413f, 0.0815732f, -3.5485830f, -0.0429031f, 0.4608319f, -0.5573493f, -0.4676046f, 18.1583099f, -0.7118312f, 1.5125947f, 0.6020698f, -1.4116273f, -0.0857595f, 0.8839133f, 2.3732636f, -0.8476240f, -0.1867341f, -0.0052990f, 0.0726095f, 1.2784648f, 0.0438854f, -0.5209024f, -5.5096173f, -0.7711452f, 9.2542543f, -0.1981977f, 6.6206274f, 0.5997821f, -4.5812836f, -0.0739318f, -2.6144252f, 0.1470629f, 0.1809931f, 0.1187107f, 0.0497149f, 2.2430730f, -0.3561325f, -12.1169901f, 2.3513553f, 0.9504319f },
{ -0.6517256f, 0.0023231f, -0.5918394f, -1.5662657f, -6.7393770f, 10.0985575f, 0.0716133f, 0.0961504f, 67.2558136f, 0.1661205f, -0.0476317f, 2.5628648f, 0.0314684f, -0.8741693f, 0.0414494f, 0.0009582f, -3.0550969f, -0.7224445f, -0.3897825f, -0.0776447f, 0.0017423f, 0.0855489f, -0.8245523f, -11.5337667f, 0.0381824f, -0.1029058f, 0.5505455f, -0.1546451f, -0.9023587f, 47.4552383f, -0.4312914f, -0.1274182f, -0.8510789f, 13.7361526f, 2.7822630f, -0.1121035f, -0.1567267f, -66.6905212f, -2.6586959f, 1.7794644f, -0.0807672f, 0.0209590f, -0.0792961f, 0.0505490f, -1.5257038f, -47.7653923f, -2.5191453f, -2.1614242f, -0.2963349f, 0.1997535f, 1.3512053f, -1.0816818f, 0.2561024f, 0.0619517f, -0.4834801f, -0.0877150f, -0.2027155f, 0.2553757f, -0.1066303f, -2.6100216f, 0.6259052f, -0.7455170f, -3.2406890f, 1.1111637f },
{ 3.4359446f, -0.0799648f, 12.4295664f, -2.2698197f, -6.5150723f, -0.7042888f, -0.1907274f, -0.0690016f, -1.1145469f, -0.2051416f, -0.0672357f, -0.4251813f, -0.8729905f, -5.8847432f, -0.0443113f, -0.3116522f, 1.9817827f, -1.5478019f, -1.3055232f, -0.1923582f, 0.1138988f, -0.1695242f, -4.0538926f, -2.7069936f, -0.1699759f, 0.1079560f, 7.5864682f, 0.1097764f, 0.7651879f, -1.4349637f, 0.1364308f, -0.4780136f, 6.0472593f, -2.1775317f, 3.0229111f, 3.5323646f, 0.0214573f, -0.5672813f, -3.3958900f, 4.1207628f, 0.0187027f, 0.2033064f, 0.1041455f, -0.0457648f, -0.7224036f, -1.9981886f, 6.8660207f, 4.1301637f, -6.9383864f, 0.1528671f, -1.6822048f, 1.1890146f, 7.8534589f, -0.1245958f, 7.2904072f, -0.1035906f, 0.1469102f, -0.1955603f, 0.0857957f, 5.9764595f, -0.3489328f, 2.0967376f, 3.7353847f, -3.8011475f },
{ 2.7756829f, 0.1547077f, -0.9776518f, 2.2539241f, -0.6356690f, -0.8799678f, -0.1139235f, 0.1673523f, -5.9678941f, 0.0818931f, 0.1865033f, -0.9206829f, 0.1266519f, 3.4194319f, 0.0752124f, -0.0336173f, 5.8870711f, -6.2428627f, -0.6108014f, 0.1763580f, -0.0320618f, 0.0290066f, 6.8768024f, 0.2529397f, 0.0313162f, -0.0134610f, -6.1833696f, 0.0993398f, 1.5364416f, -2.9626513f, -0.8284836f, -2.9085660f, -0.4267282f, 0.4893942f, 5.0524397f, 0.7812782f, 0.1599573f, -6.6952333f, -1.7907082f, -0.6169704f, 0.0055976f, 0.1592207f, 0.0637876f, 1.3919721f, 11.1142244f, -3.3991771f, -7.6514430f, -0.4128705f, -2.7365594f, 0.0149741f, 2.6984282f, -0.2792910f, 1.0371951f, -0.0725524f, -8.4587641f, -0.1893129f, -0.1365881f, -0.0338365f, 0.1759005f, -6.8938289f, -1.5109564f, -13.9339476f, 1.4245038f, -2.1024802f },
{ 1.0231725f, -0.1401728f, -2.6664896f, -4.8579144f, 10.0586958f, 6.5882902f, 0.0777241f, 0.0350013f, -0.0652865f, 0.1856556f, -0.0592251f, -0.2882509f, -0.1398135f, 2.5503645f, -0.0693594f, 0.0948085f, -18.7439175f, -20.7343349f, 1.5728273f, 0.0882538f, 0.0217898f, -0.0099793f, 20.2532196f, -1.0450989f, -0.0852421f, -0.1015243f, 4.4685707f, 0.0919074f, -2.2110271f, 1.5091213f, 1.7371498f, -10.9707928f, -5.2235699f, 0.5231069f, -6.2154036f, -1.4368683f, -0.1882315f, -0.8854663f, 40.4437332f, 0.1410571f, -0.1265458f, 0.1647583f, -0.0908587f, 2.6089897f, -0.5502481f, 0.8296565f, 24.9975681f, -4.5522246f, -11.9857702f, 0.1982264f, -2.1536903f, -2.8464983f, 9.0732975f, 0.1750089f, 23.2718620f, -0.1927700f, -0.0009559f, -0.0404042f, -0.1298092f, -23.1104546f, 0.1940438f, -9.2241583f, 0.3074510f, 0.7307771f },
{ -0.8988230f, 0.0925821f, 1.1242422f, 0.2651424f, 1.0690553f, -6.6284409f, -0.1534996f, -0.1072203f, 18.6521606f, 0.0899306f, 0.2038536f, 1.0117639f, 0.5868506f, -0.4404402f, -0.0654521f, -0.0192510f, 3.6811302f, -0.6584685f, 2.0023360f, 0.0894865f, 0.0710150f, -0.0973203f, 0.0771780f, -41.9522057f, -0.1490534f, -0.1472358f, -1.5995624f, 0.1248655f, -17.8112278f, 44.1015472f, 1.7137297f, 2.2288425f, -0.4961942f, 49.9906998f, -1.7526863f, 1.6098857f, -0.0374586f, -14.5711441f, 1.1799384f, -1.5133294f, -0.1718460f, -0.1252380f, 0.0159023f, 1.2153028f, 3.3251076f, -44.0397873f, 1.2845263f, 0.4229844f, 0.0543610f, 0.0738086f, 0.4437847f, 19.6414566f, -0.4324452f, -0.0264433f, -0.2451521f, 0.1316586f, -0.1276964f, -0.1018680f, 0.1349693f, 1.9702898f, 1.0038185f, 3.2773516f, -0.2953448f, -1.2126485f },
{ 6.6005735f, 0.1332296f, 12.3058376f, -4.8886871f, 1.9318998f, -1.5595187f, 0.1787949f, -0.1267458f, -0.7485125f, -0.0378073f, -0.0032880f, -0.0771487f, -0.4212669f, 1.0989261f, 0.0169873f, -0.1083504f, -15.4704304f, -3.0537157f, -0.9638009f, -0.1984866f, 0.1283616f, 0.1068196f, 3.7404320f, -3.7414744f, -0.1476518f, -0.1493853f, 2.9545612f, -0.1158414f, 2.7027085f, 0.8016437f, -2.8212306f, -1.1567134f, 4.9463449f, -4.4640799f, 3.3368428f, 2.3651376f, 0.0947944f, -0.5617771f, 2.4099019f, 1.8357587f, 0.0367021f, -0.1241414f, 0.1993389f, 4.3116031f, 0.4094487f, 0.4936017f, -1.7863533f, 3.5321336f, -0.3961236f, -0.0616943f, -4.9528675f, 1.8230107f, 7.5948577f, -0.0249503f, 0.2195132f, 0.1170796f, -0.1216013f, -0.1853807f, -0.0135350f, -0.8319197f, -2.5996437f, -10.9821873f, 0.8066089f, -0.2694391f },
{ -1.1052015f, -0.0107944f, -1.3342675f, 2.9020903f, -0.6896898f, -3.9798799f, 0.1716514f, -0.0651467f, -1.9411879f, -0.0373859f, -0.1301670f, -0.2828999f, -0.2935998f, -7.4306874f, 0.0459999f, -0.2480602f, -9.5114241f, -2.8376522f, -4.0205197f, 0.1378028f, -0.1102530f, 0.0116450f, -2.2641737f, -6.7726097f, 0.1454174f, -0.0643207f, -3.8485258f, 0.1415496f, 1.1471100f, -2.3995011f, -1.2535414f, -0.1063892f, 3.8834896f, -6.1681428f, 2.1263020f, 3.4687247f, 0.1462959f, -1.8015630f, -20.5505753f, 1.6011972f, 0.0848014f, -0.1289209f, -0.0349030f, 2.9505551f, 5.3665180f, -2.8693190f, -2.3178582f, -2.2605517f, -5.4248562f, 0.1436103f, -4.4419322f, 0.8009612f, -1.9328820f, 0.0632002f, -5.0896368f, 0.0578653f, -0.1464619f, 0.0747870f, -0.1996984f, -1.3254889f, -0.9449521f, -3.4348443f, 0.0962286f, -1.8128558f },
{ 13.0355883f, -0.0341810f, -5.9744172f, -0.8658938f, 12.5262423f, -4.2417827f, -0.0237206f, 0.1695898f, -0.6126896f, 0.0959466f, 0.1365530f, 0.1334321f, -1.7212585f, 3.5775676f, -0.0153284f, 0.4528871f, -1.2819970f, 24.8549061f, 2.2327163f, -0.1042840f, 0.0718790f, -0.1363273f, 21.5163136f, -0.7932916f, 0.0581293f, 0.1710098f, 3.3759716f, 0.0574160f, 1.1516286f, -1.0937505f, 0.2704465f, -4.3182774f, -0.1786255f, -0.5047531f, -10.2621107f, -0.7154632f, -0.0910803f, -0.9581601f, -5.6317172f, -4.9092946f, -0.1986382f, 0.1833402f, -0.1260193f, -3.5572271f, -0.5248955f, -0.9463041f, -31.5913563f, -0.9084337f, -11.8472004f, -0.1058951f, 4.1694779f, 1.3598380f, 20.4206505f, -0.1072509f, -20.5156956f, -0.0685112f, 0.1040052f, -0.0867760f, -0.1841480f, 31.9510880f, -1.0109529f, 0.4287422f, -5.1334424f, -0.3568045f },
{ 0.7653140f, -0.0519591f, -0.7585959f, 1.0220172f, 2.6207128f, 6.5871367f, 0.0957253f, 0.1460560f, -25.1601734f, 0.0226944f, -0.0706656f, 0.0186115f, 0.2851667f, 0.2801676f, 0.1153161f, -0.0829026f, 2.2365520f, 0.7614639f, 0.8277828f, -0.0324718f, -0.1742816f, 0.0384173f, 0.8353774f, -8.8785000f, -0.1199295f, 0.1563196f, 1.9521270f, -0.0015871f, 3.0881639f, 42.5892487f, 0.9207308f, -1.1690749f, 0.3285883f, 7.7285171f, -0.3022152f, 1.6180999f, 0.1052213f, 24.3957119f, -0.2646233f, -1.3763840f, 0.1714595f, 0.1558522f, -0.1263649f, -0.0893112f, -0.5588029f, -41.2893066f, -0.5033633f, 2.1705077f, 0.4535643f, -0.0866831f, -1.4543021f, 0.4543975f, 1.5145037f, 0.1700793f, -0.0515988f, 0.1809572f, 0.1356888f, 0.0024404f, -0.0814032f, -0.4807736f, 0.5329620f, -1.5869865f, -0.0704331f, -1.6930354f },
{ 5.8282795f, -0.2073689f, 10.8559847f, -4.2567034f, -7.3420935f, -4.1240911f, -0.1187446f, 0.1416354f, -0.1299830f, -0.0448278f, 0.1521780f, 0.1523652f, 2.1114233f, 6.3210073f, -0.1443539f, -0.1287481f, -1.7937189f, -0.1393074f, 0.2611838f, -0.1117424f, -0.1459678f, -0.1282083f, 0.4783506f, 1.1912493f, -0.0736564f, -0.2016167f, 7.9835696f, 0.0827466f, -0.3467814f, 1.8031778f, -1.2760880f, 5.7516174f, 4.2157030f, -1.0619396f, -7.0347242f, 1.2576822f, -0.0099790f, 0.1468378f, 0.4451530f, 2.6342926f, 0.1791129f, -0.0181867f, -0.1991124f, 2.4909372f, 1.8108214f, 1.6926780f, 2.9119234f, -3.1181507f, 3.9739454f, 0.0100334f, -6.3785534f, -0.0563523f, -0.1719787f, -0.1210884f, 2.3950198f, -0.1355521f, -0.1325351f, -0.1450050f, -0.1434284f, 2.3514500f, 1.2774569f, 0.7311245f, 0.7745184f, 2.3641589f },
{ -2.2763286f, -0.0699310f, -1.4413427f, -1.2428749f, 2.8376555f, -4.8821964f, -0.0454534f, -0.1156732f, 1.9040568f, 0.0538796f, -0.2052270f, -0.4260956f, 0.3603923f, -5.5291042f, -0.2010671f, 0.1314917f, -7.9227214f, -1.8652805f, -5.4276600f, -0.1916724f, 0.0502330f, 0.2009623f, -2.6448920f, -6.6574097f, -0.0366400f, -0.0815073f, -6.9425783f, -0.1075497f, -0.4969276f, -1.7219346f, -3.3726673f, 8.0505428f, 1.5346112f, -4.1986437f, -4.2118640f, 1.9216579f, 0.0541964f, 1.6856153f, 1.0189333f, 0.4095870f, -0.1636191f, -0.0367754f, 0.0804524f, 3.7398872f, -0.8409980f, -1.9893652f, 0.4719377f, -4.3971395f, -0.0993663f, 0.0839181f, -21.7874317f, -0.6816849f, -1.7658172f, -0.0497724f, -1.0726979f, -0.1727950f, -0.2038441f, -0.1780827f, -0.0584116f, -2.8858814f, -0.2741016f, 10.3744955f, 0.9980575f, -0.7762070f },
{ 27.3797398f, 0.1485444f, -6.5564489f, 4.9873123f, 5.7758050f, -5.3167334f, 0.1057222f, -0.0955436f, -0.3224967f, -0.1608077f, -0.0194024f, 0.9160298f, -0.6933839f, 8.2740011f, 0.1721973f, -0.0910710f, -4.2991304f, 26.0065861f, 1.6319803f, -0.1300895f, 0.0676819f, -0.1545433f, -5.7057023f, -1.4502587f, 0.2214023f, -0.0999653f, -1.0420761f, 0.0423009f, -0.2975439f, -0.3165342f, -3.4643521f, -4.3728776f, -1.4700587f, -2.3535984f, 9.2683878f, -0.1328517f, -0.1059677f, -0.1125405f, -3.0008399f, -9.8921318f, 0.2018648f, -0.0826811f, 0.1758240f, 2.2405803f, -0.5518020f, -0.4421681f, 4.2940106f, -2.1271493f, -5.5418472f, 0.1449935f, -0.9662805f, 0.6773435f, -28.1953354f, -0.1394505f, -20.4387054f, 0.1624158f, 0.0651104f, -0.1282481f, 0.1708846f, 2.1388204f, -1.8145065f, 1.6281309f, -5.4998507f, 1.0770677f },
{ 0.9645711f, -0.1786594f, -0.0553024f, 0.2430780f, -0.0836929f, -3.7653716f, 0.1837550f, 0.0721049f, 3.5469470f, -0.0540416f, 0.1753763f, 1.2638031f, -0.8188676f, 0.2276389f, 0.1884794f, -0.3728978f, 0.3981685f, -0.1961413f, -1.5338291f, 0.0295606f, 0.1063996f, 0.1904951f, 0.6200585f, 47.5742455f, -0.0911950f, 0.1576108f, -0.0005945f, -0.1058825f, 75.9402161f, 1.0154985f, -1.6524774f, -0.8738520f, 0.5757424f, -58.8294983f, -1.7108299f, -1.9416986f, -0.1722361f, -1.4944881f, 2.2154515f, -0.3829141f, -0.1317208f, -0.0709480f, 0.1358826f, -1.2782431f, 0.6230175f, -3.2239935f, 0.1211540f, 1.6599668f, -0.0024858f, 0.1979189f, -1.8393863f, -70.7089996f, -1.2836896f, -0.0630582f, 0.2835588f, -0.1465863f, -0.2054043f, 0.0442884f, 0.0491910f, -0.0101647f, -1.8528048f, 0.1034442f, 1.7156487f, 1.4151464f },
{ 8.0514297f, 0.0362610f, 5.7105060f, -5.1596498f, -5.6573663f, 5.8829527f, 0.1364161f, 0.0387957f, 1.2321415f, 0.0010622f, -0.1681747f, 1.1192378f, 2.5611045f, 1.9137890f, -0.1786818f, -0.0844273f, 3.1387520f, -0.0188357f, 4.7223048f, 0.1352380f, -0.1094145f, -0.0003022f, -2.1504674f, 1.3202511f, 0.1361527f, -0.2094409f, 5.7990284f, -0.0024184f, -1.3503352f, 0.2199217f, 5.4655075f, 4.5265856f, 2.8233120f, 3.6488786f, -1.0837578f, 1.1783342f, 0.0843446f, 0.5038606f, 0.6418518f, -0.8503352f, 0.0764378f, 0.0625097f, -0.1257846f, 0.2899357f, 0.7127532f, 0.7860149f, 4.3059020f, -2.4227390f, 4.3656893f, 0.0553326f, -2.4934061f, -2.9166439f, -0.0778823f, 0.0329698f, 6.5862498f, 0.1990476f, 0.0602718f, -0.0841593f, 0.0578816f, 3.1640604f, 4.5374131f, 3.7921946f, 5.9781637f, -2.0046735f },
{ -7.5576839f, 0.1415866f, 1.0632906f, 4.5386405f, -5.8654289f, 1.7587956f, -0.0544400f, 0.1384240f, 0.5644061f, -0.0606761f, -0.1665376f, -0.0203269f, 1.1195687f, 1.4454288f, -0.0243071f, -0.0918941f, 0.6251434f, -0.9818953f, 6.5058146f, -0.1111457f, 0.0086241f, 0.2070294f, 2.6015158f, 2.3318293f, -0.1417484f, -0.0122729f, -3.6949911f, 0.1007341f, -6.7346091f, 0.2934513f, 5.4731226f, -2.1664021f, 1.8095152f, 1.0985075f, -0.3897789f, -0.9702982f, -0.0142138f, 0.9863399f, -1.1887600f, -1.0392938f, 0.0037444f, -0.0496245f, -0.1151926f, -0.7228653f, -0.8076813f, 0.0567994f, 0.8646825f, -0.6316344f, 2.9055660f, 0.0703473f, -4.1782813f, -4.7590637f, 1.2617497f, -0.0088778f, -1.6124513f, -0.1919927f, -0.0522670f, 0.0069728f, 0.1754529f, -4.2642875f, 3.5235300f, 2.5121081f, 6.3341184f, 0.1296619f },
{ 1.0239233f, -0.1560377f, -0.1236667f, -1.9581928f, 0.9040518f, -2.4610138f, -0.1689130f, -0.0964795f, 1.3267807f, 0.0087091f, -0.1787349f, 0.0954070f, 0.2312174f, 0.7384535f, 0.0410930f, 0.0410609f, 0.7048067f, 0.3797682f, -3.5134113f, -0.0299603f, -0.1641482f, -0.0122640f, 0.7370155f, 0.6065590f, -0.1986485f, -0.1013129f, -0.0914893f, -0.0941285f, 0.2779007f, 0.9265572f, 2.0103083f, -0.1963220f, -3.5181539f, 0.6018856f, 2.9303868f, 3.9527471f, -0.1540379f, 1.2515775f, 0.3175076f, -3.7928016f, -0.0172410f, -0.0656707f, -0.1401637f, -4.2486420f, -3.4902961f, 1.0451369f, 0.4005216f, 2.5368392f, -0.8301868f, -0.1131105f, 0.1450815f, 0.2619629f, 0.2348527f, 0.0031638f, -0.0202385f, -0.0954951f, -0.1649579f, -0.2274157f, -0.1744063f, -0.6118034f, -0.2556504f, -0.3441056f, 3.2232952f, 4.6843195f },
{ 0.2787801f, -0.0024831f, -0.1724074f, 1.8930795f, -1.1899990f, 5.0011253f, -0.0049025f, -0.0772058f, 0.4332743f, -0.0874420f, -0.1901054f, -0.0663970f, 4.4123168f, 0.1268412f, -0.2224428f, -0.0886839f, -0.1320266f, 0.0612270f, 4.0101686f, -0.0817217f, 0.0309912f, -0.1159127f, 0.1383479f, -0.0906129f, -0.1301278f, 0.0239971f, 0.3417597f, -0.1008735f, 0.6819940f, 0.3852736f, 2.0635431f, -1.0121936f, 3.3110633f, -0.1463855f, -2.9227703f, -4.2106962f, -0.1470333f, 0.4083763f, 0.1176338f, 3.0840385f, -0.1572964f, -0.0890490f, -0.0180952f, 3.7325544f, -0.8294776f, 0.3346522f, -1.1202214f, 1.6752113f, 1.0139015f, 0.0004700f, 0.3836083f, 0.6656595f, 0.2913176f, -0.1158260f, -0.1200981f, -0.1440687f, 0.0901819f, 0.0970704f, -0.0945079f, 1.2392015f, -3.7490299f, 0.3769773f, -3.7793281f, -4.4638214f },
{ 0.1880100f, -0.0616453f, 0.0690580f, 0.0192369f, 0.1077639f, -1.0349685f, -0.1858334f, -0.0237454f, 0.0321288f, -0.1972293f, -0.1060380f, -0.2352615f, -4.6622381f, -0.0462558f, -0.1996076f, -0.1117475f, 0.0028754f, 0.0019389f, -0.3341376f, -0.1620777f, -0.1414309f, -0.2068793f, -0.0930385f, 1.1510212f, 0.0900222f, -0.1312867f, 0.0026628f, -0.1945329f, 0.3830346f, 0.0182901f, -4.0669789f, 0.0910851f, -0.1532303f, 1.1162053f, 0.0160292f, -0.0022699f, -0.0429166f, 0.0235788f, 0.0385675f, 0.1386526f, -0.1169539f, 0.0248961f, -0.0069848f, 0.5837085f, -0.0718366f, 0.0276972f, -0.0086989f, 0.2981494f, -0.0768345f, -0.1458246f, -0.0104413f, 0.3727665f, -0.8702060f, -0.1712346f, -0.0621224f, -0.0436646f, -0.1559061f, -0.1743888f, -0.0715756f, -0.0480433f, 3.8558547f, -0.0404157f, -0.2379080f, -0.0285049f },
};

ALPAKA_STATIC_ACC_MEM_GLOBAL const float bias_layer2[64] = {
-4.7423410f, -3.6923482f, -0.6792984f, -5.2011185f, -4.0828891f, -9.0355921f, -4.5866661f, -3.1467755f, -0.1180887f, -0.4807444f, -0.0647985f, -0.1528786f, -0.0202740f, -11.4172869f, -3.9889600f, -0.0119363f, 3.6802289f, -3.3137822f, -10.3248062f, -0.2118614f, -4.3785911f, -3.9156179f, -0.0619401f, -0.0651953f, -2.6102993f, -0.0723187f, -0.2649860f, -0.8252568f, -4.2569895f, 3.3071530f, -0.1366895f, -0.0617838f, -0.1716445f, -0.1026046f, 0.0409024f, 7.7839670f, -0.0827695f, -0.1880083f, -0.0661415f, 7.5259495f, -0.1011518f, -0.0851973f, -4.6791072f, -5.0292230f, -0.2078611f, -1.0969536f, 0.2617159f, 0.9617195f, -0.0854023f, 0.5767351f, 0.0345160f, -0.0142488f, -5.7051325f, 10.1933746f, -0.0384149f, -0.0139909f, -0.1693855f, -0.2068195f, -3.9829009f, -0.1893684f, 0.4076458f, -7.7245212f, 3.1462564f, -0.2118462f };

ALPAKA_STATIC_ACC_MEM_GLOBAL const float wgtT_layer2[64][64] = {
{ -0.9163968f, -0.1456754f, -0.0374503f, -0.2488513f, -1.4831859f, 0.7885801f, -1.1195837f, 1.1983421f, -0.1451060f, 0.3920132f, 1.0813141f, -0.0291275f, -0.1769192f, 0.3119972f, -0.0984423f, -0.8557466f, -7.8995762f, 4.2903690f, -0.0419679f, 0.0964715f, 0.0055361f, -0.0490368f, 0.0055771f, -0.1083048f, -0.2733192f, -0.2057477f, -0.0135653f, -0.3933102f, -0.4450080f, -0.5875760f, -0.1912259f, -0.1278752f, -0.0861679f, -0.0338668f, -0.1645695f, -1.0193775f, 0.0358322f, -0.1372940f, -0.0665094f, 0.0981568f, -0.0399047f, -0.1489951f, 1.8807547f, -0.0634700f, -0.0336940f, -4.0493550f, -1.5850911f, 1.6315191f, -0.0736722f, -2.0813026f, -0.0431082f, 0.0431066f, -0.1186855f, 0.0556653f, -0.1672620f, -0.0017375f, 0.0119295f, -0.3083240f, 0.9303496f, -0.0165642f, -0.0036600f, 1.1283569f, -0.5187421f, -3.0066185f },
{ 0.0600934f, 0.0644450f, -0.0602750f, -0.0095454f, 0.1230450f, -0.0324157f, -0.0369089f, -0.1231986f, -0.0370640f, -0.0262145f, -0.0136625f, 0.0812110f, -0.0908607f, -0.0150240f, -0.0071845f, -0.0496886f, 0.1016397f, 0.0833159f, 0.0969275f, 0.0900061f, -0.1174566f, -0.0471260f, 0.0816771f, -0.0988009f, -0.1248183f, -0.0964323f, -0.0815798f, 0.0272714f, -0.0166927f, 0.0208424f, -0.0515674f, 0.0983829f, -0.0208413f, 0.0919470f, -0.0204234f, -0.0512776f, 0.1187446f, -0.0744793f, 0.1086999f, 0.0273186f, -0.0899752f, 0.0946728f, -0.0530482f, 0.1008522f, 0.0661345f, 0.0403690f, -0.0692585f, -0.0981128f, 0.0371318f, 0.1235657f, 0.0501118f, 0.1217375f, 0.1186770f, 0.0205649f, 0.0933318f, 0.1002241f, -0.0863152f, 0.0265776f, 0.0705420f, 0.0209395f, -0.0659364f, 0.0361778f, 0.0207350f, -0.0329184f },
{ 1.0279722f, -2.4785335f, -0.1314110f, 0.1523671f, 6.2363448f, 3.2879803f, -1.0644746f, -0.8525758f, 0.0100571f, -13.3291416f, 5.2518682f, -0.1142014f, -0.0921012f, 1.6751455f, -0.0510435f, -1.0208796f, 6.1073651f, -2.4459970f, 2.3000946f, -0.1278978f, 0.0764608f, 0.1088757f, -0.0337518f, -0.0839830f, -0.8544297f, -0.0514681f, -0.1022819f, -0.3268765f, -0.1448796f, -2.6497967f, -0.1697514f, -0.0940861f, -0.1656081f, -0.0652812f, -0.0005019f, -0.3409563f, -0.0678328f, 0.0351880f, -0.0521878f, 2.4107900f, -0.1473324f, -0.0570115f, 1.1935902f, 0.0083993f, -0.1593335f, 1.5977805f, 0.9856490f, -1.7821270f, -0.0390308f, 1.5407689f, -0.1232561f, -0.1558051f, 0.1468294f, -10.5881758f, -0.1168993f, -0.1563114f, -0.0363433f, -2.2460790f, -1.5524518f, -0.0165875f, -2.5940955f, -0.5721405f, -5.0639434f, -4.7458191f },
{ -3.4746733f, -0.5582293f, -0.9121072f, -0.9994850f, -4.3680301f, -6.3559809f, -0.0874611f, -0.7510999f, 0.0701740f, -0.1998348f, 0.4698650f, -0.0208166f, -0.0496623f, 3.3531623f, 0.8945410f, 0.6235796f, 0.4485463f, 0.8728409f, 9.8438711f, -0.0075304f, -0.8497884f, -0.4284812f, 0.0385328f, -0.0319230f, 1.3629019f, -0.1252784f, -0.0541208f, 0.2668393f, 0.0207417f, -1.4615380f, 0.1009623f, -0.2982714f, -0.1879472f, -0.1394878f, -0.0150006f, 2.2149172f, -0.0220913f, -0.0024629f, -0.0876926f, 1.5965266f, 0.0391745f, -0.1373405f, -2.1588838f, -0.4280537f, 0.1156328f, -2.0809629f, -1.2967261f, 0.3602751f, -0.1103160f, -0.2609369f, -0.0440831f, -0.1636276f, -0.5251004f, 0.1027473f, 0.0273487f, -0.1360423f, 0.0038419f, 0.5947323f, 1.6943867f, -0.0298623f, 0.3683686f, -0.4082007f, 0.3017733f, 0.7321125f },
{ 0.5063444f, 0.0561207f, -0.9348205f, 0.8596695f, -1.1943340f, -2.0857882f, -0.8232229f, -3.0619750f, -0.0607583f, 0.0653635f, -1.5973803f, 0.0025156f, -0.1025291f, 1.2679199f, 0.5294782f, 0.3304667f, 0.8695272f, -0.9960389f, -1.2593585f, -0.1909687f, 0.3039826f, -0.0334137f, -0.0929300f, -0.1164094f, -1.5103579f, -0.1111486f, -0.3408728f, -0.7410032f, 1.2154624f, -0.7095712f, -0.1424303f, -0.0310200f, -0.0876330f, -0.0184866f, -0.0821760f, -0.5289432f, -0.1474382f, 0.0471526f, -0.0234719f, 1.1877383f, -0.0405787f, -0.1314305f, -0.9774480f, -0.3081161f, -0.1587539f, 0.9510179f, 0.7774839f, -0.7524148f, -0.0802591f, 0.1910818f, -0.0796166f, 0.0082793f, 0.2038551f, 5.0061126f, -0.0194951f, 0.0826698f, -0.0925897f, 0.1281558f, 2.3120320f, -0.0407737f, 0.1697546f, -1.4922282f, 2.3173988f, 0.6670102f },
{ 0.5387148f, -0.3214726f, 0.5639506f, -1.1166105f, 2.9627149f, 0.3754498f, 0.0179342f, 1.4036934f, -0.0454860f, -4.7001653f, 1.4310036f, -0.2223494f, -0.0007406f, -0.8238986f, -1.8553424f, -0.8955753f, -3.4897954f, -1.0672566f, 10.1344852f, -0.1947094f, 0.0751706f, 0.7580014f, -0.1438487f, -0.1402925f, 0.4994464f, 0.0681099f, 0.0494448f, -1.2528579f, 0.5967895f, 0.0706818f, -0.0330265f, 0.0334229f, 0.1220841f, -0.0073032f, 0.0907066f, -6.6508465f, 0.0534033f, -0.0220337f, -0.0665859f, 0.9373851f, -0.1358123f, 0.0021429f, 0.7713702f, 0.9734489f, 0.0343477f, -0.2749357f, -0.5220320f, -0.1633999f, 0.0155964f, 1.3822954f, 0.0062939f, 0.0407867f, 0.4023764f, -6.8510294f, -0.1473555f, -0.0061720f, -0.0617442f, -3.9623761f, -3.8903229f, -0.1500506f, -2.2958448f, 0.5510387f, -1.9171199f, -13.1173840f },
{ 0.1247212f, 0.0769895f, -0.0122410f, -0.1045036f, 0.1043206f, -0.0358013f, 0.0298228f, 0.0753017f, -0.0388846f, 0.1034935f, -0.0333406f, 0.0407152f, 0.0198160f, -0.0993208f, -0.0183916f, 0.0430885f, -0.0626102f, 0.1112571f, 0.1151178f, -0.0003767f, 0.0767708f, 0.1109404f, 0.0303982f, -0.0020448f, 0.0721483f, 0.0499589f, 0.0291502f, 0.0632719f, -0.1228203f, -0.0518611f, 0.0150479f, -0.0076299f, -0.0399217f, 0.0539185f, 0.0682546f, 0.0010354f, 0.0303667f, 0.0675893f, 0.0263827f, -0.0156896f, 0.0672148f, -0.0063566f, -0.0075544f, -0.0360776f, 0.0664223f, 0.0654625f, -0.0173638f, -0.1092178f, -0.0310231f, -0.0815859f, -0.0088014f, 0.1195987f, 0.0476303f, 0.1057815f, 0.0825309f, 0.0850171f, -0.0439739f, -0.0893807f, 0.1058243f, -0.0234985f, 0.0772486f, -0.1126156f, 0.1190815f, 0.0874907f },
{ -0.0797910f, -0.1017102f, -0.0055151f, 0.0737740f, -0.0928908f, 0.0513923f, 0.0426058f, -0.0220625f, -0.0625271f, 0.0920555f, -0.0859280f, -0.1219364f, -0.0109856f, -0.1111441f, 0.0095938f, -0.0897263f, 0.0870001f, 0.0981952f, 0.0583527f, 0.0442406f, 0.0895214f, 0.1028583f, 0.0216346f, -0.0271239f, -0.0922139f, -0.0469961f, 0.0280754f, -0.0266853f, 0.0211552f, -0.0037201f, -0.0254021f, 0.0555088f, -0.0915057f, 0.0538200f, -0.0027537f, -0.0637856f, 0.0346342f, -0.1227979f, -0.0227709f, 0.0429712f, 0.1081396f, 0.0765962f, 0.0284262f, -0.0239949f, -0.0760970f, -0.0757054f, -0.0834128f, -0.0754944f, -0.0376479f, -0.0149198f, 0.1131009f, 0.0180094f, 0.1187116f, -0.1045665f, -0.0287984f, -0.1149935f, -0.0302438f, 0.0931345f, -0.0611580f, -0.0436518f, 0.0031028f, 0.0696419f, -0.0174187f, 0.0904060f },
{ 1.2072873f, -0.0561895f, 2.8579230f, 0.2693005f, -1.1869812f, 0.0398916f, 0.0759353f, -0.9226915f, -0.0502967f, -0.0738098f, -0.5257417f, -0.1801352f, -0.0217002f, 2.6739771f, -0.0459704f, -0.5647755f, 1.2324010f, 0.2846166f, -1.2996203f, -0.0608045f, -0.3470385f, -4.9922462f, -0.0967128f, -0.0231813f, -3.0072219f, -0.1322362f, -0.1575279f, 0.2663019f, 3.4889154f, -0.1702247f, 0.0005090f, -0.0041382f, -0.1829047f, -0.0672412f, -0.0881154f, 2.1831274f, 0.0757884f, 0.0124099f, -0.1583453f, -2.6202307f, 0.0179703f, 0.0100825f, 10.6822281f, 6.8049645f, -0.0221133f, -0.9063899f, -0.2311886f, 0.1970359f, -0.0792613f, -0.4456105f, -0.1696057f, -0.1121026f, 0.7439952f, 1.9078978f, -0.0573542f, -0.0972987f, -0.2175966f, -0.2102922f, 1.1815255f, -0.0149252f, 0.0623867f, 1.0008297f, 0.4724473f, -0.1436734f },
{ -0.1167636f, 0.0281752f, 0.0856283f, 0.0925869f, -0.0373429f, -0.0457592f, -0.1033721f, 0.0267728f, 0.0393386f, -0.0146029f, -0.1058416f, -0.1016189f, 0.0904538f, -0.0756294f, -0.1051410f, 0.1179294f, -0.0522243f, 0.0255412f, -0.0310182f, 0.0742013f, -0.0989930f, -0.0710528f, -0.0561498f, 0.0839349f, -0.0727301f, 0.0141547f, 0.0314994f, 0.0510308f, 0.0306248f, -0.0337169f, -0.0969385f, 0.0732412f, 0.0113198f, -0.0661900f, 0.0029962f, 0.0455807f, -0.0478631f, -0.0700265f, -0.0025223f, -0.0152858f, -0.0694242f, 0.0278791f, -0.0875474f, -0.0476259f, 0.1013179f, 0.0505809f, -0.0732368f, 0.0545198f, 0.1094361f, 0.0322994f, -0.1095557f, 0.1164724f, -0.0447558f, -0.0982622f, -0.0954818f, -0.0462139f, 0.0191850f, -0.0117073f, -0.1102934f, 0.0102755f, -0.0066514f, -0.0433275f, 0.0113120f, 0.0264604f },
{ 0.0922348f, 0.0017757f, -0.0240813f, -0.0892757f, -0.0451842f, -0.0128997f, -0.0077793f, -0.0957465f, 0.0954365f, 0.0753580f, 0.0307827f, 0.0250301f, -0.0452479f, -0.0723385f, 0.0017306f, 0.0350020f, 0.0394417f, -0.0935346f, -0.0978941f, -0.1066593f, -0.0390944f, 0.1037996f, -0.0871587f, -0.0982944f, 0.0181011f, -0.0219817f, 0.0095622f, 0.1208714f, 0.0894997f, -0.0214094f, -0.1171673f, -0.0110867f, -0.0244215f, -0.0033340f, -0.0210742f, 0.0074195f, -0.0491015f, -0.0260028f, 0.0689891f, -0.0906121f, 0.0919320f, -0.1064877f, 0.1091468f, 0.0006628f, -0.1100776f, 0.0254748f, -0.1229024f, 0.0841536f, -0.0558906f, 0.1112168f, 0.0448537f, -0.1044795f, -0.0772702f, -0.0031737f, 0.1243020f, 0.0537851f, -0.0077907f, -0.0565907f, 0.0978976f, 0.0643809f, 0.0854202f, -0.0273924f, -0.0885050f, 0.0910596f },
{ 0.4274114f, -0.1217120f, -0.2686229f, -0.1663731f, -0.2022217f, -0.1015254f, 0.0493717f, -0.0586267f, -0.0610598f, 0.2397431f, 0.2074198f, 0.0900792f, -0.0248280f, 0.0952959f, -0.0842020f, -0.0212603f, 0.1815557f, 0.3137108f, -0.2298644f, -0.1310278f, -0.7878794f, 0.2917176f, 0.0339240f, -0.0150576f, 0.4508809f, -0.1037680f, -0.1330416f, 0.1715010f, -0.4402818f, 0.3133215f, -0.0578204f, -0.0821687f, -0.0448685f, -0.0495274f, -0.0683020f, 0.0284260f, 0.0359797f, 0.0117955f, -0.1357602f, -0.3618087f, -0.1215074f, -0.0961665f, -0.4549481f, 0.0647723f, -0.0180954f, -0.1219148f, 0.0251435f, 0.0809421f, -0.0779871f, 0.0636258f, -0.0962489f, 0.0608155f, -0.1485570f, 0.0464848f, -0.0716973f, 0.1073360f, -0.1219441f, -0.1193611f, 0.2404858f, -0.0375645f, -0.1848843f, -0.1239585f, 0.1253547f, -0.1326119f },
{ -2.8901632f, 0.2655347f, 0.4805511f, -0.0718391f, 1.1673578f, 0.0454758f, -0.1132734f, 0.2506350f, 0.0482152f, 3.9705925f, -0.1845745f, -0.0719310f, 0.1163902f, 0.4752409f, -1.8055502f, -2.5224860f, 8.3105745f, -2.4801409f, -4.2991037f, -0.1279173f, -0.6189657f, 0.0098093f, -0.0579646f, -0.1007843f, -0.5467012f, -0.1023745f, 0.0998076f, 0.1469402f, -1.6012876f, 0.8542055f, -0.1151382f, 0.0004911f, -0.0047088f, -0.0261157f, 0.0235620f, 2.1569409f, 0.0004372f, 0.0122648f, -0.0058427f, -0.5334560f, -0.1399084f, 0.0286721f, 3.5756750f, -0.0062729f, 0.0064533f, 1.9865532f, -0.8109609f, -0.1319610f, 0.0461015f, 2.4427712f, 0.0554029f, -0.0942831f, -1.0444427f, 1.2202741f, -0.0007970f, -0.0468361f, -0.0533992f, 1.3285097f, -0.3781301f, -0.0007651f, -9.8504362f, 0.4841151f, 0.7253080f, -13.4909563f },
{ 1.8765717f, -0.0931299f, -0.3961433f, -0.4051822f, 2.3829205f, 0.8791744f, -4.0726218f, -1.2273098f, -0.0406497f, 0.0302306f, 0.6799222f, -0.1581343f, -0.0625898f, 0.9373574f, -0.4908980f, 0.7544229f, 1.0982858f, 0.7242105f, 3.9141884f, -0.3105494f, 0.4925172f, 0.3992677f, -0.0274455f, 0.0373813f, 1.2772893f, 0.0757215f, -0.3789648f, -0.6602409f, 0.3134695f, 1.2813323f, -0.0601044f, -0.1834477f, 0.0061508f, -0.1906331f, 0.0229168f, -1.5506380f, -0.1078249f, 0.0019639f, 0.0716545f, 0.5024432f, -0.0926823f, 0.0834610f, 1.8950064f, 0.3450627f, 0.0727788f, 0.3747379f, 0.1724234f, -0.0897301f, -0.0479968f, -0.5368891f, -0.1268444f, -0.1043536f, 0.4087025f, -0.8041213f, -0.1568520f, -0.1401998f, 0.0057877f, 1.2315353f, -2.8158205f, -0.0164681f, -0.1986606f, -1.6206082f, 0.3162034f, -0.5667714f },
{ 0.0474005f, -0.0013550f, 0.0481348f, 0.0746633f, -0.0148804f, -0.0510605f, 0.0315541f, 0.0190580f, -0.0402895f, 0.1063864f, -0.1065379f, 0.0736295f, 0.1221015f, -0.0515002f, 0.0627329f, -0.0750832f, 0.0159036f, 0.1428182f, -0.0476428f, -0.0958073f, 0.0183171f, 0.1149964f, 0.1004445f, -0.0510465f, 0.0986453f, -0.1173472f, 0.0448127f, 0.1073886f, 0.1010890f, -0.0293507f, -0.0989104f, -0.1056612f, -0.1008014f, -0.0376452f, 0.0085485f, 0.1893956f, -0.0878339f, 0.0736660f, -0.0710066f, -0.0156523f, -0.0614986f, 0.1222734f, 0.1489006f, -0.0130466f, -0.0331928f, 0.0780411f, 0.0444106f, 0.0276075f, 0.0718156f, 0.0636020f, 0.1195907f, 0.0302978f, -0.1492571f, -0.2470078f, -0.0102597f, 0.1167099f, 0.0040284f, -0.0451987f, -0.0059120f, -0.0718875f, 0.1182407f, 0.0408255f, 0.1691959f, -0.1652986f },
{ -0.0703073f, -0.0679583f, 0.0455225f, -0.0986611f, -0.0741029f, 0.0056267f, 0.0216739f, 0.0197481f, -0.0479649f, 0.0164417f, -0.2224024f, -0.1386711f, 0.0150920f, -0.0925257f, 0.1112838f, 0.0673507f, 0.0416285f, -0.0697975f, 0.0392192f, -0.1360651f, 0.0651741f, -0.0817109f, -0.1307733f, 0.0847035f, 0.0100945f, 0.0282673f, -0.1395702f, 0.0214671f, 0.0339395f, 0.0303548f, -0.0239818f, -0.0325531f, -0.1108655f, -0.1251625f, -0.0508449f, 0.0263092f, 0.0194715f, -0.1226048f, -0.1657781f, 0.1405441f, 0.0564537f, -0.0392032f, -0.0054954f, -0.1293153f, -0.0337314f, 0.0014178f, 0.0475024f, 0.0720070f, -0.0374785f, 0.0188859f, -0.0183112f, 0.0427740f, -0.0367930f, 0.0337445f, -0.0276366f, -0.0285910f, -0.0151972f, 0.0922913f, 0.0417660f, 0.0331574f, -0.0714014f, -0.0415629f, 0.0785899f, -0.1400982f },
{ -1.1048217f, -1.6422638f, -0.5882415f, -0.4355628f, -0.8534081f, -0.0709196f, -0.5422204f, -2.9716730f, -0.0059968f, 0.2062848f, -0.2396641f, -0.0726763f, -0.0406777f, 1.0656331f, -0.7632904f, 0.4813889f, -0.9531966f, 0.8128265f, 1.9037305f, -0.2078651f, -1.2004392f, -0.3330434f, -0.1242173f, -0.0273467f, -0.0502533f, -0.0998363f, -0.3228311f, 0.2182932f, 0.3956505f, 2.5026858f, 0.0614579f, -0.0758417f, 0.0472611f, 0.0763134f, 0.1671054f, 3.9458246f, -0.0424530f, -0.0635309f, 0.0475650f, -0.5216036f, -0.0717226f, -0.1300318f, -1.1200752f, -0.3123513f, 0.0875904f, -2.4796312f, -1.2201719f, 1.3255140f, 0.0319794f, -0.3670938f, -0.1443008f, -0.0375250f, -0.5519795f, 0.0216681f, -0.1091772f, -0.1779792f, -0.0687659f, 0.0828048f, 6.0599980f, -0.1079687f, -0.2260668f, -0.5432514f, -0.1467447f, -0.5093765f },
{ -4.2550173f, -5.1198230f, 0.9091436f, 0.1056341f, 1.0746523f, 0.2225007f, -0.1346434f, 2.5455394f, 0.0151887f, 0.3960026f, -0.5927868f, -0.1107949f, -0.0818529f, -0.6173067f, 0.2309640f, -0.9466883f, -0.6127874f, -0.0840037f, 1.7142506f, -0.0423868f, -0.2607175f, 0.1319061f, -0.0066143f, -0.0619869f, 0.0911423f, -0.1761415f, -0.0143498f, 0.1090926f, -0.6858634f, -3.8442619f, -0.1103207f, 0.1161432f, -0.0902142f, 0.0894453f, -0.0161646f, 3.5921066f, -0.1627758f, -0.0067232f, 0.1193874f, -1.1800735f, -0.1226576f, 0.0931650f, 1.5883962f, 0.2652237f, -0.1661999f, 0.3355356f, -0.3242409f, 4.7164903f, -0.0173249f, -0.8254690f, -0.0189315f, -0.0052612f, 0.0622878f, 4.0083547f, -0.0702991f, -0.1190528f, -0.0403133f, 0.1072821f, -0.5192068f, -0.0608860f, -0.6738592f, 2.9998143f, -0.1054163f, 0.7525547f },
{ 0.5034658f, -0.0683021f, -0.1242530f, -3.3622344f, 2.3895099f, 1.1447281f, -1.1176673f, -0.3692587f, -0.1568369f, 0.5756748f, 0.7226827f, -0.0795132f, -0.1561107f, 2.8764522f, 1.0116034f, 1.3909994f, -0.5472274f, 4.3943257f, -6.2642856f, -0.1522355f, -0.4896567f, -0.3259161f, 0.0551718f, -0.1588106f, -0.9362743f, -0.1646999f, -0.2060763f, -0.3116359f, -1.0850931f, 0.9927418f, -0.0635390f, -0.0050900f, -0.0835798f, -0.0688868f, -0.1165900f, 9.0133934f, -0.0113311f, -0.1883409f, 0.0829166f, -1.9023404f, -0.0373735f, 0.0345901f, -2.0083737f, -0.3137627f, -0.0558318f, -1.9866188f, -4.2292485f, -0.3434471f, -0.1629300f, -2.0884783f, -0.0988954f, -0.0706495f, -0.1239415f, -2.4480257f, -0.1646346f, -0.0637377f, -0.0290599f, -0.9856077f, -1.1692181f, -0.0574018f, 0.1839277f, -0.3671876f, 1.8159484f, -0.1790958f },
{ 0.0289966f, -0.0418969f, -0.0858218f, -0.0419835f, 0.0874980f, -0.0839417f, -0.0203452f, -0.1171579f, -0.0596523f, -0.1176527f, 0.0432935f, -0.0579035f, -0.1100883f, 0.0216830f, 0.0128239f, -0.1002443f, -0.0561678f, -0.0968375f, -0.0818653f, 0.0723773f, 0.0762846f, -0.0734917f, 0.0693119f, -0.0256957f, -0.0482495f, -0.0720931f, 0.0915881f, 0.0493607f, 0.0606883f, 0.0833463f, -0.0155241f, -0.0856755f, -0.0806526f, 0.1178393f, 0.0059267f, -0.0068237f, 0.0999261f, -0.0953418f, -0.1090789f, 0.1040815f, 0.0170789f, 0.0649531f, -0.0613529f, 0.0089461f, -0.0516082f, 0.0176837f, 0.0468646f, 0.0107826f, -0.0851309f, -0.0932441f, 0.0768456f, 0.0431941f, 0.0052718f, -0.0839284f, -0.1046233f, 0.0412060f, 0.0148341f, -0.0054359f, -0.0723841f, 0.0838097f, 0.0582104f, -0.0579323f, -0.1064018f, -0.0811819f },
{ -0.0270064f, 0.0049283f, -0.0488811f, -0.0875970f, 0.1056587f, 0.0463088f, -0.0560083f, -0.0707816f, -0.0261441f, 0.0789585f, 0.0317191f, 0.0932914f, 0.0601681f, 0.0404682f, -0.0126183f, -0.0122184f, 0.1224710f, 0.0013270f, 0.1067201f, 0.1140485f, 0.0761397f, -0.0589411f, -0.0303366f, -0.0222470f, 0.0493828f, 0.0038397f, 0.0164626f, 0.0347753f, -0.0351281f, 0.0863567f, 0.0535375f, -0.0169076f, 0.0450929f, -0.0561952f, 0.1009230f, -0.0195030f, -0.0040083f, 0.1026818f, 0.1204384f, -0.0122228f, -0.0501201f, 0.1143268f, 0.1233992f, -0.0677202f, 0.0105561f, -0.0979511f, 0.1052032f, 0.0126893f, -0.0325771f, -0.0470383f, -0.0578579f, 0.0174639f, 0.0203863f, 0.0709668f, 0.1169696f, 0.1108220f, 0.0298341f, -0.0991726f, 0.0915265f, 0.0243818f, 0.0035644f, -0.0640079f, -0.0370840f, -0.1187060f },
{ -0.1047551f, -0.0276150f, -0.0319688f, 0.1083087f, -0.1164107f, -0.1055705f, 0.0544778f, -0.0605045f, 0.0197687f, 0.0600123f, -0.0728887f, 0.0631862f, -0.0810590f, -0.1229577f, -0.0836350f, -0.0937679f, 0.0339203f, -0.0444242f, -0.1064521f, 0.0929533f, -0.0575028f, -0.0607044f, 0.0296643f, 0.0893563f, -0.0081014f, 0.0841596f, -0.1232401f, 0.1231221f, -0.0136382f, 0.0921931f, 0.0653015f, 0.0964592f, -0.0839881f, -0.0161332f, 0.0872078f, -0.0608724f, 0.1037759f, -0.0290367f, 0.0865906f, 0.0188039f, 0.0211627f, -0.0404089f, -0.0117975f, 0.0825547f, 0.0065880f, -0.0864898f, -0.0338491f, -0.0922529f, 0.1035994f, -0.0875772f, 0.1217689f, 0.1214778f, -0.1208440f, 0.0954019f, -0.0827836f, 0.0790565f, -0.0339003f, 0.1191111f, -0.0529527f, 0.1145521f, -0.0497374f, 0.1226373f, 0.0787165f, 0.0247359f },
{ 0.4678241f, -2.9437246f, 0.6400098f, 0.1981532f, -2.3814874f, 2.2218230f, -0.9041565f, 2.6521347f, -0.0266617f, 0.0747485f, -4.1952686f, -0.0222937f, -0.1527583f, -0.3988807f, -0.1044495f, -0.8086834f, -0.5448014f, 0.7079723f, -3.1779597f, -0.2769113f, 0.0562220f, -0.0185400f, -0.0746508f, -0.0285529f, -0.9974539f, -0.0205481f, -0.0345905f, 1.7827801f, -0.2531833f, -0.1538074f, -0.0678748f, -0.1810726f, -0.0558714f, -0.0573025f, -0.0869854f, -0.4987039f, -0.1355502f, -0.1487198f, -0.1002896f, 0.5051862f, -0.0279833f, -0.1438149f, 1.0427973f, -0.1739093f, -0.2067310f, -0.4328396f, -0.3911945f, 0.4332145f, -0.0540798f, 0.4240782f, -0.1972234f, -0.0820142f, -0.1104574f, 6.2425828f, -0.1220525f, -0.0277087f, -0.0033647f, -0.0369182f, -0.7056305f, -0.0868867f, 0.5317473f, 1.7943459f, -0.0049401f, -0.1872515f },
{ 0.2981165f, 0.1556009f, -0.0186614f, -0.6259918f, 1.1728199f, 0.2765262f, 0.0489643f, -0.0665680f, -0.1513344f, -0.0177120f, -0.4557150f, -0.2137310f, 0.0630752f, 0.3675245f, 0.0436215f, 1.1667259f, -0.5199894f, 0.1631661f, 0.9470385f, -0.3741618f, -2.7150850f, 0.4504370f, -0.0178234f, 0.0388424f, 0.7987210f, -0.0793598f, 0.0334998f, 0.0802313f, -1.4733312f, -0.4955170f, 0.0199723f, -0.2133144f, -0.1309064f, -0.0346353f, -0.0368538f, 0.7705000f, -0.0745872f, -0.0147685f, 0.0806734f, 0.4462259f, 0.0619487f, -0.0967855f, 2.3066006f, 0.0768423f, 0.0273340f, -0.1337011f, -0.0808138f, 0.0384212f, -0.0067670f, 0.0685461f, -0.1189319f, -0.0630756f, 3.5524011f, -0.1523862f, -0.1121605f, -0.1042880f, -0.0901525f, -0.7741468f, -0.0160929f, -0.1171151f, 0.9897452f, -0.3891943f, -0.0094878f, -0.3449793f },
{ 0.1722148f, 0.0139893f, -0.0630745f, -0.0426755f, -0.1369171f, -0.1468934f, 0.1494789f, -0.0031609f, -0.0501646f, 0.1046017f, 0.0064269f, 0.0163001f, 0.1144025f, 0.1505042f, 0.0832102f, -0.0063470f, -0.0413690f, -0.1376776f, -0.0610343f, 0.0344667f, -0.0308935f, 0.1669669f, -0.1068666f, -0.1049894f, 0.0518627f, 0.0433895f, 0.0270762f, 0.0001296f, 0.0892492f, -0.1154173f, -0.0464118f, -0.0569558f, 0.0958937f, -0.1179268f, 0.1019055f, -0.0265011f, -0.0960992f, 0.0866529f, 0.0621311f, -0.0834715f, 0.1152356f, 0.0193347f, 0.0276808f, -0.0745978f, 0.0415181f, 0.1720342f, -0.1320045f, 0.0689396f, -0.0144502f, 0.0254943f, 0.0887759f, -0.0384748f, 0.0210624f, 0.0947068f, 0.0321454f, -0.0477753f, 0.0885526f, -0.1144231f, 0.0408029f, 0.0480858f, 0.0188875f, -0.0635125f, 0.1180484f, -0.1099353f },
{ -0.0491737f, -0.0858509f, -0.0536472f, -0.0378287f, -0.0742732f, -0.0035117f, -0.0453308f, 0.0703286f, 0.0127728f, 0.0147861f, -0.0115515f, 0.0802495f, -0.1016962f, 0.0792616f, -0.1241111f, 0.0618626f, -0.1149726f, -0.0070110f, -0.0912803f, -0.0660258f, -0.0486046f, -0.0636049f, 0.1209916f, -0.1004195f, -0.0841384f, 0.1215696f, 0.0344852f, 0.1127144f, 0.0535920f, 0.0428388f, 0.0299435f, 0.0668522f, 0.0746017f, 0.0723477f, 0.0164469f, -0.0017043f, -0.0667730f, -0.0511116f, 0.1005561f, 0.0233858f, -0.0147656f, 0.0478511f, -0.0154952f, -0.0045878f, -0.0331924f, -0.0199987f, -0.0448157f, 0.0380030f, 0.0704018f, -0.1238659f, -0.0405597f, 0.0571775f, 0.1071691f, -0.0626803f, 0.0856557f, 0.1081902f, -0.0844394f, -0.1014347f, -0.1084414f, -0.0731013f, 0.0312519f, 0.0344455f, -0.1081432f, 0.0129734f },
{ -0.9027084f, 2.4017801f, 0.7103283f, -0.7711906f, -5.1589165f, -4.2388587f, -1.0607631f, -29.6409111f, -0.1259741f, -4.3022485f, -6.0974417f, -0.1483101f, -0.1588586f, -2.0122921f, 0.8542691f, 3.0887518f, -1.2983022f, 0.3621798f, 0.5803270f, -0.1305935f, 0.0326445f, 0.1913408f, -0.1330332f, -0.0415860f, 0.3394344f, 0.0610647f, -0.1224959f, -0.5109240f, 2.0570717f, 4.1602621f, -0.1787034f, -0.1501028f, -0.1712929f, 0.0275756f, -0.0683540f, -1.8381165f, -0.1494036f, -0.0733535f, -0.0544600f, -0.6677120f, -0.0842344f, -0.0331497f, 0.3288881f, 0.1434570f, -0.0728874f, 0.1402833f, -0.1192554f, 1.9547299f, -0.0081553f, 0.2026176f, 0.0367153f, -0.0393390f, 0.3989159f, 4.3529010f, -0.0127246f, -0.1932375f, -0.1160466f, 4.9462252f, -12.8344212f, -0.0288787f, 6.3656864f, 1.2976443f, -0.0349814f, 7.4731998f },
{ 0.0118508f, -0.0966420f, 0.1187711f, -0.0120963f, -0.0395872f, 0.1116080f, -0.0018283f, -0.0723192f, 0.0531588f, 0.0186090f, 0.0685814f, -0.0985906f, 0.0796231f, 0.1201385f, 0.0022209f, 0.0288504f, -0.0924125f, 0.0964062f, 0.0616647f, 0.0066216f, -0.0220643f, -0.0761319f, -0.0116699f, -0.0264826f, 0.0769645f, 0.0478763f, 0.0433823f, -0.1232783f, -0.1044513f, 0.0540034f, 0.0505170f, -0.0949736f, 0.0936756f, -0.0935221f, 0.0162270f, 0.1189526f, -0.1133292f, 0.1165254f, 0.0210643f, -0.0276962f, 0.1108246f, -0.0947393f, 0.1077377f, -0.0064551f, 0.0557976f, -0.1186333f, 0.0580366f, 0.0743247f, -0.0617122f, -0.0940268f, 0.1186688f, -0.1207780f, 0.0528562f, -0.0294911f, 0.0022365f, -0.0384826f, -0.0327956f, 0.0281392f, -0.0580037f, 0.1124871f, 0.0951285f, 0.0774011f, -0.1206663f, 0.0824355f },
{ 0.6459308f, -0.2478616f, -0.1810242f, 0.3124042f, 3.2121191f, -0.0327947f, 0.9048979f, 0.0605516f, -0.0127636f, -0.0194296f, -0.3477370f, -0.1098461f, 0.0055303f, 1.1832852f, 0.0472465f, -0.4918185f, 0.9619185f, -0.4137371f, -0.6225931f, 0.1845858f, -6.2361474f, 0.1458979f, 0.0056326f, -0.1909456f, -0.0202271f, -0.0664430f, -0.1464277f, 0.1240457f, -8.4968157f, 0.6561071f, -0.1506831f, -0.1758989f, -0.1588286f, 0.0719667f, -0.0829779f, 0.2967312f, -0.1788082f, -0.0136383f, -0.0712281f, 0.6362286f, -0.1707124f, -0.0408033f, 0.5030707f, -0.3327796f, -0.0619734f, 2.4560273f, 0.5475087f, -0.4549824f, -0.1091564f, 0.0650932f, -0.2265058f, -0.0836705f, 6.8867426f, 0.8106800f, -0.1130194f, -0.1112572f, -0.1384804f, -0.3735640f, -0.2726804f, -0.1158324f, 1.0335200f, -0.5803251f, 0.5450726f, 0.3544038f },
{ -1.4820544f, 0.3849151f, -12.3039894f, 0.4782023f, -0.2737611f, 0.0729899f, 0.1964720f, 0.1871655f, -0.0141939f, -0.0373811f, 0.4028748f, 0.0792318f, -0.0457888f, -3.8720887f, -0.0081251f, -0.1176201f, -1.5425835f, 0.1782999f, 2.4479027f, -0.0694072f, -8.2005472f, -5.0790043f, -0.0245860f, 0.0250140f, 10.3662710f, -0.1432134f, -0.2131022f, 0.0795729f, -2.0048733f, -0.0111383f, 0.0496143f, -0.1731807f, -0.0116811f, -0.0113256f, 0.0302989f, -2.3001480f, -0.1402617f, -0.0154281f, 0.0058105f, -7.2735696f, -0.0922075f, 0.0727816f, 6.1613541f, 2.3571200f, -0.1702469f, -0.4293675f, 0.0595261f, -0.0417547f, 0.0635767f, -0.0304324f, -0.0227301f, -0.0612861f, -0.3382915f, -7.0338531f, -0.1708590f, -0.1537149f, 0.0557669f, 0.0894500f, -0.3039590f, 0.0412386f, 0.1160829f, -0.4725995f, -0.1141627f, 0.3948933f },
{ -0.3900456f, -0.2217621f, -0.3489820f, -2.5346787f, 0.4061185f, -0.0556881f, 0.2154521f, -0.0845247f, -0.0084230f, 1.3585898f, 0.0379446f, -0.0194577f, -0.0213919f, -2.4917893f, 0.1140821f, 1.9263276f, 2.7753870f, -3.9677067f, 1.3513979f, -0.0917255f, -0.4051124f, -0.0597710f, -0.0888517f, -0.1549074f, 0.0868382f, -0.1072999f, -0.1024484f, -0.0314396f, 0.0268460f, -3.0889885f, -0.0978844f, -0.1127739f, -0.0679240f, -0.1664337f, -0.1154953f, 0.9853970f, -0.0211444f, -0.0735124f, -0.1191470f, 1.0056807f, 0.0019818f, -0.1478046f, -1.1576669f, -0.1254899f, -0.0401341f, 1.1768519f, -2.1702158f, 0.3757194f, 0.0412340f, 2.3118541f, -0.1067695f, -0.0270798f, -0.1146273f, -0.6348121f, -0.0725005f, -0.0540441f, -0.0403351f, -1.2579080f, 0.5208377f, -0.0361333f, 1.7896839f, 0.0042151f, -0.8383594f, -1.2531788f },
{ -0.2665877f, 1.2660407f, -0.4684164f, 0.4431105f, -1.3065299f, -1.6344255f, 1.1178952f, -1.7981914f, -0.0008539f, -0.0218150f, 1.4274452f, -0.0505941f, -0.1244527f, 2.0025718f, 0.1948382f, -0.1831471f, 0.0429287f, -0.4122710f, 1.4636657f, 0.1097388f, 0.3409908f, -0.3383349f, -0.0637196f, -0.0992058f, -0.4291563f, -0.0338558f, 0.0940141f, -1.8600872f, 0.2282293f, 0.4870411f, -0.1014946f, -0.1426134f, -0.0243426f, -0.0817342f, 0.0407631f, -0.3776938f, 0.0003416f, -0.0615858f, -0.0831698f, 2.6637254f, -0.0691271f, -0.0900876f, -0.5774932f, -0.2141048f, 0.0093178f, -0.6931978f, 0.2567920f, -1.3480871f, -0.1312827f, 0.0060357f, -0.0122675f, -0.1403239f, -0.1362042f, 1.1388445f, 0.0564433f, -0.1231944f, -0.1078340f, 0.4712760f, 2.2986157f, -0.0663169f, -0.7571747f, 1.1010979f, 0.9739636f, 0.0114241f },
{ -0.5738306f, -0.2983491f, 0.3209047f, -0.3251585f, 0.1755156f, 1.1582437f, 0.5218015f, -0.0867968f, 0.0801292f, -0.0638046f, 0.7974285f, 0.0133267f, -0.1090475f, 1.0547355f, 0.4033372f, -1.2429433f, 0.3190906f, 0.8304644f, -5.7648287f, -0.2882474f, -0.1826815f, -0.2687401f, 0.0261790f, -0.0173013f, 1.0970337f, -0.1700412f, -0.0708693f, -0.0648122f, -1.0753944f, 1.0403919f, 0.0760222f, -0.1708075f, -0.0566868f, -0.1021870f, -0.1360066f, 3.7932081f, 0.0297398f, -0.0417769f, -0.1316603f, -0.3402992f, -0.2088065f, 0.0092850f, -1.6459419f, -0.1762308f, -0.1005128f, 0.2429772f, -1.5737021f, 0.3309065f, 0.0951326f, 0.2055399f, 0.0273323f, 0.0213632f, -0.5466117f, -5.4275260f, -0.0739892f, -0.1108197f, -0.1041209f, -1.9633937f, 0.4877540f, 0.0274703f, -1.3783135f, 0.6060369f, -0.8363864f, -0.3942798f },
{ 0.3617043f, 0.1081593f, 0.2673865f, -0.2834133f, 1.9889121f, -0.0525914f, 0.3503005f, 0.2074622f, -0.1695497f, -0.0454142f, -0.6746815f, -0.1050474f, -0.0028756f, 0.3478997f, 0.1111170f, -0.4069461f, 0.4225905f, 0.2413453f, -1.4460359f, 0.0327798f, 3.4719548f, -0.0423487f, 0.0016466f, -0.0043554f, 0.9603918f, -0.2167935f, -0.0987664f, 0.0811068f, 1.7607602f, 0.2674576f, -0.0077876f, -0.0736773f, -0.0198057f, -0.1423906f, -0.2262197f, 1.5934628f, -0.0881563f, -0.1864500f, 0.0022739f, -0.6066656f, -0.0363344f, -0.0725086f, 2.1023598f, 0.2926981f, 0.0073840f, -0.6794302f, -0.1285423f, -0.0181826f, 0.0996991f, -0.3833474f, 0.0596834f, -0.0371684f, -3.6625369f, 1.3391404f, 0.0343042f, -0.1441040f, 0.0059811f, -0.4815252f, 0.0234173f, -0.0272364f, 0.5202281f, -1.4725652f, 0.2299219f, -0.0727390f },
{ 0.7559734f, 0.0608614f, 0.3350941f, 0.7322037f, 1.2764858f, 0.2929880f, -0.7400385f, 0.0859190f, -0.0183919f, -0.0807577f, 0.3726911f, -0.2028035f, -0.1828009f, -4.0548716f, -0.5278156f, -0.5908486f, -0.9667276f, 0.0090074f, -2.2090755f, -0.1707107f, 0.2185616f, -0.3860373f, -0.1662543f, -0.0434438f, 0.1622820f, -0.1788703f, -0.1700852f, -0.7985603f, 0.1701876f, 0.1857629f, -0.0751945f, -0.0212354f, -0.0812909f, -0.0572885f, -0.1031095f, -4.8984046f, 0.0719085f, -0.1293124f, -0.0962368f, 0.9581578f, -0.1006223f, -0.1543267f, -0.8346858f, -0.5410581f, -0.0052197f, 1.0456624f, 0.1976877f, 0.0791892f, -0.0030850f, 0.8726124f, -0.1700935f, -0.0115859f, -0.2293569f, 3.4591024f, -0.0434960f, 0.0193660f, -0.0004970f, -0.4410933f, 0.9359658f, -0.1505069f, 0.4424898f, -2.2898915f, 0.9909493f, -0.0590572f },
{ -0.2122535f, -0.4404317f, 1.8687656f, 2.1664605f, 2.2012329f, 0.0776426f, 0.7308164f, 2.4684372f, 0.0483915f, -0.1738017f, 0.8486770f, -0.0026394f, -0.0540127f, 4.8928280f, -0.5277228f, -1.9852685f, 3.2847431f, -5.8942938f, 0.1283751f, -0.0680337f, -0.4704184f, 0.8842048f, -0.0032133f, -0.1498098f, -0.1997354f, -0.1335375f, -0.1710225f, -1.9368254f, -1.9310902f, 0.2863774f, 0.0420802f, -0.1581745f, -0.0141380f, -0.0239836f, -0.1353019f, -17.2673397f, 0.0120907f, 0.0183046f, -0.0259883f, 4.5447602f, -0.0085207f, 0.0064329f, 2.4174094f, 0.5514804f, 0.0408791f, 2.3002300f, 2.8159764f, 0.5414706f, -0.1305328f, 2.2378552f, -0.1469235f, -0.1391402f, -0.2993145f, 7.8446193f, 0.0148413f, -0.0160674f, -0.2041843f, -0.9285175f, -0.6322406f, -0.0250627f, 0.3647898f, -2.3056738f, -8.3474197f, -0.4141802f },
{ -0.0960396f, 0.0065308f, -0.0944026f, 0.0508875f, 0.0115947f, 0.0646869f, -0.1196802f, -0.1027666f, -0.0731453f, -0.1215275f, 0.0535180f, 0.0198994f, -0.0813938f, -0.1079434f, 0.0396559f, -0.0738044f, -0.1176126f, 0.0537503f, -0.0414216f, 0.0428543f, -0.1199647f, 0.0954339f, 0.0796692f, -0.1191009f, -0.0198610f, 0.0744114f, -0.0462610f, -0.0382343f, 0.0509814f, -0.0317924f, 0.1127087f, 0.1188588f, -0.1072626f, 0.0568868f, 0.0132608f, 0.0656198f, -0.1130155f, -0.0861111f, 0.0630511f, -0.0442413f, -0.0464986f, -0.0224442f, -0.0573069f, 0.0877173f, 0.0394791f, 0.0305077f, 0.0561646f, 0.0634775f, -0.0332314f, -0.1056502f, 0.0763489f, -0.0794170f, -0.0424759f, -0.0131390f, 0.1215633f, -0.0347499f, 0.1221306f, -0.0519139f, -0.0092986f, -0.0130580f, 0.0462048f, -0.0600874f, -0.1185510f, 0.0659641f },
{ 1.4712670f, -0.3096091f, 3.6151159f, 0.2345732f, -0.3872308f, -0.1387781f, -0.0868163f, -0.8584751f, -0.0761855f, 0.0187793f, -0.5666957f, -0.0373258f, -0.1134614f, 2.6828623f, 0.0894846f, -0.8728895f, 0.3328995f, 0.1772362f, -0.2123407f, 0.0296547f, 0.3421066f, 6.5063963f, -0.1675738f, -0.0479617f, -4.2889414f, -0.0807013f, -0.1907640f, -0.0375803f, -3.8402956f, -0.3169183f, 0.0518264f, 0.0481022f, -0.1297620f, 0.0201425f, -0.0571443f, 0.7857464f, -0.1784269f, -0.0102486f, 0.0677625f, -1.6723160f, -0.2087161f, 0.0040217f, 10.0011940f, -5.7868409f, 0.0397573f, -0.6461843f, -0.3611389f, 0.4619810f, 0.0032240f, -0.2916578f, -0.1874680f, -0.1170895f, 0.4952125f, -0.6937144f, -0.0866202f, 0.0319630f, -0.0703876f, -0.0698236f, -0.1934488f, -0.1371072f, 0.3475008f, 1.3879848f, 0.0032010f, -0.4868736f },
{ 1.8390964f, 2.2560956f, 0.3538879f, 1.4964876f, 1.0004090f, -1.7519639f, 2.5737424f, 1.3800784f, -0.0378695f, -0.4423217f, 0.5755646f, 0.0104919f, -0.0876963f, 0.4155281f, -0.7693678f, -0.2461230f, 0.8012797f, -1.7320023f, -2.9879534f, -0.1061243f, -0.3068319f, 0.8028858f, -0.0572176f, -0.0955039f, 0.5126406f, 0.0484891f, -0.3034682f, -1.4666753f, 1.4238552f, 1.0118141f, -0.1867988f, -0.1835529f, -0.0325769f, -0.0046547f, -0.0020891f, -3.8508198f, -0.0949866f, -0.0809343f, -0.0683506f, 0.2184439f, 0.0071069f, -0.1147532f, 7.4563360f, 0.3566603f, -0.1210717f, 3.9508104f, 0.3813545f, -1.6461782f, -0.1559645f, 1.0262064f, -0.1621538f, -0.1525771f, -0.2650624f, -2.1715775f, -0.0334687f, -0.0769199f, -0.1486029f, -1.9553294f, 8.5046530f, -0.0246256f, -3.1176631f, 0.3373678f, 5.5371966f, 1.1802472f },
{ -0.1856646f, 0.5488414f, 0.2501531f, -0.1272476f, 3.0861304f, 0.2073767f, 3.7618799f, 1.5278496f, -0.1431511f, 0.3289500f, -1.0885618f, -0.0056615f, -0.0880754f, -0.5746172f, 1.2734392f, -0.5656946f, -0.5772290f, 1.1528826f, -1.8768085f, -0.2480363f, 0.4539537f, -0.3511877f, -0.1587895f, -0.0495778f, -1.0844938f, -0.1397311f, -0.0866075f, -0.0740603f, 0.3193997f, -0.5989505f, -0.0464545f, -0.0144369f, -0.0672651f, 0.0115093f, -0.1318731f, 7.1628942f, 0.0193823f, -0.1292505f, -0.0308204f, 1.1730057f, -0.2004240f, -0.0268722f, -2.6964357f, -0.2333550f, -0.1513845f, -0.1001500f, -0.7637444f, -1.5796086f, -0.1132301f, -1.2537462f, -0.0058091f, -0.0028661f, -0.0082645f, -2.9258761f, -0.0446649f, -0.0263439f, -0.1502516f, -0.1602524f, -1.0749487f, 0.0296951f, 0.3934767f, 0.1979228f, 0.6336198f, -0.1758122f },
{ -0.1023287f, -0.0772216f, 0.1147727f, 0.0533777f, -0.0965881f, -0.1103837f, -0.0466698f, 0.0480905f, -0.0583884f, -0.0734169f, -0.0462091f, -0.1160673f, -0.0636671f, -0.0285517f, -0.0799554f, 0.0888713f, 0.0844321f, -0.1090612f, -0.1224434f, 0.0785514f, 0.0947428f, 0.0500981f, 0.0757878f, -0.0829805f, -0.0324816f, 0.0215276f, 0.0785267f, -0.0023131f, -0.0529888f, 0.1207110f, 0.1012523f, 0.0353059f, -0.0391684f, -0.0874804f, 0.0151965f, 0.1087006f, 0.0822440f, -0.0081266f, 0.0703394f, -0.0083587f, -0.0806843f, 0.0002094f, 0.0534845f, -0.0303575f, 0.0316157f, 0.0089928f, -0.0020658f, 0.0159311f, 0.0899505f, 0.1006948f, 0.1150315f, 0.0878682f, 0.0028771f, -0.1043815f, 0.0753753f, -0.1090583f, -0.1031575f, 0.0483479f, 0.0940841f, 0.0268720f, -0.1136258f, -0.0792813f, 0.0044361f, -0.1084378f },
{ -0.0153022f, -0.0314289f, 0.0554619f, 0.1206578f, -0.0241274f, -0.0901740f, -0.0891051f, 0.0019331f, -0.0185471f, -0.0593171f, 0.0149432f, -0.0299465f, -0.0967194f, -0.0922929f, 0.1190564f, 0.0876893f, -0.0828061f, -0.1197919f, 0.0999270f, -0.0645902f, -0.1064067f, -0.0552472f, -0.0572377f, -0.0471595f, -0.0990737f, -0.0859107f, 0.0117736f, -0.1195829f, 0.0420052f, -0.0629812f, -0.0258888f, -0.0493164f, -0.0299106f, 0.0303439f, 0.1110951f, 0.1232430f, -0.0166084f, 0.0618822f, -0.0615490f, -0.0371602f, 0.0013764f, 0.0722033f, 0.0971000f, 0.1154329f, 0.0151393f, -0.0326411f, -0.1225606f, 0.0728607f, -0.0380501f, -0.0596482f, -0.1233324f, 0.1175468f, 0.1197266f, 0.0387437f, -0.1063349f, 0.0274674f, -0.0257969f, -0.0366892f, -0.0920141f, -0.1033425f, -0.1208623f, 0.0728121f, -0.0797736f, 0.0628535f },
{ 0.1216173f, -0.0852778f, -0.0484601f, -0.1022169f, -0.0393355f, -0.1072529f, -0.0718060f, 0.1022901f, 0.0585218f, 0.0132597f, -0.1143376f, -0.0092737f, -0.0656714f, 0.0350887f, 0.0397585f, 0.0934538f, -0.0632328f, 0.1179992f, 0.0479261f, -0.0637425f, -0.1192568f, -0.0156359f, 0.0556152f, -0.0497060f, 0.0434539f, -0.0088526f, -0.0590951f, 0.0405042f, -0.0242166f, -0.0251545f, -0.1185439f, -0.0727087f, -0.0226186f, 0.0219399f, 0.0522152f, -0.1096109f, -0.0813147f, -0.0554983f, 0.0351972f, 0.1192168f, 0.0382968f, -0.1176172f, 0.1005933f, 0.0052132f, -0.0282217f, 0.1195099f, -0.0412913f, 0.0506745f, -0.0568746f, 0.0569281f, 0.0210299f, 0.0198407f, -0.0422415f, 0.1179692f, 0.0034381f, 0.0194831f, -0.1166564f, -0.0762876f, -0.0348231f, 0.0749514f, 0.1096737f, 0.0441482f, 0.0019122f, -0.0956518f },
{ 1.8418008f, 0.1776626f, -0.1765470f, -1.6688898f, -0.9789811f, 0.6317118f, -2.2290864f, -0.6609772f, 0.0047389f, -0.0942509f, -0.1972441f, -0.0720866f, -0.1074522f, -1.8513834f, 2.0376728f, 0.7662925f, -0.8469171f, 1.9076258f, 0.4490385f, 0.0225985f, 1.4287279f, 0.1092502f, -0.1067841f, -0.1725929f, 0.4347454f, -0.0303793f, -0.0986740f, 1.1760194f, 0.1652428f, -1.5193018f, -0.1117890f, -0.1504409f, -0.1719790f, -0.1467931f, -0.2098193f, 10.9339037f, -0.0035425f, -0.0541665f, -0.1145240f, 1.5059668f, -0.0595600f, -0.1230944f, 1.2790304f, 0.0185449f, 0.0658397f, 1.2485447f, -0.0696403f, 1.2886235f, 0.0114447f, -2.0504367f, -0.0481146f, -0.0335103f, 1.4970596f, -2.9379354f, 0.0559168f, -0.1590469f, -0.1871068f, -0.4267021f, 1.8151908f, -0.0731323f, 1.4350040f, 1.2745218f, 3.3584507f, 0.4930212f },
{ 0.9508816f, 0.7390026f, -0.3417919f, -0.2002386f, 2.5890453f, -0.8386219f, 0.4072228f, -0.5353146f, -0.0527026f, -0.1504052f, 0.0003278f, -0.0358212f, -0.1020552f, -1.8770715f, 0.2737493f, 1.3634191f, 0.4917752f, 0.4034810f, 0.5384689f, -0.0807390f, -1.0864477f, -4.4013033f, 0.0475105f, -0.1174733f, -3.1872704f, -0.0925680f, -0.0991296f, -0.7548134f, 2.8525052f, 0.0239503f, -0.0726528f, 0.0369673f, 0.0146681f, -0.1792906f, -0.1265883f, 0.4156197f, -0.1522012f, -0.1085474f, -0.1197730f, 7.5195765f, -0.1652983f, -0.0905206f, -6.4363127f, -4.8147492f, -0.1094985f, 0.3059523f, 0.3537882f, -0.4437188f, -0.0991257f, 0.0843479f, 0.0048477f, -0.0382951f, -1.5194068f, 3.4088802f, 0.0703018f, 0.0292203f, -0.0127793f, 0.0743209f, -0.3319531f, 0.0051607f, -0.7069983f, -0.1975839f, -0.0611407f, -0.0015622f },
{ -1.4031974f, 0.3159596f, -10.4188185f, 0.3955527f, 0.4331178f, 0.0468379f, 0.1538497f, 0.4698395f, -0.1563410f, -0.1676301f, 0.3209894f, -0.1699538f, 0.0894854f, -3.9483981f, 0.0778597f, -0.4044247f, -1.3655446f, 0.2253892f, 0.6958805f, -0.1082446f, -0.4463650f, 1.9190130f, -0.0598037f, 0.0391226f, 11.0977516f, 0.0958305f, 0.0367864f, 0.2231526f, -1.8312767f, 0.3573652f, -0.1072226f, -0.1107745f, -0.0816099f, -0.0011651f, -0.0233923f, -1.8584005f, -0.1526853f, -0.1984736f, -0.1247603f, -7.5222344f, -0.0900769f, -0.1674543f, 6.7287040f, -5.0897183f, -0.0028354f, -0.1761428f, 0.1082310f, -0.0828153f, -0.0684634f, 0.1652448f, -0.1906413f, 0.0016986f, -4.2691522f, -5.8569431f, -0.1031228f, -0.1430082f, -0.1318945f, -0.1575902f, -0.1477598f, -0.1184909f, -0.3180634f, -1.0437772f, 0.3018695f, 0.2875611f },
{ 0.1923436f, 4.2197881f, 0.2137627f, 0.0227067f, -1.4400697f, -1.3844823f, -0.0535046f, 2.3515654f, -0.0831788f, 0.1667555f, 1.4371107f, -0.1432979f, -0.1725523f, 2.7215028f, 0.1467696f, -0.6809824f, 0.1356969f, -0.0336882f, -0.1485117f, 0.0411644f, 0.5299499f, -0.2832165f, -0.1272694f, -0.1031920f, -1.1254648f, -0.0887127f, -0.1342478f, 0.3519858f, 0.4972087f, -0.1124895f, 0.0192630f, 0.0081445f, -0.1708104f, 0.0983827f, -0.1866935f, 2.9244177f, -0.1056844f, -0.0478897f, -0.0257555f, -0.2584947f, -0.1176758f, -0.0675175f, 0.4393158f, -0.2451890f, -0.0512387f, -0.4942807f, 0.1041377f, -0.5309950f, -0.0210425f, 0.2128253f, -0.0929563f, -0.0264962f, 0.5220246f, 2.5658813f, -0.1522091f, -0.2003783f, -0.0818873f, 0.2326375f, -0.5032938f, -0.1161523f, 0.2003546f, -13.7732658f, -0.9944839f, -0.1288179f },
{ -1.3011912f, 1.0499843f, 0.6791637f, 0.1062102f, 3.0281401f, -0.9407966f, 1.1365639f, 0.1181350f, -0.1112061f, -0.3231744f, 0.6317910f, -0.0777200f, 0.0062403f, -0.9140128f, 0.1405148f, 0.9324148f, -1.3370248f, -0.7787126f, 0.3012390f, -0.2985770f, 1.0535997f, 0.5037689f, 0.0288104f, -0.1105111f, 3.9483461f, -0.1921109f, -0.0324106f, -0.8400095f, 2.8596964f, 0.4906527f, -0.0247550f, -0.0695410f, -0.0358136f, -0.0745772f, 0.0393552f, -3.2275183f, -0.0073432f, -0.1266730f, -0.0770649f, -1.2826489f, -0.0011898f, -0.1285192f, 7.1797447f, 0.8480908f, -0.1433363f, -1.8253490f, 0.2691718f, -1.0045425f, 0.0010383f, -0.1878250f, -0.0435492f, -0.1581105f, 0.9089353f, -4.9376855f, -0.0733873f, -0.2755830f, -0.0937019f, 0.1408720f, 0.7283036f, -0.1416022f, -0.0968945f, -1.4989262f, -0.7755665f, 0.4991387f },
{ -0.1913818f, 2.0337346f, -0.0455619f, -0.2139934f, -3.6154013f, -2.1677413f, 1.2570063f, -3.1001000f, -0.0290292f, 0.0397434f, -2.3645344f, -0.0026848f, 0.0402408f, 0.8993671f, 0.1104166f, -0.4915643f, 1.1283618f, 0.4833472f, 0.5049111f, -0.2310835f, 0.0178283f, -0.0940942f, 0.0653549f, 0.0394439f, -1.0835335f, 0.0582948f, -0.2443696f, 0.5085881f, 0.2598791f, 2.4985354f, -0.0061775f, -0.0990567f, -0.1465024f, 0.0077943f, -0.1324477f, 0.0201215f, -0.2391518f, 0.0616719f, -0.1646876f, 0.1655430f, -0.2021257f, -0.0511968f, 0.4604910f, -0.1641898f, -0.0174212f, -0.6895946f, -0.2864680f, -0.2875746f, -0.1531860f, -0.2483626f, -0.0443996f, -0.0376923f, -0.0307454f, 3.4444327f, 0.0604557f, -0.0243576f, -0.0544313f, -0.9822913f, 0.1493460f, 0.0172446f, -0.5707486f, -3.5173037f, 2.4469361f, 0.1124565f },
{ 0.1029223f, -0.0294206f, 0.1192034f, 0.0451995f, -0.0429276f, 0.0945877f, 0.0038425f, -0.0210626f, -0.0856521f, 0.0946697f, -0.0243473f, -0.0728602f, -0.0521194f, 0.0641980f, -0.0056828f, -0.0067898f, -0.0476158f, 0.0593574f, 0.0395682f, -0.0120742f, -0.1216198f, 0.0933100f, 0.0104748f, -0.0408227f, -0.0281883f, -0.0293186f, -0.1135689f, -0.0277562f, -0.0889325f, -0.0545470f, -0.0989102f, -0.0557408f, -0.0754940f, -0.0200364f, -0.0183668f, 0.0378513f, -0.0442529f, 0.1172907f, -0.1014901f, 0.0125373f, 0.1129266f, 0.0957850f, 0.0929049f, 0.1219269f, -0.0960187f, -0.0917035f, 0.0493212f, -0.0001298f, 0.0011745f, -0.0408090f, -0.1071023f, 0.1249126f, -0.0169293f, 0.0346511f, 0.0689569f, 0.0647250f, 0.0281457f, -0.0099757f, 0.1156718f, -0.0595661f, -0.0623558f, 0.0049645f, 0.1170129f, 0.1246946f },
{ 0.8066508f, 1.4190120f, -0.3837051f, -0.4573630f, 8.2729092f, 1.6871808f, -0.9181960f, -0.8114476f, -0.1155081f, 1.4694339f, 1.0837542f, -0.0454681f, 0.0559216f, 1.3058131f, 0.6951983f, -0.7411312f, -0.0612390f, 0.9668763f, 3.8809025f, -0.1218106f, 0.2118845f, 0.4450532f, -0.1685582f, 0.0154164f, 2.1833024f, 0.0650520f, 0.0775747f, 0.2739428f, -0.0755343f, 0.7941124f, 0.0315039f, -0.0012932f, -0.0609783f, -0.0740789f, 0.0111018f, -1.2064126f, -0.1717404f, 0.0267990f, 0.0051184f, 2.2290106f, -0.1806326f, -0.0076273f, -0.7235379f, 0.6690078f, -0.1155246f, 0.2754713f, -0.8254671f, -1.2137705f, -0.0388857f, -0.0322415f, 0.0371877f, 0.0534958f, 0.3523083f, -8.5202904f, -0.0873128f, -0.0083526f, -0.0881157f, 0.9030240f, -19.1093407f, -0.1205882f, 1.2139671f, -0.0135537f, -19.2792377f, -1.7833108f },
{ 0.5450085f, -0.1112325f, -0.2419135f, 0.7966484f, 2.5284309f, -0.2253079f, 1.2435635f, -0.3561534f, -0.0506926f, 0.0860216f, -0.6255050f, -0.0086706f, -0.1546763f, 0.9433910f, -0.1450194f, 0.0704262f, 1.8010284f, -0.5945926f, 2.3281939f, -0.0523927f, 8.2472305f, -0.2914807f, -0.0265326f, -0.0397610f, -1.6719768f, -0.1843683f, -0.2025660f, -0.1096558f, 1.9009542f, 0.6442180f, -0.1505812f, -0.0234743f, -0.1572070f, -0.0266094f, -0.1124533f, 0.3979549f, 0.0134171f, -0.0434317f, 0.0582095f, 0.5074415f, -0.1675674f, 0.0632005f, 0.2668775f, -0.0344705f, 0.0270245f, 2.0897729f, 0.7920712f, -0.5962654f, 0.0044784f, -0.3119297f, -0.0838106f, -0.1113298f, -7.1507044f, 1.0960243f, -0.0717324f, -0.1228302f, -0.1651731f, 0.1165926f, -0.3839071f, -0.1160349f, 1.6366137f, -0.1370531f, -0.2879662f, 0.4110320f },
{ -0.3898641f, 0.6710527f, -0.2384154f, -0.2101833f, 0.2551863f, 0.3091669f, 1.2329459f, 0.8897786f, -0.1209672f, -1.0841002f, -0.6231824f, -0.1484586f, 0.0326133f, 0.9837176f, -0.1482398f, -1.0905904f, 5.0693903f, -1.7342992f, 3.6339316f, -0.2340470f, -0.1809175f, -0.2184813f, 0.0422060f, 0.0965920f, -0.4838139f, -0.0626370f, 0.1409939f, 0.2821640f, -0.7589563f, -2.0231373f, -0.1379348f, -0.1127011f, -0.1247234f, -0.0703795f, 0.0427628f, 2.3464746f, -0.1536198f, 0.0888790f, -0.0836013f, -1.0383137f, -0.0427128f, 0.1358101f, -0.7466539f, -0.1921309f, -0.1181804f, 2.3998005f, 0.4732655f, -0.3073747f, -0.0912541f, -0.3834061f, 0.0710743f, -0.0340507f, -0.2928200f, 2.8580980f, -0.0735579f, -0.1713900f, -0.0229475f, -0.3834731f, 0.1921724f, -0.1111955f, -2.9325988f, 1.5755705f, -0.1904010f, 0.3495978f },
{ 0.0385573f, 0.0238559f, 0.1088673f, -0.0744119f, 0.0387135f, -0.0315106f, -0.0631464f, -0.0642478f, -0.1164715f, -0.0483119f, 0.0409534f, 0.0357736f, -0.1226724f, 0.1027567f, -0.1187703f, 0.0515886f, -0.1177817f, 0.0210801f, -0.1165471f, 0.0660536f, 0.0535195f, 0.0449538f, 0.1032009f, 0.1043340f, -0.0679590f, 0.0196036f, -0.0861212f, 0.0108987f, 0.1208659f, 0.0464006f, -0.0452057f, 0.0511626f, -0.0043561f, 0.0484769f, -0.0903633f, -0.0435609f, -0.0795905f, 0.0449362f, 0.0503830f, 0.1035994f, 0.1179073f, 0.1198939f, -0.0000115f, -0.0461835f, 0.1212171f, 0.0086025f, -0.0187216f, -0.0151385f, -0.1098008f, 0.0134505f, -0.0874343f, 0.0135413f, -0.0235935f, 0.0264345f, -0.0985057f, -0.0455413f, 0.0040084f, -0.0862046f, 0.0766693f, -0.0002350f, -0.1180590f, -0.0697121f, 0.0149113f, -0.0223678f },
{ 0.8496811f, 1.4848187f, -0.5035751f, 1.6844014f, 2.0556021f, -0.6702489f, 5.3887010f, 0.6414582f, -0.1552429f, -1.1658140f, 1.8449684f, -0.2191489f, -0.0520897f, -2.2620559f, -0.1801684f, 0.7016403f, 4.1083941f, -2.5342822f, 2.8309155f, -0.1079560f, -0.5221735f, 0.1668533f, -0.0903403f, -0.0770751f, 1.7371427f, -0.1330021f, -0.2712887f, -1.2416239f, 0.3574516f, -1.0237788f, 0.0078547f, -0.1394022f, 0.0561825f, -0.0340617f, -0.1541691f, 0.2755745f, -0.0553172f, -0.1086091f, 0.0496806f, 0.4636692f, -0.0225114f, -0.1171730f, 0.8387012f, -0.0140353f, -0.0901373f, -0.0164947f, 0.9925775f, -4.0968328f, -0.1001675f, 1.1312381f, -0.1611803f, 0.0336390f, -0.7663888f, 2.5175531f, -0.0471887f, 0.0117233f, -0.1561070f, -1.0113633f, 1.0543518f, 0.0284872f, -3.5820816f, -6.7813830f, 2.5016608f, 1.8643949f },
{ 0.0816323f, 0.0772495f, 0.1062641f, 0.0546994f, 0.1203379f, -0.0771123f, -0.0419685f, -0.1233322f, -0.0261604f, -0.1002491f, -0.0370142f, 0.0842925f, -0.0354795f, -0.0241200f, -0.0000854f, 0.0121953f, -0.0254724f, 0.0559106f, 0.1108331f, 0.0948104f, 0.0796164f, 0.0087986f, -0.0086250f, -0.1059792f, 0.0272540f, 0.0871138f, 0.1234031f, 0.1155487f, 0.0781610f, -0.0009786f, 0.0052457f, 0.0172080f, -0.0748267f, 0.0925100f, 0.0270964f, -0.1013900f, 0.0214792f, 0.1175002f, -0.0132516f, -0.1064471f, 0.0239492f, -0.0089496f, -0.0080849f, -0.0081503f, -0.0574512f, -0.0474693f, 0.0239797f, -0.0670706f, 0.0650172f, 0.0030763f, 0.0924312f, 0.0390610f, 0.0534272f, -0.0295665f, -0.0846606f, 0.0768791f, 0.0040986f, -0.0880536f, -0.0825604f, 0.0476081f, 0.0656932f, 0.1183757f, -0.0196718f, -0.0937313f },
{ -0.0168069f, 0.0537294f, -0.0998817f, -0.0158672f, -0.0100431f, -0.0000959f, 0.1034272f, -0.1143499f, 0.0840058f, 0.0660869f, -0.0467207f, -0.0361089f, 0.0517178f, -0.0560318f, -0.1165559f, -0.0996113f, -0.0606597f, 0.0572008f, -0.1137167f, -0.0836764f, -0.0808065f, -0.0250382f, -0.1140096f, -0.1032100f, -0.0235267f, 0.0983117f, -0.0354978f, 0.0832330f, 0.0335695f, 0.0902378f, -0.0240048f, 0.0918489f, 0.0430461f, -0.0122067f, -0.0409683f, 0.0816238f, 0.0302752f, -0.0408189f, -0.0117219f, 0.0364914f, 0.0015779f, -0.0651802f, 0.0228492f, -0.0839807f, -0.0188315f, -0.1175152f, -0.1238728f, 0.0886290f, -0.0125051f, -0.0483416f, -0.0284840f, 0.0476449f, -0.0870254f, 0.0089747f, 0.0294193f, -0.0256755f, 0.1239666f, 0.0272329f, 0.1233135f, 0.0850578f, 0.0329638f, 0.0203542f, 0.0954355f, 0.0736247f },
{ -0.0370579f, -0.0752571f, -0.0054616f, -0.0570920f, -0.0240185f, 0.1661398f, -0.0070835f, 0.0623404f, -0.0299500f, -0.1066526f, -0.0173242f, -0.0325053f, -0.0628944f, 0.0429631f, -0.0037167f, -0.0568946f, -0.0179055f, -0.0493163f, 0.0559756f, -0.0062789f, -0.1914522f, 0.0913868f, -0.0217656f, 0.0366285f, 0.0085046f, 0.1227351f, -0.0829066f, 0.1764222f, -0.0775279f, -0.0032922f, -0.1095531f, 0.0721898f, -0.0878994f, 0.0062697f, -0.0736246f, -0.0210180f, -0.0391225f, -0.1120217f, -0.0999327f, 0.0439995f, 0.1001471f, -0.0842827f, 0.1009906f, -0.0657391f, 0.1194049f, 0.0743662f, 0.0791645f, -0.1129527f, -0.1238716f, 0.0379037f, 0.0035255f, 0.0527194f, 0.0334392f, 0.0307991f, 0.0514274f, -0.0721091f, 0.0980953f, 0.0509773f, 0.0755129f, 0.0287389f, 0.0395516f, 0.0079414f, -0.1571174f, -0.0806895f },
{ -0.1238871f, -0.0963481f, -0.0152382f, 0.1034016f, -0.0779876f, 0.1129872f, -0.0605572f, -0.1044442f, -0.0431922f, 0.0167516f, -0.0849067f, -0.0969519f, -0.0268300f, -0.0362108f, 0.0256471f, -0.0246061f, -0.0130710f, 0.0302933f, 0.0375687f, -0.0637189f, -0.0307857f, 0.0787855f, -0.0036478f, -0.0490920f, -0.0013805f, -0.0423019f, -0.0594431f, -0.1011947f, -0.0289959f, -0.0136466f, -0.0453807f, 0.0129583f, 0.0453070f, -0.1017184f, 0.1139254f, -0.0009453f, -0.0955202f, -0.0516329f, -0.0015158f, 0.0573630f, -0.0523483f, -0.0336672f, 0.0023332f, -0.0401435f, -0.0650075f, 0.0572662f, 0.0155661f, 0.0971652f, 0.0130264f, 0.0745108f, -0.0155368f, -0.0765610f, 0.0190465f, -0.0654425f, -0.1149988f, 0.0582829f, 0.0382012f, -0.0821117f, 0.0484999f, 0.0069424f, -0.0694164f, -0.0638029f, -0.0015928f, 0.0440028f },
{ 0.7405479f, -1.4256002f, -0.2503315f, -0.0124622f, -1.8581477f, 2.0123119f, -1.5570074f, -2.0286560f, 0.0615626f, 0.3586165f, -1.3194001f, -0.1349086f, -0.1094348f, 0.0040325f, 0.0966874f, 0.6441517f, 0.0251710f, 1.0920259f, -4.5912390f, -0.2008443f, 0.1937999f, -0.2985356f, -0.0436472f, -0.0889860f, 0.4825054f, -0.0495941f, -0.0993220f, 3.6914570f, -0.2767686f, -1.8147026f, 0.0051958f, -0.0008334f, -0.1366940f, 0.0331164f, 0.0289453f, 9.2108583f, -0.0638989f, 0.0306992f, -0.0692215f, -0.8384136f, 0.0504047f, -0.0210221f, -1.0794371f, -0.1638477f, -0.1615755f, -0.2979597f, -0.5980712f, 0.4630439f, -0.0540215f, -0.3817071f, -0.0798312f, -0.0377776f, -0.0168835f, 7.8681564f, -0.0997578f, 0.0126165f, -0.0323318f, 1.0693803f, 1.3133649f, -0.1263179f, 1.5643992f, 0.6229266f, -1.1512175f, -0.5967109f },
{ -0.3122351f, -0.0736138f, 0.1300381f, 0.3235708f, -0.9143338f, -0.0044356f, 0.0611493f, 0.0465464f, -0.0318015f, -4.1168318f, -0.0279688f, -0.1862074f, -0.0152026f, 0.4149680f, -0.3332083f, -5.1015096f, -9.2434196f, 3.0082803f, -5.3992500f, 0.0137350f, -0.6085817f, -0.2478790f, -0.0845263f, -0.0641575f, -0.6632169f, -0.0565704f, -0.1695068f, -0.0979380f, -0.7269109f, -3.2799029f, -0.0476273f, -0.0162944f, -0.0737408f, -0.1522888f, -0.2091280f, -1.5722955f, -0.0492201f, -0.0482055f, -0.1173785f, -0.2907307f, -0.0207936f, 0.0316427f, 0.3224380f, -0.1999864f, -0.0881131f, -1.1425381f, 0.8629911f, -0.0782610f, -0.0972417f, -1.2205133f, 0.0744602f, -0.1740501f, -0.3152641f, 1.8064516f, -0.0142235f, -0.0823205f, 0.0266052f, 0.3855321f, -0.3304860f, -0.1189542f, -1.0391042f, 0.6457329f, -0.4974855f, -0.0974810f },
{ 0.3068150f, -2.0274651f, -0.8208669f, -0.2979761f, -2.0436018f, 0.9512271f, -1.6345460f, 2.3563626f, -0.0477855f, 0.1314482f, -1.4313504f, -0.0391644f, -0.1241741f, -1.8879496f, 0.3537590f, 0.0702412f, 0.1168812f, 0.5099549f, 2.1010242f, -0.0781510f, -0.0960818f, -0.0336361f, -0.0632191f, -0.1379572f, -0.9367047f, 0.0632959f, -0.0610164f, 1.2803936f, -0.1064593f, -1.1908334f, -0.0052844f, -0.0783602f, -0.1068953f, -0.1419150f, -0.0524211f, 4.0550127f, -0.0323114f, -0.0345804f, -0.0653249f, 1.0772494f, -0.0974425f, -0.1426933f, 0.8516705f, 0.0138501f, -0.0977049f, -0.3549223f, -0.2522661f, 0.8696064f, -0.1545620f, 0.0181486f, -0.0650618f, -0.0238486f, 0.0795850f, 5.2155132f, -0.1272421f, 0.0274336f, -0.0354970f, 0.9663025f, 0.6553403f, 0.0738591f, 0.2720813f, -0.9093970f, -0.1837252f, -0.0515568f },
{ -0.8995627f, -0.3994128f, 0.2637611f, -0.5961671f, -3.8810277f, -0.5616663f, 1.5013616f, -1.2115756f, 0.0201530f, -0.4322357f, -0.0738766f, -0.1111015f, 0.0101253f, 0.8637186f, -0.3928513f, 0.8407258f, 1.5522184f, -1.0200328f, -0.6405206f, -0.0578807f, -0.2686088f, -0.4375284f, -0.0143603f, -0.1883627f, -0.5982106f, -0.0916279f, -0.0431671f, -0.3313656f, 0.3222045f, 0.9603297f, 0.0015897f, -0.0690916f, -0.1509400f, -0.1762179f, -0.1227113f, -8.5480022f, -0.1921863f, -0.1221149f, 0.0256220f, 0.6935049f, 0.0071694f, 0.0732019f, -0.3474413f, -0.5750569f, 0.0039143f, -0.9374127f, -1.0832716f, 0.0200034f, -0.1473512f, 0.9352204f, -0.0023743f, -0.0212148f, -0.1282365f, 8.6738529f, -0.0638381f, -0.0417171f, -0.0775086f, 1.4842263f, 2.7887468f, 0.0244213f, -0.6907273f, 3.3527889f, -1.5413781f, 1.4625537f },
{ 1.1735203f, 0.5833722f, -1.1462922f, 1.1503677f, 2.3188815f, 0.7662538f, -0.3555904f, -1.2603556f, -0.0892129f, 0.0003982f, -0.7782031f, -0.0151041f, -0.1159928f, -1.8163122f, -2.0608003f, 1.7014724f, 0.7503988f, -3.2425282f, 1.2064654f, 0.0663120f, 0.2994414f, 0.0660460f, -0.1106395f, 0.0376803f, 0.2684215f, 0.0046422f, -0.1508386f, -4.0806055f, -0.8108723f, 0.4754286f, 0.0043288f, -0.0136247f, -0.2201619f, -0.0018572f, -0.0303124f, -12.5325060f, -0.0728006f, -0.0029193f, -0.0169914f, -5.9347777f, -0.0321920f, -0.0828494f, 1.6211368f, 0.4271367f, 0.0343760f, -0.4910214f, 1.3110267f, -0.0645913f, -0.0109469f, 0.7929710f, -0.1244700f, 0.0107224f, 0.2790737f, 14.2793779f, 0.0260374f, -0.0215774f, -0.2104967f, 0.4084800f, -1.2874674f, 0.0366556f, 0.1557250f, -0.5254297f, -9.8410435f, -1.1301595f },
};

ALPAKA_STATIC_ACC_MEM_GLOBAL const float bias_layer3[64] = {
17.1764488f, 3.5324342f, -0.2482096f, 18.3558941f, -11.8492393f, -4.8517642f, -0.1678888f, -3.1985154f, -16.7641926f, -0.8532934f, 3.6675506f, 15.7904654f, -0.1240896f, -0.1670517f, 1.3792609f, 16.6117115f, 8.7611456f, 1.1708496f, 16.0029068f, -7.9681005f, -5.4173818f, -19.3932037f, -0.1632267f, -34.3300056f, 3.3301775f, 5.3124065f, -0.1483842f, -10.0186272f, -1.0473812f, 8.9927092f, -0.2488828f, -4.2069154f, -0.2060397f, 10.6625662f, 9.0709705f, -7.4658666f, -14.2751122f, 8.3174314f, -16.7562027f, -6.8855023f, -0.0965598f, -0.2387861f, -0.2490169f, 21.4204826f, -0.2690805f, -0.2517852f, -0.3130530f, -21.4081974f, -9.7310152f, -32.4375153f, 0.1817024f, -18.3663368f, -0.2597075f, -0.2058413f, -21.7657833f, -2.1712191f, 3.2305055f, 4.0101867f, -5.2825956f, -0.0587420f, -0.1255274f, 1.2452221f, 7.1989799f, -10.2931089f };

ALPAKA_STATIC_ACC_MEM_GLOBAL const float wgtT_layer3[64][64] = {
{ 0.7594783f, 2.0378304f, -0.1321880f, -0.3372861f, 14.6573801f, 0.3851402f, -0.2376878f, -2.6894035f, -8.5824986f, -1.1534530f, -13.0060415f, -3.1941931f, -0.1158977f, -0.0959347f, -0.9860861f, 2.7263989f, -0.3701055f, 1.0619286f, -2.4817157f, 0.5072473f, -2.5781646f, 10.4260893f, 0.0592286f, 16.5736561f, 1.3137078f, 2.5941112f, -0.0549512f, 1.2169591f, -36.9278526f, -3.6977391f, 0.1983779f, -0.4639599f, -0.0469888f, 0.4456474f, -0.8005776f, 3.0788975f, 0.9647246f, 2.6119170f, 0.6581578f, -0.6439236f, -0.0113493f, -0.0974482f, 0.0519289f, -0.6530748f, -0.1468617f, 0.0153658f, -0.0479423f, 10.8637381f, -2.4801018f, 17.5583458f, 0.3040908f, -6.1043544f, -0.1041046f, -0.1039624f, 1.2951533f, -7.8176284f, -0.1307471f, 1.4456253f, -1.7124970f, -0.1558356f, 0.0541342f, -3.0878103f, -2.6441717f, 0.5329745f },
{ -2.9566007f, -35.7835579f, -0.1829546f, 1.6350433f, 3.6605790f, 0.6981537f, 0.0027026f, 6.3472619f, 9.7400837f, -0.6912982f, 2.8154609f, 1.2113523f, -0.1322447f, -0.1177215f, -0.4623896f, -4.6212378f, 2.1334562f, -1.2937644f, -25.9333038f, -8.3351345f, 3.5152845f, 8.4820843f, 0.0347593f, 26.0493431f, 0.7989192f, -2.8959243f, 0.0587257f, 0.3029166f, -9.3137426f, 1.7895026f, 0.3437636f, 1.4039075f, -0.0492771f, 5.6295385f, -3.2915003f, 1.9527835f, 3.8051927f, 3.9188380f, 8.9346094f, 10.3227396f, -0.0045202f, 0.0064855f, 0.0312028f, -4.2107325f, -0.0853765f, -0.1143773f, -0.0675001f, 13.5973005f, 1.7347784f, 24.8196659f, 3.8529141f, -22.3856182f, -0.0791618f, -0.1034855f, 0.6090177f, 5.0912933f, 2.5414438f, 2.1440361f, 5.5918460f, -0.0203969f, -0.1006125f, 5.2871184f, -3.7350187f, 0.6052305f },
{ -0.0653942f, -0.5737714f, -0.0905365f, 4.0658655f, 8.8104076f, -0.2266609f, 0.0030505f, 1.3006572f, 7.1996465f, -0.7996964f, -1.1158081f, -0.4961762f, -0.1565662f, -0.0805155f, 0.7540322f, -1.0022823f, 0.5595405f, 8.6781740f, -0.6502654f, 5.0093207f, -1.0365353f, 14.0197458f, -0.1162536f, 25.6887341f, -0.4451191f, -71.1764679f, -0.0650545f, 1.9256529f, -0.3570744f, 0.0256789f, 1.1084987f, 3.2352805f, 0.0040047f, 2.9451084f, -5.5719409f, -1.2242609f, -2.1400402f, 0.6063721f, -73.0192032f, 1.2566382f, 0.0645692f, -0.0233815f, -0.0670360f, 2.9846823f, -0.2113508f, 0.0503001f, -0.0407028f, 18.5214138f, 2.3160768f, 25.1013317f, 1.0108658f, -0.6283593f, -0.0893496f, 0.0220061f, 0.9813077f, -0.2919476f, 0.5415694f, 0.3118846f, 0.1239854f, -0.0288790f, -0.1025745f, 0.5066842f, -1.5230184f, -1.2912400f },
{ -0.0458279f, -18.4696007f, -0.0297316f, -4.6805768f, 10.9644537f, -1.7824646f, 0.0606038f, -5.8660765f, 2.8998406f, 0.9930623f, -34.2195282f, -28.7508774f, -0.0971242f, -0.0366813f, -20.6432228f, -2.6983485f, -11.7725258f, 4.8801212f, -24.4967003f, 9.2145739f, 1.0049934f, 3.4280121f, -0.0915799f, 37.9415512f, -5.6456866f, -1.2081388f, 0.1073638f, -4.4540515f, -0.5087982f, -3.0804305f, -1.0217199f, -1.6629618f, -0.0152513f, -1.9269534f, 2.3980560f, -0.6614314f, 6.9048605f, 0.9054832f, 31.8423576f, -1.1479217f, 0.0652679f, -0.1360550f, 0.1174154f, -18.1163807f, 0.0237119f, -0.0446165f, 0.0686201f, 23.5203552f, -1.7256939f, 31.1228046f, -3.3813162f, -1.6783526f, -0.0825032f, -0.0311304f, -4.2254567f, 1.9129585f, 5.9910860f, -5.3483319f, -0.2116729f, 0.1026655f, -0.1027509f, -0.8493304f, -10.0563316f, -2.3565650f },
{ 0.0413254f, 1.0791098f, -0.0745415f, -0.2715629f, -2.8258362f, 0.3364590f, -0.1893415f, -0.6647654f, -1.2297685f, -0.5447616f, -0.0112137f, -0.2788576f, -0.1238342f, -0.1438424f, -0.6292976f, 0.4792789f, -0.2012181f, 0.4790637f, -0.7521784f, -0.2859010f, -0.1097216f, 0.8266132f, -0.1846716f, -1.7262136f, -1.2462256f, 0.6698586f, -0.1610980f, -0.3828507f, -1.8146683f, -1.1969999f, 0.8133543f, -0.0940677f, 0.0104582f, -1.1824288f, 0.0726163f, -0.1232821f, 0.5117857f, -0.7987779f, -2.2150598f, 0.5558584f, 0.0217492f, -0.4200661f, -0.1169752f, 0.7766538f, 0.0103300f, 0.0663060f, -0.0768927f, -3.0910935f, 0.8848796f, -6.9370909f, -0.8466846f, -0.5787076f, -0.1019503f, -0.1470172f, -0.2641252f, 0.0159541f, -3.2646103f, -0.1378213f, 0.1258745f, -0.2202725f, -0.0624990f, 0.3109821f, 0.3033214f, -0.3273419f },
{ -0.2675980f, 1.3524891f, -0.1498970f, 0.3774170f, -2.4413617f, -0.7869782f, -0.0649884f, -5.4062448f, 4.9518361f, 0.8492879f, 1.7277433f, 0.6036571f, 0.0575324f, -0.2049343f, 1.4861678f, -2.3870173f, -0.4117084f, -0.3531739f, 1.2246801f, 7.3624687f, -2.8551688f, 1.2967921f, -0.0697132f, 12.1393785f, -2.4925568f, -2.7429771f, 0.0245709f, -0.3604658f, -39.9431381f, -33.6912766f, -0.4294018f, -2.8034277f, -0.0592043f, 2.1245463f, -3.8090565f, 5.7058773f, -0.5119293f, -3.0660982f, 4.9818454f, -5.1659970f, -0.0621784f, -0.1535562f, -0.0893115f, 0.5066952f, 0.1313274f, -0.2728534f, -0.1532760f, 6.2713556f, 0.0597566f, 12.8957577f, 5.6006970f, 1.0073256f, -0.1114302f, -0.1099901f, -1.2177668f, -3.2603304f, 2.4319041f, 0.3308491f, 3.1022911f, -0.0092397f, -0.0079490f, -2.9420729f, -3.3473589f, -1.0167689f },
{ 0.5969775f, -0.9867000f, -0.0095175f, -2.5474133f, 7.7716122f, 7.3802881f, -0.0703957f, -0.0178214f, 1.2293208f, -0.3255523f, -5.4209952f, -2.7084367f, -0.1026123f, -0.2063667f, 0.4383751f, -3.5943830f, -7.0181899f, -0.8089594f, 0.0413305f, 1.0783684f, -2.6495712f, 0.1556949f, -0.0704875f, 11.1479273f, -1.8866602f, 0.1440094f, -0.1210327f, -1.4399506f, -2.2510245f, 1.0998517f, -0.4207937f, -0.9930241f, -0.0206898f, -1.7437879f, 2.7187414f, -1.1403022f, -0.4198836f, 0.4129136f, 5.8399835f, -0.1358278f, -0.1816062f, 0.0074152f, -0.0405695f, -2.2994764f, -0.2037917f, -0.2136535f, -0.0286673f, 10.8654966f, -0.6617526f, 14.0728426f, -0.0149548f, -0.7074272f, -0.0765861f, -0.0860186f, -2.6298914f, -2.1682365f, 0.7903177f, 0.6671404f, -1.7024214f, -0.0263964f, -0.0357317f, 0.6533328f, 3.3518770f, 0.3430733f },
{ -0.7768794f, -3.6912711f, -0.0623670f, 1.0356144f, 7.5257130f, -8.7224064f, 0.0440950f, -0.0215480f, -0.3336654f, -0.3523594f, 0.3290591f, 0.2004498f, 0.0453037f, 0.1133426f, 0.2795552f, 0.6218989f, -1.7491498f, 2.0423400f, -1.3623731f, 8.3253860f, 3.4258704f, 3.8906949f, 0.0401046f, 16.3139381f, -1.2073456f, -1.5082133f, 0.0407361f, 0.2133672f, 0.2888889f, 2.2500436f, -0.3138954f, 0.7010755f, -0.0748080f, -0.5765632f, -0.3209420f, -0.6101234f, 0.7651753f, -0.2399540f, 6.8428111f, 0.2518553f, 0.1066551f, -0.0363285f, 0.0422693f, -0.0945699f, -0.0553450f, 0.0494253f, 0.0127323f, 14.9421272f, 3.4601603f, 18.6073494f, 0.8484898f, -10.0859594f, -0.0912759f, 0.1118663f, -0.5746041f, 0.0752477f, 1.5113199f, 4.2067046f, 0.4204769f, 0.0178932f, -0.1042243f, -2.1310143f, -0.1806152f, 1.9805787f },
{ -0.0398346f, 0.0595371f, -0.0577933f, -0.0375764f, 0.1478039f, 0.0679049f, -0.0765557f, -0.0504907f, 0.0001635f, -0.0372525f, -0.0527913f, -0.0461223f, -0.0540397f, 0.0895663f, 0.0369680f, 0.0886631f, 0.0469409f, -0.0144556f, -0.0632562f, 0.1202636f, -0.0210379f, -0.0196406f, 0.0326659f, 0.1036310f, 0.0697942f, -0.0424303f, 0.0284622f, -0.0388132f, -0.1215920f, -0.0447858f, -0.1024094f, -0.0871738f, -0.1039929f, -0.0859667f, 0.0653001f, 0.0834717f, -0.1000309f, 0.0988427f, 0.0870867f, 0.0505340f, 0.1024894f, -0.0828332f, 0.1152111f, 0.0446014f, 0.0654705f, 0.1218481f, 0.0348785f, 0.1185041f, 0.0615633f, 0.0185289f, 0.0402122f, 0.0536805f, 0.0907922f, -0.0007435f, 0.0263600f, -0.0286814f, -0.0928371f, -0.0163669f, 0.0145079f, 0.1063576f, -0.0929429f, 0.1418840f, 0.0184765f, 0.0819634f },
{ -0.0447459f, -12.4260044f, -0.1293222f, -0.8357291f, 9.8235941f, -0.2718781f, -0.0816863f, 0.0857967f, 3.7690609f, -3.7401204f, 0.8132389f, -0.8338968f, -0.0573944f, -0.0040982f, -1.2156370f, -12.4735212f, -1.3930683f, -0.0212656f, 1.6945330f, 1.1772808f, -1.1508640f, 2.5338995f, -0.1190365f, 23.3374329f, -5.7013903f, 2.1873891f, -0.0367818f, -7.3337402f, -5.1757169f, -4.6014385f, 0.4276522f, -36.5986328f, -0.1900693f, -4.2986979f, -16.7199497f, -0.7366053f, 2.5140767f, -19.6292152f, 10.7364941f, -0.5650315f, -0.1441080f, -0.1111459f, -0.0492325f, -0.3303861f, -0.1219273f, 0.0695449f, 0.0717762f, 18.4924564f, -3.0177636f, 20.2852173f, 0.4942367f, 0.3659890f, -0.1615792f, -0.1245356f, 0.2807674f, 1.0849656f, 1.8933455f, 0.0776852f, 2.3026433f, -0.0930574f, -0.0617188f, 0.5786580f, 1.2304488f, 0.3581026f },
{ 1.0485393f, -0.5640209f, -0.0132749f, 1.0599594f, 5.7352061f, 0.1436504f, -0.1270984f, 5.0698428f, 0.0323868f, 1.2789149f, -2.2789700f, -0.5471379f, -0.1446219f, -0.1624878f, -0.0123098f, 2.4018600f, 0.4730392f, -0.5708879f, -5.7262621f, -4.5699615f, 1.9157412f, -0.9560778f, -0.1446972f, 2.3761272f, 4.4340887f, -2.1735604f, -0.1024012f, 1.2904819f, -12.7361975f, -1.9451783f, 0.2656600f, 2.6994932f, -0.0226561f, 1.7757704f, 3.5605409f, -3.2653196f, -0.6552786f, 4.7627301f, 2.1235178f, 3.5576153f, -0.0763865f, -0.0155948f, -0.0677224f, -1.1537368f, -0.1661146f, -0.1419974f, -0.1067228f, 6.0834908f, 1.2687107f, 4.7719197f, -3.8155181f, 0.0457523f, -0.1335564f, -0.0958740f, 0.6955287f, 3.0640695f, 1.8630959f, -2.1846993f, -3.7263176f, -0.0541199f, -0.0160442f, 2.6394703f, 1.4832096f, -1.0678399f },
{ -0.0319398f, 0.1187360f, 0.0731514f, -0.0486955f, -0.0585146f, 0.0312018f, 0.0279130f, 0.1046734f, -0.0011490f, -0.0150972f, 0.1010358f, 0.1155903f, -0.0011926f, -0.1010740f, 0.1249272f, -0.0015022f, -0.0071684f, -0.0358392f, 0.0173761f, 0.0698141f, 0.0105820f, -0.0177733f, -0.0151870f, 0.1003138f, 0.0618553f, -0.0148282f, -0.0680693f, 0.0975145f, -0.0491120f, -0.0593802f, 0.0729704f, 0.0959148f, -0.0458830f, -0.1329960f, -0.0960630f, 0.1038467f, -0.1190842f, -0.0541713f, -0.0445105f, 0.0946068f, 0.0482064f, 0.0902922f, 0.0356044f, 0.1153268f, -0.0159467f, -0.0108301f, -0.0398085f, -0.0628392f, 0.0436822f, 0.0688310f, -0.0488459f, -0.0621916f, -0.0334704f, -0.0202129f, 0.0854581f, 0.0218429f, 0.0739275f, 0.0355296f, -0.0739937f, 0.1051552f, 0.0758994f, -0.0765614f, 0.0122530f, 0.0954632f },
{ -0.0048335f, -0.0440624f, 0.0090012f, 0.1458783f, -0.0197493f, 0.1759180f, -0.0523850f, -0.0325149f, 0.0091109f, 0.0952590f, 0.0401580f, -0.0748012f, -0.1210129f, -0.0326017f, 0.0153722f, -0.0638991f, -0.0614282f, 0.0430132f, -0.0923847f, -0.0595376f, 0.0726169f, 0.0947475f, 0.0387544f, 0.0297056f, -0.1293310f, 0.0032071f, 0.0346011f, -0.1720994f, 0.0346211f, 0.0201891f, 0.0603528f, -0.1308007f, -0.0120107f, 0.0102321f, 0.0052647f, 0.0809482f, 0.0613776f, 0.1080628f, 0.0391643f, 0.0494481f, 0.0282215f, -0.0456023f, 0.0335875f, 0.0260362f, 0.0488118f, 0.0698301f, -0.1163462f, 0.0966053f, -0.1172971f, 0.0642815f, 0.0488354f, 0.0341933f, -0.0729790f, 0.1000602f, -0.1499947f, 0.1240283f, 0.0516906f, -0.1494391f, -0.0363293f, 0.0205465f, 0.1043254f, -0.0413902f, 0.0227337f, 0.0132824f },
{ -0.8309330f, -2.0758147f, 0.0461993f, -2.4436615f, 12.8806992f, -0.3217787f, 0.0696024f, 1.5175918f, -5.1737175f, 4.1499448f, 0.3526243f, -0.7748585f, 0.0612487f, 0.0082419f, -1.5382588f, 1.0321293f, -3.4789069f, -1.1410967f, -4.9764719f, -10.3329363f, -8.8623352f, -0.4185039f, -0.1466470f, 15.8047476f, 2.7050793f, -4.8022966f, 0.0377912f, 0.6636031f, -66.9134827f, -2.1605580f, 0.1068895f, -13.4387188f, -0.0703927f, -0.5070634f, 0.4632641f, -0.8867486f, -3.7304518f, -1.6119977f, 15.0774460f, 1.1883641f, 0.0141419f, 0.0581782f, -0.1061163f, 0.2543717f, -0.0392439f, 0.1047011f, -0.0278487f, 16.4044952f, -1.2784580f, 22.3542938f, -2.9123185f, -0.7164639f, 0.0640616f, -0.0244731f, -0.6617666f, -0.4432717f, 1.7111613f, -2.2908664f, 0.3927608f, -0.2510383f, -0.1852849f, 0.5070772f, 4.7030373f, 0.9463581f },
{ -1.5069391f, -3.3924053f, -0.1686610f, 0.7506701f, 9.6650562f, 2.2336857f, -0.0799191f, -5.4425726f, 4.3468218f, 2.9596665f, -4.4920211f, -5.6909304f, -0.0030786f, -0.1578604f, 2.9202232f, 1.2561667f, 1.8034891f, 0.6887858f, -5.6532025f, -3.8566611f, -22.0415497f, -3.2293744f, -0.0004513f, 14.5702581f, -10.3052979f, -5.7390656f, 0.0044491f, -12.3969498f, -6.3421540f, -2.4532564f, 1.5412246f, -0.0906388f, -0.1392387f, -3.8196361f, -4.8053432f, 5.4898257f, 4.1999121f, -1.9986286f, 7.4932938f, -1.9562993f, 0.0843615f, 0.0636529f, -0.0250248f, -0.1212098f, -0.2485411f, -0.1224238f, -0.0948905f, 16.6790962f, -2.8624237f, 24.1858921f, 1.0753239f, 1.0032243f, -0.1013335f, -0.1038975f, -5.7678008f, -0.8090867f, 2.0411704f, -0.4974746f, -9.2124691f, 0.0275481f, -0.0028382f, -1.7991056f, 0.0473343f, 1.1552519f },
{ 0.6869245f, 0.8788902f, 0.0495518f, -0.0428387f, 3.9958718f, -0.5118390f, -0.0031255f, -0.0503969f, 7.5984273f, -1.2646232f, -1.6159691f, 1.0871856f, -0.0503844f, -0.0797354f, 0.2219235f, -1.8942298f, 2.1527412f, -0.1368279f, 1.2793802f, 1.5093298f, 0.3945263f, -0.5219781f, -0.0468217f, 1.9456949f, -0.4706306f, 1.8981767f, -0.0180298f, -1.7482765f, -1.5286566f, -0.2890546f, 0.4953860f, -2.6222394f, -0.1162497f, 1.7467846f, -0.8343552f, 0.2700599f, 1.7135262f, -2.1882820f, 1.7220519f, -0.1711432f, -0.0841475f, -0.1954184f, 0.0297657f, 1.1447805f, -0.1663003f, -0.1377782f, 0.0026739f, 6.0625935f, -2.2485611f, 9.7560062f, -0.1802311f, 0.4963514f, -0.1304920f, -0.0657151f, -1.0417092f, -1.5836765f, 1.7288102f, 2.0107520f, 1.2708608f, -0.2142531f, -0.0700412f, -0.3916705f, 1.1289968f, 0.2560810f },
{ -0.1100916f, -0.1802678f, -0.2306210f, 0.0556135f, -6.3433356f, -0.2608097f, -0.1863970f, 0.1633522f, -1.0211635f, -0.3334691f, 1.4604360f, -1.0273237f, -0.0861820f, -0.1599592f, -0.6500237f, -1.7594028f, 0.1540918f, 0.0771365f, 1.0814995f, -0.2251932f, -1.3925409f, -5.8928909f, -0.1583572f, -3.7148774f, -1.1972389f, -0.1455188f, -0.0495727f, -0.0942530f, 0.7186380f, -1.6780207f, -0.0929083f, -2.4794588f, -0.0036206f, 0.5652975f, 0.0239331f, 0.0452296f, -0.0660249f, -2.0123320f, 0.4974761f, 0.0911621f, -0.0770290f, -0.2303175f, -0.0250387f, -0.0088363f, -0.2602005f, -0.1376355f, -0.1199273f, -1.5260689f, -0.7635915f, -1.7777418f, -0.0553212f, 0.1417160f, -0.0771667f, -0.0884889f, -0.0430605f, -0.7407080f, 0.5147394f, -0.0929282f, 1.2694929f, -0.0967155f, -0.0676258f, -0.1140214f, 0.7748146f, 0.2064414f },
{ 0.7234581f, -0.0073519f, -0.2040486f, -0.8109854f, -2.1990614f, -1.1743283f, -0.0345552f, -0.1479234f, -1.2549161f, -6.7883010f, -2.0718851f, -0.2423129f, -0.1250247f, -0.0832870f, 1.9917659f, -0.2598574f, -0.2043877f, 0.3593037f, 0.5236368f, 0.9181176f, -3.1486635f, -0.8847120f, -0.2307034f, 0.7699842f, -5.4790182f, 0.8844883f, -0.1559278f, -2.0737648f, -7.5901952f, -0.5624967f, 0.2700279f, -0.8972951f, -0.0429731f, 0.3634952f, 0.6798720f, -0.3740943f, 0.9108023f, 0.9431005f, 1.9586103f, -0.3506451f, -0.1655744f, -0.0497160f, 0.0009530f, -1.5690383f, -0.2063305f, -0.0961738f, -0.1671855f, 1.9915451f, 0.4024206f, 3.7239573f, 0.1418608f, -0.0836376f, -0.0454232f, -0.1657882f, -2.3368993f, 0.1698401f, 1.1441668f, -0.7135014f, -2.4639349f, -0.0362825f, -0.2144862f, 0.2096579f, 1.8370495f, -0.3084703f },
{ -8.4483719f, -5.4417758f, -0.0617247f, 1.5484524f, 21.0447521f, -0.7219433f, -0.0977550f, -3.9189005f, 5.1507964f, 0.0405820f, -7.1221609f, -16.9928970f, 0.0074425f, -0.0678392f, -2.4350150f, 0.2282962f, -1.9130723f, -1.0594680f, -32.0142937f, 5.8871841f, -2.4053512f, 12.2378206f, 0.1064146f, 32.5716896f, -29.1459541f, 0.7432700f, -0.0025916f, 0.0846354f, -32.2684402f, -21.5943241f, -0.4557335f, -41.3499565f, 0.1008991f, 1.2858131f, -27.4780426f, -7.2769737f, -1.4486291f, 0.3222047f, -27.8735695f, -3.0439684f, -0.1124070f, 0.0021411f, 0.0356630f, -9.2671890f, -0.1299910f, 0.0228239f, 0.1208929f, 19.8853340f, -2.9131899f, 30.8473091f, 4.4679017f, -2.4927444f, 0.0358831f, 0.0498278f, -1.9776978f, 1.3849596f, 8.2764978f, -5.6534433f, -0.8669204f, 0.1779410f, 0.1446826f, -4.6571393f, 2.0600853f, 0.6276972f },
{ 0.1091335f, -0.0230063f, 0.0409372f, 0.0527528f, -0.0996263f, -0.2742949f, -0.0064473f, 0.0075035f, -0.1148560f, 0.1345321f, 0.1499395f, 0.0061413f, -0.0885039f, -0.1073623f, -0.0667113f, -0.1478933f, 0.2854647f, 0.2928104f, -0.1008283f, -0.0581387f, -0.1919408f, 0.0389983f, 0.0152366f, 0.0712442f, 0.2121330f, 0.0550461f, 0.0012013f, 0.0823294f, 0.0463902f, 0.0658133f, 0.0262162f, -0.1561385f, 0.0324953f, -0.0442792f, -0.3344390f, -0.0714865f, 0.0341535f, -0.0709576f, -0.0171579f, 0.1174477f, 0.0794108f, 0.0562775f, 0.0921601f, 0.0644655f, -0.0866976f, 0.0196946f, -0.0332461f, -0.0770195f, -0.3333267f, -0.0941324f, -0.0046095f, -0.0784922f, -0.1143012f, -0.1147642f, 0.1405534f, -0.0196746f, 0.0250312f, -0.0288929f, -0.1690751f, 0.0933826f, -0.0203499f, 0.0295732f, -0.0592301f, 0.0406089f },
{ 0.1274271f, -0.7507529f, -0.0140986f, -15.4097300f, 3.2429750f, 0.7309174f, -0.1654704f, 0.1381345f, 2.2464528f, 0.9934094f, 0.3605931f, 1.2016301f, -0.1465880f, -0.1180823f, -0.2706470f, 0.1974786f, -0.9929476f, 0.3660161f, -1.8309535f, 0.5475683f, 1.4020566f, 0.7616157f, -0.0053061f, 5.9965944f, 0.2312744f, 0.0825763f, -0.0611290f, -6.8683815f, 0.0564085f, -0.1779560f, -1.9048021f, 0.7392830f, -0.0540564f, -0.2104393f, -2.1649640f, -0.2845287f, -0.3721993f, -0.1550998f, 3.9990606f, 0.0685726f, -0.0425268f, -0.0622056f, -0.0540369f, 0.7914947f, -0.1449383f, -0.1371232f, -0.0895721f, 1.5601673f, 0.6859352f, 7.2178607f, 0.0979330f, -0.1463948f, -0.1607687f, -0.0894209f, 0.7983294f, -1.1898233f, -10.5641813f, 1.5877872f, 0.7087309f, -0.1610361f, -0.0884336f, 0.3205880f, -0.2739041f, -0.3970352f },
{ -13.4910307f, -3.6066720f, -0.1145485f, 1.8691940f, 9.6344891f, 0.3622069f, -0.0645457f, 1.4956038f, 7.0281916f, -3.8679924f, 0.1585395f, -1.3831031f, -0.1012822f, -0.1540042f, 0.6309193f, 1.1093193f, -2.8117692f, -6.2320700f, -3.7657819f, 1.4917246f, 1.6789447f, 12.2041073f, -0.0134131f, 32.7295036f, -0.3137723f, 6.3950276f, 0.0563725f, 0.6731468f, -1.2650856f, -0.8047394f, 7.3143659f, -0.9769486f, -0.1829535f, 5.3943505f, -1.4514666f, 1.4000379f, -3.7322822f, 0.1551840f, 10.0444841f, 3.1782279f, -0.1653330f, 0.0139390f, -0.1201935f, -5.6337471f, -0.2016829f, -0.0970452f, -0.1098138f, 27.5406628f, -6.8249512f, 34.5665512f, -0.0469919f, 0.3032391f, 0.0258769f, -0.1761110f, 0.5334507f, 0.8718273f, 1.6342093f, -10.5886927f, 0.9320158f, -0.1123898f, -0.1392757f, -1.6377494f, -2.7010868f, 5.5671778f },
{ 0.0838967f, -0.0513993f, -0.0025429f, -0.0266445f, -0.0312814f, 0.0337712f, -0.1134119f, -0.0707567f, -0.0554956f, -0.0705007f, 0.0957750f, 0.0810917f, 0.0497774f, -0.0940578f, 0.0074167f, -0.0090246f, 0.0582938f, -0.0810297f, -0.0667567f, -0.0096007f, 0.1029412f, 0.0854570f, 0.1170463f, 0.0245050f, 0.0079587f, 0.0822991f, -0.0594598f, 0.0912663f, 0.0269115f, -0.0293945f, 0.0925239f, 0.1336027f, -0.0667378f, 0.1397258f, -0.0295105f, -0.0944532f, 0.0106077f, 0.0377732f, 0.0614275f, -0.0756052f, 0.1007403f, 0.0861058f, -0.1245349f, -0.0216310f, 0.0908440f, 0.0819580f, -0.1002524f, -0.0997031f, -0.0945541f, -0.0444749f, 0.0000992f, 0.0879817f, 0.0469050f, 0.1247214f, 0.0816973f, -0.0372740f, 0.1049551f, 0.1121005f, 0.0135684f, -0.0448478f, -0.0070782f, -0.0637703f, -0.0255731f, 0.0483751f },
{ 0.1336899f, -0.0201794f, -0.1047125f, -0.1032957f, 0.0115071f, -0.1692876f, 0.0663210f, -0.1160839f, 0.0369539f, 0.0985241f, 0.1222128f, 0.1560639f, 0.0843641f, -0.1100578f, -0.0833395f, 0.0946147f, 0.1106956f, -0.0856920f, 0.0977922f, 0.1090323f, -0.0837563f, -0.1136334f, -0.1224630f, 0.0413183f, 0.0365074f, 0.0152404f, 0.1063009f, -0.0016942f, -0.0792432f, 0.1580928f, -0.1086409f, 0.0433549f, 0.0975892f, 0.0727361f, 0.0274550f, 0.0286240f, -0.0198074f, 0.0605763f, 0.1244449f, 0.0197720f, -0.0052344f, -0.0793843f, -0.1003475f, 0.0678706f, -0.1193593f, 0.1030883f, 0.0421002f, 0.0096340f, 0.0057124f, -0.0085122f, -0.1075203f, 0.0443171f, 0.0449311f, 0.0323408f, 0.0745963f, 0.0096224f, 0.0345213f, -0.0259004f, 0.1539335f, 0.0093143f, -0.0525207f, -0.0210065f, 0.0698389f, 0.0533578f },
{ -0.2202604f, -0.3907716f, -0.2396766f, 0.3473599f, -4.2430987f, -0.0179413f, -0.1663557f, 0.4377074f, -0.5576106f, 0.0133780f, -0.0213806f, -0.1512584f, -0.1057859f, -0.0256397f, -0.0518532f, -0.2980126f, -0.1585189f, 0.0826745f, -1.2101331f, -0.0675076f, 0.1082478f, 1.1813933f, -0.1064468f, -15.5266237f, 0.4143618f, 0.5022244f, -0.0620088f, 0.1842534f, -0.0753918f, 0.3657223f, -5.5808525f, 0.2256722f, -0.0939104f, 0.1689150f, -0.0992552f, -0.3352826f, 0.6568274f, 0.0159106f, -2.6043470f, -0.0074634f, -0.0493109f, -0.0623777f, -0.1263933f, -0.3790482f, -0.1780155f, -0.2873245f, -0.1139002f, -9.3431816f, -0.1289110f, -13.4717436f, -0.0942191f, -0.1402895f, -0.1517458f, -0.1111839f, 0.2071665f, -0.0407195f, -2.9356525f, -0.3213273f, -0.1100388f, -0.3005353f, -0.1330798f, 0.4061840f, 0.2287567f, -0.3203803f },
{ -0.0211378f, -0.0869228f, -0.1002802f, -0.0642764f, 0.0445808f, 0.0407103f, 0.0581544f, 0.1196254f, 0.0030053f, 0.0627641f, -0.1209106f, -0.1433958f, -0.0277651f, -0.1199546f, 0.0197289f, 0.0124400f, -0.1006914f, -0.0573615f, -0.1400931f, -0.0381181f, -0.1456641f, 0.0754029f, 0.0661372f, -0.0114254f, -0.0108169f, -0.0092320f, -0.0748723f, 0.0636343f, 0.0271188f, -0.0894970f, 0.1953366f, -0.0445936f, 0.1166512f, 0.0240653f, -0.1423979f, -0.2604078f, 0.0297239f, 0.1636111f, -0.0809987f, 0.2304827f, -0.1236867f, 0.1036082f, -0.0978771f, 0.0893350f, -0.0849528f, 0.1055951f, 0.1191461f, 0.0171559f, 0.0367948f, -0.0436201f, 0.0054504f, -0.0405507f, -0.0771819f, -0.0990282f, -0.0640284f, -0.1145407f, 0.0787709f, 0.0239075f, 0.0880253f, 0.0553336f, -0.1282172f, 0.0527664f, -0.0184408f, 0.1918242f },
{ -0.0698176f, -0.2549869f, -0.0728091f, -0.0861143f, 0.1721440f, 0.1293944f, -0.1202160f, -0.0387577f, 0.1262541f, 0.1660857f, 0.1788389f, -0.1618178f, 0.0747411f, 0.1234261f, -0.2829712f, -0.1513673f, -0.1119432f, 0.1119719f, 0.0193182f, 0.1562467f, -0.1106077f, -0.1220056f, -0.1030611f, -0.0886356f, 0.2087913f, -0.0683792f, -0.0303160f, -0.0379488f, 0.0062212f, 0.0470964f, 0.0919879f, 0.0196054f, 0.1188169f, -0.1552331f, -0.2019386f, 0.0472712f, -0.1834492f, -0.0013210f, 0.0619156f, 0.1078677f, 0.0036379f, -0.0606909f, -0.0008973f, 0.0366773f, 0.0427600f, 0.0051879f, -0.0011802f, 0.0138075f, 0.0183475f, 0.0668762f, 0.1903434f, 0.0818336f, 0.0785033f, 0.0354613f, -0.0987867f, -0.0696489f, 0.2027209f, -0.0076463f, 0.1517882f, 0.0105563f, 0.0064527f, 0.1317295f, 0.0645797f, 0.2150569f },
{ -1.3946030f, -20.4210625f, -0.0939401f, -0.0269462f, 0.6648334f, 0.4031599f, -0.0223876f, 1.8179770f, -0.1817055f, -2.3209851f, 0.5993466f, -1.3249187f, -0.1256939f, -0.0962534f, -0.4778816f, 0.1413488f, -0.0225640f, 0.1564697f, 0.4159937f, -1.3802545f, -7.0166707f, 5.4909072f, -0.0262898f, 17.3390369f, 1.0811075f, -3.1610432f, -0.0595985f, -1.5908710f, -0.2096289f, 0.3609351f, 0.7047837f, 3.6687522f, 0.0295394f, 0.5381674f, -7.8051281f, 1.8862926f, -1.0574914f, -0.1562284f, 6.0055399f, 1.1785537f, 0.0489784f, -0.1381430f, -0.1242783f, -0.3431505f, -0.0814080f, 0.1203439f, -0.1365250f, 15.6599035f, 2.4528153f, 8.4218845f, 1.1300231f, 6.3036242f, -0.0984483f, -0.1000976f, 3.3354657f, -1.5570029f, 0.1461401f, 2.2420692f, 0.2848286f, -0.1351166f, -0.1590559f, 0.0195343f, -2.0148749f, 0.1334904f },
{ 1.2696671f, -1.7494001f, -0.0254388f, -9.0951767f, 12.7029572f, 1.5273898f, -0.2367768f, 0.9806722f, 4.1969800f, -3.2440898f, -1.8740968f, -1.7169018f, -0.1870038f, -0.0348819f, -0.1509809f, 2.1173801f, -3.3341932f, 2.8402753f, 1.2423058f, -1.0846841f, 3.3613181f, 11.8764210f, -0.0185286f, 20.2911739f, -0.5244341f, 2.1793146f, -0.0267933f, -5.3269901f, -3.5126655f, -0.3808013f, -2.9552355f, -0.9991355f, -0.0344145f, 4.2142167f, -5.1525970f, 1.7060096f, -2.8464367f, 0.0085101f, 16.1300259f, 3.5767624f, -0.1375692f, 0.0165149f, -0.1029559f, 0.8092970f, -0.0885151f, 0.1306034f, -0.2469835f, 17.2722015f, -6.0231686f, 20.5515366f, 1.3862417f, 0.1908923f, -0.1633820f, -0.0414055f, -1.0947053f, -1.9764433f, 1.2977284f, 0.6366693f, -0.3114463f, -0.2125509f, -0.0107674f, 4.4676213f, -2.3064687f, 3.8954568f },
{ 0.3111469f, -2.9366155f, -0.1548249f, 0.7598758f, 3.6455743f, 1.2545435f, 0.0893000f, -0.4427165f, -2.0583735f, 0.6331519f, -0.4895338f, -1.1971364f, -0.0805286f, -0.1153005f, -0.8407211f, 2.9912448f, 0.1598066f, -0.1291071f, -1.9225861f, 1.1397254f, 0.2140262f, 1.1150606f, -0.0540837f, 11.0823030f, 1.2733761f, -0.3129516f, -0.0614341f, 0.4999841f, 1.1520767f, 1.2892112f, -0.0629406f, 0.6738994f, -0.0038287f, 0.4329262f, -0.3867064f, 1.2648236f, 0.5861752f, 0.2501070f, 6.6269126f, -0.4891985f, -0.1554102f, -0.0485227f, -0.1114533f, 0.2201087f, -0.2769916f, -0.0611957f, 0.0256676f, 10.8702316f, 1.0283716f, 12.2319212f, -0.3022980f, -1.7312517f, 0.0109466f, 0.0515845f, -0.4478314f, 0.3665480f, 0.0180521f, -0.8613757f, -1.0807388f, -0.0400050f, -0.1207290f, -0.1001593f, 0.8158876f, -0.5790038f },
{ -0.0892234f, -0.0045889f, 0.0417726f, 0.1092731f, 0.0219754f, -0.0243465f, 0.0092039f, 0.1577092f, 0.0025460f, -0.0538014f, -0.0392365f, -0.0597885f, -0.0916965f, 0.0015611f, -0.0049445f, -0.1416527f, -0.1206026f, -0.0637999f, -0.1028744f, 0.0241054f, -0.0602441f, 0.1004041f, -0.0779599f, -0.1193896f, 0.0427786f, -0.1085680f, 0.0285687f, -0.1055262f, -0.0416940f, -0.0850355f, 0.0391167f, 0.0025694f, -0.0572434f, 0.0431828f, -0.0457651f, -0.0123582f, 0.0498082f, 0.1313962f, -0.1007418f, -0.0650820f, -0.0440852f, -0.0583625f, -0.0194156f, -0.0185415f, 0.0655929f, 0.1125999f, 0.0049146f, 0.0990788f, -0.1346036f, -0.0258226f, 0.0657068f, -0.0298512f, -0.0255417f, 0.0168769f, 0.0193779f, -0.0146594f, 0.0945907f, -0.1327784f, 0.0966771f, -0.0122880f, -0.0171961f, 0.0016583f, -0.1411855f, -0.0237896f },
{ 0.2876138f, 0.1095062f, 0.0917188f, 0.0459795f, -0.1177070f, -0.0369416f, 0.1176396f, -0.0085207f, -0.1040919f, 0.2525021f, -0.0184971f, 0.0044981f, 0.1034855f, -0.0560491f, 0.0740737f, -0.1272493f, 0.0130614f, 0.0412825f, 0.1136678f, -0.0935298f, 0.0317620f, 0.0267402f, 0.0372900f, 0.0199741f, -0.0602957f, 0.1689017f, -0.1229365f, -0.0466279f, 0.1246695f, -0.1627054f, 0.0680777f, -0.1622518f, 0.0645056f, -0.1692192f, 0.0954768f, -0.1014104f, -0.0712931f, -0.0026910f, 0.0170837f, -0.0394984f, -0.0143766f, 0.0804423f, -0.0027881f, -0.0606627f, -0.0398961f, 0.0628955f, -0.0248798f, -0.0878954f, 0.0403917f, 0.1195615f, -0.0480497f, -0.0606164f, -0.0465921f, -0.0063468f, 0.0495355f, -0.0816775f, -0.0010532f, -0.1182664f, 0.0638713f, -0.0412952f, 0.0832134f, -0.1173079f, -0.1327928f, 0.0828087f },
