#ifndef RecoTracker_LSTCore_src_alpaka_NeuralNetworkWeights_h
#define RecoTracker_LSTCore_src_alpaka_NeuralNetworkWeights_h

#include <alpaka/alpaka.hpp>

namespace lst::t5dnn {
  ALPAKA_STATIC_ACC_MEM_GLOBAL const float bias_layer1[32] = {
      0.4670540f,  2.0943611f,  -0.1524337f, 2.0635159f,  0.0040177f,  -0.0821457f, 0.0736396f,  5.2032447f,
      0.0361609f,  0.1727931f,  -1.7405432f, 0.3305918f,  0.0778312f,  2.1739702f,  0.2935444f,  0.7136542f,
      1.8132486f,  -0.0738565f, -1.9930780f, 0.0341746f,  0.7133607f,  0.1223772f,  2.6880448f,  -0.2306636f,
      -2.4186764f, 2.4530363f,  0.0683014f,  -1.1782986f, -0.3831011f, 0.0461447f,  -1.3260516f, -0.1061450f};

  ALPAKA_STATIC_ACC_MEM_GLOBAL const float wgtT_layer1[23][32] = {
      {-0.1686163f, -0.5560054f, -1.0804908f, 3.1910965f,  -0.4027714f, -0.1838518f, -0.9310515f, 0.1689579f,
       -0.2491365f, 0.1303063f,  3.6639256f,  0.9541333f,  0.0648588f,  2.9912217f,  0.4319862f,  -0.0755429f,
       0.2163214f,  -0.1414032f, 3.1782019f,  -0.2590139f, 3.5281944f,  1.0792181f,  1.7679592f,  0.1262088f,
       0.2884231f,  3.3543477f,  0.3155387f,  1.5153238f,  -0.1788272f, 0.1961868f,  -1.0027627f, -0.1625007f},
      {-0.0302904f, 0.0186884f,  0.0143479f,  -0.0183586f, 0.0471184f,  0.0376305f,  -0.0069350f, 0.0855355f,
       -0.1328237f, 0.1370102f,  -0.0493319f, -0.0287174f, 0.1445346f,  -0.0152120f, -0.0095295f, 0.0090739f,
       -0.0305665f, -0.0270027f, 0.0133824f,  -0.0031240f, -0.0615843f, -0.0214955f, 0.0266256f,  -0.2193122f,
       -0.0310534f, 0.0392751f,  -0.0120351f, 0.0290851f,  -0.0145668f, 0.1333171f,  -0.0367095f, 0.0148613f},
      {0.8398250f,  -0.7575583f, -1.2791469f, -10.9777012f, 0.4328743f,   -0.0292733f, -1.9411354f, 0.9797856f,
       -0.1342395f, 0.0923579f,  -5.6424694f, -3.8149228f,  -0.1359982f,  -8.1241360f, -1.0094123f, -1.2573826f,
       -0.1734402f, 0.3333056f,  -2.3935821f, 0.3718006f,   -12.9953241f, -0.8686024f, 0.8238441f,  -0.0790308f,
       1.7178251f,  -3.4227715f, 0.0204334f,  -2.4033735f,  0.7086460f,   -0.0245940f, 3.6837363f,  -0.0852508f},
      {-1.4671191f, -2.2764447f, 1.8211457f, 2.6048834f,  -0.4039486f, 0.0271953f,  2.4714541f,  0.3438816f,
       -0.2794271f, 0.0441080f,  5.9800673f, 0.7320828f,  -0.1687431f, -0.5273188f, 0.2093041f,  -0.3234767f,
       2.2246118f,  -0.2015506f, 5.8717318f, -0.5097495f, 4.4195728f,  0.3017885f,  -7.3738275f, 0.0753275f,
       2.1720245f,  -1.0211086f, 0.0138437f, 2.7861779f,  -0.4496056f, -0.1674225f, 3.1449907f,  -0.0863171f},
      {0.1227106f,  10.4388428f, -15.3783836f, 5.4087281f,  -0.1317350f, 0.1076948f,  -3.3041203f, 0.5846584f,
       -0.1518954f, 0.0292365f,  -1.9363207f,  -0.1519118f, -0.1139125f, 3.8225062f,  -0.0467019f, 0.0375514f,
       -4.7859521f, -0.2083159f, -3.1292779f,  0.3652984f,  -5.1068778f, 0.2643215f,  6.0325341f,  0.0646798f,
       3.8064089f,  12.3871441f, 0.1845634f,   2.5826144f,  0.0100367f,  -0.0963510f, 11.8697042f, -0.1859250f},
      {1.5746940f,  1.9493165f,  -0.6033224f, -1.9564914f, 15.8433475f,  0.1937770f,  1.9005288f,   10.0872755f,
       -0.0266167f, 0.1681079f,  2.1732817f,  0.5012593f,  -0.0402700f,  1.9158030f,  0.3748967f,   0.7716408f,
       22.3411770f, 64.9365845f, 0.0382478f,  11.8594322f, -2.4312756f,  -0.2356551f, -0.2555455f,  -0.0872047f,
       12.6496830f, -3.1331124f, 0.1995898f,  -0.1478052f, -35.1795197f, 0.0971560f,  -16.8829460f, 0.0029905f},
      {-2.0730922f, 3.0242147f, -2.6075909f, -11.6928015f, 0.3677137f,   0.0716080f,   4.0810633f,  -1.7742167f,
       -0.0641139f, 0.1764658f, -0.5638556f, -4.3273187f,  0.1155768f,   -11.8352070f, 1.6009923f,  -1.5780714f,
       0.7945083f,  0.8783105f, -0.4656609f, 0.3711268f,   -12.0494251f, -1.7902981f,  6.8058991f,  0.0335129f,
       -0.9693519f, 7.2776260f, -0.2752380f, 0.0019008f,   0.7347715f,   0.0926460f,   -5.2115393f, 0.0272713f},
      {-1.3635069f, -5.5146179f, 1.2598660f, 3.7007155f,  -0.4362136f, -0.0613830f, -0.7089037f, 10.1869144f,
       -0.2077173f, 0.1247301f,  1.2866666f, 0.0288716f,  0.0352996f,  -0.3737367f, -0.5715420f, -0.6490709f,
       -1.0460517f, -3.0983632f, 5.5773540f, -0.0070993f, 3.1632149f,  -0.1613603f, -6.4010715f, 0.0730506f,
       -2.4934278f, -5.5885453f, 0.2764640f, 0.3053644f,  -0.1331134f, -0.1505059f, 0.4161635f,  -0.0614997f},
      {-0.6540918f, 15.4989967f, 4.3494263f,  -0.8404077f, 0.1130587f,  -0.1494967f, -6.2218943f,  1.7630339f,
       -0.0699659f, 0.0020611f,  2.6422794f,  -0.3439053f, 0.1298778f,  -1.3486559f, -0.0678792f,  -0.4429103f,
       2.1278651f,  -0.2563867f, 10.5810766f, -0.5677671f, 1.2578744f,  1.0168595f,  -17.1362953f, -0.0953091f,
       3.5623360f,  4.5202866f,  0.1674306f,  -4.6467271f, -0.7058368f, -0.1121564f, 10.1713800f,  0.1210558f},
      {1.0676118f,  0.1736997f,  0.7972590f,  -0.2038448f, -4.8911815f,  0.0520844f,  -1.5622222f, -2.1042907f,
       0.0609929f,  0.0593518f,  2.0483916f,  0.9694073f,  0.0699889f,   2.8024440f,  -0.0495330f, 0.5040515f,
       12.1099577f, 18.8189144f, -0.2686548f, 15.1878014f, -0.9620427f,  -0.5672063f, 1.9552767f,  -0.0440426f,
       9.9290504f,  -0.9562437f, 0.2776256f,  0.1016788f,  -33.7850685f, 0.0362920f,  5.1212006f,  0.0361594f},
      {-3.0961330f, -1.0917231f, 1.6190093f,  -7.7146816f, 1.2613326f,   0.1427311f,  9.0145836f,  -2.1077931f,
       -0.0715212f, -0.0851119f, 4.3082867f,  -3.1534004f, 0.1518733f,   -4.4380169f, -0.2384115f, 1.5974522f,
       1.4927381f,  0.0451276f,  3.9055943f,  0.4384878f,  -10.8444061f, -2.5889223f, -3.6539035f, -0.1173161f,
       -1.7783056f, 1.8176321f,  -0.6538757f, 1.2459722f,  0.5992976f,   -0.0798604f, -2.1585810f, -0.0474772f},
      {-0.3147961f, -2.1172752f, 0.9085410f,  2.2941663f, -0.0094998f, -0.1809548f, -2.8213842f, 6.1857939f,
       -0.2703559f, 0.1256023f,  -0.8025569f, 0.4076281f, 0.1508760f,  -0.5794138f, -0.1991337f, 0.2877223f,
       -3.4446895f, 0.0708569f,  -0.0024492f, 0.7795630f, 0.5114415f,  -0.6717959f, -1.0955812f, 0.0450043f,
       -3.2859197f, -2.6109853f, -0.0704796f, 1.5344576f, -1.2034463f, -0.0761714f, -0.2109616f, -0.1476073f},
      {0.3416931f,  -33.8413620f, 34.9843941f, -8.8762550f,  0.5330201f,  0.0781712f,   -1.2929525f, -0.9068353f,
       0.0105107f,  0.0874278f,   15.3935204f, 2.1748018f,   -0.0645677f, -10.3738832f, 0.5040718f,  -0.2568464f,
       13.7819796f, 0.2311153f,   21.5078125f, 0.1801542f,   16.1571789f, 0.3340192f,   23.8298244f, 0.0079211f,
       -6.2594872f, -20.5981846f, 0.3476309f,  -12.5456028f, -0.1029162f, -0.1194666f,  0.4685081f,  0.2049544f},
      {-0.8036147f, 0.3849071f,   0.3602966f,  0.5887465f,   13.3123055f,  -0.1436646f, 1.8642982f,  -10.8902445f,
       0.0652112f,  -0.0833395f,  1.3152955f,  0.9396700f,   0.1582798f,   2.8828125f,  -0.1804107f, 0.0613538f,
       -1.8761752f, -18.4049435f, -1.1647182f, -16.8000031f, 1.4130553f,   1.3167013f,  -1.1866205f, -0.0383621f,
       -0.9042034f, 0.8349327f,   -0.3543290f, 3.4971099f,   -23.8118935f, 0.0495619f,  6.8862610f,  -0.0859433f},
      {4.0331240f,  1.6982380f,  3.3317158f,  -6.6244326f, -1.1199871f, 0.0902138f,  5.5289807f,  -0.2483349f,
       -0.0853271f, 0.1746921f,  5.9690838f,  -0.7669665f, 0.0194475f,  1.7902547f,  -1.8323978f, -0.2836168f,
       -2.8413267f, -0.4078539f, -1.2896057f, -0.2660154f, -3.0552847f, -3.2435417f, -4.2243218f, -0.1053987f,
       -1.6148534f, -1.9780010f, -1.1300033f, 0.2149184f,  -0.9461695f, 0.0752354f,  5.8270912f,  -0.1796174f},
      {-2.2303123f, -0.0135358f, 0.4707883f,  2.6785300f, 0.7044054f,  -0.1031374f, -2.3697913f, -1.1085542f,
       -0.2982203f, 0.0433683f,  -1.1425456f, 0.4223008f, -0.0082032f, 1.8246818f,  0.2198104f,  1.8698150f,
       -1.0552474f, 1.6987847f,  -6.3605251f, 0.0672773f, -1.9426752f, 0.3004116f,  -2.8648791f, -0.1008808f,
       -3.8984489f, 3.2593179f,  -0.0036259f, 1.7786981f, -0.5090236f, 0.0408427f,  3.3403945f,  -0.0058192f},
      {0.0570488f,  -31.7628269f, 0.3442566f,   1.6033444f,  0.2584288f, 0.1110389f, 19.4664650f, -1.5129423f,
       -0.1086335f, 0.1165426f,   -24.8732796f, 0.3383332f,  0.0895539f, 2.7686827f, -0.0324821f, -0.5832738f,
       1.5438168f,  0.6922457f,   -24.9253006f, 0.0405542f,  4.2627058f, 0.5414661f, -1.6470009f, 0.0286079f,
       -5.0151629f, -23.9573841f, -0.0212003f,  19.2546349f, 0.8433711f, 0.1516585f, 1.2677711f,  0.0258872f},
      {-0.9889643f,  -2.3370452f,  -1.0514622f, 1.1258032f,   58.7944908f,  -0.0342543f, -1.1804843f, 1.7624304f,
       -0.2460742f,  0.1588773f,   -4.7362242f, -1.8599114f,  -0.1569181f,  -7.0764270f, -0.1256024f, -1.1423502f,
       -11.0460386f, -11.3296070f, 1.6282585f,  -65.3818207f, 0.8603007f,   -1.7449293f, -0.2259474f, -0.1528763f,
       -14.0610018f, 2.2315931f,   -0.0024932f, -2.7361116f,  -20.7005367f, -0.1214365f, 0.3765918f,  0.1472738f},
      {0.4957619f,  2.2401657f,  1.9483868f,  -7.5246687f, 0.5013919f,  0.0467791f,  1.3877279f, -0.8731562f,
       0.0985014f,  0.0978486f,  5.4306574f,  0.3029057f,  -0.0439142f, 1.2023258f,  0.0871009f, -0.1720655f,
       -0.2862219f, -0.3239331f, -5.5615902f, -0.2390030f, -4.8685589f, 1.1057874f,  1.7220025f, 0.1476984f,
       0.8829418f,  1.5147046f,  0.1071161f,  6.3843803f,  -1.0652810f, -0.0115272f, 3.5251482f, 0.1114623f},
      {0.7199909f,  0.6181385f, 3.2487485f,  0.6691085f,  -1.3913481f, 0.2035246f, -3.4797134f, -0.7940490f,
       -0.2077558f, 0.0773732f, -1.3623196f, 0.9581651f,  -0.1864409f, 8.3836021f, 0.0245754f,  -0.4363725f,
       5.3384027f,  0.7247104f, -2.7855043f, -1.4372230f, 4.8623109f,  3.6174579f, -3.0310142f, 0.1034387f,
       -1.9602907f, 0.9396960f, -0.2451394f, -6.9446635f, 0.6510749f,  0.0040407f, 2.1286938f,  -0.1994269f},
      {-3.5802836f, -0.1945815f, -1.3211528f, -2.6339300f, 0.1108018f,  -0.1686496f, -3.9186001f, -0.6012405f,
       0.0659641f,  -0.1040298f, -0.3236113f, 0.4218372f,  -0.0830102f, -1.9317172f, -4.3377066f, 4.0333552f,
       -2.9417725f, 0.0516173f,  0.3569074f,  0.1261696f,  1.7687927f,  4.9762769f,  -0.7030696f, 0.0367439f,
       0.6267084f,  -0.1712868f, -0.1407728f, 0.0450465f,  0.1618241f,  -0.1995591f, -0.4292805f, -0.1608494f},
      {3.8937550f,  -0.2148809f, 1.3013415f, 2.2342608f,  -0.0167191f, -0.0803296f, 1.8905767f,  -2.4653931f,
       -0.1781052f, -0.1093601f, 2.1975505f, 3.8410902f,  0.0090627f,  0.8992063f,  4.2817221f,  -4.1746902f,
       2.4932814f,  -0.0312849f, 0.1505711f, -0.0836888f, -1.6432459f, -2.4582350f, 0.6404195f,  -0.1064563f,
       1.4928253f,  -0.5534648f, 4.2346964f, -2.7576411f, 0.0819628f,  -0.1314826f, -0.0779562f, 0.0691149f},
      {-0.0367839f, -0.0991589f, -0.0175616f, 0.0086990f,  0.0151426f,  -0.1855302f, 1.8710823f,  -0.0323419f,
       -0.2535209f, -0.1420724f, -2.7567072f, -4.3771677f, -0.1628463f, 0.1794227f,  -0.0118126f, -0.0177278f,
       -0.0526347f, -0.0104730f, -0.5462568f, 0.0500485f,  0.0481400f,  -2.5625327f, -0.0429517f, -0.1514103f,
       0.1082738f,  -0.7218912f, -4.0651550f, 2.4110160f,  -0.0252928f, -0.1595040f, 0.0161427f,  -0.0850459f},
  };

  ALPAKA_STATIC_ACC_MEM_GLOBAL const float bias_layer2[32] = {
      5.4287753f,  0.6318399f,  1.2626284f,  -1.2509192f, -0.2370526f, -0.2602769f, 1.5006040f,  -1.7082466f,
      -3.2173924f, 5.1175232f,  -0.3545439f, -3.2160363f, 5.5478768f,  -6.6486635f, 7.1434503f,  1.3048654f,
      1.2451966f,  -3.3068676f, 4.1087232f,  2.2386739f,  7.1842923f,  -0.0503877f, -1.0375460f, -7.2672601f,
      -0.2293961f, -3.4113719f, -0.1203990f, -9.1088610f, -0.6347507f, 2.1609612f,  -2.4926205f, -4.6035948f};

  ALPAKA_STATIC_ACC_MEM_GLOBAL const float wgtT_layer2[32][32] = {
      {1.4206493f,  -19.3447437f, 2.5548065f,  2.8372915f,  -0.0944758f, -0.0739582f, -1.7071894f, -1.5313307f,
       1.4280113f,  2.5028598f,   0.2919454f,  1.7202791f,  4.0907660f,  0.2405525f,  -1.0787259f, 0.8940140f,
       0.8430588f,  -0.9720896f,  -4.6842027f, -1.5686446f, -3.9485013f, -0.0360508f, 1.4655859f,  1.2690970f,
       -0.1963232f, 2.7851188f,   -0.0834074f, -0.0182565f, -1.6610787f, 2.4045744f,  1.1421481f,  -3.8843172f},
      {-1.2888653f, 3.3131373f,  1.5275325f,  0.1394173f,  -0.0487926f, 0.0644233f,  -1.1934140f, -1.9911520f,
       -1.6801684f, -0.3042833f, -0.1611758f, -0.0708957f, 3.1458821f,  -1.5922143f, -0.0930236f, -0.4429827f,
       -1.1272085f, 2.8331370f,  0.1348055f,  -2.3708179f, -1.9356912f, -0.1274734f, -1.7185259f, -0.1049740f,
       -0.0705461f, 0.6516748f,  -0.1839198f, -0.2232761f, 0.8775901f,  -1.8968096f, -0.0099797f, -2.0444012f},
      {1.3807622f, 0.9707823f,  -0.2115338f, 0.1016619f,  0.0873046f,  0.0606648f,  -2.7730680f, -1.1623106f,
       4.5280800f, 0.5355030f,  -0.2360671f, 3.7000446f,  1.0359457f,  -0.7961739f, 0.1272663f,  0.3368827f,
       0.0165716f, -0.4963448f, -1.0008799f, 0.1951924f,  0.9528742f,  -0.0595330f, 0.8024693f,  -0.4313971f,
       0.0189302f, -1.6750445f, 0.0148286f,  -0.6295131f, -0.9221007f, -0.6231927f, -1.7127491f, -0.6175414f},
      {2.9016900f,  -0.2459288f, -0.3521790f, 0.4436696f,  0.0792078f,  0.1294483f,  -18.5249977f, 0.6518656f,
       6.4467835f,  -0.7727329f, -0.7034023f, 5.7440281f,  -1.0593998f, -0.3702875f, 0.9946811f,   2.5084505f,
       1.9771880f,  1.4494448f,  -1.0584155f, -1.1624658f, 0.2332027f,  -0.1587685f, 0.5008570f,   -0.4346037f,
       -0.2485770f, -0.0596639f, -0.0332609f, -0.1263400f, 3.1312459f,  2.0502429f,  -1.2007316f,  -3.2686644f},
      {-0.5871394f, -3.0462945f, -1.2289078f, 3.7942715f,  -0.0739835f, -0.2074779f, 3.5256672f,  3.5867784f,
       0.4076932f,  1.1755724f,  0.8804659f,  -0.1623110f, 0.2866976f,  4.4432144f,  -2.0483162f, -3.4763138f,
       1.0280856f,  -1.5385715f, -0.5115138f, 2.7957389f,  -8.8669415f, -0.0838554f, -0.8336462f, 1.8300499f,
       -0.1929732f, -0.8725467f, -0.2034999f, 2.5059419f,  0.8604096f,  0.7956364f,  3.6923859f,  -0.3960582f},
      {0.0681825f,  0.1485670f,  -0.0813321f, -0.0168530f, -0.0440522f, -0.0712343f, -0.1273328f, -0.0701955f,
       0.1368528f,  -0.0547442f, 0.0735435f,  -0.1221449f, 0.1709493f,  -0.0873494f, 0.1533919f,  0.0926589f,
       0.0042497f,  -0.0717505f, -0.1159171f, 0.1694715f,  0.0885231f,  0.1633993f,  -0.0712485f, 0.1027383f,
       -0.0250146f, 0.0543172f,  -0.1053549f, -0.0463604f, -0.0441415f, 0.0340884f,  -0.1176454f, 0.1475931f},
      {-2.4248343f, 0.7815595f,  4.7033272f,  -0.4830207f, -0.1521182f, -0.0932793f, 3.6331906f,  -3.9549873f,
       -0.6518949f, 3.9717033f,  -1.9858780f, 0.6667452f,  0.3981824f,  2.0483952f,  -2.9786289f, -1.0305153f,
       -0.6720351f, 0.2847965f,  -0.0919143f, -2.7766013f, -0.6349222f, -0.0928764f, -1.4629091f, -2.4953225f,
       0.0615233f,  -2.5131376f, 0.0495268f,  -2.7217982f, 4.3268809f,  -0.1301882f, -3.1186981f, 0.9726183f},
      {1.8681546f,  1.8131343f,  -0.8516397f, -0.8691092f, -0.1325339f, -0.2536088f, -0.8917859f, -0.7175035f,
       -0.3795414f, -2.7350304f, -0.4302774f, -0.2347127f, -2.3904636f, -2.5585020f, 3.7713242f,  0.6710380f,
       -0.8185823f, 1.6085502f,  0.0085359f,  -0.4867812f, 0.9862737f,  -0.0840022f, 0.6679679f,  -5.5309553f,
       -0.2345436f, -0.4086710f, -0.1594940f, -0.0406222f, -2.3604162f, -0.3618633f, -4.4424691f, 0.6556800f},
      {0.0864984f,  -0.0827901f, -0.0311125f, 0.1579997f,  -0.1754919f, -0.0572981f, -0.1265723f, 0.1125674f,
       -0.0874541f, -0.1766419f, -0.1024225f, -0.0288761f, -0.1100999f, 0.0675996f,  -0.0390899f, 0.0944279f,
       0.0963423f,  0.1828248f,  -0.1972181f, 0.0659020f,  0.1842147f,  -0.0462042f, -0.1364676f, 0.0422792f,
       -0.0175104f, 0.0843836f,  -0.1547338f, 0.0746118f,  0.0877971f,  -0.1325454f, 0.1567831f,  0.0704649f},
      {-0.0935618f, 0.0752561f, 0.1337126f,  0.0425217f,  0.0500946f,  -0.1474966f, -0.0320176f, -0.0901719f,
       0.1602188f,  0.1098235f, 0.0529527f,  -0.1554389f, -0.0455062f, -0.0969040f, 0.1015852f,  0.0475305f,
       -0.0344006f, 0.0087568f, -0.0707051f, -0.0284053f, 0.0521297f,  -0.1165060f, 0.0493579f,  -0.1315190f,
       0.1701845f,  0.1695349f, 0.0165259f,  -0.1586702f, 0.0277809f,  0.1039461f,  -0.1440552f, 0.0422623f},
      {1.5325515f,  -2.7845418f, -7.2488136f, -1.4896426f, -0.0419382f, -0.2444310f, -9.8760328f, 1.6160139f,
       -0.0751325f, -7.1856384f, 0.3050936f,  -0.3591518f, -0.0506334f, -3.2815189f, 0.0268669f,  5.5777426f,
       -2.8227251f, 3.3889868f,  -0.1044758f, 1.7664179f,  -0.5150699f, -0.0741208f, -1.5926315f, -1.0081788f,
       -0.0150073f, 0.2576338f,  -0.1347721f, 0.5935208f,  -0.9079419f, -1.4254135f, -1.9667543f, -2.4136226f},
      {0.8337002f,   0.7960463f,  0.2318322f, -1.7060677f, -0.0979891f, 0.0369932f,   2.3606188f,  0.8929097f,
       0.1864331f,   -1.0359534f, 2.1203015f, -0.3093596f, 0.7652856f,  1.7771894f,   -2.3714709f, 1.9001647f,
       -18.9435673f, 1.8517467f,  0.4665011f, 1.5182211f,  -0.0918185f, -0.1341194f,  -0.5264007f, -0.4504093f,
       -0.0468038f,  0.9921675f,  0.1825528f, -0.7087870f, 0.9437127f,  -20.3086529f, 0.3958853f,  -0.6764453f},
      {-0.0519736f, -0.1355754f, 0.0620710f,  0.1086628f,  -0.0049146f, 0.0300608f, 0.1120683f,  -0.0924760f,
       0.0204284f,  -0.0229076f, -0.1304479f, -0.1663640f, -0.1189678f, 0.0904003f, -0.0298356f, -0.0743227f,
       0.1723529f,  0.1337465f,  -0.1527023f, -0.1637913f, 0.1573729f,  0.1580930f, -0.0219546f, -0.0423391f,
       0.1652859f,  0.0817869f,  -0.0542807f, 0.1143878f,  -0.0545051f, 0.0637523f, -0.1543344f, -0.0159694f},
      {-0.7260160f, 2.5828598f,  -0.7435597f, -4.2871828f, -0.0875338f, -0.2815114f, -4.9385343f, -1.7459980f,
       0.4518866f,  -1.2311661f, -2.4326730f, 0.6764119f,  1.0583612f,  -4.2008381f, -0.3312041f, -1.4471319f,
       -1.1728704f, -0.3805666f, 0.9164545f,  -1.7965878f, -0.1387017f, -0.1288498f, -0.6729907f, -1.1992718f,
       0.0117225f,  -2.0075557f, -0.0135564f, 0.6044900f,  -2.6313324f, -1.4608155f, -3.3722003f, -2.0743935f},
      {-1.5667253f, -62.1655312f, 1.9378606f,   2.6599352f,  -0.2068740f, 0.0016718f,  -1.1549680f, -4.4503508f,
       1.7230841f,  1.9135942f,   -1.4150641f,  1.4684378f,  -2.9774697f, -2.1487103f, 3.6168561f,  0.7657567f,
       0.4123611f,  -1.7431428f,  -39.0644760f, 1.1118729f,  3.6018116f,  -0.0773843f, 8.1042500f,  -4.9728389f,
       -0.1080227f, -6.6478448f,  -0.1249430f,  -0.4035290f, 0.0182813f,  -2.4469724f, 3.8736379f,  7.3951616f},
      {-4.0277419f,  3.0810094f, 0.5044064f,  6.0445299f,  -0.2273406f, -0.1885930f, 1.3958588f,  -2.2452028f,
       -16.4287128f, 2.0768085f, 4.7659492f,  -9.3116484f, -1.8874596f, 2.1081421f,  -2.6007743f, -0.1045248f,
       1.8389982f,   1.5683420f, 3.1812613f,  3.2932839f,  -1.6320698f, -0.0604043f, 7.0417571f,  0.3950619f,
       -0.1425959f,  4.6935372f, -0.0392723f, 0.4996838f,  0.4666691f,  1.3543328f,  0.3747537f,  -2.1097445f},
      {0.7285859f,  0.9822530f, 0.8145977f,  -3.8430376f, -0.2164088f, -0.0144030f, -0.1505947f, 0.4598726f,
       -1.6855484f, 0.2926366f, -2.2580948f, 0.6481085f,  -3.8302546f, -2.3335800f, -0.6587967f, 1.3470875f,
       -0.8273150f, 3.3552122f, 1.2353729f,  -4.1500821f, -2.9320951f, -0.0592650f, -1.0747848f, -0.6873963f,
       0.0232390f,  2.0763874f, -0.1906598f, 1.6620901f,  3.1577241f,  -0.9262589f, -3.6599436f, -0.9438215f},
      {-3.3166502f, 0.7831562f,  1.7340926f,  -1.0466428f, -0.0420659f, -0.1834826f, -2.1473174f, -2.5866673f,
       -0.7468886f, 1.1834197f,  1.2888908f,  -0.6603810f, 1.6739224f,  0.5314115f,  -5.0677757f, 1.1139207f,
       -0.3542085f, -1.0936724f, -0.2820213f, 0.4597857f,  5.5121722f,  -0.0793581f, -0.8099154f, 6.8340793f,
       -0.1504802f, 0.4421930f,  -0.1895986f, -5.4474859f, -0.7884870f, -1.0031757f, 6.6544476f,  1.7915256f},
      {-0.8282558f, 0.0760447f,  -3.3421900f, 0.6121876f,  -0.0256750f, -0.2376409f, -5.4359136f, 1.5024202f,
       0.5573317f,  -2.1322320f, 0.1431897f,  0.7356356f,  -0.5819787f, 1.3134389f,  0.1292333f,  0.1869322f,
       -0.2085995f, -0.9530356f, 1.9142762f,  2.0089540f,  0.9113609f,  -0.0343235f, 0.2223694f,  0.1251359f,
       -0.0769572f, 0.3742948f,  0.0102575f,  -1.8993908f, 1.9859216f,  -0.0104920f, 0.2041932f,  1.6217119f},
      {1.0461313f,  -3.7784824f, -1.6443658f, 6.5485501f, -0.0072161f, -0.2121331f, 5.0254068f,    5.9302983f,
       2.4006453f,  0.8593352f,  1.1236984f,  0.0886970f, 2.7541063f,  4.1351228f,  2.8671224f,    -3.4151504f,
       3.3887961f,  -2.6979895f, 0.2041885f,  3.6484530f, -7.3195691f, -0.0572495f, 0.9181130f,    -2.3981247f,
       -0.1754544f, -1.2053390f, -0.1030507f, 1.5351899f, 0.6357633f,  4.0639334f,  -105.8457184f, 0.1633994f},
      {-4.2191181f, -0.5401892f, 0.8553714f,  0.1440772f,  -0.2111938f, -0.1245356f, -1.0438871f, 0.6043152f,
       -5.3970718f, -0.3015283f, 0.6050397f,  -5.4335480f, 1.2151315f,  1.1294038f,  0.2267052f,  -2.3225071f,
       3.0821888f,  0.4816326f,  1.1032268f,  0.8715043f,  0.0276083f,  -0.2068887f, -0.8967648f, 1.3585795f,
       -0.0814282f, 0.5243747f,  -0.0792257f, 1.3860759f,  -3.4891405f, 3.9780827f,  1.7327877f,  3.7018960f},
      {3.1090150f,  -1.7374234f, -0.3669287f, -2.7161610f, -0.0013518f, -0.1987654f, -3.9921315f, 0.9177005f,
       -0.7786558f, -0.7788672f, 5.4229240f,  0.4657342f,  0.4274073f,  -2.0488241f, 0.1923091f,  3.1869228f,
       -1.5536357f, -0.7037408f, -1.5067254f, 2.7574580f,  -4.3086505f, -0.1192185f, -2.3262269f, -1.5271292f,
       -0.0265490f, 3.7187259f,  -0.1792734f, -0.5142455f, 0.8080901f,  -1.2118241f, -0.2955346f, 1.3108747f},
      {-0.9111735f, -3.9195480f, 0.7691756f,  -1.0829612f, -0.1869032f, 0.1163844f,  -0.4811507f, -4.2987580f,
       2.1764669f,  2.1105065f,  -1.3178685f, 1.4576966f,  8.1017590f,  -0.1070599f, -0.0269623f, -0.4195731f,
       0.8866584f,  -0.8137204f, 1.1295606f,  -1.4655439f, 0.2828194f,  -0.1165858f, -1.0019679f, -0.0361966f,
       -0.1963705f, -1.4682312f, 0.0139675f,  0.2885279f,  1.7146873f,  0.6139974f,  1.9083029f,  -4.1070070f},
      {0.2367838f, -0.0096260f, -0.0083568f, 0.1260187f,  0.1552924f,  -0.1074589f, 0.0038157f,  -0.1227405f,
       0.1924844f, 0.2074161f,  0.0601626f,  -0.2417190f, -0.0769279f, 0.2321769f,  -0.0362169f, -0.2860763f,
       0.0516749f, 0.2618919f,  0.0599263f,  0.2074618f,  0.0255182f,  0.1649159f,  0.2246853f,  -0.1742262f,
       0.0520295f, 0.0110890f,  0.1373599f,  -0.0487870f, 0.1595590f,  -0.0785558f, -0.1213211f, -0.1080948f},
      {-0.7287490f, -1.3385425f, -0.7634786f, -0.7241737f, -0.0253252f, -0.0361262f, 0.6876072f,  -0.3454457f,
       0.2166442f,  -1.0076656f, 0.4808371f,  -0.4199769f, -3.3141494f, 3.4053948f,  -2.4999359f, -0.5523333f,
       -0.2887027f, -0.2677894f, -1.1674962f, 1.7469492f,  0.3791354f,  -0.2442959f, -0.7956105f, 2.6507461f,
       -0.0373189f, -1.6404564f, -0.1743387f, 3.2745631f,  -0.2375149f, -0.0566912f, -0.0902076f, -1.1141906f},
      {0.6864292f,  1.5498585f,  -1.4542725f, 0.7341006f,  -0.2222255f, -0.2477845f, 0.9917264f,  3.8738499f,
       -0.1897230f, -2.3389559f, 2.3899307f,  -0.2756719f, -8.0863667f, 0.2082087f,  -0.1050667f, 0.6543379f,
       0.0734712f,  -0.9437227f, -1.1607481f, 1.7214785f,  -0.2756988f, -0.0809055f, 1.2285305f,  -0.1741039f,
       0.0073789f,  2.9508064f,  -0.0367972f, -0.5504431f, -1.0796239f, 0.8095948f,  -0.5330480f, 2.5916190f},
      {0.8093448f,   2.5756500f,  -2.8378563f, -2.1247621f, -0.1410994f, -0.2081535f, -1.0194188f, 2.4512827f,
       -0.5191229f,  -1.0435846f, 0.9691159f,  0.2947144f,  -0.8525587f, 0.7866814f,  2.2386611f,  -3.6427286f,
       -47.5634308f, -0.3028859f, 0.7884983f,  0.4849752f,  1.4465361f,  -0.1472813f, -2.7890778f, 1.9433174f,
       -0.1914980f,  1.4918817f,  -0.0658994f, 0.4263032f,  -1.0722034f, -3.2672665f, -0.7917529f, 0.8342334f},
      {-4.8387480f, -0.1637840f, 1.9807204f,  0.4699974f,  -0.1158330f, 0.0027635f,  -2.5843399f, 2.1925304f,
       -0.0738385f, -2.1025107f, 1.1017014f,  -0.5088494f, -1.3224640f, -0.6282466f, 2.2781961f,  0.8788667f,
       0.1810824f,  4.8748965f,  -0.2293813f, 0.9805569f,  0.1827345f,  -0.1395520f, 1.4590908f,  1.8728355f,
       -0.0742588f, 0.6175691f,  -0.1161852f, 1.7587771f,  -4.0378146f, -0.3126438f, -0.0835387f, -0.2957891f},
      {-2.2115765f, 0.2530505f, 0.9253175f,  -2.5946622f, -0.0216933f, 0.0596146f,  -0.7878745f,  -1.4522707f,
       -1.9818711f, 1.1185331f, -0.2345404f, -0.1677244f, -2.2712734f, 1.3238477f,  -6.1082058f,  -0.0426896f,
       -1.7451035f, 0.9207378f, -0.2759125f, -1.0004736f, -1.7819095f, -0.0548057f, -1.9480300f,  5.8659949f,
       -0.1992141f, 0.8283236f, -0.0058911f, 0.0407498f,  1.2424113f,  -2.5602446f, -63.7725258f, -0.6977696f},
      {-0.0550448f, -0.0393100f, 0.1068466f,  0.0336427f,  0.0099372f,  0.1574519f,  -0.0399985f, 0.1580617f,
       -0.1066793f, -0.0762602f, -0.0993363f, -0.0077523f, -0.0191757f, 0.1340328f,  0.1630054f,  -0.0265755f,
       0.1605063f,  -0.0018628f, 0.1699468f,  0.0023628f,  0.1045594f,  -0.1758387f, -0.1055111f, 0.1235121f,
       0.1761409f,  0.1074484f,  0.1386923f,  -0.0042233f, 0.0982888f,  -0.0300491f, -0.1744443f, -0.0941263f},
      {-0.3995658f, 0.5981337f,  0.5006718f,  0.0248843f,  -0.1206920f, 0.0598031f,  -0.5559242f, -0.3594096f,
       -0.1673597f, 0.8428766f,  0.0809864f,  -0.3306720f, -1.6357912f, -1.5311446f, 0.9173822f,  -0.3722169f,
       0.1383882f,  -0.6729375f, -0.0337749f, -0.1818704f, 0.6592782f,  -0.1162764f, 0.2862864f,  0.2280358f,
       -0.2541727f, 0.2734256f,  -0.1309241f, -1.0111110f, -0.6036438f, 0.0171989f,  -0.0124595f, 5.2859912f},
      {-0.0276376f, -0.0630342f, 0.1140905f,  0.0402220f,  0.1144661f,  -0.0781856f, -0.1318351f, 0.0052855f,
       -0.0986781f, -0.1113349f, -0.1524094f, 0.1712768f,  0.1279497f,  -0.0877002f, -0.1520340f, 0.0620234f,
       0.0358213f,  -0.0145104f, 0.0122109f,  0.1305245f,  -0.0666746f, -0.0583943f, 0.1315716f,  0.0096058f,
       0.0641067f,  -0.1139851f, -0.0709597f, -0.1427276f, 0.0249123f,  0.0794884f,  -0.1032750f, -0.0453108f},
  };

  ALPAKA_STATIC_ACC_MEM_GLOBAL const float bias_output_layer[1] = {-0.0176401f};

  ALPAKA_STATIC_ACC_MEM_GLOBAL const float wgtT_output_layer[32][1] = {
      {0.3302893f},  {-0.2639661f}, {-0.3278202f}, {-0.6016334f}, {-0.0103250f}, {0.0030704f},  {-0.3566309f},
      {-0.2953321f}, {0.6892608f},  {0.3291446f},  {-0.7648955f}, {-1.0423291f}, {-0.2450408f}, {0.2997500f},
      {-0.4628639f}, {-0.2928802f}, {-0.6078184f}, {0.3072558f},  {-0.3355636f}, {0.5629070f},  {-0.4581620f},
      {-0.0008603f}, {0.4996712f},  {-0.4444975f}, {0.0311833f},  {0.5387989f},  {-0.0166918f}, {0.2188799f},
      {0.2722405f},  {0.5086711f},  {0.2589910f},  {-0.2403668f},
  };

}  //namespace lst::t5dnn

#endif
