#ifndef RecoTracker_LSTCore_src_alpaka_NeuralNetworkWeights_h
#define RecoTracker_LSTCore_src_alpaka_NeuralNetworkWeights_h

#include <alpaka/alpaka.hpp>

namespace lst::t5dnn {
  ALPAKA_STATIC_ACC_MEM_GLOBAL const float bias_layer1[32] = {
      0.8381023f,  1.2556465f,  0.0067099f,  -0.0357693f, 0.1169101f,  -0.0153113f, -0.0846093f, 0.7797670f,
      0.9055398f,  0.1665114f,  -0.0550796f, -0.0567238f, 0.0941665f,  -0.1216114f, -0.1699734f, 0.2718568f,
      -0.0005298f, -0.1234800f, 0.4162073f,  -0.0819755f, -0.0992466f, -0.1968698f, -0.9469606f, 0.5872037f,
      -0.1228067f, -0.4750639f, -0.4919112f, 1.5527098f,  -0.5490310f, -0.1912438f, -0.0286376f, -0.2222957f};

  ALPAKA_STATIC_ACC_MEM_GLOBAL const float wgtT_layer1[18][32] = {
      {-1.3590021f, 0.6276954f, -0.1449918f, 0.0577370f,  -0.1576955f, 0.3870811f,  -0.0306186f, -0.7776857f,
       -2.4529552f, 0.1741910f, -0.1386530f, 0.1470326f,  -0.0229899f, -0.1953953f, -0.0866006f, 0.2343440f,
       -0.0381602f, 0.0025981f, -1.5493799f, -0.1535862f, -0.2149696f, 0.1132401f,  1.0470828f,  0.2647061f,
       -0.0883747f, 2.9208860f, 0.6330654f,  -0.3167520f, -0.0053264f, 0.1200040f,  -1.4732890f, -0.0641288f},
      {1.5409008f,  -0.2445420f, 0.5728381f,  -0.0224280f, -0.2209680f, 0.3975667f, 0.1514053f,  -0.3518175f,
       1.8653508f,  0.1703563f,  0.0541671f,  0.0707710f,  -0.1296598f, 0.0166212f, -0.2231757f, -0.2298288f,
       0.1515491f,  -0.0877527f, 0.0267650f,  -0.0166315f, -0.1833107f, 0.2135980f, 0.4585742f,  0.0545256f,
       -0.1238023f, -3.6342409f, -1.5667412f, 0.7584751f,  1.5726668f,  0.1195947f, 2.2186098f,  -0.1959659f},
      {-1.6374129f, -1.4102328f, 0.8131387f, 0.0225332f,  -0.0153069f, 0.0299461f,  -0.1091296f, -0.0160365f,
       -1.6576413f, -0.1978515f, 0.0032953f, -0.1085755f, -0.0581009f, 0.1631211f,  -0.0659636f, -0.3528317f,
       -0.0149552f, -0.0938201f, 1.6130958f, 0.1513250f,  -0.1115365f, 0.0593220f,  3.0901117f,  -1.3332770f,
       -0.1110921f, 2.0363133f,  2.6538639f, -3.6059115f, 0.7219769f,  -0.1640888f, 0.7755069f,  -0.1108092f},
      {-0.2936167f, 6.1980624f,  -0.4599009f, 0.0311129f, 0.1828872f,  -0.2142502f, 0.2085699f,   1.6321551f,
       -1.1880305f, 0.1927557f,  -0.1985132f, 0.0887561f, 0.1714940f,  -0.1827505f, 0.0312042f,   0.3490315f,
       -0.0019204f, -0.0948882f, -3.3440456f, 0.1356649f, 0.0992870f,  -0.1688469f, -11.9658194f, -0.0076418f,
       0.1754400f,  1.0275215f,  -1.7420135f, 0.2945143f, -1.4503033f, -0.1764025f, -0.8626893f,  -0.1650196f},
      {0.6450894f,  -0.2659193f, -0.0554443f, -0.1571963f, -0.0717938f, -1.6951908f, 0.0990743f,  2.6783466f,
       1.5408627f,  0.0354736f,  -0.0042377f, 0.1060356f,  -0.0842549f, -0.0162483f, -0.1908853f, -1.7604783f,
       -0.0874540f, 0.0929945f,  0.3855971f,  0.2271341f,  -0.0265867f, -0.0940968f, 1.6492866f,  -1.1620234f,
       -0.0054144f, -7.9476857f, 0.6742283f,  3.6346674f,  0.1277585f,  -0.1252134f, 2.7238610f,  -0.2227236f},
      {-0.7608751f, -1.3364639f, 0.2793101f,  0.0671013f,  -0.1188807f, 0.3691385f,  -0.1549930f, -1.0517840f,
       -1.2893225f, 0.2082838f,  -0.0334609f, 0.1394186f,  0.0161169f,  0.0812546f,  0.1173968f,  1.2311919f,
       0.0236558f,  -0.2817375f, 1.3230846f,  0.0783550f,  -0.2084638f, 0.1807853f,  -2.1035442f, -0.4654399f,
       0.0235591f,  3.9155247f,  1.3587128f,  -4.2010083f, 0.6350310f,  -0.0052448f, 0.6574754f,  0.0686782f},
      {-2.7833683f, 10.2854757f, 4.6338739f,  0.0240941f,  -0.0696120f, -0.3897463f, -0.1248256f,  -0.4816284f,
       -4.7507734f, 0.1557197f,  0.2135302f,  0.0618758f,  -0.2073696f, -0.1496306f, 0.0877262f,   2.5853217f,
       -0.0422003f, 0.0184724f,  -3.8206606f, 0.1141581f,  0.1459169f,  0.2033599f,  -11.1376858f, -1.9455458f,
       -0.1760101f, 8.7950487f,  0.6831748f,  -9.6213007f, -1.1076751f, 0.1012195f,  2.7658327f,   -0.1416854f},
      {0.2418604f,  -1.9301127f, 0.3877483f,  -0.0933844f, 0.0126722f,  -1.0790098f, 0.1009928f,  3.7290661f,
       2.1045575f,  0.1211392f,  -0.2160725f, -0.0462994f, -0.0852768f, 0.1915723f,  0.1689342f,  -1.3557134f,
       -0.0077365f, 0.1614280f,  5.2128477f,  0.0722612f,  -0.0341569f, -0.1447665f, -3.7722759f, -1.0395907f,
       -0.0527294f, -3.9730494f, 2.6421480f,  0.9249437f,  0.1579958f,  -0.1002075f, 1.7829212f,  -0.2132620f},
      {-0.2429990f, 0.2634341f, 0.2590226f,  0.0672474f,  0.0036324f,  0.0303038f,  0.0897552f,  -0.6256298f,
       -1.6122288f, 0.0027225f, -0.1595401f, -0.0935275f, -0.1982563f, 0.0155485f,  0.1946360f,  1.4213501f,
       0.0137804f,  0.1520022f, 0.9409513f,  -0.1742253f, -0.1503127f, 0.0523944f,  -0.0227176f, 0.3040073f,
       -0.0240107f, 1.0642775f, -1.0194819f, -2.0675447f, -0.0253559f, -0.0036589f, 1.4283713f,  0.1586476f},
      {-5.0235038f, -18.3295002f, -5.7430124f, 0.0443320f,  0.1303882f,  0.4247405f,  0.0121365f,  -4.8916097f,
       0.9041749f,  0.1742271f,   -0.2020964f, 0.1310671f,  -0.0256758f, 0.1279234f,  -0.2113014f, 1.5976193f,
       0.0230461f,  0.3957245f,   15.0924625f, -0.0339573f, 0.2194625f,  0.1601087f,  4.2093749f,  -1.7748410f,
       0.0570550f,  -3.7076390f,  24.7426872f, 10.6664305f, 4.9739928f,  -0.1869711f, -3.9020858f, -0.0625287f},
      {-1.2785814f, 0.4951370f,  -0.1854935f, -0.0854860f, -0.0326400f, -1.4217318f, -0.0526660f, 2.3796616f,
       1.1375890f,  -0.1294750f, 0.1514099f,  -0.0875889f, 0.0334763f,  -0.1046284f, -0.1509691f, 1.8961424f,
       0.0482185f,  0.1560478f,  1.1729040f,  0.2059654f,  -0.0396296f, 0.0583655f,  0.2114737f,  1.1078014f,
       0.0713762f,  -5.2123141f, 3.3188431f,  -1.5417687f, -2.2969320f, -0.1852825f, 1.5388242f,  -0.1949441f},
      {0.3436254f,  1.5141397f,  0.3445305f,  0.0537090f,  0.0983261f,  0.2764109f, 0.0450150f,  0.3694516f,
       -0.1495358f, 0.0250220f,  0.0863517f,  0.1613176f,  0.1065962f,  0.1730740f, -0.0821967f, -0.8726079f,
       -0.0041691f, -0.0050251f, 1.0713325f,  0.0622442f,  -0.0212901f, 0.0256977f, 0.0212109f,  0.4948872f,
       -0.0750605f, 1.9991436f,  -6.2873325f, -1.7726667f, 0.0714888f,  0.0387835f, 0.3844735f,  -0.1025873f},
      {13.7695932f, -17.3070316f, -0.0396740f,  0.0129914f,  -0.1876401f, 3.8251970f,  0.2313863f,  -5.4996729f,
       14.7995348f, -0.0461617f,  -0.1183308f,  0.0492157f,  0.0139761f,  -0.1253950f, -0.0316143f, -11.3720646f,
       0.0372201f,  0.0982849f,   -1.5191002f,  -0.1424744f, -0.1819868f, -0.2320994f, 4.2790890f,  -0.6142485f,
       -0.1854810f, 0.5198026f,   -18.9082165f, 8.7000732f,  4.5243855f,  -0.0778345f, 2.4486756f,  0.0691332f},
      {0.0951613f,  0.9556295f,  -0.2075231f, -0.0207790f, 0.1411675f,  -0.7328303f, -0.2109708f, -0.0570228f,
       -0.5559142f, -0.0610400f, -0.1140115f, -0.2104663f, -0.1170108f, -0.0814055f, 0.2027502f,  0.6474348f,
       -0.0218391f, 0.0668279f,  0.3389186f,  0.0271586f,  -0.0642117f, 0.0128125f,  -0.6837727f, -0.2763188f,
       0.0651659f,  -1.6473349f, -0.4024041f, 0.6453164f,  -1.8239625f, 0.1908238f,  0.3040223f,  0.0225411f},
      {0.4597256f,  1.3507527f,  0.4121956f,  -0.0016478f, 0.1683506f,  -0.1844230f, 0.1416871f,  -0.3610686f,
       -0.3396192f, -0.0093597f, 0.1620043f,  0.0136876f,  -0.1921590f, 0.2109465f,  -0.1422910f, 1.5516689f,
       0.0199380f,  0.0875053f,  -0.8301335f, 0.0079493f,  -0.0684538f, 0.0361081f,  0.4911018f,  0.4027354f,
       -0.1420899f, 0.9741972f,  -0.2662143f, -1.0193604f, -0.3064712f, -0.1355691f, -0.1211660f, -0.0860424f},
      {0.0226056f,  0.0887831f,  1.8112129f,  1.6017252f,  -0.2053973f, 1.1942143f,  -0.0789642f, 1.8492327f,
       -1.7628566f, -0.1820963f, 0.1481515f,  0.0491807f,  -0.1601979f, -0.0944827f, -0.0244225f, 1.4816471f,
       0.0817022f,  0.1168359f,  -0.3918689f, -0.0036699f, -0.1226492f, -0.1818991f, -0.1200486f, -1.8239323f,
       -0.0273595f, 0.3133134f,  0.3980505f,  -0.3074540f, -1.6801124f, 0.0689322f,  -1.5872164f, -0.0232152f},
      {-1.4185179f, -0.0736576f, -1.8146720f, -1.6101750f, -0.2238937f, 0.8144313f,  -0.0773187f, -2.1662028f,
       0.5510010f,  -0.2138556f, -0.2583132f, -0.1989928f, 0.0310343f,  -0.2301474f, -0.1509903f, -0.0908552f,
       1.6234847f,  -0.2726549f, -0.0519968f, 0.0002568f,  -0.0989678f, -0.1076209f, -0.1692470f, 0.7444451f,
       -0.1140423f, -0.4251049f, 0.7397567f,  0.0376131f,  0.1935069f,  -0.0884010f, 1.0571744f,  -0.1094984f},
      {1.4048315f,  -0.7603406f, -0.0600279f, 0.0053667f,  -0.0833659f, -1.8888202f, 0.0453878f, -0.0496936f,
       1.5723938f,  -0.0734776f, -0.2582742f, -0.0617443f, -0.1607129f, -0.0791748f, 0.0578387f, -1.5397879f,
       -1.7127135f, -0.1419368f, 0.4146990f,  -0.1711587f, -0.1359243f, -0.0187611f, 0.1016016f, 0.9840503f,
       -0.1550723f, 0.0806085f,  -1.1700696f, 0.3543602f,  1.7325212f,  -0.1722032f, 0.4361708f, -0.1782625f},
  };

  ALPAKA_STATIC_ACC_MEM_GLOBAL const float bias_layer2[32] = {
      0.5240659f,  -0.3156822f, 1.1848069f,  0.0944839f,  0.7664731f,  0.0659122f,  -0.1521311f, -0.2121075f,
      -0.0233282f, 1.3092561f,  -1.5706853f, -0.1676442f, -0.6326731f, 0.6803766f,  -0.0098859f, -0.0427784f,
      0.4217910f,  0.5993415f,  0.1781375f,  0.9795442f,  -0.9739875f, -0.0787116f, 0.2965019f,  0.6723404f,
      -0.2183474f, -0.4365332f, -0.1825527f, -0.9912634f, 1.0041238f,  -0.0377338f, -0.0275527f, 0.6230045f};

  ALPAKA_STATIC_ACC_MEM_GLOBAL const float wgtT_layer2[32][32] = {
      {1.6865302f,  -0.0070441f, 0.8035002f,  0.2735598f,   0.2723117f,  0.8619063f,  -0.0804875f, 0.1225932f,
       1.4203900f,  1.1994495f,  1.3166131f,  -0.1413901f,  -1.7412066f, -0.4393452f, -0.0659093f, -0.1708370f,
       -0.9448425f, 0.5583439f,  -0.2568475f, -12.7132454f, 2.4591708f,  0.1297256f,  -0.0836688f, -0.5895968f,
       0.0749868f,  -1.0832437f, -0.0648381f, -0.5253773f,  0.0090072f,  -0.0765873f, 0.1528091f,  0.4434315f},
      {-0.5916990f, 0.0199793f,  2.6379824f,  -0.8051495f, 0.4584879f,  -0.0740655f, -0.0945753f, -0.0077198f,
       -0.9868032f, -0.5211059f, 1.0236850f,  0.0043219f,  -0.7691199f, -0.9887687f, 0.0182249f,  -0.0233012f,
       0.6525627f,  3.3088458f,  -0.0542368f, 0.8937343f,  1.9721413f,  -0.1451552f, -0.6037965f, -0.3363538f,
       -0.1826214f, -0.7827175f, 0.0263213f,  1.2864074f,  2.2937937f,  0.0188819f,  -0.1770117f, 0.1439094f},
      {2.2476032f,  -0.0563116f, 2.2437718f,  0.1898347f,  -2.0759408f, 1.8427511f,  -0.1640616f, -0.1479506f,
       3.2908669f,  -0.6904550f, 3.6500773f,  -0.0827876f, 1.4326503f,  -0.7677880f, -0.0796807f, -0.0939390f,
       -0.3899352f, -0.5100920f, -0.0482071f, 2.4649706f,  2.4606583f,  -0.1814978f, -2.4230726f, -1.4843392f,
       -0.0986952f, -2.8446929f, -0.1327703f, -0.4634184f, -0.9766884f, -0.1103326f, -0.0926516f, -1.7657683f},
      {-1.0957067f, -0.1004687f,  -1.5787225f,  -0.4126261f, 2.8912346f,   -21.3616123f, 0.2207962f,  0.0518269f,
       0.8230206f,  -13.1024904f, -1.8619218f,  -0.0424225f, -1.8340806f,  2.3357768f,   0.1242197f,  0.0754490f,
       4.2121305f,  1.6034925f,   -12.6262836f, 0.5050023f,  -25.2706032f, -0.0431384f,  5.8223386f,  1.0384507f,
       -0.0637078f, 5.0680337f,   -0.0471517f,  -3.0921204f, 5.1592808f,   -0.0875837f,  -0.2792810f, 2.2812967f},
      {0.0304742f,  -0.1621580f, -0.0106217f, 0.0899758f,  0.1324803f,  -0.0700794f, -0.0436681f, -0.0540102f,
       -0.1609280f, -0.0408476f, 0.0065347f,  -0.1726691f, 0.1159499f,  0.1275673f,  -0.1606314f, 0.0174050f,
       -0.1249909f, -0.1623034f, -0.1212896f, 0.0254142f,  -0.0601893f, 0.1673056f,  0.0928323f,  -0.0363208f,
       -0.1524574f, 0.1155388f,  -0.0944822f, -0.0977464f, -0.0798940f, 0.1726533f,  -0.0649631f, 0.0377241f},
      {-0.6356571f, -0.2607541f, -0.4543975f, -0.9816490f, 0.5416448f,  1.1389946f,  -0.1113931f, -0.1674357f,
       -4.8352165f, -1.6452470f, -1.5373472f, 0.0241024f,  0.5536532f,  1.7614238f,  -0.0999563f, -0.0025965f,
       -0.2934853f, 0.9991399f,  4.0100627f,  -0.4765424f, -1.2356933f, -0.1874161f, 2.1570861f,  2.1920633f,
       -0.0976036f, 0.0125106f,  -0.1139313f, -2.1311975f, 0.2431549f,  0.0021341f,  -0.1491757f, 0.2584881f},
      {-0.1554675f, -0.1167430f, 0.0423138f,  0.0711883f,  -0.0020845f, 0.1020336f,  0.0658370f,  -0.1375653f,
       0.0447370f,  0.1206502f,  0.0297869f,  0.1711519f,  0.0798078f,  0.1185202f,  -0.0763909f, -0.1206729f,
       -0.0553183f, 0.1228582f,  -0.0083935f, -0.1761404f, -0.0106561f, -0.0442752f, -0.1696223f, -0.1221765f,
       0.0369741f,  -0.1118567f, -0.0521597f, 0.0321973f,  0.0386908f,  -0.0866795f, -0.0968414f, -0.0050339f},
      {2.1435175f,  -0.1551078f, 3.2713811f,  -2.0504487f, -0.6445094f, -4.6579847f, -0.0102526f, -0.0756903f,
       -0.9215934f, 0.8505831f,  0.3627001f,  -0.1521874f, -1.4340100f, -0.0646441f, -0.2252390f, -0.2244328f,
       -2.9290957f, -0.4925358f, -1.0748628f, -0.1486538f, 2.1188385f,  -0.1755194f, 0.7961836f,  -1.0473205f,
       -0.1901667f, -1.1111301f, 0.0604983f,  -5.0314980f, 1.7197293f,  -0.2024349f, -0.1636181f, 0.1019914f},
      {-1.2713689f, -0.0253136f, -0.3380428f, -1.0638390f, 2.7449236f,  -0.2737443f, -0.1085422f, -0.1602184f,
       -0.0008735f, -1.1007431f, -1.1849335f, -0.2663876f, 2.5792780f,  1.1527174f,  -0.0802239f, -0.1025965f,
       2.5402682f,  -0.3441741f, -0.3981778f, 0.3678156f,  -1.4458398f, -0.0995817f, -1.6316043f, 0.3206491f,
       -0.0369127f, 0.5809332f,  -0.2152892f, 1.3396134f,  0.0399115f,  -0.2546846f, -0.2007722f, 2.8450758f},
      {0.1745115f,  -0.1357176f, -0.1485374f, 0.0909152f,  0.1483210f,  0.0737302f,  -0.1637680f, 0.0000265f,
       0.0481300f,  -0.0105988f, 0.0859076f,  0.0059233f,  -0.1172860f, -0.0107890f, -0.1159891f, 0.1145655f,
       -0.1576843f, 0.1084846f,  -0.1093958f, -0.0556372f, -0.0749590f, 0.0902455f,  -0.1584478f, 0.0336265f,
       0.0504195f,  0.1265924f,  0.0258345f,  0.1492549f,  -0.1250558f, -0.1155385f, -0.0182889f, -0.0004347f},
      {0.1171188f, 0.1014180f,  0.2324671f,  -0.0874626f, -0.1111097f, -0.1645274f, -0.1758595f, 0.1121060f,
       0.1073948f, -0.1074462f, -0.0067733f, -0.0173025f, 0.1683295f,  0.0455249f,  0.0836903f,  -0.0432218f,
       0.0314334f, -0.0055723f, -0.1382432f, -0.0860161f, 0.0697354f,  0.0154966f,  -0.0722437f, 0.1577733f,
       0.0029643f, 0.1032105f,  0.1173788f,  0.1317339f,  0.1496744f,  0.0770678f,  0.1173283f,  0.0357577f},
      {0.1185239f,  -0.1275339f, -0.0635410f, 0.1699650f, -0.0326480f, 0.1617643f,  -0.1413943f, 0.0729402f,
       0.1702773f,  -0.0632184f, -0.1366211f, 0.0920673f, -0.1140343f, -0.1277347f, 0.1160380f,  0.0278655f,
       -0.1432857f, -0.1298375f, 0.0704451f,  0.0651420f, 0.1197187f,  0.1140933f,  0.0547417f,  -0.1408818f,
       -0.0565077f, 0.0153770f,  -0.1723765f, 0.0302536f, -0.1720522f, 0.1721924f,  -0.0277676f, 0.1217176f},
      {0.1335476f, -0.0798768f, -0.1256001f, -0.0555518f, 0.0162756f,  0.1323670f,  0.0731772f,  0.0212993f,
       0.0072618f, 0.0397605f,  0.0464602f,  0.0887792f,  0.0060224f,  0.1080991f,  0.0830178f,  0.1653384f,
       0.0798418f, -0.1128676f, 0.1236111f,  -0.1090344f, -0.1305821f, 0.1371153f,  0.0929448f,  0.1447880f,
       0.1439133f, -0.0474658f, -0.0023591f, 0.0863819f,  0.0067025f,  -0.0828647f, -0.1459741f, 0.0661382f},
      {0.0775701f,  -0.0107607f, 0.0052288f,  0.1162598f,  -0.1544264f, 0.0348644f,  -0.0039653f, -0.0166445f,
       -0.1122926f, -0.0970989f, -0.0087400f, -0.1733506f, -0.0640349f, 0.1163430f,  0.0488566f,  0.0603584f,
       0.0802175f,  -0.1016426f, 0.0904419f,  0.0138907f,  0.1043417f,  -0.0640525f, -0.1136816f, -0.1598310f,
       0.0628116f,  -0.0017224f, 0.1626921f,  0.0660481f,  -0.0982667f, -0.0700596f, -0.0294323f, 0.0861625f},
      {-0.1675477f, 0.0272436f,  -0.0035242f, 0.1187083f,  -0.1380870f, -0.0157775f, -0.0697915f, -0.0699622f,
       -0.1342763f, 0.0789961f,  -0.1271438f, 0.0872695f,  0.0581549f,  -0.0607590f, -0.0108511f, -0.0995454f,
       -0.1476832f, -0.0206303f, -0.1320541f, -0.1646389f, 0.1347268f,  -0.0175878f, -0.1171055f, 0.0748758f,
       0.1002617f,  -0.0571866f, -0.1023152f, 0.0317932f,  0.0121790f,  -0.0910829f, -0.1037444f, -0.1608724f},
      {-0.3124542f, 0.0764635f,  -4.0404196f, 2.4405448f,  -0.5277085f, -0.0794460f, 0.0084510f,  0.0413676f,
       -0.2665683f, -1.1282016f, -1.7190089f, -0.1607474f, 0.2719716f,  0.6015427f,  -0.1233412f, -0.1913827f,
       -0.6120520f, -1.3843068f, -0.2412984f, -3.1972845f, -0.1185272f, -0.0387298f, -0.2240285f, 0.0533012f,
       0.0504851f,  0.0610988f,  -0.1001489f, -1.1528584f, -0.3533484f, -0.0123490f, -0.0334515f, -1.2301358f},
      {0.4601654f,  -0.1414209f, -0.9621689f,  1.8137573f,  -2.2838986f, -4.4931846f, -0.1572768f, 0.1072069f,
       5.4528723f,  2.2122884f,  -0.3047283f,  -0.0339041f, -1.0866505f, -2.9726090f, -0.1335476f, -0.2342451f,
       -0.0534304f, -0.9333688f, -29.1695328f, 2.0819838f,  2.5638790f,  0.0637428f,  -3.7582626f, -27.0329189f,
       0.0063954f,  -0.2693702f, -0.0146772f,  1.8390841f,  0.8366699f,  -0.2030648f, 0.1137383f,  -0.6989926f},
      {-0.1743059f, -0.0957818f, -0.0871742f, -0.1385888f, -0.1365321f, -0.0919264f, -0.1399330f, 0.0151470f,
       0.1561736f,  0.0304706f,  0.1576773f,  -0.1426032f, -0.0184744f, -0.0060727f, 0.0556644f,  0.0737400f,
       -0.0456601f, -0.2015950f, 0.0249077f,  -0.0187826f, 0.0792705f,  0.1462519f,  -0.0432748f, 0.0854118f,
       -0.0254023f, -0.0932964f, 0.0814000f,  -0.0787024f, -0.1832910f, -0.0786179f, 0.1766943f,  -0.0088678f},
      {-0.5439317f, -0.1930895f, -1.0358741f, 0.4872003f, 0.6833679f, 1.0468842f,  -0.0627756f, 0.0198605f,
       0.7245910f,  0.6532924f,  0.7456506f,  0.0358964f, 0.2300356f, 0.1437002f,  -0.1478491f, -0.0421908f,
       -0.0789506f, 0.2844093f,  0.2296336f,  0.4280334f, 1.4064584f, -0.1321349f, -0.8637751f, -0.1172594f,
       -0.0362588f, 0.7996452f,  -0.0449324f, 1.2125486f, 0.0968685f, -0.1714050f, -0.2332757f, 0.8290989f},
      {-0.0017863f, 0.0457680f,  -0.1074851f, 0.1084963f,  -0.1220080f, 0.0877163f,  0.1203982f,  -0.0686339f,
       0.1015984f,  -0.1207048f, -0.1723345f, 0.1024277f,  -0.1272804f, -0.1729792f, -0.1319194f, -0.0493638f,
       0.1197342f,  0.1245080f,  -0.1654372f, 0.0882649f,  0.0901894f,  0.1552375f,  0.1640406f,  0.1594699f,
       -0.0598430f, 0.1478111f,  -0.0616796f, -0.1181406f, -0.1052980f, -0.0984066f, 0.0466656f,  -0.0873392f},
      {0.1106081f,  -0.1091835f, -0.0491951f, 0.1428439f,  -0.0186455f, -0.1435021f, -0.0600320f, -0.0949400f,
       -0.1443260f, -0.1643064f, 0.1652100f,  0.0036460f,  0.0288626f,  0.0818249f,  0.1190063f,  0.1581414f,
       0.0098145f,  0.1525386f,  -0.0470744f, -0.0174385f, -0.0032746f, -0.1561369f, -0.0895720f, 0.1446918f,
       0.1006111f,  0.0952710f,  -0.1043464f, 0.1760491f,  0.1751994f,  -0.0237520f, -0.1052991f, -0.1153077f},
      {-0.1684862f, 0.0088422f,  -0.1341807f, 0.1154328f,  -0.1703036f, -0.1689639f, -0.0292963f, -0.1486230f,
       -0.0202071f, 0.0108027f,  0.1484894f,  -0.1215195f, 0.0628160f,  0.0719851f,  0.0958405f,  0.0008012f,
       -0.0687633f, 0.0022042f,  -0.0232379f, 0.0917159f,  0.1057866f,  -0.0831145f, -0.0961659f, -0.1693817f,
       -0.1395387f, -0.1479967f, -0.0266380f, 0.1574190f,  0.0133269f,  -0.0700487f, -0.0594231f, 0.1698502f},
      {0.3639083f,  -0.1561024f, -0.7568483f, 0.1935690f,  0.2883060f,  0.2512229f,  -0.1334913f, 0.0112297f,
       0.0304261f,  0.4176840f,  -1.7556530f, -0.0909049f, 0.2336213f,  -2.4152300f, -0.0734550f, -0.0934253f,
       -0.0444598f, -1.5052693f, -0.0080532f, -0.1239790f, 0.0072221f,  -0.1124994f, -0.4956763f, 0.6296224f,
       -0.1594838f, 1.8049315f,  -0.0764750f, 0.6222402f,  -0.2394568f, -0.1180138f, 0.0719956f,  0.1186023f},
      {-1.7439748f, -0.1896478f, -0.3346063f, 1.9717994f,  -0.3763428f, -1.3512611f, -0.1285691f, -0.1149345f,
       -0.6938587f, -1.0748692f, 1.6610687f,  -0.2358596f, 2.6839828f,  2.5736220f,  -0.2106378f, -0.0970192f,
       -0.4411264f, 2.9166622f,  -0.9682972f, 1.4566983f,  -0.8942411f, 0.0767526f,  -0.2383756f, -0.0954847f,
       -0.0252277f, 0.5873390f,  0.0485610f,  1.2839676f,  -1.0016359f, -0.0991812f, -0.0468751f, 1.3210641f},
      {0.0135437f,  -0.0879198f, -0.1094052f, -0.1025681f, 0.1451267f,  0.0630836f,  -0.0467955f, 0.0920872f,
       0.0147826f,  0.1714088f,  -0.0018927f, -0.0162302f, 0.1139753f,  -0.0322800f, -0.0280083f, -0.1685120f,
       0.0881822f,  0.1222224f,  -0.0225731f, 0.0995662f,  -0.0746114f, 0.1649396f,  -0.1346789f, -0.0861693f,
       -0.0556903f, -0.0376145f, 0.0879924f,  0.0641201f,  -0.1291527f, 0.0164047f,  0.0979619f,  -0.0305348f},
      {1.4435934f,  -0.1033136f, -2.0697176f, 1.8404082f,  1.5736065f,  -0.7922245f, -0.1000865f, 0.0273494f,
       -0.9065717f, 1.3046484f,  -0.3803423f, -0.2029626f, 1.8804103f,  -0.5049760f, -0.1332424f, -0.2173712f,
       1.1021659f,  -0.6780686f, -0.2187140f, -1.5054095f, 0.0034971f,  -0.1576441f, 1.3025562f,  0.9059022f,
       0.0236399f,  2.2910061f,  -0.0750332f, 0.4445155f,  -1.0730588f, -0.1428868f, -0.1658327f, 2.1124966f},
      {-0.1784460f, 0.0730673f,  -5.1235385f, -0.1882881f, -3.5288441f, -0.2259994f, -0.1726394f, -0.1370097f,
       -0.1533520f, -0.1270866f, -4.3133826f, -0.0608662f, 1.3760250f,  1.1956390f,  -0.1297525f, -0.1895235f,
       -0.1225608f, 1.0044372f,  0.0853172f,  -2.3318944f, -1.2085035f, -0.2005011f, -0.6513534f, 0.2713874f,
       0.0829856f,  1.1987237f,  0.0364122f,  0.0853476f,  -2.3690777f, -0.2024412f, -0.0755946f, -3.0887508f},
      {-0.6453744f, -0.1637572f, -0.2874516f, 0.7690926f, 0.7505430f, 0.4669090f,  -0.0990388f, 0.0103152f,
       0.4612448f,  -0.5246852f, 0.1446148f,  0.0650856f, 0.7211487f, -1.6647208f, -0.0023956f, -0.0785235f,
       2.2165341f,  2.5892341f,  -1.0054595f, 1.5223085f, 1.6814858f, -0.0194431f, 0.2862324f,  -1.5743806f,
       -0.1135486f, 0.5293437f,  0.0606122f,  1.4628854f, 0.2489253f, -0.0523651f, -0.2316726f, -0.0536937f},
      {1.0856206f,  -0.0647455f, -0.3253726f, -1.5043118f, 1.2835978f,  -2.8234291f, 0.0278139f,  -0.1607269f,
       0.4859119f,  0.5244958f,  -1.3842341f, -0.0955697f, -1.4327506f, -1.8437506f, -0.0047875f, -0.1666650f,
       -1.3057747f, -1.6061074f, -1.7119917f, -1.1418145f, 0.6116119f,  -0.2265402f, 0.5035372f,  -0.7038661f,
       -0.0783529f, -0.6158929f, -0.1048231f, 0.0385072f,  -0.6218809f, -0.1713473f, -0.1296085f, 0.2307265f},
      {-0.0857327f, -0.0240921f, -0.1274204f, 0.1491305f,  0.1185468f,  -0.0108924f, -0.1143038f, 0.1323865f,
       0.0393746f,  -0.0015919f, 0.0604275f,  -0.0906805f, -0.1383745f, 0.0986694f,  -0.1355748f, 0.0697662f,
       -0.1569561f, -0.1447346f, -0.1763534f, 0.0037572f,  0.0897957f,  0.1148712f,  0.0425909f,  0.0025856f,
       -0.1289866f, 0.1617438f,  -0.0405906f, 0.0672005f,  -0.0178236f, 0.1483060f,  -0.0193279f, -0.1623956f},
      {0.3731324f,  -0.0058753f, 0.7765094f,  -1.7653806f, 0.2843435f,  -0.6492531f, -0.0483371f, -0.0832393f,
       -1.4071836f, -2.0038152f, -0.5736679f, 0.0249140f,  -1.2218778f, 0.0355671f,  -0.0373252f, -0.0358956f,
       -0.4577911f, -2.3789170f, -0.3592008f, -0.7920797f, -2.7878003f, 0.0165473f,  0.8145875f,  -0.4322619f,
       0.0089995f,  0.1495652f,  -0.1798356f, 0.3815477f,  0.1048888f,  -0.0899370f, -0.2200294f, -1.1391734f},
      {0.1598358f,  0.1171069f,  0.0856818f,  -0.0340354f, 0.0366347f,  -0.0047404f, -0.0117805f, 0.0531076f,
       -0.0954451f, -0.0227147f, -0.0362694f, 0.1743660f,  -0.1138828f, 0.0401388f,  0.1356554f,  0.0545887f,
       0.0459410f,  -0.0985279f, 0.0788853f,  -0.1213196f, 0.0940189f,  0.0302987f,  0.1172330f,  -0.1364847f,
       -0.1695189f, 0.0857164f,  -0.0119831f, -0.0472912f, 0.0749008f,  -0.1740327f, 0.0446429f,  -0.1236778f},
  };

  ALPAKA_STATIC_ACC_MEM_GLOBAL const float bias_output_layer[1] = {2.1143713f};

  ALPAKA_STATIC_ACC_MEM_GLOBAL const float wgtT_output_layer[32][1] = {
      {-1.3546265f}, {0.0473848f}, {-1.1066765f}, {-0.7856320f}, {1.8970097f},  {1.7004912f}, {0.0171833f},
      {0.1014843f},  {1.0655588f}, {1.3870277f},  {1.4482819f},  {0.0146788f},  {1.7867852f}, {-0.4464278f},
      {0.1595784f},  {0.0216729f}, {-0.8184820f}, {-0.5278643f}, {3.9873812f},  {0.8342983f}, {1.2236406f},
      {0.0329035f},  {2.1368678f}, {1.2096084f},  {0.0103834f},  {-1.4747533f}, {0.1212516f}, {-1.5780485f},
      {-0.7259769f}, {0.0657829f}, {-0.0011842f}, {-1.9428015f},
  };

}  //namespace lst::t5dnn

namespace lst::t4dnn {
  ALPAKA_STATIC_ACC_MEM_GLOBAL const float bias_layer1[32] = { 
    -0.1938530f, -1.6106808f, -0.9793485f, -1.2317686f, -0.1720161f, -0.1089247f, -0.2165194f, 0.0363943f, 1.3584901f, -2.7267990f, -0.2321570f, -3.0648484f, 0.3649260f, 0.2197024f, 0.0392577f, 0.6557668f, 0.1907549f, 0.3963236f, 0.0086576f, -0.2301822f, -1.5745945f, 1.0811738f, -0.2439629f, -0.1208644f, 0.0785669f, 0.3751839f, -0.0231161f, 2.5385480f, -0.0546612f, 0.2792113f, 3.2879782f, -2.9836135f };


  ALPAKA_STATIC_ACC_MEM_GLOBAL const float wgtT_layer1[15][32] = { //change to 15 features from 14
      { -1.5783896f, -0.0197434f, 1.0018859f, -1.8963747f, 0.1913050f, 0.2548190f, -0.3103749f, -0.1500776f, -4.9278131f, -1.1818948f, -0.0643470f, -0.5166049f, -1.4782641f, -0.0035541f, 0.1755850f, 0.0143971f, -0.1920800f, 0.3206051f, 0.1518826f, -0.5012313f, 1.4542836f, -0.0395743f, -0.0053149f, -0.0654501f, -0.1598596f, 0.2541514f, -0.0068226f, -1.5358663f, 0.0043672f, 1.5508921f, 0.7569684f, -3.1345179f },
      { -0.0323230f, -1.1788718f, 0.0420306f, -3.8412571f, -0.1972468f, -0.0771848f, -2.1707973f, 0.0275635f, -5.2215257f, 1.9232823f, -2.3841298f, -0.5071236f, 0.3427821f, -0.1490689f, -0.1454333f, -0.6227317f, 0.2070314f, -1.7067101f, -0.1391607f, -2.4328017f, -0.6101050f, -0.1126325f, 0.1904961f, 0.1002161f, -0.0507535f, -0.3327868f, 0.0441092f, -5.5609522f, 0.2067890f, -1.8536978f, -4.7434082f, 2.1923771f },
      { -0.4519598f, 2.4375715f, -0.1812129f, 2.9722371f, -0.0415547f, -0.2385255f, 0.7065709f, -0.2429468f, -0.1508949f, 5.9982104f, -0.2632052f, 4.6745386f, -3.4147947f, 0.0497049f, -0.0249144f, -0.2869464f, -0.0389317f, -0.5146832f, 0.1433246f, -0.3592302f, 3.1416876f, 0.5008826f, -0.2284265f, 0.1970831f, -0.0728053f, 1.7724118f, -0.2184099f, 1.9101715f, -0.0724921f, -4.2644134f, -3.7296476f, -1.4559976f },
      { 4.0424185f, -0.4593891f, -14.7118931f, 0.9806657f, -0.2358829f, 0.0077738f, -15.2639112f, -0.1070618f, -4.1316099f, 0.5967378f, -0.5882843f, 10.4961843f, 10.9559908f, -0.1586479f, 0.0358673f, -4.7277617f, -0.1707405f, -3.7500825f, 0.1147092f, -0.8953476f, -13.8263254f, 21.2436161f, 0.1982597f, -0.1513778f, 0.1345153f, 3.6463716f, 0.0187857f, 4.7060161f, 0.2006886f, 8.8517218f, -6.3705258f, 0.9746490f },
      { 1.9982690f, -2.7680249f, 0.7347140f, -4.9405828f, -0.0948219f, 0.2014539f, -0.9773121f, 0.1437318f, -0.8268005f, 4.6872420f, 0.5577724f, 3.2237630f, 3.5137188f, -0.1907584f, 0.2376647f, -1.2254405f, -0.0752562f, 1.7698464f, 0.1154505f, 1.0874195f, 2.1121094f, 1.7934083f, -0.1797844f, 0.2221535f, 0.2505568f, 2.8552592f, 0.0586959f, -6.1215873f, 0.2121499f, -1.7320677f, -4.8418479f, -1.1238765f },
      { -0.2289034f, -2.5036128f, 3.7780337f, 3.0852065f, -0.1343177f, 0.1935048f, -1.5854142f, 0.0245374f, 2.2943580f, 4.7105041f, 0.7908246f, -4.0736647f, 4.2180257f, 0.0795696f, 0.0672781f, 1.7840073f, 0.0321732f, -1.0094237f, -0.1647366f, 0.2697459f, 0.5438637f, -3.8544133f, 0.1525840f, -0.0628972f, 0.0095439f, 1.1525844f, -0.0600096f, 2.5360625f, -0.1027902f, 3.7564628f, -1.7428145f, 3.4801929f },
      { -17.9520111f, -5.1577125f, 11.6228409f, 9.9735708f, -0.2196188f, -0.1902050f, 10.4640379f, 0.1679053f, -2.6798685f, -1.8281138f, -1.2962890f, 9.1998053f, -1.1198782f, -0.1783908f, 0.2339523f, 27.3793068f, 0.2464152f, -24.4528446f, 0.0668802f, -1.4607321f, -17.0037823f, -27.4414253f, -0.0376607f, -0.0356298f, -0.0164784f, 7.8471236f, -0.0418878f, -7.1400480f, 0.2207660f, 9.6506081f, 4.4568114f, -4.2769918f },
      { -3.5247252f, -4.1957841f, 0.1169891f, -8.0593309f, 0.0985785f, 0.0144368f, 5.7771177f, 0.1639363f, -0.8148338f, -0.7475876f, 2.4554894f, 3.1003304f, 7.9691162f, -0.1281418f, -0.0922685f, 4.1329870f, 0.0624594f, 1.1611469f, 0.1942408f, 1.7069412f, 2.9570463f, 1.0038759f, -0.0531590f, 0.1586629f, -0.1587750f, 0.6187991f, -0.0197176f, -6.3726254f, 0.1492802f, 5.0771203f, -4.1225238f, 2.5175102f },
      { -0.9238175f, -6.8058419f, 0.3715383f, 2.4754665f, 0.0211545f, 0.0424961f, 0.5409519f, 0.0313358f, 3.6084061f, 1.5326464f, 0.9125118f, -2.1387386f, 3.1644704f, 0.1286607f, -0.2408436f, -2.4495842f, 0.0398431f, 4.9617982f, -0.1345326f, 0.7110080f, 1.6593800f, 0.7986243f, 0.1053016f, 0.0064850f, 0.2070430f, -1.3166635f, -0.2186579f, 2.7583120f, -0.0342337f, 1.5134869f, -0.0982526f, 0.2131551f },
      { 25.0900269f, 4.5096250f, 26.2597332f, -10.6054964f, -0.1017121f, 0.0376401f, -20.3995495f, 0.0800076f, -1.0385346f, -0.9655827f, -1.2680068f, 3.6101475f, -14.0588751f, -0.0770152f, -0.0244079f, -23.9706669f, 0.0120068f, 26.7785549f, -0.2349449f, -1.6929593f, -8.2235088f, -2.4049308f, -0.0481306f, -0.1150556f, -0.0178902f, -33.8714714f, 0.0672307f, -1.2526298f, 0.0249793f, 10.5758762f, -0.8366162f, 5.6427927f },
      { 4.8881898f, -5.5619740f, -2.3903522f, -0.3967170f, -0.0703238f, -0.0815366f, -3.4605989f, -0.2487229f, -0.5211745f, -2.6285551f, 2.7018163f, -0.0665545f, 3.3781495f, 0.2479733f, 0.0864563f, 0.1695568f, 0.2168253f, 2.5937903f, -0.0658502f, 4.5441899f, -2.4659474f, -1.2243990f, 0.0193037f, -0.0049547f, -0.1206488f, -4.0809941f, 0.1569869f, -6.8210092f, -0.1845067f, -3.0511904f, 5.4049993f, -1.2931585f },
      { -1.2408192f, -4.9623857f, 1.1523131f, 3.5961406f, -0.0479798f, -0.1206167f, -0.2812077f, -0.1807597f, 3.7030859f, 0.5542278f, 0.8532307f, 1.4186671f, 3.0052416f, -0.2654289f, -0.1005473f, 4.6804538f, 0.1297973f, -1.6070895f, -0.2458433f, 0.3294129f, 3.1050849f, 1.3174005f, 0.0186061f, 0.1899356f, 0.0682869f, 2.0747037f, 0.1038412f, 4.9342442f, 0.1336346f, -5.5186248f, 1.0494834f, -0.0469686f },
      { 0.1742631f, 0.0008628f, -0.1808991f, 0.4348904f, -0.1037594f, -0.0067357f, 0.5022426f, -0.1662740f, -0.2442647f, 0.2640582f, -0.3918295f, 0.1791138f, -0.0951412f, -0.1318723f, -0.2038776f, -0.0102658f, -0.0458147f, -0.3094887f, -0.0271911f, 0.1796783f, -0.1301247f, -0.1929381f, -0.1769316f, 0.0030312f, -0.2080299f, -0.1775875f, -0.2441061f, -0.0790383f, -0.2343525f, 0.0819022f, -0.2774595f, 1.1294326f },
      { 0.4960748f, 1.1549081f, 0.1480215f, 0.2757051f, -0.0105131f, -0.1848480f, -0.0792020f, -0.0138302f, 0.2873595f, -0.0588831f, 0.3289716f, 0.3511639f, -0.1409290f, -0.0536946f, -0.1995156f, -0.4656076f, -0.2367996f, 0.0266291f, -0.1711239f, -0.1199273f, -0.3602618f, -0.3778926f, 0.0994466f, -0.1806260f, -0.1036827f, -0.3743588f, -0.2348039f, -0.0746341f, -0.1923131f, 0.0285020f, -0.1482830f, 1.1780670f },
      { -3.2404020f, -4.3702426f, 0.1826694f, 0.2115051f, -0.0438995f, -0.0507414f, 3.8081088f, 0.2050669f, -5.5813203f, 0.3484841f, -18.4267769f, 0.2228292f, 1.3791325f, 0.0282510f, 0.0033518f, 2.2638426f, -0.0124395f, -2.2864418f, -0.2283243f, 20.8140812f, -0.0014827f, -1.2357905f, 0.2036376f, -0.0662558f, 0.0355609f, 3.5579641f, 0.0927755f, 0.4848828f, 0.0003313f, 1.0622200f, -0.2939048f, 0.3680546f },
  }; 

  ALPAKA_STATIC_ACC_MEM_GLOBAL const float bias_layer2[32] = { 
      -1.7805377f, -3.1253502f, -0.1250067f, 0.3443022f, 0.1639411f, -1.1907617f, -0.1644851f, -0.3153713f, 1.4837792f, -0.1580946f, -2.4919243f, -1.5678383f, -3.1124530f, 0.7716584f, 0.0559680f, -0.2048505f, -0.0853927f, 2.4252951f, -0.1208013f, 0.1848427f, 0.4426963f, 0.1158387f, -2.8023295f, -0.1696607f, 0.5371573f, -0.2021673f, -0.2540481f, 4.1012273f, -0.4005964f, -3.1184099f, -0.2395370f, -0.3833415f };

  ALPAKA_STATIC_ACC_MEM_GLOBAL const float wgtT_layer2[32][32] =  {
      { 0.2007734f, -1.7499833f, -0.2268094f, -0.3948543f, -5.1335168f, -0.0506650f, -0.0026232f, -0.1826446f, -0.7874425f, 0.0061404f, 0.0382357f, 1.1683911f, 0.3716354f, -1.5844785f, -15.6456289f, -0.1475909f, -2.0443544f, 2.0978279f, -0.1240106f, -1.0478762f, -0.7997448f, -8.9730110f, -3.3537693f, -0.1174697f, 1.8862317f, -0.1434759f, 0.0360267f, -0.9196461f, 1.0754343f, -3.4322250f, -0.0111027f, -0.5913252f },
      { -2.4094267f, -1.6105160f, 0.0456946f, 1.0374309f, -47.2181129f, -1.6183089f, 0.0773863f, -0.2461472f, 2.7110410f, -0.0198567f, -2.3029568f, -1.4084091f, -0.3595637f, -4.2454739f, -5.5686808f, -0.0159750f, -1.1616656f, -12.1882753f, -0.0694123f, -36.3887405f, -0.0628419f, -47.0122299f, 3.2072914f, -0.1528673f, -3.4418020f, -0.0895105f, -0.2045254f, -2.1540773f, -1.3945946f, -1.1956002f, -0.1618078f, -0.0184174f },
      { 1.8154753f, 1.0299741f, -0.0351877f, -3.2583072f, -14.9121399f, 2.0248194f, -0.4939865f, -0.1031684f, 0.0120797f, -0.1230847f, 2.9966621f, -4.1662970f, 0.5023903f, 2.8519466f, -2.1738133f, -0.0315359f, -1.6341566f, -0.1724820f, -0.2072441f, 1.3426387f, 0.4287526f, 1.3502902f, 3.5738368f, -0.1483770f, 1.1089187f, -0.3350360f, 0.0465012f, -1.1546036f, 2.7583580f, 2.3619239f, -0.0335679f, -0.4274184f },
      { -1.4085463f, 0.7504571f, -0.2489551f, -11.1813536f, 1.6691217f, -0.5412280f, -0.0769858f, -0.0246740f, -13.7991152f, -0.0998122f, 4.0906949f, -2.3971899f, 1.4042974f, -1.4685712f, -24.7754250f, -0.1034378f, -1.8743522f, -0.4160653f, -0.2438343f, -0.8318698f, -3.0851889f, 1.1103702f, 3.2861929f, -0.0410600f, 3.2261550f, -0.1125398f, -0.0601404f, 1.3028957f, 2.0878510f, -0.1745160f, 0.0213855f, 4.4527383f },
      { -0.0063103f, 0.1544324f, -0.0828038f, -0.1566234f, 0.0184991f, 0.1137672f, -0.1751621f, -0.1002659f, 0.0696752f, -0.0731633f, -0.1153149f, -0.1255700f, 0.0483269f, -0.1187393f, -0.0114305f, -0.1653538f, -0.0953400f, -0.0785156f, 0.0276153f, 0.0615756f, 0.1429990f, -0.1601569f, -0.1178731f, 0.1319888f, -0.0035649f, -0.1151866f, -0.1345109f, 0.0364844f, 0.1072974f, -0.0108543f, 0.0014073f, -0.0741766f },
      { -0.1510352f, 0.1565998f, -0.0300891f, 0.0353418f, -0.1024404f, -0.0551396f, -0.0399899f, 0.0262355f, 0.1402494f, 0.0658716f, 0.1690161f, 0.1432567f, 0.0913105f, -0.0143330f, 0.0769158f, 0.1529271f, -0.1708061f, -0.1720859f, 0.0330431f, 0.1415628f, 0.0938873f, -0.0554219f, -0.0136137f, 0.0783401f, 0.0080011f, -0.0831877f, -0.1743199f, 0.1297353f, 0.1128341f, 0.0260310f, 0.1481483f, 0.0951474f },
      { 0.1567561f, -0.0124376f, -0.1179544f, -1.5403576f, -1.1901586f, -0.7449169f, -0.0427354f, -0.1761089f, 3.4428418f, -0.0317245f, -1.3760458f, -1.5503165f, 0.5744553f, 0.9737695f, -3.8858025f, 0.0155212f, 0.8668846f, 0.7534489f, -0.2559760f, -0.7382154f, -0.8970435f, -1.8462600f, 2.4414051f, 0.0259175f, -3.0439985f, -0.2876527f, -0.0046784f, -2.9909906f, -0.6484666f, -4.6483507f, -0.0829311f, -5.9574084f },
      { -0.0505093f, 0.0803345f, 0.0773166f, 0.0017958f, -0.1613868f, -0.0338482f, 0.0813137f, 0.0128904f, 0.0566779f, -0.0659631f, 0.1010706f, 0.1227024f, -0.1348319f, -0.1509492f, 0.1419986f, 0.0874632f, 0.1476488f, 0.1509786f, 0.1370881f, 0.0469525f, 0.1250499f, 0.1710040f, 0.0170719f, 0.0867932f, 0.0443151f, -0.1096441f, -0.0291205f, -0.0365566f, -0.1136624f, -0.0034658f, -0.0347877f, 0.1194772f },
      { 0.7428648f, -0.9866536f, 0.0230069f, -24.5302868f, 0.4289024f, -10.3971834f, -0.3164869f, -0.1406114f, 0.6833540f, -0.1896377f, 0.6419882f, 0.2923399f, -1.8532656f, 0.6629974f, -20.3545189f, -0.0941834f, 1.0341411f, -4.2711582f, -0.0244894f, -1.5399978f, -0.3362104f, 2.6479926f, -1.4296565f, -0.0686195f, 1.3193909f, -0.1484889f, -0.2440606f, -1.7585260f, -0.2087332f, -0.7746196f, -0.0877022f, -2.3201756f },
      { -0.3901196f, -5.7551398f, -0.1396244f, -3.0179722f, -1.3139660f, -7.0213652f, -0.1709730f, -0.1442109f, 0.5980780f, -0.1163347f, -4.2668376f, -1.2992969f, 2.0635271f, 1.8874115f, -0.0478318f, -0.1418058f, -1.5199261f, -3.4772484f, -0.0700846f, -1.9467427f, -0.6812707f, 0.2041121f, -1.0605668f, -0.0352152f, -0.0952313f, -0.0028691f, 0.0244481f, -1.0228471f, 1.6701416f, -0.2703502f, -0.1652695f, 0.2669029f },
      { 0.8469566f, 0.7658535f, -0.0406710f, -0.4973436f, -0.3305222f, -0.2625155f, -0.1220116f, -0.0124029f, 0.2296316f, -0.0853173f, -0.2082857f, 0.1903202f, -12.1837053f, 0.4028245f, -0.1594989f, -0.1008779f, -1.6172256f, -1.7937104f, -0.2551629f, -7.4850683f, -2.8166270f, -1.0819933f, 0.2738486f, -0.0319206f, -0.3042900f, -0.1755512f, -0.0023464f, 0.5659306f, 0.2636103f, 0.6983744f, -0.1066434f, -0.0479119f },
      { 4.3620377f, -0.9225016f, 0.0036646f, -2.3510430f, 3.7904398f, 2.7290037f, -0.1882132f, -0.1586279f, -1.1510396f, -0.0047188f, 2.8468978f, 0.2178947f, 0.9992052f, 6.7754545f, -6.4184136f, 0.0401434f, -0.9305805f, -5.1243343f, -0.0943653f, 1.7558259f, -0.3173318f, -3.3464460f, 2.7159204f, -0.1579730f, 3.8452575f, -0.0994467f, 0.0095597f, -3.1372969f, 1.2064432f, 2.0273671f, -0.1399231f, -0.9559442f },
      { 2.5599380f, 1.8781691f, -0.3843989f, 2.8265846f, -1.6300508f, -1.7951615f, -0.0106055f, -0.1958161f, 3.3155348f, -0.0475496f, 1.2236319f, 2.6985734f, -1.7185495f, -0.6523790f, -0.8608418f, -0.2528464f, 1.7359272f, 1.3119426f, -0.0841948f, 0.2845795f, 1.4296846f, 0.8910990f, -0.1983801f, -0.1557713f, -0.9554158f, 0.0244986f, -0.1525082f, -0.0682055f, -2.2741587f, -0.5166705f, 0.0717166f, 1.2476277f },
      { 0.0862707f, 0.0615357f, 0.0184298f, -0.0233469f, -0.1646238f, -0.0364097f, -0.0445966f, -0.0899554f, 0.0117223f, 0.0235161f, -0.0505339f, 0.0512476f, -0.0051680f, -0.1139385f, -0.0149839f, -0.0421795f, 0.1312810f, 0.1580376f, -0.1051596f, -0.0321385f, -0.0028651f, 0.0097725f, -0.0685469f, -0.1434942f, 0.1794429f, 0.1418760f, 0.0139074f, 0.0516281f, 0.1409759f, -0.0786318f, -0.0231664f, -0.1081346f },
      { -0.1634906f, -0.1103657f, -0.0365634f, -0.0739597f, 0.1343113f, 0.0646949f, -0.1596135f, 0.1235498f, -0.0377068f, 0.0261764f, 0.1557566f, -0.1280882f, -0.1581650f, 0.0275690f, -0.1452805f, -0.1456738f, -0.0069115f, -0.0374593f, 0.0359501f, -0.1376580f, -0.1032387f, -0.0129125f, -0.0109366f, -0.1157426f, 0.0308778f, -0.1582802f, -0.0844342f, -0.1054756f, -0.0888776f, 0.1649758f, -0.0492608f, -0.1665369f },
      { 0.5787284f, 2.1074195f, -0.2617842f, 0.4534934f, 1.2023879f, 2.5359752f, -0.4010326f, -0.0380043f, -1.4754506f, -0.1393089f, -0.6261511f, -2.4513512f, 0.8892574f, -2.0799074f, -0.4763289f, 0.0380093f, 2.4328253f, 0.9240434f, 0.0659279f, -0.4517778f, -1.9458041f, -2.6214509f, -0.8106068f, -0.0132609f, 1.0300100f, -0.0610092f, 0.0705296f, -6.5245533f, 0.9968379f, -0.2689732f, -0.2053744f, -6.4276428f },
      { -0.1118196f, 0.1680656f, 0.1683323f, -0.0154550f, 0.0408673f, -0.0428852f, 0.1300827f, 0.0572216f, -0.1101268f, 0.0950495f, -0.1510889f, 0.1612357f, -0.1453494f, -0.0075075f, -0.1141232f, 0.1273763f, 0.1071387f, 0.1198836f, -0.1171314f, -0.1180805f, 0.0410247f, -0.1263459f, 0.0641687f, 0.0727266f, 0.0963368f, 0.0834599f, 0.0405060f, 0.1530724f, 0.0806595f, -0.1181373f, -0.1403588f, 0.1112962f },
      { -1.4000214f, 0.4481736f, -0.2634047f, -2.7163579f, -4.0779262f, -3.4512460f, -0.1013887f, -0.2536754f, -3.9437001f, 0.0483998f, 1.0401038f, 0.7832195f, -0.2550726f, -4.7376671f, 3.2354336f, -0.1240246f, -1.7065395f, -0.4610622f, -0.0159298f, 0.0267032f, -0.5760916f, 3.0838001f, -1.4196807f, -0.1014740f, 1.8115239f, -0.0410827f, -0.0602455f, 1.1409667f, 1.4683101f, 1.3967496f, -0.0470172f, 3.3336413f },
      { 0.1685697f, -0.0737262f, -0.0703373f, -0.1426704f, 0.0933458f, 0.1272143f, -0.0353881f, 0.0505708f, -0.1288197f, 0.1670105f, 0.1340230f, -0.1311693f, -0.1212349f, 0.0668269f, 0.0529646f, 0.1113736f, -0.0227639f, 0.0183489f, 0.1673280f, -0.0383961f, -0.1655566f, 0.1445438f, -0.0764465f, 0.0131564f, 0.1072887f, 0.1188982f, -0.1683194f, -0.1568711f, 0.0932050f, -0.1065547f, -0.1052609f, -0.0360789f },
      { 0.8821529f, -38.6879311f, -0.1273285f, -2.3840210f, 0.8709008f, -6.3632464f, -0.2502075f, 0.0309206f, -2.2722642f, -0.1710952f, 0.7583234f, -0.1345303f, -8.5576410f, 0.0050881f, -0.9061184f, -0.0330905f, -1.0001498f, -1.0381254f, -0.0922666f, -6.8128104f, -0.1016560f, 0.8404619f, -0.9252629f, -0.1231215f, -0.0239267f, -0.0483066f, -0.1076545f, 0.4273748f, -0.5145041f, 1.0006657f, -0.0996533f, -1.4917420f },
      { 2.8577137f, 2.1417840f, 0.1130488f, 1.9752849f, 1.2258439f, 3.2438912f, 0.0263333f, -0.1101421f, -0.1930058f, 0.0074170f, -0.3303185f, 0.2543949f, -0.2044311f, 2.3263509f, 1.3992013f, 0.0588006f, 0.7307509f, -0.5725979f, -0.1465127f, 1.9463553f, 0.4934372f, -3.7426894f, 2.7813499f, -0.0998996f, 0.2997207f, 0.0272199f, -0.2622165f, 2.3759234f, 1.8091201f, -1.4560790f, -0.1587209f, 1.2689735f },
      { 2.7191207f, 1.3448645f, 0.0134794f, 1.4073169f, 2.3998144f, 4.4822593f, -0.1299610f, -0.2001121f, -3.6495080f, -0.0189942f, 4.1299119f, -0.8929613f, -0.5577841f, -1.2027349f, -0.0691792f, -0.1027140f, 3.4696727f, -0.4318787f, -0.2145810f, -0.5580984f, -0.9771602f, 1.0931543f, 0.3626069f, -0.0622297f, 1.0418355f, -0.0187310f, -0.1186360f, -0.2452302f, -6.5601935f, 5.1040878f, -0.2207566f, 2.1619196f },
      { -0.0601631f, 0.1276046f, -0.0316337f, -0.0289659f, 0.0706129f, -0.0160236f, 0.0947270f, 0.1499662f, 0.1217570f, 0.1257238f, 0.1085402f, 0.0236456f, 0.0899275f, -0.1412562f, 0.0489897f, -0.0746026f, 0.0928106f, 0.0181530f, 0.0964766f, 0.0131149f, -0.0206836f, 0.1394900f, -0.0556758f, -0.1107869f, 0.1492839f, -0.0553684f, 0.0380850f, -0.0401179f, 0.0138324f, 0.0641192f, 0.1635671f, 0.0713236f },
      { -0.0610297f, 0.1538781f, -0.1743298f, -0.0509828f, -0.1339913f, -0.1663157f, 0.1466454f, -0.0910168f, 0.0879483f, -0.0600668f, -0.0217271f, -0.0131858f, 0.0647472f, 0.1518315f, -0.0931527f, 0.0989450f, 0.0174588f, 0.1615597f, -0.1263883f, 0.0591621f, 0.0451308f, 0.1516563f, 0.0465677f, 0.0861056f, 0.1183866f, -0.0764153f, -0.1295200f, 0.1031738f, -0.1371812f, -0.0674542f, -0.0502756f, 0.1450379f },
      { -0.0798748f, 0.1189943f, -0.0739217f, -0.0137888f, -0.1032502f, 0.0414798f, 0.0469544f, -0.1167445f, -0.0807582f, 0.1750618f, -0.0297367f, 0.1383567f, -0.0215194f, -0.0723490f, -0.0201333f, -0.0344761f, 0.0516983f, -0.0463728f, 0.0375835f, 0.0989208f, -0.1676959f, -0.1228753f, 0.0655619f, -0.1401253f, -0.0735273f, -0.0002251f, -0.0659178f, -0.0816474f, 0.1112973f, -0.1724820f, 0.0275961f, 0.1068606f },
      { -0.2390425f, -7.6606121f, -0.3208938f, -3.1825783f, 0.5110314f, 1.3012966f, -0.3514387f, 0.0335876f, -15.0113363f, -0.0563378f, -0.0871174f, 5.0358143f, -1.3998626f, -0.2643267f, 1.3876489f, -0.0036977f, -3.4766669f, -0.8438825f, -0.2539951f, 0.5601410f, -6.2702513f, 2.3433471f, -5.0238333f, 0.1279628f, 4.4119067f, -0.1446540f, -0.0598285f, 0.1625802f, 1.1946014f, -2.3053422f, -0.0315636f, -0.3594812f },
      { -0.0918735f, -0.1434721f, -0.1490267f, -0.0882393f, 0.1106707f, 0.0022881f, 0.1420431f, -0.1000355f, -0.0446464f, -0.0824511f, -0.1512537f, -0.1376598f, 0.0131671f, 0.1053543f, 0.0367546f, -0.1676792f, 0.1372195f, -0.1348794f, -0.0218638f, -0.1164486f, -0.0266874f, -0.1717827f, 0.1098225f, -0.0308052f, -0.1386153f, 0.1411621f, 0.1686330f, 0.1057334f, 0.0774198f, -0.1499174f, 0.1412316f, 0.0721434f },
      { 1.3335937f, -0.4494711f, 0.1100770f, -3.9557383f, -0.8550181f, -2.0680540f, -0.0725347f, 0.0172759f, -1.2634151f, 0.0116457f, -3.7077827f, 1.4355559f, 2.0108566f, -0.3246041f, -6.9133506f, -0.2019152f, -3.8557098f, 1.0345972f, 0.0401504f, 2.5466626f, -9.2475271f, -1.5708715f, -1.4666680f, -0.1126101f, -3.1547914f, 0.0024147f, -0.1694429f, -3.2737832f, -0.0203682f, -0.2339173f, -0.0379237f, -7.8358202f },
      { 0.1122874f, 0.0115576f, -0.1355894f, 0.0059047f, 0.0105692f, -0.0081066f, -0.1053245f, 0.1681534f, 0.0770782f, -0.0813781f, 0.0483134f, 0.0721388f, 0.1015829f, 0.0746404f, -0.0905594f, -0.0103011f, 0.1326226f, -0.1482330f, 0.1273257f, -0.0843185f, 0.0177323f, -0.1593027f, -0.1226488f, 0.0882986f, 0.1426930f, -0.1620617f, -0.0106554f, -0.1006594f, -0.0363395f, 0.0171504f, -0.1737283f, -0.0559453f },
      { -0.7362847f, -1.3653386f, -0.3055426f, -1.2987844f, -3.5002692f, 1.5950587f, -0.0358433f, -0.2071550f, -2.2922516f, 0.0059679f, -0.3442023f, -2.4576507f, -3.1524606f, -11.1590624f, -2.1830966f, -0.1292249f, -2.1101358f, 0.3809301f, -0.1272774f, 1.5846913f, 1.3520594f, -3.1897819f, 2.8223250f, 0.1382751f, 1.2490319f, -0.1668098f, -0.1829865f, -1.9832569f, 1.9821904f, -1.1107957f, -0.0618313f, 1.5373602f },
      { 0.9194612f, -2.9738827f, -0.0716952f, 1.6142392f, -0.0337840f, -2.5133519f, -0.1960522f, 0.0482865f, -0.8713729f, -0.1185795f, 2.6510215f, -0.4528641f, -2.4826612f, 1.5410548f, 3.3821278f, -0.0232601f, 0.1040958f, 0.3172207f, 0.0060489f, 2.1886182f, -0.9981970f, -4.9680400f, 0.8373711f, 0.1445071f, -4.0336614f, 0.0434128f, -0.1096439f, -2.4614410f, -1.9404057f, 3.7021492f, -0.2024356f, 2.2197461f },
      { 0.6892213f, 1.9146076f, -0.2234107f, -1.9110767f, -0.1063331f, -2.7337937f, -0.3462222f, -0.2222168f, -2.8079715f, -0.0722527f, 0.2373101f, -1.3456584f, -1.6327813f, -3.1516097f, 1.3270997f, -0.1635826f, -1.1248624f, -1.3773445f, -0.1962875f, -1.2147837f, -1.1351320f, 0.3891340f, -2.3823814f, 0.0253309f, -2.6969323f, -0.2551913f, -0.1689560f, -0.2142988f, 0.3184828f, 1.2415724f, 0.0095653f, 0.0023091f },
  };

  ALPAKA_STATIC_ACC_MEM_GLOBAL const float bias_output_layer[1] = {-1.3927275f };

  ALPAKA_STATIC_ACC_MEM_GLOBAL const float wgtT_output_layer[32][1] = {
      { -0.3790913f },
      { 0.4239093f },
      { 0.0045694f },
      { 0.8167589f },
      { 0.2042561f },
      { 0.9921045f },
      { -0.0074221f },
      { 0.0272791f },
      { 0.3599825f },
      { -0.0021999f },
      { 0.3437714f },
      { -0.4328828f },
      { 0.6054884f },
      { 0.2646971f },
      { 0.6179491f },
      { 0.0489913f },
      { -1.8556155f },
      { 0.3406543f },
      { -0.0576551f },
      { 0.4501870f },
      { 0.7113523f },
      { 0.2851006f },
      { -0.2578845f },
      { 0.0289577f },
      { -0.3536099f },
      { 0.0256935f },
      { -0.1012838f },
      { 0.3838470f },
      { -0.2290327f },
      { -0.3244404f },
      { 0.0668014f },
      { -0.6087416f },
  };

}  //namespace lst::t4dnn

#endif
