#ifndef RecoTracker_LSTCore_src_alpaka_NeuralNetworkWeights_h
#define RecoTracker_LSTCore_src_alpaka_NeuralNetworkWeights_h

#include <alpaka/alpaka.hpp>

namespace lst::t5dnn {

  ALPAKA_STATIC_ACC_MEM_GLOBAL const float bias_0[32] = {
      0.0838128f,  -0.0951467f, -0.4538043f, -0.1200482f, 0.1697024f,  0.0734245f,  0.0477040f,  -0.1409838f,
      -0.1598700f, 0.1343284f,  0.7158028f,  0.5663804f,  -0.0202696f, -0.0769930f, -0.1565632f, -0.4897312f,
      -0.1904009f, 0.4263237f,  0.1309257f,  0.1497203f,  0.1124899f,  0.3384814f,  -0.2008730f, 0.2663862f,
      -0.0109372f, -0.2767799f, 0.1633506f,  0.6183366f,  2.0648596f,  -0.0196532f, -0.1557027f, -0.3387919f};

  ALPAKA_STATIC_ACC_MEM_GLOBAL const float wgtT_0[24][32] = {
      {-0.0482477f, 0.0348692f,  -0.6279378f, 0.2042783f,  -0.0943811f, -0.0019772f, 1.1357815f,  0.1307896f,
       0.1233541f,  -0.0307808f, 0.4762143f,  2.3105178f,  -0.1138477f, -0.1789541f, 0.0728833f,  0.0368915f,
       0.1061521f,  -0.0356611f, -0.0947667f, -1.7470065f, -0.0434104f, 0.3295992f,  -0.6358198f, -0.2336755f,
       1.8262464f,  2.1567848f,  -0.4115292f, 0.0250860f,  -1.4501210f, -0.5921007f, 0.0049636f,  0.1055770f},
      {-0.0124859f, -0.1331200f, 0.7014464f,  -0.1568218f, 0.0331185f,  -0.1542812f, -0.1333411f, 0.0127694f,
       0.2013001f,  0.0947020f,  -1.4170154f, -0.1189228f, -0.0019860f, 0.1502178f,  0.1740465f,  0.0477101f,
       0.1527060f,  -1.3259488f, -0.1455328f, 0.1777444f,  0.1768609f,  -0.1144335f, 1.7819276f,  -2.2551980f,
       1.8525611f,  1.0002149f,  0.7666884f,  0.5857834f,  0.0189218f,  0.0130888f,  0.0520591f,  0.1602217f},
      {0.0089779f,  -0.0046051f, 5.9403129f, -0.0760328f, 0.0868518f,  -0.1175489f, 2.4591918f,  -0.2272298f,
       -0.0336123f, -0.1102009f, 0.4388122f, -0.1027233f, 0.1439395f,  0.0260359f,  -0.1548838f, 0.5144961f,
       -0.0036697f, -0.0587723f, 0.1452203f, -0.7863321f, -0.0143598f, -0.7969503f, -1.4715855f, 1.8720422f,
       -0.5365977f, 1.2278979f,  0.1856042f, 0.0087406f,  -0.4033080f, 0.5311748f,  -0.0624044f, -0.0473539f},
      {0.0122028f,  -0.2384637f, -0.0065890f, -0.1581197f, -0.2024812f, -0.0350186f, -0.1173539f, -0.2257327f,
       -0.1062854f, -0.2007362f, -0.0033018f, 0.0028686f,  0.0887160f,  -0.0825604f, -0.1360626f, 0.0014523f,
       -0.1611109f, 0.0363360f,  -0.1258196f, 0.0118614f,  -0.1436693f, 0.0181161f,  -0.0238848f, -0.0896234f,
       -0.0039286f, -0.0287253f, -0.0076090f, -0.0047007f, 0.3169636f,  -0.1194062f, 0.0768581f,  -0.1023149f},
      {0.0223803f,  -0.1106429f, 0.5197684f,  0.0797990f,  -0.0985189f, -0.0219536f, -0.8999558f, 0.0139441f,
       -0.1065298f, -0.0700749f, -0.2372502f, -2.3253367f, -0.1771734f, -0.1391621f, -0.0327205f, 0.0384778f,
       0.3209504f,  0.0964711f,  -0.1038988f, 2.0001328f,  0.0278964f,  -0.6402076f, 0.1002734f,  0.9442523f,
       -2.3371346f, -1.3519518f, 0.5144972f,  -0.1425193f, 1.6520097f,  0.2593979f,  -0.1068970f, -0.0010823f},
      {-0.0564048f, 0.0277004f,  0.4086671f, -0.1428425f, -0.1345516f, -0.0642777f, -1.4967046f, -0.0728123f,
       0.1499694f,  -0.0660839f, 1.1170599f, -0.0109156f, -0.0217163f, -0.1839852f, -0.0723716f, -0.2208258f,
       -2.1450739f, -0.7447581f, 0.2110604f, -0.6763240f, -0.0871866f, 0.1980208f,  -0.3258589f, 0.3583415f,
       -1.5599525f, -0.9544728f, 0.3547978f, 0.2802322f,  -0.3988611f, 1.6168940f,  0.1046868f,  -0.0736501f},
      {0.0401295f, 0.0301625f,  2.3904793f,  0.0874403f,  -0.1706232f, 0.0243270f,  0.2055506f,  0.0659292f,
       0.0279800f, -0.1013176f, -0.4468603f, -0.0820311f, 0.1084237f,  -0.0980428f, 0.0153869f,  0.4169671f,
       1.1679637f, -0.7452526f, 0.0690438f,  -0.9760146f, -0.0150821f, -0.1838745f, 0.0022138f,  0.4647771f,
       0.6666930f, -0.5373036f, -0.4382644f, 0.1287971f,  0.4949077f,  -0.2705404f, -0.0644356f, -0.1727526f},
      {0.1045402f,  -0.0420851f, -0.0156088f, 0.1043605f,  -0.0468452f, -0.1996713f, -0.1536377f, -0.0548137f,
       0.0782699f,  -0.1749692f, 0.0110849f,  -0.0338493f, -0.0110409f, -0.1772420f, 0.1318522f,  0.0084175f,
       -0.2084620f, 0.3595731f,  -0.2131062f, -0.0738994f, -0.1284403f, 0.0381397f,  0.0738881f,  -0.0387961f,
       0.0070784f,  -0.0201305f, 0.0226532f,  -0.0150129f, 0.1880418f,  -0.1988496f, 0.0518940f,  -0.0426258f},
      {0.0555184f,  -0.1434738f, 1.5241326f,  -0.1319865f, -0.1433413f, 0.0522304f,  -1.4563835f, 0.0005232f,
       0.1506346f,  -0.0265684f, -1.2287844f, -3.0413165f, 0.0025170f,  0.0599654f,  -0.1306973f, 0.0784461f,
       0.5079768f,  -0.0244722f, -0.1015498f, 2.7846479f,  -0.0642611f, -0.7250540f, 0.8876019f,  1.4510521f,
       -2.9753745f, -3.3278594f, 0.8736179f,  -0.0000811f, 2.6898973f,  0.4387932f,  -0.0675147f, 0.1717749f},
      {-0.2273859f, -0.0783074f, 0.1170714f,  0.1458802f,  0.1328210f,  0.0364441f,  1.4164704f, 0.1079648f,
       0.1553876f,  0.0617190f,  -0.7688578f, -0.5899147f, -0.0151878f, 0.0300152f,  0.1985418f, 0.1041053f,
       0.2805509f,  -0.3530872f, 0.1957988f,  0.0688579f,  0.1145971f,  -0.1384836f, 0.7624677f, -0.7887678f,
       -1.1695358f, -2.7840865f, -0.0668691f, 0.1524266f,  0.9591433f,  -0.9727835f, 0.1578966f, 0.1385039f},
      {-0.0925403f, 0.1268597f,  1.9899433f,  -0.0697888f, -0.1969929f, -0.0471073f, -5.3116655f, -0.0091008f,
       -0.1728659f, -0.1753619f, -0.1478174f, 0.2951335f,  0.1457811f,  -0.0851820f, 0.1457849f,  0.4183387f,
       -2.3975048f, -0.4645267f, 0.0937851f,  -0.3560269f, -0.1869052f, 0.0136887f,  0.5827022f,  1.1965749f,
       1.5047479f,  -1.9283267f, 0.0473070f,  0.0353213f,  0.4265198f,  -3.5288622f, 0.1322581f,  -0.5738994f},
      {-0.1227338f, 0.0047513f,  -0.1062419f, -0.1901390f, 0.0837805f,  -0.1380210f, 0.0310710f,  -0.2166184f,
       -0.0498982f, -0.0786184f, 0.0268683f,  -0.1294491f, 0.0897407f,  0.0206377f,  -0.1643501f, -0.1812480f,
       -0.2876152f, -0.0682887f, 0.0446657f,  -0.1231280f, -0.0275647f, -0.1300283f, -0.1491375f, 0.0015875f,
       0.0132433f,  -0.0549486f, -0.2495581f, 0.2349717f,  -0.1369720f, -0.3496855f, -0.0560258f, 0.1234621f},
      {-0.1468480f, 0.1923417f,  -0.4420354f, -0.0975916f, 0.0984100f,  0.0142761f,  -1.8042085f, 0.0177031f,
       0.0466983f,  0.1904279f,  0.2313117f,  0.8943673f,  -0.1027022f, -0.0123586f, -0.0259216f, 0.0260046f,
       0.1497788f,  0.2727981f,  0.1562366f,  -0.3712008f, 0.0626981f,  0.2122544f,  0.3697388f,  -0.2779360f,
       -0.3196765f, -1.3450428f, 0.3793195f,  -0.0348413f, -0.1375810f, 0.7617420f,  -0.0031145f, 0.1355706f},
      {0.0679835f,  0.1254937f,  -0.5262930f, 0.1686825f,  0.2174495f, -0.0218732f, -0.1299452f, 0.0997381f,
       0.0435618f,  0.1211559f,  -1.1586866f, -0.2731386f, 0.0748916f, -0.1903290f, 0.0807933f,  0.1435141f,
       -1.4356579f, 0.4171664f,  0.0434130f,  -0.2107047f, 0.0788040f, -0.2853448f, 0.8026017f,  -1.3761326f,
       1.2578323f,  -1.3311355f, -0.3247376f, -0.1237198f, 1.3546734f, 1.1058371f,  0.1375258f,  0.0693791f},
      {0.1654906f,  -0.1866392f, -2.5744381f, 0.1619695f,  0.0060606f, -0.0710510f, -4.9512372f, 0.1363884f,
       0.0324911f,  0.0960657f,  0.0878271f,  -0.0495669f, 0.0635484f, -0.2014371f, -0.1956824f, -0.2231105f,
       -0.5065056f, -0.2034401f, -0.1735438f, 0.4712444f,  0.0451609f, 0.2407379f,  1.5705422f,  0.8732644f,
       0.5805451f,  -0.9020337f, 0.1111905f,  0.0054292f,  2.0555997f, -3.0719264f, -0.1595502f, -0.3060012f},
      {0.0130320f,  -0.1412935f, 0.1939399f,  0.0957547f,  -0.1142095f, -0.1203167f, 0.1188142f,  0.0639749f,
       -0.1311414f, -0.1461854f, -0.0772305f, -0.1230349f, -0.1671150f, -0.1981301f, -0.0226475f, -0.1619669f,
       0.1555634f,  -0.2390742f, -0.1453369f, -0.2721513f, -0.1140533f, -0.0536937f, 0.1709613f,  -0.6350394f,
       -0.0099144f, -0.0350223f, 0.2447530f,  0.0993788f,  -0.5841039f, 0.1384276f,  -0.1107760f, -0.1433515f},
      {-0.0276203f, 0.0424715f,  0.4400442f,  -0.1873313f, 0.1983742f,  0.0829819f, 0.6405745f,  -0.1593508f,
       0.1076834f,  0.1900531f,  1.4096446f,  0.2769921f,  -0.1515984f, 0.0578545f, -0.0726278f, -0.0870836f,
       -3.2511303f, -0.7908387f, -0.0769899f, -1.2463226f, -0.0420534f, 1.5724318f, -0.8705097f, -2.5861135f,
       3.8912401f,  4.0461211f,  -1.5900346f, 0.3250549f,  -2.2681830f, 2.1342385f, -0.1412408f, 0.0973785f},
      {-0.0631394f, 0.0809900f, -0.8641825f, 0.1149525f,  -0.0955641f, -0.0403090f, -0.6845544f, -0.1285507f,
       -0.0701147f, 0.1852410f, 0.5936438f,  0.1158317f,  -0.0838372f, -0.0165345f, -0.0889874f, -0.0779972f,
       -2.0281746f, 1.2746787f, 0.0807270f,  -0.1737853f, -0.1318350f, 0.2905773f,  -0.4960580f, 0.2812797f,
       0.0395625f,  2.4000103f, -0.3797377f, -0.5155146f, -1.6649362f, 2.7477472f,  0.1732312f,  0.1769285f},
      {-0.0839652f, 0.1048384f,  -2.6453409f, -0.1549998f, 0.0332292f,  0.1805567f,  1.5299331f,  0.1614436f,
       0.1030123f,  -0.1750580f, -0.0790422f, 0.1303435f,  -0.0649011f, -0.1773880f, -0.0186087f, -0.4794982f,
       -6.5970545f, 0.9689565f,  -0.0698152f, 0.2821720f,  -0.0943349f, 0.6448916f,  -0.5019226f, -2.0137179f,
       -1.9753901f, 2.3883131f,  -0.6336402f, -0.2053137f, -0.1029351f, -3.6074843f, -0.0803197f, -0.3316223f},
      {-0.1005511f, -0.0575567f, -0.2696874f, -0.1879897f, -0.1549900f, -0.1585334f, -0.2431465f, 0.0235179f,
       -0.0953478f, -0.0292804f, -0.0737122f, 0.1184362f,  -0.1744826f, -0.1343563f, -0.1822797f, 0.3344489f,
       0.1855060f,  -0.0245743f, 0.0700775f,  0.3525808f,  -0.1741875f, 0.0696346f,  0.0178112f,  0.5294384f,
       -0.0518728f, 0.0456072f,  -0.0179709f, -0.3133727f, -0.0621307f, 0.0000746f,  -0.1714160f, 0.0660782f},
      {0.1368161f, 0.1452735f,  -1.0996736f, -0.1370980f, 0.0454142f,  -0.2010279f, -0.3923539f, 0.0751393f,
       0.1552261f, -0.1690396f, -0.7361290f, 2.2066221f,  0.1860844f,  -0.0471949f, -0.1001091f, -0.0785898f,
       0.3381744f, 0.2242116f,  0.0059051f,  -1.1038984f, -0.0776049f, -0.9301085f, -0.2579322f, 1.0752188f,
       0.0572336f, -0.4376161f, 0.4391319f,  -0.0920684f, -0.3661392f, -0.0926421f, 0.1151504f,  0.0568435f},
      {0.1527036f,  0.0719917f, 1.6668177f,  0.1541860f,  0.1094950f,  -0.1874002f, 0.2204740f,  0.0663509f,
       0.0846452f,  0.0338055f, 2.6957841f,  2.2497787f,  -0.1595391f, 0.1440347f,  -0.0457316f, 3.2653592f,
       0.3555845f,  0.0221110f, 0.1668054f,  1.9366297f,  0.0111978f,  -3.0021029f, 2.4726274f,  -1.7558607f,
       -1.1594486f, 0.0734959f, -2.3178720f, -0.0162731f, 1.3418909f,  0.5486869f,  -0.1103047f, -0.0437041f},
      {0.0302621f,  -0.2280054f, -1.1536891f, 0.0624857f,  -0.1923327f, 0.0903575f,  2.9342484f,  -0.1453349f,
       -0.1462534f, 0.1626090f,  -2.3898613f, -2.0969083f, 0.1033970f,  -0.0779580f, 0.1544486f,  0.0079555f,
       -0.4402241f, 2.7067254f,  -0.0814941f, -2.0344024f, -0.1009802f, 2.3716676f,  -2.8162944f, 1.7359691f,
       1.1204399f,  -0.0530971f, 3.1334810f,  2.6716938f,  -1.5494148f, -0.1560390f, 0.1592183f,  -0.5042306f},
      {-0.1881559f, 0.1079059f,  0.8104222f,  0.0100862f,  0.0803289f, -0.1001732f, -3.0945404f, -0.1863656f,
       0.1092684f,  -0.0122846f, 0.0211765f,  0.0882070f,  0.0887852f, 0.1788233f,  0.1035344f,  -3.2046664f,
       0.1207470f,  -2.7201638f, -0.1267492f, 0.3226216f,  0.0849743f, 0.7428753f,  0.0196231f,  0.0904721f,
       0.3495182f,  -0.2576671f, -0.4849421f, -2.6337876f, 0.4418600f, -0.0151254f, 0.1613163f,  -0.0374872f},
  };

  ALPAKA_STATIC_ACC_MEM_GLOBAL const float bias_2[32] = {
      -0.1445483f, -0.7468296f, 2.0087461f, 0.9193060f,  0.1838548f,  -0.2429122f, -0.3490699f, 0.0500740f,
      -2.4078236f, -0.1702676f, 0.2733943f, 0.2180888f,  -0.2089010f, 1.3755207f,  0.5235071f,  -0.4656681f,
      -0.3255171f, 0.0164221f,  1.8814882f, 0.3419669f,  -0.1090209f, 1.3948971f,  0.0137390f,  -1.0124286f,
      -0.5950485f, 0.8902460f,  0.9638857f, -3.0627401f, 1.3535937f,  0.7002685f,  -0.3063155f, 0.1972668f};

  ALPAKA_STATIC_ACC_MEM_GLOBAL const float wgtT_2[32][32] = {
      {0.1387030f,  0.0578285f,  0.0290207f,  0.1366628f,  -0.0933111f, -0.1532757f, 0.0912275f,  0.0719271f,
       -0.1804712f, 0.0502727f,  0.0857729f,  -0.1440653f, 0.1051157f,  -0.0418550f, -0.0386804f, 0.1002010f,
       0.1612325f,  -0.0438476f, -0.1817690f, 0.0312359f,  0.0725582f,  -0.0386392f, 0.0083110f,  0.0938581f,
       0.0128068f,  -0.1367846f, 0.0775078f,  0.1099567f,  0.1366342f,  -0.1446508f, -0.1838375f, 0.1260892f},
      {-0.0889172f, -0.1109058f, -0.0090499f, -0.0161888f, 0.1067007f,  0.0519907f, 0.0063411f,  -0.1817823f,
       -0.0761359f, -0.1343981f, -0.2255760f, 0.0553785f,  0.0583183f,  0.1439044f, -0.0505752f, 0.0720810f,
       0.1430652f,  -0.1004833f, 0.0520413f,  -0.0544464f, 0.0066742f,  0.0136002f, 0.1225696f,  -0.1489387f,
       -0.0167017f, 0.0657442f,  0.0523059f,  0.0774479f,  -0.0676060f, 0.0078165f, -0.0837835f, -0.1274106f},
      {-0.0766311f, 0.5671838f,  0.5687331f,  0.8707032f,  -0.5383500f, -0.1704384f, 0.6303636f,  -0.0391398f,
       -0.9736328f, -0.0891117f, 0.6284696f,  0.2864082f,  -0.0644129f, 1.0049138f,  0.2648700f,  0.7155174f,
       -0.1337392f, 0.1083976f,  -0.0553817f, -0.3307861f, -0.0462360f, 0.0436576f,  0.0994856f,  -0.3148151f,
       0.0330411f,  0.4916244f,  0.4885519f,  0.6376212f,  -0.4065242f, 0.3103931f,  -0.1638803f, 0.8019430f},
      {0.1626605f,  0.1472229f,  -0.1055374f, -0.0479780f, -0.1384696f, -0.0590811f, -0.1443276f, 0.0591924f,
       -0.1503216f, -0.0844078f, 0.0829195f,  0.0628104f,  0.1337180f,  0.1166687f,  -0.0531621f, -0.0368584f,
       0.1572870f,  0.0799009f,  0.1366610f,  -0.0022395f, -0.0167398f, -0.0069433f, -0.0972410f, -0.1593408f,
       -0.0069130f, 0.1214338f,  -0.0003829f, -0.1232101f, -0.1103388f, 0.0411238f,  0.0677348f,  -0.1645412f},
      {0.1631524f,  0.1126567f,  -0.0254589f, -0.1650690f, 0.0330545f,  0.1297599f,  0.1422060f,  -0.0161238f,
       -0.1338266f, -0.0908349f, -0.1737766f, -0.0230168f, -0.1365137f, -0.0978333f, -0.0950168f, 0.0188880f,
       0.1741089f,  -0.0294606f, 0.1752428f,  0.1644219f,  0.1659159f,  0.0680770f,  0.1018012f,  -0.1279233f,
       -0.1190702f, 0.1255178f,  0.0606153f,  0.0523735f,  -0.0188357f, 0.0630456f,  -0.0843453f, -0.1214397f},
      {0.0315945f,  -0.0944538f, -0.0443451f, 0.0960032f,  -0.1633853f, -0.0567770f, 0.0730636f,  -0.0249795f,
       0.1353328f,  0.0574157f,  -0.0449853f, -0.1242244f, 0.0586789f,  -0.1486070f, -0.0526930f, -0.1114865f,
       -0.1567526f, 0.0295868f,  -0.0528042f, -0.1501717f, 0.0414447f,  0.0129001f,  -0.1081947f, -0.0410711f,
       -0.1285951f, -0.0928800f, 0.1285344f,  -0.1409433f, -0.1518052f, -0.0423772f, -0.1049293f, -0.0810852f},
      {-0.0440271f, 0.0225357f,  -0.2800989f,  -0.5222433f, 0.1739161f,  -0.1177652f, 0.7314388f,  1.3036448f,
       -0.1802850f, 0.1001820f,  1.6026971f,   0.7367986f,  -0.1845069f, -0.2386096f, -0.7598913f, -3.4017467f,
       -0.2444120f, -0.2411640f, -0.3806236f,  -0.0073185f, -0.0934157f, -1.4343293f, -0.1366896f, 0.0053347f,
       0.6870482f,  0.5276791f,  -17.2342720f, -1.4306241f, 2.8685725f,  -1.2868855f, -0.8033525f, -0.5142425f},
      {-0.1103665f, -0.0303087f, 0.0721292f,  0.0373054f,  0.1220894f,  -0.1477783f, 0.0285878f,  -0.1038156f,
       0.0902443f,  0.0387605f,  -0.1263115f, -0.0328336f, -0.1103565f, -0.0743521f, 0.0545940f,  -0.1695098f,
       -0.0291077f, -0.0735082f, 0.0353564f,  -0.0256771f, -0.0926927f, 0.0906134f,  -0.0178829f, 0.0771544f,
       -0.1435781f, -0.1402228f, 0.1299576f,  -0.0348156f, -0.0974614f, -0.0316729f, 0.0602557f,  0.0533389f},
      {0.1760506f,  -0.0859205f, -0.0774204f, 0.0131467f,  0.1391187f,  -0.0065549f, 0.1738602f,  0.1052436f,
       0.0141879f,  -0.1249992f, 0.1461107f,  -0.0808480f, -0.1756220f, 0.1284634f,  0.0685494f,  -0.0477315f,
       -0.0617114f, -0.0774570f, -0.1077495f, -0.1079228f, -0.1031118f, 0.1227952f,  0.1222141f,  -0.0400846f,
       -0.0570932f, 0.1267812f,  -0.1474465f, 0.0272832f,  0.0099703f,  0.0606974f,  -0.1141500f, 0.0596619f},
      {0.1607998f,  0.0773230f,  0.0710877f,  0.0319138f,  -0.0901876f, 0.0386483f,  0.0811190f,  0.1623472f,
       0.0299255f,  -0.1446998f, 0.0174051f,  -0.1398583f, 0.0749983f,  0.0740425f,  -0.1044812f, -0.0112585f,
       -0.1424311f, -0.0854870f, 0.0041358f,  0.1755890f,  -0.0918096f, 0.1670566f,  0.0709326f,  -0.1342746f,
       -0.0033416f, 0.0607373f,  -0.0749998f, 0.0057871f,  -0.0064318f, -0.1733282f, 0.0664639f,  0.0332067f},
      {-0.1557580f, 1.5765128f,  -0.5228936f, 0.9891814f,  0.4554149f,  -1.7182349f, 0.2649512f,  1.7830753f,
       -2.1589153f, -0.2230780f, -0.5197668f, 0.6975973f,  -0.2308763f, 0.7644942f,  -0.6450967f, -0.1737849f,
       -0.0264751f, 1.4114151f,  -0.8907987f, -1.6229347f, -0.1501168f, 0.0835530f,  1.8311673f,  1.0591173f,
       1.2990645f,  0.1860504f,  -1.3178061f, 0.0478547f,  -0.6409052f, 0.0270250f,  -0.1299549f, -0.7708224f},
      {-0.0371662f, 1.2365303f,  0.1223136f,  1.4315042f,  3.1310651f,  -1.2761725f, -0.3822578f, -0.5348908f,
       -1.3940371f, -0.0267859f, 1.2459223f,  -2.6216829f, -0.2622668f, 0.8298326f,  -1.2202744f, 0.6485456f,
       -0.0386480f, 0.9959086f,  -0.7156258f, -1.0637689f, -0.1963296f, 0.3244545f,  -0.7888051f, 1.1031262f,
       0.7088994f,  -0.2956866f, 0.3832024f,  0.1488711f,  -0.4940712f, -0.1694716f, 0.3888313f,  0.0733105f},
      {-0.1190762f, -0.1393146f, -0.0914678f, 0.1430484f,  0.1348572f, -0.0842871f, 0.0679481f,  0.1610959f,
       -0.0943663f, 0.0217789f,  0.1000645f,  -0.0212677f, 0.0535089f, -0.0865429f, 0.1196275f,  0.1145489f,
       0.1482057f,  -0.0777232f, 0.0885729f,  -0.0019976f, 0.1552824f, -0.0658226f, -0.0813807f, 0.0589519f,
       0.0885859f,  0.0034502f,  -0.0487864f, -0.0893634f, 0.1118731f, 0.1449677f,  0.1651303f,  0.1402361f},
      {0.0789319f,  0.1124323f,  0.1759166f,  0.1661628f,  0.0375001f, -0.0363680f, -0.0117890f, -0.1136247f,
       0.0845543f,  -0.0697866f, -0.1160541f, -0.1568667f, 0.0276797f, -0.1239959f, -0.1117329f, 0.0423658f,
       -0.1465701f, -0.0251416f, 0.0873746f,  0.0561500f,  0.0386616f, -0.0881246f, -0.0560121f, -0.0868075f,
       -0.1615055f, -0.1350492f, 0.0859869f,  0.0004688f,  0.0595301f, 0.0502691f,  -0.0223030f, 0.1703831f},
      {-0.0053783f, 0.0225681f,  -0.1667424f, 0.1170403f,  0.0342684f,  -0.1675937f, 0.0367738f,  0.0971467f,
       0.0685391f,  0.1333889f,  0.0170330f,  0.0994924f,  -0.1228481f, 0.1007368f,  0.0767793f,  0.0950247f,
       -0.0082741f, 0.1601409f,  0.1001968f,  -0.0620291f, 0.1408885f,  -0.0890910f, -0.0673318f, 0.1271669f,
       -0.0645490f, -0.0230873f, 0.1471482f,  -0.0264714f, -0.0662236f, -0.0963628f, 0.0526224f,  -0.0790568f},
      {-0.1718271f, 0.2997589f, -2.0532455f, -0.1713867f, -0.2661856f, -0.1154243f, -7.3146429f, 0.8935130f,
       -0.7827196f, 0.1017316f, -0.6222277f, 0.3100459f,  0.0615432f,  0.4085925f,  -0.1000402f, -0.6260551f,
       -0.1275199f, 0.0741351f, 1.5971735f,  -0.2014649f, -0.0293615f, -0.5886196f, 0.1735584f,  -1.4045720f,
       1.6763473f,  1.9247385f, -1.7378339f, -0.3912843f, 0.8256864f,  -0.3946255f, 0.5375156f,  -13.1043653f},
      {0.0567747f,  -0.8602014f, -0.9817648f, 1.0899123f,  -0.3978198f, -0.5569299f, 1.2738273f,  -1.4856840f,
       0.4577467f,  -0.0659314f, 0.8704997f,  -0.8420535f, -0.0769838f, -1.2103028f, 0.4480707f,  1.2323014f,
       0.0463650f,  -0.6845257f, -0.3982432f, -0.5889497f, 0.0756742f,  0.3645832f,  -0.4234071f, 0.6520539f,
       -0.3005540f, -0.1032195f, -2.1430099f, 1.3409265f,  -3.0319195f, 0.3968135f,  0.3650301f,  1.2910932f},
      {0.0647563f,  -0.6646116f, -1.4369663f, 0.9302412f,  -0.0068088f, 0.6116822f,  0.3466166f,  -0.6610496f,
       -0.0594813f, 0.0206933f,  -0.9885129f, -0.2661978f, -0.1341411f, -0.3133521f, 0.4000420f,  -5.3451056f,
       -0.1713757f, -0.4033558f, 0.7391104f,  0.3656269f,  -0.0459631f, -3.8073950f, 0.8036126f,  -3.2522068f,
       0.6342238f,  -0.2080410f, 1.6247572f,  -0.2060745f, 0.6185946f,  -4.2886014f, -0.3402472f, -1.2521142f},
      {0.0342721f, 0.1051324f,  0.0894973f,  0.0791485f,  -0.0390116f, -0.0554170f, -0.1310704f, -0.1588725f,
       0.0244696f, -0.1509400f, -0.1355452f, 0.1281895f,  -0.1448034f, -0.0223001f, -0.0575013f, -0.0552960f,
       0.1426998f, 0.0400096f,  -0.0702906f, 0.1128015f,  -0.1548696f, -0.1149203f, 0.0522581f,  -0.1427972f,
       0.0384164f, -0.0342821f, -0.1191418f, -0.1956914f, 0.1465443f,  0.0837722f,  0.0952225f,  0.0666681f},
      {-0.0443572f, 0.7411098f,  -1.5038303f, -0.4133880f, -2.3582242f, -1.4593352f, -1.5967746f, -0.4544010f,
       -0.7524295f, -0.1460992f, 0.5018004f,  1.1855878f,  -0.1316628f, -0.1475340f, 1.2858863f,  -0.1193144f,
       -0.1186285f, 1.0592793f,  0.3801777f,  -1.2098680f, -0.1994203f, -0.3350115f, 0.6874833f,  -0.5586594f,
       0.2264153f,  0.2572494f,  0.5998477f,  -0.8232763f, -1.3063412f, 0.0736706f,  0.7491658f,  -0.7809181f},
      {0.0299552f,  -0.0149591f, 0.0269874f,  0.0368464f,  0.0703915f, 0.1147246f, 0.1410144f,  0.1142898f,
       -0.1665653f, -0.0400016f, 0.0940751f,  0.1234312f,  0.0437324f, 0.0945280f, 0.0466735f,  0.0599442f,
       0.0230429f,  0.1629256f,  -0.0831074f, -0.0447877f, 0.0074422f, 0.0932996f, -0.0179814f, -0.1377643f,
       -0.0325782f, 0.1634610f,  -0.0460440f, 0.0310693f,  0.0811928f, 0.0911324f, -0.0279619f, 0.0079266f},
      {0.0141037f,  -2.2742767f, 2.2159095f,  -1.4817369f, -0.0906862f, 2.6482646f,  0.1924637f,  -0.8829036f,
       1.3221618f,  -0.1290695f, 0.7210423f,  0.3888509f,  -0.1245817f, -1.3013325f, -3.2672896f, 1.8671465f,
       -0.2762094f, -2.4018564f, -1.2437536f, 2.2093353f,  -0.1206937f, 0.1875467f,  -2.0006511f, 1.3734390f,
       -1.5637013f, -3.3449998f, -0.2185295f, -0.6209466f, 0.4066153f,  0.1486901f,  -2.2234039f, -0.3788599f},
      {-0.0764855f, 1.5950015f,  -0.5627084f, -0.1137541f, -0.9615957f, -1.1086274f, -1.4326842f, 0.6648561f,
       -0.4378406f, -0.1128697f, -1.0243173f, -0.4663578f, 0.0087732f,  2.0801470f,  0.5290759f,  -0.3905539f,
       -0.2516378f, 1.2707938f,  -0.4866864f, -1.2301913f, 0.1017728f,  -0.3787877f, 0.1503028f,  0.1718132f,
       0.5853130f,  1.5889113f,  2.1328118f,  1.5073299f,  -2.3405824f, -0.1999585f, -0.0802431f, -0.8596631f},
      {-0.1908100f, -0.4481063f, 0.2141561f,  -0.8853260f, -0.4353443f, 0.3517573f,  -0.2082850f, 0.4145460f,
       1.2857832f,  -0.3344910f, -0.3868592f, -1.3608005f, -0.0205920f, -0.2011125f, 0.1415093f,  -0.9596402f,
       -0.1987539f, -0.4543975f, 0.1642402f,  0.4037207f,  -0.0663036f, -0.5793740f, -0.5624130f, -0.5605171f,
       -1.0553323f, -1.1488312f, 0.1353024f,  -0.6865259f, -1.0829402f, -0.2182627f, -1.7520431f, -0.1677930f},
      {-0.0542481f, -0.6652975f, 1.7451638f,  -1.6006671f, 2.0816922f,  -0.0348452f, 0.7610720f,  -0.4425903f,
       2.3857727f,  -0.0982129f, 0.5580666f,  -2.4727480f, -0.1531142f, -1.2225132f, -5.4196248f, -1.4664276f,
       -0.1340837f, -0.3680613f, -1.1763957f, 0.1487435f,  -0.1843779f, -1.3475177f, -6.4113221f, 1.9062191f,
       -1.3199326f, -2.6787331f, -1.0793540f, 1.4754863f,  -0.5329170f, -1.0470232f, -0.1719929f, -1.0616958f},
      {-0.1261046f, -1.2438362f, -3.8054571f, 0.5956330f,   7.1549497f,  -0.1402366f, -4.0609927f, 7.6677914f,
       -2.6154006f, 0.0234051f,  1.2700831f,  7.4880581f,   0.0808564f,  -0.2905704f, 2.5056512f,  0.6301501f,
       -0.1501096f, -0.3806727f, 6.1768942f,  -0.2920033f,  -0.1472883f, -4.7388387f, 5.9521456f,  -2.7825656f,
       6.7927275f,  4.6885090f,  -2.2919989f, -14.2969074f, 8.4207087f,  -6.5338097f, 10.7289143f, -0.5509484f},
      {-0.1605100f, -2.7664142f, 0.1855993f,  -1.0547638f, -0.1559302f, 2.3516369f,  -0.0384686f, -0.0421699f,
       1.2288936f,  -0.1374861f, -0.8669472f, 0.4701964f,  -0.2579978f, -1.8223869f, 1.9952940f,  -0.8765189f,
       0.0131214f,  -2.6571078f, 0.8116180f,  1.8054768f,  -0.0726431f, 0.5150636f,  0.9614642f,  -1.3712974f,
       -0.4931213f, 1.2799782f,  -1.6611663f, 0.4448277f,  0.0846980f,  0.5529866f,  -0.0449053f, -0.4308737f},
      {0.1551290f,  0.1396936f,  -0.0968593f, -0.6554329f, -0.3199727f, -0.3910193f,  -1.2765325f, -0.2355604f,
       -2.7272804f, -0.2628681f, -8.6636467f, 0.3586271f,  -0.1602254f, 0.3281886f,   0.0922947f,  -5.1625209f,
       0.0448225f,  0.4242346f,  2.4615154f,  -0.0818966f, 0.0419294f,  -15.5337925f, 0.5842085f,  -10.8753138f,
       0.9091803f,  -1.7685370f, 2.0125909f,  0.6737279f,  -1.4667115f, -21.1957169f, 1.2548140f,  -4.0338879f},
      {-0.0536758f, 0.0545643f,  -1.1698856f, 1.8836620f,  -0.1045039f, -0.6019166f, 1.6155248f, -0.2697649f,
       1.7763392f,  -0.0670235f, 0.2441206f,  0.9861935f,  -0.1286846f, -1.2111757f, 1.0097101f, 0.7566754f,
       -0.0151789f, 0.4013853f,  -0.7427294f, -0.2104458f, -0.2336174f, 0.9817276f,  0.6893633f, 0.6530916f,
       0.3608560f,  -0.2619474f, -0.7111229f, 0.4748580f,  0.4240529f,  0.5841066f,  1.6432278f, 1.4601723f},
      {0.0447264f, -0.2559440f, -1.3964423f,  0.9887335f,  0.0025529f,  -0.3780882f, 1.8015873f,  -0.0102492f,
       0.6349514f, -0.0652549f, -11.5391188f, 0.2737688f,  -0.0360017f, -1.0004791f, -0.1981463f, 1.8440535f,
       0.0371480f, -0.2467426f, -0.6359706f,  -0.3593787f, -0.2423154f, -0.3130093f, 0.1481221f,  0.9980756f,
       0.4402424f, -0.3383209f, 0.1110670f,   0.1886230f,  0.0224243f,  -0.5134141f, 0.2146088f,  1.0987345f},
      {-0.0964645f, -0.1176648f, -0.1362459f, -0.0702352f, -0.1269714f, 0.0788451f,  0.1349706f,  -0.0130557f,
       -0.1754480f, -0.0714703f, -0.1319758f, 0.1684060f,  -0.0253212f, 0.0238707f,  0.1894423f,  0.0064412f,
       0.0870870f,  0.1185605f,  0.0594264f,  -0.0779627f, 0.1756235f,  -0.0078578f, -0.0954016f, 0.0852176f,
       0.0516563f,  0.0918788f,  -0.0913408f, -0.1448558f, -0.0154965f, -0.0207913f, -0.0115856f, 0.0777761f},
      {-0.1909802f, -0.2315316f, -0.1041895f, -0.1264509f, -0.0980112f, -0.0968891f, 0.1441685f,  -0.1048653f,
       -0.0836623f, 0.0766368f,  -0.3555300f, 0.1044188f,  0.0242796f,  0.2485393f,  0.1461953f,  0.0435378f,
       0.0990156f,  0.0944424f,  0.0022342f,  -0.4283264f, -0.1376556f, 0.0390784f,  -0.1326635f, -0.0682079f,
       0.0576475f,  -0.0730707f, 0.0102653f,  -0.0201001f, 0.0372333f,  0.0019655f,  -0.0474310f, -0.0362500f},
  };

  ALPAKA_STATIC_ACC_MEM_GLOBAL const float bias_4[1] = {-1.0653121f};

  ALPAKA_STATIC_ACC_MEM_GLOBAL const float wgtT_4[32][1] = {
      {0.0599457f},  {2.4589522f},  {0.5886621f},  {0.5058215f},  {-1.1172724f}, {1.8007317f},  {0.5281580f},
      {0.5044137f},  {0.5756003f},  {0.1070907f},  {0.2529266f},  {-1.0334966f}, {0.0026251f},  {-0.9314435f},
      {-1.6016932f}, {0.3742798f},  {-0.0195212f}, {-2.0840223f}, {0.9543520f},  {-3.1566474f}, {0.1217308f},
      {1.1695908f},  {0.8822579f},  {-1.2197880f}, {-2.0250206f}, {0.7175051f},  {0.2349268f},  {0.5229219f},
      {0.5292190f},  {-1.7123013f}, {0.8434106f},  {-1.0713193f},
  };

}  //namespace lst::t5dnn

#endif
