#ifndef RecoTracker_LSTCore_src_alpaka_NeuralNetworkWeights_h
#define RecoTracker_LSTCore_src_alpaka_NeuralNetworkWeights_h

#include <alpaka/alpaka.hpp>

namespace lst::t5dnn {
  ALPAKA_STATIC_ACC_MEM_GLOBAL const float bias_layer1[32] = {
      0.8381023f,  1.2556465f,  0.0067099f,  -0.0357693f, 0.1169101f,  -0.0153113f, -0.0846093f, 0.7797670f,
      0.9055398f,  0.1665114f,  -0.0550796f, -0.0567238f, 0.0941665f,  -0.1216114f, -0.1699734f, 0.2718568f,
      -0.0005298f, -0.1234800f, 0.4162073f,  -0.0819755f, -0.0992466f, -0.1968698f, -0.9469606f, 0.5872037f,
      -0.1228067f, -0.4750639f, -0.4919112f, 1.5527098f,  -0.5490310f, -0.1912438f, -0.0286376f, -0.2222957f};

  ALPAKA_STATIC_ACC_MEM_GLOBAL const float wgtT_layer1[18][32] = {
      {-1.3590021f, 0.6276954f, -0.1449918f, 0.0577370f,  -0.1576955f, 0.3870811f,  -0.0306186f, -0.7776857f,
       -2.4529552f, 0.1741910f, -0.1386530f, 0.1470326f,  -0.0229899f, -0.1953953f, -0.0866006f, 0.2343440f,
       -0.0381602f, 0.0025981f, -1.5493799f, -0.1535862f, -0.2149696f, 0.1132401f,  1.0470828f,  0.2647061f,
       -0.0883747f, 2.9208860f, 0.6330654f,  -0.3167520f, -0.0053264f, 0.1200040f,  -1.4732890f, -0.0641288f},
      {1.5409008f,  -0.2445420f, 0.5728381f,  -0.0224280f, -0.2209680f, 0.3975667f, 0.1514053f,  -0.3518175f,
       1.8653508f,  0.1703563f,  0.0541671f,  0.0707710f,  -0.1296598f, 0.0166212f, -0.2231757f, -0.2298288f,
       0.1515491f,  -0.0877527f, 0.0267650f,  -0.0166315f, -0.1833107f, 0.2135980f, 0.4585742f,  0.0545256f,
       -0.1238023f, -3.6342409f, -1.5667412f, 0.7584751f,  1.5726668f,  0.1195947f, 2.2186098f,  -0.1959659f},
      {-1.6374129f, -1.4102328f, 0.8131387f, 0.0225332f,  -0.0153069f, 0.0299461f,  -0.1091296f, -0.0160365f,
       -1.6576413f, -0.1978515f, 0.0032953f, -0.1085755f, -0.0581009f, 0.1631211f,  -0.0659636f, -0.3528317f,
       -0.0149552f, -0.0938201f, 1.6130958f, 0.1513250f,  -0.1115365f, 0.0593220f,  3.0901117f,  -1.3332770f,
       -0.1110921f, 2.0363133f,  2.6538639f, -3.6059115f, 0.7219769f,  -0.1640888f, 0.7755069f,  -0.1108092f},
      {-0.2936167f, 6.1980624f,  -0.4599009f, 0.0311129f, 0.1828872f,  -0.2142502f, 0.2085699f,   1.6321551f,
       -1.1880305f, 0.1927557f,  -0.1985132f, 0.0887561f, 0.1714940f,  -0.1827505f, 0.0312042f,   0.3490315f,
       -0.0019204f, -0.0948882f, -3.3440456f, 0.1356649f, 0.0992870f,  -0.1688469f, -11.9658194f, -0.0076418f,
       0.1754400f,  1.0275215f,  -1.7420135f, 0.2945143f, -1.4503033f, -0.1764025f, -0.8626893f,  -0.1650196f},
      {0.6450894f,  -0.2659193f, -0.0554443f, -0.1571963f, -0.0717938f, -1.6951908f, 0.0990743f,  2.6783466f,
       1.5408627f,  0.0354736f,  -0.0042377f, 0.1060356f,  -0.0842549f, -0.0162483f, -0.1908853f, -1.7604783f,
       -0.0874540f, 0.0929945f,  0.3855971f,  0.2271341f,  -0.0265867f, -0.0940968f, 1.6492866f,  -1.1620234f,
       -0.0054144f, -7.9476857f, 0.6742283f,  3.6346674f,  0.1277585f,  -0.1252134f, 2.7238610f,  -0.2227236f},
      {-0.7608751f, -1.3364639f, 0.2793101f,  0.0671013f,  -0.1188807f, 0.3691385f,  -0.1549930f, -1.0517840f,
       -1.2893225f, 0.2082838f,  -0.0334609f, 0.1394186f,  0.0161169f,  0.0812546f,  0.1173968f,  1.2311919f,
       0.0236558f,  -0.2817375f, 1.3230846f,  0.0783550f,  -0.2084638f, 0.1807853f,  -2.1035442f, -0.4654399f,
       0.0235591f,  3.9155247f,  1.3587128f,  -4.2010083f, 0.6350310f,  -0.0052448f, 0.6574754f,  0.0686782f},
      {-2.7833683f, 10.2854757f, 4.6338739f,  0.0240941f,  -0.0696120f, -0.3897463f, -0.1248256f,  -0.4816284f,
       -4.7507734f, 0.1557197f,  0.2135302f,  0.0618758f,  -0.2073696f, -0.1496306f, 0.0877262f,   2.5853217f,
       -0.0422003f, 0.0184724f,  -3.8206606f, 0.1141581f,  0.1459169f,  0.2033599f,  -11.1376858f, -1.9455458f,
       -0.1760101f, 8.7950487f,  0.6831748f,  -9.6213007f, -1.1076751f, 0.1012195f,  2.7658327f,   -0.1416854f},
      {0.2418604f,  -1.9301127f, 0.3877483f,  -0.0933844f, 0.0126722f,  -1.0790098f, 0.1009928f,  3.7290661f,
       2.1045575f,  0.1211392f,  -0.2160725f, -0.0462994f, -0.0852768f, 0.1915723f,  0.1689342f,  -1.3557134f,
       -0.0077365f, 0.1614280f,  5.2128477f,  0.0722612f,  -0.0341569f, -0.1447665f, -3.7722759f, -1.0395907f,
       -0.0527294f, -3.9730494f, 2.6421480f,  0.9249437f,  0.1579958f,  -0.1002075f, 1.7829212f,  -0.2132620f},
      {-0.2429990f, 0.2634341f, 0.2590226f,  0.0672474f,  0.0036324f,  0.0303038f,  0.0897552f,  -0.6256298f,
       -1.6122288f, 0.0027225f, -0.1595401f, -0.0935275f, -0.1982563f, 0.0155485f,  0.1946360f,  1.4213501f,
       0.0137804f,  0.1520022f, 0.9409513f,  -0.1742253f, -0.1503127f, 0.0523944f,  -0.0227176f, 0.3040073f,
       -0.0240107f, 1.0642775f, -1.0194819f, -2.0675447f, -0.0253559f, -0.0036589f, 1.4283713f,  0.1586476f},
      {-5.0235038f, -18.3295002f, -5.7430124f, 0.0443320f,  0.1303882f,  0.4247405f,  0.0121365f,  -4.8916097f,
       0.9041749f,  0.1742271f,   -0.2020964f, 0.1310671f,  -0.0256758f, 0.1279234f,  -0.2113014f, 1.5976193f,
       0.0230461f,  0.3957245f,   15.0924625f, -0.0339573f, 0.2194625f,  0.1601087f,  4.2093749f,  -1.7748410f,
       0.0570550f,  -3.7076390f,  24.7426872f, 10.6664305f, 4.9739928f,  -0.1869711f, -3.9020858f, -0.0625287f},
      {-1.2785814f, 0.4951370f,  -0.1854935f, -0.0854860f, -0.0326400f, -1.4217318f, -0.0526660f, 2.3796616f,
       1.1375890f,  -0.1294750f, 0.1514099f,  -0.0875889f, 0.0334763f,  -0.1046284f, -0.1509691f, 1.8961424f,
       0.0482185f,  0.1560478f,  1.1729040f,  0.2059654f,  -0.0396296f, 0.0583655f,  0.2114737f,  1.1078014f,
       0.0713762f,  -5.2123141f, 3.3188431f,  -1.5417687f, -2.2969320f, -0.1852825f, 1.5388242f,  -0.1949441f},
      {0.3436254f,  1.5141397f,  0.3445305f,  0.0537090f,  0.0983261f,  0.2764109f, 0.0450150f,  0.3694516f,
       -0.1495358f, 0.0250220f,  0.0863517f,  0.1613176f,  0.1065962f,  0.1730740f, -0.0821967f, -0.8726079f,
       -0.0041691f, -0.0050251f, 1.0713325f,  0.0622442f,  -0.0212901f, 0.0256977f, 0.0212109f,  0.4948872f,
       -0.0750605f, 1.9991436f,  -6.2873325f, -1.7726667f, 0.0714888f,  0.0387835f, 0.3844735f,  -0.1025873f},
      {13.7695932f, -17.3070316f, -0.0396740f,  0.0129914f,  -0.1876401f, 3.8251970f,  0.2313863f,  -5.4996729f,
       14.7995348f, -0.0461617f,  -0.1183308f,  0.0492157f,  0.0139761f,  -0.1253950f, -0.0316143f, -11.3720646f,
       0.0372201f,  0.0982849f,   -1.5191002f,  -0.1424744f, -0.1819868f, -0.2320994f, 4.2790890f,  -0.6142485f,
       -0.1854810f, 0.5198026f,   -18.9082165f, 8.7000732f,  4.5243855f,  -0.0778345f, 2.4486756f,  0.0691332f},
      {0.0951613f,  0.9556295f,  -0.2075231f, -0.0207790f, 0.1411675f,  -0.7328303f, -0.2109708f, -0.0570228f,
       -0.5559142f, -0.0610400f, -0.1140115f, -0.2104663f, -0.1170108f, -0.0814055f, 0.2027502f,  0.6474348f,
       -0.0218391f, 0.0668279f,  0.3389186f,  0.0271586f,  -0.0642117f, 0.0128125f,  -0.6837727f, -0.2763188f,
       0.0651659f,  -1.6473349f, -0.4024041f, 0.6453164f,  -1.8239625f, 0.1908238f,  0.3040223f,  0.0225411f},
      {0.4597256f,  1.3507527f,  0.4121956f,  -0.0016478f, 0.1683506f,  -0.1844230f, 0.1416871f,  -0.3610686f,
       -0.3396192f, -0.0093597f, 0.1620043f,  0.0136876f,  -0.1921590f, 0.2109465f,  -0.1422910f, 1.5516689f,
       0.0199380f,  0.0875053f,  -0.8301335f, 0.0079493f,  -0.0684538f, 0.0361081f,  0.4911018f,  0.4027354f,
       -0.1420899f, 0.9741972f,  -0.2662143f, -1.0193604f, -0.3064712f, -0.1355691f, -0.1211660f, -0.0860424f},
      {0.0226056f,  0.0887831f,  1.8112129f,  1.6017252f,  -0.2053973f, 1.1942143f,  -0.0789642f, 1.8492327f,
       -1.7628566f, -0.1820963f, 0.1481515f,  0.0491807f,  -0.1601979f, -0.0944827f, -0.0244225f, 1.4816471f,
       0.0817022f,  0.1168359f,  -0.3918689f, -0.0036699f, -0.1226492f, -0.1818991f, -0.1200486f, -1.8239323f,
       -0.0273595f, 0.3133134f,  0.3980505f,  -0.3074540f, -1.6801124f, 0.0689322f,  -1.5872164f, -0.0232152f},
      {-1.4185179f, -0.0736576f, -1.8146720f, -1.6101750f, -0.2238937f, 0.8144313f,  -0.0773187f, -2.1662028f,
       0.5510010f,  -0.2138556f, -0.2583132f, -0.1989928f, 0.0310343f,  -0.2301474f, -0.1509903f, -0.0908552f,
       1.6234847f,  -0.2726549f, -0.0519968f, 0.0002568f,  -0.0989678f, -0.1076209f, -0.1692470f, 0.7444451f,
       -0.1140423f, -0.4251049f, 0.7397567f,  0.0376131f,  0.1935069f,  -0.0884010f, 1.0571744f,  -0.1094984f},
      {1.4048315f,  -0.7603406f, -0.0600279f, 0.0053667f,  -0.0833659f, -1.8888202f, 0.0453878f, -0.0496936f,
       1.5723938f,  -0.0734776f, -0.2582742f, -0.0617443f, -0.1607129f, -0.0791748f, 0.0578387f, -1.5397879f,
       -1.7127135f, -0.1419368f, 0.4146990f,  -0.1711587f, -0.1359243f, -0.0187611f, 0.1016016f, 0.9840503f,
       -0.1550723f, 0.0806085f,  -1.1700696f, 0.3543602f,  1.7325212f,  -0.1722032f, 0.4361708f, -0.1782625f},
  };

  ALPAKA_STATIC_ACC_MEM_GLOBAL const float bias_layer2[32] = {
      0.5240659f,  -0.3156822f, 1.1848069f,  0.0944839f,  0.7664731f,  0.0659122f,  -0.1521311f, -0.2121075f,
      -0.0233282f, 1.3092561f,  -1.5706853f, -0.1676442f, -0.6326731f, 0.6803766f,  -0.0098859f, -0.0427784f,
      0.4217910f,  0.5993415f,  0.1781375f,  0.9795442f,  -0.9739875f, -0.0787116f, 0.2965019f,  0.6723404f,
      -0.2183474f, -0.4365332f, -0.1825527f, -0.9912634f, 1.0041238f,  -0.0377338f, -0.0275527f, 0.6230045f};

  ALPAKA_STATIC_ACC_MEM_GLOBAL const float wgtT_layer2[32][32] = {
      {1.6865302f,  -0.0070441f, 0.8035002f,  0.2735598f,   0.2723117f,  0.8619063f,  -0.0804875f, 0.1225932f,
       1.4203900f,  1.1994495f,  1.3166131f,  -0.1413901f,  -1.7412066f, -0.4393452f, -0.0659093f, -0.1708370f,
       -0.9448425f, 0.5583439f,  -0.2568475f, -12.7132454f, 2.4591708f,  0.1297256f,  -0.0836688f, -0.5895968f,
       0.0749868f,  -1.0832437f, -0.0648381f, -0.5253773f,  0.0090072f,  -0.0765873f, 0.1528091f,  0.4434315f},
      {-0.5916990f, 0.0199793f,  2.6379824f,  -0.8051495f, 0.4584879f,  -0.0740655f, -0.0945753f, -0.0077198f,
       -0.9868032f, -0.5211059f, 1.0236850f,  0.0043219f,  -0.7691199f, -0.9887687f, 0.0182249f,  -0.0233012f,
       0.6525627f,  3.3088458f,  -0.0542368f, 0.8937343f,  1.9721413f,  -0.1451552f, -0.6037965f, -0.3363538f,
       -0.1826214f, -0.7827175f, 0.0263213f,  1.2864074f,  2.2937937f,  0.0188819f,  -0.1770117f, 0.1439094f},
      {2.2476032f,  -0.0563116f, 2.2437718f,  0.1898347f,  -2.0759408f, 1.8427511f,  -0.1640616f, -0.1479506f,
       3.2908669f,  -0.6904550f, 3.6500773f,  -0.0827876f, 1.4326503f,  -0.7677880f, -0.0796807f, -0.0939390f,
       -0.3899352f, -0.5100920f, -0.0482071f, 2.4649706f,  2.4606583f,  -0.1814978f, -2.4230726f, -1.4843392f,
       -0.0986952f, -2.8446929f, -0.1327703f, -0.4634184f, -0.9766884f, -0.1103326f, -0.0926516f, -1.7657683f},
      {-1.0957067f, -0.1004687f,  -1.5787225f,  -0.4126261f, 2.8912346f,   -21.3616123f, 0.2207962f,  0.0518269f,
       0.8230206f,  -13.1024904f, -1.8619218f,  -0.0424225f, -1.8340806f,  2.3357768f,   0.1242197f,  0.0754490f,
       4.2121305f,  1.6034925f,   -12.6262836f, 0.5050023f,  -25.2706032f, -0.0431384f,  5.8223386f,  1.0384507f,
       -0.0637078f, 5.0680337f,   -0.0471517f,  -3.0921204f, 5.1592808f,   -0.0875837f,  -0.2792810f, 2.2812967f},
      {0.0304742f,  -0.1621580f, -0.0106217f, 0.0899758f,  0.1324803f,  -0.0700794f, -0.0436681f, -0.0540102f,
       -0.1609280f, -0.0408476f, 0.0065347f,  -0.1726691f, 0.1159499f,  0.1275673f,  -0.1606314f, 0.0174050f,
       -0.1249909f, -0.1623034f, -0.1212896f, 0.0254142f,  -0.0601893f, 0.1673056f,  0.0928323f,  -0.0363208f,
       -0.1524574f, 0.1155388f,  -0.0944822f, -0.0977464f, -0.0798940f, 0.1726533f,  -0.0649631f, 0.0377241f},
      {-0.6356571f, -0.2607541f, -0.4543975f, -0.9816490f, 0.5416448f,  1.1389946f,  -0.1113931f, -0.1674357f,
       -4.8352165f, -1.6452470f, -1.5373472f, 0.0241024f,  0.5536532f,  1.7614238f,  -0.0999563f, -0.0025965f,
       -0.2934853f, 0.9991399f,  4.0100627f,  -0.4765424f, -1.2356933f, -0.1874161f, 2.1570861f,  2.1920633f,
       -0.0976036f, 0.0125106f,  -0.1139313f, -2.1311975f, 0.2431549f,  0.0021341f,  -0.1491757f, 0.2584881f},
      {-0.1554675f, -0.1167430f, 0.0423138f,  0.0711883f,  -0.0020845f, 0.1020336f,  0.0658370f,  -0.1375653f,
       0.0447370f,  0.1206502f,  0.0297869f,  0.1711519f,  0.0798078f,  0.1185202f,  -0.0763909f, -0.1206729f,
       -0.0553183f, 0.1228582f,  -0.0083935f, -0.1761404f, -0.0106561f, -0.0442752f, -0.1696223f, -0.1221765f,
       0.0369741f,  -0.1118567f, -0.0521597f, 0.0321973f,  0.0386908f,  -0.0866795f, -0.0968414f, -0.0050339f},
      {2.1435175f,  -0.1551078f, 3.2713811f,  -2.0504487f, -0.6445094f, -4.6579847f, -0.0102526f, -0.0756903f,
       -0.9215934f, 0.8505831f,  0.3627001f,  -0.1521874f, -1.4340100f, -0.0646441f, -0.2252390f, -0.2244328f,
       -2.9290957f, -0.4925358f, -1.0748628f, -0.1486538f, 2.1188385f,  -0.1755194f, 0.7961836f,  -1.0473205f,
       -0.1901667f, -1.1111301f, 0.0604983f,  -5.0314980f, 1.7197293f,  -0.2024349f, -0.1636181f, 0.1019914f},
      {-1.2713689f, -0.0253136f, -0.3380428f, -1.0638390f, 2.7449236f,  -0.2737443f, -0.1085422f, -0.1602184f,
       -0.0008735f, -1.1007431f, -1.1849335f, -0.2663876f, 2.5792780f,  1.1527174f,  -0.0802239f, -0.1025965f,
       2.5402682f,  -0.3441741f, -0.3981778f, 0.3678156f,  -1.4458398f, -0.0995817f, -1.6316043f, 0.3206491f,
       -0.0369127f, 0.5809332f,  -0.2152892f, 1.3396134f,  0.0399115f,  -0.2546846f, -0.2007722f, 2.8450758f},
      {0.1745115f,  -0.1357176f, -0.1485374f, 0.0909152f,  0.1483210f,  0.0737302f,  -0.1637680f, 0.0000265f,
       0.0481300f,  -0.0105988f, 0.0859076f,  0.0059233f,  -0.1172860f, -0.0107890f, -0.1159891f, 0.1145655f,
       -0.1576843f, 0.1084846f,  -0.1093958f, -0.0556372f, -0.0749590f, 0.0902455f,  -0.1584478f, 0.0336265f,
       0.0504195f,  0.1265924f,  0.0258345f,  0.1492549f,  -0.1250558f, -0.1155385f, -0.0182889f, -0.0004347f},
      {0.1171188f, 0.1014180f,  0.2324671f,  -0.0874626f, -0.1111097f, -0.1645274f, -0.1758595f, 0.1121060f,
       0.1073948f, -0.1074462f, -0.0067733f, -0.0173025f, 0.1683295f,  0.0455249f,  0.0836903f,  -0.0432218f,
       0.0314334f, -0.0055723f, -0.1382432f, -0.0860161f, 0.0697354f,  0.0154966f,  -0.0722437f, 0.1577733f,
       0.0029643f, 0.1032105f,  0.1173788f,  0.1317339f,  0.1496744f,  0.0770678f,  0.1173283f,  0.0357577f},
      {0.1185239f,  -0.1275339f, -0.0635410f, 0.1699650f, -0.0326480f, 0.1617643f,  -0.1413943f, 0.0729402f,
       0.1702773f,  -0.0632184f, -0.1366211f, 0.0920673f, -0.1140343f, -0.1277347f, 0.1160380f,  0.0278655f,
       -0.1432857f, -0.1298375f, 0.0704451f,  0.0651420f, 0.1197187f,  0.1140933f,  0.0547417f,  -0.1408818f,
       -0.0565077f, 0.0153770f,  -0.1723765f, 0.0302536f, -0.1720522f, 0.1721924f,  -0.0277676f, 0.1217176f},
      {0.1335476f, -0.0798768f, -0.1256001f, -0.0555518f, 0.0162756f,  0.1323670f,  0.0731772f,  0.0212993f,
       0.0072618f, 0.0397605f,  0.0464602f,  0.0887792f,  0.0060224f,  0.1080991f,  0.0830178f,  0.1653384f,
       0.0798418f, -0.1128676f, 0.1236111f,  -0.1090344f, -0.1305821f, 0.1371153f,  0.0929448f,  0.1447880f,
       0.1439133f, -0.0474658f, -0.0023591f, 0.0863819f,  0.0067025f,  -0.0828647f, -0.1459741f, 0.0661382f},
      {0.0775701f,  -0.0107607f, 0.0052288f,  0.1162598f,  -0.1544264f, 0.0348644f,  -0.0039653f, -0.0166445f,
       -0.1122926f, -0.0970989f, -0.0087400f, -0.1733506f, -0.0640349f, 0.1163430f,  0.0488566f,  0.0603584f,
       0.0802175f,  -0.1016426f, 0.0904419f,  0.0138907f,  0.1043417f,  -0.0640525f, -0.1136816f, -0.1598310f,
       0.0628116f,  -0.0017224f, 0.1626921f,  0.0660481f,  -0.0982667f, -0.0700596f, -0.0294323f, 0.0861625f},
      {-0.1675477f, 0.0272436f,  -0.0035242f, 0.1187083f,  -0.1380870f, -0.0157775f, -0.0697915f, -0.0699622f,
       -0.1342763f, 0.0789961f,  -0.1271438f, 0.0872695f,  0.0581549f,  -0.0607590f, -0.0108511f, -0.0995454f,
       -0.1476832f, -0.0206303f, -0.1320541f, -0.1646389f, 0.1347268f,  -0.0175878f, -0.1171055f, 0.0748758f,
       0.1002617f,  -0.0571866f, -0.1023152f, 0.0317932f,  0.0121790f,  -0.0910829f, -0.1037444f, -0.1608724f},
      {-0.3124542f, 0.0764635f,  -4.0404196f, 2.4405448f,  -0.5277085f, -0.0794460f, 0.0084510f,  0.0413676f,
       -0.2665683f, -1.1282016f, -1.7190089f, -0.1607474f, 0.2719716f,  0.6015427f,  -0.1233412f, -0.1913827f,
       -0.6120520f, -1.3843068f, -0.2412984f, -3.1972845f, -0.1185272f, -0.0387298f, -0.2240285f, 0.0533012f,
       0.0504851f,  0.0610988f,  -0.1001489f, -1.1528584f, -0.3533484f, -0.0123490f, -0.0334515f, -1.2301358f},
      {0.4601654f,  -0.1414209f, -0.9621689f,  1.8137573f,  -2.2838986f, -4.4931846f, -0.1572768f, 0.1072069f,
       5.4528723f,  2.2122884f,  -0.3047283f,  -0.0339041f, -1.0866505f, -2.9726090f, -0.1335476f, -0.2342451f,
       -0.0534304f, -0.9333688f, -29.1695328f, 2.0819838f,  2.5638790f,  0.0637428f,  -3.7582626f, -27.0329189f,
       0.0063954f,  -0.2693702f, -0.0146772f,  1.8390841f,  0.8366699f,  -0.2030648f, 0.1137383f,  -0.6989926f},
      {-0.1743059f, -0.0957818f, -0.0871742f, -0.1385888f, -0.1365321f, -0.0919264f, -0.1399330f, 0.0151470f,
       0.1561736f,  0.0304706f,  0.1576773f,  -0.1426032f, -0.0184744f, -0.0060727f, 0.0556644f,  0.0737400f,
       -0.0456601f, -0.2015950f, 0.0249077f,  -0.0187826f, 0.0792705f,  0.1462519f,  -0.0432748f, 0.0854118f,
       -0.0254023f, -0.0932964f, 0.0814000f,  -0.0787024f, -0.1832910f, -0.0786179f, 0.1766943f,  -0.0088678f},
      {-0.5439317f, -0.1930895f, -1.0358741f, 0.4872003f, 0.6833679f, 1.0468842f,  -0.0627756f, 0.0198605f,
       0.7245910f,  0.6532924f,  0.7456506f,  0.0358964f, 0.2300356f, 0.1437002f,  -0.1478491f, -0.0421908f,
       -0.0789506f, 0.2844093f,  0.2296336f,  0.4280334f, 1.4064584f, -0.1321349f, -0.8637751f, -0.1172594f,
       -0.0362588f, 0.7996452f,  -0.0449324f, 1.2125486f, 0.0968685f, -0.1714050f, -0.2332757f, 0.8290989f},
      {-0.0017863f, 0.0457680f,  -0.1074851f, 0.1084963f,  -0.1220080f, 0.0877163f,  0.1203982f,  -0.0686339f,
       0.1015984f,  -0.1207048f, -0.1723345f, 0.1024277f,  -0.1272804f, -0.1729792f, -0.1319194f, -0.0493638f,
       0.1197342f,  0.1245080f,  -0.1654372f, 0.0882649f,  0.0901894f,  0.1552375f,  0.1640406f,  0.1594699f,
       -0.0598430f, 0.1478111f,  -0.0616796f, -0.1181406f, -0.1052980f, -0.0984066f, 0.0466656f,  -0.0873392f},
      {0.1106081f,  -0.1091835f, -0.0491951f, 0.1428439f,  -0.0186455f, -0.1435021f, -0.0600320f, -0.0949400f,
       -0.1443260f, -0.1643064f, 0.1652100f,  0.0036460f,  0.0288626f,  0.0818249f,  0.1190063f,  0.1581414f,
       0.0098145f,  0.1525386f,  -0.0470744f, -0.0174385f, -0.0032746f, -0.1561369f, -0.0895720f, 0.1446918f,
       0.1006111f,  0.0952710f,  -0.1043464f, 0.1760491f,  0.1751994f,  -0.0237520f, -0.1052991f, -0.1153077f},
      {-0.1684862f, 0.0088422f,  -0.1341807f, 0.1154328f,  -0.1703036f, -0.1689639f, -0.0292963f, -0.1486230f,
       -0.0202071f, 0.0108027f,  0.1484894f,  -0.1215195f, 0.0628160f,  0.0719851f,  0.0958405f,  0.0008012f,
       -0.0687633f, 0.0022042f,  -0.0232379f, 0.0917159f,  0.1057866f,  -0.0831145f, -0.0961659f, -0.1693817f,
       -0.1395387f, -0.1479967f, -0.0266380f, 0.1574190f,  0.0133269f,  -0.0700487f, -0.0594231f, 0.1698502f},
      {0.3639083f,  -0.1561024f, -0.7568483f, 0.1935690f,  0.2883060f,  0.2512229f,  -0.1334913f, 0.0112297f,
       0.0304261f,  0.4176840f,  -1.7556530f, -0.0909049f, 0.2336213f,  -2.4152300f, -0.0734550f, -0.0934253f,
       -0.0444598f, -1.5052693f, -0.0080532f, -0.1239790f, 0.0072221f,  -0.1124994f, -0.4956763f, 0.6296224f,
       -0.1594838f, 1.8049315f,  -0.0764750f, 0.6222402f,  -0.2394568f, -0.1180138f, 0.0719956f,  0.1186023f},
      {-1.7439748f, -0.1896478f, -0.3346063f, 1.9717994f,  -0.3763428f, -1.3512611f, -0.1285691f, -0.1149345f,
       -0.6938587f, -1.0748692f, 1.6610687f,  -0.2358596f, 2.6839828f,  2.5736220f,  -0.2106378f, -0.0970192f,
       -0.4411264f, 2.9166622f,  -0.9682972f, 1.4566983f,  -0.8942411f, 0.0767526f,  -0.2383756f, -0.0954847f,
       -0.0252277f, 0.5873390f,  0.0485610f,  1.2839676f,  -1.0016359f, -0.0991812f, -0.0468751f, 1.3210641f},
      {0.0135437f,  -0.0879198f, -0.1094052f, -0.1025681f, 0.1451267f,  0.0630836f,  -0.0467955f, 0.0920872f,
       0.0147826f,  0.1714088f,  -0.0018927f, -0.0162302f, 0.1139753f,  -0.0322800f, -0.0280083f, -0.1685120f,
       0.0881822f,  0.1222224f,  -0.0225731f, 0.0995662f,  -0.0746114f, 0.1649396f,  -0.1346789f, -0.0861693f,
       -0.0556903f, -0.0376145f, 0.0879924f,  0.0641201f,  -0.1291527f, 0.0164047f,  0.0979619f,  -0.0305348f},
      {1.4435934f,  -0.1033136f, -2.0697176f, 1.8404082f,  1.5736065f,  -0.7922245f, -0.1000865f, 0.0273494f,
       -0.9065717f, 1.3046484f,  -0.3803423f, -0.2029626f, 1.8804103f,  -0.5049760f, -0.1332424f, -0.2173712f,
       1.1021659f,  -0.6780686f, -0.2187140f, -1.5054095f, 0.0034971f,  -0.1576441f, 1.3025562f,  0.9059022f,
       0.0236399f,  2.2910061f,  -0.0750332f, 0.4445155f,  -1.0730588f, -0.1428868f, -0.1658327f, 2.1124966f},
      {-0.1784460f, 0.0730673f,  -5.1235385f, -0.1882881f, -3.5288441f, -0.2259994f, -0.1726394f, -0.1370097f,
       -0.1533520f, -0.1270866f, -4.3133826f, -0.0608662f, 1.3760250f,  1.1956390f,  -0.1297525f, -0.1895235f,
       -0.1225608f, 1.0044372f,  0.0853172f,  -2.3318944f, -1.2085035f, -0.2005011f, -0.6513534f, 0.2713874f,
       0.0829856f,  1.1987237f,  0.0364122f,  0.0853476f,  -2.3690777f, -0.2024412f, -0.0755946f, -3.0887508f},
      {-0.6453744f, -0.1637572f, -0.2874516f, 0.7690926f, 0.7505430f, 0.4669090f,  -0.0990388f, 0.0103152f,
       0.4612448f,  -0.5246852f, 0.1446148f,  0.0650856f, 0.7211487f, -1.6647208f, -0.0023956f, -0.0785235f,
       2.2165341f,  2.5892341f,  -1.0054595f, 1.5223085f, 1.6814858f, -0.0194431f, 0.2862324f,  -1.5743806f,
       -0.1135486f, 0.5293437f,  0.0606122f,  1.4628854f, 0.2489253f, -0.0523651f, -0.2316726f, -0.0536937f},
      {1.0856206f,  -0.0647455f, -0.3253726f, -1.5043118f, 1.2835978f,  -2.8234291f, 0.0278139f,  -0.1607269f,
       0.4859119f,  0.5244958f,  -1.3842341f, -0.0955697f, -1.4327506f, -1.8437506f, -0.0047875f, -0.1666650f,
       -1.3057747f, -1.6061074f, -1.7119917f, -1.1418145f, 0.6116119f,  -0.2265402f, 0.5035372f,  -0.7038661f,
       -0.0783529f, -0.6158929f, -0.1048231f, 0.0385072f,  -0.6218809f, -0.1713473f, -0.1296085f, 0.2307265f},
      {-0.0857327f, -0.0240921f, -0.1274204f, 0.1491305f,  0.1185468f,  -0.0108924f, -0.1143038f, 0.1323865f,
       0.0393746f,  -0.0015919f, 0.0604275f,  -0.0906805f, -0.1383745f, 0.0986694f,  -0.1355748f, 0.0697662f,
       -0.1569561f, -0.1447346f, -0.1763534f, 0.0037572f,  0.0897957f,  0.1148712f,  0.0425909f,  0.0025856f,
       -0.1289866f, 0.1617438f,  -0.0405906f, 0.0672005f,  -0.0178236f, 0.1483060f,  -0.0193279f, -0.1623956f},
      {0.3731324f,  -0.0058753f, 0.7765094f,  -1.7653806f, 0.2843435f,  -0.6492531f, -0.0483371f, -0.0832393f,
       -1.4071836f, -2.0038152f, -0.5736679f, 0.0249140f,  -1.2218778f, 0.0355671f,  -0.0373252f, -0.0358956f,
       -0.4577911f, -2.3789170f, -0.3592008f, -0.7920797f, -2.7878003f, 0.0165473f,  0.8145875f,  -0.4322619f,
       0.0089995f,  0.1495652f,  -0.1798356f, 0.3815477f,  0.1048888f,  -0.0899370f, -0.2200294f, -1.1391734f},
      {0.1598358f,  0.1171069f,  0.0856818f,  -0.0340354f, 0.0366347f,  -0.0047404f, -0.0117805f, 0.0531076f,
       -0.0954451f, -0.0227147f, -0.0362694f, 0.1743660f,  -0.1138828f, 0.0401388f,  0.1356554f,  0.0545887f,
       0.0459410f,  -0.0985279f, 0.0788853f,  -0.1213196f, 0.0940189f,  0.0302987f,  0.1172330f,  -0.1364847f,
       -0.1695189f, 0.0857164f,  -0.0119831f, -0.0472912f, 0.0749008f,  -0.1740327f, 0.0446429f,  -0.1236778f},
  };

  ALPAKA_STATIC_ACC_MEM_GLOBAL const float bias_output_layer[1] = {2.1143713f};

  ALPAKA_STATIC_ACC_MEM_GLOBAL const float wgtT_output_layer[32][1] = {
      {-1.3546265f}, {0.0473848f}, {-1.1066765f}, {-0.7856320f}, {1.8970097f},  {1.7004912f}, {0.0171833f},
      {0.1014843f},  {1.0655588f}, {1.3870277f},  {1.4482819f},  {0.0146788f},  {1.7867852f}, {-0.4464278f},
      {0.1595784f},  {0.0216729f}, {-0.8184820f}, {-0.5278643f}, {3.9873812f},  {0.8342983f}, {1.2236406f},
      {0.0329035f},  {2.1368678f}, {1.2096084f},  {0.0103834f},  {-1.4747533f}, {0.1212516f}, {-1.5780485f},
      {-0.7259769f}, {0.0657829f}, {-0.0011842f}, {-1.9428015f},
  };

}  //namespace lst::t5dnn

namespace lst::t4dnn {
  ALPAKA_STATIC_ACC_MEM_GLOBAL const float bias_layer1[32] = { 
       0.1343534f, -0.1368604f, 0.1807914f, 0.4863829f, 0.3072624f, 0.1860286f, 0.2858847f, -0.1705493f, 0.1752091f, -0.7067891f, -0.2220116f, -0.2557189f, -0.1781383f, 0.1775145f, -0.0272901f, 0.5261974f, 0.3051383f, 0.0161067f, 0.1998939f, 0.2223084f, -0.0926925f, 0.0576453f, 0.0584198f, -0.2362459f, -0.6738928f, -0.4007185f, -0.1670045f, -0.6815327f, -0.1010500f, -0.0480343f, -0.1521900f, -0.2086264f  };


  ALPAKA_STATIC_ACC_MEM_GLOBAL const float wgtT_layer1[19][32] = {
    { -0.1963452f, -0.1897062f, 0.3155907f, 0.2161751f, 0.1200760f, -0.0585624f, -0.2446551f, 0.0781461f, 0.1904358f, 0.0611422f, 0.1204240f, 0.8858362f, -0.1452178f, 0.0156820f, 0.0516908f, 0.2707226f, 0.1202840f, -0.3739638f, 0.1071789f, -0.0191668f, -0.0242811f, 0.1512383f, -0.1941903f, 0.0479919f, 0.1817387f, -0.5309671f, 0.4488416f, -0.3860892f, -0.3303046f, -0.1032199f, 0.1632514f, 0.0368194f },
    { 0.0620202f, 0.1001159f, -0.0816311f, 0.0110535f, -0.0199197f, 0.0160355f, 0.1165054f, -0.1924737f, -0.2066047f, -0.0178963f, 0.1732963f, 0.0279823f, 0.1502472f, 0.0265741f, 0.0041344f, 0.0434696f, 0.1123959f, -0.0486091f, -0.0536375f, 0.0233117f, 0.1850519f, -0.1086785f, -0.0895062f, 0.0086913f, 0.0500011f, -0.0481242f, 0.0521344f, -0.0160295f, -0.0179894f, -0.0044007f, -0.0170807f, 0.0235780f },
    { -0.2047191f, -0.1336271f, 0.0685053f, -0.1230550f, -0.2181542f, 0.1857685f, 0.2490112f, 0.1350161f, -0.2361748f, 0.6877176f, 0.0187158f, -0.4319172f, 0.1152798f, -0.1370398f, -0.1385318f, 1.0592842f, 0.0181423f, -0.3012538f, -0.5012478f, -0.0821910f, 0.1116278f, -0.1941337f, 0.0022966f, -0.2676136f, 0.0330153f, 0.3684897f, 0.1541813f, 0.5577937f, 0.6454316f, 0.0565453f, -0.1758667f, -0.0332897f },
    { 0.1043520f, 0.0458541f, 0.1488384f, -0.3474375f, -0.1625470f, -0.7735633f, -0.3892995f, 0.0497189f, 0.0850283f, -0.1876848f, 0.2164786f, 1.1481932f, -0.0136010f, 0.2492647f, -0.0002732f, -0.5233291f, 0.0387931f, -0.0451515f, -0.4100684f, -0.2764589f, -0.0686475f, -0.1523031f, -0.1952890f, 0.0747470f, 0.2809130f, 0.5447710f, -0.1166361f, -0.0225297f, 0.2158884f, -0.0279553f, -0.2101770f, -0.0544651f },
    { -0.2197489f, -0.1870119f, -0.6207134f, -0.0508897f, 0.1297299f, -0.5457793f, 1.8515823f, -0.0995280f, -0.1487033f, -0.6420621f, 0.1243792f, -3.1706877f, 0.8355281f, -0.3564638f, -0.0508386f, -1.4286778f, 0.6418529f, -0.5749124f, 1.0870366f, -1.3547217f, 0.1692196f, 0.0038480f, 0.4900065f, 0.1763700f, -2.4270182f, 1.8725526f, -0.3442535f, 0.8355251f, 0.0505472f, 0.0621016f, -0.0119220f, 0.0930412f },
    { 0.2114104f, 0.0025511f, -0.5307869f, 0.4133006f, 0.4060004f, 0.2815367f, 0.7278367f, -0.1311096f, 0.1608759f, 0.1315789f, -0.1599163f, -1.3189858f, 0.7870954f, -0.0472584f, 0.1404113f, 0.2852432f, -0.3220553f, 1.4904132f, 0.4506483f, -0.7457430f, -0.0968689f, 0.0192968f, -0.2406183f, -3.5728753f, -1.9537650f, -2.3127568f, -0.0448075f, 1.2646719f, -0.6842874f, -0.0891226f, 0.0567195f, 2.1891153f },
    { -0.1661354f, -0.0373547f, 0.6526110f, -0.5975117f, -0.4608084f, 0.2710493f, -0.1810309f, 0.1369148f, -0.1769332f, 0.4526634f, -0.0552756f, -1.1017697f, 0.4448314f, -0.6016745f, 0.2724431f, 0.7266939f, -0.1991976f, 0.1647761f, -0.5310153f, -0.7060090f, -0.1109934f, 0.1359839f, -0.6618953f, 0.2158770f, -0.4421737f, 0.9182176f, 0.7331966f, 0.3996755f, 0.4059028f, -0.0721314f, 0.1054618f, 0.0497795f },
    { 0.0467344f, -0.0725293f, 0.5335991f, -0.3129944f, -0.0927617f, 0.2550210f, -0.0270045f, 0.2240254f, 0.0485313f, -0.3903082f, 0.0739706f, 0.3905312f, 0.0314730f, -0.1228120f, -0.0312543f, 0.1547545f, -0.0657497f, 0.2070283f, -0.4780306f, 0.1215895f, 0.1230678f, 0.1067695f, -0.6220852f, -0.3623066f, -0.0996625f, -0.0446008f, -0.2789803f, -0.6685403f, 0.3034660f, 0.0262982f, 0.1342810f, -0.1922751f },
    { 0.1739333f, 0.1465763f, -0.4222852f, 0.1209540f, -0.0511849f, -0.0704092f, 0.9248980f, 0.0019347f, 0.2351058f, -0.0838496f, -0.0792469f, -1.4359294f, 0.0464311f, -0.1416053f, -0.0532391f, -0.4832550f, 0.6796177f, -0.8633671f, 0.7562706f, -0.5533612f, 0.1962216f, 0.1263439f, 0.5026608f, -0.1000892f, -0.6688065f, 2.7370255f, 2.3997412f, 0.2715410f, -0.5388510f, 0.0300191f, 0.0855824f, 0.0108335f },
    { -0.1964274f, -0.2231741f, 0.6910776f, -0.3667164f, 0.2466633f, -0.7791009f, -0.8750980f, 0.0948685f, -0.0829558f, 0.0522350f, 0.0999431f, 0.3613117f, 0.2642635f, 0.0981251f, 0.0078706f, 0.2847126f, -0.7552197f, 0.6607893f, 1.1402172f, 0.0043068f, -0.0676257f, 0.1689726f, -0.6854019f, -3.5672681f, -0.2819403f, 0.0287417f, 0.0773701f, -1.0083240f, 0.8767858f, -0.0149776f, 0.0985754f, 4.1588702f },
    { 0.2217445f, -0.0749207f, 0.5147483f, 0.1038056f, 0.0659220f, 0.7794765f, -0.2327811f, -0.2111595f, -0.2442441f, 0.2935767f, 0.0391268f, -0.2241808f, 0.4126888f, -0.5200922f, 0.1519286f, 0.2092492f, -0.0228635f, -0.0641765f, -0.1217502f, -0.6401815f, -0.0073931f, 0.1305103f, -0.5340289f, -0.0621846f, 0.3074283f, 0.4665450f, 0.6781864f, -0.5094241f, 0.0103030f, 0.0430095f, 0.1184032f, -0.1942018f },
    { 0.1955255f, -0.1159280f, 0.1589712f, 0.1481370f, -0.1941711f, 0.2613947f, 0.0917849f, 0.0612737f, -0.0844419f, -0.2439861f, 0.1565869f, -0.0053696f, 0.0286656f, -0.0343144f, -0.0203482f, -0.2128334f, -0.1408825f, 0.3890148f, -0.6356385f, 0.3145888f, -0.1653300f, 0.1783924f, -0.2827201f, -0.2688403f, 0.0081674f, -0.0356785f, -0.6331880f, -0.9514363f, 0.0441994f, 0.0732389f, 0.1498160f, -0.1793437f },
    { 0.1265140f, 0.0384336f, -2.8391471f, -0.4276276f, -0.2338111f, 0.8390769f, 0.0681910f, -0.1226522f, 0.1071458f, 0.3428707f, 0.1777058f, -1.3329811f, -3.1060767f, 1.0557625f, 0.0048971f, 0.7639167f, 0.6975441f, -2.1387131f, 1.0077418f, 4.4446278f, 0.1415584f, 0.1302028f, 2.9501693f, 0.0237347f, 5.0284410f, 1.8980840f, -2.1570590f, -2.1816826f, -0.4549414f, -0.0077398f, -0.0098644f, 0.0444060f },
    { -0.1182870f, -0.0270550f, 1.1507994f, -0.6989342f, -0.2803804f, -2.1135683f, -1.0376427f, -0.1776414f, 0.1299931f, -0.0933400f, 0.2234025f, 1.5097101f, 0.6774505f, -0.3927566f, -0.1617411f, 0.9797447f, -1.0457269f, 0.9471802f, 0.0938823f, 0.1544326f, -0.0773656f, -0.0104977f, -1.7196037f, -4.0170026f, -0.1190557f, 0.7434546f, 0.4614602f, -1.2301404f, 0.4896316f, 0.0476309f, 0.2126693f, 4.5116920f },
    { -0.0027639f, 0.0179858f, 0.2049464f, 0.2791552f, 0.2163207f, -0.2191889f, 0.2864121f, 0.0058308f, -0.2463945f, -0.1134452f, 0.1590838f, 0.3733202f, -0.1439847f, 0.0460098f, -0.0726439f, 0.1915199f, 0.0924346f, -0.5439979f, 0.5580426f, 0.1324417f, -0.0232699f, -0.1709347f, -0.3380904f, -0.3286816f, 0.2967429f, -0.0979574f, -0.7603243f, -0.0431679f, -0.0107699f, 0.0822281f, -0.1016191f, -0.1216770f },
    { 0.1530741f, 0.1153604f, 0.3853105f, 0.1062520f, 0.3027449f, -0.1694341f, -0.2643325f, 0.0777191f, 0.0449484f, -0.0471270f, -0.2129532f, 1.1155831f, 0.4346932f, -0.0213834f, -0.0108729f, -0.4894646f, -0.1930458f, 0.3407364f, -0.2503093f, 0.1970312f, 0.1324426f, -0.0270137f, -0.5791930f, -0.3310086f, -0.4698426f, -0.0851584f, -1.2412705f, -0.0968709f, -0.4728828f, 0.1199212f, -0.0220039f, -0.3065432f },
    { -0.0360394f, -0.0418710f, -0.1231445f, -0.0216402f, 0.0092169f, 0.0398274f, 0.1360654f, -0.2280596f, -0.1570198f, 0.1456694f, -0.1594359f, 0.0720431f, -0.0114337f, 0.0729957f, 0.2565010f, -0.1173509f, 0.0390496f, 0.0802022f, 0.0169318f, 0.1525905f, -0.1980179f, -0.1718678f, 0.2345589f, -0.0264005f, 0.2484942f, -0.0116633f, 0.0268538f, 0.4162771f, 0.1001438f, 0.2235131f, -0.0809139f, 0.2307777f },
    { -0.2251443f, -0.1812284f, 0.1774227f, 0.0221788f, -0.0905216f, -0.0789518f, -0.0121052f, -0.0346179f, -0.0352400f, 0.2923968f, -0.1293166f, -0.1448323f, 0.2391112f, -0.1279724f, -0.2424806f, -0.1094591f, 0.0784602f, 0.2012977f, 0.1209130f, -0.1626816f, -0.1227960f, -0.1184403f, 0.1182714f, 0.1753468f, 0.2582796f, 0.0899662f, 0.0290746f, 0.1648609f, -0.1231582f, -0.2137838f, 0.0076664f, -0.1096656f },
    { -0.1987450f, -0.1701069f, -0.1227582f, 0.7666621f, 1.5642114f, 0.7414819f, 0.5118755f, 0.1651261f, -0.0387790f, 0.0690523f, 0.1200543f, -0.0872181f, -0.2228943f, 2.0180922f, 1.8853544f, -0.1986218f, 0.5620250f, -0.0464649f, 0.9619613f, -0.4262072f, -0.1786272f, 0.0072263f, 0.0933387f, 0.1035185f, 0.2061563f, 0.0342850f, -0.7587605f, -0.3644360f, 1.0864259f, 1.7548583f, 0.1283273f, -0.1649644f },
};

  ALPAKA_STATIC_ACC_MEM_GLOBAL const float bias_layer2[32] = { 
      -0.1695035f, 0.2922097f, 0.4695381f, -0.1286290f, -0.1544934f, 0.0576619f, -0.1995219f, -0.0774236f, 0.8540793f, -0.2566903f, 0.1841262f, 0.0422864f, 0.3509908f, 0.3897401f, -0.9858395f, -0.0364352f, -0.2253149f, -0.2130482f, -0.1353441f, -0.1571028f, 0.0116377f, -0.1189732f, -0.3139415f, -0.0422709f, 0.0737291f, 0.1792056f, -0.1770645f, -0.0674591f, -0.1183520f, -0.0981791f, -0.1265918f, -0.2162919f };


  ALPAKA_STATIC_ACC_MEM_GLOBAL const float wgtT_layer2[32][32] =  {
    { -0.1512298f, -0.0884347f, 0.0449608f, -0.0343053f, -0.0417911f, 0.1000310f, -0.0485974f, 0.1080344f, -0.0214546f, -0.0244118f, -0.0260331f, -0.0547825f, -0.0242428f, -0.1749314f, 0.0161191f, 0.1437478f, -0.0923667f, -0.0995169f, 0.1090314f, 0.0124908f, -0.1494958f, 0.1738634f, -0.0018150f, -0.1272303f, -0.1339276f, -0.0117370f, 0.0288069f, -0.0950575f, 0.1476425f, -0.0516411f, 0.0110233f, -0.1691667f },
    { 0.1108670f, -0.1319241f, 0.1380588f, 0.0299961f, -0.1557449f, -0.0825798f, 0.0167564f, 0.0529355f, -0.1328790f, -0.1366413f, -0.0848526f, 0.1147785f, 0.1058154f, 0.0647873f, 0.0844991f, -0.0371283f, 0.0650547f, 0.0286196f, -0.1389171f, 0.0416273f, 0.1670313f, 0.0709529f, 0.0148096f, 0.1168675f, -0.0941724f, 0.1369110f, 0.0732489f, 0.0528412f, -0.0698767f, -0.0858164f, 0.0481078f, -0.0617453f },
    { -0.0841661f, 0.2205167f, -0.1105434f, 0.1260796f, 0.2141682f, -0.2289418f, -0.0885472f, 0.0004073f, 0.3397980f, 0.2146912f, -0.0844862f, -0.0795792f, -0.0276895f, 0.2404687f, -0.5435475f, 0.1348819f, -0.0100644f, 0.0971661f, 0.1800686f, 0.2612933f, -0.1894411f, -0.2059743f, -0.0694192f, 0.1962248f, -0.1277953f, 0.3085035f, -0.0306779f, 0.1804116f, -0.1870965f, -0.0365256f, 0.0698286f, -0.0839964f },
    { -0.1180025f, 0.0132038f, 0.3161107f, -0.0048193f, 0.0951789f, -0.0677543f, 0.0829735f, -0.0761413f, 0.2528946f, 0.0226938f, 0.3056851f, -0.9962978f, 0.3223003f, 0.2112198f, -0.5219836f, -0.0596000f, 0.2523871f, 0.0964980f, -0.1698294f, -0.0813046f, -0.0583424f, 0.0457809f, -0.2060608f, -0.0088231f, 0.1713531f, 0.0580938f, -0.1625986f, 0.0355252f, 0.1409817f, -0.0698487f, -0.4586120f, -0.1752551f },
    { -0.0528548f, 0.5359938f, 0.4189294f, -0.4003890f, -0.3647923f, -0.0592020f, 0.0090114f, -0.4322640f, 0.0139484f, -0.2639773f, 0.5801836f, -1.1996467f, 0.5738586f, 0.3820994f, 0.0601381f, 0.2757042f, -0.0883916f, -0.1044900f, -0.2072752f, -0.4631359f, -0.1636845f, -0.1897467f, -0.1266302f, -0.4035257f, 1.3104290f, 0.5425879f, 0.0820114f, -0.3422523f, -0.0386511f, 0.0957967f, -0.6711297f, -0.2134194f },
    { 0.1523338f, 0.1226210f, 1.5868237f, 0.0517132f, 0.0104944f, -0.2179618f, 0.0563863f, 0.5908272f, -0.6957221f, 0.1061211f, -0.0087314f, -1.7845235f, -0.1230155f, -0.1072503f, -1.0151221f, 0.0167446f, 0.1442372f, 0.1890395f, 0.1703373f, 0.1627859f, 0.0200934f, -0.0671723f, 0.1236694f, -0.1731428f, 0.8957870f, 0.0031799f, -0.1491934f, -0.0759638f, 0.4402028f, -0.1119713f, -0.6563521f, -0.0304475f },
    { -0.0250551f, 0.0522012f, 0.1305745f, -0.0062250f, -0.0100539f, 0.0764476f, 0.0092616f, -0.3000144f, 0.1551358f, -0.0077721f, 0.1712278f, -0.4013256f, 0.3226271f, 0.2209172f, -0.0293705f, -0.1032229f, 0.0395042f, 0.3078912f, 0.0089209f, 0.2092836f, -0.0209358f, -0.1119431f, 0.0549617f, 0.2621174f, -0.2165639f, 0.2255429f, 0.1156294f, 0.2173723f, 0.1298685f, 0.1241587f, -0.6532549f, 0.0729476f },
    { -0.0719916f, 0.1056800f, -0.1352933f, 0.0889269f, 0.1524294f, -0.0060690f, -0.0986998f, 0.0855547f, -0.1653189f, -0.1484989f, -0.0676435f, -0.0690776f, -0.0753535f, -0.1344397f, 0.0015689f, -0.0909612f, -0.0579259f, -0.1656436f, -0.1458589f, 0.0186582f, 0.0332513f, -0.0866891f, -0.1016259f, -0.1492256f, -0.0888681f, 0.1265626f, -0.0439008f, 0.1668310f, -0.1605524f, 0.1199203f, -0.1021874f, 0.1433535f },
    { -0.0564969f, 0.1157019f, 0.0790227f, 0.0363322f, 0.0744957f, 0.0959177f, -0.0635159f, -0.0377282f, 0.1859491f, 0.0170181f, -0.2007389f, -0.0229718f, -0.0820573f, -0.1189916f, -0.0368577f, 0.0473083f, 0.1714166f, 0.0093910f, -0.0389499f, 0.0049280f, -0.0103210f, 0.1648535f, 0.1014110f, -0.1227080f, 0.0331885f, 0.1115330f, -0.1163506f, 0.0201954f, 0.0268243f, 0.0239459f, 0.0133527f, 0.0463209f },
    { 0.0423857f, 0.0313280f, -0.9011873f, -0.0133945f, 0.0038611f, -0.2954780f, -0.1961554f, 0.1000427f, -0.6066244f, 0.4316411f, -0.1437796f, 0.2690109f, -0.8165972f, -0.7654420f, 1.9093357f, 0.0465891f, 0.0221354f, 0.0066224f, 0.2599552f, 0.0982093f, 0.0793702f, -0.1796153f, 0.2690848f, 0.1572801f, -0.0862533f, 0.0163075f, 0.0427072f, 0.0708655f, 0.0366874f, -0.1464743f, 0.0670022f, 0.0663043f },
    { 0.1402186f, 0.1576201f, 0.0571907f, -0.0072167f, -0.0366628f, 0.1624769f, -0.1424325f, 0.1703880f, -0.1440171f, -0.0655039f, -0.0935466f, 0.1563985f, 0.0233720f, -0.1442786f, 0.0901350f, 0.0326641f, -0.0827107f, -0.0476963f, 0.1594089f, -0.0207275f, 0.0203365f, -0.0873331f, -0.0603423f, 0.0888358f, 0.0332747f, 0.1500026f, -0.1336271f, -0.1283830f, 0.0288771f, 0.0511126f, -0.0536176f, -0.0377732f },
    { -0.0566495f, 0.3582174f, 0.2820883f, -0.0637199f, -0.0168560f, -0.0675106f, -0.0458406f, 0.7526495f, -0.0290778f, 0.7117918f, 0.6135960f, -0.1042867f, 0.3469075f, 0.5149991f, -0.1158765f, 0.3796138f, 0.2364606f, 0.1189565f, -0.1953613f, -0.1174519f, -0.1323173f, 0.0898395f, -0.1816330f, -0.2375933f, 0.6304997f, 0.5203792f, 0.0147885f, -0.1679424f, 0.1812733f, -0.0940697f, 0.9682505f, -0.0249815f },
    { -0.0208926f, 0.0131351f, -0.2667643f, 0.2727742f, 0.1088336f, -0.2373472f, 0.0294486f, -0.2339603f, 0.1177795f, 0.2691575f, -0.2384779f, -0.2409614f, 0.1145401f, 0.0204725f, 0.5311701f, 0.2257549f, 0.2037646f, 0.1121553f, 0.2252966f, 0.2502860f, 0.0783527f, 0.0019825f, 0.2986438f, -0.0360239f, -0.3505072f, -0.1185092f, 0.0317224f, -0.0176802f, 0.3130744f, 0.0276202f, -0.2044020f, -0.0184587f },
    { -0.0643188f, 0.6097096f, 0.7051311f, -0.2269451f, -0.2245775f, 0.0608591f, -0.0659684f, -0.3236180f, -0.1390819f, -0.7064353f, 0.9418848f, 0.5045637f, 0.6283364f, 0.2970888f, 0.0491128f, 0.1790215f, -0.0997659f, -0.4518470f, -0.5528621f, -0.1986864f, 0.0060027f, 0.0087297f, -0.4009930f, -0.5915034f, 3.1132698f, 0.4976280f, 0.0081512f, -0.5435217f, -0.0072250f, -0.0532804f, 0.3340865f, -0.1419674f },
    { -0.1353987f, -0.7849376f, -1.9733378f, 0.9052956f, 0.9782721f, -0.0804696f, -0.0099537f, 0.9572610f, 0.0659797f, 0.8402038f, -0.6111622f, 0.5502985f, -0.9761897f, -0.8175628f, 0.2933429f, -0.3850816f, 0.9074996f, 0.7568822f, 0.8749452f, 0.8723171f, -0.1868730f, 0.0296445f, 0.9463211f, 0.9381843f, -6.9154429f, -0.7749677f, -0.1441332f, 0.6643895f, 1.1721847f, 0.0619046f, 0.7128155f, -0.0837513f },
    { -0.0936242f, -0.1037173f, 0.4426387f, -0.0852474f, 0.1292172f, -0.1712745f, 0.0871102f, -1.8505988f, 0.0988693f, -0.2454600f, -0.0534737f, 0.6122471f, 0.0560423f, -0.0654735f, -2.3603148f, -0.1487080f, -0.7730852f, 0.2251033f, 0.0001613f, 0.2094388f, -0.0675892f, 0.0165017f, -0.0124194f, -0.0140326f, -0.2216542f, 0.1210552f, -0.0023468f, 0.1878741f, -1.3963906f, -0.1855847f, -1.7044362f, -0.1351077f },
    { -0.0599373f, 0.2920015f, 0.2344492f, -0.0764593f, -0.0001701f, -0.0821894f, 0.0054098f, -0.2067879f, 0.2450240f, -0.1518134f, 0.3260605f, -0.1426316f, 0.2489715f, 0.3827001f, -0.0717003f, 0.0356667f, 0.1127612f, 0.1987002f, 0.0518073f, 0.0371187f, -0.1042787f, -0.1447323f, -0.0293610f, 0.0350106f, 0.3609481f, 0.2689063f, 0.1364805f, 0.1027015f, -0.0483358f, -0.1340945f, -0.2101323f, 0.0427004f },
    { 0.1653028f, 0.1396421f, 0.1174899f, 0.1428103f, 0.0173478f, -0.2229909f, -0.1902366f, 0.2787234f, 0.0070015f, 0.0186066f, -0.3186164f, -0.0632141f, -0.0734532f, -0.0824045f, -0.9874761f, 0.0884061f, 0.2251539f, 0.0624444f, 0.2307521f, 0.1369542f, -0.1964328f, -0.1269457f, 0.2150655f, 0.1706728f, -0.3243357f, 0.0975609f, -0.0805113f, 0.1984488f, 0.3051482f, 0.0215298f, -0.1597631f, 0.0741659f },
    { -0.0269802f, 0.5048047f, 0.5683080f, -0.2999536f, -0.4115312f, 0.0527699f, -0.0079232f, 0.0061653f, -0.0997747f, -0.7503133f, 0.7923338f, -0.3529152f, 0.4351232f, 0.1489668f, 0.2984403f, 0.1325541f, -0.1670687f, -0.4222518f, -0.2065028f, -0.2822203f, 0.0839205f, -0.0354024f, -0.0562240f, -0.3786990f, 1.1777031f, 0.3414146f, -0.1784489f, -0.4321547f, -0.0578322f, -0.0937259f, -0.6296101f, -0.1681098f },
    { -0.1390156f, -0.1856238f, -0.4899258f, 0.0195786f, 0.3645969f, -0.0389776f, -0.1959935f, -0.2148540f, 1.3939872f, -1.0895624f, -2.4206212f, 0.7456912f, -1.5128666f, -0.9188718f, -5.3424988f, -0.0454379f, -0.2996856f, -0.0069401f, 0.3704287f, 0.4208302f, -0.1192905f, 0.0786044f, 0.1588979f, 0.2551205f, -1.3342392f, -0.2282782f, -0.1148709f, 0.3041512f, -0.3304548f, 0.0459706f, -0.2899872f, -0.1506764f },
    { -0.0596686f, -0.1233171f, -0.0175781f, 0.0159548f, 0.0140771f, -0.1737489f, 0.0269031f, 0.1071762f, -0.1093895f, -0.1730946f, 0.0735629f, 0.0796658f, 0.1074656f, -0.1214506f, 0.1568244f, -0.0542799f, -0.0074375f, -0.0931667f, 0.0892357f, -0.1426476f, -0.1118290f, 0.1140903f, 0.1204848f, 0.1311642f, 0.1073611f, -0.1657085f, 0.1505993f, 0.0889630f, 0.0066004f, 0.1693156f, 0.0808119f, 0.0489357f },
    { -0.0883246f, -0.0106107f, 0.1520554f, -0.1288827f, -0.1222293f, -0.0809108f, -0.1624103f, -0.0899643f, 0.0275813f, 0.1056181f, -0.1183184f, 0.1394328f, 0.0567627f, -0.1744335f, 0.1565313f, -0.1192716f, -0.0027043f, -0.1133044f, 0.1624090f, 0.0476826f, 0.1671946f, -0.0547903f, -0.0483728f, -0.0267999f, -0.0334198f, -0.1695107f, 0.1314901f, 0.1190350f, 0.0731957f, -0.0323165f, -0.0729583f, 0.0690131f },
    { 0.0217060f, 0.4518883f, 0.3626316f, 0.0564270f, -0.1672197f, -0.2063417f, 0.1097201f, -0.1622432f, -0.2494080f, -0.6892592f, 0.3591910f, -0.0597018f, -0.0297959f, 0.1835388f, -0.1514627f, 0.2145204f, -0.2753506f, 0.0569815f, -0.2064089f, -0.2451252f, -0.1474228f, 0.1089483f, -0.0968808f, -0.0466166f, -0.1819919f, 0.2384253f, -0.0936434f, -0.1277068f, 0.0971487f, -0.1247112f, -0.4493541f, 0.0160282f },
    { 0.1663570f, -0.9963112f, -0.2516398f, 0.9742799f, 1.0881891f, -0.3290859f, -0.2440047f, 0.1727156f, -3.9617202f, 0.2037940f, -0.8934081f, -0.8174817f, -0.4977605f, -0.5371165f, 0.4742563f, -1.2670289f, 0.7221261f, 0.7834840f, 1.3444614f, 1.1776285f, 0.0305127f, -0.0877852f, 0.6371983f, 0.9430434f, -0.0375798f, -1.2995344f, 0.0781833f, 1.2366351f, 1.1289214f, 0.1391736f, 1.3893657f, 0.0148967f },
    { -0.0004296f, 0.3561269f, 0.0615257f, 0.0618995f, -0.0141697f, -0.2749920f, -0.0915592f, 0.4077169f, -1.0732948f, -0.6890314f, 0.1942211f, 1.3547902f, -0.0407594f, -0.1596265f, -0.0847367f, 0.1299210f, -0.3044821f, -0.0840864f, -0.0220600f, -0.1684148f, 0.0079853f, -0.1294212f, 0.1012631f, 0.0402961f, 0.1081825f, 0.3128012f, 0.0918002f, -0.1746533f, -0.1583763f, -0.1442577f, 0.7305894f, 0.0374084f },
    { -0.0370922f, -1.0562527f, 0.1171519f, 0.7670376f, 1.0244144f, 0.0384492f, 0.0463455f, 1.8935984f, 0.1408337f, 2.5485559f, -0.5358697f, 1.7440797f, -0.4503964f, -0.8548670f, -1.4698662f, -0.3268526f, 0.8523567f, 1.4589505f, 0.9825604f, 1.0605205f, -0.0122345f, -0.1828210f, 1.0846014f, 0.8848224f, 0.2073770f, -1.1032445f, 0.0985079f, 0.8321621f, 0.8180844f, -0.1167848f, -1.8142767f, -0.1312599f },
    { -0.1422421f, -0.2864935f, 0.7502307f, 0.3549210f, -0.3720337f, 0.1304740f, 0.0681484f, -0.0876262f, 0.5542603f, -0.6790601f, 1.3022380f, 0.3643727f, 0.3105164f, 0.6470032f, -0.0688714f, -0.0414153f, -0.2163450f, -1.7379851f, 0.1048579f, 0.1093841f, -0.0730337f, 0.0333175f, 0.1999401f, -0.1412251f, 1.4539932f, -0.1860545f, -0.2160422f, 0.3269937f, -0.1187862f, -0.1095113f, 0.5662229f, -0.0212098f },
    { -0.1746345f, -0.2475307f, -1.0474703f, 0.0853919f, -0.0986445f, -0.0782364f, -0.1349905f, -0.7696069f, -0.9521176f, 0.6428981f, -0.1452788f, -1.5033469f, -0.7901719f, -0.7138692f, 1.4295207f, 0.1546703f, 0.3240170f, 0.2272077f, 0.4163945f, 0.1789968f, 0.0427937f, 0.0965097f, 0.2002280f, 0.0221315f, -0.3350942f, -0.3340599f, -0.1195919f, 0.0185085f, 0.3765812f, -0.1449778f, -0.4736147f, -0.0286362f },
    { 0.0401973f, 0.8347664f, 1.5064223f, -0.9205527f, -1.1543856f, -0.1071507f, -0.1771575f, -0.9342261f, 0.4919949f, -0.3042769f, 1.0635396f, -0.7891945f, 0.7417160f, 0.9878661f, 0.3543989f, 0.7590358f, -0.9479676f, -1.1434366f, -0.9710516f, -0.8772341f, 0.0834103f, -0.1498467f, -0.9448988f, -0.8386158f, -4.7769275f, 0.8623704f, 0.1276926f, -0.9894560f, -0.7750064f, -0.0888751f, -0.2039155f, 0.0494879f },
    { 0.1136144f, -0.7915916f, -1.7747331f, 0.6096739f, 0.6707283f, -0.2858517f, -0.0912745f, 0.6273501f, 0.3620395f, 0.8067048f, -0.7737866f, 0.6255855f, -0.9241726f, -0.6892609f, 0.3728165f, -0.2268112f, 0.8743121f, 0.8311077f, 0.6878490f, 0.7805089f, -0.0960440f, 0.0095923f, 0.9702387f, 0.6671587f, -6.9717364f, -0.7963083f, 0.0121193f, 0.7209159f, 1.0046644f, 0.0930097f, 0.4091970f, -0.1725718f },
    { 0.1068988f, 0.0531550f, -0.0825478f, -0.1191483f, -0.1098208f, -0.0169512f, 0.1762048f, -0.1577864f, 0.1028110f, 0.0309578f, -0.1001785f, 0.1114619f, -0.0350030f, -0.1554543f, 0.0617685f, 0.0474626f, -0.1533462f, 0.0590796f, -0.0471493f, -0.0490076f, -0.0987559f, -0.1694475f, -0.1335299f, 0.1129329f, 0.1261806f, 0.0846951f, -0.0983416f, -0.1511731f, 0.0088375f, 0.0497478f, -0.1177936f, -0.0328250f },
    { 0.1202333f, -0.6964752f, 0.0883606f, 0.6573927f, 0.7660101f, -0.0392028f, -0.0807452f, 1.2772483f, -4.8160748f, 0.7095692f, -1.4623361f, 0.2595773f, -0.2580197f, -0.8113952f, 1.3387045f, -0.4282632f, 0.9985327f, 1.0302511f, 0.7010877f, 0.9315091f, -0.1073350f, 0.0760619f, 0.4945278f, 0.3712483f, 0.1822551f, -0.9254839f, -0.1331214f, 0.5866757f, 1.4244815f, 0.0677263f, 0.0453172f, 0.0413236f },
  };

  ALPAKA_STATIC_ACC_MEM_GLOBAL const float bias_output_layer[1] = {0.3033873f};

  ALPAKA_STATIC_ACC_MEM_GLOBAL const float wgtT_output_layer[32][1] = {
    { 0.1092672f },
    { 0.3364091f },
    { 2.0863409f },
    { -0.2763748f },
    { -0.2886849f },
    { -0.0353906f },
    { -0.0422880f },
    { -1.6734926f },
    { -7.8163710f },
    { -2.4228759f },
    { 1.3601782f },
    { -3.0842071f },
    { 1.0242560f },
    { 0.8020926f },
    { 1.7722498f },
    { 0.3175038f },
    { -0.3738365f },
    { -0.5816594f },
    { -0.4560893f },
    { -0.4964221f },
    { 0.0265406f },
    { 0.1095901f },
    { -0.2464049f },
    { -0.1214088f },
    { 5.4386597f },
    { 0.5369657f },
    { 0.0995514f },
    { -0.4137459f },
    { -0.9458389f },
    { 0.1121170f },
    { -4.1287003f },
    { 0.0683721f },
  };

}  //namespace lst::t4dnn

#endif
