#ifndef RecoTracker_LSTCore_src_alpaka_NeuralNetworkWeights_h
#define RecoTracker_LSTCore_src_alpaka_NeuralNetworkWeights_h

#include <alpaka/alpaka.hpp>

namespace lst::t5dnn {
  ALPAKA_STATIC_ACC_MEM_GLOBAL const float bias_layer1[32] = {
      -1.3837075f, -0.0653152f, -0.7900129f, 0.0714758f,  -1.1574365f, -1.4634879f, -0.9317133f, -0.1455518f,
      -0.0459635f, -0.2055620f, 0.0586231f,  -0.8943899f, -0.1009487f, 0.0166031f,  -0.5451909f, -0.1384538f,
      1.2664700f,  -1.8996916f, -0.0025585f, -0.1647783f, -1.9019107f, 0.0707104f,  -0.2373025f, 0.0357050f,
      -0.0048417f, 2.3127339f,  -0.0508943f, -0.1116435f, -0.1610904f, -1.6463890f, -1.0739423f, -0.0962902f};

  ALPAKA_STATIC_ACC_MEM_GLOBAL const float wgtT_layer1[23][32] = {
      {-0.1881404f, -0.0534256f, 1.6563641f,  0.0401664f,  2.8318353f,  1.5049738f,  1.4111555f, -0.2339872f,
       0.0431970f,  0.1220361f,  -0.0450153f, -1.6025578f, 0.0394025f,  -0.3051167f, 1.9442217f, 0.1599094f,
       0.1376955f,  2.4181051f,  -0.0226484f, -0.1801709f, -0.4861264f, -0.0268545f, 0.5463807f, 0.2420150f,
       -0.1238829f, 0.2916382f,  0.1507791f,  0.7952659f,  0.2736979f,  3.2790639f,  1.2062043f, -0.0884467f},
      {-0.0469924f, 0.2013927f,  0.0307775f,  -0.1241788f, -0.0100412f, 0.0422375f,  0.0211071f,  -0.0359304f,
       0.0451861f,  0.0291862f,  -0.2094866f, -0.0013007f, 0.1191471f,  0.0750159f,  0.0184378f,  0.0419437f,
       -0.0207304f, -0.0444109f, 0.0013400f,  -0.0699210f, -0.0668742f, -0.0880825f, -0.0107244f, 0.0363424f,
       0.1391699f,  -0.0112885f, -0.0060098f, -0.0073863f, -0.0566143f, -0.0224207f, 0.0103718f,  -0.0015193f},
      {0.4520382f,  0.1227609f,  -1.3887709f, -0.0542129f, -3.2003114f, -0.8354173f, -1.3173198f, 0.3292131f,
       -0.1657729f, -0.1982902f, 0.1599589f,  -0.0417666f, -0.1461042f, -1.3237997f, -5.3609071f, -0.0981676f,
       0.2922535f,  -1.8692241f, -0.0345302f, 0.1810613f,  0.4473544f,  -0.0159401f, -0.7293931f, -1.4816793f,
       -0.1431545f, -0.0955672f, -0.2370718f, -0.7204540f, 0.8451244f,  -3.4310548f, -1.3518151f, 0.1551731f},
      {0.2670300f,  0.1343590f,  3.0347505f,  -0.1783503f, 2.1586559f,  2.4137778f,  2.0080864f, -0.2545274f,
       -0.1985905f, 0.1653812f,  -0.1714860f, 4.1022782f,  -0.1045471f, 4.4776497f,  3.3737848f, -0.0849546f,
       -6.1899095f, 3.6970129f,  0.0007382f,  0.1675882f,  0.6014717f,  -0.0287709f, 0.0495882f, 2.2192705f,
       -0.1043157f, -4.7508621f, -0.0022774f, 0.3766513f,  -0.7505829f, 1.9759512f,  1.6747239f, -0.1004091f},
      {0.6639504f,  -0.0384022f, -10.0415087f, -0.0032648f, 0.3049855f,  -2.0427964f, -1.1522077f, 0.0935732f,
       0.1232134f,  0.0868663f,  -0.0230848f,  -1.8257296f, -0.0799238f, 6.8892417f,  -1.3941933f, 0.0445172f,
       0.9485117f,  -2.5238073f, -0.0148513f,  0.2256772f,  0.5914315f,  -0.1278037f, 0.1609928f,  11.3438406f,
       -0.0831544f, 0.1928522f,  0.0361467f,   0.0137040f,  4.9549832f,  2.3954937f,  0.3917757f,  0.1206975f},
      {29.6590214f, -0.0836848f, -1.3028307f, -0.1391431f, -0.3703596f,  5.3762760f,  1.8429571f,  21.0697041f,
       -0.1232606f, 0.0066067f,  -0.0308768f, -0.9960231f, 0.1865301f,   -1.2142091f, 0.9273136f,  0.0974103f,
       1.4067870f,  0.7268439f,  0.0035755f,  0.0619486f,  -32.8901024f, -0.1950644f, -0.3978897f, -3.1790049f,
       -0.1371673f, 0.1569460f,  0.0268667f,  -0.4512640f, 0.3055371f,   -0.2241473f, -0.6455348f, 0.1178979f},
      {-2.9178317f, -0.2023720f, -0.2946439f, -0.1851392f, -0.3493766f, -1.5397958f, -1.5902523f, 1.0981250f,
       -0.1796725f, -0.0540953f, 0.0926500f,  2.0021629f,  -0.1277778f, 3.3643394f,  -7.5327554f, -0.0084912f,
       2.7298651f,  0.2535582f,  0.0474618f,  -0.1377846f, -2.2746830f, -0.2016302f, -0.7150622f, 4.4011140f,
       -0.1688751f, -1.2160714f, -0.0055839f, -1.1319760f, -2.2543004f, 0.6365916f,  -1.4942099f, -0.0992425f},
      {-5.9751196f, -0.1597221f, -3.8946304f, 0.0537821f, 0.4741110f,  3.6895070f,  2.5116272f, 1.7058172f,
       -0.0860321f, -0.1519644f, 0.1465356f,  1.4165760f, -0.0984433f, 1.6990343f,  4.0953226f, 0.1742475f,
       -3.2570388f, 3.1653547f,  0.0135764f,  0.0092055f, -5.0966530f, -0.0542810f, 0.4907863f, 0.5900084f,
       -0.1736992f, -4.9153452f, 0.2017547f,  0.2854181f, 3.1490057f,  0.2885774f,  0.9775900f, -0.2207156f},
      {0.3805595f,   0.0308984f,  -9.5846119f, -0.0547350f, 1.9641919f,  2.0823991f,  9.9298115f,  0.0344243f,
       -0.1557834f,  -0.1847700f, -0.1195207f, 4.4698248f,  0.1492174f,  0.4272707f,  4.7265644f,  0.0200772f,
       -14.3444443f, 4.9532328f,  0.0319610f,  -0.0645846f, -0.6238102f, 0.1038110f,  0.2483765f,  -5.1799927f,
       0.0782294f,   16.8777409f, 0.0196593f,  0.8423936f,  -8.5921221f, -0.0184179f, -5.7857180f, -0.0551181f},
      {17.1570740f, 0.0265437f, -1.4766232f, -0.0528512f, 1.0128449f,   3.1529653f,  -0.6560294f, 8.7189465f,
       -0.1728377f, 0.1245629f, 0.1072764f,  0.2649773f,  0.0254132f,   -0.8094708f, 1.8371828f,  0.1586192f,
       1.9410020f,  0.9662392f, -0.0839922f, -0.2894930f, -16.5091496f, -0.1079556f, -0.1204132f, -0.9694697f,
       0.0537786f,  0.2476868f, 0.0076408f,  0.1025890f,  0.1267423f,   0.4956081f,  0.1457323f,  0.1342634f},
      {-0.5389574f, 0.1333421f,  -4.6338782f, -0.0645123f, -0.6526322f, -3.2958410f, -1.2309581f, -1.0803053f,
       -0.1170542f, -0.0169311f, 0.1147491f,  2.9890807f,  -0.1234096f, 0.6792320f,  -3.9311285f, -0.0678321f,
       -2.7922039f, 4.9413238f,  0.1060735f,  -0.1114068f, -2.2443752f, -0.1649915f, -0.3656403f, 2.5320942f,
       -0.0249616f, -4.5098810f, -0.1773834f, -1.9516623f, -1.6839710f, -0.1365123f, 1.0296160f,  -0.0419825f},
      {-2.4413636f, 0.1075683f,  -1.4518708f, 0.0537449f,  0.1154493f,  -0.5463845f, 1.3964951f, 2.6729572f,
       -0.0206257f, 0.1435281f,  -0.1819518f, 0.4540120f,  -0.1910136f, 1.7696143f,  2.3670278f, 0.1324464f,
       -0.5837788f, -2.2784615f, 0.0345478f,  -0.0980538f, -0.4999657f, 0.1178097f,  0.5756868f, -0.1058674f,
       0.1920418f,  -3.5473657f, 0.2146371f,  0.2557987f,  1.3935618f,  0.3242345f,  0.2029733f, -0.1844350f},
      {-0.9069599f, -0.2032758f,  -0.5786582f, 0.1395915f,  3.9338124f,  -1.6806563f,  0.4269728f,  -0.3697720f,
       -0.0306356f, -0.0341866f,  -0.0635755f, 1.8898975f,  0.1968578f,  -17.2182655f, 1.4839698f,  -0.0541308f,
       15.9838457f, 18.5951862f,  0.0078872f,  -0.1186571f, -2.4982276f, 0.0033835f,   0.3749593f,  -15.0238085f,
       0.0595601f,  -16.8588371f, 0.1146287f,  0.1274172f,  19.3332062f, -7.0513921f,  -5.4852023f, 0.1681230f},
      {-5.1457887f, 0.0335570f,  1.8620163f, 0.0560381f,  -0.6397949f, -4.0867515f, 1.3578068f,  -23.9992580f,
       -0.1034287f, 0.1437906f,  0.1076568f, -0.6930848f, -0.1176134f, 2.2855785f,  -0.8021089f, 0.0424611f,
       -0.6139123f, -3.1381547f, 0.0188163f, -0.1728741f, 0.6676420f,  -0.1124282f, 0.1077818f,  2.3839712f,
       0.1340676f,  1.3538554f,  0.0421035f, 0.4513423f,  -0.1543196f, 0.5120541f,  -0.8940096f, -0.1175765f},
      {2.1656792f,  0.1638565f,  4.5302448f,  0.0741160f,  3.3850696f,  -4.8867540f, 2.8059542f,  -0.0023008f,
       -0.1248942f, -0.0075225f, -0.0082212f, -1.0955724f, -0.1462416f, -1.7098176f, -4.1775723f, 0.1950609f,
       3.6847639f,  1.6520064f,  0.0310502f,  -0.0430167f, 3.4527576f,  0.1453262f,  -1.0126116f, 1.8785841f,
       -0.0615105f, 1.0451943f,  -0.2653875f, -1.2223006f, -1.0100641f, 1.2076828f,  0.4882897f,  -0.0618375f},
      {2.4578559f,  -0.1464199f, -1.3086185f, 0.1208716f, -0.2079897f, -2.7138259f, -1.4107026f, -0.4483974f,
       -0.1599056f, 0.0242936f,  0.1326804f,  0.8664415f, 0.0588684f,  0.7366717f,  2.3159802f,  -0.1917707f,
       -2.0800066f, -7.5100355f, 0.0585225f,  0.1582773f, 1.8128076f,  -0.0756957f, 0.8521049f,  0.5539182f,
       -0.1738797f, -0.2020151f, 0.2219591f,  0.1088298f, -1.9535940f, 2.4130275f,  -0.0741222f, 0.1156681f},
      {-0.4152933f, -0.0679605f, -0.5760314f, -0.0201883f, -14.1784763f, 0.7755737f,   -19.5469246f, 0.0381304f,
       0.0160074f,  0.1124380f,  -0.0478151f, -2.3719466f, 0.0819727f,   -12.5069208f, 2.0468810f,   0.0964909f,
       7.8784809f,  -6.3555703f, -0.0429914f, -0.0162720f, -0.9493829f,  0.0296786f,   -0.0244959f,  -12.6325788f,
       -0.1871653f, -9.8338795f, 0.0391840f,  -0.1199073f, -11.7859421f, 8.7398720f,   19.4971046f,  -0.1954873f},
      {-4.8962007f, -0.1695992f, 0.7760146f,  -0.0199836f, -0.0576061f, -6.0196476f, -2.3023551f, -20.0125084f,
       -0.1957836f, -0.0993785f, 0.1109372f,  -0.0710161f, -0.0553650f, 0.2546394f,  -1.7578228f, 0.1498791f,
       -2.6269529f, 1.3973731f,  0.0464059f,  -0.2307575f, 1.6730053f,  -0.0038867f, 0.1040150f,  2.6721606f,
       0.2027777f,  -1.2358316f, -0.0587254f, 0.0610504f,  -0.1700777f, -0.4323797f, 1.0359807f,  -0.0127435f},
      {1.1245984f,  -0.1806923f, -1.5868790f, 0.1536594f,  1.6837788f, -1.6474472f, -3.9225550f, 0.4506312f,
       0.1854908f,  -0.1023232f, -0.0306957f, -0.8615071f, 0.0945480f, 2.0585704f,  0.6044773f,  0.1269336f,
       2.4720187f,  -4.5123949f, -0.0657749f, 0.1738364f,  2.4188614f, 0.0038840f,  -0.2019601f, -0.3842189f,
       -0.0493631f, 3.6777370f,  -0.1003436f, 0.6174496f,  1.0476112f, 2.7601521f,  0.9059890f,  -0.1691816f},
      {1.9658293f,  0.2083382f,  1.7833723f, 0.0662620f,  -0.3932888f, -1.0642430f, 0.1807114f,  -1.1486723f,
       -0.0177136f, -0.1706942f, 0.1730027f, 0.6712329f,  0.0485299f,  0.6379296f,  -0.2880911f, -0.1993632f,
       -0.9471832f, 1.9425983f,  0.0328524f, 0.0777725f,  0.6454380f,  0.0143852f,  0.0192997f,  1.6793132f,
       -0.1872064f, -1.5757623f, 0.0242778f, -0.5992475f, 2.2148299f,  -3.5215647f, -2.9748621f, 0.0112703f},
      {0.3737165f,  0.0361593f,  -0.1075856f, -0.0312021f, -0.0786010f, 1.3149793f,  0.0237401f,  -0.0819654f,
       -0.1388431f, -0.0306386f, -0.0704427f, -2.3997226f, -0.1392045f, 0.7729424f,  0.1253861f,  -0.0819755f,
       -0.7590774f, -0.3295609f, -0.0172208f, -0.0551179f, 0.4599459f,  -0.1143881f, 2.7430685f,  0.3621114f,
       -0.1475701f, 0.2296079f,  -2.2224922f, -0.9080986f, 0.2101683f,  0.1190262f,  -2.2205217f, -0.0811555f},
      {0.3946800f, -0.1204188f, 0.0543225f,  -0.0392627f, 1.9454094f,  0.1865290f,  1.5276426f,  -0.0342965f,
       0.0117116f, -0.1873923f, -0.1045035f, 1.8535231f,  -0.0207077f, 0.0981549f,  -0.0327459f, -0.1486938f,
       0.6359531f, -0.1314566f, -2.1469448f, -0.1665767f, 0.5134121f,  -0.0341647f, -2.1786075f, -0.5976576f,
       0.0111857f, 0.3272055f,  2.1917374f,  -1.6247722f, 1.6025572f,  -1.9965295f, 0.3347488f,  0.1113990f},
      {0.0340557f,  -0.1659652f, -0.0042457f, 0.0010229f,  -2.1550148f, -0.4728722f, -1.3667214f, 0.2625635f,
       -0.0302200f, -0.0322885f, 0.0227866f,  0.6977839f,  0.0050141f,  -1.6183628f, 0.0869662f,  -0.0775411f,
       0.4754244f,  0.4596581f,  2.1509945f,  -0.0313832f, 0.0336208f,  -0.1547154f, -0.6017126f, 0.0369996f,
       -0.1102583f, -0.5788267f, 0.0017006f,  2.6352038f,  -1.7847317f, 1.7510574f,  2.1478791f,  -0.2251654f},
  };

  ALPAKA_STATIC_ACC_MEM_GLOBAL const float bias_layer2[32] = {
      -0.2689391f, 1.5461178f,  -0.2424639f, 0.4424149f,  -0.0411816f, -4.1070848f, 1.4709516f,  -0.2439820f,
      -0.1750926f, 2.8802166f,  -0.1573734f, -1.3724055f, 0.3671952f,  1.8267332f,  1.5655776f,  -0.7323843f,
      1.6318209f,  2.2198663f,  -1.5951139f, -0.0870247f, 0.2806863f,  -0.2407108f, 0.1310665f,  -0.5246177f,
      0.1914421f,  -0.3386542f, -0.6310596f, 3.2995102f,  0.7519229f,  -0.1565450f, -0.1496341f, 1.0073272f};

  ALPAKA_STATIC_ACC_MEM_GLOBAL const float wgtT_layer2[32][32] = {
      {-0.1731049f, 1.7775618f,  -0.2532010f, -0.2902778f, -0.1392802f, 4.2428946f,  -0.1866968f, -0.1800365f,
       -0.0634398f, 0.0763313f,  0.0472901f,  -0.8030146f, 0.3161853f,  -1.0713238f, -4.6514492f, -0.3908085f,
       1.1607268f,  0.8834935f,  -0.1194544f, -0.0785166f, 0.4967587f,  -0.0558136f, -0.9601135f, -0.1001592f,
       3.4427991f,  -0.2144053f, -0.3632556f, 0.0117088f,  0.1742481f,  -0.2540179f, -0.1705156f, -0.2627344f},
      {-0.1478276f, -0.1659575f, 0.1602777f,  -0.0758106f, 0.1067696f,  -0.0247068f, -0.1123443f, -0.1724832f,
       -0.0013103f, -0.0685904f, 0.1537329f,  0.1042632f,  -0.0360880f, -0.0679077f, 0.0672719f,  0.1597116f,
       -0.0150259f, 0.0367102f,  -0.0545881f, -0.0693004f, -0.1008447f, -0.0672846f, -0.1395939f, -0.0324785f,
       -0.1051702f, -0.0530534f, -0.1019061f, -0.0921245f, 0.1195077f,  0.0453448f,  0.0257045f,  -0.0622537f},
      {-0.0363173f, -0.1990481f, -0.0452148f, 0.4074381f,  -0.0731660f, -0.0823270f, 0.3154473f,  -0.1909118f,
       -0.0165690f, 0.1325824f,  -0.0760181f, 0.7768906f,  -0.2702211f, -0.6023573f, 1.5904741f,  0.2384946f,
       0.7610655f,  -2.8705251f, 0.5754877f,  -0.1587478f, -0.5708794f, -0.3421216f, 0.5023443f,  1.2806857f,
       0.2158970f,  -0.1364033f, -0.3398291f, 0.9066412f,  -1.2935438f, 0.0273695f,  -0.1850613f, -0.9301611f},
      {-0.1281746f, 0.1695392f,  0.0805936f,  -0.0598281f, 0.1266985f,  -0.1697189f, -0.1091505f, -0.1569477f,
       0.0363969f,  -0.0628394f, 0.0107523f,  0.0659535f,  -0.0568244f, -0.1299786f, 0.0005438f,  -0.0806242f,
       -0.0806848f, -0.0919798f, -0.0748445f, 0.0792912f,  0.0022868f,  0.0211520f,  -0.0183716f, 0.1279848f,
       -0.1518286f, -0.0113527f, 0.0824359f,  -0.0178597f, 0.0272009f,  0.0288935f,  0.0123459f,  0.1685353f},
      {0.1099675f, -0.3914332f, -0.0647218f, -0.8259028f, -0.0283726f, -0.0860217f, -2.0489185f, 0.1042144f,
       0.1024824f, 0.0735443f,  -0.1235109f, -3.3674469f, -0.1799957f, -7.1867313f, 1.6053666f,  -0.5203959f,
       0.8686391f, -0.0675404f, -2.8893898f, -0.0796400f, 1.2672142f,  -0.0371844f, -1.8065344f, -2.2551982f,
       0.0355568f, 0.0672171f,  0.7150316f,  1.3620002f,  -0.4106106f, 0.0126076f,  0.0408083f,  1.5958146f},
      {0.0525989f,  1.8947815f,  -0.2513640f, -0.3715420f, -0.1752283f, 1.3911799f,  -0.7633898f, -0.1716654f,
       -0.0145629f, -1.7601604f, -0.1943324f, -0.5716376f, -0.8281464f, -0.0308049f, -1.4709659f, -0.4294116f,
       -0.1030817f, -0.1823493f, 0.7561242f,  -0.1608112f, 0.3980689f,  -0.2464017f, -1.3065518f, 0.0875702f,
       -0.1504322f, -0.0352198f, -0.4051513f, 0.7010455f,  -0.2363433f, -0.1118084f, -0.1329087f, -0.3257700f},
      {-0.1209070f, 0.1677164f,  -0.1353413f, -0.0410048f, -0.1432644f, 0.2649301f,  0.2247741f,  -0.0425357f,
       -0.2644008f, 1.4204332f,  -0.2540753f, 0.2481354f,  1.9494507f,  -0.2003033f, -0.5938342f, -0.3314930f,
       1.5038266f,  -2.4000788f, -1.6202501f, -0.0256936f, -0.2890913f, -0.2113032f, 0.9030544f,  1.1483711f,
       0.0545346f,  -0.1961582f, -0.2267976f, 0.2372836f,  2.5995049f,  -0.1469661f, -0.1017130f, 1.6176132f},
      {0.0542207f,  2.7658713f, -0.1700335f, -0.3357265f, -0.1097085f, 1.6508883f,  0.0132292f,  0.1211861f,
       -0.0852982f, 0.9232512f, 0.0202751f,  0.3138782f,  0.2674713f,  0.1247260f,  0.3859081f,  0.3961721f,
       1.0556988f,  0.8574673f, -0.1462571f, -0.1600272f, 0.4117427f,  -0.1561815f, 0.0553897f,  -0.2753994f,
       5.8420453f,  0.0883128f, 0.3594444f,  -0.7174141f, 0.5683901f,  0.0096710f,  -0.0957449f, -0.0195320f},
      {0.1561092f,  -0.0417566f, -0.1044470f, 0.1186895f,  -0.1195878f, 0.0446987f,  -0.1386125f, -0.0103878f,
       0.1173026f,  0.1349312f,  -0.0676422f, -0.1452308f, 0.0093872f,  0.0069650f,  0.1739093f,  -0.1592752f,
       -0.1329019f, -0.0459163f, -0.1511888f, -0.0040456f, 0.0065862f,  0.0106182f,  0.0318060f,  0.1003269f,
       0.0249398f,  0.1661194f,  -0.0286407f, -0.1062361f, 0.0026465f,  -0.0091479f, -0.1493473f, 0.0519762f},
      {-0.0702637f, 0.1154817f,  -0.0680643f, 0.1447217f,  0.1394082f,  -0.0691432f, 0.0939426f,  0.0483852f,
       0.1437123f,  -0.1085759f, 0.0333924f,  -0.0683726f, 0.0707103f,  -0.0723069f, 0.0124601f,  -0.0309495f,
       -0.0308395f, -0.0695953f, -0.1078720f, 0.0858701f,  -0.0773453f, 0.0477413f,  0.0615588f,  0.1656474f,
       0.1718751f,  -0.1125762f, 0.1753366f,  -0.0557704f, 0.0921221f,  0.0372290f,  -0.1084552f, -0.0438967f},
      {-0.0557757f, 0.0694144f,  0.1150911f, -0.0202319f, 0.0661389f,  -0.0928373f, 0.0441888f,  -0.0028318f,
       -0.0039446f, 0.0294675f,  0.1353384f, 0.0427515f,  0.0695194f,  0.1329748f,  0.1339706f,  0.0713900f,
       -0.1384726f, 0.0925476f,  0.1581103f, 0.0100842f,  -0.1248652f, -0.0173615f, 0.1637451f,  -0.0025173f,
       -0.0331219f, -0.0335269f, 0.0949441f, 0.0538645f,  0.0834281f,  0.0137191f,  -0.1360130f, 0.0074489f},
      {-0.0949665f, -0.2181539f, 0.0871969f,  3.0772011f,  -0.1152011f, -0.0022047f, 1.2700632f,  -0.1173392f,
       -0.1678371f, -1.3448639f, -0.2893313f, 1.5105180f,  -0.6029126f, -1.1568675f, 1.4823192f,  0.1635401f,
       -2.2136483f, -1.4164798f, -0.4795305f, -0.0807557f, -1.6675406f, -0.0992591f, 2.1212378f,  -0.9400231f,
       -0.5339298f, -0.0342672f, -2.3564072f, 1.3407421f,  -3.8635128f, -0.1171367f, -0.0364181f, -3.2491686f},
      {-0.1047117f, -0.0540412f, -0.1137928f, 0.1582367f,  -0.0982449f, 0.0511854f,  -0.0805884f, -0.1141258f,
       0.0931992f,  -0.0227052f, 0.0780590f,  -0.1288135f, -0.1186576f, -0.0754066f, -0.1234059f, -0.0091936f,
       0.0205475f,  0.1640417f,  -0.1527465f, 0.0068472f,  -0.1239804f, -0.0448335f, -0.0061169f, -0.0078998f,
       0.0253047f,  0.0712901f,  0.0024753f,  -0.0259875f, -0.1238613f, 0.1096537f,  -0.0953007f, 0.1385384f},
      {0.0521762f,  1.4885306f,  -0.1298001f, 2.3033395f,  -0.1589162f, -0.8458843f, 0.0631668f,  -0.1424429f,
       -0.0384785f, 0.5599840f,  0.0008631f,  -1.5839294f, 1.9202064f,  0.6930331f,  0.4948464f,  -0.6195241f,
       -3.0526664f, 3.1423819f,  -1.3433597f, -0.1167206f, -1.3491610f, -0.0901343f, -1.2291449f, 3.5039587f,
       0.4674770f,  -0.3027362f, 0.8279622f,  0.3417586f,  0.1367343f,  -0.1085793f, -0.1048759f, 1.2729272f},
      {-0.0029521f, 0.2439991f,  -0.0858953f, -2.7804739f, -0.0220416f, 0.0256599f,  -0.3304259f, -0.0586597f,
       -0.0459698f, 0.1670698f,  -0.1359344f, -0.3957845f, -1.6954739f, 0.3318155f,  0.9375985f,  0.5211958f,
       0.6071047f,  -3.4249072f, 1.3199407f,  0.0136374f,  1.2692807f,  0.0233104f,  -0.0731508f, 2.2171400f,
       -0.6052189f, -0.0698463f, 1.6376522f,  -1.1908000f, -0.1706121f, -0.0380146f, 0.0144418f,  1.5177792f},
      {-0.0314772f, 0.0523589f,  -0.0517322f, -0.0100344f, 0.0714635f,  -0.1646974f, 0.0800682f,  0.1132821f,
       -0.0028872f, -0.1239987f, -0.1322138f, -0.1059789f, 0.1752418f,  0.0475279f,  -0.0046871f, 0.1574167f,
       -0.0231106f, -0.0261228f, 0.0236005f,  0.1663371f,  0.1059707f,  0.1229704f,  0.1427562f,  -0.1648343f,
       0.0992667f,  -0.0631751f, -0.1411413f, -0.0999486f, -0.0972435f, -0.1422556f, 0.0973614f,  -0.0156000f},
      {-0.1309903f, -0.5060971f, -0.1911870f, 2.2349114f,  0.1010354f,  0.5538697f,  1.8757060f,  -0.1538645f,
       -0.2073075f, -1.8350753f, 0.0532570f,  1.8151909f,  -0.6800886f, 0.2615838f,  -0.6204563f, -0.1238837f,
       -0.4772464f, -2.4070835f, -0.2783994f, -0.0211087f, -4.4925098f, -0.0790045f, 1.3566529f,  -0.3650998f,
       -0.4658130f, -0.0479139f, -1.9361999f, 2.1485121f,  -3.1108823f, -0.0020647f, -0.0489678f, -0.4781263f},
      {-0.0099352f, -1.9572417f, 0.0918592f,  0.7327217f,  -0.0609625f, -0.1969659f, 0.1922992f,  -0.1091586f,
       -0.2125459f, -1.9542989f, -0.1648019f, -0.9355955f, 0.9144324f,  -5.0530005f, -0.2265045f, -0.5638458f,
       4.4370432f,  -2.0318019f, -1.5679311f, 0.0221776f,  -0.4063498f, -0.1160609f, 0.9651156f,  -0.2401051f,
       0.1903293f,  -0.2355373f, 0.2334733f,  0.1025979f,  0.7150746f,  0.0315593f,  -0.0001765f, 0.0137871f},
      {0.0320691f,  -1.8876421f, -0.1241799f,  -3.1652985f, -0.1528286f, 2.1882250f,  -2.5907574f, 0.0210803f,
       -0.1545521f, 0.7706368f,  -0.1652040f,  -4.1518817f, 4.2974262f,  0.3074523f,  3.3711803f,  -37.9055862f,
       1.0623894f,  0.4360786f,  -2.6417589f,  0.1113010f,  3.8902094f,  -0.1616735f, 0.5595753f,  1.5364015f,
       -2.4740698f, -0.0240434f, -28.0232792f, 0.6092473f,  1.6978041f,  -0.0458809f, 0.0664777f,  0.2603019f},
      {0.1044999f,  0.0054908f,  0.1407564f,  -0.1701076f, -0.1274551f, 0.0443607f,  0.1182709f,  -0.1103420f,
       -0.1343671f, -0.0042888f, -0.1611361f, 0.0154269f,  0.2285106f,  0.0870507f,  0.0914433f,  0.0657276f,
       -0.1664300f, -0.0342912f, 0.1037545f,  -0.1175308f, 0.1135652f,  0.1325845f,  -0.1459545f, -0.2156865f,
       -0.1673723f, -0.1156510f, 0.0179541f,  0.0541515f,  0.0957617f,  -0.1297485f, 0.1045326f,  0.2950188f},
      {-0.1401742f, -2.8181052f, -0.0588381f, -0.1517100f, -0.0608850f, -3.5837226f, -0.1528927f, -0.0211265f,
       0.0881796f,  -0.4448619f, -0.1457623f, -0.8828475f, 0.1261238f,  -1.0495204f, -3.7918513f, -0.4645159f,
       -0.0800092f, 0.0624971f,  0.1528609f,  -0.1069645f, 0.4319421f,  0.0651448f,  -0.6571375f, -0.0323338f,
       -4.6534319f, -0.0538999f, -0.2221518f, 0.0972160f,  0.1496329f,  0.0570569f,  -0.1125795f, -0.0153687f},
      {-0.1065502f, 0.0606179f,  -0.1400291f, -0.0220975f, -0.0613350f, -0.0038843f, -0.0132201f, 0.1678067f,
       0.1008587f,  -0.1255144f, -0.0675021f, -0.0475353f, 0.0278098f,  0.0527470f,  -0.0089845f, -0.0622052f,
       0.1088723f,  0.0053812f,  0.0627310f,  -0.0226460f, -0.1096366f, -0.0505830f, -0.0301058f, -0.0775778f,
       -0.0008928f, -0.1157909f, 0.0544982f,  0.0430219f,  -0.0134386f, -0.1095094f, 0.1215172f,  0.0081556f},
      {-0.1747307f, -0.7465636f,  -0.0497346f, -2.0686443f, 0.0190713f,  -2.9156351f, -5.4731860f, -0.0728399f,
       -0.0845178f, -14.8429976f, -0.1068359f, 1.8549156f,  -3.1135283f, -0.0907917f, -0.0262453f, -8.8010912f,
       -4.3007965f, -1.6772208f,  -0.2576891f, -0.0163111f, -7.8583646f, 0.0697906f,  -0.0943863f, -0.7450574f,
       1.1493169f,  0.0921000f,   -0.2395420f, 0.5794312f,  -4.2405462f, -0.0910322f, -0.1381017f, -1.0270567f},
      {-0.0446755f, -0.8131990f, -0.1741483f, -1.7555307f, 0.0153283f,  0.0734032f,  -0.5930048f, -0.0398877f,
       -0.0215982f, 0.0497884f,  -0.0504920f, 0.0942539f,  -1.1370168f, -0.8821361f, -0.0879569f, 0.3811991f,
       1.2224945f,  0.3782545f,  1.4800016f,  0.0494110f,  1.7101970f,  -0.2885793f, -0.1778114f, -1.3913733f,
       -0.0944610f, -0.3578439f, 0.3491475f,  -3.0349872f, 0.8044587f,  0.0928676f,  -0.0395946f, 0.2008810f},
      {0.0721043f,  -0.1181163f, 0.0108281f,  -0.1215726f, 0.1285277f, 0.0851443f,  0.0791321f,  0.1765833f,
       -0.0324889f, -0.0150838f, -0.0051942f, 0.1685798f,  0.1521861f, 0.0283858f,  0.0326072f,  0.0346215f,
       -0.1081120f, -0.0745824f, -0.1762613f, 0.0901582f,  0.1335704f, 0.1599123f,  -0.0097813f, 0.0364541f,
       -0.0391450f, -0.0079635f, 0.1014886f,  0.0130333f,  0.0438304f, -0.0074333f, 0.0845035f,  -0.0471010f},
      {0.0360538f,  -0.9701002f, -0.2217611f, -1.1626705f, 0.0548465f,  0.6605385f,  -0.6693703f, -0.1432099f,
       -0.0754442f, -0.2380328f, -0.0754142f, -2.3242903f, 3.5773275f,  0.0707042f,  0.2052065f,  -1.3753067f,
       -0.8530636f, 3.1850073f,  -0.2901604f, -0.1291050f, -4.4672642f, -0.2425279f, 0.1252670f,  0.4261391f,
       -0.8620862f, 0.1153403f,  -0.1999598f, -4.7756801f, 2.8851914f,  -0.1340472f, 0.0482952f,  1.7996837f},
      {-0.1654812f, 0.9604513f,  0.1770310f,   -16.5736618f, -0.0350192f, -0.5557595f, -35.3047371f, -0.1299658f,
       0.0065243f,  -3.0823336f, 0.0351931f,   4.9456911f,   -1.4382623f, -1.6900688f, -1.9084880f,  -3.1811504f,
       -8.0212736f, -7.3994560f, 4.9219728f,   0.0433824f,   0.6197430f,  0.0308996f,  5.2004323f,   0.5327767f,
       1.0885966f,  0.1487215f,  -21.4211712f, -1.8733859f,  1.9195696f,  -0.0539309f, -0.0795544f,  -3.1121061f},
      {-0.0058153f, 1.7521383f,  -0.2205407f, 2.6318321f,  -0.0038140f, -1.4131194f, 3.0181022f,  0.0373498f,
       -0.1246315f, -1.8323456f, -0.1470954f, 2.9131169f,  1.1522563f,  0.6036215f,  -3.3962972f, 7.0906253f,
       -1.5353408f, -0.2648884f, 0.5501783f,  -0.2262681f, -2.4874980f, -0.0533402f, 3.0222948f,  0.3296265f,
       1.4057258f,  0.0185255f,  6.1208682f,  0.7210779f,  -0.3055671f, -0.2595702f, -0.1286864f, 0.6510819f},
      {-0.2145578f, 0.4758183f,  -0.1186396f, -0.6096930f, -0.1574199f, -0.1929667f, -0.6877209f, -0.2098342f,
       0.0726678f,  0.1379885f,  0.0710437f,  -1.1860796f, 0.6582619f,  0.2388466f,  0.0458675f,  -0.0634391f,
       -0.1678368f, -8.2454395f, -0.6461441f, -0.2063597f, 0.0304686f,  0.0319904f,  -1.0730971f, 1.1281222f,
       0.1292592f,  -0.3054110f, 0.7732272f,  -1.0069786f, -0.0847367f, -0.2342585f, -0.1553642f, 1.5100089f},
      {-0.1022291f, 2.7367072f, -0.1738961f, -1.0328600f, -0.0864617f, -0.3224345f, -2.6092832f, -0.2382921f,
       0.0578183f,  0.4115438f, 0.0121692f,  -1.0689495f, 0.5158959f,  2.9600139f,  0.8839240f,  -0.7147520f,
       -2.7168157f, 1.2148006f, 1.5884653f,  -0.1227511f, 1.3176637f,  -0.1335970f, -1.4691980f, 1.1131358f,
       -0.1302031f, 0.0779746f, 0.2622980f,  0.0837635f,  2.7756395f,  -0.0315265f, 0.0868374f,  -4.2980185f},
      {0.0228074f,  2.1787968f,  -0.1889012f, -0.8560471f, -0.1063542f, -0.2869910f, 0.2767612f,  -0.1183861f,
       -0.0992468f, 2.1517978f,  -0.0428540f, 1.0697522f,  1.9683092f,  2.1042306f,  -0.0426359f, -0.3499008f,
       -0.9989156f, 0.0880459f,  2.9753070f,  -0.1941337f, -3.1616704f, -0.0093505f, 1.4922180f,  2.8480091f,
       0.2656264f,  -0.1299839f, -1.0458518f, -1.6748481f, -3.1420829f, -0.1360553f, -0.1117443f, -1.3989290f},
      {-0.0246332f, 0.1165779f,  0.0255498f,  -0.0601489f, 0.1545041f, -0.0977981f, 0.1242626f,  -0.1533627f,
       -0.1294386f, -0.0231293f, -0.1460808f, 0.1763088f,  0.0953614f, -0.0716483f, -0.1003436f, 0.0804519f,
       0.1373295f,  -0.0686773f, 0.1198382f,  0.1519430f,  0.1640775f, -0.1675753f, 0.0790529f,  -0.1521838f,
       0.0378523f,  0.1039687f,  -0.0701027f, 0.0509319f,  0.1355647f, 0.0978021f,  0.0391430f,  0.0241266f},
  };

  ALPAKA_STATIC_ACC_MEM_GLOBAL const float bias_output_layer[1] = {-0.7420582f};

  ALPAKA_STATIC_ACC_MEM_GLOBAL const float wgtT_output_layer[32][1] = {
      {0.0381968f},  {1.0667214f},  {0.0505496f},  {-1.5677565f}, {0.0066824f},  {-0.9951485f}, {0.9438043f},
      {0.0068631f},  {-0.0216870f}, {0.6560486f},  {-0.0235629f}, {0.9653404f},  {0.6641668f},  {-0.5351945f},
      {-0.5303048f}, {1.9339687f},  {0.4359012f},  {-0.7492802f}, {-0.5728400f}, {0.0473893f},  {-0.5091293f},
      {-0.1926489f}, {-0.6562935f}, {-0.5583456f}, {-0.7618014f}, {-0.0316967f}, {1.1637378f},  {-0.5158406f},
      {-0.5268564f}, {0.0735416f},  {0.0270067f},  {-0.5614370f},
  };

}  //namespace lst::t5dnn

namespace lst::t4dnn {
  ALPAKA_STATIC_ACC_MEM_GLOBAL const float bias_layer1[32] = { 
    0.1634338f, -0.1743048f, -0.0409393f, 0.1607168f, -0.0875559f, 0.1371638f, 0.2310515f, -0.0112289f, -0.1262494f, -0.1009985f, -0.0009956f, -0.0266414f, -0.2614853f, -0.0016584f, 0.2739165f, -0.1528634f, -0.0879436f, -0.0712310f, 0.0217869f, 0.0167524f, 0.1688287f, -0.4045014f, 0.6184383f, -0.0453197f, 0.4491621f, -0.4630396f, 0.3081370f, 0.4278569f, 0.0014279f, 0.1518184f, -0.1618671f, 0.5473022f };


  ALPAKA_STATIC_ACC_MEM_GLOBAL const float wgtT_layer1[19][32] = {
    { -0.1930123f, 0.2266529f, -0.1518998f, -0.0322091f, 0.1723199f, -0.2641113f, -0.6950451f, -0.2151515f, 0.1859231f, -0.4135855f, -0.1980464f, -0.0669865f, -0.6503241f, 0.0438469f, -0.2347244f, -0.2325336f, -0.2568382f, -0.1640366f, -0.0926319f, -0.2488756f, 0.0261631f, 0.2750404f, -0.1134383f, -0.2810563f, 0.5469739f, -0.7536214f, 0.2800142f, 0.5968089f, -0.2091258f, 0.1816785f, -0.0067157f, -0.2792566f },
    { -0.1791365f, 0.0153604f, 0.1058702f, 0.0319302f, -0.1288029f, -0.1446182f, -0.0120536f, 0.0914790f, 0.0796410f, 0.2423091f, 0.1039453f, 0.1006924f, -0.0429676f, -0.0201563f, -0.0487165f, 0.0145548f, -0.0165229f, 0.1980924f, 0.0126538f, 0.0795637f, -0.1617375f, 0.0722509f, -0.0926754f, -0.0058398f, 0.1068643f, -0.1726105f, 0.0253649f, 0.0052480f, 0.0886962f, 0.0028942f, -0.0952247f, 0.0001238f },
    { 0.1701119f, 0.1391174f, 0.0503616f, 0.1149482f, -0.1815678f, -0.0182636f, -0.7053745f, 0.1421656f, -0.0914463f, 0.2327511f, 0.2001411f, -0.0743452f, 0.5371603f, 0.0175942f, 0.0530733f, 0.1322544f, -0.0549409f, 0.1079104f, 0.1564293f, 0.0597734f, -0.0171433f, 0.3891028f, -1.1207303f, 0.3613308f, -0.9463265f, 0.3746418f, 0.1990897f, -0.2197486f, -0.2209995f, 0.0051944f, -0.0752179f, -0.6361599f },
    { -0.2237590f, 0.0496805f, -0.0327612f, -0.1534899f, -0.2020812f, -0.2336523f, -0.0000047f, 0.1912663f, -0.0982320f, 0.1577479f, 0.1088798f, 0.1356876f, 0.2767155f, -0.2748698f, -0.0495653f, -0.1425705f, 0.1412433f, -0.0771840f, -0.0033443f, 0.1603648f, -0.0442754f, 0.2882776f, -0.1856437f, 0.0373375f, -0.6632856f, 0.4777465f, 0.2447082f, -0.5821887f, 0.0174410f, 0.0252416f, -0.0757020f, -1.6223696f },
    { 0.1817058f, -0.4296623f, -0.1602298f, -0.1760034f, -0.0006817f, 0.0549312f, 0.0231182f, 0.1311284f, 0.0034573f, 0.1254227f, 0.0548395f, -0.1994687f, 2.5388496f, 0.5565527f, -0.4337801f, -0.1787683f, 0.3244159f, -0.0079177f, 0.0178178f, 0.0660032f, -0.1097533f, -2.8700457f, -4.6933484f, 0.1972812f, 0.3743932f, 0.7534134f, -0.7575153f, -0.6705135f, 0.2197543f, 0.9059904f, -0.1450332f, -1.1099038f },
    { -0.0124085f, 1.9731746f, -0.0528571f, 0.0897519f, 0.0328595f, -0.1035157f, -0.4625762f, 0.0196316f, 0.1656262f, 2.8109956f, 0.0957150f, 0.0028527f, -0.4209488f, 3.4988201f, 5.4994111f, -0.2699189f, 0.3811205f, -0.0653490f, -0.4205865f, -0.0014272f, -0.0907852f, 0.3932288f, -1.1508069f, 0.8858696f, -0.5922411f, 0.5919372f, -0.2907203f, -0.6153842f, -0.1374147f, -0.9521722f, -0.1147947f, 0.9148439f },
    { 0.1586676f, 0.0017628f, 0.1495534f, -0.1667342f, 0.2175903f, -0.1812095f, -0.5854314f, 0.1316051f, -0.1202880f, 0.7947891f, -0.0635462f, -0.1555327f, 1.0148649f, -0.3607462f, 0.2200426f, 0.8616346f, -0.2196384f, -0.1711655f, 1.2225716f, 0.1537391f, 0.0251793f, 0.2621545f, -1.8279016f, 0.9350225f, -1.1381329f, 0.6377633f, -0.4263505f, -0.5861191f, 0.0080347f, 0.4544501f, 0.0899169f, -0.5797859f },
    { -0.0185018f, 0.3021668f, 0.2056975f, 0.0216659f, -0.1899661f, 0.0899214f, 0.2488901f, 0.0365096f, 0.1469532f, 0.3368184f, 0.0350916f, 0.1985811f, -0.0820812f, -0.4501147f, 0.3674002f, 0.1576833f, 0.4686353f, -0.1450999f, 0.0001397f, -0.1405178f, 0.1495297f, -0.3065542f, 0.5146171f, 0.1709872f, -0.4802989f, -0.2268572f, -0.6984946f, -0.5341035f, -0.0901917f, 0.3105322f, -0.0294095f, -0.6451266f },
    { -0.0063520f, -0.6074038f, 0.0851718f, 0.0770937f, 0.0400035f, 0.2088062f, 0.8578678f, -0.1177923f, -0.1212464f, -0.5036687f, 0.1663307f, -0.0298676f, 4.0662179f, 0.7088665f, -0.7064201f, -0.2472643f, -1.7118814f, -0.0678563f, 0.1854759f, 0.1128915f, 0.0101524f, -2.7521849f, -1.5197473f, -0.2143390f, 2.2604144f, 1.2939155f, -0.5685425f, 1.0285019f, -0.1662546f, 2.1289744f, -0.0698512f, -3.2063310f },
    { 0.2121855f, -0.2879484f, 0.2032863f, -0.0212019f, -0.0211183f, -0.0587595f, 0.4269921f, -0.1635247f, 0.1072040f, 1.2007114f, -0.0375709f, -0.0395596f, -0.6889641f, 3.1377752f, 4.0852113f, 0.1809836f, 0.2452300f, -0.1196480f, 0.1526598f, 0.1690066f, 0.1259770f, 0.6856061f, -0.0627406f, 0.0429925f, 0.5604438f, -0.2388547f, 0.4856517f, 0.4888106f, 0.1740822f, -0.1913989f, -0.2166835f, -0.2240829f },
    { -0.0517185f, 0.0150357f, 0.0289053f, -0.1711345f, -0.1057077f, -0.0688952f, -0.7993909f, 0.1822250f, -0.0476285f, 0.1465187f, -0.1525457f, 0.1453755f, 0.1329943f, -0.8487844f, 0.6707226f, 1.1258558f, -0.4890490f, -0.0493967f, -0.1238054f, -0.1329857f, 0.2257763f, 0.7843999f, -1.2785410f, 0.3992978f, 0.2736451f, -1.5696425f, 0.3458625f, 0.6536776f, 0.0951994f, 0.3953549f, -0.0126580f, -0.7042522f },
    { -0.2319417f, 0.2025190f, 0.0898681f, 0.0284478f, 0.1740269f, -0.2325268f, 0.1795816f, -0.0051561f, -0.0418347f, 0.2225199f, -0.0958672f, 0.0343939f, -0.1416031f, -0.8297882f, 1.0096679f, 0.0241898f, 0.3427863f, 0.1278402f, 0.1410580f, -0.0432464f, 0.1846356f, 0.2472718f, 0.4498338f, 0.1083860f, 0.0371692f, -0.5273498f, -0.2364719f, -0.2779132f, -0.2243485f, -0.2819490f, 0.1539101f, -0.1585897f },
    { 0.1643658f, 2.5756130f, 0.1531316f, 0.2429593f, -0.2016037f, 0.0338517f, -3.5114551f, 0.0674730f, -0.0870233f, -1.9659477f, 0.1756979f, 0.1869877f, 2.1031773f, -0.4666712f, -0.0845166f, -0.1289778f, 5.0552516f, 0.0216077f, -0.3117280f, -0.0990454f, -0.1199195f, 5.2117062f, 5.0400395f, -0.0721711f, -1.8518344f, -1.5831391f, -2.1129744f, -1.5017650f, 0.0944399f, -7.0842571f, -0.0049423f, 5.8390923f },
    { -0.1062671f, -0.9199280f, 0.0016199f, 0.0538311f, -0.0667446f, 0.1900040f, 0.2183150f, 0.0761823f, 0.1822309f, 1.6972076f, -0.0965130f, 0.0471656f, 0.3691437f, 1.7990122f, 4.2289696f, 0.2774780f, -0.3864843f, -0.1558109f, 0.4337438f, -0.0893303f, -0.1429738f, 1.8890616f, 0.5112259f, -0.5976758f, 0.4299628f, -1.2273648f, 0.5241864f, 0.6856886f, 0.0653399f, 0.9192033f, -0.1667433f, -0.3128937f },
    { 0.1347414f, -0.2322466f, 0.0948470f, 0.0478190f, 0.0232810f, -0.2342362f, -0.8139452f, 0.1021840f, 0.0861407f, -0.5168774f, 0.0444427f, 0.0461019f, -0.2872389f, -0.1408329f, 0.1509122f, 0.1638784f, 0.3147564f, 0.0569569f, -0.2884794f, -0.2378744f, -0.1683822f, 0.7638831f, 0.5198123f, -0.5279152f, 0.0734985f, -0.8000278f, 0.4409807f, 0.4772846f, 0.2126906f, -1.0092002f, -0.1374814f, 1.1943605f },
    { -0.1972755f, -0.3144837f, 0.0995134f, -0.2324263f, -0.1544900f, 0.0862116f, 0.8254294f, 0.1725329f, 0.1954091f, 0.6872669f, -0.0404012f, 0.2133032f, -0.0949813f, -1.0019288f, 0.9542206f, 0.1782932f, 0.4977661f, 0.1438995f, 0.0130898f, 0.0994471f, 0.2113964f, -0.1257035f, 1.1655275f, 0.0784788f, -0.2133850f, 0.2688855f, -0.4564145f, -0.6374901f, -0.1131319f, 0.6301580f, 0.1968492f, -0.4159498f },
    { -0.2130433f, -0.1636469f, -0.1621862f, -0.0429645f, -0.1587163f, -0.1397442f, 0.0577054f, -0.1943589f, -0.0126507f, -0.0999763f, -0.0703869f, -0.1366939f, 0.0937166f, 0.0646411f, -0.2291072f, 0.2849540f, 0.1957330f, -0.1914802f, -0.2786386f, 0.0242078f, -0.1837011f, 0.2215553f, -0.0941139f, 0.1209657f, -0.0551933f, 0.2584788f, -0.1086428f, -0.0673254f, -0.2274383f, -0.0984024f, -0.0229457f, 0.1943425f },
    { 0.0981287f, 0.1627820f, -0.0420725f, -0.0801037f, 0.0467910f, 0.0536179f, 0.1283047f, -0.1869475f, -0.1999789f, 0.1740908f, -0.0363903f, -0.0554622f, -0.0035244f, 0.1725588f, 0.1947910f, -0.2259739f, -0.0987788f, -0.0362120f, 0.2508634f, -0.1544807f, -0.1316502f, 0.0982550f, -0.1344362f, -0.1451169f, 0.1598866f, 0.3549021f, 0.1731576f, 0.1574793f, -0.0898476f, -0.0716398f, -0.0623455f, 0.1719444f },
    { 0.1349129f, -1.1630591f, 0.1083221f, -0.1056630f, 0.1959644f, 0.0363309f, 0.6143915f, -0.1733273f, 0.0135324f, -0.1614559f, 0.0593963f, 0.0435455f, -0.0596398f, 0.0947955f, 0.1688565f, 3.1187124f, -0.6494725f, -0.0523205f, -3.8796964f, -0.0893904f, -0.1690112f, 0.2114157f, -0.0310690f, 2.7918849f, 0.2074852f, -0.0774351f, 0.0159807f, 0.1146140f, -0.0045889f, 0.7250550f, 0.0791244f, -0.3288634f },
};

  ALPAKA_STATIC_ACC_MEM_GLOBAL const float bias_layer2[32] = { 
    -0.0908084f, 0.1333576f, 0.3450180f, -0.2004614f, 0.4736326f, 0.1035710f, 0.1658191f, -0.2070404f, -0.2380649f, 0.1966422f, -0.2289620f, -0.2449241f, -0.2240544f, -0.1568308f, 0.6197074f, -0.0850560f, 0.1788823f, 0.1447091f, -0.0239786f, 0.0759965f, -0.1261522f, 0.2750860f, 0.2442109f, 0.4675213f, 0.3906738f, 0.2078071f, 0.3928956f, 0.3322275f, 0.5592813f, 0.2733477f, -0.1182173f, -0.2053826f  };


  ALPAKA_STATIC_ACC_MEM_GLOBAL const float wgtT_layer2[32][32] =  {
    { -0.0759547f, -0.1311983f, -0.1305376f, -0.0749147f, -0.0415288f, 0.1344940f, 0.0290649f, -0.1506481f, -0.0379855f, -0.0260599f, 0.1235612f, -0.0379416f, 0.1074644f, -0.0526356f, -0.1296316f, -0.0131777f, 0.1095960f, 0.1167432f, 0.0504500f, 0.1131907f, 0.0001239f, 0.1475687f, -0.1488657f, 0.0630909f, 0.1387548f, 0.1707416f, 0.0558049f, 0.0716425f, -0.0314337f, 0.0384306f, 0.0496574f, 0.0471626f },
    { -0.1294543f, -0.0943177f, -0.9858522f, -0.1520731f, -0.3992988f, -0.2931871f, -1.0578251f, 0.1225273f, -1.8418409f, -0.2292878f, -0.1741289f, -0.1214292f, -0.2028223f, 0.0625641f, -0.7570964f, 0.0282822f, -1.7924556f, -0.1551778f, -0.0703147f, 0.5321659f, -0.1441826f, -0.0818760f, 0.1034048f, -2.4065607f, -0.7631765f, -0.2810894f, -1.0917974f, -0.0955270f, -2.4233780f, -2.6264665f, 0.0254893f, -0.1565096f },
    { -0.0994243f, 0.0500254f, 0.1408432f, 0.0501379f, -0.0276797f, -0.0567098f, 0.0737856f, 0.0865691f, -0.0345373f, -0.0337706f, -0.1710909f, 0.0126209f, -0.0095268f, -0.0375369f, -0.1099246f, 0.1371745f, -0.0009121f, -0.0185415f, -0.1251319f, -0.1732790f, -0.1176864f, -0.1513379f, -0.0196548f, 0.0784806f, 0.0882109f, -0.0061844f, -0.1489324f, 0.0663796f, -0.1189280f, 0.1094723f, -0.1136086f, 0.0030657f },
    { 0.0082763f, 0.0031057f, -0.1037044f, -0.0607693f, 0.0167605f, -0.0000524f, 0.1461835f, -0.1214307f, -0.1602160f, -0.1443628f, 0.0225765f, -0.0846467f, -0.0684075f, -0.0824422f, -0.1173745f, -0.1618130f, 0.1710856f, -0.1648528f, 0.1466192f, -0.1442132f, -0.1741329f, 0.0053502f, 0.0278484f, 0.1863748f, -0.1043250f, -0.0690915f, 0.0771181f, 0.1071003f, 0.0981510f, 0.1809441f, 0.0140713f, 0.1498349f },
    { 0.1509237f, 0.0913553f, 0.0502500f, 0.0430008f, 0.1063112f, -0.1547800f, 0.0349136f, 0.0177902f, -0.1380287f, -0.1298091f, -0.0495177f, -0.0179333f, -0.1118974f, -0.1114417f, -0.1468817f, 0.0720062f, 0.1732279f, 0.0219245f, 0.1293806f, 0.0486774f, -0.0762219f, 0.0019244f, 0.0652653f, 0.0316064f, -0.0123557f, -0.0713565f, 0.0132918f, -0.1234952f, -0.1124735f, -0.0725312f, -0.1504653f, 0.0718469f },
    { 0.0355707f, 0.0044875f, -0.1264874f, -0.0603561f, -0.0318084f, 0.0617914f, 0.0138815f, -0.0203475f, -0.0961865f, -0.1890801f, -0.0520630f, -0.0590158f, -0.1532345f, -0.0286801f, 0.0532239f, -0.0496488f, 0.1328089f, 0.0389741f, 0.0176087f, 0.0322285f, 0.0718820f, -0.0137296f, -0.1510934f, 0.0328012f, -0.0596278f, -0.0975443f, 0.0451743f, -0.0068077f, -0.1614369f, 0.1228631f, -0.0205330f, -0.0570054f },
    { -0.1542319f, 0.0261049f, -0.9884297f, -1.0853770f, -0.7466291f, 0.2046944f, -0.2247553f, 0.0250132f, -1.4062533f, -0.0769560f, 0.0847036f, -0.1106704f, 0.0490523f, -0.0480624f, -0.5394953f, 0.0910759f, -0.2141952f, -0.2878726f, 0.0086059f, -0.0547996f, 0.1646520f, 0.0658842f, -4.4026117f, -0.3096845f, -0.2773183f, -0.0063261f, -0.4003110f, 0.2511038f, 0.2943809f, -0.1904535f, -0.0803355f, -0.1955736f },
    { -0.1686226f, -0.0438762f, 0.1020948f, 0.0682068f, 0.0954696f, -0.0910327f, 0.0562004f, -0.0780266f, -0.1656910f, -0.1589201f, -0.1322672f, -0.1320925f, -0.0996615f, -0.0026330f, -0.1358655f, -0.0971458f, 0.0441268f, 0.0974237f, 0.0710566f, 0.0810586f, 0.0933201f, -0.0002555f, -0.0764999f, 0.0803497f, -0.0848788f, 0.0739150f, 0.0249732f, -0.0391856f, -0.0549624f, 0.1158507f, -0.0115003f, 0.0948328f },
    { -0.0160078f, 0.0169053f, 0.0194334f, 0.0086066f, -0.1468467f, -0.0104653f, -0.0266821f, -0.0874068f, -0.0760906f, -0.0271785f, 0.1023870f, -0.1116328f, 0.0000089f, 0.0878216f, -0.1263972f, 0.0219641f, 0.0442739f, -0.1137554f, 0.1660355f, -0.1009707f, -0.0821884f, -0.0772916f, -0.1072982f, 0.1565807f, -0.0215900f, 0.0578610f, 0.1129235f, 0.0284250f, -0.1291616f, 0.0992253f, -0.0380143f, 0.0692063f },
    { -0.0510811f, 0.3178646f, 0.0755658f, 0.1584458f, 0.2462410f, 0.0884971f, -0.0640635f, 0.1083329f, 0.1337067f, -0.3838046f, -0.0219985f, -0.0071932f, -0.2327300f, -0.1084541f, -0.1763325f, -0.1051895f, 0.2930297f, 0.1225176f, -0.0006383f, -0.6973130f, -0.0081134f, 0.5578684f, 0.2955973f, 0.1887995f, 0.0284461f, 0.6470931f, -0.6901881f, 0.6208983f, -0.7194760f, 0.3415243f, 0.0189051f, 0.1081808f },
    { 0.0125561f, 0.1778084f, 0.1209446f, 0.0320880f, 0.1379628f, 0.0803637f, -0.1124596f, 0.1129204f, -0.0315715f, -0.1345769f, -0.1702386f, 0.0309598f, 0.1657299f, -0.0607957f, -0.0473997f, 0.1258816f, -0.0803285f, -0.1175373f, -0.0674053f, 0.0052157f, -0.1638985f, 0.1429687f, 0.1426862f, -0.0568867f, 0.0988415f, 0.1047931f, -0.0577914f, -0.1108401f, 0.0275716f, -0.1952735f, 0.0918921f, 0.0680264f },
    { -0.1384751f, -0.0019619f, 0.0999881f, 0.0414487f, -0.1051648f, 0.1079786f, 0.0881692f, -0.1234007f, 0.0031166f, -0.1594855f, 0.1096644f, -0.1172458f, 0.0564396f, -0.0493751f, -0.0446828f, 0.0322844f, 0.0492563f, -0.0409127f, -0.1672318f, -0.0873433f, 0.1124986f, 0.0899167f, -0.1208455f, 0.0972715f, 0.1584447f, -0.0427356f, -0.1370718f, -0.0291002f, -0.1108597f, 0.1169424f, 0.0744249f, 0.0941828f },
    { -0.0739363f, 1.0231454f, 0.6555656f, -0.7143073f, -0.6036157f, -0.7164732f, 0.8364943f, -0.0326065f, -1.6974505f, 1.0638695f, 0.0283065f, -0.2561910f, -0.0025269f, 0.0754187f, 0.5829023f, -0.1766856f, -0.2094097f, 2.3919721f, 0.0395477f, 1.6364070f, -0.0184693f, 1.1749873f, 0.8840497f, -0.1847477f, 0.6669837f, 1.2695261f, 0.8472050f, 1.2862067f, 0.3923864f, 0.3834364f, -0.0283960f, -0.0370346f },
    { -0.0370913f, -0.0967491f, 0.6566508f, 0.3580005f, 0.5692858f, 0.7459344f, 0.4674644f, -0.0140364f, 0.5631581f, 0.2693292f, -0.1109894f, -0.1986397f, -0.0239513f, 0.1210251f, 0.5184777f, -0.1577759f, 0.0023098f, -1.6820238f, 0.1055620f, -0.9274230f, -0.1656128f, -0.1754673f, 0.4992569f, -0.0701893f, -0.0139419f, -0.1584593f, -0.3024170f, -0.1879019f, -0.2304240f, 0.3526568f, -0.0411816f, -0.0680517f },
    { -0.0521740f, 0.5702693f, 0.6236935f, 0.3061268f, 0.5548838f, 0.1038228f, 0.5237855f, -0.1601563f, -0.4180656f, 0.3855728f, -0.0984190f, -0.1660867f, -0.1000160f, -0.0390308f, 0.4367073f, -0.0360200f, 0.0141697f, 0.4655464f, -0.0326539f, 0.2034396f, 0.0070688f, 0.4215400f, -0.3953905f, -0.2132544f, 0.1245391f, 0.5824464f, -1.2291605f, 0.5601491f, -1.1297932f, 0.2801168f, 0.0767247f, -0.3162417f },
    { -0.1521828f, -0.1564190f, 0.0428756f, -0.0761392f, 0.0090404f, -0.0774512f, -2.3708460f, -0.1686026f, 0.6268489f, -0.5028247f, -0.1666230f, -0.0681034f, 0.0406587f, -0.0607446f, -0.0946574f, -0.3470227f, -2.2671444f, -0.1691195f, -0.0935603f, 0.3628939f, 0.0666574f, 0.0150799f, -2.2853138f, -2.4127045f, -2.9804819f, -0.2373843f, -1.5597893f, -0.1841715f, -0.2175817f, -2.9083130f, -0.0285475f, -0.0615874f },
    { 0.1665833f, -0.0487647f, -0.0536372f, 0.0091820f, -0.1372651f, -0.0972645f, -0.1284903f, 0.0056691f, -2.3786521f, -0.0144331f, 0.0294055f, -0.1049019f, -0.2020120f, -0.2180421f, -0.6438969f, -0.1139781f, 0.6429832f, 0.0465658f, 0.1025042f, 0.3158522f, -0.0130672f, -0.2401240f, -1.9211775f, 0.4569972f, -0.0939691f, 0.0494037f, -0.0312306f, -0.2325274f, 0.0376109f, 0.0884306f, -0.0771332f, 0.0555113f },
    { 0.0833601f, 0.0380718f, 0.1508506f, 0.1623565f, 0.0565592f, -0.0900208f, 0.0532752f, 0.0161099f, 0.1575423f, -0.1359281f, -0.1304783f, -0.1626378f, -0.1081953f, -0.1481481f, 0.1337342f, 0.1219426f, 0.1152915f, 0.1435697f, -0.0837646f, 0.0589454f, -0.0295111f, -0.0316958f, -0.0063750f, 0.0109095f, 0.1065843f, -0.1514896f, -0.1331206f, 0.0996901f, -0.0587141f, -0.0602100f, -0.0422663f, 0.0429186f },
    { -0.1352862f, 0.1022040f, -0.2260172f, -0.0280951f, -0.2653137f, -0.2808822f, -2.6399648f, -0.1163808f, -0.5994815f, -0.6775101f, -0.1115673f, 0.0034367f, 0.0876951f, -0.0948649f, -0.5885632f, -0.1557879f, -3.8026197f, 0.2750326f, -0.0935205f, -0.0860485f, -0.1511547f, -0.0487258f, 0.5244331f, -3.6270173f, -3.5900300f, 0.1962828f, -0.2743910f, -0.0399544f, -2.8142090f, -4.2884603f, -0.2062552f, 0.0169009f },
    { -0.0423858f, 0.0509630f, -0.0971506f, -0.1131390f, 0.1400879f, 0.1334552f, 0.0157536f, -0.0325766f, -0.0647890f, 0.0773073f, 0.1593402f, -0.0557322f, 0.1382457f, -0.1750850f, -0.1264569f, 0.0860351f, -0.0903055f, 0.0853105f, 0.1998010f, 0.0583374f, 0.1514035f, -0.1368541f, -0.0481076f, -0.1157543f, -0.0421812f, 0.0535726f, 0.1135862f, -0.0521841f, 0.0918923f, 0.0311539f, 0.0771863f, -0.1516223f },
    { 0.0050344f, 0.0992843f, -0.1598603f, 0.0744020f, 0.0687025f, -0.1132373f, -0.1236112f, 0.0613678f, -0.1195921f, 0.0747338f, -0.1338354f, 0.1678397f, 0.0772633f, 0.1225313f, -0.1694868f, 0.1538586f, 0.0019771f, -0.1685491f, -0.1136794f, -0.1006719f, -0.1139916f, 0.1534910f, -0.0735092f, -0.0023578f, -0.1399446f, 0.1278057f, -0.0949311f, 0.0287748f, -0.1040118f, -0.1196484f, 0.1301733f, 0.1393845f },
    { -0.0724320f, -0.0386939f, -0.2679374f, 0.7264773f, 0.2633415f, 0.3994507f, -0.2449255f, 0.0910928f, 0.5975684f, -0.1594547f, -0.0127076f, -0.1995019f, -0.1899423f, 0.0311096f, 0.0770814f, -0.0341401f, 0.1945730f, 0.1638643f, -0.1750650f, 0.8432718f, -0.0864013f, -0.1004095f, -0.1553968f, 0.2928565f, 0.0860233f, -0.0020837f, -0.0958830f, -0.0321519f, -0.0156707f, -0.2584843f, -0.1487266f, -0.0421298f },
    { 0.0463555f, -0.1091701f, 0.3015197f, -0.0153797f, -0.5812436f, -0.3659846f, 0.2070216f, -0.0963198f, -0.9141381f, 0.7439005f, 0.0581200f, -0.1260295f, -0.0101094f, 0.0013492f, -0.1393696f, -0.0218287f, -0.1130284f, 1.2259713f, -0.0805311f, 0.7279236f, 0.0900132f, 0.0818604f, -1.8734744f, -0.0917994f, 0.4955214f, 0.0002143f, 0.5962438f, -0.0274306f, -0.1468660f, -0.0430872f, -0.0161701f, -0.0540674f },
    { -0.0950920f, -0.0973294f, -0.1667220f, -0.2545069f, -0.1689996f, -0.2436964f, -2.2397189f, -0.0190521f, 0.6361826f, -0.2955425f, -0.0992763f, -0.0149685f, -0.0498913f, 0.0768963f, -0.1588274f, -0.0806581f, -2.7853138f, 0.0276958f, -0.0844316f, 0.4357266f, -0.1422263f, -0.2335304f, -1.1500721f, -2.8858957f, -3.4776344f, -0.2278583f, -0.6109197f, -0.2967465f, 0.0338854f, -3.1894310f, -0.1118351f, 0.0641036f },
    { -0.0662678f, 0.3536933f, 0.2629687f, -0.1487351f, 0.2179928f, 0.3174376f, 0.0387142f, -0.1925564f, -0.4558765f, 0.7477601f, -0.1604437f, 0.0202939f, -0.0250864f, -0.1655962f, 0.5607749f, -0.0790968f, -0.2257775f, -0.4007204f, -0.1168664f, -0.0285584f, -0.1210795f, 0.2855112f, 0.7239063f, -0.3489076f, -0.2443463f, 0.4165129f, 0.4074038f, 0.3388804f, 0.2079948f, 0.3217532f, 0.0069464f, -0.2131255f },
    { -0.1402772f, -0.4895503f, -0.8338910f, -0.1326706f, 0.1644378f, 0.5716494f, -0.6416292f, -0.0725091f, -0.3138831f, -0.5273060f, -0.0361141f, 0.0422474f, 0.0283540f, 0.0261404f, -0.4377357f, -0.1541033f, 0.2746031f, -0.3372452f, -0.1039727f, -1.1861017f, -0.1757417f, -0.4658225f, -0.1638103f, 0.3329956f, -0.5258319f, -0.1519736f, -0.5578764f, -0.3901971f, -0.4204383f, -0.0962842f, -0.1892754f, -0.1269751f },
    { -0.1352748f, 0.2475437f, -0.1260993f, 0.3302112f, 0.4825460f, 0.0923637f, -0.2939169f, 0.0075156f, 0.4016205f, 0.0126875f, -0.1789630f, -0.0372383f, -0.2052755f, -0.1375844f, 0.4999769f, 0.0890796f, 0.1845271f, 0.2197322f, -0.0834661f, -0.1997270f, -0.0542995f, 0.3007948f, 0.4140363f, 0.1728194f, 0.1837027f, 0.3903376f, 0.1977797f, 0.2081081f, 0.0384581f, 0.0848217f, -0.2329976f, -0.0803802f },
    { -0.1130513f, 0.2245368f, 0.2216254f, 0.1518122f, 0.3718738f, 0.2424165f, 0.0701964f, -0.1072907f, 0.2084208f, 0.1907115f, -0.1113585f, -0.0264195f, -0.1466006f, -0.1962771f, 0.7003558f, -0.1327246f, -0.5605400f, -0.1734466f, -0.0221023f, 0.3588722f, -0.0510143f, 0.2854519f, 0.7254704f, -0.4298652f, -0.1367480f, 0.3266595f, 0.6322122f, 0.4079730f, 0.2101950f, 0.1264600f, -0.1149999f, -0.0336075f },
    { -0.0708887f, 0.1601988f, 0.0677732f, -0.1147202f, 0.1422379f, -0.0140640f, -0.0112249f, 0.1084680f, -0.1407572f, 0.0616199f, 0.1449738f, -0.1215245f, -0.1712376f, 0.0065201f, 0.0079584f, 0.1471321f, -0.0325299f, -0.0183271f, -0.1315651f, 0.0067055f, -0.1210957f, -0.1336702f, 0.1386591f, 0.1247788f, 0.0832745f, -0.1599007f, -0.1403576f, 0.1043322f, -0.0287867f, 0.0130512f, -0.1639646f, -0.0599111f },
    { 0.1585180f, 1.3580886f, -3.6002228f, -3.5552926f, -1.2256505f, -0.6829955f, 0.9488723f, 0.0459476f, -2.2284582f, 0.2458488f, 0.0967928f, -0.0085189f, 0.0259326f, -0.0493992f, -0.3241713f, 0.0126610f, 0.2977579f, 1.5871257f, 0.1317067f, -0.5693579f, 0.1301494f, 0.8703647f, -3.7938457f, 0.1957220f, 1.0639210f, 1.1874371f, 0.2404942f, 1.1082003f, 0.7089318f, 0.3362050f, -0.1471579f, -0.0597998f },
    { 0.0606286f, -0.1195276f, 0.0373975f, -0.1440464f, -0.1765466f, 0.0089168f, -0.1517473f, 0.1010860f, -0.1169446f, 0.0496504f, 0.0176382f, -0.0979110f, 0.1530696f, 0.0987917f, -0.0292051f, -0.0609474f, 0.1063846f, 0.1098842f, 0.0129639f, 0.0189203f, 0.1166754f, 0.0163022f, 0.0646614f, -0.0595066f, 0.0333221f, -0.1193208f, -0.1050182f, -0.0458579f, -0.0243770f, 0.0796026f, -0.0725854f, -0.0455081f },
    { -0.0766417f, 0.4003384f, -0.1264452f, 0.4075412f, -0.6963359f, 0.0084670f, 0.1587654f, -0.0378069f, -0.4907149f, 0.4614767f, -0.1421082f, -0.1622717f, -0.0954528f, -0.1764537f, -0.4746110f, 0.1325516f, -0.7791410f, -0.7750604f, -0.0762911f, 0.2247614f, -0.0376178f, 0.2880448f, -2.1633499f, -1.0700350f, -0.0925026f, 0.2096678f, 0.2966076f, 0.1666346f, 0.3470352f, 0.0363742f, -0.0592034f, 0.0364224f },
  };

  ALPAKA_STATIC_ACC_MEM_GLOBAL const float bias_output_layer[1] = {-0.3605094f};

  ALPAKA_STATIC_ACC_MEM_GLOBAL const float wgtT_output_layer[32][1] = {
    { 0.1123535f },
    { -0.5287815f },
    { 1.7244133f },
    { 1.3594623f },
    { 0.9643398f },
    { 0.6578390f },
    { 2.3969243f },
    { -0.0348557f },
    { 1.7230744f },
    { 1.0631951f },
    { 0.0836009f },
    { -0.1374544f },
    { 0.1279751f },
    { 0.1222262f },
    { 0.9916148f },
    { 0.0703832f },
    { 2.7152433f },
    { -2.2383788f },
    { -0.0692763f },
    { -1.7097427f },
    { -0.0734624f },
    { -0.3912248f },
    { 2.4161210f },
    { 2.8585935f },
    { 2.6840706f },
    { -0.5556708f },
    { 2.4491799f },
    { -0.5692031f },
    { 1.7318647f },
    { 1.9330370f },
    { 0.0337008f },
    { 0.0644887f },
  };

}  //namespace lst::t4dnn

#endif
