#ifndef RecoTracker_LSTCore_src_alpaka_NeuralNetworkWeights_h
#define RecoTracker_LSTCore_src_alpaka_NeuralNetworkWeights_h

#include <alpaka/alpaka.hpp>

namespace lst::t5dnn {
  ALPAKA_STATIC_ACC_MEM_GLOBAL const float bias_layer1[32] = {
      0.8381023f,  1.2556465f,  0.0067099f,  -0.0357693f, 0.1169101f,  -0.0153113f, -0.0846093f, 0.7797670f,
      0.9055398f,  0.1665114f,  -0.0550796f, -0.0567238f, 0.0941665f,  -0.1216114f, -0.1699734f, 0.2718568f,
      -0.0005298f, -0.1234800f, 0.4162073f,  -0.0819755f, -0.0992466f, -0.1968698f, -0.9469606f, 0.5872037f,
      -0.1228067f, -0.4750639f, -0.4919112f, 1.5527098f,  -0.5490310f, -0.1912438f, -0.0286376f, -0.2222957f};

  ALPAKA_STATIC_ACC_MEM_GLOBAL const float wgtT_layer1[18][32] = {
      {-1.3590021f, 0.6276954f, -0.1449918f, 0.0577370f,  -0.1576955f, 0.3870811f,  -0.0306186f, -0.7776857f,
       -2.4529552f, 0.1741910f, -0.1386530f, 0.1470326f,  -0.0229899f, -0.1953953f, -0.0866006f, 0.2343440f,
       -0.0381602f, 0.0025981f, -1.5493799f, -0.1535862f, -0.2149696f, 0.1132401f,  1.0470828f,  0.2647061f,
       -0.0883747f, 2.9208860f, 0.6330654f,  -0.3167520f, -0.0053264f, 0.1200040f,  -1.4732890f, -0.0641288f},
      {1.5409008f,  -0.2445420f, 0.5728381f,  -0.0224280f, -0.2209680f, 0.3975667f, 0.1514053f,  -0.3518175f,
       1.8653508f,  0.1703563f,  0.0541671f,  0.0707710f,  -0.1296598f, 0.0166212f, -0.2231757f, -0.2298288f,
       0.1515491f,  -0.0877527f, 0.0267650f,  -0.0166315f, -0.1833107f, 0.2135980f, 0.4585742f,  0.0545256f,
       -0.1238023f, -3.6342409f, -1.5667412f, 0.7584751f,  1.5726668f,  0.1195947f, 2.2186098f,  -0.1959659f},
      {-1.6374129f, -1.4102328f, 0.8131387f, 0.0225332f,  -0.0153069f, 0.0299461f,  -0.1091296f, -0.0160365f,
       -1.6576413f, -0.1978515f, 0.0032953f, -0.1085755f, -0.0581009f, 0.1631211f,  -0.0659636f, -0.3528317f,
       -0.0149552f, -0.0938201f, 1.6130958f, 0.1513250f,  -0.1115365f, 0.0593220f,  3.0901117f,  -1.3332770f,
       -0.1110921f, 2.0363133f,  2.6538639f, -3.6059115f, 0.7219769f,  -0.1640888f, 0.7755069f,  -0.1108092f},
      {-0.2936167f, 6.1980624f,  -0.4599009f, 0.0311129f, 0.1828872f,  -0.2142502f, 0.2085699f,   1.6321551f,
       -1.1880305f, 0.1927557f,  -0.1985132f, 0.0887561f, 0.1714940f,  -0.1827505f, 0.0312042f,   0.3490315f,
       -0.0019204f, -0.0948882f, -3.3440456f, 0.1356649f, 0.0992870f,  -0.1688469f, -11.9658194f, -0.0076418f,
       0.1754400f,  1.0275215f,  -1.7420135f, 0.2945143f, -1.4503033f, -0.1764025f, -0.8626893f,  -0.1650196f},
      {0.6450894f,  -0.2659193f, -0.0554443f, -0.1571963f, -0.0717938f, -1.6951908f, 0.0990743f,  2.6783466f,
       1.5408627f,  0.0354736f,  -0.0042377f, 0.1060356f,  -0.0842549f, -0.0162483f, -0.1908853f, -1.7604783f,
       -0.0874540f, 0.0929945f,  0.3855971f,  0.2271341f,  -0.0265867f, -0.0940968f, 1.6492866f,  -1.1620234f,
       -0.0054144f, -7.9476857f, 0.6742283f,  3.6346674f,  0.1277585f,  -0.1252134f, 2.7238610f,  -0.2227236f},
      {-0.7608751f, -1.3364639f, 0.2793101f,  0.0671013f,  -0.1188807f, 0.3691385f,  -0.1549930f, -1.0517840f,
       -1.2893225f, 0.2082838f,  -0.0334609f, 0.1394186f,  0.0161169f,  0.0812546f,  0.1173968f,  1.2311919f,
       0.0236558f,  -0.2817375f, 1.3230846f,  0.0783550f,  -0.2084638f, 0.1807853f,  -2.1035442f, -0.4654399f,
       0.0235591f,  3.9155247f,  1.3587128f,  -4.2010083f, 0.6350310f,  -0.0052448f, 0.6574754f,  0.0686782f},
      {-2.7833683f, 10.2854757f, 4.6338739f,  0.0240941f,  -0.0696120f, -0.3897463f, -0.1248256f,  -0.4816284f,
       -4.7507734f, 0.1557197f,  0.2135302f,  0.0618758f,  -0.2073696f, -0.1496306f, 0.0877262f,   2.5853217f,
       -0.0422003f, 0.0184724f,  -3.8206606f, 0.1141581f,  0.1459169f,  0.2033599f,  -11.1376858f, -1.9455458f,
       -0.1760101f, 8.7950487f,  0.6831748f,  -9.6213007f, -1.1076751f, 0.1012195f,  2.7658327f,   -0.1416854f},
      {0.2418604f,  -1.9301127f, 0.3877483f,  -0.0933844f, 0.0126722f,  -1.0790098f, 0.1009928f,  3.7290661f,
       2.1045575f,  0.1211392f,  -0.2160725f, -0.0462994f, -0.0852768f, 0.1915723f,  0.1689342f,  -1.3557134f,
       -0.0077365f, 0.1614280f,  5.2128477f,  0.0722612f,  -0.0341569f, -0.1447665f, -3.7722759f, -1.0395907f,
       -0.0527294f, -3.9730494f, 2.6421480f,  0.9249437f,  0.1579958f,  -0.1002075f, 1.7829212f,  -0.2132620f},
      {-0.2429990f, 0.2634341f, 0.2590226f,  0.0672474f,  0.0036324f,  0.0303038f,  0.0897552f,  -0.6256298f,
       -1.6122288f, 0.0027225f, -0.1595401f, -0.0935275f, -0.1982563f, 0.0155485f,  0.1946360f,  1.4213501f,
       0.0137804f,  0.1520022f, 0.9409513f,  -0.1742253f, -0.1503127f, 0.0523944f,  -0.0227176f, 0.3040073f,
       -0.0240107f, 1.0642775f, -1.0194819f, -2.0675447f, -0.0253559f, -0.0036589f, 1.4283713f,  0.1586476f},
      {-5.0235038f, -18.3295002f, -5.7430124f, 0.0443320f,  0.1303882f,  0.4247405f,  0.0121365f,  -4.8916097f,
       0.9041749f,  0.1742271f,   -0.2020964f, 0.1310671f,  -0.0256758f, 0.1279234f,  -0.2113014f, 1.5976193f,
       0.0230461f,  0.3957245f,   15.0924625f, -0.0339573f, 0.2194625f,  0.1601087f,  4.2093749f,  -1.7748410f,
       0.0570550f,  -3.7076390f,  24.7426872f, 10.6664305f, 4.9739928f,  -0.1869711f, -3.9020858f, -0.0625287f},
      {-1.2785814f, 0.4951370f,  -0.1854935f, -0.0854860f, -0.0326400f, -1.4217318f, -0.0526660f, 2.3796616f,
       1.1375890f,  -0.1294750f, 0.1514099f,  -0.0875889f, 0.0334763f,  -0.1046284f, -0.1509691f, 1.8961424f,
       0.0482185f,  0.1560478f,  1.1729040f,  0.2059654f,  -0.0396296f, 0.0583655f,  0.2114737f,  1.1078014f,
       0.0713762f,  -5.2123141f, 3.3188431f,  -1.5417687f, -2.2969320f, -0.1852825f, 1.5388242f,  -0.1949441f},
      {0.3436254f,  1.5141397f,  0.3445305f,  0.0537090f,  0.0983261f,  0.2764109f, 0.0450150f,  0.3694516f,
       -0.1495358f, 0.0250220f,  0.0863517f,  0.1613176f,  0.1065962f,  0.1730740f, -0.0821967f, -0.8726079f,
       -0.0041691f, -0.0050251f, 1.0713325f,  0.0622442f,  -0.0212901f, 0.0256977f, 0.0212109f,  0.4948872f,
       -0.0750605f, 1.9991436f,  -6.2873325f, -1.7726667f, 0.0714888f,  0.0387835f, 0.3844735f,  -0.1025873f},
      {13.7695932f, -17.3070316f, -0.0396740f,  0.0129914f,  -0.1876401f, 3.8251970f,  0.2313863f,  -5.4996729f,
       14.7995348f, -0.0461617f,  -0.1183308f,  0.0492157f,  0.0139761f,  -0.1253950f, -0.0316143f, -11.3720646f,
       0.0372201f,  0.0982849f,   -1.5191002f,  -0.1424744f, -0.1819868f, -0.2320994f, 4.2790890f,  -0.6142485f,
       -0.1854810f, 0.5198026f,   -18.9082165f, 8.7000732f,  4.5243855f,  -0.0778345f, 2.4486756f,  0.0691332f},
      {0.0951613f,  0.9556295f,  -0.2075231f, -0.0207790f, 0.1411675f,  -0.7328303f, -0.2109708f, -0.0570228f,
       -0.5559142f, -0.0610400f, -0.1140115f, -0.2104663f, -0.1170108f, -0.0814055f, 0.2027502f,  0.6474348f,
       -0.0218391f, 0.0668279f,  0.3389186f,  0.0271586f,  -0.0642117f, 0.0128125f,  -0.6837727f, -0.2763188f,
       0.0651659f,  -1.6473349f, -0.4024041f, 0.6453164f,  -1.8239625f, 0.1908238f,  0.3040223f,  0.0225411f},
      {0.4597256f,  1.3507527f,  0.4121956f,  -0.0016478f, 0.1683506f,  -0.1844230f, 0.1416871f,  -0.3610686f,
       -0.3396192f, -0.0093597f, 0.1620043f,  0.0136876f,  -0.1921590f, 0.2109465f,  -0.1422910f, 1.5516689f,
       0.0199380f,  0.0875053f,  -0.8301335f, 0.0079493f,  -0.0684538f, 0.0361081f,  0.4911018f,  0.4027354f,
       -0.1420899f, 0.9741972f,  -0.2662143f, -1.0193604f, -0.3064712f, -0.1355691f, -0.1211660f, -0.0860424f},
      {0.0226056f,  0.0887831f,  1.8112129f,  1.6017252f,  -0.2053973f, 1.1942143f,  -0.0789642f, 1.8492327f,
       -1.7628566f, -0.1820963f, 0.1481515f,  0.0491807f,  -0.1601979f, -0.0944827f, -0.0244225f, 1.4816471f,
       0.0817022f,  0.1168359f,  -0.3918689f, -0.0036699f, -0.1226492f, -0.1818991f, -0.1200486f, -1.8239323f,
       -0.0273595f, 0.3133134f,  0.3980505f,  -0.3074540f, -1.6801124f, 0.0689322f,  -1.5872164f, -0.0232152f},
      {-1.4185179f, -0.0736576f, -1.8146720f, -1.6101750f, -0.2238937f, 0.8144313f,  -0.0773187f, -2.1662028f,
       0.5510010f,  -0.2138556f, -0.2583132f, -0.1989928f, 0.0310343f,  -0.2301474f, -0.1509903f, -0.0908552f,
       1.6234847f,  -0.2726549f, -0.0519968f, 0.0002568f,  -0.0989678f, -0.1076209f, -0.1692470f, 0.7444451f,
       -0.1140423f, -0.4251049f, 0.7397567f,  0.0376131f,  0.1935069f,  -0.0884010f, 1.0571744f,  -0.1094984f},
      {1.4048315f,  -0.7603406f, -0.0600279f, 0.0053667f,  -0.0833659f, -1.8888202f, 0.0453878f, -0.0496936f,
       1.5723938f,  -0.0734776f, -0.2582742f, -0.0617443f, -0.1607129f, -0.0791748f, 0.0578387f, -1.5397879f,
       -1.7127135f, -0.1419368f, 0.4146990f,  -0.1711587f, -0.1359243f, -0.0187611f, 0.1016016f, 0.9840503f,
       -0.1550723f, 0.0806085f,  -1.1700696f, 0.3543602f,  1.7325212f,  -0.1722032f, 0.4361708f, -0.1782625f},
  };

  ALPAKA_STATIC_ACC_MEM_GLOBAL const float bias_layer2[32] = {
      0.5240659f,  -0.3156822f, 1.1848069f,  0.0944839f,  0.7664731f,  0.0659122f,  -0.1521311f, -0.2121075f,
      -0.0233282f, 1.3092561f,  -1.5706853f, -0.1676442f, -0.6326731f, 0.6803766f,  -0.0098859f, -0.0427784f,
      0.4217910f,  0.5993415f,  0.1781375f,  0.9795442f,  -0.9739875f, -0.0787116f, 0.2965019f,  0.6723404f,
      -0.2183474f, -0.4365332f, -0.1825527f, -0.9912634f, 1.0041238f,  -0.0377338f, -0.0275527f, 0.6230045f};

  ALPAKA_STATIC_ACC_MEM_GLOBAL const float wgtT_layer2[32][32] = {
      {1.6865302f,  -0.0070441f, 0.8035002f,  0.2735598f,   0.2723117f,  0.8619063f,  -0.0804875f, 0.1225932f,
       1.4203900f,  1.1994495f,  1.3166131f,  -0.1413901f,  -1.7412066f, -0.4393452f, -0.0659093f, -0.1708370f,
       -0.9448425f, 0.5583439f,  -0.2568475f, -12.7132454f, 2.4591708f,  0.1297256f,  -0.0836688f, -0.5895968f,
       0.0749868f,  -1.0832437f, -0.0648381f, -0.5253773f,  0.0090072f,  -0.0765873f, 0.1528091f,  0.4434315f},
      {-0.5916990f, 0.0199793f,  2.6379824f,  -0.8051495f, 0.4584879f,  -0.0740655f, -0.0945753f, -0.0077198f,
       -0.9868032f, -0.5211059f, 1.0236850f,  0.0043219f,  -0.7691199f, -0.9887687f, 0.0182249f,  -0.0233012f,
       0.6525627f,  3.3088458f,  -0.0542368f, 0.8937343f,  1.9721413f,  -0.1451552f, -0.6037965f, -0.3363538f,
       -0.1826214f, -0.7827175f, 0.0263213f,  1.2864074f,  2.2937937f,  0.0188819f,  -0.1770117f, 0.1439094f},
      {2.2476032f,  -0.0563116f, 2.2437718f,  0.1898347f,  -2.0759408f, 1.8427511f,  -0.1640616f, -0.1479506f,
       3.2908669f,  -0.6904550f, 3.6500773f,  -0.0827876f, 1.4326503f,  -0.7677880f, -0.0796807f, -0.0939390f,
       -0.3899352f, -0.5100920f, -0.0482071f, 2.4649706f,  2.4606583f,  -0.1814978f, -2.4230726f, -1.4843392f,
       -0.0986952f, -2.8446929f, -0.1327703f, -0.4634184f, -0.9766884f, -0.1103326f, -0.0926516f, -1.7657683f},
      {-1.0957067f, -0.1004687f,  -1.5787225f,  -0.4126261f, 2.8912346f,   -21.3616123f, 0.2207962f,  0.0518269f,
       0.8230206f,  -13.1024904f, -1.8619218f,  -0.0424225f, -1.8340806f,  2.3357768f,   0.1242197f,  0.0754490f,
       4.2121305f,  1.6034925f,   -12.6262836f, 0.5050023f,  -25.2706032f, -0.0431384f,  5.8223386f,  1.0384507f,
       -0.0637078f, 5.0680337f,   -0.0471517f,  -3.0921204f, 5.1592808f,   -0.0875837f,  -0.2792810f, 2.2812967f},
      {0.0304742f,  -0.1621580f, -0.0106217f, 0.0899758f,  0.1324803f,  -0.0700794f, -0.0436681f, -0.0540102f,
       -0.1609280f, -0.0408476f, 0.0065347f,  -0.1726691f, 0.1159499f,  0.1275673f,  -0.1606314f, 0.0174050f,
       -0.1249909f, -0.1623034f, -0.1212896f, 0.0254142f,  -0.0601893f, 0.1673056f,  0.0928323f,  -0.0363208f,
       -0.1524574f, 0.1155388f,  -0.0944822f, -0.0977464f, -0.0798940f, 0.1726533f,  -0.0649631f, 0.0377241f},
      {-0.6356571f, -0.2607541f, -0.4543975f, -0.9816490f, 0.5416448f,  1.1389946f,  -0.1113931f, -0.1674357f,
       -4.8352165f, -1.6452470f, -1.5373472f, 0.0241024f,  0.5536532f,  1.7614238f,  -0.0999563f, -0.0025965f,
       -0.2934853f, 0.9991399f,  4.0100627f,  -0.4765424f, -1.2356933f, -0.1874161f, 2.1570861f,  2.1920633f,
       -0.0976036f, 0.0125106f,  -0.1139313f, -2.1311975f, 0.2431549f,  0.0021341f,  -0.1491757f, 0.2584881f},
      {-0.1554675f, -0.1167430f, 0.0423138f,  0.0711883f,  -0.0020845f, 0.1020336f,  0.0658370f,  -0.1375653f,
       0.0447370f,  0.1206502f,  0.0297869f,  0.1711519f,  0.0798078f,  0.1185202f,  -0.0763909f, -0.1206729f,
       -0.0553183f, 0.1228582f,  -0.0083935f, -0.1761404f, -0.0106561f, -0.0442752f, -0.1696223f, -0.1221765f,
       0.0369741f,  -0.1118567f, -0.0521597f, 0.0321973f,  0.0386908f,  -0.0866795f, -0.0968414f, -0.0050339f},
      {2.1435175f,  -0.1551078f, 3.2713811f,  -2.0504487f, -0.6445094f, -4.6579847f, -0.0102526f, -0.0756903f,
       -0.9215934f, 0.8505831f,  0.3627001f,  -0.1521874f, -1.4340100f, -0.0646441f, -0.2252390f, -0.2244328f,
       -2.9290957f, -0.4925358f, -1.0748628f, -0.1486538f, 2.1188385f,  -0.1755194f, 0.7961836f,  -1.0473205f,
       -0.1901667f, -1.1111301f, 0.0604983f,  -5.0314980f, 1.7197293f,  -0.2024349f, -0.1636181f, 0.1019914f},
      {-1.2713689f, -0.0253136f, -0.3380428f, -1.0638390f, 2.7449236f,  -0.2737443f, -0.1085422f, -0.1602184f,
       -0.0008735f, -1.1007431f, -1.1849335f, -0.2663876f, 2.5792780f,  1.1527174f,  -0.0802239f, -0.1025965f,
       2.5402682f,  -0.3441741f, -0.3981778f, 0.3678156f,  -1.4458398f, -0.0995817f, -1.6316043f, 0.3206491f,
       -0.0369127f, 0.5809332f,  -0.2152892f, 1.3396134f,  0.0399115f,  -0.2546846f, -0.2007722f, 2.8450758f},
      {0.1745115f,  -0.1357176f, -0.1485374f, 0.0909152f,  0.1483210f,  0.0737302f,  -0.1637680f, 0.0000265f,
       0.0481300f,  -0.0105988f, 0.0859076f,  0.0059233f,  -0.1172860f, -0.0107890f, -0.1159891f, 0.1145655f,
       -0.1576843f, 0.1084846f,  -0.1093958f, -0.0556372f, -0.0749590f, 0.0902455f,  -0.1584478f, 0.0336265f,
       0.0504195f,  0.1265924f,  0.0258345f,  0.1492549f,  -0.1250558f, -0.1155385f, -0.0182889f, -0.0004347f},
      {0.1171188f, 0.1014180f,  0.2324671f,  -0.0874626f, -0.1111097f, -0.1645274f, -0.1758595f, 0.1121060f,
       0.1073948f, -0.1074462f, -0.0067733f, -0.0173025f, 0.1683295f,  0.0455249f,  0.0836903f,  -0.0432218f,
       0.0314334f, -0.0055723f, -0.1382432f, -0.0860161f, 0.0697354f,  0.0154966f,  -0.0722437f, 0.1577733f,
       0.0029643f, 0.1032105f,  0.1173788f,  0.1317339f,  0.1496744f,  0.0770678f,  0.1173283f,  0.0357577f},
      {0.1185239f,  -0.1275339f, -0.0635410f, 0.1699650f, -0.0326480f, 0.1617643f,  -0.1413943f, 0.0729402f,
       0.1702773f,  -0.0632184f, -0.1366211f, 0.0920673f, -0.1140343f, -0.1277347f, 0.1160380f,  0.0278655f,
       -0.1432857f, -0.1298375f, 0.0704451f,  0.0651420f, 0.1197187f,  0.1140933f,  0.0547417f,  -0.1408818f,
       -0.0565077f, 0.0153770f,  -0.1723765f, 0.0302536f, -0.1720522f, 0.1721924f,  -0.0277676f, 0.1217176f},
      {0.1335476f, -0.0798768f, -0.1256001f, -0.0555518f, 0.0162756f,  0.1323670f,  0.0731772f,  0.0212993f,
       0.0072618f, 0.0397605f,  0.0464602f,  0.0887792f,  0.0060224f,  0.1080991f,  0.0830178f,  0.1653384f,
       0.0798418f, -0.1128676f, 0.1236111f,  -0.1090344f, -0.1305821f, 0.1371153f,  0.0929448f,  0.1447880f,
       0.1439133f, -0.0474658f, -0.0023591f, 0.0863819f,  0.0067025f,  -0.0828647f, -0.1459741f, 0.0661382f},
      {0.0775701f,  -0.0107607f, 0.0052288f,  0.1162598f,  -0.1544264f, 0.0348644f,  -0.0039653f, -0.0166445f,
       -0.1122926f, -0.0970989f, -0.0087400f, -0.1733506f, -0.0640349f, 0.1163430f,  0.0488566f,  0.0603584f,
       0.0802175f,  -0.1016426f, 0.0904419f,  0.0138907f,  0.1043417f,  -0.0640525f, -0.1136816f, -0.1598310f,
       0.0628116f,  -0.0017224f, 0.1626921f,  0.0660481f,  -0.0982667f, -0.0700596f, -0.0294323f, 0.0861625f},
      {-0.1675477f, 0.0272436f,  -0.0035242f, 0.1187083f,  -0.1380870f, -0.0157775f, -0.0697915f, -0.0699622f,
       -0.1342763f, 0.0789961f,  -0.1271438f, 0.0872695f,  0.0581549f,  -0.0607590f, -0.0108511f, -0.0995454f,
       -0.1476832f, -0.0206303f, -0.1320541f, -0.1646389f, 0.1347268f,  -0.0175878f, -0.1171055f, 0.0748758f,
       0.1002617f,  -0.0571866f, -0.1023152f, 0.0317932f,  0.0121790f,  -0.0910829f, -0.1037444f, -0.1608724f},
      {-0.3124542f, 0.0764635f,  -4.0404196f, 2.4405448f,  -0.5277085f, -0.0794460f, 0.0084510f,  0.0413676f,
       -0.2665683f, -1.1282016f, -1.7190089f, -0.1607474f, 0.2719716f,  0.6015427f,  -0.1233412f, -0.1913827f,
       -0.6120520f, -1.3843068f, -0.2412984f, -3.1972845f, -0.1185272f, -0.0387298f, -0.2240285f, 0.0533012f,
       0.0504851f,  0.0610988f,  -0.1001489f, -1.1528584f, -0.3533484f, -0.0123490f, -0.0334515f, -1.2301358f},
      {0.4601654f,  -0.1414209f, -0.9621689f,  1.8137573f,  -2.2838986f, -4.4931846f, -0.1572768f, 0.1072069f,
       5.4528723f,  2.2122884f,  -0.3047283f,  -0.0339041f, -1.0866505f, -2.9726090f, -0.1335476f, -0.2342451f,
       -0.0534304f, -0.9333688f, -29.1695328f, 2.0819838f,  2.5638790f,  0.0637428f,  -3.7582626f, -27.0329189f,
       0.0063954f,  -0.2693702f, -0.0146772f,  1.8390841f,  0.8366699f,  -0.2030648f, 0.1137383f,  -0.6989926f},
      {-0.1743059f, -0.0957818f, -0.0871742f, -0.1385888f, -0.1365321f, -0.0919264f, -0.1399330f, 0.0151470f,
       0.1561736f,  0.0304706f,  0.1576773f,  -0.1426032f, -0.0184744f, -0.0060727f, 0.0556644f,  0.0737400f,
       -0.0456601f, -0.2015950f, 0.0249077f,  -0.0187826f, 0.0792705f,  0.1462519f,  -0.0432748f, 0.0854118f,
       -0.0254023f, -0.0932964f, 0.0814000f,  -0.0787024f, -0.1832910f, -0.0786179f, 0.1766943f,  -0.0088678f},
      {-0.5439317f, -0.1930895f, -1.0358741f, 0.4872003f, 0.6833679f, 1.0468842f,  -0.0627756f, 0.0198605f,
       0.7245910f,  0.6532924f,  0.7456506f,  0.0358964f, 0.2300356f, 0.1437002f,  -0.1478491f, -0.0421908f,
       -0.0789506f, 0.2844093f,  0.2296336f,  0.4280334f, 1.4064584f, -0.1321349f, -0.8637751f, -0.1172594f,
       -0.0362588f, 0.7996452f,  -0.0449324f, 1.2125486f, 0.0968685f, -0.1714050f, -0.2332757f, 0.8290989f},
      {-0.0017863f, 0.0457680f,  -0.1074851f, 0.1084963f,  -0.1220080f, 0.0877163f,  0.1203982f,  -0.0686339f,
       0.1015984f,  -0.1207048f, -0.1723345f, 0.1024277f,  -0.1272804f, -0.1729792f, -0.1319194f, -0.0493638f,
       0.1197342f,  0.1245080f,  -0.1654372f, 0.0882649f,  0.0901894f,  0.1552375f,  0.1640406f,  0.1594699f,
       -0.0598430f, 0.1478111f,  -0.0616796f, -0.1181406f, -0.1052980f, -0.0984066f, 0.0466656f,  -0.0873392f},
      {0.1106081f,  -0.1091835f, -0.0491951f, 0.1428439f,  -0.0186455f, -0.1435021f, -0.0600320f, -0.0949400f,
       -0.1443260f, -0.1643064f, 0.1652100f,  0.0036460f,  0.0288626f,  0.0818249f,  0.1190063f,  0.1581414f,
       0.0098145f,  0.1525386f,  -0.0470744f, -0.0174385f, -0.0032746f, -0.1561369f, -0.0895720f, 0.1446918f,
       0.1006111f,  0.0952710f,  -0.1043464f, 0.1760491f,  0.1751994f,  -0.0237520f, -0.1052991f, -0.1153077f},
      {-0.1684862f, 0.0088422f,  -0.1341807f, 0.1154328f,  -0.1703036f, -0.1689639f, -0.0292963f, -0.1486230f,
       -0.0202071f, 0.0108027f,  0.1484894f,  -0.1215195f, 0.0628160f,  0.0719851f,  0.0958405f,  0.0008012f,
       -0.0687633f, 0.0022042f,  -0.0232379f, 0.0917159f,  0.1057866f,  -0.0831145f, -0.0961659f, -0.1693817f,
       -0.1395387f, -0.1479967f, -0.0266380f, 0.1574190f,  0.0133269f,  -0.0700487f, -0.0594231f, 0.1698502f},
      {0.3639083f,  -0.1561024f, -0.7568483f, 0.1935690f,  0.2883060f,  0.2512229f,  -0.1334913f, 0.0112297f,
       0.0304261f,  0.4176840f,  -1.7556530f, -0.0909049f, 0.2336213f,  -2.4152300f, -0.0734550f, -0.0934253f,
       -0.0444598f, -1.5052693f, -0.0080532f, -0.1239790f, 0.0072221f,  -0.1124994f, -0.4956763f, 0.6296224f,
       -0.1594838f, 1.8049315f,  -0.0764750f, 0.6222402f,  -0.2394568f, -0.1180138f, 0.0719956f,  0.1186023f},
      {-1.7439748f, -0.1896478f, -0.3346063f, 1.9717994f,  -0.3763428f, -1.3512611f, -0.1285691f, -0.1149345f,
       -0.6938587f, -1.0748692f, 1.6610687f,  -0.2358596f, 2.6839828f,  2.5736220f,  -0.2106378f, -0.0970192f,
       -0.4411264f, 2.9166622f,  -0.9682972f, 1.4566983f,  -0.8942411f, 0.0767526f,  -0.2383756f, -0.0954847f,
       -0.0252277f, 0.5873390f,  0.0485610f,  1.2839676f,  -1.0016359f, -0.0991812f, -0.0468751f, 1.3210641f},
      {0.0135437f,  -0.0879198f, -0.1094052f, -0.1025681f, 0.1451267f,  0.0630836f,  -0.0467955f, 0.0920872f,
       0.0147826f,  0.1714088f,  -0.0018927f, -0.0162302f, 0.1139753f,  -0.0322800f, -0.0280083f, -0.1685120f,
       0.0881822f,  0.1222224f,  -0.0225731f, 0.0995662f,  -0.0746114f, 0.1649396f,  -0.1346789f, -0.0861693f,
       -0.0556903f, -0.0376145f, 0.0879924f,  0.0641201f,  -0.1291527f, 0.0164047f,  0.0979619f,  -0.0305348f},
      {1.4435934f,  -0.1033136f, -2.0697176f, 1.8404082f,  1.5736065f,  -0.7922245f, -0.1000865f, 0.0273494f,
       -0.9065717f, 1.3046484f,  -0.3803423f, -0.2029626f, 1.8804103f,  -0.5049760f, -0.1332424f, -0.2173712f,
       1.1021659f,  -0.6780686f, -0.2187140f, -1.5054095f, 0.0034971f,  -0.1576441f, 1.3025562f,  0.9059022f,
       0.0236399f,  2.2910061f,  -0.0750332f, 0.4445155f,  -1.0730588f, -0.1428868f, -0.1658327f, 2.1124966f},
      {-0.1784460f, 0.0730673f,  -5.1235385f, -0.1882881f, -3.5288441f, -0.2259994f, -0.1726394f, -0.1370097f,
       -0.1533520f, -0.1270866f, -4.3133826f, -0.0608662f, 1.3760250f,  1.1956390f,  -0.1297525f, -0.1895235f,
       -0.1225608f, 1.0044372f,  0.0853172f,  -2.3318944f, -1.2085035f, -0.2005011f, -0.6513534f, 0.2713874f,
       0.0829856f,  1.1987237f,  0.0364122f,  0.0853476f,  -2.3690777f, -0.2024412f, -0.0755946f, -3.0887508f},
      {-0.6453744f, -0.1637572f, -0.2874516f, 0.7690926f, 0.7505430f, 0.4669090f,  -0.0990388f, 0.0103152f,
       0.4612448f,  -0.5246852f, 0.1446148f,  0.0650856f, 0.7211487f, -1.6647208f, -0.0023956f, -0.0785235f,
       2.2165341f,  2.5892341f,  -1.0054595f, 1.5223085f, 1.6814858f, -0.0194431f, 0.2862324f,  -1.5743806f,
       -0.1135486f, 0.5293437f,  0.0606122f,  1.4628854f, 0.2489253f, -0.0523651f, -0.2316726f, -0.0536937f},
      {1.0856206f,  -0.0647455f, -0.3253726f, -1.5043118f, 1.2835978f,  -2.8234291f, 0.0278139f,  -0.1607269f,
       0.4859119f,  0.5244958f,  -1.3842341f, -0.0955697f, -1.4327506f, -1.8437506f, -0.0047875f, -0.1666650f,
       -1.3057747f, -1.6061074f, -1.7119917f, -1.1418145f, 0.6116119f,  -0.2265402f, 0.5035372f,  -0.7038661f,
       -0.0783529f, -0.6158929f, -0.1048231f, 0.0385072f,  -0.6218809f, -0.1713473f, -0.1296085f, 0.2307265f},
      {-0.0857327f, -0.0240921f, -0.1274204f, 0.1491305f,  0.1185468f,  -0.0108924f, -0.1143038f, 0.1323865f,
       0.0393746f,  -0.0015919f, 0.0604275f,  -0.0906805f, -0.1383745f, 0.0986694f,  -0.1355748f, 0.0697662f,
       -0.1569561f, -0.1447346f, -0.1763534f, 0.0037572f,  0.0897957f,  0.1148712f,  0.0425909f,  0.0025856f,
       -0.1289866f, 0.1617438f,  -0.0405906f, 0.0672005f,  -0.0178236f, 0.1483060f,  -0.0193279f, -0.1623956f},
      {0.3731324f,  -0.0058753f, 0.7765094f,  -1.7653806f, 0.2843435f,  -0.6492531f, -0.0483371f, -0.0832393f,
       -1.4071836f, -2.0038152f, -0.5736679f, 0.0249140f,  -1.2218778f, 0.0355671f,  -0.0373252f, -0.0358956f,
       -0.4577911f, -2.3789170f, -0.3592008f, -0.7920797f, -2.7878003f, 0.0165473f,  0.8145875f,  -0.4322619f,
       0.0089995f,  0.1495652f,  -0.1798356f, 0.3815477f,  0.1048888f,  -0.0899370f, -0.2200294f, -1.1391734f},
      {0.1598358f,  0.1171069f,  0.0856818f,  -0.0340354f, 0.0366347f,  -0.0047404f, -0.0117805f, 0.0531076f,
       -0.0954451f, -0.0227147f, -0.0362694f, 0.1743660f,  -0.1138828f, 0.0401388f,  0.1356554f,  0.0545887f,
       0.0459410f,  -0.0985279f, 0.0788853f,  -0.1213196f, 0.0940189f,  0.0302987f,  0.1172330f,  -0.1364847f,
       -0.1695189f, 0.0857164f,  -0.0119831f, -0.0472912f, 0.0749008f,  -0.1740327f, 0.0446429f,  -0.1236778f},
  };

  ALPAKA_STATIC_ACC_MEM_GLOBAL const float bias_output_layer[1] = {2.1143713f};

  ALPAKA_STATIC_ACC_MEM_GLOBAL const float wgtT_output_layer[32][1] = {
      {-1.3546265f}, {0.0473848f}, {-1.1066765f}, {-0.7856320f}, {1.8970097f},  {1.7004912f}, {0.0171833f},
      {0.1014843f},  {1.0655588f}, {1.3870277f},  {1.4482819f},  {0.0146788f},  {1.7867852f}, {-0.4464278f},
      {0.1595784f},  {0.0216729f}, {-0.8184820f}, {-0.5278643f}, {3.9873812f},  {0.8342983f}, {1.2236406f},
      {0.0329035f},  {2.1368678f}, {1.2096084f},  {0.0103834f},  {-1.4747533f}, {0.1212516f}, {-1.5780485f},
      {-0.7259769f}, {0.0657829f}, {-0.0011842f}, {-1.9428015f},
  };

}  //namespace lst::t5dnn
namespace lst::t4dnn {
  //add reg radii and t3 dnn scores
    ALPAKA_STATIC_ACC_MEM_GLOBAL const float bias_layer1[32] = {
    2.0634429f, 0.2524098f, -0.0312356f, 0.6790630f, 0.3537523f, -0.4684837f, 2.5317073f, -0.1168283f, -0.2302523f, -0.0767009f, 0.6054267f, -1.3515688f, -1.1435251f, -0.2586541f, -0.6828974f, -1.1868789f, 1.5147817f, 0.1127981f, 0.1234875f, 0.0236125f, 0.2483854f, -0.2430531f, 0.1181029f, -1.6174419f, -0.2246573f, 0.5943361f, -0.0370733f, -5.1740780f, -0.5639854f, 0.0965410f, 0.7594638f, -0.9306029f };

    ALPAKA_STATIC_ACC_MEM_GLOBAL const float wgtT_layer1[27][32] = {
    { -2.8259075f, -0.8716139f, 0.0727722f, 1.1347991f, -0.4076585f, -0.6329545f, -3.1880035f, -0.1588767f, -0.1558377f, -0.0965083f, -0.2858485f, 0.7899134f, 2.9476769f, 1.4416050f, 1.0275487f, -1.1084992f, -1.0548780f, -0.1726648f, -1.8385017f, -0.1342066f, -1.4768661f, 0.0173520f, 0.0195799f, 4.9012694f, -0.0230186f, -0.1293060f, -0.0636874f, -1.9068431f, 1.9665065f, -0.0548041f, 4.3431787f, 1.5918314f },
    { 0.0285585f, 0.0115364f, -0.1183015f, 0.0160674f, 0.0163617f, 0.0225914f, -0.0215336f, 0.1462123f, -0.2042613f, -0.0882742f, 0.0062282f, 0.0747787f, 0.0323233f, 0.0250306f, 0.1463798f, -0.0733540f, 0.0030154f, 0.0960008f, -0.0019111f, -0.0691531f, 0.0817749f, -0.2115868f, -0.0971655f, 0.0341104f, -0.1939527f, 0.0011992f, -0.1544193f, 0.0528540f, -0.0175434f, 0.1820710f, -0.0123617f, 0.0211411f },
    { 0.1444553f, 0.6141375f, 0.0606438f, -4.7255764f, 0.9598218f, 1.1886696f, -9.4536409f, -0.0368229f, -0.0841697f, -0.0081214f, 4.0444927f, 1.8589956f, -4.3614082f, -0.7000309f, 1.0620546f, 1.6396576f, -3.7379930f, 0.5525217f, 2.0243425f, -0.1876284f, 2.7830913f, -0.1150329f, -0.0126873f, -3.0713372f, -0.1731976f, -1.5724533f, -0.1550126f, 3.3203208f, 2.5232277f, 0.1511064f, -8.0700245f, -1.6471001f },
    { -3.2722912f, -0.1256566f, -0.0292087f, -0.5989327f, -0.8949552f, 0.3320864f, -0.6052502f, -0.1473426f, 0.0888824f, -0.1198699f, -7.4524574f, 2.5326948f, 2.3709190f, 2.1575556f, 1.9288434f, 2.3337288f, -2.2639754f, -0.6686544f, -3.1499701f, 0.0231446f, 0.4101579f, -0.1840733f, -0.2107568f, 0.5557097f, -0.0860139f, 0.5003954f, -0.2136033f, -2.1474602f, 0.0970977f, -0.0184801f, 3.2952044f, 7.9077926f },
    { -14.0441532f, -0.3259566f, -0.2459780f, 1.2228103f, -3.1342785f, -0.7791114f, -2.9317229f, 0.1578157f, -0.2672509f, 0.0917828f, 10.7467337f, 5.8315864f, -5.5358357f, 4.6485119f, 3.9897988f, -1.0830522f, 19.3851891f, 0.7896081f, -23.3956394f, 0.0497255f, -6.1681223f, 0.1229164f, 0.1624944f, 1.6552128f, -0.0588164f, 4.3114653f, -0.2159563f, 4.0630140f, 25.3984718f, 0.0160768f, 12.2496176f, 26.5046463f },
    { 2.7402880f, 0.1130506f, -0.0902587f, 3.8912964f, 3.0867627f, -1.8614204f, -0.3638529f, 0.1562396f, -0.3087684f, 0.1250708f, 1.5678830f, 1.1335469f, 1.0435201f, -0.8921360f, 0.2271631f, -0.8637871f, 0.2306008f, -2.3558075f, -2.8047898f, 0.1686910f, 9.1178713f, -0.1151158f, 0.1470979f, 1.5373909f, -0.1166144f, 1.7427274f, -0.1891302f, -9.9114981f, 1.1272811f, 0.0091014f, 0.7907792f, -0.7657149f },
    { 2.4659142f, 0.6878744f, -0.0148272f, -5.4125657f, 3.1125176f, 4.4969320f, -8.1215611f, -0.1914706f, -0.0673539f, -0.2124790f, -0.7563235f, 9.5192642f, 6.7082729f, -4.7410049f, -4.0404205f, 11.8890438f, 3.3402245f, 2.5853181f, 1.1389672f, 0.1748279f, -5.0972681f, -0.2692779f, 0.0084296f, 5.0054412f, -0.0048785f, 0.6170948f, -0.1654740f, -4.2696233f, 0.0296139f, -0.1135652f, -8.6710835f, 5.2922487f },
    { 0.6516828f, 0.0595523f, -0.1209826f, 0.7053657f, 1.1351465f, 0.0054852f, -0.8154771f, 0.1112542f, -0.2007150f, -0.1477935f, 0.6080135f, 3.2812963f, -3.7677693f, 3.7813315f, 3.4342380f, 3.5240178f, 0.0831207f, 2.5121827f, 4.1215081f, 0.0130998f, 3.6273327f, 0.0457747f, -0.2082467f, -4.2097349f, -0.1832067f, 1.9168411f, -0.0488338f, 4.9649544f, 2.4113503f, -0.1433642f, 0.9196224f, -2.0868471f },
    { 4.3055282f, -0.3412562f, 0.1592983f, -0.7749513f, -0.4745006f, -0.2275320f, -0.9471012f, -0.0397209f, 0.1223947f, 0.0799426f, -42.9728699f, 5.4735069f, -15.0404634f, -1.2838725f, -9.9725666f, 2.1887920f, -7.3377457f, -1.0414332f, 5.3650532f, 0.0732891f, -2.4901361f, -0.1067989f, -0.0960270f, 13.0143862f, 0.1859810f, -2.3677399f, -0.1575033f, 0.2400165f, -14.7465706f, 0.0499412f, -8.5189552f, -27.1568375f },
    { -1.0520631f, -0.8545895f, -0.0934161f, -0.5920278f, -1.6741493f, 0.7897094f, -0.3853442f, 0.0391342f, -0.1428833f, 0.1524153f, -0.2013778f, -2.8838177f, 0.6028091f, 0.6958072f, -2.0563424f, 1.5860751f, 2.3107722f, -0.8953286f, 3.9696326f, -0.0943827f, -3.6357901f, -0.0744850f, -0.1096401f, 0.4297695f, 0.0059308f, 0.1058507f, -0.1586650f, 6.1100764f, -1.6793425f, 0.1273125f, -1.3768812f, 0.6056969f },
    { 3.3722982f, -0.3474809f, -0.1077784f, 1.5680108f, 3.7110291f, 0.5328640f, -8.0025368f, -0.0808900f, -0.1800018f, -0.1197105f, -0.1992839f, 5.6771460f, 11.6481800f, -2.8639898f, -2.4011390f, -1.9659810f, 7.7141066f, 1.0377307f, 4.6147404f, -0.1788737f, -1.1860807f, -0.1637516f, 0.0102796f, 11.8790827f, 0.0105794f, -0.0186719f, -0.0370192f, 0.4847836f, -0.6957549f, -0.0860675f, -15.7179432f, -0.1517346f },
    { -1.6284361f, -0.1834944f, -0.1646182f, -0.4108050f, 1.7696396f, 0.4338039f, 1.1862308f, -0.1430431f, -0.0435644f, -0.0423281f, 2.0475924f, -0.9265807f, -3.2836871f, 2.4949112f, 2.8884983f, 1.8004769f, -2.3871369f, 2.1127698f, -2.9430521f, -0.1893138f, 2.9108300f, -0.0866958f, -0.1058301f, -0.1134990f, -0.1257690f, 2.2384400f, 0.0337510f, 0.9261222f, 4.5997815f, -0.1829747f, 5.2330275f, 1.8856456f },
    { 8.9573221f, 0.1278808f, -0.0769157f, -3.7897182f, 2.1412132f, 2.1221135f, -1.7973788f, -0.0592514f, -0.3035965f, -0.1491467f, 5.2545338f, -43.0185356f, 35.3082047f, -3.9158626f, 3.2360547f, 7.5302062f, -30.0238724f, 3.2902329f, 28.0161953f, -0.0359614f, 9.7396307f, -0.0368389f, -0.1517528f, -33.8447533f, -0.0218122f, -5.7511334f, 0.1963406f, -3.1183913f, -23.6498756f, -0.0854543f, -7.4807134f, -25.7942276f },
    { -2.8041387f, 0.1715758f, 0.1668029f, -2.6367102f, -0.9649217f, 0.9408876f, 0.0786723f, 0.1999734f, -0.0702856f, -0.2004909f, -2.4902465f, 0.3110251f, -2.1300960f, -0.5954602f, 0.2314329f, 3.0623164f, -1.4050525f, 0.6235807f, -0.8642918f, 0.0402846f, -0.5942507f, 0.1690642f, 0.1373568f, -2.9280012f, 0.1104240f, -0.5773395f, -0.1208857f, 8.5436983f, 0.6570433f, -0.1058364f, -0.0933067f, -0.0068858f },
    { 5.6950541f, -1.3603314f, -0.2150372f, 7.0893703f, 6.1405826f, -4.2386370f, -3.7300317f, 0.0956078f, -0.0441416f, -0.2212785f, 2.2895768f, -2.2959507f, 8.1797657f, 2.7872853f, 1.2761697f, -12.2130375f, 8.7576199f, -1.9353833f, -0.4896398f, -0.1686367f, 2.8505392f, 0.0541001f, -0.0811711f, 4.0153403f, -0.0545361f, 4.2190080f, -0.0137666f, 5.4166780f, 5.1949248f, 0.0632315f, -9.6556015f, -1.9801388f },
    { -1.0238410f, -0.2320530f, 0.0303897f, -0.0823551f, 4.4292841f, 0.5582364f, -0.2686201f, -0.0687139f, -0.1904298f, -0.1141002f, -0.6441576f, -6.6701813f, -5.8920851f, -1.0868235f, -3.4136922f, -4.3961387f, 0.4406410f, 2.4059093f, -3.4935987f, -0.1204788f, 1.3247579f, -0.2821088f, -0.0231030f, 1.8846674f, -0.1506870f, 2.6593924f, -0.0197380f, -1.9162222f, 0.8378095f, -0.1734521f, 2.2300320f, 2.9230683f },
    { -0.0246140f, 0.9081947f, -0.0192835f, 0.3357856f, 2.0924160f, 0.2617300f, -0.5430343f, -0.1520754f, -0.0503007f, -0.0530191f, 0.0983069f, -1.2966491f, -0.6634064f, 2.5242624f, -0.2390647f, 1.5583708f, 0.7842386f, 1.7525398f, 0.2460141f, 0.0696052f, -1.4277872f, -0.0826751f, -0.1336434f, -0.5631080f, -0.0489272f, -2.5813084f, -0.0280735f, 2.1050460f, -1.6628208f, -0.1508179f, -0.1095411f, -0.3291312f },
    { 0.1322260f, 0.6652958f, -0.1704758f, -0.5188949f, 2.0967419f, -0.3750347f, -0.2370066f, 0.0504685f, 0.0812373f, 0.0026676f, 0.1874604f, -0.7966321f, -0.2832018f, 2.3329060f, -0.2685940f, 1.1547203f, 0.5059337f, 1.4557420f, 0.3968542f, -0.0873636f, -1.0592231f, -0.0052215f, -0.0398695f, -1.1377355f, -0.1910710f, -2.5914347f, -0.2106751f, 1.9401218f, -1.6701342f, -0.0978159f, 0.1769850f, -0.2716673f },
    { -0.6049455f, 0.4026980f, 0.1158033f, 30.3559036f, 0.5501068f, 31.2207546f, -2.7630117f, 0.1464291f, -0.0476619f, -0.1201569f, -0.9258111f, -3.0192151f, -3.6684959f, 1.6136067f, -1.5181628f, 4.5771523f, 1.7903318f, 2.1505957f, 0.3619440f, 0.0071175f, -4.8365402f, 0.1445061f, 0.1610205f, 5.6379442f, 0.0008370f, -0.5111860f, -0.1487660f, 1.4211555f, 0.7272758f, 0.1220327f, 0.5776758f, 1.3575673f },
    { 0.1038150f, 4.1488271f, -0.0392740f, 0.2605659f, -4.1781321f, -0.1817810f, -0.1685851f, -0.1479596f, -0.1136792f, -0.0029065f, -0.3409894f, 2.4532714f, -0.3519122f, -3.6710052f, 1.0680208f, -1.3629369f, -1.8617115f, -1.1339186f, 0.0775695f, -0.1607945f, 0.3817013f, -0.2951876f, -0.0356367f, 0.2536634f, -0.1745138f, 4.7556734f, -0.1376783f, 0.1360811f, 2.3868206f, -0.1865596f, -0.2492761f, -0.3573954f },
    { -0.6302360f, -5.0904317f, -0.0766232f, 0.0089235f, -0.5284148f, 0.2364226f, 0.6545987f, 0.1344397f, -0.1435541f, -0.2371550f, 0.2782277f, -0.5304096f, 1.1982646f, -1.5761831f, -0.1410789f, -0.1808723f, -0.0955610f, -1.8525728f, -0.2748608f, 0.0090872f, 1.2742946f, 0.0176735f, 0.0111975f, 1.3019189f, -0.0195117f, -0.0403998f, 0.0211837f, -0.3603224f, 0.0668389f, -0.1860155f, -0.1023118f, -0.2119443f },
    { 4.7956228f, -0.7546414f, 0.1700591f, 0.5600684f, 0.6982646f, 0.2143237f, 3.0720279f, 0.1026311f, -0.0705430f, -0.1816426f, 0.0199051f, -2.2782340f, 0.1812074f, -5.6748328f, -25.8824196f, -1.7293851f, 2.5195656f, 0.0583569f, 1.2636474f, -0.0449880f, 1.4672177f, -0.2519162f, 0.0088738f, -1.3394531f, -0.0511824f, -0.4205795f, -0.1839794f, -3.0569632f, -25.3907413f, 0.1232615f, 1.1430024f, -0.3759208f },
    { -2.4001870f, -0.1787395f, 0.0511745f, -0.4463109f, 0.5756677f, 0.1593401f, 3.1211441f, 0.0473260f, 0.0307057f, -0.1001414f, 0.1743138f, -0.9040923f, -1.0892515f, 1.4958458f, 1.5142418f, 0.9510720f, 0.8300895f, -2.3769870f, 1.1059177f, 0.0464886f, -8.8193436f, -0.0733306f, 0.0333415f, -1.5900060f, 0.0553229f, 0.4783110f, -0.1344294f, -3.0546367f, 0.5001129f, 0.1163618f, 0.4676291f, -0.3298182f },
    { 1.7855982f, -0.3585985f, -0.2535137f, 0.7961541f, 0.0401447f, 0.0712747f, 3.1015003f, -0.0822515f, -0.0773135f, -0.1031750f, 0.8813263f, -0.4606352f, -1.1829458f, -1.2562902f, -1.7351309f, -4.9242992f, 1.2811505f, 2.4526763f, -0.8704137f, 0.0414238f, 0.3828539f, -0.1483803f, 0.0584544f, -1.8427588f, -0.1308738f, 0.0357497f, -0.1101318f, -3.7825661f, 0.1020412f, 0.0331978f, 0.6451961f, -0.1556266f },
    { 1.9607791f, -0.0985693f, -0.0299825f, 0.3403114f, 0.7691333f, 0.0003856f, 0.0206012f, 0.1440819f, -0.0349743f, -0.1356546f, -0.1939340f, -0.3854384f, 0.5572059f, -2.2674367f, -0.0183737f, -0.5232540f, 0.1392955f, -0.1719776f, -0.5720746f, -0.1539634f, -1.8045571f, 0.0628663f, 0.1236814f, 0.0725701f, 0.0277903f, 0.0486650f, 0.0052336f, -0.0845500f, -13.1636515f, 0.0406988f, 0.3992520f, -0.0938021f },
    { -3.2966564f, 0.4364322f, 0.1916217f, -0.3766538f, -0.2897399f, 0.0156370f, 0.1459611f, 0.0374480f, 0.0109642f, -0.0010985f, 0.0219366f, -0.1517622f, -0.2562505f, 1.5174621f, 1.5439153f, 1.3937262f, -0.2422489f, -0.2261279f, 1.9145696f, -0.1238539f, 2.5762999f, 0.0305614f, 0.1349880f, -0.0209049f, -0.0591756f, 0.2057636f, 0.1351138f, -0.0166344f, 1.7033294f, 0.0631327f, -0.1961391f, -0.2154713f },
    { 0.8013868f, -0.0450521f, -0.0164109f, 0.5185890f, 0.1115728f, -0.1353249f, 0.0083457f, -0.0746943f, -0.0774991f, -0.0859823f, 0.3137954f, 0.7134432f, -0.4213617f, -0.7195563f, -1.6792145f, -1.2189548f, -0.1291959f, 0.4826272f, -1.6373945f, -0.0333691f, -1.2216135f, 0.0032632f, -0.1024431f, 0.1521491f, -0.1731318f, -0.0776667f, 0.0296993f, -0.1886216f, 1.1402305f, -0.1859126f, -0.1932351f, 0.0027260f },
    };

    ALPAKA_STATIC_ACC_MEM_GLOBAL const float bias_layer2[32] = {
    0.4549345f, 2.1274190f, -0.1837664f, 3.6402659f, 0.6809441f, 2.2335088f, 2.3128655f, -1.5799582f, -3.0802028f, 2.4012496f, -2.5162320f, -0.1022087f, -4.0559497f, -2.8753102f, -0.0910844f, -0.7738112f, 2.8062570f, -3.3907113f, 2.6068988f, -0.1401542f, 2.1259468f, -1.6851511f, 1.4683874f, -1.1668814f, -1.9170244f, 0.3242736f, -0.2194009f, 0.8333521f, 1.1984333f, -0.0733665f, -0.0319550f, 1.3909695f };

    ALPAKA_STATIC_ACC_MEM_GLOBAL const float wgtT_layer2[32][32] = {
    { 0.5899639f, 0.9932277f, -0.1429183f, -1.7096488f, 0.5736427f, -0.7722772f, 0.8835922f, -0.2359341f, -1.1074272f, 0.6721171f, -0.3350735f, -0.0946129f, -2.4485502f, 0.6439198f, -0.0171638f, -2.2782931f, -1.1772480f, 0.9368237f, 0.5869668f, -0.3616947f, -0.5229661f, 0.3336191f, 0.5037091f, 2.2059121f, -1.3825226f, 0.8700630f, 0.2295038f, -0.0280911f, -0.1810264f, -0.1284503f, -0.1390132f, -0.0560966f },
    { -0.2318342f, -2.4332454f, -0.0394716f, -16.9452209f, -2.1513691f, 0.1686443f, -0.6725606f, 0.2018290f, -0.0057665f, 0.2775910f, 0.5220615f, -0.1953398f, 0.1628451f, 1.6110851f, -0.1932920f, -0.0663614f, 0.0912544f, 0.6732245f, 1.1110499f, -0.1330042f, -0.0818643f, -1.8455583f, -1.0737473f, -3.1322732f, 2.0403259f, 1.2447683f, -0.1388344f, 0.4684080f, -0.2794675f, -0.1224606f, -0.0510102f, 0.0426320f },
    { 0.2012022f, 0.0156781f, 0.1287736f, -0.2086827f, 0.1697342f, -0.0082522f, 0.1082703f, 0.0948680f, 0.1965974f, 0.1079980f, 0.1380081f, 0.1438488f, -0.0656753f, 0.3198813f, -0.1211414f, 0.0129819f, -0.0108497f, -0.1012832f, 0.1686239f, -0.1667563f, 0.0460230f, 0.0379619f, 0.1473893f, 0.0067871f, 0.1466393f, 0.0424997f, -0.1181404f, 0.1206704f, 0.0864489f, -0.0812975f, 0.0352268f, -0.1596616f },
    { -1.8256420f, -0.8841560f, 0.0904742f, 0.2481881f, -0.6505829f, 0.0879599f, 0.6599604f, 0.3302293f, -0.2917286f, 1.7984642f, -0.5746166f, 0.0207477f, -0.9689286f, 0.9095708f, -0.1054407f, -0.7553417f, 0.4528112f, 0.8882726f, 1.7183926f, -0.1634232f, 0.9582294f, -6.3371506f, -7.2252851f, 0.7195547f, -0.9474445f, 0.0048499f, 0.0513471f, -0.1820443f, 0.2144692f, -0.0887920f, -0.2867213f, -0.7031986f },
    { 0.1811372f, -0.3322096f, -0.2248691f, 1.1599373f, -1.2904713f, 2.0357382f, 0.9699113f, -0.0967896f, 2.4281712f, -1.0446723f, -0.6167734f, -0.1460582f, 2.1372969f, -2.5347226f, -0.1040977f, 4.7448573f, -0.9877393f, -2.9803512f, -0.3038362f, -0.3793824f, -1.0364214f, 0.3759045f, -0.4305660f, -0.6329618f, 2.7828755f, -2.0648394f, -1.3015349f, 0.2018792f, -0.7534755f, -0.1292705f, -0.2004524f, -0.0039214f },
    { 1.8119909f, 0.9047645f, -0.0685793f, -0.5123124f, 0.6321251f, -0.0481119f, -0.7184497f, -1.2663718f, -1.1810108f, -2.3417652f, 0.2970280f, -0.1363076f, 1.4082830f, -0.6464089f, 0.0960337f, 0.4505137f, -0.1872013f, -1.1668277f, -9.0540447f, 0.1196295f, -0.9619027f, 6.0391798f, 6.6033130f, 0.0196978f, 0.3006436f, -0.5344177f, 0.0917059f, -1.5371182f, -0.3129636f, -0.1487317f, 0.0731383f, 0.3428416f },
    { -0.5251358f, 0.4872813f, -0.0844925f, 0.9520805f, -0.8277598f, 0.6696937f, -1.2639393f, -0.9631265f, -0.1728767f, -1.6191717f, 0.3051652f, -0.0612098f, 1.1761085f, 0.4011458f, -0.0366095f, 0.8018758f, 2.8408010f, 0.1865981f, -0.9871632f, -0.2603544f, -0.5537524f, -25.3491764f, 0.0678356f, 0.2957141f, -0.7767285f, -0.5783781f, 0.3767003f, -1.4262533f, -0.0122944f, -0.0531757f, -0.0568049f, 0.7942865f },
    { -0.0590234f, 0.0736807f, 0.0570881f, 0.0455228f, -0.0022599f, 0.1135345f, -0.0289448f, 0.0574809f, -0.1411495f, -0.0743081f, 0.0380034f, -0.1233686f, -0.1189961f, 0.0227522f, -0.0207903f, 0.1426840f, -0.1532062f, -0.1272457f, 0.0282823f, -0.0922042f, -0.0555602f, -0.1759133f, 0.1021976f, 0.0236830f, -0.1263201f, -0.0811828f, 0.0813727f, 0.0225632f, -0.1837463f, 0.0267206f, 0.1245526f, -0.0527633f },
    { -0.0278329f, -0.0679351f, 0.0937236f, 0.0324724f, -0.2300466f, -0.0007671f, 0.1515549f, -0.1820084f, -0.1137287f, -0.0332874f, 0.0740293f, -0.1643348f, 0.2053208f, 0.0701278f, -0.1740101f, -0.1927124f, -0.1351187f, 0.0262907f, 0.0626112f, -0.1233211f, 0.1083667f, -0.2055217f, 0.1390180f, 0.1589428f, 0.1770516f, 0.0108121f, -0.0265847f, -0.0309303f, -0.1756702f, -0.0844829f, 0.1282987f, -0.0574197f },
    { -0.0424579f, -0.0239122f, 0.1494102f, 0.0457387f, 0.0856355f, -0.1889792f, 0.1210377f, 0.1720985f, 0.0101861f, -0.0368613f, -0.0733865f, -0.0149364f, 0.0786838f, -0.0026035f, -0.0106768f, 0.1289754f, 0.1763035f, -0.0243427f, -0.1901966f, -0.0289531f, 0.0397678f, 0.1016394f, 0.1311525f, -0.0954512f, 0.0443624f, -0.0960927f, 0.2174678f, 0.1760562f, -0.2173294f, -0.1250925f, -0.0634912f, 0.1427116f },
    { 1.6233864f, 0.4388337f, -0.0690882f, -1.3368672f, 0.2638825f, 0.3554623f, -2.5333519f, -0.8955941f, 0.1469723f, -1.8114401f, 2.3845167f, -0.0539737f, -0.0133115f, 0.5742527f, -0.1857327f, -0.5961331f, 1.6216794f, 1.0253180f, -0.7952818f, 0.0885012f, -2.1742687f, 0.0372347f, 0.0843163f, -0.6448889f, -0.2797729f, 0.2395286f, 1.1828401f, 0.9213138f, 0.2033095f, -0.1740697f, -0.1181831f, 1.2600311f },
    { -1.2274284f, -0.8219579f, -0.0425677f, -0.8342037f, 1.1190735f, -1.0717026f, 0.7430203f, -0.1093241f, -1.2637224f, -2.2982781f, -0.2699189f, -0.0793526f, -1.8403014f, 1.5339966f, -0.2502258f, -3.0198290f, -0.1590496f, 0.5334597f, -0.8375002f, 0.0091183f, 0.7234477f, 0.9558343f, -0.1428118f, 2.2039423f, -1.4123791f, 0.2574269f, -0.6570563f, -0.5999190f, 0.5111958f, -0.1411615f, -0.3541653f, -0.3026164f },
    { 3.5284586f, -0.6531792f, -0.0480276f, 0.1331355f, 0.6228480f, 0.9833339f, -2.9648161f, 2.5728233f, -0.5047419f, -0.5363315f, -1.1746614f, -0.0149925f, -0.3718520f, -1.0419830f, -0.0256127f, 1.5241436f, -1.2585675f, -0.0280560f, -1.6422914f, 0.0459643f, 0.1968458f, -2.1747398f, 0.4945664f, -2.4804394f, -1.6154547f, -0.5899914f, 0.7165443f, -0.1472780f, -1.3396511f, -0.0623450f, -0.1886562f, 1.3892096f },
    { -2.1332178f, -0.1982051f, -0.2212659f, 3.2477276f, -0.4179139f, -0.3552284f, -0.9081832f, -1.0802456f, 2.3525829f, -5.4662118f, 1.4693608f, -0.0870226f, -1.0788424f, -0.7066119f, -0.1076498f, 0.7275093f, 0.1799661f, -0.9474198f, -0.2477787f, 0.0645668f, 0.6182643f, -0.9935129f, -0.7604632f, -1.3966759f, 0.7489280f, -2.9056363f, 0.0882863f, 0.1236149f, 0.4340780f, -0.0350298f, -0.1856924f, -0.6133774f },
    { 0.5288641f, 0.4885860f, 0.0847383f, -0.8908465f, 0.2877608f, 0.0542899f, -1.2402779f, 0.1271410f, -0.4308441f, 0.1016752f, -0.1587404f, -0.1111765f, 3.6530082f, -0.5990665f, 0.0397761f, -0.8316008f, -0.3948973f, 0.3049187f, -1.5836186f, -0.2525044f, 0.4197678f, 0.1796660f, 0.0754739f, 0.8684176f, -2.1998515f, 0.5505133f, 2.2350507f, -0.5135552f, 0.3567097f, -0.0061499f, -0.0824216f, 0.2136726f },
    { 0.0857294f, -0.0777089f, -0.0172340f, 1.6224606f, -3.2281890f, 0.9982766f, -0.7274520f, -0.7728063f, 0.2745548f, -0.0377317f, -0.1309916f, -0.0730642f, -0.6401780f, -1.2517376f, -0.1500551f, 1.3324418f, 0.0602041f, -6.8759747f, -1.5552959f, 0.1319409f, -0.5912681f, -1.0141732f, -0.7613437f, -1.7289361f, 1.0751669f, -0.3797017f, -0.9552522f, 0.0379075f, 0.1220914f, -0.2046013f, -0.0750711f, 0.4898105f },
    { -0.0818758f, -0.1322907f, 0.1020601f, -0.2261519f, -0.5946255f, 1.1742647f, -0.3547730f, -1.5425212f, 1.0998658f, -1.4722291f, 2.9497824f, -0.1636249f, 0.2699446f, -0.2774846f, -0.1743857f, 1.2949505f, -1.3733031f, 0.3403975f, -0.5151005f, 0.0535202f, 0.5270203f, -0.1295356f, 0.3853132f, 0.2357593f, 0.3199787f, -0.1307262f, -0.7833753f, 0.4547919f, -1.4061766f, 0.0068958f, -0.1053473f, 0.8622939f },
    { -0.3544825f, 0.0713366f, 0.0006691f, 1.9434770f, 1.6762826f, -0.9692442f, -0.4598892f, 0.1643997f, 1.3125440f, -0.5995958f, -0.1029990f, -0.1654663f, 0.1869121f, 0.3572258f, -0.0828522f, 1.0227191f, 0.5450761f, 0.6256126f, -0.9740762f, -0.2444480f, -0.3106250f, 1.5763139f, 1.2575365f, -1.8787278f, -1.8336406f, 0.2179030f, -0.4893377f, 0.0844566f, 0.0168275f, -0.0380090f, -0.1392024f, 0.0273793f },
    { -0.0727103f, -0.4415136f, -0.0464692f, 0.3642085f, -0.9919307f, -0.0504261f, 1.7352896f, -1.5720958f, 0.3136817f, -0.8492547f, -0.7196807f, -0.0707793f, 0.3497837f, -0.0225506f, -0.1053948f, 0.4877878f, -0.8007966f, -0.6729766f, 1.2240828f, -0.1118837f, -0.5176509f, -0.2006710f, 0.1359795f, -1.2914093f, 1.8820713f, -0.2591550f, 0.0099277f, -0.4412510f, -0.5430614f, -0.0560023f, -0.1307580f, -0.0914287f },
    { 0.0970166f, 0.1674408f, 0.1406054f, 0.1590968f, -0.1162478f, 0.1280774f, 0.0771682f, 0.1204059f, -0.0469520f, 0.0261964f, 0.0337338f, 0.1037098f, -0.0606265f, -0.0612076f, -0.0800119f, -0.0047709f, 0.0583782f, -0.1183388f, 0.0676871f, -0.1357425f, 0.0005187f, -0.1057422f, 0.0621454f, 0.0502274f, 0.1752872f, 0.1230254f, -0.0849584f, -0.1726060f, -0.0648407f, -0.1598882f, -0.0006706f, -0.1598314f },
    { 0.3266531f, 1.1308966f, -0.0489250f, -0.5912521f, 0.1081138f, -0.5661159f, -0.7717159f, -0.0132250f, 0.9083634f, 0.1385646f, 1.0654491f, -0.0542244f, -0.9536952f, 0.1891730f, -0.1154800f, -0.5251078f, -1.2432489f, 0.0757755f, -0.2317127f, -0.2142750f, -0.3995366f, 0.1577111f, -0.1418502f, -6.3264637f, 1.2153317f, -0.7995309f, 0.2589243f, -0.0931389f, 0.1878975f, -0.0197687f, -0.1877998f, -0.5225748f },
    { 0.0767568f, 0.1658649f, -0.0330542f, -0.0438841f, 0.0598988f, -0.1923297f, -0.0300039f, -0.1521337f, 0.1448279f, 0.0269054f, -0.0799576f, 0.1203778f, 0.1311980f, -0.1299374f, 0.0333271f, -0.0604483f, 0.1690404f, 0.0578786f, -0.0044905f, 0.0402430f, -0.0471127f, 0.1107568f, 0.0615023f, -0.1314288f, 0.0140063f, 0.0151987f, 0.1273935f, 0.0261554f, 0.0127445f, 0.0673519f, -0.0804866f, -0.1950140f },
    { -0.0492194f, -0.0364402f, -0.0538675f, -0.0205780f, 0.1542642f, 0.1041685f, 0.0191808f, -0.1530253f, -0.0658713f, 0.1440138f, 0.0052229f, -0.1967626f, 0.1421277f, -0.1472707f, -0.0472444f, -0.1754446f, -0.0296038f, 0.1037628f, 0.0192618f, 0.0785379f, -0.1028472f, -0.0838549f, -0.1116951f, -0.1709048f, -0.0544207f, 0.1237711f, -0.0073577f, -0.0145261f, 0.1198107f, -0.0089993f, -0.1347705f, 0.0997960f },
    { -4.2231069f, 0.2094987f, -0.1614026f, -0.1066302f, -0.3266288f, -1.0803388f, 2.1889760f, -4.3780169f, 0.4907920f, 0.8645393f, -0.3494642f, -0.0538556f, -4.4621649f, 0.5010720f, -0.2225960f, -2.2632585f, -1.6480920f, -0.1184688f, -1.6775155f, 0.0364574f, 0.7812715f, -2.7185977f, -3.4206715f, -0.9139786f, -0.0644026f, 0.6977415f, -1.5436019f, 0.0811766f, 1.2017486f, -0.1935842f, -0.1642012f, -1.1945971f },
    { -0.0817936f, 0.2165919f, 0.0010377f, 0.0117755f, -0.1069050f, -0.0257235f, -0.1384340f, 0.1241229f, 0.0398734f, -0.1099532f, 0.0184320f, -0.0056706f, 0.1952771f, -0.0048211f, 0.1766845f, -0.1433545f, -0.0133696f, -0.1152506f, -0.0762304f, 0.0002030f, 0.0593404f, -0.1141448f, 0.0492275f, 0.0367651f, 0.0505834f, 0.1477109f, -0.0649613f, 0.1767253f, -0.0315379f, -0.1575151f, -0.0303103f, -0.1401955f },
    { 1.0791479f, -0.5547861f, -0.0331479f, -2.7905841f, -0.0700423f, -2.4154649f, -0.1924338f, 0.2054364f, -3.3960850f, -1.0921302f, 0.4253059f, -0.2237413f, -0.7356786f, 4.3999977f, -0.1203497f, -7.2944927f, -0.0836185f, 1.8766174f, -1.0917813f, -0.3220767f, 0.1590939f, 2.1621573f, 1.6935656f, 2.9114418f, -2.8171396f, 3.5259461f, -0.0741603f, -0.1311106f, 2.4865239f, -0.0486234f, -0.0284799f, 0.5224213f },
    { -0.2552926f, -0.0809953f, 0.0896638f, 0.2608532f, 0.0154312f, -0.0262949f, 0.0423428f, -0.0501462f, 0.1410431f, 0.0044154f, 0.0499926f, -0.0081398f, -0.0861516f, -0.0190430f, 0.1631645f, -0.1070313f, 0.0390157f, 0.0002965f, -0.1269969f, -0.1524657f, 0.0694391f, -0.0276596f, 0.0826361f, 0.0154108f, -0.0139236f, 0.0679556f, 0.0403382f, -0.0478421f, 0.0656551f, 0.1239472f, -0.0606580f, 0.0872510f },
    { 0.5563588f, 1.1883061f, -0.1957951f, -6.4183812f, -0.2452525f, -0.7589457f, -0.8733374f, 0.4618991f, -0.5323182f, 0.0528116f, 0.0543176f, -0.0014409f, -2.8587236f, -0.2330792f, -0.1356961f, -1.4520428f, -0.2995984f, -1.3442343f, -2.3714175f, -0.1842209f, 0.0651011f, -1.8910854f, -1.7517637f, 1.2016003f, 0.8737392f, -1.9836702f, 0.7061445f, -0.3819730f, 0.8279135f, 0.0449135f, -0.0042485f, 0.0624972f },
    { 0.3185568f, -1.1752311f, -0.0655984f, -1.9830782f, -0.0018531f, -0.4480008f, 0.2018446f, 1.1948999f, -0.8319135f, 4.1463242f, 0.4322149f, -0.1644508f, -3.9636331f, 2.1119113f, 0.1263230f, -0.3612216f, 1.0855899f, 2.2955921f, 0.8056011f, 0.0517835f, 0.4588513f, 1.2955742f, -0.4757954f, 0.0285984f, -0.3952935f, 0.6065717f, -2.0226448f, -1.0235326f, 0.6122844f, -0.0722887f, 0.0352740f, 0.3700542f },
    { -0.0207129f, 0.0676650f, -0.0761842f, 0.1336655f, -0.0277119f, -0.0398943f, 0.1531359f, -0.1470286f, -0.0864255f, 0.0567984f, -0.1605423f, 0.0202472f, -0.0153665f, -0.0064814f, -0.0600556f, -0.1401143f, -0.0319310f, 0.1105383f, 0.0809292f, 0.1732002f, 0.0943993f, -0.1157693f, 0.1746257f, 0.0405964f, 0.1710359f, -0.0402550f, 0.1491013f, -0.1513675f, 0.1143070f, 0.0850725f, 0.1178962f, -0.0261586f },
    { 1.1808469f, -0.0225464f, -0.1410311f, 1.6694261f, -0.4943907f, 0.0378484f, 2.6172667f, 1.5955106f, 1.4360769f, 1.3815966f, -0.0815225f, 0.0591169f, -15.6251984f, -2.0049846f, 0.0522532f, 0.4815960f, -6.6726542f, -1.7912245f, 2.3337717f, -0.1808984f, 0.0258204f, 4.0469174f, 0.6498846f, -1.4924022f, 1.9220998f, -0.0253603f, -0.4832549f, 2.7017169f, -0.3966264f, -0.0431710f, -0.3427843f, -1.0881739f },
    { -0.4632603f, 0.9419345f, 0.0287553f, -0.7675101f, 0.1594214f, -0.7219030f, -0.8295710f, 1.3168701f, -0.8835835f, 0.8493806f, 0.4605682f, -0.1443348f, 1.9302068f, 0.6887081f, -0.0172215f, -3.8233457f, 0.1856754f, -0.0351904f, -0.4766073f, -0.1563631f, -1.8880744f, -2.2599590f, -0.6486236f, 3.1037054f, -0.4793471f, -0.7193481f, 2.6304364f, -2.1975043f, -0.2065701f, 0.0266828f, -0.2542875f, -2.5923159f },
    };

    ALPAKA_STATIC_ACC_MEM_GLOBAL const float bias_output_layer[3] = {
    -0.8107917f, 0.2158697f, 0.1792289f };

    ALPAKA_STATIC_ACC_MEM_GLOBAL const float wgtT_output_layer[32][3] = {
    { 0.3541010f, -0.0766125f, -0.1190955f },
    { 0.1566345f, -0.1564178f, 0.0580950f },
    { 0.0079184f, 0.0768189f, 0.0308071f },
    { -0.7819192f, -0.8599133f, 0.0283872f },
    { 0.1365558f, -0.1352836f, 0.2189262f },
    { 0.0269749f, 0.0281017f, -0.2607915f },
    { 0.2486566f, -0.1058227f, -0.2247657f },
    { -0.2840704f, 0.0169656f, 0.0608974f },
    { -0.1386731f, -0.2867535f, -0.0336584f },
    { 0.0204337f, -0.1528447f, 0.1172192f },
    { 0.2801042f, 0.0031059f, -0.1293548f },
    { 0.0218650f, -0.0916797f, -0.1072121f },
    { 0.0740285f, -0.4519514f, -0.3989069f },
    { 0.3290536f, -0.2303819f, 0.1233837f },
    { -0.0517843f, 0.1015953f, -0.0944473f },
    { -0.2002642f, -0.5147095f, -0.1885856f },
    { -0.0865597f, 0.2379623f, 0.2834645f },
    { -0.0857516f, 0.4049624f, -0.2225519f },
    { 0.0309953f, 0.2060439f, 0.4653981f },
    { -0.0800967f, 0.0013328f, -0.0504434f },
    { -0.1052053f, 0.2920813f, 0.2300075f },
    { -0.1933330f, -0.0182077f, 0.2703886f },
    { 0.2061724f, 0.0574940f, -0.2394057f },
    { 0.0843355f, -0.1778155f, -0.1816270f },
    { 0.1207931f, 0.2480173f, -0.0992553f },
    { 0.1328569f, -0.1223637f, 0.2924166f },
    { -0.2761341f, 0.1372354f, 0.0422018f },
    { -0.3634741f, 0.0176459f, 0.1083990f },
    { -0.4054379f, 0.0997694f, -0.0389143f },
    { 0.0138043f, 0.1643508f, 0.1170741f },
    { 0.1034109f, -0.0218407f, 0.0364578f },
    { -0.2925382f, 0.1800703f, 0.1863872f },
    };
}  //namespace lst::t4dnn
//#endif
#endif
