#ifndef RecoTracker_LSTCore_src_alpaka_pT3NeuralNetworkWeights_h
#define RecoTracker_LSTCore_src_alpaka_pT3NeuralNetworkWeights_h

#include <alpaka/alpaka.hpp>

#include "FWCore/Utilities/interface/HostDeviceConstant.h"

namespace ALPAKA_ACCELERATOR_NAMESPACE::lst::dnn::pt3dnn {
  HOST_DEVICE_CONSTANT float bias_layer1[32] = {
      -1.9287041f, -1.7078358f, 1.4075710f,  1.5350338f,  -0.8735422f, -0.7760612f, -1.1876522f, 1.2745069f,
      1.8241087f,  0.0246532f,  -0.5801695f, -0.3876829f, 1.1074001f,  -0.6995508f, 0.4233242f,  -1.6962221f,
      -1.2778689f, -1.2315336f, 0.1490357f,  -0.4622958f, 1.9124422f,  0.2768884f,  0.7816834f,  2.0501933f,
      0.6289123f,  -0.0972463f, 2.2822778f,  -0.7670998f, -1.0471187f, -1.7559606f, -0.6596487f, 0.7756169f};

  HOST_DEVICE_CONSTANT float wgtT_layer1[6][32] = {
      {-0.1799228f, 0.0911920f,  -0.0433638f, 0.0368429f, -0.0014084f, 0.4868671f,  0.1936143f,  -0.0671929f,
       -0.0129717f, -0.0020276f, -0.2384374f, 0.1135653f, 0.4203740f,  0.8550462f,  0.1868014f,  0.1769483f,
       0.0592814f,  0.4653651f,  -0.2919507f, 1.2682816f, 0.0043164f,  -0.3477920f, 0.2541727f,  0.1376783f,
       -0.2358959f, -0.0039767f, -0.1761448f, 0.0088715f, 0.1555112f,  -0.2893178f, -0.1978195f, -0.0688255f},
      {0.7462875f,  0.8900235f,  0.1039007f,  0.0833857f,  0.2436770f,  0.1195829f,  -0.0711110f, 0.1701171f,
       0.1335600f,  1.1085610f,  0.0362584f,  0.1255802f,  0.4740648f,  -0.2398230f, 0.2775679f,  0.9569557f,
       0.0710393f,  -0.4250162f, 0.1290592f,  0.3062832f,  -0.0031061f, 0.4039707f,  -0.1568306f, -0.0720859f,
       -0.2903165f, -1.1665624f, -0.2983150f, -0.9844280f, -0.4940024f, 0.2552193f,  0.0655747f,  0.1277850f},
      {0.0151615f,  -0.1043819f, -0.4120446f, -0.0712531f, 0.1730717f,  -0.8362591f, 0.7443456f,  0.2389723f,
       -0.2045813f, -1.1367062f, 0.7732543f,  -0.1528115f, -0.9288239f, -1.2410182f, -0.1895797f, 0.2647260f,
       0.5926321f,  0.2236754f,  -0.0527531f, -0.6533805f, 0.0175101f,  0.1701646f,  0.0108465f,  -0.7852839f,
       -0.4813556f, 1.1888621f,  -0.3485010f, 1.1258630f,  0.3519207f,  0.5896858f,  0.1322742f,  -0.2138107f},
      {-0.5116838f, -0.2197880f, 1.5377517f, -0.0883907f, -1.2227037f, -0.3902300f, 0.2001186f,  0.4128706f,
       1.0853621f,  -0.0224539f, 0.1152987f, -0.6266115f, 0.7024596f,  -1.2999560f, 1.2719206f,  0.7850574f,
       -0.6945741f, -0.2811921f, 0.9232383f, 0.1452517f,  1.4413035f,  -0.4653785f, -0.5266946f, 0.2636265f,
       0.5033632f,  -0.0292537f, 0.6569896f, -0.3070573f, -1.7987425f, -0.9193966f, -0.1435751f, 1.1727258f},
      {-0.0608453f, 0.7511108f,  0.4042203f,  0.0146844f,  -0.5943190f, -0.0032987f, 0.6841140f,  0.1090900f,
       -0.0190539f, 0.0108262f,  -0.8392490f, -0.7047959f, 0.2240051f,  0.2495682f,  0.2132644f,  -0.1175632f,
       0.6024176f,  0.8937984f,  -1.6252326f, -0.5989129f, -0.0335349f, -0.5086867f, -0.0733044f, 0.6714731f,
       1.0242521f,  -0.0064013f, 0.1742944f,  -0.0012072f, -0.0665676f, 0.7129514f,  0.1262857f,  1.6167356f},
      {0.2247752f,  -1.0092335f, 1.3343331f,  -3.0294857f, -0.8010388f, 2.2241876f,  -0.0955044f, -5.0457621f,
       -0.9735467f, -0.0254536f, -0.3698897f, 1.3620011f,  -0.0696921f, 1.8402395f,  -1.2194012f, -1.2746844f,
       -0.5358465f, 1.3822647f,  0.8511813f,  0.2051648f,  -0.8310450f, -1.1901102f, -0.4613836f, -1.0066359f,
       1.7995312f,  -0.0100632f, -0.5299615f, 0.5154833f,  -0.7751176f, -0.7864679f, 1.8143088f,  -1.6357810f},
  };

  HOST_DEVICE_CONSTANT float bias_layer2[32] = {
      0.0344375f, 0.0869034f,  0.0337898f, 0.2292235f,  -0.7110144f, 0.4773753f,  -0.0948538f, -0.1622118f,
      0.1032476f, -0.3148219f, 0.9930295f, -1.2968870f, -0.0251394f, -0.0660955f, -0.1982218f, -0.2293289f,
      0.4171852f, -1.0078937f, 0.3864399f, 0.0572735f,  -0.2319395f, 0.0334704f,  -0.9352268f, 0.1443834f,
      0.4722617f, 1.0154271f,  0.0243944f, -0.2472017f, 0.2740840f,  -1.1112050f, 0.0197736f,  0.5480693f};

  HOST_DEVICE_CONSTANT float wgtT_layer2[32][32] = {
      {-0.1749611f, 0.8759082f,  0.0974617f,  0.8585596f,  0.5595211f,  0.6303211f,  -0.2348786f, 0.0931657f,
       0.1313885f,  0.9015405f,  -0.6593640f, 2.0676024f,  1.6475518f,  -0.4813120f, -1.8189170f, 0.9334442f,
       0.3936570f,  1.7653167f,  0.1132490f,  -0.2546056f, 0.0488567f,  -0.8473812f, -0.8508808f, 0.4259983f,
       0.3915828f,  -0.0739006f, -0.1562018f, 0.1381078f,  -1.6553831f, 0.4168829f,  0.1069998f,  0.4217667f},
      {-0.1574412f, 1.6641072f,  -0.0333806f, -0.3344036f, -0.6739328f, -3.7576497f, -0.1483666f, 0.0591225f,
       -0.0576100f, 0.9208341f,  -0.5519560f, 0.3845327f,  -0.9752023f, -0.0147155f, -1.6345589f, 0.0864237f,
       -0.8539530f, 0.7371520f,  0.1151136f,  -0.0000463f, -0.0186487f, 0.2201152f,  -0.2377424f, -1.9211478f,
       -0.8830500f, -0.5705432f, 0.0612718f,  3.7644060f,  0.7273257f,  0.3258669f,  0.0565375f,  -1.4299871f},
      {-0.1114946f, -1.1707464f, 0.0491389f,  0.2553436f,  -0.3378636f, 0.4252459f, -0.0872500f, 0.0724127f,
       -0.0582034f, -1.3191434f, -0.8287545f, 0.6468897f,  -9.1281071f, 0.5206187f, 0.9277015f,  -0.5717837f,
       -0.5899109f, 0.0200050f,  0.0645373f,  -0.0864885f, 0.0085191f,  0.2225811f, 0.1267763f,  -0.1417262f,
       0.0927566f,  -1.3651971f, -0.0103387f, -0.5315429f, -0.2585613f, 0.6107234f, -0.0885170f, -0.9157930f},
      {-0.1381225f, -1.1721548f, -0.1398702f, -5.2661738f, 1.6687893f,  1.1987437f, -0.0892174f, 0.0397119f,
       -3.2730465f, 0.6424508f,  -1.7634529f, -0.6133788f, 1.0502779f,  1.7099061f, 0.6726271f,  -1.3781837f,
       -2.2036779f, -2.1640785f, 1.2482983f,  0.1515792f,  -0.1733419f, 1.3786831f, 1.9462723f,  -0.3229462f,
       -1.2431830f, -1.4308834f, -0.0493474f, -1.2330538f, 1.9835826f,  1.3355908f, -0.1345556f, -0.5140852f},
      {-0.0718695f, 0.4608714f, -0.0277878f, 0.6290316f,  -0.6251401f, -0.5944587f, 0.0316465f,  0.0603079f,
       0.7399157f,  0.4474911f, 0.0896394f,  0.5093744f,  -0.2870582f, -1.0221542f, -0.4248467f, 0.3512740f,
       0.4728300f,  1.2986884f, -1.0063026f, -0.2305972f, 0.0821250f,  0.0082406f,  -0.4090064f, 0.5622739f,
       0.6721358f,  0.1966338f, 0.1020764f,  0.5638325f,  -0.7606554f, 0.0256901f,  -0.0721100f, -0.2512679f},
      {-0.1778591f, -1.5298914f, 0.0670295f,  0.0345616f,  0.0834920f,  1.0771561f,  0.0265000f, -0.0285157f,
       -1.0439204f, 0.3321098f,  1.2191422f,  -0.3665930f, -1.4914750f, 0.1062221f,  0.0535889f, 0.4910012f,
       -0.7303702f, 1.2549193f,  -0.7834356f, -0.0070780f, -0.0236978f, 0.2719700f,  0.1068709f, -1.1181428f,
       -0.5780073f, -3.3053951f, -0.1876796f, -0.4370857f, 1.4757049f,  -0.2460727f, 0.0555617f, -0.8564081f},
      {-0.1895992f, -0.1050774f, -0.0004172f, -0.4382755f, 0.4115534f,  0.4674534f,  -0.1759469f, 0.0143436f,
       0.3198462f,  0.4581863f,  0.4866007f,  0.0468363f,  0.1639098f,  0.3687204f,  -0.0744463f, 0.8311578f,
       0.6958733f,  0.3336771f,  0.1283832f,  0.1085347f,  -0.2094836f, -0.7906622f, 0.2975911f,  -0.7984208f,
       0.3653190f,  0.3572272f,  0.0950462f,  -3.7752535f, -0.7443646f, -0.1580249f, 0.0808520f,  0.5357496f},
      {-0.1417577f, -1.4512678f, -0.1006367f, 1.7423419f, 0.7585993f,  0.5651012f,  -0.1552632f, -0.0519577f,
       -1.7139654f, -3.5000248f, -0.7606955f, 2.5710685f, -0.3986436f, -0.1701220f, 0.9753290f,  -1.8344928f,
       -1.5695443f, -2.5007620f, 0.1975188f,  0.0856265f, -0.1233373f, -0.7858717f, 0.9412305f,  -0.8439880f,
       -0.7539703f, 0.0509093f,  -0.0167829f, 1.0430161f, 1.0353334f,  -0.5067200f, 0.0781530f,  0.3172612f},
      {-0.0227592f, -0.1192836f, -0.0932725f, 0.4363834f,  0.3602691f,  0.0072218f,  -0.1224529f, -0.1643146f,
       -1.3830122f, -1.6915076f, -0.6106374f, -0.7769520f, -1.5568476f, 0.5245966f,  -0.0048850f, -0.8844018f,
       0.7602957f,  0.3122311f,  -0.1746646f, -0.2098900f, -0.1748615f, 1.4591310f,  0.8021363f,  -0.5974641f,
       -0.0578197f, 0.9194075f,  -0.1729149f, 0.7686663f,  0.5933639f,  -0.6434598f, -0.0024175f, 0.6182570f},
      {-0.0801873f, -2.1851830f, -0.1937244f, 0.1006399f,  0.0009972f, -8.8956413f, 0.0035918f,  0.0351775f,
       0.2491231f,  -1.2552652f, -0.8496975f, -3.6666977f, 2.9464331f, 1.7165270f,  4.7136707f,  -1.1296283f,
       -2.4232442f, 0.8352774f,  -9.3840532f, 0.1099442f,  0.0060584f, 0.5574225f,  3.9174573f,  -15.2969589f,
       3.3651366f,  -0.2435155f, -0.0906462f, -2.0018125f, 1.1754212f, 0.4510886f,  -0.0137944f, 2.9541531f},
      {-0.0658452f, 0.3021131f,  -0.0444200f, -0.7828056f, -0.1781480f, -0.0491340f, -0.0896164f, -0.0668715f,
       0.2519832f,  -0.0670576f, -0.1891738f, -0.0021041f, -0.0550402f, -0.9479468f, -1.4307032f, 0.1664893f,
       0.6066701f,  1.0652506f,  0.2755434f,  0.0183609f,  -0.1199105f, -0.4888114f, 0.1929707f,  -0.0330946f,
       -0.0026725f, 0.0063610f,  -0.0471410f, 0.3034720f,  0.0635059f,  -0.9836140f, -0.1070716f, -0.2442942f},
      {0.0090360f,  -1.1398804f, -0.2741939f, -0.0779190f, -1.4170116f, 0.1377065f,  -0.2489287f, 0.1195689f,
       -0.0457317f, 0.3642949f,  0.6128796f,  0.1307133f,  -0.4258546f, 0.3774856f,  0.3347939f,  0.6291535f,
       -0.2821898f, -0.0504172f, 0.2935858f,  0.0803097f,  0.0898467f,  -0.2113324f, 0.1574522f,  0.0272426f,
       0.2825346f,  -0.6909444f, -0.2051724f, -0.0826627f, -0.0464312f, -1.0623889f, 0.1366550f,  -0.4289757f},
      {-0.0232453f, -0.5084648f, -0.0923950f, 0.6495259f,  -0.5782104f, -0.6171544f, -0.1157058f, 0.0307971f,
       -0.5396529f, -0.8227828f, 0.2086809f,  0.6443815f,  2.0855353f,  -0.5979239f, 0.9765295f,  -0.3861686f,
       -0.0162999f, -0.8187810f, -0.8468775f, -0.1137619f, -0.1107114f, 1.1996633f,  -0.2909777f, -0.6721141f,
       -0.3549105f, -0.1016218f, -0.0632066f, -0.1112025f, 0.3550038f,  -0.6873961f, -0.1077510f, 0.2097434f},
      {-0.0465070f, -0.9221454f, -0.0763829f, -2.9510791f, 0.5949134f,  -2.0941229f, 0.0846063f,  -0.0309273f,
       0.2170881f,  -1.0657675f, -0.4696054f, -0.0692961f, -5.7382560f, -0.9692010f, 0.4119132f,  0.7298513f,
       1.3189220f,  -0.2242956f, 0.1003621f,  -0.1399821f, 0.0002416f,  0.3649925f,  2.3061864f,  1.9214110f,
       1.4040945f,  0.8988824f,  0.1227724f,  -3.2962687f, 0.1831450f,  -2.1902971f, -0.1192220f, 2.8797414f},
      {0.0584578f,  -0.9456550f, -0.0009728f, 0.5447064f,  -0.0342013f, -1.2449794f, -0.0259326f, -0.2013422f,
       -0.1215714f, -0.0197790f, -2.8011856f, -1.4609756f, -0.2386120f, 0.3261787f,  -0.0556339f, 1.5877044f,
       -0.4840228f, 0.5636575f,  -0.2434866f, 0.0505821f,  -0.2323020f, 0.2070617f,  0.1105190f,  0.0169326f,
       0.0178024f,  0.2524728f,  0.0762450f,  -0.3712767f, -0.3332245f, -0.4385255f, -0.1003890f, 0.4596044f},
      {0.0180805f,  -1.4580625f, -0.0956599f, -0.4714610f, 0.1751766f,  -0.0574881f, -0.2103924f, 0.0211302f,
       -6.3361201f, -0.6689332f, 0.5463598f,  0.9944924f,  1.1431514f,  -2.2707055f, 0.6759595f,  0.6624691f,
       -0.8051129f, -1.8215926f, 0.2667578f,  0.0597544f,  -0.0729480f, -0.9831632f, -1.2008588f, 0.5354555f,
       1.5583950f,  -0.1007074f, -0.1726225f, -0.6235276f, -3.2245460f, 0.9071004f,  -0.1349879f, -0.0335280f},
      {-0.0007340f, 0.2103920f,  0.1108560f,  -0.0653105f, 0.8247978f,  -0.0330797f, 0.0552210f,  -0.0975516f,
       0.4565151f,  0.2082141f,  0.5276205f,  -0.4034240f, 0.0490877f,  0.1761283f,  -0.1764399f, 0.6900571f,
       0.7123241f,  -0.0112700f, 0.1784054f,  -0.2330061f, -0.3493215f, 0.0283233f,  -0.4819151f, -0.1518677f,
       0.4077640f,  0.6605684f,  -0.1506328f, -4.6420989f, -0.8307316f, -0.0880539f, -0.1878193f, 0.9935874f},
      {-0.2074750f, 0.2169233f,  -0.1187958f, -0.6124201f, 0.4343345f,  0.0096502f,  -0.0285432f, -0.1745501f,
       0.3552500f,  0.3983227f,  0.9813086f,  0.0928499f,  -1.3486311f, 0.3214904f,  0.1865479f,  0.9526418f,
       0.7281173f,  0.2743135f,  0.0290598f,  -0.0806317f, -0.3433730f, -0.9655956f, 0.5070467f,  0.8183100f,
       0.3881051f,  -0.1180779f, -0.0275595f, 2.0985045f,  -0.1666535f, 1.4962128f,  0.0758838f,  -0.3614679f},
      {-0.2369700f, 0.1445284f,  -0.1338937f, -0.2016138f, -0.1867236f, 0.0125782f,  -0.1543607f, -0.1351888f,
       -0.0092762f, -0.5898449f, -0.6985639f, -0.9004181f, -0.2925684f, 0.7300553f,  -1.5987127f, -0.4921190f,
       0.2494387f,  -0.3974520f, 0.3455435f,  -0.2263426f, 0.0217592f,  -0.7665860f, 0.5193573f,  -0.8130223f,
       0.3484506f,  -0.0248074f, -0.1108535f, -0.0271082f, -0.2894660f, 0.1913390f,  -0.1048197f, 0.9917867f},
      {0.0611243f,  1.5058049f,  -0.0423684f, -0.3962145f, 0.7935887f,  0.2704217f,  -0.0942468f, -0.0879363f,
       0.4883617f,  -0.1463942f, 0.2841740f,  1.6191272f,  -0.4500761f, -0.5563250f, -0.8307776f, 0.6485721f,
       0.9662148f,  -0.0901026f, -0.0385439f, 0.0173403f,  -0.0941720f, 0.3736264f,  0.0301284f,  -0.8664287f,
       -1.0270121f, 0.7860456f,  0.0896772f,  0.4018687f,  0.2345638f,  1.5105294f,  -0.0161454f, 0.3281318f},
      {-0.1651683f, -0.5078642f, -0.0728575f, 0.8111203f,  0.2776165f,  -0.5552301f, -0.0456678f, 0.0671776f,
       -2.0091653f, -4.8232622f, -0.9301600f, -0.2878549f, -1.6366479f, 0.5255226f,  0.3292830f,  -2.1617959f,
       0.3684147f,  0.0976152f,  -0.3913081f, -0.0217874f, -0.1685381f, 0.7652156f,  1.3430283f,  0.5849634f,
       -0.5577381f, 0.2813512f,  -0.1261982f, 1.6955011f,  0.2852745f,  -0.4345973f, -0.1226806f, 1.0572114f},
      {-0.1689877f, 0.3458762f,  0.0390624f,  0.2768239f,  -0.1629277f, 0.0796038f,  -0.1835840f, -0.1107380f,
       0.1878403f,  0.2854504f,  0.3181627f,  -1.4352652f, 0.0802309f,  -0.4809216f, -0.7271546f, 0.3274504f,
       0.7684557f,  -1.7024736f, -0.0714114f, -0.1163331f, -0.1346706f, 0.2119379f,  -0.3832915f, 0.1332303f,
       0.7148297f,  0.4590558f,  -0.0974948f, -0.0737502f, -0.3194273f, -0.3869974f, 0.0623786f,  0.2614160f},
      {-0.2041773f, -0.4622083f, 0.0118042f,  0.3216050f,  0.0971073f,  0.0677023f,  -0.0846838f, 0.1152645f,
       0.0649819f,  0.0351574f,  0.7840704f,  -0.3922621f, -0.2611546f, 0.1097142f,  -0.2567605f, 0.5281157f,
       0.3378910f,  -1.2094266f, 0.1239531f,  -0.2409790f, -0.1027719f, 0.1300978f,  -1.1020281f, 0.3001602f,
       0.1402415f,  0.6694518f,  -0.0476052f, 0.0715158f,  0.0240453f,  -0.5087270f, -0.0796733f, 1.0108061f},
      {-0.1152605f, -0.1704362f, 0.0692893f,  2.0741880f,  0.3350498f,  1.4512595f,  -0.0886443f, -0.1339636f,
       -0.6758869f, -0.0032944f, -0.0330366f, -0.1182360f, -0.0253659f, 0.9850751f,  0.8391458f,  -0.7753978f,
       -0.5862588f, -1.2407115f, 0.3432595f,  -0.1830551f, -0.2116757f, 0.9485105f,  -3.0862534f, 0.9098831f,
       -1.3541026f, 0.6436454f,  -0.0998812f, -0.9927050f, 0.9071584f,  -0.3147585f, -0.0283199f, 0.4245469f},
      {0.0222396f,  0.7906720f,  -0.2010691f, -0.2161967f, 0.3952461f,  0.5821766f, -0.1332363f, -0.0394927f,
       -0.2294059f, -0.1824488f, 0.1145935f,  1.1143736f,  -5.4542484f, 0.4347091f, 0.3742186f,  0.3352269f,
       -0.1233904f, 0.4926035f,  -0.6433149f, -0.1630406f, -0.0570117f, 0.0822962f, 0.6758430f,  1.1520406f,
       0.3979261f,  -0.8477391f, -0.0869746f, -8.8033514f, 0.7047239f,  0.3894874f, -0.0368545f, -1.1021399f},
      {-0.0173808f, -2.6263030f, -0.2151965f, -4.3810844f, -0.9200766f, -6.6627684f, -0.1329706f, 0.0421282f,
       1.5034639f,  -0.4084163f, -1.1370363f, -4.9100852f, 2.0992765f,  -2.8711486f, 0.6213655f,  1.7839706f,
       -2.9053938f, 1.9021174f,  -8.7397747f, -0.0574733f, -0.1084542f, 1.7457204f,  2.8494098f,  -7.7760863f,
       -1.8229059f, 0.8277559f,  0.0214666f,  0.2889600f,  -9.1341696f, -2.1719303f, 0.1483354f,  2.0804446f},
      {-0.0968840f, -0.4614176f, -0.0904157f, 0.5865409f,  0.3932410f,  0.6918536f, -0.0124288f, -0.1784738f,
       -0.8930180f, -1.0479215f, 0.3689537f,  -2.4253125f, -1.7780473f, 0.9082327f, -1.0217682f, -1.1691871f,
       -0.2704653f, -0.5550491f, -0.6929670f, -0.1096122f, -0.2592448f, 1.5285082f, -1.6546624f, -0.7565712f,
       -0.7466808f, 1.7270377f,  -0.0301808f, -0.5103749f, 2.5436783f,  0.8593757f, -0.1707175f, 1.0940830f},
      {0.0088206f,  1.1705594f,  0.0066045f,  1.9886194f,  2.3611503f,  -0.9729083f, -0.1209250f, -0.1652367f,
       0.0780720f,  0.2874146f,  0.7869111f,  2.1000175f,  5.9039421f,  0.7284082f,  -1.0034307f, -0.5693966f,
       -2.1224978f, 2.6245103f,  -1.8712835f, 0.1104117f,  0.0212965f,  0.3615723f,  1.3059350f,  -0.2910227f,
       -0.6534144f, -1.9474722f, 0.0882914f,  -0.2716931f, -3.4763906f, 1.3217201f,  -0.1509864f, -1.9771802f},
      {-0.1644880f, 0.8357370f, -0.1052695f, 2.3920109f,  -0.9106442f, -1.0314028f, -0.1759242f, -0.0500430f,
       1.9910430f,  0.2262895f, -0.5826333f, 1.2565968f,  -0.8184050f, 1.0733249f,  1.2902355f,  0.0835201f,
       0.2000469f,  3.2167110f, -0.4527709f, -0.1100791f, -0.1464289f, -0.7667407f, -0.6842495f, 0.1106809f,
       -0.2113101f, 0.9986160f, -0.1146038f, -1.4051702f, -1.4327028f, 0.9597691f,  0.1501447f,  0.2079068f},
      {-0.1190935f, 0.9601804f, -0.1634677f, -0.1642807f, 1.0385797f,  -1.1571164f, -0.0116653f, -0.0842028f,
       0.6272724f,  0.5080863f, 0.3706109f,  -0.4531516f, 0.8315764f,  -1.1098155f, -0.3491466f, 0.9432220f,
       0.1621525f,  0.1251467f, -0.0685812f, 0.0434376f,  -0.1060527f, -0.3982476f, 0.3213117f,  0.5317662f,
       0.6270832f,  0.6592342f, -0.1691007f, 1.1752080f,  -1.2496231f, 1.2854043f,  -0.0772753f, 0.6708627f},
      {-0.0365920f, -0.1890289f, -0.0683042f, -0.6876013f, -0.1545672f, -0.0005597f, 0.0361267f,  -0.1918108f,
       0.5296263f,  0.9962342f,  0.4513701f,  0.4304484f,  0.8798908f,  0.2159832f,  0.0982828f,  0.5737966f,
       -0.1093759f, 0.1666565f,  0.2670961f,  -0.0665684f, -0.0386583f, -0.2882195f, 0.0459835f,  -0.4130147f,
       0.1009767f,  -1.1586468f, -0.1574305f, -1.2460580f, -0.5833379f, -0.1051453f, -0.1746653f, -0.3176734f},
      {-0.1035149f, 0.2893695f,  -0.1961006f, 0.0273099f,  1.6118912f,  -0.8463059f, -0.2608502f, 0.0018599f,
       0.0338215f,  -0.4153676f, -0.0469284f, -0.0740373f, -3.2449861f, -0.4169243f, 0.7025912f,  -0.9112785f,
       0.1748233f,  0.4345909f,  -0.5290937f, 0.0430108f,  0.0011944f,  0.0118178f,  0.3456755f,  -2.4801240f,
       -0.5957884f, 0.3980894f,  -0.0622129f, -4.6834641f, -0.5355414f, 0.8090616f,  -0.0510985f, -1.0551664f},
  };

  HOST_DEVICE_CONSTANT float bias_output_layer[1] = {-0.0997888f};

  HOST_DEVICE_CONSTANT float wgtT_output_layer[32][1] = {
      {0.0880677f},  {0.8069778f},  {0.1396473f},  {1.3655361f},  {-0.8698913f}, {1.1373301f}, {-0.0899228f},
      {0.0485334f},  {1.0816212f},  {-2.7901628f}, {0.7143789f},  {-1.3445699f}, {0.8543879f}, {-0.4816086f},
      {-0.6830196f}, {-1.2421918f}, {0.6837693f},  {-1.0528827f}, {1.5339282f},  {0.1743197f}, {0.0861949f},
      {-0.4102382f}, {1.2559249f},  {1.1804427f},  {0.3536457f},  {1.5677785f},  {0.0340941f}, {-1.4004143f},
      {-1.7042521f}, {-0.9555731f}, {0.1549960f},  {-0.9760597f},
  };

}  // namespace ALPAKA_ACCELERATOR_NAMESPACE::lst::dnn::pt3dnn

#endif
