#ifndef RecoTracker_LSTCore_src_alpaka_pT3NeuralNetworkWeights_h
#define RecoTracker_LSTCore_src_alpaka_pT3NeuralNetworkWeights_h

#include <alpaka/alpaka.hpp>

#include "FWCore/Utilities/interface/HostDeviceConstant.h"

namespace ALPAKA_ACCELERATOR_NAMESPACE::lst::dnn::pt3dnn {
  HOST_DEVICE_CONSTANT float bias_layer1[32] = {
      1.8272518f,  -2.3463247f, -0.4377756f, -0.2055899f, -1.6626524f, 2.6091325f,  -0.0186513f, 0.0534243f,
      -2.3957808f, -3.2298546f, -0.0737586f, -1.0234965f, -1.1324806f, 1.6455994f,  -0.4166045f, -0.5185427f,
      1.8727503f,  -1.1711638f, 3.2759857f,  -1.7838205f, 0.3004533f,  -0.3341896f, -0.6450037f, -2.0486577f,
      -0.1082327f, 1.1400825f,  1.9331117f,  2.4799430f,  -2.8082674f, -0.8969442f, -0.7873760f, -1.7237471f};

  HOST_DEVICE_CONSTANT float wgtT_layer1[6][32] = {
      {-0.0789742f, -0.1138986f, -0.3420379f, 0.2767251f, -0.3127224f, 0.3159501f,  -0.0109545f, -1.0985055f,
       -0.0035873f, 1.1353182f,  -0.0418729f, 0.8082994f, 0.4526213f,  -0.4356468f, -0.0778327f, -0.3051233f,
       -0.2592480f, -0.2068535f, -0.0106926f, 0.2358742f, 0.0237762f,  -0.4392109f, 0.1132005f,  -0.1131684f,
       0.0468687f,  -0.1036897f, 0.0295803f,  0.0042964f, -0.0048212f, 0.2783041f,  0.9218059f,  -0.3877272f},
      {-0.0979448f, 0.3496826f,  -0.4073866f, -0.3665603f, 0.0856917f,  -0.1076694f, -1.9528300f, -0.3850669f,
       0.1676097f,  0.5832368f,  -0.0184435f, -0.2804377f, 1.1458808f,  -0.2848202f, 0.0169759f,  1.5221852f,
       1.0383830f,  0.6148051f,  -0.2610800f, 0.0521443f,  -1.8987958f, -0.0138515f, -0.6612269f, 0.3104466f,
       -1.8568066f, -2.0935163f, 0.7655692f,  0.8879180f,  0.0223200f,  0.1739928f,  0.1239171f,  0.7504965f},
      {-0.6174850f, 0.7691367f,  -0.3415755f, -0.3717815f, 1.2773303f,  -1.1288491f, 1.9345417f,  -0.6283120f,
       -0.0203877f, -0.0652191f, -0.4074583f, 0.7046297f,  0.2662237f,  0.1246436f,  -0.0449558f, -0.6979070f,
       -1.8165958f, -1.0683677f, -0.7425056f, -0.0614560f, 1.8448465f,  0.5988553f,  1.1148926f,  0.4112886f,
       1.9648466f,  1.5315332f,  -0.5316479f, -0.9576524f, -0.0812742f, -0.4044905f, -1.8826526f, -0.1831227f},
      {-1.4882765f, -0.3949006f, -0.1044831f, -0.2067617f, 0.0946678f,  -0.0231843f, -0.0666957f, -0.0044461f,
       0.0222929f,  -0.6066809f, 0.1765376f,  -0.0189867f, 2.3088367f,  1.1773503f,  0.2078866f,  0.4851059f,
       -0.2931149f, 1.7245981f,  0.6430662f,  1.2080544f,  -0.6141766f, -0.8509953f, -1.0855079f, -2.4299910f,
       0.0228564f,  -0.0811942f, 0.1370600f,  1.7354814f,  -2.5891957f, -0.4796961f, -1.4544929f, 0.6612367f},
      {-0.1387904f, 1.4249369f,  -0.1985250f, 0.0773609f,  -0.2649891f, -0.6976944f, -0.1032236f, 0.8493816f,
       0.0128456f,  -0.3383444f, 0.2321815f,  0.9913292f,  -0.0526471f, 1.2686381f,  -0.0666512f, -1.2215813f,
       -0.1307594f, -0.0441016f, -0.2604698f, 2.0534165f,  -0.1360563f, -1.0059456f, -1.2301068f, -0.0738396f,
       0.0019680f,  0.0516408f,  0.0273317f,  -0.1872335f, 0.0558140f,  1.2289695f,  0.1840589f,  -1.4579279f},
      {-6.7922382f, -1.5247808f, 0.2002734f,  0.1218700f,  -0.4308276f, 0.7171375f,  0.2394420f,  0.3909373f,
       3.6181376f,  0.6675345f,  0.1586583f,  -3.4046040f, -2.3323362f, -1.3306319f, -0.0201895f, 0.5968060f,
       -0.1571654f, 3.2806137f,  -0.7684699f, 0.0784553f,  -1.0156296f, 1.0652683f,  -0.3593247f, -1.4473141f,
       0.1980363f,  0.1382371f,  -4.2255802f, -0.6222907f, 0.9773685f,  0.7274691f,  2.8936455f,  1.8167582f},
  };

  HOST_DEVICE_CONSTANT float bias_layer2[32] = {
      1.3373977f,  -0.0822911f, 1.3452544f,  0.7392669f,  -2.2835608f, -0.1149585f, -1.2035278f, -0.4053159f,
      1.8645533f,  1.2653499f,  -0.1854132f, 0.8737904f,  1.4374558f,  -1.0848142f, -0.1960597f, 1.3808246f,
      -0.0822589f, 0.4097563f,  1.5395958f,  -1.5012968f, -0.2638850f, -0.0823960f, 1.4861187f,  -0.8049737f,
      1.2450438f,  0.9260007f,  -0.1193761f, -0.4200229f, -0.1476426f, -0.1521397f, -0.1210137f, 1.3126380f};

  HOST_DEVICE_CONSTANT float wgtT_layer2[32][32] = {
      {0.2072325f,  0.1342540f,  0.1264195f,  0.9167376f,  -0.4481940f, 0.0303342f,  -1.3994342f, 0.3005695f,
       0.9852826f,  1.6250829f,  -0.1062550f, -1.0775166f, -1.3578502f, -1.5427129f, 0.0272711f,  2.8894064f,
       0.1094924f,  1.2733747f,  0.2268808f,  -1.0109742f, 0.0955364f,  -0.0860949f, 0.2746101f,  2.7759247f,
       -0.7475989f, -0.0489247f, -0.1906237f, 2.4490798f,  -0.0023105f, -0.1013633f, -0.0701906f, 1.0064833f},
      {-2.4105253f, -0.0341248f, -0.5322952f, -0.3895772f, 0.3565001f,  0.1024061f,  0.7809191f,  0.4618230f,
       -0.4496871f, -0.5327863f, -0.0605230f, -0.1860953f, -0.7532518f, -1.1118160f, -0.0840386f, 0.7879139f,
       -0.0466647f, -0.2391970f, -3.8962364f, 0.1173783f,  0.0612378f,  -0.0742859f, -0.2341967f, -0.2575034f,
       -1.0012650f, -0.7096955f, 0.0432278f,  -1.2101698f, -0.1330003f, -0.1614154f, -0.1952672f, -0.0710569f},
      {0.0524348f,  -0.1079835f, 0.0460196f,  0.0594605f,  0.0656703f,  -0.0573603f, -0.0385989f, 0.1397553f,
       -0.0500722f, -0.0275030f, -0.0984708f, -0.0976774f, -0.1122529f, 0.1275419f,  -0.1604685f, -0.1024590f,
       0.0273790f,  0.1221798f,  -0.1059860f, -0.1257484f, 0.0964264f,  0.1491974f,  0.1650003f,  -0.0810733f,
       -0.1133359f, -0.1382136f, -0.1496725f, -0.0032158f, -0.1393001f, 0.1028763f,  -0.0641777f, 0.1013872f},
      {-0.0602614f, 0.1592921f, -0.1282294f, 0.1153578f,  -0.0134601f, 0.1383341f, -0.0044408f, 0.1248506f,
       0.0651812f,  0.0620177f, -0.1579380f, -0.0597370f, -0.0978322f, 0.1595104f, -0.0095291f, 0.1115347f,
       -0.0734716f, 0.1402938f, 0.0681455f,  0.0846800f,  -0.1087314f, 0.0197568f, 0.1241103f,  0.0750880f,
       -0.0665853f, 0.0947498f, -0.0875894f, 0.1585309f,  0.0496399f,  0.0373682f, 0.1018927f,  -0.0022689f},
      {-1.1623943f, -0.0212616f, 0.6233515f,  0.8199356f, -0.0645469f, -0.0059294f, 0.8429779f,  0.3212045f,
       0.3963732f,  -0.0492170f, -0.0743350f, 0.8878595f, 0.4972876f,  0.1300353f,  -0.0268992f, -0.4879843f,
       -0.1442832f, 0.1793236f,  -0.5561388f, 0.5100672f, -0.0826820f, -0.1948708f, 0.7683829f,  -0.1313849f,
       -0.3166055f, -1.8327130f, -0.1330673f, 0.3283948f, -0.0359925f, -0.1241962f, 0.0555294f,  -0.8832913f},
      {1.6312686f,  0.0177223f,  1.3499579f,  -1.1837860f, -1.2671267f, 0.0405945f, 1.9239459f,  -1.2380875f,
       -0.7533114f, -0.2567791f, -0.1453731f, -0.6967108f, -0.0489972f, 0.0621868f, 0.0718219f,  0.5754915f,
       -0.0967742f, 0.7458159f,  0.7893667f,  -0.3239993f, 0.0249733f,  0.0073222f, 0.0047721f,  -0.3909189f,
       -0.6032934f, 2.3840384f,  0.0492709f,  0.0006327f,  -0.1718193f, 0.1451303f, -0.2100360f, 0.5326718f},
      {-2.4302075f, 0.0257070f,  -12.7791300f, -1.6948462f, 3.5854385f,  0.0413992f,  1.6423011f,  3.6634297f,
       -0.4228465f, 0.7722955f,  -0.0541370f,  1.3966113f,  -0.1161707f, -6.0460134f, -0.1144406f, -1.1114017f,
       0.0538582f,  -1.1904619f, -0.3540683f,  2.0897772f,  -0.2115864f, -0.0537319f, -7.9932275f, -0.2185319f,
       -4.5335793f, -0.7014347f, -0.0818547f,  0.6941914f,  -0.0849898f, -0.0513165f, -0.2297380f, -7.2875996f},
      {-0.0926842f, -0.0177156f, 0.2301758f,  0.4118886f,  0.5244888f,  0.1154401f,  0.7786220f,  -0.4551473f,
       -0.3653937f, -0.9424480f, 0.1383924f,  -1.2249926f, 0.5212113f,  0.1129968f,  0.0347767f,  -0.1797632f,
       0.0012664f,  -1.0295788f, 0.1197950f,  -0.2345367f, -0.2092027f, -0.2459437f, 0.4967504f,  -0.2368900f,
       1.5213169f,  -0.2043939f, -0.0635140f, 0.2184665f,  -0.1143136f, -0.0335574f, -0.0164304f, -0.9177073f},
      {-2.0061562f, -0.0731177f, -1.1914324f, 2.4438696f,  -0.0804231f,  -0.1440457f, -0.9208444f, -1.6001390f,
       0.7392858f,  -1.4984387f, -0.1208575f, -2.8674474f, -12.5242548f, 2.0927541f,  0.0290813f,  -0.2557633f,
       0.0581077f,  1.5111623f,  -2.2719960f, 2.1792889f,  -0.0035407f,  -0.2628186f, 0.9238059f,  1.3543808f,
       -2.6692858f, 0.3233964f,  -0.0514677f, 1.7323992f,  -0.3069954f,  0.1561792f,  -0.1190601f, 0.2134506f},
      {-0.5923000f, 0.0057862f, -1.9909059f, 0.9786569f,  -0.2856648f, -0.0052103f, -0.8054359f, -1.7458684f,
       -1.5852113f, 0.1882485f, -0.0098221f, -2.1973295f, 0.5852168f,  1.8165550f,  0.0000191f,  -1.9437928f,
       -0.0662508f, 1.7680324f, 0.5019419f,  0.6893588f,  -0.1409188f, -0.2085789f, 0.5630755f,  -0.6158693f,
       -0.0261967f, 1.1423439f, 0.1120111f,  -0.0575354f, -0.3763622f, -0.0513143f, -0.0262047f, 0.6735805f},
      {-0.0909080f, 0.0098114f, -0.0929293f, 0.1213338f,  -0.0603208f, -0.0946386f, -0.0902544f, -0.1344749f,
       0.0222801f,  0.0242695f, 0.1215053f,  -0.1431737f, -0.0048383f, -0.0604300f, -0.0884038f, 0.1472919f,
       -0.0770608f, 0.0243447f, -0.0220672f, -0.1324631f, -0.0315286f, -0.0612120f, 0.1345482f,  0.1142331f,
       -0.0814683f, 0.0577060f, -0.1351425f, 0.0984578f,  0.0165881f,  -0.0455491f, -0.1480607f, 0.0154523f},
      {2.5761051f,  -0.0422984f, -0.0749477f, -0.6805565f, 0.3537136f,  -0.0187586f, 0.7514817f,  0.1103383f,
       0.2776646f,  -0.8491029f, 0.1281355f,  -1.3163298f, 0.4905590f,  1.1880171f,  -0.0046167f, 0.9033778f,
       -0.0328696f, 1.6360503f,  -2.2998719f, 0.2724406f,  0.1261599f,  -0.2562024f, 0.4252622f,  0.3095678f,
       1.1755052f,  0.8693264f,  -0.1334105f, 0.1265823f,  -0.0033342f, 0.0254212f,  -0.0971857f, 0.1145227f},
      {-3.7454743f, -0.1617815f, 0.0826017f,  -0.3957306f, 0.0911252f,  -0.0749220f, -0.5776992f, -0.3899398f,
       -1.4371724f, 0.0885283f,  -0.1450788f, -2.3366792f, -0.7504803f, 0.0027778f,  -0.1478082f, 0.7790346f,
       -0.2041433f, 2.2777569f,  -1.3807192f, 0.9992379f,  -0.0011989f, 0.0421966f,  -0.5209314f, -1.6257434f,
       -0.0058114f, -1.0690006f, -0.1969080f, 1.3457488f,  0.0517817f,  0.0185700f,  -0.1562519f, -0.6978399f},
      {1.0042877f,  0.0483167f, -0.8961771f, -0.6751476f, -0.4371662f, -0.0938456f, 0.1658110f,  -0.0500087f,
       0.1744087f,  0.5712687f, 0.0230662f,  -0.1839649f, -0.0380041f, 0.6577988f,  -0.0932199f, -0.4754493f,
       -0.1815950f, 1.9875377f, -0.3450350f, -0.6969227f, 0.1291358f,  -0.4399613f, -1.0425225f, 0.7843724f,
       0.2454625f,  0.2499359f, -0.0309639f, -1.2025871f, -0.1447982f, -0.1665480f, -0.1631442f, 0.0276684f},
      {-0.0509853f, 0.0163164f,  -0.1628900f, -0.0110913f, 0.0997473f,  -0.1676647f, -0.1254595f, -0.1421205f,
       -0.1326795f, -0.0724952f, 0.0107104f,  -0.1115439f, 0.0602225f,  -0.0893659f, -0.0731846f, 0.0553582f,
       -0.1306812f, 0.0356932f,  0.0345495f,  0.0287577f,  0.0663975f,  0.0489833f,  -0.0145697f, -0.0174647f,
       -0.0840225f, -0.0227656f, 0.0046368f,  -0.1062886f, -0.0371674f, 0.0600889f,  0.0174894f,  0.0315804f},
      {-1.0885698f, -0.1148164f, -0.8909927f, -0.2129873f, -0.8484143f, 0.0993800f,  -0.0471976f, -0.3110347f,
       -0.2826000f, -0.1327859f, -0.0624102f, -0.8151940f, -0.5073252f, -0.8360002f, 0.0068618f,  -1.0771359f,
       -0.1279072f, -1.3046181f, 0.1684993f,  -0.1568342f, -0.1793758f, -0.0544166f, -0.7445236f, -0.9521704f,
       -1.3721503f, -0.7210649f, -0.0517055f, 0.9062074f,  -0.0546352f, -0.1497676f, -0.2502765f, 0.8228720f},
      {-0.1405834f, -0.1549024f, 0.7046015f,  0.4136344f,  -0.8060468f, 0.0322407f,  1.0213612f,  -0.7479347f,
       -1.1502050f, 1.7883298f,  -0.1243638f, 0.5382123f,  -0.8470746f, -2.0054433f, -0.1619670f, 0.7475120f,
       0.0555484f,  0.9458207f,  1.6394433f,  -0.8558598f, -0.1037799f, -0.0029274f, 1.0972087f,  0.3001119f,
       -1.4744211f, 0.9992273f,  -0.1550390f, 0.6894759f,  -0.1875652f, -0.0784537f, -0.1288225f, 1.2601449f},
      {-3.3249998f, -0.1497352f, -0.1403255f, -2.6810000f, 0.8060629f,  0.0786676f,  2.8371627f,  -0.7621049f,
       -0.5200269f, 0.6197156f,  -0.0662007f, -1.0539335f, -1.2936338f, -0.5099288f, -0.0624983f, -0.4415142f,
       -0.0736660f, -0.4537347f, 1.5212843f,  3.1782730f,  -0.0040960f, -0.2793010f, 0.5852067f,  1.1301445f,
       -3.9677048f, 1.3421156f,  -0.1644292f, -1.1228032f, -0.0539154f, 0.1199352f,  -0.0400583f, -0.4878898f},
      {1.3286408f,  0.0845120f,  0.5021962f,  -2.4320829f, -2.0095880f, -0.1650174f, 0.4980873f,  -0.4423969f,
       -1.3044751f, -0.2032230f, -0.1459717f, 2.5028775f,  -1.0000675f, -2.1969075f, -0.1880104f, 0.2077573f,
       -0.0810724f, -1.0451603f, 1.8900992f,  -0.7372363f, -0.1622363f, -0.2327831f, -0.1873643f, 2.1612859f,
       -2.4880061f, -0.0036683f, 0.1027808f,  -3.2053382f, -0.1595328f, -0.0794476f, -0.2396224f, 0.4437358f},
      {-3.5675824f, 0.0388704f, 0.3547772f,  -0.6600441f, 0.5058051f,  -0.0982653f, 0.4503792f,  -0.8377942f,
       -1.5348811f, 0.3709002f, -0.0726480f, 1.3490764f,  -0.3569812f, -1.0562536f, -0.1903517f, -1.3725890f,
       -0.1849013f, 0.3823990f, 0.4553745f,  -0.7369207f, -0.2012084f, -0.0464995f, 1.3262063f,  -1.6232134f,
       -0.6927750f, 0.2436645f, -0.0584397f, -1.6562325f, -0.2104747f, -0.1383137f, -0.1350478f, 0.0123066f},
      {-1.8483497f, 0.0230281f,  -2.0966334f, 0.1604129f,  2.3701065f,  -0.1487993f, -0.0616594f, 3.4031241f,
       0.9657539f,  -0.6780712f, -0.1416518f, -0.3041235f, 2.5735824f,  -0.5050344f, -0.0665067f, -1.1946805f,
       0.0595891f,  0.4154196f,  -0.9424750f, -0.7975676f, 0.0208975f,  -0.1650893f, -1.7655882f, 0.5349345f,
       -0.4055263f, 1.2544527f,  -0.2050018f, -0.0778373f, -0.3583933f, 0.0159577f,  -0.0893412f, -2.2974391f},
      {0.9122978f,  -0.0958629f, 0.6154758f,  -0.6921496f, 0.7474402f,  -0.0827684f, -1.1901740f, 0.0040326f,
       0.0135213f,  0.1588176f,  -0.0692489f, 0.5264105f,  0.7480079f,  0.4337966f,  -0.0570704f, 0.3876171f,
       -0.1152740f, -0.8469899f, 0.0269024f,  0.4594117f,  -0.0393141f, -0.0178012f, 0.6918771f,  -0.2823932f,
       0.5549006f,  -0.2591264f, -0.0129819f, 0.3345938f,  -0.0637206f, -0.1419512f, -0.1593119f, -0.3500457f},
      {0.0025936f,  -0.1241471f, -0.0645469f, -1.3758618f, 0.8548653f,  -0.1419757f, -4.3893991f, 0.6150365f,
       1.2807322f,  0.0197986f,  -0.1664400f, -0.5678073f, -0.7270436f, 0.6502246f,  0.1243317f,  -0.4026557f,
       -0.0447587f, -0.0747808f, 0.2058959f,  0.8939656f,  -0.1912827f, -0.1235301f, 0.6271724f,  0.2778875f,
       1.2674874f,  -1.9815512f, -0.2028352f, -0.3218197f, -0.4377775f, -0.1486069f, 0.0054734f,  0.0240668f},
      {0.4944706f,  -0.1243503f, -0.0885724f, 0.6367974f,  0.2607614f,  -0.0989883f, 0.3285107f,  -1.5199014f,
       0.1739996f,  -0.4994834f, -0.0990553f, 0.6048827f,  0.4850759f,  1.8575927f,  -0.2103508f, -1.1158581f,
       -0.1293306f, -0.4159191f, -0.0908241f, 2.6311667f,  -0.2283367f, -0.2118451f, -0.0662436f, -2.0145838f,
       0.7586839f,  0.0240136f,  -0.0460609f, -0.0369173f, -0.2625146f, -0.0324459f, -0.2122158f, -0.5863596f},
      {-1.5358499f, -0.0793792f, -6.2775335f, -0.7194713f, 2.5204337f,  0.1050433f,  -0.4316413f, 3.5882919f,
       -0.3905090f, 2.1385903f,  0.0811410f,  1.0124142f,  -0.9812390f, -3.1135292f, -0.0536770f, 0.7617642f,
       -0.1001310f, -0.7656288f, -1.4270817f, 0.1814797f,  -0.0477265f, 0.0059991f,  -1.7290758f, -1.3813056f,
       1.9105504f,  1.4666958f,  -0.0145124f, 2.5650446f,  -0.0371325f, -0.0330541f, -0.0589017f, -2.8264339f},
      {1.8788145f,  -0.0706285f, -2.9188085f, -1.0673511f, 1.7475190f,  0.0011385f,  -0.2532696f, 2.1169934f,
       -1.6472099f, 0.3927242f,  -0.0159721f, 0.8096014f,  -2.4390225f, -3.3202579f, -0.1376296f, 0.0475354f,
       -0.0935248f, -0.5463463f, 1.7995110f,  -1.1568615f, -0.1266700f, -0.0283279f, -3.0497780f, -0.4897885f,
       -2.9897573f, 0.6738929f,  -0.1107380f, -1.9271722f, 0.0966569f,  0.0291012f,  0.0804188f,  -0.4883657f},
      {-1.1432322f, 0.0461806f,  0.5707359f,  1.7285463f,  -1.4640015f, -0.1288625f, 0.8790984f,  -0.2855373f,
       0.2081390f,  1.4725680f,  0.1003277f,  0.4380701f,  -1.9047725f, -1.5911512f, -0.1504788f, 0.7261996f,
       -0.0898760f, 0.3838834f,  0.0463049f,  -1.4872663f, -0.1926801f, -0.1416396f, 0.7711796f,  2.4476986f,
       -0.9637223f, -0.4211853f, -0.1263510f, 1.2658753f,  -0.0038930f, 0.1193978f,  -0.0531017f, 0.8128354f},
      {-1.2184751f, -0.1154700f, 0.5257679f,  1.7577404f,  -1.5931096f, -0.1157806f, -0.7012293f, 0.0239229f,
       1.1602290f,  1.2896190f,  -0.1432963f, 0.1019771f,  1.2696340f,  0.8311352f,  0.0267914f,  0.7596859f,
       -0.1213375f, -0.3874696f, 1.0557688f,  -2.4719491f, -0.1576959f, -0.0148093f, 0.8806927f,  1.1036422f,
       1.4527919f,  1.5913396f,  -0.0485351f, -0.5395784f, -0.1352372f, -0.1316148f, -0.2205544f, 1.1018475f},
      {-2.1867161f, -0.1485743f, -0.2986990f, -1.9840142f, -0.4834146f, 0.0281808f,  -2.7977469f, -0.3993014f,
       -5.8081765f, -4.7149410f, -0.0141772f, -2.4311211f, 0.4281610f,  0.9374849f,  -0.2056152f, -4.8176975f,
       -0.0363854f, -1.8577402f, 1.1178968f,  -0.7656350f, 0.0150146f,  -0.1083641f, -1.5446600f, -4.5799737f,
       -0.6973410f, 2.6921535f,  -0.1041040f, -2.1183281f, 0.1343687f,  -0.1891497f, -0.1103699f, -0.4937732f},
      {0.1404375f, -0.1679875f, 0.7991773f,  0.7073088f,  -1.0154811f, 0.0077706f,  -0.7373590f, -0.7133127f,
       0.3163976f, -0.8409295f, -0.0499043f, -0.1279402f, 0.1084229f,  0.4807076f,  0.1287324f,  -0.6985717f,
       0.0188266f, 0.5566816f,  1.0754677f,  1.0215565f,  -0.0007343f, -0.1775995f, -0.1747535f, -0.2116317f,
       0.1978146f, -0.4769986f, -0.1048075f, -1.1630045f, -0.3448375f, 0.0937801f,  -0.0356608f, -0.5490943f},
      {-1.5466825f, -0.1632511f, -1.1650058f, -1.3608032f, 1.0348938f,  -0.1067578f, -0.2912029f, 1.8934103f,
       -0.4430898f, -1.9768434f, -0.0017322f, -1.3945512f, -2.1376793f, 0.5447442f,  -0.2147166f, 0.4157700f,
       -0.1658391f, -1.7328749f, -0.3766702f, -1.2808840f, 0.0100157f,  -0.0919645f, 0.8126030f,  0.8629972f,
       0.2589889f,  0.8234851f,  -0.0364506f, 1.3601170f,  -0.1680767f, -0.1620316f, -0.0260095f, 3.2460279f},
      {0.6960741f,  -0.1692243f, 0.1398517f,  -0.3490544f, 0.9979393f,  -0.1715303f, -0.3663545f, 0.5551999f,
       -1.3095447f, -0.9438365f, 0.0257193f,  0.7832153f,  -0.7693496f, -0.9973062f, -0.2799847f, 1.1223407f,
       -0.0609132f, -0.3819243f, 0.1986242f,  -1.1656007f, -0.1803292f, 0.1022862f,  0.1032236f,  -0.5963393f,
       -1.7583776f, -2.5629992f, -0.2403906f, 0.0307780f,  -0.1688391f, 0.0925515f,  -0.0435774f, -0.5735128f},
  };

  HOST_DEVICE_CONSTANT float bias_output_layer[1] = {-0.5583043f};

  HOST_DEVICE_CONSTANT float wgtT_output_layer[32][1] = {
      {0.6611942f},  {0.0945181f}, {-0.7485660f}, {-0.3690725f}, {0.9537677f},  {0.1269586f},  {-0.8663145f},
      {-0.8225310f}, {0.4365343f}, {0.3731796f},  {0.0909903f},  {-0.2663019f}, {0.7857491f},  {0.6811746f},
      {0.0528777f},  {0.4368999f}, {0.0639260f},  {-0.3692292f}, {0.3871116f},  {-0.7151787f}, {0.0184986f},
      {0.0342511f},  {0.4224141f}, {-1.0627999f}, {-0.4587638f}, {-0.3467769f}, {0.1158962f},  {0.4006732f},
      {-0.0480074f}, {0.0764124f}, {-0.0081981f}, {-0.7943060f},
  };

}  // namespace ALPAKA_ACCELERATOR_NAMESPACE::lst::dnn::pt3dnn

#endif
