#ifndef RecoTracker_LSTCore_src_alpaka_pT3NeuralNetworkWeights_h
#define RecoTracker_LSTCore_src_alpaka_pT3NeuralNetworkWeights_h

#include <alpaka/alpaka.hpp>

#include "FWCore/Utilities/interface/HostDeviceConstant.h"

namespace ALPAKA_ACCELERATOR_NAMESPACE::lst::dnn::pt3dnn {
  HOST_DEVICE_CONSTANT float bias_layer1[32] = {
      1.2785906f,  -0.0276849f, -0.4192777f, 0.3000267f,  0.2990759f,  -0.6418793f, -0.4453184f, 0.1969581f,
      0.1163072f,  0.1485066f,  -0.1725858f, 0.0187249f,  -0.4222445f, 0.9157666f,  0.2673007f,  0.4625355f,
      0.6452357f,  0.5449090f,  -0.1683751f, -0.9296265f, -0.8835369f, -0.2049599f, -0.9541149f, -0.4424495f,
      -0.2692259f, -1.1368477f, 0.2143335f,  -0.0658716f, 0.4272914f,  -0.3710895f, -0.2557850f, 0.2588192f};

  HOST_DEVICE_CONSTANT float wgtT_layer1[6][32] = {
      {0.2236747f,  -0.1584139f, 0.0206737f,  -0.0590624f, -0.1586924f, -0.1611566f, 0.1881699f,  0.0438200f,
       0.0547131f,  -0.5433418f, -0.0794653f, 0.0065560f,  -0.0417513f, -0.0393177f, -0.0774686f, 0.2808061f,
       -0.1198353f, -0.3744482f, 0.1901702f,  -0.0894047f, -0.0707264f, -0.0138822f, 0.0060168f,  -0.1585296f,
       0.0973160f,  0.0050522f,  -0.3886333f, 0.1165200f,  -0.5024289f, 0.5942065f,  -0.6698647f, 0.6287557f},
      {-0.1335316f, -0.2682368f, -0.5321460f, -0.0117252f, -0.3430156f, 0.0939172f,  0.2270154f,  -0.3917339f,
       -0.3920539f, -0.3795988f, -1.0200293f, 0.6931317f,  0.5977811f,  0.0173502f,  -0.2966173f, 0.5280350f,
       -0.5717633f, 0.4622381f,  -0.0726914f, 0.2910096f,  -0.2800584f, -0.8444009f, 0.9412528f,  -0.0105298f,
       -0.2027764f, -0.0924258f, 0.7071863f,  0.6404425f,  -0.2966515f, -0.1837624f, -0.1222698f, -0.4260266f},
      {-0.1357570f, -0.3527856f, 1.0793649f,  -0.4038180f, -0.1222837f, -0.4097176f, -0.4876588f, -0.1586149f,
       0.0553120f,  0.5891434f,  1.0020322f,  -0.5219933f, -0.2494105f, 0.1260055f,  -0.0275390f, -0.8457686f,
       0.4697421f,  -0.6619732f, -0.3643351f, 0.2243730f,  0.4044086f,  0.9566384f,  -0.0337012f, 0.4541693f,
       -0.2802562f, 0.0594198f,  -0.5655878f, -0.4649393f, 0.1305004f,  0.5289277f,  0.4919323f,  -0.1544652f},
      {-0.1719402f, 0.1149742f,  0.2266867f,  0.1875440f,  0.3399500f,  0.5886875f,  -1.1837386f, -0.0567819f,
       0.7267218f,  -0.4163929f, -0.2378796f, -0.0484349f, 0.0196411f,  -0.1858484f, 0.2185775f,  0.0467939f,
       -0.2771820f, -0.2656846f, -0.2263231f, -0.1117679f, -0.5066684f, -0.1397564f, 0.4419941f,  -0.3438509f,
       -0.2775138f, -1.0048589f, -0.0552047f, -0.7461245f, 1.1286877f,  -0.1200371f, 0.0735454f,  0.3249442f},
      {0.1702361f,  0.0602956f,  0.0308929f,  -0.2376733f, 0.2092282f,  0.7537047f,  -0.1324343f, -0.1939210f,
       -1.0012128f, -0.3634516f, -0.0557917f, 0.4726701f,  0.5515205f,  0.0455357f,  -0.0630256f, -0.0999706f,
       0.0455330f,  -0.1474065f, 0.2924480f,  0.7966908f,  0.3300871f,  0.2723370f,  -0.0170793f, -0.6825653f,
       -0.1018002f, -0.0193619f, -0.0285867f, -0.7524462f, -0.3728946f, -0.3764339f, -0.2477747f, -0.6492791f},
      {-1.3023976f, 0.2266311f,  -0.6518103f, -0.3167767f, -0.2139987f, 1.2047985f,  0.4050990f,  -0.3315131f,
       -1.3728082f, -0.1443089f, 0.6353306f,  -0.2223181f, -0.0965017f, -2.1905336f, 1.5502352f,  0.7470542f,
       -0.6582034f, 0.1505565f,  0.2088558f,  -0.9195890f, 0.5370899f,  0.1347685f,  -0.6616458f, -1.8731287f,
       -0.1400666f, 0.4570116f,  -0.0154984f, 0.4194898f,  -0.8692878f, 0.2639105f,  -0.0309311f, -0.9381245f},
  };

  HOST_DEVICE_CONSTANT float bias_layer2[32] = {
      0.2739038f,  -0.0636295f, 0.1525867f,  0.0270314f, -0.0282148f, 0.0316297f,  0.2111644f,  0.5143101f,
      -0.2424102f, -0.1589874f, 0.2023400f,  0.5276605f, -0.2948687f, -0.0251134f, -0.1110676f, 0.0119237f,
      0.3531386f,  0.0984426f,  -0.0851225f, 0.0316311f, -0.2126215f, 0.0060444f,  -0.1191873f, 0.4266652f,
      0.7526829f,  0.6362488f,  0.0065447f,  0.1572188f, -0.1853909f, 0.1860364f,  -0.0212932f, -0.2250751f};

  HOST_DEVICE_CONSTANT float wgtT_layer2[32][32] = {
      {0.6171383f, 0.0508964f,  0.1768597f,  -0.8543050f, 0.2076894f,  0.1207143f,  0.0785340f,  0.5491735f,
       1.0630945f, -0.1080512f, 0.0150738f,  -0.0059976f, -1.4979469f, 0.9366814f,  -0.3570990f, -1.6025624f,
       0.1512364f, 0.3775994f,  -0.2567837f, -2.3677416f, -0.7002155f, -1.5917622f, -0.5433715f, 0.6511508f,
       0.5109268f, 0.5122803f,  -0.7809770f, -0.1923234f, 0.0345613f,  0.4202711f,  0.2796341f,  -1.3045530f},
      {0.1363238f,  -0.0130425f, 0.0410532f,  0.1344159f,  -0.0537786f, -0.1384928f, -0.0313746f, 0.0818091f,
       0.1521162f,  -0.0893459f, -0.0765999f, -0.1512836f, -0.0692963f, -0.1323783f, -0.0303052f, -0.0793607f,
       -0.1693377f, 0.1682856f,  0.0616020f,  0.0474635f,  0.0247390f,  0.0012351f,  0.0444226f,  0.0687290f,
       -0.1648281f, 0.0253569f,  0.1725394f,  -0.0390138f, -0.0533001f, 0.0947011f,  0.0963201f,  -0.0427499f},
      {-1.6275854f, -0.0264571f, -1.1840702f, -0.9725269f, -0.0922530f, -0.6897518f, -0.1218473f, -0.6135089f,
       0.7374460f,  -0.1577664f, 0.1071698f,  0.4776131f,  0.3570652f,  0.4530492f,  -0.5945756f, 0.4477407f,
       0.1990205f,  0.5714535f,  -0.0307352f, 0.3949172f,  0.4595194f,  0.2321870f,  -1.1712689f, -1.4046133f,
       -0.6138978f, -0.4768825f, 0.2330324f,  -1.4642421f, 0.0917520f,  -0.4599791f, -1.2418133f, 1.1779052f},
      {-0.0591968f, -0.1782866f, -0.0092631f, 0.0834379f,  0.1740713f,  0.1560309f,  -0.0213343f, 0.0454271f,
       0.0869555f,  -0.1637414f, 0.0880046f,  -0.0838528f, 0.0562756f,  0.0901485f,  0.1192503f,  0.1420191f,
       -0.1011483f, -0.1615416f, -0.1495341f, -0.0031802f, -0.0310076f, 0.0639048f,  -0.0970471f, 0.0939696f,
       -0.0479475f, -0.0522064f, -0.0404656f, 0.1511694f,  -0.1620383f, -0.0137624f, -0.0424598f, -0.0578633f},
      {-0.0590566f, 0.0064906f,  0.1261361f,  -0.1199271f, 0.0116060f, -0.1676207f, -0.1436841f, 0.0217875f,
       -0.0521994f, -0.0879143f, 0.0908230f,  0.1481469f,  0.1718861f, -0.1187210f, -0.0706740f, 0.1625171f,
       0.1747214f,  -0.1383051f, -0.0965990f, 0.1734780f,  0.0299953f, 0.0204209f,  0.1033296f,  -0.1125022f,
       0.0881530f,  0.0688836f,  -0.0588151f, 0.1217628f,  0.1674398f, -0.0336610f, 0.0892069f,  -0.0855386f},
      {0.3853483f,  -0.0321552f, -2.7579663f, 0.3205024f,  -0.0331680f, 1.6077999f,  0.5185281f,  0.7633513f,
       -2.2195299f, -0.1083314f, 0.0299457f,  -3.0144088f, -0.0531866f, 0.6465037f,  1.2531879f,  -0.3769273f,
       -4.4147043f, 0.5017582f,  -0.1560597f, 0.0881723f,  -3.1446152f, 0.1340575f,  2.8822875f,  -0.0379523f,
       0.5566458f,  0.5989802f,  0.0867384f,  -0.2832939f, 0.1530942f,  -3.3137543f, -1.5249962f, 0.4999920f},
      {-0.5721098f, 0.1179679f,  0.3917696f,  0.0197489f,  0.1995515f,  -0.4069525f, 0.2945761f,  -0.5565354f,
       0.3729962f,  0.0466966f,  0.2902920f,  -0.3768284f, -0.9826585f, -0.4505522f, -0.6260945f, 0.8512079f,
       0.1378067f,  -0.1961389f, -0.2430236f, -0.0262742f, 0.3606388f,  0.1061560f,  0.4478694f,  0.2213693f,
       -0.2397516f, -0.0829558f, 0.2803729f,  0.3172925f,  -0.1453381f, 0.6559403f,  -0.2552589f, 1.2426882f},
      {0.0360118f,  -0.0247642f, -0.1494093f, 0.1408347f, 0.0518906f,  0.1511782f,  -0.0856111f, 0.1173577f,
       0.1389620f,  -0.0915026f, 0.0737668f,  0.1392387f, 0.1076245f,  -0.1512267f, -0.1661327f, -0.1045133f,
       0.1094379f,  -0.0606703f, -0.1557326f, 0.1637422f, 0.1121267f,  -0.1724529f, -0.0966395f, 0.1057508f,
       -0.0138062f, -0.0989793f, -0.0487275f, 0.0881460f, -0.0869519f, -0.1494836f, 0.1174892f,  0.0611486f},
      {-0.3415064f, -0.0918615f, 0.0536450f,  -1.0163343f, -0.6403700f, -4.2861586f, -0.5511903f, -0.1903562f,
       -0.3769276f, -0.0575849f, -0.2713180f, -1.1470693f, 0.7694102f,  0.4703168f,  0.4358956f,  0.4971057f,
       -0.4145943f, -0.4343126f, -0.0869643f, 0.2634792f,  -1.2825527f, 0.4805658f,  0.8789007f,  -0.3579182f,
       -0.2411692f, -0.2584338f, -0.2954048f, -0.1418167f, -0.0343728f, -0.9369135f, 0.3515760f,  -1.1055694f},
      {-0.1184084f, 0.1007335f,  -0.2454278f, -0.0000054f, 0.0429726f,  -0.4895631f, 0.0270240f,  0.1654740f,
       -0.2157415f, -0.0801020f, 0.3320918f,  0.2662532f,  -0.2601602f, -0.2310849f, -0.2494991f, 0.1570318f,
       0.5510656f,  -0.4592541f, -0.1316900f, -0.1646308f, -0.3752102f, 0.4338031f,  -0.2145173f, 0.0617136f,
       0.0320026f,  0.2171186f,  -1.1274371f, -0.0726239f, -0.1311285f, -0.0390904f, -0.3000844f, 0.3074001f},
      {0.0027442f, 0.0309624f,  -1.9092041f, -0.3311209f, -0.4875767f, -1.1425134f, -0.8951983f, 0.3580067f,
       0.5306915f, -0.0685679f, -0.1311979f, 0.0222006f,  0.8780044f,  0.9395820f,  -0.4370579f, 0.5286624f,
       0.3486863f, 1.6614207f,  -0.0822905f, 0.2681185f,  -1.2959480f, -0.0888168f, -0.6860828f, -0.5135430f,
       0.1389008f, 0.1667776f,  0.5215498f,  -0.8525571f, -0.1178495f, -0.7846850f, -1.6025324f, 1.1935967f},
      {0.1459911f,  -0.0225046f, 1.1321437f, 0.8884523f,  -0.1278898f, 0.4241652f,  0.3154614f, -0.0364168f,
       -1.1151198f, -0.1420118f, 0.2890062f, -0.3989872f, 0.6220412f,  0.0305778f,  0.0910000f, 0.0963605f,
       -0.9875760f, 0.1165166f,  0.0722745f, 0.4153894f,  0.6218963f,  -0.1373609f, 0.2988785f, 0.0693027f,
       0.0131408f,  -0.0256488f, 0.2492663f, 0.6937859f,  0.0519409f,  0.0901549f,  0.5936688f, -0.3895627f},
      {0.1754461f,  0.0167799f,  0.9191283f, 1.0821058f,  0.1991724f, 0.3503076f,  0.2302287f,  -0.2184587f,
       -1.4578230f, -0.1596291f, 0.3312393f, -0.4821360f, 0.6391955f, 0.1289670f,  -0.0149271f, 0.3745775f,
       -0.9895375f, -0.1727372f, 0.0490995f, 0.7664750f,  0.8472061f, -0.0377577f, 0.2379370f,  -0.1097101f,
       -0.2099218f, -0.0404165f, 0.6305274f, 0.6908237f,  0.1263267f, 0.2093221f,  0.0887108f,  -0.0162851f},
      {-0.7336459f, -0.0442725f, -0.4941838f, 0.1041995f,   0.2691559f,  0.7987249f, -0.0337399f, -0.6702087f,
       -0.2048537f, 0.0335029f,  0.1319815f,  -0.8439539f,  -0.6030835f, 1.1596618f, 0.9588369f,  -2.3129928f,
       -0.4109261f, -0.0651757f, -0.0659563f, -10.1381674f, 0.3762293f,  0.2594426f, 0.8751045f,  -0.0959814f,
       -0.8623435f, -0.7963390f, 0.7103807f,  0.1725142f,   0.0304076f,  0.4340044f, 0.6619507f,  -0.6827780f},
      {0.2170763f,  -0.2278289f, -0.1571037f, -0.1575337f, 0.1501831f,  0.3849224f,  0.0211901f, 0.4768674f,
       1.0755768f,  0.1683635f,  0.1260009f,  0.1582976f,  -0.0508475f, -0.5406967f, 0.3189544f, 0.4699673f,
       -0.3421414f, -2.6043313f, 0.1531665f,  0.5759066f,  0.0619100f,  0.3430893f,  0.3572841f, 0.3681375f,
       0.3204880f,  0.5892667f,  -0.0905296f, 0.1817709f,  -0.0973229f, 0.0062677f,  0.0667538f, -0.1339280f},
      {0.4201834f,  -0.1455961f, 0.3510442f,  0.5938553f,  -0.0751397f, 1.4832571f,  -0.1263406f, 0.3782297f,
       0.8756121f,  -0.1016324f, 0.1681059f,  -0.3984041f, -0.5150500f, -1.4875524f, 2.1276357f,  -0.1259434f,
       -1.6873437f, -0.8005047f, -0.0562159f, 0.3329971f,  0.2505999f,  0.4950696f,  1.1380942f,  0.8415491f,
       0.3168696f,  0.3253568f,  -0.1367724f, 0.4520920f,  -0.1972910f, 0.0195502f,  0.9275023f,  -0.0950617f},
      {-0.2033520f, -0.1228607f, -0.1953367f, -0.3189176f, 0.0673991f,  -0.1183497f, -0.0520441f, 0.5157593f,
       -0.4008416f, -0.1509036f, 0.1264574f,  0.1044402f,  -0.1032223f, 0.6691108f,  -0.2092010f, -0.5576260f,
       0.4691685f,  0.1526491f,  -0.0572845f, -0.2207753f, -1.1890830f, -0.4110161f, -1.1586325f, 0.1510515f,
       0.2828653f,  0.2235239f,  -0.8909875f, -0.2377790f, -0.0562832f, -0.1818836f, -0.1322752f, -0.1446493f},
      {0.4496881f,  -0.2158611f, 0.3903316f,  0.1979671f, 0.2419939f,  0.4863704f,  0.2311161f,  0.4545500f,
       0.1138239f,  -0.1735394f, 0.1695375f,  0.0885147f, -0.1814191f, -0.3434082f, 0.2917485f,  -0.0100600f,
       -0.3115082f, -0.0344237f, -0.0601302f, 0.1544355f, 0.0881050f,  0.0161330f,  -0.0481945f, 0.3252683f,
       0.5914606f,  0.4863805f,  -1.7313271f, 0.1332660f, -0.1180184f, 0.3929580f,  0.4111120f,  -0.0399560f},
      {-0.0981175f, 0.1137704f,  0.0344573f,  0.0855868f, -0.1559974f, 0.0323065f, 0.0552551f, 0.1494944f,
       -0.0659603f, 0.0458267f,  -0.1374139f, 0.1722384f, -0.0622667f, 0.1689309f, 0.0270725f, -0.0862830f,
       0.0668909f,  0.0190954f,  0.0205144f,  0.1501707f, -0.0009169f, 0.1270383f, 0.0885088f, -0.0243644f,
       -0.1033785f, -0.1720174f, 0.0629707f,  0.0221741f, 0.1613460f,  0.0856432f, 0.0095775f, 0.1685863f},
      {-1.5195602f, -0.0928428f, -0.1851660f, 0.1421571f,  -0.4300473f, -0.6949089f, -0.5471799f, -2.0088422f,
       0.2332371f,  -0.1107548f, 0.1231752f,  -0.2766048f, -0.7150106f, -0.2524713f, 1.0317073f,  -0.2427661f,
       -0.2328139f, -0.2578135f, -0.0785678f, 0.6439838f,  -1.0318165f, -0.3192195f, 0.5500289f,  -2.0444481f,
       -2.1324244f, -1.8673815f, -0.9485234f, -0.2775987f, -0.1111533f, -0.4260432f, 0.3594310f,  0.5331569f},
      {0.1490250f,  0.0024552f, -0.3881797f, 0.0418598f,  -0.0480072f, -0.3430268f, -0.2705230f, 0.0509842f,
       -1.2694937f, 0.0385236f, -0.0050663f, -0.7138565f, 0.8892243f,  0.4636066f,  -0.0423864f, 0.4224990f,
       -0.1180715f, 0.5951456f, -0.1399827f, 0.4497391f,  0.5477075f,  0.0687859f,  0.1197616f,  -0.1773188f,
       0.0267055f,  0.0281849f, -0.3674283f, 0.2112402f,  -0.0174922f, -0.1963146f, -1.2548826f, 0.7925162f},
      {-0.1152098f, -0.1279187f, -2.4194937f, -0.8585355f, -0.4864782f, -1.3872457f, -0.6180488f, -0.1884648f,
       -0.8682476f, 0.0999818f,  -0.2038310f, 0.3312861f,  0.5356987f,  1.3796004f,  -0.5563297f, 0.4183011f,
       0.4769762f,  0.5818228f,  -0.1291179f, 0.6173711f,  -1.3965436f, 0.0305014f,  -1.3716959f, -0.2141231f,
       -0.0741914f, -0.2073250f, 0.3042277f,  -0.9204498f, 0.0242081f,  -0.6662402f, -1.4056153f, 1.1130968f},
      {0.5471333f, 0.0151451f,  0.6314251f,  0.4658943f,  1.4236397f,  0.3191205f,  1.2370732f,  -0.0971963f,
       0.2379657f, 0.1644342f,  1.2270153f,  0.2225631f,  -0.3594720f, -0.1159238f, -1.1555032f, -0.8413557f,
       0.0712986f, 0.0413282f,  -0.2095294f, -0.1977614f, 1.0178010f,  -0.6533346f, -0.1083729f, 0.2567712f,
       0.0756783f, -0.0910062f, -0.2659580f, -0.2509471f, -0.1744547f, 1.1090393f,  -0.0199155f, -0.7981300f},
      {-1.1426555f, -0.2345073f, -0.0236440f, -0.9716242f, 0.4909611f, -0.5902452f, 0.2617463f,  -0.1626016f,
       0.0627956f,  -0.0583314f, 0.4090785f,  -0.4035665f, 0.6070493f, -0.7261240f, -0.8577235f, 0.6849429f,
       0.7310655f,  0.6772485f,  0.0078149f,  -0.1831813f, 0.1924695f, 0.5242589f,  0.1413809f,  -0.0397214f,
       -0.3882810f, -0.4956074f, 0.1917076f,  0.4969912f,  0.0764444f, 0.5014209f,  0.1307421f,  -0.3314356f},
      {0.0377240f,  0.0864156f,  0.0229538f,  0.0959481f,  0.0845677f,  -0.1595121f, -0.1638991f, -0.1052648f,
       0.0755759f,  -0.1226892f, 0.0213982f,  0.0122853f,  0.1096117f,  0.0406405f,  -0.1159787f, -0.0597730f,
       -0.0542224f, -0.1489407f, 0.0597954f,  -0.1524017f, 0.0798201f,  0.1445640f,  -0.0554143f, -0.0263028f,
       -0.0040501f, -0.0965902f, -0.1706305f, -0.1533225f, -0.1073480f, 0.1445252f,  0.0015263f,  -0.1594585f},
      {-8.2407980f, 0.0287253f,  0.4456446f,  -5.8248215f, 0.5965439f,  0.3739106f,  0.0886563f,  -0.6231248f,
       1.1478782f,  -0.1512089f, 0.4772529f,  0.2125408f,  0.8090653f,  0.2998641f,  -1.0189776f, -1.6133648f,
       -0.2998478f, 0.6483005f,  -0.0666025f, 1.4785739f,  -0.2373681f, -0.3750274f, -0.0516932f, -0.3970930f,
       -0.3831782f, -1.4305546f, 0.3121550f,  0.3283839f,  0.0528252f,  -0.0049573f, -0.8489043f, 1.6634934f},
      {0.5841370f,  -0.1745217f, 0.7908503f,  0.3135935f,  0.4129728f, 0.9163120f,  0.2861785f, 0.4872043f,
       0.0738848f,  0.0385308f,  0.5399603f,  -0.3591985f, 0.4707930f, -0.0284615f, 0.1817853f, -0.0711235f,
       -0.3475526f, -1.6504883f, -0.1302788f, 0.1203183f,  0.5414814f, 0.2837659f,  0.2062052f, 0.6232073f,
       0.6717438f,  0.3690297f,  -1.4508450f, 0.3945551f,  0.0682137f, 0.5620648f,  0.8799741f, -0.4373199f},
      {0.2905722f, -0.2161826f, 0.3829192f,  0.7561753f, 0.5034180f,  0.0642639f,  0.4444464f,  0.1198031f,
       0.0959951f, -0.0918338f, 0.5845016f,  0.3434369f, -1.1120480f, -0.9201707f, -0.3740451f, 0.3498280f,
       0.0470389f, -0.4679449f, -0.1058462f, 0.3479299f, -0.0130264f, 0.1153434f,  0.3751296f,  0.4507609f,
       0.1684138f, 0.3092933f,  0.1078439f,  0.6493856f, -0.0478100f, 0.4270965f,  0.0801279f,  0.3118158f},
      {-0.0540066f, -0.0581626f, -0.3915649f, -0.4924375f, -0.1512039f, -2.0262401f, -0.0378672f, 0.0257861f,
       -0.0408040f, -0.0093613f, -0.0634525f, -0.4659153f, -0.1091230f, 0.4996465f,  0.3286268f,  0.4869547f,
       0.7215981f,  -0.0710571f, -0.2734137f, -0.2739482f, 0.4160197f,  0.0592295f,  0.4985928f,  0.1602639f,
       0.1598206f,  0.0616636f,  -0.7007115f, -1.7017285f, -0.2302065f, 0.2308418f,  0.1945126f,  -1.3431610f},
      {0.5923895f,  0.0456131f,  -0.2797613f, 0.0331855f,  -0.0692917f, -0.4304529f, 0.1469463f,  0.2190049f,
       0.0534701f,  -0.0797611f, 0.3138559f,  0.4894508f,  0.2727379f,  0.0861510f,  -0.1659389f, -0.4551058f,
       0.3972522f,  0.3131219f,  -0.0239279f, -0.2178178f, -0.2878836f, -0.7559059f, 0.0529378f,  -0.0734026f,
       -0.0275844f, 0.4294363f,  0.7260844f,  -0.0133277f, 0.0650035f,  0.1274020f,  -0.2836129f, 0.3004644f},
      {0.1921149f, 0.0174312f,  -0.0219730f, -0.4253172f, 0.1841245f,  -0.1654265f, 0.0660897f,  0.3287113f,
       0.3236718f, -0.1279520f, 0.2528150f,  0.0569632f,  -0.1503108f, -0.2918088f, 0.1367371f,  0.1994123f,
       0.3534786f, -4.0649133f, -0.2964223f, 0.2508187f,  -0.0734298f, 0.3968050f,  -0.4591115f, 0.0194039f,
       0.1728943f, 0.1861224f,  -0.2845854f, -0.5833626f, -0.1404038f, -0.1956808f, -0.4869029f, 0.0198287f},
      {0.0238735f,  0.0238848f,  -0.3298587f, 0.0480381f,  -0.3681275f, 0.7830808f,  -0.5392261f, 0.2338835f,
       -0.1026377f, -0.1238794f, -0.0434775f, -0.2443871f, 0.9286197f,  0.3741036f,  1.1111197f,  0.2468061f,
       -0.1351170f, 0.2323580f,  -0.0085800f, 0.5044917f,  -1.6397691f, 0.3357647f,  0.4647496f,  -0.3749305f,
       0.0434235f,  0.0281275f,  -0.4923410f, 0.1636886f,  -0.0971645f, -0.8660291f, 0.7650115f,  -0.9210293f},
  };

  HOST_DEVICE_CONSTANT float bias_output_layer[1] = {0.2612814f};

  HOST_DEVICE_CONSTANT float wgtT_output_layer[32][1] = {
      {1.3278199f},  {-0.0435933f}, {-4.9359317f}, {1.2634777f},  {0.2738699f},  {-2.4732790f}, {0.2964364f},
      {0.4960129f},  {0.6763978f},  {0.1318053f},  {0.4261470f},  {-0.3975609f}, {1.3930844f},  {-1.2178006f},
      {-1.1149969f}, {-0.5938903f}, {-0.6812269f}, {-1.3458225f}, {-0.0120970f}, {-1.5187724f}, {2.9512002f},
      {-0.3350412f}, {-1.3376369f}, {0.7088485f},  {0.3440421f},  {0.4015094f},  {-1.6846989f}, {0.8856866f},
      {0.1286279f},  {0.4676671f},  {-2.5551498f}, {-1.4490377f},
  };

}  // namespace ALPAKA_ACCELERATOR_NAMESPACE::lst::dnn::pt3dnn

#endif
