#ifndef RecoTracker_LSTCore_src_alpaka_pT4NeuralNetworkWeights_h
#define RecoTracker_LSTCore_src_alpaka_pT4NeuralNetworkWeights_h

#include <alpaka/alpaka.hpp>

#include "FWCore/Utilities/interface/HostDeviceConstant.h"

namespace ALPAKA_ACCELERATOR_NAMESPACE::lst::dnn::pt4dnn {
//updated for uncertainty in t4 dnn
  HOST_DEVICE_CONSTANT float bias_layer1[32] = {
  -0.2392912f, 0.2296150f, -1.7003797f, -0.2678743f, 0.5460526f, -2.0416698f, 0.6397471f, 0.9715130f, 1.4163951f, 0.4470757f, -0.3260873f, 1.8200811f, 0.7393744f, 1.3456635f, -0.0406273f, 0.3455535f, 0.1280614f, 0.8805042f, -1.5814722f, 0.0739721f, -0.5218427f, -0.6501409f, -0.2454276f, -0.9403363f, 0.2586131f, -0.9027123f, 1.0867933f, -0.7180386f, -1.8299211f, -1.4009287f, -0.8036038f, -0.6286643f };

  HOST_DEVICE_CONSTANT float wgtT_layer1[6][32] = {
  { 0.0355121f, -0.0235615f, -0.0713548f, -0.2198781f, -0.1255212f, 0.8089209f, -0.0169476f, -0.5048188f, 0.0446138f, 0.0260050f, -0.1245642f, 0.0387103f, -0.1783919f, 0.2253149f, -0.0067758f, -0.4777464f, -0.0936010f, -0.0354776f, 0.0573841f, -0.1729973f, 1.3687235f, 0.9317282f, 0.1471114f, -0.2764209f, -0.0662120f, 0.4713468f, -0.0293602f, 0.4808078f, -0.0178162f, 0.6060221f, -0.1352772f, 0.0349593f },
  { -0.4495202f, -1.0732553f, 0.0767575f, -0.4155174f, -0.8253664f, -1.1476593f, -1.0270270f, -0.6642488f, -0.5765065f, 0.2242562f, -0.2910099f, 0.4357129f, 0.8289348f, -0.7536064f, 1.1903386f, -0.4771145f, -1.1088357f, -0.0235787f, -0.1464022f, -0.3914053f, -0.0276748f, -0.1845339f, -0.3760501f, 1.0493855f, 0.4232192f, 0.0459707f, 0.8714362f, 0.7505215f, -0.2176925f, 0.1233471f, 1.2714646f, 1.3629932f },
  { -0.2003137f, 1.1117330f, 0.9250846f, -0.0129862f, 0.2487555f, 1.1348336f, 0.9944701f, 0.0989772f, -0.3508663f, 0.2639436f, 0.0875792f, -0.8630862f, -1.0465565f, -0.1701800f, -1.1886054f, 0.5619769f, 0.9241936f, 0.3750822f, 0.1063446f, -0.1478336f, -0.9409852f, -0.4694123f, -0.2995364f, -0.5046020f, 0.0278475f, -1.1098942f, -1.0627478f, -0.6143929f, 0.1394275f, -0.9423556f, -0.4110672f, -0.7617400f },
  { 0.3628766f, 0.1944895f, 0.0668476f, -0.1082486f, 1.2705679f, 0.0033102f, 0.0113033f, -0.3636014f, 0.1684055f, 0.8086516f, -0.0871804f, 0.1857861f, -0.1591536f, 0.0662441f, -0.0254646f, 0.9759670f, -0.3856075f, -0.1672272f, -0.2796377f, 0.1736499f, -0.3844705f, 1.0158871f, 0.2404907f, 0.0145951f, 0.1068827f, -0.9827201f, 0.4043800f, -0.1243317f, -1.6897594f, -1.5064486f, -0.1222139f, 0.0763377f },
  { -0.2101659f, 0.0096600f, -0.3948353f, 0.0462517f, 0.5032309f, -0.0872545f, -0.0116832f, -0.3920203f, -0.8327149f, 1.2172481f, -0.0667788f, -0.1832293f, -0.2982149f, 0.4847096f, -0.0132171f, -0.2369383f, -0.2457622f, 0.0218074f, 1.3173999f, 0.1752180f, -0.2878329f, 0.0973413f, -0.1443215f, -0.0967052f, -1.3179209f, 0.0704783f, -0.0255822f, 0.1526390f, 0.0029125f, 0.2746964f, 0.4777621f, -0.4053003f },
  { 0.2503509f, -0.2651522f, 0.6388894f, -0.1598355f, 1.7463380f, 0.6314028f, -0.6899555f, -0.9609275f, 1.2283365f, -3.2285659f, 0.0373631f, -1.0413541f, -0.2115362f, 0.6035227f, -0.0183340f, 0.6199695f, 0.3955649f, -2.6425076f, 1.1685053f, -0.1041342f, 0.1806494f, 2.1889496f, 0.1247130f, -0.0980730f, 0.1847938f, 2.2111018f, -0.3646108f, 0.4410021f, 0.6546656f, -0.0480502f, -1.9563072f, -1.2796227f },
  };

  HOST_DEVICE_CONSTANT float bias_layer2[32] = {
  0.7243107f, 0.4043934f, 0.2997229f, -0.1569691f, 0.0090376f, 0.6886399f, 0.0651412f, 0.0140937f, 0.5860593f, -0.0733179f, -0.3327997f, 0.7234233f, 0.3618043f, 0.7303445f, -0.2210878f, -0.0671459f, -0.2252284f, -0.1373021f, -0.1483346f, -0.6575861f, 0.4577956f, 0.0413691f, 1.1052114f, 0.8801964f, -0.1843826f, 0.0910965f, 0.3183520f, 0.8830591f, -1.1738315f, -0.0540425f, -0.2470026f, 1.1215945f };

  HOST_DEVICE_CONSTANT float wgtT_layer2[32][32] = {
  { 0.1460238f, -0.1322967f, -0.0453411f, -0.0872146f, -0.0437409f, 0.1196613f, -0.1720219f, 0.0498637f, -0.1009318f, 0.0705836f, 0.0886339f, 0.0705098f, -0.0143581f, -0.0628661f, -0.0683975f, 0.0530979f, 0.0782211f, -0.1670706f, -0.0920117f, -0.0977350f, 0.1361449f, 0.0514437f, 0.0988565f, -0.1770740f, 0.1486410f, -0.1162214f, 0.0908921f, 0.0566943f, 0.0479658f, -0.1119256f, 0.1518873f, 0.0512245f },
  { 1.3001788f, 1.0137253f, -2.3691800f, -0.2736574f, -0.2312718f, -0.5358831f, -1.4581556f, -0.1700806f, 1.5386782f, -0.4587550f, -0.5430282f, -1.2122570f, 0.1523680f, -2.8402877f, -2.2799430f, -0.0827039f, 0.0342600f, -0.1944891f, -0.0117481f, -6.3478761f, 0.1868061f, 0.1001408f, -0.3279071f, -0.4201486f, -0.3175032f, 2.7219360f, 0.3664969f, 2.1229587f, -0.8518835f, 3.3277612f, -0.0557952f, 0.3087133f },
  { 0.5742946f, 0.2616338f, -1.1630169f, 0.0154370f, 0.8698172f, -1.7432144f, 0.1285159f, -0.0471726f, 0.1066848f, 0.2755826f, -0.8614882f, 0.6899353f, -0.0559446f, -0.4035362f, 0.1757975f, 0.0258811f, 0.0410498f, -0.0664029f, -0.2275406f, 0.1940008f, 0.6255433f, -0.2732831f, 0.3505931f, -0.1672648f, -0.2358629f, -1.4804964f, 0.6556767f, -0.2626605f, -0.5938252f, 0.2568935f, 0.0139842f, 0.5206516f },
  { -0.0279860f, -0.0195712f, 0.0614640f, 0.0966885f, -0.0178316f, 0.0512608f, -0.1311122f, 0.0228780f, -0.0462572f, 0.0927396f, 0.0775953f, -0.1011891f, 0.1353857f, 0.0786172f, 0.1730186f, 0.0938991f, -0.0273410f, -0.1355255f, 0.0561169f, 0.0533897f, 0.0419086f, -0.1286855f, -0.1260387f, 0.1486529f, 0.0323438f, -0.0241725f, -0.1990904f, -0.1241903f, -0.1069749f, -0.0519794f, -0.1602320f, 0.0351156f },
  { -1.2521080f, -0.1638585f, 0.1822717f, -0.1374533f, 0.8913096f, -0.1411851f, -0.5733010f, -0.1620290f, 1.6569351f, 0.9013671f, -0.0853117f, -0.0600941f, -3.0569100f, 0.1844699f, -0.3322172f, -0.1794811f, -0.0401306f, 0.0271575f, 0.0619165f, 0.0507581f, -0.6275651f, -0.1017061f, -0.5391487f, -0.2158085f, -0.2677724f, 0.3424615f, -1.2138575f, -0.3712554f, 1.2847617f, 0.2648433f, -0.1495189f, -0.8201880f },
  { -0.1776555f, -0.4412012f, -0.3409812f, -0.0647345f, -2.7770581f, -2.0600629f, 0.5153862f, -0.1444126f, 1.2686239f, -0.7648427f, -1.8519666f, 1.0439569f, 0.5947130f, -3.8255601f, -0.0635810f, -0.2317953f, -0.0586182f, -0.1368123f, -0.1159841f, -4.0749693f, 2.1076953f, -0.1416353f, -4.6834836f, -5.7567778f, 0.1735905f, -1.4070189f, -1.2366930f, -0.9066763f, 0.6715267f, -2.3681774f, 0.1534071f, -0.6772195f },
  { -2.3820834f, 0.2335477f, -1.9291767f, 0.0477960f, -2.6070549f, 1.7973570f, 0.4468397f, -0.2070390f, 0.0551975f, -0.2723251f, -0.5558417f, -2.1768038f, 0.3379476f, -1.4697208f, -1.4473351f, -0.2467105f, -0.1712216f, 0.1349136f, 0.0582213f, 0.2280048f, 0.4302393f, -0.0558138f, 0.5359535f, 0.1032455f, -0.0809660f, 1.7623599f, 1.4880910f, 1.1714709f, 1.2913597f, 2.8189952f, 0.0331354f, 0.8873651f },
  { -0.0750952f, -0.0701659f, -0.1727916f, -0.1728693f, 0.4402153f, 0.1797751f, -1.0955536f, 0.1089868f, -1.1441748f, 0.2054025f, 0.0986816f, 0.2611946f, 0.6666326f, -0.5127163f, -1.2444365f, 0.0587278f, 0.1514436f, -0.0583215f, 0.0324484f, -3.5269470f, 0.0337973f, -0.2637529f, -1.0975238f, 0.4611889f, -0.1389649f, -0.2784269f, 0.0894048f, -0.1249517f, 0.3210731f, 0.0074130f, -0.0731158f, 0.0573216f },
  { -0.5919456f, -0.1789544f, 0.5689025f, -0.1938445f, 0.3684242f, 0.7546366f, 0.4583135f, -0.1171386f, 1.6067015f, -0.8395980f, 1.2232481f, 0.5970999f, 0.4788273f, -0.8459041f, 0.1673532f, 0.1458904f, -0.1818887f, -0.0323227f, 0.0433590f, -2.1076424f, 0.9828705f, -0.1022252f, 0.0480637f, -0.1297768f, -0.0226146f, 1.0583407f, 1.3221755f, -1.3024477f, -0.1543467f, 0.1666921f, -0.1335534f, -0.0493773f },
  { -2.9500921f, -0.6192670f, 0.0235807f, -0.1617850f, 0.9553565f, -1.0547063f, -1.2075291f, -0.1587993f, 0.5008056f, -0.3634878f, -0.1358761f, -1.8691409f, -2.5441179f, -0.3595889f, 0.1457772f, 0.0045503f, 0.0341544f, 0.0624758f, 0.0154485f, 0.1980623f, -2.5282621f, 0.0111658f, -0.7370817f, -1.2392747f, 0.0883733f, 0.0917313f, -1.3488779f, -1.3775208f, -0.0888285f, -0.1904278f, -0.2790603f, -1.0433689f },
  { 0.1046617f, 0.0305492f, 0.0840021f, 0.0617150f, -0.0529574f, 0.0140290f, -0.1668341f, -0.0344825f, 0.1063362f, -0.0288909f, 0.0040937f, 0.1732256f, -0.0370545f, 0.0402608f, -0.0097002f, -0.1392413f, 0.1057859f, -0.1388067f, 0.1104683f, 0.0507453f, -0.1613330f, 0.1059492f, 0.0474777f, -0.0018820f, 0.0521287f, -0.1200484f, -0.0123981f, -0.0640530f, 0.0629702f, -0.0941476f, -0.0371845f, -0.1227939f },
  { -0.0327328f, 0.2308913f, 0.4978195f, -0.0872292f, -0.1118157f, 1.1735265f, -0.4407076f, -0.1934575f, -0.1674650f, -0.2128245f, 0.2299743f, -4.0250583f, 0.4239945f, 0.2173741f, -0.3973268f, 0.0428352f, -0.1856794f, -0.1295801f, 0.0337208f, -1.8209307f, -0.5268632f, -0.0250524f, -0.3434176f, 0.3182619f, 0.0100061f, 1.2831619f, -0.4973499f, 0.7499036f, 0.5872979f, -0.6956079f, -0.1833405f, -0.3154098f },
  { 1.1006652f, 0.2784640f, 1.3846904f, -0.2510265f, -0.1761944f, 1.2110600f, -0.6445199f, -0.0822192f, -0.0441691f, -0.5018957f, 0.2776203f, -0.5777213f, -0.2566534f, 1.4787362f, -0.5967587f, 0.0028424f, -0.1609863f, 0.1395286f, -0.0209670f, 1.2865653f, -0.2416663f, -0.1492131f, -0.1011231f, 0.3787051f, -0.0775094f, 0.8098187f, -0.6939843f, -0.0611252f, -0.3425107f, -0.8921716f, -0.0749584f, -0.3500603f },
  { 0.1216137f, -1.7825031f, 0.8347910f, -0.1048247f, -1.0876026f, 0.1799475f, -0.1417367f, -0.1306462f, 0.1815840f, -0.1923592f, 0.5067626f, -0.4352668f, 0.0878979f, 0.0767315f, -0.1266597f, -0.1578798f, 0.0134150f, -0.2175424f, -0.2580758f, -0.8210536f, -0.2921269f, -0.0470867f, 0.7066851f, 0.4355095f, -0.1347008f, -0.0637889f, 0.5206745f, 0.4396999f, -1.9454664f, 0.4039885f, -0.0557799f, 0.4465564f },
  { -0.0279401f, -8.5141411f, 2.6839013f, 0.0252580f, -5.5483632f, -4.3402257f, -7.1852775f, -0.1822154f, 1.0766101f, -0.6387192f, -11.6912193f, -2.3636565f, -5.6159096f, -10.0119543f, -8.2669439f, -0.1452387f, -0.1274687f, -0.1381178f, 0.0030289f, -1.9345825f, -3.3292122f, 0.2079560f, -6.1887393f, -6.0726142f, 0.1505624f, 3.2869260f, 1.2488121f, -6.1128621f, -1.3244308f, -3.3143835f, -0.0602113f, -2.9519837f },
  { -0.5285984f, 0.1337403f, 0.0496530f, -0.2452761f, -0.3525373f, 0.2462758f, 0.3271163f, -0.0226970f, -0.4822231f, -0.8203683f, 1.2002231f, -0.0280273f, -0.1304366f, 0.1736898f, 0.3064973f, -0.0657837f, -0.0517755f, -0.0411638f, -0.1664609f, -5.3928614f, -0.3837955f, -0.2144610f, 0.5042922f, -0.0267803f, -0.1661032f, 1.1719563f, -1.2174176f, 0.1027135f, 0.0634607f, 0.2391169f, -0.2126837f, 0.4602934f },
  { -0.1220985f, -0.0968543f, -2.3472385f, -0.2764211f, -0.0072075f, 0.8208621f, 0.1390400f, -0.1666656f, -0.0407480f, -0.4481223f, -0.6933795f, 0.7421142f, -0.5905486f, -0.2188411f, 0.4729594f, 0.0097297f, -0.0466970f, -0.0946010f, -0.0460920f, 0.1502782f, -0.9386094f, -0.0633513f, -0.4970737f, 0.5224659f, -0.1887786f, 0.4615675f, -0.0770665f, -0.4273941f, -0.3816956f, 0.8515198f, 0.0466132f, 0.0673765f },
  { -6.0134387f, 0.5075400f, 0.3245293f, -0.1072515f, -0.0960331f, -0.5656943f, 0.7988083f, 0.0230538f, 0.8114939f, 0.1781846f, 1.0659553f, 1.4860774f, 0.5928439f, 0.0070702f, 0.0800150f, -0.1965429f, -0.0114046f, -0.0709349f, -0.2192235f, -0.2641901f, 0.3748122f, -0.1968162f, 0.0139679f, 0.7078857f, -0.0074429f, -0.2022998f, 0.2764692f, -0.9582537f, 0.8476261f, 0.1421280f, 0.0481503f, 0.5550931f },
  { -0.0575183f, 0.1731270f, -0.6516427f, -0.0484851f, -1.4698057f, -0.0834028f, 1.3251123f, -0.1912729f, 1.0747538f, 0.0354543f, -1.2278982f, -0.4215525f, 0.4677253f, 0.3954688f, -0.2842171f, -0.0246459f, -0.1526794f, -0.0217447f, -0.0778954f, 0.6102790f, -1.8582864f, -0.2349773f, 0.0062600f, -0.6223973f, 0.1086981f, 0.1966101f, -0.2571144f, -0.5239158f, -3.4672978f, -0.2124232f, -0.0723456f, -0.8931756f },
  { 0.1288764f, -0.1337256f, -0.0558007f, 0.1228785f, -0.0781403f, -0.1583088f, 0.0325817f, -0.1106703f, 0.0016820f, 0.0639836f, -0.0486217f, 0.0445166f, 0.1494609f, -0.1123647f, -0.0701942f, -0.1584948f, -0.0192898f, -0.1707446f, -0.0973784f, 0.0047846f, -0.1187911f, -0.1109237f, -0.0288484f, 0.0317889f, 0.0392983f, 0.0006611f, 0.0345555f, -0.0072961f, -0.0859462f, 0.1586527f, 0.0812007f, 0.0211261f },
  { -0.4826886f, 0.3746092f, 0.1516122f, -0.1959262f, -0.0396008f, 0.2729843f, -0.1006107f, -0.0987979f, -1.3167373f, 0.1442037f, -0.4275708f, 0.4329368f, 3.0770681f, 0.7088991f, 0.6263286f, -0.1662661f, -0.1084758f, -0.0815508f, 0.0103683f, -1.1669928f, 0.1274316f, -0.1412540f, -0.2822039f, 1.3751143f, -0.0734342f, 0.5266557f, -0.9470041f, -0.6414585f, 0.0140621f, -0.0035309f, -0.0402442f, -1.1981044f },
  { 0.1203471f, -0.1485959f, 0.0503956f, -0.0978340f, -0.3312984f, 0.3361214f, -0.2656783f, 0.0643073f, 0.5878319f, 2.4279563f, -2.4288533f, 0.1396937f, -4.0808611f, -1.4434372f, 1.2711400f, -0.0574867f, -0.0021097f, -0.0169119f, -0.0338548f, 0.6154678f, -0.4747573f, -0.1102833f, -0.0053451f, -2.3221593f, -0.1645497f, -0.2903918f, 0.4166702f, -0.2780879f, 0.7962542f, -0.5452007f, -0.2436854f, -0.5602338f },
  { 0.0569280f, 0.0771485f, -0.0960652f, 0.0916275f, -0.0942459f, 0.0055550f, 0.1070566f, -0.0076174f, -0.0363629f, -0.0977785f, 0.0059777f, 0.1503627f, 0.1419604f, -0.1919234f, 0.0941448f, 0.0476539f, 0.0007337f, -0.0656543f, -0.0344587f, 0.0839936f, 0.1684318f, -0.1418515f, 0.1503619f, -0.1525164f, -0.0677049f, 0.0736582f, 0.0157866f, 0.0332401f, 0.1278387f, -0.0070797f, -0.0304536f, -0.1049080f },
  { 0.4817968f, -0.4278117f, -0.1558025f, -0.0082924f, -0.2813890f, -0.4951831f, 0.6113807f, -0.2406971f, -0.6293988f, 0.2788331f, -0.0737726f, 0.1220826f, 0.6188568f, 0.1429896f, -1.1077708f, -0.2542085f, -0.1438951f, 0.0065204f, -0.1958784f, 0.2248147f, 0.6164857f, -0.0641732f, -0.3322039f, -0.6322832f, -0.1346159f, -1.1591854f, -0.2664584f, -0.0622297f, 0.6797943f, -0.3201895f, -0.2139912f, -0.4041724f },
  { -0.5200366f, 0.2135095f, -0.2718437f, -0.0036601f, 0.3066293f, -0.6198583f, -0.7997739f, -0.1814194f, -1.0111576f, 0.0130072f, 0.4169433f, -0.0856523f, -0.3123384f, 0.0808711f, -0.3151456f, -0.1349116f, -0.2576282f, -0.1224791f, -0.2633263f, 0.2632300f, -1.1117966f, -0.0912590f, -0.1950206f, -0.0275733f, -0.3250684f, -0.0843512f, 0.0894005f, 0.1253322f, 0.5215058f, 0.0250071f, -0.1642948f, -0.0750443f },
  { -1.9170977f, 0.2571666f, -1.9531941f, 0.1224933f, -1.1041815f, -0.6969088f, -0.2286092f, 0.0826981f, -0.3903504f, -4.4330401f, -0.8321115f, 0.2977254f, -1.6078755f, -0.4170219f, 0.2266188f, 0.0360983f, -0.1565583f, -0.1846246f, -0.0585023f, 0.8370483f, -1.9979546f, -0.0747876f, -1.5277917f, 1.3480119f, 0.0192989f, 1.3835398f, -3.3490188f, -0.1814382f, 0.4866188f, -0.0097746f, -0.0418468f, -2.4794509f },
  { -0.1892005f, -0.3967699f, 4.0220208f, -0.0142572f, 0.5019183f, 0.9808331f, -3.3958917f, -0.0507198f, 0.3145622f, 0.8570545f, 0.1738376f, -2.0536723f, 1.3825091f, 1.0856748f, -1.6746335f, -0.0528379f, -0.1545456f, -0.0216806f, -0.1006166f, -1.8125752f, -2.5621521f, 0.0946194f, -1.1556430f, 0.0183106f, 0.0620630f, 1.4237870f, -1.3779887f, -0.6880508f, 1.6745781f, -4.4987221f, 0.0144422f, -0.7541994f },
  { 0.6096081f, -0.0785101f, -0.0821802f, -0.1976987f, 0.1575803f, -0.5378773f, 0.1021383f, -0.2325911f, 0.0695888f, -0.1299296f, -0.3278039f, 0.0375131f, 0.1285648f, -0.8092734f, 1.0563618f, 0.0184227f, -0.1503179f, 0.0463143f, -0.1116790f, 0.2791265f, 0.2115453f, -0.0337501f, 0.7423970f, 0.0359993f, -0.0343628f, -0.4989483f, 0.9433474f, -0.2446190f, 0.3202477f, -0.2653252f, -0.1124765f, 0.8439834f },
  { 1.8611312f, -0.7494444f, -0.9914824f, -0.0740496f, -1.6961789f, 0.5683997f, 0.3611159f, 0.0159239f, 0.2418226f, -0.8472332f, -0.9897777f, -3.8871403f, -0.0932954f, -1.2076584f, 0.1340563f, -0.1460420f, -0.1270092f, -0.0893190f, 0.0735459f, 1.5957636f, -0.0652312f, -0.2051357f, 0.0195038f, -1.0934572f, -0.1053371f, 0.6045229f, -0.3491889f, -5.8195353f, 1.7689892f, -0.6102068f, 0.0933412f, -1.2384936f },
  { 1.1303295f, -2.2943633f, 0.6020225f, -0.0668886f, 0.3487878f, 0.4779622f, -1.3878165f, -0.0779364f, 0.0034395f, 0.0038712f, -0.9416036f, 1.6541258f, -3.3263960f, 0.4445503f, -0.8532141f, -0.1976616f, 0.1359288f, 0.0337779f, 0.0801232f, -1.8721950f, 1.4219422f, -0.0333740f, 0.6514819f, -0.3363437f, -0.0620773f, 0.1269226f, -1.0161378f, -1.9056430f, 0.8367144f, 0.6869956f, -0.0112908f, 0.6873880f },
  { 1.0190630f, 0.3639520f, 0.5967155f, -0.0208780f, -0.5518431f, -1.1468815f, 0.5062845f, -0.0877362f, 1.2226400f, 1.1143044f, 0.4384573f, -0.8906034f, -0.8485949f, 1.0811210f, -0.0028253f, -0.0108305f, 0.1285974f, 0.0409426f, -0.1231965f, 0.0397444f, 1.1751115f, -0.0821579f, 0.1680647f, -1.0465492f, -0.1970159f, -0.6128014f, -1.1309218f, 0.4695490f, -0.7554607f, -0.6213318f, -0.0831296f, 0.1583612f },
  { -1.9324280f, -1.2840704f, 0.6690286f, 0.0316672f, 1.3962741f, -0.1635885f, -2.8331225f, -0.0592864f, -0.4150513f, 1.0594232f, -0.7075527f, -3.4686153f, -0.2125309f, 0.5487067f, 0.9261681f, -0.0961504f, 0.0339646f, 0.0175012f, -0.1659646f, -5.5927720f, -0.0157101f, 0.0054226f, -0.5670266f, -0.5411410f, -0.3423019f, -0.6260622f, 0.5239891f, -0.5626662f, 0.6103155f, -0.2450998f, 0.2315636f, -1.3401940f },
  };

  HOST_DEVICE_CONSTANT float bias_output_layer[1] = {
  -0.5525202f };

  HOST_DEVICE_CONSTANT float wgtT_output_layer[32][1] = {
  { -1.2351391f },
  { 0.1955116f },
  { -1.4317690f },
  { -0.0218308f },
  { 0.5013380f },
  { 1.1339967f },
  { -1.3171885f },
  { -0.0493860f },
  { -0.4963275f },
  { 0.4688910f },
  { 0.7339294f },
  { 1.4022113f },
  { 0.4461108f },
  { 0.9938118f },
  { -1.6457038f },
  { -0.0672171f },
  { -0.0734212f },
  { 0.0813069f },
  { 0.0392565f },
  { 1.9682679f },
  { -1.4178989f },
  { -0.0475883f },
  { 0.6641689f },
  { 0.2518730f },
  { -0.0850872f },
  { -0.7218581f },
  { 0.5314080f },
  { 1.0789822f },
  { 0.7952095f },
  { -4.2317858f },
  { 0.0496382f },
  { 0.5806996f },
  };
}  // namespace ALPAKA_ACCELERATOR_NAMESPACE::lst::dnn::pt4dnn

#endif