#ifndef RecoTracker_LSTCore_src_alpaka_pT4NeuralNetworkWeights_h
#define RecoTracker_LSTCore_src_alpaka_pT4NeuralNetworkWeights_h

#include <alpaka/alpaka.hpp>

namespace lst::pt4dnn {

  ALPAKA_STATIC_ACC_MEM_GLOBAL const float bias_layer1[32] = {
        // 0.5803991f, 0.9517887f, 1.8190347f, -2.3767970f, 0.3618926f, 0.4347669f, -0.0244004f, -0.3039092f, -0.7382119f, -0.5475082f, -0.0943970f, 1.6103112f, 2.1258450f, 2.1045780f, 0.0992089f, -2.8155148f, -1.7162650f, 0.5760740f, -1.9400429f, -0.3182113f, -0.8001613f, -0.2625706f, -1.6190549f, -0.1572780f, -1.2891680f, 1.1684752f, -3.5022335f, 1.4872690f, 1.1252691f, -1.3774325f, -3.0459373f, -0.3483351f }; //with rphi
        -0.8800903f, -1.8072534f, 0.1783882f, 1.5878081f, -0.6615560f, -0.7344174f, -1.9672493f, -0.1289302f, -3.8928263f, -1.4307843f, 1.0490626f, -1.0051931f, -0.4201763f, 1.2483497f, 0.7397308f, 0.2799703f, -3.3736300f, 1.6397775f, 1.3894732f, -0.3749841f, 2.3867180f, -0.0598002f, -0.6938259f, -2.0639052f, 0.1746200f, 1.4726104f, 1.0684537f, 0.7882748f, -1.3166660f, 0.0958606f, -1.1436431f, -1.8285900f }; //no rphi cuts
      //   0.8970533f, -0.5722849f, 1.8077013f, -1.0198187f, -2.4252734f, -1.2776586f, -3.0758793f, -1.4966027f, 0.3999996f, -0.0794012f, 0.9999976f, -3.0934319f, -0.1699182f, -0.9441155f, -0.3862732f, 0.7661311f, 0.2077823f, -0.1879060f, -0.6850217f, 0.5090268f, -0.4034909f, 0.5050025f, -0.1040389f, 0.0051623f, -0.1309246f, 0.1836229f, 0.6877081f, 0.7989590f, 0.4177806f, 2.1114352f, 0.1851881f, -2.2547259f }; //no rphi, w downsample

  ALPAKA_STATIC_ACC_MEM_GLOBAL const float wgtT_layer1[6][32] = {
        // { -0.0085816f, 0.0399707f, -1.3553147f, 0.9272884f, -1.5550995f, -0.3317782f, 0.0229665f, -0.0217200f, -0.1203811f, -0.1166660f, 0.1134990f, -0.2158525f, 0.0047343f, 0.0254023f, -1.3334291f, 0.0441804f, -0.1621402f, -0.2706099f, -1.5577700f, -0.0075733f, -1.5558383f, -0.1421745f, -0.8344169f, 2.0365398f, -0.0694545f, -0.3534384f, -0.0035108f, -0.1101852f, -0.4444407f, 0.0038960f, 0.0128660f, -0.4414108f },
        // { 0.0442633f, 1.6953717f, -1.0880843f, 0.8321890f, 0.5832244f, -1.0384253f, 0.9257970f, -0.2068870f, -1.4975706f, 1.2498932f, -0.1270983f, -2.0651674f, -2.3589554f, 0.1898210f, -0.3365180f, -0.4204890f, -1.4381375f, -0.1157849f, 0.3029116f, -0.0556447f, -1.2859375f, 2.2625589f, -0.0355239f, -0.9774498f, 0.4048735f, -0.7538919f, 0.3419975f, -1.9207419f, 1.7832509f, 1.4404876f, 0.6943399f, -0.3644101f },
        // { -0.1068095f, -1.9907554f, -0.5266029f, -0.2996565f, -0.0107607f, 1.2328566f, -1.5133469f, -0.1907301f, 2.2162223f, -1.7424080f, -0.0622641f, 1.5959041f, 0.9523786f, -0.0610615f, 0.6665451f, 0.4954402f, 2.1306934f, -1.5576160f, 0.1440389f, -0.1828226f, -0.8122828f, -1.8219212f, 0.3656822f, -0.5369312f, 0.7184803f, 1.3141953f, -0.3387764f, 1.6047006f, -1.6776981f, -0.5926237f, 0.9360635f, -0.5451108f },
        // { 0.9049076f, -0.0035605f, -0.6848204f, 0.6553457f, 2.1003809f, 0.8073550f, 0.8315468f, 0.0987097f, -0.3569528f, -1.1363168f, 0.0583389f, -0.0212433f, -0.6675068f, 0.2365351f, -0.4405399f, -0.2715210f, -0.6877186f, 2.0649486f, 0.0659018f, -0.2980940f, -0.8357199f, -0.2847056f, 0.6782503f, -0.6546164f, 0.2483373f, 1.7883825f, -2.9622209f, -0.2244780f, -0.0351102f, -0.3370120f, 0.7072254f, 1.4897901f },
        // { -2.9890876f, -0.6458356f, 0.7072356f, -0.2998337f, 0.3640936f, -2.0562339f, -0.1083064f, -0.2331632f, -0.1433292f, -0.3062593f, -0.1807860f, -0.8314559f, -0.1269578f, -0.6556120f, -0.6315938f, -0.0531586f, -0.0404003f, 1.8452165f, -0.1571490f, 0.0019634f, 2.4111643f, -0.1110157f, 2.0805254f, 0.1315338f, 2.3137546f, -0.1711705f, -0.0053693f, 0.1904315f, 0.1942375f, -1.7837708f, 0.0890070f, -1.1447181f },
        // { -0.6367718f, 0.4531308f, -0.4065259f, 1.6912820f, -2.0909111f, 0.8797112f, 3.6109135f, -0.2720090f, -0.7703387f, 1.7240211f, -0.2715640f, 0.6885411f, 0.7851114f, -4.7339921f, -3.1126478f, 4.0563169f, 0.5813645f, 3.2789693f, -2.7875135f, -0.0911914f, -0.0278916f, -0.0619330f, 0.4703034f, 1.1120323f, -4.0266981f, -0.2017595f, 1.2070619f, -1.1638727f, -1.5477378f, 0.9433244f, -0.9915586f, 4.1594872f }, //with rphi
        { -0.1480760f, 2.1905789f, -0.2217277f, 0.0086809f, 1.8774370f, -0.0626944f, 1.1342320f, 0.0595764f, 0.0309599f, 0.3890277f, -0.1890777f, -0.0396715f, -0.1795285f, -0.0966393f, -0.5132413f, 0.0961138f, 0.1002564f, 0.0624782f, 0.3553312f, 1.3713845f, 0.0655327f, 0.0024428f, -0.7059096f, -0.2167744f, -0.1809292f, 0.0637214f, -0.0542224f, -1.2980007f, 0.0077629f, -0.0408696f, 0.8835022f, 0.0865934f },
        { 1.1541936f, -0.2102368f, -0.8477497f, 1.6611285f, -0.3745329f, -1.6106452f, 0.4881096f, 1.9186708f, 1.2016730f, 0.9726369f, -1.5885530f, -0.2415711f, -0.2120905f, -2.1174583f, -1.2485904f, -1.2461877f, 1.4771491f, 1.2886868f, -0.6106042f, -0.9558617f, -1.6916279f, 2.1246698f, 1.7287945f, 2.0504975f, 0.3690375f, 1.3849782f, -0.0836832f, -0.2345187f, -0.7296194f, 0.2143710f, -0.0812378f, 0.1598963f },
        { 0.1288594f, -1.7795438f, 0.5695208f, -2.0486486f, -0.7334071f, 0.9253054f, -1.3339506f, -1.8469056f, 0.5240156f, -0.0455956f, 0.2184270f, -0.4454056f, -0.1192300f, 1.7526243f, 1.0667411f, 1.5107690f, -0.6758580f, -0.8415001f, -0.3157828f, 0.9045711f, 1.1627028f, -2.1331749f, -0.9845165f, -1.2199293f, -2.0072417f, -1.9937600f, -0.4971901f, 0.0848108f, 1.9333248f, -0.4312125f, 0.1702865f, -0.3896002f },
        { 2.4601572f, -0.0099619f, 0.5492982f, 0.4535396f, 0.9857132f, -2.3046482f, 0.6857449f, 0.2755714f, 0.3595552f, 0.2574173f, 1.5406771f, 0.1271792f, -0.0614629f, 0.2057660f, 1.2428379f, -1.0697159f, -1.1004519f, 0.4956112f, 1.4750565f, 1.2254512f, 1.5534455f, -0.0112332f, -0.8078892f, -0.4806470f, 0.9789429f, 0.1410081f, -0.7525350f, 0.0757116f, 0.3115042f, 0.1301879f, -0.7758709f, -0.6115130f },
        { -1.7566669f, -0.8173521f, -2.6587329f, 0.0442653f, 1.4485430f, -0.2184417f, 0.0795331f, -0.1783326f, -0.3690479f, 2.0417840f, -0.1567217f, 0.9425281f, 0.2601635f, -0.1251095f, -0.3740092f, 0.3166197f, -0.0318124f, -0.3493804f, 2.6084146f, -1.0577258f, 0.3562457f, -0.0316162f, 0.4801654f, -0.1982691f, 0.7068863f, -0.6342463f, -2.6681638f, -1.3263668f, -0.8676519f, 0.0150119f, -1.1148160f, -0.2251871f },
        { -1.4142152f, 3.1784964f, 2.3669224f, -0.4207956f, -0.1201073f, 1.3164986f, 4.1470337f, 1.1268295f, 1.1208550f, -1.8373905f, 4.2089591f, 3.7858927f, 0.0098177f, -0.0603129f, 2.2921493f, -1.7568189f, 1.7027577f, -5.0114937f, -4.0681171f, -2.1978152f, -0.0606198f, 0.0077978f, -1.4883443f, 0.4876081f, 4.0113907f, 0.9163966f, -1.3730443f, -0.6998603f, 0.9193619f, 0.1995151f, -9.6563215f, 3.6203671f }, //no rphi cuts
      //   { -0.0332002f, 1.4652593f, 0.0040603f, -1.0742037f, -0.1382219f, 0.3516638f, 0.0593306f, 0.5147739f, 0.7937077f, 0.0760504f, 0.1602603f, 0.0014447f, -0.0161947f, 0.0353198f, -0.1019366f, -0.1150037f, -0.1683929f, -1.0801551f, 1.2616401f, -0.0318366f, -0.2046037f, 0.1070559f, -0.2492762f, -0.2887575f, 0.3918734f, -0.1723669f, -0.0293291f, 0.0834877f, -0.1114693f, 0.0872207f, -0.1482037f, 0.0560764f },
      //   { 1.3150555f, -0.4598069f, 0.4122674f, 0.6347191f, 1.4309682f, -0.4224177f, 1.0028661f, 0.0881575f, -1.0165033f, -0.3064913f, -1.0174053f, 0.5895534f, -0.3067383f, -1.3936741f, -1.2844987f, -1.3457553f, -0.3134148f, -0.0249820f, -0.9972962f, 0.2157044f, 1.4928367f, 1.0727165f, -0.2388947f, 1.4599122f, -0.3641973f, -0.2806937f, 1.3188442f, 0.0397656f, -1.5436231f, 0.3453900f, -1.2491182f, 0.0447167f },
      //   { -1.5802811f, -0.1956339f, -1.1110725f, 0.2777784f, 0.0398027f, 1.1974639f, 0.2164351f, -0.9591027f, 0.2284961f, -0.1632440f, -0.2774318f, -0.1140711f, -0.1306707f, 1.3017924f, 1.4128835f, 1.3268808f, -0.1907117f, -0.0882204f, 0.1339079f, 0.3598396f, -1.0719551f, -1.2152541f, -0.2295451f, -1.2701389f, -0.4383273f, -0.0855577f, -1.1759191f, -0.5277037f, 1.3889275f, -0.4866844f, 1.4261364f, -0.1641021f },
      //   { 0.0877213f, 1.5554079f, 0.2002294f, 0.4810974f, 1.2593573f, 0.2711931f, -0.3200080f, -1.1305050f, -0.8507000f, 0.1243481f, 0.9405345f, -1.7493106f, -0.2567545f, -1.1311344f, -0.1806475f, 0.2903969f, 0.1470715f, -0.6751698f, 0.8882832f, 0.1415087f, -0.0069500f, -0.0639076f, 0.1247233f, -0.4125322f, -0.8340352f, 0.4700418f, 0.5868877f, 0.4944363f, 0.0177154f, 0.2569099f, -0.2009287f, 0.0363776f },
      //   { -0.0131059f, -0.4582488f, -0.9819996f, -0.5771613f, -0.9245039f, -0.2676212f, 0.0995233f, 0.1244164f, -0.0646460f, 0.3596622f, 0.3948329f, -0.0017925f, 0.2518399f, -0.1040702f, 0.1014728f, -0.0089898f, -0.4616862f, -0.4245992f, 0.5525689f, 1.0503707f, 0.1414068f, 0.5010553f, -0.3054352f, 0.0584357f, 1.7501667f, 0.0197397f, 0.1579071f, 1.8959466f, -0.1856736f, -0.5318516f, -0.0188275f, -0.3550632f },
      //   { 0.0283839f, 0.2374468f, 1.1990095f, -2.0808191f, -0.6071608f, 0.1452774f, 0.5854707f, 2.6452851f, -0.2675871f, -0.3816356f, 2.8909276f, 0.9476946f, -0.4026790f, 0.5600556f, 0.4796171f, -0.4130847f, -0.4369518f, -0.1340099f, 1.7494916f, -4.3456025f, -0.4522839f, -0.4507912f, -0.4012267f, -0.6721869f, -2.6514499f, -0.3310864f, -0.6418663f, -0.4932021f, 0.0352018f, -3.3650420f, -0.4762588f, 3.3935504f }, //no rphi, w downsample
    };

  ALPAKA_STATIC_ACC_MEM_GLOBAL const float bias_layer2[32] = {
        // -1.4891707f, 0.9916152f, -0.2302039f, -0.0114993f, -0.1299689f, -0.3304193f, 0.1028778f, -0.0812022f, -0.2103164f, 0.1131264f, 0.6460390f, 0.1850445f, 1.8623599f, 1.4424052f, -0.2506680f, -0.1643298f, 1.5684648f, -0.9229171f, 0.7527862f, 1.6339943f, -2.1652565f, 0.5423095f, -0.2596055f, 0.0810932f, -1.7578293f, -0.1592756f, -0.4516173f, -1.8725176f, 0.1418214f, 1.4636434f, 1.3002878f, -0.8978109f }; //with rphi
        -0.7289720f, 2.2642930f, 0.9725361f, -0.1444544f, -0.0963655f, 1.0122966f, -1.8473330f, -0.8851855f, -0.4346104f, -0.0652229f, 1.1825467f, -0.1910027f, 1.0873798f, -2.0294709f, 1.1404967f, 0.1957452f, -0.0340597f, -0.1940780f, -0.0086250f, 2.0236652f, -1.8919609f, 0.4058287f, 1.4423206f, -0.2319739f, -0.1544073f, 1.4921745f, -2.4629183f, -0.8517406f, 0.0066363f, -0.3348348f, 0.9505215f, -0.1616343f }; //no rphi cuts
      //   0.9427469f, -0.9203620f, -0.2700485f, -0.6136064f, -2.1484230f, -0.2200743f, 0.8962857f, 0.8050292f, 0.8370438f, -0.0409812f, -0.2417191f, -1.6854129f, -0.0253662f, 0.6237279f, 0.8760799f, 0.4024509f, -0.2001385f, -0.8052945f, -0.0043539f, 1.1215482f, -0.3253697f, 1.0630565f, 0.4058667f, -0.2672609f, 0.1448651f, -1.0539230f, 0.1613597f, -0.0506747f, -0.8604061f, 0.7932386f, 1.1873842f, 0.2506952f }; //no rphi with downsample

  ALPAKA_STATIC_ACC_MEM_GLOBAL const float wgtT_layer2[32][32] = {
        // { 1.8935267f, -1.5693616f, -0.0036349f, -3.0082955f, -0.0380962f, -0.2585093f, -1.8670912f, -0.1759339f, 0.1320447f, -0.1951702f, 0.4706301f, -0.3310642f, 0.4570428f, 0.0433392f, -0.0167272f, -0.1586054f, -1.0672373f, 0.5593238f, -0.5347219f, -0.4582092f, 1.1508851f, -0.3706869f, -0.1561209f, 0.0979526f, 0.3615015f, -0.2507851f, -0.4644666f, -0.5575271f, 1.1166922f, 0.5782508f, -6.6642632f, -0.2325403f },
        // { -0.7243801f, -2.2676966f, 1.9789360f, -1.2280017f, -0.1744661f, -0.2114930f, -0.7812891f, -0.2586095f, 2.3383503f, 0.9369330f, -1.3156404f, 0.9951710f, -1.6937222f, 0.5219619f, -0.0297169f, 0.0970582f, -0.3432758f, 1.5462404f, 0.1966888f, 0.7548550f, 1.0351578f, -0.4655367f, 0.0566256f, -0.0495898f, -1.5383779f, -0.0406659f, -1.8859015f, -0.1125745f, 0.8849695f, 0.0865629f, 0.9640141f, -2.7308633f },
        // { 1.2662282f, -1.3750062f, -1.9466889f, 1.6612966f, 0.1115021f, -0.1672842f, -0.4967581f, -0.2124433f, 0.2862972f, 0.9143742f, 1.3757721f, 1.2175355f, 0.7629982f, -0.4392911f, 0.0095837f, 0.0829841f, -0.4440761f, 1.2183455f, 1.7473117f, -0.4529782f, 0.7740210f, -1.6777244f, 0.0853824f, -0.7702644f, 0.5716650f, 0.0316288f, 0.1331614f, -1.0392892f, 0.3969139f, 0.3232292f, 0.4039633f, 0.3121343f },
        // { 0.3850412f, -0.1974366f, -1.3221626f, 1.2422444f, -0.1545095f, -0.0951154f, 0.6965526f, -0.1387504f, 0.6335377f, 1.3059489f, 0.6134940f, -2.4917572f, 1.1751181f, -0.2438816f, -0.2598657f, -0.1866273f, 0.5170218f, -0.6256818f, 2.1328197f, 0.9252923f, 1.0282812f, -0.2916356f, -0.1984077f, 1.3150779f, 0.4125670f, -0.1557184f, -0.4590801f, 1.3001621f, -1.5135392f, -1.1036918f, 0.5745392f, -0.6539767f },
        // { 0.0734765f, -0.8725885f, 0.3682145f, -8.3707161f, 0.0326794f, 0.0210879f, -3.3334630f, -0.0828009f, 0.1194871f, -1.2192099f, 0.6409518f, -0.7554023f, -6.2686172f, 0.8909250f, -0.1866967f, 0.0446160f, 0.8160843f, -0.4031404f, -1.5789530f, -0.5878177f, 0.5814890f, -0.0661642f, -0.0234990f, -0.1584143f, 0.1906167f, -0.1069842f, -0.7249106f, -0.2616718f, -1.0725785f, -0.4378544f, 2.4863474f, -0.1195388f },
        // { -3.7684693f, -3.4879601f, -0.8620698f, -0.5398839f, -0.2099514f, 0.0147974f, 0.0700974f, 0.0364211f, 0.1004662f, 1.6161808f, -0.0507936f, -0.5083204f, -1.1188926f, -0.5133113f, -0.0139186f, -0.0532125f, 0.1849597f, 1.2492435f, 0.8099996f, -1.1989743f, -0.5641468f, -0.5777987f, -0.1269174f, -0.3246374f, 0.0880873f, -0.1364049f, -0.1267623f, -0.6450702f, -1.1151483f, 0.0610269f, -4.4867859f, 0.4435964f },
        // { -1.5008423f, -0.9955611f, 1.4115549f, 1.9041152f, 0.0606660f, -0.0527523f, 1.6617873f, -0.2026482f, 0.7405671f, 1.2194310f, 1.0345969f, -0.1940315f, -3.2804291f, 0.5282547f, -0.1075210f, -0.0740497f, -0.9375209f, 0.8509520f, 0.0284056f, 1.2905954f, -0.2594630f, 1.2267056f, -0.0299183f, -0.6440398f, -2.5460064f, -0.1257616f, -0.0767322f, 1.6223291f, 1.9655104f, 1.2627141f, 0.4751280f, 0.1831315f },
        // { -0.1537308f, 0.1712764f, 0.1626213f, 0.0532646f, 0.0622703f, -0.0712856f, 0.1438149f, 0.0095456f, 0.1349137f, 0.0451342f, -0.1631618f, -0.0759150f, -0.1750839f, -0.0195444f, 0.0597215f, -0.0314947f, -0.0401020f, -0.0297598f, 0.1244205f, -0.1111677f, 0.0371838f, -0.1438530f, 0.1512571f, -0.0366327f, -0.0803980f, 0.1013423f, -0.0709535f, 0.1368694f, -0.1190959f, -0.1765077f, -0.1018158f, 0.0259166f },
        // { 0.3627578f, 0.4209664f, -2.9667974f, 0.0536758f, -0.0148266f, -0.1695793f, 0.0377973f, -0.2788594f, -1.9947200f, -1.0263191f, 0.7816972f, 0.4375433f, -3.1729200f, 1.0067574f, -0.1104902f, -0.1344909f, -0.1356524f, -3.0604615f, -1.8286058f, -1.2987673f, 0.9640825f, -0.1533872f, 0.0337210f, 1.6972764f, 2.3778532f, -0.1916095f, 0.4004842f, 1.1046649f, -0.4059637f, 0.8769745f, -7.6547608f, 1.5879600f },
        // { 2.5205853f, -0.2244637f, 1.7735550f, 0.2344809f, -0.1237018f, -0.1374712f, 0.1949615f, -0.1800333f, 0.6635361f, -0.2228223f, -0.8576369f, 0.2044491f, -0.2064824f, -1.0794029f, -0.0498807f, -0.1400404f, 0.9585491f, 1.5177419f, 0.6097602f, -0.1013717f, 2.0690327f, -0.1847962f, 0.0528324f, 0.1543906f, -0.0127542f, -0.1774611f, 0.1306716f, 0.2673689f, 0.9115773f, -0.0881940f, -0.9105048f, -1.6613405f },
        // { -0.1027433f, 0.0491712f, -0.1648616f, 0.1468873f, -0.0471917f, -0.1706900f, 0.0561835f, -0.0521214f, -0.0414547f, 0.0724250f, 0.1488883f, 0.0847136f, 0.1189185f, 0.1280312f, -0.1675303f, 0.1175929f, 0.0015715f, 0.1136581f, -0.0659412f, -0.0713787f, -0.0818648f, 0.0585488f, 0.0090980f, 0.0228897f, 0.0697915f, -0.0436086f, 0.1798302f, -0.0239421f, 0.1227434f, -0.0259825f, 0.0806625f, -0.0156939f },
        // { 0.3451633f, -0.2462775f, -0.9975805f, -3.0379031f, -0.2893705f, -0.1153475f, 0.5890952f, -0.1890584f, -2.2638714f, -3.1273735f, -1.5555209f, -0.5143623f, -0.1766857f, -0.0120167f, -0.1264831f, -0.0473239f, 1.1986488f, -0.5777782f, 0.9875563f, 0.9324392f, -3.4553738f, -1.3022133f, -0.0537946f, -1.0207707f, 0.2025322f, -0.1960315f, -4.0369072f, 0.7399750f, -2.8448853f, -0.8793699f, 2.3112383f, 3.1386933f },
        // { -2.8010378f, -2.3448634f, -2.6327376f, -0.3065057f, 0.0097041f, 0.0036054f, 1.3441101f, -0.0485603f, -0.5973609f, 0.9897934f, -1.2717905f, -1.0366604f, -2.2633975f, -0.3697048f, -0.1102494f, -0.1952069f, -0.4016644f, -1.3614992f, 1.7839236f, 2.3668742f, -6.0303316f, -0.1090915f, -0.0735741f, -3.2600634f, 1.1271017f, -0.1539128f, -1.4630039f, 0.0828433f, -3.8767350f, -0.9709415f, 0.9727343f, 0.9240175f },
        // { -2.5252895f, 1.5374652f, -1.0681790f, 1.1988584f, -0.5732947f, -0.0491319f, -5.3177137f, -0.2054589f, -0.3897739f, 1.1050882f, 2.9860482f, 2.1131723f, 0.0048832f, 0.0375581f, -0.1401384f, -0.0161336f, -1.1101483f, -0.4128232f, 1.4279320f, 0.8010930f, -0.7490262f, -0.0391481f, 0.0357640f, 0.5595818f, -1.4409846f, 0.1069260f, 1.6302140f, 0.5382099f, 0.8601030f, 0.5370831f, 5.8663249f, 0.4218967f },
        // { -0.4102351f, -0.4026552f, 0.6232708f, -0.8003376f, -0.0361047f, -0.0692291f, -21.6991081f, -0.1970476f, -0.6340629f, -0.6879949f, -0.6135792f, 1.1718756f, -0.8796589f, -0.1926797f, -0.1207874f, 0.1003148f, -0.0708594f, 1.8051813f, 0.2011507f, -1.5393817f, -0.6719443f, -6.7334752f, 0.0084488f, -0.5097393f, -0.6609607f, -0.0429312f, 0.0395896f, -2.6723926f, 0.2768502f, 0.6039553f, -2.9198339f, 0.1314708f },
        // { 4.3478522f, 0.9528834f, -2.8094938f, -0.5448920f, 0.0766141f, 0.1322771f, 1.2005420f, -0.0984686f, 0.0570379f, 1.1420714f, 0.7920645f, -4.6146564f, 3.2112737f, -12.9892855f, 0.0757155f, -0.1526417f, 1.9669728f, 1.6871095f, 1.0858428f, -0.6107460f, 2.8692665f, 2.3077183f, -0.1751895f, 1.9876096f, 4.5401349f, -0.1742825f, 4.1024685f, 1.9498593f, -1.6919881f, -0.4021836f, -1.0227091f, -1.2659963f },
        // { 0.2071116f, 1.0458010f, -2.4983089f, 2.8396356f, -0.1261901f, -0.2752536f, 1.2058454f, -0.3550717f, -2.6309817f, -1.5649148f, -0.0233412f, -1.4175131f, -4.4812737f, -0.3013309f, -0.2672542f, 0.1153660f, -0.7418485f, -0.1694921f, -0.2439684f, -0.2467602f, 0.8243555f, 1.9277338f, -0.0068448f, 2.7043889f, 3.9925792f, 0.0682849f, 0.5905615f, 1.3718406f, 0.1494364f, 0.3113772f, -0.9585819f, 2.3751020f },
        // { 1.0853431f, -1.5187770f, -0.2344538f, -0.2823965f, -0.0579585f, 0.0299380f, -0.0924787f, 0.0622719f, -0.2197319f, -8.8534851f, -0.7452208f, 0.7668500f, 1.2626265f, -3.5844486f, 0.1590836f, -0.0149555f, -1.0611804f, -7.4853139f, -0.4025138f, -2.3808432f, -0.9598402f, -0.0382779f, 0.0177916f, 0.5376488f, -0.0583876f, 0.0481965f, -1.7256014f, -2.2661972f, -1.2275782f, -3.8040056f, 0.5266109f, -1.1551987f },
        // { -0.7603684f, 0.1316694f, -23.1683521f, 0.5118220f, -0.1214852f, -0.0975383f, -5.0856977f, -0.0397972f, -1.8547986f, -3.1274920f, -0.3673327f, -2.2003725f, 0.1345051f, 1.2451557f, -0.0995300f, -0.0547883f, -0.6417309f, -1.6567253f, -0.8165179f, 1.2419648f, 0.3419436f, 14.4370060f, -0.0511573f, -0.4614857f, 0.2782286f, 0.1092823f, -0.4280766f, -9.6354742f, -0.1923388f, -5.2108374f, -17.1588173f, -6.5745425f },
        // { 0.0695749f, -0.0845935f, -0.0381960f, 0.0148181f, -0.1041864f, 0.0090854f, 0.0077924f, 0.0687951f, -0.1075462f, 0.0965723f, 0.1283643f, 0.1527635f, -0.1519563f, -0.0950543f, 0.1342791f, -0.1515708f, 0.1365698f, -0.0429284f, 0.0757639f, -0.1518577f, -0.0341011f, 0.0867762f, -0.1104420f, -0.1403787f, 0.0865179f, -0.0373908f, 0.0035721f, 0.0659518f, 0.1511324f, -0.0240867f, -0.0490868f, 0.0556578f },
        // { -0.1110433f, -0.2800483f, 1.4793960f, -4.7708611f, -0.0274400f, -0.0650480f, 1.4406066f, -0.1183626f, -2.3296840f, 0.3771963f, -1.3617636f, -3.4615088f, 0.0989161f, -1.9126521f, -0.0357514f, 0.0954370f, 1.6209922f, 11.4000788f, 2.0848665f, -4.4633574f, -2.1485939f, -11.4795504f, 0.0396356f, 1.1896117f, -0.0837438f, -0.0588435f, 0.9619602f, -0.8587734f, -1.1861954f, 0.1514243f, -0.4225011f, -0.4705921f },
        // { -0.4538363f, 0.3707274f, 1.9957381f, 1.5058256f, -0.0644437f, -0.3081971f, -2.3865187f, -0.1410695f, 3.3614960f, -2.1060855f, 0.5078017f, 1.1148511f, -2.1491704f, 1.5712982f, 0.0392250f, -0.0554735f, -0.0328608f, 0.8949946f, -0.3416645f, 0.0008480f, 1.9647782f, 0.5196502f, -0.0596091f, 0.6012152f, -0.7206085f, -0.0220351f, 0.9100184f, -2.3715987f, 1.8033772f, 0.6943028f, -1.6015505f, -3.6841822f },
        // { -1.0695969f, 1.3750329f, -0.0223259f, -1.3429880f, -0.0607057f, -0.0604965f, 0.9432129f, -0.0803605f, -0.3604027f, 0.4274342f, -0.9583148f, 0.3509206f, -3.1075056f, -0.0692098f, -0.1020491f, -0.1604374f, -0.4236109f, -8.5770216f, -0.3747582f, 1.0523748f, 0.6811576f, -0.7152482f, -0.2429497f, -0.0919031f, -0.1767589f, -0.0986845f, 0.6456100f, -0.1427929f, -0.4048898f, 1.2304372f, -0.3619667f, 0.5852519f },
        // { -1.2220526f, 1.3547546f, 0.0782435f, -0.8378103f, 0.0023967f, 0.0383598f, 1.9150708f, 0.0303901f, 0.0085264f, -0.4973012f, -0.4468232f, 0.4551705f, 0.9011643f, -0.2056347f, -0.0919812f, -0.1701050f, 2.7255337f, -1.0143352f, -1.2227470f, -1.2178516f, 0.2261218f, 1.9005860f, -0.2073686f, -0.3993538f, 0.4131783f, -0.0448799f, 0.3098311f, 0.5678067f, -0.4830760f, 0.3120376f, 0.2858255f, -1.4972482f },
        // { 2.4422946f, -0.6917274f, -0.2103533f, -1.7391021f, -0.3736810f, -0.1201440f, 0.1381596f, -0.0702075f, 0.0453339f, -0.2255638f, 0.2590234f, -1.7934641f, 0.1155896f, -1.0957398f, 0.0042575f, 0.0269469f, -3.0541356f, 1.8122826f, -0.4828063f, -0.7023349f, 1.6283342f, -1.5264169f, -0.0313838f, 0.7480636f, -0.4481337f, 0.0436660f, 1.4502429f, -0.3338524f, -0.0121615f, -1.2530221f, -0.1814983f, 0.0732300f },
        // { -0.8469203f, 1.3615804f, -0.7712979f, -1.3839724f, -0.1381516f, -0.2818303f, -0.1478711f, 0.0939864f, -0.5215401f, -0.8283153f, 0.3151321f, -1.3673325f, -0.7933816f, -0.8887778f, -0.0523402f, -0.1271283f, -0.1783673f, -1.8202702f, -0.5565106f, 0.1192394f, -1.1374959f, -1.1758281f, -0.1126100f, -0.1494954f, -1.6016129f, -0.1696672f, -0.6292314f, 0.1450620f, 0.9961810f, 0.1065255f, -0.4766606f, 0.7034850f },
        // { -1.2529600f, -0.3324249f, -10.5119076f, -1.8293449f, -0.0501950f, 0.2055630f, 0.0495131f, -0.1891590f, 1.1965114f, -5.8459663f, -2.9658575f, -6.6181593f, 2.1243322f, -0.7954760f, -0.0183476f, -0.0913576f, 0.9119635f, -3.8773456f, 0.0292094f, -9.2837667f, 0.2052730f, 1.1082109f, -0.1339386f, 2.2653215f, 0.2207194f, -0.2292433f, -0.5906479f, 0.6275412f, -1.4551591f, -7.2821884f, -20.1333103f, 0.0503740f },
        // { 0.9058152f, -0.3706405f, -2.0074680f, -1.1114442f, -0.0233094f, -0.1066867f, -0.4336989f, -0.1038973f, -1.6492496f, 2.5789385f, 0.8046940f, -1.0080532f, 1.9295031f, 0.4572416f, 0.0444221f, -0.0441275f, 0.7997636f, -8.5904722f, 1.0348798f, -0.9563641f, -0.8373239f, -0.9578688f, -0.1607908f, -1.8441434f, 1.7207451f, -0.0066378f, 0.4115109f, 0.9366589f, -2.6717656f, -0.2898563f, -6.3894730f, 0.8039513f },
        // { 0.4924756f, 1.4235641f, 2.1699588f, 1.4747807f, 0.0887662f, -0.1829454f, -3.6436884f, -0.2662986f, 2.3990233f, 1.4104191f, 0.2880708f, 0.0024993f, 0.0251907f, -0.3135148f, -0.1457715f, -0.1355941f, -0.2741520f, -0.0139240f, 1.5629683f, -0.6249402f, 0.7724977f, -0.1554183f, 0.1033111f, -0.4307020f, -1.7693909f, -0.0315134f, 1.5057454f, 0.0234910f, 1.8117074f, 0.5246933f, -0.2237265f, -2.0014710f },
        // { 1.0352447f, -0.9467062f, 0.6677866f, -1.0022373f, 0.0698782f, 0.0042434f, -0.7071028f, 0.0408538f, 0.5334870f, -3.0763071f, 0.3420487f, -0.4631399f, 0.8653253f, 0.9659516f, -0.1025061f, -0.1679512f, 0.8516545f, 0.3817681f, -0.1290857f, -0.0551179f, 0.5894251f, 0.4998852f, -0.1477071f, 0.3989138f, 0.5045470f, -0.2153068f, 2.2512696f, -1.8153059f, 1.2170322f, -1.1519275f, -2.1842451f, -0.2375239f },
        // { 0.0641545f, 1.1697571f, -4.1734462f, 1.5815531f, 0.0070149f, 0.0718688f, 0.2516070f, 0.0762368f, 0.1226959f, 0.3917726f, 0.2280448f, 1.7395016f, 0.8320240f, -1.0690445f, 0.0083342f, 0.0270409f, 0.0207067f, 1.9945740f, -1.8557497f, -0.4130603f, -0.5454051f, -1.3151611f, -0.2158097f, 0.0056486f, 0.8711444f, -0.2054346f, 0.0050511f, -10.6107159f, 1.2158079f, -0.1748266f, -0.0330104f, 0.7194141f },
        // { -1.4340144f, -14.4047012f, 1.0717845f, -0.8807749f, 0.0755169f, -0.1583596f, 0.4178526f, -0.1158391f, -0.6210754f, -0.2060955f, 1.3274870f, -6.9822001f, 2.1526413f, -1.4519064f, -0.0798475f, -0.1075792f, 0.7303683f, -0.9139306f, -1.7007154f, -0.7902569f, 0.9357672f, 2.6716588f, -0.1714244f, 1.3059589f, -0.2684442f, -0.2275840f, 1.1647860f, 2.4996152f, -0.7237704f, 0.5328775f, 2.1622291f, -0.5811837f }, //with rphi
        { -0.2423147f, -2.2657049f, -0.9005930f, 0.0226803f, 0.5774494f, -1.8629500f, -0.7024645f, 0.2925687f, -0.5062378f, 0.8531218f, 0.5035400f, 0.0572373f, -0.7476881f, -3.6782951f, -3.9167833f, -1.1571554f, 0.0558486f, 0.0772887f, 0.0669678f, 0.0643115f, 0.1959455f, 0.1929566f, -1.0672415f, -2.1441317f, 0.9011025f, 0.9594720f, 1.4552002f, -0.2993858f, -0.0125764f, -0.5185547f, -0.1584357f, -0.0965990f },
        { 0.6985477f, -1.0573155f, -0.5781981f, 0.0774942f, -4.1587324f, -0.0712605f, 1.5540345f, -2.2166972f, -0.8136281f, 3.3169544f, -0.9565202f, -2.1261451f, -4.6190462f, -0.9849967f, -24.8866196f, -2.0820212f, -0.0253520f, -0.0497050f, -0.0612001f, -2.2667849f, -1.7849414f, -1.7796494f, -3.0465891f, 0.2563254f, 0.5909498f, 1.9613451f, -0.1747253f, -2.5040793f, -0.0928009f, 1.5812647f, -0.4462876f, -0.0238052f },
        { -0.9520493f, 0.4369972f, 0.2162292f, -0.1408696f, 0.0246849f, 0.2881569f, 0.5230108f, 0.0006200f, -0.1497398f, -0.2864683f, -0.0719508f, -3.0890760f, 0.7406051f, 0.4879434f, 0.1869241f, 3.6650617f, -0.1017722f, -0.2215893f, -0.1788485f, -0.4719531f, 0.1371783f, -1.3293537f, 0.3395133f, -0.4348430f, -14.7331429f, -0.3879090f, 1.5462960f, 0.3419965f, -0.0009954f, -1.4018537f, -1.6632793f, -0.1548996f },
        { -1.0189152f, -1.5746113f, -8.3493357f, -0.1354765f, -1.4441940f, -0.0811008f, 0.9422564f, 7.1642847f, -1.2703549f, -0.8284185f, 1.6793807f, 3.5556033f, -1.4754041f, -1.8882978f, 3.6702549f, 0.5040334f, -0.0893510f, -0.0760898f, -0.2012954f, 3.4694562f, -3.8605196f, -3.6640255f, -0.8390027f, 6.9263377f, 1.1857946f, -0.6844621f, -3.2073171f, -19.6223850f, -0.1167250f, 1.6031259f, 2.2176993f, -0.2127482f },
        { -0.0836868f, -1.1096343f, -0.8252190f, -0.0462129f, -0.4108318f, -0.7832462f, -1.0282533f, -0.1982361f, 0.0851899f, 0.1825664f, 0.9032269f, 2.1442745f, 0.5945432f, 0.4290538f, -0.0994912f, -0.3103471f, -0.1778283f, -0.1113466f, 0.0963893f, -0.7708797f, 0.3630781f, -0.2999274f, 0.2289190f, -0.8306003f, 1.0661125f, -0.3995791f, -0.3900973f, -0.2440725f, 0.1227756f, -1.9350775f, 0.9614215f, -0.0336095f },
        { 1.6926113f, -0.0820583f, -0.1236937f, 0.0137293f, 0.4134083f, -0.2253948f, -0.1357408f, 0.3040646f, -0.3944826f, -1.2690084f, -0.9172219f, -0.7991880f, -0.6545886f, -0.3976714f, 1.3560369f, -0.1405857f, -0.1579744f, -0.0767477f, -0.0607931f, -1.5543199f, 0.4102000f, -0.0277234f, -1.7092639f, -2.1377842f, -0.8509186f, -0.7756952f, 0.3462344f, 0.7392035f, 0.0168845f, 0.0399327f, -0.9020168f, -0.0476021f },
        { 3.2089412f, -2.5937843f, -0.9637220f, -0.0329930f, -5.2725806f, -0.8273544f, 1.9488249f, -2.6811171f, -0.6135008f, -0.9977028f, -2.8672309f, 1.6365457f, -5.5301485f, -2.5277820f, -0.5357556f, 1.4785542f, -0.0893187f, 0.0402081f, -0.1211066f, 0.8222667f, 1.3992356f, 1.1823119f, 2.3373492f, -0.3225305f, 1.1465075f, 0.4427204f, -0.0693090f, 2.3818359f, -0.0355168f, 2.8409307f, -2.3342466f, 0.0464736f },
        { 0.1555479f, 0.5200723f, -1.7023919f, -0.1414376f, 0.3353024f, 0.4828974f, 1.1136378f, 0.6477147f, -0.0778423f, -1.4317623f, -0.9769466f, 0.3445067f, 1.7606375f, -1.0445075f, 0.0746043f, -4.4261832f, -0.1208113f, 0.0343730f, -0.2794504f, 1.2281263f, 1.2083594f, 0.7535186f, 0.8387854f, 2.2949772f, -3.8881848f, -0.7903339f, -0.3292456f, 0.8563195f, -0.0726259f, 0.4511974f, 1.7704992f, -0.1700741f },
        { -0.3496629f, -1.3922670f, -0.6620232f, -0.0852528f, -0.3197399f, 0.0814882f, -0.4039161f, 1.0037798f, 0.3345037f, 2.6314101f, 0.4615483f, -0.2084940f, 0.0040351f, -0.9805232f, 2.6957502f, 2.6515217f, -0.1529154f, -0.1473189f, 0.0594502f, -1.6348257f, 2.5070608f, 0.6292178f, -1.8761818f, -1.7219067f, 0.9396028f, 1.4910020f, 1.2009436f, 0.3129367f, -0.0482279f, -3.7244182f, 0.9997221f, 0.0589372f },
        { 0.2588292f, 0.1162001f, -0.3557130f, -0.1827756f, -0.0163347f, 0.1073380f, 1.7902234f, -0.7924788f, -0.2142219f, 2.1450527f, 0.0421626f, 0.7766820f, -0.2566899f, -0.8939403f, -1.3265706f, 1.2039839f, -0.1769588f, -0.1633390f, -0.1784531f, 0.3594597f, -0.9674286f, -2.6339798f, -0.2439736f, 0.2989931f, 1.2830759f, -0.3554155f, 1.8824505f, 0.6639722f, -0.2363476f, -0.0850794f, -0.1887224f, -0.0046777f },
        { 0.3578363f, -0.7359136f, 0.0200391f, -0.0693243f, 5.4578071f, -2.0769303f, -2.4063151f, 1.3061420f, 0.7953720f, -0.9290329f, -4.5486083f, 2.0598173f, 3.9354992f, 3.1424458f, -0.9579308f, -8.4711246f, -0.2501291f, -0.1903059f, 0.0383321f, 0.0488347f, 0.5408913f, 1.6283135f, 0.8811426f, -1.1737164f, -6.1722808f, -1.1982211f, 0.7600191f, -0.8004758f, 0.0124570f, 0.4330715f, -0.1606656f, -0.2383573f },
        { 0.1458908f, -0.1545207f, 0.3031370f, 0.1018648f, -1.7957892f, 0.0740674f, -0.4455232f, 1.0143704f, -1.0568596f, -0.2272265f, -1.6158727f, -0.4386893f, -1.0679212f, -0.2555520f, 0.0288498f, -0.2287199f, -0.0752045f, 0.0380360f, -0.2807788f, 0.6217235f, 2.0030057f, 0.5438355f, -0.9125152f, -0.8453168f, -3.3540757f, 0.1002566f, -3.8147156f, 0.5485938f, 0.0252921f, 0.0142520f, -0.3058451f, -0.0950995f },
        { 0.3425605f, 0.1059486f, -0.0112429f, -0.1340591f, -0.0499663f, 0.0540903f, -0.1137006f, -0.0488952f, 0.0245057f, 0.3051427f, -0.0792179f, 0.2123395f, -0.2577260f, -0.0326953f, -0.0733249f, -0.0801215f, -0.0048255f, 0.0275552f, -0.2136556f, 0.0305914f, 0.1988677f, -0.1287290f, -0.1874053f, -0.3924006f, 0.0349637f, -0.0512756f, -0.0308042f, 0.0061611f, -0.2797566f, 0.1898466f, -0.0204945f, -0.1247333f },
        { -3.2183404f, -0.0299920f, 3.7836995f, -0.0434443f, -0.1407875f, -3.5759850f, -8.0407286f, -5.8287120f, -0.9106498f, 1.3509640f, 1.1464460f, -2.9677777f, -1.2288204f, 1.9997381f, 1.8068358f, -0.6943150f, -0.0673785f, -0.0831361f, -0.0248167f, -2.2540579f, -0.9163962f, -3.1253183f, 1.6734108f, -1.5971106f, -3.5195537f, 1.5201470f, -1.0329920f, 2.6415639f, -0.1778118f, 0.0024519f, -1.7194482f, 0.1284092f },
        { -1.8525261f, 1.3715749f, 1.1194465f, -0.0409782f, -0.5879322f, 0.6219348f, 2.1959693f, -0.1652103f, -0.9677386f, 0.0693249f, -1.1816081f, 0.4314149f, -2.1145394f, 0.2722608f, 1.2494793f, 1.8098884f, 0.0495440f, -0.0436042f, 0.0457949f, 0.3183724f, 0.2494812f, 0.4527712f, 0.8711143f, 1.4343430f, 0.4812664f, -0.5877725f, -0.8672982f, -3.5359931f, -0.1649797f, 0.0295722f, 0.2949032f, -0.1468352f },
        { -0.4044901f, 0.2552125f, 1.2149416f, -0.0953365f, -0.4662695f, -0.3270889f, -0.6633080f, -0.4653002f, -0.4795558f, -0.5418344f, 2.2588556f, 0.8888122f, 1.2411915f, 2.3806129f, 0.3073832f, 1.3142078f, -0.1635146f, 0.0130591f, -0.0359132f, -1.7227437f, 1.2853914f, -1.1891779f, 0.3717113f, -1.2316507f, 0.7453952f, 0.2998935f, -1.4314150f, -0.4027052f, -0.2575939f, 0.5493309f, -0.2642976f, -0.0315717f },
        { -1.1774617f, 0.2267854f, -1.3490331f, -0.0168048f, 1.4913936f, -1.8589031f, 0.8363950f, -0.5766591f, -0.0022033f, 2.4406483f, -0.8230446f, 0.5272759f, -3.8992665f, -2.2303550f, -0.4154579f, -0.4814414f, -0.1575625f, -0.2384544f, -0.0466326f, -2.3469751f, 1.2637768f, 0.4879369f, -1.3220518f, -1.5389411f, 0.4080131f, 2.1491218f, 1.9992366f, -9.0571346f, 0.0414673f, 1.5275195f, -1.2803209f, -0.1048022f },
        { 0.2868316f, 0.2529201f, -1.0778091f, 0.0106606f, 1.8163863f, 1.8012416f, 2.7848814f, 0.4894545f, -0.0469492f, 1.1061324f, -0.1069591f, 1.0281824f, -6.3842025f, -13.7714224f, -0.2872078f, -1.2917813f, -0.2301912f, 0.0295332f, -0.2121574f, 0.4742255f, -0.8307264f, 1.5335037f, 0.3774292f, 2.2313468f, 0.9118373f, -2.5217397f, 0.0102776f, 0.7214848f, -0.1396625f, 0.3662953f, -0.5101219f, 0.0091051f },
        { 2.5628288f, -1.1542125f, 0.6834836f, -0.1172555f, 0.2215261f, -24.7763100f, 1.5817140f, 0.9285546f, 0.8882018f, -2.8224852f, -1.3310230f, -1.7015704f, -1.5181516f, -0.7354626f, -9.1011810f, 0.0969131f, -0.1905143f, -0.1527725f, -0.0275446f, 1.1693950f, -13.0982771f, 5.9365411f, -0.1916707f, 1.7978475f, -1.0999097f, -0.9400483f, 0.5531004f, 1.1170444f, -0.0341346f, -0.4220658f, -4.6898618f, -0.1045194f },
        { 1.9094412f, 1.4455307f, 0.1359067f, -0.0039922f, -0.5298946f, 0.0463787f, 0.8674327f, -1.5497407f, -0.6703220f, -0.6033304f, 0.2593637f, -0.7816077f, 1.7361264f, -0.6395140f, -2.2699478f, 2.1450329f, -0.0559941f, 0.0041609f, -0.2267027f, 0.2297489f, -0.3255168f, -1.2907356f, 0.1883146f, 0.2274862f, -0.2815443f, 0.6591487f, -1.4439526f, -0.5255921f, 0.0016221f, -0.2255606f, 0.1100133f, -0.0220314f },
        { -1.4787163f, -0.1816039f, 0.3029562f, -0.0820099f, -1.8240441f, 0.3992704f, -1.3351469f, -2.4438534f, -0.3669638f, -0.1119599f, 0.7921689f, -0.9859813f, -0.2678844f, 1.7933904f, 0.2890232f, -0.9448338f, -0.1651006f, -0.0180045f, -0.2505217f, -0.0242885f, -1.1829836f, -1.7658331f, 1.2300724f, 1.1929040f, 1.1379642f, -0.6730853f, -0.3211055f, -3.2813601f, -0.1426403f, 2.1346114f, 0.8273042f, -0.0115246f },
        { -1.0402607f, -3.0529425f, -31.7261772f, -0.0807201f, -10.3530922f, -6.7088370f, 0.4568202f, 3.4028120f, -0.9976764f, 1.1560639f, -4.0438147f, -5.4173827f, -11.3478251f, 7.4576168f, -5.2735753f, 4.8023715f, 0.1782422f, 0.0883295f, 0.0044052f, 0.0507280f, -23.1139812f, 2.3742006f, -8.2033987f, -2.6178980f, -0.5010366f, 1.4019603f, -5.6939826f, -24.2427959f, -0.0369156f, 1.5955502f, -19.2663956f, 0.0454489f },
        { 2.2623012f, -1.4615631f, -1.1377403f, 0.0093183f, 1.1915212f, -1.1758413f, 1.3283021f, 0.7225050f, -0.3490153f, 1.3581046f, -0.1332041f, 0.8507789f, 1.0747331f, -1.1149803f, -0.8904751f, -0.3653683f, 0.0163666f, -0.1918296f, -0.0570937f, 0.9086161f, -0.1568170f, -2.3397596f, 0.3775485f, 0.7866507f, 0.3514826f, 0.3712203f, 1.7989392f, 0.2994331f, -0.0354780f, -0.1310682f, 1.8994820f, -0.1288286f },
        { 0.9569150f, -1.7376313f, -1.2199662f, 0.0567871f, 1.9384429f, 0.2297657f, 0.0881514f, 0.8137479f, -0.1055434f, 0.5254852f, 0.2713931f, 0.7239365f, 0.1844324f, 0.3300937f, -1.6732594f, 1.4125156f, -0.1580040f, -0.1016256f, -0.2855395f, 0.5673821f, 0.4549721f, -0.4668991f, -2.2096286f, -0.7783458f, 2.3967333f, 1.2329416f, -1.1438401f, -3.8407106f, -0.0461138f, -2.4927216f, 0.2555771f, -0.0849964f },
        { 0.5888606f, 0.1776600f, -1.4087175f, 0.0346977f, -2.5928903f, 0.5830666f, 1.1414368f, -1.5577788f, -0.7209932f, 2.8299749f, -6.5391521f, 3.0729525f, -14.3048735f, -0.1412951f, -2.0272927f, 2.1521926f, -0.0380312f, -0.1538859f, 0.0585461f, 0.8383329f, -1.8802118f, -5.1031160f, -0.3157172f, -1.4560882f, -4.6481609f, 1.5691884f, -3.4716384f, 2.4423509f, -0.1913081f, 0.8607372f, -1.6194279f, -0.1252823f },
        { 1.5580580f, 0.6410906f, -2.4573157f, -0.1442170f, 0.4057963f, 0.9555090f, -1.9201115f, 1.9043775f, -0.3545631f, -2.1544573f, 1.6535562f, -0.0107755f, 0.6209339f, 1.4038484f, 0.9696000f, -3.9075875f, -0.1775463f, -0.0311708f, -0.1684410f, 1.5672681f, -0.4945789f, -0.4362517f, 0.4953932f, 1.7568808f, -0.6196339f, -1.3988428f, -0.4440024f, -0.4512076f, -0.2414198f, -0.5641038f, 0.4312852f, -0.1490979f },
        { 0.3136360f, 1.5202063f, 0.2639807f, -0.0196414f, -0.1123380f, -1.3030901f, -1.8976871f, 0.4526638f, -0.3951380f, -0.5180942f, -0.4250470f, -1.3302814f, -3.4115090f, -9.8942213f, -0.2069419f, -1.3404610f, 0.0440776f, 0.1120423f, -0.1999937f, 0.0982532f, 0.5018684f, 1.0969844f, -2.7514079f, 0.2038219f, -1.6458539f, -0.4363482f, -1.3044871f, -0.1380218f, -0.1206816f, -2.2965770f, 1.2156748f, -0.1013908f },
        { -0.1921981f, -1.4148456f, -0.4358237f, -0.0724075f, -0.8477807f, 1.6767207f, -0.2961558f, -0.2951592f, 0.3747650f, -0.0563345f, 1.8752865f, -0.8190956f, 0.3573841f, -0.7855014f, 0.5825014f, 0.5724625f, -0.2114211f, -0.1877846f, -0.2380910f, -0.4652783f, -0.9940729f, 0.8738497f, 0.1451392f, -0.0860823f, 0.1418602f, -0.5328000f, 0.4087959f, -0.6439514f, 0.0410239f, -0.2588451f, -0.4394983f, 0.1465673f },
        { -1.0030288f, 0.6688649f, 0.8960242f, 0.0619265f, -0.3121261f, 0.8569970f, -1.1085536f, -1.4790198f, -0.4278869f, -0.5028058f, -0.3743717f, -0.7336270f, 0.0132097f, -1.1104386f, -2.7577634f, -3.5016336f, -0.2876876f, -0.0709807f, -0.1099632f, 0.2205841f, -1.0848441f, 1.5135396f, -0.3520877f, -0.8757403f, -0.9976794f, 0.7317750f, -1.1620053f, 1.5105319f, -0.1376415f, -0.4922641f, -0.2617657f, -0.1552453f },
        { 0.0422665f, -0.0495245f, 0.1419297f, 0.1049438f, 0.1644129f, -0.0926421f, -0.0287220f, -0.0607521f, -0.0539328f, -0.1124566f, -0.0224327f, 0.0442570f, 0.0694929f, -0.1358832f, -0.0387448f, 0.1323178f, -0.0887818f, 0.0299113f, -0.1485060f, -0.1250242f, -0.1212411f, 0.0093203f, 0.1773864f, 0.0987962f, -0.0011264f, 0.0319819f, -0.0939169f, 0.1747891f, 0.1297601f, 0.0591203f, 0.0844299f, -0.0057583f },
        { -0.3774320f, -0.5251229f, -0.2268906f, -0.1763176f, 1.9990971f, 0.8534339f, -0.9922775f, -0.1967060f, 0.3898937f, 2.5323577f, -0.8573462f, 0.2533580f, -9.9178352f, 7.5197916f, 0.2406687f, 2.3157978f, 0.0433147f, -0.0239839f, 0.0431242f, 0.4452608f, -14.7378740f, -6.9902563f, 0.6164368f, -2.1495559f, -1.0302731f, 1.7370245f, -0.9935168f, -0.3527119f, -0.0642240f, -0.1745003f, -0.7557185f, -0.1207726f },
        { 1.7889122f, -0.6161480f, -0.0988599f, 0.0140635f, -0.0464033f, -0.2089513f, -0.4868561f, -0.5421805f, -0.1462399f, -0.7237604f, -2.0984931f, -0.5532081f, -3.3075161f, -0.0961695f, 1.2833321f, -1.7230951f, -0.3252653f, -0.0207833f, -0.1419488f, -0.2659928f, 1.2031157f, -0.1755439f, 0.7961558f, -0.1216825f, -3.6634645f, 0.4610223f, 3.9512274f, 0.9398257f, -0.1468351f, -0.1581532f, -0.4339114f, 0.0298850f }, //no rphi cuts
      //   { 1.2877305f, -0.8780892f, -0.1241868f, -1.2823534f, -3.2267320f, 0.0481035f, -0.1018890f, 1.1062918f, 1.2960465f, -0.2644927f, 2.5652070f, -0.2039298f, -0.0853989f, -0.9383948f, 0.7035879f, -0.8054559f, -0.1263901f, -0.2592764f, 3.0168214f, 1.0853218f, -3.1492412f, 0.4738094f, -1.5256100f, -0.4072143f, 1.2635601f, 2.4211552f, 2.7485666f, 1.2638628f, 1.2724332f, -2.1820748f, 2.3809805f, 0.5289161f },
      //   { -0.5842626f, 0.1899888f, 0.0007621f, -5.2197318f, 0.6578428f, -0.0968912f, -1.6610807f, 0.5333670f, -0.6252968f, -0.3573047f, -1.2079704f, -0.7098574f, 0.1023666f, -0.1959983f, 2.2499046f, 0.3560045f, -0.1027071f, -26.3941441f, -0.5030085f, 0.9114485f, 0.3999570f, -7.0520473f, -0.3948941f, -0.0761655f, 1.5498285f, 0.4690105f, 0.6351857f, 1.9929434f, 0.5080519f, 1.0568881f, -2.2221613f, -0.1125050f },
      //   { 0.8889472f, 1.1687276f, 0.0784153f, 0.2754465f, -0.2853636f, -0.1109105f, -0.5063801f, -2.1161342f, -0.4792116f, -0.2097770f, 0.7141552f, -0.8573131f, -0.0487448f, -2.9679670f, -0.7183164f, -0.3313039f, -0.1433832f, 0.2492862f, 0.7668738f, 0.5651965f, -0.0868920f, 0.4219218f, -0.8105409f, -1.2984852f, -0.4925302f, 1.5436330f, -0.0009159f, 0.4974945f, 1.2907125f, -1.0665653f, 1.0596217f, 1.3447766f },
      //   { 0.1615890f, -0.2611251f, 0.0991480f, -0.6782748f, -0.5933763f, -0.1704331f, -0.8044159f, -0.8822106f, -0.9591122f, -0.0460499f, 0.0105755f, -1.3640193f, 0.0654245f, 0.0661252f, 0.5144793f, 0.5045331f, -0.1592827f, -1.3558199f, 0.0662061f, 1.1141225f, -1.8897711f, -2.7015650f, 0.1969698f, 0.1392630f, -0.6878058f, -0.3175113f, -0.7089334f, 0.9779747f, 0.6698104f, -2.0146756f, 0.3473723f, -0.9987713f },
      //   { 0.7688403f, 0.0829218f, -0.1408837f, -2.1653650f, -1.5412110f, 0.0186529f, -0.8773425f, 0.4567574f, -1.4225056f, -0.1513356f, -0.2059338f, -2.1679873f, 0.0503856f, -1.0717963f, 0.9475843f, -1.0681485f, -0.1449194f, -19.7100315f, -0.2445858f, -0.5129013f, 0.1157696f, -0.9782256f, 2.9585035f, -0.0308283f, 1.4660696f, -1.6880894f, -1.5363263f, -0.1675388f, -0.9926441f, -0.4664228f, 1.2812619f, -3.8025441f },
      //   { 0.6169270f, -0.7427440f, -0.2376913f, 0.4276588f, -0.2453503f, 0.0190598f, 1.0405701f, 1.0528710f, 0.1698834f, -0.1941380f, 0.3852713f, -0.8892708f, -0.3075839f, 0.2208544f, 0.0850136f, 1.7685183f, -0.0524249f, -0.0486358f, -0.4001807f, 0.1629616f, 0.1451277f, -2.0818768f, -0.7114344f, -0.4539455f, -1.2916038f, -0.4328438f, -1.1360116f, 0.2374015f, -0.1466549f, 0.3974407f, -0.4575522f, -0.0249706f },
      //   { -1.3211203f, 0.5379648f, -0.2515677f, 1.4454982f, 2.3660774f, -0.1890010f, 1.0816685f, -3.0444577f, 0.8337848f, 0.0670352f, 1.0559639f, 2.8396447f, -0.1535973f, 1.9764262f, 0.2558690f, 2.6300373f, -0.0044959f, -5.0914536f, -0.9725896f, 0.0258799f, -0.0447092f, -0.5532556f, 1.1258339f, 0.5234547f, 0.2069001f, -2.1339171f, 0.1730822f, 0.7194931f, 0.4515975f, 0.3784792f, -1.3063502f, 2.1703360f },
      //   { -0.0183339f, -3.2295461f, 0.1134202f, -4.2489562f, -0.1597074f, -0.1457699f, -1.6318798f, -1.4810683f, 0.6440794f, -0.0664009f, 1.1885263f, 1.0309123f, 0.0728722f, -3.0895913f, -1.4422140f, -0.2598611f, -0.1453270f, -3.1847641f, -0.1400174f, 1.4704788f, -0.0129262f, 0.8986750f, 0.5069987f, 0.9254576f, 0.1799805f, -0.2557044f, 0.0036905f, -0.0390909f, 1.9045533f, -0.2586451f, -0.5743843f, 0.1105114f },
      //   { -1.0605477f, 0.1860717f, -0.0995234f, 0.8871427f, 0.3216574f, 0.0550751f, 0.8227897f, 0.4686464f, 1.0244399f, -0.0130097f, -0.5083588f, 0.8201926f, -0.0567276f, 0.8310522f, 1.0505168f, -0.3058967f, -0.0389481f, 1.2053018f, -0.1368480f, -1.4824047f, 0.3335258f, 0.9246345f, -0.6389814f, 0.3661807f, 0.5429465f, -0.3026558f, 0.1598484f, 0.5710358f, -2.4738216f, 0.0939990f, -0.6444077f, -0.1074310f },
      //   { -0.0252662f, 0.0793499f, -0.0676348f, 0.0693491f, -0.1211133f, 0.1233640f, 0.1177151f, -0.1582433f, -0.0144064f, 0.0689303f, -0.0756068f, 0.1501403f, -0.1739395f, 0.0829833f, 0.0977378f, -0.0755348f, 0.0159043f, -0.0253154f, 0.0036299f, 0.0559447f, -0.1248365f, 0.0635280f, 0.0923216f, 0.1758882f, 0.1105465f, 0.0589491f, 0.1265305f, 0.1715915f, -0.1730199f, -0.0051064f, -0.0228983f, 0.0111760f },
      //   { -0.6188684f, 3.1919584f, 0.0800200f, -0.2342340f, -2.1842661f, 0.0799018f, -1.4115261f, 2.1676741f, -0.8421214f, -0.8603151f, -0.3345892f, -1.5144321f, -0.0146042f, 0.7378902f, -0.0248560f, -0.6893092f, -0.1969643f, 1.8864896f, -0.7952150f, -1.4336369f, 0.2912276f, -0.4537378f, -4.0361357f, 0.6241513f, -1.8430642f, 0.7349338f, -0.9476682f, 0.3436976f, -1.2608135f, -1.1441101f, -0.0816893f, 0.8241739f },
      //   { 3.2108424f, -0.6173142f, 0.0333440f, -4.6410351f, 1.3163619f, 0.0908892f, -2.9046590f, 0.5219833f, -2.1510167f, -1.3458533f, 0.4866562f, -1.2313914f, -0.0691995f, -1.7965255f, -0.8598986f, -1.1248420f, 0.0219374f, 0.7975124f, -5.8799629f, -7.9546986f, -0.0913763f, -8.7579508f, -2.4663129f, -0.5799592f, -3.2524526f, -0.7314392f, -0.3218890f, 3.6006842f, 0.1237126f, 0.4826562f, -2.2611878f, 2.9627345f },
      //   { -0.0068139f, -0.1334841f, 0.1383338f, -0.0782906f, -0.0531055f, 0.1137988f, -0.1061472f, 0.1711092f, -0.1664409f, 0.1412038f, -0.0957045f, -0.1028843f, 0.0775458f, -0.1304731f, 0.1746466f, -0.0595900f, 0.1607790f, -0.0654829f, -0.1351213f, 0.0340478f, -0.1496930f, 0.0723751f, -0.0281655f, 0.0001735f, -0.0448753f, 0.0354473f, 0.1010929f, 0.1258033f, 0.1315531f, 0.1171999f, 0.0710371f, 0.1688738f },
      //   { -3.9116817f, 1.8499420f, -0.1672609f, 1.4869215f, 1.0422246f, -0.1743530f, 1.2476521f, -0.4807368f, -3.0191319f, -0.0975019f, -0.0444464f, 1.2758031f, -0.1121267f, -0.7812535f, 2.1944604f, -0.6646715f, -0.1832850f, 1.7093472f, -3.4278681f, 1.1517422f, 0.6808757f, 1.4039003f, 0.9518641f, -0.2146066f, -0.5493402f, -0.5183574f, -1.4209278f, 1.6789038f, 0.0892838f, 2.1061988f, -3.2049129f, -0.0154474f },
      //   { -0.8726181f, -1.9199108f, -0.2352557f, -2.2674239f, -0.5111394f, -0.1261889f, 0.1834954f, 1.4126173f, -0.3394993f, 0.0010487f, -0.6163445f, -1.1445050f, -0.0176149f, 1.9927558f, -0.0478808f, -0.3813858f, -0.1069128f, -1.0292270f, -1.7917433f, 0.4080889f, 2.1405854f, 0.4054772f, -0.6744004f, -0.6684781f, 0.0849450f, -1.0621258f, -1.5431175f, -0.9418243f, -0.4400783f, -1.9931813f, -0.7465983f, 0.8176118f },
      //   { 0.0329623f, -1.8902568f, -0.1181455f, 1.1050252f, 0.5681942f, -0.1372088f, -0.0660272f, -0.5389622f, 0.8397890f, -0.4356686f, -2.6517870f, 0.0691394f, -0.2232228f, -1.2428327f, 0.8763119f, -0.9569351f, -0.0056379f, 0.5362018f, 0.7177108f, -0.4291155f, 1.7094195f, 0.7458884f, 0.9267886f, -0.6869412f, 1.2243277f, 0.4362246f, -2.4322476f, -0.4245412f, -2.0100250f, -5.2298779f, -1.3607167f, 0.0223315f },
      //   { 0.2478412f, 0.4924254f, -0.0861576f, 0.2509632f, 0.1040204f, 0.0310169f, 0.0141724f, -0.3627775f, 0.2060521f, 0.0272452f, -0.2563236f, -0.2496585f, 0.0297938f, -0.1944043f, 0.3494678f, 0.0504233f, -0.1526928f, -0.1501662f, -0.3156241f, 0.0549808f, -0.2007020f, -0.0404132f, -0.3419240f, -0.2016937f, 0.2815395f, -0.2962612f, 0.0953585f, -0.0268298f, 0.1296929f, -0.1102497f, 0.1215200f, 0.1889757f },
      //   { -0.1779515f, 1.5872653f, -0.0108607f, -1.8026912f, -0.1379801f, 0.0873897f, -0.0967610f, -0.2426779f, 0.0229108f, -0.0050234f, -0.1859252f, 0.2187557f, -0.2345692f, 0.1285882f, 0.2628110f, -0.0534460f, 0.0312820f, -0.2195881f, -0.1992863f, -0.7745004f, -0.5105340f, 0.9212413f, -0.0287988f, 0.2897230f, 0.4858956f, 0.4279889f, 0.1165302f, -1.8518022f, -0.6017433f, 0.1039374f, 0.1401073f, -0.8330758f },
      //   { 0.5249943f, -1.0856013f, -0.1415839f, -0.7208733f, -1.3337635f, -0.0472342f, -0.2168136f, -3.1971958f, -0.4786205f, 0.1228231f, 0.5205183f, 0.8511414f, -0.1181924f, -0.2332593f, -0.2486695f, -1.5530223f, -0.0932633f, -0.8842301f, 0.2897140f, -1.4924388f, -0.3520135f, -1.7004356f, 1.3020881f, -0.3048638f, -0.6062769f, 0.5656566f, -0.5191906f, -0.1790137f, 1.0633801f, 1.2640432f, 0.3853250f, 0.2298285f },
      //   { -1.9389884f, 1.9571532f, -0.2123703f, -0.0885053f, 1.3258270f, -0.0146784f, -1.1184222f, 0.4514216f, -1.1001734f, -0.2868146f, -0.0993579f, 0.9013879f, -0.1045103f, -0.5909786f, -1.0122504f, -0.4170931f, -0.1825630f, 0.5341387f, -0.3912985f, 0.2861757f, 0.0119157f, 0.7308581f, 0.5597734f, 1.9492446f, 1.6627204f, 1.6700555f, -0.5707526f, 1.1073341f, 0.5354921f, 0.5084319f, 0.6375198f, -0.9607426f },
      //   { 0.8953936f, -0.2295472f, -0.2695782f, 0.3703838f, -0.6879797f, 0.1262050f, -0.0786370f, 0.8081335f, 0.2657262f, 0.0289829f, 0.7112098f, 1.4644814f, -0.1632040f, 0.0861628f, 1.4207145f, 1.2237432f, -0.1406931f, 1.1226081f, 1.3438935f, -0.6059774f, -1.1042585f, -0.8082547f, 0.2524218f, 0.5997027f, -1.7637595f, 0.5311716f, 1.5043762f, 1.2163690f, 0.8890061f, -1.5730913f, 0.6463301f, 0.2052766f },
      //   { 0.3965960f, -1.9652522f, -0.1880720f, -1.2639287f, -1.9718493f, 0.1088783f, -0.1576711f, 0.5200996f, 2.0122569f, -0.1411538f, 0.4994059f, 0.6174039f, -0.1303585f, 1.2119787f, -0.4614539f, -1.1719468f, -0.1861856f, 0.3810578f, 0.2467731f, 0.0319608f, -0.4418791f, -0.1854836f, 0.0602757f, 0.9324246f, -0.6497554f, 0.1967768f, 0.1625267f, -0.2100906f, 0.2011075f, 0.1042414f, 1.1402677f, -1.6419307f },
      //   { 0.0793555f, -0.1321226f, -0.0972786f, 0.0216358f, -0.1742275f, 0.1044437f, 0.0364000f, -0.0617971f, 0.0500924f, -0.0235158f, -0.0128080f, 0.1029611f, -0.1036319f, -0.1624317f, 0.0394073f, 0.1010830f, -0.0086177f, 0.1466329f, 0.0049746f, -0.0904038f, -0.1737027f, 0.0969629f, 0.0734793f, 0.0713070f, -0.1261963f, -0.0021006f, -0.0872503f, 0.0309385f, 0.0870529f, -0.1213354f, -0.1724318f, 0.0102826f },
      //   { 0.2694910f, 0.2895497f, -0.1584606f, 1.7292088f, -0.1504674f, -0.1843622f, 1.2703199f, 0.6306832f, 0.1649259f, -0.0899436f, 2.5174096f, 1.2955606f, 0.0190600f, -0.2881311f, 0.5670279f, 1.1767045f, 0.1445674f, 1.5574501f, -1.0748186f, -0.5247688f, -1.3868833f, -2.7402735f, -0.0345889f, 1.1301312f, 0.1503572f, -0.0192778f, 0.5851217f, 1.3615594f, 0.2685633f, -3.5058565f, 0.4956509f, -0.6996775f },
      //   { -0.6718978f, 1.6707212f, -0.0173957f, 0.4658113f, 0.3658003f, 0.0308925f, -0.4432723f, -0.3289362f, -1.3378854f, 0.1835286f, 0.1661979f, -1.0058739f, 0.0215577f, -0.1517466f, -0.2039436f, 0.3757862f, -0.0914026f, 0.0265434f, -0.1593114f, -0.6497657f, 0.6019408f, -1.2367231f, -0.1676716f, -1.0815085f, -0.3487007f, -0.7395794f, 0.8674003f, 0.9604960f, 0.5872694f, -0.1972731f, -0.2616588f, -0.2527108f },
      //   { 0.1740439f, 0.2620192f, -0.0479708f, -0.0758441f, -0.0396818f, 0.1530316f, 0.1164878f, -0.0745710f, -0.1536160f, -0.0073993f, 0.1043103f, 0.0228347f, -0.0337672f, -0.1774571f, 0.0175622f, -0.1471975f, -0.0975382f, -0.2554538f, -0.0078282f, 0.1380729f, -0.0522706f, 0.0498266f, -0.1565803f, 0.0553171f, -0.0285118f, -0.1216820f, 0.0550352f, -0.1021010f, -0.0907773f, 0.1357533f, 0.0276136f, -0.0087127f },
      //   { 1.0193251f, -1.5530696f, -0.2619285f, 0.8397450f, -0.1007909f, 0.0420555f, -0.3219033f, 0.4454281f, 1.4390619f, -0.0068365f, 0.1464884f, 1.1106451f, -0.0786219f, -0.1369733f, 0.6071262f, 0.0985087f, -0.1692514f, -0.0907212f, 1.8478781f, 0.5133039f, -1.7711252f, -1.2388496f, 1.2780315f, 0.7006325f, -1.7808566f, 1.0144904f, 0.4817482f, -0.0839524f, -0.1559101f, -0.8596953f, 1.3259374f, -0.7023036f },
      //   { 0.9903569f, -3.4749792f, 0.0560626f, 0.1836823f, -1.5921594f, -0.0191704f, -0.4974979f, -0.6508392f, -1.0181594f, -0.3266085f, -0.2344907f, 0.7208728f, -0.0111154f, -0.2406519f, -0.3702911f, 0.0642190f, -0.0127033f, -0.9719067f, -0.2455851f, 0.1529635f, -0.2936590f, 0.1036420f, 1.4421768f, 0.4325560f, -0.3888652f, 0.6694349f, -0.7397406f, -1.1337674f, 0.1293555f, -0.3327336f, -0.0384052f, -3.5366297f },
      //   { -0.1246513f, -2.6970639f, -0.0915623f, 0.7144130f, 0.4293877f, -0.1992816f, -0.3674561f, -2.1914494f, 2.4797308f, -0.3093986f, -1.4918786f, -0.1542354f, 0.1073897f, 2.2365499f, -1.6951216f, -0.9203959f, -0.1473823f, 0.1278139f, -0.1633654f, 0.9579786f, 1.3804909f, -0.2222203f, 0.5646338f, -2.6804724f, 1.0782521f, -0.0916998f, -2.6729321f, 1.6763169f, 3.6598701f, -0.9585158f, -1.8265661f, -1.3823979f },
      //   { 1.1265639f, 0.7543579f, -0.0431485f, -0.4285276f, 0.7936105f, -0.0838081f, -0.1461856f, -0.5275739f, 1.1867204f, -0.1700064f, -0.0526137f, 0.5610328f, -0.0131747f, 0.3854634f, -1.6959924f, 0.1512392f, 0.0595685f, -2.7468126f, -0.3095979f, -1.2457210f, -0.5217927f, -0.5196040f, 0.6005726f, -0.2892584f, 0.0787609f, 0.9901021f, 1.7383091f, -1.4840499f, -10.9174690f, -0.2664831f, 1.6304866f, 1.8400185f },
      //   { -2.0667870f, -0.2869844f, -0.2086701f, 0.4207138f, 0.1604220f, -0.1024129f, 0.8743069f, 0.1304047f, -0.6341941f, -0.3197663f, -2.8610275f, -1.8628817f, -0.1062771f, 0.9887632f, 0.1036063f, 0.0591062f, -0.1241856f, -0.0674201f, -0.6965919f, -0.6109211f, 2.3228390f, -0.0251353f, -0.6616625f, -0.8946905f, 1.3829606f, -3.1190987f, -2.1059492f, -0.2833750f, -3.9323585f, -5.7738104f, -2.0116534f, -0.5221998f },
      //   { -1.4064934f, 0.4347422f, 0.1054962f, 2.8944879f, 1.9223465f, 0.1148394f, 2.3273084f, -6.3282933f, -1.0152657f, 0.6207799f, -0.4449032f, 3.1994135f, -0.1075317f, -4.1936932f, -1.3295840f, 2.9629943f, 0.0612786f, 2.1544182f, -1.9759331f, 1.7976038f, -1.3264604f, -1.0239638f, -2.7076046f, 6.4079285f, 3.1237197f, -2.1790445f, 0.6038018f, -1.3183448f, 1.1724991f, 1.9313378f, 0.2270296f, -0.9704868f }, //no rphi, w downsample 
    };

  ALPAKA_STATIC_ACC_MEM_GLOBAL const float bias_output_layer[1] = {
        // 0.2333759f };
        -0.1224457f }; //no rphi cuts
      //   -0.7674266f }; //no rphi w downsample

  ALPAKA_STATIC_ACC_MEM_GLOBAL const float wgtT_output_layer[32][1] = {
        // { -0.6568782f },
        // { -0.2697344f },
        // { -0.8084639f },
        // { -0.3736290f },
        // { 0.0146875f },
        // { -0.0578945f },
        // { -0.3023868f },
        // { -0.0235427f },
        // { -0.9176538f },
        // { -0.7038375f },
        // { 0.2141852f },
        // { -0.4009866f },
        // { -0.8576365f },
        // { 0.3390130f },
        // { -0.0730153f },
        // { 0.0226461f },
        // { 0.2734031f },
        // { 0.3554467f },
        // { 0.3227238f },
        // { 0.3432630f },
        // { 0.4630048f },
        // { 0.3349477f },
        // { -0.0118172f },
        // { 0.2846078f },
        // { -0.7078885f },
        // { -0.0057278f },
        // { -0.3829500f },
        // { -0.5599277f },
        // { 0.3224638f },
        // { 0.2571660f },
        // { -0.4919220f },
        // { -0.6436714f }, //with rphi
        { -0.3064283f },
        { 0.3031316f },
        { -1.1626245f },
        { 0.0175291f },
        { 0.3556281f },
        { 0.1519665f },
        { 0.5724543f },
        { -0.6865000f },
        { 0.0081207f },
        { -0.3485700f },
        { 0.4414026f },
        { -0.3018655f },
        { -0.4888503f },
        { -0.5738689f },
        { 0.3716189f },
        { -0.4287299f },
        { 0.0057843f },
        { 0.0366689f },
        { -0.0141424f },
        { 0.4166862f },
        { -0.6126550f },
        { 0.2859102f },
        { 0.2620857f },
        { -0.7015869f },
        { -0.3591598f },
        { 0.2699327f },
        { 0.5243443f },
        { -1.3437402f },
        { 0.0707000f },
        { -0.2326804f },
        { 0.3834419f },
        { 0.0726792f }, //no rphi cuts
      //   { 0.4635612f },
      //   { 0.7302299f },
      //   { 0.0202098f },
      //   { -0.5772489f },
      //   { -1.3888847f },
      //   { 0.0560420f },
      //   { 0.3539616f },
      //   { -0.4149905f },
      //   { 0.4092595f },
      //   { 0.0445469f },
      //   { -1.7745633f },
      //   { 0.8205778f },
      //   { 0.0024954f },
      //   { -0.4486902f },
      //   { 0.3735099f },
      //   { 0.3428736f },
      //   { 0.0480250f },
      //   { -0.7077781f },
      //   { -1.1150702f },
      //   { 0.3161369f },
      //   { -1.7093852f },
      //   { 0.5504112f },
      //   { -0.5004860f },
      //   { -0.6535057f },
      //   { 0.4209792f },
      //   { -0.8768104f },
      //   { -1.7016610f },
      //   { 0.4382989f },
      //   { 0.8040862f },
      //   { -1.4762197f },
      //   { 0.8467159f },
      //   { 0.4401425f }, //no rphi, w downsample
    };

}  // namespace ALPAKA_ACCELERATOR_NAMESPACE::lst::pt4dnn

#endif