#ifndef RecoTracker_LSTCore_src_alpaka_T3EmbedNetworkWeights_h
#define RecoTracker_LSTCore_src_alpaka_T3EmbedNetworkWeights_h

#include <alpaka/alpaka.hpp>

#include "FWCore/Utilities/interface/HostDeviceConstant.h"

namespace ALPAKA_ACCELERATOR_NAMESPACE::lst::dnn::t3embdnn {

HOST_DEVICE_CONSTANT float bias_fc1[32] = {
0.0028091f, 0.1505213f, 0.0252417f, 0.0262904f, -0.1692538f, 0.0981367f, 0.0167780f, 0.0067659f, -0.0827984f, -0.2289426f, 0.1330500f, 0.0929082f, -0.0908474f, 0.0145047f, -0.0957639f, -0.0583534f, -0.2469842f, 0.0242294f, -0.1934866f, 0.1293170f, 0.0874481f, -0.2626763f, 0.1723243f, -0.1628695f, -0.0108079f, 0.2082279f, 0.0382167f, -0.1020441f, -0.0866014f, -0.0955548f, 0.1401387f, 0.0263438f };

HOST_DEVICE_CONSTANT const float wgtT_fc1[16][32] = {
{ -0.8543863f, -0.6425889f, -0.8260100f, -0.4157428f, -0.1222019f, 0.6577790f, -0.6734275f, 0.3722030f, 0.8364322f, 0.0816652f, 0.7255362f, -0.3933964f, -0.8481200f, 0.5634401f, -0.0650098f, 0.1197719f, -0.1649167f, -0.4486338f, -0.0263294f, 0.7637396f, 0.4502917f, 0.3176738f, 0.6132770f, -0.0670073f, 0.0666976f, -0.5517905f, -0.4822672f, -0.5412658f, 0.5523399f, -0.2092899f, 0.0880845f, 0.6032891f },
{ 0.3546231f, -0.3261374f, -0.2657959f, -0.3098474f, -0.1355551f, 0.2089720f, 0.1810012f, -0.4445657f, -0.4409418f, -0.0541445f, -0.0066876f, 0.2714493f, 0.0533624f, 0.3854442f, -0.0825811f, 0.3144581f, 0.0047219f, -0.3241340f, 0.3077528f, 0.4644432f, 0.3376474f, -0.2712815f, -0.4502708f, -0.2461690f, 0.0168019f, 0.0775076f, 0.2107765f, -0.0203665f, 0.3820268f, 0.0651276f, 0.4856664f, -0.4574239f },
{ -0.2332322f, -0.1113684f, 0.3211576f, 0.4210289f, -0.2972178f, 0.3844084f, 0.4579971f, -0.4206951f, 0.1021439f, -0.1848332f, 0.0181852f, -0.1901486f, -0.0437963f, -0.0248870f, 0.2045912f, -0.1030989f, 0.2132013f, 0.4018529f, -0.4401685f, 0.2501694f, 0.1226033f, 0.3062734f, -0.1853934f, -0.1202451f, 0.0065740f, 0.3978469f, -0.3609472f, -0.4923242f, 0.0080762f, 0.2850572f, 0.3811772f, 0.2111861f },
{ 0.0391049f, -0.2579527f, -0.0682829f, -0.1736144f, 0.0967523f, 0.0183479f, -0.1248073f, 0.2005903f, 0.1671235f, 0.2137636f, 0.3621447f, 0.0674550f, -0.3746682f, 0.1219026f, 0.0324737f, 0.1173210f, 0.0219599f, -0.0875151f, -0.1787566f, 0.0130948f, -0.0302907f, -0.1048136f, 0.0565366f, -0.0227592f, -0.0509605f, -0.0531430f, -0.1819883f, -0.2044381f, 0.1047599f, 0.1492692f, -0.1224223f, 0.1508597f },
{ -0.0481666f, -0.3660913f, 0.0240970f, 0.1398095f, 0.0203742f, -0.0564662f, -0.0074080f, -0.1448202f, -0.0835573f, -0.0544466f, -0.6564983f, -0.0381376f, -0.7581723f, -0.0168886f, -0.0193446f, 0.2066696f, -0.2199689f, -0.0115401f, 0.0660526f, -0.0818170f, -0.0285874f, 0.1836443f, 0.0628023f, 0.1196206f, -0.2332489f, -0.0147074f, -0.0570563f, 0.0916885f, -0.0204035f, 0.0410247f, 0.0752033f, -0.2034129f },
{ -0.7457038f, -0.8138722f, -0.6266347f, -0.2377066f, 0.3492835f, 0.0634357f, -0.9608363f, 0.4100440f, 0.6380323f, 0.1208822f, 0.6506239f, -0.4263405f, -0.5281221f, 0.6989167f, -0.1166544f, 0.0776558f, 0.1009289f, -0.3530892f, 0.1592289f, 0.2064912f, 0.0907292f, -0.2049340f, 0.5390073f, 0.0195208f, 0.1146729f, -0.7206127f, -0.7247865f, -0.1451701f, 0.4881067f, -0.2815905f, -0.1304206f, 0.3375945f },
{ 0.5746029f, -0.5264847f, 0.0836192f, -0.0750406f, -1.2081038f, 0.1095183f, 0.3704244f, -0.3528204f, 0.3171077f, -0.1605546f, 0.4135787f, -1.0142192f, 0.1496704f, 0.2059867f, -1.4922037f, -1.4959048f, -0.0313470f, -1.0522463f, -1.6031106f, 0.3665115f, -0.6974942f, -0.9105019f, 0.0486558f, -1.4170703f, -2.0920620f, -0.1996145f, 0.3420205f, -0.3087669f, -0.7032317f, -1.3127742f, -1.0087390f, -0.9614089f },
{ 0.0825254f, -0.3139786f, -0.1571958f, -0.0496270f, -0.0214494f, 0.0274781f, -0.0534851f, 0.4228605f, 0.3210647f, 0.0865703f, 0.4075367f, 0.0527676f, -0.1597324f, -0.0248523f, -0.0356416f, 0.0109226f, -0.1416035f, -0.0223855f, -0.1441800f, -0.0847757f, -0.0687807f, -0.1331954f, 0.1818397f, -0.0696301f, -0.0758623f, -0.0139399f, -0.0257551f, 0.0315001f, 0.1310365f, -0.0143340f, -0.1711493f, 0.2257956f },
{ 0.0878763f, -0.1622068f, -0.1579079f, 0.2138009f, 0.4552040f, -0.0655646f, -0.0693632f, 0.1599367f, 0.1360903f, -0.1573081f, -0.7661828f, 0.1459336f, -0.4396310f, -0.2197656f, 0.1986100f, 0.4026041f, 0.1327721f, -0.0290103f, 0.1887840f, -0.1161129f, 0.0777354f, 0.2105346f, -0.1192979f, 0.1039670f, -0.0839928f, 0.0292744f, 0.0016943f, -0.0098284f, 0.1444576f, 0.3080052f, 0.3497847f, -0.1306007f },
{ -0.1015932f, -0.2995651f, -0.5011843f, -0.2500483f, 0.0645996f, -0.1098709f, -0.1194134f, 0.3727059f, 0.4311513f, 0.1693710f, -0.1451559f, -0.2273974f, -0.7367058f, 0.3790954f, 0.0353136f, -0.2235893f, 0.2383086f, -0.0818118f, 0.0186703f, 0.0273156f, -0.0983360f, -0.2239584f, 0.4754722f, 0.0181264f, -0.0292382f, -0.4072846f, -0.3189422f, 0.1594306f, 0.3477355f, -0.2416632f, -0.2725795f, 0.4117567f },
{ 0.4042324f, -0.5701464f, 0.1747771f, -0.3258708f, -0.9646136f, 0.0420550f, -0.1990571f, -0.5975482f, 0.3301451f, 0.1642240f, -0.0001469f, -0.7324733f, -0.1295776f, 0.0152793f, -1.1166161f, -0.9416072f, 0.1804218f, -0.9843138f, -1.4032217f, 0.4247282f, -0.5583989f, -0.7034521f, 0.4799426f, -0.9430990f, -1.4956174f, -0.4434874f, 0.0836986f, -0.1764189f, -0.5688837f, -1.1201396f, -1.0778466f, -0.7799871f },
{ -0.0600986f, 0.1351442f, -0.1961413f, -0.0009270f, 0.1215744f, -0.0540447f, 0.0356614f, 0.0435219f, 0.4012394f, 0.1037867f, 0.4002499f, 0.2457251f, -0.1203343f, 0.0126424f, -0.0099688f, -0.2674747f, -0.2346101f, -0.1136481f, 0.2102603f, 0.2416449f, -0.0084565f, -0.1261401f, -0.0089464f, 0.1718388f, 0.0059656f, -0.1995537f, -0.1688065f, -0.0008399f, 0.1865278f, 0.2287317f, -0.1515193f, -0.1298637f },
{ 0.0490581f, -0.1001816f, 0.1688680f, 0.4513857f, 0.4347042f, 0.2690301f, -0.2795185f, 0.2515471f, 0.0684854f, 0.1377581f, -0.6954351f, 0.4677491f, -0.4635805f, -0.1236259f, -0.4173694f, 0.1573608f, -0.0337335f, 0.0307593f, -0.2047904f, 0.0327854f, 0.2672815f, 0.2685053f, -0.1551883f, 0.0363166f, -0.2874248f, 0.1789172f, -0.0655965f, -0.0140611f, -0.0681469f, -0.1455314f, 0.1328696f, 0.0833317f },
{ -0.0558297f, -0.1392428f, -0.0135939f, -0.0265362f, -0.0092789f, -0.0078154f, 0.0362485f, 0.0368153f, 0.0010022f, -0.2141241f, -0.1341954f, -0.0555601f, -0.0518150f, 0.0185145f, 0.0667195f, -0.0934170f, -0.1933572f, 0.0660676f, 0.0296061f, 0.0011139f, -0.0112628f, -0.0140997f, -0.0189063f, -0.0033473f, 0.1459321f, -0.0587525f, 0.0337116f, 0.0736779f, 0.0615130f, 0.0132175f, -0.1509960f, 0.0707678f },
{ -0.4508455f, 0.3362781f, -0.1674949f, 0.0373749f, 1.2565935f, -0.2761677f, -0.1887301f, 0.7604374f, -0.2473201f, -0.0047601f, 0.1839080f, 1.1076344f, 0.1695865f, -0.1139921f, 1.3117411f, 1.1510391f, -0.1715716f, 1.0601726f, 1.4388623f, -0.3228241f, 0.6823804f, 1.0674900f, 0.0343861f, 1.1752986f, 1.9059918f, 0.1448995f, 0.0643851f, 0.1660730f, 0.5667911f, 1.0054650f, 0.6863253f, 0.9158914f },
{ 0.0036753f, -0.0049976f, 0.0063864f, 0.0099152f, -0.0102732f, -0.0042961f, -0.0056091f, -0.0081080f, 0.0011388f, -0.0436380f, 0.0003613f, 0.0071866f, 0.0065905f, 0.0064090f, 0.0071799f, 0.0051749f, 0.0976885f, 0.0056232f, -0.0128756f, -0.0153566f, -0.0003211f, 0.0023519f, -0.0010946f, 0.0012838f, 0.0078916f, -0.0089370f, 0.0022073f, -0.0030430f, 0.0011208f, 0.0051576f, -0.0038206f, 0.0017512f },
};

HOST_DEVICE_CONSTANT float bias_fc2[32] = {
0.2110834f, 0.2188636f, 0.0884307f, 0.2385974f, 0.1447448f, 0.3152669f, 0.2470012f, 0.2577205f, 0.2495047f, 0.3750693f, 0.3327840f, -0.1431980f, 0.2766288f, 0.1524284f, 0.2656667f, 0.1350341f, 0.0669505f, 0.2815452f, 0.2579012f, 0.1949992f, 0.2524819f, 0.2482773f, 0.1549516f, 0.3692502f, 0.3435593f, 0.1933261f, 0.1610225f, 0.1048386f, 0.2295719f, 0.0702639f, 0.2577477f, 0.3494481f };

HOST_DEVICE_CONSTANT const float wgtT_fc2[32][32] = {
{ -0.0811455f, 0.0961309f, -0.2366149f, -0.0018951f, -0.0393863f, -0.1215505f, -0.0771759f, 0.0048113f, -0.7034475f, -0.1232063f, -0.6599995f, -0.1486618f, -0.1810926f, -0.2109943f, -0.4056262f, -0.1764363f, -0.2628493f, -0.0673842f, -0.5808213f, -0.2546150f, -0.8118782f, 0.1163140f, 0.0106993f, -0.0649534f, 0.0107526f, -0.6094427f, -0.0717046f, 0.0905870f, 0.0516466f, 0.1056176f, -0.0366792f, -0.0145662f },
{ -0.0762836f, -0.0643019f, -0.6027509f, 0.0849686f, -0.0194873f, 0.0718597f, 0.0881640f, -0.0382332f, -0.4581943f, -0.1033040f, -0.1109195f, -0.0115980f, -0.5163639f, -0.4088897f, -0.1245389f, -0.6523220f, -0.7436269f, 0.1755972f, -0.2009050f, -0.8408753f, -0.0192074f, -0.0014805f, -0.8834361f, -0.1456798f, 0.0155372f, -0.1971309f, -0.0416100f, -0.0985714f, 0.0059039f, 0.1202882f, -0.2023060f, -0.3858993f },
{ 0.0048875f, -0.0860579f, -0.4168486f, -0.0029306f, 0.0618425f, 0.0291134f, -0.0033540f, -0.0366395f, -0.1470301f, -0.1571146f, 0.0090611f, -0.0752811f, -0.8954218f, -0.0505725f, 0.0077949f, -0.1699136f, -0.3630905f, -0.0712987f, -0.0098903f, -0.6928061f, 0.0091779f, -0.0039507f, -1.1241000f, -0.2014067f, -0.0918779f, -0.2053643f, 0.0095269f, -0.0091721f, 0.1015398f, 0.0744125f, -0.0463532f, -0.4762865f },
{ -0.0004287f, -0.1249667f, -0.0984786f, 0.0153033f, 0.1042630f, 0.0043698f, -0.0673807f, -0.1039050f, 0.0110540f, -0.0424013f, -0.0649919f, 0.1298547f, -0.2365292f, -0.0377507f, 0.0662769f, -0.1348123f, -0.1528166f, 0.0135896f, 0.0233673f, -0.1217658f, 0.0245797f, -0.0082739f, -1.1521204f, -0.3455714f, -0.2146576f, 0.0571598f, 0.0163741f, 0.0131376f, -0.0200510f, 0.0610287f, -0.0536871f, -0.8931136f },
{ 0.0882531f, 0.1494235f, 0.0020437f, 0.1474600f, -0.8239312f, -0.2118022f, 0.0608605f, 0.3625311f, -0.1119671f, 0.0214609f, 0.2483791f, -0.1841974f, 0.1396164f, -0.7175847f, 0.0278352f, -0.0660980f, -0.0127274f, 0.1410788f, -0.2683285f, 0.1344595f, -0.1388482f, 0.1334202f, -0.0042181f, 0.1021272f, -0.0324126f, 0.2341944f, -0.0625384f, -0.1476813f, 0.0561095f, 0.0229430f, -0.6358483f, 0.0114624f },
{ -0.3878451f, -0.1922869f, 0.1533262f, -0.1441870f, -0.0559057f, -0.0056448f, -0.0386774f, -0.2899046f, -0.0972507f, -0.1612625f, -0.0567484f, -0.0835212f, 0.0439681f, -0.0439933f, 0.0315025f, 0.0230797f, 0.1750613f, -0.6205166f, -0.0423223f, -0.0151992f, 0.0970154f, -1.3966094f, 0.0391535f, -0.0463448f, -0.1428356f, -0.0575132f, 0.0209880f, -0.0770571f, -0.1623078f, -0.1421583f, 0.0899836f, -0.0721697f },
{ -0.0544602f, 0.0383533f, -0.1060575f, -0.0347714f, 0.0350163f, 0.0677796f, 0.0239565f, -0.3976992f, -0.0919614f, -0.8887282f, -0.1222439f, 0.0426232f, -0.8699709f, 0.1177026f, -0.0848805f, 0.0525959f, -0.1008672f, 0.0138763f, -0.0536146f, -0.4788422f, -0.0094630f, -0.0535316f, -0.1424681f, 0.0319181f, -0.1380168f, -0.3850322f, -0.0433155f, 0.0661135f, 0.0683214f, 0.0647455f, -0.0117780f, -0.0468956f },
{ 0.0750042f, 0.0051439f, 0.1495014f, -0.0166980f, -0.3984912f, -0.0518915f, -0.0374129f, -0.0246949f, -0.0438959f, -0.0774255f, 0.0569983f, -0.0532185f, -0.0755755f, -0.1214033f, 0.0567526f, -0.1197218f, 0.0148700f, 0.0131382f, -0.0213769f, 0.0795037f, -0.0285346f, 0.1552399f, 0.0407160f, -0.0929285f, 0.0321484f, 0.2410536f, -0.3899971f, -0.2666410f, -0.1751046f, -0.0445342f, -0.5809728f, 0.0046374f },
{ -0.0044170f, -0.9361600f, -0.0264513f, -0.1076924f, -0.1787346f, -0.1241061f, 0.0371842f, -0.0383410f, 0.1042933f, 0.0128036f, 0.0660794f, 0.0263792f, 0.0184199f, 0.0243063f, -0.0858831f, 0.0120804f, -0.1298728f, -0.1022122f, -0.0060706f, -0.0376903f, 0.0368093f, -0.1649132f, -0.0211328f, -0.3639908f, -0.0184925f, 0.1159440f, -0.6429861f, -0.8451436f, -0.5798646f, -0.5097647f, -0.1980476f, -0.0563813f },
{ 0.1706187f, 0.1437354f, -0.0926105f, 0.1617024f, -0.0035161f, -0.0626199f, 0.0111632f, 0.0424310f, 0.0848404f, -0.0907644f, -0.0171116f, -0.0288832f, 0.0209382f, 0.1725109f, -0.0610313f, -0.0842742f, 0.1310578f, -0.1677442f, -0.0049520f, 0.1445977f, -0.0507951f, -0.1631238f, -0.0619157f, -0.0747978f, 0.1676433f, 0.0088986f, 0.0662241f, 0.0579732f, -0.0545972f, 0.0455419f, 0.0587868f, -0.0552644f },
{ -0.3302070f, -0.7635507f, 0.2818758f, -0.9211745f, -0.4022379f, -0.4594666f, -0.5321454f, -0.1345651f, 0.2130297f, -0.0442206f, -0.0588252f, 0.0688064f, 0.0986034f, -0.2631160f, -0.1717226f, 0.1825474f, 0.1918025f, -0.6824741f, 0.1251166f, 0.2904801f, -0.1042628f, -0.7769943f, -0.1667546f, -0.2666098f, -0.2067518f, 0.1508891f, -0.6996033f, -0.8523338f, -0.5489085f, -0.4277179f, -0.1409706f, -0.0740552f },
{ -0.0335675f, 0.0414363f, -0.0501891f, -0.0008741f, 0.0478068f, -0.3025822f, -0.0150406f, 0.1613373f, -0.1719348f, -0.0530212f, -0.4439870f, -0.0629185f, 0.0425629f, 0.0176974f, -0.6917682f, 0.1047214f, 0.0681998f, 0.1337451f, -0.2745764f, -0.0086024f, -0.6337939f, 0.0608473f, 0.1008522f, 0.0749243f, 0.0104435f, -0.2321689f, 0.0599435f, 0.0726241f, 0.0334526f, 0.1555458f, 0.0786747f, 0.0958218f },
{ -0.0626189f, 0.0132560f, -0.2639440f, 0.0674104f, -0.0933687f, -0.1154933f, -0.0989171f, -0.2425605f, -0.7948099f, -0.4572282f, -0.4830019f, -0.1185672f, -0.6301270f, -0.7548602f, -0.1760216f, -0.7233425f, -0.9931827f, 0.1210011f, -0.7566717f, -0.4813451f, -0.5052974f, -0.0076044f, -0.6419356f, 0.0081832f, -0.0659350f, -0.5363109f, -0.1247433f, 0.0723170f, 0.3865114f, 0.4307156f, -0.0270398f, -0.3165295f },
{ -0.2646385f, 0.0035160f, 0.0748553f, -1.4441093f, -0.1308144f, -0.4696899f, -0.7556244f, 0.0245092f, -0.0460988f, -0.0379663f, -0.1266138f, -0.1598586f, -0.0161482f, 0.0253764f, -0.1965540f, 0.1337773f, 0.1680003f, -0.5366876f, -0.0738064f, 0.0849694f, -0.0577948f, -0.0765608f, 0.0041072f, 0.0000203f, -0.0475046f, -0.0559412f, -0.0310745f, -0.0421993f, -0.2944365f, -0.2312451f, -0.0295950f, -0.1389984f },
{ 0.2079973f, -0.0669065f, -0.0002375f, 0.0589342f, 0.1572158f, 0.0765628f, 0.0870156f, -0.1314828f, 0.1338443f, -0.0227414f, 0.1064705f, -0.1278099f, -0.1183492f, 0.1456276f, 0.1357307f, 0.1884394f, 0.0628378f, 0.1395429f, 0.1732699f, 0.0104472f, 0.1127724f, -0.0477387f, -0.2301533f, -0.1237036f, -0.4410135f, 0.1684534f, 0.1434281f, 0.1666658f, 0.1049703f, 0.0646709f, 0.1627789f, -0.2096734f },
{ -0.3492053f, 0.1238879f, 0.1565946f, -0.3275780f, 0.0657427f, -0.2820124f, -0.4662436f, -0.0322792f, 0.1165645f, -0.1128973f, -0.4598367f, -0.0016909f, 0.0680443f, 0.0579040f, -0.5370743f, 0.1914662f, 0.2489025f, -0.1081732f, -0.0250670f, -0.0989009f, -0.0460006f, 0.1128116f, 0.1570319f, 0.1876802f, 0.1445820f, -0.1929050f, -0.0620373f, 0.2822791f, 0.1027096f, 0.0033113f, 0.1445311f, 0.2415770f },
{ -0.1094377f, 0.1102851f, 0.0879789f, 0.0823238f, -0.0725662f, -0.0351389f, 0.1743911f, 0.0370081f, -0.0845847f, -0.0109332f, -0.1036545f, 0.1321110f, 0.1601916f, 0.0663830f, -0.1059357f, -0.0889352f, -0.1478953f, 0.0304542f, 0.1302422f, -0.0756244f, -0.0538080f, 0.0146335f, 0.1180876f, 0.0008587f, 0.1696712f, -0.1109523f, 0.1371442f, -0.0497977f, -0.0498577f, 0.1772304f, 0.0726508f, -0.0487424f },
{ 0.0568984f, -0.0785862f, -0.0438525f, -0.0461361f, 0.0966222f, -0.0788048f, 0.1204211f, 0.0111937f, 0.0170777f, -0.0566680f, 0.0947901f, -0.0343041f, -0.1078418f, 0.0998266f, 0.0884152f, -0.0414991f, 0.0272357f, 0.0068763f, 0.0192400f, -0.0730414f, 0.0181070f, -0.0201225f, -0.5128156f, -0.2733206f, -0.2075580f, 0.0804067f, -0.0334981f, 0.1504810f, 0.0261922f, 0.1492037f, 0.0037239f, -0.5284013f },
{ 0.0917923f, 0.1113723f, 0.0525979f, -0.0169194f, -0.1284535f, -0.4412832f, -0.1228645f, -0.0410924f, -0.0629488f, 0.0380758f, -0.1208665f, 0.0134282f, 0.0144088f, -0.1000426f, -0.2991082f, 0.0620267f, 0.0629613f, 0.0960237f, -0.2194189f, 0.1492120f, -0.3266770f, 0.1433207f, 0.0937497f, -0.0703292f, 0.0529253f, -0.0569214f, 0.1013416f, 0.1387916f, -0.0099102f, 0.0946635f, -0.0143814f, 0.0637146f },
{ -0.7666432f, -0.0128266f, 0.0646944f, -0.4733643f, -0.0116618f, -0.1773674f, -0.3252356f, -0.0833937f, -0.0012803f, -0.1007163f, -0.1443827f, -0.0139553f, -0.0621055f, -0.0079467f, -0.0206999f, 0.1539132f, 0.1248890f, -0.8804063f, -0.0873885f, 0.0362251f, -0.0789261f, -0.3966548f, 0.0043678f, -0.0960909f, -0.0462708f, 0.0521957f, -0.0203121f, -0.0163556f, -0.1811419f, -0.1276500f, -0.0327299f, 0.0379113f },
{ -0.7463866f, 0.0627351f, -0.0145974f, -0.2984512f, 0.0883361f, -0.0988774f, -0.4474568f, 0.0035186f, 0.0568485f, -0.1959019f, -0.2845785f, -0.0417649f, 0.0190019f, 0.0944717f, -0.2077851f, 0.0983006f, 0.0704886f, -0.3605169f, 0.0692762f, -0.0198076f, -0.0452754f, -0.2749124f, 0.0031543f, 0.0521281f, 0.0146886f, -0.0113099f, 0.0023940f, 0.0857210f, -0.0551287f, -0.0100264f, -0.0513421f, 0.1478270f },
{ 0.0171714f, -0.5793301f, 0.0301905f, 0.1201543f, 0.2257554f, 0.1656835f, 0.0141000f, -0.2292889f, 0.1835466f, 0.0511661f, -0.0746321f, -0.1144735f, 0.1302609f, 0.1407607f, 0.2524895f, -0.1494875f, -0.0833248f, -0.0865804f, 0.0461767f, 0.0963570f, 0.2176468f, -0.1329158f, -0.2910826f, -0.5374338f, -0.2072744f, 0.0982677f, -0.3358465f, -0.2648824f, 0.0135350f, -0.0794184f, -0.1586483f, -0.5298163f },
{ 0.0658128f, -0.1762800f, 0.1328972f, -0.0519075f, -0.2529700f, -0.0373503f, -0.0015043f, 0.1316843f, 0.0500126f, -0.0613346f, 0.0162614f, -0.1188009f, 0.0027546f, -0.0199523f, -0.0173419f, -0.1810155f, 0.0268409f, -0.0316479f, -0.0632429f, 0.0214294f, -0.0001529f, -0.0255801f, 0.0271537f, -0.2033383f, -0.0793881f, 0.0084917f, -1.1619767f, -0.7112446f, -0.3013130f, -0.1984645f, -0.4150650f, -0.0803437f },
{ 0.1447454f, 0.2295563f, -0.0473380f, 0.1270902f, -0.3785241f, 0.1694746f, 0.1118976f, 0.0328231f, 0.0929530f, 0.3149502f, 0.2040914f, -0.1618765f, 0.2382946f, -0.4197617f, 0.0044212f, -0.2954661f, -0.1114217f, 0.1027960f, -0.0777692f, -0.0691263f, 0.1922707f, 0.0742999f, 0.0116014f, -0.2784428f, 0.0619332f, 0.1934860f, -0.6117237f, -0.1603294f, 0.1629877f, 0.2030255f, -1.1347370f, -0.1065916f },
{ 0.0884188f, 0.0807295f, 0.0630708f, 0.1309155f, 0.0955166f, 0.2113595f, 0.1059116f, 0.1192058f, 0.0410731f, 0.1375607f, 0.0933276f, -0.0644105f, 0.0782077f, 0.1017790f, 0.0652308f, 0.1105306f, 0.1653035f, 0.1331729f, 0.1795341f, 0.1340932f, 0.1074696f, 0.0742423f, 0.1536725f, 0.1704541f, 0.0967145f, 0.0398453f, 0.2047538f, 0.0696778f, 0.0719201f, 0.0054602f, 0.1545708f, 0.0513928f },
{ -0.0453331f, -0.0480315f, -0.1122502f, 0.0363456f, 0.0000095f, 0.0840412f, -0.0017075f, -0.5138769f, -0.0855727f, -0.6818963f, -0.1229444f, -0.0320995f, -0.9717661f, -0.0006722f, 0.0383741f, -0.0044162f, -0.0078442f, -0.0153581f, -0.0307735f, -0.4555128f, 0.0520502f, 0.0299070f, -0.2471519f, -0.0380503f, -0.2676476f, -0.3146668f, 0.0469438f, 0.1056362f, 0.0177214f, 0.0020025f, 0.0159038f, -0.0741607f },
{ -0.0168706f, -0.0119332f, -0.1395599f, -0.0162513f, -0.0825808f, -0.1576662f, 0.0568361f, 0.0552531f, -0.6502475f, -0.0602854f, -0.2349297f, 0.0311838f, -0.0437355f, -0.3188804f, -0.2308687f, -0.1796346f, -0.1328447f, 0.0183469f, -0.8817812f, -0.1011405f, -1.1122131f, 0.0813216f, 0.0156860f, 0.0524315f, 0.0088290f, -0.2158142f, 0.0567659f, 0.0450704f, -0.0375209f, 0.0288554f, -0.0241509f, -0.0468488f },
{ 0.1222098f, 0.0196676f, -0.1560779f, -0.0442836f, -0.1504413f, -0.1230040f, 0.0210890f, 0.0563330f, -0.5389270f, 0.0719959f, -0.0176348f, 0.1035039f, -0.0519544f, -0.7408267f, 0.0443793f, -0.1874370f, -0.2204814f, -0.0339879f, -0.3903686f, -0.0522758f, -0.3321080f, -0.0551882f, 0.0272836f, 0.0501960f, -0.0551182f, 0.0097152f, 0.0186905f, 0.1001348f, 0.0218006f, 0.1045562f, -0.0871793f, -0.0090773f },
{ -0.2623513f, -0.0072723f, 0.1402182f, -0.9649034f, 0.0147476f, -0.2890131f, -0.6865641f, -0.0074890f, 0.0658126f, -0.0645399f, -0.1062646f, -0.0128606f, -0.0023264f, 0.0921316f, -0.1535498f, -0.0715990f, 0.1226809f, -0.4531631f, 0.0173124f, 0.0491095f, -0.0320571f, -0.0881136f, 0.0070453f, 0.0498874f, 0.0497031f, -0.0861968f, 0.0856381f, -0.0440544f, -0.2233800f, -0.1931491f, 0.0224921f, 0.0140202f },
{ -0.0340902f, -0.1074433f, -0.0170010f, 0.0210066f, 0.0902859f, 0.1468580f, 0.1377616f, -1.0229371f, 0.1804456f, -0.5074518f, 0.0213355f, -0.1342169f, -0.2254051f, 0.0967354f, 0.0861118f, 0.2341266f, 0.1494127f, -0.0125669f, 0.0543927f, -0.1108990f, 0.2372166f, -0.1309609f, -0.1606732f, -0.0751254f, -0.7935219f, -0.0806786f, 0.1280703f, 0.1885912f, 0.1032928f, 0.2409540f, 0.2233884f, -0.0646762f },
{ -0.4653874f, -0.0368104f, 0.0518881f, 0.0640651f, 0.0851820f, -0.0484271f, -0.0916472f, -0.5658289f, 0.0223707f, -0.7999435f, -0.4696265f, -0.1626917f, -0.1167627f, 0.1427759f, -0.1323150f, 0.1522148f, 0.2023389f, -0.0665311f, 0.0305791f, -0.0632348f, -0.1314651f, -0.1945878f, 0.1384646f, 0.0284628f, -0.1223045f, -0.2297896f, 0.0824748f, 0.1931546f, 0.0734808f, 0.1898924f, -0.1184709f, -0.0148575f },
{ -0.0056216f, -0.5930657f, 0.0766964f, 0.0103184f, 0.0591358f, 0.0735149f, 0.0475974f, 0.0141628f, -0.0394021f, 0.0741265f, 0.0714268f, 0.1215072f, -0.0295709f, 0.0067417f, 0.0654544f, 0.0641290f, 0.1028685f, -0.0388593f, 0.0180282f, 0.0753404f, 0.0212887f, -0.1155717f, 0.0018234f, -0.4938257f, -0.0110460f, 0.0058367f, -0.2632940f, -0.2896821f, -0.1563388f, -0.1096051f, -0.0863789f, -0.0595888f },
};

HOST_DEVICE_CONSTANT float bias_fc3[6] = {
-0.0249973f, -0.1040104f, -0.0639701f, -0.0483806f, -0.1412531f, -0.0335701f };

HOST_DEVICE_CONSTANT const float wgtT_fc3[32][6] = {
{ 0.1840073f, -0.0351367f, -0.3864328f, -0.1920677f, -0.1071181f, -0.3315854f },
{ -0.0277092f, -0.0354696f, -0.1964196f, -0.0321995f, -0.4138061f, 0.4112949f },
{ -0.1458611f, 0.2392604f, 0.1827688f, 0.1422315f, 0.0283852f, -0.1337789f },
{ 0.3153662f, -0.3510996f, -0.4273407f, -0.3055329f, 0.0284788f, -0.1504994f },
{ 0.1266335f, -0.3741951f, 0.1732022f, -0.0653790f, 0.3251003f, 0.2570323f },
{ 0.2006475f, -0.2791866f, -0.0327538f, -0.1434163f, 0.3548570f, -0.1790498f },
{ 0.2287670f, -0.2211822f, -0.2962397f, -0.2117246f, 0.0676819f, -0.2035003f },
{ -0.0403221f, 0.2209140f, -0.2674885f, -0.0243347f, -0.2969368f, -0.2027598f },
{ -0.0903018f, 0.1428662f, 0.3016742f, 0.1241812f, 0.3087720f, -0.2724473f },
{ -0.0282098f, 0.3291530f, -0.2833371f, -0.0356069f, -0.2384447f, -0.4847553f },
{ 0.0600034f, 0.1048253f, -0.0885739f, -0.0509293f, 0.1344189f, -0.4301089f },
{ 0.0090711f, 0.1768292f, 0.0476281f, 0.1237181f, 0.1813655f, -0.0854961f },
{ -0.2744700f, 0.5930641f, 0.0583086f, 0.2101237f, -0.2712272f, -0.3195649f },
{ -0.0763852f, -0.1061139f, 0.4416705f, 0.1390246f, 0.3966881f, 0.0872060f },
{ 0.1450751f, -0.1131922f, -0.0221456f, -0.0983082f, 0.3254071f, -0.3479557f },
{ -0.1342445f, 0.0693798f, 0.3054501f, 0.1511669f, 0.0930072f, 0.1615775f },
{ -0.1319107f, 0.1215057f, 0.2309105f, 0.1360728f, 0.0517411f, 0.0562932f },
{ 0.2144879f, -0.1908969f, -0.4106818f, -0.2359935f, -0.1434910f, -0.0709846f },
{ -0.0551383f, 0.0060301f, 0.3996505f, 0.1137913f, 0.4822871f, -0.2341192f },
{ -0.1873783f, 0.3636938f, 0.1307613f, 0.1587313f, -0.0642861f, -0.2306695f },
{ 0.0386161f, -0.0439697f, 0.1699087f, 0.0035958f, 0.3590602f, -0.2802620f },
{ 0.1088080f, -0.0518779f, -0.3769566f, -0.1542849f, -0.3033957f, 0.0320037f },
{ -0.2701152f, 0.4410904f, 0.0685745f, 0.2081675f, -0.3989930f, 0.1021271f },
{ -0.1164372f, 0.1176439f, -0.0370739f, 0.0811500f, -0.3902647f, 0.3787522f },
{ -0.1210521f, 0.3347138f, -0.2197411f, 0.0770686f, -0.4914826f, -0.0161664f },
{ -0.0363042f, 0.1962900f, -0.0176787f, 0.0201845f, 0.0490586f, -0.3559777f },
{ -0.0413396f, -0.2829921f, 0.1127205f, 0.0282596f, -0.1413936f, 0.7335963f },
{ 0.0432544f, -0.2081134f, -0.0041121f, -0.0421119f, -0.0438956f, 0.3435639f },
{ 0.1391881f, -0.2596736f, -0.1504662f, -0.1351187f, -0.0173846f, 0.1837186f },
{ 0.0998162f, -0.2051911f, -0.1344860f, -0.1026378f, -0.0528577f, 0.1765035f },
{ -0.0239400f, -0.2903517f, 0.3349684f, 0.0707210f, 0.1112120f, 0.6397173f },
{ -0.1818506f, 0.2825151f, 0.0255012f, 0.1421620f, -0.3454670f, 0.1754822f },
};

}  // namespace ALPAKA_ACCELERATOR_NAMESPACE::lst::dnn::t3embdnn

#endif
