#ifndef RecoTracker_LSTCore_src_alpaka_T4NeuralNetworkWeights_h
#define RecoTracker_LSTCore_src_alpaka_T4NeuralNetworkWeights_h

#include <alpaka/alpaka.hpp>

#include "FWCore/Utilities/interface/HostDeviceConstant.h"

namespace ALPAKA_ACCELERATOR_NAMESPACE::lst::dnn::t4dnn {
  //add reg radii and t3 dnn scores
    HOST_DEVICE_CONSTANT float bias_layer1[32] = {
    2.0634429f, 0.2524098f, -0.0312356f, 0.6790630f, 0.3537523f, -0.4684837f, 2.5317073f, -0.1168283f, -0.2302523f, -0.0767009f, 0.6054267f, -1.3515688f, -1.1435251f, -0.2586541f, -0.6828974f, -1.1868789f, 1.5147817f, 0.1127981f, 0.1234875f, 0.0236125f, 0.2483854f, -0.2430531f, 0.1181029f, -1.6174419f, -0.2246573f, 0.5943361f, -0.0370733f, -5.1740780f, -0.5639854f, 0.0965410f, 0.7594638f, -0.9306029f };

    HOST_DEVICE_CONSTANT float wgtT_layer1[27][32] = {
    { -2.8259075f, -0.8716139f, 0.0727722f, 1.1347991f, -0.4076585f, -0.6329545f, -3.1880035f, -0.1588767f, -0.1558377f, -0.0965083f, -0.2858485f, 0.7899134f, 2.9476769f, 1.4416050f, 1.0275487f, -1.1084992f, -1.0548780f, -0.1726648f, -1.8385017f, -0.1342066f, -1.4768661f, 0.0173520f, 0.0195799f, 4.9012694f, -0.0230186f, -0.1293060f, -0.0636874f, -1.9068431f, 1.9665065f, -0.0548041f, 4.3431787f, 1.5918314f },
    { 0.0285585f, 0.0115364f, -0.1183015f, 0.0160674f, 0.0163617f, 0.0225914f, -0.0215336f, 0.1462123f, -0.2042613f, -0.0882742f, 0.0062282f, 0.0747787f, 0.0323233f, 0.0250306f, 0.1463798f, -0.0733540f, 0.0030154f, 0.0960008f, -0.0019111f, -0.0691531f, 0.0817749f, -0.2115868f, -0.0971655f, 0.0341104f, -0.1939527f, 0.0011992f, -0.1544193f, 0.0528540f, -0.0175434f, 0.1820710f, -0.0123617f, 0.0211411f },
    { 0.1444553f, 0.6141375f, 0.0606438f, -4.7255764f, 0.9598218f, 1.1886696f, -9.4536409f, -0.0368229f, -0.0841697f, -0.0081214f, 4.0444927f, 1.8589956f, -4.3614082f, -0.7000309f, 1.0620546f, 1.6396576f, -3.7379930f, 0.5525217f, 2.0243425f, -0.1876284f, 2.7830913f, -0.1150329f, -0.0126873f, -3.0713372f, -0.1731976f, -1.5724533f, -0.1550126f, 3.3203208f, 2.5232277f, 0.1511064f, -8.0700245f, -1.6471001f },
    { -3.2722912f, -0.1256566f, -0.0292087f, -0.5989327f, -0.8949552f, 0.3320864f, -0.6052502f, -0.1473426f, 0.0888824f, -0.1198699f, -7.4524574f, 2.5326948f, 2.3709190f, 2.1575556f, 1.9288434f, 2.3337288f, -2.2639754f, -0.6686544f, -3.1499701f, 0.0231446f, 0.4101579f, -0.1840733f, -0.2107568f, 0.5557097f, -0.0860139f, 0.5003954f, -0.2136033f, -2.1474602f, 0.0970977f, -0.0184801f, 3.2952044f, 7.9077926f },
    { -14.0441532f, -0.3259566f, -0.2459780f, 1.2228103f, -3.1342785f, -0.7791114f, -2.9317229f, 0.1578157f, -0.2672509f, 0.0917828f, 10.7467337f, 5.8315864f, -5.5358357f, 4.6485119f, 3.9897988f, -1.0830522f, 19.3851891f, 0.7896081f, -23.3956394f, 0.0497255f, -6.1681223f, 0.1229164f, 0.1624944f, 1.6552128f, -0.0588164f, 4.3114653f, -0.2159563f, 4.0630140f, 25.3984718f, 0.0160768f, 12.2496176f, 26.5046463f },
    { 2.7402880f, 0.1130506f, -0.0902587f, 3.8912964f, 3.0867627f, -1.8614204f, -0.3638529f, 0.1562396f, -0.3087684f, 0.1250708f, 1.5678830f, 1.1335469f, 1.0435201f, -0.8921360f, 0.2271631f, -0.8637871f, 0.2306008f, -2.3558075f, -2.8047898f, 0.1686910f, 9.1178713f, -0.1151158f, 0.1470979f, 1.5373909f, -0.1166144f, 1.7427274f, -0.1891302f, -9.9114981f, 1.1272811f, 0.0091014f, 0.7907792f, -0.7657149f },
    { 2.4659142f, 0.6878744f, -0.0148272f, -5.4125657f, 3.1125176f, 4.4969320f, -8.1215611f, -0.1914706f, -0.0673539f, -0.2124790f, -0.7563235f, 9.5192642f, 6.7082729f, -4.7410049f, -4.0404205f, 11.8890438f, 3.3402245f, 2.5853181f, 1.1389672f, 0.1748279f, -5.0972681f, -0.2692779f, 0.0084296f, 5.0054412f, -0.0048785f, 0.6170948f, -0.1654740f, -4.2696233f, 0.0296139f, -0.1135652f, -8.6710835f, 5.2922487f },
    { 0.6516828f, 0.0595523f, -0.1209826f, 0.7053657f, 1.1351465f, 0.0054852f, -0.8154771f, 0.1112542f, -0.2007150f, -0.1477935f, 0.6080135f, 3.2812963f, -3.7677693f, 3.7813315f, 3.4342380f, 3.5240178f, 0.0831207f, 2.5121827f, 4.1215081f, 0.0130998f, 3.6273327f, 0.0457747f, -0.2082467f, -4.2097349f, -0.1832067f, 1.9168411f, -0.0488338f, 4.9649544f, 2.4113503f, -0.1433642f, 0.9196224f, -2.0868471f },
    { 4.3055282f, -0.3412562f, 0.1592983f, -0.7749513f, -0.4745006f, -0.2275320f, -0.9471012f, -0.0397209f, 0.1223947f, 0.0799426f, -42.9728699f, 5.4735069f, -15.0404634f, -1.2838725f, -9.9725666f, 2.1887920f, -7.3377457f, -1.0414332f, 5.3650532f, 0.0732891f, -2.4901361f, -0.1067989f, -0.0960270f, 13.0143862f, 0.1859810f, -2.3677399f, -0.1575033f, 0.2400165f, -14.7465706f, 0.0499412f, -8.5189552f, -27.1568375f },
    { -1.0520631f, -0.8545895f, -0.0934161f, -0.5920278f, -1.6741493f, 0.7897094f, -0.3853442f, 0.0391342f, -0.1428833f, 0.1524153f, -0.2013778f, -2.8838177f, 0.6028091f, 0.6958072f, -2.0563424f, 1.5860751f, 2.3107722f, -0.8953286f, 3.9696326f, -0.0943827f, -3.6357901f, -0.0744850f, -0.1096401f, 0.4297695f, 0.0059308f, 0.1058507f, -0.1586650f, 6.1100764f, -1.6793425f, 0.1273125f, -1.3768812f, 0.6056969f },
    { 3.3722982f, -0.3474809f, -0.1077784f, 1.5680108f, 3.7110291f, 0.5328640f, -8.0025368f, -0.0808900f, -0.1800018f, -0.1197105f, -0.1992839f, 5.6771460f, 11.6481800f, -2.8639898f, -2.4011390f, -1.9659810f, 7.7141066f, 1.0377307f, 4.6147404f, -0.1788737f, -1.1860807f, -0.1637516f, 0.0102796f, 11.8790827f, 0.0105794f, -0.0186719f, -0.0370192f, 0.4847836f, -0.6957549f, -0.0860675f, -15.7179432f, -0.1517346f },
    { -1.6284361f, -0.1834944f, -0.1646182f, -0.4108050f, 1.7696396f, 0.4338039f, 1.1862308f, -0.1430431f, -0.0435644f, -0.0423281f, 2.0475924f, -0.9265807f, -3.2836871f, 2.4949112f, 2.8884983f, 1.8004769f, -2.3871369f, 2.1127698f, -2.9430521f, -0.1893138f, 2.9108300f, -0.0866958f, -0.1058301f, -0.1134990f, -0.1257690f, 2.2384400f, 0.0337510f, 0.9261222f, 4.5997815f, -0.1829747f, 5.2330275f, 1.8856456f },
    { 8.9573221f, 0.1278808f, -0.0769157f, -3.7897182f, 2.1412132f, 2.1221135f, -1.7973788f, -0.0592514f, -0.3035965f, -0.1491467f, 5.2545338f, -43.0185356f, 35.3082047f, -3.9158626f, 3.2360547f, 7.5302062f, -30.0238724f, 3.2902329f, 28.0161953f, -0.0359614f, 9.7396307f, -0.0368389f, -0.1517528f, -33.8447533f, -0.0218122f, -5.7511334f, 0.1963406f, -3.1183913f, -23.6498756f, -0.0854543f, -7.4807134f, -25.7942276f },
    { -2.8041387f, 0.1715758f, 0.1668029f, -2.6367102f, -0.9649217f, 0.9408876f, 0.0786723f, 0.1999734f, -0.0702856f, -0.2004909f, -2.4902465f, 0.3110251f, -2.1300960f, -0.5954602f, 0.2314329f, 3.0623164f, -1.4050525f, 0.6235807f, -0.8642918f, 0.0402846f, -0.5942507f, 0.1690642f, 0.1373568f, -2.9280012f, 0.1104240f, -0.5773395f, -0.1208857f, 8.5436983f, 0.6570433f, -0.1058364f, -0.0933067f, -0.0068858f },
    { 5.6950541f, -1.3603314f, -0.2150372f, 7.0893703f, 6.1405826f, -4.2386370f, -3.7300317f, 0.0956078f, -0.0441416f, -0.2212785f, 2.2895768f, -2.2959507f, 8.1797657f, 2.7872853f, 1.2761697f, -12.2130375f, 8.7576199f, -1.9353833f, -0.4896398f, -0.1686367f, 2.8505392f, 0.0541001f, -0.0811711f, 4.0153403f, -0.0545361f, 4.2190080f, -0.0137666f, 5.4166780f, 5.1949248f, 0.0632315f, -9.6556015f, -1.9801388f },
    { -1.0238410f, -0.2320530f, 0.0303897f, -0.0823551f, 4.4292841f, 0.5582364f, -0.2686201f, -0.0687139f, -0.1904298f, -0.1141002f, -0.6441576f, -6.6701813f, -5.8920851f, -1.0868235f, -3.4136922f, -4.3961387f, 0.4406410f, 2.4059093f, -3.4935987f, -0.1204788f, 1.3247579f, -0.2821088f, -0.0231030f, 1.8846674f, -0.1506870f, 2.6593924f, -0.0197380f, -1.9162222f, 0.8378095f, -0.1734521f, 2.2300320f, 2.9230683f },
    { -0.0246140f, 0.9081947f, -0.0192835f, 0.3357856f, 2.0924160f, 0.2617300f, -0.5430343f, -0.1520754f, -0.0503007f, -0.0530191f, 0.0983069f, -1.2966491f, -0.6634064f, 2.5242624f, -0.2390647f, 1.5583708f, 0.7842386f, 1.7525398f, 0.2460141f, 0.0696052f, -1.4277872f, -0.0826751f, -0.1336434f, -0.5631080f, -0.0489272f, -2.5813084f, -0.0280735f, 2.1050460f, -1.6628208f, -0.1508179f, -0.1095411f, -0.3291312f },
    { 0.1322260f, 0.6652958f, -0.1704758f, -0.5188949f, 2.0967419f, -0.3750347f, -0.2370066f, 0.0504685f, 0.0812373f, 0.0026676f, 0.1874604f, -0.7966321f, -0.2832018f, 2.3329060f, -0.2685940f, 1.1547203f, 0.5059337f, 1.4557420f, 0.3968542f, -0.0873636f, -1.0592231f, -0.0052215f, -0.0398695f, -1.1377355f, -0.1910710f, -2.5914347f, -0.2106751f, 1.9401218f, -1.6701342f, -0.0978159f, 0.1769850f, -0.2716673f },
    { -0.6049455f, 0.4026980f, 0.1158033f, 30.3559036f, 0.5501068f, 31.2207546f, -2.7630117f, 0.1464291f, -0.0476619f, -0.1201569f, -0.9258111f, -3.0192151f, -3.6684959f, 1.6136067f, -1.5181628f, 4.5771523f, 1.7903318f, 2.1505957f, 0.3619440f, 0.0071175f, -4.8365402f, 0.1445061f, 0.1610205f, 5.6379442f, 0.0008370f, -0.5111860f, -0.1487660f, 1.4211555f, 0.7272758f, 0.1220327f, 0.5776758f, 1.3575673f },
    { 0.1038150f, 4.1488271f, -0.0392740f, 0.2605659f, -4.1781321f, -0.1817810f, -0.1685851f, -0.1479596f, -0.1136792f, -0.0029065f, -0.3409894f, 2.4532714f, -0.3519122f, -3.6710052f, 1.0680208f, -1.3629369f, -1.8617115f, -1.1339186f, 0.0775695f, -0.1607945f, 0.3817013f, -0.2951876f, -0.0356367f, 0.2536634f, -0.1745138f, 4.7556734f, -0.1376783f, 0.1360811f, 2.3868206f, -0.1865596f, -0.2492761f, -0.3573954f },
    { -0.6302360f, -5.0904317f, -0.0766232f, 0.0089235f, -0.5284148f, 0.2364226f, 0.6545987f, 0.1344397f, -0.1435541f, -0.2371550f, 0.2782277f, -0.5304096f, 1.1982646f, -1.5761831f, -0.1410789f, -0.1808723f, -0.0955610f, -1.8525728f, -0.2748608f, 0.0090872f, 1.2742946f, 0.0176735f, 0.0111975f, 1.3019189f, -0.0195117f, -0.0403998f, 0.0211837f, -0.3603224f, 0.0668389f, -0.1860155f, -0.1023118f, -0.2119443f },
    { 4.7956228f, -0.7546414f, 0.1700591f, 0.5600684f, 0.6982646f, 0.2143237f, 3.0720279f, 0.1026311f, -0.0705430f, -0.1816426f, 0.0199051f, -2.2782340f, 0.1812074f, -5.6748328f, -25.8824196f, -1.7293851f, 2.5195656f, 0.0583569f, 1.2636474f, -0.0449880f, 1.4672177f, -0.2519162f, 0.0088738f, -1.3394531f, -0.0511824f, -0.4205795f, -0.1839794f, -3.0569632f, -25.3907413f, 0.1232615f, 1.1430024f, -0.3759208f },
    { -2.4001870f, -0.1787395f, 0.0511745f, -0.4463109f, 0.5756677f, 0.1593401f, 3.1211441f, 0.0473260f, 0.0307057f, -0.1001414f, 0.1743138f, -0.9040923f, -1.0892515f, 1.4958458f, 1.5142418f, 0.9510720f, 0.8300895f, -2.3769870f, 1.1059177f, 0.0464886f, -8.8193436f, -0.0733306f, 0.0333415f, -1.5900060f, 0.0553229f, 0.4783110f, -0.1344294f, -3.0546367f, 0.5001129f, 0.1163618f, 0.4676291f, -0.3298182f },
    { 1.7855982f, -0.3585985f, -0.2535137f, 0.7961541f, 0.0401447f, 0.0712747f, 3.1015003f, -0.0822515f, -0.0773135f, -0.1031750f, 0.8813263f, -0.4606352f, -1.1829458f, -1.2562902f, -1.7351309f, -4.9242992f, 1.2811505f, 2.4526763f, -0.8704137f, 0.0414238f, 0.3828539f, -0.1483803f, 0.0584544f, -1.8427588f, -0.1308738f, 0.0357497f, -0.1101318f, -3.7825661f, 0.1020412f, 0.0331978f, 0.6451961f, -0.1556266f },
    { 1.9607791f, -0.0985693f, -0.0299825f, 0.3403114f, 0.7691333f, 0.0003856f, 0.0206012f, 0.1440819f, -0.0349743f, -0.1356546f, -0.1939340f, -0.3854384f, 0.5572059f, -2.2674367f, -0.0183737f, -0.5232540f, 0.1392955f, -0.1719776f, -0.5720746f, -0.1539634f, -1.8045571f, 0.0628663f, 0.1236814f, 0.0725701f, 0.0277903f, 0.0486650f, 0.0052336f, -0.0845500f, -13.1636515f, 0.0406988f, 0.3992520f, -0.0938021f },
    { -3.2966564f, 0.4364322f, 0.1916217f, -0.3766538f, -0.2897399f, 0.0156370f, 0.1459611f, 0.0374480f, 0.0109642f, -0.0010985f, 0.0219366f, -0.1517622f, -0.2562505f, 1.5174621f, 1.5439153f, 1.3937262f, -0.2422489f, -0.2261279f, 1.9145696f, -0.1238539f, 2.5762999f, 0.0305614f, 0.1349880f, -0.0209049f, -0.0591756f, 0.2057636f, 0.1351138f, -0.0166344f, 1.7033294f, 0.0631327f, -0.1961391f, -0.2154713f },
    { 0.8013868f, -0.0450521f, -0.0164109f, 0.5185890f, 0.1115728f, -0.1353249f, 0.0083457f, -0.0746943f, -0.0774991f, -0.0859823f, 0.3137954f, 0.7134432f, -0.4213617f, -0.7195563f, -1.6792145f, -1.2189548f, -0.1291959f, 0.4826272f, -1.6373945f, -0.0333691f, -1.2216135f, 0.0032632f, -0.1024431f, 0.1521491f, -0.1731318f, -0.0776667f, 0.0296993f, -0.1886216f, 1.1402305f, -0.1859126f, -0.1932351f, 0.0027260f },
    };

    HOST_DEVICE_CONSTANT float bias_layer2[32] = {
    0.4549345f, 2.1274190f, -0.1837664f, 3.6402659f, 0.6809441f, 2.2335088f, 2.3128655f, -1.5799582f, -3.0802028f, 2.4012496f, -2.5162320f, -0.1022087f, -4.0559497f, -2.8753102f, -0.0910844f, -0.7738112f, 2.8062570f, -3.3907113f, 2.6068988f, -0.1401542f, 2.1259468f, -1.6851511f, 1.4683874f, -1.1668814f, -1.9170244f, 0.3242736f, -0.2194009f, 0.8333521f, 1.1984333f, -0.0733665f, -0.0319550f, 1.3909695f };

    HOST_DEVICE_CONSTANT float wgtT_layer2[32][32] = {
    { 0.5899639f, 0.9932277f, -0.1429183f, -1.7096488f, 0.5736427f, -0.7722772f, 0.8835922f, -0.2359341f, -1.1074272f, 0.6721171f, -0.3350735f, -0.0946129f, -2.4485502f, 0.6439198f, -0.0171638f, -2.2782931f, -1.1772480f, 0.9368237f, 0.5869668f, -0.3616947f, -0.5229661f, 0.3336191f, 0.5037091f, 2.2059121f, -1.3825226f, 0.8700630f, 0.2295038f, -0.0280911f, -0.1810264f, -0.1284503f, -0.1390132f, -0.0560966f },
    { -0.2318342f, -2.4332454f, -0.0394716f, -16.9452209f, -2.1513691f, 0.1686443f, -0.6725606f, 0.2018290f, -0.0057665f, 0.2775910f, 0.5220615f, -0.1953398f, 0.1628451f, 1.6110851f, -0.1932920f, -0.0663614f, 0.0912544f, 0.6732245f, 1.1110499f, -0.1330042f, -0.0818643f, -1.8455583f, -1.0737473f, -3.1322732f, 2.0403259f, 1.2447683f, -0.1388344f, 0.4684080f, -0.2794675f, -0.1224606f, -0.0510102f, 0.0426320f },
    { 0.2012022f, 0.0156781f, 0.1287736f, -0.2086827f, 0.1697342f, -0.0082522f, 0.1082703f, 0.0948680f, 0.1965974f, 0.1079980f, 0.1380081f, 0.1438488f, -0.0656753f, 0.3198813f, -0.1211414f, 0.0129819f, -0.0108497f, -0.1012832f, 0.1686239f, -0.1667563f, 0.0460230f, 0.0379619f, 0.1473893f, 0.0067871f, 0.1466393f, 0.0424997f, -0.1181404f, 0.1206704f, 0.0864489f, -0.0812975f, 0.0352268f, -0.1596616f },
    { -1.8256420f, -0.8841560f, 0.0904742f, 0.2481881f, -0.6505829f, 0.0879599f, 0.6599604f, 0.3302293f, -0.2917286f, 1.7984642f, -0.5746166f, 0.0207477f, -0.9689286f, 0.9095708f, -0.1054407f, -0.7553417f, 0.4528112f, 0.8882726f, 1.7183926f, -0.1634232f, 0.9582294f, -6.3371506f, -7.2252851f, 0.7195547f, -0.9474445f, 0.0048499f, 0.0513471f, -0.1820443f, 0.2144692f, -0.0887920f, -0.2867213f, -0.7031986f },
    { 0.1811372f, -0.3322096f, -0.2248691f, 1.1599373f, -1.2904713f, 2.0357382f, 0.9699113f, -0.0967896f, 2.4281712f, -1.0446723f, -0.6167734f, -0.1460582f, 2.1372969f, -2.5347226f, -0.1040977f, 4.7448573f, -0.9877393f, -2.9803512f, -0.3038362f, -0.3793824f, -1.0364214f, 0.3759045f, -0.4305660f, -0.6329618f, 2.7828755f, -2.0648394f, -1.3015349f, 0.2018792f, -0.7534755f, -0.1292705f, -0.2004524f, -0.0039214f },
    { 1.8119909f, 0.9047645f, -0.0685793f, -0.5123124f, 0.6321251f, -0.0481119f, -0.7184497f, -1.2663718f, -1.1810108f, -2.3417652f, 0.2970280f, -0.1363076f, 1.4082830f, -0.6464089f, 0.0960337f, 0.4505137f, -0.1872013f, -1.1668277f, -9.0540447f, 0.1196295f, -0.9619027f, 6.0391798f, 6.6033130f, 0.0196978f, 0.3006436f, -0.5344177f, 0.0917059f, -1.5371182f, -0.3129636f, -0.1487317f, 0.0731383f, 0.3428416f },
    { -0.5251358f, 0.4872813f, -0.0844925f, 0.9520805f, -0.8277598f, 0.6696937f, -1.2639393f, -0.9631265f, -0.1728767f, -1.6191717f, 0.3051652f, -0.0612098f, 1.1761085f, 0.4011458f, -0.0366095f, 0.8018758f, 2.8408010f, 0.1865981f, -0.9871632f, -0.2603544f, -0.5537524f, -25.3491764f, 0.0678356f, 0.2957141f, -0.7767285f, -0.5783781f, 0.3767003f, -1.4262533f, -0.0122944f, -0.0531757f, -0.0568049f, 0.7942865f },
    { -0.0590234f, 0.0736807f, 0.0570881f, 0.0455228f, -0.0022599f, 0.1135345f, -0.0289448f, 0.0574809f, -0.1411495f, -0.0743081f, 0.0380034f, -0.1233686f, -0.1189961f, 0.0227522f, -0.0207903f, 0.1426840f, -0.1532062f, -0.1272457f, 0.0282823f, -0.0922042f, -0.0555602f, -0.1759133f, 0.1021976f, 0.0236830f, -0.1263201f, -0.0811828f, 0.0813727f, 0.0225632f, -0.1837463f, 0.0267206f, 0.1245526f, -0.0527633f },
    { -0.0278329f, -0.0679351f, 0.0937236f, 0.0324724f, -0.2300466f, -0.0007671f, 0.1515549f, -0.1820084f, -0.1137287f, -0.0332874f, 0.0740293f, -0.1643348f, 0.2053208f, 0.0701278f, -0.1740101f, -0.1927124f, -0.1351187f, 0.0262907f, 0.0626112f, -0.1233211f, 0.1083667f, -0.2055217f, 0.1390180f, 0.1589428f, 0.1770516f, 0.0108121f, -0.0265847f, -0.0309303f, -0.1756702f, -0.0844829f, 0.1282987f, -0.0574197f },
    { -0.0424579f, -0.0239122f, 0.1494102f, 0.0457387f, 0.0856355f, -0.1889792f, 0.1210377f, 0.1720985f, 0.0101861f, -0.0368613f, -0.0733865f, -0.0149364f, 0.0786838f, -0.0026035f, -0.0106768f, 0.1289754f, 0.1763035f, -0.0243427f, -0.1901966f, -0.0289531f, 0.0397678f, 0.1016394f, 0.1311525f, -0.0954512f, 0.0443624f, -0.0960927f, 0.2174678f, 0.1760562f, -0.2173294f, -0.1250925f, -0.0634912f, 0.1427116f },
    { 1.6233864f, 0.4388337f, -0.0690882f, -1.3368672f, 0.2638825f, 0.3554623f, -2.5333519f, -0.8955941f, 0.1469723f, -1.8114401f, 2.3845167f, -0.0539737f, -0.0133115f, 0.5742527f, -0.1857327f, -0.5961331f, 1.6216794f, 1.0253180f, -0.7952818f, 0.0885012f, -2.1742687f, 0.0372347f, 0.0843163f, -0.6448889f, -0.2797729f, 0.2395286f, 1.1828401f, 0.9213138f, 0.2033095f, -0.1740697f, -0.1181831f, 1.2600311f },
    { -1.2274284f, -0.8219579f, -0.0425677f, -0.8342037f, 1.1190735f, -1.0717026f, 0.7430203f, -0.1093241f, -1.2637224f, -2.2982781f, -0.2699189f, -0.0793526f, -1.8403014f, 1.5339966f, -0.2502258f, -3.0198290f, -0.1590496f, 0.5334597f, -0.8375002f, 0.0091183f, 0.7234477f, 0.9558343f, -0.1428118f, 2.2039423f, -1.4123791f, 0.2574269f, -0.6570563f, -0.5999190f, 0.5111958f, -0.1411615f, -0.3541653f, -0.3026164f },
    { 3.5284586f, -0.6531792f, -0.0480276f, 0.1331355f, 0.6228480f, 0.9833339f, -2.9648161f, 2.5728233f, -0.5047419f, -0.5363315f, -1.1746614f, -0.0149925f, -0.3718520f, -1.0419830f, -0.0256127f, 1.5241436f, -1.2585675f, -0.0280560f, -1.6422914f, 0.0459643f, 0.1968458f, -2.1747398f, 0.4945664f, -2.4804394f, -1.6154547f, -0.5899914f, 0.7165443f, -0.1472780f, -1.3396511f, -0.0623450f, -0.1886562f, 1.3892096f },
    { -2.1332178f, -0.1982051f, -0.2212659f, 3.2477276f, -0.4179139f, -0.3552284f, -0.9081832f, -1.0802456f, 2.3525829f, -5.4662118f, 1.4693608f, -0.0870226f, -1.0788424f, -0.7066119f, -0.1076498f, 0.7275093f, 0.1799661f, -0.9474198f, -0.2477787f, 0.0645668f, 0.6182643f, -0.9935129f, -0.7604632f, -1.3966759f, 0.7489280f, -2.9056363f, 0.0882863f, 0.1236149f, 0.4340780f, -0.0350298f, -0.1856924f, -0.6133774f },
    { 0.5288641f, 0.4885860f, 0.0847383f, -0.8908465f, 0.2877608f, 0.0542899f, -1.2402779f, 0.1271410f, -0.4308441f, 0.1016752f, -0.1587404f, -0.1111765f, 3.6530082f, -0.5990665f, 0.0397761f, -0.8316008f, -0.3948973f, 0.3049187f, -1.5836186f, -0.2525044f, 0.4197678f, 0.1796660f, 0.0754739f, 0.8684176f, -2.1998515f, 0.5505133f, 2.2350507f, -0.5135552f, 0.3567097f, -0.0061499f, -0.0824216f, 0.2136726f },
    { 0.0857294f, -0.0777089f, -0.0172340f, 1.6224606f, -3.2281890f, 0.9982766f, -0.7274520f, -0.7728063f, 0.2745548f, -0.0377317f, -0.1309916f, -0.0730642f, -0.6401780f, -1.2517376f, -0.1500551f, 1.3324418f, 0.0602041f, -6.8759747f, -1.5552959f, 0.1319409f, -0.5912681f, -1.0141732f, -0.7613437f, -1.7289361f, 1.0751669f, -0.3797017f, -0.9552522f, 0.0379075f, 0.1220914f, -0.2046013f, -0.0750711f, 0.4898105f },
    { -0.0818758f, -0.1322907f, 0.1020601f, -0.2261519f, -0.5946255f, 1.1742647f, -0.3547730f, -1.5425212f, 1.0998658f, -1.4722291f, 2.9497824f, -0.1636249f, 0.2699446f, -0.2774846f, -0.1743857f, 1.2949505f, -1.3733031f, 0.3403975f, -0.5151005f, 0.0535202f, 0.5270203f, -0.1295356f, 0.3853132f, 0.2357593f, 0.3199787f, -0.1307262f, -0.7833753f, 0.4547919f, -1.4061766f, 0.0068958f, -0.1053473f, 0.8622939f },
    { -0.3544825f, 0.0713366f, 0.0006691f, 1.9434770f, 1.6762826f, -0.9692442f, -0.4598892f, 0.1643997f, 1.3125440f, -0.5995958f, -0.1029990f, -0.1654663f, 0.1869121f, 0.3572258f, -0.0828522f, 1.0227191f, 0.5450761f, 0.6256126f, -0.9740762f, -0.2444480f, -0.3106250f, 1.5763139f, 1.2575365f, -1.8787278f, -1.8336406f, 0.2179030f, -0.4893377f, 0.0844566f, 0.0168275f, -0.0380090f, -0.1392024f, 0.0273793f },
    { -0.0727103f, -0.4415136f, -0.0464692f, 0.3642085f, -0.9919307f, -0.0504261f, 1.7352896f, -1.5720958f, 0.3136817f, -0.8492547f, -0.7196807f, -0.0707793f, 0.3497837f, -0.0225506f, -0.1053948f, 0.4877878f, -0.8007966f, -0.6729766f, 1.2240828f, -0.1118837f, -0.5176509f, -0.2006710f, 0.1359795f, -1.2914093f, 1.8820713f, -0.2591550f, 0.0099277f, -0.4412510f, -0.5430614f, -0.0560023f, -0.1307580f, -0.0914287f },
    { 0.0970166f, 0.1674408f, 0.1406054f, 0.1590968f, -0.1162478f, 0.1280774f, 0.0771682f, 0.1204059f, -0.0469520f, 0.0261964f, 0.0337338f, 0.1037098f, -0.0606265f, -0.0612076f, -0.0800119f, -0.0047709f, 0.0583782f, -0.1183388f, 0.0676871f, -0.1357425f, 0.0005187f, -0.1057422f, 0.0621454f, 0.0502274f, 0.1752872f, 0.1230254f, -0.0849584f, -0.1726060f, -0.0648407f, -0.1598882f, -0.0006706f, -0.1598314f },
    { 0.3266531f, 1.1308966f, -0.0489250f, -0.5912521f, 0.1081138f, -0.5661159f, -0.7717159f, -0.0132250f, 0.9083634f, 0.1385646f, 1.0654491f, -0.0542244f, -0.9536952f, 0.1891730f, -0.1154800f, -0.5251078f, -1.2432489f, 0.0757755f, -0.2317127f, -0.2142750f, -0.3995366f, 0.1577111f, -0.1418502f, -6.3264637f, 1.2153317f, -0.7995309f, 0.2589243f, -0.0931389f, 0.1878975f, -0.0197687f, -0.1877998f, -0.5225748f },
    { 0.0767568f, 0.1658649f, -0.0330542f, -0.0438841f, 0.0598988f, -0.1923297f, -0.0300039f, -0.1521337f, 0.1448279f, 0.0269054f, -0.0799576f, 0.1203778f, 0.1311980f, -0.1299374f, 0.0333271f, -0.0604483f, 0.1690404f, 0.0578786f, -0.0044905f, 0.0402430f, -0.0471127f, 0.1107568f, 0.0615023f, -0.1314288f, 0.0140063f, 0.0151987f, 0.1273935f, 0.0261554f, 0.0127445f, 0.0673519f, -0.0804866f, -0.1950140f },
    { -0.0492194f, -0.0364402f, -0.0538675f, -0.0205780f, 0.1542642f, 0.1041685f, 0.0191808f, -0.1530253f, -0.0658713f, 0.1440138f, 0.0052229f, -0.1967626f, 0.1421277f, -0.1472707f, -0.0472444f, -0.1754446f, -0.0296038f, 0.1037628f, 0.0192618f, 0.0785379f, -0.1028472f, -0.0838549f, -0.1116951f, -0.1709048f, -0.0544207f, 0.1237711f, -0.0073577f, -0.0145261f, 0.1198107f, -0.0089993f, -0.1347705f, 0.0997960f },
    { -4.2231069f, 0.2094987f, -0.1614026f, -0.1066302f, -0.3266288f, -1.0803388f, 2.1889760f, -4.3780169f, 0.4907920f, 0.8645393f, -0.3494642f, -0.0538556f, -4.4621649f, 0.5010720f, -0.2225960f, -2.2632585f, -1.6480920f, -0.1184688f, -1.6775155f, 0.0364574f, 0.7812715f, -2.7185977f, -3.4206715f, -0.9139786f, -0.0644026f, 0.6977415f, -1.5436019f, 0.0811766f, 1.2017486f, -0.1935842f, -0.1642012f, -1.1945971f },
    { -0.0817936f, 0.2165919f, 0.0010377f, 0.0117755f, -0.1069050f, -0.0257235f, -0.1384340f, 0.1241229f, 0.0398734f, -0.1099532f, 0.0184320f, -0.0056706f, 0.1952771f, -0.0048211f, 0.1766845f, -0.1433545f, -0.0133696f, -0.1152506f, -0.0762304f, 0.0002030f, 0.0593404f, -0.1141448f, 0.0492275f, 0.0367651f, 0.0505834f, 0.1477109f, -0.0649613f, 0.1767253f, -0.0315379f, -0.1575151f, -0.0303103f, -0.1401955f },
    { 1.0791479f, -0.5547861f, -0.0331479f, -2.7905841f, -0.0700423f, -2.4154649f, -0.1924338f, 0.2054364f, -3.3960850f, -1.0921302f, 0.4253059f, -0.2237413f, -0.7356786f, 4.3999977f, -0.1203497f, -7.2944927f, -0.0836185f, 1.8766174f, -1.0917813f, -0.3220767f, 0.1590939f, 2.1621573f, 1.6935656f, 2.9114418f, -2.8171396f, 3.5259461f, -0.0741603f, -0.1311106f, 2.4865239f, -0.0486234f, -0.0284799f, 0.5224213f },
    { -0.2552926f, -0.0809953f, 0.0896638f, 0.2608532f, 0.0154312f, -0.0262949f, 0.0423428f, -0.0501462f, 0.1410431f, 0.0044154f, 0.0499926f, -0.0081398f, -0.0861516f, -0.0190430f, 0.1631645f, -0.1070313f, 0.0390157f, 0.0002965f, -0.1269969f, -0.1524657f, 0.0694391f, -0.0276596f, 0.0826361f, 0.0154108f, -0.0139236f, 0.0679556f, 0.0403382f, -0.0478421f, 0.0656551f, 0.1239472f, -0.0606580f, 0.0872510f },
    { 0.5563588f, 1.1883061f, -0.1957951f, -6.4183812f, -0.2452525f, -0.7589457f, -0.8733374f, 0.4618991f, -0.5323182f, 0.0528116f, 0.0543176f, -0.0014409f, -2.8587236f, -0.2330792f, -0.1356961f, -1.4520428f, -0.2995984f, -1.3442343f, -2.3714175f, -0.1842209f, 0.0651011f, -1.8910854f, -1.7517637f, 1.2016003f, 0.8737392f, -1.9836702f, 0.7061445f, -0.3819730f, 0.8279135f, 0.0449135f, -0.0042485f, 0.0624972f },
    { 0.3185568f, -1.1752311f, -0.0655984f, -1.9830782f, -0.0018531f, -0.4480008f, 0.2018446f, 1.1948999f, -0.8319135f, 4.1463242f, 0.4322149f, -0.1644508f, -3.9636331f, 2.1119113f, 0.1263230f, -0.3612216f, 1.0855899f, 2.2955921f, 0.8056011f, 0.0517835f, 0.4588513f, 1.2955742f, -0.4757954f, 0.0285984f, -0.3952935f, 0.6065717f, -2.0226448f, -1.0235326f, 0.6122844f, -0.0722887f, 0.0352740f, 0.3700542f },
    { -0.0207129f, 0.0676650f, -0.0761842f, 0.1336655f, -0.0277119f, -0.0398943f, 0.1531359f, -0.1470286f, -0.0864255f, 0.0567984f, -0.1605423f, 0.0202472f, -0.0153665f, -0.0064814f, -0.0600556f, -0.1401143f, -0.0319310f, 0.1105383f, 0.0809292f, 0.1732002f, 0.0943993f, -0.1157693f, 0.1746257f, 0.0405964f, 0.1710359f, -0.0402550f, 0.1491013f, -0.1513675f, 0.1143070f, 0.0850725f, 0.1178962f, -0.0261586f },
    { 1.1808469f, -0.0225464f, -0.1410311f, 1.6694261f, -0.4943907f, 0.0378484f, 2.6172667f, 1.5955106f, 1.4360769f, 1.3815966f, -0.0815225f, 0.0591169f, -15.6251984f, -2.0049846f, 0.0522532f, 0.4815960f, -6.6726542f, -1.7912245f, 2.3337717f, -0.1808984f, 0.0258204f, 4.0469174f, 0.6498846f, -1.4924022f, 1.9220998f, -0.0253603f, -0.4832549f, 2.7017169f, -0.3966264f, -0.0431710f, -0.3427843f, -1.0881739f },
    { -0.4632603f, 0.9419345f, 0.0287553f, -0.7675101f, 0.1594214f, -0.7219030f, -0.8295710f, 1.3168701f, -0.8835835f, 0.8493806f, 0.4605682f, -0.1443348f, 1.9302068f, 0.6887081f, -0.0172215f, -3.8233457f, 0.1856754f, -0.0351904f, -0.4766073f, -0.1563631f, -1.8880744f, -2.2599590f, -0.6486236f, 3.1037054f, -0.4793471f, -0.7193481f, 2.6304364f, -2.1975043f, -0.2065701f, 0.0266828f, -0.2542875f, -2.5923159f },
    };

    HOST_DEVICE_CONSTANT float bias_output_layer[3] = {
    -0.8107917f, 0.2158697f, 0.1792289f };

    HOST_DEVICE_CONSTANT float wgtT_output_layer[32][3] = {
    { 0.3541010f, -0.0766125f, -0.1190955f },
    { 0.1566345f, -0.1564178f, 0.0580950f },
    { 0.0079184f, 0.0768189f, 0.0308071f },
    { -0.7819192f, -0.8599133f, 0.0283872f },
    { 0.1365558f, -0.1352836f, 0.2189262f },
    { 0.0269749f, 0.0281017f, -0.2607915f },
    { 0.2486566f, -0.1058227f, -0.2247657f },
    { -0.2840704f, 0.0169656f, 0.0608974f },
    { -0.1386731f, -0.2867535f, -0.0336584f },
    { 0.0204337f, -0.1528447f, 0.1172192f },
    { 0.2801042f, 0.0031059f, -0.1293548f },
    { 0.0218650f, -0.0916797f, -0.1072121f },
    { 0.0740285f, -0.4519514f, -0.3989069f },
    { 0.3290536f, -0.2303819f, 0.1233837f },
    { -0.0517843f, 0.1015953f, -0.0944473f },
    { -0.2002642f, -0.5147095f, -0.1885856f },
    { -0.0865597f, 0.2379623f, 0.2834645f },
    { -0.0857516f, 0.4049624f, -0.2225519f },
    { 0.0309953f, 0.2060439f, 0.4653981f },
    { -0.0800967f, 0.0013328f, -0.0504434f },
    { -0.1052053f, 0.2920813f, 0.2300075f },
    { -0.1933330f, -0.0182077f, 0.2703886f },
    { 0.2061724f, 0.0574940f, -0.2394057f },
    { 0.0843355f, -0.1778155f, -0.1816270f },
    { 0.1207931f, 0.2480173f, -0.0992553f },
    { 0.1328569f, -0.1223637f, 0.2924166f },
    { -0.2761341f, 0.1372354f, 0.0422018f },
    { -0.3634741f, 0.0176459f, 0.1083990f },
    { -0.4054379f, 0.0997694f, -0.0389143f },
    { 0.0138043f, 0.1643508f, 0.1170741f },
    { 0.1034109f, -0.0218407f, 0.0364578f },
    { -0.2925382f, 0.1800703f, 0.1863872f },
    };
}  //namespace ALPAKA_ACCELERATOR_NAMESPACE::lst::dnn::t4dnn
#endif
