#ifndef RecoTracker_LSTCore_src_alpaka_T5EmbedNetworkWeights_h
#define RecoTracker_LSTCore_src_alpaka_T5EmbedNetworkWeights_h

#include <alpaka/alpaka.hpp>

#include "FWCore/Utilities/interface/HostDeviceConstant.h"

namespace ALPAKA_ACCELERATOR_NAMESPACE::lst::dnn::t5embdnn {

  HOST_DEVICE_CONSTANT float bias_fc1[32] = {
      -0.9598878f, 0.0878039f,  1.7896566f,  0.5146632f,  -0.0162605f, 0.4588976f,  0.0213260f, 1.3909615f,
      -0.1484435f, -0.8754486f, 0.0465658f,  -0.1515206f, 0.7644885f,  0.6442893f,  1.3355688f, 0.0158414f,
      -0.0777233f, 0.0033272f,  0.1334810f,  0.0090908f,  -0.0828567f, -0.3060022f, 0.5463116f, -1.8017302f,
      0.1705165f,  -0.7197251f, -0.7793315f, -1.7447037f, 0.2618848f,  -0.1740292f, 0.5227864f, 0.0617760f};

  HOST_DEVICE_CONSTANT const float wgtT_fc1[30][32] = {
      {-0.0069432f, -0.0004147f, 0.0114648f,  -0.0501221f, -0.1268186f, -0.0261487f, 0.0995848f,  -0.0082367f,
       0.0371357f,  0.0201904f,  0.0156629f,  -0.1166645f, -0.0238351f, 0.0042578f,  -0.0342939f, 0.0462179f,
       -0.1776737f, -0.1698786f, 0.0060219f,  -0.1271834f, -0.1318914f, -0.0379743f, -0.0028704f, 0.0059029f,
       -0.0786194f, -0.0002085f, -0.0066507f, -0.0030552f, -0.0317778f, -0.0570465f, -0.0162881f, 0.1635776f},
      {0.0008184f,  -0.0121548f, -0.0128656f, -0.0007862f, -0.1296187f, 0.0211281f, -0.0672694f, -0.0071339f,
       0.0525587f,  0.0242641f,  0.0652367f,  -0.1556990f, 0.0269032f,  0.0217243f, 0.0078974f,  0.1505258f,
       -0.0250978f, 0.1468704f,  0.0027939f,  0.0174955f,  -0.0783407f, 0.0126739f, 0.0395073f,  -0.0150865f,
       0.1116435f,  0.0002188f,  -0.0116634f, 0.0355478f,  -0.0015246f, 0.0110677f, 0.0097125f,  -0.1102573f},
      {0.0017777f,  0.0115272f,  -0.0282873f, -0.0478861f, -0.1391501f, 0.0309178f,  0.0857614f,  -0.0163230f,
       0.1625281f,  -0.0093064f, -0.0339217f, 0.1469173f,  -0.0066462f, 0.0096694f,  -0.0017944f, 0.1684934f,
       -0.0268653f, -0.0243241f, 0.0295927f,  -0.0773052f, -0.0228190f, 0.0060589f,  -0.0362872f, -0.0245896f,
       0.1499621f,  0.0030072f,  -0.0049972f, 0.0036763f,  -0.0049870f, -0.0021708f, -0.0700116f, 0.1587680f},
      {0.7914163f,  1.5590429f,  0.8648701f,  1.8054061f,  -0.0168270f, -1.3327414f, -0.0356709f, 0.8501214f,
       -0.0226680f, 0.1701954f,  -0.0042809f, 0.0883593f,  1.1264279f,  -1.2876542f, 0.7215500f,  0.0270877f,
       -0.1622642f, -0.1662522f, -0.6278260f, 0.1440708f,  0.1105699f,  0.3829032f,  0.7705692f,  -0.5298244f,
       -0.0251444f, -0.6337946f, -0.3200217f, -0.7567254f, -3.2283394f, 1.1781929f,  -1.6125584f, -0.0644835f},
      {2.4561198f,  -2.3841774f, -0.4352949f, -1.4579540f, -0.0676651f, 2.1675751f,  -0.0622338f, -1.2452946f,
       0.0319558f,  3.4399927f,  0.0210919f,  -0.0377494f, -0.4463396f, -1.1271464f, -1.9906958f, -0.1176824f,
       -0.1635999f, 0.1380038f,  -0.0372170f, -0.0049134f, -0.0928792f, 3.1454425f,  -1.6810335f, -0.0409243f,
       0.1025858f,  3.3557248f,  0.1065430f,  1.3764329f,  -0.1736639f, -2.3433731f, 0.5780415f,  -0.0044439f},
      {0.2909531f,  -1.7973386f, -0.3533685f, 1.2014608f,  -0.1210333f, -13.2328720f, -0.1492468f, -1.8822348f,
       0.1462746f,  0.2650844f,  0.0658054f,  0.1817075f,  1.2194003f,  2.4575412f,   -1.8057569f, 0.0086671f,
       -0.1107847f, -0.0767201f, -0.5592447f, 0.1770854f,  0.1702880f,  -0.8787990f,  1.4229730f,  -0.9895302f,
       0.1723929f,  5.6429706f,  -2.4011986f, -1.5430727f, 0.5518759f,  -0.2126841f,  -1.7212331f, 0.1114598f},
      {0.0627374f,  -1.2198976f, 1.1186533f,  -5.1042089f, 0.1535002f,  0.2789127f,  0.1591013f, 0.0675134f,
       -0.1276500f, -0.4475898f, -0.1067414f, -0.1313469f, 0.3724734f,  -2.6309273f, 0.2162385f, 0.0772559f,
       -0.0032966f, 0.1173062f,  0.6172872f,  -0.0174716f, 0.1207664f,  0.0764571f,  0.0590775f, 2.4700823f,
       0.1781147f,  0.0001520f,  -1.3429916f, -2.4213874f, -1.0952508f, -0.1622591f, 0.7150588f, -0.0877221f},
      {0.5328693f,  -0.1944278f, -0.6231581f, 1.7959008f,  0.1254343f,  0.8922135f,  -0.1334267f, 0.4298891f,
       -0.0860209f, 1.4098161f,  -0.1346970f, -0.0938126f, -2.5969198f, -1.7377622f, 0.2116822f,  -0.0968352f,
       0.0493959f,  -0.1166615f, -0.7848063f, -0.1221226f, -0.0815350f, -1.2113962f, 0.5591623f,  -0.9949416f,
       -0.0113702f, 0.6760039f,  -0.4458573f, -2.1976717f, -1.4839826f, 2.0510361f,  -1.3588024f, 0.1410012f},
      {3.3204584f,  -2.4828591f, -0.7624781f, 0.3498214f,  -0.0640192f, 0.2669667f,  -0.1766432f, -2.2207875f,
       -0.1649025f, 2.7815669f,  0.0751700f,  -0.0847948f, -0.0608968f, -1.5868872f, -1.9960371f, 0.1808460f,
       0.1067898f,  -0.1139008f, -0.5199131f, -0.1471257f, -0.0045016f, 1.8531381f,  -2.2623773f, 1.4525713f,
       0.0794839f,  1.4266015f,  0.9933732f,  1.6933208f,  0.1764570f,  -1.8418518f, 0.6415809f,  -0.0202523f},
      {-0.6729305f, 3.0988581f,  1.6185950f,  -0.1305633f, 0.1366011f,  -2.9484136f, -0.0976844f, 2.2067978f,
       -0.0808755f, -1.9061416f, -0.1432149f, -0.0818148f, -1.1490778f, -2.7618158f, 0.8320090f,  0.1318868f,
       0.1312494f,  0.0594043f,  -0.1432247f, -0.1471701f, 0.1414064f,  4.0475411f,  -1.1483897f, -2.5776551f,
       0.0182874f,  -7.0883217f, 2.7619636f,  4.0760875f,  -4.3286057f, 4.1588850f,  7.3585882f,  -0.1598058f},
      {-0.1106439f, -1.8272858f, 4.6132002f, -4.4778967f, -0.0653921f, 0.3216701f,  0.0980451f,  -3.9513597f,
       0.1565753f,  -0.8363307f, 0.1297241f, -0.0327525f, -2.8475916f, -1.3593709f, -0.0606686f, 0.0308603f,
       -0.1697906f, -0.1796922f, 0.0751787f, 0.1667719f,  0.1358988f,  -0.5558687f, -0.4768747f, 2.8844111f,
       0.0362971f,  0.2336642f,  0.5457742f, -2.3508606f, -2.1810460f, 0.0450369f,  1.1033703f,  0.1374561f},
      {1.4003320f,  0.1213578f, -1.3777088f, 0.6982233f,  -0.0316776f, 0.8644696f,  -0.0245918f, -0.3706097f,
       -0.1359401f, 2.3983595f, -0.1630088f, -0.0443329f, -2.6184056f, -1.3764530f, 0.1189098f,  0.1558152f,
       -0.1549638f, 0.0280763f, 1.1264966f,  -0.0933812f, 0.0946629f,  -2.2054315f, 1.0755147f,  -1.6877873f,
       -0.1030877f, 0.8941010f, -0.5209473f, -1.9168243f, -1.2782214f, 3.6252048f,  -2.5238655f, -0.0042587f},
      {3.6517739f, -3.4089780f, -1.6277674f, -0.1724505f, -0.0682219f, -0.3172987f, -0.1288622f, -2.2764108f,
       0.0137137f, 2.7729542f,  -0.1193941f, -0.0551095f, -0.3976623f, -2.1559889f, -3.5819216f, -0.1416043f,
       0.0080112f, 0.0021936f,  0.0855778f,  -0.0953105f, 0.0963051f,  0.9818776f,  -3.0609546f, 2.3319979f,
       0.1437552f, 1.3813674f,  2.1720433f,  2.0490797f,  1.6812576f,  -1.1412405f, 1.1802682f,  -0.0956472f},
      {-4.3715158f, 0.8896371f,  0.1684008f, -2.2139781f, 0.0826847f,  -2.0092058f, 0.0495814f,  1.4780089f,
       -0.1563865f, 0.0919517f,  0.1422162f, -0.0460226f, -3.2420075f, -0.8476401f, 1.2981040f,  0.0931651f,
       -0.0969436f, 0.1683702f,  0.8212678f, 0.1322622f,  0.0364577f,  0.8944647f,  -0.4162209f, -1.4007488f,
       0.1772301f,  -2.3073754f, 1.3040161f, 2.6691513f,  2.1074290f,  2.0781317f,  4.8818293f,  0.0883996f},
      {-0.4860305f, 2.1002095f,  9.6670790f,  -1.9622988f, -0.1122858f, -0.0834825f, 0.0392912f,  -7.8705964f,
       -0.0976040f, -0.3312238f, 0.0138061f,  -0.0835392f, -5.3910642f, 4.6712947f,  -2.0037947f, 0.1671844f,
       -0.1259947f, 0.0224550f,  -0.5477656f, -0.1465076f, 0.1742039f,  0.0865316f,  0.2381857f,  -0.7358446f,
       -0.0271965f, 0.2405530f,  -1.8877609f, 0.6188774f,  -1.9528443f, 0.1352551f,  -0.3016134f, 0.1027275f},
      {1.3221570f,  -0.8285546f, 1.0263989f,  -1.4675750f, -0.0660010f, 0.6154464f,  0.0645008f,  2.1649206f,
       -0.1270198f, 3.5978997f,  -0.0031338f, -0.1633724f, -3.8527770f, 0.6834427f,  1.6322473f,  -0.1565631f,
       -0.1245289f, 0.0722160f,  0.0880808f,  -0.1021290f, -0.0592937f, -1.9843007f, 0.5453446f,  -1.2539351f,
       -0.0993687f, -0.3468291f, -0.3689735f, 1.4710168f,  -2.8356752f, 4.2553797f,  -0.5630978f, -0.0631321f},
      {2.5915864f,  -1.3842307f, -2.7765868f, 0.0125425f,  -0.0768809f, -0.7377085f, 0.0895038f,  -2.3966541f,
       -0.1499566f, 1.9235506f,  -0.0416245f, 0.0477881f,  -0.4806699f, -1.2582506f, -2.7749686f, -0.0866844f,
       -0.0971426f, -0.0603821f, 0.5858753f,  -0.0033424f, 0.0659441f,  -0.8657751f, -0.2610883f, 2.3734450f,
       0.0609407f,  1.6743948f,  0.2259938f,  2.7325208f,  2.0572815f,  -1.4958055f, 0.6089051f,  -0.0690814f},
      {-1.7016762f, 0.1173628f,  1.2062955f,  -2.0776675f, -0.1068342f, -0.2901737f, 0.1543414f, 1.8982110f,
       -0.0831453f, 1.1492610f,  -0.0592295f, 0.0798127f,  0.0813326f,  -0.3603985f, 1.6266141f, 0.0284537f,
       0.1700617f,  -0.1328658f, 4.6012225f,  -0.1505489f, -0.0478402f, 0.7528950f,  0.4677441f, 0.7476389f,
       -0.0116516f, 0.0585176f,  -1.2732884f, 1.5319730f,  3.3052528f,  1.8195790f,  3.5724697f, 0.0363395f},
      {0.5040761f, 1.6665870f,  4.5720429f,  2.2268324f,  -0.1531653f, -0.2391094f, -0.1494584f, -4.7756119f,
       0.1453247f, -0.1635159f, 0.1652259f,  -0.1196351f, -3.3726330f, 3.2391062f,  -2.3992183f, -0.0718843f,
       0.1254208f, -0.0082564f, -0.1987237f, 0.0724824f,  -0.0296241f, 0.8424870f,  0.1820754f,  -0.0972968f,
       0.0023201f, -0.4085647f, 1.3680365f,  0.1238415f,  -1.7001271f, 0.1694714f,  -0.3525006f, -0.0060194f},
      {0.8538105f,  -0.6599542f, 0.3120758f, -0.2207838f, -0.0900950f, 0.9366260f,  -0.1245492f, 0.8449450f,
       0.0047535f,  1.5388864f,  0.1375448f, 0.0280572f,  -1.7337866f, 0.6223401f,  0.5585846f,  -0.0650962f,
       0.0582347f,  -0.0934884f, 0.3795577f, 0.1256741f,  0.1615199f,  -1.7189877f, 1.5176481f,  -0.3362247f,
       -0.1777916f, -0.7009463f, 1.4949028f, 0.9093859f,  -0.6519954f, 2.4996934f,  0.3549428f,  0.1371370f},
      {1.7584292f,  -0.2614551f, -1.5951239f, 0.4764646f, 0.0135973f,  -0.7147983f, 0.1795431f,  -1.6242217f,
       -0.1677535f, 0.9726133f,  -0.1707585f, 0.1136196f, -0.0773205f, -1.0778519f, -2.0021386f, -0.0440482f,
       -0.0005668f, 0.0126469f,  0.8203589f,  0.1676350f, -0.1622961f, 0.2332638f,  -0.3593373f, 0.9866219f,
       0.1487901f,  0.8539596f,  0.1254837f,  0.9413004f, 0.8615474f,  -0.8925185f, 0.0308453f,  0.0838030f},
      {0.1948539f,  -0.3849207f, -0.3715267f, -0.3666781f, -0.1658508f, 0.1256690f,  -0.0382436f, -0.4220341f,
       0.0344250f,  -0.3427574f, -0.0364704f, -0.1138772f, -0.0607497f, 0.5129890f,  0.6410311f,  -0.1253443f,
       -0.1427484f, -0.1240420f, 0.1950898f,  -0.1728930f, -0.0659873f, -0.1704501f, 0.1186988f,  0.2077856f,
       -0.1681766f, -0.2923768f, 0.3495131f,  0.8939671f,  -0.3957493f, 0.2880892f,  0.5097700f,  -0.0651391f},
      {-0.3505115f, 0.8253878f,  -0.0330800f, 0.3451867f,  -0.1570685f, -0.4727332f, -0.1470099f, 0.2209272f,
       -0.1697859f, 0.2859086f,  -0.1121523f, -0.1747078f, 0.0142612f,  0.0660600f,  -0.3945130f, -0.1732559f,
       -0.0805673f, -0.1795448f, -1.2639610f, -0.1476574f, 0.0026073f,  0.2284772f,  0.3239330f,  0.9328834f,
       -0.1008491f, 0.2973673f,  -0.0211970f, -0.0207749f, 0.8907756f,  0.3265601f,  -0.2621554f, -0.1584339f},
      {-0.0685102f, 0.4503096f,  0.0384333f,  -0.1280677f, -0.0454590f, -0.0757564f, 0.0115130f,  0.1348026f,
       0.0176961f,  -0.0091282f, -0.1300642f, -0.0952699f, 0.2092312f,  -0.0821649f, -0.0516446f, -0.0316538f,
       0.0184722f,  -0.0227317f, 1.0445844f,  -0.1126554f, -0.0729345f, 0.3453832f,  0.1085968f,  0.3398905f,
       -0.0786808f, -0.0011577f, -0.1515115f, 0.1826591f,  0.5500857f,  0.4549313f,  0.0600325f,  -0.0671093f},
      {-0.8041240f, -0.1194682f, 0.6106951f,   0.1389166f,  -0.1420236f, 0.3024385f,  0.1267099f,  0.4688812f,
       0.0814905f,  -0.2569634f, -0.1263027f,  0.1346574f,  0.8971075f,  0.4105959f,  0.5535402f,  -0.0935104f,
       -0.0639949f, 0.0790172f,  0.5674775f,   0.0249874f,  -0.0143039f, -0.4294509f, -0.0787432f, -0.4722800f,
       0.0631658f,  -0.6292524f, -10.4663849f, -0.6759310f, -0.0278932f, -0.1743984f, 0.2911994f,  0.1035050f},
      {-0.7600729f, -0.1114962f, 0.8398816f,  0.5776778f,  0.0811568f, 0.3608417f, -0.0664081f, 0.5807650f,
       -0.1159228f, -0.7513005f, 0.1483904f,  -0.1792911f, 0.2225813f, 0.1917619f, 0.5966399f,  0.0586180f,
       -0.0426994f, -0.1008787f, -0.1381261f, 0.1106983f,  0.0424640f, 0.0089521f, -0.1232878f, -0.5145742f,
       -0.1818387f, -0.6056513f, -0.7369602f, -0.3178258f, 0.6100244f, 0.2156042f, -0.1648557f, -0.0246955f},
      {-0.7098593f, -0.0460899f, 0.8627843f,  0.0024349f,  0.0780402f,  0.3941784f,  -0.1442982f, 0.6797924f,
       -0.0868852f, -0.1408737f, 0.0767594f,  0.0404979f,  0.6295761f,  0.2782333f,  0.6814824f,  0.0979271f,
       0.0701560f,  -0.0619080f, -0.0071220f, -0.0468385f, -0.0226203f, -0.5153303f, 0.4201682f,  -0.7110009f,
       0.1482268f,  -0.5823660f, 0.3111991f,  -0.3709612f, 0.0905580f,  -0.3642666f, 0.2152746f,  -0.0700712f},
      {0.0878172f,  -0.0536509f, -0.2168286f, 0.5162161f,  -0.1065801f, 0.1418831f, -0.1537751f, -0.1949615f,
       -0.1652977f, -0.0117810f, -0.1077173f, 0.0068938f,  0.2494022f,  0.0222544f, -0.2271022f, -0.1165797f,
       0.0946219f,  0.1469558f,  0.4963023f,  -0.0461140f, -0.0014024f, 0.1073061f, -0.1796789f, 0.2807749f,
       0.0113534f,  0.0207497f,  1.0833713f,  -0.2662756f, -0.2486426f, 0.2068699f, 0.0822308f,  -0.0446997f},
      {-0.0660461f, 0.0189283f,  -0.0352964f, 0.0406488f, 0.0689475f,  0.0878918f,  -0.1254805f, 0.2109582f,
       -0.0706754f, -0.0853232f, -0.1772087f, 0.1143671f, -0.2133706f, -0.0922861f, -0.0601135f, 0.0052769f,
       -0.1820877f, -0.0535508f, -0.1534789f, 0.1141194f, -0.0776278f, 0.1957908f,  0.1498703f,  0.1028681f,
       0.0149331f,  0.0184214f,  -1.0247273f, 0.0059132f, 0.0321514f,  0.1471294f,  -0.1369246f, -0.1483759f},
      {-0.0307901f, 0.0192211f, 0.0201218f,  -0.4623873f, 0.0693000f,  -0.0002965f, -0.0792220f, 0.3013715f,
       -0.1904031f, 0.0873466f, -0.0310334f, 0.0505858f,  0.0187561f,  -0.0512400f, -0.0294411f, -0.1552369f,
       -0.1504997f, 0.0095864f, -0.1195241f, 0.1666399f,  -0.0943607f, -0.1585675f, 0.1252951f,  -0.1485215f,
       -0.0561429f, 0.0274614f, 0.4201671f,  0.1246489f,  -0.1424267f, -0.0335896f, -0.1243329f, -0.0596251f},
  };

  HOST_DEVICE_CONSTANT float bias_fc2[32] = {
      0.0075145f,  -0.1068135f, 5.0541291f,  3.2424798f,  1.5494964f,  0.0195714f,  1.1472638f,  0.2205927f,
      0.0532915f,  -0.0453491f, -0.1933050f, 1.2778131f,  -0.1774754f, -0.1843615f, -0.1558393f, 0.6833821f,
      -0.6575369f, 1.7037928f,  -0.8219830f, -0.1063970f, 3.6269476f,  1.2555645f,  0.9228140f,  -0.1446085f,
      -0.0766176f, -0.3371659f, 0.0217588f,  -1.1638061f, -0.8395884f, 0.6778303f,  -0.0456528f, -0.0107461f};

  HOST_DEVICE_CONSTANT const float wgtT_fc2[32][32] = {
      {-0.0193986f, -0.1925468f, -0.2029187f, -0.0987572f, 0.5899201f,  0.1122876f,  -0.4844652f, 0.1144809f,
       -0.0124180f, 0.4556914f,  -0.0909697f, 0.8946741f,  0.0234850f,  -0.1511489f, -0.1666133f, -0.8623894f,
       0.2664407f,  0.3173158f,  1.1192787f,  0.0929695f,  0.9823563f,  -0.4255539f, 0.6798247f,  0.0714111f,
       0.5938374f,  1.1429838f,  0.5470358f,  0.9065307f,  -0.6135589f, -0.1111301f, 0.0163815f,  -0.1821153f},
      {-0.2538354f, -0.2341413f, -0.0983197f, 0.0021963f, -0.1938845f, -0.1151129f, -0.1918615f, 0.5729460f,
       0.0790443f,  0.0075265f,  -0.1109024f, 1.5147949f, -0.1441229f, -0.2036260f, 0.1488303f,  -0.2669061f,
       0.0606553f,  0.3198453f,  -0.1878013f, 0.0464109f, -0.1898058f, 0.4129277f,  0.1807212f,  -0.1246337f,
       0.8156235f,  1.0974519f,  1.0493592f,  0.0970219f, 0.7464577f,  0.8280556f,  0.1001355f,  0.0551424f},
      {-2.4008422f, -0.0692809f, -1.2774906f, 1.4582566f,  0.3844815f,  0.1013656f,  -0.1226594f, 2.4331882f,
       -0.1767200f, -0.2503292f, -0.0035753f, -0.2177327f, -0.0918954f, -0.0694715f, -0.1341257f, -0.7729316f,
       1.1479410f,  0.8544220f,  0.2299826f,  -0.1258346f, 0.7890162f,  -0.5273461f, 0.2906290f,  -0.0263285f,
       -1.1957135f, -0.0297133f, -0.1277791f, -0.6849953f, 0.0850068f,  -1.0770891f, -0.1533023f, 0.0039131f},
      {1.0068322f,  -0.2070363f, 0.4477462f,  -0.4959559f, -0.0859479f, -0.1134254f, -0.2695048f, -1.0000699f,
       0.0262529f,  -0.4521413f, -0.0673397f, 0.2439520f,  0.0058244f,  -0.0626273f, -0.1269190f, -0.8683677f,
       -0.4413244f, -0.5048799f, 0.2391604f,  -0.0269269f, 0.1464953f,  0.1079638f,  0.6500867f,  -0.1704808f,
       -0.0119531f, 0.4195316f,  -0.3344708f, -0.7323115f, 0.7964352f,  0.3424360f,  -0.1693304f, -0.0832426f},
      {-0.1192375f, -0.1373525f, 0.0657374f,  -0.0089738f, -0.0956804f, 0.0980818f,  0.0036864f, 0.0816351f,
       0.1734236f,  0.0983827f,  0.0951421f,  -0.0176512f, 0.1667621f,  0.1657009f,  0.1656011f, -0.0232978f,
       -0.0522976f, -0.1342754f, -0.0747199f, 0.0445858f,  -0.0611847f, -0.0635264f, 0.0861344f, 0.0465405f,
       0.0818871f,  -0.0028405f, -0.0405057f, 0.0733086f,  0.0711784f,  0.0647107f,  0.0848832f, 0.0122970f},
      {-0.2129675f, 0.0260409f,  0.4217207f,  0.9352210f,  0.5954834f,  -0.0246570f, -1.8550491f, 0.1882156f,
       0.1181386f,  -0.3700794f, -0.0304146f, -0.2426387f, 0.1270835f,  -0.0535196f, 0.0608609f,  -0.0789345f,
       -0.0254770f, -0.0923504f, -0.0893995f, 0.1147608f,  0.0599797f,  0.1959855f,  -1.6063980f, -0.0341259f,
       -0.2051738f, -0.1748663f, -0.1123324f, 0.0055024f,  -0.1313367f, 0.4235370f,  -0.1635678f, -0.1280562f},
      {0.0563729f,  -0.1599215f, 0.0616115f,  -0.0280067f, 0.0621408f,  -0.1425575f, -0.0064684f, 0.0725834f,
       -0.1010093f, -0.0060403f, -0.1006240f, 0.1561258f,  0.1361706f,  0.1090614f,  -0.1645844f, 0.1577639f,
       0.1431865f,  -0.0499629f, 0.1688136f,  -0.0021823f, -0.1096630f, -0.0092605f, 0.1269194f,  -0.0074660f,
       0.0134476f,  0.1341912f,  -0.0565196f, -0.0308633f, 0.0697700f,  -0.0588400f, 0.1517432f,  0.0899692f},
      {1.8113863f,  -0.1180690f, 1.4787714f,  -1.0711621f, 0.3060367f,  -0.0163137f, -0.1140137f, -2.1168113f,
       -0.1371098f, 1.5608884f,  -0.1214859f, 0.4508819f,  -0.1197099f, -0.1609970f, -0.0252861f, -0.3919364f,
       -0.0737414f, -0.8566194f, 0.8836586f,  0.0259356f,  0.6488097f,  -0.2225411f, 0.3160680f,  -0.1801415f,
       -0.3910140f, 0.0647930f,  -1.0380822f, -0.1234209f, -0.1780632f, -0.7547581f, -0.2086536f, -0.2020261f},
      {-0.0571794f, -0.1179220f, 0.1052732f,  -0.1063872f, 0.0368355f,  -0.1239159f, -0.0773452f, -0.0225736f,
       0.0121222f,  0.1009943f,  -0.1022871f, -0.0064863f, -0.0658477f, -0.1152755f, 0.1340363f,  -0.0833107f,
       0.1010744f,  0.0001294f,  -0.1592737f, 0.0587759f,  -0.0240501f, 0.0094681f,  -0.1445161f, 0.1572809f,
       -0.0559697f, -0.0807888f, -0.0524061f, 0.1402827f,  0.0019629f,  0.1781192f,  -0.1118153f, -0.1124728f},
      {0.0881434f,  -0.1109273f, 0.5633567f,  0.8642780f,  -0.7598084f, 0.1217581f,  0.0976828f,  0.0775848f,
       -0.1258775f, -0.7578421f, -0.0810581f, -0.6124235f, -0.1646937f, -0.0905694f, 0.0913425f,  -0.3454281f,
       -0.3417383f, -0.9632050f, 0.4826417f,  0.0817805f,  0.3588665f,  1.5155910f,  -0.5324535f, -0.0700672f,
       0.4676259f,  -1.4877083f, 0.4947817f,  -0.1129766f, 0.9623894f,  -0.0462865f, -0.1087534f, -0.0762645f},
      {-0.0711538f, 0.1325198f,  -0.1143389f, 0.0589773f,  -0.0340174f, -0.0096103f, 0.1436099f,  -0.0880427f,
       0.0460822f,  0.0872897f,  0.0347062f,  0.0152732f,  0.1093791f,  -0.0184918f, -0.0068437f, -0.1402359f,
       0.0395021f,  -0.0977389f, -0.0688894f, -0.0150664f, -0.0564961f, -0.0492917f, -0.1477166f, -0.1054264f,
       0.0145214f,  0.0225676f,  -0.1738101f, 0.1645017f,  -0.0264186f, 0.0190761f,  -0.0736033f, 0.1237831f},
      {-0.1000617f, 0.0240102f,  -0.0275355f, -0.0563398f, 0.1608192f,  -0.1197982f, 0.1766751f,  -0.0454061f,
       0.0972098f,  -0.1745852f, 0.0061230f,  0.1324497f,  0.1721058f,  0.1685326f,  -0.0642052f, 0.1335348f,
       -0.0965775f, 0.1411288f,  0.0385753f,  -0.0969702f, -0.0978061f, -0.0222443f, -0.1738611f, 0.1580416f,
       0.1403358f,  0.0168725f,  0.0954424f,  -0.0454043f, -0.1125323f, 0.0637023f,  -0.0691125f, 0.1595119f},
      {0.7252244f,  -0.1994345f, 0.9677759f,  0.0963005f,  0.0044626f,  -0.1700686f, -0.0961884f, -0.9562509f,
       -0.1653439f, 0.9750166f,  -0.1746337f, 0.7769910f,  -0.0380236f, -0.2199722f, -0.0940439f, 0.5041867f,
       -0.2252771f, -0.5201799f, -0.6361868f, 0.0407134f,  -1.2140745f, 0.0381841f,  -0.5425308f, -0.0501882f,
       0.4033887f,  -0.0736184f, 0.0706811f,  -0.8450146f, 0.1209389f,  0.6134228f,  0.1074430f,  -0.1963498f},
      {-0.3323072f, 0.0854007f,  0.1485828f,  0.6729282f,  0.7274389f,  -0.1513692f, -0.2469903f, 0.5211598f,
       -0.0673238f, 0.2173451f,  -0.0373094f, -0.2210186f, -0.3820263f, -0.0345326f, -0.1344870f, 0.0444065f,
       -0.0833820f, 0.1997279f,  0.1187057f,  0.0542352f,  0.2554066f,  0.0583296f,  -0.4820699f, 0.0003612f,
       0.0374587f,  -0.0173917f, 0.1072459f,  -0.0524235f, -1.0846897f, -0.6909456f, 0.0843977f,  -0.0830202f},
      {0.7459105f,  -0.2247139f, 1.0227457f,  0.4479841f, 0.0561516f,  -0.0230596f, -0.0544932f, -0.5050907f,
       0.0106028f,  0.0380411f,  -0.1518004f, 0.0104711f, -0.1837607f, -0.0451321f, -0.1397783f, 0.4187292f,
       0.3366336f,  0.6291885f,  -0.1110663f, 0.0238428f, 0.7435944f,  0.0458423f,  0.5097802f,  0.0860237f,
       -0.0453098f, 1.4864970f,  -0.2814576f, 0.3551094f, -1.2501699f, -0.1720689f, 0.1156432f,  0.0444046f},
      {0.0539680f,  -0.0935518f, -0.0801615f, -0.0638146f, -0.1031408f, 0.1019584f,  -0.0370534f, -0.0378430f,
       -0.1501612f, -0.1103237f, -0.0875348f, 0.0212952f,  -0.1096078f, 0.1542307f,  0.0090460f,  -0.1067379f,
       -0.0168064f, -0.0764941f, -0.1737559f, -0.0202371f, -0.0452696f, 0.0099788f,  0.0102244f,  -0.1501890f,
       -0.1503523f, -0.0841405f, 0.0526701f,  0.0766529f,  -0.1312738f, -0.1202161f, -0.1542486f, -0.0891844f},
      {-0.0145274f, 0.1160288f,  -0.1694485f, -0.0831611f, -0.1315240f, -0.0873914f, 0.0779164f,  0.0073724f,
       -0.1364173f, -0.1163975f, 0.1446309f,  0.1168747f,  0.0501442f,  0.1380311f,  0.0550478f,  -0.0621694f,
       -0.1323200f, -0.1061243f, -0.1427215f, 0.0613220f,  -0.1283963f, -0.0213774f, 0.0606048f,  -0.0869982f,
       -0.1514393f, 0.1450705f,  0.1518726f,  0.0422355f,  -0.0197663f, -0.1065876f, -0.0055818f, 0.0945932f},
      {-0.0242580f, 0.1530541f, -0.1436477f, 0.1065203f,  -0.1393266f, 0.0976748f,  0.0870146f,  -0.1183672f,
       -0.0556048f, 0.1515654f, 0.0466000f,  -0.1396503f, -0.0902916f, 0.1019055f,  0.1526387f,  -0.0525293f,
       -0.0326010f, 0.0391434f, -0.1551352f, 0.0281635f,  0.0759126f,  -0.0233731f, 0.0807905f,  -0.0958706f,
       -0.0479439f, 0.1471512f, -0.0685928f, 0.0874790f,  -0.0978366f, 0.1476954f,  -0.0265700f, 0.1295687f},
      {-0.0035082f, -0.2268816f, -0.1670489f, -0.1181768f, -0.0234241f, -0.1657467f, 0.1553321f,  -0.0205946f,
       -0.0371153f, -0.5505465f, -0.0785883f, -0.8571501f, -0.2023464f, -0.0906664f, -0.0617437f, -0.7626475f,
       -0.7615962f, 0.1503884f,  0.3734690f,  -0.0895129f, 0.6842303f,  0.9181252f,  -0.3322656f, -0.0159394f,
       -0.8272577f, 0.1518944f,  -0.6849943f, -0.3628327f, 0.4580635f,  -0.4317963f, -0.0991979f, -0.0414492f},
      {0.0385802f,  -0.0037253f, 0.1470405f,  -0.1377038f, 0.1007857f,  -0.1325512f, -0.0752341f, -0.1312871f,
       -0.1534724f, -0.0539307f, -0.1246081f, 0.1554550f,  0.0839253f,  -0.0056954f, -0.0256498f, 0.0998423f,
       -0.1411745f, -0.0193114f, 0.1105757f,  0.1416464f,  -0.1754211f, -0.0874743f, 0.1489270f,  0.1106741f,
       0.1337608f,  -0.0081559f, -0.1567471f, -0.0298189f, 0.0042605f,  -0.0126072f, 0.0985098f,  0.0725157f},
      {0.1257038f, 0.0687502f,  -0.1112957f, 0.0256504f,  0.1307507f,  -0.1760906f, 0.1272123f,  -0.1548734f,
       0.1152674f, 0.1488418f,  -0.1262968f, 0.0306587f,  0.0916193f,  -0.1475013f, -0.0151616f, -0.1532307f,
       0.0979745f, -0.1523665f, 0.0098637f,  -0.0061388f, -0.1565077f, 0.0972409f,  -0.1222822f, 0.0092688f,
       0.0005830f, 0.0362789f,  0.1413013f,  0.1632138f,  -0.0733282f, -0.1188068f, 0.1511767f,  0.0162377f},
      {0.2284426f,  0.0749211f,  -0.6912096f, -0.1649658f, -0.0899080f, -0.1708210f, 1.1267668f,  -0.1022958f,
       -0.1520980f, 0.1794884f,  -0.1343496f, 0.0955164f,  0.1113979f,  -0.1483005f, 0.0133322f,  -0.0379316f,
       0.1141555f,  1.3018131f,  0.4465199f,  0.0258854f,  -0.1073077f, 0.2568279f,  0.3727346f,  -0.1007474f,
       0.2217743f,  -0.9969844f, -0.1499700f, -0.9937753f, 0.5553989f,  0.3229875f,  -0.1499700f, -0.2072664f},
      {-0.1240590f, 0.0372413f,  -0.4628882f, 0.0683672f, 0.0574374f,  -0.1545352f, 0.3701420f,  0.0662316f,
       -0.1073087f, 0.2085211f,  -0.0361904f, 0.7277780f, -0.3536597f, -0.1590459f, 0.1111761f,  0.0285794f,
       0.5569743f,  -0.3609831f, -0.3558076f, 0.0627965f, 0.1392828f,  0.5976592f,  0.3649772f,  -0.1382231f,
       0.2820359f,  0.7732342f,  0.2489323f,  0.2903113f, 0.1210786f,  0.0325367f,  -0.0233985f, 0.0155847f},
      {-0.7587004f, -0.1253638f, -0.4291244f, 0.7339530f,  0.2979327f,  -0.0207494f, -0.7195168f, 0.6901388f,
       -0.0493297f, -0.0262609f, -0.1415920f, -0.2065800f, -0.3881738f, -0.0926798f, 0.0260548f,  0.2932596f,
       -0.2326903f, 0.5507888f,  0.3196582f,  0.0330247f,  -0.9017591f, -0.1266707f, -0.7900297f, -0.2333830f,
       1.3035769f,  -0.0891397f, 1.3568348f,  1.1629853f,  0.8232822f,  -0.1868374f, 0.0618362f,  0.1093241f},
      {0.0696934f,  0.1198863f,  0.0682597f,  -0.0980780f, 0.0940102f,  -0.0036413f, -0.0306745f, 0.0846900f,
       -0.1185630f, -0.0128250f, 0.1659203f,  0.0656621f,  -0.1717278f, 0.1111338f,  -0.1416692f, -0.1508570f,
       -0.1206551f, 0.0206154f,  0.1014516f,  -0.0714426f, 0.1190881f,  0.0045235f,  0.0806902f,  -0.0529500f,
       -0.0937154f, -0.1762653f, -0.1671486f, -0.0109102f, -0.1274993f, 0.0786386f,  -0.0518298f, 0.1142089f},
      {0.1048828f, -0.1853612f, 0.2399988f, -0.6009504f, -0.5099682f, -0.1366313f, 2.3476410f,  -0.1306260f,
       0.0012379f, 0.3180061f,  0.0914314f, 0.1566975f,  -0.3105424f, -0.0335102f, 0.0743565f,  0.9814157f,
       0.5206101f, 0.3327944f,  0.2189182f, -0.2570538f, 0.0442835f,  0.7897250f,  0.9156129f,  -0.0995397f,
       0.0510457f, 1.3482550f,  0.0683290f, 0.1431176f,  0.7498447f,  -0.2901553f, -0.1830549f, -0.0456432f},
      {0.0109281f, -0.1406772f, -0.6149676f, -0.2362883f, 0.2948852f,  0.0814475f,  0.1421193f,  -0.0199919f,
       0.0618444f, 1.8720938f,  -0.2673765f, 0.3607880f,  -0.0415137f, 0.1653007f,  0.0138230f,  -0.5805116f,
       0.6342405f, -0.3501301f, -0.0926649f, 0.0185655f,  0.1280065f,  -0.8094243f, 0.8144136f,  -0.0453966f,
       0.0881053f, 0.0005588f,  -0.4553439f, -0.4866787f, 0.6013530f,  -0.0551308f, -0.1589952f, -0.0907446f},
      {0.4143323f,  -0.2269744f, 0.2066898f, 0.4486175f,  0.0989906f,  -0.0514671f, 0.5343177f,  -0.4720452f,
       0.0989500f,  -0.2080081f, 0.0125457f, -1.3769381f, -0.2399766f, 0.0935129f,  0.0692075f,  -0.9264032f,
       -0.6144621f, -2.0870831f, 0.8394917f, -0.1976853f, -0.9809867f, -0.1173700f, -0.1038080f, -0.1733048f,
       0.9985570f,  -0.7864164f, 0.7323084f, 0.9748098f,  0.1940258f,  -0.0545388f, -0.2078406f, -0.0700860f},
      {0.4352165f,  -0.1592823f, 0.2322215f,  0.1416209f,  1.3218576f,  -0.0498484f, -0.5259715f, -0.3059168f,
       -0.0455538f, -0.0439186f, -0.0982179f, -0.6087846f, 0.0035756f,  -0.0783271f, -0.1017587f, 0.6307929f,
       0.4057701f,  -0.4605854f, -1.2771431f, -0.1093239f, -0.7637044f, -1.3117002f, 0.0985032f,  -0.0553471f,
       0.5795820f,  -0.9160342f, 0.2607644f,  -0.5672798f, -0.1329755f, 0.0798485f,  0.0620353f,  -0.1253203f},
      {-0.3747829f, -0.1494675f, 0.3751030f,  0.0459979f,  -1.5140080f, -0.1303581f, -0.1110501f, 0.3866318f,
       0.0637451f,  0.1817807f,  -0.1995775f, 1.2535269f,  -0.4311993f, -0.1912044f, -0.0445281f, 0.8013203f,
       1.6102916f,  -0.3562549f, 0.3819691f,  -0.2111451f, 0.8415548f,  -1.3383832f, 0.5191141f,  -0.0467043f,
       0.4269871f,  0.9224833f,  0.5635769f,  0.8657441f,  0.1819236f,  0.6579545f,  -0.0649784f, -0.1803424f},
      {-0.0840492f, 0.0689361f,  0.2967281f,  -1.2508217f, 0.4334525f,  -0.0296573f, 0.0108566f,  0.1629615f,
       -0.1733022f, -0.0791199f, -0.1174024f, -0.3306313f, 0.0072411f,  -0.0725509f, -0.1358415f, 0.1926063f,
       0.9874738f,  -0.0160691f, -0.0901114f, -0.2014206f, -0.5779061f, 0.5966905f,  -0.3904349f, -0.0966805f,
       0.1406970f,  -0.3335777f, 0.4198255f,  0.0938411f,  -0.8358052f, 1.2218392f,  -0.1213151f, -0.1138409f},
      {-0.1380215f, -0.1032261f, -0.0563688f, 0.1260567f,  -0.0367712f, 0.1346382f,  0.1360379f,  -0.0425994f,
       -0.1676250f, -0.1262662f, -0.1309037f, 0.1754617f,  0.1239007f,  0.0513958f,  -0.1094507f, -0.1742966f,
       0.0543938f,  -0.0009352f, 0.0363019f,  -0.1486630f, 0.1022178f,  -0.1469560f, 0.1665874f,  0.1376728f,
       -0.0948983f, -0.1098154f, 0.1510453f,  0.0118864f,  -0.1166424f, -0.0836693f, -0.1142853f, 0.0725149f},
  };

  HOST_DEVICE_CONSTANT float bias_fc3[6] = {0.1531263f, 0.0619405f, -0.0490482f, 0.0108694f, -0.0921068f, -0.1469701f};

  HOST_DEVICE_CONSTANT const float wgtT_fc3[32][6] = {
      {0.7187013f, -0.0202153f, -0.6594880f, -0.3587570f, 0.0348190f, 0.6764985f},
      {0.1501469f, 0.0881384f, -0.0989016f, -0.0745957f, -0.1611685f, -0.2589315f},
      {-0.1358083f, -0.5442055f, 0.4553683f, 0.3591151f, -0.0513129f, -0.3319384f},
      {0.3648131f, 0.3155198f, -0.3515016f, 0.4872784f, 0.0217011f, 0.2796146f},
      {-0.3438592f, 0.1366151f, 0.0479409f, -0.7265724f, 0.0125530f, 0.1387397f},
      {0.1276885f, 0.0958939f, -0.0475372f, -0.1098525f, 0.1341836f, 0.0315315f},
      {-0.0089464f, -0.0823751f, 0.0366105f, -0.1507137f, -0.0018580f, -0.2530629f},
      {-0.1139840f, -0.9224417f, 0.7287962f, -0.3332619f, -0.0838522f, -0.0371080f},
      {-0.1496537f, 0.0205353f, -0.1550460f, -0.1262031f, 0.1218187f, 0.0606785f},
      {-0.0711952f, 0.2301724f, -0.0673489f, 0.2226700f, 0.0159670f, -0.0897506f},
      {0.0509629f, 0.0590620f, -0.1039936f, 0.0993108f, 0.0754866f, -0.0658544f},
      {0.2389258f, -0.2614542f, 0.0142840f, 0.2279833f, -0.0208909f, -0.0198710f},
      {-0.0932947f, 0.1444711f, -0.1303572f, -0.1959118f, 0.0710902f, 0.2821758f},
      {-0.0782791f, -0.0385933f, 0.0588613f, -0.1103109f, 0.1870648f, -0.0986576f},
      {0.0157584f, 0.1534435f, -0.1245053f, -0.0007996f, 0.0342168f, -0.0653002f},
      {-0.0674515f, 0.1904038f, -0.0720377f, 0.1244937f, 0.0139016f, -0.0082402f},
      {0.3286808f, 0.0373307f, -0.1988632f, -0.2003701f, 0.0160378f, -0.1726143f},
      {0.1524202f, -0.2640544f, 0.0347632f, -0.0924303f, -0.0140158f, 0.1773315f},
      {-0.2498412f, 0.0985238f, 0.0390011f, -0.5178455f, 0.0121810f, 0.1058541f},
      {-0.1428911f, 0.0899258f, 0.1082017f, -0.0965460f, -0.1311578f, -0.0980219f},
      {0.0362897f, 0.4694701f, -0.1207326f, 1.1755573f, 0.0130917f, -0.4304758f},
      {-0.2465776f, 0.2299564f, 0.0287286f, 0.1956328f, 0.0072612f, -0.0869413f},
      {-0.0441817f, -0.0983552f, 0.0733913f, -0.0305105f, -0.0083212f, -0.2144633f},
      {-0.1248649f, 0.0817842f, -0.0704166f, 0.1107955f, -0.1220707f, 0.1193580f},
      {-0.2228922f, 0.4083757f, 0.3717676f, 0.2519307f, -0.0120116f, -0.3275904f},
      {0.6212816f, -0.3445560f, -0.0571800f, 1.0440775f, -0.0313388f, -0.0164881f},
      {-0.1668317f, 0.2470621f, -0.4710851f, 0.2455251f, 0.0550522f, -0.2226131f},
      {0.1723152f, -0.2204269f, -0.0057022f, -0.1402763f, -0.0056854f, 0.1397109f},
      {0.2286989f, -0.3100932f, 0.0293701f, 0.0227346f, -0.0210178f, 0.1840460f},
      {-0.1419970f, 0.1749847f, -0.0067822f, 0.0266543f, 0.0121432f, -0.1611699f},
      {-0.0367684f, 0.0556550f, 0.1251402f, -0.0526664f, -0.0286212f, -0.1782773f},
      {-0.0543249f, 0.0530142f, 0.0851873f, -0.0577693f, 0.0676693f, -0.0243190f},
  };

}  // namespace ALPAKA_ACCELERATOR_NAMESPACE::lst::dnn::t5embdnn

#endif
