#ifndef RecoTracker_LSTCore_src_alpaka_T5EmbedNetworkWeights_h
#define RecoTracker_LSTCore_src_alpaka_T5EmbedNetworkWeights_h

#include <alpaka/alpaka.hpp>

#include "FWCore/Utilities/interface/HostDeviceConstant.h"

namespace ALPAKA_ACCELERATOR_NAMESPACE::lst::dnn::t5embdnn {

  HOST_DEVICE_CONSTANT float bias_fc1[32] = {
      -0.0355530f, -0.3523738f, 1.1127784f,  -0.1297255f, -1.6920362f, -0.3732711f, 0.7667046f,  0.9187457f,
      0.0418908f,  0.0381619f,  -0.4253461f, 0.5199211f,  -0.0663251f, 1.9088500f,  1.1091834f,  -0.7699692f,
      0.0931576f,  -0.2997675f, 0.0893475f,  3.9316266f,  0.2399494f,  0.2081626f,  -0.6313492f, -1.2683597f,
      1.0602881f,  -0.8672119f, 1.1783448f,  -0.7788819f, -0.2130567f, -0.1519222f, 0.6281225f,  0.1079040f};

  HOST_DEVICE_CONSTANT const float wgtT_fc1[30][32] = {
      {13.7391672f, -0.0150536f, 0.0180671f,  -0.0829362f, 0.0136123f,  -0.0517407f, -0.0373511f, 0.4069785f,
       0.9121418f,  -0.0020615f, -0.0554944f, -0.0439521f, -0.1394198f, 5.1713281f,  0.0350773f,  -0.0156953f,
       0.0059819f,  -0.0628397f, 0.0066454f,  -7.1467595f, -0.1009516f, -0.0465194f, 0.0169731f,  3.0654731f,
       -0.0054879f, -0.0191824f, -0.0128292f, -0.0159593f, 0.0917901f,  -0.1703137f, -0.0004290f, 0.1606512f},
      {0.0008010f, 0.0130131f,  -0.0048163f, 0.1124791f,  -0.0777981f, 0.0540511f,  -0.0339460f, -0.1945207f,
       0.0427813f, 0.0357887f,  0.0001694f,  0.0324964f,  -0.0796953f, -0.0196699f, -0.0028838f, 0.0005608f,
       0.0288921f, 0.1068778f,  0.0085215f,  0.0013556f,  -0.0436949f, -0.0688170f, -0.0307298f, 0.0291162f,
       0.0532027f, -0.0117426f, 0.0318452f,  -0.0038831f, -0.1077985f, 0.0278448f,  0.0021376f,  0.1381296f},
      {-0.0205768f, -0.0086553f, 0.0044187f, -0.0551764f, 0.0118610f,  0.0251967f,  -0.0111018f, 0.0661540f,
       -0.0052760f, -0.0498048f, 0.0058461f, -0.0338927f, -0.1443114f, -0.0877157f, -0.0163625f, 0.0128332f,
       0.0043472f,  -0.0023028f, 0.0282249f, -0.0324590f, 0.0137574f,  -0.0034580f, -0.0172905f, 0.0719833f,
       0.0399803f,  -0.0441732f, 0.0263122f, -0.0052768f, 0.0447374f,  -0.1608603f, 0.0049156f,  -0.0632404f},
      {0.0414182f, 0.8885964f,  0.5607454f,  0.1325318f,  0.8261243f,  -1.7575978f, -0.0702555f, 0.1629276f,
       0.9538453f, -0.7792928f, -1.1136063f, -0.3746667f, -0.1266659f, 0.0085040f,  0.4400067f,  1.3253378f,
       0.4680845f, 1.0023842f,  0.1745729f,  0.1398062f,  0.2622382f,  0.1826932f,  0.1964523f,  -0.5331078f,
       1.3012017f, -0.0451077f, 0.4697930f,  0.9073545f,  0.7605539f,  -0.0343379f, -0.8306743f, 0.0782416f},
      {-0.0439405f, 2.3460717f, -2.0431099f, 0.0200467f,  0.9421471f,  -0.8648594f, -0.9284438f, -1.0123618f,
       0.4545405f,  0.4377942f, -1.5786382f, -1.5410982f, 0.1493315f,  0.0079589f,  0.4938085f,  0.6185846f,
       -0.3446908f, 2.1041987f, -0.2145194f, 0.0886935f,  -1.7531141f, -0.7488081f, 3.0808718f,  0.6870546f,
       0.8481668f,  0.2128631f, -0.1221624f, 2.6199071f,  1.5781523f,  -0.1648059f, -2.0306952f, -0.0222707f},
      {0.1720785f,  -11.8691702f, -2.0951567f, -0.0373764f, -0.4273201f, -0.3242075f, 0.8905499f,  -1.0835181f,
       1.8857948f,  -0.5533403f,  -0.4264472f, 2.8626823f,  0.0432674f,  -4.0054259f, -0.4118472f, 0.6854563f,
       0.2767353f,  1.3831544f,   1.3363650f,  3.3049355f,  -2.9188297f, 0.9606115f,  3.6593184f,  -3.5929794f,
       -2.5581591f, -0.9882752f,  1.8902452f,  9.1495056f,  -0.0019783f, -0.0977844f, 0.7367165f,  -0.1378255f},
      {-0.0221129f, 0.2784299f,  -0.3009063f, -0.0136561f, -0.3692448f, 1.0179926f,  0.5165479f,  -1.4827009f,
       0.6676366f,  0.3713939f,  1.4680102f,  1.4145435f,  -0.0434819f, -0.6669890f, 1.3347222f,  -0.7125632f,
       3.8415179f,  0.5101742f,  -0.6763270f, -0.0467172f, 1.1233594f,  -0.6161675f, -1.4334111f, 1.2778174f,
       0.0948619f,  -0.6562095f, -1.5048275f, -0.1984940f, 0.0864154f,  -0.1114143f, -2.2691264f, -0.1136477f},
      {-0.0212108f, -0.3167647f, -0.2138861f, -0.1657884f, 0.3888247f,  -1.2565072f, -1.5143458f, -0.2675250f,
       -0.3051932f, -0.1466933f, -0.1485227f, 0.1871384f,  0.0758270f,  0.2761052f,  1.1287580f,  -0.5907900f,
       0.8093336f,  -0.8883846f, -0.4895713f, 0.2823315f,  0.2263282f,  -0.7244095f, -0.4083023f, -0.4421741f,
       1.0047736f,  -1.7897980f, -0.5400867f, -0.0425779f, -1.2386082f, -0.1267119f, -0.8035117f, 0.1530822f},
      {-0.0030399f, 1.5898560f, -1.3588505f, -0.1655986f, 1.2164719f,  -0.4381590f, -1.0414921f, -2.8114805f,
       1.9982592f,  0.7960426f, -2.7202268f, -3.5540364f, 0.0736907f,  -0.1678683f, -0.5664474f, 1.9901311f,
       -0.8907634f, 1.8185084f, 0.8618576f,  -0.0690210f, -1.2512451f, -0.9409783f, 5.7109299f,  0.2335361f,
       0.9676038f,  1.2976987f, -0.4595095f, 2.8786595f,  3.0201445f,  0.1677111f,  -3.7019060f, -0.1131978f},
      {0.0176318f,  -2.2030449f, 5.8760915f,  -0.1695439f, -6.1407166f, 6.4973679f,  -1.6386950f, 3.5707974f,
       -8.1512327f, 1.6172791f,  3.2663114f,  -3.1507850f, 0.1857160f,  1.2104381f,  0.7690301f,  0.1831220f,
       -0.7891462f, -1.4531336f, -1.9509982f, 2.5759709f,  3.8839939f,  -0.7605454f, 4.8858414f,  1.8183663f,
       0.6587664f,  2.3790388f,  -6.2798214f, 4.6380277f,  -6.7585120f, 0.1479173f,  -2.6727619f, -0.1803236f},
      {-0.0022740f, 0.5900041f,  0.2267182f,  0.1263711f,  -0.0504093f, 1.8431165f,  1.5363010f,  -1.1886762f,
       0.8939268f,  2.9303336f,  0.5213213f,  -0.5700257f, 0.0748076f,  -1.8493096f, 2.6582172f,  -0.0522085f,
       7.8308926f,  -1.5865345f, 0.0049763f,  -0.4958054f, -1.0409317f, 0.3248173f,  -1.8308107f, 1.9252678f,
       -1.2795076f, -0.2678023f, -3.2167544f, -0.2731062f, 1.1373773f,  0.0822806f,  -2.1606095f, -0.0521678f},
      {-0.0467596f, -0.8870454f, -0.5256763f, 0.0473487f,  1.6369041f,  -0.4470867f, -2.5804183f, -0.9049006f,
       -0.8356540f, 0.6850910f,  -0.0439904f, -3.3184137f, -0.1500124f, -0.1521374f, 0.8656190f,  0.3687401f,
       -1.2570162f, -0.8049768f, -0.8903854f, 0.3386444f,  0.6002067f,  -0.1948767f, -0.8943326f, 0.5200207f,
       -1.0372616f, -0.0300507f, -1.3586425f, 0.0238025f,  -1.4061708f, -0.1807624f, -1.1616443f, 0.0297873f},
      {0.0467266f,  0.7365510f,  -1.1061722f, 0.0606935f,  0.8323530f,  -0.3049914f, -1.6543788f, -2.3495200f,
       1.8862348f,  -0.6944551f, -2.5553389f, -1.0263995f, -0.1704736f, -0.5664784f, -1.1175232f, 0.4866455f,
       -0.0268232f, 2.1002295f,  -1.1240395f, -0.3613932f, -0.9508748f, 2.4036498f,  2.3241212f,  0.4767511f,
       -0.7115870f, 1.2042593f,  0.6211344f,  0.6628352f,  1.8928839f,  -0.1754591f, -2.1108289f, 0.0246384f},
      {0.0176771f,  -2.1431241f, -1.6400042f, 0.1534763f,  -0.8696178f, 3.7061245f,  -2.9928563f, 4.2315316f,
       -2.8983607f, 2.0346842f,  -1.4508250f, -0.6962163f, 0.0585674f,  -0.1414749f, 0.8142899f,  -0.6874011f,
       0.5305897f,  -0.6229853f, 0.0996998f,  0.6887909f,  0.3039464f,  -2.7773151f, 2.2032363f,  0.4029688f,
       3.5184143f,  0.9178540f,  -2.6356559f, 2.0111356f,  -1.2402908f, 0.1230878f,  -0.6441277f, -0.1144116f},
      {0.0213326f,  -0.2001752f, 0.1560623f,  -0.1425003f, 1.1546198f,  2.5839744f,  7.8521094f,  -0.3757379f,
       0.7892750f,  6.1379175f,  -3.7205677f, -4.6995058f, 0.0009004f,  -1.9245406f, 8.1558485f,  -0.5015569f,
       10.9022789f, -0.5263304f, 0.3633092f,  -0.7065982f, -2.1656075f, 1.0389311f,  -0.9643047f, 0.8032019f,
       -4.9176226f, 1.1242366f,  -5.1293812f, 0.1532129f,  1.6290814f,  -0.0976857f, 3.2320879f,  0.1697984f},
      {-0.1096154f, -0.8709840f, -1.4644337f, -0.0457769f, 3.7191012f,  1.3731605f,  -3.2529263f, -0.2338082f,
       -2.6138959f, 2.4397044f,  0.3507172f,  -3.1545548f, -0.0332147f, -0.3837889f, 2.5668383f,  -1.0891268f,
       -3.2097111f, -0.1827876f, 1.1958225f,  0.3316522f,  0.8565105f,  -1.0887367f, -0.6072965f, 1.0374801f,
       -0.0004734f, -0.5317416f, -2.1805863f, -0.1730593f, -2.1780989f, -0.0606224f, -0.3983910f, -0.1190056f},
      {0.0625613f,  0.4735549f,  -0.8387096f, -0.1184463f, 1.0596471f,  0.2916835f,  -1.2770692f, -1.0572224f,
       1.6417264f,  -1.3198099f, -1.2798176f, -0.7699438f, -0.0579203f, 0.1395855f,  -1.4587724f, 0.3071066f,
       -1.1814529f, 1.1095266f,  -2.0948699f, 0.1275415f,  -0.7862492f, 2.9636087f,  0.4331232f,  0.9936965f,
       -2.4350471f, -0.1653449f, -0.8260345f, 0.3582501f,  0.6605486f,  -0.0247771f, -0.4019900f, -0.0662733f},
      {-0.0082176f, -0.5749280f, -0.2909142f, -0.1673454f, -1.3683395f, 0.8826817f,  -0.4281345f, 2.2042825f,
       -1.5049289f, 0.9207364f,  1.8200461f,  -0.7840562f, -0.0903413f, -0.1140841f, 1.2799717f,  -1.0621222f,
       -0.9556015f, 2.3871353f,  -4.3000221f, 0.3176398f,  0.3363791f,  -0.8926989f, -0.1319384f, 0.5120594f,
       1.3180138f,  -0.6696835f, -2.0055377f, 1.1625062f,  0.0650320f,  0.0662446f,  -0.7074036f, 0.0591035f},
      {0.0092699f,  -0.3632634f, 0.1958885f,  -0.0193061f, -0.2706389f, 1.4631242f,  7.3695946f, -0.2722602f,
       -0.6793796f, 3.5300868f,  -4.0676417f, -4.0981860f, -0.0554610f, -0.3849262f, 7.5091147f, -0.2684060f,
       3.9084558f,  1.5448413f,  0.1489161f,  -0.1664272f, -2.0747311f, -0.1946212f, 0.4881310f, 0.1374162f,
       -4.0215025f, -0.9978369f, -2.7608430f, 0.1768950f,  0.7162268f,  -0.0590001f, 4.1946831f, 0.0479724f},
      {-0.0526529f, 0.0249094f,  -0.3576792f, -0.0598482f, 1.5867358f,  0.2259250f,  -1.7834436f, 0.1646028f,
       -1.8091198f, 1.7876216f,  2.0388160f,  -1.5778346f, -0.0509962f, 0.2968989f,  2.8421655f,  -0.2435025f,
       -1.6592971f, 0.8945192f,  0.3251792f,  0.3682935f,  -0.2717116f, -0.5674083f, -0.5887898f, 0.8237978f,
       1.1210798f,  -0.1458991f, -1.6661543f, -0.8337496f, -0.7089306f, 0.0013865f,  -0.6173856f, 0.0418001f},
      {0.0336973f,  -0.1185403f, -0.9263499f, -0.1883495f, 0.8569992f,  0.4743924f, -0.4306901f, 0.0919814f,
       0.5564530f,  -0.2250280f, -0.8862212f, -0.9620413f, 0.0472992f,  0.0274971f, -0.5303760f, 0.7179878f,
       -1.3364747f, 0.0434784f,  -1.0452466f, 0.1740026f,  -0.8410280f, 0.8313432f, 0.6570162f,  0.7238177f,
       -2.4301651f, 1.1557825f,  0.0784875f,  0.4478457f,  0.4241722f,  0.0603026f, 0.5467781f,  0.0996629f},
      {0.0291840f,  0.0509732f, 0.6755333f, -0.0814708f, 0.8289107f,  0.5705471f,  -0.0458260f, -0.2394620f,
       0.0089533f,  0.4325017f, 0.2395901f, 0.0273557f,  -0.0758248f, 0.4068938f,  -0.3093263f, -1.0425770f,
       0.1961551f,  0.0598833f, 0.2783547f, 0.3288505f,  0.2384764f,  -0.6606300f, -0.0897108f, 0.7248701f,
       -0.0079537f, 0.5870537f, 0.1029324f, -0.0490647f, -0.2117499f, -0.1478582f, -0.0802903f, -0.1589479f},
      {-0.0000564f, -0.0719889f, -0.9334127f, 0.1200940f, 0.2347275f,  0.3718095f,  0.2201547f,  0.7254472f,
       0.5346524f,  0.0021824f,  0.6165925f,  0.6133466f, -0.0516698f, 0.8985181f,  -0.1880411f, 1.0294846f,
       0.1120316f,  -0.3803695f, 1.1786376f,  0.8211602f, 0.1819578f,  0.6047418f,  0.2354798f,  1.2470021f,
       -0.2421132f, -0.0699369f, -0.0623676f, 0.0367273f, 0.3036564f,  -0.0898288f, 0.6081676f,  -0.0926144f},
      {0.0031233f,  -0.0219889f, -0.0973493f, -0.1217270f, -0.0615838f, -0.0444104f, 0.1866595f,  -0.0138501f,
       -0.0803374f, 0.0648499f,  0.1844476f,  0.0287988f,  -0.1202534f, 0.1912977f,  -0.0581222f, 0.2912818f,
       0.0231079f,  0.0566222f,  -1.3633257f, 0.1652395f,  0.0955237f,  -0.0219500f, -0.0050691f, 0.2563083f,
       0.1225461f,  -0.3423404f, -0.2510845f, 0.0316375f,  0.0985714f,  -0.0600925f, -0.1319590f, -0.1242218f},
      {-0.0563517f, -0.1932766f, 0.8862223f,  -0.1651762f, -0.6078275f, -0.4581722f, 0.3073096f, 0.5732251f,
       0.0206135f,  -0.0711891f, -0.3597747f, 0.8825336f,  -0.0669143f, -0.1514098f, 0.4214453f, -0.9049089f,
       0.0831519f,  1.4952452f,  -0.7699807f, 0.1160858f,  0.4325702f,  -0.5844085f, 0.0312537f, 0.1869328f,
       0.1227776f,  -9.3319464f, 0.5656847f,  -0.4439999f, -0.0897013f, -0.0564929f, 0.6298691f, 0.0531510f},
      {-0.0462109f, -0.2170775f, 0.7507748f, -0.1611772f, -0.5295524f, 0.7200053f,  0.5675514f,  0.2077582f,
       -0.3137860f, -0.0841289f, 0.0362809f, 0.2314183f,  0.1366219f,  0.2925229f,  0.5150238f,  0.0429297f,
       -0.1000256f, -2.0985558f, 0.0021693f, 0.1586376f,  0.2210511f,  0.1532231f,  -0.1684204f, -0.1697337f,
       0.4598783f,  -0.9275191f, 0.8561431f, -0.5346017f, 0.3946528f,  -0.0223337f, 0.5082304f,  -0.0981929f},
      {-0.0340584f, -0.2608336f, 0.7486464f,  -0.0303697f, -0.6403116f, -0.2773527f, 0.2272952f,  0.0531623f,
       0.1270309f,  0.2123222f,  -0.3101146f, 0.0111438f,  0.0020826f,  0.2336229f,  0.5475177f,  -0.6892360f,
       -0.2475609f, 0.1313349f,  -0.0546375f, 0.1437043f,  0.0378963f,  0.2107264f,  -0.1803819f, -0.1671436f,
       0.3516003f,  0.5632268f,  0.4898556f,  -0.5113859f, -0.4299727f, 0.0417768f,  0.3419799f,  0.1541482f},
      {-0.0519205f, 0.1058659f, 0.1109737f,  0.1406389f,  -0.0603588f, 0.0704211f,  0.1391370f,  0.1459363f,
       -0.0487693f, 0.1099268f, -0.2364536f, 0.0846361f,  0.0916551f,  -0.1763325f, -0.2783985f, 0.3425892f,
       0.3264613f,  1.0693481f, -0.6652645f, -0.0675233f, 0.2613549f,  -0.2908145f, 0.1103274f,  0.2825524f,
       -0.3354543f, 1.0470648f, 0.4158149f,  -0.0136050f, 0.0026243f,  0.1384254f,  0.1244209f,  0.0186397f},
      {-0.0420309f, -0.1136884f, -0.0002233f, -0.0512091f, 0.0269265f, 0.2037813f, 0.2463281f,  -0.1769968f,
       -0.1902990f, -0.0126109f, 0.2723188f,  -0.0313131f, 0.1076489f, 0.1464104f, -0.0329763f, 0.1736792f,
       0.0631501f,  -0.6270619f, -0.0091512f, 0.0098343f,  0.2086620f, 0.0368861f, -0.0574406f, 0.0089376f,
       0.2238539f,  -1.1112692f, -0.2100828f, 0.0291153f,  0.3096209f, 0.0865137f, 0.0989742f,  0.0060112f},
      {-0.0478025f, -0.1514776f, -0.0038091f, 0.1108561f,  -0.0106958f, -0.1961764f, 0.0559453f, -0.1406375f,
       0.1753505f,  0.0933844f,  -0.0171277f, -0.1756831f, -0.0850102f, 0.0391426f,  0.0015844f, -0.4684295f,
       -0.0722110f, -0.2500064f, 0.1283064f,  -0.0795140f, -0.1045672f, 0.1849829f,  0.0302951f, -0.1749322f,
       0.0184748f,  0.7857063f,  -0.2358075f, 0.0464447f,  -0.3346215f, -0.0264756f, 0.0493451f, -0.0427305f},
  };

  HOST_DEVICE_CONSTANT float bias_fc2[32] = {
      0.9554375f,  0.6717641f, 3.8318715f,  0.9971089f,  -1.0755620f, 0.2547945f,  2.1602459f,  -0.0031493f,
      0.0590676f,  0.1161583f, 0.8057190f,  -0.0753317f, 0.9789883f,  0.4804217f,  0.1916191f,  -0.0552978f,
      -0.1505630f, 0.1496267f, 3.7203641f,  -0.1902662f, -0.2424445f, 0.1399884f,  -0.0719553f, 0.5752816f,
      -0.1238735f, 0.0416224f, -0.1093242f, -0.2454526f, 0.2695802f,  -0.2548131f, 0.1494400f,  -0.2901698f};

  HOST_DEVICE_CONSTANT const float wgtT_fc2[32][32] = {
      {-0.0685800f, 3.4267948f,  -1.9486275f, 0.7675906f,  2.5476398f,  3.9676988f, -0.2058243f, 0.0211898f,
       1.3512464f,  -0.0029049f, -0.3966507f, -0.0235912f, -0.9067744f, 0.0280979f, -0.2924902f, -0.0032334f,
       0.1010311f,  1.4430745f,  -1.6159405f, -0.0032350f, 0.0387983f,  0.2298853f, 0.2382458f,  -0.5146453f,
       -0.0209547f, -0.0778511f, -0.1418290f, 0.0960003f,  4.5385013f,  0.0896090f, -0.1508022f, 0.1729861f},
      {-0.2781112f, 0.2529728f,  -0.2034702f, -1.0103505f, 0.3394544f,  0.6331500f,  0.3033300f,  -0.0587114f,
       0.1431649f,  0.1069954f,  0.7644874f,  -0.1760410f, 0.0700322f,  0.2566566f,  -0.0756241f, -0.1642602f,
       0.1311687f,  -0.3948628f, 0.5752616f,  0.3861490f,  -0.1712683f, -0.2363163f, -1.9088050f, -0.5757030f,
       0.0017992f,  0.0687853f,  0.0431906f,  -0.2149411f, 0.0147590f,  -0.0823861f, -1.0545820f, 0.5221140f},
      {0.3844991f, 0.1278066f,  -0.8698189f, 0.5616263f,  -0.4045054f, -0.0359484f, 0.1563026f,  -0.1735168f,
       0.6707284f, 0.2583570f,  0.7388041f,  -0.1524664f, -0.3044631f, 0.4781368f,  -0.2575096f, -0.0363310f,
       0.0171455f, 0.1422348f,  0.0167024f,  0.0358857f,  -0.0086492f, 0.0242472f,  0.1633688f,  -0.3198992f,
       0.1223622f, -0.0086894f, -0.0788109f, -0.1844069f, 0.1960906f,  -0.1082163f, 0.4144447f,  0.8724439f},
      {-0.1399853f, -0.0931567f, -0.0042635f, -0.0026023f, 0.1041327f,  0.0887398f,  -0.0781810f, -0.1262710f,
       0.1073010f,  0.0098245f,  -0.1423530f, -0.0052730f, -0.0601087f, 0.0073900f,  0.1796494f,  0.0652942f,
       -0.0189137f, -0.0819160f, -0.0929439f, -0.0348300f, 0.0424453f,  -0.0030766f, -0.0561453f, 0.0873174f,
       -0.0683600f, -0.0332344f, -0.0820636f, 0.0229785f,  -0.0873661f, -0.0795960f, 0.0848021f,  -0.0739664f},
      {-0.3231335f, -0.2193467f, -0.5035469f, -0.5150997f, 0.2979387f,  -0.0643043f, -2.3437009f, 0.0599805f,
       0.2108670f,  -0.0138829f, 0.4110077f,  -0.0418950f, -0.4882883f, -0.3930341f, -0.2820880f, -0.0929101f,
       0.0027114f,  -0.4533213f, -0.2610821f, 0.2163935f,  0.0384071f,  -0.7364917f, -1.1634313f, -0.3379082f,
       -0.0998863f, -0.1293032f, -0.1940759f, -0.2381155f, -0.1390937f, -0.0074521f, -0.5209979f, -1.9156256f},
      {-0.7873140f, 0.0162320f,  0.4778874f,  0.3799466f,  0.2312876f,  0.1438952f,  -0.6165324f, -0.0821551f,
       -0.1520072f, -0.2712862f, 0.0008799f,  -0.2952846f, 0.1344930f,  -0.5314122f, -0.6137170f, -0.0506121f,
       0.0548733f,  0.1902012f,  -0.4610904f, -0.3385176f, -0.1678108f, -0.9323303f, 0.4703775f,  0.1154287f,
       0.1385251f,  -0.1155509f, -0.0910849f, -0.1537080f, 0.1283475f,  0.0482067f,  0.4626676f,  1.2117903f},
      {-1.8232780f, -0.0729248f, 0.1151026f,  -0.5137405f, 0.0508833f,  0.0064505f,  0.8627489f,  0.0019422f,
       -1.1038144f, 0.1178899f,  0.3812236f,  -0.1168122f, -0.3757618f, -0.8027083f, -1.5133041f, -0.0487792f,
       0.0627506f,  0.0149138f,  -0.0753458f, -0.1861908f, -0.0554475f, -1.0952467f, -0.2635166f, -0.2928663f,
       0.0759117f,  0.0299864f,  0.0432787f,  -0.0117818f, -0.0493505f, 0.0271504f,  -0.3242106f, 0.1411096f},
      {0.2238259f,  -0.4800534f, 0.1465634f,  0.9612859f,  -0.6409732f, -0.4310536f, 0.2070118f,  -0.0112898f,
       -0.2555451f, -0.0283401f, -0.4377448f, -0.2034379f, -0.0728205f, 1.0392812f,  0.5181287f,  -0.0729100f,
       0.0064619f,  0.9874619f,  -0.0840264f, -0.3508205f, -0.1414889f, 0.5726010f,  0.3529183f,  0.0933967f,
       0.1458795f,  -0.0013594f, 0.0502346f,  -0.1347877f, 0.4413072f,  -0.0095460f, -0.2338416f, 1.5363247f},
      {-0.3291380f, 0.5195650f,  1.0856940f,  -0.0069662f, -0.9097776f, 0.2018381f,  0.3142177f,  -0.1711564f,
       -1.0168705f, -0.2074250f, 0.5891116f,  -0.0204811f, 0.2824273f,  -0.3399542f, -0.5789441f, 0.0347393f,
       -0.1542087f, 0.4863335f,  0.3535393f,  0.0142460f,  0.0796687f,  0.0025818f,  -0.6644722f, 0.6624472f,
       -0.1317878f, -0.2291424f, -0.0890240f, -0.1343215f, -0.1236558f, -0.1480174f, -0.4651346f, -1.6485145f},
      {-1.0242305f, 0.1655662f,  -0.1979456f, 0.5403616f,  0.3510334f,  -0.0341518f, -0.6014141f, -0.1755621f,
       0.5131201f,  -0.0350229f, -0.0406945f, -0.2527592f, -0.4328055f, -1.2443857f, -1.0491842f, -0.0763879f,
       -0.0491883f, -0.0048312f, 0.1489255f,  0.0467111f,  -0.1026025f, -0.6876956f, 0.0442568f,  -0.2491671f,
       -0.0648024f, 0.0803697f,  -0.1596603f, 0.0080808f,  -0.1379934f, -0.2237063f, 0.1003832f,  0.2443414f},
      {0.7841409f,  -0.0575134f, -0.4105170f, -0.4189488f, 0.1932700f,  0.0568192f,  -1.6262069f, 0.1420735f,
       0.9747475f,  -0.1999944f, -0.1178289f, -0.2369707f, -0.3582566f, -0.4378034f, 0.6497453f,  -0.1458468f,
       -0.0340924f, -0.4594852f, 0.2091886f,  0.0811601f,  -0.1494884f, 1.4183260f,  -0.0801189f, -0.4918464f,
       -0.0727871f, -0.0369273f, -0.0292730f, -0.0148517f, 0.0337496f,  -0.0913056f, 0.2835954f,  -0.0129467f},
      {1.0454626f,  0.1789682f,  0.6248494f,  -0.1339135f, -0.1950570f, 0.0679379f, 0.7245268f,  -0.0956312f,
       -0.3108040f, 0.0218423f,  -0.1586215f, -0.0699590f, 0.0479816f,  1.4403275f, 1.0663122f,  -0.1213809f,
       -0.2064244f, -0.0118528f, 0.5183043f,  -0.0288005f, -0.1734085f, 0.7727516f, -0.0845761f, 0.4149036f,
       -0.0811623f, -0.1372887f, -0.0508723f, 0.0224120f,  -0.2101339f, 0.0458545f, -0.7579793f, 0.2564198f},
      {0.0423395f,  0.1568127f,  0.1466404f,  -0.0595560f, -0.1253063f, -0.1597305f, -0.1253816f, 0.1590249f,
       -0.1294927f, -0.1371921f, -0.1669073f, -0.0586974f, -0.1475194f, -0.1846565f, -0.1048406f, 0.0887200f,
       0.0518260f,  0.0321092f,  -0.0333366f, 0.1829014f,  -0.1638944f, -0.1618261f, -0.1417807f, 0.1080477f,
       0.1212675f,  -0.1002957f, -0.1635630f, -0.1020787f, 0.0536083f,  -0.1391750f, 0.0846673f,  0.1065926f},
      {0.5139415f,  -0.5088568f, 1.4230062f,  0.4768678f,  -1.6223918f, -0.7110824f, 0.6202990f, -0.1681879f,
       -0.7479444f, -0.2343210f, -0.5722603f, -0.1364515f, -0.4112725f, 0.1711443f,  0.7625732f, -0.1080581f,
       -0.0763267f, -0.8863791f, 1.1259459f,  -0.2447046f, -0.1382728f, 0.2877580f,  0.3051627f, 0.6050441f,
       -0.0570230f, -0.0572314f, -0.1541278f, -0.0313541f, -1.3200179f, -0.1589168f, 0.0238045f, 0.0914313f},
      {-2.6873441f, -0.0829618f, -0.2952561f, 0.0765030f,  -0.3455769f, 0.0424866f,  0.0902446f,  0.0664885f,
       -0.0329011f, -0.0003250f, 0.2036725f,  -0.2576659f, -0.6519833f, -0.5767146f, -2.5212545f, -0.0979178f,
       -0.1173288f, 0.1279760f,  -0.0673828f, -0.1435818f, -0.1591420f, 0.8193985f,  -0.0212466f, 0.0491905f,
       0.0151061f,  0.0258322f,  -0.0883936f, 0.0709533f,  0.1634302f,  -0.0468885f, 0.3109491f,  -0.3242193f},
      {0.7097335f,  0.2460471f,  -0.6008715f, -0.2561058f, -0.2410126f, -0.0403099f, -0.2779510f, 0.0593123f,
       0.1908102f,  0.0322997f,  -0.3238220f, -0.1064091f, -0.3088231f, 0.6717376f,  0.0058088f,  0.0187104f,
       -0.2056303f, -0.5434659f, 0.4985872f,  -0.2936620f, 0.0384195f,  -0.1266241f, 0.5187514f,  0.2174819f,
       -0.0604122f, -0.0820542f, -0.0061186f, -0.1028486f, -0.0490008f, -0.1402143f, 0.1021235f,  -0.2043188f},
      {-1.9597083f, -0.2692502f, -0.6422251f, -0.6513427f, -0.5842513f, 0.1387839f,  0.4912742f,  -0.0655442f,
       -1.1262773f, -0.1172216f, -0.3884663f, -0.0622101f, -1.0148038f, 0.3283419f,  -3.3813121f, -0.1225275f,
       -0.0602693f, -0.2928089f, 0.2129487f,  -0.5294196f, -0.0112453f, -1.4377401f, -0.0277372f, -1.8779427f,
       -0.1056283f, -0.1554364f, -0.0023038f, 0.0090396f,  0.2663890f,  -0.0233161f, 0.0185392f,  0.0233505f},
      {-0.3892678f, 0.6693171f,  -0.1266534f, 0.1902672f,  0.0088513f,  -0.0519892f, -0.0384320f, -0.1687792f,
       -0.0860603f, -0.1042387f, 0.1944228f,  -0.1640838f, -0.2042671f, -2.9191527f, -0.7844650f, -0.1746718f,
       -0.2039177f, -0.1304578f, 0.1579836f,  -0.0271918f, 0.0006922f,  0.5620548f,  -0.0812596f, 0.0810490f,
       -0.0313053f, -0.1117954f, -0.0384300f, -0.2336995f, -0.2289295f, -0.1922306f, 0.0596900f,  0.3883574f},
      {0.0649048f,  -0.6063821f, -1.8146480f, -0.9795885f, 1.3151129f,  -0.3055948f, 0.3670071f,  -0.1609799f,
       0.1552730f,  0.0323411f,  -0.1285612f, -0.2316738f, 0.0027833f,  -1.0251961f, -0.0954485f, 0.0425373f,
       0.1056077f,  -0.7622012f, -0.4918898f, 0.0772390f,  -0.1622837f, -0.0426068f, -0.4266635f, -0.7800904f,
       -0.1723935f, -0.0862830f, -0.0805426f, -0.1626668f, -0.0965255f, -0.0957846f, 0.2373890f,  -0.0975457f},
      {-0.0108115f, 2.3885486f,  -0.1421373f, 1.2555183f,  0.9336967f,  2.5402510f, 0.0531022f,  -0.1016438f,
       0.6569516f,  -0.1059630f, 1.8009149f,  -0.0326450f, -0.1984767f, 0.1902738f, 0.2101211f,  -0.1319177f,
       -0.2367999f, 1.0170766f,  -0.8792472f, 0.0003421f,  -0.0269877f, 0.3776721f, 0.3753829f,  0.0767090f,
       -0.0175758f, -0.0536342f, -0.1654535f, -0.1070718f, 2.9070852f,  0.0822924f, -0.0135838f, 0.1600979f},
      {0.5047625f,  0.5085784f,  0.2365437f,  0.4639655f,  -0.0695366f, 0.0040420f,  -0.1548730f, 0.0051613f,
       -0.1375541f, 0.0385454f,  -0.1145402f, -0.2651916f, 0.0579351f,  0.0769573f,  0.2142519f,  0.1474218f,
       -0.1658011f, 0.3579066f,  0.4443695f,  -0.3172893f, -0.0018653f, -0.7613368f, 0.2022819f,  -0.1987183f,
       0.0087977f,  -0.1281110f, -0.1375843f, 0.0813948f,  -0.1027576f, -0.0663883f, 0.1011021f,  0.2128833f},
      {-0.2353043f, 0.5619718f,  0.5860577f,  1.0406253f,  -0.1977402f, 0.1974673f, 0.3220216f,  -0.1224857f,
       -0.6129543f, -0.0271949f, -0.5985017f, 0.0365000f,  -0.2560718f, 0.0141603f, -0.4742942f, -0.0989286f,
       -0.2018948f, 0.2697214f,  0.2185692f,  0.0271222f,  -0.1462823f, 0.1386981f, 0.8878427f,  -0.2819588f,
       0.0233171f,  -0.2266438f, -0.2316068f, -0.0084338f, -0.1345089f, 0.0236930f, 0.0085661f,  -0.5529923f},
      {-0.0273091f, 0.8948315f,  0.1942414f,  0.1353753f,  -0.0020445f, 0.6245916f,  0.1914425f,  0.1412528f,
       0.0889045f,  -0.3012890f, -0.6864085f, -0.1423919f, 0.2830362f,  0.1452703f,  -0.1289247f, -0.0479319f,
       -0.2996103f, 0.1788312f,  0.0797444f,  0.1948431f,  -0.2135207f, 0.0287576f,  -2.0403562f, -0.0492041f,
       0.1182466f,  -0.1947105f, -0.0575160f, -0.0613425f, 0.3024942f,  -0.1253829f, 2.2689075f,  -0.7440467f},
      {-0.5850385f, -0.4834085f, 1.7103032f,  -0.0820710f, -0.5958536f, -0.7782294f, -0.5618461f, -0.0032730f,
       -0.4727546f, -0.1240291f, -0.0018971f, -0.2005991f, 0.3702694f,  0.1341664f,  -0.0786148f, 0.0575070f,
       -0.0945193f, 0.7899484f,  -0.2782966f, -0.2588262f, -0.0047902f, -0.2079365f, 0.0133985f,  0.6096457f,
       -0.1367826f, 0.0953735f,  -0.1556990f, -0.2153606f, -0.6779202f, -0.0958366f, 0.3836204f,  0.1699091f},
      {1.5945610f,  0.0105851f, 0.2411272f,  0.5306402f, 0.2278524f, -0.0946102f, 0.1296481f,  -0.0289371f,
       -0.0750947f, 0.0499253f, 0.0575771f,  0.0081882f, 0.2409040f, 0.6088817f,  1.1322397f,  0.0261750f,
       -0.0810149f, 0.2967476f, -0.3018668f, 0.0996183f, 0.1599597f, 0.8187324f,  -0.5306717f, 0.7132877f,
       -0.0907240f, 0.0394234f, 0.0297909f,  0.0185117f, 0.0823245f, -0.1832154f, 0.2940316f,  -0.0540335f},
      {-0.0581500f, -0.2485932f, 0.1957494f,  0.3239753f,  0.3611136f,  0.5347191f,  0.0560405f, 0.1465378f,
       0.8786263f,  0.2237935f,  0.3933387f,  0.0131005f,  -0.5996259f, -0.3221797f, 0.4383427f, 0.0021376f,
       -0.1690162f, -0.5327373f, 0.4429359f,  -0.3352929f, -0.1870054f, -0.0436660f, 0.4917440f, -0.3862013f,
       0.1717167f,  0.0689421f,  -0.0787797f, 0.1142681f,  0.2095854f,  -0.1005200f, 1.6492879f, -1.2978989f},
      {1.6052051f,  0.1477635f,  0.5389656f,  0.4382867f,  -0.1016181f, -0.0601485f, 0.2992371f,  -0.0172361f,
       0.6806496f,  -0.0222436f, 0.1879749f,  -0.1426111f, 0.1053418f,  0.0917655f,  1.5667238f,  -0.1069109f,
       -0.2548219f, 0.1119863f,  -0.3087757f, -0.2273821f, 0.0466626f,  0.3071777f,  0.3253387f,  0.2560084f,
       0.0516161f,  0.0858167f,  0.0634407f,  -0.1413013f, -0.2411838f, -0.1316583f, -0.5530195f, -0.4948364f},
      {0.2152100f,  -0.8186880f, 0.2165907f,  0.8302606f,  -0.2478703f, -1.1256217f, -0.6289871f, -0.0346640f,
       -0.1989292f, -0.0989983f, -0.4683565f, -0.1306142f, -0.1706133f, -0.1733301f, 0.1032363f,  0.1594798f,
       0.1040721f,  0.1261513f,  -0.2250575f, -0.2905089f, -0.1154018f, -0.0407075f, 2.0638595f,  -0.0058912f,
       0.0320506f,  -0.0773439f, 0.0288362f,  -0.0119049f, -0.4903379f, -0.0815502f, -0.3014938f, 1.1765454f},
      {-0.8730572f, -0.3370393f, 0.1648137f,  0.3980532f,  -0.0626280f, 0.1644595f,  0.7776189f,  -0.1515557f,
       0.9443332f,  -0.1251194f, 0.3791386f,  -0.0381685f, -0.7248945f, -0.2436441f, -0.1668985f, 0.1523770f,
       0.0603213f,  0.1439000f,  0.8172100f,  -0.1616266f, -0.1058882f, -0.1895391f, -1.0126543f, -0.3627618f,
       0.0031775f,  0.2030317f,  -0.1779498f, -0.0012960f, 0.1698745f,  -0.0778484f, -0.1183575f, -1.8799882f},
      {-0.0311381f, 0.0779769f,  0.1680976f,  -0.1489906f, 0.0330459f,  -0.1627012f, 0.0217445f,  0.1279628f,
       0.0894200f,  -0.0800110f, -0.0953789f, 0.0391307f,  -0.0687530f, 0.1734321f,  -0.0927007f, -0.0582603f,
       -0.0973529f, 0.1545747f,  -0.0697323f, 0.1487596f,  -0.0722769f, -0.0686902f, 0.0550675f,  0.0746930f,
       0.1741856f,  0.0673114f,  -0.0876712f, 0.0779439f,  -0.1766405f, 0.0612561f,  -0.1516071f, -0.1307474f},
      {-1.1335461f, 0.1081699f,  0.0836253f, -0.2471863f, -0.1022117f, -0.0996593f, -0.1208392f, 0.0915913f,
       0.3090208f,  -0.1445983f, 0.0783570f, -0.2058971f, -0.1039694f, -0.2774318f, -1.1974713f, 0.0936254f,
       -0.0796656f, -0.3674386f, 0.4981951f, -0.1742128f, -0.1334183f, -0.8605803f, 0.0860673f,  -0.0349377f,
       -0.0851657f, -0.1210196f, 0.0368659f, 0.0424808f,  -0.3795740f, -0.2349904f, -1.3102756f, 0.1260825f},
      {-0.1339108f, 0.0630370f,  0.0388843f,  -0.1356841f, 0.0988838f,  -0.0507155f, 0.1610769f,  0.0270588f,
       -0.1068567f, 0.1316588f,  -0.1233285f, 0.0212444f,  -0.0439814f, 0.0221911f,  -0.1551035f, 0.0227507f,
       0.1620930f,  0.1540216f,  -0.0168428f, -0.1128256f, 0.0749508f,  0.1678925f,  0.1058148f,  0.0632063f,
       0.1420407f,  -0.1079841f, -0.1305571f, 0.0152296f,  0.0863115f,  -0.0304100f, 0.1551362f,  0.0865916f},
  };

  HOST_DEVICE_CONSTANT float bias_fc3[6] = {0.1060061f, 0.1238736f, -0.1438631f, -0.1531903f, 0.0467146f, 0.1338008f};

  HOST_DEVICE_CONSTANT const float wgtT_fc3[32][6] = {
      {-0.4909997f, -0.1646661f, -0.4979452f, -0.0720194f, 0.0003983f, -0.1462563f},
      {0.0669788f, 0.4767314f, 0.3059398f, -0.0945383f, 0.0047912f, -0.3158262f},
      {0.0656192f, 0.3244669f, 0.0618915f, 0.2230347f, -0.0104857f, 0.6228526f},
      {0.0318808f, -0.0421771f, 0.1785326f, -0.2453880f, 0.0009070f, 0.1340902f},
      {-0.0226761f, 0.8619744f, 0.4733948f, 0.1084764f, 0.0070506f, 0.4386699f},
      {-0.5496396f, 0.2862754f, 0.3267983f, -0.0068689f, -0.0047036f, -0.2565159f},
      {-0.0975897f, -0.1681129f, -0.0984244f, -0.0409560f, -0.0030156f, -0.1771181f},
      {0.1033989f, -0.0617281f, 0.1410442f, -0.0531514f, -0.0880006f, -0.0704543f},
      {0.1107762f, 0.1376212f, 0.0412267f, 0.1560280f, -0.0016169f, 0.1040839f},
      {-0.1889653f, -0.0526549f, -0.1169503f, -0.2830698f, -0.0967335f, 0.0118990f},
      {-0.1252483f, 0.2244305f, 0.1042343f, -0.0295995f, -0.0026477f, -0.0565613f},
      {0.0786658f, -0.0410770f, -0.0677370f, 0.0977023f, 0.0318815f, -0.2051762f},
      {-0.0761941f, 0.2010605f, -0.0009861f, 0.2290650f, 0.0522437f, -0.0446047f},
      {0.0871746f, 0.1209884f, 0.1168257f, 0.0223304f, -0.0021791f, 0.1061686f},
      {0.3184888f, -0.2616250f, 0.2806579f, -0.1863188f, 0.0010726f, -0.3741475f},
      {0.1142573f, 0.0904419f, 0.1677057f, 0.0938088f, 0.0651573f, 0.1227784f},
      {0.0124970f, -0.1747240f, 0.1185756f, 0.0462621f, -0.1012351f, -0.1380230f},
      {0.0463733f, 0.1282227f, -0.0952619f, -0.0779932f, 0.0153154f, -0.0058908f},
      {0.1541285f, -0.0393561f, 0.1802368f, -0.1637515f, -0.0110340f, 0.2553818f},
      {-0.2568006f, 0.0783974f, 0.2603715f, 0.2155596f, 0.3986614f, -0.3249082f},
      {-0.0442022f, 0.1130378f, 0.1067522f, -0.0365358f, -0.0402468f, -0.0525920f},
      {0.0404171f, 0.1408257f, 0.0593371f, 0.0916278f, 0.0033323f, 0.1494118f},
      {-0.1361949f, 0.1435795f, 0.0724280f, -0.0792063f, 0.0031565f, -0.1047366f},
      {0.0427753f, 0.0802832f, 0.0538999f, 0.0746715f, -0.0005050f, 0.0609909f},
      {0.0549868f, -0.0022247f, 0.0556811f, -0.0646194f, -0.0745919f, 0.1311290f},
      {-0.1228002f, 0.0066363f, 0.0197718f, 0.0008210f, -0.2050832f, 0.1066847f},
      {0.1776147f, -0.1009885f, 0.0544633f, 0.0538836f, 0.0107634f, -0.1060010f},
      {-0.0453208f, -0.2103957f, 0.0497307f, 0.0367533f, 0.0214594f, 0.0200757f},
      {-0.7267722f, 0.6651711f, 0.1703736f, -0.7577440f, 0.0115795f, -0.3631164f},
      {-0.0825078f, -0.2245976f, 0.1894448f, -0.0961781f, -0.0788468f, -0.0033056f},
      {0.1908945f, -0.2165643f, -0.1278608f, 0.0886829f, -0.0001868f, 0.1738319f},
      {-0.1385646f, 0.1440344f, 0.0803260f, -0.0768425f, 0.0017457f, -0.1153766f},
  };

}  // namespace ALPAKA_ACCELERATOR_NAMESPACE::lst::dnn::t5embdnn

#endif
