#ifndef RecoTracker_LSTCore_src_alpaka_T5EmbedNetworkWeights_h
#define RecoTracker_LSTCore_src_alpaka_T5EmbedNetworkWeights_h

#include <alpaka/alpaka.hpp>

#include "FWCore/Utilities/interface/HostDeviceConstant.h"

namespace ALPAKA_ACCELERATOR_NAMESPACE::lst::dnn::t5embdnn {

  HOST_DEVICE_CONSTANT float bias_fc1[32] = {
      -0.1076609f, 0.0643836f,  -0.0768877f, 0.1646491f,  0.1120182f,  0.8948563f,  0.2622288f,  0.0710645f,
      -0.3436452f, -0.1373610f, -0.0014677f, -0.2574558f, -0.3136766f, 0.0352600f,  -0.5386010f, 0.5750500f,
      -0.0667704f, 0.1065374f,  -0.5752755f, -0.0419748f, 0.1554521f,  0.3262936f,  -0.1060587f, -0.4813825f,
      0.3240157f,  0.7648240f,  0.0718381f,  0.0970576f,  -0.2873392f, -0.1456438f, 0.0362919f,  1.1052203f};

  HOST_DEVICE_CONSTANT const float wgtT_fc1[23][32] = {
      {0.2300710f,  -0.0228114f, 0.0186927f,  -0.0227030f, -0.0639583f, -2.0205784f, -0.8853055f, -0.0027345f,
       -0.0781307f, 1.7398188f,  -0.9911653f, -0.5155464f, -0.5075579f, -0.1541966f, -0.2601055f, -0.1752578f,
       0.2021318f,  0.0058322f,  -0.3815339f, -0.1647451f, 1.9782034f,  1.3761183f,  0.1212191f,  1.5646673f,
       1.2737528f,  -1.5908463f, 0.0164128f,  0.1467454f,  1.4011992f,  0.1782437f,  -0.1748653f, -2.1123312f},
      {-0.0281869f, -0.0187271f, -0.1517751f, 0.1732111f,  -0.0058583f, 0.0643351f,  -0.0909579f, -0.0954039f,
       0.0899049f,  -0.0816217f, 0.0065710f,  0.0665818f,  -0.0120466f, -0.1594856f, 0.0051434f,  0.0108014f,
       -0.0204894f, -0.0358500f, 0.0455100f,  -0.0586655f, 0.2487193f,  0.0702493f,  0.0458380f,  -0.1085220f,
       0.0864295f,  0.0228554f,  -0.0639938f, 0.0315360f,  -0.0542782f, -0.0582563f, 0.1126569f,  0.0470866f},
      {-0.1863975f, 0.0219909f,  0.0940750f,  0.0111765f,  -0.2079942f, -0.3426630f, -0.2952575f, 0.1525847f,
       0.0319481f,  -0.1280169f, -0.2120025f, -0.4172435f, -0.5537076f, 0.0162075f,  -0.2315970f, -0.0773734f,
       -0.2048819f, 0.0351902f,  -0.3023432f, 0.2070740f,  -0.0730745f, 0.0403641f,  0.0133140f,  -0.1905901f,
       0.2722968f,  0.0612035f,  -0.0522478f, 0.0931403f,  -0.1160262f, -0.1238891f, 0.1563575f,  0.0041492f},
      {0.1621661f,  0.0780877f,  -0.0010193f, -0.1298234f, -0.6924172f, 0.2093061f,  0.2230775f,  -0.2041538f,
       0.2122373f,  0.1319927f,  -0.0723128f, 0.3774250f,  0.3345254f,  -0.0737364f, 0.3539194f,  0.0869927f,
       -0.1080162f, -0.0221121f, 0.0083927f,  0.1953541f,  -0.0645698f, -0.0521799f, -0.0746225f, -0.0626877f,
       0.0196300f,  0.0213380f,  -0.1660111f, -0.0681255f, -0.1788525f, 0.0288000f,  -0.0690016f, 0.2121180f},
      {0.9508680f,  0.1260931f,  -0.0677545f, -0.0798475f, 0.1448049f,  -0.5975596f, -0.6851924f, -0.1177407f,
       -0.1520413f, 0.6824791f,  -0.7767727f, -0.3874380f, -0.4461563f, 0.1533820f,  0.1196595f,  -0.2473460f,
       -0.0875013f, 0.0655281f,  -0.0081165f, 0.0971841f,  0.8380404f,  0.9815633f,  -0.1569069f, 0.6815994f,
       0.3270558f,  -1.0660112f, 0.1058313f,  -0.1931584f, 0.2454797f,  -0.1141998f, -0.0553799f, -0.9492319f},
      {0.1139121f,  -0.0471319f, -0.1433019f, 0.0122597f,  -0.0087714f, -0.2233615f, 0.0345921f,  0.1750178f,
       0.9600144f,  0.0713557f,  -0.3074737f, -0.2419038f, 0.4657063f,  -0.0589083f, -0.0193002f, 0.0241993f,
       -0.0025265f, 1.9201242f,  0.1227579f,  -0.0604416f, 0.1615677f,  0.0729440f,  0.0454910f,  0.0807488f,
       -0.1992028f, 0.3114122f,  -0.1224341f, -0.0845843f, 0.0506591f,  -0.0546905f, 0.1571275f,  0.2983664f},
      {0.0393649f,  0.0695482f,  -0.0851056f, -0.0513741f, -0.0879206f, -0.3274942f, -0.4034955f, -0.0108283f,
       -0.0149451f, 0.0301075f,  -0.0657995f, 0.2318742f,  -0.1552982f, 0.0576422f,  -0.3124596f, -0.3827636f,
       0.1833084f,  0.0645375f,  -0.1040278f, 0.1877887f,  -0.0915285f, 0.1703671f,  0.0508917f,  -0.4759365f,
       -0.2057278f, -0.2050199f, 0.0810656f,  -0.1313319f, -0.2450559f, -0.1427716f, 0.1166294f,  -0.0359456f},
      {-0.3333524f, -0.0596400f, 0.0300679f,  0.0642818f,  -0.6661552f, -0.0262146f, 0.0387599f,  0.1420810f,
       0.6261041f,  0.0598887f,  0.1894637f,  0.1838713f,  0.0414733f,  -0.0132534f, 0.3616859f,  0.1419854f,
       -0.0082717f, -0.1613457f, 0.4047784f,  -0.1640444f, 0.0877533f,  0.0900807f,  -0.0767017f, 0.1896411f,
       0.0476824f,  0.2581457f,  -0.1239923f, 0.0304086f,  0.2336162f,  -0.0401163f, 0.0995260f,  0.2771164f},
      {1.2728906f,  0.1735161f,  -0.1655740f, 0.0786261f,  -2.3082604f, -0.4065014f, 0.1014598f, 0.1168586f,
       -0.5956917f, 0.3289950f,  -0.7696719f, 0.3802721f,  0.2994661f,  -0.1310178f, 0.1692254f, -0.7205637f,
       -0.1339798f, -0.1189171f, -0.0173988f, 0.0766201f,  0.4939458f,  1.3079091f,  0.1674172f, 0.4219815f,
       -0.1944393f, -1.4031829f, -0.2105564f, -0.1935798f, 0.2290589f,  -0.0218816f, 0.0881245f, -0.6938890f},
      {0.0297750f,  0.2081613f,  0.0265861f,  -0.0727268f, 0.0424076f, -0.0530452f, 0.0116460f,  0.0523272f,
       1.0141398f,  -0.0223510f, -0.0908006f, -0.4863927f, 0.4200687f, -0.2061292f, 0.2197305f,  -0.1425654f,
       0.1371936f,  2.5145392f,  0.8149606f,  -0.1127615f, 0.1801720f, 0.2315773f,  0.0281423f,  -0.1801512f,
       -0.1367686f, -0.0357202f, -0.1376157f, 0.1804506f,  0.0026053f, 0.0342996f,  -0.0435103f, 0.1973655f},
      {0.5514172f,  0.0493921f,  -0.1619736f, -0.1444373f, -0.4061130f, 0.0211835f,  0.1618518f,  0.0343782f,
       -0.2911499f, -0.2541006f, 0.3833880f,  0.0034015f,  0.4634222f,  0.0046524f,  -0.0003398f, -0.1330598f,
       0.0925628f,  -0.1302404f, 0.3364926f,  0.0860569f,  -0.2427372f, -0.0201531f, -0.1234625f, -0.2534493f,
       -0.4696787f, -0.3267805f, -0.1977960f, -0.1309441f, -0.5527884f, -0.1502800f, 0.1347124f,  -0.2272899f},
      {-0.2652852f, 0.1021403f, -0.0533775f, -0.0372942f, -0.3385356f, 0.1508031f,  -0.3898641f, -0.0373947f,
       0.8452043f,  0.3937201f, 0.3815869f,  -0.4588121f, 0.2007107f,  -0.0763763f, 0.3504016f,  0.2635094f,
       0.1716064f,  0.0595769f, 0.3604850f,  -0.1599858f, 0.4985848f,  -0.0323402f, -0.1189895f, 0.1935905f,
       -0.0427079f, 0.1038313f, -0.0964359f, -0.1389695f, 0.3124681f,  0.0676750f,  -0.1372829f, -0.0030659f},
      {0.8805646f,  -0.0296344f, -0.1800796f, -0.1088985f, -1.1670505f, -0.6566313f, 2.6037962f,  0.1077783f,
       1.4632825f,  0.0135877f,  -0.5335069f, -0.0635342f, 0.6063204f,  0.0901704f,  -0.7184715f, 0.7849907f,
       -0.0380238f, -0.1383964f, 0.2724770f,  -0.0998540f, 0.7614555f,  0.6372478f,  0.0280049f,  0.1159206f,
       0.0073722f,  0.1676330f,  0.1148394f,  0.2066212f,  0.4908301f,  -0.0473581f, 0.0094039f,  -0.2324762f},
      {0.0820113f,  0.1508049f, 0.1649642f,  -0.0264350f, -0.0484651f, 0.0503545f, 0.2380732f,  0.0773683f,
       1.0622129f,  0.0477281f, -0.3211710f, -0.5205954f, 0.7037277f,  0.1676271f, 0.3023375f,  0.0694097f,
       0.1622925f,  2.8204956f, 0.3244583f,  0.0454909f,  0.2404190f,  0.1298864f, 0.2031439f,  0.0215201f,
       -0.0959330f, 0.1248599f, -0.0427620f, 0.0806439f,  0.1475440f,  0.0734577f, -0.1761019f, 0.2388463f},
      {0.3346797f,  0.0017518f,  -0.2003272f, -0.1487694f, -0.1120970f, -0.1232136f, 0.4957343f,  -0.0021498f,
       0.1985890f,  -0.2824616f, 0.1547284f,  0.5514987f,  0.5809721f,  0.0388334f,  -0.1250841f, 0.1079585f,
       0.0606023f,  -0.2614023f, 0.2656809f,  0.1318667f,  -0.2346800f, -0.1333426f, 0.0122320f,  -0.2111241f,
       -0.5717283f, -0.1370190f, -0.1384154f, 0.1663720f,  -0.1962507f, -0.1453390f, -0.0947472f, -0.1392532f},
      {-0.1000272f, 0.1586345f,  0.1208759f, -0.1515481f, -0.4346429f, -0.0375334f, -0.6712335f, -0.0672549f,
       0.1964937f,  0.2047737f,  0.3599612f, 0.0226064f,  0.2363640f,  0.0535965f,  0.7373935f,  0.1398760f,
       -0.0623425f, -0.0442800f, 0.5594643f, -0.1336763f, 0.0451847f,  -0.0966946f, -0.1481158f, 0.2683651f,
       0.0604520f,  -0.0945463f, 0.1488864f, -0.1029114f, 0.4397612f,  0.1650934f,  -0.1972548f, -0.0639806f},
      {0.1944682f,  -0.0343862f, 0.1879772f,  0.0508220f,  -0.8081527f, 0.1369837f,  1.1751996f, 0.0754815f,
       0.7957643f,  0.3845229f,  -0.1308642f, 0.4149801f,  1.0069011f,  0.1650969f,  0.4644770f, 1.2038169f,
       -0.1248180f, -0.0018247f, 0.9627273f,  -0.1083647f, 0.5291483f,  0.4177636f,  0.1380222f, 0.3033078f,
       0.2607817f,  0.1470315f,  0.1630234f,  -0.0733339f, 0.3481829f,  -0.0196855f, 0.2043881f, -0.0078421f},
      {0.2315385f,  -0.2062958f, 0.0066993f,  0.1560929f,  0.0351903f, -0.2019287f, 0.2749164f,  -0.1861617f,
       0.6691821f,  0.0754648f,  -0.0898943f, -0.3334203f, 0.3577669f, -0.1375277f, -0.2287978f, 0.0674799f,
       0.0822710f,  1.4664068f,  0.1282790f,  -0.0981439f, 0.1920507f, -0.0558405f, 0.0947972f,  -0.0711964f,
       -0.0690615f, 0.0538623f,  -0.1838517f, -0.1567667f, 0.0266604f, 0.2081920f,  0.0091881f,  0.3511417f},
      {-0.0358196f, -0.0135822f, -0.0060913f, 0.0638567f,  -0.0336083f, 0.0889291f, -0.0647049f, -0.0574997f,
       0.1679572f,  -0.0144612f, 0.0114257f,  0.1314716f,  0.1094831f,  0.0445025f, -0.1731756f, -0.2039456f,
       0.0237835f,  -0.1328709f, 0.1513353f,  -0.2051878f, -0.1613480f, 0.0774990f, 0.0467132f,  -0.4284043f,
       -0.3797065f, -0.1123205f, -0.0125905f, -0.0087713f, -0.1695718f, 0.0262644f, -0.1905296f, -0.2676644f},
      {-0.0176067f, 0.1371621f,  -0.1463297f, -0.0484485f, -0.3145224f, 0.2379830f,  0.0274569f,  -0.2011004f,
       0.1340167f,  0.1370140f,  0.0133160f,  -0.1846156f, -0.2597075f, -0.0971067f, 0.1964326f,  -0.1473686f,
       -0.0384427f, -0.0767768f, 0.2265777f,  0.1251742f,  0.0252316f,  -0.0348975f, 0.1441835f,  0.0763418f,
       0.1534616f,  -0.1300260f, -0.0317930f, 0.0528043f,  0.0153651f,  0.0883954f,  -0.1772172f, -0.0865840f},
      {-0.2992702f, -0.2056940f, 0.0025271f, 0.0177120f,  -0.0354252f, 0.3015993f,  -0.0366193f, 0.1047019f,
       0.0171208f,  0.3765050f,  0.1147572f, 0.4183666f,  0.3071066f,  -0.1214157f, 0.2281674f,  -0.2639161f,
       -0.0314173f, 0.0011229f,  0.0560489f, -0.2018832f, 0.2373064f,  0.1742329f,  0.0175069f,  0.2230138f,
       0.3217102f,  0.0662716f,  0.1336755f, -0.1704126f, 0.2714505f,  -0.0712615f, -0.1252128f, 0.2076013f},
      {0.3839618f,  0.0764676f, -0.1264881f, -0.1128470f, 0.2723711f,  0.2240419f,  0.3926884f,  -0.1119666f,
       0.1145156f,  0.0569828f, 0.2197761f,  -0.1260017f, -0.0614080f, 0.0858216f,  0.1060710f,  -0.1675139f,
       -0.1101537f, 0.0098868f, 0.3385588f,  -0.0072026f, 0.1540136f,  -0.0818315f, -0.0454099f, 0.5338237f,
       0.4209482f,  0.3710277f, -0.1921229f, -0.1095749f, 0.1762900f,  -0.0633016f, -0.1928441f, 0.2283939f},
      {0.1350493f,  -0.0369976f, -0.0573096f, -0.1055166f, -0.0460328f, 0.0914289f,  0.0635922f,  -0.1425146f,
       0.1220551f,  0.2356479f,  0.1985743f,  0.1310528f,  0.2536149f,  -0.1465926f, 0.0962672f,  0.2458522f,
       -0.1589377f, 0.0112681f,  0.1080407f,  -0.0695261f, 0.1706914f,  -0.0549687f, -0.0144865f, 0.1617343f,
       -0.1233734f, -0.0043175f, -0.0951488f, -0.1283643f, 0.1711735f,  -0.0769217f, -0.1667373f, 0.0843741f},
  };

  HOST_DEVICE_CONSTANT float bias_fc2[32] = {
      0.1114847f, -0.0980660f, -0.1432828f, 0.0571870f, -0.0506582f, -0.0909562f, -0.0729844f, 0.1582167f,
      0.0239327f, -0.1345397f, 0.0601855f,  0.1371421f, -0.1548132f, 0.2414353f,  0.1400237f,  0.1858378f,
      0.3787761f, -0.1451135f, -0.1582870f, 0.1571320f, 0.9110807f,  0.9309505f,  0.2151503f,  -0.1334918f,
      0.1337468f, 0.2291934f,  -0.1965303f, 0.3986880f, 0.2661982f,  0.0123709f,  0.1661094f,  -0.0386580f};

  HOST_DEVICE_CONSTANT const float wgtT_fc2[32][32] = {
      {0.7935104f,  0.1537763f,  -0.1189603f, 0.2026661f,  -0.0297501f, 0.1002824f, -0.0030471f, -0.1600450f,
       0.5006580f,  0.1096228f,  0.0521385f,  -0.1349733f, 0.0549544f,  0.3411610f, -0.1347236f, 0.3517846f,
       -0.0184329f, -0.0880213f, -0.1495477f, -0.0272446f, -0.0996386f, 0.0074375f, 0.1097508f,  0.1217564f,
       0.3036683f,  0.9385966f,  0.0994200f,  0.5493739f,  -0.5788350f, 0.1207173f, 0.8642787f,  0.1224158f},
      {-0.1651679f, -0.1346024f, -0.0407589f, 0.0060968f,  0.0550525f,  -0.1162821f, 0.0845372f,  -0.0312840f,
       0.0732979f,  0.1115015f,  0.1120012f,  -0.0151028f, 0.1552249f,  0.1755308f,  0.0467425f,  -0.0985690f,
       0.1393693f,  0.0952687f,  0.1292663f,  0.1135728f,  0.1417785f,  0.0919479f,  -0.1568369f, 0.0430193f,
       -0.1713000f, 0.0082928f,  0.0065353f,  -0.1479797f, -0.0408752f, -0.0024257f, -0.1546571f, -0.0574696f},
      {-0.0346174f, -0.1523161f, 0.1013909f,  -0.1479540f, -0.0407441f, 0.0217416f,  0.1095518f,  -0.0527599f,
       -0.1339017f, -0.1637636f, 0.0059658f,  0.0523471f,  -0.1638495f, -0.1088040f, -0.1195810f, 0.0744504f,
       0.0843545f,  -0.0038738f, -0.0752878f, -0.0830639f, -0.0081507f, -0.1028485f, 0.0939263f,  -0.1390564f,
       -0.0637376f, -0.1234284f, -0.1452668f, -0.0731337f, 0.0924356f,  -0.1085011f, 0.1480661f,  -0.0676877f},
      {0.0893139f, -0.1755275f, 0.1513666f,  0.0985203f,  -0.1244205f, 0.1325702f,  0.1061598f,  -0.1125015f,
       0.0778452f, 0.0764090f,  -0.0298520f, 0.0864757f,  0.1036073f,  0.0429030f,  -0.1234697f, 0.1372314f,
       0.0837456f, -0.1110705f, 0.0386274f,  -0.0824981f, -0.1407688f, -0.0166388f, -0.0065100f, 0.0205910f,
       0.0712746f, 0.1134968f,  0.1528993f,  0.1447483f,  -0.1752522f, 0.0670515f,  -0.1016928f, 0.0749006f},
      {-0.4221931f, -0.0078313f, -0.1615694f, 0.1922797f,  0.1424619f,  -0.1225769f, -0.1069231f, 0.0321212f,
       0.1158551f,  -0.0173657f, -0.3192855f, -0.1178914f, -0.0884586f, 0.3255773f,  0.0049072f,  0.1928076f,
       0.1601604f,  0.1597052f,  0.1570087f,  -0.0861786f, 0.2959818f,  0.1025661f,  0.2283776f,  0.3912853f,
       0.3041947f,  -0.7579975f, 0.0181475f,  -0.5787594f, 0.0629029f,  -0.1735460f, 0.1472129f,  0.0264602f},
      {-0.7738988f, -0.0429657f, -0.1461174f, 0.0591460f, -0.1284392f, -0.0127614f, -0.1458338f, 0.0494522f,
       -0.0183505f, 0.0316315f,  -1.1879824f, 0.1359018f, 0.0244496f,  0.0234942f,  -0.0849307f, 0.2818070f,
       0.1658635f,  -0.1546123f, -0.0869204f, 0.1152034f, 0.4289292f,  0.0331909f,  0.4765283f,  0.1647201f,
       -0.1237150f, -0.0366669f, -0.2017480f, 0.0900826f, 0.2259682f,  0.0869239f,  -0.1917557f, -0.1008087f},
      {-0.1233306f, -0.1254320f, 0.0208180f,  0.4363494f,  -0.0323217f, -0.1364481f, 0.1669496f,  -0.1022960f,
       0.4645715f,  -0.1574075f, -0.3440087f, 0.1931601f,  -0.0981751f, 0.4411269f,  -0.1599795f, 0.3867138f,
       0.9074768f,  0.1405670f,  0.1659278f,  -0.2102446f, 0.8422672f,  0.7199348f,  1.0799338f,  0.2362208f,
       0.1024527f,  0.1760085f,  -0.2000900f, 0.6703379f,  -0.3036317f, 0.0633826f,  0.4036781f,  -0.1660328f},
      {0.0935129f,  0.0896117f,  -0.1591449f, -0.0921283f, -0.0803909f, -0.0739629f, 0.0770673f,  -0.0872545f,
       0.0756327f,  0.1225112f,  -0.0200673f, 0.0405099f,  -0.1097093f, 0.0153092f,  -0.0186319f, 0.1652656f,
       0.0796668f,  -0.0576724f, 0.0454088f,  -0.0699305f, -0.1049395f, -0.0964190f, -0.1088028f, -0.1759604f,
       -0.0270281f, -0.1633235f, -0.1693658f, -0.1547133f, 0.0656644f,  0.0710034f,  -0.0797812f, 0.0874931f},
      {-0.2315133f, -0.1242898f, -0.1748302f, 0.4891092f, -0.1295488f, 0.0272248f,  -0.1115073f, -0.1182250f,
       0.4303118f,  0.1690157f,  0.3544451f,  0.7203116f, -0.0558279f, 0.4396364f,  -0.0222843f, 0.6623169f,
       0.1831843f,  0.0333525f,  -0.1421238f, 0.6664180f, 0.1342463f,  0.3561207f,  -0.0830334f, 0.0490456f,
       0.4651646f,  -0.8527433f, 0.1040679f,  0.2363813f, -0.3571273f, -0.0113284f, -0.3428203f, -0.0219659f},
      {0.8657631f,  -0.0110588f, -0.1662407f, -0.1849120f, -0.1048681f, -0.1407982f, -0.1579710f, 0.0698846f,
       -0.0984722f, -0.0551856f, 0.5239714f,  -0.0286849f, -0.0250782f, 0.1329336f,  0.0546820f,  -0.0410284f,
       0.1429846f,  -0.0220129f, -0.1267688f, -0.0364544f, 0.0050838f,  -0.0241037f, -0.0171641f, 0.0150576f,
       0.1274776f,  0.0953744f,  0.0722358f,  -0.3136437f, -0.0863673f, -0.1072048f, 0.1136607f,  -0.1216316f},
      {-0.4013104f, 0.0062568f,  0.1666445f,  0.0895529f,  0.1637301f,  0.1540755f,  -0.1397319f, 0.0829142f,
       -0.0786366f, -0.0626041f, -0.7612669f, 0.0966581f,  0.1241900f,  -0.5346251f, -0.0894483f, -0.1729745f,
       -0.1078066f, 0.0084621f,  0.1469549f,  0.1632886f,  0.2166737f,  -0.1434769f, 0.0622186f,  -0.2698260f,
       -0.2503103f, -0.1569646f, 0.0237366f,  -0.1275738f, -0.3286507f, -0.0454402f, -0.5508893f, 0.0171432f},
      {-0.2501003f, -0.1529334f, 0.0450683f,  -0.1318748f, 0.0059712f,  0.0352188f,  0.0202075f,  -0.1045332f,
       -0.1893763f, -0.1177603f, -0.0631168f, -0.5585163f, -0.0162627f, 0.3756777f,  -0.0574907f, -0.2639545f,
       -0.1578232f, 0.0942766f,  -0.0980240f, -0.6954805f, 0.0359137f,  0.2557406f,  0.4592443f,  -0.0977449f,
       -0.3359886f, 0.0831071f,  -0.0713184f, -0.3585554f, -0.0112134f, -0.0170468f, 0.1077389f,  -0.1593582f},
      {-0.3867417f, 0.0918510f,  -0.1100437f, -0.0849214f, 0.1541127f,  -0.1260383f, 0.1708444f,  -0.1704484f,
       0.3578125f,  -0.0183001f, 0.1303056f,  0.2593312f,  -0.0176243f, 0.5992197f,  -0.1043210f, 0.0576140f,
       0.3971118f,  0.0583467f,  0.0329353f,  -0.0578158f, 0.3870779f,  0.5295617f,  0.4302094f,  -0.0169005f,
       0.0644399f,  -0.1334869f, -0.1799258f, -0.3507040f, -0.5751286f, -0.1477320f, -0.1375327f, 0.0025423f},
      {-0.0338058f, 0.0661435f, 0.0009827f,  -0.0463354f, -0.0751961f, 0.0094599f,  -0.0478995f, -0.1033407f,
       -0.1720861f, 0.0004993f, -0.1527336f, -0.0517567f, -0.0772611f, 0.0812168f,  -0.1127926f, 0.1435335f,
       0.0206765f,  0.0195439f, -0.0626304f, -0.1649706f, -0.1338586f, 0.0292613f,  -0.1137279f, 0.1361987f,
       -0.0421430f, 0.0417710f, -0.0375995f, -0.0800108f, -0.0172303f, -0.1518723f, -0.0091000f, -0.1181857f},
      {0.2916979f,  0.1444517f,  -0.1735206f, 0.1036488f,  -0.0901442f, -0.1220929f, 0.1284878f,  0.1719087f,
       0.0015471f,  -0.1553243f, -0.2243943f, 0.1590885f,  -0.1645490f, 0.1480242f,  0.0797953f,  0.2001240f,
       -0.1158259f, -0.1080614f, -0.0045919f, 0.2442994f,  -0.1162766f, 0.0265370f,  -0.1621828f, 0.0342960f,
       0.3207558f,  -0.2512864f, 0.0029833f,  -0.5734805f, -0.3943360f, -0.1514722f, -0.1099812f, 0.1378103f},
      {-0.0185014f, 0.1489167f,  0.1055425f,  -0.4110602f, -0.1582483f, -0.0973316f, -0.0795542f, 0.0336631f,
       -0.8234432f, 0.0215067f,  -0.1155055f, -0.4399024f, 0.0774003f,  -0.3247064f, 0.0747171f,  -0.4686637f,
       -0.7906146f, -0.0404646f, 0.0273836f,  -0.4322361f, -0.5878145f, -0.6357390f, -0.4666278f, -0.1887418f,
       -0.4657162f, 0.0931829f,  0.1429561f,  0.9504251f,  0.8285201f,  -0.1034392f, -0.0575653f, -0.1689749f},
      {0.0716432f,  0.0228626f,  0.1232763f,  -0.0285555f, -0.1487554f, -0.0178908f, -0.1501790f, -0.0184381f,
       0.1061531f,  -0.0703886f, -0.0717311f, 0.1586405f,  -0.1538888f, -0.1286457f, 0.1381271f,  -0.1028002f,
       -0.0440840f, -0.0601129f, -0.0083102f, 0.1407171f,  0.0165165f,  -0.1320089f, 0.0297978f,  0.1226940f,
       0.1630344f,  -0.1094800f, 0.0808804f,  0.1767705f,  0.1237159f,  -0.0053744f, -0.0772052f, 0.1309776f},
      {0.5083827f,  0.1042206f,  0.0563612f,  -0.9441183f, -0.1481081f, -0.0975753f, 0.0435411f,  0.0836118f,
       -1.1743993f, -0.1609557f, -0.3273923f, -0.7724815f, 0.0222378f,  -0.5645975f, 0.0981715f,  -0.7692153f,
       -0.6414910f, 0.1306329f,  -0.0012279f, -0.9353058f, -0.1821574f, -0.5507959f, 0.1503154f,  -1.9963238f,
       -1.2006397f, 0.8260999f,  -0.0076141f, -0.2227886f, 0.6317100f,  -0.0186734f, -0.1065327f, -0.1693210f},
      {0.2791477f,  0.1500706f,  0.1219790f,  -0.0248565f, -0.0581686f, 0.1345080f,  0.0971348f,  -0.1662942f,
       0.2004582f,  -0.0007540f, -0.1419756f, 0.2808607f,  0.0391417f,  0.1471666f,  -0.1077887f, 0.2323208f,
       -0.1090591f, 0.1658335f,  -0.1199561f, 0.3284209f,  -0.2369467f, 0.0810438f,  -0.0907567f, 0.1486492f,
       0.3459942f,  -0.3508060f, -0.1135950f, -0.0760431f, -0.5093526f, -0.0980668f, -0.1404113f, 0.1713556f},
      {0.0827648f, 0.0553791f,  -0.0558847f, -0.1226473f, 0.1651182f, 0.1418158f,  -0.0147782f, 0.0339975f,
       0.1369557f, 0.0755099f,  -0.1378312f, -0.0511350f, 0.1378116f, -0.0348428f, 0.1352572f,  -0.0390955f,
       0.0556768f, -0.1138816f, 0.0677349f,  0.1127000f,  0.0582481f, -0.0054799f, 0.0158860f,  0.0448148f,
       0.1450144f, 0.1484309f,  -0.1336537f, -0.0477525f, 0.0283291f, 0.0917294f,  0.1335035f,  -0.0657376f},
      {0.7740116f,  -0.0333041f, -0.0525782f, 0.0368414f,  -0.1016285f, -0.1294974f, -0.1538780f, -0.1150059f,
       0.1012926f,  -0.1509116f, 0.6338457f,  -0.0673581f, -0.0096895f, 0.0697506f,  0.1733587f,  0.0867112f,
       -0.1271087f, 0.0450140f,  -0.0865043f, -0.0161790f, 0.0280266f,  -0.0269192f, 0.0609249f,  0.0762735f,
       0.0475956f,  0.0661192f,  -0.1957929f, 0.0143341f,  0.0250928f,  -0.1453969f, 0.3199226f,  -0.0148772f},
      {0.8809904f,  -0.1525380f, -0.1364848f, -0.1999968f, -0.0353042f, 0.1732475f, 0.1625473f,  -0.1731071f,
       0.1001470f,  -0.1165461f, 0.9523086f,  -0.3713738f, 0.0794117f,  0.9987508f, -0.1710091f, -0.0464124f,
       -0.1844669f, 0.1297938f,  -0.0158560f, -0.5040756f, -0.3489694f, 0.3586375f, 0.3590748f,  0.4014543f,
       0.0717459f,  0.5499882f,  -0.1245723f, 0.0274181f,  0.1205204f,  0.0635449f, 0.8952977f,  0.0149646f},
      {-0.1154251f, -0.1367031f, -0.0856962f, -0.0264936f, -0.1519586f, -0.0657453f, -0.0854074f, -0.0226953f,
       0.0165656f,  0.0439666f,  0.1200567f,  -0.0225896f, 0.1178473f,  -0.0521111f, 0.1318790f,  -0.0057047f,
       -0.0891228f, 0.1182839f,  -0.0609204f, -0.0407392f, -0.0118201f, -0.1171449f, -0.0507850f, -0.1697276f,
       -0.0171973f, -0.0534307f, 0.0841306f,  0.1684233f,  -0.1414758f, 0.1529064f,  0.0199699f,  -0.0552086f},
      {1.3111839f, -0.1735535f, -0.0634557f, 0.2076380f,  0.1659378f,  0.1245711f,  -0.1632721f, 0.1611472f,
       0.0999681f, -0.1735559f, 0.1706035f,  0.1380819f,  0.0493015f,  -0.3363797f, -0.1365905f, 0.0061955f,
       0.0885982f, -0.0964432f, -0.1353826f, 0.1423997f,  -0.2153572f, -0.2292695f, -0.0011220f, 0.0970276f,
       0.2709656f, 0.0581074f,  0.0713012f,  -0.1215840f, -0.0599029f, 0.0996864f,  0.4200715f,  -0.1656919f},
      {1.0010765f,  -0.1553097f, -0.0339472f, -0.0346543f, -0.0264954f, -0.1556068f, -0.0060285f, -0.0609204f,
       0.1143448f,  0.1623999f,  0.1289486f,  0.0634477f,  -0.1797986f, -0.2430423f, -0.1239643f, -0.1459834f,
       -0.1004213f, -0.0076692f, -0.0371502f, 0.0977720f,  0.1053928f,  -0.1989881f, 0.0343841f,  0.0360182f,
       0.4454144f,  -0.0789256f, 0.0101970f,  0.0285535f,  0.2632089f,  0.1027311f,  0.5046535f,  -0.0886704f},
      {-0.2307561f, 0.1370914f,  0.0808471f,  0.3812910f, -0.1672815f, 0.1146515f,  0.0028145f,  -0.0404333f,
       0.1214984f,  0.0419820f,  -0.9127209f, 0.5035347f, -0.1566752f, -0.2512086f, -0.0573835f, 0.2136672f,
       0.4173908f,  -0.0959376f, -0.0808548f, 0.4868801f, 0.4935805f,  0.1646712f,  0.2431899f,  0.0995200f,
       0.1619691f,  -0.3234179f, -0.0310208f, 0.5234920f, 0.2512674f,  -0.1283910f, -0.1225586f, 0.1282360f},
      {0.0880221f,  0.1369088f, 0.1571090f,  0.1561234f,  0.1616234f,  0.1515864f,  -0.1234331f, -0.0278672f,
       -0.0193390f, 0.0956485f, 0.1028120f,  0.0506944f,  0.1319241f,  0.0793352f,  -0.1189301f, -0.0734086f,
       -0.0857360f, 0.1322473f, -0.1406628f, 0.1443390f,  -0.1471031f, -0.1204551f, -0.0355427f, -0.0244333f,
       -0.0232680f, 0.0609694f, -0.0181026f, -0.1804107f, 0.1601731f,  0.0991672f,  -0.1442818f, 0.0111615f},
      {-0.0482929f, -0.0161151f, 0.0845318f,  -0.1085511f, 0.1199506f,  0.0803848f,  -0.0880490f, 0.1251028f,
       0.0769727f,  0.1232794f,  -0.1692802f, -0.0440717f, -0.0896103f, 0.0222508f,  0.1381323f,  -0.1278009f,
       -0.1543823f, 0.0312149f,  -0.0856534f, 0.0625164f,  0.1387555f,  -0.0343047f, 0.0237952f,  0.1369074f,
       0.1325777f,  0.1695956f,  0.1599831f,  -0.1514085f, -0.0526219f, -0.0331318f, -0.0430779f, -0.1595148f},
      {0.8482870f, -0.1244332f, 0.1409883f,  0.1872082f,  -0.0170705f, 0.1150447f,  -0.1387506f, -0.1059058f,
       0.1268505f, 0.1436724f,  0.4759335f,  0.1329630f,  -0.1961199f, -0.1971771f, -0.0757586f, -0.1092949f,
       0.0237080f, -0.1722886f, -0.0041689f, 0.1913724f,  0.0308395f,  -0.2313443f, 0.0197857f,  0.1600847f,
       0.1952288f, -0.1267378f, 0.1450897f,  -0.1899846f, -0.1032900f, -0.1288802f, 0.3874894f,  -0.0837989f},
      {-0.0480998f, -0.0443313f, -0.0496262f, 0.0535565f,  -0.1043366f, -0.1119856f, -0.1644280f, 0.1515992f,
       -0.1302936f, 0.1441405f,  -0.0901498f, 0.1427290f,  0.0056605f,  0.1089422f,  -0.0947291f, -0.0238674f,
       0.1390872f,  0.1104252f,  0.1060316f,  -0.0605441f, 0.0902433f,  0.1572292f,  0.1199073f,  0.1697048f,
       0.0323289f,  -0.0113154f, 0.0017763f,  -0.0492790f, -0.1359812f, 0.0196920f,  -0.1443282f, 0.0475290f},
      {0.1092094f,  0.1342984f,  -0.0188968f, -0.0675412f, 0.0643135f,  -0.1353022f, -0.0245501f, 0.0006297f,
       0.1665962f,  0.0609711f,  -0.0125015f, 0.0105169f,  -0.1681591f, -0.0479937f, 0.1661174f,  0.1156140f,
       -0.0894337f, -0.1644697f, 0.1743491f,  0.0411689f,  -0.0243431f, 0.0720372f,  0.0543556f,  0.1572177f,
       0.0132546f,  -0.0870009f, -0.0008205f, 0.0834667f,  0.0277098f,  0.0370238f,  0.0097143f,  0.0389983f},
      {-1.0439430f, -0.0301365f, 0.0765183f,  0.4998775f, -0.1538859f, -0.0853189f, 0.1223958f,  -0.0279654f,
       0.1985223f,  0.0604338f,  -1.3346126f, 0.7313128f, 0.1134510f,  0.0741231f,  -0.1400101f, 0.6163914f,
       0.6208336f,  -0.0371212f, 0.0990439f,  0.6838887f, 0.9204530f,  0.4214398f,  0.7085393f,  -0.0548881f,
       0.0436918f,  -0.3502516f, -0.1328448f, 0.3404709f, 0.3501793f,  0.0662042f,  -0.3423998f, -0.0445618f},
  };

  HOST_DEVICE_CONSTANT float bias_fc3[6] = {0.0149987f, -0.0543868f, -0.1184934f, 0.1495907f, 0.1019080f, -0.0481983f};

  HOST_DEVICE_CONSTANT const float wgtT_fc3[32][6] = {
      {0.5231416f, -1.3913038f, 1.4405123f, -0.0060997f, -0.9352913f, -1.1172934f},
      {-0.0802494f, -0.0090756f, -0.0654855f, 0.0594900f, -0.1660390f, 0.1107777f},
      {-0.0951064f, 0.1428567f, 0.0455052f, 0.1357394f, -0.0069438f, 0.0864935f},
      {0.6786861f, 0.1765867f, 0.1903633f, -0.5798751f, 0.1564638f, 0.2511972f},
      {0.1637671f, 0.0277281f, -0.1441607f, -0.1392116f, -0.0748017f, 0.1602072f},
      {0.1346582f, 0.0679120f, 0.0601042f, -0.0781049f, 0.0696426f, -0.0164419f},
      {0.0934655f, -0.0496490f, -0.0085685f, 0.0392054f, -0.0589473f, -0.0546597f},
      {-0.0616910f, 0.0652185f, 0.0986540f, 0.0192003f, 0.0275926f, 0.0511498f},
      {0.4199283f, 0.2332281f, 0.1042311f, -0.4422926f, 0.4951065f, -0.0005768f},
      {0.0402358f, -0.0337254f, -0.0890038f, 0.1655557f, -0.1443872f, -0.0621345f},
      {3.5937808f, -0.0029328f, 2.0031197f, -1.8898786f, -0.6661415f, -0.0410150f},
      {0.7897108f, 0.3319052f, -0.0152883f, -0.2695991f, 0.0394699f, 0.3292378f},
      {0.0774212f, 0.0247111f, -0.0086568f, 0.0321515f, -0.0695062f, 0.1307115f},
      {-0.2504620f, 0.4394390f, -0.6304159f, 0.1112715f, 1.3836201f, -0.3997321f},
      {-0.1764931f, 0.0558895f, 0.1233650f, 0.0976437f, 0.0357272f, 0.1173318f},
      {0.6144163f, 0.4591118f, -0.0987642f, -0.2958353f, 0.3787653f, 0.1550365f},
      {0.1991683f, 0.1280328f, -0.1833443f, -0.7428219f, 0.2272790f, 0.5962396f},
      {0.0019596f, -0.1295695f, -0.0156642f, 0.0123815f, -0.1215441f, 0.1155006f},
      {-0.0393645f, -0.0545052f, -0.0828219f, 0.0170076f, -0.1737084f, 0.0849709f},
      {1.2466557f, 0.4200790f, 0.1871452f, -0.2734390f, -0.3299998f, 0.1752045f},
      {-0.1541014f, 0.3003652f, -0.1304345f, -0.6716295f, -0.1363187f, 0.7746525f},
      {-0.0758114f, 0.3370047f, -0.4035100f, -0.3051922f, 0.5722920f, 0.2281967f},
      {-0.6298658f, 0.2931594f, 0.0337287f, -0.3883482f, 0.1695637f, 0.6112240f},
      {1.3013866f, 1.0393931f, -0.6882207f, 0.2184481f, 0.4815889f, 0.1607859f},
      {0.7742165f, 0.1512087f, 0.4696638f, -0.3622285f, 0.2573800f, -0.2508432f},
      {-0.5970278f, -0.9517997f, 1.3692452f, -0.9289228f, 0.6355102f, -0.8532701f},
      {-0.0974301f, 0.1113391f, 0.1086340f, -0.0246371f, 0.0662450f, -0.0980479f},
      {-1.1039429f, -1.7434103f, 0.6871852f, 2.0167446f, -1.4751096f, -1.7573857f},
      {-1.9597484f, -0.8583833f, -0.3680882f, 1.3157020f, -1.0768539f, -0.0378662f},
      {0.0624325f, -0.1291590f, 0.0601819f, -0.0813563f, -0.0857041f, 0.1467163f},
      {-0.1748663f, -0.6015965f, 0.8530948f, -0.4905934f, 0.4976965f, -0.7972807f},
      {0.0655415f, 0.0309662f, 0.0407097f, -0.0674532f, 0.1704712f, 0.1573044f},
  };

}  // namespace ALPAKA_ACCELERATOR_NAMESPACE::lst::dnn::t5embdnn

#endif
