#ifndef RecoTracker_LSTCore_src_alpaka_T5NeuralNetworkWeights_h
#define RecoTracker_LSTCore_src_alpaka_T5NeuralNetworkWeights_h

#include <alpaka/alpaka.hpp>

#include "FWCore/Utilities/interface/HostDeviceConstant.h"

namespace ALPAKA_ACCELERATOR_NAMESPACE::lst::dnn::t5dnn {
  HOST_DEVICE_CONSTANT float bias_layer1[32] = {
      0.1063484f,  -0.2586785f, -0.4041654f, 0.2874144f,  -0.0048153f, -0.0552224f, -0.3353412f, -0.1217787f,
      -0.1023233f, -0.4895379f, 0.0724831f,  -0.0782305f, 0.0423554f,  -0.3448199f, 0.7893330f,  0.5417718f,
      -0.3814211f, -0.0300061f, -0.0872166f, 0.0745094f,  -0.0508228f, 0.0263381f,  0.2278053f,  0.0868638f,
      -0.1107799f, -0.0413309f, -0.1491974f, -0.1661576f, -0.4162534f, 0.4993950f,  0.0897595f,  -0.5779333f};

  HOST_DEVICE_CONSTANT float wgtT_layer1[30][32] = {
      {-0.1505160f, -0.6940249f, 0.4992728f,  -0.7896332f, -0.0977756f, 0.3208770f,  -0.2162933f, -0.0716252f,
       0.0234017f,  -0.0250481f, -0.4447506f, 0.0850351f,  -0.5346628f, 0.3859509f,  0.1076398f,  -0.0121937f,
       0.5085616f,  0.3470633f,  0.5595261f,  0.4235995f,  0.3145484f,  -0.6091570f, 0.0361726f,  -0.6665804f,
       0.0232229f,  1.4018483f,  -0.1372670f, -0.1640743f, 0.1404200f,  0.1181919f,  -0.0184279f, 0.6332238f},
      {0.0081468f,  -0.0151515f, -0.0168529f, 0.0027244f,  0.0022829f,  -0.0126172f, 0.0208032f, -0.0047965f,
       0.0195392f,  -0.0079310f, -0.0168563f, -0.0256330f, -0.0112822f, -0.0193237f, 0.0065304f, -0.0187082f,
       -0.0206540f, 0.0250006f,  0.0222955f,  0.0023091f,  -0.0164137f, -0.0028541f, 0.0096172f, -0.0136995f,
       -0.0101989f, 0.0209652f,  0.0224298f,  -0.0794508f, -0.0413992f, 0.0182369f,  0.0026231f, 0.0308010f},
      {0.0124148f,  0.0100725f,  0.0072919f,  -0.0207096f, -0.0046149f, -0.0181025f, -0.0943988f, 0.0055713f,
       -0.0210757f, -0.0125448f, -0.0107773f, -0.0206580f, -0.0023914f, -0.0370420f, 0.0085822f,  0.0040167f,
       -0.0123635f, -0.0054623f, 0.0075284f,  -0.0062562f, -0.0162355f, 0.0016785f,  -0.0026775f, 0.0200686f,
       0.0180470f,  -0.0004692f, -0.0548120f, -0.0613124f, 0.0032181f,  0.0050850f,  0.0012472f,  -0.0323244f},
      {0.2429555f,  -0.1344084f, -0.2264428f, 0.6711037f,  0.1404211f,  0.3461939f,  0.2521112f,  -0.1475933f,
       -0.1537134f, 0.3031617f,  0.9749653f,  0.2320351f,  0.6956239f,  0.5719467f,  -1.0592954f, -2.0804150f,
       -0.4684393f, 0.0435073f,  -0.4139215f, -0.4792996f, -0.1441263f, -0.1879714f, -0.3638578f, 0.2409382f,
       1.0517197f,  -0.8444685f, 0.0780589f,  -0.0303055f, 0.3356053f,  -2.4338675f, -0.0355634f, -0.1629694f},
      {-0.1043713f, 0.9065071f, 1.1566681f,  -0.6755995f, -0.5179092f, -0.2168937f, 2.1895335f,  -0.0156305f,
       -0.4325633f, 0.4599487f, -1.4719201f, -0.3104183f, -0.4154200f, 0.6193969f,  -3.6573856f, 0.5134403f,
       0.1494716f,  0.8116254f, 1.7858810f,  0.1582310f,  -0.6101120f, 0.7471838f,  -2.5928605f, -0.7562277f,
       -0.1936270f, 1.1846094f, -0.1752130f, -0.0837133f, 0.2249916f,  0.7455897f,  -0.0269584f, -0.0338093f},
      {0.3006373f,  0.5328971f,  -3.7600470f, -1.6001554f, -1.6210080f, 2.4891508f,  -5.4876189f, -0.0243062f,
       1.1362474f,  -1.9795543f, 1.6521603f,  -0.4545667f, -1.9724761f, 2.7814159f,  -1.6252816f, -2.3031397f,
       0.3263975f,  0.9252905f,  -5.3998289f, 0.2589085f,  2.7339540f,  -0.3199758f, 1.7219503f,  -3.7017126f,
       -1.0361201f, -0.2495078f, -0.1003173f, -0.1604925f, 0.7133954f,  0.3927339f,  -0.0049187f, -1.5366168f},
      {0.0609781f,  -0.2201914f, -0.0188172f, -0.0453641f, 0.0840868f,  0.6161349f,  0.7352327f,  -0.0747809f,
       0.8681614f,  1.5874056f,  0.1250516f,  -0.2350478f, 0.2751079f,  0.6810271f,  0.3046775f,  0.1969902f,
       -0.0564044f, 0.3223241f,  0.4166678f,  -0.3495276f, 0.4750970f,  -0.0245320f, -0.0444969f, -0.2040398f,
       -0.2590589f, -0.1480459f, 0.0348782f,  0.0177842f,  -0.0708865f, 0.3029315f,  0.0123436f,  -0.2133013f},
      {-0.3629959f, 0.4706304f,  1.0975996f,  -1.0096047f, -0.6235416f, -1.0775422f, 0.8737819f,  -0.1378198f,
       -1.6114253f, -0.0421236f, 0.0502856f,  1.9985789f,  -0.3796331f, -0.0137876f, 0.1786433f,  -3.4003105f,
       1.3734188f,  0.1302681f,  -1.4864925f, -1.4434862f, 1.2919297f,  -0.0065898f, -1.0680788f, -1.2411999f,
       0.3119231f,  -1.0338833f, 0.0073986f,  -0.0467110f, 0.7658151f,  -1.8302237f, 0.1119033f,  0.2930924f},
      {0.1374987f,  0.1216513f,  -1.8835517f, -0.0000681f, 0.0972841f,  1.5127637f,  -0.6396615f, 0.0894980f,
       0.9876568f,  0.0176692f,  0.0599972f,  -0.9077796f, -0.1810550f, -0.5203112f, -2.8501554f, 1.2352544f,
       -0.3710546f, -0.9588479f, -0.0847979f, 0.5634413f,  -1.0568395f, 1.0843353f,  -1.8364532f, 0.0383097f,
       -0.3579920f, 0.7921312f,  -0.0276966f, 0.1102615f,  0.6284872f,  0.3860574f,  -0.0747987f, 0.1570329f},
      {1.1650398f, -4.0777421f,  -4.9313588f, 1.0354512f,  1.1873243f,  4.9597678f,  9.0016909f,  -0.0658239f,
       0.9547827f, 3.4927070f,   1.5828366f,  -6.2311859f, 1.9286071f,  8.7398310f,  -6.1376953f, 1.0536284f,
       0.1685213f, -0.8698517f,  3.3764436f,  0.3912819f,  -2.4904983f, -2.3361301f, 7.3338733f,  -4.6966581f,
       0.4317950f, -10.5159101f, 0.0235976f,  -0.1109844f, -2.1912580f, 1.9273101f,  -0.0116333f, 2.1799674f},
      {-0.0350359f, 0.3806990f,  -0.2535315f, -0.0845869f, 0.5103443f,  -0.8759149f, 0.1452506f,  0.0726050f,
       -0.3171998f, -2.5886114f, -0.5836103f, 0.0126040f,  -0.2649895f, 0.7518402f,  0.8482519f,  -0.0367047f,
       0.4002758f,  0.1131317f,  -0.1003603f, 0.5543001f,  -0.0056090f, 0.2715680f,  0.1774813f,  -0.1959457f,
       0.3854005f,  0.7113212f,  0.1196740f,  -0.0653633f, -0.1447811f, -0.3583302f, -0.0384513f, -0.2309113f},
      {-0.0130153f, 2.0854106f,  -1.6480198f, 0.1120891f,  -0.5322471f, -0.8672743f, -0.7648190f, 0.0283293f,
       -2.1950011f, -1.4398462f, 0.0959077f,  1.0759263f,  -1.4145952f, -0.1648238f, -0.0988663f, -2.1056647f,
       -0.3780090f, -0.5413031f, 0.8379997f,  -0.6916462f, -0.4503441f, 2.0680687f,  -1.4831558f, 0.9705771f,
       -0.4981513f, -0.7065076f, -0.1121793f, -0.1074665f, 1.3518814f,  -2.2168074f, 0.0217479f,  0.6073222f},
      {-0.2833236f, 1.5145963f,  -0.4381061f, 0.7230397f,  0.0762482f,  -0.2097694f, 0.5901644f,  0.0653882f,
       0.4388168f,  -1.8537656f, -0.0411075f, -0.7077942f, 0.4901957f,  -1.1884611f, -0.9816951f, 0.2681499f,
       0.0972024f,  -0.9472192f, -0.7682563f, -0.1695633f, 0.3904908f,  0.6783755f,  -0.3331279f, -0.9239824f,
       0.1624883f,  -3.5889859f, -0.0916709f, 0.0106547f,  -0.7812599f, -0.0792256f, 0.0023347f,  0.0822569f},
      {-2.5783322f, -0.7225768f, -5.2954206f, -1.5603689f, 1.1046960f,  -6.9499311f, -5.7597418f,  -0.1441538f,
       -1.5191592f, 0.8498752f,  -6.4400291f, 1.2756999f,  1.3509148f,  8.0779314f,  9.4041262f,   5.1380525f,
       -0.2706605f, 1.4462888f,  4.3716950f,  0.6539926f,  -2.6285174f, 6.0896821f,  -10.4762011f, 4.5878787f,
       0.2720235f,  12.0129108f, -0.2401396f, 0.0762235f,  -3.9924059f, -4.9045825f, -0.0198820f,  1.6176863f},
      {-0.0610760f, -0.1995136f, 0.2971606f,  -0.0059718f, 0.0899181f,  0.1390501f,  0.2040945f,  0.0248621f,
       0.1819400f,  0.4151583f,  0.2487179f,  0.1778997f,  0.2392758f,  -0.8803287f, -0.3062147f, 0.0295690f,
       -0.2858818f, -0.0752397f, -0.3563173f, -0.9807886f, -0.3852084f, -0.3272090f, 0.0873109f,  -0.1421096f,
       -0.4419993f, 0.0332325f,  0.0733902f,  0.0290887f,  -0.4462426f, 0.0015372f,  -0.0193878f, 0.6373798f},
      {-0.4221011f, 1.1132889f,  0.7503464f,  -0.1791825f, 0.7000166f,  -0.4945873f, 0.8228876f,  0.5079316f,
       0.3336967f,  -2.7339387f, -0.6548018f, 1.2691965f,  -2.1696579f, 0.3480417f,  1.1695240f,  -1.2988623f,
       -1.0838281f, -2.0626452f, 0.5014067f,  -0.4516994f, 2.5454137f,  0.3652537f,  1.6122760f,  1.2441568f,
       0.9549704f,  1.1510706f,  -0.1986764f, 0.0716826f,  -1.3703952f, -2.7945035f, -0.0364192f, 1.1350524f},
      {0.1664770f, 1.2110780f,  1.6696370f,  1.4769182f,  -0.5230985f, -0.0104306f, -0.2536828f, -0.1187648f,
       0.3504591f, 1.1500655f,  1.7957505f,  -0.4474743f, 1.1438330f,  0.1207760f,  -0.7352335f, -0.4217465f,
       0.8948637f, -0.6916130f, -1.0910153f, -1.5530510f, 0.6605502f,  -0.2876921f, 0.0075578f,  0.6584110f,
       0.2313987f, -5.5835929f, -0.0222017f, -0.1779794f, 1.2702910f,  0.6311589f,  0.0385600f,  -0.3099701f},
      {-0.5473059f, -0.3893209f, -3.9320092f, 0.9976144f, 0.2740094f,  -2.3135195f, -2.5555410f, -0.0759991f,
       -0.8993034f, 1.0416739f,  0.0089531f,  5.9231639f, 1.2330723f,  4.6325130f,  7.1851435f,  0.6471601f,
       0.9453395f,  -0.1473181f, 2.4873724f,  0.7641158f, -1.4071518f, -1.4299023f, -9.8368111f, 5.0415339f,
       1.1154473f,  -0.8843153f, -0.2473072f, 0.0171967f, 3.0966897f,  -0.4678032f, -0.0007260f, -5.4874196f},
      {-0.0435726f, 0.1128777f,  -0.2488317f, 0.1129002f,  -0.4594296f, 0.0044700f,  -0.6136174f, -0.0032191f,
       -0.4172883f, 0.4202167f,  -0.0247200f, -0.1059475f, 0.0979016f,  -1.2030797f, -0.5585371f, -0.0474102f,
       0.0650023f,  -0.3271269f, 0.1506424f,  0.3863579f,  0.1056429f,  -0.0156895f, -0.3140773f, 0.7147571f,
       0.0318588f,  -0.3686966f, -0.2693034f, -0.1609166f, 0.7514495f,  0.2367623f,  0.0142736f,  -0.3843921f},
      {0.1671471f,  0.1111151f,  0.3065881f,  0.5440707f,  0.5028133f,  -1.0341254f, -0.9843563f, 0.2373679f,
       1.8828955f,  0.4673156f,  -0.5260015f, 1.6120716f,  0.6830448f,  0.0621649f,  0.1269761f,  -1.3639839f,
       -2.7311378f, -0.6898584f, 0.2944617f,  -0.7863004f, 0.6585387f,  -0.6675814f, 2.6928904f,  0.8408524f,
       -0.7232327f, -0.0503695f, -0.1011020f, 0.1256609f,  -0.3310936f, -1.6388807f, 0.0170783f,  -0.8610392f},
      {0.0206696f,  0.7055557f,  1.0701700f,  -0.0574809f, 0.4237822f, 0.9703660f, -0.6817239f, -0.0347899f,
       -0.1695618f, 1.0255067f,  0.0873834f,  -0.2122334f, 0.4671514f, 0.5975072f, -0.1977623f, -0.0145710f,
       1.0059937f,  0.6244578f,  -0.0700749f, -0.3596736f, 0.6910052f, 0.7119819f, -0.2656997f, -0.0035297f,
       0.6652129f,  -1.1921585f, -0.0530165f, 0.0531622f,  0.1861694f, 0.2973565f, 0.0015604f,  1.1304762f},
      {-20.4439812f, -21.6863270f, -16.6972065f, 14.6706820f,  20.6169300f,  9.8891029f,   -8.5169144f,  1.1846510f,
       8.3603945f,   11.3517351f,  -16.7101536f, 7.3500195f,   -18.0252495f, -21.2677135f, -1.2512628f,  -22.1197071f,
       11.1506071f,  -3.4151890f,  0.2678045f,   -13.9269991f, -15.6923971f, 18.3082008f,  7.6676002f,   4.5730753f,
       2.2624252f,   1.0136501f,   0.0253059f,   0.0307766f,   -9.3786345f,  17.3000469f,  -21.4031239f, -8.2957420f},
      {24.6612225f, 11.6928930f,  -7.4674101f, -23.1552715f, -6.3009777f, 12.2813148f,  -2.1296906f, -25.1436329f,
       12.7459440f, 2.2623329f,   11.2090883f, 1.3146646f,   5.7051344f,  -2.1883452f,  -1.7951168f, 10.4644604f,
       20.3105545f, -16.4578342f, 8.5968008f,  -12.6103849f, -2.9905996f, -16.8686199f, -1.3634481f, -18.2246399f,
       11.5170221f, 13.4147196f,  -0.0689108f, 0.1469437f,   19.9949093f, -15.8600807f, 21.3002415f, 4.1889534f},
      {5.3418379f,   0.6027819f,  11.4510727f, -4.3552184f,  -12.2073202f, -5.4703007f, -8.0737724f, 22.8319969f,
       7.6231751f,   -8.0925503f, 3.3442822f,  -20.7919483f, 11.0281019f,  -2.4255092f, -9.0860434f, -4.3822527f,
       -20.7810974f, 21.1163177f, -9.6382074f, 13.8461313f,  13.8434772f,  1.1664869f,  9.1251011f,  -2.7956500f,
       -7.4031057f,  6.2122164f,  0.0685365f,  -0.0983193f,  9.1200476f,   4.2207909f,  0.0015126f,  17.4223404f},
      {0.0277342f,  -0.1092379f, -0.4632216f, 0.2227802f,  0.0232636f,  0.5293714f,  -0.5408518f, 0.1296002f,
       -0.0019376f, -0.2309093f, -1.5188700f, 0.9816849f,  -2.2144656f, -0.6596261f, 0.5347516f,  0.3201677f,
       0.1119250f,  -0.7649322f, 0.8427567f,  0.8148958f,  0.2412734f,  -0.0915199f, 0.3659993f,  -3.2284091f,
       -9.0366316f, -0.2368899f, -0.1787330f, -0.1071561f, -1.0997833f, 0.1158613f,  -0.0624918f, -3.2711840f},
      {0.1362462f,  -0.0721102f, -0.2109410f, 0.2672216f,  0.0260874f, -0.1478469f, -0.5268452f, 0.0590909f,
       -5.7653284f, -6.7110844f, 0.6454347f,  0.2733602f,  0.4346633f, -0.1726725f, 0.5181946f,  0.3474768f,
       -3.7499940f, 0.7796714f,  -0.3640566f, -2.5033395f, 0.0660220f, 0.2578179f,  0.3379019f,  0.5117453f,
       0.5667798f,  -0.3243127f, -0.0884304f, 0.0163961f,  0.2163681f, 0.2513916f,  -0.0501075f, 0.2635884f},
      {0.0026064f,  -0.0888060f, -0.4187809f, -0.0690229f, 0.2003440f,  -0.3876095f, 0.2987952f,  0.1498633f,
       0.6288549f,  -0.1673667f, 0.4121937f,  -0.4974702f, 0.5216954f,  -0.1845322f, 0.4574893f,  0.2857651f,
       0.0960224f,  -1.0669787f, -0.5013437f, 0.7686157f,  -0.0568763f, 0.0720665f,  0.3408280f,  0.7137973f,
       -0.1151545f, -0.2516690f, -0.1180735f, -0.0140986f, -0.0863743f, 0.3292639f,  -0.0633019f, 0.0902425f},
      {0.0405971f,  0.1358143f,  -0.0763892f, 0.0989724f, 0.8267557f,  0.4411339f,  -0.3543151f, 0.3457504f,
       -0.0802221f, -1.1871657f, 0.0497922f,  0.4389370f, -1.4438546f, -0.1867640f, -0.0775934f, 0.0936729f,
       -0.1722702f, -1.0449684f, 0.0486685f,  0.8238361f, -0.0781424f, -0.0991894f, 0.0466733f,  -1.6142182f,
       0.0357678f,  -0.1819772f, 0.0460465f,  0.1407210f, -1.1544675f, 0.0901649f,  -0.0111661f, -2.9773176f},
      {-0.0357742f, 0.1528623f,  0.1480433f, 0.1568916f,  -0.7697282f, -0.2481901f, -0.0884284f, 0.1784591f,
       -0.4071201f, 1.4308019f,  0.3373552f, 0.0970738f,  0.5246480f,  0.1686694f,  -0.1363547f, 0.1215522f,
       -0.0498817f, 1.1616321f,  0.0287397f, -1.8090397f, -0.0872979f, 0.0213424f,  0.0101493f,  0.3616677f,
       -0.1419764f, -0.1475210f, 0.1154357f, 0.1695760f,  0.7657275f,  -0.0636194f, -0.0050330f, 0.9502661f},
      {-0.0037833f, 0.0920942f,  -0.1763051f, -0.0562301f, -0.0567708f, -0.4402499f, 0.3979881f,  0.3506348f,
       0.4581949f,  -0.2137448f, -0.0653802f, -0.7432902f, 0.6059271f,  -0.0342449f, -0.1703390f, 0.0342935f,
       -0.2558440f, 0.1937356f,  -0.0620344f, 0.6311689f,  0.2273181f,  -0.1244939f, -0.0457685f, 0.4765891f,
       -0.1779283f, -0.0368596f, 0.0121480f,  0.1362891f,  0.4733235f,  -0.0181045f, -0.0098486f, 0.5932328f},
  };

  HOST_DEVICE_CONSTANT float bias_layer2[32] = {
      -2.6452341f, 1.5673804f,  0.2677077f,  0.1191872f, 0.4851048f,  -0.0156492f, 0.3602267f,  0.8975655f,
      -0.0317037f, -0.2556790f, -0.1277559f, 0.5862947f, 0.8127071f,  0.6701468f,  0.3305112f,  -0.2038741f,
      -0.5076312f, -0.0441310f, 0.5554692f,  0.5385998f, 0.7560540f,  -0.1666149f, -0.2378155f, -0.0542962f,
      0.8636453f,  -1.0773036f, 0.2861004f,  1.0002158f, -0.3120174f, -0.7854847f, -0.3109960f, 0.6528168f};

  HOST_DEVICE_CONSTANT float wgtT_layer2[32][32] = {
      {-1.6295782f, -0.7595181f, 0.2372852f,  -3.7859740f, -0.1739743f, -0.2282450f, 1.0495040f,  -1.4464680f,
       -6.2311192f, 0.0192788f,  -0.1823212f, -3.2413604f, -3.3080466f, -0.7313542f, -4.1366067f, 1.1680040f,
       -1.5003473f, 1.5984823f,  -1.4269334f, -1.4999244f, -6.4688954f, -0.1725221f, -0.1653077f, 1.6314847f,
       -4.2330947f, 1.8566000f,  -4.2183189f, -4.5823369f, -0.0458510f, 1.1838156f,  4.0343370f,  -2.3372037f},
      {-1.5440814f, -0.7756085f, 0.3030534f,  -1.2899208f, -0.2994779f, 0.1595767f,  0.6543859f,  0.0886614f,
       -3.6947277f, -0.1347586f, -0.2016515f, -1.2953115f, -1.0555034f, -0.3774597f, -0.9123694f, 1.0982873f,
       -0.4747015f, 1.2750587f,  -0.6682031f, 0.8580832f,  1.9037293f,  0.0985668f,  -0.0467565f, 0.6050413f,
       -1.9806614f, 1.9592189f,  -1.1730690f, -1.1443033f, -0.0614173f, 1.5425348f,  1.8868949f,  -0.7785666f},
      {0.6589205f, -0.7877917f, -0.1627030f, 0.0352300f,  -0.0888894f, 0.5830531f, -0.9143776f, 0.3463002f,
       1.5724568f, -0.1090357f, -0.0163612f, 0.8235461f,  0.8291385f,  0.9704061f, 0.4808230f,  1.3017766f,
       2.1527429f, -0.0390955f, -0.2183854f, -1.2981538f, -1.4809991f, 0.0646608f, -0.0791253f, 0.1278693f,
       0.7984888f, 0.3780722f,  0.2784147f,  0.5333645f,  -0.0695074f, 0.1593799f, 0.7232909f,  0.0194384f},
      {1.2566110f,  -2.0119500f, -0.5139530f, 1.3906510f,  -0.4616369f, -1.7455239f, 0.8786411f,  -0.9294332f,
       1.8275473f,  0.0291325f,  -0.2393412f, 1.2229809f,  1.4768829f,  -2.0304348f, 1.2640597f,  -2.5735908f,
       2.8669400f,  -0.9047461f, 2.2309694f,  -1.9781736f, -1.4629732f, -0.1369445f, -0.0708682f, -2.2142656f,
       -0.0335727f, -2.6384385f, 1.6192991f,  0.2337338f,  -0.0868987f, -1.0795945f, -0.0585693f, 2.3346465f},
      {-0.4076756f, -0.0693990f, -0.8635401f, 0.2350468f,  -0.7915603f, -2.9366543f, -0.3189560f, -0.3328816f,
       -0.0343421f, -0.0847578f, -0.0713508f, 0.1281296f,  -0.1353340f, -1.2147692f, -0.2166893f, 0.3095777f,
       -0.0104308f, -0.2861252f, -1.5098228f, -0.2751437f, -0.5879363f, -0.0734949f, -0.0377236f, 0.1487280f,
       -1.2017145f, -0.3105321f, -0.2390811f, 0.3737698f,  -0.1175504f, -0.4074536f, -1.7284850f, -0.0710937f},
      {0.0463118f,  0.5286825f,  -1.0418245f, -0.2460651f, -0.5031202f, -0.9516880f, 0.4693840f,  1.3988705f,
       -0.9169186f, -0.2083943f, -0.2341745f, 0.0132463f,  0.1447762f,  -3.1687999f, -0.0463515f, 0.9969349f,
       1.2626373f,  0.0112978f,  0.9463312f,  -1.0323169f, 0.2196871f,  0.1347879f,  -0.1277911f, 0.4491687f,
       0.0337831f,  0.5795584f,  0.1902592f,  -0.0516297f, -0.0088998f, 0.3060918f,  0.0353691f,  -0.7537336f},
      {-1.3600838f, 2.0262914f,  -0.7256247f, 0.0028682f, -0.2994044f, -1.7582546f, -2.9216523f, 1.2145888f,
       -0.5383155f, -0.0492540f, -0.0809975f, 0.1628994f, -1.1082275f, -2.0841913f, -0.3259215f, -2.2603130f,
       -0.2048502f, 0.0681052f,  0.7376187f,  0.1833834f, 1.5423297f,  0.0291589f,  0.0807533f,  -0.1898014f,
       1.1560755f,  -0.4437677f, -0.0903065f, 0.7703301f, -0.1629194f, 0.3837869f,  1.3474810f,  -0.4528729f},
      {-3.0609906f, -2.5417893f, -1.4132106f, 0.2322198f,  -26.1324043f, -11.7756319f, -2.4384701f, -0.5541987f,
       0.9902557f,  0.1017054f,  -0.1088427f, 0.0412353f,  -0.1580224f,  1.1357335f,   0.7527549f,  -0.1364707f,
       1.4033186f,  2.8052602f,  -0.1421895f, 1.3816538f,  -1.9097145f,  -0.0038198f,  0.1378991f,  -3.5862906f,
       0.3890410f,  -0.4856992f, -0.6112741f, -0.4135187f, -0.0582313f,  -4.9747176f,  -2.1607149f, -2.1705480f},
      {1.2266557f,  -0.9307982f, -0.3129878f, -0.1179845f, 0.4598260f,  -0.3046739f, -0.2890584f, 1.2261406f,
       0.4432662f,  -0.1833321f, -0.2060385f, 0.2129862f,  1.0131747f,  -0.9059287f, 0.2198578f,  2.8204756f,
       0.3937443f,  -0.3701423f, -1.7887446f, 0.4018248f,  -0.4090621f, -0.1576157f, -0.0017843f, -0.0507092f,
       -0.1857797f, -1.6656542f, 0.4634972f,  1.6034135f,  -0.0055508f, 1.0748464f,  0.5511428f,  -0.6505315f},
      {-0.3416367f, 0.4102710f,  0.0230690f,  -3.4786563f, -0.5061022f, -5.5439219f, -0.2805979f, -0.2806523f,
       -0.4159206f, -0.0032320f, -0.1497212f, 0.0677268f,  -0.1841214f, 0.1660344f,  -6.1001854f, 0.2840458f,
       -0.5551907f, -0.8076870f, -3.0079980f, 0.8056200f,  -0.2722530f, -0.1478006f, -0.2196800f, -1.1594044f,
       0.3584617f,  -0.6691966f, -0.3497938f, 0.8286278f,  -0.0205308f, 0.0651196f,  -0.2444999f, 1.7645485f},
      {-0.6867939f, 0.2823288f,  -0.6219372f, -0.1320301f, -0.3652665f, 0.9065402f,  -0.0350717f, 0.4074553f,
       -0.0744935f, -0.2616673f, -0.0368024f, 1.0156386f,  -0.0212001f, -0.0500013f, -0.5321977f, 0.5053468f,
       -0.8058521f, 0.0901565f,  -0.7437115f, -0.7710889f, -0.8042076f, 0.0463979f,  0.0372739f,  1.1462212f,
       -0.5843681f, 1.3386303f,  0.1443559f,  0.2928105f,  -0.2023570f, 0.7572932f,  0.5653051f,  2.1062436f},
      {-0.5166103f, -1.2785621f, -1.9858422f, 0.1622317f, -0.2628528f, -1.4968312f, -0.8844512f, 1.0674751f,
       0.2067918f,  -0.0531677f, -0.0567310f, 0.2883680f, -0.3363271f, -0.7803459f, 0.2193784f,  -1.0377642f,
       0.2518297f,  -0.5970687f, -2.5183475f, 0.2101124f, 0.5842040f,  -0.0301357f, -0.0968709f, -0.1806575f,
       -2.4169195f, -0.6350043f, 0.0096140f,  0.5573175f, -0.0602202f, -0.4574117f, -0.6678643f, 1.4764389f},
      {0.4182523f,  -0.9591392f, 0.4772606f,  0.0578684f,  -0.0534305f, 0.7248801f,  1.1982772f,  -0.2471685f,
       -0.7788928f, -0.0147755f, -0.0340430f, 0.4692799f,  1.1385171f,  0.5751848f,  0.2651359f,  1.5211658f,
       1.7844678f,  0.2949053f,  0.8866773f,  -2.2942679f, -0.0035466f, -0.1364085f, -0.2131964f, 0.5937054f,
       -0.8260728f, 0.5287850f,  -0.0290021f, 0.5633784f,  -0.1939092f, 0.8304178f,  -0.3805777f, -0.8841979f},
      {-0.0780499f, -0.6374248f, 0.1458215f,  -0.0129366f, 0.1273810f,  1.0348181f,  1.1659393f, -0.3727977f,
       -0.6130461f, -0.1130360f, 0.0284606f,  0.3760095f,  0.2386667f,  1.0504428f,  0.4221666f, 2.4694965f,
       -0.5923741f, 0.2735796f,  -0.3396823f, -1.0444719f, 0.9935933f,  -0.0743987f, 0.1188036f, 0.1151801f,
       -0.8865672f, 0.1458661f,  0.1294570f,  0.1051721f,  -0.1241782f, 1.0299314f,  1.1669554f, -0.3050552f},
      {1.7417657f,  0.7410242f,  1.3791705f,  -0.2663140f, -1.0701714f, 0.0086219f, -2.6859927f, -1.1730373f,
       2.1021550f,  -0.0232185f, -0.0570366f, 0.1573537f,  -3.7089682f, 3.5741971f, 0.2630804f,  3.2702861f,
       0.0830957f,  -0.2875481f, -2.8832898f, -0.6421015f, 0.6144283f,  0.0997210f, -0.0891526f, -2.8245127f,
       -1.2481540f, -0.1144581f, 0.2718282f,  -0.6689364f, -0.0841075f, 0.1612613f, -1.4876101f, -1.8091817f},
      {3.0440109f,  0.2933715f,  -1.1423997f, -2.0873904f, -0.3451361f, 1.6959953f,  -1.9541489f, -0.3397226f,
       1.8069919f,  -0.0335222f, 0.0284531f,  -0.6178679f, -0.2383400f, -3.2243729f, -2.7376802f, 1.0016407f,
       1.0109991f,  1.6340445f,  -2.7427621f, 1.6472757f,  -1.2853745f, -0.0763444f, -0.0069236f, 2.0276980f,
       -0.2865984f, 1.6546874f,  -1.5182244f, -2.2506342f, 0.0395704f,  2.7199223f,  2.1212211f,  -0.0128794f},
      {-0.9873604f, 3.7739503f,  -5.0828705f, -0.8549998f, -1.7892817f, -11.9740734f, 0.9791157f,  0.5018852f,
       -0.2092714f, -0.0778973f, -0.0950267f, -0.0869626f, -5.0327973f, 2.6588509f,   -1.0676119f, 1.0622487f,
       0.1722491f,  -0.7824792f, -0.0275056f, 4.1942463f,  0.3875206f,  0.1049231f,   -0.1808750f, 2.7234087f,
       4.4559002f,  -0.2698800f, -0.8363957f, 0.6331433f,  0.0055029f,  3.6115880f,   -0.8633749f, 0.3391933f},
      {0.8333206f,  -0.9585493f, 1.7086579f, 0.1861154f,  -0.4643463f, 0.3441887f,  0.0249810f, 0.3726469f,
       -0.4684472f, 0.0477831f,  0.0216095f, -0.7440843f, 1.5318704f,  0.1188781f,  0.4409929f, -0.3869241f,
       1.3610398f,  -0.0734882f, 2.3537259f, -1.6667582f, 1.0602676f,  -0.1223818f, 0.0179774f, -0.6312026f,
       0.8754220f,  0.0920940f,  0.1573320f, -0.5259624f, -0.0618132f, -0.9327530f, 0.0108163f, -0.8577427f},
      {-0.1514893f, -0.4175704f, 0.0317090f,  0.1365517f,  0.5953819f,  -0.6730920f, -0.5578700f, -0.1047523f,
       -0.6509905f, -0.0993477f, -0.1028187f, -0.1880406f, -0.4515437f, -0.3487894f, 0.2558158f,  -0.1009210f,
       0.7139509f,  -0.2563362f, -0.2476148f, 0.4801037f,  -0.4331925f, -0.1337081f, -0.1591517f, -0.3592731f,
       -0.2447571f, -3.3181982f, 0.0708039f,  -0.4776168f, -0.0659738f, -1.0875729f, -0.8269938f, -0.2784162f},
      {-0.5643791f, -1.4501824f, 1.7610688f,  0.1270936f,  0.9094487f,  1.0455030f,  0.8738495f,  2.5983675f,
       0.2513965f,  -0.1774317f, -0.0809140f, -0.1985972f, -0.3491939f, 1.5983725f,  -0.1414515f, -0.6044044f,
       -0.1092168f, 0.9510642f,  1.9593825f,  -1.7701675f, 1.8283628f,  0.0740747f,  0.0746687f,  0.4198887f,
       -1.0152240f, -1.6566921f, 0.0118214f,  2.4246919f,  0.0605309f,  -1.3448007f, -0.2754126f, 0.3231269f},
      {-0.2711274f, 0.6707768f,  1.8366953f,  0.1964461f,  0.0144413f,  1.6003112f,  0.2962398f,  -0.2288294f,
       0.6221426f,  -0.1214553f, -0.1449586f, 0.3634596f,  1.3629851f,  1.3705885f,  -0.4426503f, 0.0008889f,
       0.3499869f,  0.5125616f,  -1.4277160f, 0.2204488f,  -0.0102932f, -0.1591680f, -0.0824537f, -0.6227071f,
       -0.8509229f, 0.4218174f,  -0.2373434f, -0.9503138f, -0.2003635f, -0.0770234f, 0.7183507f,  -0.3342319f},
      {-0.5253277f, -0.2204553f, -0.4588844f, 1.2425247f,  -0.3783387f, -1.7280768f, -4.1934695f, 0.2897046f,
       1.1999800f,  -0.2879084f, -0.0619472f, 0.7919069f,  -0.2677692f, -0.9718588f, 1.8791599f,  -0.7419046f,
       2.2938244f,  -1.4598982f, 1.0814866f,  -2.3656108f, -1.1089921f, -0.1450841f, -0.0739154f, -0.9458280f,
       -0.0230603f, -0.6693769f, 1.0341977f,  1.0372694f,  -0.0826823f, -1.6245041f, -0.2590413f, -0.6935897f},
      {0.9079931f,  4.5551362f,  1.5979180f,  -0.0585055f, -0.6928163f, 0.7913650f,  1.9422486f,  -2.0383692f,
       -2.0079682f, -0.0954258f, -0.1708315f, 1.2412266f,  -3.4310589f, 4.5881114f,  0.6734555f,  0.5480279f,
       -0.8800993f, -0.0425729f, -0.5518811f, 2.7746882f,  0.7895660f,  -0.0978228f, -0.1524292f, -1.5048908f,
       -0.0797678f, 0.2285606f,  0.4990614f,  0.2243864f,  0.0715099f,  0.0940869f,  -1.9471982f, 1.1319190f},
      {0.4810331f,  -1.4524792f, -0.8339002f, 0.1787145f,  -0.2842240f, 0.4159370f,  -1.0624409f, 0.9780253f,
       0.9858469f,  0.0159941f,  -0.0972033f, 0.4657780f,  -0.1989763f, 0.5519432f,  0.2815474f,  -0.8797353f,
       1.1990920f,  -0.2466702f, 0.5808831f,  -1.1490784f, -1.6532179f, 0.0005598f,  0.0633421f,  0.5876174f,
       -0.3204965f, 0.0078276f,  0.1723888f,  0.9939280f,  -0.0357088f, -0.5313558f, 0.1348461f,  2.1111946f},
      {0.1088925f,  -0.1508596f, -0.4111168f, 0.0977045f,  -0.0206267f, 0.2671799f,  0.5701780f,  -3.6573792f,
       0.3304688f,  0.1094071f,  -0.0794231f, 0.1033314f,  -0.8898277f, 0.2408040f,  1.2274668f,  -0.0520709f,
       -0.6643865f, -0.2223934f, 1.0553229f,  -0.3936869f, -0.5680002f, -0.0349367f, -0.2119162f, 0.4396924f,
       1.3439139f,  0.6053628f,  0.1686878f,  -1.7218486f, -0.0137231f, 1.0846210f,  -0.0414946f, 2.3052838f},
      {1.3057972f, -3.0396841f, -0.9481685f, 1.0637081f, -0.5369537f, 1.2461236f,  -1.9717911f, 1.4484229f,
       3.5268528f, -0.1151644f, -0.1388065f, 0.4997779f, 1.6766456f,  -0.5199258f, 1.9005964f,  -1.9695762f,
       2.1353128f, -1.1741735f, -1.1992812f, 0.0733374f, -0.8710341f, 0.0502848f,  -0.1238761f, -0.8661675f,
       0.2338259f, -7.0919566f, -0.5466428f, 0.9608663f, -0.0585440f, -1.6982093f, -0.7062713f, -1.0072563f},
      {-0.1039720f, 0.0647873f,  -0.0725077f, 0.1074924f,  0.0578475f, -0.0544578f, -0.0094484f, -0.0145983f,
       0.1225524f,  -0.0688172f, 0.0847002f,  -0.1791090f, 0.0220280f, -0.0657538f, 0.0511457f,  0.1377813f,
       0.1456167f,  -0.1509253f, 0.0872768f,  0.1395232f,  0.1468338f, -0.0243668f, -0.1761560f, 0.0213012f,
       0.0672888f,  0.1323675f,  -0.0690486f, -0.0345377f, 0.0615612f, -0.0399840f, 0.1155423f,  -0.1049385f},
      {-0.0955054f, 0.1568980f,  0.1192402f,  0.1287556f,  0.1167677f,  0.0694312f,  0.0681942f,  -0.0976347f,
       -0.1607685f, -0.1608474f, -0.1630765f, -0.0242835f, 0.1307526f,  0.0233353f,  -0.0407824f, -0.0054660f,
       0.1738200f,  -0.1117493f, 0.1320856f,  0.0852791f,  -0.0702183f, 0.0432018f,  0.1599202f,  -0.0520534f,
       -0.0789448f, -0.0602675f, -0.0031276f, -0.1010078f, -0.0967100f, -0.0509235f, 0.0523606f,  -0.1370008f},
      {-0.0630372f, -0.4367508f, -0.4856303f, -0.5287710f, -0.5866341f, -0.6954148f, 0.9523512f,  0.5397532f,
       -0.7724070f, -0.0980222f, -0.1154857f, -0.3580287f, 0.7305727f,  -0.3055660f, -0.6053296f, 0.7047865f,
       -1.7633387f, 0.1397976f,  -1.0438384f, -0.3586989f, -2.2631655f, -0.0299326f, -0.1656047f, 0.2706038f,
       0.8120204f,  0.0748851f,  -0.0587718f, -0.2650591f, -0.1940412f, 0.8403101f,  0.7186351f,  0.8958915f},
      {-0.6798542f, -0.0972292f, 1.2318234f,  1.8256372f, 0.7265155f,  0.0041109f,  0.5474070f,  -0.6846138f,
       -2.9144418f, -0.1474514f, -0.2174257f, 1.0025568f, 0.4146025f,  -1.3318162f, 1.8910526f,  0.1165240f,
       -1.2673652f, -1.0681589f, 0.7387116f,  0.0018252f, -1.3470124f, -0.0896942f, -0.0932383f, -1.2708179f,
       0.2608291f,  -1.2437507f, 1.2487402f,  0.9700748f, -0.1068150f, -1.8023534f, -2.4530675f, 0.1639154f},
      {-6.6145039f, -0.2707207f, -11.9093733f, -15.1962690f, -10.5893135f, -8.0528107f, -5.7379589f, -3.8303969f,
       -1.9263196f, -0.1394654f, -0.0096491f,  -18.0958443f, -6.7611465f,  -3.4767852f, -4.6242747f, -2.6397886f,
       -3.2593122f, 9.8304605f,  -1.1683812f,  -3.5698714f,  1.2366953f,   -0.1527525f, 0.0336712f,  7.7700725f,
       2.7225118f,  4.8874807f,  -27.3529301f, -3.0488067f,  0.0111347f,   4.8656292f,  3.9537282f,  1.8753980f},
      {-1.5887722f, -0.5518731f, 0.6903467f,  0.0365541f,  0.3371627f, 0.4389896f,  0.7240742f,  2.9351420f,
       0.5250564f,  -0.1997296f, -0.0789135f, -0.4287499f, 1.3652220f, 0.9903422f,  0.2220675f,  1.7806088f,
       0.0481587f,  0.2469800f,  -2.6885014f, -0.2419747f, 0.4756588f, -0.1246443f, -0.1109897f, 1.5432452f,
       1.8159969f,  0.4591387f,  -0.0764598f, -0.0907450f, 0.0388759f, 1.0848459f,  0.3647139f,  -2.0794261f},
  };

  HOST_DEVICE_CONSTANT float bias_output_layer[1] = {0.5382973f};

  HOST_DEVICE_CONSTANT float wgtT_output_layer[32][1] = {
      {3.1883042f},  {-0.5062888f}, {-1.1111096f}, {-3.9413140f}, {2.4549251f},  {1.4117396f},  {-1.8862565f},
      {-0.8540178f}, {-1.6288759f}, {0.1098145f},  {-0.0174465f}, {1.8846411f},  {0.9217019f},  {0.8511676f},
      {1.4578309f},  {-0.5432615f}, {-0.6469479f}, {-1.6640078f}, {1.0428265f},  {-0.9987205f}, {-1.2400458f},
      {0.0329067f},  {-0.0803406f}, {1.2407446f},  {0.8835154f},  {-1.7627586f}, {-4.2327871f}, {1.4279798f},
      {-0.0056977f}, {-1.7681174f}, {1.1747706f},  {-0.7087417f},
  };

}  // namespace ALPAKA_ACCELERATOR_NAMESPACE::lst::dnn::t5dnn

#endif
