#ifndef RecoTracker_LSTCore_src_alpaka_T5NeuralNetworkWeights_h
#define RecoTracker_LSTCore_src_alpaka_T5NeuralNetworkWeights_h

#include <alpaka/alpaka.hpp>

#include "FWCore/Utilities/interface/HostDeviceConstant.h"

namespace ALPAKA_ACCELERATOR_NAMESPACE::lst::dnn::t5dnn {
  HOST_DEVICE_CONSTANT float bias_layer1[32] = {
      -0.1678386f, 0.0062221f,  0.4177751f,  0.2357259f,  -0.9462857f, -0.3409990f, -0.1872155f, 0.1828108f,
      -0.4457844f, 0.3936582f,  -0.1411160f, -0.2311078f, 1.2161102f,  -0.2947264f, 0.1894379f,  0.5512197f,
      0.0449618f,  -0.8239868f, -0.3477916f, 0.4225373f,  -0.4130838f, -0.4287525f, -1.2734071f, 0.1026133f,
      -0.9753121f, 0.4862165f,  -0.2817556f, 0.2095301f,  -1.4500864f, 0.5061237f,  0.4188634f,  0.7349724f};

  HOST_DEVICE_CONSTANT float wgtT_layer1[30][32] = {
      {0.0783816f,  -1.1879421f, 1.2561915f,  -0.9396452f, -0.7376533f, 0.7421755f,  0.0745148f,  -1.4108288f,
       0.1165716f,  -0.0588236f, -0.1923094f, 0.7504381f,  -0.3192962f, 1.2013903f,  1.1387057f,  -1.3546553f,
       -2.0270951f, -0.2932444f, -0.1410570f, -0.0805406f, -0.0974531f, 2.5211759f,  1.7349756f,  -0.0467459f,
       2.7711246f,  0.9582202f,  0.4102616f,  1.4269719f,  2.9677136f,  -1.1691868f, -0.1483863f, -0.7312705f},
      {0.0042622f,  0.0120303f,  0.0036669f,  -0.0202874f, -0.0015261f, -0.0026689f, 0.0216810f, 0.0023553f,
       -0.0130122f, -0.0034520f, 0.0070907f,  -0.0046981f, 0.0139762f,  -0.0224711f, 0.0025063f, -0.0136223f,
       -0.0060137f, -0.0048641f, 0.0144760f,  0.0876853f,  -0.0191953f, -0.0079527f, 0.0239690f, -0.0082200f,
       -0.0304978f, -0.0029772f, -0.0105311f, -0.0477466f, -0.0101632f, -0.0115133f, 0.0113383f, -0.0101935f},
      {0.0023705f,  -0.0031561f, 0.0083284f,  0.0051331f, -0.0052528f, -0.0094018f, -0.0106338f, 0.0084523f,
       0.0032071f,  0.0017657f,  -0.0024560f, 0.0064052f, -0.0166130f, 0.0091213f,  -0.0307472f, -0.0009430f,
       -0.0063833f, -0.0184663f, 0.0011204f,  0.0088201f, -0.0261954f, -0.0176572f, -0.0207997f, -0.0058153f,
       0.0290288f,  0.0147476f,  0.0144591f,  0.0109014f, 0.0029954f,  -0.0079501f, 0.0005599f,  0.0029076f},
      {-0.2113529f, -0.0397962f, -4.6144748f, 0.0164450f,  -0.2645305f, -1.1909221f, -0.1540516f, -0.0381104f,
       0.1095936f,  -0.4811047f, 1.7962871f,  -0.4582138f, -1.7024339f, 1.4403583f,  -2.8768947f, -0.2075838f,
       0.9823008f,  -0.1723900f, 1.2755326f,  -0.2249854f, 1.3095422f,  -1.1117673f, -2.4657459f, 0.3589398f,
       -1.8796667f, -5.0297098f, -0.8786479f, -1.6506536f, 0.1718755f,  -0.0373162f, -0.3326321f, 1.1484036f},
      {-0.1791330f, 0.1463772f, 0.8036520f,  -0.0387543f, 4.9856772f,  1.3297346f,  0.2894275f,  1.3822254f,
       -0.4160911f, 0.7933320f, -0.1341276f, 0.1145697f,  -6.4761095f, -0.7480819f, -4.3199978f, 0.2263168f,
       -0.5872371f, 2.6566544f, -0.5557851f, 0.5082422f,  -1.0006175f, -1.0003976f, 3.4726536f,  -0.1911665f,
       1.9072592f,  1.2165220f, -0.0545454f, 1.2910067f,  0.4267905f,  -1.8629169f, 0.8301792f,  -1.8097826f},
      {-0.0125218f, -1.7873186f, 3.2534931f,  1.4393901f,  -13.0857630f, -6.6541796f, -0.9297196f, -1.9357705f,
       0.7455535f,  -0.5120503f, -0.4435322f, 0.3071874f,  -4.8447452f,  -0.5410684f, 6.3272190f,  1.0674790f,
       3.1836143f,  -4.9865804f, -0.2142802f, -1.3990258f, -1.0941998f,  3.4248126f,  4.6693225f,  0.1623645f,
       3.8914201f,  -1.7808790f, 0.1339574f,  0.6661984f,  0.8813648f,   -0.3389305f, -0.6085659f, 0.6499645f},
      {0.0401747f,  0.6447705f,   -0.0918882f, -0.5401152f, -0.0946816f, -0.1542183f, -0.2144421f, -0.4332123f,
       -0.6629578f, -17.9292450f, 0.0062787f,  0.0966037f,  0.3366875f,  0.1358268f,  0.4792429f,  -0.4317983f,
       -0.5396021f, -0.1441804f,  -0.4560087f, 0.7132691f,  0.1958994f,  -0.2173812f, 0.3493980f,  -0.0663500f,
       0.1842738f,  -0.0925253f,  -0.0658017f, -0.4318607f, 2.3571963f,  -0.3199838f, 17.5486565f, -0.5137466f},
      {-0.1687383f, -1.4846330f, -5.0250559f, 0.9485523f,  1.4960085f,  3.1082187f,  0.5002179f,  0.8730826f,
       1.9905500f,  -0.5513195f, 3.1768291f,  -1.2498322f, -0.1077061f, -2.3837757f, -1.2778002f, 0.4726701f,
       1.4543375f,  1.3569944f,  1.7027177f,  2.4815884f,  0.6607681f,  -2.0077517f, -2.7403522f, -0.3197913f,
       -2.3866961f, -7.0037656f, -1.4894031f, -1.3244468f, -3.8243132f, 0.2129833f,  -0.0549823f, -1.1541283f},
      {-0.0672168f, 2.2648315f,  0.7793785f, -1.2123905f, 1.2825695f,  -5.0220599f, -1.6417286f, 1.7913213f,
       3.4328353f,  -5.1996055f, 5.8258324f, 0.0868681f,  -4.8809366f, 2.0832944f,  -4.3350091f, -0.5736450f,
       0.8792890f,  0.9062877f,  1.7246873f, -2.6270967f, 1.0878671f,  -2.0648570f, 3.6949930f,  -0.0628662f,
       1.3036907f,  2.5562148f,  0.5118128f, 2.5472541f,  0.8367920f,  -0.6355563f, -5.6232257f, -1.1328862f},
      {-0.1183725f, 2.6107323f,  -1.2832613f, -3.0679116f, 15.9531088f,  -7.9979115f,  0.3727200f,  -3.2340477f,
       0.2808646f,  -0.8253461f, 0.0274757f,  0.6544098f,  -11.5675306f, 4.0945792f,   13.4061871f, -1.1552951f,
       -1.1216376f, 8.2081833f,  2.3685815f,  1.5312417f,  0.2675854f,   -17.6786003f, 0.2454087f,  -0.0541405f,
       19.2639885f, -0.9647539f, 0.0024612f,  0.6389736f,  1.8514223f,   0.7591407f,   -0.8189520f, 1.0325736f},
      {-0.0439554f, 0.6192623f,   -0.1416851f, 0.4530353f,  -0.1421163f, -0.2282345f, -0.6567596f, 0.8288774f,
       -0.2089499f, -16.2203178f, 0.2341565f,  -0.1287374f, 0.7526585f,  -0.0294746f, -0.2759522f, 0.8604451f,
       -0.3629767f, 0.9147581f,   0.6647198f,  -0.5395333f, -1.4253634f, 0.8206670f,  0.0828297f,  0.1211479f,
       -0.1140732f, 0.2498812f,   0.1489847f,  0.1037465f,  -1.1046956f, 0.1228613f,  16.2124233f, -0.1712986f},
      {0.1454508f, -1.5762695f, -3.1204009f, 1.8746052f,  3.3825457f,   -2.0441463f, 0.4488200f,  0.7692319f,
       1.2833647f, 0.8655463f,  1.0001945f,  -2.5830946f, -1.9474745f,  -0.4544562f, -2.3981986f, 2.3417716f,
       0.4410636f, 0.2175955f,  0.9561799f,  -2.4765699f, -1.1731908f,  -3.0166140f, 0.8594516f,  -0.0944971f,
       4.4199195f, -2.2598774f, -0.9704139f, -0.3231440f, -10.2868071f, 1.6384959f,  1.0719177f,  0.1098402f},
      {-0.1177825f,  0.7850281f,  1.0763918f, 0.0377233f,  0.4038300f,  1.4105971f,  -0.6527860f, 1.3630669f,
       3.6307795f,   -5.1339040f, 5.0060859f, 0.5992970f,  -1.6054680f, 0.1360940f,  -1.8817954f, 0.8009081f,
       2.9754190f,   1.3960048f,  4.7522297f, 0.6643044f,  1.0400300f,  -2.4458170f, -0.4777647f, -0.0932329f,
       -15.2884016f, 0.4973546f,  0.5281678f, -0.9071795f, -0.3359556f, 1.0850250f,  -5.1677084f, -0.8255351f},
      {0.0721717f,   1.4709029f,   -6.6598921f,  -0.2757208f, -0.0038918f, -1.3692178f, 3.5808885f,   8.5450697f,
       1.2554300f,   1.5628957f,   1.5178020f,   0.3316983f,  19.0578346f, 1.9758217f,  -23.8596554f, -2.8093340f,
       -12.2435474f, -14.4861612f, -10.1669836f, 0.5250971f,  1.0207720f,  10.8686485f, -10.7556429f, 0.0796549f,
       -9.2623653f,  7.5502014f,   0.2660757f,   -0.8481883f, -0.0457194f, -3.5784817f, 1.7409747f,   -1.7746809f},
      {0.0328375f,  -0.1184550f, -0.0668513f, 0.0415222f,  -0.3124402f, -0.3357771f, -0.0866735f, -0.1221775f,
       0.0679406f,  0.0890425f,  -0.2449978f, 0.1660334f,  -0.2706639f, -0.2681859f, 0.3088549f,  0.1572130f,
       0.0637168f,  0.0476868f,  -1.2028953f, -0.1334725f, 0.3392021f,  -0.6505415f, -0.5685338f, 0.0595665f,
       -0.9483836f, 0.1885336f,  0.2325669f,  -0.0173134f, -1.3774686f, -0.1961253f, -0.1803389f, -0.1694298f},
      {-0.1037401f, 3.8600135f,  -3.4495795f, 0.8444237f,  -1.8350244f, -1.6582028f, -0.7306178f, 1.4085447f,
       0.3583615f,  -0.1266535f, -1.7387687f, -0.9622172f, 3.1038022f,  -2.6263738f, 2.8226607f,  3.6642082f,
       -1.0226663f, -2.1767905f, 0.8612388f,  1.7595471f,  -1.4100602f, 6.9715109f,  1.7595047f,  0.0213148f,
       -2.6450586f, -1.9602506f, 0.4170802f,  -1.3761468f, -4.0733075f, 1.2957221f,  -0.2950959f, 1.4312595f},
      {0.1403291f, -1.3685132f, 2.9194026f,  0.8082432f,  2.2690609f,  2.4356761f,  1.1177095f,  -2.0442410f,
       0.2216746f, -0.0933085f, -0.3108143f, 0.5001981f,  -2.2502615f, 2.1092992f,  -1.0612599f, -1.3497056f,
       3.6525028f, 2.4079928f,  3.4390020f,  -1.2299193f, 0.9309737f,  -2.9201918f, -3.4092875f, -0.0058996f,
       5.8151207f, 0.3535016f,  -0.1679543f, -4.5840797f, 0.9121379f,  3.2126923f,  -0.1856195f, 1.1197937f},
      {0.1632601f,  -4.0601602f, -0.9075218f, -1.4868186f, 1.4820315f,  -3.4148099f, 1.2415701f,   0.0767248f,
       -1.4738390f, -0.6264941f, 1.4160987f,  -0.1518926f, 13.9732990f, 0.6029317f,  -22.5936317f, 2.3985932f,
       -3.9559228f, -5.9149399f, 2.7807293f,  -0.6952013f, 1.8921469f,  0.4199281f,  -13.3224468f, -0.0004410f,
       -1.5888789f, 2.4780993f,  -0.4427946f, -0.7630965f, 2.0140238f,  2.1947093f,  -0.6277976f,  1.0904937f},
      {0.0803048f, -0.6750660f, 0.1635347f,  -0.0585788f, 0.4810277f,  0.6827287f,  0.4525460f,  -0.1778115f,
       0.5350263f, 6.3282671f,  -0.0799076f, -0.1012948f, -0.4716251f, -0.0874521f, -0.4037905f, 0.0217475f,
       0.7308444f, -0.4987202f, 0.7935503f,  -0.3020914f, 0.4645320f,  0.3331250f,  0.0314010f,  -0.0763306f,
       0.3225990f, -0.2510499f, -0.1986809f, 0.1374639f,  0.1878302f,  0.3415296f,  -4.9200354f, 0.1098624f},
      {0.0181333f,  5.3976407f,  -3.5477414f, -2.0269694f, 0.8541926f,  1.1274879f,  -1.7352709f, 1.0370747f,
       -1.8740335f, 0.4960341f,  -3.6408336f, 0.3942535f,  2.6521924f,  -3.7358072f, 3.8600671f,  0.8459942f,
       1.4601985f,  4.8769660f,  0.0971923f,  -0.0354459f, -1.0232093f, 3.3271885f,  1.5652794f,  -0.6927776f,
       2.7765760f,  -2.5629447f, 1.1766272f,  0.3636167f,  -0.6291043f, 1.1374677f,  0.3180102f,  -0.2189547f},
      {-0.0403946f, -1.8505989f, 0.4440946f,  0.9908382f,  -0.7718166f, 1.6373016f,  1.2913367f,  -0.8474191f,
       -1.3369573f, 1.2227684f,  -1.7527183f, 0.2146574f,  -1.2664169f, 0.8055487f,  0.5608709f,  -0.4461666f,
       -1.5232382f, -2.0441542f, -0.4678637f, -0.8517749f, 0.3818652f,  -0.8342010f, -2.6898818f, 0.3413683f,
       -0.7240036f, 0.5588345f,  0.0035736f,  -1.8691760f, 1.5463166f,  0.2200016f,  1.2645198f,  0.4836051f},
      {-0.0688972f, -16.7652779f, 43.9520226f,  -67.6473389f, -12.8463583f, -6.0223961f, -32.6145477f, 53.4083481f,
       60.8106995f, -22.4108753f, -47.6112671f, 22.8230553f,  -21.4170341f, 21.9749317f, 6.6374278f,   -6.8440638f,
       10.7419891f, -17.7044964f, -18.2128105f, 38.2905922f,  37.5610657f,  11.4850950f, -18.9912281f, 48.0554428f,
       12.0662327f, -53.0509567f, -12.3583117f, 34.4366951f,  -1.8352270f,  35.5429077f, -21.0664177f, -48.9996719f},
      {-0.0556769f, -13.3144779f, -51.6741524f, 19.9541740f,  3.2069452f,  0.4644648f,   32.7796440f,  -30.5094051f,
       -6.3293471f, -18.3628635f, -31.7270565f, 44.6378822f,  26.6976109f, -25.7051640f, -0.4781905f,  21.4095325f,
       52.2771034f, 11.1746626f,  32.0452728f,  -27.9306393f, 0.4969490f,  -10.9248533f, 2.4808056f,   -56.8818970f,
       6.6823993f,  37.9396286f,  -58.9154472f, 9.2729721f,   -4.3144379f, -52.6293640f, -20.2657986f, 37.9503098f},
      {-0.0202645f, -1.1022850f,  7.2643676f,   21.9756584f,  -17.5155907f, 12.3861513f,  9.8270435f,  -10.2130260f,
       8.1556120f,  -4.8048272f,  -11.2747011f, -67.9774399f, -26.3645134f, -7.4270473f,  30.9506454f, -3.7312026f,
       9.7375937f,  10.8328133f,  -11.2095919f, -22.0917454f, -46.0774536f, 18.3620548f,  41.4798508f, 5.5694375f,
       1.9369503f,  -14.7950115f, 66.1112289f,  -23.8125629f, -3.6086593f,  -19.2672768f, -5.6753688f, 0.1202732f},
      {-0.1197441f, 0.6425637f,  0.5939588f,  0.5897981f, -0.6714905f, -0.6119592f,  -3.2119780f, -0.2076213f,
       0.3442761f,  0.8256729f,  -0.1232725f, 0.0847558f, 1.3873161f,  -11.7772150f, 0.7441592f,  -0.3508757f,
       0.0086770f,  -2.0076632f, 1.0274059f,  0.6691217f, 0.4360383f,  -0.2792897f,  -8.3362417f, -0.0021249f,
       -1.0817666f, 0.3503694f,  0.3242570f,  1.0685245f, -2.5564890f, 0.6267301f,   0.9513770f,  0.2195213f},
      {0.0632252f,  0.2953365f,  0.1206587f,  0.5574894f,  -0.5036330f, -0.2630461f, 0.3600015f, 0.0235874f,
       -0.4842453f, 0.1384490f,  0.0726116f,  -1.3853952f, 1.4087354f,  0.3866464f,  0.8762964f, 1.7544678f,
       -0.1287852f, -0.2767915f, -0.4767685f, -2.6860318f, 0.2564785f,  -0.1539641f, 0.0683424f, 0.1076439f,
       -0.6826800f, 0.3593696f,  -1.1653951f, -0.2860646f, 0.2278597f,  0.2767272f,  0.1589351f, 0.0410240f},
      {0.0431587f,  0.5925358f,  0.1700096f,  0.2031879f, -0.7805565f, -0.4230276f, 0.5110524f, 0.3199735f,
       -0.6858525f, 0.1761046f,  0.0087416f,  0.0752131f, 1.3232435f,  0.2360959f,  0.7288024f, -1.0063354f,
       -0.1618958f, -0.2383711f, -0.5573990f, 0.7248178f, 0.2257943f,  -0.4458442f, 0.0809389f, 0.0008021f,
       -0.8257915f, 0.5305744f,  0.4430980f,  0.0769229f, -0.2212813f, 0.3714842f,  0.1459280f, 0.6987366f},
      {-0.0966365f, 1.0611722f,  0.0570559f,  -0.1944169f, -0.3095802f, -0.1731996f, -3.4802313f, 0.1169981f,
       0.0433798f,  0.1046083f,  -0.0208988f, 0.0604703f,  -0.1117251f, 0.4361076f,  -0.1228287f, -0.2468767f,
       0.2187249f,  -1.6110301f, 0.2901043f,  0.1960680f,  -0.1136484f, 0.0229580f,  -6.4930196f, -0.0701412f,
       -0.0767765f, 0.0113613f,  0.3542680f,  0.8705057f,  -3.1501493f, -0.0657027f, 0.2061466f,  -0.0127949f},
      {-0.0296439f, -1.0430099f, -0.1160328f, -0.0224867f, 0.3533216f,  0.1165212f,  1.2139881f,  0.0424767f,
       0.0742864f,  -0.0283057f, -0.0702593f, 0.0022061f,  -0.1021702f, 0.0501716f,  0.0041351f,  0.6433147f,
       0.0407278f,  0.4039508f,  -0.1414431f, -0.8971624f, 0.8242889f,  0.2638992f,  1.4457268f,  0.0119247f,
       0.0555151f,  -0.0270020f, -1.0547824f, -0.4324000f, 1.9727895f,  -0.0427648f, -0.0103290f, 0.0171298f},
      {0.0508207f,  0.4065971f,  -0.0578575f, -0.2154612f, 0.0416723f,  -0.0866606f, 1.1479754f,  0.1052566f,
       -0.0602899f, -0.1659605f, -0.0463090f, 0.0824514f,  -0.2496315f, -0.5424130f, -0.3054545f, -0.4270930f,
       0.0312567f,  0.3011069f,  -0.2354465f, 0.4712936f,  -0.5291655f, -0.1362541f, 1.7003444f,  -0.0634239f,
       -0.1602949f, 0.1841628f,  0.4820525f,  -0.1449985f, -0.1291341f, -0.0448146f, -0.1958436f, -0.2925346f},
  };

  HOST_DEVICE_CONSTANT float bias_layer2[32] = {
      -0.2665981f, 0.1999722f,  -0.3300676f, 0.2248997f,  3.6774189f, -0.9103141f, 0.5755717f,  0.6110943f,
      2.7390676f,  1.5744783f,  0.9441506f,  -1.7794498f, 2.0651386f, 1.8022360f,  0.2655541f,  -3.0757117f,
      -0.6639625f, 0.2809243f,  -0.4723799f, -0.7378275f, 1.3043866f, -0.0542047f, -1.0571853f, 2.8679948f,
      1.3063794f,  -0.2350563f, 3.4271903f,  0.1699657f,  1.9415541f, 0.2490620f,  0.6704777f,  0.4519255f};

  HOST_DEVICE_CONSTANT float wgtT_layer2[32][32] = {
      {0.1698893f,  -0.0419353f, -0.1264296f, 0.1072342f,  -0.0279448f, -0.0751434f, -0.0309073f, -0.0040732f,
       0.1120649f,  -0.0525786f, 0.0479201f,  0.1199855f,  -0.0868729f, 0.1452109f,  0.0710101f,  -0.0676377f,
       -0.1019924f, -0.0860419f, 0.1309247f,  -0.1602422f, -0.1391343f, -0.0581159f, -0.1589784f, -0.0539017f,
       0.0801249f,  -0.0752311f, -0.0588562f, 0.0473561f,  0.1711824f,  -0.0567119f, 0.1063696f,  0.1211799f},
      {-0.1009142f, 0.3392699f,  0.7974562f,  -1.4138097f, -0.5412010f, -0.1159790f, -1.0163502f, 0.8006904f,
       -0.4316952f, -1.1613249f, 1.0703253f,  0.9926562f,  -0.4023315f, -1.2329488f, 1.1015415f,  0.6890255f,
       -0.0893414f, 0.1210069f,  0.0395152f,  -0.7008156f, -0.0256613f, 0.4425063f,  -1.0392177f, -0.7830964f,
       -0.6402859f, -0.0117275f, -0.7377149f, 1.4895900f,  -0.5450168f, -0.3809358f, -0.7158323f, -0.3499627f},
      {-0.2226246f, -0.8722923f, -2.9125841f, 1.2372829f,  0.6906391f,  -3.0658901f, 1.4756169f,  -2.5968127f,
       -1.9564521f, -2.8073034f, 2.6152179f,  -0.8067950f, -3.9765980f, -2.3434134f, 0.4066633f,  6.1862974f,
       3.3025367f,  -4.2705197f, -3.0604205f, -0.6410317f, -3.9560041f, -3.7572193f, -0.9133702f, -0.9334314f,
       -1.4340174f, -0.1048913f, 0.2759224f,  -0.6058308f, -4.9353814f, 3.0743120f,  -4.9053369f, 3.5930467f},
      {-0.1647372f, -0.7442686f, 0.9645820f,  -4.9681387f, -2.2087221f, -1.0340860f, -1.6352608f, 4.2681189f,
       -3.0685656f, 1.4920923f,  -2.9229064f, -0.5237562f, 3.3962209f,  -1.2688555f, -1.7457489f, -0.5530114f,
       -1.7203534f, 5.9461761f,  -0.8905747f, 1.3117014f,  3.3432908f,  4.4216390f,  -0.0303771f, -3.1002159f,
       3.8979459f,  0.0475666f,  0.3484307f,  2.4823530f,  -0.6876996f, -3.4902744f, 4.5230093f,  -0.8647709f},
      {-0.1673390f, -0.9509084f, -0.7534333f, 0.9584132f,  -0.1797810f, 0.8248809f,  -1.7945304f, -1.3160090f,
       -3.2700455f, 0.8035016f,  1.8358661f,  -1.3484806f, -0.2786082f, -0.5000154f, 3.4407618f,  0.3403768f,
       0.2392221f,  -0.3917423f, -0.2885975f, -0.0084062f, -0.4012437f, -0.1290270f, 0.7343631f,  -0.4225259f,
       -0.6453563f, 0.0208250f,  -4.2908635f, -1.0512629f, -0.9260924f, 0.4703328f,  -1.0231615f, -0.2860230f},
      {-0.1291810f, -0.3032541f, -0.8415136f, 1.1980178f,  0.3408757f,  -0.3050476f, 0.5336172f,  0.3599077f,
       0.1782157f,  0.5132358f,  0.5452672f,  0.4997251f,  0.0553624f,  -0.5342981f, 2.0823913f,  0.1516136f,
       0.3868043f,  -0.9665202f, 0.6671250f,  0.0371069f,  0.1550317f,  -0.2642687f, 0.1175018f,  0.0720291f,
       -1.1540179f, -0.0119225f, -1.2950547f, -1.0538747f, -0.3081134f, 0.7247969f,  -0.5077394f, 1.7017225f},
      {-0.2560305f, 2.3478096f,  -1.0397532f, -3.3888130f, -1.0385629f, 2.1446192f,  2.4803820f,  0.7473270f,
       -2.4151261f, 0.2580996f,  -0.7999072f, 2.9189973f,  -0.1345839f, -0.0287147f, 0.8278794f,  0.8912739f,
       0.0524562f,  0.7911442f,  1.0384190f,  -1.7754283f, -0.0402558f, -1.3378835f, -0.6641800f, 0.6939206f,
       1.0309680f,  -0.0277786f, -3.0530660f, 2.0467792f,  0.6008877f,  0.6804577f,  0.9985575f,  0.1014568f},
      {-0.1312668f, -0.9431965f, -0.6607118f, 2.3836122f,  1.3791935f,  -2.0554950f, -1.3734860f, -2.4174509f,
       -2.1109872f, -2.3585305f, 1.2608044f,  -1.5645339f, -3.6980808f, 0.8676778f,  -0.6110946f, 0.5246326f,
       2.4099412f,  -4.7525716f, -0.1643643f, 0.7933418f,  -3.9944465f, -2.3325772f, -0.5953793f, 1.7291203f,
       -2.9370782f, -0.0794961f, -2.2432866f, -1.0410100f, -1.2578487f, 3.4479094f,  -4.0841832f, -1.4665532f},
      {-0.0072293f, 0.9655755f,  -1.1081165f, 2.4911671f,  2.0643380f,  -1.1795233f, 0.1786950f,  -0.1675880f,
       0.5947693f,  1.2668580f,  1.7716763f,  0.7693610f,  -0.6680118f, 3.5148628f,  2.7528181f,  -3.1542501f,
       0.5935519f,  -0.7708614f, 3.0930474f,  -0.7212541f, -0.6145074f, 0.0598747f,  -0.4686116f, 4.1080480f,
       -2.3559272f, 0.0102180f,  0.2739263f,  0.6437748f,  2.5205586f,  2.3017006f,  -0.8819438f, 0.5537532f},
      {-0.1729766f, -2.7819989f, -0.8386067f, -2.2702568f, -3.1858380f, -0.2908633f, 1.7431142f,  0.1332871f,
       -1.4157106f, -1.2899666f, -0.2907469f, -1.7697321f, 0.1934099f,  -5.4156055f, -0.4942041f, 4.7198949f,
       -0.0243430f, -0.2791314f, -5.1670895f, 0.3924768f,  -0.0304097f, 0.3741879f,  0.5371320f,  -6.3239756f,
       2.5351644f,  -0.2254777f, 0.0479807f,  -0.7458921f, -4.4006133f, -2.6909025f, 0.0557660f,  -1.4716613f},
      {-0.0711171f, -2.2346866f, -0.4719699f, -1.6227483f, -1.4225609f, 0.8876023f,  1.1273674f,  0.2197496f,
       -2.2114131f, -0.3650025f, -0.1499252f, -0.0582571f, 0.3616129f,  -2.7112255f, -0.1119463f, 2.4881299f,
       0.0572297f,  0.4213849f,  -2.4435580f, -0.1178670f, 0.5988666f,  -0.6118200f, 1.3358037f,  -2.9669557f,
       1.1375566f,  -0.1655760f, -0.2683704f, -0.8152698f, -2.1327984f, -0.8392003f, 0.3305558f,  2.9857388f},
      {-0.1349005f,  -1.7027855f, 4.7265668f,   0.3263599f,  -14.6237803f, -0.5900049f, -8.9919415f, 1.4827754f,
       -2.3985000f,  5.6711788f,  -17.4775982f, -0.3200755f, -0.9563177f,  -0.8096901f, -0.9709470f, -0.2638637f,
       -23.4901047f, -1.3671465f, -1.8080418f,  -1.6012431f, -0.3954495f,  -6.3651829f, -0.4348143f, 0.1778937f,
       6.0939059f,   -0.2099559f, 0.3170269f,   -1.5365584f, -1.0565258f,  -0.9012736f, 1.1497623f,  -0.7708547f},
      {-0.1832981f, -0.5338012f, 0.3031929f,  -3.1759634f, -4.1275582f, 3.4227369f,  -3.9601331f, -1.1283696f,
       -3.2578928f, -2.0727804f, 0.5046695f,  -0.0122369f, 0.4717230f,  0.3459077f,  2.7097826f,  -0.2771452f,
       0.1053539f,  0.4181458f,  -0.2694428f, 0.6301687f,  -0.2026651f, 0.6705540f,  0.1222289f,  0.3077276f,
       -0.1782857f, -0.0906260f, 2.9423687f,  -1.7608107f, -0.2472929f, -0.6925316f, 0.4196294f,  2.3604329f},
      {0.0131049f,  1.9845208f,  0.3207183f, 1.7400985f,  -0.0243781f, -1.0692432f, 0.8997976f,  0.8260413f,
       2.0628138f,  0.1245490f,  1.3635346f, 0.6588535f,  -0.4820902f, -0.4305080f, 1.1146580f,  1.2078786f,
       0.4845802f,  -3.5470819f, 0.7997546f, 0.0636710f,  -0.0307657f, -0.3897077f, -1.8058397f, 0.3615307f,
       -1.5583112f, 0.0331179f,  3.0097482f, -2.0717766f, 0.8438391f,  0.2429515f,  -0.4289523f, 1.2653317f},
      {0.0203873f,  -1.5784894f, -2.2312636f, -0.1308160f, -2.4199488f, -1.3175138f, -2.8583229f, 0.4217922f,
       -2.9562304f, -1.2180077f, 0.7309633f,  0.4563769f,  0.4179338f,  0.0308763f,  -1.2967863f, 0.5467148f,
       0.1725260f,  -0.9524900f, 0.1658527f,  -0.3860314f, 0.0823596f,  1.0035049f,  -5.7204480f, -0.4126622f,
       -0.6962153f, -0.2373537f, 0.1099950f,  3.0291488f,  -0.3694474f, 0.2207546f,  -0.0405120f, -0.2926183f},
      {-0.2286674f, 0.2519946f,  0.1973386f,  0.5555763f,  0.4927420f,  1.5688814f,  -0.5234477f, 0.3298258f,
       -1.6644198f, 0.7476703f,  -0.0583095f, 2.1521363f,  -0.1791570f, -0.7909382f, 0.0258045f,  0.4701240f,
       -0.0526927f, -0.0061110f, 1.5129198f,  -0.3456874f, 0.5451079f,  0.9153691f,  1.2472920f,  -0.2979515f,
       -1.2535985f, 0.0284056f,  -0.6873158f, -0.5608450f, -0.5048697f, 0.7560742f,  -0.4262327f, -0.0007282f},
      {-0.1221963f, 1.1617837f,  1.8727016f,  -0.6482799f, 0.2224143f, 1.0539503f,  -1.7739716f, 1.1577182f,
       0.2793657f,  1.4036258f,  -1.5224719f, 0.8327123f,  1.7442799f, 2.7670412f,  -2.6035197f, -4.8412905f,
       -1.6081351f, 1.8883021f,  2.8151269f,  0.0981652f,  1.6165406f, 2.0616524f,  -1.8367183f, 2.3057694f,
       -0.5605195f, -0.0761883f, 0.2920382f,  1.9197804f,  3.9927416f, -0.9036915f, 2.1696572f,  -2.6324947f},
      {-0.0884472f, 1.0518117f,  -0.2738175f, -1.0790555f, -0.1971492f, -1.1336300f, 0.7224579f,  1.3535794f,
       -0.1532009f, 0.1529645f,  -1.0944523f, 2.2152629f,  -0.3105772f, -0.1126349f, -1.4862504f, 0.2437312f,
       -0.2501333f, 0.1126333f,  0.3890981f,  -0.0565369f, -0.0417051f, -0.5223266f, 0.7436045f,  0.2911721f,
       0.5625939f,  -0.0278265f, 0.8740548f,  -0.4827743f, -0.0010861f, 0.0198311f,  0.5735612f,  1.2000573f},
      {-0.0771928f, -0.3155236f, 2.0513697f,  0.2651876f,  -0.7433274f, 1.3523647f,  -1.4995166f, 1.0945394f,
       0.8429442f,  -0.3215841f, -0.3699353f, -0.0805563f, 1.4320749f,  2.0691416f,  -1.4959222f, -2.4286988f,
       -0.6371446f, 1.6785641f,  2.1832552f,  0.8576766f,  1.2516361f,  1.9429606f,  -0.6182548f, 1.0869994f,
       0.9743094f,  -0.1391393f, -0.5348432f, 1.6115791f,  2.3662636f,  -1.0229259f, 1.9578117f,  -1.8100787f},
      {-0.1182114f, -2.3983712f, -0.5184494f, -0.8602419f, 0.1629892f,  -0.5949073f, 1.5264400f,  -0.9988174f,
       1.5958351f,  1.5793672f,  -0.7975977f, -0.8970069f, 0.2422106f,  1.3946078f,  -0.2885811f, -3.4533083f,
       0.1303492f,  -1.6228714f, 0.0478440f,  1.3608247f,  -0.2962694f, -2.0053239f, 2.9352262f,  1.5613945f,
       -0.8919744f, -0.1637139f, 0.5658996f,  3.8149040f,  0.7608467f,  0.6086046f,  -0.3543518f, -2.1517479f},
      {-0.0739613f, 2.9790051f,  3.0087376f,  1.7462111f,  -0.0881967f, -1.0657527f, -0.6235436f, -2.6164119f,
       -0.5738754f, 2.9135108f,  -2.3193803f, 0.8413299f,  0.8049029f,  0.8693593f,  -1.5460758f, 0.2175030f,
       -0.5674568f, -0.4678019f, 1.8893512f,  -1.0974532f, -0.6239370f, 0.9565200f,  1.5093346f,  0.0422359f,
       0.3559341f,  0.0309997f,  -0.8851268f, -0.5247810f, 0.5779706f,  -1.2439431f, -1.6854693f, -0.8420900f},
      {0.0304502f,  -1.5462867f, -0.5110751f, 1.2163237f,  -0.4185000f, -1.9928269f, 0.7482559f,  -2.0365443f,
       -0.1106246f, 0.7302859f,  0.1147607f,  -0.8364190f, -1.8620836f, -1.1485276f, 0.6171562f,  2.2900698f,
       0.4353840f,  -0.9228601f, -1.6052797f, -0.3488340f, -1.7611727f, -1.1325967f, 1.6931094f,  -0.9521132f,
       -0.1230928f, 0.0141454f,  -1.6446919f, -1.4631292f, -1.4742332f, 0.2976571f,  -1.9031445f, 0.4347165f},
      {-0.2006460f, -6.1930637f, 2.5264919f,  -7.4390011f, 1.7435639f,  0.0018854f, 0.5418902f,  2.2262795f,
       2.8801177f,  -1.0146707f, -0.5588322f, -1.1119128f, -1.1858219f, 1.2247303f, -1.2920672f, -0.8835860f,
       0.4448967f,  3.4156315f,  2.8929393f,  -0.5809833f, -1.1254752f, 2.0916662f, 2.7702165f,  1.0486108f,
       -0.1078974f, 0.0019343f,  -6.2007179f, 3.1398573f,  1.3680698f,  1.7162371f, 0.3207716f,  -1.4349875f},
      {-0.0087449f,  4.4117999f,   -4.1544981f,  -0.5559200f, -3.4618642f,  -9.6533279f, 7.5232167f,  -5.5700974f,
       -13.9122553f, -6.5474429f,  4.1859112f,   4.0851583f,  -16.9380798f, -2.8871782f, 5.7250772f,  2.3165910f,
       2.4934618f,   -23.6105347f, -10.0416059f, 1.3315251f,  -20.7595558f, -4.7017970f, -5.9534612f, -2.6169841f,
       -0.4690947f,  -0.1650036f,  0.8280002f,   -1.4143749f, -4.2632914f,  -0.7014590f, -9.8434429f, 2.4312503f},
      {-0.0561056f, -2.4329798f, 1.4106001f,  -0.6564436f, 1.4690992f, 2.2559152f,  -1.4009285f, 2.8820646f,
       -0.6573681f, -0.1025633f, -1.9559580f, 3.3840189f,  1.6121600f, 0.7366027f,  -5.4319258f, -1.1985463f,
       -0.8103930f, 1.9156017f,  1.3752941f,  0.3919024f,  1.2840933f, 1.2240056f,  -3.6474166f, 0.4934394f,
       2.6344905f,  -0.0311576f, -0.7051319f, 2.8852203f,  0.9588451f, -0.2000983f, 2.6928949f,  1.4036171f},
      {-0.1696661f, 1.4913250f,  2.9738648f,  0.4342851f, -0.9341988f, 4.2613034f,  -0.7535335f, 2.1501546f,
       4.5828295f,  2.9980128f,  -0.1832842f, 1.2102953f, 4.2541790f,  2.8283606f,  2.3084540f,  -4.9616766f,
       -3.0225937f, 4.4985394f,  3.9149027f,  0.1827120f, 4.5682387f,  3.2409096f,  -0.7343656f, 1.7142375f,
       1.4096018f,  -0.0512973f, 0.0639623f,  0.6095715f, 4.9234505f,  -2.4269946f, 4.6435275f,  -1.5537838f},
      {0.0264761f,  0.2848267f,  0.0858672f,  -4.2900920f, -0.8991627f, 0.5253764f,  1.1328329f,  3.7954354f,
       -7.8601232f, -7.6198902f, -0.8228675f, -0.6474419f, -0.9235460f, -2.3360150f, 0.1742523f,  -5.4761577f,
       12.0984268f, 0.1445554f,  -0.6212767f, 13.3271914f, -0.4245052f, 4.6126761f,  -1.7652038f, -1.1363248f,
       -0.6029525f, 0.0072182f,  -2.2769020f, -0.6342261f, -2.7195742f, 10.1833725f, -0.2440545f, -3.5944333f},
      {-0.3004552f, 3.3462915f,  2.2185521f,  1.6600721f,  -3.2919567f, 0.1984411f,  -0.0364751f, 0.1335351f,
       -0.3939789f, 1.8988073f,  -1.2874447f, -0.4220769f, -0.5661753f, -0.2386632f, -0.1287469f, -1.6400534f,
       -0.4714176f, -1.4316006f, -1.6048640f, 1.8522601f,  -0.5743471f, -0.1579543f, 1.8896306f,  -0.4833218f,
       -0.2607423f, 0.0119688f,  0.6258261f,  -0.2327565f, 0.5149779f,  -0.2219727f, 0.0235416f,  -1.4898843f},
      {-0.0860852f, -0.6507730f, -1.2087362f, -0.6689653f, -2.1098793f, 0.3666292f, 1.0035958f,  -0.6612062f,
       2.4233367f,  -0.9712309f, -0.0521125f, 1.7518119f,  -1.5439355f, 0.6517130f, 0.2997791f,  -0.8278987f,
       -0.7493232f, 1.6914358f,  -0.4819899f, 0.8902285f,  0.0453913f,  0.5118027f, 0.9946469f,  0.7605975f,
       -1.1455777f, -0.1437505f, -4.9000196f, -0.3668203f, 0.1769589f,  0.4135398f, -0.2067348f, -0.0927030f},
      {0.0228539f,  0.0181673f,  -2.1739860f, 2.0778377f,  -0.0542954f, -1.4287821f, 2.8593850f,  -4.5188236f,
       0.6428409f,  -1.8522530f, 1.4933460f,  -1.1755842f, -4.2952743f, -3.8570218f, 0.7500636f,  5.4325490f,
       2.1468599f,  -5.5723023f, -5.2272449f, -0.4181246f, -4.2357559f, -4.6231198f, 0.9574583f,  -2.6140382f,
       -0.7599940f, -0.1164352f, 0.5635843f,  -3.4100838f, -4.2471046f, 0.9907718f,  -4.7386065f, -0.2851516f},
      {0.1046910f,  -2.5097353f, -0.7959305f, -2.1585507f, -3.3103034f, -0.3049553f, 1.7318351f,  0.4765118f,
       -0.9765342f, -1.1075644f, -0.4361522f, -1.3593186f, 0.3903715f,  -4.9035492f, -0.2842762f, 4.1399183f,
       -0.1229517f, -0.2368911f, -4.5826168f, -0.0684173f, 0.1144353f,  0.1629781f,  0.5069190f,  -5.7467499f,
       2.3254490f,  -0.1545862f, 0.0223425f,  -0.3981775f, -3.9097035f, -2.3506384f, 0.2125559f,  -0.8470278f},
      {-0.0632075f, -2.2041566f, 0.0830421f,  -0.7417822f, 0.1398669f, 2.4252429f, -0.7407418f, 4.3083634f,
       -1.3968816f, 1.5906423f,  -0.9406373f, 0.9938327f,  2.9629316f, 0.5302315f, 1.9501013f,  -2.5905550f,
       -0.7265668f, 0.3517776f,  1.7853487f,  1.4762535f,  2.4895995f, 0.4513010f, 1.8219517f,  0.1128124f,
       -0.0155579f, -0.0722274f, -1.1656156f, 2.0164208f,  0.5495549f, 0.6116441f, 2.8589318f,  -0.3232251f},
  };

  HOST_DEVICE_CONSTANT float bias_output_layer[3] = {0.3579238f, 0.0717726f, -0.3123994f};

  HOST_DEVICE_CONSTANT float wgtT_output_layer[32][3] = {
      {0.0040870f, -0.1162189f, 0.0182212f},  {-0.3191948f, 0.0701047f, -0.1853681f},
      {0.2438728f, -0.1548439f, -0.3409283f}, {0.4175783f, -0.0587456f, -0.1213614f},
      {-0.1060203f, 0.3120402f, 0.2639333f},  {-0.4791454f, 0.1127790f, 0.0825010f},
      {-0.3574313f, 0.1877164f, 0.2306339f},  {-0.4895965f, 0.1196247f, 0.4104563f},
      {-0.2620460f, 0.2867897f, 0.1848656f},  {-0.6343804f, 0.2376517f, 0.1004646f},
      {-0.6288816f, 0.1114586f, 0.0970305f},  {0.2003199f, 0.0137986f, -0.2770316f},
      {-0.3662535f, -0.1614433f, 0.7308149f}, {-0.2313170f, 1.2157351f, -0.3874601f},
      {0.4470110f, -0.2345451f, -0.2663552f}, {0.6816437f, -0.4989020f, -0.0069987f},
      {0.8458796f, -0.2323758f, -0.5522985f}, {-0.5926406f, -0.0811477f, 0.5089841f},
      {1.1654923f, 0.1396099f, 0.5532637f},   {-0.2373243f, -0.2595532f, 0.3059056f},
      {1.0776281f, -0.1485310f, -0.8911971f}, {0.0599889f, 0.3507003f, -0.1595431f},
      {0.2255418f, -0.2582932f, -0.2509159f}, {0.2411335f, -1.2174067f, 0.1207226f},
      {0.2707396f, -0.3614647f, 0.0562154f},  {-0.0038133f, -0.1288541f, 0.0252991f},
      {0.3060530f, -0.0981666f, -0.1417550f}, {0.2969890f, -0.2957039f, -0.3227703f},
      {-0.0500227f, -0.4049605f, 0.5839756f}, {-0.4352107f, 0.4085396f, 0.2108589f},
      {0.3347605f, 0.3304988f, -0.7049338f},  {-0.3444702f, 0.2073401f, 0.1265012f},
  };

}  // namespace ALPAKA_ACCELERATOR_NAMESPACE::lst::dnn::t5dnn

#endif
