#ifndef RecoTracker_LSTCore_src_alpaka_TCNeuralNetworkWeights_h
#define RecoTracker_LSTCore_src_alpaka_TCNeuralNetworkWeights_h

#include <alpaka/alpaka.hpp>

#include "FWCore/Utilities/interface/HostDeviceConstant.h"

namespace ALPAKA_ACCELERATOR_NAMESPACE::lst::dnn::tcdnn {

  HOST_DEVICE_CONSTANT float bias_embedding_net_fc1[32] = {
      -0.1592597f, 1.3901148f,  -0.2864626f, 0.5569167f,  1.4659933f,  -0.3182681f, -0.3270891f, -0.0395410f,
      0.3235991f,  -0.5518234f, -0.3664855f, 0.3632787f,  -0.0099435f, 1.1757790f,  1.2436833f,  -0.2298514f,
      0.6156468f,  1.4185929f,  0.8959826f,  0.1294921f,  1.5789063f,  -0.4180499f, 1.5348278f,  -0.3709917f,
      -0.3147193f, 0.0994179f,  -0.7959788f, -0.2926336f, 0.0582930f,  0.4172851f,  0.7887694f,  0.7106674f};

  HOST_DEVICE_CONSTANT float wgtT_embedding_net_fc1[4][32] = {
      {0.6119475f, 0.6704142f,  0.0018881f,  0.0046212f,  -0.1811109f, -0.4187439f, 0.0228964f,  -0.0148446f,
       0.0329904f, 0.5681444f,  -0.0542566f, -1.3622793f, 0.0006279f,  0.0512112f,  0.0073656f,  0.5241842f,
       0.0579025f, -0.1929854f, -0.4715287f, 0.0565202f,  -0.0761697f, -0.1180833f, -0.3092135f, 0.4652810f,
       0.1513090f, -0.2983030f, 0.7773415f,  -1.0812616f, 0.1364097f,  -1.2238495f, -0.5830676f, 0.2668613f},
      {1.8229671f,  1.4866186f,  -0.1270230f, 0.0283896f,  1.4648721f,  -1.6543639f, 0.3780520f,  0.0111582f,
       0.9152951f,  -0.1067990f, -1.1709098f, -0.8461656f, -1.7246746f, 1.4309027f,  -2.0876989f, -1.4757438f,
       -0.1601614f, 1.4060578f,  1.9130000f,  0.3426448f,  1.7734630f,  -0.1320899f, 1.3485432f,  0.0585707f,
       0.9069676f,  -0.4288238f, -0.1185275f, 0.0964513f,  0.0216683f,  1.0495976f,  -1.2772092f, 2.0412138f},
      {0.0581527f,  -0.0823701f, -0.0652773f, -0.0151327f, 0.0559024f,  -0.1048720f, 1.7445592f,  0.0140663f,
       -1.2461060f, -0.1363443f, 0.9412425f,  -0.0725956f, -0.9592970f, -0.3530226f, -0.0140997f, 0.6420835f,
       -1.4625900f, 0.0538789f,  -0.0236852f, -0.0408019f, -0.1930168f, 0.0121160f,  0.0604865f,  0.0356658f,
       -0.9892126f, -0.0197189f, -0.0081584f, 0.0028671f,  -0.0087257f, 0.0376620f,  -0.0002196f, 0.0622380f},
      {0.0148329f,  -0.0234887f, 0.0858914f,  -0.0006472f, -0.0038113f, 0.0129540f,  0.0037461f,  -0.0078493f,
       0.0047759f,  0.0510180f,  0.0034966f,  -0.0112764f, 0.0051167f,  -0.0077294f, -0.0009514f, -0.0026404f,
       -0.0059397f, 0.0121542f,  -0.0115735f, -0.0274781f, 0.0113734f,  0.2567257f,  0.0342624f,  0.3858477f,
       -0.0049091f, 0.0925190f,  -0.6289099f, -0.4475744f, -0.1471617f, -0.0115232f, 0.0046172f,  0.0042611f},
  };

  HOST_DEVICE_CONSTANT float bias_embedding_net_fc2[16] = {0.4276943f,
                                                           0.6953826f,
                                                           -0.1182092f,
                                                           -0.0703756f,
                                                           0.1640317f,
                                                           0.3842055f,
                                                           0.6146880f,
                                                           0.1678835f,
                                                           -0.0867753f,
                                                           -0.1081190f,
                                                           0.3715307f,
                                                           0.1749907f,
                                                           0.0476355f,
                                                           -0.0852098f,
                                                           0.8171361f,
                                                           -0.1741781f};

  HOST_DEVICE_CONSTANT float wgtT_embedding_net_fc2[32][16] = {
      {0.0124815f,
       0.0245827f,
       -0.0179755f,
       0.6390606f,
       0.1078641f,
       0.6020508f,
       0.7286515f,
       -0.2040567f,
       -0.2096338f,
       0.0575090f,
       0.3423409f,
       0.2504241f,
       0.0627129f,
       0.0162784f,
       -0.1451880f,
       -0.2175561f},
      {0.1013210f,
       0.9995511f,
       -0.0348067f,
       0.9907296f,
       1.0230634f,
       -0.4506705f,
       0.3501140f,
       0.4425397f,
       -0.8696247f,
       -0.1262380f,
       -0.0991387f,
       0.6209120f,
       0.6227343f,
       -0.0490914f,
       0.3696404f,
       -0.1975378f},
      {0.0873410f,
       0.1542421f,
       0.0539814f,
       -0.0926248f,
       0.1699680f,
       -0.1650656f,
       -0.0731225f,
       0.1367001f,
       0.0264213f,
       -0.1567123f,
       0.1685851f,
       0.0786692f,
       -0.1270476f,
       0.0330706f,
       -0.0675159f,
       -0.0204007f},
      {0.1906903f,
       0.0864892f,
       -0.0002885f,
       0.1677181f,
       0.1182508f,
       0.0505822f,
       0.0824832f,
       -0.1843996f,
       -0.0242694f,
       -0.1708453f,
       -0.3401411f,
       0.1778677f,
       -0.3083115f,
       -0.0363776f,
       0.2724877f,
       -0.1817792f},
      {0.8483213f,
       -0.1775135f,
       -0.1738245f,
       0.2357155f,
       -0.0479756f,
       0.0719326f,
       0.7305259f,
       0.4844977f,
       -1.5953878f,
       -0.0506994f,
       0.2248005f,
       0.8487513f,
       -0.2929853f,
       0.0137239f,
       0.1175961f,
       0.1298270f},
      {0.8200622f,
       -0.3994302f,
       0.0068437f,
       -0.5201582f,
       -1.0809416f,
       0.3019044f,
       0.0950528f,
       -0.6356053f,
       0.6507404f,
       -0.1060800f,
       -0.1357384f,
       -0.2216084f,
       -0.8229663f,
       -0.1432224f,
       0.0590563f,
       0.0380018f},
      {-1.2636231f,
       0.7377486f,
       -0.0417104f,
       -0.9747930f,
       0.3473177f,
       0.3996846f,
       -0.9410101f,
       1.3663919f,
       -0.1136758f,
       0.1506550f,
       -0.5679184f,
       1.2663260f,
       -0.8244684f,
       0.1494888f,
       -1.4353907f,
       -0.1386095f},
      {0.0229252f,
       0.0952577f,
       -0.0457036f,
       0.0712929f,
       0.0157405f,
       0.0413780f,
       0.0315902f,
       0.0486561f,
       -0.0013192f,
       0.0528871f,
       -0.1157035f,
       0.0428627f,
       -0.0618851f,
       -0.0533884f,
       0.0252960f,
       0.0305102f},
      {-0.8851283f,
       0.4696277f,
       -0.0170923f,
       -0.5466681f,
       0.2015987f,
       0.3155129f,
       -0.1830547f,
       0.5734940f,
       0.0000922f,
       0.1726372f,
       -0.1499442f,
       0.7215598f,
       -0.4634627f,
       0.1554773f,
       -1.3619256f,
       0.1189700f},
      {0.2591433f,
       -0.5231473f,
       0.0630536f,
       -0.6695591f,
       -0.7299516f,
       -0.1672383f,
       0.1939918f,
       -0.2869198f,
       -0.4397365f,
       -0.1479624f,
       -0.0151002f,
       0.0461456f,
       -0.7795554f,
       0.0046245f,
       0.1902242f,
       0.1338057f},
      {-1.5793803f,
       -0.1395045f,
       -0.0560565f,
       -0.2752745f,
       -0.2374833f,
       0.7674741f,
       -0.5143570f,
       -0.0108239f,
       0.4874901f,
       -0.1369992f,
       -0.4264456f,
       -0.2619047f,
       -0.2871530f,
       0.1113770f,
       -0.4522154f,
       0.0837303f},
      {-0.5922707f,
       0.1893360f,
       -0.0575538f,
       0.5347354f,
       0.5359359f,
       0.2583145f,
       -0.2289217f,
       0.1155885f,
       0.4070112f,
       -0.1060712f,
       -0.2397835f,
       -0.0011414f,
       0.5813496f,
       0.0673346f,
       -0.0708743f,
       0.1041864f},
      {-0.8950485f,
       -0.2797988f,
       -0.0391252f,
       -0.9927006f,
       -0.3643806f,
       1.5287783f,
       -0.5519566f,
       0.3198530f,
       1.0258491f,
       -0.0194640f,
       -0.1721244f,
       -0.1867420f,
       -0.2163458f,
       -0.0547923f,
       -0.8279897f,
       -0.1020634f},
      {0.0236495f,
       -0.3643813f,
       0.0254883f,
       0.3716374f,
       0.4266049f,
       0.2848307f,
       0.5273306f,
       0.2257009f,
       -0.8078502f,
       -0.0907604f,
       0.5008349f,
       0.2980291f,
       0.6519759f,
       -0.1756943f,
       0.4139456f,
       0.0713967f},
      {0.2698458f,
       0.4364448f,
       0.0976304f,
       0.2676032f,
       1.0223455f,
       -1.4414692f,
       3.4118733f,
       1.6515118f,
       0.4175611f,
       -0.0772099f,
       2.9976642f,
       2.5218320f,
       0.2246784f,
       -0.0869368f,
       0.7911951f,
       -0.0734278f},
      {0.0555977f,
       -0.4271978f,
       -0.0109293f,
       -0.0509728f,
       -0.9897183f,
       1.0286809f,
       0.1300928f,
       -0.0929539f,
       0.5010680f,
       0.1318669f,
       0.3601961f,
       -0.2680039f,
       -0.3285983f,
       -0.1383763f,
       -0.0387945f,
       -0.0491459f},
      {-0.5140832f,
       0.1231891f,
       -0.0521270f,
       -0.1452646f,
       0.0061197f,
       0.6701826f,
       -0.3645287f,
       0.2463271f,
       -0.0784392f,
       0.1394698f,
       -0.4837466f,
       0.2293014f,
       -0.3466611f,
       -0.1804689f,
       -2.5073800f,
       0.1206184f},
      {0.5752792f,
       -0.4186842f,
       0.0294027f,
       -0.0240925f,
       -0.2177431f,
       0.0851220f,
       0.7783865f,
       0.2794844f,
       -1.1717644f,
       -0.0639607f,
       0.0654061f,
       0.6494142f,
       -0.2719549f,
       -0.0912017f,
       0.3239020f,
       0.0038718f},
      {-0.4374591f,
       0.4203357f,
       -0.0402308f,
       0.9073741f,
       1.0693125f,
       -0.3747261f,
       -0.0087071f,
       0.4096626f,
       -0.0831506f,
       0.1077912f,
       0.7561166f,
       0.2584839f,
       0.9818636f,
       -0.1850079f,
       -0.2188241f,
       -0.0020344f},
      {0.1995781f,
       0.2254184f,
       -0.1520689f,
       -0.0424976f,
       0.2889152f,
       -0.0661834f,
       -0.0387124f,
       0.0701165f,
       0.1757057f,
       0.0936396f,
       -0.1825514f,
       0.0142750f,
       -0.3042716f,
       -0.0007545f,
       0.0817493f,
       0.0387576f},
      {0.7374863f,
       -0.1015999f,
       -0.1128042f,
       -0.0494593f,
       0.2063420f,
       -0.0108769f,
       0.7852823f,
       0.8618476f,
       -1.7092967f,
       -0.0753741f,
       0.6154066f,
       1.2500628f,
       -0.2387210f,
       0.0815837f,
       0.2117869f,
       -0.1744069f},
      {-0.0522234f,
       0.0072253f,
       0.1369278f,
       -0.1175017f,
       -0.0503789f,
       -0.1366905f,
       -0.1577324f,
       0.1741176f,
       0.0592930f,
       -0.1476183f,
       -0.0331187f,
       0.0341684f,
       0.1345274f,
       -0.1250084f,
       -0.1360684f,
       0.0459090f},
      {0.5951204f,
       -0.0454260f,
       0.1106148f,
       -0.1496300f,
       -0.3006222f,
       0.0189459f,
       0.6677293f,
       0.0899288f,
       -0.7476861f,
       0.0495772f,
       0.1101292f,
       0.6442526f,
       -0.2964950f,
       -0.0751697f,
       0.4008276f,
       -0.0694502f},
      {-0.3134624f,
       -0.0206733f,
       -0.1567651f,
       0.1680653f,
       0.3034968f,
       0.0830691f,
       0.0084764f,
       -0.0614527f,
       0.2289852f,
       0.0300164f,
       -0.0079041f,
       -0.0972086f,
       0.2671182f,
       0.1100892f,
       -0.0405575f,
       -0.0379236f},
      {0.1867551f,
       -0.0263523f,
       -0.0959406f,
       -0.6050447f,
       0.1076977f,
       0.5955933f,
       -0.5731183f,
       0.5347464f,
       -0.1197643f,
       -0.0866853f,
       0.2244704f,
       0.0415400f,
       0.0642758f,
       0.0987064f,
       0.3875020f,
       -0.1820256f},
      {-0.2228107f,
       0.1576535f,
       -0.1215642f,
       0.1483831f,
       0.2098162f,
       -0.0755228f,
       -0.0434418f,
       0.0037733f,
       0.2077703f,
       -0.1516777f,
       -0.0564249f,
       -0.0505136f,
       0.4161962f,
       0.0547614f,
       -0.0711806f,
       -0.1648005f},
      {-0.1619026f,
       -0.0778984f,
       0.0428286f,
       0.3605484f,
       0.1296373f,
       0.0438648f,
       -0.2216434f,
       -0.0540674f,
       -0.4678426f,
       0.1499474f,
       -0.1125766f,
       0.0412271f,
       0.1746692f,
       -0.1638009f,
       0.0242850f,
       -0.1355600f},
      {0.3695956f,
       -0.1322545f,
       -0.0670666f,
       -0.2634587f,
       -0.0610109f,
       -0.0926210f,
       0.1284374f,
       -0.0225610f,
       -0.0292965f,
       -0.1834321f,
       -0.3079222f,
       0.0038829f,
       -0.2157622f,
       0.1060436f,
       0.0986422f,
       -0.1823401f},
      {-0.0795198f,
       -0.1944631f,
       0.0359716f,
       -0.1876041f,
       -0.2711799f,
       0.1132290f,
       0.1988209f,
       -0.0448002f,
       -0.0111867f,
       0.1305129f,
       0.1928915f,
       0.0153977f,
       -0.1270028f,
       -0.1550872f,
       0.0079110f,
       0.0793400f},
      {-0.3101027f,
       0.3138302f,
       0.0016378f,
       0.6620509f,
       0.5524194f,
       0.7001376f,
       0.1443748f,
       -0.0933785f,
       0.6508594f,
       0.1600843f,
       -0.2691356f,
       0.3174636f,
       0.2754810f,
       0.0713797f,
       -0.2243688f,
       -0.0825134f},
      {-0.3898307f,
       0.6233495f,
       -0.0752489f,
       0.6513854f,
       1.2034822f,
       0.0812397f,
       -0.2190448f,
       -0.0444595f,
       0.2538855f,
       0.0977385f,
       -0.1338994f,
       -0.0093697f,
       1.1195313f,
       0.0364213f,
       0.0128322f,
       0.0318168f},
      {0.5854693f,
       -0.2985214f,
       0.0813764f,
       -1.0765048f,
       0.2147738f,
       -0.2404977f,
       0.2561625f,
       0.5667896f,
       -0.1966159f,
       -0.1495204f,
       0.6535000f,
       0.5266008f,
       0.2711460f,
       0.0593908f,
       -0.3342583f,
       0.0134307f},
  };

  HOST_DEVICE_CONSTANT float bias_embedding_net_fc3[4] = {0.1538794f, -0.0995808f, 0.0275277f, -0.2316364f};

  HOST_DEVICE_CONSTANT float wgtT_embedding_net_fc3[16][4] = {
      {0.7820123f, -0.4159381f, -0.0689682f, 0.3892795f},
      {-0.0071848f, 0.0078475f, 0.0007757f, -0.0065365f},
      {-0.2260089f, -0.0406402f, -0.1933988f, -0.0239362f},
      {-0.0775734f, -0.7431772f, -0.2536609f, -0.3155348f},
      {-0.1776288f, -0.0946765f, -0.1311055f, -0.6212429f},
      {0.3191533f, 0.1199386f, 0.9239718f, 0.2189457f},
      {0.6452366f, -0.1401607f, -0.9657089f, -0.0372669f},
      {0.0524732f, 0.5886429f, -0.1785226f, -0.4111300f},
      {0.9841651f, 0.6118211f, -0.6149706f, 1.5363543f},
      {0.1494592f, -0.0548409f, 0.0172836f, 0.0500639f},
      {0.6695403f, 0.0141290f, -0.2312637f, -0.1470640f},
      {0.0242300f, 0.7378886f, -0.9912155f, -0.5072895f},
      {0.0737510f, -0.3793731f, 0.0755784f, -0.4782300f},
      {0.1935525f, 0.0263893f, -0.1330251f, -0.0629031f},
      {0.4145721f, 0.8290008f, 1.0592806f, -0.6042928f},
      {0.1116320f, -0.0862906f, 0.1697993f, -0.0698938f},
  };

}  // namespace ALPAKA_ACCELERATOR_NAMESPACE::lst::dnn::tcdnn

#endif
